கணக்கீட்டுக் ගණන් 0.0540541
கணக்கீட்டுக் ගණක 0.2000000
கட்டுவேலைக் අධිකාරි 0.0074074
கட்டுவேலைக் පාඨශාලා 0.0526316
கட்டுவேலைக் වැඩ 0.0597015
வீட்டுப்பணிப் ගෘහකර්ම 1.0000000
பொறியியக்க ලී 0.1111111
நீக்க NULL 0.0002830
(பாலம்) (පාලම්) 1.0000000
செல்லல்) NULL 0.0002830
அனர்த்த NULL 0.0008489
அனர்த்த ආපදා 0.1666667
அறிக்கையாளர் වාර්තාකරු 0.5000000
கம்பனி සේවා 0.0101010
கம்பனி කණ්ඩායම 0.0909091
கம்பனி නාවික 0.0322581
கம்பனி සමාගම, 1.0000000
கம்பனி NULL 0.0011319
கம்பனி සමාගම 0.1333333
திட்டம் තෙල් 0.0833333
திட்டம் ව්‍යාපාරය 0.0833333
திட்டம் කාණු 0.5000000
திட்டம் ජනපද 0.1428571
திட்டம் සඳහා 0.0833333
திட்டம் වෘද්ධි 1.0000000
திட்டம் සැපයීමමේ 1.0000000
திட்டம் යෝජනා 0.2413793
திட்டம் ක්‍රමය 0.1142857
திட்டம் NULL 0.0036786
திட்டம் ‍පොල් 0.5000000
திட்டம் පර්යේෂණ 0.0232558
மலகூட, වැසිකිලි 1.0000000
மலகூட, කසළ 0.1428571
வான்செலவுப் ගුවන් 0.0196078
குடிசைக் වැඩපළ 1.0000000
குடிசைக் කර්මාන්ත 0.0168067
குடிசைக் සංවර්ධන 0.0106383
குடிசைக் කොමසාරිස් 0.0075188
குடிசைக் NULL 0.0002830
குடிசைக் ගෘහකර්මාන්ත 1.0000000
குடிசைக் ගෘහ 0.1578947
சட்டரிஞர் නිතී 1.0000000
பௌதிக, බෞතික 1.0000000
ஏற்றுமதித் අපනයන 0.0526316
ஏற்றுமதித் දෙපාර්තමෙන්තුව 0.0116279
பதிவேட்டாளர் සටහන්කරු 0.0909091
வர்த்தகக் වාණිජ 0.0833333
வர்த்தகக் ශාඛාව 0.0128205
மதியுரைஞர் උපදේශක; 1.0000000
மதியுரைஞர் NULL 0.0002830
மதியுரைஞர் උපදේශක 0.0625000
மதியுரைஞர் උපදේශන 0.2500000
ஐசோ.சகுடியரசில் සමාජවාදී 1.0000000
கூறுகள் අංශය 0.0076923
பொறிச்சாதனக் යන්ත්‍ර 0.0294118
பொறிச்சாதனக் යෝජක 0.5000000
ஒய்வூதிய අරමුදලේ 0.3333333
புறத்துறை බාහිර 0.0769231
ஏமத் ආරක්ෂක 0.0256410
ஏமத் දෙපාර්තමෙන්තුව 0.0116279
கல்லச்சுவேலை ලිතෝ 0.2857143
தையல்வேலை මැහුම් 0.0833333
சுருளகம் චිත්‍රපටි 0.0769231
அதிகாரம் නිලධාරි 0.0028986
அதிகாரம் පාලන 0.0166667
பெரும்பாரப் බර 0.2500000
கட்டளை බඩු 0.0571429
கட்டளை නියෝග 1.0000000
கட்டளை (විදේශ) 0.5000000
கட்டளை නිෂ්පාදන 0.0303030
கட்டளை ගෙන්වන 0.3333333
கட்டளை (දේශීය) 0.5000000
தலைமைச் සිග්නල්කරු 0.5000000
தலைமைச் රේගු 0.0526316
தலைமைச் සහකාර 0.0025000
தலைமைச் ප්‍රධාන 0.0312500
நிலையக் උප 0.0175439
நிலையக் (දුම්රිය) 1.0000000
அமைப்புப் භාරකරු 0.0227273
அமைப்புப் කඩදාසි 0.2000000
அமைப்புப் පිඹුරු 0.3333333
விசாரணையாளர் විචාරක 1.0000000
அசத்திக்கமிலத் ඇසිටික් 1.0000000
அசத்திக்கமிலத் ඇසිට් 1.0000000
நாகொட නාගොඩ 1.0000000
வர்த்தகசேவை (වාණිජ 0.5000000
பெதுறு තුඩුව 1.0000000
ஆதரவுகோருநர் කැන්වසර් 1.0000000
தலைமைத்தொழிலாளி ප්‍රධාන 0.0062500
கட்டமைப்பு සහ 0.0036101
கட்டமைப்பு ගොඩනැංවීම් 1.0000000
பொன்முலாமிடுநர் රත්රන් 1.0000000
மருந்துப்பொருட் ඖෂධ 0.0769231
பண்டசாலைப் බැරැක්ක 0.3333333
பண்டசாலைப் බඩුගබඩා 0.5000000
பண்டசாலைப் ගබඩා 0.0641026
பண்டசாலைப் දුම්රිය 0.0555556
சாயவேலை සහ 0.0036101
சாயவேலை සායම්කිරීම 1.0000000
நீதி අධිකරණ 0.2272727
நீதி අධිකරණය 0.3333333
நீதி රෙජිස්‌ත්‍රාත් 0.2500000
லொறி ලොරි 0.5000000
தடுப்புக்காவல் නිවර්තන 0.5000000
வான்படைத் ගුවන් 0.0196078
உடைமை ඇස්කීසි 0.3333333
பதுறலிய බදුරලිය 1.0000000
சோதனைகாரர்சிறப்புத் විශේෂ 0.0256410
தச்சுவேலை fපොර්මන් 0.0192308
தச்சுவேலை වඩු 0.0714286
தச்சுவேலை වඩුබාස් 1.0000000
கூட்டுத்தாபணம் සංස්‌ථාව 0.0769231
மட்டமாக்கி, බුල්ඩෝසර් 0.5000000
தென்னைச் පොල් 0.1000000
பொதுத் ආයතන 0.0588235
பொதுத் පොදු 0.1538462
சனசமூகத்தானம் NULL 0.0002830
கொழும்புப் කොළඹ 0.0400000
(கொழும்புத்துறை) (කොළඹ 1.0000000
மருந்து ඖෂධ 0.1538462
மீட்பு NULL 0.0002830
கெக்கிராவ ලේකම් 0.0039062
கெக்கிராவ කාර්යාලය 0.0034602
கெக்கிராவ කැකිරාව 1.0000000
கெக்கிராவ ප්‍රාදේශීය 0.0047170
சக்திக்கூடம் බලාගාර 0.2500000
சக்திக்கூடம் අධිකාරි 0.0074074
படைப் හමුදා 0.0303030
படைப் අංශය 0.0076923
பீரங்கிப்படை ගගන 0.5000000
இறக்குமதி,ஏற்றுமதிப் ආනයන 0.0909091
இறக்குமதி,ஏற்றுமதிப் අපනයන 0.0526316
குதிரைக் පුහුණු 0.0227273
குதிரைக் කරන්නා 0.0322581
குதிரைக் අසුන් 1.0000000
சமையறை, මුලුතැන්ගේ 0.2500000
வசதித்திட்டம் NULL 0.0002830
பிரசவ, මාතෘදාරකාභිවෘධි 1.0000000
வேலையாளர் NULL 0.0008489
வேலையாளர் කම්කරු 0.0357143
வேலையாளர் සංගමය 0.0303030
வேலையாளர் කර්මාන්තකරුවන්ගේ 1.0000000
வேலையாளர் කමිකරු 0.5000000
வேலையாளர் කර්මාන්ත 0.0084034
வேலையாளர் සමිතිය 0.0454545
படிவம் පෝරම 0.5000000
மருந்துவச் වෛද්‍ය 0.0080645
மண்டபச் පෝටර්; 0.5000000
மண்டபச் ශාලා 0.0769231
திஸ்ஸமஹாராம තිස්‌සමහාරාම 1.0000000
வண்டிச்சேவை, වාහන 0.2500000
முன்னோடிப் නියමු 0.0769231
(சுங்கம்) (රේගු) 1.0000000
நலம்பேண் සාත්තු 0.2500000
நலம்பேண் සහෝදරිය 1.0000000
நலம்பேண் කිරිමව් 1.0000000
நலம்பேண் සාත්තුකාර 1.0000000
நலம்பேண் සේවිකා 0.0714286
அச்சகம் NULL 0.0005659
அச்சகம் මුද්‍රණාලය 0.4000000
நாடோடிகள் අයාල 0.5000000
தேசப்படக் ලිතෝ 0.1428571
.கமத்தொழிற் කෘෂිකර්ම 0.0208333
நலனோம்பல் ; 0.0048077
ஆயுர்வேத ආයුර්වේද 0.7500000
ஆயுர்வேத ආයුර්වෙද 1.0000000
ஆயுர்வேத රෝහල 0.1666667
ஆயுர்வேத - 0.0833333
ஆயுர்வேத ශික්‌ෂණ 0.5000000
அச்சுக்கோப்பு වර්ණ 0.3333333
சாயந்தோய்ப்பவர் සායම් 0.3333333
தடுப்புமருந்துத் ආරක්ෂක 0.0256410
சாலை මහාමාර්ග 0.2000000
சாலை ඩිපෝ 0.2500000
சாலை සැල 0.5000000
சாலை ඩිපෝව 0.2857143
சாலை ද්‍රව්‍ය 0.0285714
சாலை බඩු 0.0285714
சாலை ඕවසියර් 0.0555556
சாலை ගබඩාව 0.0175439
சாலை NULL 0.0019808
சாலை ශාඛාව 0.0128205
சாலை මාර්ග 0.0666667
நீக்கற் නිෂ්කාශන 1.0000000
(தொழினுட்பம்) NULL 0.0005659
வருமானவரி, ආදායම් 0.0952381
குடியேற்ற ජනපද 0.1428571
ஒதுக்கிடம் සුරක්ෂිත 1.0000000
சுற்றுத் සංචාරක 0.0416667
நிலக்கரியேற்றும் රට 0.2000000
கண்காணிப்புக் මුහුදු 0.1666667
கண்காணிப்புக் අධිකාර 0.1666667
கனிப்பொருளியல் ඛනිජ 0.1250000
கனிப்பொருளியல் දෙපාර්තමෙන්තුව 0.0116279
கனிப்பொருளியல் විද්‍යා 0.0112360
வெல்லவாய වැල්ලවාය 1.0000000
அளவைச் සමීක්ෂණ 0.1111111
சிலாபம் හලාවත 1.0000000
பித்தளை ප්ත්තල 1.0000000
பித்தளை පිත්කල 1.0000000
பொதி කන්තෝරුව 0.1250000
பொதி පාර්සල් 0.5000000
.களத் කෙෂ්ත්‍ර 0.0357143
மனைக் මුරකරු 0.0384615
பண்டசாலைத் ගබඩා 0.0384615
பண்டசாலைத் දෙපාර්තමේන්තු 0.1111111
பண்டசாலைத் බඩු 0.0571429
பரீட்சைகள் විභාග 0.2857143
சுமையாள், සේවක 0.0086207
உப்பு ලුණු 0.3000000
வைத்தியச் දෂ්ඨ 0.5000000
கூலிச் පඩි 0.0769231
கூலிச் වැටුප් 0.0555556
கட்டுவேலைச் වැඩ 0.0447761
கட்டுவேலைச் රියැදුරු 0.0285714
கட்டுவேலைச் ගොඩනැගිලි 0.0384615
கட்டுவேலைச் සේවක 0.0086207
கட்டுவேலைச் සහ 0.0036101
பரிவர்த்தனை NULL 0.0002830
மாகாணக் ප්‍රාදේශික 0.1666667
அமைப்புகள் NULL 0.0002830
பொதுக்கடன் ජාතික 0.0128205
ஓய்வூதியக் විශ්‍රාම 0.1333333
கயிறு, සහ 0.0036101
கயிறு, ලනු 0.2000000
சொல்லாக்கக் සම්පාදක 0.0625000
சொல்லாக்கக் ශබ්ද 0.2000000
மாத்தளை මාතලේ 0.5000000
தந்தி සහ 0.0036101
தந்தி කාර්යාලය 0.0034602
தந்தி විදුලි 0.0238095
தந்தி පණිවුඩ 0.1000000
முதலீட்டு ආයෝජන 0.2500000
அச்சிடும் මුද්‍රණ 0.1250000
பாண்சுடுநர் NULL 0.0002830
குடிவருநர் ආගමනික 1.0000000
வேலையாட்கள் සංගමය 0.0303030
வேலையாட்கள் කම්කරු 0.0089286
வேலையாட்கள் ලංකා 0.0049751
பற்றீரியவியலர் ශාකාණුවිද්‍යාඥ 1.0000000
திருப்பற் ෂන්ටර් 1.0000000
தூதரகம் ජපන් 0.5000000
தூதரகம் දකුණු 0.2500000
தூதரகம் අප්‍රිකා 1.0000000
தூதரகம் NULL 0.0005659
பணிப்பாளர்(கயரோகம்) අධ්‍යක්ෂ 0.0067114
கைப்பணியாளர் ශිල්පී 0.1000000
சாலையாள் කාමරයේ 0.2000000
தேவைக்குதவுநர் සරණ 1.0000000
தேவைக்குதவுநர் අසරණ 1.0000000
தலைமையக මූලස්ථානයේ 1.0000000
தலைமையக කාර්යාලයීය 0.5000000
தலைமையக පිළිබඳ 0.0123457
தலைமையக කාර්යාලය 0.0034602
தலைமையக කාර්යාලයේ 0.2500000
தலைமையக මූලස්ථාන 0.2222222
பருவ ශ්‍රේෂ්ඨාධිකරණ 0.3333333
எந்திரம் ඇන්ජිම 0.3333333
கற்குநிலைப் ශිෂ්‍ය 0.0526316
கணக்காளர் සහකාර 0.0025000
கணக்காளர் ගණකාධිකාරි 0.4444444
கணக்காளர் ගණකාධිකාරී 0.3333333
கணக்காளர் නියෝජ්‍ය 0.0094340
கணக்காளர் ප්‍රධාන 0.0062500
கணக்காளர் පිරිවැය 0.3333333
கணக்காளர் කාර්යාලය 0.0034602
கணக்காளர் මණ්ඩල 0.0909091
கணக்காளர் NULL 0.0016978
கணக்காளர் දෙපාර්තමේන්තුව 0.0048309
பதவியணி සේවක 0.0086207
பதவியணி සැපයුම් 0.1250000
பதவியணி කොමිෂන් 0.0384615
இலேசாயுதக் හමුදාව 0.0303030
பங்கிலாபஞ் කොටස්ලාභ 1.0000000
படிவப் පෝරම 0.5000000
சுழியோடுநர் ඇඳුම් 0.1428571
சுழியோடுநர் කිමිඳුම්කරු 1.0000000
சுழியோடுநர் කිමිදුම්කරු 0.5000000
சுழியோடுநர் රහිත 0.5000000
பெண்) NULL 0.0002830
எதிர்ப்புப் නාශක 0.0434783
எதிர்ப்புப் බතරොයි 0.5000000
அரசாங்கம் NULL 0.0002830
அரசாங்கம் ආණ්ඩුව 0.5000000
பிக்குமார் භික්‌ෂු 1.0000000
பதிற்கடமை සහනදායක 1.0000000
.பொறிச்சாதன යන්ත්‍ර 0.0147059
வடி පෙරන 1.0000000
வடி සහකාර 0.0025000
படக்கருவியாளர் ක්‍රිස්තියානි 0.5000000
படக்கருவியாளர் කැමරාකරු 0.5000000
படக்கருவியாளர் NULL 0.0002830
காடு කැලෑව 1.0000000
காடு NULL 0.0005659
(குளிரூட்டல், NULL 0.0002830
காவற் ආරක්ෂක 0.0256410
நோய்க் සායනය 0.5000000
வீடமைப்புக் නිවාස 0.0555556
கரைப் වෙරලේ 0.5000000
கரைப் වැඩ 0.0149254
வார்ப்பாளர் වාත්තුකරු 0.2500000
விபரமடங்கிய විස්‌තර 1.0000000
நிலைம் ස්ථානය 0.0303030
தந்தியச்சு ටැලිටයිප් 1.0000000
தொல்பொருளியல் පුරාවිද්‍යා 0.7272727
தொல்பொருளியல் NULL 0.0002830
தொல்பொருளியல் කොමසාරිස් 0.0075188
உலர்த்து මිදුල 1.0000000
உலர்த்து වේලන 0.5000000
அச்சகச் මුද්‍රණාල 0.5000000
எதிர்ப்பு NULL 0.0002830
கமத்தொழிற் හමුදා 0.0606061
கமத்தொழிற் විද්‍යාලයාධිපති 0.0833333
கமத்தொழிற் ගොවිකම් 0.3529412
கமத்தொழிற் NULL 0.0002830
கமத்தொழிற் කෘෂිකර්ම 0.1875000
கமத்தொழிற் ළමයින්ගේ 0.3333333
கமத்தொழிற் පාඨශාලා 0.0526316
கமத்தொழிற் සංචාරක 0.0416667
கமத்தொழிற் මධ්‍ය 0.3333333
ஏற்றுமதி නිලධාරි 0.0028986
ஏற்றுமதி අපනයන 0.1052632
ஏற்றுமதி කොමසාරිස් 0.0075188
ஏற்றுமதி ලංකා 0.0099502
ஏற்றுமதி ලිපිකරු 0.0068493
ஏற்றுமதி NULL 0.0002830
தகுதிகூர் ආධුනික 0.0512821
பதனிடுபவர் වේලන්නා 1.0000000
கொழுத்துநர் පහන් 0.1111111
நம்பிக்கை නියුක්ති 0.5000000
நம்பிக்கை භාරකාර 0.1818182
மாதிரிப்பொருட் පරීක්ෂණය 0.3333333
மாதிரிப்பொருட் ආදර්ශ 0.1250000
பாகத்துலக்குநர், හාfප්ටෝන් 1.0000000
சங்கம் ගබඩා 0.0128205
சங்கம் සමිතිය 0.5000000
சங்கம் සභාව 0.0102041
சங்கம் වියන්නන්ගේ 1.0000000
சங்கம் NULL 0.0022637
சங்கம் සමිති 0.2500000
உசாத்துணைக் උපදේශක 0.0250000
கமத்தொழில்,கைத்தொழில் කාර්මික 0.0169492
பூச்சியியற் කීට 0.3333333
சாய்தள සහ 0.0036101
பொறி, යාන්ත්‍රික 0.0185185
முதல்வர் NULL 0.0008489
எச்சலன் ඇවිලන් 1.0000000
வானூர்தித்துறைத் යාත්‍රාංගණ 0.1428571
வானூர்தித்துறைத் ගගණ 0.2000000
.தபால் තැපැල් 0.0185185
கடவத் කඩවත් 0.3333333
மீள்நோக்குச் සමාලෝචන 0.3333333
மீள்நோக்குச் කර 0.2000000
மீள்நோக்குச் (ආදායම් 0.5000000
மீள்நோக்குச் විවේචන 0.3333333
மீள்நோக்குச் බදු 0.0526316
கயிற்றுத் ලනු 0.2000000
(நிதிப்பொறுப்பு) NULL 0.0002830
பம்பு) NULL 0.0002830
அவைத் සභාපති 0.1111111
பொறிமுறைக் යාන්ත්‍රික 0.0370370
பொறிமுறைக் ප්‍රධාන 0.0062500
பொறிமுறைக் නියෝජ්‍ය 0.0094340
பொறிமுறைக் ශාකාව) 1.0000000
டெல்லி තානාපති 0.0666667
உயர்தரத் උසස් 0.1111111
இரசாயன රසායන 0.3333333
படைக்கல සහකාර 0.0025000
படைக்கல අවි 1.0000000
படைக்கல සන්නාහ 1.0000000
(வெளியூர்) කටයුතු 0.0227273
(வெளியூர்) පිළිබඳ 0.0123457
கொழும்புச் කොළඹ 0.0400000
கிளிக்கர் ක්ලිකර්; 1.0000000
.வர்த்தகப் වාණිජ 0.0208333
உசாத்துணைவர் NULL 0.0002830
கடண் ණය 0.0344828
களஞ்சிய වැඩපොළ 0.0370370
களஞ்சிய ධාන්‍යාගාර 1.0000000
முகாமைத்துவம் ආපදා 0.1666667
முகாமைத்துவம் කලමනාකරණ 0.3333333
வானூர்தித்துறைக் ගගණ 0.1000000
வேலை වැඩ 0.0895522
வேலை චිකිත්සා 0.3333333
வேலை NULL 0.0002830
வேலை පුහුණුවන 0.5000000
வேலை ආධුනික 0.0256410
தீமூட்டுநர் සහ 0.0036101
சிறப்புப் ශාස්ත්‍රය 0.1428571
சிறப்புப் විශේෂ 0.1282051
சிறப்புப் පොලිස් 0.0217391
சிறப்புப் NULL 0.0005659
சிறப்புப் සේවය 0.0169492
சிறப்புப் උප 0.0175439
(அந்நியநாட்டுப்பொறுப்பு) NULL 0.0002830
வெள்ளத்திட்டம் යෝජනාක්‍රම 1.0000000
வெள்ளத்திட்டம் පරිපාලක 0.0120482
தோட்டத்துரைமார் වතු 0.1818182
தோட்டத்துரைமார் දිස්ත්‍රික් 0.0188679
விவசாய ලංකා 0.0049751
விவசாய කෘෂිකර්ම 0.0208333
விவசாய NULL 0.0002830
அரசமைப்பு NULL 0.0002830
ஓய்வூதிய අනන්දරු 0.2500000
கள සුභසාදක 0.3333333
கள කෙෂ්ත්‍ර 0.0714286
கள පරීක්ෂණ 0.0625000
கள විද්‍යා 0.0112360
மாசல் NULL 0.0002830
சுயேட்சைக் NULL 0.0002830
சுயேட்சைக் හමුදාව 0.0303030
விளக்கேற்றல், එළිය 0.2500000
சான்றுப்படுத்தும் සහතික 0.0714286
பரிசோதகர் NULL 0.0002830
பரிசோதகர் පරීක්ෂක 0.0131579
நாற்றுமேடை පාත්ති 0.6666667
சாவகச்சேரி චාවාකච්චේරි 1.0000000
மாதம்பே මාදම්පේ 1.0000000
மதிப்புக் ශාඛාව 0.0128205
மதிப்புக் තක්සේරු 0.1111111
அத்தனகலை අත්තනගල්ල 1.0000000
வட்டாரம் මැතිවරණ 0.0625000
தாதிப்பணி NULL 0.0002830
தாதிப்பணி නිලධාරිණි 0.1250000
வளிமண்டலவியலர் විද්‍යාඥ 0.0666667
வளிமண்டலவியலர் කාලගුණ 0.1428571
(அந்தரங்கக் ශාඛා 0.1000000
(அந்தரங்கக் අධිකාරි 0.0074074
அனுபவக் පළපුරුදු 1.0000000
வார்ப்போர் කරන්නන්ගේ 1.0000000
வார்ப்போர் අච්චු 0.2000000
வார்ப்போர் අකුරු 0.1666667
தொழிலாளர் සමිති 0.2500000
தொழிலாளர் කර්මාන්තශාලා 0.0588235
தொழிலாளர் කම්කරු 0.0357143
தொழிலாளர் ආපණශාලාව 1.0000000
தொழிலாளர் NULL 0.0002830
வசுச் බස් 0.5000000
சந்தைப்படுத்தற் අලෙවිකිරීමේ 0.2000000
சந்தைப்படுத்தற் මණ්ඩලය 0.0062893
சந்தைப்படுத்தற் කොට්ටාසය 0.5000000
சந்தைப்படுத்தற் කිරීමේ 0.0256410
மதவாச்சி මැදවච්චිය 1.0000000
தபாற் තැපැල් 0.0370370
தபாற் රථ 0.0526316
தேசிய ක්‍රමසම්පාදන 0.2500000
தேசிய මුදල් 0.0425532
தேசிய රෝගය 1.0000000
தேசிய NULL 0.0011319
தேசிய සේවය 0.0169492
தேசிய විද්‍යා 0.0112360
தேசிய උසස් 0.1111111
தேசிய ජාතික 0.7051282
தேசிய භෞතික 0.1428571
தேசிய සහකාර 0.0025000
தேசிய ලංකා 0.0049751
தேசிய මණ්‌ඩලය 0.0769231
தேசிய ලේඛනාරක්ෂක 0.1428571
தேசிய සැලසුම් 0.0303030
தேசிய සෞඛ්‍යය 1.0000000
தேசிய අධ්‍යාපන 0.0655738
தேசிய ලේඛනාගාරය 0.2500000
தேசிய සීමාසහිත 0.1000000
தேசிய ඡාතික 0.8750000
தேசிய ඵලදායිතා 1.0000000
தேசிய කොමිෂන් 0.0384615
தேசிய ඉතුරුකිරීම් 1.0000000
தேசிய සමුද්‍ර 0.2500000
தேசிய පශු 0.0476190
தேசிய හා 0.0185185
நீதிப்பீடம் NULL 0.0002830
உருக்குத் සහ 0.0036101
உருக்குத் වානේ 0.5000000
இறக்காமம் ඉරකමම් 1.0000000
இறக்காமம் ප්‍රාදේශීය 0.0047170
மூல මාතෘ 0.2500000
மூல හුවමාරු 0.1666667
மூல මූලික 0.0909091
ரேடியோக் ගුවන් 0.0196078
கட்டுப்பாட்டுச் පාලන 0.0166667
கட்டுப்பாட்டுச் පාලක 0.0131579
கட்டுப்பாட்டுச் මණ්ඩලය 0.0062893
கட்டுப்பாட்டுச் අනතුරු 0.1666667
கட்டுப்பாட்டுச் මර්දන 0.3333333
(முடித்த NULL 0.0002830
கலம் NULL 0.0002830
மட்பாண்டத்தொழில் කර්මාන්ත 0.0084034
மட்பாண்டத்தொழில் පිඟන් 0.2500000
அச்சுக் මුද්‍රණ 0.0625000
மூதவைத் සැනට් 1.0000000
தோற்சிப்பி චර්මශිල්පි 1.0000000
பொத்துவில் පොතුවිල් 0.5000000
வசதி පහසුකම් 0.2000000
வசதி තෙල් 0.0833333
கணக்கப்பிள்ளை කනක්කපිල්ලෙයි 1.0000000
இணை NULL 0.0002830
இணை දිස්ත්‍රික් 0.0188679
பண்டசாலை, ගබඩා 0.0128205
அன்சாட்டுப் හැන්සාඩ් 0.2500000
அன்சாட்டுப் හා 0.0061728
கூலிக்கார் කැබිනට් 0.1250000
மருந்தக බෙහෙත් 0.1666667
மருந்தக ශාලා 0.1538462
மருந்தக පරිපාලක 0.0120482
.கடற்றொழிற் ධීවර 0.0227273
.கடற்றொழிற் නියෝජ්‍ය 0.0094340
எரிபொருளூட்டு ඉන්ධන 1.0000000
இமதுவ ඉමදූව 1.0000000
நிலைத் ස්ථීර 0.1111111
வனசீவராசிகள் සංරක්‍ෂණ 0.5000000
வனசீவராசிகள் වනජීවි 1.0000000
(கருவிக் NULL 0.0002830
சாதாரண ඡන්ද 0.0833333
மாதிரியுருவமைப்பவர் ආදර්ශ 0.1250000
உபநிலைப் කණිෂ්ඨ 0.0250000
உபநிலைப் යටත් 0.1428571
உபநிலைப் පොලිස් 0.0217391
பண்டகசாலைக் අතිරේක 0.0370370
பண்டகசாலைக் අධිකාරී 0.2500000
பண்டகசாலைக் ගබඩා 0.0128205
பண்டகசாலைக் නියෝජ්‍ය 0.0094340
ஆணைக்குழு සංවිධාන 0.1111111
ஆணைக்குழு විද්‍යාල 0.2000000
ஆணைக்குழு විදුලි 0.0079365
ஆணைக்குழு කොමිෂන් 0.1153846
ஆணைக்குழு සංඛ්‍ය 0.3333333
ஆணைக்குழு ශ්‍රී 0.0140845
ஆணைக்குழு කම්කරු 0.0089286
ஆணைக்குழு සම්බන්ධතා 0.0555556
ஆணைக்குழு සභාව 0.0306122
ஆணைக்குழு ක්‍රමසම්පාදන 0.2500000
ஆணைக்குழு NULL 0.0056593
ஆணைக்குழு වැල්ඩින් 1.0000000
ஆணைக்குழு කොමිසන් 0.3333333
ஆணைக்குழு නව 0.1428571
ஆணைக்குழு ලේඛන 0.0370370
ஆணைக்குழு ලංකා 0.0049751
வாயிற் දොරටුපාල 1.0000000
வாயிற் දොරටු 0.6666667
பூட்டறை සිරකූඩුව 1.0000000
இரும்புத் ප්ලේට් 0.5000000
நிர்வாக පදනම 0.2000000
நிர்வாக ආයතනය 0.0149254
நிர்வாக සංවර්ධන 0.0106383
நிர்வாக ආරක්‌ෂණ 0.5000000
நிர்வாக පරිපාලන 0.2500000
நிர்வாக ලංකා 0.0049751
மாதிரிச் ආදර්ශ 0.2500000
கொதிகல බොයිලේරු 0.2500000
(வழங்கல்) (සැපයුම්) 1.0000000
(வழங்கல்) NULL 0.0002830
மேலதிகக் අතිරේක 0.0370370
யப்பான் ලංකා 0.0049751
சுதேஷ සහ 0.0036101
நிறுவகம், ආයතනය 0.0149254
அபிவிருத்திக் සංවර්ධන 0.0106383
அபிவிருத்திக் ණය 0.0344828
அபிவிருத்திக் NULL 0.0008489
தலைவர்கள் ප්‍රධානීහු 0.5000000
தேசப்படம் සිතියම් 0.1666667
I) NULL 0.0005659
பழகுங் ගාඩ් 0.0666667
பழகுங் ආධුනික 0.0256410
உயர்கல்வித் උසස් 0.1111111
ஆலைக் අධිකාරි 0.0074074
ஏற்றுமதியாளர் අපනයනකරු 1.0000000
வகுப்பு 11වැනි 1.0000000
வகுப்பு පන්තිය 0.2000000
வகுப்பு සේවයේ 0.0833333
வகுப்பு NULL 0.0019808
பதிவுத் NULL 0.0002830
பதிவுத் කිරීමේ 0.0256410
பதிவுத் ලියාපදිංචි 0.1111111
முலாமிடுநர் ඉලෙක්ට්‍රෝප්ලේට්කරු 1.0000000
நிவு දිල්ලි 1.0000000
பல் දන්ත 0.5000000
பல் සේවිකා 0.0714286
பல் දන්තාරෝග්‍යශාලාව 1.0000000
வெல்லச විශ්ව 0.0588235
வெல்லச විද්‍යාලය 0.0370370
மருந்துத் NULL 0.0002830
உப்புச் ලුණු 0.1000000
உப்புச் ලුනු 1.0000000
மேசன் මේසන් 1.0000000
மேசன் ප්‍රධාන 0.0062500
மேசன் පෙදරේරු 0.3333333
லுனுகல ලුනුගල 1.0000000
ஒளி සූක්ෂම 0.3333333
அங்குனகொலபெலஸ்ஸ අඟුණකොලපැලැස්‌ස 1.0000000
பால்கட்டுநர் කරන්නී 0.5000000
மடுவம், කරන 0.0588235
உணவுமேலாளர் ගබඩාකරු 0.0833333
உணவுமேலாளர் ගබඩා 0.0128205
உணவுமேலாளர் සේවිකාව 0.3333333
சுங்கத் රේගු 0.1578947
டீ ද 1.0000000
சாரணச் බාලදක්ෂිකා 1.0000000
சாரணச் සමාගම 0.0333333
ஒளிக்கதிர் වර්ණාවලි 1.0000000
இரேடார் රේඩාර් 0.5000000
அவுஸ்திரேலிய ලංකා 0.0049751
வளர்ப்புப் NULL 0.0002830
வளர்ப்புப் ගොවිපොළ 0.0666667
அமைப்புகள், සංවිධාන 0.1111111
தரகு කොමිෂන් 0.0384615
தகைமைபெறாத NULL 0.0002830
கூடை පෙට්ටි 0.2000000
நிலையினர் NULL 0.0002830
நிலையினர் නිලධාරි 0.0028986
மருத்துவக்கூடம் හල 1.0000000
இரும்புப் ප්ලේට් 0.5000000
இரும்புப் NULL 0.0002830
பௌதீகச் කායික 1.0000000
வரைபவர் NULL 0.0002830
பொருட்பட்டியல் ලිපිකරු 0.0068493
நீரியல், ජලවිද්‍යා 0.5000000
நீரியல், ජීවවිද්‍යා 0.5000000
பட்டின, සහ 0.0036101
தோழர் නිලධාරි 0.0028986
தயாரிப்பு සකස්කරන 1.0000000
தயாரிப்பு සම්පාදක 0.0625000
சேவைத் දෙපාර්තමෙන්තුව 0.0116279
சேவைத் විදුලි 0.0079365
சேவைத் ගොවිජන 0.3333333
சேவைத் NULL 0.0016978
சேவைத் සේවා 0.0404040
சேவைத் හමුදාව 0.0303030
சேவைத் කොමසාරිස් 0.0075188
சேவைத் කම්කරු 0.0089286
மினுவாங்கொட මිනුවන්ගොඩ 1.0000000
மடுவம் අලුත්වැඩියා 0.1250000
மடுவம் මඩුව 0.1363636
மடுவம் NULL 0.0005659
பூச்சியியல் විද්‍යා 0.0224719
பூச்சியியல் කීට 0.4444444
சோதரிச் ආචාර්ය 0.0144928
மரமுந்திரிகை කජු 1.0000000
எப் Fආරක්ෂක 1.0000000
எப் ලිපිකරු 0.0068493
அளவையாளரின் මිනින්දෝරු 0.0217391
சுங்கப் ලේඛකාධිකාරි 0.5000000
சுங்கப் රේගු 0.0526316
விற்பனைத் වෙළඳ 0.0645161
நீர் සම්පත් 0.0476190
நீர் ජලශාස්ත්‍ර 1.0000000
நீர் සම්පාදන 0.0555556
நீர் කළමණාකරණ 0.5000000
நீர் යෝජනා 0.0344828
நீர் ප්‍රවාහන 0.1250000
நீர் ජලසම්පාදන 1.0000000
நீர் ජලශාස්ත්‍රඥ 0.5000000
நீர் හා 0.0061728
நீர் දිය 0.2857143
நீர் ජලව්දුලි 1.0000000
நீர் ජල 0.4400000
நீர் ජලඖෂධීය 1.0000000
குழந்தைகள் NULL 0.0008489
உள்நாட்டலுவல்கள் කටයුතු 0.0227273
உள்நாட்டலுவல்கள் ස්‌වදේශ 1.0000000
தச்சுவேலைத் බාස් 0.3333333
தச்சுவேலைத் වඩු 0.1428571
கல்முனை කල්මුණේ 0.5000000
ஆகுசெலவு පිරිවැය 0.3333333
ஆகுசெலவு ලිපිකරු 0.0068493
வீடற்றோர் අයාල 0.5000000
கெப்பிடிகொல்லாவ කැබිතිගොල්ලෑව 1.0000000
நடமாடும் කෘෂිකර්ම 0.0208333
பொருள்கள் ගබඩාව 0.0175439
பொருள்கள் ද්‍රව්‍ය 0.0285714
மருத்துவச்சேவை වෛද්‍ය 0.0080645
நீர்மூழ்கிப் සබ්මැරින් 1.0000000
காவற்றூதுவர், නියුක්ත 0.3333333
இளைஞர் තරුණ 1.0000000
இளைஞர் NULL 0.0002830
அமயப் අනියම් 0.4000000
ஒலிபரப்புத் ගුවන්විදුලි 0.2500000
நோய்த் ව්‍යාපාරය 0.0833333
நோய்த் නාශක 0.0434783
திறந்த ලංකා 0.0049751
ஒலிபரப்புக் ගුවන් 0.0196078
மீன் කරවල 1.0000000
மீன் මාලු 0.5000000
பனை තල් 1.0000000
மருத்துவத் NULL 0.0002830
மருத்துவத் වෛද්‍ය 0.0161290
கம்பியமைப்புப் කම්බි 0.2000000
(சிறப்புத் (විශේෂ 0.5000000
பண்டசாலை අධිකාරි 0.0074074
பண்டசாலை ගබඩා 0.1025641
பண்டசாலை ගෘහභාණ්ඩ 0.3333333
பண்டசாலை ගෑරුප්පු 1.0000000
பண்டசாலை NULL 0.0050934
பண்டசாலை ගබඩාව 0.2456140
பண்டசாலை බඩු 0.0571429
பண்டசாலை ඕවසියර් 0.0555556
மறியற்காரர் සංවිධානය 0.1000000
மறியற்காரர் හිරකරු 1.0000000
மறியற்காரர் සිරකරු 1.0000000
மறியற்காரர் සිරකරුවා 1.0000000
களவாய்க் නීති 0.0400000
கோரிக்கை NULL 0.0002830
விவசார කටයුතු 0.0227273
ஏற்றியிறக்கற் සහ 0.0036101
படிப்புப் පීඨය 0.1666667
ஆசியப் මණ්ඩලයේ 0.0588235
கூட்டணி කණ්ඩායම් 0.3333333
யுத்த යුද්ධ 0.2222222
துறைமுகங்கள், වරාය 0.0208333
நுவரஎலியா නුවරඑළිය 0.5000000
மீகான் නියමු 0.0769231
போக்குவரத்துத் NULL 0.0002830
நவிக் නාfපි 1.0000000
சுங்க පන්තිය 0.1000000
சுங்க උප 0.0175439
சுங்க රේගුව 1.0000000
சுங்க අහස්යාත්‍රාංගණය 1.0000000
சுங்க රේගුවේ 1.0000000
சுங்க රේගු 0.2105263
சுங்க ජෙටිය 1.0000000
எண்ணெய் පොල් 0.1000000
எண்ணெய் තෙල් 0.2500000
பல்லெந்திரக் යන්ත්‍ර 0.0147059
மின்சாரத்தொழில்வலர், විදුලි 0.0079365
ஓவியத் ලේබල් 1.0000000
பீப்பாசெய்பவர் වඩු 0.0714286
பீப்பாசெய்பவர் පීප්ප 0.5000000
கூட்டித் පිසින්නා 0.6666667
அவசரகாலத் හදිසි 0.2500000
அவசரகாலத் ආපදා 0.1666667
சோதரி සහෝදරි 0.3333333
சோதரி NULL 0.0002830
புத்தளம் දිස්ත්‍රික් 0.0188679
புத்தளம் පුත්තලම 1.0000000
அரிசிப் NULL 0.0002830
எண்ணுமுகவர் NULL 0.0002830
குற்றச்சாட்டுக்களை NULL 0.0002830
பொருள்தூக்கும் බඩු 0.0285714
கோரிக்கைப் වන්දි 0.1000000
காவற்பொறுப்பாளர் NULL 0.0005659
காவற்பொறுப்பாளர் ආරක්ෂක 0.0512821
சேமப் NULL 0.0002830
போதனாசிரியர், NULL 0.0002830
திறமையுள்ள දක්ෂ 1.0000000
கோப்பெருமன்ற රාජාධිකරණයේ 0.5000000
கோப்பெருமன்ற අධිකරණ 0.0454545
கட்டடங்கள் ගොඩනැගිලි 0.0384615
ஆராய்ச்சி) NULL 0.0002830
கிளார்க் NULL 0.0002830
கொள்கைச் පර්යේෂණ 0.0232558
சட்டக் නීති 0.0800000
வேலைக் ජල 0.0400000
வேலைக் NULL 0.0002830
வேலைக் වැඩ 0.0298507
கணக்காய்வுக் වැටුප් 0.0555556
கணக்காய்வுக் විගණන 0.1000000
கணக்காய்வுக் ශාඛාව 0.0128205
கட்டுப்பாடு NULL 0.0002830
கட்டுப்பாடு පාලනය 0.1000000
நீர்வேலை, ජලකර්මාන්ත, 1.0000000
வல்லுநர் මැෂින්කරු 1.0000000
வல்லுநர் ලී 0.1111111
வல்லுநர் වැඩ 0.0149254
சீமெந்துச் සිමෙන්ති 0.1666667
வழிக் ආරක්ෂාව 1.0000000
பெலியத்த බෙලිඅත්ත 0.5000000
அளவையாளர், මිනින්දෝරු 0.0217391
குறிப்புத்தாட் සටහන් 0.1250000
குறிப்புத்தாட் පත්‍ර 0.0833333
ஒற்றையச்சு fපොර්මන් 0.0192308
ஒற்றையச்சு මොනෝ 0.2857143
தொலைபேசி ටැලිපෝන් 0.1428571
தொலைபேசி පරිපාලිකා 0.3333333
தொலைபேசி විදුලි 0.0158730
தொலைபேசி ටැලිfපෝන් 0.2500000
தொலைபேசி කාර්යාලයීය 0.5000000
தொலைபேசி බඳින්නා; 0.5000000
சதுரவியூகம் හමුදාව 0.0606061
சதுரவியூகம் NULL 0.0002830
உலர் ගොවිතැන් 1.0000000
உலர் ගොඩ 1.0000000
அபிவிருத்தித் සංවර්ධන 0.0425532
அபிவிருத்தித் NULL 0.0002830
அபிவிருத்தித் දෙපාර්තමේන්තුව 0.0096618
பொதுவசதி පහසුකම් 0.2000000
பொதுவசதி පොදු 0.0769231
கொன்சல் NULL 0.0005659
வான்படை NULL 0.0002830
வான்படை ගුවන් 0.0392157
வான்படை අහස් 0.1666667
திண்படிவ ස්ටීරියෝ 0.8000000
திண்படிவ ස්ටීරියෝකරු 1.0000000
திண்படிவ වාත්තුකරු 0.2500000
சீமெந்து සිමෙන්ති 0.1666667
கந்தோமீற்றர் මීටර්කරු 0.5000000
கந்தோமீற்றர் කොම්ප්ටො 1.0000000
இயக்கப்படத் සිනමා 1.0000000
ஆணைக்குழுத் NULL 0.0002830
ஆணைக்குழுத் කොමිසන් 0.1666667
குடிவரவுத் ආගමනය 0.5000000
நீர்ப்பாசன ඕවසියර් 0.0555556
நீர்ப்பாசன වාරිමාර්ග 0.2105263
உடம்பு සම්බාහක 1.0000000
உள்ளூராட்சி පළාත් 0.0769231
உள்ளூராட்சி ප්‍රාදේශික 0.1666667
உள்ளூராட்சி NULL 0.0002830
பிரிவேனாச் පිරිවෙන් 0.5000000
பிரிவேனாச் ප්‍රධාන 0.0062500
விடுதலைபெற்ற නිදහස් 0.5000000
பேரரசு අධිරාජ්‍ය 0.1250000
பண்பாட்டு සංස්කෘතික 0.4444444
பண்பாட்டு පාලන 0.0166667
நிறுவன උඩරට 0.2500000
வீதிப் මාර්ග 0.0666667
சிகிச்சைக் රෝග 0.0434783
சிகிச்சைக் ගැහීමේ 1.0000000
அலுவல் NULL 0.0019808
அலுவல் කටයුතු 0.0454545
அலுவல் කොට්ඨාශය 0.0769231
அலுவல் අමාත්‍යාංශය 0.0200000
தொழிற்சாலைத் කර්මාන්තශාලා 0.1176471
மலேரியாப் මැලේරියා 0.1250000
(இசை) (සංගීත) 1.0000000
புதுச் අලුත් 1.0000000
அறைக் කාමර 0.0769231
செயலாளர், NULL 0.0002830
செயலாளர், ලේකම්, 0.6666667
செயலாளர், කාර්මික 0.0169492
செயலாளர், විනිචය 0.5000000
செயலாளர், පරිපාලන 0.1250000
பணியகச் සංචාරක 0.0416667
பணியகச் කාර්යාංශයේ 0.2000000
தேயிலைக் පාලක 0.0131579
தேயிலைக் තේ 0.2500000
மதிப்புத் අගයකිරීම් 1.0000000
மதிப்புத் තක්සේරු 0.1111111
பொறிவேலைப் යාන්ත්‍රික 0.0185185
பிணையம் NULL 0.0002830
தடை, සහ 0.0036101
வண்டிச்சேவை NULL 0.0002830
றேந்தை, ගෙතුම් 1.0000000
றேந்தை, රේන්ද 0.5000000
றேந்தை, සහ 0.0036101
காட்டு වන 0.1428571
காட்டு කැළෑ 0.4000000
நிதிப் මුදල් 0.0212766
நிதிப் මූල්‍ය 0.2500000
நிதிப் NULL 0.0002830
அபாயகர අනතුරු 0.1666667
தெற்கு NULL 0.0005659
தெற்கு දකුණ 0.6000000
தெற்கு දකුණු 0.2500000
மானிப் ආමාන 0.5000000
மருந்துப் NULL 0.0002830
மருந்துப் ඹෟෂධ 0.5000000
மருந்துப் ඖෂධ 0.0769231
நிதிக் කාරක 0.0303030
நிதிக் පාලක 0.0131579
நிதிக் මුදල් 0.1276596
நிதிக் NULL 0.0002830
மோட்டார்ச் මොටර් 0.0303030
தோற்சிகிச்சைக் චර්ම 0.5000000
கட்டடக்கலைப் වාස්තුවිද්‍යා 1.0000000
கட்டடக்கலைப் ආධුනික 0.0256410
காவறைப் වාට්ටු 0.2500000
தெரிவுச் තේරීම් 1.0000000
செலவினக் ශාඛාව 0.0128205
செலவினக் ﻿වැය 1.0000000
நிலையம் සැපයීමේ 0.2000000
நிலையம் කෘෂිකර්ම 0.0208333
நிலையம் බීජ 0.2000000
நிலையம் බල 0.1428571
நிலையம் අහස් 0.1666667
நிலையம் කිරීමේ 0.0256410
நிலையம் NULL 0.0065082
நிலையம் මධ්‍යස්ථානය 0.1052632
நிலையம் නැව් 0.0526316
நிலையம் සුරාබදු 0.0555556
நிலையம் ස්ථානය 0.3030303
நிலையம் ගගකයාත්‍රාංගණය; 0.5000000
நிலையம் නිරීක්ෂනාගාර 1.0000000
நிலையம் (අධ්‍යාපන) 0.5000000
நிலையம் නාශක 0.0434783
நிலையம் ගුවන් 0.0196078
நிலையம் සිථානය 1.0000000
நிலையம் කාර්යාලය 0.0034602
நிலையம் හුවමාරුව 1.0000000
உள்ளூராட்சிச் සංවර්ධන 0.0106383
உள்ளூராட்சிச் පළාත් 0.0384615
உள்ளூராட்சிச் ප්‍රාදේශික 0.3333333
(வெளியீடு) NULL 0.0002830
அரபுச் භාෂා 0.0714286
அரபுச் අරාබි 0.5000000
உடற் කර්මාන්ත 0.0084034
உடற் අභ්‍යාස 0.0400000
உடற் NULL 0.0002830
உடற் ශාරීරික 0.0909091
(வர்த்தக NULL 0.0002830
நெசவுச் පේෂකර්ම 0.1428571
சுகாதாரச் සෞඛ්‍ය 0.0377358
சுகாதாரச் පරීක්ෂක 0.0131579
நடனச் NULL 0.0002830
நடனச் නැටුම් 0.0909091
வனாத்தவில்லு ලේකම් 0.0039062
வனாத்தவில்லு ප්‍රාදේශීය 0.0047170
வனாத்தவில்லு වනාතවිල්ලුව 1.0000000
கடிகாரம் හෝරා 1.0000000
கடிகாரம் ඔර්ලෝසු 0.5000000
கடிகாரம் යන්ත්‍ර 0.0147059
கடிகாரம் අලුත්වැඩියා 0.1250000
தயர் ටයර් 0.5000000
தயர் සහකාර 0.0025000
பண்டசாலைக் ඉංජිනේරු 0.0055556
பண்டசாலைக் NULL 0.0014148
பண்டசாலைக் පාලක 0.0131579
பண்டசாலைக் තොග 0.0909091
பண்டசாலைக் බඩුබාහිරාදිය 1.0000000
பண்டசாலைக் අමුද්‍රව්‍ය 1.0000000
பண்டசாலைக் 1වැනි 0.3333333
பண்டசாலைக் යාන්ත්‍රික 0.0185185
பண்டசாலைக் දැව 0.3333333
பண்டசாலைக் ගබඩාපාලක 1.0000000
பண்டசாலைக் ගබඩා 0.2435897
பண்டசாலைக் නිමිභාණ්ඩ 1.0000000
பண்டசாலைக் වෛද්‍ය 0.0080645
அவையின் NULL 0.0002830
அரிசி සහල් 1.0000000
கட்டில் NULL 0.0002830
தங்கியிருக்கும் විශ්‍රාම 0.0666667
தங்கியிருக்கும் ශාලාව 0.0312500
காணித்துண்டு NULL 0.0005659
உயர்மன்று ශ්‍රේෂ්ඨාධිකරණයේ 0.1666667
காலாட்படை NULL 0.0005659
பொறிக்கூடம் යන්ත්‍ර 0.0147059
பொறிக்கூடம் මඩුව 0.0454545
பொறிக்கூடம் වැඩ 0.0149254
ஊர்திச் මොටර් 0.0303030
கலைப்பீடம் ශාස්ත්‍ර 0.1666667
கலைப்பீடம் පීඨය 0.0833333
அட்டைக் NULL 0.0002830
பொலிசுத் පොලිස් 0.0652174
ஆய்வாளர் ලේඛන 0.0370370
ஆய்வாளர் විමර්ශක 1.0000000
ஆய்வாளர் විමර්ෂක 0.5000000
பொலிசு නිලධාරි 0.0028986
பொலிசு පොලිස් 0.2391304
பொலிசு ගරාජය 0.2000000
பொலிசு ප්‍රධාන 0.0062500
பொலிசு ඉන්ස්පැක්ටර් 1.0000000
பொலிசு ඉස්තාලය 1.0000000
பொலிசு සහ 0.0036101
பொலிசு පොලීසිය 0.5000000
பொலிசு දෙපාර්තමේන්තුවේ 0.0588235
பொலிசு ගැහැනු 0.5000000
பொலிசு පිළිබඳ 0.0123457
ஆராய்ச்சித் පර්යේෂණ 0.0465116
ஆராய்ச்சித் NULL 0.0002830
சக்திக் බලාගාරය 1.0000000
பம்புப் යන්ත්‍ර 0.0147059
பம்புப் පොම්පකරු 1.0000000
பம்புப் පොම්ප 0.0909091
வடிகாலமைப்பு, කසළ 0.1428571
வடிகாலமைப்பு, ජලාපවහන 0.5000000
தொழில்முறை ව්‍යාපාරික 0.5000000
சிதார் සිතාර් 1.0000000
துணிப் රෙදිපිළි 0.5000000
(ஆகுசெலவு) (මිල 1.0000000
வனங்கள் ජලජ 0.1250000
வனங்கள் සම්පත් 0.0952381
மின்வலு‚ විදුලිබල 0.2500000
மின்வலு‚ බලශක්‌ති 0.3333333
தொலைதொடர்புச் සංදේශ 0.1000000
தொலைதொடர்புச் විදුලි 0.0079365
நிலையவியலர் NULL 0.0002830
கப்பற்படையாட்சித்துறைக் අද්මිරාල්තියේ 1.0000000
பராமரிப்புக் අංශය 0.0076923
பராமரிப்புக் නඩත්තු 0.0555556
அதிகார NULL 0.0019808
அதிகார අධිකාරිය 0.0500000
(பகுதி කාල) 1.0000000
(பகுதி NULL 0.0002830
கப்பற்சேவைத் නැව් 0.0526316
கப்பற்சேவைத் ෂිපින් 1.0000000
கப்பற்சேவைத் සෑදීම 0.2000000
வான்படைவீரர் ගුවන් 0.0196078
உபாத்திமார், වැන්දඹු 1.0000000
சொறணத்தொட்ட සොරණාතොට 1.0000000
அணி NULL 0.0008489
தொழில்காண் රැකී 1.0000000
தொழில்காண் රක්ෂා 0.5000000
தொழில்காண் සැපයීමේ 0.2000000
தொழில்காண் සම්පාදන 0.0555556
தொழில்காண் රැකියා 0.2500000
தொழில்காண் NULL 0.0002830
தொழில்காண் රැකීරක්ෂා 0.5555556
தச்சுவேலையாளர் වඩු 0.0714286
கணித,பௌதீகப் ගණිත 0.3333333
எலஹெர ඇළහැර 1.0000000
எந்திரத்தொழில் ඉංජිනේරු 0.0166667
வைத்தியசாலை, පිළිකා 0.3333333
சொற்றொகுதி NULL 0.0002830
தரைப்போர்ப் භූමි 0.1250000
முகவரின் ඒජන්තගේ 1.0000000
நில මිනින්දෝරු 0.0217391
நில ලෑන්ඩ්රෝවර් 1.0000000
நில ලංකා 0.0099502
சுவடிக்காப்பாளர் NULL 0.0002830
சுவடிக்காப்பாளர் රාජ්‍ය 0.0312500
சிராவக බෞද්ධ 0.1111111
நிகழ்ச்சியேடு ලිපි 0.1250000
படைக்கல, යුද්ධායුධ; 1.0000000
கருவி පිළිබඳ 0.0123457
கருவி NULL 0.0002830
கருவி උපකරණ 0.1111111
கருவி fපොර්මන් 0.0192308
கருவி fපෝර්මන් 0.0625000
கருவி අලුත්වැඩියා 0.1250000
அதிபதி දෙපාර්තමේන්තුව 0.0048309
அதிபதி දුම්රිය 0.0555556
அதிபதி NULL 0.0048104
அதிபதி ජනරල් 0.6666667
அதிபதி කාර්යාලයේ 0.2500000
அதிபதி දෙපාර්තමෙන්තුව 0.0232558
அதிபதி විධායක 0.0400000
அதிபதி කළමනාකරු 0.0512821
அதிபதி මාස්ටර් 0.1250000
அதிபதி ප්‍රධාන 0.0062500
அதிபதி ජනරාල් 0.2857143
அதிபதி ; 0.0048077
வெளியீட்டுத் ප්‍රකාශන 0.1428571
அறக்கொடை NULL 0.0002830
அறக்கொடை පුණ්‍ය 1.0000000
அறக்கொடை දෙවස්ථාන 1.0000000
சேர்மனியில் ජර්මනියේ 1.0000000
மாவட்டம் දිස්ත්‍රික්කය 1.0000000
தடுப்புப் හමුදාව 0.0303030
தடுப்புப் නිවාරණ 0.2500000
லங்கா සීමාසහිත 0.2000000
லங்கா ශ්‍රී 0.0140845
நிருவாகம் පාලනය 0.2000000
நிருவாகம் NULL 0.0002830
சரவையிடுநர் සෝදුපත් 1.0000000
சரவையிடுநர் ශුද්ධිපත්‍ර 1.0000000
சரவையிடுநர் NULL 0.0005659
வளர்ப்பு, පාලන 0.0333333
வளர்ப்பு, හා 0.0061728
கூட்டிணைப்புக் සම්බන්ධීකරණ 0.5000000
கூட்டிணைப்புக் සමීකරණ 0.5000000
வண்டிப்பெட்டி රිය 0.3333333
குடியேற்றநாட்டுக் යටත් 0.1428571
படப்பிடிப்பாளர் ශිල්පී 0.1000000
படப்பிடிப்பாளர் ඡායාරූප 0.1111111
சிறாவத்திக் සමාජ 0.0400000
சிறாவத்திக் ශ්‍රාවස්ති 1.0000000
சிறாவத்திக் වූ 0.3333333
தூதுப்பொறுப்பாளர் නියෝජ්‍ය 0.0094340
தூதுப்பொறுப்பாளர் තානාපති 0.0666667
தூதுப்பொறுப்பாளர் සංචාරක 0.0416667
கட்டளைத் ආඥාපති 0.5000000
குறிப்பவர் ලකුණු 1.0000000
இலங்கைக்கான ලංකා 0.0049751
இலங்கைக்கான ශ්‍රී 0.0704225
விற்பனை වෙළඳ 0.0645161
விற்பனை ද්‍රව්‍ය 0.0285714
விற்பனை සහ 0.0036101
விற்பனை විකුණුම්කළමනාකරු 0.5000000
விற்பனை වෙළෙන්දා 0.2500000
விற்பனை විකුණුම් 0.6363636
விற்பனை NULL 0.0005659
.கம்பியிலித் ගුවන් 0.0392157
தையல்வேலைப் NULL 0.0002830
தென்னாபிரிக்க ලංකා 0.0049751
அரங்கு NULL 0.0002830
சேர் පාර්ලිමේන්තු 0.0454545
சேர் ජෝන් 0.3333333
சேர் දෙපාර්තමේන්තු 0.1111111
சேர் සර් 1.0000000
சலுசல සළුසල 1.0000000
பதிவேடுகள் කාර්යාලය 0.0034602
பதிவேடுகள் ලේඛන 0.1111111
பதிவேடுகள் NULL 0.0002830
பதிவேடுகள் හා 0.0061728
(தொழிநுட்பக் NULL 0.0002830
அரசகருமப் දෙශාටන 0.3333333
விவாகப் විවාහ 0.2500000
நிலையவியல் NULL 0.0002830
கற் ගල් 0.5000000
கரையோரம் වෙරළ 0.2000000
தகுதிகூர்நிலைப் ආධුනික 0.0256410
இடைநிலைக் ද්විතීයික 0.3333333
கமப்பொருளாதார කෘෂි 0.2222222
கமப்பொருளாதார විද්‍යාව 0.2000000
கடை කළමනාකාරි 1.0000000
கடை සාප්පු 1.0000000
கடை NULL 0.0002830
பரிசோதனையும்) NULL 0.0002830
நிதிச் මුදල් 0.0212766
(பராமரிப்பு) අධිකාරි 0.0074074
(பராமரிப்பு) NULL 0.0002830
(பராமரிப்பு) ඉංජිනේරු 0.0055556
ஓவியர் විත්‍ර 0.5000000
ஓவியர் චිත්‍ර 0.3333333
ஓவியர் NULL 0.0002830
நூலக පුස්තකාල 0.5000000
நூலக පුස්‌තකාල 1.0000000
திறைசேரிக் මුරකරු 0.0384615
அமைச்சகம் NULL 0.0008489
அமைச்சகம் අමාත්‍යංශය 0.0208333
மாநாடு NULL 0.0008489
திருப்பு ෂන්ටින් 1.0000000
திருப்பு ඇන්ජින් 0.0666667
நன்னடத்தை හා 0.0061728
நன்னடத்தை පරිවාස 0.1111111
அவை මූලික 0.0909091
அவை හිමියන්ගේ 1.0000000
அவை ශාස්ත්‍ර 0.1666667
அவை සංගමය 0.0606061
அவை සමාගම 0.2000000
அவை NULL 0.0031126
இபலோகம ප්‍රාදේශීය 0.0047170
உறவுகள்‚ සබඳතා 1.0000000
உறவுகள்‚ සහ 0.0036101
பரிசோதனைப் NULL 0.0002830
கப்பற் NULL 0.0002830
கப்பற் කටයුතු 0.0227273
கப்பற் නැව් 0.1578947
கப்பற் නෞකා 0.0666667
கப்பற் නාවික 0.0322581
மாதளை මාතලේ 0.5000000
அலுவலகங் වෛද්‍ය 0.0080645
சேமிப்புத் දෙපාර්තමෙන්තුව 0.0116279
சேமிப்புத் මුදල් 0.0425532
சேமிப்புத் කණ්ඩායමේ 0.2500000
சேமிப்புத் ඉතිරිකිරීමේ 0.5000000
ஏம ආරක්ෂක 0.1025641
ஏம පරිපාලක 0.0120482
ஏம NULL 0.0002830
தொழில்காண், NULL 0.0002830
மருந்துகலப்பவர் සමාදානකරු 1.0000000
புள்ளிவிவரவியலர் සංඛ්‍යානඥයා 1.0000000
புள்ளிவிவரவியலர் වෛද්‍ය 0.0080645
புள்ளிவிவரவியலர் සංඛ්‍යාලේඛනඥ 1.0000000
புள்ளிவிவரவியலர் NULL 0.0002830
சிறைச்சாலைகள் දෙපාර්තමේන්තුව 0.0048309
சிறைச்சாலைகள் NULL 0.0002830
சிறைச்சாலைகள் බණ්‌ධනාගාර 1.0000000
கல்வெட்டுச் ශිලා 1.0000000
அரசகருமச் රාජ්‍ය 0.0156250
கனிட்ட විදුලි 0.0158730
கனிட்ட කණිෂ්ඨ 0.7250000
கனிட்ட ඉංජිනේරු 0.0055556
கனிட்ட NULL 0.0008489
கனிட்ட පොත් 0.0416667
கனிட்ட සහකාර 0.0100000
கனிட்ட විවීමේ 0.3333333
கனிட்ட ශ්‍රේෂ්ඨාධිකරණයේ 0.1666667
பிரதி මහ 0.0357143
பிரதி ගබඩා 0.0128205
பிரதி විභාග 0.1428571
பிரதி දරන්නා 1.0000000
பிரதி NULL 0.0028297
பிரதி කොමසාරිස් 0.0150376
பிரதி නියෝජ්‍ය 0.1132075
புள்ளிவிவரம் සංඛ්‍යාලේඛන‍ 0.5000000
தொற்றுத்நோய்த் නිරෝධායක 1.0000000
தொற்றுத்நோய்த் සෞඛ්‍ය 0.0188679
நிதியாக்கம் සංස්ථාව 0.0769231
சமையறை මුලුතැන්ගේ 0.2500000
கட்டட ඕවසියර් 0.0555556
கட்டட අරමුදල 0.0357143
கட்டட ගොඩනැගිලිවල 1.0000000
கட்டட ගොඩනැගිලි 0.2307692
பெண்கள் NULL 0.0002830
பெண்கள் හා 0.0061728
பெண்கள் කාන්තා 0.2307692
பெண்கள் කෘෂිකර්ම 0.0208333
பெண்கள் බාලිකා 1.0000000
பெண்கள் ශිෂ්‍ය 0.0526316
உண்டிச்சாலைப் මෙස් 0.5000000
உண்டிச்சாலைப் භෝජනාගාර 0.2500000
நுகர்வோர் පාරිභෝගික 1.0000000
கதிர்ப்பொறித் NULL 0.0002830
தீராநோயாளர் අසාධ්‍ය 0.5000000
தீராநோயாளர் අසාධ්‍යෙරෝගී 1.0000000
) NULL 0.0002830
இடைநிலை NULL 0.0002830
கணக்குகள் ගිණුම් 0.1250000
அரசாங்கக் දෙපාර්තමේන්තුව 0.0048309
அரசாங்கக் ආණ්ඩුවේ 0.0166667
அரசாங்கக் රාජ්‍ය 0.0156250
அரசாங்கக் පොදු 0.0769231
அரசாங்கக் රජයේ 0.0851064
துளைத்தற் විඳුම් 1.0000000
மனைகள்) NULL 0.0002830
கலைஞர் NULL 0.0002830
கலைஞர் ශිල්පී 0.1000000
மேல்மாகாணம் බස්නාහිර 0.5000000
வியாபாரம் වෙළඳාම 0.5000000
மாட்சிமை වහන්සේගේ 0.5000000
மாட்சிமை මහරජතුමාණන් 1.0000000
களுத்துறை කඵතර 1.0000000
களுத்துறை කළුතර 1.0000000
ஆள் NULL 0.0005659
ப.ஏ.நி.(பணிசெய்வோர் NULL 0.0002830
துறைச் වරාය 0.0416667
துறைச் පිළිබඳ 0.0123457
வேளாண் කෘෂිකර්ම, 0.3333333
வௌள ජලගැලීම් 0.5000000
பருவமன்று ඇසයිස් 1.0000000
பருவமன்று කොමසාරිස් 0.0075188
வைத்தியர் වෛද්‍ය 0.0483871
வைத்தியர் NULL 0.0008489
இழப்பீட்டுக் වන්දි 0.1000000
கிராம ගම්සභාපති 1.0000000
கிராம සංවර්ධන 0.0106383
கிராம විශාලකිරීම 1.0000000
கிராம ගම්බද 1.0000000
கிராம ග්‍රාමීය 0.2500000
கிராம ගම් 0.2000000
கிராம ග්‍රාම 0.6666667
அலுவலகக் ප්‍රාදේශීය 0.0047170
அலுவலகக் කාර්යාල 0.0555556
அலுவலகக் තැපැල් 0.0185185
புற்றுநோய் මහරගම, 1.0000000
புற்றுநோய் පිළිකා 0.3333333
புற்றுநோய் ආයතනය 0.0149254
விசாரணைக் පරීක්ෂණ 0.0625000
நலம்பேணல், මාතා 0.3333333
நலம்பேணல், සහ 0.0036101
மீன்காட்சிச்சாலை මත්ස්‍ය 0.5000000
ஒப்படைக் ශාඛාව 0.0128205
ஒப்படைக் බාරදීමේ 0.2500000
மறித்துவைக்கும் රඳවන 1.0000000
விற்பனை) NULL 0.0002830
அரசுப் පාර්ලිමේන්තු 0.0454545
உதவுநர் NULL 0.0002830
உதவுநர் සහකරු 0.2500000
சபாநாயகரின் කථානායකවරයාගේ 0.5000000
கணக்காய்வு, විගණන 0.1000000
கணக்காய்வு, සහකාර, 1.0000000
1) NULL 0.0005659
..சுகாதார සෞඛ්‍ය 0.0188679
ஆய்வு විමර්ෂණ 0.5000000
ஆய்வு NULL 0.0002830
மாதிரிப்பொருள் සාම්පල් 1.0000000
பழுதான නරක් 0.5000000
தொடர்பு, NULL 0.0002830
ஆங்கில ඉංග්‍රීසි 0.5000000
மேற்றர අධි 0.2500000
அலுவல், පාර්ලිමේන්තු 0.0454545
பொறிச்சாதனம் NULL 0.0002830
பொதுச் මහජන 0.5000000
பொதுச் සේවිකාව 0.3333333
பொதுச் ප්‍රධාන 0.0062500
பொதுச் සෞඛ්‍ය 0.0943396
பொதுச் මහ 0.0357143
(செலுத்தி) ඉංජිනේරු 0.0055556
விமானப் ලංකා 0.0049751
லுனுகம்வெஹர ලුණුගම්වෙහෙර 1.0000000
(தரம் NULL 0.0002830
(தரம் ශ්‍රේණිය 0.1666667
கடற்படைக் නාවික 0.0322581
அறைப் NULL 0.0002830
அறைப் ගබඩා 0.0128205
யீப்புச் ජීප් 1.0000000
மருத்துவிச்சிமார் වින්නඹු 0.1428571
மருவிய අර්ධ 0.5000000
கல்லச்சாளர் ලිතෝ 0.1428571
கல்லச்சாளர் මුද්‍රණකරු 0.2500000
.நீர்ப்பாசனப் වාරිමාර්ග 0.0526316
நிரப்பியெடுத்தல் කාණු 0.5000000
நிரப்பியெடுத்தல் කසළ 0.1428571
கைப் පුහුණු 0.0227273
உவர்நீர்க் කිවුල් 0.5000000
உவர்நீர்க் NULL 0.0002830
பாண்சாலை NULL 0.0002830
பிரசவ විද්‍යා 0.0112360
பிரசவ මාතෘ 0.5000000
பிரசவ සූතිකාගාර 0.5000000
பிரசவ සූති 0.5000000
பிரசவ වින්නඹුකම 1.0000000
பிரசவ සූතිකාගාරය 1.0000000
கமத்தொழில், කෘෂිකර්ම, 0.3333333
கமத்தொழில், කෘෂිකර්ම,ග්‍රාමීය 1.0000000
கமத்தொழில், සහ 0.0036101
கமத்தொழில், කෘෂිකර්ම 0.0416667
கமத்தொழில், ගොවිකම් 0.0588235
கமத்தொழில், කෘෂි 0.1111111
சான்றிதழ்பெற்ற ගුරුවර 0.0416667
சான்றிதழ்பெற்ற ඇඳීම් 0.1250000
சான்றிதழ்பெற்ற සහතිකපත්‍ර 0.2500000
சான்றிதழ்பெற்ற සහතික 0.1428571
சான்றிதழ்பெற்ற පත්‍ර 0.1666667
சான்றிதழ்பெற்ற NULL 0.0002830
சான்றிதழ்பெற்ற සහතිකලත් 0.5000000
சான்றிதழ்பெற்ற ලත් 0.0588235
கப்பற்சரக்கு මණ්ඩලය 0.0062893
கோப்பு ටයර් 0.5000000
கோப்பு ලිපිගොනු 1.0000000
றுவான்வெல்ல රුවන්වැල්ල 1.0000000
உறுதிக் ඔප්පු 0.5000000
வாசு බාස් 0.3333333
ஆதன NULL 0.0002830
சாதனைப் ප්‍රායෝගික 0.6666667
நெஞ்சுநோய்க் පෙණහැලි 0.5000000
கணக்குப் NULL 0.0002830
கணக்குப் ගණන් 0.0540541
கணக்குப் ගණක 0.2000000
கணக்குப் සහකාර 0.0025000
கணக்குப் පොත් 0.0833333
கணக்குப் ගිණුම් 0.2500000
கணக்குப் තබන්නා 0.2000000
நலம்பெறுசாலை සෞඛ්‍යාගාරය 1.0000000
.பொறியியக்கவல்லுநர் ශිල්පී 0.1000000
.பொறியியக்கவல்லுநர் යන්ත්‍ර 0.0147059
குடியிருப்புத் NULL 0.0002830
நிகழ்ச்சிமுறையமைப்பாளர்) ඡායා 0.5000000
நிகழ்ச்சிமுறையமைப்பாளர்) අධිකාරි 0.0074074
நிகழ்ச்சிமுறையமைப்பாளர்) විත්‍ර 0.5000000
உள்ள එක්සත් 0.3333333
உள்ள ලංකා 0.0447761
உள்ள අමාත්‍ය 0.2222222
உள்ள තානාපති 0.0666667
உள்ள සොවියට් 1.0000000
உள்ள NULL 0.0008489
தட்டெழுத்துப் ටයිප් 0.5000000
தட்டெழுத்துப் පිළිබඳ 0.0123457
தட்டெழுத்துப் ගැසීම් 0.5000000
ஓவியக் පිත්තාරු 0.2500000
சினிமா මොටර් 0.0303030
வெட்டுமரம் දැව 0.3333333
கிராமச்சபை ගම්සභා 1.0000000
மன்ற ශ්‍රේෂ්ඨාධිකරණ 0.3333333
மன்ற රෙජිස්‌ත්‍රාත් 0.2500000
மன்ற සභා 0.0833333
மன்ற අධිකරණ 0.0454545
மன்ற මස් 0.2500000
மன்ற NULL 0.0002830
அக்மீமன අක්‌මීමන 1.0000000
படகு NULL 0.0002830
படகு (අලියබෝට්ටු) 1.0000000
படகு යාත්‍රාව 0.2500000
மற்றும் අමාත්‍යංශය 0.0208333
மற்றும் සහ 0.0144404
மற்றும் සංස්‌කෘතික 0.1000000
மற்றும் මාර්ග 0.0666667
மற்றும் පළාත් 0.0384615
மற்றும் NULL 0.0067912
மற்றும் වෘත්තීය 0.3333333
மற்றும் වයඹ 0.3333333
மற்றும் පදනම 0.2000000
மற்றும் සම්බන්ධතා 0.0555556
மற்றும் හා 0.0740741
மற்றும் ස්වදේශ 0.2500000
மற்றும் කලමනාකරණ 0.3333333
மற்றும் පාර්ලිමේන්තු 0.0454545
மற்றும் සංඛ්‍යාලේඛන 0.1250000
அன்சாட்டு හැන්ඩ්සාර් 1.0000000
அன்சாட்டு සහකාර 0.0025000
நெருப்புக் ගිනි 0.1000000
(ஆராய்ச்சி) NULL 0.0005659
நிரந்தரத் ස්ථීර 0.1111111
இலஞ்சம் අල්ලස් 0.1250000
சேர்ந்தவர் ප්‍රවේශක 0.1666667
நிரந்தரப் NULL 0.0002830
நிரந்தரப் ස්ථීර 0.2222222
பட்டமேற்படிப்பாளர் පශ්චාත් 0.1250000
பட்டமேற்படிப்பாளர் අපේක්ෂක 0.5000000
பட்டமேற்படிப்பாளர் උපාධි 0.0833333
ஆடைக் රෙදි 0.3333333
ஆயுர்தே ගම්පහ 0.2000000
ஆயுர்தே වික්‍රමාරච්චි 0.5000000
வாகடர் ඖෂධ 0.0769231
நிறுவனம் ආයතනය 0.0298507
நிறுவனம் සංවිධානය 0.1000000
நிறுவனம் NULL 0.0011319
காவறை වාට්ටු 0.2500000
காவறை වාට්ටුව 0.6666667
காவறை ලිපිකාරි 0.3333333
காவறை කර 0.2000000
மாகாண NULL 0.0008489
மாகாண පළාත් 0.1153846
மாகாண ප්‍රාදේශික 0.1666667
மாகாண කාර්යාලය 0.0034602
பயிற்சிபெறு පරීක්ෂක 0.0065789
பயிற்சிபெறு fපොර්මන් 0.0192308
பயிற்சிபெறு පුහුණුවන 0.5000000
பயிற்சிபெறு අභ්‍යසලාභී 0.5000000
மாதிரியுரு මොස්තර 0.5000000
லொறிச் මොටර් 0.0303030
பண்டார NULL 0.0002830
உயிரினவியற் ජීව 0.2500000
அஸோஸியேடட் ලංකාවේ 0.5000000
உசாவற் ප්‍රාදේශීය 0.0047170
உசாவற் උපදේශක 0.0125000
உரிமை කිරීම් 0.0909091
உரிமை ඉඩම් 0.0434783
உரிமை නිරවුල් 0.4000000
உரிமை නිරාකරණ 1.0000000
உரிமை දෙපාර්තමේන්තුව 0.0096618
சொத்து වත්කම් 0.6666667
சொத்து බූදල් 0.1666667
சொத்து බදු 0.0526316
சொத்து කාර්යාලය 0.0034602
அமைப்பவர் ලේයර් 0.5000000
அமைப்பவர் NULL 0.0002830
அமைப்பவர் සාදන්නා 0.0909091
மகியங்கணை මහියංගණය 1.0000000
தொழினுட்பவியலர் කෙඳි 0.5000000
தொழினுட்பவியலர் ශිල්පඥ 0.2000000
தொழினுட்பவியலர் NULL 0.0008489
தொழினுட்பவியலர் විද්‍යාඥ 0.0666667
தொழினுட்பவியலர் කාර්මික 0.0169492
தொழினுட்பவியலர் කාර්මිකඥ 1.0000000
தொழினுட்பவியலர் කාර්මිකඥ, 0.5000000
கட்டுப்பாட்டாளர், NULL 0.0005659
பொதுப்பாட සාමාන්‍ය 0.0454545
பொதுப்பாட විෂයයන් 0.5000000
உள்ளகத் අභ්‍යන්තර 0.0588235
கீழைத்தேய හා 0.0061728
கீழைத்தேய පෙරදිග 1.0000000
பரிசோதனையாளர் පස් 0.0909091
கரையோர බඩ 0.3333333
கரையோர මුහුදු 0.3333333
கரையோர සමුද්‍රතීර 1.0000000
கரையோர NULL 0.0002830
கரையோர පරීක්ෂක 0.0065789
கரையோர වෙරළ 0.4000000
முசிலிம் සේවක 0.0086207
முசிலிம் මුස්ලිම් 0.4444444
உருக்கிப்பொருத்து NULL 0.0002830
உயிரின ජීවරසඥ 1.0000000
உயிரின NULL 0.0002830
சார்பற்ற නොවන 0.3333333
நிகழ்ச்சியேட்டு සම්පාදක 0.0625000
இருப்புப் තොග 0.0909091
பொருநர் බ්රිගේඩියර් 1.0000000
கட்டளைகள் ලංකා 0.0049751
கட்டளைகள் NULL 0.0002830
கட்டளைகள் ප්‍රමිති 0.2000000
கட்டளைகள் ප්‍රමාණ 0.1428571
காணி, ඉඩම්, 1.0000000
காணி, ඉඩම් 0.0217391
மண்டபப் ශාලාකරු 0.5000000
மேம்பாடு NULL 0.0002830
நிறை බර 0.2500000
தெஹியோவிற்ற දෙහිඕවිට 1.0000000
படப்பிடிப்பு ඡායාරූප 0.1111111
நவகத்தேகம ප්‍රාදේශීය 0.0047170
இரத்த ලේ 1.0000000
சிறைச்சாலைக் බන්ධනාගාර 0.0333333
சிறைச்சாலைக் හිරගෙදර 1.0000000
.மரவேலைப் ලී 0.3333333
பூசுநர் NULL 0.0002830
துறைமுகம் වරාය 0.0625000
உணவுக் NULL 0.0005659
உணவுக் පාලන 0.0166667
உணவுக் ආහාර 0.1372549
உணவுக் පාලනය 0.1000000
உணவுக் වැඩ 0.0149254
உணவுக் පාලක 0.0131579
உணவுக் අහරවට 1.0000000
டெல்ப்ட் ඩෙල්ෆ් 1.0000000
நிருவாகக் පාලන 0.0666667
நிருவாகக் පරිපාලන 0.1250000
கணக்கீட்டுப்பொறி NULL 0.0002830
துணைவன் කාර්ය 0.0238095
(எந்திரவியல்) NULL 0.0002830
உற்பத்தித் කාර්යාලය 0.0034602
உற்பத்தித் නිෂ්පාදන 0.0606061
உற்பத்தித் ලේකම් 0.0039062
பரீட்சைநோக்குநர் නිරීක්ෂක 0.3333333
பரீட்சைநோக்குநர் විභාග 0.1428571
(கூறு NULL 0.0002830
நெதர்லாந்தில் නෙදර්ලන්තයේ 1.0000000
வழிப்படுத்தல், හා 0.0061728
வழிப்படுத்தல், උපදේශ 1.0000000
பொருளியலர் ආර්ථික 0.0454545
பொருளியலர் අර්ථශාස්ත්‍රඥ 1.0000000
அஞ்சலதிபர் NULL 0.0005659
அஞ்சலதிபர் ස්ථානාධිපති 0.4000000
அஞ்சலதிபர் තැපැල් 0.1296296
அஞ்சலதிபர் (සුළු 1.0000000
நியதிச்சட்ட කොමසාරිස් 0.0075188
நியதிச்சட்ட ව්‍යවස්ථානුකූල 0.5000000
வேலைக்களத் වැඩපොළ 0.0740741
வேலைக்களத் කාර්මික 0.0169492
கருப்பவதிகள் ප්‍රාක් 1.0000000
பண்ணையாளர் ගොවි 0.3333333
திட்டவமைப்புக் සැලසුම් 0.0303030
திட்டவமைப்புக் NULL 0.0002830
கண்காணிப்பு අධිකාරි 0.0074074
கண்காணிப்பு අධිකාර 0.1666667
கண்காணிப்பு ආධුනික 0.0256410
கண்காணிப்பு ශාඛාවේ) 1.0000000
கண்காணிப்பு ඉංජිනේරු 0.0055556
முன்னளிப்பு ඉදිරිපත් 1.0000000
சக்திக்கூடக் සේවක 0.0086207
ஆயுதம் සහ 0.0036101
ஆயுதம் අච්චු 0.2000000
ஆயுதம் උපකරණ 0.0370370
கடமைப் සේවා 0.0101010
கப்பற்சேவைக் නෞකා 0.0666667
கப்பற்சேவைக் නාවික 0.0322581
ஊக்குவிப்பு NULL 0.0002830
சருவ අන්තර් 0.1666667
மடு මාඳු 1.0000000
.களச் කෙෂ්ත්‍ර 0.0357143
பலகை පුවරු 0.1666667
பண்ணைப் කාර්යමණ්ඩලය 0.2500000
பண்ணைப் කෘෂිකර්ම 0.0416667
பண்ணைப் NULL 0.0002830
பண்ணைப் ගොවිපොළ 0.2000000
பண்ணைப் ගොවිකම් 0.0588235
நூற்றற் නූල් 0.4000000
நூற்றற் සහකාර 0.0025000
நூற்றற் විවීමේ 0.3333333
ஊறீடுறுதிக் රක්ෂණ 0.2000000
ஊறீடுறுதிக் ආරක්ෂණ 0.2500000
பயற்சிக் NULL 0.0002830
ஊர்தி විදුලි 0.0079365
வெளிச்ச ප්‍රදීප 0.2000000
வெளிச்ச සහකාර 0.0025000
(உபகரணம்நீர்வழங்கல், NULL 0.0002830
(பெண்) (කාන්තා) 1.0000000
முறைப்படுத்து විධිමත් 0.5000000
அதிகப்படியான අතිරික්ත 1.0000000
உரைஞர் කථාකරු 1.0000000
தையற் මැහුම් 0.1666667
கிராமச் ගම්කාර්ය 0.5000000
அத்தாட்சிப்படுத்துநர் සහතිකකරන්නා 1.0000000
மேலமைப்பாளர் සවිකරන්නා 0.1666667
போக்குவரவு NULL 0.0005659
போக்குவரவு ගමනාගමන 0.1000000
போக்குவரவு රථ 0.0526316
போக்குவரவு මොටර් 0.0303030
வேட்பாளர் අපේක්ෂක 0.5000000
போக்குவரத்து රථ 0.1052632
போக்குவரத்து ප්‍රවාහණ 0.1764706
போக்குவரத்து අධිකාර 0.1666667
போக்குவரத்து ගමනා 0.6666667
போக்குவரத்து නිලධාරි 0.0028986
போக்குவரத்து මෝටර් 0.3333333
போக்குவரத்து NULL 0.0008489
போக்குவரத்து සහ 0.0036101
போக்குவரத்து ප්‍රවාහන 0.3750000
இணைக்கப்பட்ட අනුබද්ධ 0.5000000
பூஜாப்பிட்டிய ප්‍රාදේශීය 0.0047170
பூஜாப்பிட்டிய පූජාපිටිය 1.0000000
பூஜாப்பிட்டிய ලේකම් 0.0039062
(ஆங்கிலம்) ලේඛක 0.0909091
படை හමුදාව 0.1515152
படை විනිශ්චයකාර 0.0714286
படை යුද්ධාධිකරණය 1.0000000
படை NULL 0.0028297
படை සේනාංකය 0.5000000
படை සේනා 1.0000000
அமைப்பு වස්තු 0.5000000
அமைப்பு සංවිධානය 0.3000000
அமைப்பு ආකාශ 0.3333333
அமைப்பு කෘෂිකර්ම 0.0416667
அமைப்பு NULL 0.0016978
எடிபோன்காரர், එඩිfපෝන්කරු 0.5000000
குருடர் ගොළු 0.5000000
குருடர் සහ 0.0036101
புத்தகம் NULL 0.0002830
புத்தகம் ප්‍රවෘත්ති 0.0357143
புத்தகம் පොත 0.3333333
புத்தகம் සහ 0.0036101
(வத்தைக்காலை NULL 0.0002830
அமயத் අනියම් 0.2000000
விரிவாக்கற் NULL 0.0002830
தரைப்படை හමුදා 0.2121212
தரைப்படை හමුදාව 0.0303030
தரைப்படை සහ 0.0036101
தரைப்படை අණදෙන 0.1000000
தரைப்படை ආධුනිකයන් 1.0000000
.இலங்கை ලංකා 0.0049751
எக்ஸ் එක්ස්රේ 1.0000000
எக்ஸ் කාර්මික 0.0169492
பணியகப் NULL 0.0002830
தேர்தற் පාර්ලිමේන්තු 0.0454545
தேர்தற் නියෝජ්‍ය 0.0188679
தேர்தற் මැතිවරණ 0.1250000
.பிரதான ප්‍රධාන 0.0125000
(தெரிவுத் NULL 0.0005659
(தெரிவுத் සංඥා 0.2500000
தோட்டச் පාඨශාලා 0.0526316
தோட்டச் සහතික 0.0714286
அரசாங்கச் සහකාර 0.0025000
அரசாங்கச் රජයේ 0.0212766
அரசாங்கச் රාජ්‍ය 0.0312500
அவதானிப்புக் සෝදිසි 0.3333333
அஞ்சலலுவலகம் තැපැල් 0.0185185
முறைகள் ක්‍රමය 0.0285714
பால் කිරි 0.3333333
பால் අත් 0.1428571
பால் අලෙවි 0.1250000
கொள்வனவுப் NULL 0.0002830
வழக்கறிஞரின் නීතිඥගේ 1.0000000
அஞ்சலலுவலக තැපැල් 0.0185185
(பம்பு NULL 0.0002830
பகுப்புமுறை විශ්ලේෂක 1.0000000
பாலவேலைச் පාලම් 0.2000000
அலுவற் නිලධාරි 0.0028986
அலுவற் පිළිබඳ 0.0123457
அலுவற் කටයුතු 0.0454545
அலுவற் NULL 0.0005659
உடையின்றிச் රහිත 0.5000000
உடையின்றிச் විශේෂ 0.0256410
உத்தியோகப் නිල 0.1250000
மாநகராட்சி කොමසාරිස් 0.0075188
மாநகராட்சி නාගරික 0.2307692
மாநகராட்சி සභාව 0.0204082
தலைமையச் පරීක්ෂක 0.0065789
தலைமையச் මූලස්ථාන 0.1111111
துறைமுக වරාය 0.1458333
துறைமுக ලොන්ච් 1.0000000
துறைமுக වරායේ 0.5000000
துறைமுக ප්‍රදීප 0.2000000
துறைமுக ලංකා 0.0049751
கொள்கைகள் අය 0.1666667
கொள்கைகள் NULL 0.0002830
கொள்கைகள் ජාතික 0.0128205
உள்ளூர்த் ප්‍රාදේශීය 0.0047170
புத்தள බුත්තල 1.0000000
காணி හා 0.0061728
காணி කොමසාරිස් 0.0075188
காணி පාර්ලිමේන්තු 0.0454545
காணி සංවර්ධන 0.0212766
காணி සහකාර 0.0025000
காணி අධ්‍යක්ෂ 0.0067114
காணி ලිපිකරු 0.0068493
காணி NULL 0.0005659
காணி ඉඩම් 0.4782609
காணி දෙපාර්තමේන්තුව 0.0048309
காணி ඕවසියර් 0.0555556
காணி සහ 0.0072202
சின்னம் NULL 0.0002830
வகுப்புப் පන්ති 0.3333333
முடித்த නිපදවූ 1.0000000
குட்டநோயாளர் ලාදුරු 0.5000000
விற்றோரியா වික්ටෝරියා 0.5000000
விற்றோரியா රෝගීන් 0.5000000
(வளங்கள்) NULL 0.0002830
இயக்கப்பொறிச் දුම්රිය 0.0555556
மின்சாரக் විදුලි 0.0158730
சயன නිදන 1.0000000
வரைவுப் සටහන් 0.1250000
பிரதிப் අධ්‍යාපන 0.0491803
பிரதிப் දෙවැනි 0.0833333
பிரதிப் කෘෂිකර්ම 0.0208333
பிரதிப் NULL 0.0014148
பிரதிப் (පරීක්ෂණාගාර 1.0000000
பிரதிப் අධ්‍යක්ෂ 0.0335570
பிரதிப் කර්මාන්ත 0.0084034
பிரதிப் කාර්මික 0.0169492
பிரதிப் නියෝජ්‍ය 0.2264151
பிரதிப் (බැංකු) 1.0000000
பிரதிப் (පර්යේෂණ) 0.5000000
பிரதிப் පිටපත් 0.0909091
சைக்கிள்காரர் සයිකල්කරු 0.5000000
சைக்கிள்காரர் ඔපරේටර් 0.0400000
கொடுப்பனவு පඩි 0.0769231
கொடுப்பனவு වැටුප් 0.0555556
கொடுப்பனவு ගෙවීම් 0.2000000
கொடுப்பனவு ගෙවන 0.6666667
கொடுப்பனவு නිලධාරි 0.0028986
தொற்றுநோயியலர் වසංගත 0.5000000
காட்டியற் වන 0.2857143
காட்டியற் විද්‍යා 0.0112360
கடுவல කඩුවෙල 1.0000000
மூசலை මුසලයි 1.0000000
மூசலை ලේකම් 0.0039062
மூசலை ප්‍රාදේශීය 0.0047170
மூசலை කාර්යාලය 0.0034602
தோட்டித் සහ 0.0036101
(Health නිවුස්‌ 1.0000000
கணக்குக் ගබඩා 0.0128205
கணக்குக் ගණන් 0.0810811
கணக்குக் ගිණුම් 0.1250000
நோயியல் අංශයේ 0.1428571
நோயியல் රෝග 0.0434783
நோயியல் කථිකාචාර්ය 0.0158730
நிறுவகச் NULL 0.0002830
நிறுவகச் ආයතනයේ 0.2000000
ஆராச்சிக்கட்டுவ ලේකම් 0.0039062
ஆராச்சிக்கட்டுவ ආරච්චිකට්‌ටුව 1.0000000
ஆராச்சிக்கட்டுவ ප්‍රාදේශීය 0.0047170
உயிரினவியலர் ජීවවිද්‍යාඥ 1.0000000
உயிரினவியலர் ජීව 0.2500000
இயக்கப்பொறிக் දුම්රිය 0.0555556
இலங்கைக் ලංකා 0.0149254
இலங்கைக் NULL 0.0002830
இலங்கைக் ශ්‍රී 0.0281690
வாசம் NULL 0.0002830
அவதானிப்பு නිරීක්ෂණාගාරය 1.0000000
அவதானிப்பு ආකාශවස්තු 1.0000000
கடற்செலவு, නැව් 0.0526316
படம் ප්ලෑන් 0.2000000
படம் මුද්‍රණ 0.0625000
படம் සිතියම්කරු 1.0000000
தொய்வு ඇදුම 1.0000000
தொய்வு සායනය 0.5000000
பொதுநலவரசுத் පොදුරාජ්‍යමණ්ඩලීය 0.0714286
நாடுகள் ජාතීන් 1.0000000
ஒப்பப்பணம் දායක 0.3333333
எந்திரி, ප්‍රාදේශීය 0.0047170
எந்திரி, ගබඩා 0.0128205
எந்திரி, සහ 0.0036101
எந்திரி, ඉංජිනේරු 0.0166667
எந்திரி, වැඩ 0.0149254
முன்மொழிபவர் යෝජක 0.5000000
ஓய்வூதியத் වැටුප් 0.0555556
ஓய்வூதியத் විශ්‍රාම 0.2000000
காசேடு මුදල් 0.0212766
காசேடு පොත් 0.0416667
பிரகடன ප්‍රකාශිත 1.0000000
ஆலைத் මොල් 0.3333333
ஆண்கள் පිරිමි 1.0000000
நூல் ප්‍රකාශන 0.0476190
நூல் ග්‍රන්ත 1.0000000
நூல் පොත 0.3333333
சித்த සිද්ධ 0.5000000
பலவினக் විවිධ 0.2500000
விற்பனைச்சாலை වෙළඳ 0.0322581
யூரி ජූරි 0.3333333
நிதி‚ රාජ්‍ය 0.0156250
வலுவூட்டுகை කාන්තා 0.0769231
வலுவூட்டுகை NULL 0.0002830
செலவாணிக் දෙපාර්තමේන්තුව 0.0048309
செலவாணிக் හුවමාරු 0.1666667
செலவாணிக் පාලනය 0.1000000
செலவாணிக் විනිමය 0.7500000
செலவாணிக் මුදල් 0.0212766
தொலைத்தொடர்பு විදුලි 0.0079365
தொலைத்தொடர்பு මාර්ග 0.0666667
பெளத்த බෞද්ධ 0.2222222
கலைச்சொல் පාරිභාෂික 1.0000000
ஆபிரிக்க ප්‍රාවීන 0.3333333
கூடக் සේවක 0.0086207
குட்டநோய் ආරෝග්‍යශාලාව 0.0625000
குட்டநோய் ලාදුරු 0.5000000
தலவாக்கொல்லை තලවකැලේ 1.0000000
வண்ணந்தீட்டுநர் පින්තාරු 1.0000000
வண்ணந்தீட்டுநர் පින්තාරුකරු 0.5000000
வண்ணந்தீட்டுநர் කරු 0.3333333
வண்ணந்தீட்டுநர் NULL 0.0002830
குடியமர்த்தல், NULL 0.0002830
படப்பிடிப்புத் ඡායාරූප 0.2222222
உரிமைகள் NULL 0.0002830
விளக்கத் පහන් 0.1111111
அமைச்சர், රාජ්‍ය 0.0156250
தந்திச் සහ 0.0036101
பிபிலே බිබිල 1.0000000
மன்றங்கள் සභා 0.0833333
மன்றங்கள் ; 0.0048077
முடிக்குரிய රාජ්‍ය 0.0156250
முடிக்குரிய ආණඩුවේ 1.0000000
முடிக்குரிய ආණ්ඩුවේ 0.1166667
முடிக்குரிய ක්‍රවුන් 1.0000000
முடிக்குரிய නීතිඥ 0.0714286
இத்தாலியில் ඉතාලියේ 1.0000000
அனுபவம்) NULL 0.0002830
கடற்தொழில் ලංකා 0.0049751
கடற்தொழில் ධීවර 0.0454545
சருவதேசப் අභ්‍යාස 0.0400000
சருவதேசப் ජාත්‍යන්තර 0.1333333
மருந்தகம் බෙහෙත් 0.0833333
புகலிடப் රෝගී 0.2500000
உயர் මහා 0.1000000
உயர் අධ්‍යාපනය 0.5000000
உயர் ශ්‍රේෂ්ඨාධිකරණයේ 0.1666667
உயர் නියෝජ්‍ය 0.0094340
உயர் විදේශ 0.0212766
உயர் ශ්‍රේෂ්ඨාධිකරණ 0.3333333
உயர் ඉහළ 1.0000000
உயர் ඉහල 1.0000000
உயர் මහ 0.0714286
உயர் පෙළේ 0.5000000
உயர் පොදුරාජ්‍යමණ්ඩලීය 0.0714286
உயர் කොමසාරිස් 0.0075188
உயர் ලංකා 0.0099502
உயர் NULL 0.0016978
உயர் විද්‍යා 0.0112360
உயர் ශ්‍රේෂ්ඨාධිකරණය 1.0000000
மரக்கறி එළවළු 0.6000000
ஆய்வுச் විමර්ෂණ 0.1250000
திட்டவமைப்பு හා 0.0061728
திட்டவமைப்பு ප්‍රධාන 0.0062500
திட்டவமைப்பு ක්‍රම 0.0769231
திட்டவமைப்பு නිර්මාණ 0.0555556
திட்டவமைப்பு සංවිධාන 0.1111111
திட்டவமைப்பு සහ 0.0036101
திட்டவமைப்பு සැලසුම් 0.1818182
திட்டவமைப்பு ක්‍රමසම්පාදන 0.2500000
திட்டவமைப்பு NULL 0.0005659
திட்டவமைப்பு (අර්ධකාලීන) 0.5000000
திட்டவமைப்பு කොමිෂන් 0.0384615
திட்டவமைப்பு ක්‍රමය 0.0285714
திட்டவமைப்பு ඉංජිනේරු 0.0055556
செலவாணிப் හුවමාරු 0.1666667
செலவாணிப் මුදල් 0.0425532
கண்காணிப்புத் විදුලි 0.0079365
கண்காணிப்புத் සන්දේශ 0.1666667
கண்காணிப்புத் NULL 0.0005659
(பிரசாரம்) NULL 0.0002830
அளவைகள் බර 0.2500000
எழுதுநர், ලේඛක, 0.5000000
எழுதுநர், පිළිගන්නා 0.2500000
வென்னப்புவ වෙන්නප්පුව 1.0000000
பயிர்ச்செய்கைச் වගාකිරීම් 0.3333333
மூடைகட்டும் අසුරන 1.0000000
மொழிப் භාෂා 0.0714286
மாதிரியமைப்பாளர் රූප 0.3333333
இரத்தினக்கள், මැණික්‌ 0.5000000
வீட்டுப்பணிச் ගෘහ 0.0526316
உத்தியோக නිලධාරීහු 0.1666667
உத்தியோக රජයේ 0.0212766
உத்தியோக නිල 0.2500000
தளகர்த்தர் NULL 0.0002830
கல்விநூல் අධ්‍යාපන 0.0819672
கல்விநூல் ප්‍රකාශන 0.0476190
புள்ளியியல் NULL 0.0002830
மட்பாண்ட ලංකා 0.0049751
மட்பாண்ட පිඟන් 0.3750000
பொறித் යන්ත්‍රාගාරය 1.0000000
போதனா NULL 0.0002830
போதனா ශික්‌ෂණ 0.5000000
சேவகர், පියුන් 0.1666667
பூச்சியியலர் විද්‍යාඥ 0.0666667
பூச்சியியலர் කීට 0.1111111
நீர்வழங்கல், ජලසම්පාදන, 1.0000000
அகுரச்ச අකුරැස්‌ස 1.0000000
உபாத்தியாயர் සහකාර 0.0025000
உபாத்தியாயர் උපගුරුවර 0.5000000
உபாத்தியாயர் උපාචාර්ය; 0.3333333
உபாத்தியாயர் ගුරුවර 0.4583333
உபாத்தியாயர் ගුරුවරයා 0.3333333
உபாத்தியாயர் NULL 0.0042445
உபாத்தியாயர் ආචාර්ය 0.0144928
பணிபாளர் අධ්‍යක්ෂ 0.0067114
முகாத்துவ කළමණාකරන 0.5000000
பற்சிகிச்சைத் කෙෂ්ත්‍ර 0.0357143
பற்சிகிச்சைத் දන්ත 0.0833333
கீழைத்தேய, ප්‍රාවීන 0.3333333
முற்றம் NULL 0.0002830
நன்னீர்க் මිරිදිය 0.2500000
ஜெர்மன் ජර්මන් 1.0000000
கடற்றொழிலாளர் ධීවර 0.0454545
தூதாண்மைப் රාජ්‍ය 0.0156250
(சிறுபதவியினர்) සේවක) 1.0000000
சிவில் ලැයිස්තු 0.1428571
சிவில் අනියම් 0.2000000
சிவில் ලඝු 0.1000000
சிவில் ගුවන් 0.0392157
சிவில் හමුදා 0.0303030
சிவில் නිලධාරීහු 0.1666667
சிவில் ශ්‍රී 0.0140845
சிவில் අවස්ථා 0.5000000
சிவில் සිවිල් 0.7804878
சிவில் ලංකා 0.0049751
ஆசிரியை ගුරුවරිය 0.5000000
முழவுக்கலை බෙර 1.0000000
.பொருளாதாரப் ආර්ථික 0.0454545
கட்டுமானக் නිර්මාණ 0.1666667
புகையூட்டற் ධුමායන 0.3333333
புகையூட்டற் ධුමායක 1.0000000
புகையூட்டற் යන්ත්‍ර 0.0147059
ரூபவாஹினீ ආයතනය 0.0149254
ரூபவாஹினீ රූපවාහිනි 1.0000000
மூக்கு, නාස්, 1.0000000
பெண்ணோயியலர் හා 0.0061728
பெண்ணோயியலர் ප්‍රසව 0.5000000
தோட்டக்கலைப் විද්‍යා 0.0112360
தோட்டக்கலைப் උද්‍යාන 0.0666667
மேலைத்தேய අපරදිග 0.5000000
பர்மாவில் බුරුමේ 1.0000000
பர்மாவில் ලංකා 0.0049751
பருவச் වාර 1.0000000
வியூகன் ප්‍රධාන 0.0062500
புத்தாய்வு) NULL 0.0002830
கல்விக்கூடம் NULL 0.0002830
இறக்கற்பொறுப்பு, ශාඛාව 0.0128205
இறக்கற்பொறுப்பு, සහ 0.0036101
இறக்கற்பொறுப்பு, ගොඩබෑම් 0.0714286
இறக்கற்பொறுப்பு, භාරදීම් 1.0000000
பற் දන්ත 0.0833333
பற் චිකිත්සාගාරය 0.0625000
இந்தியாவில் ඉන්දියාවේ 1.0000000
வளர்ந்தோர்,செவிகட் වෘද්ධ 0.2000000
வளர்ந்தோர்,செவிகட் ශ්‍රව්‍ය 0.2500000
தெற்குமேற்கு දකුණ-බටහිර 0.5000000
நீதித்துறை නියෝජ්‍ය 0.0094340
பற்சிகிச்சை දන්තාරෝග්‍යශාලා 1.0000000
பற்சிகிச்சை දන්තාගාර 1.0000000
பற்சிகிச்சை දන්ත 0.0833333
பற்சிகிச்சை සේවක 0.0086207
பற்சிகிச்சை කාර්යභාර 0.5000000
நீதிமன்றம் උසාවිය 0.0384615
நன்னீர் මිරිදිය 0.2500000
பாளி, පාලි 0.5000000
கொத்தலாவல කොතලාවල 0.5000000
கடமை ඇජුටන්ට්; 1.0000000
கடமை කාර්ය 0.0238095
கடமை තීරු 0.3333333
கடமை රාජකාරි 1.0000000
கடமை සොහොයුරියන්ගේ 1.0000000
கடமை රාජකාර්ය 0.5000000
வகை ද්‍රව්‍ය 0.0571429
மகாவலி ලංකා 0.0049751
பொறுப்பு NULL 0.0053763
பொறுப்பு ලිපිකරු 0.0068493
பொறுப்பு විදුලි 0.0079365
பொறுப்பு කඳවුරු 0.1000000
பொறுப்பு ප්‍රසව 0.5000000
பொறுப்பு ගොඩබෑම් 0.2857143
பொறுப்பு ලුතිනන් 0.3333333
பொறுப்பு වෛද්‍ය 0.0080645
பொறுப்பு මිනින්දෝරු 0.0434783
பொறுப்பு නිලධාරි 0.0086957
பொறுப்பு භාර 0.1428571
(நீர்ப் NULL 0.0002830
நகர කාත්තන්කුඩි 0.3333333
நகர නගර 0.3333333
நகர කාර්යාලය 0.0034602
நகர නාගරික 0.1538462
முகமைகள் නියෝජිත 0.0384615
(ஏற்றுமதி) NULL 0.0005659
பொருளாதார ආර්ථික 0.1818182
பொருளாதார පර්යේෂණ 0.0232558
பொருளாதார කටයුතු 0.0227273
பொருளாதார සම්පාදන 0.0555556
பொருளாதார NULL 0.0008489
குடியேற்றம், ගොවීන් 1.0000000
இடைவருகைச் ආගන්තුක 0.2000000
மருத்துவச் සහතික 0.0714286
மருத்துவச் වෛද්‍ය 0.0564516
மருத்துவச் රෝග 0.0434783
மருத்துவச் හා 0.0061728
பங்குச் මැනිං 1.0000000
பௌத்த බෞද්ධ 0.3333333
பௌத்த අධ්‍යයන 0.1666667
பௌத்த හා 0.0061728
பௌத்த ළදරු 0.2500000
கொழும்பு නාගරික 0.0769231
கொழும்பு NULL 0.0002830
கொழும்பு පරිගණක 0.5000000
கொழும்பு ගුවන් 0.0196078
கொழும்பு විදුලි 0.0158730
கொழும்பு පාසල් 0.1000000
கொழும்பு කොළඹ 0.5200000
கொழும்பு මහ 0.0357143
ஐ.பி.எம் අයි.බී.එම්භාර 1.0000000
நலந்துறை NULL 0.0005659
கூறுப் NULL 0.0005659
செவிடர்,குருடர் අඳ 0.2500000
நலன்புரி සංගමය 0.0303030
வீட்டுத் ආචාර්ය 0.0144928
வீட்டுத் ගෘහ 0.0526316
வீட்டுத் ශිෂ්‍ය 0.1052632
வீட்டுத் නිවාස 0.0555556
வீட்டுத் නිවර්තන 0.5000000
நீர்க் ජල 0.0400000
.பொறிக் යන්ත්‍ර 0.0441176
.பொறிக் යන්ත්‍රානුසාර 1.0000000
கப்பற்படைச் නෞකා 0.0666667
செய்முறைகாட்டு කිරීම 0.1428571
செய்முறைகாட்டு වැඩ 0.0149254
செய்முறைகாட்டு ශාස්ත්‍රය 0.1428571
செய்முறைகாட்டு කර්මාන්ත 0.0084034
செய்முறைகாட்டு NULL 0.0019808
செய்முறைகாட்டு කථිකාචාර්ය 0.0158730
செய்முறைகாட்டு සහ 0.0036101
செய்முறைகாட்டு ප්‍රදර්ශක 0.0526316
வாசிப்பாளர் NULL 0.0002830
விபத்து අනතුරැ 1.0000000
விபத்து නිලධාරි 0.0028986
நடை පදික 1.0000000
(நாடகம்) NULL 0.0002830
விரலடையாளப் ඇඟිළි 1.0000000
மின்சாரவுற்பத்திப் විදුලි 0.0079365
தலைவரின் සභාපතිගේ 0.3333333
தலைவரின் පෞද්ගලික 0.0454545
கொதிகலச் බොයිලේරු 0.1666667
கதிர்ப்பொறிவலர் යාන්ත්‍රික 0.0185185
நீர்வள ජලජීවී 1.0000000
மருந்துகொடுக்கும் දිස්පැන්සර 0.5000000
உத்தரவாதி ඇපකරු 1.0000000
மறுசீரமைப்பு අමාත්‍යංශය 0.0208333
மறுசீரமைப்பு NULL 0.0002830
நாட்டுவரிக் සුරාබදු 0.0555556
நாட்டுவரிக் ඇක්සයිස් 0.1250000
மடுல்ல ප්‍රාදේශීය 0.0047170
மடுல்ல මඩුල්ල 1.0000000
வெளிநாட்டு NULL 0.0008489
வெளிநாட்டு සම්පත් 0.0476190
வெளிநாட்டு ලංකා 0.0049751
வெளிநாட்டு ශ්‍රී 0.0140845
வெளிநாட்டு විදේශ 0.1063830
வெளிநாட்டு ආරක්ෂක 0.0256410
உணவு නිපදවීමේ 0.2500000
உணவு නගරයේ 1.0000000
உணவு ආහාර 0.3137255
உணவு නියෝජ්‍ය 0.0094340
உணவு කොමසාරිස් 0.0075188
உணவு සංරක්ෂණ 0.1000000
உணவு අධ්‍යක්ෂ 0.0067114
உணவு NULL 0.0002830
உணவு නිෂ්පාදන 0.0606061
உணவு භෝජන 0.5000000
உணவு සහ 0.0072202
உணவு ප්‍රදර්ශන 0.5000000
உணவு කෑම 0.2000000
உணவு පරිපාලක 0.0120482
உணவு පෝෂණ 0.2500000
மின்னூட்டம்) NULL 0.0002830
பதிகருவி NULL 0.0002830
கனிப்பொருளியலர் ඛණිජ 0.2000000
கனிப்பொருளியலர் ඛනිජ 0.2500000
கனிப்பொருளியலர் ද්‍රව්‍ය 0.0285714
கனிப்பொருளியலர் රජයේ 0.0212766
கனிப்பொருளியலர் ඛනිජවිද්‍යාඥ 1.0000000
கனிப்பொருளியலர் NULL 0.0002830
கனிப்பொருளியலர் විද්‍යාඥ 0.0666667
ஆளிப் ස්විච් 1.0000000
சபையில் සඳහා 0.0833333
பொறித்தொகுதி ඔපරේටර් 0.0400000
பொறித்தொகுதி කිරීමේ 0.0256410
பொறித்தொகுதி කොටන 1.0000000
பொறித்தொகுதி උපකරණ 0.0370370
பொறித்தொகுதி NULL 0.0011319
பொறித்தொகுதி යක්ත්‍ර 1.0000000
பொறித்தொகுதி යන්ත්‍ර 0.0588235
தாதித் NULL 0.0002830
தாதித் සාත්තුසේවක 1.0000000
அங்கீகாரம்பெற்ற, කළ 0.1666667
அங்கீகாரம்பெற்ற, අනුමත 1.0000000
தாபிப்புகள்) සවිකිරීම්) 1.0000000
படப் ඡායාරූප 0.1111111
படப் ඡායා 0.5000000
சத்தர NULL 0.0002830
வானூர்தித்துறைச் ගගණ 0.2000000
(உள்நாடு) NULL 0.0002830
தயாரிக்கும் සැකසුම් 1.0000000
நோயியற் විද්‍යා 0.0112360
நோயியற் නිදාන 0.2500000
நோயியற் රෝග 0.0434783
சுகாதாரம்) NULL 0.0002830
தூதர் තානාපති 0.1333333
தூதர் NULL 0.0014148
உபகரணவண்டிச் උපකරණ 0.0370370
கலங்கரைவிளக்கச் ප්‍රදීපස්තම්භ 1.0000000
குழு සභාව 0.0714286
குழு NULL 0.0059423
குழு කොමිටියේ 1.0000000
குழு කාරනකසහාව 1.0000000
குழு කාරකසභාව 0.3333333
குழு කොමිටිය 0.1428571
குழு කාරක 0.3636364
குழு කොමිටිය; 1.0000000
குழு කමිටුව 0.3750000
படைக்கலச் වේත්‍රධාරි 0.5000000
படைக்கலச் යුද්ධ 0.1111111
கலத்துறை නෞකා 0.0666667
மதிப்பு සහකාර 0.0025000
மதிப்பு ජනලේඛන 0.0833333
மதிப்பு තක්සේරු 0.1111111
மதிப்பு NULL 0.0002830
ஏமக் ආරක්ෂක 0.0769231
ஏமக் ශාඛාව 0.0128205
(பொருளாதாரம்) NULL 0.0002830
நடத்தற் ප්‍රදර්ශක 0.0526316
சரக்குமேடை වාප්පු 0.2000000
பாலர் පාඨශාලා 0.1052632
பாலர் දවල් 1.0000000
தர NULL 0.0002830
மாவட்டப் රෙජිස්ට්‍රාර් 0.0384615
மாவட்டப் දිස්ත්‍රික් 0.0566038
தாவரவியலர் උද්භිතවිද්‍යාඥ 1.0000000
தாவரவியலர் උද්භිදව්ද්‍යාඥ 0.6666667
தாவரவியலர் උද්භිත 0.1666667
தாவரவியலர் ස්ථානය 0.0303030
பொலிசுச் ඉන්සපෙක්ටර් 0.2500000
பொலிசுச் පොලීසියේ 1.0000000
பொலிசுச் බලකායේ 1.0000000
பொலிசுச் පොලිස් 0.2173913
பொலிசுச் NULL 0.0005659
பொலிசுச் පොලිසි 1.0000000
நிருவாகச் පාලන 0.0333333
உணவுப் NULL 0.0002830
உணவுப் ආහාර 0.0392157
இலங்கை‚ ජනරාල් 0.0357143
இலங்கை‚ ඇමෙරිකා 1.0000000
இலங்கை‚ ශ්‍රී 0.0140845
இலங்கை‚ කොන්සල් 0.1666667
இலங்கை‚ කාර්යාලය 0.0034602
இலங்கை‚ ලංකා, 1.0000000
இலங்கை‚ - 0.0833333
செய்முறைகாட்டுநர் NULL 0.0005659
செய்முறைகாட்டுநர் විද්‍යා 0.0112360
செய்முறைகாட்டுநர் ව්‍යවචේඡද 1.0000000
செய்முறைகாட்டுநர் ප්‍රදර්ශක 0.1578947
பிறப்பு, උප්පැන්න 1.0000000
பிறப்பு, සහ 0.0036101
வீட்டு ගේ 0.5000000
வீட்டு ගෘහ 0.0526316
(புகைவண்டித் NULL 0.0002830
தோட்ட, උද්‍යාන 0.0666667
சேவைகள் ප්‍රමිති 0.2000000
சேவைகள் පුහුණු 0.0227273
சேவைகள் සේවා 0.0909091
சேவைகள் මහාමාර්ග 0.2000000
சேவைகள் අමාත්‍යංශය 0.0416667
சேவைகள் සහ 0.0072202
சேவைகள் ඒකාබද්ධ 0.1250000
சேவைகள் NULL 0.0014148
சேவைகள் දෙපාර්තමේන්තුව 0.0048309
பராளுமன்றம் පාර්ලිමේන්තුව 0.5000000
கிராமியக் සම්ප්‍රදායික 1.0000000
சட்டாம்பிள்ளை මොනිටර් 1.0000000
பரப்பு NULL 0.0002830
பரப்பு ප්‍රදේශ 0.5000000
அடமான, උගස්‌ 0.5000000
அடமான, රාජ්‍ය 0.0156250
திட்டக் NULL 0.0005659
வலயம்) NULL 0.0005659
பிரசித்தப்படுத்தல், සහ 0.0036101
பிரசித்தப்படுத்தல், ප්‍රචාරක 0.5000000
உத்தரவுச்சீட்டு දීම් 0.5000000
உத்தரவுச்சீட்டு බලපත්‍ර 0.3333333
உத்தரவுச்சீட்டு නිලධාරි 0.0028986
காக்கைவலிக் අපස්මාර 1.0000000
தேசியப் NULL 0.0002830
படைக்கலச்சேவிதர் සාර්ජන් 0.1111111
கற்கைகள் අධ්‍යයන 0.3333333
கற்கைகள் බෞද්ධ 0.1111111
கற்கைகள் අධ්‍යාපන 0.0163934
கற்கைகள் ආයතනය 0.0149254
கலத்துறை, නැව් 0.0526316
கலத்துறை, තටාකයේ 1.0000000
புல்வெட்டிப் තනකොළ 1.0000000
புல்வெட்டிப் යන්ත්‍ර 0.0147059
புல்வெட்டிப் කපන 0.5000000
துறைமுகச் වරාය 0.0208333
துறைமுகச் මණ්ඩලය 0.0062893
பன்னல පන්නල 1.0000000
அகில සමස්ත 1.0000000
குடியேற்றச் ජනපද 0.1428571
வியவன் සතියේ 1.0000000
வியவன் හමුදා 0.0303030
வியவன் කපිතන් 1.0000000
வியவன் (පාලන) 0.2500000
வியவன் මාණ්ඩලික 0.0526316
வியவன் කපිතාන් 0.8333333
வியவன் NULL 0.0002830
குற்றமேல்முறையீட்டு ක්‍රමිනෙල් 0.5000000
உறவுப் සම්බන්ධතා 0.0555556
உறவுப் අංශය 0.0076923
தோட்டத் ශෝධක 0.2000000
தோட்டத் උද්‍යාන 0.1333333
தெங்கு වැවීම 0.5000000
தெங்கு නැවත 0.3333333
தெங்கு පොල් 0.6000000
தெங்கு සිටුවීමේ 0.5000000
மறுசீரமைப்புத் නගා 0.5000000
மறுசீரமைப்புத் හා 0.0061728
மறுசீரமைப்புத் NULL 0.0002830
மறுசீரமைப்புத் වැවීම 0.5000000
மறுசீரமைப்புத் පුනරුත්ථාපන 1.0000000
மறுசீரமைப்பு, සහකාර 0.0025000
பலவினச் විවිධ 0.2500000
விதிப்பண NULL 0.0002830
விதிப்பண ගාස්තු 0.2000000
திறன் NULL 0.0005659
விளையாட்டு ආයතනය 0.0149254
விளையாட்டு ක්‍රීඩා 0.3333333
விளையாட்டு විද්‍යා 0.0112360
விளையாட்டு කටයුතු 0.0227273
விளையாட்டு NULL 0.0002830
விளையாட்டு ගුරුවරිය 0.5000000
இணக்கச் සමාදාන 0.6666667
இணக்கச் බේරීම් 1.0000000
இணக்கச் ලංකා 0.0049751
இணக்கச் බේරීමේ 1.0000000
இணக்கச் නීති 0.0800000
இணக்கச் මණ්ඩලයේ 0.0588235
ஏவு අණදෙන 0.1000000
தரைப்படைக் කණ්ඩායම 0.0909091
தரைப்படைக் හමුදා 0.0303030
நாட்டுவரிச் සුරාබදු 0.1666667
நாட்டுவரிச் ඇක්සයිස් 0.1250000
வேலைவாய்ப்புப் නියුක්ති 0.5000000
வேலைவாய்ப்புப் සේවා 0.0101010
வேலைவாய்ப்புப் විදේශ 0.0212766
குடிவரவு‚ ආගමන 0.2857143
குடிவரவு‚ විගමන 0.1666667
குடிவரவு‚ දෙපාර්තමේන්තුව 0.0048309
துறைக் සංයුක්ත 0.0714286
துறைக் (බඩු) 1.0000000
துறைக் වරාය 0.0416667
போக்குவரத்துச் පුවාහණ 1.0000000
போக்குவரத்துச் NULL 0.0002830
போக்குவரத்துச் ගමනාගමන 0.1000000
போக்குவரத்துச் සාර්ජන් 0.1111111
போக்குவரத்துச் ඩිපෝව 0.1428571
போக்குவரத்துச் ප්‍රවාහණ 0.1764706
மறியற்சாலைச் බන්ධනාගාර 0.0333333
மாகாணம் පලාත 1.0000000
மாகாணம் පළාත 0.6666667
குத ගුදම් 0.5000000
குத බඩු 0.0571429
குத හැන්ගර් 1.0000000
மதிப்பீட்டாளர்( තක්සේරුකරු 0.1538462
பதிப்பாளர் සංස්කාරක 0.0909091
பறத்தற் අහස්යාත්‍රා 0.7500000
பறத்தற் ගුවන් 0.0196078
பறத்தற் කැඩට් 1.0000000
அரசியல் දේශපාලන 1.0000000
விஞ்ஞானப் විද්‍යා 0.0112360
விஞ்ஞானப் NULL 0.0002830
தீயணைப்புச் ගිනි 0.1000000
தீயணைப்புச் නිවන 0.1250000
தீயணைப்புச் සේවා 0.0101010
விருத்தி NULL 0.0002830
கடதாசி ජාතික 0.0128205
கடதாசி පළාත් 0.0384615
நகராட்சி පළාත් 0.0384615
நகராட்சி ආණ්ඩු 0.2000000
தப்புகள் දෝෂ 1.0000000
இருட்டறை සහකාර 0.0025000
இருட்டறை අඳුරු 0.4000000
.பெண்கள் කාන්තා 0.1538462
மகாஒய මහඔය 1.0000000
உணவு, සහ 0.0036101
உணவு, ආහාර 0.1176471
வர்த்தக කලමනාකරු 0.1666667
வர்த்தக NULL 0.0005659
வர்த்தக ජ්‍යෙෂඨ 0.0322581
வர்த்தக වාණිජ 0.3750000
வர்த்தக කාර්යාලය 0.0034602
வர்த்தக හා 0.0061728
வர்த்தக ගුරුවරයා 0.3333333
வர்த்தக සහකාර 0.0050000
வர்த்தக - 0.0833333
இலஞ்ச සහකාර 0.0025000
இலஞ்ச අල්ලස් 0.7500000
இலஞ்ச කොමිෂන් 0.0384615
சீர்முறைக் NULL 0.0002830
வலையமைப்பு NULL 0.0005659
(கணக்காய்வும் NULL 0.0002830
நியூஸ் සිමාසහිත 0.2500000
நீர்ப்பாசனப் NULL 0.0005659
நீர்ப்பாசனப் වාරිමාර්ග 0.0526316
பரீட்சகர் ප්‍රමාණ 0.1428571
பரீட்சகர் ලේඛන 0.0370370
பரீட்சகர் සහිත 0.1666667
பரீட்சகர் යාත්‍රා 0.0434783
பரீட்சகர் පරීක්ෂක 0.0394737
பரீட்சகர் පිළිබඳ 0.0123457
பரீட்சகர் NULL 0.0011319
பரீட்சகர் ආණ්ඩුවේ 0.0166667
ரஜரட்ட ලංකා 0.0049751
மதிப்புச் තක්සේරු 0.1111111
பிரிவேனா පිරිවෙන් 0.5000000
நிருவகம் ආයුර්වේද 0.1250000
நிருவகம் NULL 0.0005659
நிருவகம் වික්‍රමාරච්චි 0.5000000
ஏவுநன் අණදෙන 0.1000000
ஏவுநன் විධායක 0.0400000
தாவர පැළෑටි 1.0000000
தாவர එළවළු 0.2000000
தாவர උද්භිද්රෝගනිදානඥ 1.0000000
சீவராசிகள் දෙපාර්තමෙන්තුව 0.0116279
சட்டவாதி අධි 0.2500000
சட்டவாதி නීතිඥ 0.2142857
சட்டவாதி උපදේශක 0.0125000
சட்டவாதி ; 0.0048077
வலவன் නියමු 0.0769231
வலவன் NULL 0.0002830
இறக்குமதித் ආනයන 0.0909091
ஒருமுனைப்படுத்திய මධ්‍යගත 1.0000000
காவற்காரர் සහ 0.0036101
காவற்காரர் මුරකරු 0.5000000
காவற்காரர் NULL 0.0005659
காவற்காரர் බන්ධනාගාර 0.0333333
நெசவு සහකාර 0.0025000
நெசவு ආයතන 0.0588235
நெசவு කණිෂ්ඨ 0.0250000
நெசவு පේෂකර්ම 0.1428571
சுயாதீன රූපවාහිණිය 1.0000000
சுயாதீன ස්‌වාධීන 1.0000000
வளர்ந்தோர் අධ්‍යාපන 0.0163934
வளர்ந்தோர் වෘද්ධ 0.8000000
சருவதேச NULL 0.0002830
சருவதேச අන්තර් 0.1666667
சருவதேச ජාත්‍යන්තර 0.5333333
சருவதேச ජාතික 0.0128205
சருவதேச රාජ්‍ය 0.0156250
சருவதேச දෙශාටන 0.3333333
ஒலிபரப்புப் පිළිබඳ 0.0123457
ஒலிபரப்புப் ගුවන් 0.0392157
கலங்கரைவிளக்கக் ප්‍රධාන 0.0062500
தொலைபேசியியக்குநர் NULL 0.0002830
நிருவாகி පාලක 0.0131579
நிருவாகி නිලධාරි 0.0028986
அமைப்புப்படப் ප්ලෑන් 0.2000000
அமைப்புப்படப் අංශය 0.0076923
களரி, NULL 0.0002830
கட்டுப்பாட்டுத் නාශක 0.0434783
கட்டுப்பாட்டுத் පාලන 0.0333333
கட்டுப்பாட்டுத் NULL 0.0008489
கட்டுப்பாட்டுத் බලපත්‍ර 0.1111111
கட்டுப்பாட்டுத் පාලක 0.0131579
நியமங்கள் ඒකක, 0.5000000
நியமங்கள் ප්‍රමිති 0.2000000
படைவீட்டுப் බැරැක්ක 0.3333333
பொறி ඔපරේටර් 0.1200000
பொறி fපොර්මන් 0.0192308
பொறி යන්ත්‍ර 0.1029412
பொறி බඳින 0.5000000
பொறி යෝජනා 0.0344828
பொறி බඳින්නා 0.2000000
பொறி යතුරු 0.1666667
பொறி NULL 0.0016978
பொறி කපන 0.5000000
பொறி ක්‍රියාකරු 0.0312500
பயிற்சித்தான පුනරුත්තාපන 1.0000000
பயிற்சித்தான කළමනාකාර, 1.0000000
பயிற்சித்தான හා 0.0061728
பண்டாரகம බණ්ඩාරගම 1.0000000
சீன චීන 1.0000000
அ௫ம்பொ௫ள௧த் ජාතික 0.0256410
தாய் මව 1.0000000
சேமப்படை උප 0.0350877
சேமப்படை NULL 0.0008489
சேமப்படை සේවයේ 0.0833333
சேமப்படை උපසේවය 1.0000000
கே වසම් 1.0000000
வேட்டைச் දඩයම් 0.2500000
பணி වැඩ 0.0149254
பணி NULL 0.0002830
தோட்டப் උද්‍යාන 0.0666667
நிழற்படிவு නැගටිව් 1.0000000
நிழற்படிவு කපන්නා 0.3333333
மிஷன் මිසමේ 0.5000000
அஞ்சலலுவலகச் තැපැල් 0.0185185
அஞ்சலலுவலகச் කන්තෝරු 0.5000000
அஞ்சலலுவலகச் බැංකුව 0.0434783
வண்டிப் NULL 0.0002830
எந்திரி විදුලි 0.0158730
எந்திரி නිෂ්පාදන 0.0303030
எந்திரி සම්පාදන 0.0555556
எந்திரி (ඉදිකිරීම් 1.0000000
எந்திரி ඉංජිනේරු 0.3444444
எந்திரி සන්දේශ 0.1666667
எந்திரி (පාරිභෝගික) 1.0000000
எந்திரி බඩ 0.1666667
எந்திரி කර්මාන්ත 0.0168067
எந்திரி ඉන්ජිනේරු 0.3750000
எந்திரி පුහුණු 0.0454545
எந்திரி යාන්ත්‍රික 0.0185185
எந்திரி ප්‍රධාන 0.0125000
எந்திரி නඩත්තු 0.0555556
எந்திரி විධායක 0.2000000
எந்திரி ගොඩනැගිලි 0.0384615
எந்திரி වරාය 0.0208333
எந்திரி උපාධිධර 0.1428571
எந்திரி NULL 0.0099038
எந்திரி (ග්‍රාමීය 1.0000000
எந்திரி පිරිපාලක 1.0000000
எந்திரி රසායන 0.1111111
எந்திரி ක්‍රමයේ 0.2500000
எந்திரி වාරිමාර්ග 0.0526316
எந்திரி ක්‍රම 0.0769231
எந்திரி උත්පාදන 0.5000000
எந்திரி වැඩ 0.0149254
எல்ல ඇල්ල 1.0000000
(போக்குவரத்து) පරිපාලක 0.0120482
கொத்மலை කොත්මලේ 0.5000000
விவகாரங்கள் NULL 0.0002830
மரப்பொம்மை සහ 0.0036101
பயணப்பொதி NULL 0.0002830
பொது මහජනෝපකාර 1.0000000
பொது රාජ්‍ය 0.0625000
பொது ව්‍යවසාය, 1.0000000
பொது මහජන 0.1818182
பொது NULL 0.0008489
பொது සාමාන්‍යාධිකාරි 0.5454545
பொது ප්‍රසිද්ධ 1.0000000
பொது සහකාර 0.0050000
பொது වෙළඳ 0.0322581
பொது කාරක 0.0303030
பொது මහ 0.0357143
பொது විවේචන 0.3333333
பொது සාමාන්‍යාධිකාරීගේ 1.0000000
பொது සහ 0.0036101
பொது උපදේශක 0.0125000
பொது ලිපිකරු 0.0068493
பொது කාමරය 0.0500000
பொது සාමාන්‍ය 0.3636364
பொது ප්‍රදීපාගාර 1.0000000
பொது මහජනාධාර 0.6666667
பொது පොදු 0.2307692
பொது පාලනය 0.1000000
பொது රඟදැක්වීමේ 1.0000000
பொது මහා 0.4000000
பொது ප්‍රධාන 0.0062500
பொது පාලන 0.0166667
பரிசோதனைக் පරීක්ෂණාගාරය 0.1111111
பரிசோதனைக் NULL 0.0002830
பரிசோதனைக் රසායනාගාර 0.0588235
தலைமைக்காரன் ගම්මුලාදෑනි 0.5000000
வீதி, මාර්ග 0.0666667
(நலனோம்பல்) NULL 0.0002830
(தோட்டவேலை) NULL 0.0002830
மொரவெவ මොරවැව 1.0000000
சிலோன் සිමාසහිත 0.2500000
கோள்மண்டலக் ග්‍රහලෝකාගාරය 1.0000000
தடைவேலைத் අපරාධ 0.1428571
அம்பலாங்கொட අම්බලන්ගොඩ 1.0000000
செயற்திட்டம் ක්‍රමය 0.0285714
இழப்பீட்டு පිළිබඳ 0.0123457
இழப்பீட்டு කොමසාරිස් 0.0075188
இழப்பீட்டு ඉල්ලීම් 0.5000000
இழப்பீட்டு වන්දි 0.4000000
இழப்பீட்டு විනිස්චය 0.5000000
இழப்பீட்டு NULL 0.0002830
இழப்பீட்டு සභාව 0.0102041
மீட்டபொருட் හමුදා 0.0303030
மீட்டபொருட் NULL 0.0002830
புள்ளிவிவரத் සහ 0.0072202
மாதிரிப் NULL 0.0002830
லிமிட்டட் ආයතනය 0.0149254
லிமிட்டட் NULL 0.0011319
(நீளறை) NULL 0.0002830
காணிமீட்டல், ලංකා 0.0049751
இருட்டறைக் අඳුරු 0.2000000
இருட்டறைக் කාමරයේ 0.2000000
நீர்ப்பாசனம் NULL 0.0002830
குடியேற்றத் කිරීමේ 0.0256410
குடியேற்றத் ජනපද 0.2857143
(வட (උතුරු 1.0000000
சிறார்பள்ளி පෙරපාසල් 1.0000000
பழகுநர் ආධුනික 0.0256410
மருத்துவ කථිකාචාර්ය 0.0317460
மருத்துவ නේවාසික 0.5000000
மருத்துவ ශබ්ද 0.2000000
மருத்துவ නිලධාරි 0.0086957
மருத்துவ වෛද්‍ය 0.2258065
மருத்துவ පශු 0.0476190
மருத்துவ ආයතනය-කොළඹ 1.0000000
மருத்துவ නිලධාරිණි 0.1250000
மருத்துவ අධි 0.2500000
மருத்துவ පර්යේෂණ 0.0232558
மருத்துவ උපාධි 0.1666667
மருத்துவ NULL 0.0022637
மருத்துவ නිලධාරිණී 1.0000000
மருத்துவ විද්‍යා 0.0112360
மருத்துவ පශ්චාත් 0.1250000
மருத்துவ සහකාර 0.0025000
மருத்துவ වෛද්‍යක්‍රම 1.0000000
மருத்துவ ලංකා 0.0049751
வாசிப்பவர் වාදක 1.0000000
வாசிப்பவர் NULL 0.0002830
விற்பனைக் විකුණුම් 0.0909091
விற்பனைக் NULL 0.0002830
நோயியலர் NULL 0.0002830
நோயியலர் (අර්ධ 0.2000000
நோயியலர் රෝගනිදානඥ 0.5000000
இலங்கையின் NULL 0.0002830
இலங்கையின் ශ්‍රී 0.0281690
பெருந்தோட்டத் වැවිලි 0.1250000
(உணவுப்பொருள்) කළමනාකරු 0.0256410
(உணவுப்பொருள்) (ආහාර 0.5000000
விசேட සේවක 0.0086207
விசேட විශේෂ 0.1282051
சோதனைக்காரர் පරීක්ෂක 0.0723684
சோதனைக்காரர் NULL 0.0022637
சோதனைக்காரர் සිග්නල් 0.1000000
சோதனைக்காரர் කඳවුරු 0.1000000
சோதனைக்காரர் පතල් 0.1428571
ஏற்றியிறக்கல் ප්‍රවාහණ 0.0588235
நாட்டுப் ස්වදේශීය 0.2000000
சிறைக் ජේලර් 0.2000000
தீராதநோயினர் අසාධ්‍ය 0.5000000
செப்பனிடு නෞකා 0.2000000
துணி රෙදි 0.3333333
குடியிருப்பாளர் මූලික 0.0909091
புத்தசாசன වයඹ 0.3333333
புத்தசாசன බුද්ධශාසන 1.0000000
மதிப்பாளர் අගයකරු 1.0000000
மதிப்பாளர் NULL 0.0002830
மதிப்பாளர் තක්සේරුකරු 0.0769231
பயண දෙශාටන 0.3333333
பயண සංවිධානයේ 0.3333333
மருத்தவச்சாலை ආරෝග්‍යශාලාව 0.0625000
விநியோகத் NULL 0.0002830
எந்திரத் ඇන්ජිම් 0.5000000
மன்றப் NULL 0.0002830
சாமானிய භටයා 0.5000000
மட்பாண்டத் කර්මාන්ත 0.0084034
மட்பாண்டத் පිඟන් 0.1250000
பாதுகாத்தற் NULL 0.0002830
வருமானவரி බදු 0.0526316
வருமானவரி ආදායම් 0.2380952
தொழினுட்ப උපාධි 0.0833333
தொழினுட்ப ශිල්ප 0.1250000
தொழினுட்ப කාර්මිකායතනය 1.0000000
தொழினுட்ப තාක්ෂණ 0.1000000
தொழினுட்ப කාර්මික 0.0508475
தொழினுட்ப NULL 0.0002830
தொழினுட்ப ක්‍රමයේ 0.2500000
.பிரதிப் NULL 0.0002830
.பிரதிப் නියෝජ්‍ය 0.0188679
கலங்கரைவிளக்கம் ප්‍රදීපාගාරය; 1.0000000
எந்திரப் ඇන්ජින්කරු 0.5000000
(கனிட்ட (කණිෂ්ඨ) 0.5000000
பற்றீரியவியல் ආයතනය 0.0149254
வாரிப் ඩ්රෙජර් 0.5000000
ஒழுங்கு NULL 0.0002830
மனநோய் මානසික 0.2500000
கற்குநிலை ශිෂ්‍ය 0.2105263
கற்குநிலை NULL 0.0002830
போஷணை පෝෂණ 0.2500000
சங்கிலிப் දම්වැල් 1.0000000
நாடுநகரத் නගර 0.0476190
உபசாரகர் NULL 0.0002830
உபசாரகர் පිළිගන්නා 0.2500000
உபசாரகர் ලිපිකාරි 0.3333333
உபசாரகர் ටැලිපෝන් 0.1428571
பரீட்சைத் මැතිවරණ 0.0625000
உப்புக் ලුණු 0.1000000
கட்டுவேலை ගොඩනැගිලි 0.0384615
கட்டுவேலை කිරීමේ 0.0256410
கட்டுவேலை කර්මාන්තශාලා 0.0588235
கட்டுவேலை ලිපිකරු 0.0136986
கட்டுவேலை NULL 0.0008489
கட்டுவேலை නිලධාරි 0.0028986
கட்டுவேலை වැඩ 0.1343284
கட்டுவேலை පාසල් 0.1000000
சிங்கப்பூர், සිංගප්පූරුවේ 1.0000000
புவிப்பௌதிகவியலர் භූගෞතික 1.0000000
பழுது පොත් 0.0416667
பழுது අලුත්වැඩියාකරු 0.5000000
குதிரைக்காப்புப் ආධුනික 0.0256410
நூலகப்பொறுப்பாளர் පුස්තකාලයාධිපති 0.2000000
எழுதுபவர் පත්‍ර 0.0833333
எழுதுபவர் ලියන්නා 0.5000000
எழுதுபவர் NULL 0.0005659
விரிவுரையாளர் සත්ව 0.0833333
விரிவுரையாளர் ශාස්ත්‍ර 0.5000000
விரிவுரையாளர் කථිකාචාර්ය 0.1587302
விரிவுரையாளர் සහ 0.0036101
விரிவுரையாளர் සුරක්ෂණ 1.0000000
விரிவுரையாளர் ව්‍යාවච්චේද 1.0000000
விரிவுரையாளர் කලා 0.0769231
விரிவுரையாளர் සංයෝග 1.0000000
விரிவுரையாளர் නිදාන 0.2500000
விரிவுரையாளர் ඖෂධ 0.0769231
விரிவுரையாளர் ඉංජිනේරු 0.0055556
விரிவுரையாளர் මාර්ගෝපදේශ 1.0000000
விரிவுரையாளர் කථික 1.0000000
விரிவுரையாளர் ක්‍රම 0.0769231
விரிவுரையாளர் විෂයයන් 0.5000000
விரிவுரையாளர் මේට්‍රන් 0.1666667
விரிவுரையாளர் NULL 0.0082060
விரிவுரையாளர் උද්‍යාන 0.0666667
விரிவுரையாளர் විද්‍යා 0.1011236
விரிவுரையாளர் පිළිබඳ 0.0370370
ஆக்குநர் සාදන්නා 0.0909091
கடைச்சற் පට්ටල්කරු 0.5000000
கடைச்சற் පට්ටල් 1.0000000
(இறக்குமதி) NULL 0.0005659
சிற்பக்கலை මූර්ති 1.0000000
வலுவற்றோரகம் ගිලාන 0.3333333
(கிராமியம்) NULL 0.0002830
வார்ப்பவர் සාදන්නා; 0.3333333
அரபு අරාබි 0.5000000
வளிமண்டலவியற் කාලගුණ 0.1428571
தானம் මධ්‍යස්ථානය 0.2105263
தானம் NULL 0.0028297
அளவைத் මිනුම් 0.1428571
அளவைத் NULL 0.0002830
அளவைத் මිනින්දෝරු 0.1304348
அளவைத் සමීක්ෂණ 0.1111111
அபிவிருத்தி හා 0.0061728
அபிவிருத்தி කොමසාරිස් 0.0075188
அபிவிருத்தி සංවර්ධන 0.2021277
அபிவிருத்தி නිලධාරි 0.0028986
அபிவிருத்தி ද්‍රව්‍ය 0.0285714
அபிவிருத்தி අලෙවි 0.1250000
அபிவிருத்தி වතු 0.0909091
அபிவிருத்தி දෙපාර්තමේන්තුව 0.0096618
அபிவிருத்தி NULL 0.0067912
அபிவிருத்தி සම්පත් 0.0476190
அபிவிருத்தி ඉඩම් 0.0217391
அபிவிருத்தி නිලධාරි) 0.3333333
அபிவிருத்தி විදේශ 0.0212766
அபிவிருத்தி සභාව 0.0102041
அபிவிருத்தி මුදල් 0.0212766
இயக்கும் සයිfපර් 0.5000000
எழுத்தாணை වෘත්තික 1.0000000
எழுத்தாணை ඇස්කීසි 0.6666667
பார்வையிடற் සෝදිසි 0.3333333
பார்வையிடற் කොමිටිය 0.1428571
தரிப்பிடம் නැවතුම් 0.3333333
(சிறுசொத்துக்கள்) වත්කම්) 1.0000000
கூடாரஞ் සාදන්නා; 0.3333333
கூடாரஞ் අවරණ 1.0000000
சுருக்கெழுத்து, ලඝුලේඛන 0.3333333
சுருக்கெழுத்து, සහ 0.0036101
கொட்டகை ඇන්ජින් 0.0666667
.கம்பி කම්බි 0.4000000
.கம்பி කමිබි 1.0000000
பாலியர் බාලාපරාධ 1.0000000
பாலியர் ; 0.0048077
பாலியர் මහෙස්ත්‍රාත් 0.1111111
.கம்பியிலி ඇණිය 1.0000000
.கம்பியிலி ගුවන් 0.0392157
.கம்பியிலி සේවා 0.0101010
.கம்பியிலி විදුලි 0.0079365
சுரங்கமறுப்பவர் පතල්කරු 1.0000000
சிறப்புக் විශේෂ 0.0512821
சிறப்புக் විශේස 1.0000000
முலடியன මුලටියාන 1.0000000
செயலகம் පොතුවිල් 0.5000000
செயலகம் NULL 0.0291454
செயலகம் ලේකම් 0.2578125
செயலகம் දිස්ත්‍රික් 0.0188679
செயலகம் ප්‍රාදේශීය 0.0424528
செயலகம் කාර්යාලය 0.1280277
பாகுபாட்டியல் වංශ 0.3333333
கவனிப்பாளர் මැදිරි 0.3333333
கவனிப்பாளர் NULL 0.0056593
கவனிப்பாளர் ලේඛනාගාර 1.0000000
கவனிப்பாளர் රසායනාගාර 0.0588235
கவனிப்பாளர் ඇටන්ඩන්ට් 0.6666667
கவனிப்பாளர் බොයිලේරු 0.0833333
கவனிப்பாளர் සේවක 0.1551724
கவனிப்பாளர் ආරෝග්‍යශාලා 0.0588235
கவனிப்பாளர் මාස්ටර් 0.2500000
கவனிப்பாளர் සේවක; 1.0000000
கவனிப்பாளர் වෛද්‍ය 0.0080645
கவனிப்பாளர் ගබඩා 0.0128205
கவனிப்பாளர் ; 0.0048077
கவனிப்பாளர் සහකාර 0.0025000
கவனிப்பாளர் වක්කරන්නා 1.0000000
கட்டுநர் ඔසවන්නා 1.0000000
கட்டுநர் බදින්නා 1.0000000
கட்டுநர் අට්ටිකරු 1.0000000
கட்டுநர் පොත් 0.0833333
கட்டுநர் සාදන්නා 0.0909091
கட்டுநர் බෝට්ටු 0.0666667
கட்டுநர் NULL 0.0002830
கட்டுநர் ශිල්පී 0.1000000
கட்டுநர் විදින්නා 1.0000000
இறங்கு ගොඩබැසීම් 1.0000000
பெறுநர் විශ්‍රාම 0.0666667
பெறுநர் ලබන්නා 0.2500000
பெறுநர் වැටුප් 0.1111111
பெறுநர் විශ්‍රාමික 0.5000000
பெறுநர் NULL 0.0008489
தச்சுவேலைக் වඩු 0.0714286
வேலைக்களம், වැඩපොළ 0.0370370
வேலைக்களம், පරීක්ෂණාගාරාංශය 1.0000000
வயோதிபர் NULL 0.0002830
வயோதிபர் මහලු 0.6666667
மோட்டார்ஆள், මොටර් 0.0303030
தொழிற்சாலை පිඟන් 0.1250000
தொழிற்சாலை වානේ 0.5000000
தொழிற்சாலை කර්මාන්තශාලාව 0.8333333
தொழிற்சாலை කර්මාන්ත 0.0840336
தொழிற்சாலை ශාලාව 0.0937500
தொழிற்சாலை NULL 0.0002830
தொழிற்சாலை කර්මාන්තශාලා 0.4705882
தொழிற்சாலை තුනීලෑලි 0.3333333
அபிவிருத்தி‚ සංවර්ධන 0.0212766
சீமெந்துப் සිමෙන්ති 0.3333333
சீமெந்துப் අංශය 0.0076923
சீமெந்துப் ගබඩාව 0.0175439
கன்னார் තඹවැඩකරු 1.0000000
கன்னார் තඹකරු 1.0000000
கன்னார் ; 0.0048077
சுவடிக் ලේඛනාරක්ෂක 0.2857143
வழிமொழிபவர் ස්ථීර 0.1111111
வழிமொழிபவர் කරන්නා 0.0322581
அந்நியநாட்டுறவுப் විදේශ 0.0212766
அமைப்புச் සංවිධානයේ 0.3333333
அமைப்புச் අන්තර්ජාතික 0.3333333
திரைப்படப் චිත්‍රපටි 0.0769231
திரைப்படப் සහකාර 0.0025000
முன்தல் ප්‍රාදේශීය 0.0047170
முன்தல் මුන්දෙල් 1.0000000
குத்துநர் මුද්දර 0.0625000
மண் රක්ෂන 1.0000000
மண் පාංශු 1.0000000
மண் පස් 0.6363636
இல்லச் නිවාස 0.0555556
பேரரச අධිරාජ්‍යායතනය 1.0000000
பேரரச අධිරාජ්‍ය 0.1250000
வரவு ක්‍රමසම්පාදන 0.2500000
வரவு පැමිණීම 0.5000000
வரவு අය 0.1666667
வரவு NULL 0.0008489
மதிப்பீட்டுச் තක්සේරු 0.1111111
தாக்கு NULL 0.0002830
சொந்த සතු 1.0000000
விற்பனைப் විකුණුම් 0.0909091
பண்ணைச்செய்கை NULL 0.0002830
மருத்துவ, වෛද්‍ය 0.0161290
.மகா මහා 0.1000000
துணையாளர் NULL 0.0002830
துணையாளர் සහායක 0.1666667
துணையாளர் (පියුන්) 1.0000000
பல்கலைக்கழக විශ්ව 0.0588235
பவுண்டேஷன் පදනම් 1.0000000
செலாசினே සෙලසින් 1.0000000
அச்சிடப்பட்ட සඳහා 0.0833333
தட்டெழுத்தாளர் NULL 0.0002830
தட்டெழுத்தாளர் යතුරුලේඛක 0.5000000
தட்டெழுத்தாளர் ලේඛක 0.2727273
தட்டெழுத்தாளர் ටයිප්කරු 0.2857143
கத்திமுள்வகைப் හැඳි 1.0000000
பட்டியல் නාමාවලි 1.0000000
அணுசக்தி පරමාණු 1.0000000
சிறப்பணி බලකාය 0.3333333
சிறப்பணி හමුදාවේ 0.5000000
சிறப்பணி හමුදා 0.0606061
சிறப்பணி හමුදාව 0.0303030
சிறப்பணி වෛද්‍ය 0.0080645
சிறப்பணி කණ්ඩායම 0.0909091
சிறப்பணி කොමිෂන් 0.0384615
சிறப்பணி ගොවිකම් 0.0588235
சிறப்பணி NULL 0.0014148
சிறப்பணி සභාව 0.0102041
சிறப்பணி ශිෂ්‍යභට 0.2500000
கா.அ.உ(காணி සංවර්ධන 0.0106383
கா.அ.உ(காணி ඉ.සං.නි(ඉඩම් 1.0000000
வியாபார අභ්‍යන්තර 0.0588235
வியாபார ව්‍යාපාර 0.0555556
வியாபார NULL 0.0002830
நேரம்) රෝගනිදානඥ 0.5000000
நேரம்) NULL 0.0002830
தீப்பற்றுபொருட் සහන 0.3333333
பிரயாணி සංචාරක 0.0416667
பிரயாணி වාණිජ 0.0208333
சுகாதார සෞඛ්‍ය 0.4339623
சுகாதார යාත්‍රාංගණ 0.2857143
சுகாதார ප්‍රාදේශීය 0.0047170
சுகாதார NULL 0.0016978
சுகாதார ඉංජිනේරු 0.0111111
சுகாதார සංචිධනය 1.0000000
சுகாதார සෞඛ්ය 1.0000000
சுகாதார ආරෝග්‍යශාලා 0.0588235
சுகாதார වරාය 0.0208333
போபே-பொட்டள බෝපේ-පොද්දල 1.0000000
.யானைக்கால் නාශක 0.0434783
.யானைக்கால் බරවා 0.5000000
(சிவில்) (සිවිල්) 1.0000000
(சிவில்) NULL 0.0002830
ஏல වෙන්දේසිකරු 1.0000000
நிருவாக සහකාර 0.0025000
நிருவாக නිලධාරි 0.0086957
நிருவாக පාලක 0.0526316
நிருவாக නිලධාරීගේ 1.0000000
நிருவாக ලේකම් 0.0039062
நிருவாக පාලන 0.1500000
பதவியற்ற නොලත් 1.0000000
இதயக் හෘද 1.0000000
மூளைக் මානසික 0.2500000
மூளைக் රෝගී 0.2500000
கைவேலைப் අත්කම් 1.0000000
கைவேலைப் සහ 0.0036101
வெடிப்பொருள் පුපුරණ 0.2000000
(வழங்கல் NULL 0.0002830
விடுதிப் මේට්‍රන් 0.1666667
சீமெந்துத் සිමෙන්ති 0.1666667
சீமெந்துத் කර්මාන්ත 0.0084034
காவற்றூதுப் කොන්සල් 0.1666667
டி" ඩී 1.0000000
உயர்த்தி විදුලි 0.0079365
உயர்த்தி සෝපාන 0.6666667
வீடமைப்பு නිවාස 0.1666667
வீடமைப்பு NULL 0.0002830
கூட்டுணைவுக் ඒකාබද්ධ 0.1250000
புகையூட்டுமிடம் ධුමාලය 0.5000000
புகையூட்டுமிடம் ධුමායනය 1.0000000
வர்த்தகச் වාණිජ 0.0208333
கப்பற்சரக்குச் නැව් 0.0526316
கிராமிய ආර්ථික 0.0454545
பேரேடு ඡන්දහිමි 0.5000000
பேரேடு ලැජර් 0.5000000
பேரேடு ලිපිකරු 0.0068493
பேரேடு NULL 0.0002830
பேரேடு ගණන් 0.0540541
தோட்டங்களின் කර 0.2000000
சுற்றுக்காவல் මුර 0.4000000
சுற்றுக்காவல் NULL 0.0002830
சுற்றுக்காவல் මුරසංචාරක 1.0000000
பௌதீக අංශය 0.0076923
பௌதீக සැලසුම් 0.0303030
பௌதீக වෛද්‍ය 0.0080645
பௌதீக භෞතික 0.4285714
பௌதீக ජාතික 0.0256410
விலங்கினக் සත්වෝද්‍යාන 0.5000000
விலங்கினக் සත්වෝද්‍යානය 1.0000000
விலங்கினக் අධිකාරි 0.0074074
வெலிபிடிய වැලිපිටිය 1.0000000
தொழிற்கல்விப் අධිකාරි 0.0074074
தொழிற்கல்விப் ගොළු 0.5000000
கவனிப்பு NULL 0.0002830
ஆய்வு, NULL 0.0002830
பாட විෂය 0.5000000
தொழில்நோய் වෘත්තීය 0.3333333
காட்சிச்சாலைப் අධ්‍යක්ෂ 0.0067114
தேர்ச்சித் පුහුණු 0.0454545
தொலைத்தொடர்புச் තැපැල් 0.0185185
தொலைத்தொடர்புச் සංදේශ 0.1000000
தொலைத்தொடர்புச் විදුලි 0.0079365
பாசறைப் කඳවුරු 0.2000000
பொறிமுறை කාර්මික 0.0338983
பொறிமுறை යාන්ත්‍රික 0.3148148
பொறிமுறை අධ්‍යක්ෂ 0.0067114
பொறிமுறை fපොර්මන් 0.0192308
பொறிமுறை ඉංජිනේරු 0.0277778
பொறிமுறை විද්‍යා 0.0112360
பொறிமுறை NULL 0.0002830
பொறிமுறை සහ 0.0072202
சேராத නොවන 0.3333333
நாளச் ගැට 1.0000000
நிதியம்) NULL 0.0002830
கண் ඇස් 1.0000000
(படப்பிடிப்பு) NULL 0.0002830
பெருவீதிகள் මහාමාර්ග 0.2000000
நூல், පොත් 0.0833333
நூல், සහකාර 0.0025000
பிரான்சில் ප්‍රංසයේ 1.0000000
பிரான்சில் ලංකා 0.0049751
ஆவண ලේඛන 0.0370370
இடைவருகைப் ආගන්තුක 0.2000000
வண்ணப்பண்டசாலை NULL 0.0002830
கயரோகத் කාෂ 1.0000000
கயரோகத் NULL 0.0002830
கயரோகத் රෝග 0.0434783
பம்பு පොම්පාගාර 1.0000000
பம்பு දිය 0.1428571
பம்பு පොම්ප 0.5454545
பம்பு ඇන්ජින්කරු 0.5000000
பதிவேட்டு NULL 0.0002830
கடதாசித் කඩදාසි 0.2000000
கடதாசித் කර්මාන්ත 0.0084034
கடதாசித் ශාලාව 0.0312500
குடிமை, ආගමනය 0.5000000
குடிமை, රටවැසිකම, 1.0000000
அச்சிடுதற்பொறி ක්‍රියාකරවන්නා 0.1666667
அச்சிடுதற்பொறி මුද්‍රණ 0.0625000
அச்சிடுதற்பொறி යන්ත්‍ර 0.0147059
அச்சிடுதற்பொறி සහ 0.0036101
பொறுப்புப்பணி ප්‍රධාන 0.0062500
பொறுப்புப்பணி කර්මාන්ත 0.0084034
.மேலதிக අතිරේක 0.0370370
இல்லத் NULL 0.0002830
இல்லத் ස්වාමිදුව 1.0000000
இல்லத் නිවාස 0.0555556
இல்லத் සහකාර 0.0025000
சீனி NULL 0.0002830
படல்கும்புற බඩල්කුඹුර 0.5000000
ஊர்காவலர் කොස්තාපල් 1.0000000
தாக்குப் නිවාරක 0.2500000
தாக்குப் ප්‍රහාරක 0.4285714
நான்கு කඩවත් 0.3333333
வீட்டுவேலைச்செய் ගේදොර 1.0000000
கிராமப் ගම් 0.4000000
சிறைக்காவலர் බන්ධනාගාර 0.0333333
துளை පන්ච් 0.4000000
துளை යන්ත්‍ර 0.0147059
வாசிகள் පදිංචිකරුවන් 0.2500000
வாசிகள் ලියාපදිංචි 0.1111111
வாசிகள் පකිස්තානි 0.2000000
வாசிகள் NULL 0.0002830
முகாமை ඒජන්සි 1.0000000
முகாமை කළමනාකාර 0.2000000
முகாமை කළමනාකරණ 0.2500000
பெரும்பார බරවාහන 1.0000000
வார்ப்பச்சு වාත්තු 0.1250000
தொற்றுநோய்த்தடைச் නිරෝධායන 0.2000000
நிகழ்ச்சிமுறைக் පාලක 0.0131579
நிகழ்ச்சிமுறைக் වැඩසටහන් 0.0526316
பணியகக் කාර්යාංශයේ 0.2000000
மீவெப்பு අධිඋෂ්ණ 1.0000000
செவ்வைபார்ப்பவர், අච්චු 0.2000000
செவ்வைபார்ப்பவர், චෙකර් 1.0000000
வழக்கறிஞர் ප්රොක්ටර් 1.0000000
வழக்கறிஞர் පෙරකදෝරු 1.0000000
(வலதுகுறைந்தோர் NULL 0.0002830
வழிகாட்டு උපදේශක 0.0125000
பகுதிக் දිශා 1.0000000
பகுதிக் ප්‍රාදේශීය 0.0188679
கீழைத்தேயப் අධ්‍යයන 0.1666667
கீழைத்தேயப் අපරදිග 0.5000000
மேன்முறையீட்டுச் අභියාචන 1.0000000
சம்பளம், වැටුප් 0.0555556
அளவுச் NULL 0.0002830
மட்கலத்தொழில் කර්මාන්ත 0.0084034
மட்கலத்தொழில் කුඹල් 0.4000000
மட்கலத்தொழில் සහකාර 0.0025000
தையற்பணி, මැහුම් 0.0833333
உடையவர் NULL 0.0002830
புகையிரத දුම්රිය 0.0555556
புகையிரத ලංකා 0.0049751
குள වැව් 1.0000000
செலவுத்திட்ட NULL 0.0002830
செலவுத்திட்ட වැය 0.5000000
இரசாயனப் රසායනාගාරය 0.1428571
இரசாயனப் රසායන 0.3333333
இரசாயனப் පරීක්ෂක 0.0065789
இரசாயனப் රස 0.1428571
கல்பிட்டி කල්පිටිය 1.0000000
கட்டுமான, නඩත්තු 0.0555556
கட்டுமான, නිර්මාණ 0.0555556
கட்டுமான, සහ 0.0036101
ஊவா ඌව 0.5000000
தூதுப்பொறுப்பாளரகம் නියෝජිත 0.0384615
தூதுப்பொறுப்பாளரகம் දූත 0.0833333
தூதுப்பொறுப்பாளரகம் NULL 0.0002830
கிளினிக்கு, NULL 0.0002830
இயக்கப் ලංකා 0.0049751
இயக்கப் NULL 0.0002830
தாபனச் බැඳවීම් 0.3333333
அளவையாளர் (විගණන 1.0000000
அளவையாளர் සහකාර 0.0025000
அளவையாளர் සමීක්ෂන 1.0000000
அளவையாளர் මිනින්දෝරු 0.1086957
அளவையாளர் (තක්සේරු) 1.0000000
அளவையாளர் සර්වේ 0.3333333
அளவையாளர் පරීක්ෂක 0.0131579
அளவையாளர் සමීක්ෂක 0.3333333
அளவையாளர் සහ 0.0036101
அளவையாளர் ලත් 0.0588235
அளவையாளர் NULL 0.0033956
பீரங்கிப் NULL 0.0002830
இயக்கப்பொறி fපොර්මන් 0.0192308
இயக்கப்பொறி දුම්රිය 0.0555556
காட்டியல் පර්යේෂණ 0.0232558
காட்டியல் විද්‍යා 0.0112360
காட்டியல் වන 0.1428571
காட்டியல் සමාගම 0.0666667
சமுத்திரவியல் ශාස්ත්‍රය 0.1428571
சமுத்திரவியல் සමුද්‍ර 0.2500000
சமுத்திரவியல் පිළිබඳ 0.0123457
பயிலிளவல் කැඩෙට් 1.0000000
பயிலிளவல் ආධුනික 0.0256410
பயிலிளவல் ; 0.0096154
பயிலிளவல் NULL 0.0005659
பயிலிளவல் කැඩැට් 0.5000000
பாண்டுவாத்தியத் බෑන්ඩ් 0.5000000
தலாவ තලාව 1.0000000
குதக் බඩු 0.0857143
குதக் ගබඩා 0.0256410
தொடர்புகள் NULL 0.0005659
பேபர்ஸ் සිමාසහිත 0.2500000
.காய்ச்சியொட்டுநர் පාස්සන්නා 1.0000000
கச்சுத்தயாரிப்பாளர் චෝලිකරු 1.0000000
(காலை) පරිපාලක 0.0120482
நேரொத்த ලිපි 0.1250000
கார்ச் මොටර් 0.0303030
கார்ச் කාර් 0.2500000
மாதிரியமைப்புக் සහ 0.0036101
தூதுப்பொறுப்பகம் නියෝජිත 0.0384615
அளவைப் මිනින්දෝරු 0.0217391
அளவைப் සමීක්ෂණ 0.1111111
அளவைப் මැනීම් 0.5000000
அளவைப் නියෝජ්‍ය 0.0094340
சேகரிப்புச் රැස්කිරීමේ 1.0000000
சேகரிப்புச் ස්ථානය 0.0303030
சேகரிப்புச் ද්‍රව්‍ය 0.0285714
மேத்திரி මයිස්තර් 1.0000000
உப අයකැමි 0.1250000
உப අමතර 0.2500000
உப උප 0.3157895
உப වැඩ 0.0149254
உப කොට්ඨාශය 0.0769231
உப කළමනාකරු 0.0256410
உப ගොඩනැගිලි 0.0384615
உப NULL 0.0008489
உப හැන්සාඩ් 0.2500000
உப පිළිබඳ 0.0123457
தாவரவியல் උද්භිද 0.6666667
தாவரவியல் උද්‍යාන 0.0666667
தாவரவியல் උද්භිත 0.1666667
மென்கோடு මුදල් 0.0212766
மீடியா අමාත්‍යංශය 0.0208333
பொருளாதாரக் ආර්ථික 0.0454545
காட்சிச்சாலை දෙපාර්තමේන්තුව 0.0048309
காட்சிச்சாலை NULL 0.0005659
வழிகாட்டற் NULL 0.0002830
முறைப் ක්‍රම 0.0769231
முறைப் NULL 0.0002830
முறைப் පිළිබඳ 0.0123457
முறைப் පොළ 0.0909091
முறைப் සහ 0.0036101
முறைப் අධ්‍යක්ෂ 0.0067114
திட்டமிடற் සැලසුම් 0.0303030
திட்டமிடற் දෙපාර්තමේන්තුව 0.0048309
தோட்டக் උද්‍යාන 0.0666667
தோட்டக் වතු 0.1818182
நானாதான் නනදාන් 1.0000000
பல்கலைக்கழகம் රජරට 1.0000000
பல்கலைக்கழகம் විවෘත 1.0000000
பல்கலைக்கழகம் NULL 0.0016978
பல்கலைக்கழகம் විශ්ව 0.4117647
பல்கலைக்கழகம் විශ්වවිද්‍යාලය 0.5000000
பற்சிகிச்சைச் දන්ත 0.0833333
உசாவற்குழு කාරක 0.0303030
உசாவற்குழு උපදේශක 0.0125000
மறியற்சாலை, බන්ධනාගාර 0.1333333
சபாநாயகர் කථානායකවරයාගේ 0.5000000
சபாநாயகர் කථානායක 1.0000000
பொதிக் පාර්සල් 0.2500000
பொதிக் ශාඛාව 0.0128205
ஒட்டுப்பலகை තුනී 0.5000000
ஒட்டுப்பலகை ලංකා 0.0049751
ஒட்டுப்பலகை තුනීලෑලි 0.3333333
சுவடிக்கூடம் ලේඛනාගාරය 0.2500000
சுவடிக்கூடம் රාජ්‍ය 0.0156250
சுவடிக்கூடம் NULL 0.0002830
யடவத்த යටවත්ත 1.0000000
வியூகத் මේජර් 0.3333333
தொழிற் NULL 0.0005659
தொழிற் වෘත්තිය 0.1250000
தொழிற் නියෝජ්‍ය 0.0094340
தொழிற் පරීක්ෂක 0.0065789
தொழிற் පුහුනු 1.0000000
தொழிற் කම්කරු 0.0535714
தொழிற் අංශය 0.0076923
தொழிற் සාධක 0.1250000
தொழிற் ව්‍යාපාර 0.1666667
கணக்கியற் ගණකාධිකාරි 0.0555556
கணக்கியற் ගණකාධිකාරී 0.1666667
மரக்கறிப் එළවළු 0.2000000
இறப்பர் සහකාර 0.0025000
இறப்பர் රසායනඥයා 0.3333333
இறப்பர் රබර් 0.7777778
இறப்பர் සංවර්ධන 0.0106383
இறப்பர் මිශ්‍රණ 1.0000000
தகவல், ප්‍රවෘත්ති 0.0357143
விலைமதிப்பு තක්‌සේරු 1.0000000
கப்பலோட்டிகள் නාවික 0.0645161
இறக்குமதி, අපනයන 0.0526316
இறக்குமதி, පාලක 0.0131579
இறக்குமதி, ආනයන 0.2727273
இறக்குமதி, සහ 0.0036101
இறக்குமதி, ජ්‍යෙෂඨ 0.0322581
கட்டிடத் ගොඩනැගිලි 0.0384615
கட்டிடத் ඉදිකිරීම් 0.1428571
கட்டிடத் දෙපාර්තමේන්තුව 0.0048309
எந்திர ඇන්ජින් 0.2666667
எந்திர සහකරු 0.2500000
எந்திர කාමර 0.2307692
எந்திர ඇන්ජිම 0.3333333
(மதிப்பீடு) NULL 0.0005659
தரைப்படைத் මූලස්ථානය 0.3333333
தரைப்படைத் හමුදා 0.0303030
(உணவு) NULL 0.0008489
திறைசேரி භාණ්ඩාගාරය 1.0000000
சத்தியப்பிரமாண දිවුරුම් 1.0000000
உபபகுதிப் NULL 0.0002830
அனுப்பல், යැවීම් 0.6666667
குழுவுறுப்பினர் කාරක 0.0303030
பொருளியற் ආර්ථික 0.0909091
பொருளியற் අර්ථ 0.2500000
லண்டன் ලන්ඩනයේ 1.0000000
மால் ගබඩාව 0.0175439
மால் NULL 0.0005659
செவ்வை චැකර් 1.0000000
செவ்வை බලන්නා 0.2500000
வான்மிதப்புப் ග්ලයිඩිං 1.0000000
எரிபொருட் දරඅඟුරුකරු 1.0000000
.பொறி යන්ත්‍ර 0.0294118
.பொறி මැෂින් 0.7142857
.பொறி පිටර් 0.3333333
(ஆய்வு) NULL 0.0002830
(ஆய்வு) (විමර්ෂණ) 0.5000000
(ஆய்வு) විමර්ෂණ 0.1250000
பெற்றவர்) NULL 0.0005659
(வெட்டு භාරකරු 0.0227273
நகரத் ග්‍රාම 0.1111111
நகரத் NULL 0.0002830
நகரத் නගර 0.0476190
நகரத் සහ 0.0072202
கணிப்பாளர் NULL 0.0005659
கணிப்பாளர் තක්සේරුකරු 0.1538462
கணிப்பாளர் (තැපැල්) 1.0000000
கணிப்பாளர் මිලකරු 0.4000000
வழங்கல்‚ NULL 0.0002830
மூதவை මන්ත්‍රී 0.1428571
மூதவை සැනේට් 0.6000000
உறவுகள் NULL 0.0002830
தொலைபேசிச் පණිවුඩ 0.1000000
துடைப்பவர் NULL 0.0002830
குத்தகைப் බදු 0.0526316
பொறிமுறைப் යාන්ත්‍රික 0.0555556
பொறிமுறைப் ගොවිපොළ 0.0666667
பொறிமுறைப் කොට්ඨාසය 0.0526316
கூடறை ශාලාව 0.0312500
மருந்துப்பாக ඖෂධ 0.0769231
மன்றம் වෛද්‍ය 0.0080645
மன்றம் මන්ත්‍රණ 0.1111111
மன்றம் සභාව 0.0918367
மன்றம் දිස්ත්‍රික් 0.0188679
மன்றம் මණ්ඩලය 0.0062893
மன்றம் NULL 0.0028297
மன்றம் කවුන්සිලය 0.2500000
ஊதுநர் පිඹින්නා 1.0000000
மினுக்குநர், පෝලිස් 1.0000000
மினுக்குநர், කරන්නා 0.0322581
மினுக்குநர், සහ 0.0036101
விஞ்ஞான විද්‍යාත්මක 1.0000000
விஞ்ஞான ප්‍රගමන 1.0000000
விஞ்ஞான ලංකා 0.0049751
விஞ்ஞான උප 0.0175439
விஞ்ஞான සාකච්ඡා 0.2500000
விஞ்ஞான තාක්ෂණ 0.1000000
விஞ்ஞான හා 0.0061728
விஞ்ஞான විශේෂ 0.0256410
விஞ்ஞான සහ 0.0036101
விஞ்ஞான විද්‍යා 0.0898876
விஞ்ஞான සමාගම 0.0333333
விஞ்ஞான NULL 0.0011319
மீன்காட்சிச்சாலைக் තටාක 0.3333333
மீன்காட்சிச்சாலைக் මත්ස්‍ය 0.5000000
பிணவறை මිනීකාමර 1.0000000
பங்குத் අඩ 1.0000000
பறத்தல் ගුවන් 0.0196078
வதிவிடம் නිවාසය 0.0384615
புகையூட்டல் කාර්යාලය 0.0034602
புகையூட்டல் ධූමායන 1.0000000
புகையூட்டல் කම්කරු 0.0089286
புகையூட்டல் ධුමායන 0.5000000
மஹகுபுக்கந்தவல මහකුඹුක්‌කන්කඳවල 1.0000000
மேல்முறையீட்டு අභියාචනාධිකරණය 1.0000000
மேல்முறையீட்டு ඇපැල් 0.2857143
மேல்முறையீட்டு විනිශ්චය 0.2500000
காலை NULL 0.0002830
காலை අංගණය 0.8000000
காலை අංගණ 0.5000000
காலை අංණය 1.0000000
தொற்றுநீக்கிப்பொறிச் විෂ 0.5000000
தொற்றுநீக்கிப்பொறிச் බීජ 0.2000000
சந்தைகள் වෙළඳපොළවල් 0.5000000
தொடர்ச்சியான සුනිත්‍ය 1.0000000
சேராள் ආධුනික 0.0256410
அனுப்பும் NULL 0.0002830
கடற் ප්‍රවාහණ 0.0588235
கடற் නාවික 0.0322581
கடற் සමුද්‍ර 0.2500000
நவீன ආතර් 1.0000000
நிருவாகம், ගමනාගමන 0.1000000
நிருவாகம், ගුවන් 0.0196078
நிருவாகம், සහ 0.0036101
இணையத்தளப் සීමාසහිත 0.1000000
நிகழ்ச்சிமுறைத் වැඩසටහන් 0.0526316
துண்டு සිත්තර 1.0000000
துண்டு ජොබ් 1.0000000
கமத்தொழில்,தோட்டக்கலைச் කෘෂිකර්ම 0.0208333
பேராதெனிப் පේරාදෙණිය 0.5000000
அநாதை සභ 0.3333333
அநாதை අනන්දරු 0.2500000
பதவியணி, සහ 0.0036101
(பதவியினர்) NULL 0.0002830
செய்கருவிப்பண்டசாலை ගබඩාව 0.0175439
செய்கருவிப்பண்டசாலை උපකරණ 0.0370370
சிற்றாசிரியர் ආචාර්ය 0.0289855
வாயிற்பெருமகன் NULL 0.0002830
அகலவத்தை ප්‍රාදේශීය 0.0047170
தளபாடப் ගෘහභාණ්ඩ 0.3333333
அட்டை පත 1.0000000
அட்டை කාඩ් 0.2500000
அட்டை පත්‍රිකා 0.5000000
அட்டை දැන්වීම් 1.0000000
வான்செலவுத் සිවිල් 0.0243902
வான்செலவுத் සේවා 0.0101010
வணிகக் වෙළඳ 0.0645161
பெற்ற ගුරුවර 0.0416667
பெற்ற ලංකා 0.0049751
பெற்ற NULL 0.0011319
பெற்ற ගුරුවරු 0.2000000
பொதுநலவரசுக் පොදුරාජ්‍යමණ්ඩලීය 0.1428571
உதவியாளர், සහකාර 0.0025000
உதவியாளர், කාමරයේ 0.2000000
உதவியாளர், NULL 0.0002830
உதவியாளர், අඳුරු 0.2000000
கட்டுப்பாட்டு NULL 0.0011319
கட்டுப்பாட்டு ලිපිකරු 0.0068493
கட்டுப்பாட்டு පාලන 0.0333333
கட்டுப்பாட்டு නිලධාරි 0.0028986
கட்டுப்பாட்டு පාලක 0.0657895
கட்டுப்பாட்டு ස්ථානය 0.0303030
செங்கல் පෙදරේරු 0.3333333
செங்கல் උලුවඩු 1.0000000
கங்காணி කන්කානි 1.0000000
கங்காணி ශෝධක 0.2000000
.கனிட்ட පේෂකර්ම 0.1428571
மதுராவெல මදුරාවල 1.0000000
முத்திரை සටහන්කරු 0.1818182
முத்திரை බදු 0.1052632
முத்திரை බූදල් 0.3333333
முத்திரை මුද්දර 0.5625000
முத்திரை හරිවැරදි 0.3333333
முத்திரை ගැසීමේ 1.0000000
பதவியணிப் සහ 0.0036101
ஓய்வூதியப் වැටුප් 0.0555556
ஓய்வூதியப் විශ්‍රාම 0.1333333
தென்கிழக்காசியக் දකුණු 0.2500000
தென்கிழக்காசியக் සහ 0.0036101
தென்கிழக்காசியக் අග්නිදිග 1.0000000
போக்குவருத்து NULL 0.0002830
பகுப்பய்வாளர் NULL 0.0002830
பகுப்பய்வாளர் දෙපාර්තමේන්තුව 0.0048309
இரும்பு, යකඩ 1.0000000
சீ සඳහා 0.0833333
ஏற்றுமதியாளர்கள் ලංකා 0.0049751
குளிர்ப் ශිත 1.0000000
குளிர்ப் සීත 1.0000000
குளிர்ப் ශීත 1.0000000
குளிர்ப் ගබඩාව 0.0175439
கூடம் මඩුව 0.0454545
கூடம் මණ්ඩලය 0.0062893
கூடம் විනිශ්චයකාර 0.0714286
கூடம் කාමරය 0.1000000
கூடம் NULL 0.0011319
அடுக்குநர் NULL 0.0002830
பயிர்ச்செய்கை නිලධාරි 0.0028986
பயிர்ச்செய்கை වැවිලි 0.1250000
பயிர்ச்செய்கை වගාකිරීම 1.0000000
பயிர்ச்செய்கை NULL 0.0002830
பயிர்ச்செய்கை වගාකිරීම් 0.6666667
ஜோன் ජෝන් 0.6666667
ஜோன் රථ 0.0526316
ஜோன் ආරක්‌ෂක 0.2500000
ஜோன் ගිලන් 0.2000000
ஜோன் කොතලාවල 0.5000000
உலொயித்து ලොයිඩ් 1.0000000
பின்படிப்பு NULL 0.0011319
பின்படிப்பு ආයතනය 0.0149254
நிர்வாகம் පාලනය 0.1000000
இறக்குமதி හා 0.0061728
இறக்குமதி වාණිජ 0.0208333
இறக்குமதி ආනයන 0.1818182
ஆய்வுத் පරීක්ෂණ 0.0625000
கலத்துறைத் තටාක 0.3333333
இறக்கற்பொறுப்புக் වෙළඳ 0.0322581
இறக்கற்பொறுப்புக் ගොඩබාන 1.0000000
.உயர்த்துபொறிப் කරවන්නා 0.2000000
.உயர்த்துபொறிப் දබර 1.0000000
பள்ளிக்கூட කෘෂිකර්ම 0.0208333
பள்ளிக்கூட NULL 0.0008489
பள்ளிக்கூட පාඨශාලා 0.2105263
பள்ளிக்கூட වැඩ 0.0149254
பள்ளிக்கூட පාසලේ 1.0000000
பள்ளிக்கூட පාසල් 0.4000000
பள்ளிக்கூட පාඨශාලාධිපති 1.0000000
பள்ளிக்கூட විද්‍යාලයාධිපති 0.1666667
பள்ளிக்கூட සම්පාදක 0.0625000
பள்ளிக்கூட වැඩසටහන් 0.0526316
புள்ளிவிவர, සංඛ්‍යෙල්ඛන 1.0000000
சுதேச දේශීය 0.0714286
சுதேச වෛද්‍ය 0.0080645
உலோகஞ்செதுக்குநர் ඔබ්බවන්නා 1.0000000
பயில்நிலை විදුලි 0.0079365
பயில்நிலை සටහන්කරු 0.1818182
பயில்நிலை ආධුනික 0.1282051
பயில்நிலை fපොර්මන්, 0.5000000
மறுசீரமைப்புப் යථා 1.0000000
மறுசீரமைப்புப் වූවන් 0.5000000
விற்பவர் විකුණන්නා 0.6666667
விற்பவர் NULL 0.0002830
விற்பவர் අබින් 0.5000000
ஆழ் ඩිප්රේ 1.0000000
ஆழ் දියඹ 1.0000000
சிற்றாயுதக் දෙවැනි 0.0833333
பிரதிநிதிகள் මන්ත්‍රී 0.1428571
பிரதிநிதிகள் නියෝජිත 0.1923077
வணிகர் ලත් 0.0588235
வணிகர் වෙළෙන්දා 0.2500000
ஆட்சிப் රාජ්‍ය 0.0156250
ஆட்சிப் පළාත් 0.0384615
ஆட்சிப் පාලන 0.0166667
முற்பதிவு NULL 0.0002830
முற்பதிவு කරන 0.0588235
கட்டிட ගොඩනැගිලි 0.0384615
வெளித்துறைப் බාහිර 0.0769231
வெளித்துறைப் වරාය 0.0208333
முகச் ලේකම් 0.0039062
முகச் මුවදොර 0.5000000
முகச் කාර්යාලය 0.0034602
உரிமைக் වන්දි 0.1000000
உரிமைக் ඉල්ලීම 0.5000000
வைப்புக் තැන්පත් 1.0000000
பதிப்பு සහකාර 0.0050000
பதிப்பு සම්පාදක 0.0625000
கட்டுவேலைப் වැඩ 0.0149254
அரியுநர் ඉරුම්කරු 1.0000000
சிற்றாசிரியைச் සහෝදරි 0.3333333
சிற்றாசிரியைச் උපදේශක 0.0125000
பயிற்சிபெற்ற සිංහල 0.1111111
பயிற்சிபெற்ற පුහුණු 0.0454545
பயிற்சிபெற்ற ලත් 0.0588235
பயிற்சிபெற்ற තාක්ෂණ 0.1000000
பயிற்சிபெற்ற NULL 0.0005659
பொறிப் NULL 0.0002830
நிருவாக‚ හා 0.0061728
நிருவாக‚ පරිපාලන 0.1250000
மன்றாடி සොලිසිටර් 1.0000000
தாங்குநர் NULL 0.0005659
தாங்குநர் පිටපත් 0.0909091
சமூகசேவை සහකාර 0.0025000
சமூகசேவை අධ්‍යක්ෂ 0.0067114
சமூகசேவை සමාජ 0.0400000
சதுரணி NULL 0.0002830
தொழிற்சலை NULL 0.0002830
மருத்துவச்சாலைக் කොමිටිය 0.1428571
மருத்துவச்சாலைக் උපස්ථායක/ 1.0000000
மருத்துவச்சாலைக் ආරෝග්‍යශාලා 0.1176471
சுருக்கெழுத்தியற் ලඝුලේඛන 0.3333333
மின்சார වැඩපොළ 0.0370370
மின்சார සහ 0.0036101
மின்சார විදුලි 0.2222222
மின்சார ඉංජිනේරු 0.0277778
மின்சார NULL 0.0005659
மின்சார කම්බි 0.2000000
மின்சார සමාගම 0.0333333
மின்சார ආදුනික 1.0000000
மின்சார ඉන්ජිනේරු 0.0625000
மின்சார එළිය 0.2500000
மின்சார ලංකා 0.0049751
மின்சார හා 0.0061728
(வேலைக்களம்) ඉංජිනේරු 0.0111111
(வேலைக்களம்) පොළ 0.0909091
அதிகாரசபை ශක්ති 1.0000000
அதிகாரசபை NULL 0.0016978
அதிகாரசபை මහවැලි 1.0000000
தையற்காரி මැහුම්කාරි 1.0000000
கூட்டுத்தாபன NULL 0.0005659
வதிவிடவரிசை නිවාස 0.0555556
(வடிவமைப்பு, NULL 0.0002830
படக் භාරකරු 0.0227273
அவதான වස්තු 0.5000000
டொமேன் NULL 0.0002830
அச்சுக்கிளை ශාඛා 0.1000000
கல்விச் යෝජනා 0.0344828
கல்விச் NULL 0.0005659
கல்விச் අධ්‍යාපන 0.0491803
கல்விச் භාෂෝපකාර 0.5000000
கல்விச் සමීතිය 1.0000000
கல்விச் අධාපන 0.5000000
கல்விச் පරීක්ෂිකා 0.1111111
கல்விச் සමිතිය 0.0454545
இலங்கைச் ශ්‍රී 0.0140845
இலங்கைச் දෙවැනි 0.0833333
இலங்கைச் ලංකා 0.0248756
காப்புருதிக் NULL 0.0002830
பொறிச்சாதன ආධුනික 0.0256410
கடற்றொழில் හා 0.0061728
கடற்றொழில் ධීවර 0.3409091
கடற்றொழில் කාර්මික 0.0169492
கடற்றொழில் නිවාරක 0.2500000
கடற்றொழில் උප 0.0175439
கடற்றொழில் දිය 0.1428571
கடற்றொழில் තාක්ෂණවේදී 1.0000000
கடற்றொழில் NULL 0.0008489
கடற்றொழில் කිවුල් 0.5000000
தூதாண்மை රාජ්‍ය 0.0156250
வெ.நோ.திவைத்தியர் වෛද්‍ය, 1.0000000
முகவர் රැස්කරන 0.2000000
முகவர் ; 0.0048077
முகவர் නියෝජිත;බලයලත් 1.0000000
முகவர் ගන්නා 0.1666667
முகவர் ඒජන්ත, 1.0000000
முகவர் යවන 0.2500000
முகவர் ඒජන්ත 0.6153846
முகவர் නියෝජිත 0.1153846
முகவர் මධ්‍යස්ථාන 0.2000000
முகவர் NULL 0.0002830
முகவர் තන්ත්‍ර 0.5000000
தொழிற்சாலைக் කර්මාන්තශාලා 0.1176471
தொழிற்சாலைக் කණිෂ්ඨ 0.0250000
தொழிற்சாலைக் පැක්ටේරි 0.5000000
வெளியீட்டு අධ්‍යාපන 0.0163934
வெளியீட்டு දෙපාර්තමේන්තුවේ 0.1176471
வெளியீட்டு සහ 0.0036101
வெளியீட்டு සිතියම් 0.1666667
வெளியீட்டு කොමසාරිස් 0.0075188
வெளியீட்டு මණ්ඩලයේ 0.0588235
வெளியீட்டு ග්‍රන්ථ 0.4000000
தொகைமதிப்பு සංගණන 1.0000000
தொகைமதிப்பு සේවක 0.0086207
தொகைமதிப்பு ජනලේඛන 0.0833333
வாளேந்து අසිග්ගාහක 1.0000000
விரிவுரை කථා 1.0000000
விஸ்தரிப்புத் ජල 0.0400000
எரி තෙල් 0.0833333
எரி දවන 0.5000000
உள்ளாற்சி ගිවිසුම් 1.0000000
உள்ளாற்சி කාර්යාංශය 0.0500000
உள்ளாற்சி ලංකා 0.0049751
மின்சார, විදුලි 0.0158730
நிரந்தர ලිපිකරු 0.0068493
நிரந்தர ස්ථීර 0.1111111
நிரந்தர බඩ 0.1666667
வங்களாக் බංගලාකරු 0.5000000
வங்களாக் බංගලා 0.5000000
அமைப்பு, සහ 0.0036101
அமைப்பு, සංවිධාන 0.2222222
மொழிபெயர்ப்பு, පරිවර්තන 0.3333333
மொழிபெயர்ப்பு, සම්පාදන 0.0555556
தடையியக்கம் ව්‍යාපාර 0.1111111
தடையியக்கம் රෝග 0.0869565
தடையியக்கம் NULL 0.0005659
தடையியக்கம் ව්‍යාපාරාධිකාරි 1.0000000
தடையியக்கம் ව්‍යාපාරය 0.0833333
தடையியக்கம் නාශක 0.2173913
புலமைச் NULL 0.0002830
புலக்கல்விக் දෘශ්‍ය 0.3333333
புலக்கல்விக் ශ්‍රව්‍ය 0.2500000
புலக்கல்விக் හා 0.0061728
புலக்கல்விக் ශාකාව 0.2500000
புலக்கல்விக் අධ්‍යාපන 0.0163934
மொழிபெயர்ப்பு පරිවර්තන 0.3333333
ஆராய்ச்சிச் NULL 0.0002830
ஆராய்ச்சிச் පර්යේෂණ 0.0232558
பொதுநலவரசு NULL 0.0002830
பொதுநலவரசு පොදුරාජ්‍ය 0.5000000
பொதுநலவரசு ගුවන් 0.0196078
பொதுநலவரசு කාර්ය 0.0238095
பொதுநலவரசு පොදුරාජ්‍යමණ්ඩලීය 0.3571429
பொதுநலவரசு උප 0.0175439
பொதுநலவரசு මහ 0.0357143
பொதுநலவரசு පොදු 0.0769231
நீர்வேலைக் ජල 0.0400000
உதவியாளரின் සහකාර 0.0025000
மேற்பார்வைத் මේට්‍රන් 0.1666667
பட்டோலை උපලේඛන 0.7500000
புள்ளிவிவரச் NULL 0.0002830
(மண் (පස් 1.0000000
ரம்பேவ රම්බැව 1.0000000
தலையாரி NULL 0.0002830
அதிகாரங்கள் අධිරාජ්‍ය 0.1250000
அதிகாரங்கள் අධිකාරීහු 1.0000000
அதிகாரங்கள் සිවිල් 0.0243902
அதிகாரங்கள் තැපැල් 0.0185185
அதிகாரங்கள் බදු 0.0526316
தூதுக்குழுத் විදේශ 0.0212766
தூதுக்குழுத் තානාපති 0.0666667
.மேலைத்தேய වැඩ 0.0149254
.மேலைத்தேய බටහිර 0.1428571
.மேலைத்தேய සටභන් 1.0000000
நிலக்கிழார் ඉඩම් 0.0217391
நிலக்கிழார் හිමිකරු 1.0000000
ஆனந்த ප්‍රීති 1.0000000
பதுளை බදුල්ල 1.0000000
கீழறை අඟුරු 0.2500000
நிறைவேற்றுநர் විධායක 0.0800000
ஆயுள்வேத ආයුර්වේද 0.1250000
ஆயுள்வேத කථිකාචාර්ය 0.0158730
பாலவேலை පාලම් 0.2000000
பாலவேலை NULL 0.0002830
வீடு සංවිධාන 0.1111111
வீடு ගේ 0.5000000
வீடு නිවාස 0.0555556
வீடு මන්දිරය 1.0000000
வீடு NULL 0.0002830
வீடு ගෘහ 0.0526316
வீடு නිවාසය 0.0384615
பிறைசுப்பிற்றேரியன் ප්‍රෙස්බිටිරියන් 1.0000000
பிறைசுப்பிற்றேரியன் මිසමේ 0.5000000
கிளை) NULL 0.0008489
முகாமைத்துவ කළමනාකරණ 0.2500000
முகாமைத்துவ NULL 0.0008489
முகாமைத்துவ කළමණාකරන 0.5000000
முகாமைத்துவ උපාධි 0.0833333
முகாமைத்துவ පශ්චාත් 0.1250000
முகாமைத்துவ කළමණාකාරණ 0.6666667
காவலாள் මුරකරු 0.0384615
சொத்துப் භාරකරු 0.0227273
சொத்துப் දේපළ 0.3333333
வேலைக்களம் වැඩ 0.0149254
வேலைக்களம் රේඩාර් 0.5000000
வேலைக்களம் NULL 0.0031126
வேலைக்களம் මඩුව 0.0454545
வேலைக்களம் වැඩපොළ 0.1851852
பூஞ்சணவியல் දිලිර 1.0000000
பூஞ்சணவியல் විද්‍යා 0.0112360
உணவூட்ட පෝෂණාගාර 1.0000000
தத்துவகாரர்; අද්මිනිස්ත්‍රාසිකාර 0.5000000
பரிசோதனைக்கூடப் රසායනාගාර 0.0588235
பதிப்பாசிரியர் කතෘ 1.0000000
பதிப்பாசிரியர் NULL 0.0002830
பதிப்பாசிரியர் සංස්කාරක 0.6363636
பதிப்பாசிரியர் වාර්තා 0.5000000
மலேரியாத் නාශක 0.0869565
மலேரியாத் මැලේරියා 0.2500000
சந்தைப்படுத்தல் සංවර්ධනය 0.1666667
சந்தைப்படுத்தல் අලෙවි 0.2500000
சந்தைப்படுத்தல் වෙළඳ 0.0322581
சந்தைப்படுத்தல் සහකාර 0.0025000
சந்தைப்படுத்தல் දෙපාර්තමේන්තුව 0.0048309
சந்தைப்படுத்தல் ක්‍රමය 0.0285714
சந்தைப்படுத்தல் පිළිබඳ 0.0123457
சந்தைப்படுத்தல் පරිපාලක 0.0120482
சந்தைப்படுத்தல் අලෙවිකිරීමේ 0.6000000
சந்தைப்படுத்தல் සහ 0.0036101
சந்தைப்படுத்தல் දෙපාර්තමේන්තුවේ 0.0588235
சந்தைப்படுத்தல் අලෙවිකිරීම් 1.0000000
தகுதிகூர்நிலைத் ආධුනික 0.0256410
பிரதியெடுத்தற் ගැනීමේ 0.2000000
பிரதியெடுத்தற் NULL 0.0002830
பிரதியெடுத்தற் පිටපත් 0.0909091
பிரதியெடுத்தற் අංශයේ 0.1428571
பிரதியெடுத்தற் අනුපුටපත් 1.0000000
குடிமகன் සිවිල් 0.0243902
பலகாரவகைச் කෑම 0.2000000
உபசார ප්‍රොටකෝල් 0.3333333
சரிபார் හරිවැරදි 0.3333333
சரிபார் හරි 0.2500000
வடிவமைப்பாளர் සහ 0.0036101
வடிவமைப்பாளர் ශිල්පි 0.0476190
வடிவமைப்பாளர் සැලසුම්කරු 0.1666667
தாபன ආයතන 0.2352941
தாபன අතිරේක 0.0370370
தேசாதிபதி NULL 0.0002830
தேசாதிபதி සභාගත 1.0000000
தேசாதிபதி ආණ්ඩුකාරතුමා 1.0000000
பாராளுமன்றக் ශාඛාව 0.0128205
பாராளுமன்றக் පාර්ලිමේන්තු 0.0454545
சமுதாய ප්‍රජා 0.3333333
கலக்குபொறி ක්‍රියාකරු 0.0312500
சுயேட்ச்சை NULL 0.0002830
அஞ்சற்சாலை තැපැල් 0.0185185
பிரித்தானியப் බ්‍රිතාන්‍ය 0.1428571
பலவினப் විවිධ 0.2500000
பலவினப் අංශය 0.0076923
தொழில்பயிலுநர் නාවික 0.0322581
எச்சில் කෙළ 1.0000000
துப்புரவேற்பாட்டு සහකාර 0.0025000
துப்புரவேற்பாட்டு සනීපාරක්ෂක 0.3076923
மருந்துச்சாலை මධ්‍යම 0.0769231
மருந்துச்சாலை NULL 0.0002830
மருந்துச்சாலை දිස්පැන්සරිය; 1.0000000
மருந்துச்சாலை බෙහෙත් 0.0833333
மருந்துச்சாலை ශාලාව 0.0312500
மருந்துச்சாலை දිස්පැන්සරිය 0.6666667
மருந்துச்சாலை ඩිස්පෙන්සරිය 1.0000000
மருந்துச்சாலை දිස්පැන්සරි 1.0000000
(பண்டசாலை) NULL 0.0002830
உதவி‚ ආධාර 0.3333333
இங்கிரிய ඉංගිරිය 1.0000000
இரசாயனப்பொருள் පරන්දන් 0.5000000
தாதித்தாயார், භාරකාර 0.0909091
தாதித்தாயார், රෝගි 0.5000000
தாதித்தாயார், පිළිබඳ 0.0123457
ஆபரன NULL 0.0002830
தேடிப்பெருதல் ප්‍රතිසම්පාදන 1.0000000
மேற்பார்வை කාඩ් 0.2500000
மேற்பார்வை පන්ච් 0.2000000
மேற்பார்வை ආධුනික 0.0256410
பள்ளிவாசல், මුස්ලිම් 0.1111111
தாபனத் ආයතන 0.0588235
போர் යුද්ධ 0.1111111
பணிசெய்பவர் සේවක 0.0258621
நலம்பேணல் උපස්ථානය 0.5000000
இரேடியோ ගුවන් 0.0196078
இளம் තරුන 1.0000000
பகுப்புமுறைப் විශ්ලේෂන 1.0000000
வெளியேற்றுப்பொறி පාගා 1.0000000
அநை කාමරය 0.0500000
கைப்பணிப் කල 1.0000000
கைப்பணிப் උපදේශිකා 0.2500000
கைப்பணிப் ශිල්ප 0.1250000
கைப்பணிப் අත්වැඩ 0.5000000
கைப்பணிப் හස්තකර්මාන්ත 1.0000000
கைப்பணிப் ආචාර්ය 0.0144928
இயக்கல் ක්‍රියාකරවන 0.3333333
இயக்கல் මෙහෙයුම් 0.6666667
மேல்நிலை නිලධාරි 0.0028986
மேல்நிலை උසස් 0.1111111
களக் කෙෂ්ත්‍ර 0.0357143
கணக்கெடுப்பவர் NULL 0.0002830
கணக்கெடுப்பவர் ගන්නී 1.0000000
கணக்கெடுப்பவர் කවුන්ටර 0.6666667
கணக்கெடுப்பவர் ගන්නා 0.3333333
கணக்கெடுப்பவர் ලණන් 1.0000000
தூதேவலாள் පණිවිඩකරු 0.7500000
தூதேவலாள் NULL 0.0002830
தூதேவலாள் ප්‍රධාන 0.0062500
தூதேவலாள் පණිවුඩකරු 0.5000000
வீதி වීදිය 1.0000000
வீதி මාර්ග 0.0666667
யுத்தக் යුද්ධ 0.1111111
.வெடிப்பொருட்சாலை වෙඩි 0.2000000
.வெடிப்பொருட்சாலை බෙහෙත් 0.0833333
எகிப்தில் ඊජිප්තුවේ 1.0000000
வானூர்திச்சேவை ගුවන් 0.0196078
நோயியல்) NULL 0.0002830
உள் ඇතුල් 0.5000000
பேணல் දෙපාර්තමේන්තුව 0.0048309
பேணல் NULL 0.0005659
பேணல் සංරක්ෂණ 0.1000000
பேணல் සංරක්‌ෂණ 1.0000000
பேணல் සංරක්‍ෂණ 0.5000000
அடிப்படைத் මූලික 0.1818182
மலகூடச் කසළ 0.1428571
சுற்றுநர் ඔතන්නා 1.0000000
சைகைமுறைப் සංඥා 0.5000000
சைகைமுறைப் සිග්නල් 0.1000000
இணைமாவட்ட අතිරේක 0.0370370
லிமிட்டெட் NULL 0.0002830
அளவை මැනුම 1.0000000
அளவை විද්‍යා 0.0224719
அளவை සමීක්ෂණය 1.0000000
அளவை වංශ 0.3333333
அளவை ජනරාල් 0.0357143
அளவை සර්වේ 0.3333333
அளவை ලේඛන 0.0370370
அளவை සමීක්ෂණ 0.2222222
அளவை මිනින්දෝරු 0.1739130
அளவை පරීක්ෂණය 0.3333333
அளவை විද්‍ය 0.5000000
தேசியமய ජනසතු 1.0000000
நோய்த்தடை,சருவதேச NULL 0.0002830
பராமரிப்பு) NULL 0.0002830
கிராமப்பொருளாதார කෘෂි 0.1111111
மானியறை මීටර් 1.0000000
கறுவலகஸ்வெவ ප්‍රාදේශීය 0.0047170
கறுவலகஸ்வெவ කරුවලගස්‌වැව 1.0000000
நிதியம் අමාත්‍යංශය 0.0208333
நிதியம் අර්ථසාධක 0.2500000
நிதியம் NULL 0.0036786
நிதியம் අවස්ථා 0.5000000
நிதியம் අරමුදල 0.3214286
நிதியம் පදනම 0.2000000
நிதியம் වාරිමාර්ග 0.0526316
நிதியம் ශුභසිද්ධි 1.0000000
உபதிணைக்களம் සම්පාදන 0.0555556
கடனாளி ණයකරු 1.0000000
தாணையத் ගැරිසන් 0.5000000
சிறைகாவலர் ජේලර් 0.2000000
சிறைகாவலர் NULL 0.0005659
துறைமுகங்கள்‚ වරාය 0.0208333
சிறப்புச் විශේෂ 0.0256410
பொருளாளர் භාණ්ඩාගාරික 1.0000000
தங்கியவர் NULL 0.0002830
பாசறையோன் කඳවුරුකරු 1.0000000
தடைக் අධිකාරි 0.0074074
மஹரகம මහරගම 1.0000000
முதலியார் ධීවර 0.0227273
முதலியார் මුදලි 0.6666667
இறக்கற்பொறுப்பு ගොඩබෑම් 0.2142857
தொழிற்சாலைச் කර්මාන්තශාලා 0.1176471
தொழிற்சாலைச் පරීක්ෂක 0.0065789
ஆராச்சிப் පර්යේෂණ 0.0232558
மன்றுப் උසාවියේ 1.0000000
அலுவலத்திற்கிடையிலான අන්තර් 0.1666667
மடுவக் NULL 0.0002830
நலநோம்பு සුභසාදක 0.3333333
தங்குமிடம் සයිඩිම 0.5000000
(பயிற்சியிலர்) (නුපුහුණු) 0.3333333
வித்தியாலயம் විද්‍යාලය 0.0370370
வித்தியாலயம் NULL 0.0002830
சேவையாளர் NULL 0.0002830
சேவையாளர் මුක්ත 1.0000000
சேவையாளர் නිලධාරි 0.0028986
சேவையாளர் සේවක 0.0344828
வாக்காளர் තැපැල් 0.0185185
வாக்காளர் ඡන්දදායකයා 0.6666667
துறைப் ගමනාගමනය 1.0000000
துறைப் වරාය 0.0208333
பள்ளிக்கூடத் NULL 0.0002830
பள்ளிக்கூடத் ගෙවතු 0.3333333
வான்வண்டி, වෑන්, 1.0000000
அம்பாறை අම්පාර 1.0000000
மத்தியம் මධ්‍යම 0.0769231
மத்தியம் ප්‍රාදේශීය 0.0047170
கடதாசிக் කඩදාසි 0.2000000
தங்கொட்டுவ දංකොටුව 1.0000000
தங்கொட்டுவ ප්‍රාදේශීය 0.0047170
தத்துவம்பெற்ற බලයලත් 1.0000000
மொழி කටයුතු 0.0454545
மொழி භාෂා 0.0714286
மொழி රාජ්‍ය 0.0156250
(இரசாயனர்) NULL 0.0002830
(இரசாயனர்) කොමසාරිස් 0.0075188
கற்குழி සහකාර 0.0025000
பள்ளிக்கூடச் පාඨශාලා 0.0526316
பள்ளிக்கூடச் සහ 0.0036101
பள்ளிக்கூடச் NULL 0.0005659
பிராணிகள் ගොඩබසින 1.0000000
மன்றச் අධ්‍යාපන 0.0163934
(IESL) NULL 0.0002830
கோதுமை තිරිඟු 1.0000000
வன்பலகை හාඩ්බෝඩ් 1.0000000
வருமானவரிச் ආදායම් 0.0476190
அனுப்பற் යැවීම්කරු 0.5000000
அனுப்பற் යැවීම් 0.3333333
பிரதானி නිවන 0.1250000
பிரதானி පති 1.0000000
உரிமைநிருணய NULL 0.0002830
சுகாதார, NULL 0.0002830
சுகாதார, සෞඛ්‍ය 0.0754717
பெயர்வழிக் පෞද්ගලික 0.0454545
நலனோம்பு සුභ 1.0000000
நலனோம்பு නිලධාරිණි 0.1250000
நலனோம்பு NULL 0.0005659
நலனோம்பு සමාගම 0.0333333
நலனோம்பு සුභසාදන 0.5000000
நலனோம்பு ශුභසාධක 0.5000000
நலனோம்பு නිලධාරි 0.0028986
பொறித்தொகுதிக் උද්භිදාධිකාරි 1.0000000
பொறித்தொகுதிக் සේවක 0.0086207
பொறித்தொகுதிக் NULL 0.0002830
விலைக்கட்டுப்பாட்டாளர் NULL 0.0002830
சுருள் කොයිල් 1.0000000
பதவிநிலைத் මාණ්ඩලික 0.0526316
நெடுஞ்சாலை හා 0.0061728
