කා c 0.0020263
කා i 0.0001656
කා e 0.0001617
කා k 0.0975781
කා a 0.0126429
කා l 0.0005739
කා NULL 0.1142857
කා w 0.0004871
බැ e 0.0011316
බැ b 0.0240137
බැ n 0.0001404
බැ a 0.0007199
ලි‌ l 0.0037303
ලි‌ i 0.0021527
ටෙ e 0.0006466
ටෙ t 0.0015171
අ i 0.0001656
අ a 0.0355889
අ e 0.0001617
අ b 0.0008576
ජි‍‍ j 0.0107914
ජි‍‍ i 0.0014903
ක්‍ h 0.0003716
ක්‍ c 0.1053698
ක්‍ k 0.0491400
‌ෆ a 0.0002250
‌ෆ f 0.1120000
‌ෆ e 0.0014549
දූ t 0.0002528
දූ h 0.0001858
දූ o 0.0022185
දූ u 0.0051530
දූ d 0.0046626
ශ්‍ h 0.0026013
ශ්‍ s 0.0120956
රි o 0.0011093
රි r 0.1410538
රි NULL 0.0285714
රි y 0.0057895
රි g 0.0003899
රි i 0.1261798
රැ u 0.0009662
රැ r 0.0051226
රැ v 0.0017182
රැ e 0.0009699
රැ a 0.0009448
තූ t 0.0002528
තූ u 0.0003221
තූ h 0.0001858
ඌ o 0.0011093
ඌ u 0.0009662
‌බෝ o 0.0188575
‌බෝ b 0.0291595
එ NULL 0.0285714
එ b 0.0008576
එ e 0.0145490
දේ d 0.0148108
දේ e 0.0087294
ද‌ a 0.0007199
ද‌ d 0.0043884
ද‌ h 0.0001858
ඳි d 0.0049369
ඳි n 0.0019655
ඳි i 0.0024839
ඳි y 0.0015789
ඳි e 0.0004850
ණ a 0.0237560
ණ n 0.0772147
ණ e 0.0082444
ණ o 0.0027732
ණ w 0.0004871
ට‌ a 0.0006299
ට‌ t 0.0030341
ට්‌‌ o 0.0016639
ට්‌‌ t 0.0007585
ළො o 0.0016639
ළො l 0.0008608
ේ e 0.0001617
ේ h 0.0001858
මෞ w 0.0004871
මෞ m 0.0003425
මෞ a 0.0000450
ල් n 0.0001404
ල් i 0.0004968
ල් l 0.2361549
ල‍් l 0.0002869
බ් t 0.0002528
බ් b 0.0077187
බ් c 0.0010132
බ් u 0.0003221
යෞ y 0.0005263
යෞ a 0.0000450
රු i 0.0001656
රු u 0.0972625
රු o 0.0011093
රු r 0.0559824
ජෝ o 0.0005546
ජෝ j 0.0011990
ජෝ y 0.0005263
ල‍ෙ e 0.0001617
ල‍ෙ l 0.0002869
ව a 0.0514712
ව v 0.2079038
ව e 0.0025865
ව w 0.5133950
‌මෝ o 0.0011093
‌මෝ m 0.0006849
වා v 0.2079038
වා i 0.0001656
වා a 0.0114730
වා w 0.0652703
මාහේ a 0.0000900
මාහේ m 0.0006849
මාහේ h 0.0003716
ති‌ t 0.0032870
ති‌ i 0.0021527
ති‌ h 0.0014864
ණි‌ n 0.0001404
ණි‌ i 0.0001656
යී y 0.0005263
ඛ a 0.0003149
ඛ k 0.0024570
ඛ h 0.0003716
ටේ t 0.0002528
ටේ e 0.0001617
හෙ e 0.0121242
හෙ h 0.0150502
ඩැ d 0.0024685
ඩැ e 0.0006466
ඩැ a 0.0002250
ණු‌ n 0.0001404
ණු‌ u 0.0003221
බෙ e 0.0048497
බෙ b 0.0257290
ණ‌‌ n 0.0001404
ණ‌‌ a 0.0000450
චූ u 0.0038647
චූ h 0.0022297
චූ c 0.0121581
පෙ e 0.0242483
පෙ p 0.0946451
ගී i 0.0003312
ගී g 0.0074074
ගී e 0.0053346
ගී h 0.0001858
තු u 0.0946860
තු j 0.0011990
තු h 0.0373467
තු y 0.0005263
තු t 0.0743363
ඬු n 0.0002808
ඬු d 0.0005485
ඬු u 0.0006441
ල්‌‌ l 0.0002869
තේ t 0.0053097
තේ e 0.0033948
තේ h 0.0031587
තේ r 0.0001829
‌හේ e 0.0087294
‌හේ h 0.0100334
චී h 0.0003716
චී v 0.0017182
චී e 0.0003233
චී i 0.0001656
රා‌ a 0.0001800
රා‌ r 0.0007318
ටෝ o 0.0027732
ටෝ t 0.0017699
පි r 0.0001829
පි p 0.0859278
පි i 0.0225203
‌ w 0.0004871
‍‍ලෝ l 0.0002869
‍‍ලෝ o 0.0005546
නා‌ a 0.0013948
නා‌ n 0.0043521
දො o 0.0205214
දො d 0.0101481
ලො o 0.0144204
ලො l 0.0074605
යෙ y 0.0010526
යෙ e 0.0004850
මෝ m 0.0020548
මෝ o 0.0033278
ඤෝ o 0.0005546
ඤෝ h 0.0001858
වී i 0.0023183
වී g 0.0003899
වී e 0.0444552
වී v 0.0257732
වී w 0.0667316
හැ h 0.0055741
හැ e 0.0021015
හැ a 0.0005849
ත්‌‌ t 0.0015171
‍බෝ b 0.0008576
‍බෝ o 0.0005546
සෝ s 0.0123769
සෝ h 0.0003716
සෝ u 0.0003221
සෝ o 0.0232945
සෝ r 0.0001829
බේ‌ y 0.0052632
බේ‌ b 0.0120069
බේ‌ e 0.0021015
බේ‌ a 0.0000450
ථ h 0.0013006
ථ t 0.0020228
ථ a 0.0003599
ඡ a 0.0000900
ඡ j 0.0023981
ව්‌ w 0.0004871
ව්‌ v 0.0017182
න්‌‌‌ n 0.0007020
ඩො d 0.0002743
ඩො o 0.0005546
ගේ a 0.0000900
ගේ e 0.0741998
ගේ g 0.1797271
ප්‌ p 0.0012453
ත e 0.0124475
ත b 0.0008576
ත t 0.1790139
ත a 0.0263655
ත n 0.0002808
ත o 0.0016639
ත h 0.0929023
‌‌ගෝ g 0.0038986
‌‌ගෝ o 0.0055463
රි‌ r 0.0031101
රි‌ i 0.0019871
ඕ u 0.0003221
ඕ o 0.0144204
ඕ a 0.0000900
ලේ‌‌‌‌ e 0.0003233
ඩු d 0.0134394
ඩු o 0.0005546
ඩු u 0.0154589
ම j 0.0011990
ම d 0.0005485
ම m 0.4770548
ම o 0.0016639
ම t 0.0002528
ම i 0.0003312
ම p 0.0012453
ම e 0.0043647
ම s 0.0005626
ම a 0.0610546
ප් p 0.0828144
ප් a 0.0003599
බෑ a 0.0000900
බෑ e 0.0003233
බෑ b 0.0034305
නු u 0.0286634
නු n 0.0123543
ට් e 0.0014549
ට් t 0.0278129
ට් r 0.0007318
ස්‌ s 0.0005626
මැ m 0.0102740
මැ a 0.0008549
මැ e 0.0017782
ට්‌ t 0.0010114
ට්‌ o 0.0022185
නි‌ i 0.0001656
නි‌ n 0.0001404
ටො t 0.0005057
ටො o 0.0011093
ඒ‌ e 0.0006466
නි e 0.0009699
නි b 0.0008576
නි y 0.0026316
නි i 0.0748468
නි n 0.0650007
නි o 0.0011093
ෆො f 0.0800000
ෆො o 0.0055463
ගා g 0.0183236
ගා a 0.0021146
දේ e 0.0001617
දේ d 0.0002743
ණෙි n 0.0001404
ණෙි i 0.0001656
ධා‌ a 0.0000450
ධා‌ d 0.0002743
ල්‌ l 0.0088953
‌කො o 0.0033278
‌කො k 0.0021060
කෝ h 0.0001858
කෝ o 0.1059346
කෝ i 0.0004968
කෝ c 0.0131712
කෝ b 0.0008576
කෝ k 0.0428220
නූ‌ n 0.0004212
නූ‌ u 0.0009662
ටේ‌ e 0.0004850
ටේ‌ t 0.0007585
ච් h 0.0007432
ච් c 0.1995947
බ්‍ b 0.0137221
උ‌ u 0.0022544
කෞ u 0.0025765
කෞ w 0.0009742
කෞ k 0.0035100
නො o 0.0027732
නො n 0.0007020
ළි l 0.0014347
ළි i 0.0008280
තැ u 0.0003221
තැ h 0.0052025
තැ e 0.0040414
තැ t 0.0123894
තැ a 0.0010348
‌ගේ g 0.0003899
‌ගේ e 0.0001617
ඩ‌ d 0.0046626
ඩ‌ a 0.0007649
කි e 0.0001617
කි k 0.0217620
කි i 0.0101010
‌‌මෛ a 0.0001800
‌‌මෛ i 0.0006624
‌‌මෛ m 0.0013699
ළ o 0.0066556
ළ e 0.0019399
ළ a 0.0030145
ළ l 0.0261119
ති t 0.1431100
ති y 0.0136842
ති i 0.0884252
ති r 0.0001829
ති h 0.0862133
නෙ‌ e 0.0001617
නෙ‌ n 0.0001404
කෙ e 0.0017782
කෙ k 0.0038610
ඩු‌ d 0.0005485
ඩු‌ u 0.0006441
ජා h 0.0013006
ජා j 0.0551559
ජා a 0.0022496
හො h 0.0026013
හො o 0.0077648
ද‍ෙ d 0.0002743
ද‍ෙ e 0.0001617
මා‌ m 0.0010274
මා‌ a 0.0001350
NULL r 0.0014636
NULL u 0.0016103
NULL s 0.0016878
NULL a 0.0411680
NULL n 0.0015443
NULL g 0.0007797
NULL e 0.0139024
NULL k 0.0003510
NULL y 0.0042105
NULL h 0.0040877
NULL m 0.0010274
NULL o 0.0011093
NULL i 0.0011591
NULL t 0.0007585
‍කේ‍ e 0.0001617
‍කේ‍ k 0.0003510
බ්‌ b 0.0017153
ද e 0.0265115
ද k 0.0003510
ද t 0.0025284
ද a 0.0258706
ද d 0.2078991
ද h 0.0037161
වේ e 0.0001617
වේ v 0.0017182
ඹු m 0.0195205
ඹු u 0.0251208
ඹු b 0.0668954
ල‌ e 0.0004850
ල‌ a 0.0028345
ල‌ l 0.0189383
ඤ්‌ g 0.0003899
ඤ්‌ n 0.0001404
‌දො d 0.0049369
‌දො o 0.0099834
ලේ‌ l 0.0097561
ලේ‌ a 0.0002700
ලේ‌ e 0.0030715
ලේ‌ y 0.0042105
පු p 0.0834371
පු u 0.0444444
ශේ s 0.0005626
ශේ e 0.0001617
ශේ h 0.0003716
ඈ e 0.0011316
ඈ n 0.0001404
ඈ a 0.0001800
ඹ m 0.0106164
ඹ b 0.0308748
ඹ a 0.0017547
පා p 0.1307597
පා a 0.0094034
භි h 0.0001858
භි b 0.0008576
භි i 0.0001656
යේ y 0.0042105
යේ e 0.0014549
යේ g 0.0003899
හ් e 0.0004850
හ් h 0.0020438
‌සේ e 0.0063046
‌සේ s 0.0109705
ති‌‌ h 0.0001858
ති‌‌ t 0.0002528
ති‌‌ i 0.0001656
ඟ g 0.0035088
ඟ a 0.0005849
ඟ n 0.0008423
කේ e 0.0024248
කේ k 0.0052650
කේ c 0.0010132
කේ i 0.0001656
සැ e 0.0003233
සැ s 0.0008439
සැ a 0.0000450
තො h 0.0040877
තො o 0.0188575
තො t 0.0085967
ණෝ n 0.0001404
ණෝ o 0.0005546
උ u 0.0438003
ඔ o 0.0088741
බා a 0.0018447
බා b 0.0420240
කු c 0.0162107
කු q 0.2500000
කු b 0.0008576
කු k 0.1179361
කු o 0.0011093
කු u 0.1133655
ඳෙ n 0.0002808
ඳෙ e 0.0006466
ඳෙ d 0.0010971
‌‌ගෞ u 0.0012882
‌‌ගෞ g 0.0015595
‌පේ e 0.0003233
‌පේ p 0.0012453
ටී i 0.0001656
ටී t 0.0002528
යි h 0.0001858
යි o 0.0005546
යි j 0.0011990
යි i 0.0057957
යි l 0.0002869
යි y 0.0094737
යි e 0.0001617
ජො o 0.0005546
ජො j 0.0011990
ටි i 0.0342772
ටි y 0.0110526
ටි t 0.0629583
‍දෙ e 0.0004850
‍දෙ d 0.0008228
වෝ w 0.0009742
වෝ o 0.0022185
වෝ v 0.0051546
වෝ a 0.0000450
වි‌ w 0.0009742
වි‌ v 0.0120275
වි‌ i 0.0014903
සො o 0.0127565
සො s 0.0064698
ෂෝ o 0.0005546
ෂෝ h 0.0001858
ෂෝ s 0.0002813
ඳා n 0.0001404
ඳා a 0.0000450
ඳා d 0.0002743
දෑ a 0.0001800
දෑ e 0.0003233
දෑ d 0.0010971
ව‌ w 0.0063322
ව‌ v 0.0051546
ව‌ a 0.0007199
‌හෙ h 0.0014864
‌හෙ e 0.0012932
ල‌‌ l 0.0002869
ල‌‌ a 0.0000450
ධ e 0.0100226
ධ a 0.0051291
ධ d 0.1075151
ධ h 0.0399480
ග්‌ g 0.0007797
ල. l 0.0002869
ල. a. 1.0000000
දෝ o 0.0016639
දෝ d 0.0008228
‌වේ v 0.0068729
‌වේ e 0.0042030
‌වේ w 0.0107160
බෝ s 0.0005626
බෝ v 0.0017182
බෝ b 0.0325901
බෝ o 0.0216306
‍ගෝ g 0.0003899
‍ගෝ o 0.0005546
දි‌ d 0.0002743
දි‌ i 0.0001656
ටු u 0.0167472
ටු t 0.0131479
රා r 0.0633004
රා i 0.0001656
රා a 0.0158373
රා k 0.0007020
රා ra 1.0000000
ග් g 0.0042885
චි h 0.0789669
චි i 0.0399073
චි c 0.2441743
‌ලේ l 0.0005739
‌ලේ e 0.0003233
බු‌ b 0.0042882
බු‌ u 0.0016103
ගේ e 0.0004850
ගේ g 0.0011696
‌බේ e 0.0003233
‌බේ b 0.0017153
යා h 0.0001858
යා y 0.0921053
යා i 0.0006624
යා a 0.0081436
සේ i 0.0001656
සේ s 0.0950774
සේ e 0.0538312
ඩි y 0.0089474
ඩි i 0.0135784
ඩි d 0.0279759
ටෙ‌ a 0.0000450
ටෙ‌ e 0.0001617
ටෙ‌ t 0.0005057
වෙ w 0.0277642
වෙ v 0.0085911
වෙ e 0.0100226
‌ෆ් f 0.0240000
සී i 0.0004968
සී s 0.0064698
සී e 0.0064662
සී z 0.0232558
චි්‍ i 0.0001656
චි්‍ c 0.0010132
චි්‍ h 0.0003716
දි d 0.0938014
දි h 0.0003716
දි t 0.0002528
දි e 0.0008083
දි a 0.0000450
දි i 0.0558039
‌මො‌ o 0.0011093
‌මො‌ m 0.0006849
ධු u 0.0132045
ධු d 0.0112452
ධු h 0.0055741
චි‌ c 0.0091185
චි‌ i 0.0014903
චි‌ h 0.0027871
ජ් j 0.0203837
ලි y 0.0031579
ලි e 0.0003233
ලි i 0.0559695
ලි l 0.1030129
ත‌ e 0.0001617
ත‌ t 0.0015171
ත‌ a 0.0002250
ත‌ h 0.0001858
ං‌ n 0.0011231
ජා‌ j 0.0023981
ජා‌ a 0.0000900
ඟු g 0.0019493
ඟු n 0.0005616
ඟු u 0.0016103
ණ‌ n 0.0064580
ඝ h 0.0001858
ඝ g 0.0019493
ඝ a 0.0002250
ටි‌ i 0.0019871
ටි‌ t 0.0030341
ස i 0.0001656
ස z 0.0697674
ස h 0.0005574
ස o 0.0027732
ස s 0.1994374
ස a 0.0304598
ස b 0.0008576
ස e 0.0003233
ගො o 0.0011093
ගො g 0.0007797
‌‌දේ e 0.0001617
‌‌දේ d 0.0002743
ඹ් b 0.0085763
ඹ් m 0.0020548
මෛ m 0.0003425
මෛ y 0.0005263
මෛ i 0.0001656
ලෑ l 0.0022956
ලෑ e 0.0009699
කෲ c 0.0070922
කෲ x 0.0769231
කෲ r 0.0012806
කෲ u 0.0009662
කෲ o 0.0044370
බ b 0.3421955
රා්‍ෙ r 0.0001829
රා්‍ෙ o 0.0005546
ඟි g 0.0003899
ඟි i 0.0001656
ඟි n 0.0001404
ඟි a 0.0000450
ව් w 0.0160740
ව් i 0.0008280
ව් e 0.0011316
ව් v 0.0240550
ක් g 0.0003899
ක් q 0.7500000
ක් k 0.0824851
ක් c 0.0192503
ක් x 0.3076923
ක් r 0.0001829
ක් u 0.0006441
ෂා a 0.0032844
ෂා s 0.0208158
ෂා h 0.0137495
ෂා u 0.0003221
තෑ t 0.0025284
තෑ e 0.0012932
තෑ h 0.0003716
ඳු‌ d 0.0008228
ඳු‌ u 0.0009662
ඳු‌ n 0.0004212
‍දේ e 0.0001617
‍දේ d 0.0002743
දා h 0.0024155
දා d 0.0488206
දා a 0.0085485
දා t 0.0030341
ද්‌ d 0.0005485
බි‌ i 0.0003312
බි‌ b 0.0017153
චෙ h 0.0009290
චෙ e 0.0006466
චෙ c 0.0050659
ය‌‌ a 0.0000900
ය‌‌ y 0.0005263
‌වෛ v 0.0034364
‌වෛ i 0.0009935
‌වෛ w 0.0019484
‌මැ a 0.0000900
‌මැ m 0.0006849
ඩෝ o 0.0022185
ඩෝ r 0.0001829
ඩෝ d 0.0010971
‌සො s 0.0011252
‌සො z 0.1162791
‌සො o 0.0049917
ඩහේ e 0.0001617
ඩහේ h 0.0001858
ඩහේ d 0.0002743
‌‌කො c 0.0060790
‌‌කො o 0.0033278
දා‌ d 0.0013714
දා‌ a 0.0002250
පේ‌ p 0.0012453
පේ‌ e 0.0003233
අා a 0.0000450
ඩු‍ u 0.0003221
ඩු‍ d 0.0002743
ය් i 0.0001656
ය් y 0.0031579
දැ e 0.0012932
දැ a 0.0001350
දැ d 0.0030170
ජේ‌ j 0.0095923
ජේ‌ e 0.0012932
ජේ‌ y 0.0005263
ඛි i 0.0003312
ඛි k 0.0007020
ඛි h 0.0003716
රු‌ u 0.0051530
රු‌ r 0.0029272
නී g 0.0003899
නී k 0.0003510
නී e 0.0063046
නී n 0.0101081
නී a 0.0002700
නී i 0.0097698
ඬි i 0.0003312
ඬි n 0.0001404
ඬි d 0.0005485
වැ a 0.0017997
වැ v 0.0326460
වැ e 0.0090527
වැ w 0.0375061
ඹේ‌ b 0.0008576
ඹේ‌ e 0.0001617
ඹේ‌ m 0.0003425
ඥ n 0.0001404
ඥ g 0.0003899
ඩේ d 0.0005485
ඩේ a 0.0000900
නෙ e 0.0142257
නෙ n 0.0123543
ඡි j 0.0011990
ඡි i 0.0001656
දී‌ e 0.0003233
දී‌ d 0.0002743
‌‌බෝ o 0.0005546
‌‌බෝ b 0.0008576
භ h 0.0037161
භ m 0.0003425
භ i 0.0001656
භ a 0.0000450
භ n 0.0001404
භ b 0.0180103
භ e 0.0001617
න‍් n 0.0001404
පු‌ u 0.0016103
පු‌ p 0.0031133
සෙ x 0.0769231
සෙ s 0.0227848
සෙ e 0.0126091
ඩා‌ d 0.0005485
ඩා‌ a 0.0001350
‌ෆො o 0.0011093
‌ෆො f 0.0160000
ත්‌ t 0.0017699
ත්‌ h 0.0011148
ධී h 0.0026013
ධී d 0.0063083
ධී i 0.0004968
ධී e 0.0064662
ධෝ d 0.0002743
ධෝ o 0.0005546
ධෝ h 0.0001858
‌පෙ‌‌ p 0.0024907
ඡා j 0.0011990
ඡා a 0.0000450
භා h 0.0042735
භා w 0.0004871
භා a 0.0013498
භා n 0.0002808
භා b 0.0257290
භා p 0.0006227
ළ‌ l 0.0011478
ළ‌ a 0.0000450
ළ‌ e 0.0001617
ඛා h 0.0007432
ඛා a 0.0001800
ඛා k 0.0014040
ඡෙ j 0.0023981
ඡෙ e 0.0003233
ශි s 0.0045007
ශි i 0.0024839
ශි h 0.0031587
කී i 0.0028150
කී e 0.0181054
කී k 0.0245700
යා‌ a 0.0001350
යා‌ y 0.0015789
ය‌ a 0.0030145
ය‌ e 0.0014549
ය‌ y 0.0263158
නෝ o 0.0005546
නෝ n 0.0001404
ඩ u 0.0012882
ඩ o 0.0011093
ඩ d 0.0828305
ඩ e 0.0009699
ඩ a 0.0125529
‌සෙ e 0.0017782
‌සෙ s 0.0030942
රෙ e 0.0029098
රෙ r 0.0027442
බෙ‌ා b 0.0008576
බෙ‌ා o 0.0005546
ෂෙ s 0.0039381
ෂෙ c 0.0010132
ෂෙ e 0.0021015
ෂෙ g 0.0007797
ෂෙ h 0.0022297
ඩි. d 0.0002743
ඩි. y 0.0005263
ලු u 0.0177134
ලු l 0.0186514
පො o 0.0332779
පො p 0.0348692
පො b 0.0017153
ෂ e 0.0022632
ෂ k 0.0003510
ෂ s 0.0376934
ෂ a 0.0057140
ෂ NULL 0.0285714
ෂ i 0.0003312
ෂ c 0.0010132
ෂ h 0.0228540
‌තෙ e 0.0014549
‌තෙ t 0.0022756
‌තෙ h 0.0003716
ඳ‌ d 0.0002743
ඳ‌ n 0.0001404
රේ a 0.0009898
රේ y 0.0089474
රේ e 0.0315228
රේ o 0.0005546
රේ r 0.0397000
‌‌කෝ k 0.0024570
වො v 0.0017182
වො o 0.0005546
ශෝ o 0.0016639
ශෝ h 0.0005574
ශෝ s 0.0008439
වෑ a 0.0002250
වෑ e 0.0006466
වෑ w 0.0043838
‌ගෝ o 0.0055463
‌ගෝ g 0.0038986
ද්‍ d 0.0663741
ද්‍ o 0.0005546
පෝ p 0.0012453
පෝ a 0.0000900
පෝ u 0.0006441
‍‍‍ල a 0.0001800
‍‍‍ල l 0.0011478
යු u 0.0067633
යු y 0.0063158
ඥ් g 0.0015595
ඥ් n 0.0005616
ජේ j 0.1294964
ජේ y 0.0015789
ජේ e 0.0172971
සා z 0.0930233
සා a 0.0036444
සා s 0.0458509
න්‍ n 0.0001404
න්‍ e 0.0001617
නා e 0.0003233
නා a 0.0267704
නා n 0.0867612
ඩා d 0.0257817
ඩා a 0.0042293
මී m 0.0109589
මී i 0.0009935
මී e 0.0084061
ය a 0.0794565
ය l 0.0011478
ය y 0.7031579
ය e 0.0095377
ය g 0.0003899
ය o 0.0033278
ය d 0.0002743
ය i 0.0097698
ඳු u 0.0138486
ඳු d 0.0117937
ඳු n 0.0053348
‌දේ e 0.0084061
‌දේ h 0.0018580
‌දේ d 0.0156336
කැ e 0.0046880
කැ k 0.0140400
කැ c 0.0010132
කැ a 0.0005399
නේ‌ e 0.0004850
නේ‌ n 0.0004212
ආ a 0.0118330
ආ p 0.0006227
ආ NULL 0.0285714
‌තේ h 0.0011148
‌තේ e 0.0016166
‌තේ t 0.0025284
චා t 0.0002528
චා a 0.0012148
චා f 0.0160000
චා c 0.0273556
චා r 0.0001829
චා h 0.0050167
ධ්‍ h 0.0005574
ධ්‍ d 0.0013714
ජූ u 0.0003221
ජූ j 0.0011990
ජි j 0.1151079
ජි n 0.0001404
ජි i 0.0160623
‍බෝ‍‌‍ b 0.0017153
‍බෝ‍‌‍ o 0.0011093
වි o 0.0005546
වි i 0.1119391
වි u 0.0003221
වි w 0.2152947
වි y 0.0005263
වි e 0.0004850
වි b 0.0017153
වි v 0.4072165
වි n 0.0001404
ඥ‌ g 0.0003899
ඥ‌ n 0.0001404
ර් r 0.1126967
ර් u 0.0003221
ෆ්‍ f 0.0320000
ඨා t 0.0002528
ඨා a 0.0000450
පේ e 0.0058196
පේ p 0.0224159
සි‌ s 0.0005626
සි‌ i 0.0003312
බො k 0.0003510
බො b 0.0257290
බො o 0.0171936
Creations r 0.0001829
Creations c 0.0010132
Creations e 0.0001617
ණී n 0.0030886
ණී i 0.0033118
ණී e 0.0011316
ටා a 0.0003149
ටා t 0.0017699
ච c 0.2411348
ච h 0.0442215
චු c 0.0030395
චු u 0.0009662
චු h 0.0005574
හ‌‌‌ a 0.0000450
හ‌‌‌ h 0.0001858
දු‌‌ u 0.0003221
දු‌‌ d 0.0002743
ඥා g 0.0050682
ඥා n 0.0018251
ඥා h 0.0001858
වා‌‌ w 0.0004871
වා‌‌ a 0.0000450
ර්﻿ r 0.0001829
ෂි h 0.0118915
ෂි d 0.0002743
ෂි s 0.0185654
ෂි l 0.0002869
ෂි i 0.0109290
මේ o 0.0005546
මේ m 0.0133562
මේ a 0.0003599
මේ i 0.0013247
මේ e 0.0050113
ජු e 0.0001617
ජු l 0.0005739
ජු u 0.0090177
ජු j 0.0335731
‌ෆා o 0.0011093
‌ෆා a 0.0000900
‌ෆා f 0.0160000
බේ a 0.0004049
බේ y 0.0584211
බේ b 0.1329331
බේ e 0.0239250
චේ h 0.0007432
චේ c 0.0040527
චේ e 0.0004850
‍‌‍‌‍‍‌‍‍ඥා h 0.0001858
‍‌‍‌‍‍‌‍‍ඥා g 0.0003899
ට්‍ t 0.0002528
ඹෑ m 0.0003425
ඹෑ b 0.0008576
ද් h 0.0011148
ද් d 0.0348327
ද් t 0.0010114
භු u 0.0003221
භු h 0.0001858
භු b 0.0008576
ළු‌ l 0.0014347
ළු‌ u 0.0016103
ග j 0.0011990
ග NULL 0.0285714
ග l 0.0002869
ග a 0.0395483
ග e 0.0014549
ග g 0.3465887
ණ්‍ n 0.0001404
ශෙ h 0.0001858
ශෙ e 0.0001617
ශෙ s 0.0002813
ෆ් h 0.0001858
ෆ් f 0.0480000
ෆ් p 0.0006227
‍ගො o 0.0011093
‍ගො g 0.0007797
කු‌ k 0.0010530
කු‌ c 0.0141844
කු‌ o 0.0127565
කු‌ u 0.0009662
රී‌ i 0.0003312
රී‌ r 0.0003659
රි‌‌ i 0.0008280
රි‌‌ r 0.0009147
යො y 0.0026316
යො o 0.0033278
පී i 0.0006624
පී p 0.0149440
පී e 0.0037181
‌‌ලෙ e 0.0003233
‌‌ලෙ l 0.0005739
ජෝ j 0.0023981
ජෝ o 0.0011093
උෟ e 0.0001617
උෟ u 0.0003221
ණේ n 0.0007020
ණේ e 0.0008083
බු b 0.0574614
බු u 0.0215781
ම්‍ m 0.0034247
බි b 0.0231561
බි y 0.0005263
බි i 0.0043053
ගු o 0.0793123
ගු u 0.0789050
ගු g 0.1235867
ම්හේ h 0.0001858
ම්හේ m 0.0003425
ම්හේ e 0.0001617
‌වෙ e 0.0021015
‌වෙ v 0.0103093
‌වෙ w 0.0034096
රී r 0.0170143
රී y 0.0010526
රී e 0.0096993
රී i 0.0109290
සි y 0.0031579
සි c 0.0070922
සි i 0.1261798
සි s 0.2140647
සි NULL 0.0857143
සි z 0.0232558
මි m 0.0712329
මි e 0.0008083
මි b 0.0008576
මි y 0.0031579
මි i 0.0326213
ණා‌ a 0.0000450
ණා‌ n 0.0001404
‌ජෝ o 0.0016639
‌ජෝ j 0.0035971
දී d 0.0148108
දී i 0.0004968
දී e 0.0164888
දී t 0.0002528
ෆ h 0.0001858
ෆ a 0.0001350
ෆ f 0.0240000
ෆ e 0.0001617
ෆ p 0.0006227
රො o 0.0183028
රො r 0.0060373
ම‌‌ m 0.0003425
ම‌‌ a 0.0000450
ටේ e 0.0001617
ටේ t 0.0002528
ළු‌‌‌ u 0.0006441
ළු‌‌‌ l 0.0005739
ෂී h 0.0011148
ෂී i 0.0003312
ෂී s 0.0016878
ෂී e 0.0012932
‍හෙ e 0.0001617
‍හෙ h 0.0001858
‌නෙ n 0.0016847
‌නෙ e 0.0019399
ෂේ s 0.0005626
ෂේ e 0.0003233
ෂේ h 0.0003716
නෑ a 0.0002250
නෑ n 0.0007020
ණ් d 0.0002743
ණ් a 0.0031495
ණ් n 0.0131967
දු n 0.0002808
දු d 0.0861218
දු u 0.0743961
දු o 0.0432612
හී h 0.0046451
හී e 0.0061429
හී i 0.0006624
ජෙ g 0.0003899
ජෙ e 0.0006466
ජෙ j 0.0035971
ශා h 0.0122631
ශා a 0.0029245
ශා s 0.0182841
ජ b 0.0008576
ජ j 0.5347722
ෆා f 0.0160000
ෆා a 0.0000450
න r 0.0003659
න a 0.0659588
න n 0.2376808
න e 0.0607824
දෙ e 0.0113159
දෙ NULL 0.0285714
දෙ d 0.0191991
තෙ b 0.0008576
තෙ e 0.0027481
තෙ t 0.0045512
තෙ s 0.0002813
තෙ h 0.0027871
රේ‌ r 0.0003659
රේ‌ a 0.0000900
කෑ e 0.0004850
කෑ k 0.0010530
ග්‍ i 0.0003312
ග්‍ c 0.0010132
ග්‍ m 0.0003425
ග්‍ s 0.0002813
ග්‍ n 0.0001404
ග්‍ g 0.0031189
ග්‍ k 0.0003510
ග්‍ r 0.0001829
‍‍‍‍කො k 0.0003510
‍‍‍‍කො o 0.0005546
හි t 0.0002528
හි y 0.0005263
හි i 0.0188773
හි l 0.0002869
හි h 0.0213675
සූ u 0.0173913
සූ o 0.0654465
සූ k 0.0003510
සූ l 0.0002869
සූ s 0.0315049
භ් b 0.0008576
භ් h 0.0001858
ම්‌ m 0.0034247
ථා t 0.0002528
ථා h 0.0001858
ලේ l 0.0088953
ලේ e 0.0050113
ලේ d 0.0002743
‌කේ k 0.0035100
‌කේ e 0.0014549
‌කේ h 0.0005574
ණු u 0.0103060
ණු n 0.0044925
ඩා‌‌ d 0.0021942
ඩා‌‌ a 0.0003599
ගි g 0.0175439
ගි i 0.0072860
ගි u 0.0003221
‌‌‌කි i 0.0006624
‌‌‌කි k 0.0014040
ණා a 0.0031045
ණා n 0.0126351
න්‌ n 0.0037905
විේ v 0.0017182
විේ i 0.0001656
විේ d 0.0002743
ෆු f 0.0080000
ෆු u 0.0003221
මු‌ u 0.0006441
මු‌ m 0.0006849
‌පො o 0.0005546
‌පො p 0.0006227
දු‌ d 0.0030170
දු‌ u 0.0035427
ට t 0.0268015
ට e 0.0004850
ට a 0.0044542
ට o 0.0022185
මෙ m 0.0147260
මෙ e 0.0069512
යෝ o 0.0005546
යෝ y 0.0005263
ල්‍ l 0.0074605
ස‌ s 0.0002813
ස‌ a 0.0000450
‌ගො o 0.0138658
‌ගො g 0.0097466
මා a 0.0202916
මා m 0.1551370
යෝ i 0.0006624
යෝ h 0.0009290
යෝ o 0.0033278
යෝ s 0.0022504
යෝ l 0.0011478
යෝ y 0.0021053
යෝ b 0.0034305
යෝ u 0.0012882
යෝ r 0.0007318
සෞ w 0.0009742
සෞ a 0.0000900
සෞ s 0.0005626
භූ u 0.0003221
භූ h 0.0001858
භූ b 0.0008576
ණි NULL 0.0285714
ණි i 0.0188773
ණි n 0.0160045
ණි e 0.0001617
ධා h 0.0018580
ධා d 0.0049369
ධා a 0.0006749
ඩී d 0.0005485
ඩී e 0.0006466
‌දෙ d 0.0002743
‌දෙ e 0.0001617
වේ w 0.0185095
වේ e 0.0084061
වේ v 0.0189003
මී‌ e 0.0009699
මී‌ m 0.0010274
ශ e 0.0004850
ශ s 0.0281294
ශ a 0.0042743
ශ NULL 0.1142857
ශ h 0.0183946
ම‌ a 0.0025646
ම‌ m 0.0195205
ඤ k 0.0003510
ඤ g 0.0003899
ඤ n 0.0002808
තු‌ t 0.0010114
තු‌ h 0.0005574
තු‌ u 0.0012882
හි‌ h 0.0001858
හි‌ i 0.0001656
ලී l 0.0100430
ලී i 0.0023183
ලී a 0.0000900
ලී e 0.0074361
නැ e 0.0003233
නැ a 0.0006299
නැ n 0.0022462
නූ u 0.0019324
නූ o 0.0011093
නූ n 0.0009827
නේ n 0.0046329
නේ i 0.0001656
නේ e 0.0053346
මු o 0.0027732
මු u 0.0631240
මු m 0.0681507
රූ u 0.0032206
රූ o 0.0066556
රූ r 0.0029272
මූ m 0.0010274
මූ o 0.0033278
ප‌ p 0.0105853
ප‌ a 0.0007649
කා‌ a 0.0000450
කා‌ k 0.0003510
ර‌ r 0.0100622
ර‌ e 0.0004850
ර‌ a 0.0023396
ගෙ g 0.0163743
ගෙ e 0.0033948
වෛ i 0.0008280
වෛ v 0.0034364
වෛ w 0.0014613
‌‌ b 0.0008576
‌‌ g 0.0003899
රෝ r 0.0060373
රෝ o 0.0177482
රෝ i 0.0001656
ප‌‌ a 0.0000900
ප‌‌ p 0.0012453
තේ e 0.0001617
තේ t 0.0002528
තේ h 0.0001858
සේ e 0.0001617
සේ s 0.0002813
ලා n 0.0001404
ලා a 0.0059840
ලා l 0.0390244
ලා i 0.0001656
ඩෙ d 0.0005485
ඩෙ e 0.0003233
ඹ‌ a 0.0004049
ඹ‌ b 0.0077187
ඹ‌ m 0.0023973
න් d 0.0002743
න් o 0.0005546
න් m 0.0006849
න් h 0.0001858
න් NULL 0.0571429
න් l 0.0005739
න් n 0.2597220
න් a 0.0000450
ම් n 0.0001404
ම් NULL 0.0285714
ම් m 0.0876712
ඩ් o 0.0005546
ඩ් d 0.0090510
ඩ් r 0.0009147
ඩ් e 0.0003233
ඹි i 0.0004968
ඹි b 0.0034305
ඹි y 0.0005263
ඹි m 0.0010274
ඹේ m 0.0013699
ඹේ b 0.0034305
ඹේ e 0.0006466
වි‌‌‌ i 0.0001656
වි‌‌‌ v 0.0017182
ං o 0.0005546
ං i 0.0003312
ං n 0.1168047
ං g 0.0019493
ං t 0.0002528
ඊ i 0.0006624
ඊ a 0.0001350
ඊ e 0.0037181
ධි h 0.0044593
ධි d 0.0101481
ධි u 0.0003221
ධි i 0.0061268
ධි y 0.0005263
ධි t 0.0002528
‌‌‌තො t 0.0005057
‌‌‌තො o 0.0011093
ලූ l 0.0017217
ලූ i 0.0001656
ලූ c 0.0010132
ලූ u 0.0019324
කැ‌ e 0.0009699
කැ‌ k 0.0031590
කැ‌ a 0.0001350
‌ගෙ e 0.0006466
‌ගෙ g 0.0015595
හේ e 0.0208535
හේ h 0.0239688
ර u 0.0003221
ර r 0.5190267
ර NULL 0.2285714
ර b 0.0008576
ර e 0.0218235
ර n 0.0002808
ර a 0.1206695
ර m 0.0006849
ර h 0.0001858
මෙ‌‌‌ m 0.0006849
මෙ‌‌‌ e 0.0003233
ෂ් h 0.0159792
ෂ් s 0.0241913
ඛ් k 0.0003510
ඛ් h 0.0001858
ගෝ o 0.0055463
ගෝ g 0.0035088
රෑ r 0.0001829
රෑ e 0.0001617
ජැ c 0.0010132
ජැ j 0.0011990
පා‌ p 0.0012453
පා‌ a 0.0000900
බී b 0.0008576
බී e 0.0004850
බී t 0.0002528
බී j 0.0011990
බී u 0.0003221
බී h 0.0001858
‍‍‍‌‍‍කෝ k 0.0003510
‍‍‍‌‍‍කෝ o 0.0005546
‌බො‌ o 0.0049917
‌බො‌ b 0.0077187
සු s 0.0742616
සු z 0.0232558
සු u 0.0847021
සු o 0.0011093
ගු‌ u 0.0006441
ගු‌ g 0.0007797
රේ e 0.0004850
රේ r 0.0005488
සා‌ a 0.0000900
සා‌ s 0.0008439
‌නෝ n 0.0002808
‌නෝ o 0.0011093
වු w 0.0038967
වු u 0.0054750
වු v 0.0068729
ෆි i 0.0004968
ෆි p 0.0018680
ෆි h 0.0005574
ශී h 0.0001858
ශී s 0.0002813
ශී i 0.0001656
හු u 0.0070853
හු h 0.0040877
ණ්‌ n 0.0001404
ඔ‌‌ o 0.0027732
හෑ‌ h 0.0005574
හෑ‌ e 0.0004850
හ h 0.1339651
හ g 0.1364522
හ e 0.0535079
හ a 0.0166922
‌ෆි f 0.0080000
‌ෆි i 0.0001656
තෝ h 0.0005574
තෝ o 0.0016639
තෝ t 0.0010114
තෝ e 0.0001617
ග‌ a 0.0002250
ග‌ g 0.0019493
පූ p 0.0024907
පූ o 0.0044370
ස්‍ s 0.0002813
‌‌‌‌ p 0.0006227
ක c 0.0202634
ක i 0.0001656
ක n 0.0002808
ක a 0.0488617
ක l 0.0002869
ක s 0.0002813
ක k 0.4696385
ක g 0.0007797
ක e 0.0518914
ක NULL 0.0285714
ටු‌ u 0.0012882
ටු‌ t 0.0010114
‌බො b 0.0008576
‌බො o 0.0005546
ඹා m 0.0006849
ඹා b 0.0017153
නෝ o 0.0155297
නෝ n 0.0039309
න‌ a 0.0033744
න‌ n 0.0098273
න්‌‌‌‌‌‌ n 0.0001404
ත්‍ h 0.0174656
ත්‍ t 0.0308470
ඳ d 0.0208448
ඳ n 0.0084234
ඳ a 0.0026096
ඳ e 0.0014549
ඳ t 0.0002528
ඤා h 0.0001858
ඤා a 0.0000450
ඤා n 0.0008423
ඤා g 0.0015595
ඤා k 0.0007020
හා a 0.0035994
හා h 0.0150502
හා r 0.0003659
හා o 0.0011093
ලෙ l 0.0060258
ලෙ e 0.0032331
‌තෝ h 0.0009290
‌තෝ o 0.0033278
‌තෝ t 0.0015171
කො k 0.0407160
කො c 0.0314083
කො o 0.0815308
ප්‍ f 0.5600000
ප්‍ t 0.0002528
ප්‍ p 0.1363636
ත් a 0.0002250
ත් s 0.0002813
ත් t 0.3175727
ත් k 0.0007020
ත් h 0.1361947
ත් NULL 0.0857143
ත් d 0.0002743
ළු u 0.0325282
ළු l 0.0289813
ධ් d 0.0016456
ධ් h 0.0011148
ෂු s 0.0005626
ෂු u 0.0006441
ෂු h 0.0003716
ඒ e 0.0096993
ඒ y 0.0005263
ඒ a 0.0000450
ගැ a 0.0000450
ගැ g 0.0003899
ලැ a 0.0002700
ලැ l 0.0028694
ලැ e 0.0006466
ගො o 0.1236828
ගො g 0.0869396
‌‌සෝ o 0.0077648
‌‌සෝ s 0.0039381
ඥෙ n 0.0001404
ඥෙ e 0.0001617
ඥෙ g 0.0003899
ලෝ o 0.0055463
ලෝ u 0.0003221
ලෝ l 0.0031564
ස් z 0.6511628
ස් u 0.0012882
ස් x 0.5384615
ස් c 0.0020263
ස් i 0.0026494
ස් s 0.0827004
ස් e 0.0024248
ප p 0.2559153
ප e 0.0016166
ප a 0.0186268
‌බෝ‌ b 0.0025729
‌බෝ‌ o 0.0016639
තී h 0.0013006
තී i 0.0009935
තී e 0.0009699
තී t 0.0017699
සෑ a 0.0000450
සෑ s 0.0002813
නේ e 0.0003233
නේ t 0.0002528
නේ n 0.0004212
ර‌‌ a 0.0000900
ර‌‌ r 0.0003659
ඉ y 0.0031579
ඉ e 0.0025865
ඉ b 0.0008576
ඉ a 0.0000450
ඉ i 0.0306342
‍කො k 0.0003510
‍කො o 0.0005546
ය්‍ e 0.0001617
ය්‍ i 0.0001656
තා a 0.0057140
තා t 0.0412137
තා h 0.0258268
ශ් s 0.0059072
ශ් u 0.0003221
ශ් h 0.0037161
මො o 0.0188575
මො m 0.0116438
ඔ‌ o 0.0005546
රෝ o 0.0016639
රෝ r 0.0005488
හ‌ h 0.0011148
හ‌ a 0.0002700
ටැ t 0.0002528
ටැ a 0.0000450
හේ e 0.0001617
හේ h 0.0001858
ඤ් g 0.0003899
ඤ් n 0.0002808
ට‌‌‌ a 0.0000900
ට‌‌‌ t 0.0002528
බ‌ b 0.0111492
බ‌ a 0.0005849
ජී j 0.0587530
ජී e 0.0168122
ජී g 0.0019493
ජී i 0.0003312
‍ලො l 0.0005739
‍ලො o 0.0011093
‍හේ e 0.0001617
‍හේ h 0.0001858
ක‍් k 0.0003510
ඡේ e 0.0003233
ඡේ j 0.0023981
ඇ a 0.0012598
ඇ e 0.0148723
භො o 0.0011093
භො h 0.0003716
භො b 0.0017153
පැ e 0.0029098
පැ p 0.0249066
පැ a 0.0009898
ල o 0.0005546
ල NULL 0.0571429
ල r 0.0003659
ල a 0.0631693
ල l 0.4410330
ල e 0.0108309
ෆ්‌ i 0.0008280
ෆ්‌ f 0.0400000
