\data\
ngram 1=604
ngram 2=16210
ngram 3=89685

\1-grams:
-4.1975136	<unk>	0
0	<s>	-2.917766
-1.8581151	</s>	0
-2.2332792	மோ	-0.73743886
-1.9800153	ர	-0.96162826
-2.2666173	கே	-0.6624713
-2.1103318	டி	-0.7550802
-1.9956453	ய	-0.8417124
-1.8466722	யி	-0.9001694
-1.9674066	லி	-0.8349354
-2.0933957	ரு	-0.71635914
-2.1577299	ந்	-0.8297677
-2.0933957	து	-0.8212973
-1.8758652	வி	-0.93912005
-2.0676014	ட	-0.7820085
-2.0552568	ம்	-0.8333317
-2.1243727	யோ	-0.77883625
-2.1734192	யு	-0.6498389
-1.8964778	க்	-0.7929256
-2.011859	கு	-0.79080534
-1.8282464	வ	-1.0892093
-2.9145772	ரை	-0.49172717
-1.9983058	ல்	-0.96525824
-2.5591495	நா	-0.39337417
-2.0676014	கி	-0.70255315
-2.031573	யா	-0.8550961
-2.1208196	தெ	-0.7629491
-2.080307	னி	-0.7727901
-2.5219548	பீ	-0.46744943
-2.0613852	ரி	-0.7585952
-2.034464	ஸ்	-0.800585
-2.0739079	மா	-0.6474355
-2.0063868	த்	-0.84930235
-2.9861944	தை	-0.38694528
-1.8901907	க	-1.1110288
-2.1463237	லு	-0.7253797
-2.4054148	ஆ	-0.60012865
-2.378979	ச்	-0.5509638
-2.1208196	சி	-0.63629586
-2.0009828	கொ	-0.9633288
-2.2973826	டோ	-0.61000526
-2.1655037	டு	-0.70614517
-2.1000912	பு	-0.7863329
-2.5131333	ள	-0.5434806
-2.2287188	ங்	-0.72100645
-2.5131333	ளி	-0.49747863
-2.7667773	ளோ	-0.8752444
-2.4715292	ளு	-0.60882443
-2.1352096	தி	-0.7490984
-2.0933957	ச	-0.69065124
-2.0091143	த	-0.8221194
-1.9674066	ன்	-0.93730825
-2.2715957	ஒ	-0.80494756
-2.2242057	ரோ	-0.6221331
-2.2109416	போ	-0.61793107
-2.2973826	பே	-0.61575526
-2.0739079	வெ	-1.0110444
-2.1172955	வோ	-0.684138
-2.0868022	வு	-0.66997194
-1.9903725	ல	-0.95926785
-2.348048	தே	-0.4852482
-2.2153182	வா	-0.67966425
-2.127955	மி	-0.6324177
-2.0091143	ம	-0.83879024
-2.0676014	மு	-0.81584096
-2.177432	பொ	-0.8847083
-2.127955	தோ	-0.7396381
-2.6447198	நெ	-0.37764588
-2.0009828	ட்	-0.75738794
-2.1463237	னு	-0.65364486
-1.9674066	ப	-0.86233795
-2.487696	ள்	-0.63040805
-2.3247976	உ	-0.6175419
-2.2472546	தொ	-0.8341202
-2.2109416	எ	-0.67110467
-2.5591495	லை	-0.62714773
-2.2242057	இ	-0.7333794
-2.011859	பி	-0.79128826
-2.348048	நி	-0.5288339
-2.4636662	வ்	-0.5366887
-2.3726141	ரே	-0.49340874
-2.0522246	ன	-0.89460313
-2.2287188	னோ	-0.68014866
-2.276632	லா	-0.63327205
-2.8164961	டை	-0.49376273
-2.103478	வீ	-0.75635004
-3.9513123	ரோ	-0.23661818
-2.540154	ய்	-0.39794084
-2.1980705	ஹ	-0.67159754
-2.181482	ஹே	-0.872704
-2.1243727	பா	-0.77769834
-2.1655037	லோ	-0.6677786
-2.4960105	சா	-0.41923237
-2.3540606	ஜ	-0.48000386
-2.3726141	ஸி	-0.5842629
-2.3362672	ஸ	-0.5232203
-2.5790138	ஸோ	-0.7745788
-2.549548	ஸு	-0.59142077
-2.1103318	கெ	-0.81331277
-2.2973826	ஹெ	-0.74663544
-2.7667773	ஏ	-0.3621334
-2.1655037	கோ	-0.6607424
-3.1048326	டீ	-0.25761196
-2.2715957	கொ	-0.9591341
-2.3601575	ந	-0.4666881
-3.1403527	ளே	-0.2797313
-2.6947896	ஓ	-0.5261904
-2.103478	ரா	-0.7052671
-2.83442	ஷா	-0.33682886
-2.177432	பெ	-0.6733609
-2.5998306	ற்	-0.45260596
-2.782726	மொ	-0.3269046
-2.9609869	றா	-0.26734874
-2.3986535	ணி	-0.61774385
-2.3540606	ண்	-0.6164999
-2.4559429	டா	-0.5166609
-2.6690335	ழு	-0.5267882
-2.872652	கை	-0.4453418
-2.1500926	கா	-0.7119629
-3.7730525	ழை	-0.23661818
-2.8531153	தொ	-0.5301932
-2.736536	ஞ்	-0.4607448
-2.4559429	னே	-0.53691024
-2.9145772	ஸே	-0.3231713
-2.252015	அ	-0.6177599
-3.1048326	யே	-0.260555
-2.4054148	ற	-0.47982395
-2.4636662	ணு	-0.48794526
-2.9145772	ஜா	-0.26398236
-2.4483545	மெ	-0.5527792
-2.4559429	சு	-0.3813904
-2.0522246	ப்	-0.77857816
-2.4559429	சே	-0.485683
-2.6690335	சோ	-0.4168178
-2.4960105	றி	-0.4186383
-2.8164961	றோ	-0.603339
-2.4960105	று	-0.5286822
-2.6106255	கீ	-0.84024817
-3.4513576	ழ்	-0.26620963
-2.5044875	ஹா	-0.4387269
-2.276632	ஹி	-0.57899946
-2.5998306	டே	-0.45493537
-2.2817276	தா	-0.58531797
-2.8164961	ரீ	-0.27555284
-2.2109416	ர்	-0.5952115
-2.4960105	மே	-0.6020277
-2.708264	ஹொ	-0.327907
-2.9145772	ழ	-0.31909323
-2.256828	லே	-0.76241124
-2.6947896	சீ	-0.29439443
-2.8164961	ஜோ	-0.44888344
-2.2666173	னா	-0.59071887
-2.83442	மை	-0.46663892
-2.7667773	ஹோ	-0.36883706
-2.5131333	ஹு	-0.40951598
-2.9371624	ஹீ	-0.30699834
-2.4559429	ரெ	-0.47135472
-2.6567066	ஷ	-0.37962738
-2.3986535	வே	-0.5037282
-2.782726	னை	-0.658793
-2.9145772	ஜே	-0.28878793
-2.5591495	வை	-0.8396133
-2.9609869	சூ	-0.49526885
-2.6106255	தூ	-0.7875864
-2.872652	ளை	-0.58210826
-3.1790388	யூ	-0.25193316
-2.4335644	லெ	-0.47098297
-3.7730525	லிஓ	-0.2511949
-2.7667773	லொ	-0.348262
-2.5131333	பூ	-0.43277496
-2.3421178	ண	-0.59514153
-2.6947896	மீ	-0.36767602
-2.9609869	ளா	-0.2943764
-3.0719995	ஷோ	-0.4143747
-3.0719995	வூ	-0.4042532
-4.0669837	""	-0.23661818
-4.0669837	""ி	-0.23661818
-4.0669837	""ோ	-0.23661818
-4.0669837	""ு	-0.23661818
-3.1790388	வொ	-0.26817912
-3.1048326	நீ	-0.33120352
-3.1048326	ஸெ	-0.29874644
-2.708264	ரொ	-0.34569123
-2.4636662	செ	-0.52522117
-3.3214028	யொ	-0.27591795
-2.7513933	ஊ	-0.5437293
-3.6376584	ஷீ	-0.23661818
-3.2215106	ஈ	-0.27834606
-3.1048326	ல்ஓ	-0.53541994
-2.872652	ஸா	-0.29218638
-4.0669837	னுஓ	-0.23661818
-2.6947896	ஜி	-0.34347606
-2.8164961	ஜு	-0.37094045
-4.0669837	ட‍	-0.23661818
-2.9861944	‎	-0.7141413
-3.0129557	‎ி	-0.97918296
-3.0129557	‎ோ	-0.97918296
-3.0129557	‎ு	-0.97918296
-3.7730525	பௌ	-0.24322118
-2.7513933	ணா	-0.3631116
-2.9861944	சை	-0.33196887
-3.9513123	ழூ	-0.23661818
-2.6690335	ஜ்	-0.43892187
-2.736536	நு	-0.38466895
-3.041475	றை	-0.5026234
-3.7730525	சி.	-0.23661818
-3.4513576	டி.	-0.2464471
-3.3815374	மௌ	-0.30857274
-2.8164961	நே	-0.34018484
-2.5892975	ணோ	-1.1903734
-3.3815374	ஐ	-0.27552742
-3.3214028	றூ	-0.24481982
-2.9145772	மூ	-0.35078767
-3.3214028	ணே	-0.30238214
-2.83442	ரூ	-0.3368799
-3.9513123	..	-0.23661818
-2.9371624	ஷி	-0.36835027
-3.3815374	னொ	-0.2473518
-3.6376584	.	-0.26496398
-3.2215106	சொ	-0.30966163
-3.1048326	ஜெ	-0.33557957
-3.7730525	‍‎‍	-0.24174513
-2.6216955	னெ	-0.40872663
-2.6947896	பொ	-0.63879234
-2.5591495	டெ	-0.5035166
-3.041475	டொ	-0.2954197
-3.3214028	றீ	-0.26333973
-2.6947896	ஷ்	-0.28532624
-3.1790388	போ	-0.28421223
-3.6376584	றொ	-0.23661818
-3.7730525	ஹோ	-0.23661818
-3.9513123	ணூ	-0.23661818
-3.041475	றே	-0.2553135
-3.7730525	நூ	-0.2464471
-2.9861944	கூ	-0.34213454
-3.534594	ஹொ	-0.25360653
-3.1403527	ழி	-0.3345002
-3.3815374	ழோ	-0.62016106
-2.6330552	தீ	-0.46751848
-3.7730525	ஸீ	-0.23661818
-3.7730525	ஹை	-0.23661818
-3.1790388	னீ	-0.2478696
-4.0669837	டாஓ	-0.23661818
-3.4513576	ல்‎	-0.26047504
-3.3815374	ஞா	-0.33843496
-2.83442	லீ	-0.27995124
-3.041475	யெ	-0.32444802
-3.1403527	நோ	-0.26471996
-3.7730525	ஸூ	-0.27734348
-3.0129557	‍	-0.87227535
-3.041475	‍ி	-0.95115423
-3.041475	‍ோ	-0.95115423
-3.041475	‍ு	-0.95115423
-3.9513123	பெ‍	-0.29923403
-3.9513123	வீி	-0.29923403
-4.0669837	ச்ஓ	-0.23661818
-3.3815374	ஏ.	-0.25835744
-3.1048326	கோ	-0.25874767
-3.1403527	ணை	-0.47151074
-3.6376584	ஹ்	-0.25360653
-3.6376584	ஜே.	-0.2565036
-3.3214028	பீ.	-0.2473518
-2.8531153	'	-0.56661886
-3.268591	'ி	-0.7293055
-3.268591	'ோ	-0.7293055
-3.268591	'ு	-0.7293055
-3.9513123	ல்‍	-0.29923403
-3.4513576	லோ	-0.32507196
-3.9513123	ரௌ	-0.23661818
-3.0719995	ஜீ	-0.2661354
-4.0669837	நாஓ	-0.23661818
-3.9513123	L	-0.29923403
-3.9513123	Lி	-0.29923403
-3.9513123	Lோ	-0.29923403
-3.9513123	Lு	-0.29923403
-4.0669837	த‍	-0.23661818
-3.268591	லூ	-0.24280001
-3.4513576	பை	-0.247231
-3.6376584	மொ	-0.24195182
-3.9513123	டு‎	-0.23661818
-4.0669837	ஸோ	-0.23661818
-3.6376584	மோ	-0.24322118
-4.0669837	ச்.	-0.23661818
-4.0669837	ஸ்.	-0.23661818
-4.0669837	னி.	-0.23661818
-4.0669837	னி.ி	-0.23661818
-4.0669837	னி.ோ	-0.23661818
-4.0669837	னி.ு	-0.23661818
-4.0669837	ஸ்ஓ	-0.23661818
-3.9513123	ன்.	-0.23661818
-4.0669837	காஓ	-0.23661818
-3.534594	ணீ	-0.23661818
-3.6376584	"	-0.23661818
-4.0669837	ட்‍	-0.23661818
-3.7730525	ருஓ	-0.29181388
-3.2215106	ஜூ	-0.26835278
-3.3815374	லொ	-0.25360653
-3.3815374	ஞ	-0.3012131
-3.2215106	தோ	-0.41781482
-3.7730525	நை	-0.27128655
-3.9513123	ஜொ	-0.23661818
-3.9513123	மாஓ	-0.29923403
-3.9513123	தி‎	-0.23661818
-4.0669837	ணி‎	-0.23661818
-3.7730525	ல‎	-0.27734348
-4.0669837	க்‍	-0.23661818
-4.0669837	ரா‎	-0.23661818
-4.0669837	யா்	-0.23661818
-4.0669837	யாி	-0.23661818
-4.0669837	யாோ	-0.23661818
-4.0669837	யாு	-0.23661818
-3.6376584	கே.	-0.26679865
-3.7730525	சீ.	-0.23661818
-3.9513123	த.	-0.29923403
-3.9513123	ல.	-0.23661818
-4.0669837	ல.ி	-0.23661818
-4.0669837	ல.ோ	-0.23661818
-4.0669837	ல.ு	-0.23661818
-4.0669837	ஞி	-0.23661818
-3.9513123	ம்.	-0.24977349
-4.0669837	ஙு	-0.23661818
-3.7730525	த்‍	-0.23661818
-3.7730525	ழா	-0.25144625
-4.0669837	பு.	-0.23661818
-3.534594	ஸொ	-0.2531793
-3.268591	ங	-0.24503954
-4.0669837	டோ	-0.23661818
-3.9513123	யு.	-0.23661818
-4.0669837	ஈ.	-0.23661818
-4.0669837	ம.	-0.23661818
-4.0669837	ம.ி	-0.23661818
-4.0669837	ம.ோ	-0.23661818
-4.0669837	ம.ு	-0.23661818
-4.0669837	மீ‎	-0.23661818
-3.9513123	எி	-0.29923403
-3.9513123	எோ	-0.29923403
-3.9513123	எு	-0.29923403
-3.3214028	நொ	-0.23661818
-4.0669837	ரு‎	-0.23661818
-3.7730525	ணெ	-0.23661818
-4.0669837	தே.	-0.23661818
-3.9513123	ஹிஓ	-0.29923403
-4.0669837	து‎	-0.23661818
-3.9513123	ளூ	-0.26679865
-3.7730525	னூ	-0.25360653
-3.534594	பி்	-0.24589077
-3.9513123	ளொ	-0.23661818
-4.0669837	ள்‍	-0.23661818
-4.0669837	ஹாஓ	-0.23661818
-3.9513123	தே‎	-0.29923403
-3.3214028	ஸை	-0.30792382
-4.0669837	லே​	-0.23661818
-3.6376584	க்ஓ	-0.25144625
-3.7730525	ஹூ	-0.23661818
-3.9513123	யீ	-0.23661818
-4.0669837	லா‍	-0.23661818
-3.534594	ன்ஓ	-0.27734354
-3.7730525	னஓ	-0.25360653
-3.9513123	L..	-0.2859678
-3.6376584	கௌ	-0.2565036
-3.9513123	ம்‍	-0.2931536
-4.0669837	யௌ	-0.23661818
-3.6376584	டீ.	-0.23661818
-3.7730525	ளீ	-0.23661818
-3.4513576	லஓ	-0.24902613
-3.2215106	ஷு	-0.5075729
-3.6376584	ரொ	-0.23661818
-4.0669837	வஓ	-0.23661818
-4.0669837	ப‍‍	-0.23661818
-4.0669837	டே‎	-0.23661818
-3.9513123	ளுஓ	-0.29923403
-3.9513123	ர‍	-0.23661818
-4.0669837	ர‍ி	-0.23661818
-4.0669837	ர‍ோ	-0.23661818
-4.0669837	ர‍ு	-0.23661818
-3.534594	ங்ஓ	-0.2574202
-4.0669837	எ‎	-0.23661818
-3.9513123	ஷெ	-0.25360653
-4.0669837	வா்	-0.23661818
-4.0669837	லாஓ	-0.23661818
-4.0669837	வ‍	-0.23661818
-4.0669837	வ‍ி	-0.23661818
-4.0669837	வ‍ோ	-0.23661818
-4.0669837	வ‍ு	-0.23661818
-4.0669837	‍‍	-0.23661818
-4.0669837	பா‎	-0.23661818
-3.9513123	ர்.	-0.23661818
-3.9513123	போ‎	-0.23661818
-4.0669837	பஃ	-0.23661818
-3.7730525	ர‎	-0.2482401
-3.9513123	:	-0.23661818
-3.7730525	துஓ	-0.2521843
-4.0669837	ஞ்‍	-0.23661818
-4.0669837	.E.	-0.23661818
-3.7730525	ஜீ.	-0.23661818
-3.9513123	லுஓ	-0.29181388
-4.0669837	த‍‍‍	-0.23661818
-4.0669837	றோ	-0.23661818
-3.9513123	வொ	-0.23661818
-4.0669837	‍‍‍‎‍	-0.23661818
-4.0669837	ட‎	-0.23661818
-3.9513123	ஷே	-0.23661818
-4.0669837	ராஓ	-0.23661818
-4.0669837	கெொ	-0.23661818
-4.0669837	..ி	-0.23661818
-4.0669837	..ோ	-0.23661818
-4.0669837	..ு	-0.23661818
-3.9513123	‎‎	-0.26679865
-4.0669837	ண'	-0.23661818
-3.9513123	ளிஓ	-0.2565036
-3.9513123	மி்	-0.29923403
-4.0669837	ல‍‍‍	-0.23661818
-3.9513123	ம‍	-0.29923403
-4.0669837	ஷை	-0.23661818
-4.0669837	லு்	-0.23661818
-3.6376584	ஙெ	-0.23661818
-4.0669837	ஔ	-0.23661818
-4.0669837	சா‎	-0.23661818
-3.9513123	.ி	-0.29923403
-3.9513123	.ோ	-0.29923403
-3.9513123	.ு	-0.29923403
-3.9513123	டஓ	-0.23661818
-4.0669837	ல‍	-0.23661818
-3.9513123	கொ‎	-0.23661818
-4.0669837	ணா‍	-0.23661818
-4.0669837	கி‍	-0.23661818
-4.0669837	ழொ	-0.23661818
-4.0669837	நு‍	-0.23661818
-4.0669837	கே‎	-0.23661818
-4.0669837	ணோ	-0.23661818
-4.0669837	‍‍‍‍‍‍‎‍	-0.23661818
-3.9513123	போ‍	-0.23661818
-4.0669837	டூா்	-0.23661818
-4.0669837	டூாி	-0.23661818
-4.0669837	டூா	-0.23661818
-4.0669837	டூாோ	-0.23661818
-4.0669837	டூாு	-0.23661818
-3.6376584	வௌ	-0.23661818
-3.3815374	ஏி	-0.62016106
-3.3815374	ஏோ	-0.62016106
-3.3815374	ஏு	-0.62016106
-4.0669837	ஸி.	-0.23661818
-4.0669837	பொ்	-0.23661818
-4.0669837	ணா்	-0.23661818
-4.0669837	த்ஓ	-0.23661818
-4.0669837	சீ'	-0.23661818
-3.9513123	லு‎	-0.23661818
-4.0669837	{	-0.23661818
-4.0669837	}	-0.23661818
-4.0669837	}ி	-0.23661818
-4.0669837	}ோ	-0.23661818
-4.0669837	}ு	-0.23661818
-3.9513123	ழுஓ	-0.29181388
-3.9513123	\	-0.23661818
-4.0669837	தா‍	-0.23661818
-3.9513123	...	-0.23661818
-4.0669837	ஹஓ	-0.23661818
-4.0669837	ன்'	-0.23661818
-4.0669837	௦	-0.23661818
-4.0669837	ப‍	-0.23661818
-4.0669837	ஹே‍	-0.23661818
-4.0669837	யோஓ	-0.23661818
-4.0669837	போ‍	-0.23661818
-4.0669837	வௌ்	-0.23661818
-4.0669837	டு‍	-0.23661818
-3.9513123	வே‎	-0.23661818
-4.0669837	சோ	-0.23661818
-3.6376584	ங்‎	-0.29923403
-3.9513123	கஓ	-0.2565036
-4.0669837	லைஓ	-0.23661818
-4.0669837	சௌ	-0.23661818
-4.0669837	ர‎‎	-0.23661818
-3.9513123	ரஓ	-0.2565036
-4.0669837	கை'	-0.23661818
-4.0669837	கை'ி	-0.23661818
-4.0669837	கை'ோ	-0.23661818
-4.0669837	கை'ு	-0.23661818
-4.0669837	லி்	-0.23661818
-4.0669837	‍‍‍‍‍‎‍	-0.23661818
-4.0669837	....	-0.23661818
-3.9513123	வௌி	-0.23661818
-4.0669837	கா‎	-0.23661818
-4.0669837	னோ	-0.23661818
-4.0669837	டி'	-0.23661818
-4.0669837	பு​	-0.23661818
-4.0669837	ட்'	-0.23661818
-4.0669837	ல்.	-0.23661818
-4.0669837	ம்‎	-0.23661818
-3.7730525	யை	-0.2931536
-4.0669837	ஒ‍‍	-0.23661818
-4.0669837	பே‍	-0.23661818
-3.6376584	டூ	-0.2781127
-4.0669837	ரீ.	-0.23661818
-4.0669837	கெ.	-0.23661818
-3.9513123	தஓ	-0.26059243
-4.0669837	கிஓ	-0.23661818
-4.0669837	பீ.ி	-0.23661818
-4.0669837	பீ.ோ	-0.23661818
-4.0669837	பீ.ு	-0.23661818
-4.0669837	ரிஓ	-0.23661818
-3.9513123	பி.	-0.23661818
-4.0669837	எ்	-0.23661818
-4.0669837	ஞு	-0.23661818
-4.0669837	வீ.	-0.23661818
-4.0669837	ப்.	-0.23661818
-3.7730525	த்‎	-0.27734348
-4.0669837	கா்	-0.23661818
-4.0669837	காி	-0.23661818
-4.0669837	காோ	-0.23661818
-4.0669837	காு	-0.23661818
-3.9513123	நி்	-0.29923403
-4.0669837	ரா‍	-0.23661818
-3.9513123	ரி‎	-0.23661818
-4.0669837	eell	-0.23661818
-4.0669837	eellி	-0.23661818
-4.0669837	eellோ	-0.23661818
-4.0669837	eellு	-0.23661818
-4.0669837	ஸ்‎	-0.23661818
-3.9513123	L..ி	-0.29923403
-3.9513123	L..ோ	-0.29923403
-3.9513123	L..ு	-0.29923403
-4.0669837	"ி	-0.23661818
-4.0669837	"ோ	-0.23661818
-4.0669837	"ு	-0.23661818
-4.0669837	கெ‎	-0.23661818
-4.0669837	னொ	-0.23661818
-4.0669837	\ி	-0.23661818
-4.0669837	\ோ	-0.23661818
-4.0669837	\ு	-0.23661818
-4.0669837	''	-0.23661818
-4.0669837	''ி	-0.23661818
-4.0669837	''ோ	-0.23661818
-4.0669837	''ு	-0.23661818
-4.0669837	டு‎‎	-0.23661818
-4.0669837	தி.	-0.23661818
-3.9513123	யி்	-0.29923403
-4.0669837	ஹௌ	-0.23661818
-4.0669837	யோ	-0.23661818
-4.0669837	ி	-0.23661818
-3.7730525	ளெ	-0.23661818
-4.0669837	ணொ	-0.23661818
-3.6376584	னாஓ	-0.377123
-4.0669837	பெ்	-0.23661818
-4.0669837	ரு‍	-0.23661818
-4.0669837	தௌ	-0.23661818
-4.0669837	வி்	-0.23661818
-4.0669837	சொ	-0.23661818
-4.0669837	னா‎	-0.23661818
-4.0669837	ன்‍‌	-0.23661818
-4.0669837	வை.	-0.23661818
-4.0669837	சி.ி	-0.23661818
-4.0669837	சி.ோ	-0.23661818
-4.0669837	சி.ு	-0.23661818
-4.0669837	ஜ்E	-0.23661818
-4.0669837	காே	-0.23661818
-4.0669837	ட‍‍	-0.23661818
-4.0669837	லு‍	-0.23661818
-4.0669837	​	-0.23661818
-4.0669837	கெஓ	-0.23661818
-4.0669837	ண‎	-0.23661818
-4.0669837	யொ	-0.23661818
-4.0669837	லா‎	-0.23661818
-4.0669837	ல...	-0.23661818
-4.0669837	ல...ி	-0.23661818
-4.0669837	ல...ோ	-0.23661818
-4.0669837	ல...ு	-0.23661818
-4.0669837	ம௲	-0.23661818
-4.0669837	..L.	-0.23661818
-4.0669837	ஹ‍	-0.23661818
-4.0669837	வி‍	-0.23661818
-4.0669837	யஓ	-0.23661818
-4.0669837	டி.ி	-0.23661818
-4.0669837	டி.ோ	-0.23661818
-4.0669837	டி.ு	-0.23661818
-4.0669837	ஙொ	-0.23661818
-4.0669837	த[	-0.23661818
-4.0669837	து்	-0.23661818
-4.0669837	ஹ‎	-0.23661818
-4.0669837	று‎	-0.23661818
-4.0669837	‍‎‎‍‍‍	-0.23661818
-4.0669837	வ்‎	-0.23661818
-4.0669837	தெ‎	-0.23661818
-4.0669837	ஐ.	-0.23661818
-4.0669837	ஈி	-0.23661818
-4.0669837	ஈோ	-0.23661818
-4.0669837	ஈு	-0.23661818
-4.0669837	Y	-0.23661818
-4.0669837	Yி	-0.23661818
-4.0669837	Yோ	-0.23661818
-4.0669837	Yு	-0.23661818
-4.0669837	வெி	-0.23661818
-4.0669837	க‍	-0.23661818
-4.0669837	ணே‎	-0.23661818
-4.0669837	ஓ.	-0.23661818
-4.0669837	சீ.ி	-0.23661818
-4.0669837	சீ.ோ	-0.23661818
-4.0669837	சீ.ு	-0.23661818
-4.0669837	னேஓ	-0.23661818
-4.0669837	ஜ்.	-0.23661818
-4.0669837	ம்.ி	-0.23661818
-4.0669837	ம்.ோ	-0.23661818
-4.0669837	ம்.ு	-0.23661818
-4.0669837	‍‍‎‍	-0.23661818
-4.0669837	ரெ‎	-0.23661818

\2-grams:
-0.38672715	மோ </s>	0
-1.6699219	ர </s>	0
-1.3768051	கே </s>	0
-1.7672131	டி </s>	0
-1.2388954	ய </s>	0
-1.7607284	லி </s>	0
-1.8919617	ரு </s>	0
-2.550877	ந் </s>	0
-2.0691586	து </s>	0
-2.059085	வி </s>	0
-1.4900764	ட </s>	0
-1.42766	ம் </s>	0
-0.17076673	யோ </s>	0
-1.9670721	யு </s>	0
-1.6478003	க் </s>	0
-2.1514585	கு </s>	0
-1.4502176	வ </s>	0
-1.0533248	ரை </s>	0
-1.7699468	ல் </s>	0
-2.0050983	கி </s>	0
-1.3626459	யா </s>	0
-1.9723942	தெ </s>	0
-1.4960543	னி </s>	0
-1.382738	பீ </s>	0
-1.678145	ரி </s>	0
-1.5886569	ஸ் </s>	0
-1.8543441	மா </s>	0
-1.8565968	த் </s>	0
-1.1973938	தை </s>	0
-1.8766798	க </s>	0
-2.2014756	லு </s>	0
-2.1997738	ச் </s>	0
-1.7387121	சி </s>	0
-2.7355328	கொ </s>	0
-0.2872321	டோ </s>	0
-1.8148402	டு </s>	0
-2.481552	பு </s>	0
-1.2829827	ள </s>	0
-1.8236235	ளி </s>	0
-0.09014328	ளோ </s>	0
-2.1568274	ளு </s>	0
-1.7534952	தி </s>	0
-1.6961175	ச </s>	0
-1.673921	த </s>	0
-1.6004491	ன் </s>	0
-0.5752337	ரோ </s>	0
-0.89200187	போ </s>	0
-0.9552418	பே </s>	0
-2.7635531	வெ </s>	0
-0.20817605	வோ </s>	0
-1.6437246	வு </s>	0
-1.4310325	ல </s>	0
-1.8137603	தே </s>	0
-1.6056014	வா </s>	0
-2.2286367	மி </s>	0
-1.5323335	ம </s>	0
-0.73795545	தோ </s>	0
-1.4594535	ட் </s>	0
-2.081419	ப </s>	0
-2.278479	ள் </s>	0
-2.5480027	தொ </s>	0
-2.3055503	எ </s>	0
-1.0059515	லை </s>	0
-2.020772	பி </s>	0
-1.4372954	வ் </s>	0
-1.1724629	ரே </s>	0
-1.3227174	ன </s>	0
-0.21162243	னோ </s>	0
-1.738826	லா </s>	0
-1.044771	டை </s>	0
-2.4301355	வீ </s>	0
-1.4297105	ய் </s>	0
-1.8316777	ஹ </s>	0
-2.394094	ஹே </s>	0
-2.175057	பா </s>	0
-0.3737649	லோ </s>	0
-1.6803976	சா </s>	0
-2.199326	ஜ </s>	0
-1.5122684	ஸ </s>	0
-0.139437	ஸோ </s>	0
-2.4282038	கெ </s>	0
-2.3663483	ஹெ </s>	0
-1.2608812	ஏ </s>	0
-0.80390704	கோ </s>	0
-2.1793163	ந </s>	0
-1.3665825	ளே </s>	0
-1.8633888	ரா </s>	0
-1.3700204	ஷா </s>	0
-1.6530967	பெ </s>	0
-2.0099232	ற் </s>	0
-1.9759223	மொ </s>	0
-1.3524752	ணி </s>	0
-1.9415259	ண் </s>	0
-1.7258785	டா </s>	0
-1.1282023	கை </s>	0
-1.573299	கா </s>	0
-1.4811655	னே </s>	0
-1.8192985	ஸே </s>	0
-1.3946201	ற </s>	0
-2.1496842	ணு </s>	0
-1.8652786	ஜா </s>	0
-2.2422378	மெ </s>	0
-1.5138676	ப் </s>	0
-2.1520314	சே </s>	0
-0.58137643	சோ </s>	0
-1.9432094	றி </s>	0
-0.21171111	றோ </s>	0
-1.5862074	று </s>	0
-1.4774985	ழ் </s>	0
-1.6331558	ஹா </s>	0
-2.3322897	ஹி </s>	0
-1.2192858	டே </s>	0
-1.7926378	தா </s>	0
-1.9679499	ரீ </s>	0
-1.3374783	ர் </s>	0
-2.1164522	மே </s>	0
-1.5623043	ழ </s>	0
-1.4936097	லே </s>	0
-1.4760109	சீ </s>	0
-0.64871234	ஜோ </s>	0
-1.8793029	னா </s>	0
-1.1811135	மை </s>	0
-0.794006	ஹோ </s>	0
-2.0225525	ரெ </s>	0
-1.8237559	ஷ </s>	0
-2.037657	வே </s>	0
-0.90656966	னை </s>	0
-1.5678769	ஜே </s>	0
-0.879206	வை </s>	0
-0.9611628	ளை </s>	0
-1.6713761	யூ </s>	0
-1.1240683	ண </s>	0
-1.7203963	ளா </s>	0
-0.3974738	ஷோ </s>	0
-0.9467079	"" </s>	0
-0.3684529	""ோ </s>	0
-1.1671783	ஷீ </s>	0
-1.6715045	ஈ </s>	0
-1.4151561	ஸா </s>	0
-1.7309306	ஜி </s>	0
-0.73527277	‎ </s>	0
-0.047428172	‎ோ </s>	0
-1.8291082	ணா </s>	0
-1.5281446	சை </s>	0
-1.0448936	ஜ் </s>	0
-1.0354787	றை </s>	0
-1.1671783	சி. </s>	0
-1.367893	டி. </s>	0
-0.037493017	ணோ </s>	0
-1.3169045	ணே </s>	0
-1.9240942	ரூ </s>	0
-1.5033891	.. </s>	0
-1.280956	ஷி </s>	0
-1.17972	. </s>	0
-1.696973	னெ </s>	0
-1.4477752	டெ </s>	0
-1.8680046	ஷ் </s>	0
-1.6439047	றே </s>	0
-1.3634987	ழி </s>	0
-0.11717378	ழோ </s>	0
-2.1120985	தீ </s>	0
-1.5553696	னீ </s>	0
-1.3900683	நோ </s>	0
-0.67098504	‍ </s>	0
-0.050782073	‍ோ </s>	0
-0.99381286	ணை </s>	0
-1.3369464	பீ. </s>	0
-1.0261852	' </s>	0
-0.08826779	'ோ </s>	0
-1.6141372	ஜீ </s>	0
-0.8812636	L </s>	0
-0.29680434	Lோ </s>	0
-1.3197577	பை </s>	0
-1.0359643	னி. </s>	0
-0.3684529	னி.ோ </s>	0
-1.3006275	ணீ </s>	0
-1.1671783	" </s>	0
-0.82956004	யா் </s>	0
-0.3684529	யாோ </s>	0
-1.1076245	சீ. </s>	0
-1.3350985	ல. </s>	0
-0.3684529	ல.ோ </s>	0
-1.2638122	ம். </s>	0
-1.219841	ழா </s>	0
-0.9467079	ம. </s>	0
-0.3684529	ம.ோ </s>	0
-0.29680434	எோ </s>	0
-1.5714488	ஸை </s>	0
-0.97158253	L.. </s>	0
-1.0359643	ர‍ </s>	0
-0.3684529	ர‍ோ </s>	0
-1.1671783	வ‍ </s>	0
-0.3684529	வ‍ோ </s>	0
-0.3684529	..ோ </s>	0
-0.29680434	.ோ </s>	0
-0.82956004	டூா் </s>	0
-0.3684529	டூாோ </s>	0
-1.1671783	வௌ </s>	0
-0.11717378	ஏோ </s>	0
-0.9467079	} </s>	0
-0.3684529	}ோ </s>	0
-1.0359643	\ </s>	0
-0.9467079	கை' </s>	0
-0.3684529	கை'ோ </s>	0
-1.1076245	வௌி </s>	0
-1.0105895	யை </s>	0
-0.3684529	பீ.ோ </s>	0
-0.82956004	கா் </s>	0
-0.3684529	காோ </s>	0
-0.9467079	eell </s>	0
-0.3684529	eellோ </s>	0
-0.29680434	L..ோ </s>	0
-0.3684529	"ோ </s>	0
-0.3684529	\ோ </s>	0
-0.9467079	'' </s>	0
-0.3684529	''ோ </s>	0
-0.3684529	சி.ோ </s>	0
-0.9467079	ல... </s>	0
-0.3684529	ல...ோ </s>	0
-0.3684529	டி.ோ </s>	0
-0.3684529	ஈோ </s>	0
-0.9467079	Y </s>	0
-0.3684529	Yோ </s>	0
-0.3684529	சீ.ோ </s>	0
-0.3684529	ம்.ோ </s>	0
-2.904704	<s> மோ	-1.7310727
-2.213535	ர மோ	-2.2617455
-2.6905313	கே மோ	-0.21067122
-2.8270237	டி மோ	-1.7249123
-2.299579	ய மோ	-1.8859746
-2.508725	யி மோ	-0.93780625
-2.7327108	லி மோ	-1.1138974
-2.7862568	ரு மோ	-0.21067122
-2.3012486	து மோ	-1.6579655
-2.7998104	வி மோ	-0.8128675
-2.2185163	ட மோ	-3.061658
-2.1749625	ம் மோ	-1.4562657
-2.2218597	க் மோ	-1.3134699
-2.7336588	கு மோ	-0.8128675
-2.5820253	வ மோ	-1.5989877
-2.3713877	ல் மோ	-1.4496896
-2.3341408	நா மோ	-0.21067122
-2.7638886	கி மோ	-0.21067122
-2.9110496	யா மோ	-0.21067122
-2.5628688	தெ மோ	-1.7235664
-2.376144	னி மோ	-1.4300896
-1.4123844	பீ மோ	-1.2388363
-2.6806324	ரி மோ	-0.87078154
-2.5539916	ஸ் மோ	-0.7649925
-2.7123492	மா மோ	-0.21067122
-2.274522	தை மோ	-0.21067122
-1.3918407	க மோ	-3.3549664
-2.7531133	லு மோ	-0.93780625
-2.326852	ஆ மோ	-0.40189114
-2.3917308	ச் மோ	-0.37909716
-2.6757405	சி மோ	-0.40189114
-2.3314567	டு மோ	-1.2651652
-2.8566282	பு மோ	-1.1808443
-2.1442957	ள மோ	-1.7829043
-2.7097151	ங் மோ	-1.1808443
-2.5318484	ளு மோ	-0.21067122
-2.6289752	தி மோ	-1.0413048
-2.3514564	ச மோ	-2.1246214
-2.4834583	த மோ	-1.5787842
-2.6401892	ன் மோ	-1.1272285
-2.3085675	ரோ மோ	-0.87078154
-2.6450987	போ மோ	-0.21067122
-2.6696882	வு மோ	-0.8128675
-2.28794	ல மோ	-2.2867599
-2.484098	தே மோ	-1.1808443
-2.5387187	வா மோ	-1.6579655
-2.4687614	ம மோ	-2.6631052
-2.6894474	மு மோ	-0.8128675
-2.4354823	ட் மோ	-1.0073236
-2.29658	னு மோ	-1.4818742
-2.790456	ப மோ	-1.2899888
-2.5374537	லை மோ	-0.21067122
-2.2588465	இ மோ	-1.377139
-2.3209395	பி மோ	-1.4149275
-2.4569302	ரே மோ	-0.5859097
-2.2742536	ன மோ	-1.4496896
-2.397673	னோ மோ	-0.21067122
-2.674084	லா மோ	-0.8128675
-2.6366212	வீ மோ	-0.21067122
-2.168625	ஹ மோ	-1.6144998
-2.831064	ஹே மோ	-0.21067122
-2.2720892	பா மோ	-1.1808443
-2.3769646	சா மோ	-1.4818742
-2.436067	ஜ மோ	-0.21067122
-2.3068438	ஸ மோ	-1.1437829
-2.8517609	கெ மோ	-0.40189114
-2.5429375	ஹெ மோ	-0.8128675
-2.4112692	ந மோ	-0.40189114
-1.87182	ரா மோ	-1.7931235
-1.8193159	றா மோ	-0.21067122
-2.5513833	ணி மோ	-0.21067122
-2.5332246	டா மோ	-0.8128675
-2.173148	கை மோ	-1.1808443
-2.7875712	கா மோ	-1.2388363
-2.0334306	ற மோ	-2.6453764
-2.348997	ணு மோ	-1.1808443
-2.3313506	சு மோ	-0.93780625
-2.4143708	று மோ	-0.40189114
-2.4477363	ஹா மோ	-0.21067122
-2.5954256	ஹி மோ	-0.21067122
-2.6288834	தா மோ	-0.21067122
-2.1861687	ரீ மோ	-0.40189114
-2.6651893	ர் மோ	-1.1057041
-2.3360553	மே மோ	-0.40189114
-2.7972348	லே மோ	-1.4818742
-1.8451622	சீ மோ	-0.40189114
-2.1711648	ஹோ மோ	-0.21067122
-2.0705671	ஹு மோ	-0.8015095
-2.472969	வே மோ	-1.1808443
-2.4222229	னை மோ	-0.21067122
-2.47093	தூ மோ	-0.21067122
-2.402911	ண மோ	-1.0347162
-2.0852509	ரூ மோ	-0.21067122
-1.7387694	றே மோ	-1.1808443
-2.006891	லீ மோ	-0.40189114
-1.7481571	<s> ர	-2.3590643
-1.5282317	மோ ர	-1.0770866
-2.5345094	ர ர	-1.4462814
-2.1856368	கே ர	-1.4440857
-2.3571196	டி ர	-0.86550355
-1.9345176	ய ர	-1.5883297
-2.4339597	யி ர	-2.1995106
-2.7096708	லி ர	-1.4818742
-2.5977583	ரு ர	-1.1808443
-2.121094	ந் ர	-1.1808443
-1.4845963	து ர	-1.8746613
-2.3776677	வி ர	-1.3585502
-1.840309	ட ர	-1.5398662
-2.715777	ம் ர	-1.1808443
-2.1131928	யோ ர	-1.1808443
-1.9987942	யு ர	-1.2421819
-2.1137488	க் ர	-1.6132665
-1.6783391	கு ர	-1.6189344
-1.7637839	வ ர	-1.7955599
-2.4853923	ல் ர	-1.3569356
-1.3584467	நா ர	-1.9889328
-1.4770479	கி ர	-1.5790589
-2.0171824	யா ர	-1.298675
-1.36906	தெ ர	-1.5335149
-2.6290357	னி ர	-1.305783
-2.189372	பீ ர	-1.1808443
-2.5386662	ரி ர	-1.1808443
-2.0782127	ஸ் ர	-1.1513164
-1.8325533	மா ர	-1.7229155
-1.8415674	த் ர	-1.4660801
-1.8002594	க ர	-2.1856716
-2.4499125	லு ர	-0.5753918
-0.8946434	ஆ ர	-2.0025315
-1.7149961	சி ர	-1.3410504
-1.6310229	கொ ர	-1.8448788
-2.2590244	டோ ர	-0.21067122
-1.9952291	டு ர	-0.9841933
-1.152184	பு ர	-2.2774868
-2.3989022	ள ர	-1.1808443
-2.3998675	ங் ர	-1.1808443
-1.7686417	தி ர	-1.6608651
-1.440165	ச ர	-1.7398272
-1.5719019	த ர	-2.1945806
-2.4205952	ன் ர	-1.305783
-1.2370188	ஒ ர	-2.4496896
-2.2205176	ரோ ர	-0.87078154
-1.8741364	போ ர	-1.1005757
-1.7393938	பே ர	-1.7014313
-2.3143954	வெ ர	-1.8022094
-2.3454719	வோ ர	-1.1808443
-1.750794	வு ர	-1.5995513
-2.3199327	ல ர	-1.769116
-1.6827877	தே ர	-1.2027891
-2.049788	வா ர	-1.3170353
-2.2910717	மி ர	-1.5488211
-1.7834264	ம ர	-1.7162051
-1.6889075	மு ர	-1.2978971
-1.5641589	பொ ர	-1.712397
-1.7439619	தோ ர	-1.2927041
-1.8869363	நெ ர	-1.3269724
-2.1024613	ட் ர	-1.0483414
-2.453715	னு ர	-1.2600255
-1.6815253	ப ர	-1.9252683
-2.4090683	உ ர	-0.9715205
-1.4864815	தொ ர	-1.5478656
-1.8902246	எ ர	-1.5180864
-1.7492075	இ ர	-1.9298931
-1.232246	பி ர	-2.0255616
-2.095367	நி ர	-1.3569356
-2.3293993	வ் ர	-1.1808443
-2.1431475	ரே ர	-0.40189114
-2.0442746	ன ர	-1.5255579
-2.0740912	லா ர	-0.92379737
-1.3125643	வீ ர	-1.8150649
-1.5600536	ஹ ர	-1.8035188
-1.9926573	ஹே ர	-1.3400676
-1.5320622	பா ர	-1.559761
-1.9038993	லோ ர	-1.9589956
-1.2802923	சா ர	-1.6052228
-2.1211686	ஜ ர	-1.1808443
-1.6319903	ஸ ர	-1.2260323
-2.0525649	ஸு ர	-1.1808443
-1.8506233	கெ ர	-1.5452132
-1.3704981	ஹெ ர	-1.7090299
-2.075612	ஏ ர	-1.1808443
-2.0240808	கோ ர	-1.7003694
-2.4162738	கொ ர	-1.1852154
-2.2628984	ந ர	-1.6927277
-1.773358	ளே ர	-1.4818742
-2.0006351	ஓ ர	-0.8558265
-2.5821168	ரா ர	-1.1808443
-1.5939932	ஷா ர	-1.1552356
-1.4758198	பெ ர	-1.7955694
-2.0666428	ற் ர	-1.1808443
-0.9438858	மொ ர	-1.8545119
-1.3723946	டா ர	-1.9164312
-1.8327193	கை ர	-0.7036321
-1.3586888	கா ர	-1.7032666
-1.4834533	தொ ர	-0.99844956
-2.118641	னே ர	-1.1808443
-1.366704	அ ர	-1.9183519
-2.0590818	மெ ர	-1.4361168
-1.7773061	சு ர	-1.1981795
-1.8719832	ப் ர	-1.3171235
-2.027548	சே ர	-0.93772835
-2.0423355	சோ ர	-1.4818742
-1.9955505	றி ர	-1.305783
-1.7795758	றோ ர	-1.1808443
-2.200631	கீ ர	-1.4818742
-1.9854853	ழ் ர	-1.6579655
-1.5393074	ஹா ர	-1.7491382
-1.6473087	ஹி ர	-1.1233419
-1.7917173	டே ர	-1.7249123
-1.4554322	தா ர	-1.3299336
-2.047357	ரீ ர	-1.3269724
-2.3700244	ர் ர	-1.1808443
-2.2388718	மே ர	-0.87078154
-0.95765257	ஹொ ர	-1.6110145
-2.620766	லே ர	-1.1808443
-1.7790395	சீ ர	-1.402693
-1.9956392	னா ர	-1.2709789
-1.3175881	ஹோ ர	-1.1213374
-1.9087834	ஹு ர	-1.0558374
-1.9148868	ஹீ ர	-1.5958177
-1.866792	ஷ ர	-0.8127766
-1.6438937	வே ர	-1.6687958
-1.86055	ஜே ர	-1.7829043
-2.4246764	வை ர	-1.1808443
-1.4501162	சூ ர	-1.305783
-2.1270258	தூ ர	-0.87078154
-1.7119195	யூ ர	-1.4818742
-2.2740958	லெ ர	-1.1808443
-1.8455586	பூ ர	-1.1437829
-2.15497	ண ர	-1.5488211
-1.8196615	மீ ர	-1.3405452
-1.8014445	வூ ர	-0.8128675
-1.2481711	வொ ர	-1.1808443
-1.7014468	நீ ர	-1.5488211
-2.023769	செ ர	-1.305783
-0.9174814	ஊ ர	-1.6896125
-1.7095594	ஈ ர	-1.1808443
-1.4351687	ஸா ர	-1.1558424
-2.0028791	ஜி ர	-1.6579655
-1.7896215	ணா ர	-1.5488211
-2.060698	ஜ் ர	-1.1808443
-1.7501698	நு ர	-1.3569356
-1.9240462	மூ ர	-0.40189114
-1.8899186	ஷி ர	-1.1808443
-1.6842339	சொ ர	-1.4149275
-1.7355251	ஜெ ர	-1.1808443
-2.023731	பொ ர	-1.3727298
-1.0689292	டெ ர	-1.5787842
-1.519994	டொ ர	-1.1808443
-1.5943115	ஷ் ர	-1.3569356
-1.8112502	போ ர	-1.1808443
-1.0453484	ஹோ ர	-1.1808443
-1.4678503	கூ ர	-1.1867273
-1.4455843	ஹொ ர	-1.4570508
-1.6957239	தீ ர	-1.1808443
-1.586363	னீ ர	-1.1808443
-1.6825005	கோ ர	-1.1808443
-2.0954869	' ர	-1.1808443
-1.5513684	லூ ர	-0.21067122
-1.2901828	மொ ர	-1.0295124
-1.1805241	மோ ர	-1.402693
-1.681864	தோ ர	-1.1808443
-1.5674224	நொ ர	-1.5488211
-1.1814551	னூ ர	-0.40189114
-1.1799215	டீ. ர	-1.1808443
-1.3180478	போ‍ ர	-0.21067122
-2.7740862	<s> கே	-1.5398662
-2.2168977	ர கே	-1.213418
-2.7110126	கே கே	-1.1808443
-2.1020682	டி கே	-1.2702092
-2.6359081	ய கே	-1.1808443
-2.8438883	யி கே	-0.48176524
-2.1479514	லி கே	-1.1741354
-2.4117892	ரு கே	-1.4266993
-2.806333	ந் கே	-0.4018911
-2.5830047	து கே	-0.96122676
-2.1759496	ட கே	-1.4703331
-2.76643	ம் கே	-1.1808443
-1.6558046	க் கே	-1.2885389
-2.9010274	கு கே	-1.1808443
-2.404687	வ கே	-1.6367762
-2.4925792	ல் கே	-1.0466508
-2.9329245	யா கே	-0.48176524
-2.574864	தெ கே	-1.1808443
-2.5612926	னி கே	-0.787953
-2.3464444	ரி கே	-1.139402
-2.7167566	ஸ் கே	-0.8253925
-2.56922	மா கே	-1.1807897
-2.5203705	த் கே	-0.9182811
-2.2892458	தை கே	-1.1808443
-2.7169302	க கே	-1.0243305
-2.506849	லு கே	-1.1808443
-2.564253	ஆ கே	-1.1808443
-2.404927	ச் கே	-0.48176524
-2.5155103	சி கே	-1.3057225
-2.119046	டு கே	-1.2126586
-2.4826913	பு கே	-1.0633401
-1.8048815	ங் கே	-1.4276643
-2.4389489	ளி கே	-1.1808443
-2.5478475	ளு கே	-0.37909716
-2.2804108	தி கே	-1.4818742
-2.3601308	ச கே	-1.305783
-2.5745435	த கே	-1.4816694
-2.1794515	ன் கே	-1.4256513
-3.0458994	வெ கே	-1.1808443
-2.6888466	வு கே	-1.1808443
-2.1119359	ல கே	-1.4004519
-2.621484	வா கே	-0.6366672
-2.48444	மி கே	-1.1808443
-2.3452303	ம கே	-1.4239688
-2.7036974	மு கே	-1.7829043
-1.870363	னு கே	-1.3357463
-2.8066475	ப கே	-1.9341719
-2.4831865	ள் கே	-0.48176524
-2.5022545	எ கே	-1.1808443
-2.866565	பி கே	-1.3569356
-1.8829324	நி கே	-1.4818742
-2.4929893	வ் கே	-0.21067122
-2.2543075	ரே கே	-1.4818742
-1.9888607	ன கே	-1.309976
-2.3714454	டை கே	-1.1808443
-2.5972314	ஹ கே	-1.377139
-2.6259506	ஹே கே	-1.1808443
-1.9083205	பா கே	-1.5812589
-2.5280533	ஸ கே	-1.1808443
-2.6908948	கெ கே	-1.3569356
-2.4280987	ந கே	-1.1808443
-2.3459837	ஓ கே	-1.1808443
-2.7295961	பெ கே	-1.1808443
-2.567786	ணி கே	-0.21067122
-2.0542612	ழு கே	-1.1808443
-2.6521447	கா கே	-1.1808443
-2.211816	னே கே	-1.3569356
-2.5061202	ற கே	-1.1808443
-2.3628345	ணு கே	-1.1808443
-2.3681278	சே கே	-1.4818742
-2.4290295	று கே	-1.1808443
-2.615353	ஹி கே	-1.1808443
-2.201709	ரீ கே	-1.1808443
-2.5256667	ர் கே	-0.61647373
-2.5714624	மே கே	-0.48176524
-1.9451115	ழ கே	-1.1808443
-2.1577613	லே கே	-1.2388363
-2.633294	னா கே	-1.1808443
-2.3248298	ஹு கே	-1.1808443
-2.413694	ரெ கே	-1.1808443
-2.490802	வே கே	-1.1808443
-2.129127	லொ கே	-1.1808443
-2.489962	ண கே	-1.4818742
-2.367491	செ கே	-1.1808443
-1.2173129	நு கே	-1.5718355
-2.324071	டெ கே	-0.48176524
-1.3837743	ல. கே	-1.1808443
-1.059727	ர‍ கே	-1.1808443
-2.6625066	<s> டி	-1.6210413
-2.442778	மோ டி	-0.21067122
-2.3297417	ர டி	-1.4552221
-1.8218281	கே டி	-0.9570618
-2.4070323	டி டி	-1.0711114
-2.0657752	ய டி	-1.5444694
-2.8084443	லி டி	-1.1808443
-2.5676138	ரு டி	-0.4370891
-2.1447842	ந் டி	-1.1391598
-2.6590617	து டி	-1.0347162
-1.3779048	வி டி	-1.901594
-2.657902	ட டி	-1.1930788
-2.6869032	ம் டி	-1.1808443
-2.1233792	யு டி	-1.1808443
-2.6010814	க் டி	-1.1808443
-1.1422414	கு டி	-2.9971495
-2.2102473	வ டி	-1.2952873
-2.305073	ல் டி	-1.2540762
-2.0696414	நா டி	-1.1057041
-2.2225084	கி டி	-1.4148934
-2.6865056	யா டி	-1.3569356
-2.0176325	தெ டி	-1.4927948
-2.723211	னி டி	-1.3357463
-2.0217412	பீ டி	-1.4818742
-2.4156184	ரி டி	-1.5166364
-1.9856545	ஸ் டி	-1.321958
-2.0883956	மா டி	-1.9181592
-2.6854343	த் டி	-1.4818742
-1.9430368	க டி	-1.8607911
-2.479378	ஆ டி	-1.7249123
-2.3376775	ச் டி	-1.1808443
-1.9425241	சி டி	-1.1808443
-1.0170617	கொ டி	-2.571443
-2.6652682	டு டி	-1.1808443
-2.6355088	ங் டி	-1.1808443
-2.625583	தி டி	-0.9588865
-2.463787	ச டி	-0.93772835
-2.4469557	த டி	-1.0877199
-1.7431033	ன் டி	-1.4912865
-2.6599987	ஒ டி	-1.1808443
-1.3104801	ரோ டி	-1.3964441
-1.7254382	போ டி	-1.0890285
-2.361506	பே டி	-1.305783
-1.8715606	வெ டி	-1.6387789
-1.9660128	வு டி	-1.1808443
-2.3923464	ல டி	-1.2014115
-2.4082832	தே டி	-0.48176524
-1.4732246	வா டி	-1.9501567
-1.5726696	மி டி	-1.2548926
-1.5640272	ம டி	-1.7584629
-2.5665545	மு டி	-1.1138196
-1.7342564	பொ டி	-1.3770845
-1.85993	தோ டி	-1.0761089
-1.834377	நெ டி	-1.3569356
-1.0825975	ட் டி	-2.5630617
-1.6893698	ப டி	-1.8393856
-1.490348	உ டி	-1.4920934
-1.2299469	தொ டி	-1.907843
-2.2008672	எ டி	-1.402693
-2.4028566	இ டி	-1.0295124
-1.0168068	பி டி	-2.4743993
-2.3865845	ரே டி	-1.1808443
-2.3652685	ன டி	-1.5489491
-2.0853877	னோ டி	-0.40189114
-1.3757421	வீ டி	-1.402693
-2.5189447	ஹ டி	-1.4818742
-2.7614863	ஹே டி	-1.1808443
-2.3323147	பா டி	-1.2165599
-2.3074799	சா டி	-1.1808443
-2.3082798	ஸி டி	-0.61647373
-1.290576	கெ டி	-2.1472654
-1.9546491	ஹெ டி	-1.5496013
-2.14128	ஏ டி	-1.1808443
-1.2658072	கோ டி	-1.7114099
-0.7656601	கொ டி	-2.2127335
-1.8841093	ந டி	-1.0890739
-2.5465224	ரா டி	-1.1808443
-1.9060674	பெ டி	-1.224985
-1.7862139	மொ டி	-1.1486596
-2.4853776	ணி டி	-0.48176524
-1.1823455	ண் டி	-1.7589761
-2.046833	கா டி	-0.9333542
-1.1517389	தொ டி	-1.2899888
-2.378837	னே டி	-1.1808443
-1.7529972	அ டி	-1.3423663
-2.1714656	ற டி	-0.93772835
-1.7291739	ஜா டி	-1.5330268
-1.285439	மெ டி	-1.7123014
-2.427817	ப் டி	-0.6464369
-2.2568603	றி டி	-1.4818742
-2.205166	ஹா டி	-1.1808443
-1.3891999	ஹி டி	-1.7473524
-2.302821	டே டி	-1.3101143
-2.0486615	ர் டி	-1.3056047
-1.904825	மே டி	-1.0123717
-1.7662525	ஹொ டி	-1.1057041
-2.5642424	லே டி	-1.5330268
-2.0599115	சீ டி	-1.1808443
-2.5334172	னா டி	-0.8128675
-2.1214378	ஹோ டி	-0.21067122
-2.1289544	ரெ டி	-0.8558265
-2.4017634	வே டி	-1.1808443
-1.4381019	யூ டி	-0.87078154
-2.164814	லெ டி	-1.1808443
-2.0873225	ண டி	-1.1391598
-1.9447122	மீ டி	-1.7829043
-1.1704243	வூ டி	-1.0347162
-1.3717626	வொ டி	-0.40189114
-1.7999935	ரொ டி	-0.8128675
-2.0626085	செ டி	-0.40189114
-1.3175461	ஈ டி	-1.7829043
-2.0603256	ஜி டி	-1.1808443
-1.8837078	ஜு டி	-1.1808443
-1.353218	சை டி	-0.93780625
-1.5948715	றூ டி	-0.21067122
-2.0410485	ரூ டி	-0.21067122
-1.9525778	பொ டி	-1.0761089
-1.7187438	ஷ் டி	-0.87078154
-1.6282467	மொ டி	-0.21067122
-1.0530045	ட்‍ டி	-0.40189114
-1.593436	நொ டி	-0.21067122
-1.2904	ஸை டி	-0.40189114
-1.5554075	ர். டி	-1.1808443
-0.37206098	ட்' டி	-1.1808443
-0.37206098	கெ. டி	-1.1808443
-0.37206098	ஜ்E டி	-1.1808443
-2.2037385	<s> ய	-2.2863545
-2.084828	ர ய	-1.7481422
-2.527945	கே ய	-1.1808443
-1.180882	டி ய	-2.4251826
-2.365666	ய ய	-1.1552902
-2.0456717	யி ய	-1.1807897
-1.0980049	லி ய	-2.0518465
-2.6101675	ரு ய	-0.21067122
-2.6393223	து ய	-1.1808443
-1.762477	வி ய	-1.5704141
-1.8421514	ட ய	-1.652737
-2.342578	ம் ய	-1.054149
-2.377149	யோ ய	-0.21067122
-2.5894275	க் ய	-0.98890424
-2.6407497	வ ய	-1.0365674
-2.1524327	ரை ய	-0.5753918
-2.7576058	ல் ய	-1.0413048
-0.98666626	நா ய	-2.4141226
-1.8386685	கி ய	-1.5695881
-1.1072341	யா ய	-2.1967747
-2.4595697	தெ ய	-1.128138
-1.2090847	னி ய	-2.2237222
-1.1505716	ரி ய	-2.106355
-2.574822	ஸ் ய	-1.1808443
-2.373119	மா ய	-0.78927165
-2.2502196	த் ய	-1.2388363
-1.8754773	தை ய	-1.1552356
-2.400865	க ய	-1.4200671
-2.5906289	லு ய	-1.1808443
-2.4084094	ஆ ய	-1.1808443
-1.3695921	சி ய	-2.1427085
-2.5342205	கொ ய	-0.91552985
-2.5812767	டு ய	-0.48176524
-1.0845681	ளி ய	-1.5582181
-1.321821	தி ய	-2.0482213
-2.274115	ச ய	-1.0858688
-1.9311857	த ய	-1.9627395
-2.6391246	ன் ய	-0.7570219
-1.0121809	ஒ ய	-1.820385
-2.4094422	ரோ ய	-1.4818742
-2.3503928	போ ய	-1.3900434
-2.3082192	பே ய	-1.1808443
-2.728906	வெ ய	-1.7249123
-2.116124	வோ ய	-0.5753918
-2.304579	வு ய	-1.0559056
-2.0839202	ல ய	-1.7680027
-2.3304243	தே ய	-1.1808443
-1.8192842	வா ய	-1.411901
-1.5038252	மி ய	-1.6183383
-2.2843523	ம ய	-1.7021692
-2.7186642	பொ ய	-1.1808443
-2.4676323	தோ ய	-0.21067122
-2.537388	ட் ய	-1.1808443
-2.4639797	னு ய	-0.21067122
-2.4631696	ப ய	-1.3744988
-0.851576	உ ய	-2.3804166
-1.8411053	லை ய	-1.9613897
-2.5738275	இ ய	-1.1808443
-1.5108981	பி ய	-1.6773915
-1.8391943	நி ய	-1.610969
-2.3134875	ரே ய	-1.1808443
-2.188079	ன ய	-1.9301388
-1.9641348	னோ ய	-0.6837452
-2.3821974	லா ய	-0.8127896
-1.9526019	டை ய	-0.8682857
-2.5150285	வீ ய	-0.21067122
-1.2618484	ய் ய	-1.6201315
-2.2512066	ஹ ய	-1.1570339
-2.689067	ஹே ய	-1.4818742
-1.9542729	பா ய	-1.5118375
-1.6735052	லோ ய	-1.4002043
-2.2351425	சா ய	-1.4818742
-1.1037961	ஜ ய	-2.008826
-1.7295365	ஸி ய	-1.60116
-2.2069435	ஸ ய	-0.81278026
-2.3608212	கோ ய	-1.2010477
-1.8582734	ந ய	-1.2010477
-0.91198653	ஓ ய	-1.3357463
-1.8875705	ரா ய	-1.0525992
-2.3571365	பெ ய	-1.101663
-1.2995234	ணி ய	-2.1084194
-2.4082408	ண் ய	-1.4818742
-2.3741956	டா ய	-1.1808443
-2.453137	கா ய	-1.1960843
-1.1813345	ழை ய	-1.5721543
-1.8738021	ஸே ய	-1.1808443
-2.4904456	அ ய	-1.1808443
-2.18792	ற ய	-0.9754957
-1.9359925	ஜா ய	-1.1808443
-2.19168	சு ய	-1.1808443
-1.0999393	றி ய	-1.2735983
-2.458583	கீ ய	-1.1808443
-1.9939903	ழ் ய	-1.1808443
-2.2910097	ஹா ய	-0.21067122
-1.888482	ஹி ய	-1.546201
-2.337579	தா ய	-1.1808443
-2.0569677	ரீ ய	-1.1808443
-2.4890733	ர் ய	-1.1808443
-2.2458944	மே ய	-0.743171
-1.8665913	ழ ய	-1.1808443
-2.1957545	லே ய	-1.3849642
-1.5215025	னா ய	-1.8471723
-1.7295974	மை ய	-1.16505
-1.9214531	ஹீ ய	-1.1808443
-1.7838376	ஷ ய	-0.9329925
-2.097474	வே ய	-1.7829043
-1.9964675	னை ய	-0.91552985
-2.2234635	ளை ய	-1.4818742
-2.2844334	லெ ய	-1.1808443
-1.0542635	லிஓ ய	-0.5397572
-2.0208762	லொ ய	-1.4818742
-2.0568004	ண ய	-1.3499867
-1.3256282	மீ ய	-1.1218665
-1.9918538	ளா ய	-0.8128675
-2.0288649	செ ய	-1.3569356
-0.7086013	ல்ஓ ய	-1.4766731
-1.9653397	ஸா ய	-0.21067122
-1.0463846	னுஓ ய	-0.41481844
-1.6799741	ஜி ய	-0.73705953
-1.7939348	ணா ய	-1.2477002
-1.8165535	ஜ் ய	-1.1808443
-1.7693915	றை ய	-0.78220433
-1.6673181	ஐ ய	-1.3569356
-0.680724	ஜெ ய	-1.5787842
-1.8166941	போ ய	-1.1808443
-1.6939263	ழி ய	-1.1808443
-2.190936	தீ ய	-1.4238824
-1.2338436	ஹை ய	-1.1808443
-1.5898819	னீ ய	-1.1808443
-1.0463846	டாஓ ய	-1.0169874
-1.5748719	லீ ய	-1.06814
-1.4124463	நோ ய	-0.87078154
-1.6521747	ஜீ ய	-1.1808443
-1.1819178	மோ ய	-1.1808443
-1.0463846	காஓ ய	-0.2774182
-1.3199911	ணீ ய	-1.1808443
-0.9362563	ருஓ ய	-0.8128675
-0.980232	மாஓ ய	-0.40189114
-1.5708793	நொ ய	-1.1808443
-0.95517325	ஹாஓ ய	-0.21067122
-1.6025156	ஸை ய	-1.1808443
-1.2353091	க்ஓ ய	-0.2774182
-0.93560135	ன்ஓ ய	-0.7335954
-0.83003694	னஓ ய	-0.87078154
-1.027849	லஓ ய	-0.8128675
-1.0463846	வஓ ய	-0.21067122
-0.980232	ளுஓ ய	-0.40189114
-0.8858366	ங்ஓ ய	-0.5753918
-1.0463846	லாஓ ய	-0.5009469
-1.02804	துஓ ய	-0.93780625
-0.9362563	லுஓ ய	-1.0559056
-1.0463846	ராஓ ய	-0.2774182
-1.1214441	ளிஓ ய	-0.21067122
-0.6657702	டஓ ய	-1.1808443
-1.0463846	த்ஓ ய	-0.40189114
-0.9362563	ழுஓ ய	-0.2774182
-1.0463846	ஹஓ ய	-0.5753918
-0.7655544	கஓ ய	-0.6780599
-1.0463846	லைஓ ய	-0.21067122
-1.1214441	ரஓ ய	-0.21067122
-0.68885154	தஓ ய	-0.5753918
-0.91969585	னாஓ ய	-0.5397572
-0.95517325	கெஓ ய	-0.21067122
-0.95517325	னேஓ ய	-0.21067122
-1.636978	ர யி	-2.7238474
-1.3575016	கே யி	-2.0303514
-1.3191217	டி யி	-3.3542686
-1.2238414	ய யி	-3.35941
-1.3624802	லி யி	-2.2264466
-1.8502711	ரு யி	-2.895062
-2.5425005	ந் யி	-0.21067122
-2.0663233	து யி	-2.0078442
-1.9648166	வி யி	-1.8920487
-1.4535725	ட யி	-2.7467692
-1.4164585	ம் யி	-3.2219548
-2.3112297	யோ யி	-0.21067122
-1.9637476	யு யி	-1.377139
-1.6466509	க் யி	-1.683695
-2.0494425	கு யி	-2.7201595
-1.445722	வ யி	-3.1923025
-1.0527394	ரை யி	-2.3457634
-1.7689227	ல் யி	-2.3833559
-2.095588	நா யி	-1.4818742
-1.85455	கி யி	-1.3357463
-0.9863899	யா யி	-2.8704069
-1.8344073	தெ யி	-0.9888906
-1.2891102	னி யி	-2.4929082
-1.3814174	பீ யி	-1.2388363
-1.330029	ரி யி	-2.2812147
-1.5876713	ஸ் யி	-2.542572
-1.6388348	மா யி	-1.3411072
-1.8549652	த் யி	-1.7829043
-1.196356	தை யி	-3.317104
-1.840439	க யி	-2.202624
-2.1000361	லு யி	-0.7256182
-2.1663303	ஆ யி	-1.1808443
-2.1926715	ச் யி	-0.21067122
-1.6958351	சி யி	-1.6579655
-2.5872264	கொ யி	-0.5697516
-1.9805503	டோ யி	-0.40189114
-1.8127804	டு யி	-2.0169876
-2.4736557	பு யி	-3.1605227
-1.2821013	ள யி	-2.6040902
-1.2500824	ளி யி	-1.7981442
-2.1511867	ளு யி	-0.40189114
-1.6448033	தி யி	-3.5106053
-1.5223186	ச யி	-2.01244
-1.6295027	த யி	-3.320145
-1.5832272	ன் யி	-2.5643418
-1.1003801	ஒ யி	-1.9889588
-2.0932786	ரோ யி	-0.8128675
-2.2628844	போ யி	-0.98890424
-0.95489067	பே யி	-1.9607155
-2.6440258	வெ யி	-0.98890424
-2.2763455	வோ யி	-0.21067122
-1.642214	வு யி	-2.7813504
-1.410562	ல யி	-2.972484
-1.4556875	தே யி	-1.8890222
-1.5059084	வா யி	-1.3356683
-1.741387	மி யி	-1.0236527
-1.4979982	ம யி	-2.9864068
-2.4288437	பொ யி	-1.305783
-2.380936	தோ யி	-0.21067122
-1.4586446	ட் யி	-2.4326563
-2.3611789	னு யி	-0.21067122
-1.9659104	ப யி	-1.4051509
-2.2713885	ள் யி	-1.5661951
-2.5397632	தொ யி	-0.21067122
-2.298677	எ யி	-1.0347162
-0.9460805	லை யி	-2.6372104
-1.9687444	பி யி	-1.6510167
-1.4360187	வ் யி	-1.5118375
-1.171696	ரே யி	-1.2765256
-1.3110389	ன யி	-2.9232078
-2.0191803	னோ யி	-0.40189114
-1.736781	லா யி	-1.7671101
-1.0441996	டை யி	-2.9415898
-2.256498	வீ யி	-0.21067122
-1.1811292	ய் யி	-1.1360197
-1.7998753	ஹ யி	-1.6607517
-2.3887866	ஹே யி	-0.93780625
-1.8001237	பா யி	-1.4496896
-1.655687	லோ யி	-1.3294194
-1.6774745	சா யி	-1.1138974
-1.7356129	ஜ யி	-0.89199424
-2.1801708	ஸி யி	-0.21067122
-1.4289589	ஸ யி	-2.1888406
-2.206982	கெ யி	-1.3499867
-2.304319	ஹெ யி	-1.5307229
-1.2596098	ஏ யி	-1.2388363
-1.8355836	கோ யி	-1.7630701
-1.5417702	ந யி	-1.322688
-1.3646235	ளே யி	-0.8128675
-1.0495708	ஓ யி	-1.6367762
-1.7514852	ரா யி	-1.3134699
-1.3682886	ஷா யி	-1.0347162
-1.5898333	பெ யி	-1.5488211
-2.004161	ற் யி	-0.40189114
-1.9688165	மொ யி	-0.21067122
-1.2377936	ணி யி	-2.5894072
-1.9381416	ண் யி	-0.93780625
-1.7232839	டா யி	-1.6579655
-0.9684369	கை யி	-3.0511227
-1.5721325	கா யி	-2.0915432
-1.1658105	ழை யி	-0.21067122
-1.479754	னே யி	-2.1618211
-1.8142892	ஸே யி	-0.21067122
-1.9343367	அ யி	-1.1808443
-1.3606715	ற யி	-2.2244327
-2.142369	ணு யி	-0.21067122
-1.8589069	ஜா யி	-0.8128675
-2.0095773	மெ யி	-1.3101143
-1.5129946	ப் யி	-2.06814
-2.1446388	சே யி	-1.2651652
-1.4193546	றி யி	-1.629477
-1.5843761	று யி	-1.6781689
-1.4748917	ழ் யி	-2.392651
-1.5713469	ஹா யி	-1.2687216
-2.161694	ஹி யி	-0.47034568
-1.2183526	டே யி	-2.299534
-1.7900544	தா யி	-1.377139
-1.9601045	ரீ யி	-0.21067122
-1.3365912	ர் யி	-2.4971142
-1.9623704	மே யி	-0.87981427
-1.559499	ழ யி	-0.8128675
-1.4927448	லே யி	-2.4309156
-1.4735756	சீ யி	-1.0347162
-1.8088042	னா யி	-1.0468729
-1.1105816	மை யி	-1.9865392
-1.711391	ஹோ யி	-0.8128675
-1.7952621	ரெ யி	-1.2388363
-1.5617167	ஷ யி	-0.40189114
-2.032195	வே யி	-0.8128675
-0.90628535	னை யி	-2.563633
-1.564831	ஜே யி	-0.8128675
-0.8617982	வை யி	-2.3053951
-0.96077824	ளை யி	-2.36513
-1.6671737	யூ யி	-0.21067122
-2.180974	லெ யி	-0.37909716
-1.0430043	லிஓ யி	-1.0347162
-1.9436923	லொ யி	-1.4818742
-1.1235253	ண யி	-1.9488664
-1.6050966	மீ யி	-1.0347162
-1.6354893	ளா யி	-0.8128675
-0.94588405	"" யி	-0.21067122
-2.1597188	செ யி	-1.4818742
-1.1658105	ஷீ யி	-0.21067122
-1.6675477	ஈ யி	-0.21067122
-0.92859393	ல்ஓ யி	-1.6144998
-1.4130278	ஸா யி	-0.66666156
-1.0349528	னுஓ யி	-0.8128675
-1.7270253	ஜி யி	-0.4018911
-0.735104	‎ யி	-1.9791989
-1.8244328	ணா யி	-0.40189114
-1.3246374	சை யி	-1.0124398
-1.0442452	ஜ் யி	-1.6144998
-0.974036	றை யி	-2.065451
-1.1658105	சி. யி	-0.21067122
-1.365772	டி. யி	-0.21067122
-1.3152455	ணே யி	-1.1138974
-1.9179243	ரூ யி	-0.21067122
-1.5004282	.. யி	-0.40189114
-1.2796435	ஷி யி	-1.0347162
-1.178401	. யி	-0.40189114
-1.3579262	சொ யி	-1.7249123
-1.6938624	னெ யி	-0.8128675
-1.3662685	டெ யி	-1.6367762
-1.7517546	டொ யி	-1.1808443
-1.8618983	ஷ் யி	-0.21067122
-1.6399891	றே யி	-0.21067122
-1.3617836	ழி யி	-0.8128675
-2.1050642	தீ யி	-0.40189114
-1.5521185	னீ யி	-0.21067122
-1.0349528	டாஓ யி	-1.2388363
-1.5408412	லீ யி	-1.0347162
-1.3879282	நோ யி	-0.87078154
-0.6708839	‍ யி	-1.8128675
-0.9932781	ணை யி	-1.9268109
-1.334975	பீ. யி	-0.21067122
-1.0257223	' யி	-1.6144998
-1.6105696	ஜீ யி	-0.21067122
-0.88065004	L யி	-0.40189114
-1.3178622	பை யி	-1.1960843
-1.0349528	னி. யி	-0.8128675
-1.0349528	காஓ யி	-0.40189114
-1.2987686	ணீ யி	-0.21067122
-1.1658105	" யி	-0.21067122
-0.9284113	ருஓ யி	-0.8128675
-0.9717049	மாஓ யி	-0.40189114
-0.82893085	யா் யி	-0.21067122
-1.1064317	சீ. யி	-0.21067122
-1.3330865	ல. யி	-1.5398662
-1.262155	ம். யி	-0.21067122
-1.2183489	ழா யி	-0.21067122
-0.85359305	ஸொ யி	-1.4818742
-0.94588405	ம. யி	-0.21067122
-0.94588405	ஹாஓ யி	-0.21067122
-1.5685097	ஸை யி	-0.21067122
-1.2183489	க்ஓ யி	-0.40189114
-1.266085	ன்ஓ யி	-1.0347162
-1.1678298	னஓ யி	-0.21067122
-0.97080386	L.. யி	-0.40189114
-1.0171938	லஓ யி	-0.8128675
-1.0349528	வஓ யி	-0.21067122
-0.9717049	ளுஓ யி	-0.40189114
-1.0349528	ர‍ யி	-0.21067122
-1.2191322	ங்ஓ யி	-0.21067122
-1.0349528	லாஓ யி	-0.8128675
-1.1658105	வ‍ யி	-0.93780625
-1.0174565	துஓ யி	-1.1808443
-0.9284113	லுஓ யி	-1.1138974
-1.0349528	ராஓ யி	-0.40189114
-1.1084867	ளிஓ யி	-0.21067122
-0.82893085	டூா் யி	-0.21067122
-1.1658105	வௌ யி	-0.21067122
-1.0349528	த்ஓ யி	-0.40189114
-0.94588405	} யி	-0.21067122
-0.9284113	ழுஓ யி	-0.40189114
-1.0349528	\ யி	-0.21067122
-1.0349528	ஹஓ யி	-0.21067122
-1.1084867	கஓ யி	-0.21067122
-1.0349528	லைஓ யி	-0.21067122
-1.1084867	ரஓ யி	-0.21067122
-0.94588405	கை' யி	-0.21067122
-1.1064317	வௌி யி	-0.21067122
-1.0097516	யை யி	-0.4018911
-1.0370445	தஓ யி	-0.21067122
-0.82893085	கா் யி	-0.21067122
-0.94588405	eell யி	-0.21067122
-0.94588405	'' யி	-0.21067122
-0.9134795	னாஓ யி	-1.0347162
-0.94588405	கெஓ யி	-0.21067122
-0.94588405	ல... யி	-0.21067122
-0.94588405	Y யி	-0.21067122
-0.94588405	னேஓ யி	-0.21067122
-2.4909558	<s> லி	-2.123443
-2.1450946	மோ லி	-1.2633119
-1.9208016	ர லி	-1.9062892
-2.0748432	கே லி	-1.2651652
-1.0775012	டி லி	-3.272334
-2.426458	ய லி	-1.3671547
-0.686413	யி லி	-3.952799
-1.009227	லி லி	-3.3880875
-2.3092957	ரு லி	-1.5239941
-1.9524915	து லி	-1.633142
-1.046138	வி லி	-2.8781652
-1.9576113	ட லி	-1.5892231
-2.5528238	ம் லி	-1.5787842
-2.0859766	யு லி	-1.9589956
-2.4041553	க் லி	-1.0116316
-1.832865	கு லி	-1.3546317
-1.5065981	வ லி	-2.0620658
-1.3630769	ல் லி	-2.2555227
-2.0114267	நா லி	-0.98890424
-0.98671925	கி லி	-2.3888247
-1.9732796	யா லி	-1.4496896
-1.8948898	தெ லி	-1.3988763
-0.88650703	னி லி	-3.062512
-2.1823673	பீ லி	-1.305783
-1.0718434	ரி லி	-3.0149145
-2.1194007	ஸ் லி	-1.7900828
-1.3979791	மா லி	-1.7159575
-2.422886	த் லி	-0.75726295
-1.5575044	க லி	-1.9764915
-2.5695398	லு லி	-1.1808443
-2.1542065	ஆ லி	-1.4238824
-1.3002654	சி லி	-1.8026139
-1.8303345	கொ லி	-1.1788064
-2.440436	டு லி	-0.87078154
-1.9835397	பு லி	-1.622053
-2.3894043	ள லி	-0.21067122
-2.539202	ங் லி	-1.4818742
-0.9412499	ளி லி	-2.9097776
-1.2861395	தி லி	-2.7691486
-1.7774403	ச லி	-1.1246251
-1.8193567	த லி	-1.8182933
-2.3646703	ன் லி	-1.3786935
-2.398561	ஒ லி	-1.5398662
-2.2152367	ரோ லி	-1.3569356
-1.5576344	போ லி	-1.5787842
-1.7376168	பே லி	-1.4204458
-1.0681312	வெ லி	-2.1319735
-1.4861598	வு லி	-2.0517497
-2.2791808	ல லி	-1.1479328
-1.9551388	தே லி	-0.64390165
-2.046658	வா லி	-1.1703789
-0.7717139	மி லி	-3.4268854
-1.7669917	ம லி	-1.5059901
-1.9951923	மு லி	-1.8271079
-1.0411054	பொ லி	-2.4349663
-2.4521573	தோ லி	-0.21067122
-1.3791168	நெ லி	-1.2423116
-2.4696321	ட் லி	-1.0967593
-1.8155144	ப லி	-1.5005007
-2.4008577	உ லி	-0.21067122
-1.255512	தொ லி	-2.0517497
-0.98740906	எ லி	-1.9779634
-1.7037592	இ லி	-1.4787611
-1.063928	பி லி	-2.0871558
-1.7070235	நி லி	-0.8446819
-1.7929862	வ் லி	-1.0347162
-1.7895308	ரே லி	-1.1808443
-2.3900616	ன லி	-1.4076283
-2.0704103	லா லி	-0.9253228
-1.7148944	ஹ லி	-1.9861926
-2.5106475	ஹே லி	-0.7036321
-1.8459743	பா லி	-1.365665
-2.0564642	சா லி	-1.5118375
-2.0454018	ஜ லி	-1.0890739
-0.5622655	ஸி லி	-2.5010896
-1.858773	ஸ லி	-1.1138974
-1.2969483	கெ லி	-1.7623532
-1.2707279	ஹெ லி	-1.3782845
-1.7745459	ஏ லி	-1.1138974
-2.1326416	கோ லி	-1.0890739
-2.4124527	கொ லி	-0.40189114
-2.2545996	ந லி	-1.1808443
-2.2142274	ஓ லி	-1.1808443
-2.1870255	ரா லி	-1.1138974
-1.6660739	பெ லி	-1.6585747
-1.8340588	மொ லி	-0.87078154
-0.8632666	ணி லி	-2.4040112
-2.161099	டா லி	-1.0347162
-1.6032618	கா லி	-1.6708344
-1.3394916	தொ லி	-1.0347162
-1.9596492	ஞ் லி	-1.1808443
-2.1546433	அ லி	-1.5601422
-2.3101633	ற லி	-0.21067122
-1.9223602	ஜா லி	-1.1808443
-2.1315641	மெ லி	-1.3269724
-2.3729022	ப் லி	-1.1808443
-2.0367165	சோ லி	-0.21067122
-0.9336273	றி லி	-2.775079
-2.134558	ஹா லி	-1.7829043
-1.2347999	ஹி லி	-1.6415145
-1.6647699	டே லி	-0.59889686
-2.2662036	தா லி	-1.4238824
-1.946129	ர் லி	-1.238322
-1.0655483	மே லி	-2.06814
-1.7316486	ஹொ லி	-1.5330268
-2.1033864	லே லி	-1.2107433
-1.9894416	சீ லி	-1.1808443
-2.3019834	னா லி	-1.4496896
-1.8202322	மை லி	-0.40189114
-1.7457309	ஹோ லி	-0.6701127
-1.9045749	ஹு லி	-1.1552356
-1.9094898	ஹீ லி	-0.21067122
-1.4662342	ரெ லி	-1.6787212
-2.0763981	ஷ லி	-0.21067122
-1.5214309	வே லி	-1.1295985
-1.7080734	யூ லி	-1.1808443
-2.0341594	லெ லி	-0.93772835
-2.0072253	லொ லி	-1.1808443
-1.8421069	பூ லி	-0.96962065
-2.3372867	ண லி	-0.78279525
-2.096339	மீ லி	-1.1808443
-1.9774117	ளா லி	-0.21067122
-0.3702714	""ி லி	-0.21067122
-1.6983161	நீ லி	-1.1808443
-1.7832444	ஸெ லி	-0.21067122
-1.9342998	செ லி	-1.2899888
-1.951672	ஸா லி	-1.1808443
-0.8783974	ஜி லி	-1.7671101
-1.8429307	ஜு லி	-1.1808443
-0.04758495	‎ி லி	-1.9791989
-1.1793661	பௌ லி	-1.1808443
-1.7860594	ணா லி	-1.0347162
-1.8910726	நே லி	-1.1808443
-1.9190603	மூ லி	-0.21067122
-0.882581	ஷி லி	-1.2899888
-1.2821467	னெ லி	-1.28996
-0.87806094	பொ லி	-1.9692147
-1.8874991	டெ லி	-0.8558265
-1.5177531	டொ லி	-0.87078154
-1.5329345	போ லி	-0.87078154
-0.69447607	ழி லி	-2.4076283
-1.6313355	யெ லி	-0.48176524
-0.05095061	‍ி லி	-1.8128675
-0.08857406	'ி லி	-1.6144998
-0.29813853	Lி லி	-0.40189114
-1.7251589	பை லி	-1.1808443
-0.3702714	னி.ி லி	-0.8128675
-1.5881481	ஜூ லி	-1.1808443
-0.3702714	யாி லி	-0.21067122
-0.3702714	ல.ி லி	-1.5398662
-0.3702714	ம.ி லி	-0.21067122
-0.29813853	எி லி	-1.0347162
-0.3702714	ர‍ி லி	-0.21067122
-0.3702714	வ‍ி லி	-0.93780625
-1.0444869	வொ லி	-0.21067122
-0.3702714	..ி லி	-0.40189114
-0.29813853	.ி லி	-0.40189114
-0.3702714	டூாி லி	-0.21067122
-0.11759473	ஏி லி	-1.2388363
-0.3702714	}ி லி	-0.21067122
-0.3702714	கை'ி லி	-0.21067122
-0.3702714	பீ.ி லி	-0.21067122
-0.3702714	காி லி	-0.21067122
-0.3702714	eellி லி	-0.21067122
-0.29813853	L..ி லி	-0.40189114
-0.3702714	"ி லி	-0.21067122
-0.3702714	\ி லி	-0.21067122
-0.3702714	''ி லி	-0.21067122
-0.3702714	சி.ி லி	-0.21067122
-0.3702714	ல...ி லி	-0.21067122
-0.3702714	டி.ி லி	-0.21067122
-0.3702714	ஈி லி	-0.21067122
-0.3702714	Yி லி	-0.21067122
-0.3702714	சீ.ி லி	-0.21067122
-0.3702714	ம்.ி லி	-0.21067122
-2.6486783	<s> ரு	-2.0839343
-1.4634361	மோ ரு	-1.0695418
-2.8463817	ர ரு	-0.98890424
-2.5419319	டி ரு	-1.3569356
-2.4743104	ய ரு	-1.2899888
-2.4712296	யி ரு	-3.4840784
-1.2716392	லி ரு	-4.7919984
-2.685588	ரு ரு	-1.1808443
-1.4313077	து ரு	-1.9670664
-2.3367298	வி ரு	-1.3821251
-2.1078491	ட ரு	-1.1907742
-1.8152251	யு ரு	-1.1612803
-2.4552007	க் ரு	-1.0347162
-1.3928127	கு ரு	-2.0391507
-2.2084806	வ ரு	-1.5011795
-2.8161967	ல் ரு	-1.1808443
-1.8509357	கி ரு	-1.5504593
-2.198054	யா ரு	-1.6974741
-1.4009827	தெ ரு	-2.044167
-2.7114217	னி ரு	-1.4818742
-2.7313511	ரி ரு	-0.48176524
-2.502503	ஸ் ரு	-1.4697858
-1.8055897	மா ரு	-1.5829009
-2.810096	த் ரு	-1.1808443
-2.1261256	க ரு	-1.6562861
-2.5091915	லு ரு	-0.86943537
-1.025592	ஆ ரு	-2.4429562
-2.1040456	சி ரு	-1.1272285
-2.7799318	கொ ரு	-0.5753918
-2.3082829	டோ ரு	-0.21067122
-2.2925508	டு ரு	-1.0903877
-1.1879922	பு ரு	-2.0946581
-2.0142946	தி ரு	-1.83233
-1.6913486	ச ரு	-1.0587721
-1.7701865	த ரு	-2.0328462
-2.802953	ன் ரு	-1.305783
-1.2227314	ஒ ரு	-2.4815867
-2.46731	ரோ ரு	-0.21067122
-1.4795368	போ ரு	-1.7455493
-1.8969891	பே ரு	-1.5690244
-2.7777214	வெ ரு	-1.3569356
-1.763566	வு ரு	-1.4496291
-2.8346508	ல ரு	-1.1808443
-2.3972054	தே ரு	-0.21067122
-2.6541617	வா ரு	-1.3569356
-2.5637655	மி ரு	-1.1808443
-2.26035	ம ரு	-1.4010847
-1.6494944	மு ரு	-1.83233
-2.14484	பொ ரு	-1.559761
-2.19385	தோ ரு	-0.64390165
-2.5350988	ட் ரு	-1.1202995
-2.335398	னு ரு	-1.7249123
-2.0908108	ப ரு	-1.3674536
-2.020814	உ ரு	-1.3804166
-1.6430895	தொ ரு	-1.1648256
-2.4304392	எ ரு	-1.2679945
-2.3966432	இ ரு	-1.377139
-2.3999348	பி ரு	-0.6523215
-2.399611	வ் ரு	-1.1808443
-2.1151006	ரே ரு	-1.2388363
-2.7320302	ன ரு	-1.2117002
-1.7680665	னோ ரு	-1.8436022
-2.4348605	லா ரு	-0.40189114
-2.568965	வீ ரு	-0.21067122
-1.8074327	ஹ ரு	-1.5052948
-2.1835546	ஹே ரு	-1.1138974
-1.701785	பா ரு	-1.0968223
-2.4456806	லோ ரு	-0.48176524
-2.0326583	சா ரு	-0.8128675
-2.2518704	ஸ ரு	-0.40189114
-2.0838816	ஸு ரு	-1.1808443
-1.9955343	கெ ரு	-0.8298136
-1.5594159	ஹெ ரு	-1.3382766
-2.5737042	கோ ரு	-1.1808443
-2.0329628	ஓ ரு	-0.6158729
-1.9881381	ஷா ரு	-0.21067122
-2.0422547	பெ ரு	-1.2063881
-1.7823735	மொ ரு	-1.2421819
-1.9372593	டா ரு	-1.2899888
-1.9430313	கா ரு	-1.1533282
-2.1098866	தொ ரு	-0.21067122
-2.1604764	னே ரு	-0.6928324
-1.9064119	ஸே ரு	-1.1808443
-1.1495633	அ ரு	-2.045354
-2.2840614	ணு ரு	-1.1808443
-2.1787279	மெ ரு	-1.1808443
-1.9837928	சு ரு	-1.2577846
-2.4970796	ப் ரு	-0.98890424
-2.2880921	சே ரு	-1.4616709
-2.2477272	றி ரு	-1.1808443
-2.0440009	ழ் ரு	-1.1808443
-2.197412	ஹா ரு	-0.8128675
-1.9993227	ஹி ரு	-1.0976694
-2.2934844	டே ரு	-0.48176524
-2.3267758	தா ரு	-1.1138974
-2.475512	மே ரு	-0.21067122
-2.092758	ஹொ ரு	-1.1808443
-2.521833	னா ரு	-0.48176524
-1.3700795	ஹு ரு	-1.3134309
-1.9594574	ஹீ ரு	-1.6579655
-2.1393988	ஷ ரு	-0.21067122
-2.1336331	வே ரு	-0.80351603
-2.150478	தூ ரு	-0.87078154
-2.0646095	லொ ரு	-1.1808443
-2.2017004	பூ ரு	-1.1437829
-2.4078188	ண ரு	-1.1808443
-1.8283373	வூ ரு	-0.8128675
-1.6881281	வொ ரு	-1.1808443
-2.2939622	செ ரு	-1.1808443
-1.4649979	யொ ரு	-1.1808443
-1.0506698	ஊ ரு	-1.5770319
-2.0091302	ஸா ரு	-0.40189114
-1.879367	ஜு ரு	-1.1808443
-1.1896638	பௌ ரு	-0.48176524
-2.0456316	நு ரு	-1.4818742
-1.6483084	நே ரு	-0.7036321
-1.9650342	மூ ரு	-0.40189114
-1.0218406	னொ ரு	-1.6579655
-1.3889494	சொ ரு	-1.1808443
-2.0498524	பொ ரு	-1.1808443
-2.2538538	டெ ரு	-1.4818742
-1.8479202	போ ரு	-1.3569356
-0.88349354	கூ ரு	-1.1675537
-2.240417	தீ ரு	-1.1808443
-1.9582824	லீ ரு	-1.1808443
-1.4250509	நோ ரு	-0.6928324
-1.57317	லூ ரு	-0.4370891
-1.5904002	நொ ரு	-1.0559056
-1.190396	னூ ரு	-0.40189114
-1.3308378	போ‍ ரு	-0.21067122
-0.371878	ணொ ரு	-0.48176524
-1.8652308	ர ந்	-1.9783007
-2.4771075	கே ந்	-1.5488211
-2.7735424	டி ந்	-0.7036321
-1.9051052	ய ந்	-2.105939
-2.788709	யி ந்	-0.9588865
-1.6916816	லி ந்	-2.0559056
-2.1060271	ரு ந்	-4.099204
-2.4415	து ந்	-1.5610555
-2.1836967	வி ந்	-1.4026476
-2.4617028	ட ந்	-1.5910188
-2.2264156	கு ந்	-1.6927277
-2.089891	வ ந்	-2.07395
-2.2939796	நா ந்	-1.402693
-1.7472401	கி ந்	-1.9405122
-2.7107964	யா ந்	-1.6579655
-2.601685	தெ ந்	-1.1808443
-2.5926588	னி ந்	-0.8127896
-2.1601412	ரி ந்	-2.1870046
-2.1874807	மா ந்	-1.5330268
-1.4921948	க ந்	-3.0610504
-2.1822612	லு ந்	-1.4818742
-2.3018801	ஆ ந்	-1.8498511
-2.1184404	சி ந்	-1.4708244
-2.588325	கொ ந்	-1.5488211
-2.6981852	டு ந்	-1.1808443
-2.6636527	பு ந்	-1.1808443
-1.663365	ள ந்	-1.6579655
-2.6650996	ங் ந்	-0.48176524
-1.7599896	ளி ந்	-1.2777543
-2.4932256	ளு ந்	-1.1808443
-2.6526148	தி ந்	-1.4818742
-1.1337216	ச ந்	-2.7268171
-2.340534	த ந்	-1.6675087
-2.9966831	ன் ந்	-1.1808443
-2.285751	ரோ ந்	-1.6579655
-2.596575	போ ந்	-1.1808443
-2.4413004	வெ ந்	-1.6579407
-2.444081	வு ந்	-1.7249123
-1.526506	ல ந்	-2.410643
-2.505187	வா ந்	-1.5787842
-2.3669116	மி ந்	-1.7249123
-2.0240052	ம ந்	-1.8901622
-2.309577	மு ந்	-1.921207
-2.8236043	பொ ந்	-1.1808443
-2.1846795	நெ ந்	-1.8798143
-1.889034	ப ந்	-1.8315096
-2.5156283	உ ந்	-1.7829043
-2.2128258	எ ந்	-1.5972203
-1.7653416	இ ந்	-2.338452
-2.3049111	பி ந்	-1.8650911
-2.155651	நி ந்	-1.5117596
-1.7246015	ரே ந்	-1.7200716
-1.7612741	ன ந்	-2.4952383
-1.9498694	லா ந்	-1.4496896
-1.5554798	ஹ ந்	-2.3325763
-2.193534	ஹே ந்	-1.4361168
-2.6026785	பா ந்	-1.8575379
-1.5585874	சா ந்	-2.1808443
-1.5479527	ஜ ந்	-1.523267
-1.9615886	ஸி ந்	-1.1808443
-1.8963208	ஸ ந்	-1.284343
-2.099134	ஸு ந்	-1.1808443
-1.8304639	கெ ந்	-2.30306
-2.4367895	ஹெ ந்	-1.973236
-2.1627476	ஏ ந்	-1.1808443
-2.6150813	கோ ந்	-1.1808443
-2.722089	கொ ந்	-1.1808443
-1.4013143	ந ந்	-2.072939
-2.5069718	ரா ந்	-2.2600255
-1.4036819	ஷா ந்	-1.9096997
-1.4425584	பெ ந்	-2.0461457
-1.8024588	றா ந்	-1.1808443
-2.4858096	டா ந்	-1.4818742
-1.9339231	ழு ந்	-0.93772835
-2.3878589	கா ந்	-1.921207
-2.0924978	னே ந்	-1.3569356
-1.7129903	அ ந்	-1.9691758
-2.4402223	ற ந்	-1.1808443
-2.1996026	மெ ந்	-1.2777543
-1.687038	சு ந்	-2.0839343
-1.8031172	றோ ந்	-1.1808443
-2.378803	று ந்	-1.5735805
-2.151322	ஹா ந்	-1.3569356
-1.4752686	ஹி ந்	-2.2436352
-2.4226267	தா ந்	-1.4818742
-2.310672	மே ந்	-0.7036321
-1.7759155	ஹொ ந்	-1.7829043
-1.9176848	ழ ந்	-0.5859097
-2.064828	லே ந்	-1.0806168
-2.0362797	னா ந்	-2.065451
-2.1416025	ஹோ ந்	-1.1808443
-2.2729435	ஹு ந்	-1.6579655
-1.9816802	ஹீ ந்	-1.1808443
-1.7353054	ரெ ந்	-1.6280023
-2.2354548	வே ந்	-1.305783
-1.6038065	லெ ந்	-1.4496896
-1.9825995	பூ ந்	-1.1808443
-2.2142644	ண ந்	-1.8340569
-2.0659082	ளா ந்	-1.1808443
-1.8413342	வூ ந்	-1.1808443
-1.4171376	ஸெ ந்	-1.402693
-1.604968	ரொ ந்	-1.7829043
-1.6339356	செ ந்	-1.3334258
-1.7693894	ஸா ந்	-1.3569356
-2.0788622	ஜி ந்	-1.8498511
-2.1718903	ணா ந்	-1.8798143
-1.9545523	நே ந்	-1.1808443
-1.3768568	ஐ ந்	-1.7829043
-1.3947767	சொ ந்	-1.4818742
-2.3394384	பொ ந்	-1.1808443
-2.281879	டெ ந்	-1.1808443
-1.3752726	ங ந்	-1.1808443
-0.372537	ணா் ந்	-1.1808443
-2.1250527	<s> து	-2.0515018
-2.0749724	ர து	-1.646871
-2.598194	கே து	-1.4818742
-2.209605	டி து	-1.6579655
-2.272745	ய து	-1.1203753
-2.752916	யி து	-0.6928324
-2.1870291	லி து	-1.5551062
-2.251411	ரு து	-1.4394983
-0.84442043	ந் து	-3.222333
-2.8119383	து து	-1.1808443
-2.2760098	வி து	-1.5279336
-2.070838	ட து	-1.5271661
-2.3721204	ம் து	-0.97665614
-2.769933	க் து	-1.1808443
-2.4679446	கு து	-1.0606428
-1.7518041	வ து	-2.0111914
-2.1273391	ல் து	-1.4525115
-1.6733811	நா து	-1.2401022
-1.7753131	கி து	-1.9832922
-2.616152	யா து	-1.0346384
-2.5696309	தெ து	-1.319147
-2.058414	னி து	-1.037921
-2.219118	ரி து	-0.7232944
-2.1446848	ஸ் து	-1.6859943
-1.8055897	மா து	-1.2551312
-1.096816	த் து	-2.3574972
-2.2058043	தை து	-1.1808443
-2.0244544	க து	-1.7622515
-2.5091915	லு து	-0.80351603
-2.4693503	ஆ து	-1.1808443
-2.3713055	சி து	-1.0897049
-2.7176933	கொ து	-0.8558265
-2.4454234	டு து	-1.1807837
-1.8203425	பு து	-1.5494796
-2.3792317	ங் து	-0.85626143
-2.1479769	ளி து	-0.8127896
-2.2563558	ளு து	-0.76859355
-2.5613756	தி து	-0.8797234
-1.9778761	ச து	-1.3946745
-2.2766263	த து	-1.3056546
-1.8326807	ன் து	-1.5810214
-2.4474585	ஒ து	-1.4818742
-2.180813	ரோ து	-1.0347162
-1.9687855	போ து	-0.83052814
-2.281277	பே து	-1.5488211
-2.5463088	வெ து	-1.8798143
-2.3962333	வோ து	-0.21067122
-2.1776567	வு து	-1.1808443
-2.0102143	ல து	-1.650456
-2.230451	தே து	-1.5787842
-2.230227	வா து	-1.1727467
-1.7772614	மி து	-1.1096714
-1.9213805	ம து	-1.7508967
-1.4994638	மு து	-1.6569669
-1.4333618	பொ து	-1.4781594
-2.5176687	தோ து	-1.1808443
-1.9220768	நெ து	-1.5425177
-2.335398	னு து	-1.1808443
-1.7017897	ப து	-1.5907316
-2.4080043	ள் து	-0.48176524
-1.7136341	உ து	-1.3659916
-2.4304392	எ து	-1.7644209
-2.4697208	இ து	-1.5118375
-2.2014546	பி து	-1.5866096
-2.135695	நி து	-1.0346384
-2.399611	வ் து	-0.48176524
-2.1924925	ரே து	-1.7829043
-2.0915418	ன து	-1.4230511
-1.876574	லா து	-1.4361168
-2.263248	வீ து	-0.93780625
-1.895843	ய் து	-1.6579655
-1.9424227	ஹ து	-1.5259053
-2.565143	ஹே து	-1.1437829
-1.6400857	பா து	-1.5828555
-2.1108646	சா து	-1.305783
-1.9127939	ஜ து	-0.95892286
-2.4248528	ஸ து	-1.3569356
-2.0838816	ஸு து	-1.7829043
-2.189002	கெ து	-0.83299303
-2.65524	ஹெ து	-1.1808443
-2.133298	ஏ து	-0.8127896
-2.4075687	கோ து	-1.5787842
-2.3337271	ந து	-1.4238824
-2.27588	ஓ து	-1.1808443
-2.1376672	ரா து	-1.2600255
-1.7150353	ஷா து	-1.1808443
-1.9037842	பெ து	-1.4679842
-2.1118832	ற் து	-1.4818742
-1.6884174	ண் து	-1.0902164
-2.2854388	டா து	-1.0253648
-2.264262	ழு து	-1.4818742
-2.1244473	கை து	-1.1808443
-2.0439465	கா து	-1.1186347
-1.9064119	ஸே து	-1.1808443
-1.5083917	அ து	-1.5448836
-2.1649292	ற து	-0.8127896
-2.2840614	ணு து	-0.48176524
-1.979662	ஜா து	-1.1808443
-1.2494922	மெ து	-1.6144998
-2.0630636	சு து	-1.7076533
-2.4970796	ப் து	-2.2020335
-2.065549	சே து	-1.1808443
-2.2477272	றி து	-1.1808443
-2.129774	று து	-1.1808443
-2.0440009	ழ் து	-1.1808443
-2.3589835	ஹா து	-1.1808443
-1.9993227	ஹி து	-1.16505
-2.3267758	தா து	-1.2600255
-2.23713	ர் து	-1.2117002
-2.475512	மே து	-1.1808443
-1.8989577	ழ து	-1.7829043
-2.5558362	லே து	-1.1808443
-1.5160623	சீ து	-1.6280023
-2.0230303	னா து	-0.7570219
-2.0284808	ஹு து	-1.3569356
-2.322982	ரெ து	-1.1808443
-1.9013902	ஜே து	-1.4818742
-1.792401	சூ து	-1.1808443
-2.3461585	லெ து	-1.1808443
-2.1946511	ண து	-1.1808054
-1.9396831	மீ து	-0.97665614
-1.7961972	ரொ து	-0.8128675
-2.0534017	ஜி து	-1.1808443
-2.1419005	ணா து	-1.1808443
-2.0773158	றை து	-0.21067122
-1.9351478	நே து	-1.1808443
-1.9650342	மூ து	-1.4818742
-1.6313306	ஷி து	-0.40189114
-1.3308167	பொ து	-1.2995341
-1.7103591	றே து	-1.1808443
-1.6249985	மொ து	-0.21067122
-1.884411	<s> வி	-2.1665099
-2.3349893	மோ வி	-1.1808443
-1.4276047	ர வி	-2.365118
-1.7883506	கே வி	-0.92320824
-1.7424585	டி வி	-1.3081825
-1.1498401	ய வி	-2.5290499
-2.6150625	யி வி	-0.37909716
-2.0330284	லி வி	-1.5117868
-1.210717	ரு வி	-1.5297204
-2.42324	ந் வி	-1.4238824
-1.4310977	து வி	-1.8402584
-2.1810567	வி வி	-1.4412564
-1.2638525	ட வி	-2.39489
-2.109039	ம் வி	-1.3804166
-1.9945008	யோ வி	-1.1726508
-2.1425273	க் வி	-1.1285197
-2.1040251	கு வி	-1.5213828
-1.4035704	வ வி	-3.032425
-1.8774177	ரை வி	-0.8558265
-1.8113126	ல் வி	-1.8158247
-1.9680773	நா வி	-1.2286474
-2.1492193	கி வி	-0.95479447
-1.6823125	யா வி	-1.8257823
-1.9256357	தெ வி	-1.1981697
-1.958084	னி வி	-0.94386876
-1.7799352	ரி வி	-1.8159586
-1.8919897	ஸ் வி	-1.482454
-1.8582444	மா வி	-1.4593737
-2.2920473	த் வி	-1.2129871
-2.0769086	தை வி	-1.1808443
-1.6362855	க வி	-2.1618013
-1.2329806	லு வி	-1.9092507
-2.138295	சி வி	-1.247791
-1.8455954	கொ வி	-1.4818248
-1.5768573	டோ வி	-1.559391
-1.3010035	டு வி	-2.239142
-1.8255028	பு வி	-1.4605728
-1.149231	ள வி	-1.8013835
-2.0374923	ங் வி	-1.6280023
-2.2110426	ளி வி	-1.2056037
-1.8020087	ளோ வி	-1.1808443
-1.0626497	ளு வி	-1.5068145
-1.9742591	தி வி	-1.4862756
-1.4014117	ச வி	-1.6418141
-1.4626919	த வி	-2.5449257
-1.906964	ன் வி	-1.8530719
-1.6706432	ஒ வி	-1.5329927
-1.8264227	ரோ வி	-1.4089533
-1.4897811	போ வி	-1.7601612
-1.6220999	பே வி	-1.4268267
-1.1617911	வெ வி	-2.209362
-2.0799994	வோ வி	-1.4818742
-2.3049219	வு வி	-0.40189114
-1.3480299	ல வி	-2.7654681
-1.2923989	தே வி	-1.2255914
-1.3600733	வா வி	-1.5468484
-2.2908623	மி வி	-1.1808443
-1.3015982	ம வி	-2.93832
-1.7883945	மு வி	-2.9682035
-2.6327085	பொ வி	-0.48176524
-1.526621	தோ வி	-1.0220492
-1.4658313	நெ வி	-1.3134699
-2.2136738	ட் வி	-1.0346012
-1.3893447	னு வி	-1.5669905
-1.3936994	ப வி	-2.1856658
-2.2893364	ள் வி	-1.1808443
-2.1957448	தொ வி	-0.93780625
-2.0231462	எ வி	-1.2010477
-2.3313925	லை வி	-1.6579655
-2.2230825	பி வி	-1.1920966
-2.2205665	நி வி	-1.6579655
-1.1957446	வ் வி	-2.06814
-1.6066002	ரே வி	-0.76932395
-1.204229	ன வி	-2.5841284
-1.7410421	னோ வி	-0.793844
-1.44168	லா வி	-1.5300746
-1.9900115	டை வி	-1.1808443
-2.025419	வீ வி	-1.1808443
-2.0303955	ய் வி	-0.37909716
-1.6595584	ஹ வி	-1.9478745
-2.465369	ஹே வி	-0.8128675
-1.8643018	பா வி	-1.4633908
-1.5800046	லோ வி	-1.4238142
-1.5958984	சா வி	-1.3696088
-1.292454	ஜ வி	-1.3269724
-0.8981768	ஸ வி	-1.9895874
-1.9930155	ஸோ வி	-1.1808443
-2.0711932	கெ வி	-1.3881032
-2.5014694	ஹெ வி	-0.21067122
-1.2627952	ஏ வி	-1.377139
-1.4437178	கோ வி	-1.7514133
-1.7113388	ந வி	-0.8446819
-1.7365572	ளே வி	-0.21067122
-1.3908128	ஓ வி	-1.7706699
-1.3845224	ரா வி	-1.7714252
-1.5722655	ஷா வி	-0.98890424
-1.9248586	பெ வி	-1.4818742
-1.4480139	றா வி	-0.40189114
-2.185175	ணி வி	-0.7036321
-2.1066444	ண் வி	-1.3849642
-1.4224215	டா வி	-1.3538932
-1.0303855	ழு வி	-1.5118375
-1.4879287	கா வி	-1.5581375
-1.3313853	னே வி	-1.5532302
-1.8269224	ஸே வி	-0.40189114
-2.0217474	அ வி	-1.7671101
-1.1846905	ற வி	-2.3440638
-1.4321048	ணு வி	-1.3136525
-1.5784256	ஜா வி	-1.0890739
-1.9010388	சு வி	-1.1227841
-1.3746612	சே வி	-1.5849446
-1.4806161	சோ வி	-0.99746233
-1.9513541	றி வி	-1.0258878
-1.3375531	று வி	-1.4496896
-2.4042706	கீ வி	-1.1808443
-1.738145	ழ் வி	-1.2600255
-1.5240428	ஹா வி	-2.1337059
-2.3461719	ஹி வி	-1.1808443
-1.4778346	டே வி	-1.9323434
-1.4007939	தா வி	-1.7711128
-1.9799905	ரீ வி	-1.8040936
-1.774646	ர் வி	-1.3568714
-1.7847115	ஹொ வி	-0.7066795
-0.93089986	ழ வி	-2.4076283
-1.5779924	லே வி	-1.444345
-1.2923644	னா வி	-1.6119527
-1.8026758	ஹோ வி	-0.7036321
-1.8715217	ஹு வி	-1.3357463
-1.8675948	ஹீ வி	-1.1808443
-1.9633995	ரெ வி	-0.93780625
-1.1932464	ஷ வி	-1.2899888
-1.4616423	வே வி	-1.06061
-1.4779031	ஜே வி	-1.3569356
-0.73702896	தூ வி	-2.3810692
-2.1663806	ளை வி	-0.21067122
-1.6777569	யூ வி	-1.1808443
-1.5678673	லெ வி	-0.97965056
-1.4721471	லிஓ வி	-1.1808443
-1.748994	லொ வி	-0.40189114
-2.0850902	பூ வி	-0.40189114
-1.0836194	ண வி	-1.8323226
-2.041185	மீ வி	-1.4818742
-1.6443948	ளா வி	-0.7616241
-0.94794655	"" வி	-0.21067122
-1.7509565	ஸெ வி	-0.21067122
-2.0030575	ரொ வி	-1.1808443
-2.1773953	செ வி	-1.1808443
-1.8483561	ஊ வி	-0.8128675
-1.6775079	ஈ வி	-0.87078154
-1.1872907	ல்ஓ வி	-1.3269724
-1.4183685	ஸா வி	-1.4268267
-1.9499805	ஜி வி	-0.48176524
-0.73552597	‎ வி	-1.9791989
-1.209645	ணா வி	-1.0594757
-1.6317886	நு வி	-0.8558265
-1.9992442	றை வி	-1.6579655
-1.1692381	சி. வி	-0.21067122
-1.371094	டி. வி	-0.21067122
-1.5084497	நே வி	-0.8558265
-1.6342685	ஐ வி	-1.1808443
-1.4230353	ணே வி	-0.40189114
-1.7160102	ரூ வி	-0.40189114
-1.5078689	.. வி	-0.96962065
-1.1817061	. வி	-0.8558265
-1.7889344	னெ வி	-1.6579655
-2.1415496	டெ வி	-0.40189114
-1.6578126	ஷ் வி	-1.1808443
-1.4158959	போ வி	-0.804674
-1.4268205	ஹொ வி	-0.48176524
-1.1480259	தீ வி	-1.252132
-1.338134	ஸீ வி	-1.4818742
-1.6729138	நோ வி	-0.21067122
-0.67113674	‍ வி	-1.8128675
-0.36877966	ச்ஓ வி	-1.1808443
-1.3675319	கோ வி	-1.4818742
-1.9160894	ணை வி	-0.37909716
-1.1113541	ஜே. வி	-1.4818742
-1.3399203	பீ. வி	-0.21067122
-1.0268804	' வி	-1.6144998
-0.8821856	L வி	-0.40189114
-1.5269858	லூ வி	-1.1808443
-1.6933385	பை வி	-1.8798143
-1.0374861	னி. வி	-0.8128675
-0.66204375	ஸ்ஓ வி	-1.1714928
-1.1692381	" வி	-0.21067122
-1.009027	தோ வி	-0.93780625
-1.1094198	சீ. வி	-0.21067122
-1.338134	ல. வி	-1.5398662
-1.2663097	ம். வி	-0.21067122
-1.2220888	ழா வி	-0.21067122
-0.36877966	டோ வி	-0.6928324
-0.94794655	ம. வி	-0.21067122
-1.1094198	ணெ வி	-0.21067122
-0.29704422	ஹிஓ வி	-0.80351603
-0.8796198	க்ஓ வி	-1.1808443
-0.92930466	ன்ஓ வி	-1.1808443
-0.9727532	L.. வி	-0.40189114
-1.3728604	கௌ வி	-0.21067122
-1.0374861	ர‍ வி	-0.21067122
-0.7631173	ங்ஓ வி	-1.1045461
-1.1692381	வ‍ வி	-0.93780625
-0.7610792	ளிஓ வி	-0.7036321
-0.66204375	டஓ வி	-0.7036321
-0.36877966	ணோ வி	-0.48176524
-0.36877966	டூா வி	-0.21067122
-0.94794655	} வி	-0.21067122
-1.0374861	\ வி	-0.21067122
-0.94794655	சௌ வி	-1.1808443
-0.94794655	கை' வி	-0.21067122
-0.9722407	டூ வி	-0.40189114
-0.94794655	eell வி	-0.21067122
-0.94794655	'' வி	-0.21067122
-0.36877966	யோ வி	-1.6579655
-1.1692381	ளெ வி	-0.21067122
-0.94794655	ல... வி	-0.21067122
-0.94794655	Y வி	-0.21067122
-2.868496	<s> ட	-1.7249123
-1.8646308	மோ ட	-1.1552356
-2.2857604	ர ட	-1.3003367
-1.9359096	கே ட	-0.8475387
-2.5850608	டி ட	-0.8280296
-2.3235774	ய ட	-1.4869685
-1.2433013	யி ட	-4.4237404
-2.7768533	லி ட	-1.1808443
-2.5435636	ரு ட	-0.31006753
-2.0411844	ந் ட	-1.0556648
-2.6357276	து ட	-1.0432619
-1.1403302	வி ட	-3.4386964
-2.6324883	ட ட	-0.48824164
-2.3647718	ம் ட	-1.2221825
-2.4045577	யோ ட	-1.1808443
-2.2607012	க் ட	-1.1649721
-2.0966275	கு ட	-1.7958342
-1.8428279	வ ட	-2.1415899
-1.887744	ல் ட	-1.8002784
-2.0534203	நா ட	-0.2774182
-2.5181897	கி ட	-1.0899074
-2.7941892	யா ட	-1.4818742
-2.5561104	தெ ட	-1.0236527
-2.4845335	னி ட	-1.2388363
-1.9197177	பீ ட	-1.1807665
-2.7116735	ரி ட	-1.1808443
-1.7519455	ஸ் ட	-1.7412207
-2.4678967	மா ட	-1.1808443
-2.6621857	த் ட	-1.1808443
-1.7815454	க ட	-1.9946845
-2.642747	லு ட	-1.1808443
-2.2681699	ஆ ட	-1.1808443
-2.089905	ச் ட	-1.1808443
-2.422708	சி ட	-1.3569356
-0.98258984	கொ ட	-2.603694
-2.0426385	டோ ட	-1.1808443
-2.7363412	பு ட	-1.4818742
-2.462936	ள ட	-1.8798143
-1.911159	ங் ட	-1.4218061
-1.8197964	ளோ ட	-1.1808443
-2.5476825	தி ட	-0.71005094
-2.5025892	ச ட	-1.305783
-2.3715734	த ட	-1.365665
-1.7073336	ன் ட	-1.5733318
-2.635743	ஒ ட	-1.1808443
-1.2504001	ரோ ட	-0.8585341
-2.0541627	போ ட	-1.128138
-2.5064657	பே ட	-0.48176524
-2.3314247	வெ ட	-1.3499564
-2.038412	வோ ட	-0.792565
-1.9591806	வு ட	-1.1627461
-2.6212962	ல ட	-0.8038352
-2.4609108	வா ட	-0.7950515
-2.396739	மி ட	-1.1718895
-1.5093924	ம ட	-1.927753
-2.746306	மு ட	-2.0259423
-1.6423104	பொ ட	-1.6794009
-1.5995284	தோ ட	-1.1982183
-2.1421614	நெ ட	-1.1808443
-1.0258425	ட் ட	-2.585959
-1.6039957	ப ட	-1.8816322
-1.0551105	உ ட	-2.0854576
-0.9644387	தொ ட	-2.1110582
-2.1892292	எ ட	-1.612208
-0.90541655	இ ட	-2.5016828
-1.6051507	பி ட	-1.7378894
-2.384254	வ் ட	-1.1808443
-2.36017	ரே ட	-1.1808443
-2.7662559	ன ட	-0.81278026
-1.97721	னோ ட	-0.7227956
-2.2789373	டை ட	-1.1808443
-1.2176218	வீ ட	-2.3471756
-2.5437355	ஹ ட	-1.7091181
-1.7225741	பா ட	-2.0119298
-1.6803457	லோ ட	-1.4148496
-2.2813542	சா ட	-1.1808443
-2.041097	ஸி ட	-1.1808443
-2.2405448	ஸ ட	-1.1808443
-1.607179	கெ ட	-1.667925
-2.1194837	ஹெ ட	-1.0980253
-1.8909645	ஏ ட	-1.1808443
-1.1446146	கோ ட	-1.5706801
-0.708017	கொ ட	-1.8316805
-2.0531578	ந ட	-1.0347162
-2.4544218	பெ ட	-0.6342521
-1.4440756	மொ ட	-1.3180175
-2.4604292	ணி ட	-0.37909716
-1.0278805	ண் ட	-1.6858019
-1.8581886	கா ட	-1.0946611
-0.9617384	தொ ட	-1.4282914
-2.0774715	அ ட	-1.4840381
-2.3727255	மெ ட	-1.247791
-2.237265	சு ட	-1.1808443
-1.7745199	ப் ட	-0.98384655
-2.4873285	கீ ட	-1.1808443
-2.1852865	ஹா ட	-0.7036321
-2.2679987	ஹி ட	-0.98890424
-2.2789516	டே ட	-0.21067122
-2.5149138	தா ட	-1.1808443
-2.0994723	ரீ ட	-1.4818742
-1.656652	ர் ட	-1.7648343
-2.0229115	மே ட	-1.0347162
-1.7567998	ஹொ ட	-0.7302543
-2.0400732	சீ ட	-1.1808443
-2.354663	னா ட	-1.0347162
-1.8626512	ஹோ ட	-0.78927165
-1.9499344	ஹீ ட	-1.1808443
-2.3080122	ரெ ட	-0.40189114
-2.1994328	வே ட	-1.1808443
-1.7365578	யூ ட	-0.21067122
-2.33037	லெ ட	-1.1808443
-2.0535963	லொ ட	-1.1808443
-2.1892898	பூ ட	-1.305783
-2.3331108	ண ட	-0.5876416
-1.9317557	மீ ட	-1.1808443
-1.1683962	வூ ட	-1.0347162
-1.3673639	வொ ட	-0.40189114
-1.4571427	ரொ ட	-1.191455
-2.0507674	செ ட	-0.40189114
-1.4616979	யொ ட	-1.1808443
-1.8920883	ஊ ட	-0.6928324
-1.7325757	ஈ ட	-1.1808443
-1.3495756	சை ட	-0.93780625
-1.5871425	றூ ட	-0.21067122
-2.0237725	ரூ ட	-0.21067122
-1.548211	.. ட	-1.1808443
-1.366232	னொ ட	-1.1808443
-2.0443647	பொ ட	-0.93780625
-1.7093966	ஷ் ட	-0.87078154
-1.7042904	றே ட	-1.1808443
-1.4790883	கூ ட	-1.0046622
-1.6198514	மொ ட	-0.21067122
-1.0507283	ட்‍ ட	-0.40189114
-1.1250911	சீ. ட	-1.1808443
-1.3659712	ங ட	-1.1808443
-1.5855867	நொ ட	-0.21067122
-1.0512404	பி் ட	-1.1808443
-1.2870678	ஸை ட	-0.40189114
-1.4837593	லஓ ட	-0.48176524
-2.6451354	<s> ம்	-2.0126803
-1.6326816	ர ம்	-2.2384288
-2.571316	கே ம்	-1.1808443
-2.5778756	டி ம்	-1.4818742
-1.852955	ய ம்	-2.1771522
-2.4594176	யி ம்	-1.4818742
-2.0650413	லி ம்	-1.6714458
-2.0263908	ரு ம்	-1.4818743
-1.6795995	து ம்	-1.9089495
-2.8849456	வி ம்	-1.1808443
-1.7367727	ட ம்	-3.2779748
-2.774795	ம் ம்	-1.1808443
-2.0152578	யு ம்	-1.1808443
-1.2055489	கு ம்	-2.7272694
-2.3752403	வ ம்	-1.7646283
-2.8397934	ல் ம்	-1.1808443
-2.234336	நா ம்	-1.6579655
-1.8073685	கி ம்	-2.0972981
-2.5979917	யா ம்	-1.7451158
-2.488491	தெ ம்	-1.8600702
-2.6843686	னி ம்	-1.1808443
-2.3954191	ரி ம்	-1.4605942
-2.761551	ஸ் ம்	-1.1808443
-2.0053203	மா ம்	-1.275211
-2.781672	த் ம்	-1.1808443
-1.9776506	தை ம்	-0.787953
-1.6018603	க ம்	-2.4929378
-1.6426601	லு ம்	-1.7601612
-1.7089685	ஆ ம்	-1.5986137
-2.3106635	ச் ம்	-1.1808443
-2.3541815	சி ம்	-1.1808443
-2.2273932	கொ ம்	-1.5999736
-1.8440155	டு ம்	-1.6280023
-1.6528994	ள ம்	-1.6003469
-2.0538104	ளி ம்	-1.305783
-1.674229	ளு ம்	-1.2173961
-2.1650817	தி ம்	-2.2367957
-2.104326	ச ம்	-1.9317322
-1.7018228	த ம்	-2.3641133
-2.9131145	ன் ம்	-0.21067122
-2.6285443	ஒ ம்	-1.1808443
-2.2502005	ரோ ம்	-1.1808443
-2.0512464	போ ம்	-1.6280023
-2.4982123	பே ம்	-1.1808443
-2.7593293	வெ ம்	-1.259971
-2.3799732	வோ ம்	-1.1808443
-2.3987527	வு ம்	-1.907843
-1.8606744	ல ம்	-2.0593095
-2.6248565	வா ம்	-0.48176524
-2.354809	ம ம்	-2.3575714
-2.2852201	மு ம்	-1.0347162
-2.758854	பொ ம்	-1.3569356
-2.1847959	தோ ம்	-0.90457374
-1.9109584	நெ ம்	-1.4818742
-2.3202162	னு ம்	-1.1808443
-2.2411232	ப ம்	-2.0492735
-2.456307	உ ம்	-1.402693
-1.606258	தொ ம்	-2.110263
-1.6878092	எ ம்	-1.782874
-2.443731	லை ம்	-1.1808443
-1.7567754	இ ம்	-2.4503572
-2.1932654	பி ம்	-1.5166364
-2.3292792	நி ம்	-1.1808443
-2.3523552	ரே ம்	-1.6579655
-1.8220434	ன ம்	-1.7118253
-2.2048857	லா ம்	-1.5532302
-1.7011466	ஹ ம்	-1.6906862
-2.1770267	ஹே ம்	-0.7796922
-2.051981	பா ம்	-1.3804166
-2.2020943	லோ ம்	-1.1808443
-2.273622	சா ம்	-1.1808443
-1.6840427	ஜ ம்	-2.110263
-1.8777469	ஸ ம்	-1.523267
-1.6637635	ஸு ம்	-1.2777543
-2.5297043	கெ ம்	-1.6402149
-1.825699	ஹெ ம்	-1.4200671
-2.114719	ஏ ம்	-1.1808443
-2.3208287	கோ ம்	-1.2474992
-2.4375103	கொ ம்	-1.1808443
-2.0490417	ந ம்	-1.8620856
-2.129052	ரா ம்	-1.0346773
-1.8434308	பெ ம்	-1.5966777
-1.7757407	றா ம்	-1.0123717
-2.0438418	டா ம்	-1.4412428
-1.7113051	ழு ம்	-2.3758209
-2.5396607	கா ம்	-1.2845937
-1.8134717	தொ ம்	-1.1015722
-2.3482869	னே ம்	-1.1808443
-1.3337033	அ ம்	-2.5584629
-1.535101	ற ம்	-2.0817127
-1.7956901	சு ம்	-1.3405452
-2.0324306	று ம்	-1.1004984
-1.5709608	கீ ம்	-2.2600255
-2.1793485	ஹா ம்	-0.6366672
-1.7610345	ஹி ம்	-1.74928
-2.2718635	டே ம்	-1.402693
-2.3094008	தா ம்	-1.402693
-1.8121396	ரீ ம்	-1.0695418
-2.415383	ர் ம்	-1.1808443
-1.7539322	ஹொ ம்	-2.013353
-1.8869072	ழ ம்	-1.6068131
-2.034147	சீ ம்	-1.1808443
-2.348484	னா ம்	-1.1808443
-1.56519	ஹோ ம்	-1.244766
-1.9322424	ஹு ம்	-1.356881
-1.6790202	ஹீ ம்	-1.1808443
-2.108729	ரெ ம்	-1.1808443
-2.367164	வே ம்	-1.305783
-2.353389	னை ம்	-0.21067122
-0.9548441	ஜே ம்	-1.5252252
-1.5930283	லெ ம்	-1.5330268
-1.2565321	லொ ம்	-1.5398662
-2.183215	பூ ம்	-1.4818742
-2.0734022	ண ம்	-1.0516951
-1.8198838	வூ ம்	-1.1808443
-1.679754	வொ ம்	-1.1808443
-2.1024718	ரொ ம்	-1.5787842
-1.9568663	செ ம்	-1.5488211
-1.4600573	யொ ம்	-1.4818742
-1.4624431	ஜு ம்	-2.0259423
-2.1229997	ணா ம்	-1.1808443
-2.0920844	ஜ் ம்	-1.1808443
-1.3668238	ஐ ம்	-1.3569356
-1.7655542	ரூ ம்	-0.77137566
-1.7540843	ஜெ ம்	-1.1808443
-2.0913508	னெ ம்	-1.6579655
-2.3008606	பொ ம்	-1.6579655
-1.3838062	டெ ம்	-1.5883297
-1.288401	றீ ம்	-1.1808443
-1.7012875	றே ம்	-1.1808443
-1.1409657	கூ ம்	-1.3569356
-1.6843699	லீ ம்	-0.9869969
-1.6660805	ஜீ ம்	-1.1808443
-1.6064315	ஜூ ம்	-1.7829043
-1.244823	ஞ ம்	-1.4818742
-1.3645577	ங ம்	-1.1808443
-1.5831997	நொ ம்	-1.4818742
-1.1242629	ளொ ம்	-1.1808443
-1.1242629	ஹூ ம்	-1.1808443
-1.1876254	ஷெ ம்	-1.1808443
-0.37143928	லு் ம்	-1.1808443
-0.37143928	ழொ ம்	-1.1808443
-0.37143928	ஞு ம்	-1.1808443
-3.1628048	<s> யோ	-1.6579655
-2.2615724	ர யோ	-2.1350868
-1.329958	டி யோ	-3.3146112
-2.4049954	ய யோ	-1.1138974
-2.770444	யி யோ	-1.1808443
-1.3623135	லி யோ	-1.6991377
-2.708653	ரு யோ	-0.21067122
-2.0278366	வி யோ	-2.0433164
-2.5449183	ட யோ	-0.93780625
-2.6946208	ம் யோ	-1.0347162
-2.4242353	யோ யோ	-0.21067122
-2.7934263	க் யோ	-0.21067122
-1.0634993	ரை யோ	-2.076109
-2.9909043	ல் யோ	-0.21067122
-1.8543425	கி யோ	-1.4496896
-1.1375003	யா யோ	-3.0753186
-2.5853622	தெ யோ	-1.1138974
-1.31096	னி யோ	-2.9126632
-1.3309634	ரி யோ	-2.31347
-2.635557	மா யோ	-0.21067122
-1.215606	தை யோ	-3.908037
-2.577557	க யோ	-1.4818742
-2.48757	ஆ யோ	-1.1808443
-1.7306912	சி யோ	-1.4149275
-2.7316103	கொ யோ	-0.8128675
-1.2669256	ளி யோ	-1.9889588
-1.6488115	தி யோ	-3.4953134
-2.6734638	ச யோ	-1.0347162
-2.4514968	த யோ	-2.2079024
-2.8691103	ன் யோ	-0.40189114
-1.1192157	ஒ யோ	-2.2548244
-2.5742056	போ யோ	-0.21067122
-2.4088407	வோ யோ	-0.21067122
-2.5016034	ல யோ	-1.2388363
-2.0810416	வா யோ	-1.4496896
-1.8372227	மி யோ	-1.5910188
-2.5158098	ம யோ	-1.9268109
-2.5323787	தோ யோ	-0.21067122
-2.5435524	னு யோ	-0.21067122
-2.510545	ப யோ	-1.1486596
-0.9966998	லை யோ	-2.8381734
-2.015072	பி யோ	-1.706814
-2.3663533	நி யோ	-1.1808443
-2.417563	வ் யோ	-1.1808443
-2.2107792	ன யோ	-1.756252
-2.088121	னோ யோ	-0.40189114
-1.0546975	டை யோ	-3.0575569
-2.5849168	வீ யோ	-0.21067122
-2.1546233	ய் யோ	-1.4818742
-2.5790646	ஹ யோ	-0.87078154
-1.971508	பா யோ	-1.5661951
-1.7892618	லோ யோ	-1.6781689
-2.315845	சா யோ	-1.1808443
-2.1010158	ஜ யோ	-0.93780625
-2.3139935	ஸி யோ	-0.21067122
-2.444517	ஸ யோ	-0.21067122
-2.4212425	கோ யோ	-1.1808443
-2.153054	ந யோ	-0.93780625
-1.0594274	ஓ யோ	-1.6367762
-2.1442428	ரா யோ	-1.1138974
-1.2501428	ணி யோ	-2.9356294
-1.1417055	கை யோ	-3.0475535
-2.7090278	கா யோ	-0.21067122
-1.1913569	ழை யோ	-0.21067122
-2.5837142	அ யோ	-1.1808443
-2.4187508	ற யோ	-0.21067122
-1.4496374	றி யோ	-1.7336862
-2.37953	ஹா யோ	-0.21067122
-2.0057166	ஹி யோ	-1.6144998
-2.4939153	மே யோ	-0.93780625
-2.5429122	னா யோ	-0.21067122
-1.1956534	மை யோ	-2.3569355
-1.9081862	ஷ யோ	-0.40189114
-0.9114795	னை யோ	-2.5687423
-0.8822396	வை யோ	-2.422106
-0.96781886	ளை யோ	-2.36513
-1.0614731	லிஓ யோ	-1.0347162
-2.2043471	ண யோ	-1.4149275
-1.658724	மீ யோ	-1.0347162
-2.0518882	ளா யோ	-0.8128675
-0.93587565	ல்ஓ யோ	-1.6144998
-2.0218813	ஸா யோ	-0.21067122
-1.0537072	னுஓ யோ	-0.8128675
-1.8041062	ஜி யோ	-0.40189114
-1.5738167	சை யோ	-0.93780625
-0.9827697	றை யோ	-2.076109
-1.3041289	ஷி யோ	-1.0347162
-1.3940495	ழி யோ	-0.8128675
-1.0537072	டாஓ யோ	-1.2388363
-1.5976497	லீ யோ	-1.0347162
-1.7426964	நோ யோ	-0.21067122
-1.0030978	ணை யோ	-1.9268109
-1.3536581	பை யோ	-1.0347162
-1.0537072	காஓ யோ	-0.40189114
-0.9412472	ருஓ யோ	-0.8128675
-0.98566407	மாஓ யோ	-0.40189114
-0.9610993	ஹாஓ யோ	-0.21067122
-1.6252756	ஸை யோ	-0.21067122
-1.2462889	க்ஓ யோ	-0.40189114
-1.2955158	ன்ஓ யோ	-1.0347162
-1.1924857	னஓ யோ	-0.21067122
-1.0346642	லஓ யோ	-0.8128675
-1.0537072	வஓ யோ	-0.21067122
-0.98566407	ளுஓ யோ	-0.40189114
-1.2467294	ங்ஓ யோ	-0.21067122
-1.0537072	லாஓ யோ	-0.8128675
-1.0348084	துஓ யோ	-1.1808443
-0.9412472	லுஓ யோ	-1.1138974
-1.0537072	ராஓ யோ	-0.40189114
-1.1297684	ளிஓ யோ	-0.21067122
-1.0537072	த்ஓ யோ	-0.40189114
-0.9412472	ழுஓ யோ	-0.40189114
-1.0537072	ஹஓ யோ	-0.21067122
-1.1297684	கஓ யோ	-0.21067122
-1.0537072	லைஓ யோ	-0.21067122
-1.1297684	ரஓ யோ	-0.21067122
-1.1286286	வௌி யோ	-0.21067122
-1.0252305	யை யோ	-0.40189114
-1.0548583	தஓ யோ	-0.21067122
-0.9236385	னாஓ யோ	-1.0347162
-0.9610993	கெஓ யோ	-0.21067122
-0.9610993	னேஓ யோ	-0.21067122
-3.4731324	<s> யு	-1.760628
-2.2366376	ர யு	-1.9937576
-2.6522565	கே யு	-1.1808443
-1.4220923	டி யு	-3.526078
-2.7355196	ய யு	-0.8128675
-1.4400649	லி யு	-2.5737925
-2.7442927	ரு யு	-0.21067122
-2.3517094	வி யு	-1.2010477
-2.565579	ட யு	-1.0761089
-2.7206948	ம் யு	-1.0347162
-2.4399085	யோ யு	-0.21067122
-2.8297753	க் யு	-0.21067122
-3.0537007	வ யு	-1.1808443
-2.2257512	ரை யு	-0.21067122
-3.029519	ல் யு	-0.21067122
-2.2378566	கி யு	-1.3357463
-1.1381681	யா யு	-3.0753186
-2.6091413	தெ யு	-1.1138974
-1.5760499	னி யு	-2.495614
-1.4591684	ரி யு	-2.36513
-2.670842	மா யு	-0.21067122
-2.2464926	தை யு	-0.21067122
-2.5878756	க யு	-1.4818742
-2.515315	ஆ யு	-1.8798143
-2.4045682	சி யு	-1.2899888
-2.7525344	கொ யு	-0.8128675
-1.3965201	ளி யு	-1.7159575
-1.9425408	தி யு	-2.0078442
-2.5581195	ச யு	-1.1373786
-2.4665923	த யு	-2.46608
-2.8999474	ன் யு	-0.2774182
-1.1199344	ஒ யு	-2.2548244
-2.6068993	போ யு	-0.21067122
-2.427723	வோ யு	-0.21067122
-2.513918	ல யு	-1.2388363
-2.089908	வா யு	-1.4496896
-1.8428404	மி யு	-1.2995341
-2.2302845	ம யு	-1.6715384
-2.5545464	தோ யு	-0.21067122
-2.5714607	னு யு	-0.21067122
-2.6275487	ப யு	-1.1138974
-2.284749	லை யு	-0.35411114
-2.4245567	பி யு	-1.3620752
-2.160213	நி யு	-1.305783
-2.265355	ன யு	-2.1486597
-2.0971243	னோ யு	-0.40189114
-2.330942	டை யு	-0.21067122
-2.6090448	வீ யு	-0.21067122
-2.7291007	ஹ யு	-0.21067122
-1.937216	பா யு	-1.4149275
-1.7938936	லோ யு	-1.6781689
-2.1158185	ஜ யு	-0.93780625
-2.3331006	ஸி யு	-0.21067122
-2.474591	ஸ யு	-0.21067122
-2.441786	கோ யு	-1.1808443
-2.1703088	ந யு	-0.93780625
-1.060618	ஓ யு	-1.6367762
-2.244253	ரா யு	-1.0347162
-1.5846548	ணி யு	-2.8516202
-2.745078	கா யு	-0.21067122
-1.1945065	ழை யு	-0.21067122
-2.4501166	ற யு	-0.21067122
-2.1174767	சோ யு	-1.1808443
-1.4533943	றி யு	-1.2388363
-2.4110367	ஹா யு	-0.21067122
-2.137719	ஹி யு	-1.1467453
-2.5219553	மே யு	-0.93780625
-2.5752885	னா யு	-0.21067122
-2.14759	மை யு	-0.8128675
-1.9201111	ஷ யு	-0.40189114
-2.1308088	னை யு	-0.8128675
-1.0637292	லிஓ யு	-1.0347162
-2.218746	ண யு	-1.4149275
-1.6655854	மீ யு	-1.0347162
-2.0722876	ளா யு	-0.8128675
-0.9367524	ல்ஓ யு	-1.6144998
-2.0409868	ஸா யு	-0.21067122
-1.055999	னுஓ யு	-0.8128675
-1.7975184	றை யு	-0.40189114
-1.7247868	சொ யு	-1.1808443
-1.055999	டாஓ யு	-1.2388363
-1.6049491	லீ யு	-1.0347162
-1.753294	நோ யு	-0.21067122
-1.055999	காஓ யு	-0.40189114
-0.9428038	ருஓ யு	-0.8128675
-0.9873593	மாஓ யு	-0.40189114
-0.9629501	ஹாஓ யு	-0.21067122
-1.2497444	க்ஓ யு	-0.40189114
-1.2991629	ன்ஓ யு	-1.0347162
-1.195522	னஓ யு	-0.21067122
-1.0367955	லஓ யு	-0.8128675
-1.055999	வஓ யு	-0.21067122
-0.9873593	ளுஓ யு	-0.40189114
-1.250141	ங்ஓ யு	-0.21067122
-1.055999	லாஓ யு	-0.8128675
-1.036925	துஓ யு	-1.1808443
-0.9428038	லுஓ யு	-1.1138974
-1.055999	ராஓ யு	-0.40189114
-1.1323776	ளிஓ யு	-0.21067122
-1.055999	த்ஓ யு	-0.40189114
-0.9428038	ழுஓ யு	-0.40189114
-1.055999	ஹஓ யு	-0.21067122
-1.1323776	கஓ யு	-0.21067122
-1.055999	லைஓ யு	-0.21067122
-1.1323776	ரஓ யு	-0.21067122
-1.0570325	தஓ யு	-0.21067122
-0.9248662	னாஓ யு	-1.0347162
-0.9629501	கெஓ யு	-0.21067122
-0.9629501	னேஓ யு	-0.21067122
-3.4423242	<s> க்	-1.4818742
-1.7658983	ர க்	-1.9257143
-1.5720801	டி க்	-1.8692373
-1.8771898	ய க்	-2.1755862
-1.7172085	லி க்	-1.7507195
-0.9873597	ரு க்	-2.6489806
-1.3889823	து க்	-2.9816997
-1.7221746	வி க்	-1.9563031
-2.1440332	ட க்	-2.5787842
-2.3076696	ம் க்	-1.402693
-2.3346722	யோ க்	-1.1808443
-0.23202345	யு க்	-3.665957
-2.3714848	க் க்	-1.8340569
-1.1652691	கு க்	-3.4654362
-2.1609502	வ க்	-2.0038078
-1.0128853	ரை க்	-2.0991743
-2.0729282	ல் க்	-1.4225755
-1.9110395	நா க்	-1.7451158
-1.908975	கி க்	-1.6715384
-2.2988665	யா க்	-1.4818742
-1.8837793	தெ க்	-1.300169
-1.3032583	னி க்	-1.7837652
-1.8716253	பீ க்	-1.305783
-1.5167788	ரி க்	-1.8149307
-2.41157	ஸ் க்	-1.3849642
-2.3170652	மா க்	-1.4538456
-1.15528	தை க்	-3.4324245
-2.7169232	க க்	-1.3569356
-0.8051465	லு க்	-2.867285
-2.1917272	ஆ க்	-0.8797234
-1.5983667	சி க்	-1.5353186
-2.2548287	கொ க்	-1.606813
-0.9453035	டு க்	-3.1421523
-1.1694505	பு க்	-2.2841184
-2.039426	ள க்	-1.0395736
-2.0430806	ங் க்	-1.2600255
-1.8345468	ளி க்	-1.5488211
-1.0289209	ளு க்	-2.1920724
-1.5478688	தி க்	-2.7700489
-1.8904091	ச க்	-1.4527322
-2.1842651	த க்	-1.339185
-2.3921955	ன் க்	-1.3849642
-2.5285485	ஒ க்	-1.7037231
-2.1135643	ரோ க்	-1.4818742
-1.8570776	போ க்	-1.2638112
-1.788372	பே க்	-1.6068131
-2.673792	வெ க்	-1.1808443
-1.9996144	வோ க்	-1.1296312
-0.626269	வு க்	-3.4431257
-1.9881877	ல க்	-1.721217
-1.824744	தே க்	-1.4148496
-1.9728363	வா க்	-1.8040936
-1.93157	மி க்	-1.5787842
-2.5817473	ம க்	-1.9692147
-1.0232072	மு க்	-3.5103292
-1.3652396	பொ க்	-2.212981
-2.411298	தோ க்	-1.1808443
-2.0486243	நெ க்	-1.305783
-2.568981	ட் க்	-1.1808443
-0.5539307	னு க்	-3.023721
-2.000608	ப க்	-1.7764381
-2.1995404	உ க்	-2.0020301
-2.5751767	தொ க்	-1.1808443
-1.874537	எ க்	-1.5972558
-1.0071709	லை க்	-2.5898106
-2.1690762	இ க்	-1.5958177
-1.9789417	பி க்	-1.3836699
-1.5994803	நி க்	-1.8986996
-1.8859403	ரே க்	-1.2899512
-2.00268	ன க்	-1.620177
-2.2726068	லா க்	-1.1808443
-1.0465851	டை க்	-3.056732
-2.2030587	வீ க்	-1.3569356
-1.7529641	ய் க்	-1.6068131
-1.986234	ஹ க்	-1.8470218
-2.1879556	பா க்	-1.0199475
-1.5146319	லோ க்	-1.620177
-2.0218563	சா க்	-1.1808443
-2.2268536	ஜ க்	-1.1808443
-2.207423	ஸி க்	-1.1808443
-2.2884805	ஸ க்	-0.4018911
-0.24656852	ஸு க்	-2.9641352
-2.4496994	கெ க்	-2.3165069
-2.5169778	ஹெ க்	-1.1808443
-1.1971724	ஏ க்	-2.371176
-1.623139	டீ க்	-1.1808443
-2.055558	ந க்	-1.2777543
-2.1755106	ஓ க்	-1.1808443
-2.2548966	ரா க்	-1.8006331
-1.6695045	ஷா க்	-1.5787842
-2.1773555	பெ க்	-1.0695418
-2.0286913	ற் க்	-0.48176524
-1.9992231	மொ க்	-0.85621846
-1.4520943	றா க்	-1.1808443
-1.2405951	ணி க்	-1.6672937
-2.1810613	டா க்	-1.2777543
-1.1933203	ழு க்	-1.70165
-1.0177461	கை க்	-2.758172
-2.3951776	கா க்	-1.4818742
-2.0110786	னே க்	-1.4818742
-1.5476284	அ க்	-2.04819
-1.6779623	ற க்	-1.4594507
-0.5994668	ணு க்	-2.261316
-1.8860956	ஜா க்	-1.1808443
-2.1011653	மெ க்	-1.402693
-0.9256012	சு க்	-2.6302125
-1.9186233	சே க்	-1.305783
-1.6823186	சோ க்	-1.4818742
-1.5983003	றி க்	-1.5532302
-0.9152735	று க்	-2.3416283
-1.7461606	ழ் க்	-1.1808443
-2.217513	ஹா க்	-1.1808443
-2.0525622	ஹி க்	-2.0915666
-2.173231	டே க்	-0.48176524
-2.2782192	தா க்	-1.6579655
-1.9937725	ரீ க்	-0.21067122
-1.7017834	ர் க்	-1.5910187
-1.5713087	ழ க்	-2.4872694
-2.0855467	லே க்	-1.514059
-1.9501227	சீ க்	-1.1808443
-2.207151	னா க்	-1.1808443
-1.0531136	மை க்	-1.9725684
-0.9969612	ஹு க்	-2.4910822
-1.8774467	ஹீ க்	-1.1808443
-1.2292947	ரெ க்	-1.3023332
-1.7561958	ஷ க்	-1.1808443
-1.9047751	வே க்	-1.523267
-0.9074712	னை க்	-2.5610557
-0.87976396	வை க்	-2.422106
-0.9318723	ளை க்	-2.0916212
-1.8499372	லெ க்	-1.2899888
-0.9798182	லொ க்	-1.3593858
-1.9468696	ண க்	-1.3849642
-0.369143	""ு க்	-0.21067122
-1.3453742	வொ க்	-1.2899888
-1.6793935	நீ க்	-1.1808443
-1.1298865	ரொ க்	-1.4764218
-2.1895926	செ க்	-1.8798143
-1.4350023	யொ க்	-1.1808443
-1.9153186	ஸா க்	-1.1808443
-1.6562158	ஜி க்	-0.8558265
-0.61006206	ஜு க்	-1.7671101
-0.047487743	‎ு க்	-1.9791989
-2.0353649	ணா க்	-1.1808443
-1.5362163	சை க்	-0.93780625
-1.72835	நு க்	-0.8128675
-0.97602373	றை க்	-2.1138976
-1.6092675	நே க்	-1.1808443
-1.6404319	ஐ க்	-1.1808443
-1.5493534	றூ க்	-0.21067122
-1.6415157	மூ க்	-1.4818742
-1.1199756	ரூ க்	-1.2678162
-1.2851386	ஷி க்	-1.0347162
-1.1238377	னெ க்	-1.1807897
-2.0009382	பொ க்	-0.8127896
-1.6818709	டெ க்	-0.8619983
-1.4037948	டொ க்	-1.2600255
-1.8879275	ஷ் க்	-1.1808443
-1.3689749	ழி க்	-0.8128675
-2.135156	தீ க்	-1.7829043
-1.8717083	லீ க்	-1.1808443
-1.6148173	யெ க்	-1.1808443
-0.050846122	‍ு க்	-1.8128675
-0.9236477	ணை க்	-1.8128675
-1.1733624	ஹ் க்	-1.1808443
-0.08838415	'ு க்	-1.6144998
-0.2973109	Lு க்	-0.40189114
-1.3258153	பை க்	-1.3134699
-0.369143	னி.ு க்	-0.8128675
-1.1733624	லொ க்	-1.1808443
-0.369143	யாு க்	-0.21067122
-0.369143	ல.ு க்	-1.5398662
-0.369143	ம.ு க்	-0.21067122
-0.2973109	எு க்	-1.0347162
-1.5472398	நொ க்	-1.6579655
-1.1114234	ளொ க்	-0.21067122
-1.5808892	ஸை க்	-0.21067122
-0.23760624	ஷு க்	-1.2899888
-0.949327	ரொ க்	-1.4818742
-0.369143	ர‍ு க்	-0.21067122
-0.369143	வ‍ு க்	-0.93780625
-1.1715384	ஷே க்	-1.1808443
-0.369143	..ு க்	-0.40189114
-0.2973109	.ு க்	-0.40189114
-0.369143	டூாு க்	-0.21067122
-0.11733371	ஏு க்	-1.2388363
-0.369143	}ு க்	-0.21067122
-0.369143	கை'ு க்	-0.21067122
-1.1114234	வௌி க்	-0.21067122
-1.0132533	யை க்	-0.40189114
-0.369143	பீ.ு க்	-0.21067122
-0.369143	காு க்	-0.21067122
-0.2973109	நி் க்	-1.4818742
-0.369143	eellு க்	-0.21067122
-0.2973109	L..ு க்	-0.40189114
-0.369143	"ு க்	-0.21067122
-0.369143	\ு க்	-0.21067122
-0.369143	''ு க்	-0.21067122
-0.369143	சி.ு க்	-0.21067122
-0.369143	ல...ு க்	-0.21067122
-0.369143	டி.ு க்	-0.21067122
-0.369143	ஙொ க்	-1.1808443
-0.369143	ஈு க்	-0.21067122
-0.369143	Yு க்	-0.21067122
-0.369143	சீ.ு க்	-0.21067122
-0.369143	ம்.ு க்	-0.21067122
-1.6506252	<s> கு	-2.3980985
-1.8188603	ர கு	-1.708145
-2.086777	கே கு	-1.3269724
-1.9220922	டி கு	-1.4394954
-1.7578232	ய கு	-2.1808443
-1.8028728	லி கு	-1.7159575
-1.9662052	ரு கு	-1.4256513
-1.6241264	ந் கு	-1.2530956
-2.146864	து கு	-1.9286629
-2.4666233	வி கு	-1.3868988
-1.9122208	ட கு	-2.0130925
-1.7596323	ம் கு	-1.9192148
-2.0985916	யு கு	-1.1808443
-0.8853888	க் கு	-3.188811
-2.434843	கு கு	-1.374123
-1.8716193	வ கு	-1.7796446
-1.917648	ல் கு	-1.6641757
-2.2073288	நா கு	-1.2388363
-2.1122167	கி கு	-1.4547571
-2.021877	யா கு	-1.547645
-2.1349857	தெ கு	-1.7507195
-2.1171572	னி கு	-1.1038885
-2.206659	பீ கு	-1.1808443
-1.932286	ரி கு	-1.4522614
-1.8580393	ஸ் கு	-1.5195754
-2.43547	மா கு	-1.4722816
-1.8752462	த் கு	-1.695754
-1.8804567	தை கு	-1.7123232
-2.4040096	க கு	-1.4719025
-1.9886558	லு கு	-0.93573993
-2.288148	ச் கு	-1.1808443
-1.9972816	சி கு	-1.1808443
-2.5402467	கொ கு	-1.066859
-2.2735946	டோ கு	-1.1808443
-1.9401456	டு கு	-1.9824766
-2.216834	பு கு	-1.4700828
-2.2280219	ள கு	-1.3323507
-1.1051706	ங் கு	-1.9571286
-2.0395775	ளி கு	-1.2600255
-2.2253597	ளு கு	-0.87078154
-1.8559422	தி கு	-1.2845331
-2.0242147	ச கு	-1.3827707
-2.0252461	த கு	-2.2025814
-1.8563544	ன் கு	-1.5136163
-2.4168065	ஒ கு	-0.7302543
-2.4194062	ரோ கு	-1.1808443
-2.3591626	போ கு	-1.3569356
-1.8833817	பே கு	-1.620177
-2.7373831	வெ கு	-1.7548755
-2.3604684	வோ கு	-0.21067122
-1.8574836	ல கு	-2.0227532
-2.125647	தே கு	-2.1808443
-1.9472861	வா கு	-1.5000991
-2.1569111	மி கு	-1.275211
-1.9806776	ம கு	-1.8181028
-2.5207646	மு கு	-1.5496013
-1.5227034	பொ கு	-2.0041137
-1.8974491	நெ கு	-1.1808443
-1.6460409	ட் கு	-2.1720705
-1.6390327	னு கு	-1.1703334
-2.112213	ப கு	-1.4734858
-2.2516649	உ கு	-1.341658
-2.0151582	தொ கு	-2.0259423
-2.3907473	எ கு	-0.98890424
-1.8437443	லை கு	-1.6579655
-2.3645449	இ கு	-1.8798143
-1.7139434	நி கு	-1.8340569
-2.1727672	வ் கு	-0.87078154
-1.6272495	ரே கு	-1.225048
-1.7843165	ன கு	-2.2119641
-2.0830545	லா கு	-1.0116316
-2.248956	டை கு	-1.1808443
-2.240607	வீ கு	-1.7829043
-2.013618	ஹ கு	-1.894878
-1.7666152	பா கு	-1.3450589
-2.1885543	லோ கு	-0.98890424
-2.0039277	சா கு	-1.1808443
-2.0624766	ஜ கு	-0.8517004
-2.2650886	ஸி கு	-1.1808443
-1.8687496	ஸ கு	-1.2426219
-2.0386398	கெ கு	-1.5815332
-2.600262	ஹெ கு	-1.1808443
-1.7864807	ஏ கு	-1.1808443
-2.283488	ந கு	-1.1808443
-1.783494	ளே கு	-1.1808443
-2.2370222	ஓ கு	-1.1808443
-2.3030617	ரா கு	-1.3868988
-1.9568808	ஷா கு	-0.21067122
-2.3649678	பெ கு	-0.8558265
-1.3762	ற் கு	-2.0347164
-2.2467315	ணி கு	-1.0347162
-2.418308	ண் கு	-1.1808443
-1.7559563	டா கு	-1.6367762
-2.0912013	கை கு	-1.1808443
-2.087306	கா கு	-1.4261798
-2.0511944	னே கு	-1.5787842
-1.9768972	அ கு	-1.7003484
-1.6351701	ற கு	-1.5596657
-1.9480493	ணு கு	-0.93274367
-2.202192	சு கு	-1.1808443
-2.3911781	ப் கு	-1.305783
-2.244463	சே கு	-1.3569356
-2.056126	சோ கு	-0.8128675
-2.00786	றி கு	-1.305783
-2.0197976	று கு	-1.1808443
-2.0026653	ழ் கு	-1.4361168
-2.0931895	ஹா கு	-1.5488211
-2.0926194	ஹி கு	-1.4448309
-2.2462683	டே கு	-1.1808443
-2.4736512	தா கு	-0.21067122
-1.8775986	ரீ கு	-1.4635041
-1.8452688	ர் கு	-1.4586568
-1.5949252	ழ கு	-1.1808443
-1.8337436	லே கு	-2.1539721
-1.9156708	னா கு	-0.7386696
-1.6168416	ரெ கு	-1.1373786
-1.8189332	வே கு	-1.4238824
-2.3339388	னை கு	-1.1808443
-1.8727123	ஜே கு	-1.1808443
-2.4372222	வை கு	-1.1808443
-1.884901	ளை கு	-1.6579655
-2.0511453	லெ கு	-1.1552356
-1.3574871	லொ கு	-1.128138
-1.9059365	ண கு	-1.6927277
-1.9134886	மீ கு	-1.1808443
-1.7711201	ளா கு	-1.1373786
-2.0801032	ரொ கு	-0.21067122
-1.7183248	ஈ கு	-1.4818742
-1.9729801	ஸா கு	-1.4818742
-2.017808	ஜி கு	-0.21067122
-2.0743682	ஜ் கு	-1.1808443
-1.7576936	நு கு	-0.8128675
-1.3923088	டி. கு	-1.1808443
-1.576088	றூ கு	-0.21067122
-1.9362509	மூ கு	-1.1808443
-1.9996982	ரூ கு	-0.40189114
-1.5379027	.. கு	-1.1808443
-1.8279275	னெ கு	-1.1808443
-1.5885204	பொ கு	-1.5787842
-1.9427512	ஷ் கு	-0.21067122
-1.8222071	போ கு	-1.4818742
-0.6662022	ணூ கு	-0.48176524
-2.1995232	தீ கு	-0.21067122
-1.594024	ஞா கு	-1.1808443
-1.6406679	யெ கு	-1.1808443
-1.3595898	பீ. கு	-1.1808443
-2.1064906	' கு	-1.1808443
-1.7390685	பை கு	-1.1808443
-1.3582227	ல. கு	-1.4818742
-0.37089145	ஙு கு	-0.48176524
-1.1211714	ளொ கு	-0.21067122
-0.37089145	.E. கு	-1.1808443
-0.37089145	சீ' கு	-1.1808443
-1.0474231	... கு	-1.1808443
-0.37089145	௦ கு	-1.1808443
-0.37089145	டி' கு	-1.1808443
-1.3266554	டூ கு	-1.1808443
-0.95601493	ி கு	-0.21067122
-1.6047403	<s> வ	-2.4539173
-1.4814274	ர வ	-2.327505
-1.0212449	கே வ	-2.2172933
-1.4575853	டி வ	-1.8685809
-1.173409	ய வ	-2.4348128
-2.0177488	யி வ	-1.1807761
-1.5017828	லி வ	-1.6903515
-1.102658	ரு வ	-2.036255
-1.9988513	ந் வ	-1.2330552
-1.2713723	து வ	-2.0959215
-1.7011704	வி வ	-1.5207583
-1.4115895	ட வ	-2.5512753
-1.339191	ம் வ	-2.496092
-2.0739424	யோ வ	-1.4818742
-1.9582628	யு வ	-1.377139
-1.3422408	க் வ	-1.8598121
-1.7017206	கு வ	-1.9903687
-1.4369874	வ வ	-2.757398
-1.0097831	ரை வ	-1.7826126
-1.4219033	ல் வ	-2.1326861
-1.7316215	நா வ	-1.4942884
-1.7751694	கி வ	-1.6676241
-1.167427	யா வ	-2.2017012
-1.5985006	தெ வ	-1.7206237
-1.2882315	னி வ	-1.7855104
-1.3792253	பீ வ	-1.2388363
-1.5268202	ரி வ	-1.8973594
-1.2934575	ஸ் வ	-2.137876
-0.7772157	மா வ	-2.9213576
-1.5151178	த் வ	-1.8694414
-1.194632	தை வ	-3.0748663
-1.7343934	க வ	-2.0315661
-1.1863456	லு வ	-2.0246434
-2.2926378	ஆ வ	-1.305783
-1.3924764	ச் வ	-1.1276155
-1.5067186	சி வ	-1.8693489
-2.7108757	கொ வ	-0.87078154
-1.889873	டோ வ	-0.8611814
-1.1366811	டு வ	-2.1746864
-1.7374041	பு வ	-2.063352
-1.1921115	ள வ	-1.9320252
-1.5306771	ங் வ	-1.8905382
-1.4738076	ளி வ	-1.2351292
-1.0607494	ளு வ	-1.579293
-1.5130395	தி வ	-2.5465207
-1.5007396	ச வ	-1.5895331
-1.4597741	த வ	-2.6717033
-1.4164289	ன் வ	-2.2039032
-2.3342056	ஒ வ	-1.2238033
-1.7254925	ரோ வ	-0.95019764
-1.4586197	போ வ	-1.7417853
-0.9171414	பே வ	-1.8980391
-1.1444448	வெ வ	-2.31695
-2.0636463	வோ வ	-0.7036321
-1.5030887	வு வ	-1.6878083
-1.3421996	ல வ	-2.6290915
-1.1484227	தே வ	-1.5965408
-1.470404	வா வ	-1.8137232
-1.7889193	மி வ	-1.4148496
-1.5049003	ம வ	-2.6550686
-1.6518083	மு வ	-2.087694
-2.419565	பொ வ	-0.8797234
-1.426129	தோ வ	-1.4057841
-1.5810865	நெ வ	-0.97256833
-1.2563772	ட் வ	-2.611825
-1.107495	னு வ	-1.6344557
-1.8540169	ப வ	-1.4262486
-1.8344917	ள் வ	-1.1552358
-2.304916	உ வ	-1.402693
-2.0704572	தொ வ	-0.83916235
-1.9277543	எ வ	-1.4524647
-1.0049273	லை வ	-2.4766731
-2.4503124	இ வ	-1.1808443
-1.8108022	பி வ	-1.7434233
-0.8868984	நி வ	-1.8155735
-0.85891426	வ் வ	-1.788646
-1.007393	ரே வ	-1.6394821
-1.2296396	ன வ	-2.4955177
-2.2303567	னோ வ	-0.21067122
-1.1610413	லா வ	-2.1111627
-1.0154306	டை வ	-2.4068916
-1.8941532	வீ வ	-0.95669615
-1.0696003	ய் வ	-1.7829043
-1.5785488	ஹ வ	-2.4130516
-1.9063985	ஹே வ	-1.00829
-1.7216876	பா வ	-1.4851658
-1.8723135	லோ வ	-0.75726295
-1.1662276	சா வ	-1.5158949
-1.7308131	ஜ வ	-1.2032819
-1.886678	ஸி வ	-1.8798143
-1.272442	ஸ வ	-1.771652
-1.7340095	ஸு வ	-1.1808443
-1.2915964	கெ வ	-2.1194782
-1.8478057	ஹெ வ	-1.3032931
-1.2574992	ஏ வ	-1.2010477
-2.0831573	கோ வ	-0.89011574
-1.3183931	டீ வ	-1.305783
-1.289416	ந வ	-1.6164668
-1.0106956	ளே வ	-0.792565
-1.9473288	ஓ வ	-1.633142
-1.1278602	ரா வ	-1.8299043
-1.128658	ஷா வ	-1.0760407
-1.4639142	பெ வ	-1.4238824
-1.686062	ற் வ	-0.96962065
-1.957226	மொ வ	-0.21067122
-1.1287125	றா வ	-1.0323539
-1.236678	ணி வ	-1.5999055
-1.4869705	ண் வ	-0.9744649
-1.1313947	டா வ	-1.7932377
-0.93764263	ழு வ	-1.5151983
-1.126142	கை வ	-2.7523868
-1.1889057	கா வ	-2.005801
-1.0317782	னே வ	-1.676404
-1.5625669	ஸே வ	-0.37598598
-1.8075426	அ வ	-1.5610011
-1.2723209	யே வ	-1.4818742
-1.3001827	ற வ	-1.8784753
-1.2075019	ணு வ	-1.4452428
-1.3795438	ஜா வ	-1.5307229
-2.0692215	மெ வ	-0.87078154
-1.8794247	சு வ	-1.5610555
-1.377953	ப் வ	-1.775079
-1.7268943	சே வ	-0.73705953
-1.8610381	றி வ	-1.6410977
-0.8784986	று வ	-1.550806
-2.380394	கீ வ	-1.1808443
-1.3472682	ழ் வ	-1.7136896
-1.2125167	ஹா வ	-1.5950215
-1.9279485	ஹி வ	-1.3025367
-1.1144669	டே வ	-1.5840985
-1.2081627	தா வ	-1.7961855
-1.9473356	ரீ வ	-1.5725013
-1.2402114	ர் வ	-2.0542479
-1.6871246	மே வ	-1.4384086
-1.9482224	ஹொ வ	-0.57665527
-1.2558143	ழ வ	-0.87078154
-1.2013302	லே வ	-2.0071232
-1.3440608	சீ வ	-1.4692852
-1.0946288	னா வ	-1.825045
-1.1788979	மை வ	-2.0721428
-1.7055346	ஹோ வ	-0.8128675
-1.4842172	ஹு வ	-1.1661326
-1.3937719	ரெ வ	-1.0581144
-1.4323822	ஷ வ	-1.3787053
-1.1923065	வே வ	-1.4994427
-0.9058119	னை வ	-2.166121
-1.4676719	ஜே வ	-1.2651652
-0.86151636	வை வ	-2.1900523
-0.7098954	தூ வ	-2.0235724
-0.96013796	ளை வ	-1.8749735
-1.6602589	யூ வ	-0.21067122
-1.2423743	லெ வ	-1.5023394
-1.7324599	லொ வ	-0.40189114
-1.8753691	பூ வ	-1.1437064
-1.0531288	ண வ	-1.8501191
-1.3848982	மீ வ	-1.4026567
-1.1447606	ளா வ	-1.2862189
-0.9445145	"" வ	-0.21067122
-1.374283	ஸெ வ	-0.71932274
-0.62749666	செ வ	-2.2371626
-1.5462523	ஊ வ	-1.6527643
-1.1635402	ஷீ வ	-0.21067122
-1.6610324	ஈ வ	-0.21067122
-1.4095035	ஸா வ	-1.2495601
-1.6373641	ஜி வ	-0.46270287
-1.7934365	ஜு வ	-1.6579655
-0.7348229	‎ வ	-1.9791989
-1.0509664	ணா வ	-1.1962038
-1.521462	சை வ	-0.93780625
-1.0431669	ஜ் வ	-1.6144998
-0.699714	நு வ	-1.9231085
-1.034019	றை வ	-2.0721428
-1.1635402	சி. வ	-0.21067122
-1.3622599	டி. வ	-0.21067122
-1.2678385	மௌ வ	-1.1808443
-1.4986926	நே வ	-0.7302543
-1.8581086	மூ வ	-1.4818742
-0.95390546	ணே வ	-0.7822626
-1.427333	ரூ வ	-0.36856857
-1.4955375	.. வ	-0.40189114
-1.2774647	ஷி வ	-1.0347162
-1.1762116	. வ	-0.40189114
-1.3695769	னெ வ	-1.2388363
-1.1873628	டெ வ	-0.9254425
-1.1356359	ஷ் வ	-1.1215065
-1.5026624	போ வ	-0.78220433
-1.6335409	றே வ	-0.21067122
-1.35894	ழி வ	-0.8128675
-1.0311844	தீ வ	-1.3705719
-1.3297538	ஸீ வ	-1.6579655
-1.2532563	னீ வ	-0.35411114
-1.6223851	லீ வ	-1.4818742
-1.6560987	நோ வ	-0.21067122
-0.67071545	‍ வ	-1.8128675
-0.99238825	ணை வ	-1.6974741
-1.0046512	பீ. வ	-0.87078154
-0.9715823	' வ	-1.4496896
-1.3198372	ஜீ வ	-0.75726295
-0.87962925	L வ	-0.40189114
-1.514287	லூ வ	-1.1808443
-1.3147212	பை வ	-1.0347162
-1.033272	னி. வ	-0.8128675
-1.2956883	ணீ வ	-0.21067122
-1.1635402	" வ	-0.21067122
-1.5527076	ஜூ வ	-1.1808443
-1.0064217	தோ வ	-0.93780625
-0.82328093	நை வ	-1.4818742
-0.82788426	யா் வ	-0.21067122
-0.94673	கே. வ	-1.1808443
-1.104451	சீ. வ	-0.21067122
-1.3297538	ல. வ	-1.5398662
-0.66026354	ஞி வ	-1.1808443
-0.92442995	ம். வ	-0.87078154
-0.87678385	ழா வ	-0.21067122
-1.3312913	ங வ	-1.1808443
-0.9445145	ம. வ	-0.21067122
-1.104451	ணெ வ	-0.21067122
-0.8223268	னூ வ	-1.4818742
-1.563655	ஸை வ	-0.21067122
-1.104451	ஹூ வ	-1.1808443
-0.66026354	யீ வ	-1.1808443
-0.96950907	L.. வ	-0.8558265
-1.3641917	கௌ வ	-0.21067122
-1.3685306	ஷு வ	-1.1808443
-1.033272	ர‍ வ	-0.21067122
-1.1635402	வ‍ வ	-0.93780625
-0.36787257	ஔ வ	-1.1808443
-0.82788426	டூா் வ	-0.21067122
-1.1635402	வௌ வ	-0.21067122
-0.9445145	} வ	-0.21067122
-1.033272	\ வ	-0.21067122
-0.9445145	கை' வ	-0.21067122
-1.104451	வௌி வ	-0.21067122
-1.0083587	யை வ	-0.40189114
-0.85395956	டூ வ	-0.7227956
-0.82788426	கா் வ	-0.21067122
-0.9445145	eell வ	-0.21067122
-0.9445145	'' வ	-0.21067122
-1.1635402	ளெ வ	-0.21067122
-0.9445145	ல... வ	-0.21067122
-0.9445145	Y வ	-0.21067122
-3.8624103	<s> ரை	-1.6068131
-2.8828893	டி ரை	-0.5859097
-2.1311872	து ரை	-1.5244106
-1.2229441	வ ரை	-4.393952
-3.0944421	கி ரை	-1.1808443
-2.6659858	க ரை	-1.7548755
-2.9826005	சி ரை	-1.1808443
-2.3300061	பு ரை	-1.402693
-2.783344	ச ரை	-0.83498967
-2.8311486	த ரை	-1.6415752
-3.1060224	ப ரை	-1.1808443
-2.6829336	தொ ரை	-0.61647373
-2.8711252	பி ரை	-1.1808443
-2.8875344	ஹ ரை	-1.402693
-2.7677732	ஸ ரை	-0.37909716
-2.8497248	கா ரை	-1.8542602
-2.9623275	அ ரை	-1.1808443
-2.7254114	ஹா ரை	-1.7179635
-2.2091122	நு ரை	-1.1808443
-0.37595767	த‍ ரை	-0.37909716
-4.108266	<s> ல்	-1.4818742
-2.1533928	மோ ல்	-0.78859526
-2.1074734	ர ல்	-1.618636
-1.8620002	கே ல்	-1.4818742
-1.9201288	டி ல்	-1.6304884
-1.9895213	ய ல்	-1.3643104
-0.4944917	யி ல்	-4.0532956
-2.7239583	லி ல்	-1.1808443
-1.9638304	ரு ல்	-1.5118375
-1.8264855	து ல்	-1.7885476
-1.547762	வி ல்	-1.8680118
-1.7657707	ட ல்	-1.7348428
-2.378213	யோ ல்	-1.1808443
-2.3287785	யு ல்	-0.48176524
-1.6613988	கு ல்	-1.5589595
-1.7646713	வ ல்	-1.8595014
-2.8876767	ல் ல்	-1.1808443
-2.198687	நா ல்	-1.1808443
-1.7652926	கி ல்	-1.7213253
-2.741617	யா ல்	-1.1808443
-1.4420131	தெ ல்	-1.9510416
-1.7595412	னி ல்	-1.3479613
-0.91051906	பீ ல்	-1.9655263
-2.0178442	ரி ல்	-1.6144998
-2.1433475	மா ல்	-0.861508
-1.6100663	க ல்	-2.3382683
-2.399729	லு ல்	-1.305783
-2.4101357	ஆ ல்	-1.4818742
-1.5225089	சி ல்	-1.956137
-1.2492365	கொ ல்	-2.8729355
-1.5902169	டோ ல்	-1.3569356
-1.9988936	டு ல்	-1.620177
-1.7315305	பு ல்	-1.7194483
-2.0771067	ள ல்	-1.1227841
-2.1432464	ளு ல்	-0.8797234
-2.043933	தி ல்	-1.2466486
-1.4412198	ச ல்	-1.6569965
-1.892091	த ல்	-1.9184437
-2.5942388	ஒ ல்	-1.1808443
-1.9747196	ரோ ல்	-1.1808443
-2.0369515	போ ல்	-1.4688773
-2.2432978	பே ல்	-0.86892366
-1.2049584	வெ ல்	-2.1776223
-1.6854355	வோ ல்	-1.8092332
-1.2065623	வு ல்	-1.9562026
-2.1595848	ல ல்	-1.654198
-1.9647298	தே ல்	-1.0346384
-2.4739106	வா ல்	-1.3569356
-1.270849	மி ல்	-2.12267
-1.5146973	ம ல்	-2.1027315
-0.99427193	மு ல்	-2.8496068
-1.6386462	பொ ல்	-2.0946581
-2.2561598	தோ ல்	-1.1808443
-0.81380534	நெ ல்	-1.6382215
-2.5390055	ட் ல்	-1.402693
-2.05435	னு ல்	-1.0644091
-1.5898825	ப ல்	-2.2641416
-0.9797236	உ ல்	-2.0574267
-2.2296886	தொ ல்	-0.87162083
-1.0516665	எ ல்	-2.2212315
-0.91116494	இ ல்	-2.6742027
-1.642917	பி ல்	-1.7042619
-1.6132518	நி ல்	-1.5902764
-2.3411942	வ் ல்	-1.1808443
-2.0806265	ரே ல்	-0.92845476
-2.112016	ன ல்	-1.3115497
-2.311704	னோ ல்	-1.4818742
-1.9229515	லா ல்	-1.1350323
-2.2365408	வீ ல்	-0.8797234
-2.0960307	ய் ல்	-0.37909716
-1.4219028	ஹ ல்	-1.9667115
-2.4531083	ஹே ல்	-1.1808443
-2.2186446	பா ல்	-1.4238824
-1.7118152	சா ல்	-1.0936446
-2.0573845	ஜ ல்	-1.1808443
-1.5930983	ஸி ல்	-1.2388363
-1.5287753	ஸ ல்	-1.318559
-2.017155	ஸோ ல்	-1.4818742
-1.6574796	ஸு ல்	-0.8127896
-1.6248125	கெ ல்	-1.4583645
-1.5538805	ஹெ ல்	-1.7878116
-1.7829362	ஏ ல்	-0.8797234
-1.540536	கோ ல்	-1.3903375
-1.6507269	டீ ல்	-1.4818742
-1.2527612	கொ ல்	-2.0003881
-2.27479	ந ல்	-1.824297
-2.2301927	ஓ ல்	-1.402693
-2.5964751	ரா ல்	-0.48176524
-1.297763	பெ ல்	-2.0839343
-1.7585688	மொ ல்	-1.301331
-2.1658623	ணி ல்	-1.6579655
-2.2378073	டா ல்	-0.7036321
-1.6976888	கா ல்	-1.4563202
-2.0784783	தொ ல்	-0.6928324
-1.8675872	னே ல்	-1.0558374
-1.4523647	அ ல்	-1.6613545
