\data\
ngram 1=253
ngram 2=6465
ngram 3=24516

\1-grams:
-3.647732	<unk>	0
0	<s>	-2.4345667
-1.6650529	</s>	0
-1.9031425	சி	-0.6857991
-1.8821586	த்	-0.9044509
-1.8770673	ர	-0.6451381
-1.7394131	ன்	-0.92588526
-1.7321018	வு	-1.0055627
-2.1402972	ட	-0.5113921
-1.8430077	ரா	-0.840932
-2.0561993	ம்	-0.80584025
-2.2816167	து	-0.42466712
-2.1690674	பா	-0.51436585
-1.9424961	கா	-0.7351615
-1.7394131	வோ	-1.3541205
-2.7770348	டு	-0.4175265
-2.01259	ல்	-0.75119483
-1.9366511	வ	-0.6270315
-1.7394131	ஸ்	-0.9315894
-1.9140272	ர்	-0.7053653
-1.6744738	வி	-0.85694736
-1.8770673	ம	-0.5710328
-2.9778848	னொ	-0.21653458
-2.8192213	ஜ்	-0.5147698
-2.1402972	மா	-0.53727514
-2.1221244	லா	-0.7216945
-2.4525816	ணி	-0.6730369
-1.8873103	யி	-0.82513857
-2.3511348	நி	-0.3251649
-2.179097	கே	-0.69568825
-1.8477129	த	-0.67332226
-1.7506163	னி	-0.9873929
-2.0266454	மி	-0.7274833
-2.1998792	ரு	-0.36682856
-1.9544276	ந்	-0.8745036
-2.0195608	சா	-0.7031463
-1.9031425	பி	-0.59926355
-2.1592638	யோ	-0.6751489
-2.5851884	ந	-0.3030064
-1.9989752	ல	-0.54219395
-1.8337476	க்	-0.76278
-2.0266454	கு	-0.56711876
-2.4339416	ண	-0.44333667
-2.3823893	ரெ	-0.46514314
-1.9989752	ட்	-0.7386942
-1.9031425	ன	-0.6214451
-1.7394131	வா	-0.7391024
-1.9666961	தி	-0.66563416
-1.9140272	ய	-0.65316904
-1.9605185	ரி	-0.71694314
-1.9544276	யா	-0.8183837
-2.9183216	ஜெ	-0.244983
-1.7943598	க	-0.7059484
-2.0486202	கி	-0.5261431
-2.6706033	ள்	-0.45612112
-3.362986	ளை	-0.23952028
-2.2946584	செ	-0.36859724
-3.1290796	இ	-0.21344845
-1.8291906	ச	-0.62291986
-2.8659508	ரை	-0.37431934
-2.2106557	ங்	-0.5274399
-2.179097	டி	-0.5807408
-2.1690674	வே	-0.6220605
-1.7985638	வை	-1.0606334
-2.1402972	சு	-0.45727563
-2.5363474	லே	-0.35817176
-2.2816167	ஜா	-0.82313174
-3.5083163	T	-0.20548235
-3.1290796	ஜு	-0.22371711
-1.9923246	ப்	-0.84603536
-2.1893637	ஷ்	-0.6455124
-2.2566524	தீ	-0.5216802
-1.9793212	ப	-0.5450188
-2.1133153	ஷ	-0.5514636
-2.4720576	ரோ	-0.302873
-2.8659508	ணீ	-0.6005107
-2.01259	னா	-0.86014754
-2.5138433	ஸ	-0.36428022
-2.3219793	மே	-0.4845801
-2.4525816	வ்	-0.5997993
-2.5851884	லு	-0.37760058
-3.5083163	ஜொ	-0.20548235
-2.5363474	றி	-0.36779034
-2.308104	யை	-0.72178304
-2.1592638	ஜ	-0.44748342
-2.1690674	ஷா	-0.7781962
-2.7770348	ழி	-0.2836568
-2.7385857	அ	-0.23375419
-2.0717664	தா	-0.80919695
-2.149677	தே	-0.6201602
-2.4720576	ஹ	-0.32003298
-3.4476771	ணூ	-0.2575949
-2.3823893	ரே	-0.3526038
-2.5851884	சோ	-0.32210264
-2.3511348	ண்	-0.37233025
-2.2106557	மு	-0.43800813
-2.8192213	ளா	-0.42093724
-2.3823893	சே	-0.362035
-2.7032657	வீ	-0.32529333
-2.8192213	ஞா	-0.446181
-2.4160688	சீ	-0.3879058
-2.1592638	ஜி	-0.54437697
-2.7032657	கீ	-0.25861588
-2.7770348	ணா	-0.4131372
-2.2446885	னு	-0.43947673
-2.4339416	ரூ	-0.4802125
-2.6706033	கெ	-0.30147436
-3.362986	டே	-0.2171935
-2.4720576	மூ	-0.65007985
-2.6706033	ற	-0.2890205
-3.230472	பொ	-0.21653458
-2.1690674	நா	-0.70400137
-1.9308836	லி	-0.78393364
-3.362986	கூ	-0.21974464
-2.7385857	ழ	-0.30249873
-3.230472	எ	-0.21685448
-3.4476771	றொ	-0.21974464
-2.7032657	பே	-0.28971165
-3.1290796	தெ	-0.22705542
-2.1690674	ய்	-0.70949453
-2.366481	லோ	-0.3673531
-2.2446885	யு	-0.5587316
-3.5083163	ஒ	-0.20548235
-2.4720576	னோ	-0.3654369
-2.4720576	மோ	-0.36952773
-3.230472	உ	-0.21819542
-2.9183216	பை	-0.30183822
-3.362986	சௌ	-0.22787538
-2.7385857	யே	-0.31146958
-2.8659508	பூ	-0.2745708
-2.7385857	ஜே	-0.29472438
-2.7032657	ஸா	-0.4376937
-2.8659508	போ	-0.23075746
-2.7032657	கை	-0.3944894
-2.492448	பு	-0.4055304
-2.3511348	னே	-0.53237563
-1.9085507	ஸி	-1.0148729
-2.6402264	பெ	-0.2606429
-2.4160688	னீ	-0.8194437
-2.1402972	ச்	-0.6544213
-2.9183216	வெ	-0.34334078
-2.4160688	லெ	-0.5330628
-3.1290796	ஆ	-0.21374503
-2.5851884	சை	-0.38409865
-3.5083163	ஏ	-0.20548235
-2.1690674	ஷி	-0.5389293
-2.5363474	ஜீ	-0.4454053
-2.5138433	ள	-0.35115218
-2.7385857	நே	-0.41924575
-2.492448	ரீ	-0.43057865
-3.5083163	ஸெ	-0.20548235
-3.0469356	ணே	-0.31389022
-2.9778848	று	-0.22086142
-2.9778848	யெ	-0.22876011
-3.362986	ஷீ	-0.23952028
-3.362986	டெ	-0.21793607
-2.492448	ஞ்	-0.4363119
-2.5600817	கோ	-0.30455354
-2.7032657	ஹா	-0.2878777
-3.1290796	நோ	-0.20548235
-2.8659508	தொ	-0.36269796
-2.9183216	யூ	-0.2285345
-3.0469356	தை	-0.28762507
-2.8659508	ரொ	-0.24653186
-2.5138433	லை	-0.54856235
-2.9778848	ஐ	-0.30269343
-2.6118362	டா	-0.5896777
-3.0469356	டீ	-0.2589226
-3.230472	நீ	-0.21207984
-3.1290796	லொ	-0.20548235
-2.8659508	ஹி	-0.23129189
-3.4476771	நு	-0.23075746
-3.4476771	ளீ	-0.20548235
-2.6118362	லீ	-0.28603196
-2.3823893	ற்	-0.45020184
-2.7770348	மீ	-0.39369825
-2.7770348	மை	-0.33625656
-2.8192213	ஜோ	-0.28828317
-3.230472	ழ்	-0.2333422
-2.9778848	கொ	-0.2747187
-2.8192213	டோ	-0.33411252
-3.1290796	கௌ	-0.2668631
-2.7385857	றா	-0.23908247
-2.5138433	ளி	-0.43610698
-2.9778848	தோ	-0.21974464
-3.4476771	சொ	-0.20548235
-3.5083163	மௌ	-0.20548235
-3.0469356	மொ	-0.27050877
-3.0469356	றோ	-0.26348358
-3.4476771	ஞ	-0.20548235
-3.362986	றெ	-0.21541658
-3.362986	ஈ	-0.27372116
-3.4476771	ணோ	-0.20548235
-3.4476771	நெ	-0.21653458
-3.362986	ஸீ	-0.20548235
-3.0469356	றை	-0.21374497
-3.1290796	ணு	-0.23629673
-3.4476771	நை	-0.20548235
-3.1290796	லூ	-0.23952028
-3.230472	யொ	-0.21541658
-3.4476771	ஷெ	-0.22558336
-2.8659508	தூ	-0.25457004
-2.9183216	ஷோ	-0.21653458
-3.0469356	றூ	-0.21974464
-2.8192213	னை	-0.31292534
-3.5083163	ஊ	-0.20548235
-3.5083163	ல௧	-0.20548235
-3.4476771	ஹே	-0.20548235
-2.9778848	றே	-0.24435446
-3.5083163	ஙி	-0.20548235
-3.4476771	ஸோ	-0.20548235
-2.9183216	பீ	-0.22558336
-3.230472	ஜூ	-0.2783045
-3.1290796	ளே	-0.21541658
-3.5083163	டொ	-0.20548235
-3.5083163	வூ	-0.20548235
-3.4476771	ழே	-0.2575949
-3.1290796	சூ	-0.27372116
-3.5083163	நொ	-0.20548235
-3.0469356	மெ	-0.22434984
-3.362986	ஹெ	-0.22558336
-3.362986	ஷே	-0.20548235
-3.230472	றீ	-0.21541658
-3.1290796	னெ	-0.21653458
-3.362986	னூ	-0.23075746
-3.0469356	டை	-0.23150586
-3.4476771	ணை	-0.20548235
-3.5083163	ஞே	-0.20548235
-3.5083163	யீ	-0.20548235
-3.5083163	ஸு	-0.20548235
-3.230472	ளு	-0.20548235
-3.4476771	ஹு	-0.20548235
-3.4476771	நூ	-0.20548235
-3.4476771	ழு	-0.20548235
-3.5083163	ஹீ	-0.20548235
-3.4476771	வொ	-0.20548235
-3.5083163	ரொ	-0.20548235
-3.5083163	பௌ	-0.20548235
-3.5083163	ஷை	-0.20548235
-3.5083163	க்‍	-0.20548235
-3.4476771	ளோ	-0.20548235
-3.5083163	P	-0.20548235
-3.5083163	ஜொ	-0.20548235
-3.5083163	ஹொ	-0.20548235
-3.5083163	ஞெ	-0.20548235
-3.5083163	ஞை	-0.20548235
-3.5083163	றொ	-0.20548235
-3.5083163	ஷு	-0.20548235
-3.5083163	.	-0.20548235
-3.5083163	க்‌	-0.20548235
-3.5083163	ளெ	-0.20548235
-3.5083163	ணெ	-0.20548235
-3.5083163	ஓ	-0.20548235

\2-grams:
-1.3574167	சி </s>	0
-1.0320404	த் </s>	0
-1.6819245	ர </s>	0
-0.9660395	ன் </s>	0
-2.2473502	வு </s>	0
-2.0063083	ட </s>	0
-1.3674242	ரா </s>	0
-1.11072	ம் </s>	0
-1.4222009	து </s>	0
-1.3463366	பா </s>	0
-1.1050155	கா </s>	0
-0.32833076	வோ </s>	0
-0.7699745	டு </s>	0
-1.0486617	ல் </s>	0
-1.7517251	வ </s>	0
-1.0186808	ஸ் </s>	0
-1.099063	ர் </s>	0
-1.7347032	வி </s>	0
-1.9302287	ம </s>	0
-0.9498179	ஜ் </s>	0
-1.2571988	மா </s>	0
-0.97468793	லா </s>	0
-1.0283256	ணி </s>	0
-1.3590323	யி </s>	0
-1.1822912	கே </s>	0
-1.8235276	த </s>	0
-1.1369933	னி </s>	0
-1.1454288	மி </s>	0
-1.568244	ரு </s>	0
-1.8084643	ந் </s>	0
-1.229796	சா </s>	0
-1.702972	பி </s>	0
-0.5382729	யோ </s>	0
-1.7690365	ல </s>	0
-1.3562047	க் </s>	0
-1.6670804	கு </s>	0
-1.9948964	ண </s>	0
-1.8567033	ரெ </s>	0
-1.0289034	ட் </s>	0
-1.493679	ன </s>	0
-1.5664972	வா </s>	0
-1.2781534	தி </s>	0
-1.7529148	ய </s>	0
-1.2454114	ரி </s>	0
-1.0482906	யா </s>	0
-1.7370737	க </s>	0
-1.4538283	கி </s>	0
-1.0665272	ள் </s>	0
-1.2064239	ளை </s>	0
-1.8367283	செ </s>	0
-2.1473024	ச </s>	0
-1.1023831	ரை </s>	0
-1.9622875	ங் </s>	0
-1.291576	டி </s>	0
-0.061379384	வை </s>	0
-1.3833755	சு </s>	0
-1.5187161	லே </s>	0
-0.8894948	ஜா </s>	0
-1.5221055	ஜு </s>	0
-1.2772545	ப் </s>	0
-1.2537618	ஷ் </s>	0
-1.6890768	தீ </s>	0
-1.9436265	ப </s>	0
-1.9135337	ஷ </s>	0
-1.7759867	ரோ </s>	0
-0.93923897	ணீ </s>	0
-0.9805717	னா </s>	0
-1.5589585	ஸ </s>	0
-1.1147792	வ் </s>	0
-1.1068412	லு </s>	0
-1.3932192	றி </s>	0
-0.16638681	யை </s>	0
-2.005625	ஜ </s>	0
-1.1703571	ஷா </s>	0
-1.2144686	ழி </s>	0
-1.0598419	தா </s>	0
-1.8477533	ரே </s>	0
-1.3813767	ண் </s>	0
-1.7541484	மு </s>	0
-0.95488787	ளா </s>	0
-1.6051427	சே </s>	0
-1.6713806	வீ </s>	0
-1.6662619	ஜி </s>	0
-1.6658059	கீ </s>	0
-1.136427	ணா </s>	0
-1.9585212	னு </s>	0
-1.8371853	ரூ </s>	0
-1.7486348	மூ </s>	0
-1.2891307	லி </s>	0
-1.6216927	எ </s>	0
-0.96651375	ய் </s>	0
-1.8266034	லோ </s>	0
-1.7317282	னோ </s>	0
-1.4984717	பை </s>	0
-1.5341424	ஜே </s>	0
-1.2230393	ஸா </s>	0
-1.192978	கை </s>	0
-1.1900805	பு </s>	0
-1.7526698	னே </s>	0
-2.34769	ஸி </s>	0
-0.929494	னீ </s>	0
-1.5305068	ச் </s>	0
-1.160156	சை </s>	0
-1.463251	ஏ </s>	0
-1.697273	ஷி </s>	0
-1.3728118	ஜீ </s>	0
-1.2797486	ரீ </s>	0
-1.3767405	று </s>	0
-1.5433121	கோ </s>	0
-1.4263997	ஹா </s>	0
-1.1774627	தை </s>	0
-1.2153081	லை </s>	0
-1.0812774	டா </s>	0
-1.4156643	நீ </s>	0
-1.4167129	லீ </s>	0
-1.3256497	ற் </s>	0
-1.0074242	மீ </s>	0
-1.6894991	மை </s>	0
-1.079095	டோ </s>	0
-1.2892487	றா </s>	0
-1.5470263	ளி </s>	0
-1.4133731	சொ </s>	0
-1.6207206	றோ </s>	0
-1.1174797	ஞ </s>	0
-1.1174797	ணோ </s>	0
-1.3503513	றை </s>	0
-1.5586427	ணு </s>	0
-1.2175796	நை </s>	0
-1.2935888	யொ </s>	0
-1.3983388	றூ </s>	0
-1.320535	னை </s>	0
-1.498783	பீ </s>	0
-1.0252533	ஜூ </s>	0
-1.2935888	ளே </s>	0
-1.0512716	யீ </s>	0
-1.1718295	ளு </s>	0
-1.256826	ஹு </s>	0
-1.1174797	ஞை </s>	0
-1.0512716	ஷு </s>	0
-1.1174797	. </s>	0
-1.332119	<s> சி	-1.8849933
-1.648207	ர சி	-1.0703595
-1.9954385	ன் சி	-0.77562463
-2.5657463	வு சி	-0.61482257
-2.3276982	ரா சி	-0.5580741
-2.148526	ம் சி	-0.6428513
-2.1714296	து சி	-0.5524997
-1.975493	பா சி	-0.781154
-2.308366	கா சி	-0.9370418
-2.1738808	ல் சி	-0.45013404
-1.865934	வ சி	-0.84345347
-2.5657377	ஸ் சி	-0.5690651
-2.0742831	ர் சி	-1.2657924
-2.615902	வி சி	-0.6940038
-2.1604364	ம சி	-1.2533118
-1.9744868	மா சி	-0.7818394
-2.2537036	ணி சி	-0.6940038
-2.4782205	யி சி	-0.6940038
-1.9784603	நி சி	-0.61482257
-2.325774	கே சி	-0.81894255
-2.3253314	த சி	-1.0296943
-2.4300764	னி சி	-0.91585255
-2.0038	ரு சி	-0.7287659
-1.9467119	ல சி	-2.0331237
-2.2971709	க் சி	-0.6204583
-1.8626224	ண சி	-1.5786104
-2.0845804	ட் சி	-0.6691802
-1.9519813	ன சி	-0.92369443
-2.440652	வா சி	-0.31648177
-2.43436	தி சி	-0.91585255
-1.8058847	ய சி	-1.2960638
-2.3280265	ரி சி	-0.7287659
-2.5582504	யா சி	-0.61482257
-1.8296475	ஜெ சி	-0.74590576
-2.2108746	க சி	-1.2058872
-1.9723198	செ சி	-0.61482257
-2.3054786	ச சி	-1.2261177
-1.8921801	ரை சி	-1.4599205
-2.0447235	சு சி	-0.8439379
-2.0869656	ஷ் சி	-0.7909138
-2.056292	ப சி	-0.5316322
-2.215197	ஷ சி	-0.6940038
-1.6898127	ரோ சி	-0.46640474
-2.3361874	னா சி	-0.41270977
-1.7321781	மே சி	-0.5083673
-1.9570919	லு சி	-0.76095057
-1.3761725	ஜொ சி	-0.81894255
-1.78136	றி சி	-0.91585255
-2.0189233	ஜ சி	-1.0846446
-1.9267228	அ சி	-0.6940038
-1.9379376	தா சி	-0.8806424
-1.6400323	தே சி	-0.89357615
-1.7835207	ரே சி	-0.7287659
-1.5965291	னு சி	-1.1588906
-1.5264564	டே சி	-0.81894255
-1.786631	ற சி	-0.81894255
-2.4815369	லி சி	-0.81894255
-2.2724977	ய் சி	-0.81894255
-1.558283	லோ சி	-0.870095
-1.9869009	யு சி	-0.81894255
-1.2603741	ஒ சி	-0.61482257
-1.5099477	போ சி	-0.91585255
-2.0575314	பு சி	-0.67743844
-2.0736547	னே சி	-0.76095057
-0.93343484	ச் சி	-0.9284417
-1.7420485	ஆ சி	-0.81894255
-1.1885887	ள சி	-0.815344
-1.6331378	டெ சி	-0.76095057
-0.9811894	ஞ் சி	-1.2754328
-1.6971648	ரொ சி	-0.33019653
-1.3038949	லொ சி	-0.6940038
-1.982298	ற் சி	-0.870095
-1.7114396	ஜோ சி	-0.33019653
-1.4400938	ழ் சி	-0.33019653
-1.4182339	கௌ சி	-0.870095
-1.1418785	றா சி	-0.68446064
-0.9721453	லூ சி	-1.1463015
-1.6618032	னை சி	-0.6940038
-1.5855572	றே சி	-0.870095
-1.5639025	மெ சி	-0.81894255
-0.7071552	பௌ சி	-0.95724523
-3.53047	<s> த்	-0.91585255
-1.5162382	சி த்	-1.4257605
-1.3643237	ர த்	-1.7209487
-2.3127487	ன் த்	-0.46916258
-2.3171406	வு த்	-0.81894255
-2.1566846	து த்	-0.870095
-1.9677919	பா த்	-1.0297959
-2.453964	கா த்	-1.4210025
-1.7931069	டு த்	-0.6940038
-2.4611497	ல் த்	-0.61482257
-2.22217	வ த்	-0.6695168
-2.4401155	ஸ் த்	-0.4452671
-1.4576032	ர் த்	-2.0181541
-2.4625041	வி த்	-1.3274722
-2.0241802	ம த்	-0.975528
-2.404555	லா த்	-0.91585255
-2.4662976	யி த்	-0.61482257
-1.9665316	நி த்	-1.4343665
-2.3134375	த த்	-0.6940038
-1.9241439	னி த்	-0.90084934
-2.1020145	மி த்	-1.1790941
-1.7377247	ரு த்	-1.3681502
-1.3015492	ந் த்	-1.4399704
-1.7762182	சா த்	-0.89357615
-2.0247743	பி த்	-0.95724523
-2.0763922	ல த்	-1.2892288
-2.2803013	கு த்	-0.3929738
-0.65778387	ரெ த்	-2.0962653
-2.3958874	ன த்	-1.2775804
-2.2527714	வா த்	-0.65621525
-2.4188638	தி த்	-0.81894255
-2.43632	ய த்	-1.2960638
-2.196833	ரி த்	-0.76095057
-2.3925645	யா த்	-1.3418213
-2.3193169	க த்	-0.98279935
-2.2538605	கி த்	-0.9950338
-1.5451766	ளை த்	-1.0619806
-2.064632	ச த்	-1.6698184
-2.1120617	டி த்	-0.51090044
-2.357493	வை த்	-1.2380718
-2.1844115	சு த்	-0.28275847
-2.3681781	ஜா த்	-0.61482257
-1.7110757	ப த்	-1.3531482
-2.519123	னா த்	-0.30978343
-1.9856457	றி த்	-0.6940038
-2.1652455	ஜ த்	-0.870095
-2.4009356	ஷா த்	-0.28275847
-1.9136701	அ த்	-0.81894255
-2.3474002	தா த்	-0.6236933
-1.9056128	சோ த்	-0.7287659
-0.6226816	மு த்	-2.0578246
-1.9136983	சே த்	-0.81894255
-1.7622247	வீ த்	-0.33019656
-1.3010327	ஜி த்	-1.023679
-1.5203466	கீ த்	-0.8093973
-1.9127475	னு த்	-1.4898839
-1.9306015	ரூ த்	-0.27386236
-1.7976596	மூ த்	-1.1199725
-1.106335	நா த்	-1.0567794
-2.468346	லி த்	-0.28275847
-1.7852262	பே த்	-0.25179
-1.8274109	னோ த்	-0.6247623
-1.8486658	மோ த்	-0.76095057
-1.6695948	உ த்	-0.6940038
-1.5608491	பை த்	-0.37240362
-1.3041154	சௌ த்	-0.76095057
-1.8982114	ஸா த்	-0.33019653
-1.514318	பு த்	-0.74463546
-2.0644093	னே த்	-0.81894255
-1.7527925	பெ த்	-0.38415182
-2.2854633	னீ த்	-0.28275847
-1.5358883	ஏ த்	-0.81894255
-1.4052536	ஜீ த்	-0.46989265
-1.9124732	ள த்	-0.6940038
-1.639292	நே த்	-0.870095
-2.0655384	ரீ த்	-0.6940038
-1.7484287	ஹா த்	-0.6940038
-1.7820251	மை த்	-0.76095057
-1.6441443	ணு த்	-0.6940038
-1.3059156	லூ த்	-1.0297959
-1.2389811	ஷோ த்	-0.61886394
-1.5742896	பீ த்	-0.81894255
-1.5580693	மெ த்	-0.81894255
-1.3402405	றீ த்	-0.76095057
-1.3023227	னெ த்	-0.33019653
-1.7094748	<s> ர	-1.5367318
-2.2714412	சி ர	-0.76095057
-1.73394	த் ர	-1.0102737
-2.4305596	ர ர	-0.81894255
-2.3111148	ன் ர	-1.5391018
-1.6220696	து ர	-0.77988565
-1.8141174	பா ர	-0.94726104
-2.166958	கா ர	-0.63579136
-2.4577184	ல் ர	-0.76095057
-1.3873906	வ ர	-1.980096
-1.7885953	ஸ் ர	-1.268594
-2.3415105	வி ர	-0.68866813
-1.9251494	ம ர	-1.0874313
-2.0951157	மா ர	-1.2074751
-2.4013305	லா ர	-0.61482257
-2.1106665	யி ர	-0.8882406
-1.7647343	நி ர	-1.5069171
-1.0356115	த ர	-1.5817288
-2.7035062	னி ர	-0.5524997
-2.4132483	மி ர	-0.7936051
-2.4335215	ந் ர	-0.28525347
-2.3814166	சா ர	-1.2775804
-1.1230433	பி ர	-1.6099899
-1.8897997	ந ர	-0.61482257
-2.0741	ல ர	-0.76095057
-2.2858236	க் ர	-0.74983716
-2.2768445	கு ர	-0.81894255
-2.148207	ண ர	-1.4473314
-2.0771952	ட் ர	-0.76878154
-2.045174	ன ர	-0.930093
-2.4240782	வா ர	-0.7174849
-1.837528	தி ர	-1.7569844
-2.0058186	ய ர	-1.1741306
-1.8169279	ஜெ ர	-0.81894255
-1.1111643	க ர	-1.6530372
-1.7120063	கி ர	-0.78128695
-1.701178	இ ர	-1.3591155
-1.5131372	ச ர	-1.2006098
-1.8812515	ரை ர	-0.91585255
-1.6632069	ங் ர	-0.7909138
-2.2766645	டி ர	-0.5524997
-2.3561645	வை ர	-1.1108291
-2.1808424	சு ர	-0.79237974
-2.0472622	ப் ர	-1.1771154
-1.2114615	ப ர	-1.361359
-2.1999815	ஷ ர	-0.38499475
-1.982868	றி ர	-0.6940038
-2.0065799	ஜ ர	-1.4210025
-2.3981268	ஷா ர	-0.45194155
-1.732155	அ ர	-1.3374565
-1.9334432	தா ர	-0.9950338
-0.7454922	ஹ ர	-1.0767474
-1.836626	மு ர	-1.2002833
-0.7049762	வீ ர	-0.921336
-1.938819	சீ ர	-0.81894255
-1.5191212	கீ ர	-1.0127625
-2.0987678	னு ர	-0.60948694
-1.9287106	ரூ ர	-0.72859097
-1.6969784	கெ ர	-0.6940038
-1.796717	மூ ர	-0.95724523
-1.1782033	ழ ர	-0.76095057
-1.7252547	எ ர	-0.60684353
-1.5264382	பே ர	-0.76095057
-1.7200693	லோ ர	-0.9370418
-1.9779906	யு ர	-0.5797253
-2.0173907	னோ ர	-1.3929738
-1.002635	பூ ர	-1.3390985
-1.8408539	ஜே ர	-0.76095057
-1.8432226	பு ர	-0.63751566
-2.4337382	ஸி ர	-0.76095057
-1.7507112	பெ ர	-0.76095057
-1.534453	ஏ ர	-1.1463015
-2.0626497	ரீ ர	-0.61482257
-0.51439613	ஷீ ர	-0.870095
-1.624487	டெ ர	-0.72078687
-1.5539061	தொ ர	-0.76095057
-1.5736619	யூ ர	-0.81894255
-1.79542	டா ர	-0.42293257
-1.4778848	நீ ர	-0.81894255
-1.299702	லொ ர	-0.61482257
-1.823144	மீ ர	-0.28954417
-1.4135003	கௌ ர	-0.76095057
-1.9988757	ளி ர	-1.1199725
-1.4391142	தூ ர	-0.8366713
-1.5375533	ஷோ ர	-0.38499475
-1.2661104	சூ ர	-0.6940038
-1.7029259	சி ன்	-1.3888887
-1.1749202	ர ன்	-2.2248569
-1.934985	வு ன்	-0.76866907
-0.98710644	ட ன்	-2.7409234
-2.0263562	ரா ன்	-0.77667344
-1.82608	து ன்	-0.43339568
-2.0166612	பா ன்	-0.30978343
-1.7118615	கா ன்	-0.72675735
-2.6026447	வோ ன்	-0.76095057
-1.2389311	வ ன்	-1.616149
-2.3474767	ர் ன்	-0.5179125
-0.7245823	வி ன்	-1.9955161
-1.2898382	ம ன்	-1.3403888
-1.2761198	னொ ன்	-0.28922623
-1.448178	மா ன்	-0.70834386
-2.1611426	லா ன்	-0.34454554
-1.6345865	ணி ன்	-0.5179125
-0.7126034	யி ன்	-2.1835456
-1.1978152	நி ன்	-1.2582753
-1.0644073	த ன்	-2.3941567
-0.96509534	னி ன்	-2.5293558
-1.0156808	மி ன்	-1.908343
-1.8122016	ரு ன்	-0.40058297
-1.6615293	சா ன்	-0.59053767
-1.0125589	பி ன்	-1.0793546
-1.3387296	யோ ன்	-0.7216723
-1.6200962	ந ன்	-0.343271
-1.1081104	ல ன்	-1.712679
-2.1786535	கு ன்	-0.28275847
-1.0464488	ண ன்	-1.8935761
-1.177361	ரெ ன்	-0.72627175
-1.1627682	ன ன்	-1.6156902
-1.4729419	வா ன்	-0.8968293
-1.1703497	தி ன்	-1.1108291
-1.1649902	ய ன்	-1.4866514
-1.0477042	ரி ன்	-1.6820794
-1.6518328	யா ன்	-0.96436495
-1.7433102	ஜெ ன்	-0.7397613
-1.2391984	க ன்	-1.6082193
-1.1862178	கி ன்	-0.81150043
-1.367399	செ ன்	-0.7077239
-1.6396637	இ ன்	-1.4210025
-0.9289911	ச ன்	-1.8690492
-1.817152	ரை ன்	-0.28275847
-2.004498	ங் ன்	-0.76095057
-0.94920367	டி ன்	-1.0567794
-1.9578831	சு ன்	-0.34454554
-1.7439055	ஜா ன்	-0.44800633
-1.5525246	ஜு ன்	-0.25179
-1.2454964	தீ ன்	-0.7504852
-1.114359	ப ன்	-1.7895464
-0.65595096	ஷ ன்	-1.8378279
-1.3129394	ரோ ன்	-0.35845053
-2.2675316	னா ன்	-0.34788287
-0.69547576	ஸ ன்	-0.98020816
-1.1939684	றி ன்	-0.7287659
-0.8176466	ஜ ன்	-1.9087373
-0.99930143	ஷா ன்	-1.1711252
-1.6566325	ழி ன்	-0.33019653
-1.6692164	அ ன்	-1.3782505
-2.4130735	தா ன்	-0.870095
-2.027078	தே ன்	-0.95724523
-1.22473	ஹ ன்	-0.76095057
-1.7211775	ரே ன்	-0.4211281
-1.7858843	மு ன்	-0.88199425
-1.2795541	வீ ன்	-0.44560072
-1.2393522	ஜி ன்	-1.320662
-1.7052898	கீ ன்	-0.28275847
-1.8532922	ணா ன்	-0.33019653
-0.8733487	கெ ன்	-0.67607135
-1.767586	மூ ன்	-0.6940038
-1.1250668	ற ன்	-0.8109198
-0.9566714	பொ ன்	-1.5179125
-0.9085563	லி ன்	-1.3893394
-1.3480184	ழ ன்	-0.4317773
-1.6609535	எ ன்	-0.7287659
-1.1265746	தெ ன்	-0.81894255
-1.6741575	லோ ன்	-0.52565086
-1.9302864	னோ ன்	-1.4599205
-1.7865183	மோ ன்	-0.26085088
-1.6090477	யே ன்	-0.61482257
-1.4010084	ஜே ன்	-0.47844988
-1.100032	ஸா ன்	-0.6000993
-1.9582572	பு ன்	-0.76095057
-0.35850263	ஸி ன்	-2.2339158
-1.457739	பெ ன்	-0.4473871
-1.6629837	வெ ன்	-0.6940038
-1.879654	லெ ன்	-0.61482257
-1.6653466	ஆ ன்	-0.69906855
-1.4908657	ஏ ன்	-0.709187
-0.88537043	ஷி ன்	-0.9566426
-0.9274829	ள ன்	-0.90112925
-1.8063048	ரீ ன்	-0.33522055
-1.5728633	டெ ன்	-1.171125
-0.95026517	ஹா ன்	-0.64705086
-1.3408284	நோ ன்	-0.22400361
-1.5217404	தொ ன்	-0.22400361
-1.0163611	ரொ ன்	-0.48053646
-1.4436792	ஐ ன்	-0.81894255
-1.5897504	டா ன்	-0.47618264
-0.87135756	டீ ன்	-0.7836146
-1.2737863	லொ ன்	-0.25179
-1.6808128	லீ ன்	-0.27386236
-1.7688935	மீ ன்	-0.22993179
-1.3953651	ஜோ ன்	-0.6647391
-1.5838706	கொ ன்	-1.1333364
-1.5702949	றா ன்	-0.26085088
-0.96129006	ளி ன்	-1.2168826
-1.5385551	தோ ன்	-0.870095
-1.2761198	நெ ன்	-0.6940038
-1.3116527	யொ ன்	-0.33019653
-1.5341903	றே ன்	-0.33019653
-0.6993358	ஙி ன்	-0.33019653
-1.0483619	மெ ன்	-0.59787726
-0.7216985	ஹெ ன்	-0.76095057
-1.1297185	ஷே ன்	-0.25179
-1.3152597	டை ன்	-0.23999552
-0.8632625	வொ ன்	-0.28275847
-1.0338464	த் வு	-1.7761905
-1.6967992	ர வு	-1.2516446
-0.96219647	ன் வு	-3.1932325
-2.271451	வு வு	-0.2010684
-1.876427	ட வு	-0.23999552
-1.2990153	ரா வு	-1.4640372
-1.0257014	ம் வு	-2.7340784
-1.5874997	து வு	-1.6562152
-1.2390127	பா வு	-0.80799806
-1.0069195	கா வு	-1.9026242
-2.6002703	வோ வு	-0.33019653
-1.0946566	டு வு	-0.60684353
-0.98352414	ல் வு	-1.9950337
-1.7229902	வ வு	-0.89357615
-0.96077275	ஸ் வு	-2.2103188
-1.0527424	ர் வு	-2.4162261
-1.8763746	ம வு	-0.4599206
-0.88427603	ஜ் வு	-2.0727046
-1.136062	மா வு	-1.7821399
-0.9319894	லா வு	-1.7850842
-1.1146716	கே வு	-1.1061842
-1.7213107	த வு	-1.3223927
-1.685734	ரு வு	-0.7287659
-1.5177205	ந் வு	-1.2380718
-1.1048973	சா வு	-2.155152
-2.1285365	யோ வு	-0.33019653
-1.809499	ந வு	-0.81894255
-1.594818	ல வு	-0.95724523
-1.2742683	க் வு	-1.1199725
-1.3654506	கு வு	-1.0297959
-1.6562551	ண வு	-0.30581352
-1.8911308	ரெ வு	-0.33019653
-0.96284056	ட் வு	-1.6104578
-1.4159796	ன வு	-1.1946062
-1.4284834	வா வு	-0.9370418
-1.6398441	ய வு	-1.1588906
-0.95980823	யா வு	-2.2147057
-1.6264057	க வு	-0.8889804
-1.0142905	ள் வு	-1.4210025
-1.6875364	செ வு	-0.31648177
-1.9168612	ச வு	-1.3812354
-2.0004866	ங் வு	-0.33019653
-2.1759093	டி வு	-0.37240362
-1.3948591	சு வு	-1.1333364
-1.538609	லே வு	-0.23999552
-0.85145915	ஜா வு	-2.1186132
-0.97557604	T வு	-0.33019653
-1.2861378	ஜு வு	-0.61482257
-1.1187907	ப் வு	-1.3472164
-1.0133824	ஷ் வு	-1.4277359
-1.8558179	தீ வு	-1.0127625
-1.8538529	ப வு	-0.68866813
-1.8115537	ஷ வு	-0.38499475
-1.630234	ரோ வு	-0.33019653
-0.7877563	ணீ வு	-0.6940038
-0.88620806	னா வு	-1.8296664
-1.5805191	ஸ வு	-0.5179125
-0.81270546	வ் வு	-0.9950338
-1.1141042	லு வு	-1.3856746
-2.0571346	ஜ வு	-0.5179125
-1.0655291	ஷா வு	-1.3390985
-1.0227803	தா வு	-1.5059294
-1.5777669	ரே வு	-0.5690651
-1.4774772	சோ வு	-0.37640846
-1.5645477	ண் வு	-0.47331846
-1.6384608	மு வு	-0.61482257
-0.9595064	ளா வு	-1.0297959
-1.6293187	சே வு	-0.37640846
-1.702261	வீ வு	-0.33019653
-1.8643712	சீ வு	-0.33019653
-1.3142197	கீ வு	-0.2010684
-1.0439965	ணா வு	-0.9950338
-1.560457	னு வு	-0.5690651
-1.7658286	மூ வு	-0.33019653
-1.7111872	ற வு	-0.870095
-1.8961266	நா வு	-0.8412636
-1.6572341	எ வு	-0.33019653
-0.88442755	ய் வு	-1.1830243
-1.8671166	லோ வு	-0.33019653
-1.9218131	யு வு	-0.33019653
-1.4724737	னோ வு	-0.4599206
-1.783023	மோ வு	-0.33019653
-1.276959	சௌ வு	-0.870095
-1.5581082	ஜே வு	-0.2010684
-0.9983821	ஸா வு	-0.65621525
-1.1334673	பு வு	-1.1588906
-1.9909462	னே வு	-0.33019653
-0.8459365	னீ வு	-1.4141631
-1.5407264	ச் வு	-0.4599206
-1.4882815	ஏ வு	-0.33019653
-1.2583582	ஜீ வு	-0.5179125
-1.8343207	ள வு	-0.33019653
-1.0911598	ரீ வு	-1.0127625
-1.3964158	று வு	-0.2010684
-1.5672405	கோ வு	-0.30581352
-1.4452872	ஹா வு	-0.23999552
-0.905215	டா வு	-0.89357615
-1.4376831	நீ வு	-0.33019653
-1.2608961	லீ வு	-0.3929738
-0.90131366	ற் வு	-0.7287659
-1.01298	மீ வு	-0.61482257
-1.399845	ழ் வு	-0.33019653
-1.0866283	டோ வு	-0.65621525
-1.3045971	றா வு	-0.5179125
-1.435617	சொ வு	-0.33019653
-1.6524341	றோ வு	-0.33019653
-1.1285915	ஞ வு	-0.33019653
-1.1285915	ணோ வு	-0.33019653
-1.3321049	ணு வு	-0.38499475
-1.3099791	யொ வு	-0.33019653
-1.4190965	றூ வு	-0.33019653
-1.2536452	பீ வு	-0.33019653
-1.0328212	ஜூ வு	-0.30581352
-1.3099791	ளே வு	-0.23999552
-0.69891715	வூ வு	-0.33019653
-1.0607948	யீ வு	-0.33019653
-1.2722168	ஹு வு	-0.33019653
-1.0607948	P வு	-0.33019653
-1.0607948	ஷு வு	-0.33019653
-1.1285915	. வு	-0.2010684
-2.568659	<s> ட	-1.0451126
-1.9315684	சி ட	-0.61482257
-1.8299173	ன் ட	-1.1147377
-0.38916057	வு ட	-3.6273224
-2.6136208	கா ட	-0.56108606
-2.0569487	ல் ட	-1.0919437
-2.6124895	வ ட	-0.9950338
-1.7039483	ஸ் ட	-1.0465503
-0.67651486	வி ட	-3.4475868
-2.5464675	ம ட	-0.76095057
-1.8616445	மா ட	-0.86780035
-1.8823147	ணி ட	-0.5179125
-0.7251141	யி ட	-2.824996
-1.3370105	நி ட	-1.2380718
-0.9503309	னி ட	-3.2029822
-1.0785841	மி ட	-2.7483613
-2.5406098	ந் ட	-0.6940038
-1.2738104	பி ட	-1.3782505
-1.3452721	ந ட	-1.6234227
-2.0318556	க் ட	-0.81894255
-1.5655779	ட் ட	-0.86780035
-1.2219399	தி ட	-1.7909138
-1.1270483	ரி ட	-2.425055
-2.5605958	க ட	-0.7909138
-1.1505208	கி ட	-1.2960638
-1.8927327	ங் ட	-0.870095
-0.97989	டி ட	-1.549321
-2.347823	சு ட	-0.5179125
-2.4095187	ஷ் ட	-0.870095
-1.227169	றி ட	-0.6940038
-2.0571072	அ ட	-0.870095
-0.9983247	ண் ட	-1.1869193
-1.4439892	ஜி ட	-2.0650716
-2.2807636	நா ட	-0.76095057
-1.0524337	லி ட	-1.953279
-0.2545955	யு ட	-3.120515
-0.40629724	ஸி ட	-2.1662726
-1.776077	வெ ட	-0.6940038
-0.928961	ஷி ட	-1.5179125
-1.9535203	கோ ட	-0.37640846
-1.6359153	யூ ட	-0.5524997
-2.1775606	லை ட	-0.38499475
-0.9775745	ளி ட	-1.4210025
-1.5281078	சொ ட	-0.91585255
-1.4830686	மொ ட	-0.81894255
-0.7144669	ஙி ட	-0.33019653
-1.6353679	பீ ட	-0.7144239
-1.7183754	<s> ரா	-1.5398432
-1.8802992	சி ரா	-1.0407913
-1.6072357	த் ரா	-0.9452524
-1.6772146	ர ரா	-1.7113464
-1.6269784	ன் ரா	-1.216881
-1.5925924	ட ரா	-1.1165663
-2.1311336	ம் ரா	-0.6589551
-1.6147238	து ரா	-0.77642894
-2.073628	பா ரா	-0.95724523
-2.426711	கா ரா	-0.81894255
-1.3972577	ல் ரா	-1.2168826
-1.5583543	வ ரா	-1.3360049
-1.9140028	ஸ் ரா	-0.7841804
-2.4282012	ர் ரா	-0.95724523
-1.9220853	வி ரா	-1.0010241
-1.5774531	ம ரா	-1.1817181
-1.2958238	னொ ரா	-0.56108606
-1.9341688	ஜ் ரா	-0.5099335
-2.2271311	மா ரா	-0.61482257
-2.209985	லா ரா	-1.0297959
-2.224045	ணி ரா	-0.7321873
-2.443391	யி ரா	-0.27386236
-1.9436144	நி ரா	-0.57952374
-1.4640429	த ரா	-1.4671397
-1.9825557	னி ரா	-0.9765504
-2.3910196	மி ரா	-0.76095057
-2.0924938	ரு ரா	-0.6940038
-2.4168124	ந் ரா	-0.61482257
-1.6555576	பி ரா	-1.1049087
-1.6751827	ல ரா	-1.342596
-1.8218932	கு ரா	-0.6124789
-1.4826981	ண ரா	-1.4343665
-2.0670621	ட் ரா	-0.59993875
-1.4555339	ன ரா	-1.5376221
-2.4018888	வா ரா	-0.31264156
-1.5992835	தி ரா	-1.324672
-1.5539395	ய ரா	-1.4360286
-2.0379195	ரி ரா	-0.81793386
-2.5160801	யா ரா	-0.6940038
-1.799724	ஜெ ரா	-0.5885383
-1.3915496	க ரா	-1.7395304
-1.9633148	கி ரா	-0.5255523
-2.019379	ள் ரா	-0.83692265
-1.534447	ளை ரா	-0.6940038
-1.256139	இ ரா	-1.7094786
-1.8091078	ச ரா	-1.0315952
-1.4445713	ரை ரா	-0.9856504
-2.253923	டி ரா	-0.6940038
-1.7448665	சு ரா	-0.82789737
-1.8222063	லே ரா	-0.22993179
-1.9140478	ஷ் ரா	-0.89357615
-1.2901237	ப ரா	-1.2406765
-2.4952831	னா ரா	-0.76095057
-1.9672458	மே ரா	-0.81894255
-1.9898679	ஜ ரா	-0.65621525
-1.8886856	அ ரா	-0.81894255
-2.486385	தா ரா	-0.67743844
-2.0722053	தே ரா	-0.81894255
-1.4343996	ரே ரா	-0.6477976
-1.5937428	ண் ரா	-0.8176354
-1.7477705	வீ ரா	-0.6940038
-1.9224132	சீ ரா	-0.6940038
-2.192106	ஜி ரா	-0.3929738
-1.7550004	கீ ரா	-0.6940038
-1.8970546	னு ரா	-0.75561494
-2.1774716	நா ரா	-1.3472164
-2.443109	லி ரா	-0.76095057
-1.2040805	கூ ரா	-0.2010684
-1.768724	பே ரா	-0.81894255
-2.243983	ய் ரா	-0.23999552
-1.9285945	லோ ரா	-0.76095057
-1.996788	னோ ரா	-0.6194465
-1.5512	பை ரா	-1.2168826
-1.8246244	ஜே ரா	-0.76095057
-1.4948804	போ ரா	-0.4139904
-1.848799	கை ரா	-0.6940038
-1.5074683	பு ரா	-0.7925567
-2.4215739	ஸி ரா	-0.6940038
-1.7156584	ஆ ரா	-0.76095057
-1.9056313	சை ரா	-0.547339
-1.983681	ஜீ ரா	-0.33019653
-1.6663241	ள ரா	-0.7287659
-2.0429482	ரீ ரா	-0.61482257
-1.8339112	கோ ரா	-0.81894255
-1.4721628	ஹா ரா	-0.3798921
-2.0626755	லை ரா	-0.51257694
-1.4515729	ஹி ரா	-0.25179
-1.7145718	ற் ரா	-0.5181948
-1.8106841	மீ ரா	-0.35268813
-1.4273076	ழ் ரா	-0.6940038
-1.9820246	ளி ரா	-0.95724523
-1.3331354	ளே ரா	-0.61482257
-1.3331354	றீ ரா	-0.47331846
-2.5355756	சி ம்	-0.7909138
-1.4590701	ர ம்	-1.6747644
-2.628651	வு ம்	-0.6940038
-1.4906597	ட ம்	-2.9618833
-1.7055173	ரா ம்	-0.868755
-2.27227	து ம்	-0.9950338
-2.0502725	கா ம்	-0.8535811
-1.8948203	வ ம்	-1.46676
-2.228078	ம ம்	-0.32484028
-2.1301293	லா ம்	-0.9370418
-1.1389788	த ம்	-1.8648938
-2.0799973	ரு ம்	-0.6940038
-2.4859085	சா ம்	-0.71106076
-1.7147415	ந ம்	-0.76095057
-1.2968128	ல ம்	-1.4185278
-2.3903022	கு ம்	-0.6940038
-1.36404	ண ம்	-1.5124496
-1.2432121	ன ம்	-1.8392693
-2.5304122	வா ம்	-0.91585255
-1.2487614	ய ம்	-1.6186118
-2.5759284	ரி ம்	-0.870095
-2.1508021	யா ம்	-1.0574032
-1.5141636	க ம்	-2.0919437
-2.368143	கி ம்	-0.61482257
-2.0424216	செ ம்	-0.8296664
-1.7656194	இ ம்	-0.81894255
-1.325756	ச ம்	-1.425503
-2.4397452	ஜா ம்	-0.33019656
-1.8321221	ப ம்	-0.8189425
-2.065662	ஷ ம்	-0.50893617
-2.2197309	னா ம்	-1.0772206
-1.5742059	லு ம்	-0.43398473
-1.7598834	ஜ ம்	-0.45058748
-2.2437413	ஷா ம்	-0.33101094
-1.4538496	அ ம்	-1.3472162
-1.783711	தா ம்	-1.2168826
-1.459929	ஹ ம்	-0.67227775
-2.0706713	ரே ம்	-0.7367631
-2.136552	மு ம்	-0.5690651
-1.9864613	சே ம்	-0.2010684
-1.7483284	கெ ம்	-0.870095
-1.55185	ற ம்	-1.006933
-2.570396	லி ம்	-0.28275847
-1.7109338	ழ ம்	-0.27386236
-1.7930957	எ ம்	-0.33019656
-1.529048	யு ம்	-1.2960638
-1.428595	உ ம்	-0.91585255
-1.3271337	சௌ ம்	-0.6940038
-1.6990716	யே ம்	-0.56108606
-1.9154109	ஜே ம்	-0.76095057
-1.7582529	வெ ம்	-0.76095057
-1.6733214	லெ ம்	-1.2582753
-1.3356158	ள ம்	-0.72007024
-1.7966838	லீ ம்	-0.26085088
-1.6684496	றா ம்	-0.76095057
-1.6336204	தோ ம்	-0.76095057
-1.6224504	றே ம்	-0.6940038
-2.0337424	<s> து	-1.4147893
-1.2916677	த் து	-1.4916574
-2.5437262	ர து	-0.7909138
-2.9504876	ன் து	-0.23999552
-2.8279533	ரா து	-0.870095
-2.383671	வ து	-1.171125
-2.5676131	ஸ் து	-0.870095
-2.7139387	ர் து	-0.6940038
-2.6287808	வி து	-1.1024984
-2.13429	ம து	-0.92932236
-2.48427	மா து	-0.7287659
-1.8733705	நி து	-0.90112925
-2.702471	த து	-0.76095057
-2.372121	மி து	-0.8799857
-2.3808815	ரு து	-0.61482257
-1.1004863	ந் து	-2.4837203
-2.3695047	ல து	-1.0364265
-2.5076518	கு து	-1.1463015
-2.1494117	ன து	-3.453168
-2.2147317	ய து	-0.8467234
-2.7050128	ரி து	-0.91585255
-2.7796574	யா து	-1.1199725
-2.6280649	க து	-1.0619806
-2.1714969	ச து	-1.4793336
-2.1561959	ஜ து	-0.98279935
-2.1195312	அ து	-0.6940038
-2.2215252	மு து	-0.65621525
-2.0569532	சே து	-0.7174849
-2.417969	ஜி து	-0.76095057
-1.9083719	பே து	-0.81894255
-1.9513268	பு து	-0.7909138
-2.059561	ள து	-0.26085088
-1.9289455	மீ து	-0.5099335
-1.3884922	யொ து	-0.76095057
-1.7836189	<s> பா	-1.5300465
-2.699612	த் பா	-0.76095057
-2.0022554	ர பா	-1.1124259
-2.7672083	ரா பா	-0.37640846
-1.3551713	ம் பா	-1.1011068
-2.3385663	து பா	-0.76095057
-2.4226766	பா பா	-0.81894255
-2.476683	வ பா	-1.3445271
-2.5394874	ஸ் பா	-0.7711698
-2.650319	ர் பா	-0.76095057
-2.7888818	வி பா	-0.91585255
-2.5659423	ம பா	-0.76095057
-2.1078165	நி பா	-0.76095057
-1.5897332	ரு பா	-0.86686504
-2.5070662	ல பா	-0.76095057
-2.0988302	ண பா	-1.1946062
-2.4299848	ன பா	-1.5690651
-2.4216614	தி பா	-0.83743674
-2.0745282	ய பா	-1.3593996
-2.7221878	யா பா	-0.6940038
-2.4503	க பா	-1.2582753
-2.160396	ள் பா	-0.5179125
-2.4454668	ச பா	-1.0353284
-1.982934	ரை பா	-0.3929738
-1.8139005	சு பா	-0.9868
-1.2950193	ப் பா	-0.89901185
-2.161734	ஷ் பா	-0.4593179
-1.7960494	தீ பா	-0.6849294
-2.1182191	றி பா	-0.65621525
-1.961155	ஹ பா	-0.870095
-2.0265553	சோ பா	-0.31264156
-2.3704538	ஜி பா	-0.28275847
-2.2514813	னு பா	-0.44594556
-1.5013903	ரூ பா	-0.48115048
-2.0592186	யு பா	-0.23999552
-1.33825	சௌ பா	-0.61482257
-1.7554289	பூ பா	-1.968931
-1.9543407	கை பா	-0.9370418
-2.1154833	ஜீ பா	-0.28275847
-2.204385	ரீ பா	-0.76095057
-0.761389	கோ பா	-1.6821058
-1.4845644	தூ பா	-0.28275847
-1.6010648	ஷோ பா	-0.30581352
-1.5084912	றூ பா	-0.76095057
-2.0203662	<s> கா	-1.3539584
-1.4102359	சி கா	-1.0476462
-1.9586568	ர கா	-1.2861737
-2.6236978	ரா கா	-0.81894255
-2.5107508	ம் கா	-0.81894255
-2.0395012	து கா	-0.4347222
-2.3268325	ல் கா	-0.72078687
-2.2522802	வ கா	-0.80045915
-2.1170082	ஸ் கா	-0.76422566
-2.2349186	ர் கா	-1.1381862
-2.100905	வி கா	-0.9085533
-2.0456815	ம கா	-1.065841
-1.9690584	ஜ் கா	-0.76095057
-2.125261	மா கா	-1.1199725
-2.4417007	லா கா	-0.870095
-2.2719884	ணி கா	-1.0619806
-2.2871482	யி கா	-0.3421663
-2.000158	நி கா	-0.81894255
-2.0715384	னி கா	-0.80085355
-2.1198812	மி கா	-0.48338926
-1.9036002	ரு கா	-1.0541552
-1.6703361	பி கா	-1.1199725
-2.2265906	யோ கா	-0.8080581
-2.1024396	ல கா	-0.6318795
-1.1468848	க் கா	-1.0425338
-2.3202605	கு கா	-1.0619806
-2.1911156	ண கா	-0.76095057
-2.3165088	ன கா	-0.61150205
-1.7764142	தி கா	-1.3856746
-2.2601113	ய கா	-1.3020542
-1.9519217	ரி கா	-0.5528227
-2.5848842	யா கா	-0.5524997
-1.8481052	ஜெ கா	-0.61482257
-2.2952466	கி கா	-0.28922623
-2.3287296	ச கா	-1.3607441
-1.245041	ங் கா	-1.0012163
-2.2582371	வே கா	-0.8929429
-2.2257395	சு கா	-0.6940038
-1.8610463	லே கா	-0.37673023
-2.1001587	ஷ் கா	-0.5656695
-2.1575685	தீ கா	-0.36045188
-2.1949596	ப கா	-1.2960638
-1.9330353	ரோ கா	-0.6194465
-2.5541985	னா கா	-0.91585255
-2.109893	வ் கா	-0.9950338
-2.0174334	றி கா	-0.81894255
-1.8993949	ஜ கா	-0.6108147
-2.4330966	ஷா கா	-0.33019653
-1.1423087	ரே கா	-0.88588935
-1.696661	சோ கா	-0.33476138
-2.0829558	மு கா	-0.81894255
-1.7829187	வீ கா	-0.23999552
-1.6051537	ஜி கா	-0.9158525
-1.9352953	னு கா	-0.252033
-2.217205	நா கா	-0.76095057
-2.5056307	லி கா	-0.3978219
-1.2165697	றொ கா	-0.5099335
-2.0551565	னோ கா	-0.5099335
-1.5983976	மோ கா	-0.7144239
-1.6910074	உ கா	-0.6940038
-1.6720517	யே கா	-0.76095057
-2.0791628	பு கா	-0.33019653
-1.6526222	னே கா	-0.41377887
-1.7582172	ஆ கா	-0.76095057
-1.9502612	சை கா	-0.76095057
-1.5519964	ஏ கா	-1.0619806
-1.4479978	ஷி கா	-0.9370418
-1.940254	ள கா	-0.6940038
-1.8828862	ரீ கா	-1.2960638
-1.3831953	நோ கா	-0.37673023
-2.10651	லை கா	-0.5179125
-1.1781262	ணு கா	-0.50555
-1.2903547	றே கா	-0.38499475
-1.3502039	றீ கா	-1.2168826
-3.657114	<s> வோ	-0.547339
-1.0486339	த் வோ	-1.7483615
-1.698315	ர வோ	-1.4072142
-0.94168764	ன் வோ	-3.1984746
-2.1147587	வு வோ	-0.37640846
-1.879552	ட வோ	-0.33019653
-1.334378	ரா வோ	-1.6482463
-1.058942	ம் வோ	-2.7277625
-1.4371505	து வோ	-1.5013133
-1.206872	பா வோ	-1.2058872
-1.0337903	கா வோ	-1.9003799
-2.6026447	வோ வோ	-0.33019653
-0.9597552	டு வோ	-0.65621525
-0.9713689	ல் வோ	-1.9913995
-1.7718796	வ வோ	-0.76095057
-0.95538497	ஸ் வோ	-2.2103188
-1.0301751	ர் வோ	-2.4127822
-1.879097	ம வோ	-0.5690651
-0.82486427	ஜ் வோ	-2.0727046
-1.1365957	மா வோ	-1.773185
-0.9467374	லா வோ	-1.7966661
-1.0256002	கே வோ	-1.2058872
-1.844932	த வோ	-1.3050187
-1.5924029	ரு வோ	-0.81894255
-1.5183116	ந் வோ	-1.2380718
-1.1282386	சா வோ	-2.1463015
-2.1323695	யோ வோ	-0.33019653
-1.7180659	ல வோ	-0.81894255
-1.2747047	க் வோ	-1.1946062
-1.3662958	கு வோ	-1.0461863
-1.6584544	ண வோ	-0.47331846
-1.8947285	ரெ வோ	-0.33019653
-0.9630657	ட் வோ	-1.5970938
-1.3667094	ன வோ	-1.248291
-1.4291409	வா வோ	-0.9950338
-2.3085487	தி வோ	-0.76095057
-1.6411489	ய வோ	-1.0919437
-0.9599943	யா வோ	-2.1968858
-1.6557112	க வோ	-1.171125
-1.0147765	ள் வோ	-1.4001524
-1.8824842	செ வோ	-0.33019653
-2.1174269	ச வோ	-0.61482257
-2.004498	ங் வோ	-0.23999552
-2.1812313	டி வோ	-0.76095057
-1.3960242	சு வோ	-1.2058872
-1.5406494	லே வோ	-0.2010684
-0.87095976	ஜா வோ	-2.1346505
-0.97636807	T வோ	-0.33019653
-1.2876918	ஜு வோ	-0.65621525
-1.0927795	ப் வோ	-1.3782505
-1.013696	ஷ் வோ	-1.3856746
-1.7113678	தீ வோ	-0.9370418
-1.9823024	ப வோ	-0.3929738
-1.814006	ஷ வோ	-0.23999552
-1.6330985	ரோ வோ	-0.23999552
-0.9424748	ணீ வோ	-0.5690651
-0.86530155	னா வோ	-1.6767774
-1.5827353	ஸ வோ	-0.5690651
-0.893238	வ் வோ	-0.870095
-1.1148372	லு வோ	-1.4277359
-2.0626383	ஜ வோ	-0.4599206
-1.0657896	ஷா வோ	-1.3782505
-1.0489185	தா வோ	-1.8912843
-1.4145839	ரே வோ	-0.4066935
-1.3049378	சோ வோ	-0.30581352
-1.5666442	ண் வோ	-0.30581352
-1.7858843	மு வோ	-0.5690651
-1.0955907	ளா வோ	-1.0127625
-1.841152	சே வோ	-0.2010684
-1.7054733	வீ வோ	-0.2010684
-1.8684144	சீ வோ	-0.33019653
-1.4816248	கீ வோ	-0.23999552
-1.0445712	ணா வோ	-0.9370418
-1.5622357	னு வோ	-0.4599206
-1.872179	ரூ வோ	-0.33019653
-1.6609535	எ வோ	-0.33019653
-0.9691929	ய் வோ	-1.2058872
-1.6741575	லோ வோ	-0.23999552
-1.924924	யு வோ	-0.33019653
-1.4741962	னோ வோ	-0.47331846
-1.7865183	மோ வோ	-0.33019653
-1.7711618	ஜே வோ	-0.33019653
-0.99887097	ஸா வோ	-0.61482257
-1.134186	பு வோ	-1.1588906
-1.7779338	னே வோ	-0.33019653
-0.84607935	னீ வோ	-1.3472164
-1.725321	ச் வோ	-0.30581352
-1.4908657	ஏ வோ	-0.33019653
-1.2592325	ஜீ வோ	-0.5690651
-1.8384271	ள வோ	-0.33019653
-1.0917752	ரீ வோ	-1.0619806
-1.3984333	று வோ	-0.2010684
-1.7805114	கோ வோ	-0.33019653
-1.447222	ஹா வோ	-0.2010684
-0.90549296	டா வோ	-1.0919437
-1.4399476	நீ வோ	-0.33019653
-1.2621659	லீ வோ	-0.30581352
-0.90169334	ற் வோ	-0.7287659
-0.9116104	மீ வோ	-0.6940038
-1.2809883	டோ வோ	-0.3929738
-1.3061622	றா வோ	-0.4599206
-1.4379054	சொ வோ	-0.33019653
-1.6557366	றோ வோ	-0.33019653
-1.1297185	ஞ வோ	-0.33019653
-1.1297185	ணோ வோ	-0.33019653
-1.3337833	ணு வோ	-0.5690651
-1.3116527	யொ வோ	-0.33019653
-1.494719	ஷோ வோ	-0.33019653
-1.4212278	றூ வோ	-0.33019653
-1.2550807	பீ வோ	-0.33019653
-1.0335853	ஜூ வோ	-0.30581352
-1.3116527	ளே வோ	-0.2010684
-1.0617588	யீ வோ	-0.33019653
-1.1857264	ளு வோ	-0.33019653
-1.2737863	ஹு வோ	-0.33019653
-1.0617588	P வோ	-0.33019653
-1.0617588	ஷு வோ	-0.33019653
-1.1297185	. வோ	-0.33019653
-3.835489	<s> டு	-0.6940038
-3.1556492	ன் டு	-0.33019653
-0.32914814	வோ டு	-3.6306014
-2.9483252	வ டு	-0.81894255
-2.8708925	ம டு	-0.76095057
-2.7681816	யி டு	-0.37063348
-2.6702828	ந் டு	-0.37063348
-0.5591054	யோ டு	-3.1218684
-2.7430892	ட் டு	-0.35268813
-1.9090387	ண் டு	-0.71191245
-1.7625287	கொ டு	-0.870095
-2.1959367	சி ல்	-0.8981238
-2.301415	ர ல்	-0.35691673
-2.3485324	வு ல்	-0.32443097
-2.2085238	ட ல்	-0.6940038
-2.670992	ரா ல்	-0.91585255
-2.2447815	து ல்	-0.61482257
-1.8460752	பா ல்	-0.99048615
-1.7261981	வ ல்	-0.97913355
-2.5503263	ர் ல்	-0.25179
-2.526603	வி ல்	-0.7462971
-1.8759325	ம ல்	-0.8442011
-0.97747195	னொ ல்	-0.51257694
-1.7179941	மா ல்	-0.7909138
-2.1199272	லா ல்	-0.35661566
-2.5363379	யி ல்	-0.98012334
-2.1432455	கே ல்	-0.28679508
-2.257617	த ல்	-0.4858747
-2.1385143	மி ல்	-0.7310643
-2.2155418	ரு ல்	-0.28275847
-1.896042	பி ல்	-0.7183242
-1.9539849	ந ல்	-1.2380718
-2.1775277	கு ல்	-0.4618464
-2.0075388	ரெ ல்	-0.81894255
-2.3547611	ன ல்	-0.34774736
-0.4559797	வா ல்	-3.3289845
-2.354376	தி ல்	-1.2204511
-1.7696266	ய ல்	-0.98691595
-2.380449	ரி ல்	-0.4414226
-1.1181995	யா ல்	-2.348543
-1.9381142	க ல்	-0.93745613
-2.022289	கி ல்	-0.71173257
-0.5548475	செ ல்	-2.0558858
-2.1075492	ச ல்	-0.51333517
-2.3610735	டி ல்	-0.6940038
-0.7917509	வே ல்	-1.5714711
-2.271418	சு ல்	-0.81894255
-2.0974226	ப ல்	-0.4369449
-2.5923576	னா ல்	-0.81894255
-2.4678311	ஷா ல்	-0.26085088
-1.7539787	ழி ல்	-0.6054077
-1.9908633	அ ல்	-0.8787812
-2.5464194	லி ல்	-0.91585255
-1.5022122	எ ல்	-0.5113118
-2.09292	னோ ல்	-0.81894255
-1.1741832	யே ல்	-0.49409354
-1.2101645	போ ல்	-0.55763113
-2.115494	பு ல்	-0.25179
-1.8013008	பெ ல்	-0.23999552
-0.7828341	வெ ல்	-0.7511167
-1.7849078	ஆ ல்	-0.33019653
-1.127445	யெ ல்	-0.41111928
-1.6657901	டெ ல்	-0.870095
-1.9080856	கோ ல்	-0.23999552
-1.3944658	நோ ல்	-0.27386236
-1.7327093	ரொ ல்	-0.76095057
-1.5073562	நீ ல்	-0.33019653
-1.8253658	மை ல்	-0.6940038
-1.7447193	ஜோ ல்	-0.25179
-1.5060835	சொ ல்	-0.95724523
-1.320713	நெ ல்	-0.81894255
-1.2743162	நை ல்	-0.6940038
-0.7334353	ஷெ ல்	-0.47618264
-1.5911673	மெ ல்	-0.61482257
-1.9493967	<s> வ	-1.3782505
-1.4438024	சி வ	-1.395345
-2.5859375	த் வ	-0.870095
-1.6904324	ர வ	-1.1043811
-2.5916448	ன் வ	-0.7909138
-2.4677103	ரா வ	-0.781154
-2.1198285	பா வ	-0.7287659
-2.3237202	கா வ	-0.7909138
-1.8093585	டு வ	-0.6940038
-2.1846812	ல் வ	-1.32494
-1.256944	ஸ் வ	-2.1002285
-2.2326508	ர் வ	-0.8981238
-2.6396792	வி வ	-1.0919437
-2.1226676	மா வ	-1.1061842
-1.805995	லா வ	-1.2168826
-2.2693288	ணி வ	-0.84527147
-1.7855575	நி வ	-0.60948694
-1.5718468	த வ	-1.0544895
-2.577393	னி வ	-0.67151254
-1.9012944	ரு வ	-0.94927627
-1.919317	ந வ	-1.146479
-1.8497005	ல வ	-0.69400376
-2.316472	கு வ	-0.6940038
-1.8733376	ண வ	-0.9032634
-2.442056	ட் வ	-0.88956827
-1.8060114	ன வ	-0.812642
-2.1953661	தி வ	-1.2838293
-1.8713046	ய வ	-1.0557317
-2.418525	யா வ	-1.1061842
-1.7867146	க வ	-1.1359607
-2.0660303	ள் வ	-0.870095
-1.9888133	செ வ	-0.870095
-1.980829	ச வ	-0.89619607
-2.314996	டி வ	-0.6940038
-1.7689698	சு வ	-1.0102737
-1.1840838	ஷ் வ	-1.3071537
-2.1546733	தீ வ	-0.5099335
-1.5301964	ப வ	-1.1613653
-2.5508902	னா வ	-0.76095057
-1.8963964	ஸ வ	-0.76095057
-2.1077244	வ் வ	-0.76095057
-1.730103	லு வ	-0.72078687
-1.7919334	றி வ	-0.5690651
-2.0342143	ஜ வ	-0.7909138
-1.9470683	அ வ	-0.81894255
-2.229319	தா வ	-0.7909138
-0.6791248	தே வ	-1.1946223
-2.011688	ரே வ	-0.9702102
-1.9659212	சீ வ	-1.4072142
-1.7283008	ஜி வ	-0.91585255
-1.9412055	ணா வ	-0.6940038
-1.9331965	னு வ	-0.61751384
-1.4712753	தெ வ	-0.7909138
-2.287489	ய் வ	-0.9032634
-1.9750177	லோ வ	-0.56108606
-1.9978404	யு வ	-1.006933
-1.6890166	உ வ	-0.81894255
-1.6965876	பூ வ	-0.8323065
-1.8639538	பு வ	-1.2654696
-2.4535694	ஸி வ	-0.57212234
-1.7741727	பெ வ	-0.56108606
-2.3055656	னீ வ	-0.67743844
-1.9344015	ஷி வ	-0.9765504
-1.0253367	ஜீ வ	-1.0750225
-1.9376538	ள வ	-0.61482257
-2.0955362	ரீ வ	-0.8366713
-1.4442433	று வ	-0.8157412
-1.6264489	கோ வ	-0.7936051
-1.7005374	தை வ	-1.0919437
-1.4226537	டீ வ	-0.6194465
-0.9955038	நு வ	-0.6194465
-1.6033418	தோ வ	-0.36045188
-1.6616751	ணு வ	-0.76095057
-1.3492886	றீ வ	-0.81894255
-1.2142437	ளு வ	-0.5099335
-2.15613	<s> ஸ்	-1.4857278
-2.1956592	சி ஸ்	-0.48080933
-1.9017181	ர ஸ்	-0.9166198
-1.6694124	ன் ஸ்	-0.9124989
-2.4837217	வு ஸ்	-0.3929738
-1.5728034	ட ஸ்	-0.58926845
-2.0263562	ரா ஸ்	-0.78508425
-2.0969932	ம் ஸ்	-0.5211349
-1.9321687	து ஸ்	-1.1199725
-1.5865978	பா ஸ்	-0.94927174
-2.2240727	கா ஸ்	-0.82789737
-2.1126292	ல் ஸ்	-0.45573986
-2.1426458	வ ஸ்	-0.6858431
-2.3474767	ர் ஸ்	-0.76095057
-2.1513205	வி ஸ்	-1.0556581
-1.879097	ம ஸ்	-0.5950785
-2.0236673	மா ஸ்	-0.5578356
-2.1611426	லா ஸ்	-0.37673023
-2.3787253	யி ஸ்	-0.33019656
-1.8789213	நி ஸ்	-0.61482257
-0.92934334	கே ஸ்	-1.8397743
-2.2260556	த ஸ்	-0.4531002
-1.62313	னி ஸ்	-0.9153546
-2.1753218	மி ஸ்	-0.4040702
-1.5137357	ரு ஸ்	-1.461314
-2.2894096	சா ஸ்	-0.81894255
-1.8138332	ந ஸ்	-0.61482257
-1.7180659	ல ஸ்	-0.56585586
-1.6181219	க் ஸ்	-0.84005773
-1.6641097	ரெ ஸ்	-0.95724523
-2.1617322	ட் ஸ்	-0.4017359
-1.6153413	ன ஸ்	-0.73179233
-1.912677	வா ஸ்	-0.59368557
-1.8857752	தி ஸ்	-0.8837137
-1.7719191	ய ஸ்	-1.1108291
-1.596363	ரி ஸ்	-0.9605346
-2.439519	யா ஸ்	-0.25179
-1.7433102	ஜெ ஸ்	-0.68720275
-1.833057	க ஸ்	-0.79666615
-1.9196327	கி ஸ்	-0.6222312
-1.9619187	ள் ஸ்	-0.28275847
-1.54016	செ ஸ்	-0.5486412
-1.6396637	இ ஸ்	-0.65621525
-2.1174269	ச ஸ்	-0.5690651
-1.7942023	ங் ஸ்	-0.7287659
-2.0425835	டி ஸ்	-0.43091628
-1.8121572	வே ஸ்	-1.2276064
-2.3156612	வை ஸ்	-0.81894255
-1.9578831	சு ஸ்	-0.7909138
-0.7986214	லே ஸ்	-1.4114208
-2.358129	ப் ஸ்	-0.27386236
-0.77219087	தீ ஸ்	-1.4751606
-1.6797409	ப ஸ்	-1.1301273
-1.6330985	ரோ ஸ்	-0.5872201
-2.1348166	னா ஸ்	-0.43075228
-1.0242414	மே ஸ்	-1.2661005
-1.5771124	றி ஸ்	-0.953279
-2.0626383	ஜ ஸ்	-0.9265764
-1.8187572	அ ஸ்	-0.89656436
-1.171538	தா ஸ்	-1.715193
-1.4246657	தே ஸ்	-0.8118826
-1.2950678	ரே ஸ்	-0.97912407
-1.7132665	ண் ஸ்	-0.26298502
-1.9688483	மு ஸ்	-0.33019653
-1.6318121	சே ஸ்	-1.3472164
-1.6597245	சீ ஸ்	-0.43141037
-2.1232412	ஜி ஸ்	-0.28275847
-1.4816248	கீ ஸ்	-0.4531002
-1.3558812	னு ஸ்	-0.7500442
-1.4521016	ரூ ஸ்	-0.8366713
-1.2045957	கெ ஸ்	-0.91585255
-1.1959496	டே ஸ்	-0.7654184
-1.482619	ற ஸ்	-0.23842655
-1.9498024	லி ஸ்	-0.4656372
-1.6609535	எ ஸ்	-0.4431286
-1.0047085	பே ஸ்	-0.6507381
-1.8226497	ய் ஸ்	-0.39842793
-1.8713837	லோ ஸ்	-0.27386236
-1.2330481	ஒ ஸ்	-0.61482257
-1.7675132	னோ ஸ்	-0.4034875
-1.7865183	மோ ஸ்	-0.23999552
-1.3355615	யே ஸ்	-1.0619806
-1.2209337	ஜே ஸ்	-1.3127984
-1.1762853	போ ஸ்	-0.45458496
-1.9582572	பு ஸ்	-2.006933
-0.6208034	னே ஸ்	-1.6019386
-2.1272452	ஸி ஸ்	-0.26868308
-1.457739	பெ ஸ்	-0.39701518
-1.3889163	னீ ஸ்	-0.6510711
-1.3955286	வெ ஸ்	-0.76095057
-1.4383143	லெ ஸ்	-0.47306156
-1.9292399	ஜீ ஸ்	-0.27386236
-1.6329409	ள ஸ்	-0.28954417
-1.1076467	நே ஸ்	-0.5976206
-1.3835506	ரீ ஸ்	-0.58014524
-0.71511865	ணே ஸ்	-1.0409517
-1.4005854	யெ ஸ்	-0.6940038
-1.8224888	ஞ் ஸ்	-0.26085088
-1.5285054	யூ ஸ்	-0.870095
-1.6321325	ரொ ஸ்	-0.40363196
-1.4436792	ஐ ஸ்	-0.65621525
-1.3824595	டீ ஸ்	-1.1199725
-0.6300152	நு ஸ்	-0.7909138
-0.6993358	ளீ ஸ்	-0.6940038
-1.4371538	லீ ஸ்	-0.33093685
-1.5838706	கொ ஸ்	-0.76095057
-1.3843693	கௌ ஸ்	-0.76095057
-1.4111849	றோ ஸ்	-0.57056284
-0.41678685	ஈ ஸ்	-1.573864
-1.3710799	றை ஸ்	-0.6940038
-1.4212278	றூ ஸ்	-0.33019656
-1.2330481	ஹே ஸ்	-0.91585255
-1.0703616	றே ஸ்	-0.43755686
-0.99749887	ளே ஸ்	-1.631856
-1.5127194	மெ ஸ்	-0.28275847
-1.3116527	றீ ஸ்	-0.76095057
-1.1857264	ளு ஸ்	-0.6940038
-0.41082102	ணெ ஸ்	-0.81894255
-2.441879	சி ர்	-0.81894255
-2.3530858	ர ர்	-0.4073121
-2.3254793	வு ர்	-0.30797443
-1.1207241	ட ர்	-1.0870913
-2.603793	ரா ர்	-0.76095057
-1.2525923	து ர்	-1.3431764
-1.9793953	பா ர்	-0.9451948
-2.1798568	கா ர்	-1.1239942
-1.4571407	வ ர்	-0.9821288
-2.4790685	வி ர்	-0.6940038
-2.035776	ம ர்	-0.7379755
-1.8184944	மா ர்	-1.968931
-2.4244215	லா ர்	-0.25179
-1.7778695	நி ர்	-1.5543418
-2.3315444	கே ர்	-0.81894255
-1.2261039	த ர்	-1.5642126
-2.4366767	மி ர்	-1.5013133
-2.4044333	சா ர்	-0.2173262
-1.90835	ந ர்	-0.84527147
-2.090406	ல ர்	-1.5286363
-2.003695	ண ர்	-0.53833264
-1.9715942	ரெ ர்	-0.23999552
-2.3001761	ன ர்	-0.30978343
-2.2661278	வா ர்	-1.0919437
-2.3048236	தி ர்	-1.3472129
-1.7093585	ய ர்	-0.8128684
-2.1201377	யா ர்	-0.82789737
-1.465456	க ர்	-1.4740071
-1.8338245	கி ர்	-1.171125
-1.5168047	ச ர்	-1.2172819
-2.2439418	வே ர்	-1.1199725
-2.1432824	தீ ர்	-0.5179125
-1.435711	ப ர்	-0.878568
-1.8648198	ஷ ர்	-1.1114159
-1.7121506	னா ர்	-0.7939753
-1.6283764	ஸ ர்	-0.80045915
-1.9622241	லு ர்	-0.28275847
-1.3781674	ஜொ ர்	-0.60684353
-1.8899893	ஜ ர்	-0.38283223
-1.9333993	அ ர்	-0.9217594
-2.3615458	தா ர்	-0.54672474
-1.4399979	ஹ ர்	-0.6349694
-1.688776	சோ ர்	-0.30647162
-1.50105	மு ர்	-1.1946062
-1.5364927	சீ ர்	-0.7174849
-1.3467096	கீ ர்	-1.3732297
-1.924901	னு ர்	-0.7909138
-0.17075475	மூ ர்	-2.3915238
-1.790877	ற ர்	-0.28275847
-0.86908865	கூ ர்	-0.95724523
-1.5346253	பே ர்	-0.57952374
-2.0390198	னோ ர்	-0.76095057
-1.860987	மோ ர்	-0.76095057
-1.0051564	பூ ர்	-0.6715745
-2.0636027	பு ர்	-0.6940038
-1.3172462	பெ ர்	-0.81894255
-2.2974126	னீ ர்	-0.8679818
-1.7214389	வெ ர்	-0.76095057
-1.7466071	ஆ ர்	-0.52381766
-1.9274057	ள ர்	-1.2775804
-2.0832875	ரீ ர்	-0.76095057
-1.636647	டெ ர்	-0.30647162
-1.7602266	ஹா ர்	-0.22400361
-1.3781674	நோ ர்	-0.870095
-1.8030384	டா ர்	-0.6455755
-1.1483045	ஹி ர்	-0.870095
-1.5549024	மீ ர்	-0.51090044
-1.715014	ஜோ ர்	-1.1588906
-1.640835	கொ ர்	-0.870095
-1.7763863	டோ ர்	-0.33019656
-1.5968904	தோ ர்	-0.26085088
-1.4851223	சொ ர்	-0.7287659
-1.4493434	மொ ர்	-0.81894255
-0.99210835	ஸீ ர்	-0.33019653
-1.3106376	லூ ர்	-0.6940038
-1.4463665	தூ ர்	-0.28922623
-1.5475143	ஷோ ர்	-0.25179
-0.70758194	ஊ ர்	-0.870095
-0.70758194	நூ ர்	-0.28275847
-1.5074579	<s> வி	-1.619891
-2.262439	சி வி	-0.76095057
-1.0182344	த் வி	-1.6588393
-1.5499641	ர வி	-1.2333452
-0.9609567	ன் வி	-3.196431
-2.098649	வு வி	-0.43339568
-1.8507355	ட வி	-0.26085088
-1.2957486	ரா வி	-1.7691451
-1.0399258	ம் வி	-2.7363825
-1.4242095	து வி	-1.7197647
-1.1705084	பா வி	-1.2960638
-0.9921363	கா வி	-1.7955217
-2.580594	வோ வி	-0.33019653
-0.9553294	டு வி	-0.8366713
-0.901862	ல் வி	-1.5278208
-1.5636543	வ வி	-0.9411584
-0.9595531	ஸ் வி	-1.966039
-1.0165571	ர் வி	-1.9752897
-1.9348615	ம வி	-0.51257694
-0.8816101	ஜ் வி	-2.0650716
-1.0798119	மா வி	-1.8889804
-0.9025893	லா வி	-1.9411584
-1.8354875	நி வி	-0.6940038
-0.97239006	கே வி	-1.2095833
-1.616266	த வி	-1.013769
-2.5541906	னி வி	-0.76095057
-1.4961939	ரு வி	-0.870095
-1.5911944	ந் வி	-1.2869204
-1.1020266	சா வி	-2.2737875
-2.0972528	யோ வி	-0.33019653
-1.7743071	ந வி	-0.61672056
-1.5335639	ல வி	-0.9765504
-1.1985316	க் வி	-1.248291
-1.3160175	கு வி	-1.0092742
-1.5348054	ண வி	-0.46091455
-1.6443839	ரெ வி	-0.5708843
-0.94539845	ட் வி	-1.3744904
-1.3596672	ன வி	-1.0704985
-1.4229337	வா வி	-1.1377013
-1.8650868	தி வி	-0.7355126
-1.5937749	ய வி	-1.082184
-0.94925463	யா வி	-2.3218246
-1.5667489	க வி	-1.0239674
-1.0673498	ள் வி	-1.3223927
-1.6643642	செ வி	-0.22400361
-1.9774164	ச வி	-0.80794716
-1.9678075	ங் வி	-0.23999552
-2.007106	டி வி	-0.72859097
-2.1054454	வே வி	-0.5976206
-1.2454432	சு வி	-1.0640166
-1.5216426	லே வி	-0.26085088
-0.7970215	ஜா வி	-2.2622056
-0.9689016	T வி	-0.33019656
-1.2731489	ஜு வி	-0.76095057
-1.0905325	ப் வி	-1.4072142
-0.93732613	ஷ் வி	-1.269501
-1.4087926	தீ வி	-1.0213628
-1.6626749	ப வி	-0.9898989
-1.7912506	ஷ வி	-0.38763815
-1.7820187	ரோ வி	-0.33019656
-0.8560783	ணீ வி	-0.8537046
-0.8439941	னா வி	-1.9452363
-1.5621252	ஸ வி	-0.6940038
-0.81084496	வ் வி	-1.0619806
-1.1079229	லு வி	-1.525091
-2.0129726	ஜ வி	-0.6522074
-1.0181297	ஷா வி	-1.5069171
-1.7722509	அ வி	-0.7397613
-1.0085741	தா வி	-1.9255159
-0.41455722	தே வி	-1.7478262
-1.4001065	ரே வி	-0.71173257
-1.292839	சோ வி	-0.43339568
-1.3834393	ண் வி	-0.5690651
-1.6207101	மு வி	-0.6940038
-0.95557755	ளா வி	-1.1547346
-1.456686	சே வி	-0.6675413
-1.675875	வீ வி	-0.27322283
-1.6364906	சீ வி	-0.36624065
-1.3014301	கீ வி	-0.27322283
-1.0391425	ணா வி	-1.1108291
-1.5456247	னு வி	-0.6428513
-1.8417943	ரூ வி	-0.33019653
-1.6192063	கெ வி	-0.38499475
-1.4558438	டே வி	-0.7558166
-1.7511709	மூ வி	-0.33019653
-2.3256724	லி வி	-0.61482257
-1.626842	எ வி	-0.33019656
-1.4037269	தெ வி	-0.33019653
-0.8827225	ய் வி	-1.2380718
-1.503499	லோ வி	-0.45194155
-1.2196568	ஒ வி	-0.60684353
-1.4581025	னோ வி	-0.5099335
-1.7543966	மோ வி	-0.33019653
-1.537654	ஜே வி	-0.2010684
-0.9942489	ஸா வி	-0.81894255
-1.0717106	பு வி	-1.3308259
-1.7560296	னே வி	-0.26085088
-0.8197172	னீ வி	-1.5142783
-1.4058747	ச் வி	-0.4599206
-1.6306639	ஆ வி	-0.81894255
-1.4669149	ஏ வி	-0.23999552
-2.0173593	ஷி வி	-0.870095
-1.0097864	ஜீ வி	-0.59507686
-1.8009	ள வி	-0.33019656
-1.5848706	நே வி	-0.45194155
-1.0364817	ரீ வி	-1.171125
-1.3796356	று வி	-0.30978343
-1.5448843	டெ வி	-0.33019653
-1.394053	கோ வி	-1.3902978
-1.2610255	ஹா வி	-0.5797253
-0.95474845	டா வி	-1.0619806
-1.4188968	நீ வி	-0.33019656
-1.2502499	லீ வி	-0.4858747
-1.0236552	ற் வி	-0.65621525
-0.9074245	மீ வி	-0.7174849
-1.3834043	ழ் வி	-0.33019653
-0.9486674	டோ வி	-0.7397613
-1.2915167	றா வி	-0.6691802
-1.4166379	சொ வி	-0.33019656
-1.6253325	றோ வி	-0.33019653
-1.1191283	ஞ வி	-0.23999552
-1.1191283	ணோ வி	-0.26085088
-1.3180945	ணு வி	-0.55267465
-1.2960082	யொ வி	-0.26085088
-1.4711514	ஷோ வி	-0.33019656
-1.40139	றூ வி	-0.33019653
-1.2416307	பீ வி	-0.33019656
-1.0263802	ஜூ வி	-0.43339568
-1.2960082	ளே வி	-0.22400361
-0.6953745	வூ வி	-0.26085088
-1.0526868	யீ வி	-0.33019656
-1.1736985	ளு வி	-0.33019656
-1.2591002	ஹு வி	-0.23999552
-1.0526868	P வி	-0.33019656
-1.0526868	ஷு வி	-0.33019653
-1.1191283	. வி	-0.2010684
-0.40877792	ஓ வி	-0.81894255
-1.4793588	<s> ம	-1.6390811
-2.4158583	சி ம	-0.32335272
-1.9088082	த் ம	-0.98527396
-1.6823072	ர ம	-1.358285
-2.1225553	ன் ம	-1.0530257
-2.1376996	ட ம	-0.9950338
-1.6914839	ரா ம	-1.2647134
-1.7552457	ம் ம	-0.5239742
-1.8839412	து ம	-0.9370418
-2.23912	பா ம	-0.83133566
-1.8976932	கா ம	-1.1547114
-1.7915148	டு ம	-0.91585255
-2.297504	ல் ம	-0.6940038
-1.8029729	வ ம	-1.1568168
-1.9185421	ஸ் ம	-0.9506147
-1.557222	ர் ம	-1.1970055
-2.1958678	வி ம	-1.4100071
-1.9466991	ஜ் ம	-0.81894255
-1.6262256	லா ம	-1.4599205
-2.2410989	ணி ம	-0.6940038
-2.4633675	யி ம	-0.37640846
-1.9635999	நி ம	-1.1145097
-2.3116744	கே ம	-0.84527147
-1.6946149	த ம	-1.4044032
-2.5495563	னி ம	-0.65621525
-1.7361495	ரு ம	-1.0174747
-2.3814166	சா ம	-1.0919437
-2.1988018	யோ ம	-0.76095057
-1.8897997	ந ம	-0.870095
-2.0741	ல ம	-0.7188233
-1.6244274	கு ம	-1.1420673
-1.8538908	ண ம	-0.71173257
-1.9448503	ன ம	-0.8836678
-2.4240782	வா ம	-0.68446064
-1.9230137	தி ம	-1.175924
-2.0058186	ய ம	-1.2775804
-2.1948094	ரி ம	-0.8889804
-2.2636821	யா ம	-0.91585255
-1.7779047	க ம	-1.480124
-2.0369306	ள் ம	-0.89357615
-1.9590383	செ ம	-0.6940038
-1.9643008	ச ம	-1.3374565
-1.7540817	சு ம	-1.1564018
-2.0777814	ஷ் ம	-0.781154
-2.12404	தீ ம	-0.61482257
-1.9030447	ப ம	-0.9702102
-2.1999815	ஷ ம	-0.76095057
-1.8999296	ரோ ம	-0.61482257
-2.3262506	னா ம	-1.0619806
-1.9817743	மே ம	-0.76095057
-1.544603	லு ம	-0.76095057
-1.982868	றி ம	-0.3929738
-2.1617522	ஜ ம	-0.870095
-2.3981268	ஷா ம	-0.3929738
-1.9104673	அ ம	-1.1359857
-2.0501738	தா ம	-0.76095057
-1.9792271	ரே ம	-0.86033523
-1.9030457	சோ ம	-0.9727574
-1.9777049	ண் ம	-1.0919437
-1.9113122	சே ம	-0.76095057
-1.7603914	வீ ம	-0.6940038
-1.938819	சீ ம	-0.5099335
-1.2899051	ணா ம	-1.171125
-2.0987678	னு ம	-0.61482257
-2.1916907	நா ம	-0.81894255
-1.7252547	எ ம	-0.81894255
-2.0173907	னோ ம	-0.870095
-1.6774873	பூ ம	-0.870095
-1.8408539	ஜே ம	-0.76095057
-1.896276	ஸா ம	-0.76095057
-1.7308571	ஆ ம	-0.76095057
-1.9215453	சை ம	-0.6940038
-1.9100336	ள ம	-0.7287659
-2.0626497	ரீ ம	-0.81894255
-1.8501201	கோ ம	-0.9395864
-1.5736619	யூ ம	-0.38499475
-1.833709	லை ம	-1.1061842
-1.4347204	ழ் ம	-0.76095057
-1.9988757	ளி ம	-0.5179125
-1.2957462	தோ ம	-0.92475736
-1.7123082	றோ ம	-0.81894255
-1.2565793	ஹே ம	-0.6940038
-1.281484	றே ம	-0.7836146
-1.339346	ளே ம	-0.76095057
-0.7060903	ழு ம	-0.61482257
-0.41428387	ளெ ம	-0.45194155
-2.928096	ம னொ	-0.870095
-2.8033175	மி னொ	-0.76095057
-2.9185271	தி னொ	-0.61482257
-1.9057527	இ னொ	-0.38499475
-2.1751695	சோ னொ	-0.56108606
-2.5804863	ஜி னொ	-0.6940038
-1.4163873	றெ னொ	-0.6940038
-2.9791472	ர ஜ்	-0.28275847
-3.1672034	ன் ஜ்	-0.23999552
-1.0823377	ரா ஜ்	-1.8998603
-2.6126943	ர் ஜ்	-0.6728145
-2.1714444	ரோ ஜ்	-0.25179
-1.45329	ஜொ ஜ்	-0.33019653
-2.895897	தா ஜ்	-0.26085088
-1.5791012	னோ ஜ்	-0.66396654
-1.8607743	ஜோ ஜ்	-0.33019656
-1.7628629	றா ஜ்	-0.870095
-2.0403295	<s> மா	-1.3352998
-2.5859165	சி மா	-0.23999552
-2.6872158	த் மா	-0.85679257
-2.2001126	ர மா	-1.0967426
-2.7505264	ரா மா	-0.56505716
-1.211453	ம் மா	-1.626035
-2.3223443	து மா	-0.80045915
-2.2031658	பா மா	-0.46490586
-2.6136208	கா மா	-0.76095057
-2.6124895	வ மா	-0.61482257
-2.1312728	ர் மா	-0.90615433
-2.4131324	மா மா	-1.2380718
-2.54915	லா மா	-0.6194465
-2.0719361	ணி மா	-0.5823006
-2.4361284	கே மா	-0.61482257
-2.3009813	த மா	-0.81894255
-2.116167	ரு மா	-0.93675464
-2.5286837	சா மா	-0.67743844
-2.488866	ல மா	-0.89357615
-0.7257732	கு மா	-2.2406116
-2.4172065	ன மா	-0.6940038
-2.4103196	தி மா	-0.53635955
-2.184022	ய மா	-0.5985075
-2.706332	யா மா	-0.23999552
-2.2908578	க மா	-0.69516724
-2.299811	ச மா	-1.1199725
-2.347823	சு மா	-0.6940038
-1.9229993	லே மா	-0.45194155
-1.6683818	ஜு மா	-0.67743844
-1.9673204	ப மா	-1.0769962
-2.6546326	னா மா	-0.81894255
-1.8449945	றி மா	-0.7287659
-2.324441	ஜ மா	-1.0619806
-2.107269	ரே மா	-0.42739862
-2.0164688	சோ மா	-0.930093
-2.0986938	ண் மா	-0.76095057
-1.7595521	சீ மா	-0.38027674
-1.7485296	உ மா	-0.82535523
-1.9444057	ஜே மா	-0.91585255
-1.7347722	சை மா	-0.6421564
-2.1925757	ரீ மா	-0.870095
-1.9535203	கோ மா	-0.76095057
-2.1775606	லை மா	-0.5524997
-1.6514013	தோ மா	-0.5524997
-1.0054636	ஸீ மா	-0.37673023
-1.6387982	றே மா	-0.27386236
-0.41854188	ஹீ மா	-0.3147975
-3.6061392	<s> லா	-0.64154416
-2.3795874	சி லா	-0.6422231
-2.8551292	ன் லா	-0.5524997
-2.311857	து லா	-0.37673023
-2.3962986	பா லா	-0.5218543
-2.3973482	கா லா	-0.40338165
-1.8288028	ல் லா	-0.5544938
-2.8500564	ஸ் லா	-0.5099335
-2.4248781	வி லா	-0.71577394
-1.8208477	ம லா	-0.8748939
-1.7324915	மா லா	-0.781154
-2.5876155	யி லா	-0.870095
-1.6619297	நி லா	-0.633152
-2.6062126	த லா	-0.71711886
-2.6512876	னி லா	-0.37673023
-1.6683269	மி லா	-1.0515151
-2.108688	ரு லா	-1.2168826
-2.519785	சா லா	-0.3929738
-2.0945058	பி லா	-0.7052296
-2.598695	க் லா	-0.36045188
-2.0416327	ரெ லா	-0.46945995
-2.2589467	தி லா	-0.63714314
-2.6154456	ய லா	-0.81894255
-1.562224	க லா	-1.291785
-2.0528145	கி லா	-0.5511033
-2.068551	செ லா	-0.28275847
-1.7374629	ச லா	-1.0380684
-2.4218462	டி லா	-0.91585255
-1.5578635	வே லா	-1.3674197
-2.3375041	சு லா	-0.4414205
-1.6646575	ஜு லா	-0.49703068
-1.9084013	ஷ லா	-0.547339
-2.1679645	வ் லா	-0.30581352
-1.9497447	ஜ லா	-0.6224796
-2.0097048	சே லா	-0.28922623
-1.2259746	சீ லா	-0.6682371
-2.2302237	னு லா	-0.4139904
-2.6045737	லி லா	-0.6940038
-1.9423177	கை லா	-1.0297959
-2.1666174	பு லா	-0.76095057
-2.3626533	னீ லா	-0.4139904
-2.0169804	சை லா	-0.76095057
-1.9801453	ஷி லா	-0.34454554
-1.4755456	யெ லா	-0.33019653
-1.6930003	டெ லா	-0.27386236
-1.3080277	யூ லா	-0.345763
-1.5036603	ஹி லா	-0.30581352
-0.9595447	லீ லா	-0.72033274
-1.8956933	மீ லா	-0.26085088
-1.9552455	ர ணி	-1.0260681
-1.3946795	ரா ணி	-1.7245698
-2.5473223	ர் ணி	-0.6940038
-1.1936421	ம ணி	-1.5461198
-1.5736028	மா ணி	-1.4810486
-2.6738086	லா ணி	-0.3501308
-2.5490627	த ணி	-0.95724523
-2.4648187	ரு ணி	-0.3480957
-2.4439735	ண ணி	-0.33019653
-1.3799634	வா ணி	-1.1463015
-2.592475	ய ணி	-0.279949
-2.4013648	யா ணி	-0.6618191
-2.5366464	க ணி	-0.61081344
-2.384102	ச ணி	-0.36563724
-1.2491246	வே ணி	-0.98456836
-2.5149813	ஷ் ணி	-0.3501308
-2.1475446	ஷ ணி	-0.34123373
-2.194357	ண் ணி	-1.9244527
-2.2689056	மு ணி	-0.76095057
-2.3458152	ஷி ணி	-0.36045188
-1.5376576	ஹி ணி	-0.3667643
-1.6973033	தோ ணி	-0.6589551
-0.71970326	ஹொ ணி	-0.91585255
-3.6970205	<s> யி	-0.7287659
-1.2460637	சி யி	-1.4473314
-2.4388351	ர யி	-0.5179125
-2.6907809	ன் யி	-0.6940038
-1.9364355	ட யி	-0.8537046
-2.3215601	ரா யி	-0.48564684
-1.8168049	பா யி	-0.43679512
-2.1706045	கா யி	-0.31894335
-2.319025	வ யி	-1.2582753
-1.720537	வி யி	-2.02193
-1.9281965	ம யி	-1.0905951
-1.303142	னொ யி	-0.76095057
-1.8121233	மா யி	-0.46640474
-2.0859966	லா யி	-0.6198461
-0.9389143	ணி யி	-2.141162
-1.2995098	யி யி	-1.0919437
-2.4407122	த யி	-0.61482257
-1.0871869	னி யி	-2.5533423
-1.0922112	மி யி	-2.328593
-1.6054163	சா யி	-1.2479563
-1.6624953	பி யி	-1.7609506
-1.8950194	ந யி	-0.7909138
-2.2837858	கு யி	-1.1333364
-1.7018127	ரெ யி	-0.51289237
-2.3999023	ன யி	-0.76095057
-2.430632	வா யி	-0.35599846
-1.2130829	தி யி	-2.2661006
-1.167346	ரி யி	-2.3166783
-2.547318	யா யி	-0.33019653
-2.4115229	க யி	-0.80045915
-1.3385173	கி யி	-1.4515685
-1.2427609	ளை யி	-2.138569
-1.9643022	செ யி	-0.6940038
-2.1953332	ச யி	-0.870095
-1.0207263	ரை யி	-1.7286943
-1.2336223	டி யி	-1.6535752
-2.3588257	வை யி	-0.33019653
-2.370541	ஜா யி	-0.61482257
-2.2998579	ப யி	-0.76095057
-2.206004	ஷ யி	-0.81894255
-1.2082946	ரோ யி	-0.45194155
-1.3078294	றி யி	-0.7174849
-1.6508272	யை யி	-0.37673023
-2.0114753	ஜ யி	-0.23999552
-1.7277905	ஷா யி	-1.4956361
-1.2477937	ழி யி	-0.6940038
-2.2136967	தா யி	-0.3426048
-1.9849514	ரே யி	-0.27386236
-1.7957559	ளா யி	-1.1199725
-1.9160975	சே யி	-0.28275847
-1.5025587	ஜி யி	-0.80045915
-1.9212748	ணா யி	-0.870095
-1.7003313	கெ யி	-0.33019653
-2.1958404	நா யி	-0.81894255
-1.1362808	லி யி	-1.5179125
-2.2651916	ய் யி	-0.76095057
-1.9511861	லோ யி	-0.33019653
-1.5620704	பை யி	-0.81894255
-1.8456045	ஜே யி	-0.33019653
-1.0816866	கை யி	-1.0919437
-2.437277	ஸி யி	-0.33019653
-1.7352991	ஆ யி	-0.76095057
-1.1832204	சை யி	-0.81894255
-1.4425831	ஷி யி	-0.61482257
-1.6279267	டெ யி	-0.81894255
-1.2076805	தை யி	-0.71214926
-0.96963686	லை யி	-1.3349818
-1.4617308	ஹி யி	-0.33019653
-1.1235914	மை யி	-0.57952374
-1.7061328	ஜோ யி	-0.33019653
-1.6222497	றா யி	-0.31648177
-1.2790025	ளி யி	-1.0297959
-1.4445244	றோ யி	-0.6220368
-0.9694119	நெ யி	-0.54006183
-1.0835887	றை யி	-0.48988378
-1.2580932	நை யி	-0.23999552
-1.306699	லூ யி	-0.37640846
-1.6573265	னை யி	-0.22400361
-0.70651597	நொ யி	-0.76095057
-1.303142	னெ யி	-0.33019653
-1.3438804	டை யி	-0.33019653
-0.41450122	ஞே யி	-0.31648177
-0.41450122	ஞெ யி	-0.28922623
-1.1493387	ஞை யி	-0.23999552
-1.7158787	<s> நி	-1.4416504
-2.694501	சி நி	-0.76095057
-2.861841	ரா நி	-0.6940038
-1.957269	கா நி	-0.5690651
-2.458769	ல் நி	-0.7909138
-2.229678	வ நி	-0.98279935
-2.749623	ர் நி	-0.81894255
-2.6491113	வி நி	-0.37640846
-2.06495	ஜ் நி	-0.6940038
-2.6391325	லா நி	-0.91585255
-2.9699757	னி நி	-0.6940038
-1.5658953	சா நி	-0.870095
-2.6116385	ல நி	-0.6940038
-2.710416	ன நி	-0.33019653
-2.6658149	வா நி	-0.81894255
-2.711922	தி நி	-0.6940038
-2.5587685	ய நி	-0.70376736
-2.5632207	யா நி	-1.5286363
-2.657087	க நி	-0.65621525
-2.2146494	ள் நி	-0.5179125
-2.7373664	னா நி	-0.81894255
-2.4266655	ஜ நி	-0.61482257
-1.901053	ஷா நி	-0.5690651
-2.7627327	தா நி	-0.6940038
-2.0604067	ணா நி	-1.0297959
-1.7619948	ழ நி	-0.81894255
-1.5820522	போ நி	-0.5179125
-1.735091	டெ நி	-0.61482257
-1.5003126	ழ் நி	-0.870095
-2.3232224	<s> கே	-1.1912638
-2.6078088	சி கே	-0.76095057
-2.7038238	த் கே	-0.2173262
-2.498317	ர கே	-0.49088877
-2.3876033	ன் கே	-0.55046654
-2.208702	ம் கே	-0.6000993
-2.344111	து கே	-0.76095057
-2.42815	பா கே	-0.61482257
-2.6371193	ல் கே	-0.5099335
-2.1935532	வ கே	-0.6838622
-2.6562777	ர் கே	-0.26085088
-2.4080167	ம கே	-1.6600701
-2.4338067	மா கே	-0.5524997
-2.1119082	நி கே	-0.91585255
-2.1315227	ரு கே	-0.8485275
-2.4925315	பி கே	-0.36045188
-2.3078794	யோ கே	-1.4994291
-2.018728	ந கே	-0.9950338
-2.1855628	ல கே	-1.1108291
-2.2247455	க் கே	-0.77581835
-2.4578927	கு கே	-1.0772206
-2.608056	ன கே	-1.3630105
-2.102058	தி கே	-0.88666725
-2.6498492	ரி கே	-0.25179
-2.5138724	யா கே	-0.37240362
-1.9408398	ஜெ கே	-0.76095057
-1.2560481	ங் கே	-2.0092742
-2.4507422	டி கே	-0.4139904
-2.3692262	சு கே	-0.7287659
-2.4804995	ஜா கே	-0.4733185
-2.3451688	ஜ கே	-0.34454554
-1.9157411	மு கே	-0.5276679
-2.2558606	னு கே	-0.44594556
-2.291024	நா கே	-1.4107026
-2.6320968	லி கே	-0.31264156
-1.7357143	ழ கே	-1.1199725
-2.0722322	லோ கே	-1.4072142
-2.0613503	யு கே	-0.94257414
-2.1905146	பு கே	-0.31264156
-2.3769658	னீ கே	-0.33019653
-2.2672455	ஷி கே	-0.81894255
-1.3371559	லொ கே	-0.81894255
-1.4874744	மொ கே	-0.76095057
-1.3497043	<s> த	-1.807429
-1.7214853	சி த	-1.2978554
-1.0662768	த் த	-1.4443035
-1.6408283	ர த	-1.3664438
-1.8872799	ன் த	-1.0933632
-2.1209776	ட த	-0.37640846
-2.4218626	ரா த	-0.7287659
-2.1320274	து த	-0.6940038
-2.0760698	பா த	-1.0162231
-2.0042288	கா த	-1.1647301
-2.4376814	ல் த	-0.61482257
-1.475791	வ த	-1.4099839
-2.5350256	ஸ் த	-0.68866813
-1.5543658	ர் த	-0.9275183
-2.3293808	வி த	-1.0619806
-1.772318	ம த	-0.9628491
-2.080793	மா த	-1.2380718
-2.0737374	லா த	-1.0297959
-2.2264407	ணி த	-1.2582753
-2.253455	யி த	-0.5906989
-1.6033396	நி த	-1.2376536
-2.295338	கே த	-0.60684353
-2.2933762	த த	-0.95724523
-2.2583857	னி த	-0.8088225
-2.2272918	மி த	-0.6940038
-1.9728945	ரு த	-0.6731999
-0.63296866	ந் த	-1.8741297
-2.0526483	சா த	-0.7721827
-2.1393454	பி த	-0.870095
-2.0605946	ல த	-0.90112925
-2.2566626	கு த	-0.870095
-2.1282442	ண த	-0.6940038
-2.3878975	ட் த	-0.76095057
-1.8564284	ன த	-0.8759258
-2.2376907	வா த	-0.870095
-2.3930085	தி த	-0.6940038
-1.9968337	ய த	-1.2855554
-2.0393283	ரி த	-1.0721997
-2.3752735	யா த	-0.84527147
-2.3850634	க த	-0.6940038
-1.9651568	கி த	-0.8296664
-1.6889607	இ த	-1.268035
-2.1757057	ச த	-0.870095
-1.8400941	வே த	-0.8878238
-1.3081208	சு த	-1.7203327
-2.3519883	ஜா த	-0.76095057
-2.1440582	ப த	-0.5885383
-1.8842775	ரோ த	-0.61482257
-1.8942595	ணீ த	-0.9950338
-1.3740679	னா த	-1.3902978
-1.966565	றி த	-1.2960638
-1.6999481	ழி த	-0.870095
-1.8389609	ஹ த	-0.6940038
-1.9624932	ரே த	-0.61482257
-1.505246	சோ த	-0.9670051
-1.4910685	மு த	-0.81894255
-1.7495513	வீ த	-0.61482257
-1.6936771	சீ த	-0.91585255
-1.2983558	ஜி த	-1.1131331
-1.3361424	கீ த	-0.7479995
-1.9042952	ணா த	-0.37640846
-1.7639924	ற த	-0.5099335
-0.4801433	நா த	-2.1598203
-2.138851	லி த	-0.68999594
-1.6948252	யு த	-1.3752451
-1.8139967	னோ த	-0.6447813
-1.8347195	மோ த	-1.6482463
-1.2081548	உ த	-1.7567946
-1.6674124	பூ த	-0.76095057
-1.1919721	போ த	-1.0297959
-1.6815455	பு த	-0.92967665
-2.048689	னே த	-0.61482257
-2.2719254	னீ த	-0.95724523
-1.7177974	ஆ த	-0.7001863
-2.1194282	ஷி த	-0.27386236
-1.4009876	ஜீ த	-0.9702102
-1.895677	ள த	-0.76095057
-1.8499098	ரீ த	-1.1644229
-1.8361901	கோ த	-1.0619806
-1.3653611	நோ த	-0.6940038
-1.826006	லை த	-0.6638446
-1.4705145	நீ த	-0.7644365
-1.4526899	ஹி த	-0.25179
-0.7048158	ளீ த	-0.95724523
-1.6922903	ஜோ த	-0.81894255
-1.4078872	கௌ த	-1.171125
-1.9843922	ளி த	-1.3929738
-1.1446419	ணோ த	-0.81894255
-1.5291934	ஷோ த	-0.6940038
-1.0765563	ஹெ த	-0.61482257
-1.3340172	றீ த	-1.3929738
-1.2947236	ஹு த	-0.6940038
-1.3368763	சி னி	-1.4602115
-1.270568	ர னி	-1.7166729
-2.2662191	ன் னி	-0.8693296
-1.1109972	ட னி	-0.8587107
-1.8190291	ரா னி	-0.82268494
-1.8311886	து னி	-0.30581352
-1.9140148	பா னி	-0.3039563
-1.7137758	கா னி	-0.61482257
-1.3199589	வ னி	-1.1205517
-2.477072	ஸ் னி	-0.49748868
-2.3564079	ர் னி	-0.61482257
-1.5693258	வி னி	-0.8889804
-1.1684674	ம னி	-1.1771154
-1.2784376	னொ னி	-0.33019653
-1.4498227	மா னி	-0.7451563
-1.7745354	லா னி	-0.67674863
-1.6988716	யி னி	-1.1680658
-2.2378554	கே னி	-0.81894255
-1.0767648	த னி	-1.7654767
-2.4837232	னி னி	-0.47331846
-1.4205285	மி னி	-0.96507055
-1.817858	ரு னி	-0.4853906
-1.86609	சா னி	-0.38763815
-1.5674474	பி னி	-0.7080122
-1.2589235	யோ னி	-0.5415612
-1.8204166	ந னி	-0.33019653
-1.2051625	ல னி	-1.1121471
-2.1869717	கு னி	-0.33019653
-1.147696	ண னி	-1.6792805
-1.6673079	ரெ னி	-0.35599846
-1.2272024	ன னி	-1.1932682
-1.3537401	வா னி	-0.8748939
-1.382165	தி னி	-1.7560916
-1.191592	ய னி	-1.0130138
-2.0080256	ரி னி	-0.51047045
-1.6532084	யா னி	-0.76319253
-1.5472422	ஜெ னி	-0.7739699
-1.2628391	க னி	-1.2183236
-1.5991343	கி னி	-0.8306464
-1.6450745	இ னி	-0.27386236
-0.963204	ச னி	-1.5869225
-1.8227751	ரை னி	-0.33019653
-1.9278436	டி னி	-0.57952374
-1.4257041	வே னி	-0.72033274
-1.7171154	சு னி	-0.55763113
-1.9270372	ஜா னி	-0.47132337
-1.5568428	ஜு னி	-0.33019653
-2.3647318	ப் னி	-0.81894255
-2.0280337	ஷ் னி	-0.36914128
-1.3248184	தீ னி	-0.5690651
-1.1566166	ப னி	-1.4053029
-0.6698994	ஷ னி	-1.3326778
-1.4875364	ரோ னி	-0.60684353
-2.1386266	னா னி	-0.64823616
-1.0027261	ஸ னி	-0.728591
-1.9091909	றி னி	-0.6940038
-0.7866377	ஜ னி	-1.3426069
-0.97954345	ஷா னி	-0.90609276
-1.0345666	ழி னி	-0.8323065
-1.8265779	அ னி	-0.9399805
-2.4212449	தா னி	-0.61482257
-1.5725108	ஹ னி	-0.5099335
-1.7259119	ரே னி	-0.2010684
-1.7903973	மு னி	-1.0671202
-1.4594901	வீ னி	-0.23999552
-1.8745508	சீ னி	-1.0493915
-0.8061443	ஜி னி	-1.5575649
-1.7109634	கீ னி	-0.33019653
-1.8588805	ணா னி	-0.33019653
-1.4822323	டே னி	-0.89357615
-1.4857779	ற னி	-0.4599206
-1.2784376	பொ னி	-0.6940038
-1.1941305	லி னி	-1.1817181
-1.3502622	ழ னி	-0.9839544
-1.6665931	எ னி	-0.7287659
-1.1900542	றொ னி	-0.6940038
-1.7263322	பே னி	-0.91585255
-1.4265121	தெ னி	-0.870095
-1.8778641	லோ னி	-0.33019653
-1.5540853	மோ னி	-0.58726186
-1.5643122	ஜே னி	-0.33019653
-1.1009591	ஸா னி	-0.61482257
-1.965513	பு னி	-1.3390985
-2.1298635	ஸி னி	-0.51359636
-1.4609234	பெ னி	-0.61751384
-1.6672113	வெ னி	-0.76095057
-1.8841537	லெ னி	-0.6194465
-1.6710852	ஆ னி	-0.33019653
-1.4947712	ஏ னி	-0.33019653
-1.1277514	ஷி னி	-1.0809156
-1.9354237	ஜீ னி	-0.72859097
-0.9282433	ள னி	-0.870095
-1.8111184	ரீ னி	-0.2010684
-1.4035891	யெ னி	-0.76095057
-1.5774506	டெ னி	-0.93662363
-1.0836384	ஹா னி	-0.47331846
-1.3435894	நோ னி	-0.33019653
-1.5246568	தொ னி	-0.43949676
-1.2107226	ரொ னி	-0.255063
-1.5917706	டா னி	-0.87290156
-1.0739115	டீ னி	-0.5690651
-0.9314967	ஹி னி	-0.46490586
-1.6858436	லீ னி	-0.33019653
-1.7737012	மீ னி	-0.33019653
-1.6547874	ஜோ னி	-0.2010684
-1.0874839	ளி னி	-0.9628491
-1.2731383	தோ னி	-0.8305828
-1.1059215	மொ னி	-0.3687254
-1.3141752	யொ னி	-0.33019653
-1.5381361	றே னி	-0.33019653
-1.5166519	மெ னி	-0.33019653
-1.1314144	ஷே னி	-0.33019653
-1.3177105	டை னி	-0.33019653
-0.8641799	வொ னி	-0.33019653
-0.6999646	ஷை னி	-0.31783393
-2.5384283	<s> மி	-1.0198574
-2.3414814	சி மி	-0.8769344
-2.633631	த் மி	-0.91585255
-1.5335758	ர மி	-1.451042
-0.7969141	ட மி	-3.504055
-1.9199872	ரா மி	-0.548302
-2.341394	ம் மி	-0.870095
-2.0770533	து மி	-0.870095
-2.3388488	பா மி	-0.9765504
-2.2148986	கா மி	-0.66025656
-2.552863	ல் மி	-0.37063348
-2.0456204	வ மி	-1.1034073
-2.221827	ஸ் மி	-0.7827777
-1.8240473	ர் மி	-1.0890388
-2.216047	ம மி	-0.37640846
-2.3872502	கே மி	-0.7287659
-1.4775267	த மி	-1.2997522
-0.8881799	சா மி	-1.6395596
-1.7974416	யோ மி	-0.5625353
-1.779638	ல மி	-1.0475895
-1.3618071	ண மி	-1.3195449
-2.0122485	ரெ மி	-0.6940038
-1.4704583	ன மி	-1.9070786
-2.3088548	வா மி	-0.65621525
-1.4845252	ய மி	-1.6148225
-2.5569296	ரி மி	-0.81894255
-2.3132262	யா மி	-1.0047973
-1.8846148	ஜெ மி	-0.870095
-1.7240435	க மி	-2.3023515
-1.5959563	ச மி	-1.197059
-1.6680564	சு மி	-1.7791754
-2.4287705	ஜா மி	-0.33019653
-1.7680984	ஷ் மி	-0.8366713
-2.1022427	ப மி	-0.5179125
-2.0569701	ஷ மி	-0.26085088
-1.7238612	ரோ மி	-0.49088877
-1.7518129	லு மி	-0.23999552
-1.632313	ஜ மி	-0.64823616
-2.2359622	ஷா மி	-0.23999552
-1.788579	அ மி	-1.8023434
-1.9138488	ஹ மி	-0.37640846
-2.0568542	ரே மி	-0.6194465
-1.7408743	கெ மி	-0.61482257
-1.8310832	ற மி	-0.5179125
-2.5542655	லி மி	-0.33019653
-1.7041059	ழ மி	-0.33019653
-1.7830842	எ மி	-0.8157412
-1.5796536	லோ மி	-0.7843151
-1.2758933	ஒ மி	-0.81894255
-2.1001534	னோ மி	-0.81894255
-0.978856	சௌ மி	-0.9950338
-1.9043342	ஜே மி	-0.84527147
-1.960835	ச் மி	-0.34774736
-2.206947	ஷி மி	-0.33019653
-1.713179	ள மி	-0.23999552
-1.6669111	நே மி	-0.35599846
-1.3210827	லொ மி	-0.6940038
-1.7880619	லீ மி	-0.33019653
-1.3622812	றெ மி	-0.28922623
-0.9995701	டொ மி	-0.61482257
-1.2239476	ளு மி	-0.25179
-2.8612406	<s> ரு	-0.9744473
-2.903374	ன் ரு	-0.25179
-1.9810736	து ரு	-0.565308
-2.4393082	பா ரு	-0.9950338
-2.422766	கா ரு	-0.7909138
-2.6475759	ல் ரு	-1.0297959
-2.3576179	வ ரு	-0.6638446
-2.897052	ஸ் ரு	-0.870095
-2.279839	ம ரு	-1.1463015
-2.2209058	மா ரு	-0.50134724
-2.1202092	நி ரு	-0.82567596
-2.466585	த ரு	-1.1499357
-2.3518546	மி ரு	-3.2699728
-2.556529	சா ரு	-0.6691802
-2.2781572	பி ரு	-1.248291
-2.6371827	க் ரு	-0.870095
-1.3537863	கு ரு	-1.0074106
-2.630398	தி ரு	-1.1333364
-2.6677418	ய ரு	-0.7287659
-1.9475613	ஜெ ரு	-0.5179125
-2.1926463	க ரு	-1.3741469
-1.1522214	கி ரு	-1.8111078
-1.8057444	இ ரு	-0.84527147
-2.460818	டி ரு	-0.6940038
-2.3610427	ஷ ரு	-0.76095057
-2.0734043	லு ரு	-0.61482257
-2.355916	ஜ ரு	-0.91585255
-2.5469406	ஷா ரு	-0.6940038
-1.4720678	அ ரு	-1.4549716
-1.9700656	ஹ ரு	-0.5179125
-1.2912254	மு ரு	-1.6655889
-2.6416728	லி ரு	-0.6194465
-1.7624172	உ ரு	-1.1869193
-2.1987817	பு ரு	-0.90112925
-0.99784386	பெ ரு	-1.4408973
-1.8437792	ஆ ரு	-0.76095057
-1.6913496	நே ரு	-0.61482257
-1.5375504	நீ ரு	-0.5179125
-1.5138404	ஹி ரு	-0.76095057
-1.5366637	சொ ரு	-0.6940038
-0.7157701	ஊ ரு	-0.3929738
-1.8116958	சி ந்	-1.4578476
-2.043061	ர ந்	-0.9950338
-2.335415	வு ந்	-1.7082442
-0.96357447	கா ந்	-1.6555567
-1.7651935	வ ந்	-1.6015943
-1.6863875	வி ந்	-1.3972343
-2.1845844	ம ந்	-1.3223927
-2.4488096	லா ந்	-0.76095057
-2.1292064	யி ந்	-0.870095
-2.0065618	நி ந்	-0.76095057
-1.1232164	கே ந்	-2.1450222
-2.235002	த ந்	-0.95724523
-2.4614413	மி ந்	-1.0619806
-1.908249	ரு ந்	-3.1565266
-0.97711194	சா ந்	-1.8290775
-2.1886332	பி ந்	-0.76095057
-0.7437265	ந ந்	-1.7233876
-2.1073482	ல ந்	-0.9370418
-1.7287631	கு ந்	-1.5286363
-1.3842473	ன ந்	-2.0328224
-1.5981305	ய ந்	-1.477978
-2.508601	ரி ந்	-0.76095057
-2.5928037	யா ந்	-0.76095057
-1.9279162	க ந்	-1.9774935
-2.1386855	கி ந்	-1.1061842
-1.997301	செ ந்	-1.5031893
-1.731097	இ ந்	-1.7630138
-1.4092126	ச ந்	-2.18653
-0.9037027	வே ந்	-2.169917
-2.375146	வை ந்	-0.870095
-1.129874	சு ந்	-2.2043998
-0.80722576	லே ந்	-1.9349688
-1.7704486	ஜா ந்	-1.006933
-2.0763707	ப ந்	-0.76095057
-1.6947201	ஷ ந்	-0.9438813
-2.5608919	னா ந்	-0.5179125
-1.9033133	ஸ ந்	-0.6940038
-1.7430038	மே ந்	-1.4473314
-1.5281326	ஜ ந்	-1.5142783
-1.1515692	ஷா ந்	-1.56367
-1.9576101	அ ந்	-1.4840542
-2.5592554	தா ந்	-0.81894255
-2.1141102	தே ந்	-0.61482257
-1.8857744	ஹ ந்	-0.870095
-1.6356056	ரே ந்	-1.4781454
-1.0846258	சே ந்	-1.7220325
-1.1046764	வீ ந்	-2.029796
-1.7217293	சீ ந்	-1.0297959
-1.6067019	ஜி ந்	-1.2775804
-1.9480577	ணா ந்	-0.6940038
-1.7210115	கெ ந்	-0.6940038
-2.1703892	லி ந்	-0.9765504
-1.3837658	ழ ந்	-1.5543418
-1.7566862	எ ந்	-0.76095057
-1.5429696	பே ந்	-1.3472164
-0.9747111	சௌ ந்	-1.6830084
-0.7152542	யே ந்	-1.7609506
-0.8596505	ஜே ந்	-1.8889804
-1.6440521	ஸா ந்	-0.7287659
-1.3235066	னே ந்	-1.8296664
-1.4318527	வெ ந்	-0.76095057
-1.7629497	ஆ ந்	-0.6940038
-2.1738365	ஷி ந்	-0.76095057
-1.606915	ஜீ ந்	-1.0461863
-1.5191729	ள ந்	-0.781154
-1.654034	நே ந்	-0.870095
-1.0758094	ணே ந்	-1.2582753
-1.1226833	யெ ந்	-0.95724523
-1.8071097	மை ந்	-0.61482257
-1.2672892	ஹே ந்	-1.0619806
-0.3433799	ழே ந்	-1.3630105
-0.7090787	ழு ந்	-1.5069171
-2.1160517	<s> சா	-1.293796
-2.6300452	த் சா	-0.61482257
-1.9047892	ர சா	-1.229024
-2.7866275	ன் சா	-0.81894255
-2.6147733	வு சா	-0.67743844
-1.6184533	ட சா	-1.3050187
-1.1906255	ரா சா	-2.1364837
-2.3390944	ம் சா	-0.5580741
-1.6482425	து சா	-0.8263085
-2.5486288	ல் சா	-0.76095057
-2.398607	வ சா	-0.65621525
-2.62451	ஸ் சா	-0.9702102
-1.8984814	ர் சா	-0.85637295
-2.529754	வி சா	-0.8537046
-2.328143	ம சா	-1.631856
-2.343341	மா சா	-0.5179125
-1.8115275	நி சா	-1.1494758
-2.5371768	த சா	-1.8889804
-2.081435	னி சா	-1.1946062
-1.4309957	ரு சா	-0.8536659
-2.4026778	பி சா	-0.76095057
-2.2585769	ல சா	-1.3308259
-2.3432155	க் சா	-1.0919437
-2.3685038	கு சா	-0.61482257
-1.6019291	ண சா	-1.9650706
-2.2749221	ட் சா	-1.268035
-1.8925058	ன சா	-1.3551853
-2.5166175	தி சா	-0.9765504
-1.8859807	ய சா	-1.2582753
-1.8733764	ரி சா	-1.254309
-2.6347244	யா சா	-0.6940038
-2.2537446	க சா	-1.3308259
-2.3454041	கி சா	-1.0434825
-1.7538044	இ சா	-0.5179125
-1.6588849	ரை சா	-1.7850842
-2.3651433	டி சா	-1.2942075
-2.275819	சு சா	-0.9370418
-2.1939034	தீ சா	-0.27386236
-2.3932564	ப சா	-1.0619806
-1.7220938	ரோ சா	-0.35186338
-1.5689559	லு சா	-1.1333364
-2.0549898	றி சா	-0.5099335
-2.0792031	தா சா	-0.46639982
-1.6486896	ரே சா	-0.64369
-1.180991	னு சா	-0.9471088
-2.5503247	லி சா	-0.33019656
-0.87421215	றொ சா	-0.7479995
-2.0580251	ய் சா	-0.52603704
-1.8746524	னோ சா	-0.30647162
-1.7156376	உ சா	-0.870095
-1.8898027	பு சா	-1.4599205
-0.8673724	ச் சா	-1.0315317
-1.9727358	ள சா	-0.870095
-2.1379135	ரீ சா	-0.95724523
-1.459101	று சா	-0.3929738
-1.9252819	ஞ் சா	-0.8444302
-1.734772	ரொ சா	-0.7909138
-2.1366632	லை சா	-0.6940038
-1.6249957	தோ சா	-0.35599846
-1.7601669	றோ சா	-0.3703992
-1.685577	ணு சா	-0.81894255
-1.6102225	பீ சா	-0.33019653
-1.667982	<s> பி	-1.7799859
-2.3671522	த் பி	-0.91585255
-2.028204	ர பி	-1.0185149
-2.5733657	ன் பி	-1.171125
-2.5657463	வு பி	-0.91585255
-2.152144	ட பி	-0.64823616
-1.2056797	ம் பி	-1.6064916
-2.1714296	து பி	-0.6940038
-2.1738808	ல் பி	-0.7077247
-2.3290558	வ பி	-1.0127625
-2.5657377	ஸ் பி	-0.6940038
-2.3368776	ர் பி	-0.84527147
-2.615902	வி பி	-0.61482257
-2.3712494	ம பி	-0.5179125
-1.955876	ஜ் பி	-0.76095057
-2.2537036	ணி பி	-0.870095
-1.9683194	த பி	-1.3137926
-2.7213376	னி பி	-0.6940038
-2.2513003	மி பி	-0.91585255
-2.0038	ரு பி	-0.43949676
-2.3282652	பி பி	-0.870095
-1.9584734	யோ பி	-0.65621525
-1.9467119	ல பி	-1.3005643
-1.9964292	கு பி	-0.61482257
-1.5839186	ண பி	-1.6691802
-2.422161	ட் பி	-0.7287659
-2.0541773	ன பி	-1.2712402
-2.43436	தி பி	-0.9950338
-1.8646947	ய பி	-1.325222
-1.8296475	ஜெ பி	-0.6940038
-2.1171894	க பி	-1.098395
-2.0499165	ள் பி	-1.0619806
-1.9723198	செ பி	-0.33019653
-1.7624466	ச பி	-1.1167634
-1.9158435	சு பி	-0.8807553
-0.7576191	ப் பி	-2.224417
-2.2937639	ஷ் பி	-0.6940038
-1.5676523	தீ பி	-0.83133566
-2.3114715	ப பி	-0.781154
-2.0159423	ஷ பி	-0.42812482
-1.6259153	ஸ பி	-0.61751384
-1.9924577	மே பி	-0.5524997
-2.094934	வ் பி	-0.33019653
-1.9570919	லு பி	-0.6940038
-2.0189233	ஜ பி	-0.23999552
-1.9267228	அ பி	-0.9765504
-2.5265179	தா பி	-0.23999552
-1.9160357	சோ பி	-0.89357615
-1.9914585	ண் பி	-0.6940038
-1.9233758	சே பி	-0.33019653
-2.1143725	னு பி	-0.6940038
-0.8812226	ரூ பி	-0.90355915
-2.3002737	லி பி	-0.30581352
-1.2119265	றொ பி	-0.6940038
-1.7937186	பே பி	-0.48134857
-2.0327294	னோ பி	-0.870095
-1.8528292	ஜே பி	-0.33019653
-2.0575314	பு பி	-0.61482257
-1.7612187	பெ பி	-0.6940038
-1.9387012	லெ பி	-0.5179125
-1.7420485	ஆ பி	-0.5179125
-1.5416769	ஏ பி	-1.1463015
-2.1485062	ஷி பி	-0.5179125
-1.8697628	ரீ பி	-0.76095057
-1.4375538	று பி	-0.76095057
-1.6180723	கோ பி	-0.96764797
-1.7562582	ஹா பி	-0.33019653
-1.6971648	ரொ பி	-0.91585255
-0.99316525	நு பி	-0.6194465
-1.982298	ற் பி	-0.76095057
-0.93914586	கொ பி	-0.38499475
-1.4182339	கௌ பி	-0.870095
-1.482572	சொ பி	-0.81894255
-1.3438371	றெ பி	-0.81894255
-1.544645	ஷோ பி	-0.6940038
-1.1459926	றூ பி	-0.44360548
-1.6618032	னை பி	-0.5179125
-0.7071552	ஸோ பி	-0.6940038
-1.5803291	பீ பி	-0.28275847
-0.41482747	ரொ பி	-0.6940038
-0.41482747	றொ பி	-0.81894255
-2.1002495	<s> யோ	-1.4862496
-1.2333903	சி யோ	-1.3472164
-2.471957	வ யோ	-1.7547016
-1.7401083	வி யோ	-1.9026242
-0.97440714	ணி யோ	-1.9877346
-1.4237738	யி யோ	-0.95724523
-2.1037629	நி யோ	-0.76095057
-1.0992821	னி யோ	-2.436336
-1.1624651	மி யோ	-1.8969914
-1.6939094	பி யோ	-1.5925461
-2.0118017	ந யோ	-0.76095057
-2.3166118	ண யோ	-0.81894255
-1.203995	தி யோ	-1.8824636
-1.1748002	ரி யோ	-2.2157955
-2.7161627	க யோ	-0.61482257
-1.4018208	கி யோ	-1.3308259
-2.1570094	ள் யோ	-0.2010684
-1.2699921	ளை யோ	-2.0429573
-2.6052742	ச யோ	-0.81894255
-1.2774335	ரை யோ	-1.5543418
-1.2104478	டி யோ	-1.5543418
-1.331271	றி யோ	-0.61672056
-1.6736671	யை யோ	-0.23999552
-1.2726117	ழி யோ	-0.7287659
-2.0218103	சே யோ	-0.6194465
-1.7602255	ஜி யோ	-0.5179125
-1.2063944	லி யோ	-0.989868
-2.1628158	னோ யோ	-0.6940038
-1.6125983	பை யோ	-0.76095057
-1.4439715	கை யோ	-0.9370418
-2.19592	ஸி யோ	-0.51289237
-2.0050623	லெ யோ	-0.72859097
-1.3386728	சை யோ	-0.6940038
-1.6005139	ஷி யோ	-0.5179125
-1.2300402	தை யோ	-0.5690651
-1.0299293	லை யோ	-1.3706974
-1.5087205	ஹி யோ	-0.33019653
-1.349945	மை யோ	-0.37640846
-1.4354191	ளி யோ	-0.870095
-1.4479469	றை யோ	-0.37640846
-1.288721	நை யோ	-0.33019653
-1.7194679	னை யோ	-0.23999552
-1.1729931	ஷே யோ	-0.6940038
-1.3792151	டை யோ	-0.33019653
-1.1729931	ஞை யோ	-0.33019653
-1.7236271	<s> ந	-1.4877452
-2.6451075	ர ந	-0.89357615
-2.6019151	பா ந	-0.6940038
-2.8012166	கா ந	-0.76095057
-2.4543278	வ ந	-1.0185149
-2.980705	வி ந	-0.76095057
-2.599329	மா ந	-0.870095
-2.405066	லா ந	-0.5179125
-2.6565478	பி ந	-0.9765504
-2.7398806	வா ந	-1.0919437
-2.8780887	ய ந	-1.0297959
-2.6104987	யா ந	-1.0297959
-2.3762121	க ந	-1.4473314
-2.6863458	ப ந	-0.76095057
-2.2346058	றி ந	-0.81894255
-2.5112276	ஜ ந	-0.6194465
-2.2731116	லை ந	-0.61482257
-2.3615012	<s> ல	-1.2236159
-2.1916094	சி ல	-0.80045915
-2.4039578	ர ல	-0.76095057
-2.662001	ரா ல	-0.5524997
-2.0651493	து ல	-0.7909138
-1.1929929	பா ல	-1.4303266
-2.3505821	கா ல	-0.7077247
-1.6720935	ல் ல	-1.1694853
-1.9550439	வ ல	-0.8987502
-2.7690244	ஸ் ல	-0.38499475
-2.541025	ர் ல	-0.6940038
-2.6824508	வி ல	-0.6940038
-1.166524	ம ல	-1.4338111
-2.0049438	மா ல	-0.81894255
-2.5294826	யி ல	-0.81894255
-2.0297492	நி ல	-0.85786057
-2.5226915	த ல	-0.6940038
-2.1350665	மி ல	-0.78690594
-1.7721756	பி ல	-0.68612957
-1.9480113	ந ல	-0.76095057
-2.3356128	க் ல	-0.49548322
-1.2655598	கு ல	-1.1588389
-2.039289	ண ல	-0.65621525
-2.2296216	ன ல	-1.6940038
-2.4983861	வா ல	-0.6940038
-1.9493102	தி ல	-1.261174
-1.7678734	ய ல	-1.0020692
-2.5387273	ரி ல	-0.6940038
-2.3049095	யா ல	-0.9702102
-1.8730507	ஜெ ல	-0.6940038
-1.9358271	க ல	-0.8919332
-2.018098	கி ல	-1.0022224
-2.0177755	செ ல	-1.1463015
-1.7468666	இ ல	-1.1946062
-1.6326699	ச ல	-1.1388012
-2.1603084	டி ல	-1.4781454
-1.871143	வே ல	-0.84527147
-2.2627475	சு ல	-1.1014891
-1.6563005	ப ல	-1.299668
-2.0285258	மே ல	-0.76095057
-2.0609596	ஜ ல	-1.171125
-2.4613056	ஷா ல	-0.61482257
-1.9832505	அ ல	-0.8640209
-2.3964624	தா ல	-1.2168826
-2.1290278	தே ல	-0.45194155
-1.9604245	சோ ல	-0.76095057
-0.5951763	சீ ல	-1.7704899
-1.3190087	பொ ல	-0.35599846
-1.2226133	கூ ல	-0.91585255
-1.7732983	எ ல	-0.91585255
-2.0858052	னோ ல	-0.81894255
-1.7093477	உ ல	-1.1199725
-1.7147119	பூ ல	-0.61482257
-1.893533	ஜே ல	-0.81894255
-1.905939	கை ல	-0.870095
-1.7445022	வெ ல	-0.76095057
-1.4959617	ஐ ல	-0.81894255
-1.5047126	நீ ல	-0.7287659
-1.8212421	மை ல	-0.76095057
-1.6632543	கொ ல	-0.60948694
-1.8032382	டோ ல	-0.6940038
-1.5034074	சொ ல	-0.870095
-1.588052	மெ ல	-0.61482257
-1.0896201	ஹெ ல	-0.6194465
-0.7105807	ஷை ல	-0.5179125
-3.7125971	<s> க்	-0.6940038
-1.2903149	சி க்	-1.1467668
-2.2135217	ர க்	-0.9702102
-0.37601462	வு க்	-3.3344023
-1.9172045	ட க்	-0.80045915
-2.4142513	ரா க்	-1.171125
-1.9849614	து க்	-1.2432115
-1.6926578	பா க்	-1.9913995
-1.9141425	வ க்	-1.2960638
-2.1794088	ஸ் க்	-0.84527147
-2.1896143	ர் க்	-0.82848185
-1.607088	வி க்	-1.6662507
-2.2169542	ம க்	-0.8051542
-1.2942142	னொ க்	-0.26085088
-2.2206023	மா க்	-0.6249347
-1.0001733	ணி க்	-2.0711884
-1.4106445	யி க்	-0.9950338
-1.9380691	நி க்	-0.5179125
-2.2850544	த க்	-0.8296664
-1.151169	னி க்	-1.6556977
-1.1765885	மி க்	-1.6442063
-1.4661558	ரு க்	-0.97180396
-2.1852555	சா க்	-0.30978343
-1.5169716	பி க்	-1.2838293
-1.190047	ல க்	-1.3856746
-2.4261954	க் க்	-0.6940038
-1.689253	ரெ க்	-0.76095057
-2.1547148	ன க்	-1.0380684
-1.3133299	தி க்	-1.4237397
-2.2064955	ய க்	-1.2254827
-1.2763386	ரி க்	-1.3491873
-2.5094333	யா க்	-0.7909138
-2.462873	க க்	-0.5179125
-1.4257118	கி க்	-1.3782505
-1.2353793	ளை க்	-2.016223
-1.6829786	இ க்	-0.76095057
-1.80705	ச க்	-1.366871
-1.25136	ரை க்	-1.3856746
-2.053507	ங் க்	-0.49088877
-1.2303122	டி க்	-0.87928855
-2.2011232	வே க்	-0.5823006
-1.8183129	லே க்	-0.81894255
-1.8894715	ப க்	-0.9411584
-1.6674736	ரோ க்	-1.5391018
-1.9631824	மே க்	-0.6940038
-1.351597	லு க்	-0.90485716
-1.2044481	றி க்	-0.5118736
-1.6445966	யை க்	-0.2010684
-2.3736315	ஷா க்	-0.81894255
-1.2410427	ழி க்	-0.95724523
-1.8826578	அ க்	-0.76095057
-1.9543619	ரே க்	-0.61482257
-1.3200495	சோ க்	-0.5548221
-2.0247514	மு க்	-0.7287659
-1.8904076	சே க்	-0.26085088
-1.9178375	சீ க்	-0.5179125
-1.3539054	ஜி க்	-0.55910456
-1.7508073	கீ க்	-0.5179125
-1.8932183	னு க்	-0.7909138
-1.9120535	ரூ க்	-0.6940038
-1.7883246	மூ க்	-1.082184
-1.2989144	லி க்	-0.9896982
-1.5161338	பே க்	-1.3630105
-2.2394075	ய் க்	-1.1199725
-1.2498313	ஒ க்	-0.6940038
-1.548821	பை க்	-0.76095057
-1.8200967	ஜே க்	-1.0919437
-1.8792351	ஸா க்	-0.25179
-1.0781056	கை க்	-1.0297959
-2.017255	பு க்	-0.81894255
-2.4181602	ஸி க்	-0.33019653
-1.7324156	பெ க்	-0.28275847
-1.6394215	லெ க்	-1.2622055
-1.711412	ஆ க்	-0.6940038
-1.3094275	சை க்	-0.6691802
-1.4367039	ஷி க்	-0.36595
-1.9790655	ஜீ க்	-0.61482257
-1.8886728	ள க்	-0.870095
-1.3357157	டெ க்	-0.90112925
-1.2015766	தை க்	-0.5179125
-1.407069	ரொ க்	-0.7287659
-0.92111623	லை க்	-1.1869193
-1.3165952	மை க்	-0.71214926
-1.6165546	கொ க்	-0.33019656
-1.7476032	டோ க்	-0.81894255
-1.4031159	ளி க்	-1.2582753
-1.4651265	சொ க்	-1.4343665
-1.0069557	றெ க்	-0.60684353
-1.3938633	றை க்	-0.2010684
-1.2319642	ஷோ க்	-0.64453477
-1.4465215	றூ க்	-0.76095057
-1.6412951	னை க்	-0.2010684
-1.5438201	மெ க்	-0.6940038
-1.1428936	ஷே க்	-0.33019653
-0.8015377	டை க்	-1.1293972
-1.6906292	<s> கு	-1.5089113
-2.2003076	சி கு	-1.7909138
-2.0556886	த் கு	-1.1946062
-1.8450034	ர கு	-1.2526337
-1.9559824	ன் கு	-1.2380718
-2.680173	ரா கு	-0.78421164
-1.9970545	ம் கு	-1.5286363
-2.2537525	து கு	-1.5286363
-2.3388488	பா கு	-0.2173262
-1.68501	வ கு	-1.6060486
-1.8411719	ஸ் கு	-1.968931
-2.7008133	வி கு	-0.7909138
-1.8786521	ம கு	-1.2432115
-1.994655	ஜ் கு	-0.9950338
-1.9956622	த கு	-1.8652426
-2.801032	னி கு	-0.76095057
-2.22513	ரு கு	-0.6515071
-2.4699125	சா கு	-0.6940038
-2.2588482	யோ கு	-0.3147975
-1.9600418	ந கு	-1.5543418
-1.8692248	ல கு	-0.82323205
-0.78381985	க் கு	-2.6608303
-2.372777	கு கு	-0.81894255
-1.5068955	ண கு	-1.4879494
-2.115446	ட் கு	-0.88588935
-1.9817373	ன கு	-0.9713194
-2.5141041	வா கு	-0.43949676
-2.228442	தி கு	-0.9950338
-1.6407549	ய கு	-1.8171291
-2.5569296	ரி கு	-0.870095
-2.4576921	யா கு	-0.61252785
-2.3911307	க கு	-0.88588935
-1.9158539	ச கு	-1.2582753
-1.3528302	ங் கு	-0.8759258
-2.3692517	டி கு	-0.61482257
-2.3906646	வை கு	-0.9370418
-2.1000679	சு கு	-1.1463015
-1.8897752	லே கு	-0.3929738
-1.6429584	ஜு கு	-0.6940038
-2.0748096	ப் கு	-1.171125
-2.125777	ஷ் கு	-1.4721551
-2.1970732	தீ கு	-0.6940038
-2.2358265	ப கு	-1.1463015
-2.2820263	ஷ கு	-0.81894255
-2.0582712	றி கு	-0.6940038
-2.0721369	ஜ கு	-0.94726104
-1.9722687	சோ கு	-0.61482257
-1.8065569	ண் கு	-1.0297959
-2.1233332	மு கு	-1.3137926
-1.7096528	சே கு	-0.7174849
-2.003057	சீ கு	-0.870095
-2.0857227	ஜி கு	-1.0919437
-1.8310832	ற கு	-0.7287659
-1.1910044	ழ கு	-0.71663946
-2.0149016	லோ கு	-0.76095057
-1.9001977	மோ கு	-0.81894255
-1.9043342	ஜே கு	-1.4343665
-2.206947	ஷி கு	-0.61482257
-1.6466465	கோ கு	-1.4299574
-1.7880619	லீ கு	-0.870095
-1.5680304	ற் கு	-1.2813405
-2.792754	த் ண	-0.30581352
-2.2594383	ர ண	-1.1946062
-3.0281227	ன் ண	-0.870095
-2.7956166	வ ண	-0.9265764
-2.597687	ஸ் ண	-1.1807721
-2.3667393	ர் ண	-0.9244527
-1.9323041	ம ண	-1.1140717
-2.6976388	யி ண	-0.81894255
-2.212944	ரு ண	-1.0515151
-1.3608308	கு ண	-1.2273443
-1.8359658	ட் ண	-1.4693394
-2.2215326	வா ண	-0.8968781
-2.805567	ய ண	-0.848369
-2.7758431	ரி ண	-0.870095
-2.8459086	யா ண	-0.37673023
-2.6881888	க ண	-1.7451563
-2.7676182	ச ண	-0.27386236
-2.5574603	டி ண	-0.6194465
-2.4883888	சு ண	-0.4599206
-1.472029	ஷ் ண	-1.3630917
-2.6256785	ப ண	-0.30581352
-1.1372547	ண் ண	-1.171125
-1.2422715	ஞா ண	-0.75411665
-2.0284843	கோ ண	-0.43339568
-2.551528	<s> ரெ	-1.337045
-3.0033412	ன் ரெ	-0.61482257
-2.194079	து ரெ	-0.46438843
-2.5266507	பா ரெ	-1.0297959
-2.2350929	வ ரெ	-1.7254122
-2.759373	ஸ் ரெ	-0.8633929
-2.6966462	ம ரெ	-1.0127625
-2.667111	மி ரெ	-0.870095
-2.5859604	பி ரெ	-0.76095057
-2.4023085	ல ரெ	-1.0619806
-2.7140253	க் ரெ	-0.6194465
-2.4178646	ண ரெ	-1.0772206
-2.7272272	ன ரெ	-0.56108606
-2.5697157	ய ரெ	-0.95724523
-2.126528	க ரெ	-1.6940038
-2.5372448	கி ரெ	-0.89357615
-1.8441783	இ ரெ	-0.7909138
-2.3688679	ச ரெ	-1.5286363
-2.0319762	ரை ரெ	-0.61482257
-2.5387673	டி ரெ	-0.65621525
-2.365457	ப ரெ	-0.65621525
-2.4396646	ஜ ரெ	-0.9765504
-1.6380619	பை ரெ	-0.61482257
-1.8946271	பெ ரெ	-0.7287659
-1.6202871	தொ ரெ	-0.5099335
-1.4729414	கௌ ரெ	-0.76095057
-1.3519603	ஹு ரெ	-0.61482257
-3.8640356	<s> ட்	-0.5690651
-2.499123	சி ட்	-0.65621525
-1.7405442	ர ட்	-1.1879253
-2.0082402	ன் ட்	-0.79411894
-2.4971287	ரா ட்	-0.6236933
-2.5306714	கா ட்	-0.81894255
-2.6708252	வோ ட்	-0.28922623
-1.9112333	ல் ட்	-0.6817693
-2.3868575	வ ட்	-0.44808698
-2.4857605	ஸ் ட்	-0.5160562
-1.8953489	ர் ட்	-0.6595244
-2.6824508	வி ட்	-0.44335526
-2.4450262	ம ட்	-0.28275847
-2.1493282	மா ட்	-0.6400532
-2.4746492	லா ட்	-0.3929738
-2.5294826	யி ட்	-0.81894255
-2.3764594	த ட்	-0.9278407
-2.4609337	னி ட்	-1.3308259
-2.0530853	ரு ட்	-0.8143264
-2.4544847	சா ட்	-1.4343665
-2.3900473	பி ட்	-0.76095057
-1.4912398	ல ட்	-2.0022123
-2.5306518	க் ட்	-0.33019656
-2.0263178	கு ட்	-1.6717274
-0.6955224	ரெ ட்	-1.5991437
-1.81641	ன ட்	-0.71173257
-2.3979828	ய ட்	-0.4251107
-2.374302	ரி ட்	-0.61482257
-2.3323114	கி ட்	-1.3363583
-1.7723001	செ ட்	-0.95724523
-2.4923208	ச ட்	-0.870095
-2.3530462	டி ட்	-0.81894255
-2.285218	வே ட்	-0.25179
-2.384957	வை ட்	-0.28922623
-1.6359597	ஜு ட்	-0.31648177
-2.3444247	ஷ் ட்	-0.61482257
-1.6563005	ப ட்	-0.7142072
-2.3696053	னா ட்	-0.408157
-1.9832505	அ ட்	-0.81894255
-2.3964624	தா ட்	-0.6691802
-1.7335459	கெ ட்	-0.91585255
-1.1501877	ற ட்	-0.56407744
-2.5387127	லி ட்	-0.870095
-1.4996281	எ ட்	-1.1771154
-1.0235838	பே ட்	-0.8111172
-1.4832262	தெ ட்	-0.61482257
-2.0167084	யு ட்	-0.81894255
-1.8911732	மோ ட்	-0.76095057
-2.1086583	பு ட்	-0.81894255
-1.5177525	பெ ட்	-0.7731851
-0.54661036	லெ ட்	-2.0711884
-1.9003634	ரீ ட்	-0.52381766
-1.0937489	யூ ட்	-0.7045857
-1.7286131	ரொ ட்	-0.6940038
-1.6269047	டா ட்	-0.91585255
-1.6632543	கொ ட்	-0.84527147
-1.8032382	டோ ட்	-0.91585255
-0.9779916	லூ ட்	-0.7829348
-1.0896201	ஷெ ட்	-0.91585255
-1.2971287	றே ட்	-0.28679508
-1.5813154	ஜூ ட்	-0.27322283
-1.3585292	றீ ட்	-0.81894255
-1.3190087	னெ ட்	-0.33019653
-0.8797629	வொ ட்	-0.6940038
-0.7105807	ளோ ட்	-0.81894255
-2.3671522	த் ன	-1.1291442
-2.1250224	ர ன	-0.44412446
-1.6834058	ன் ன	-1.1058009
-2.5657463	வு ன	-0.76095057
-1.9418316	ட ன	-0.52767617
-2.3276982	ரா ன	-1.2582753
-2.1714296	து ன	-0.64823616
-1.975493	பா ன	-1.3472164
-1.6160071	கா ன	-1.4182796
-1.865934	வ ன	-0.80794716
-2.1098607	ஸ் ன	-0.8417363
-2.0742831	ர் ன	-0.74836147
-0.71400356	வி ன	-3.0365088
-2.031876	ம ன	-0.9950338
-2.107423	மா ன	-1.2960638
-2.2355354	லா ன	-1.3472164
-0.89508283	யி ன	-2.5262465
-1.8834944	த ன	-1.2915839
-2.429853	மி ன	-0.91585255
-2.1376202	ரு ன	-0.6194465
-2.3977318	சா ன	-0.870095
-2.3282652	பி ன	-0.6194465
-1.9029685	ந ன	-0.870095
-2.4718392	க் ன	-0.76095057
-2.1308255	கு ன	-0.6686664
-2.0845804	ட் ன	-1.2021593
-2.4121742	ன ன	-0.47331846
-1.4414895	வா ன	-1.7758183
-1.8425467	தி ன	-1.545071
-2.0134509	ய ன	-0.6745284
-2.472705	ரி ன	-0.6194465
-1.7184072	யா ன	-1.4267375
-1.8296475	ஜெ ன	-0.6224796
-2.2108746	க ன	-1.4531533
-2.2684577	கி ன	-0.91585255
-1.8216637	ச ன	-0.9898691
-2.2936697	டி ன	-0.6638446
-2.2383528	வே ன	-0.67743844
-2.0447235	சு ன	-1.0015974
-2.1326628	ஜா ன	-1.0297959
-1.6090413	ஜு ன	-0.45381892
-2.0869656	ஷ் ன	-0.92840534
-2.137697	தீ ன	-0.870095
-1.561663	ஷ ன	-0.76623946
-2.3361874	னா ன	-0.8393626
-1.5500624	மே ன	-0.57952374
-2.094934	வ் ன	-0.6940038
-1.3761725	ஜொ ன	-0.81894255
-1.4455066	ஜ ன	-0.91828924
-2.1990292	ஷா ன	-1.0619806
-1.9267228	அ ன	-0.75561494
-1.7038188	தா ன	-1.0488391
-1.8640819	ஹ ன	-0.63468647
-1.5078037	ளா ன	-1.5179125
-1.6807247	சே ன	-0.69694835
-1.4917698	வீ ன	-0.61751384
-0.3253212	ஞா ன	-1.0782676
-2.0413404	ஜி ன	-0.4449543
-1.6696243	ணா ன	-1.3929738
-1.7054098	கெ ன	-0.9370418
-1.305609	பொ ன	-0.76095057
-1.7362208	எ ன	-0.652276
-2.0304425	ய் ன	-0.76878154
-1.9589854	லோ ன	-0.76095057
-1.856841	மோ ன	-0.76095057
-1.6772596	உ ன	-0.76095057
-1.6860652	பூ ன	-0.37640846
-1.6090267	ஜே ன	-0.76095057
-2.0575314	பு ன	-0.81894255
-1.4987458	பெ ன	-1.3472164
-2.1869547	ச் ன	-0.28275847
-1.7182418	வெ ன	-0.6940038
-1.4881661	ஆ ன	-2.0173864
-1.982298	ற் ன	-0.45194155
-1.832268	மீ ன	-1.0919437
-1.7895902	மை ன	-0.6940038
-1.6377248	கொ ன	-0.6940038
-2.0113256	ளி ன	-0.91585255
-1.2603741	நை ன	-0.91585255
-1.0818312	ஷெ ன	-0.81894255
-0.9912871	டொ ன	-0.81894255
-2.6668413	<s> வா	-1.0731169
-1.854782	சி வா	-1.0975554
-1.112532	த் வா	-1.3418807
-1.7409434	ர வா	-1.1630071
-1.0068557	ன் வா	-3.1952913
-2.2739363	வு வா	-0.2010684
-1.879552	ட வா	-0.6194465
-1.4365706	ரா வா	-1.6562152
-1.1544838	ம் வா	-2.7314303
-1.4371505	து வா	-1.1400636
-1.1477947	பா வா	-0.7465596
-1.0770539	கா வா	-1.9286898
-2.6026447	வோ வா	-0.33019653
-1.0952959	டு வா	-0.7287659
-0.9713689	ல் வா	-1.409859
-1.7246692	வ வா	-0.95724523
-1.0204906	ஸ் வா	-1.638075
-1.0897701	ர் வா	-1.7850842
-2.073241	ம வா	-0.3929738
-1.2715125	ஜ் வா	-2.0525732
-1.2291849	மா வா	-1.7966661
-1.1055037	லா வா	-1.7791754
-2.1680844	ணி வா	-1.0619806
-1.2277663	கே வா	-1.0919437
-1.844932	த வா	-1.0824007
-2.2269537	னி வா	-0.86740804
-1.5924029	ரு வா	-0.81894255
-1.5183116	ந் வா	-1.3472164
-1.2347939	சா வா	-2.1306963
-2.1323695	யோ வா	-0.33019653
-1.8138332	ந வா	-0.6940038
-1.5963372	ல வா	-0.95724523
-1.4714726	க் வா	-1.0919437
-1.4678224	கு வா	-1.0619806
-1.6584544	ண வா	-0.7397613
-1.031796	ட் வா	-1.6060486
-1.5386384	ன வா	-1.171125
-1.6393807	வா வா	-0.91585255
-2.2034764	தி வா	-1.1276593
-1.826017	ய வா	-1.1946062
-1.0508072	யா வா	-1.9092888
-1.6858534	க வா	-1.024192
-1.0147765	ள் வா	-0.9990555
-1.6396637	இ வா	-0.61482257
-1.9195129	ச வா	-0.5690651
-2.004498	ங் வா	-0.33019653
-2.1812313	டி வா	-0.61482257
-1.1790206	சு வா	-0.8427607
-1.7758807	லே வா	-0.33019653
-0.9348178	ஜா வா	-2.1253676
-1.2876918	ஜு வா	-0.6940038
-1.1768749	ப் வா	-1.4072142
-1.013696	ஷ் வா	-1.248291
-1.8587276	தீ வா	-0.91585255
-1.7592281	ப வா	-0.9637761
-1.814006	ஷ வா	-0.3929738
-0.9424748	ணீ வா	-0.81894255
-0.96927345	னா வா	-1.5593052
-1.5827353	ஸ வா	-0.5179125
-1.1196439	வ் வா	-0.91585255
-1.2119709	லு வா	-1.4343665
-2.0626383	ஜ வா	-0.5179125
-1.1165413	ஷா வா	-1.4343665
-1.0764824	தா வா	-1.9244527
-1.4246657	தே வா	-0.7530941
-1.7211775	ரே வா	-0.61482257
-1.4794028	சோ வா	-0.3929738
-1.7132665	ண் வா	-0.2010684
-1.6405976	மு வா	-0.870095
-1.0955907	ளா வா	-0.81894255
-1.6318121	சே வா	-0.2010684
-1.8684144	சீ வா	-0.33019653
-2.1232412	ஜி வா	-0.76095057
-1.4816248	கீ வா	-0.2010684
-1.1443132	ணா வா	-1.0297959
-1.7197056	னு வா	-0.61482257
-1.6609535	எ வா	-0.33019653
-1.4233338	தெ வா	-0.81894255
-1.0014838	ய் வா	-1.0364265
-1.8713837	லோ வா	-0.33019653
-1.924924	யு வா	-0.81894255
-1.6335897	னோ வா	-0.31783393
-1.7865183	மோ வா	-0.33019653
-1.5223585	பை வா	-0.33093685
-1.2784657	சௌ வா	-0.6194465
-1.4229645	ஸா வா	-0.6940038
-1.1991739	பு வா	-1.3308259
-1.7779338	னே வா	-0.2010684
-0.9992977	னீ வா	-1.3137926
-1.5417618	ச் வா	-0.5179125
-1.8531296	சை வா	-0.76095057
-1.3854992	ஜீ வா	-0.7288786
-1.8384271	ள வா	-0.33019653
-1.2136071	ரீ வா	-0.9950338
-1.688714	ஹா வா	-0.33019653
-1.7941206	லை வா	-0.87798643
-1.0170901	டா வா	-1.0297959
-1.2621659	லீ வா	-0.3929738
-1.2082353	ற் வா	-0.61482257
-1.340574	மீ வா	-0.5179125
-1.0997458	ழ் வா	-0.81894255
-1.0873889	டோ வா	-0.61482257
-1.5702949	றா வா	-0.3929738
-1.4379054	சொ வா	-0.33019653
-1.6557366	றோ வா	-0.33019653
-1.1297185	ணோ வா	-0.33019653
-1.3337833	ணு வா	-0.5179125
-1.4212278	றூ வா	-0.33019653
-1.5274303	பீ வா	-0.33019653
-1.2268561	ஜூ வா	-0.3929738
-1.3116527	ளே வா	-0.33019653
-1.0643373	ஹெ வா	-0.36045188
-1.0617588	யீ வா	-0.33019653
-0.41082102	ஸு வா	-0.28954417
-1.2737863	ஹு வா	-0.33019653
-1.0617588	P வா	-0.33019653
-1.0617588	ஷு வா	-0.33019653
-1.1297185	. வா	-0.2010684
-1.6376506	<s> தி	-1.6088253
-2.4778023	சி தி	-0.33019653
-1.0383948	த் தி	-1.8055995
-1.7831311	ர தி	-0.78571707
-1.9495506	ன் தி	-0.8356513
-2.1857207	ட தி	-0.33019653
-2.4821706	ரா தி	-1.2010905
-2.3002563	பா தி	-0.6940038
-2.5101876	கா தி	-0.76095057
-2.663916	வோ தி	-0.76095057
-1.3732376	வ தி	-1.5560346
-2.2101893	ஸ் தி	-1.1595087
-1.9794366	ர் தி	-0.82210296
-1.3285432	ம தி	-1.2425445
-0.91765296	நி தி	-1.0260681
-2.1302629	கே தி	-0.9702102
-2.359826	த தி	-0.5293153
-2.2868829	னி தி	-0.33405596
-2.468784	மி தி	-0.7287659
-1.7620645	ரு தி	-0.6317719
-0.58879745	ந் தி	-2.131002
-2.2394667	சா தி	-0.6428513
-1.9334272	ந தி	-0.61482257
-2.2314708	ல தி	-0.33019653
-2.511403	க் தி	-0.75632364
-2.2568314	ட் தி	-0.7909138
-2.460394	ன தி	-0.33019656
-2.1344998	ய தி	-0.7761905
-2.2283735	ரி தி	-0.5982573
-2.0564244	க தி	-1.4404162
-2.3113306	கி தி	-0.6940038
-2.4681416	ச தி	-1.0861143
-2.3336046	டி தி	-0.33019653
-2.035928	வே தி	-0.8537046
-2.2417996	சு தி	-0.33019653
-2.3279495	ஷ் தி	-0.81894255
-1.2695909	ப தி	-1.3135191
-2.3588834	னா தி	-0.8260648
-2.4454083	ஷா தி	-0.81894255
-1.9647827	அ தி	-1.1061842
-2.566878	தா தி	-0.33019653
-2.1183205	தே தி	-0.5179125
-0.95237696	சோ தி	-0.92576087
-1.8644085	மு தி	-1.2168826
-1.7906952	வீ தி	-0.33019653
-1.9788225	சீ தி	-0.6194465
-1.7334614	ஜி தி	-0.7287659
-1.9599991	ரூ தி	-0.33019653
-1.8105149	ற தி	-0.42739862
-1.1692649	நா தி	-0.89357615
-2.5200236	லி தி	-0.33019653
-1.4932343	எ தி	-0.89357615
-1.817967	பே தி	-0.33019653
-1.5177274	னோ தி	-0.82836723
-1.88015	மோ தி	-0.25179
-1.57954	பை தி	-0.33019653
-1.9283272	ஸா தி	-0.6940038
-1.524234	போ தி	-0.870095
-2.0920253	பு தி	-0.33019653
-2.1001434	னே தி	-0.5179125
-1.7852709	பெ தி	-0.23999552
-1.7677342	ஆ தி	-0.78508425
-1.4145389	ஜீ தி	-0.4599206
-2.1113496	ரீ தி	-0.6940038
-1.498173	நீ தி	-1.2582753
-1.8111008	மை தி	-1.0619806
-0.7100067	ஜோ தி	-1.0829426
-1.5606664	ஷோ தி	-0.33019653
-0.70950735	ஸோ தி	-0.61482257
-1.3147767	னெ தி	-0.33019653
-2.3177295	<s> ய	-1.169917
-1.4789288	சி ய	-1.1291356
-2.2157133	த் ய	-0.82047915
-2.2552485	ர ய	-0.6681485
-2.7107816	ன் ய	-0.76095057
-1.9454665	ட ய	-0.7867129
-1.9057183	ரா ய	-1.1061842
-2.1789942	து ய	-0.8157412
-2.1798568	கா ய	-0.86828476
-2.571563	ஸ் ய	-1.2380718
-2.4809597	ர் ய	-0.38499475
-2.0950541	வி ய	-0.9108147
-2.1656878	ம ய	-0.907673
-2.2758067	மா ய	-0.8889804
-2.239944	லா ய	-0.781154
-1.6592528	ணி ய	-1.4498787
-2.484307	யி ய	-0.27386236
-2.1141217	கே ய	-0.5099335
-1.6088493	த ய	-1.0333622
-1.8220319	னி ய	-1.224351
-1.822984	மி ய	-0.7652275
-2.2191625	சா ய	-0.6940038
-1.7583926	பி ய	-0.7314141
-2.3311744	ல ய	-0.81894255
-2.301794	க் ய	-0.70849097
-2.3016403	கு ய	-0.76095057
-2.3001761	ன ய	-0.71214926
-2.4474628	வா ய	-0.8366713
-1.4883184	தி ய	-1.0420283
-1.496419	ரி ய	-1.0635418
-1.0059781	ஜெ ய	-1.2693394
-2.336188	க ய	-0.9230311
-1.9898432	கி ய	-1.3940398
-1.2461581	ளை ய	-1.024761
-2.0759225	ச ய	-0.9347379
-1.8966298	ரை ய	-0.870095
-1.6073141	டி ய	-1.1613653
-2.2064655	சு ய	-0.37640846
-1.7523521	ஷ் ய	-1.0991224
-2.3193903	ப ய	-0.5524997
-1.688229	ஷ ய	-0.95724523
-1.5874765	னா ய	-1.5391018
-2.0991557	வ் ய	-0.81894255
-1.7305548	ஜ ய	-1.1607974
-2.4181824	ஷா ய	-0.3929738
-1.7233415	ழி ய	-0.56108606
-1.8688097	ஹ ய	-0.81894255
-1.9970843	ண் ய	-0.61482257
-1.9282968	சே ய	-0.76095057
-1.5540392	ஞா ய	-0.6940038
-2.04558	ஜி ய	-0.6940038
-0.6203044	நா ய	-1.9275277
-1.5729227	லி ய	-0.8301256
-1.4665856	தெ ய	-0.6940038
-1.8580507	ய் ய	-0.7127399
-2.0390198	னோ ய	-0.47331846
-1.6118059	ஜே ய	-0.41825172
-1.4191011	கை ய	-0.81793386
-2.0636027	பு ய	-0.6940038
-2.078352	னே ய	-0.67743844
-1.689065	சை ய	-0.61482257
-1.9277728	ஷி ய	-0.57952374
-1.6862042	ள ய	-0.5099335
-2.0832875	ரீ ய	-0.61482257
-1.4413544	யெ ய	-0.76095057
-1.636647	டெ ய	-0.870095
-1.3781674	நோ ய	-0.6860248
-1.2104836	தை ய	-0.7541325
-1.4704137	லை ய	-1.1983992
-1.1549851	ஐ ய	-0.88956827
-1.5160463	மை ய	-0.52381766
-1.715014	ஜோ ய	-0.6194465
-1.6034374	ளி ய	-1.3551853
-1.4851223	சொ ய	-0.5179125
-1.7257305	றோ ய	-0.61482257
-1.4463665	தூ ய	-0.6940038
-1.364377	னை ய	-0.4347222
-1.348253	டை ய	-0.4607211
-0.875343	ணை ய	-1.0297959
-2.6946113	<s> ரி	-0.91585255
-2.3120966	சி ரி	-0.7173665
-2.2268596	த் ரி	-0.4278257
-2.3814223	ர ரி	-0.33019653
-2.336853	வு ரி	-0.2010684
-1.2335794	ட ரி	-1.082184
-1.7545811	து ரி	-0.57952374
-2.1307986	பா ரி	-0.28922623
-2.5062041	கா ரி	-0.33019653
-2.512272	ல் ரி	-0.64823616
-1.8777373	வ ரி	-1.8116432
-1.9284321	ஸ் ரி	-0.9999808
-2.6562858	வி ரி	-0.65621525
-1.795342	ம ரி	-1.1447636
-1.7099221	மா ரி	-1.6627461
-1.5739793	த ரி	-1.1547346
-1.9113864	சா ரி	-0.52643645
-1.2662561	பி ரி	-1.536509
-2.1098232	ல ரி	-1.5642126
-2.023676	ண ரி	-0.2010684
-1.9891948	ரெ ரி	-0.33019653
-1.7011416	ட் ரி	-0.7370853
-2.3266115	ன ரி	-0.2010684
-2.0534966	தி ரி	-0.83100957
-1.8757677	ய ரி	-0.76095057
-2.1310396	யா ரி	-0.7287659
-1.8562622	ஜெ ரி	-0.6940038
-1.4500318	க ரி	-1.1689261
-1.388897	கி ரி	-1.2853652
-1.733315	இ ரி	-0.7909138
-1.7186378	ச ரி	-0.72112846
-1.9991157	டி ரி	-0.61263114
-2.2670457	வே ரி	-0.81894255
-1.7419183	ப் ரி	-0.72873306
-2.324728	ஷ் ரி	-0.61482257
-1.532801	ப ரி	-0.7162477
-2.2473273	ஷ ரி	-0.33019653
-2.0198166	னா ரி	-0.51257694
-0.655173	மே ரி	-0.9645856
-1.9833816	லு ரி	-0.33019653
-1.9051375	ஜ ரி	-0.37640846
-2.4422977	ஷா ரி	-0.31648177
-1.9611816	அ ரி	-0.930093
-2.381153	தா ரி	-0.6220368
-1.4471402	ஹ ரி	-0.82062745
-1.7014616	சோ ரி	-0.23999552
-1.9485576	சே ரி	-0.35599846
-2.147372	னு ரி	-0.28922623
-1.8082886	ற ரி	-0.33019653
-1.2185749	கூ ரி	-0.870095
-1.8157058	பே ரி	-1.4840542
-2.0651343	னோ ரி	-0.27386236
-1.7037468	பூ ரி	-0.33019653
-1.8717448	பு ரி	-0.373468
-2.0976675	னே ரி	-0.81894255
-1.7830284	பெ ரி	-1.2058872
-2.3138745	னீ ரி	-0.33019653
-1.7653353	ஆ ரி	-1.2380718
-1.9481496	ள ரி	-0.5528227
-1.655189	நே ரி	-0.5099335
-1.3573927	டெ ரி	-0.30978343
-1.5965618	யூ ரி	-0.6154407
-1.851112	மீ ரி	-0.33019653
-1.5031769	டோ ரி	-0.47331846
-0.6702072	கௌ ரி	-0.7443908
-1.6098902	தோ ரி	-0.33019653
-1.4575324	மொ ரி	-0.5524997
-1.1253673	தூ ரி	-0.51030517
-1.5591853	ஷோ ரி	-0.33019653
-0.71559966	சூ ரி	-1.7353965
-1.5788379	மெ ரி	-0.61482257
-3.008445	<s> யா	-0.928087
-1.0826033	சி யா	-1.140131
-1.9184132	த் யா	-0.7242565
-2.1376045	ன் யா	-0.930093
-2.1794195	ட யா	-0.9950338
-2.316746	ம் யா	-0.4101922
-2.2065587	து யா	-0.38283223
-2.292127	பா யா	-0.6194465
-2.331919	ல் யா	-0.72042495
-2.737831	ஸ் யா	-0.81894255
-2.3635612	ர் யா	-0.30647162
-1.6496978	வி யா	-1.1380591
-2.302356	மா யா	-0.66286534
-0.94040376	ணி யா	-1.2775804
-1.4166347	யி யா	-0.5690564
-1.7914143	நி யா	-0.4980083
-1.8209728	த யா	-1.1705425
-1.0796356	னி யா	-1.5848278
-1.2319186	மி யா	-1.3370899
-2.2348719	சா யா	-0.47432846
-1.4732612	பி யா	-1.0835917
-1.6894861	ந யா	-0.49799144
-2.2249508	ல யா	-0.6638446
-2.5039365	க் யா	-0.3147975
-2.198698	ண யா	-0.36595
-2.3232179	ன யா	-0.84527147
-1.275476	தி யா	-1.4059412
-2.4928486	ய யா	-0.27386236
-1.1378213	ரி யா	-1.5010719
-1.8535261	ஜெ யா	-0.82323205
-2.5615647	க யா	-0.9660552
-1.3884076	கி யா	-0.8174085
-1.5631983	ளை யா	-1.6346309
-1.997301	செ யா	-0.76095057
-2.4588346	ச யா	-0.870095
-1.0243123	ரை யா	-1.0354557
-1.1708425	டி யா	-0.9904564
-2.0614886	வை யா	-0.77434844
-2.3215303	ஷ் யா	-0.61482257
-2.348301	ப யா	-0.22993179
-1.841274	வ் யா	-0.7983609
-1.4445736	றி யா	-0.5395286
-1.4523388	யை யா	-0.4066935
-2.2134163	ஜ யா	-0.7173058
-1.2552801	ழி யா	-0.6940038
-2.1141102	தே யா	-0.27386236
-1.61789	ண் யா	-0.6428513
-1.7867897	வீ யா	-0.37063348
-1.6067019	ஜி யா	-0.45264927
-2.221607	நா யா	-0.870095
-1.3040015	லி யா	-0.77982557
-1.0075792	ய் யா	-1.1398673
-0.5931748	பை யா	-1.2106335
-0.827478	கை யா	-1.1779644
-1.5273514	ஸி யா	-0.6625219
-1.9543653	லெ யா	-0.2173262
-1.0030618	சை யா	-0.83418244
-0.96007085	ஷி யா	-0.95283616
-2.1049552	ரீ யா	-0.91585255
-0.7090787	ஸெ யா	-0.870095
-1.2144386	தை யா	-0.97923946
-1.024469	லை யா	-1.0443954
-0.5933759	ஐ யா	-0.9876196
-1.4955846	நீ யா	-0.6940038
-1.4756554	ஹி யா	-0.33019653
-0.73168325	மை யா	-0.6841001
-1.2846534	ளி யா	-0.870095
-1.4179087	றை யா	-0.3929738
-0.6302495	னை யா	-0.94581574
-1.3544496	டை யா	-0.6940038
-0.8775474	ணை யா	-0.22993179
-1.1564808	ஞை யா	-0.33019653
-1.5520514	<s> ஜெ	-1.6263208
-2.5374274	ல் ஜெ	-0.84527147
-3.0696063	வி ஜெ	-0.6940038
-2.9130735	ம ஜெ	-0.81894255
-2.3041775	ள் ஜெ	-0.81894255
-2.3146272	ங் ஜெ	-0.6940038
-2.2815447	றி ஜெ	-0.6940038
-2.0545917	ஞ் ஜெ	-0.6940038
-1.2808986	<s> க	-1.7615042
-1.6517694	சி க	-1.4277359
-2.501206	த் க	-0.6940038
-1.6693308	ர க	-1.0142822
-2.282707	ன் க	-0.574631
-2.2917433	வு க	-0.4858747
-2.0893495	ட க	-0.3929738
-2.0410142	ரா க	-0.88664967
-1.9635328	து க	-1.0772206
-1.410964	பா க	-1.5902503
-2.6196404	வோ க	-0.6940038
-1.7638102	டு க	-0.81894255
-2.4001842	ல் க	-0.61482257
-1.7852099	வ க	-1.0686811
-1.5781618	ஸ் க	-1.3763745
-1.9384978	ர் க	-0.65621525
-2.3060927	வி க	-0.81894255
-1.7596895	ம க	-0.80177116
-1.9151808	ஜ் க	-0.3929738
-1.9341387	மா க	-0.63524264
-2.3470433	லா க	-0.3929738
-2.19853	ணி க	-0.6940038
