லை බ 0.0062549
லை ල 0.0757363
லை ලෛ 1.0000000
லை ලෙ 0.0596659
லை යි 0.0241977
றொ රො 0.0442177
க் ක් 0.8652695
க் ප් 0.0121163
க் කූ 0.1216216
க் NULL 0.0567801
க் හො 0.0093458
க் යි 0.0076346
க் ක 0.0038347
க் ට 0.3397379
க் ග් 0.7818182
க் නිඃ 0.5000000
க் න් 0.0002589
க் ස් 0.0004369
க் ක්‍ 0.8181818
க் කී 0.0845411
க் ඛ 0.5000000
க் හ් 0.0457666
க் ර් 0.0007396
க் ත් 0.0070053
லீ මී 0.0037920
லீ ලි 0.0285078
லீ ලී 0.7539906
கி ග 0.0003770
கி ප් 0.0016155
கி ගේ 0.0000584
கி ක් 0.1117764
கி යි 0.0010352
கி හී 0.0433109
கி ය 0.0042164
கி හි 0.1942897
கி කි 0.9447396
கி කී 0.0845411
கி ක්‍ 0.1818182
கி ස් 0.0000874
கி න් 0.0000575
கி ගී 1.0000000
கி නි 0.0024135
கி ගි 0.3250000
கி ග් 0.0727273
கி ත් 0.0002919
கி සි 0.0008493
கி හ් 0.0076278
பௌ ෆෞ 0.8153846
பௌ ෆා 0.0024403
பௌ ෆ් 0.0025753
பௌ ව් 0.0894737
பௌ පෞ 1.0000000
பௌ වු 0.0969142
பௌ ෆො 0.5263158
பௌ ව්‍ 0.2500000
பௌ වූ 0.0800000
பௌ ප 0.0821787
பௌ ෆ 0.0452544
தீ දී 0.9430976
தீ තී 0.7383333
தீ ඩී 0.4047619
தீ ධී 1.0000000
தீ ඩි 0.2541106
தீ කී 0.0096618
தீ දි 0.2198769
தீ ති 0.0148305
ஜா ජ 0.0229133
ஜா හා 0.0024213
ஜா යා 0.0011519
ஜா ජා 0.9509537
ஜா සා 0.0010384
ழி ලි 0.0031180
ழி ලී 0.0122066
தே දේ 0.9146341
ஜ் ජි 0.0054517
ஜ் ස් 0.0009613
ஜ் ජී 0.0104302
ஜ் ජ් 0.8257191
னு න 0.0015886
னு නූ 0.1288056
னு නි 0.0018772
னு නු 0.5324351
ஹோ හ 0.0009333
ஹோ හො 0.0062305
நி න් 0.0000575
நி නී 0.0098280
நி නිඃ 0.5000000
நி හි 0.0031337
நி නි 0.5052293
நி රි 0.0029444
ஷெ ෂෙ 0.2328042
ஷெ ශෙ 0.2500000
ஷெ ෂැ 1.0000000
எ ඇ 0.5187500
எ ඒ 0.3043478
எ එ 0.7396450
ணி න් 0.0002014
ணி නී 0.0208845
ணி නි 0.0128721
ணி ණි 1.0000000
ரி න් 0.0001151
ரி ටි 0.1420765
ரி ල් 0.0001282
ரி රෙ 0.0318021
ரி රී 0.2250324
ரி ර 0.0025248
ரி ර් 0.1192374
ரி රි 0.7602665
வெ රෙ 0.0318021
வெ බේ 0.0084746
வெ වෙ 0.4726027
வெ වැ 1.0000000
வெ ගි 0.2250000
வெ උ 0.0056361
வெ මා 0.0016321
வெ වේ 0.1250000
யு යු 0.5227687
யு ජු 0.0113065
யு යූ 0.1045752
யு යි 0.0027174
யு ස 0.0211732
நா නා 0.1216104
நா න 0.0107228
நா තා 0.0047847
ஷ் ෂ 0.0175601
ஷ் ෂා 0.0038402
ஷ் ෆ් 0.0048931
ஷ் ස් 0.0145067
ஷ் හ් 0.0068650
ஷ் ස්‍ 0.0198020
ஷ் ශ් 0.2281369
ஷ் ෂ් 0.4743875
ஷ் ශ්‍ 0.2278481
க ත 0.0111663
க හො 0.1484943
க ක 0.8440562
க ක් 0.0024950
க ම් 0.0006177
க හා 0.0026903
க හ 0.2017333
க ග 0.0270180
க NULL 0.0038333
க හු 0.0042941
க ස 0.0007185
க ඛ 0.5000000
க ග්‍ 1.0000000
க හ් 0.0106789
க තී 0.0116667
க කා 0.0154553
யி ළ 0.0317532
யி ය් 0.0454545
யி NULL 0.1183517
யி ගේ 0.0276051
யி ඉ 0.0046755
யி යි 0.3040890
யி එ 0.0532544
யி ය 0.0147576
யி ඩ් 0.0020015
யி යී 0.3688525
ஸ ශ 0.1513002
ஸ NULL 0.0021562
ஸ සා 0.0044133
ஸ ස 0.0370214
ஸ ෂ 0.0101664
ஸ ස් 0.0027965
ஸ ෂා 0.0042243
ஸே සේ 0.0214133
ள் ල් 0.0370513
த ඩ් 0.0022517
த න 0.0041700
த දා 0.0062598
த ධ 1.0000000
த ත 0.7928040
த ද් 0.0179426
த ක 0.0038347
த දු 0.0049767
த දී 0.0016029
த තා 0.0412679
த ඳ 0.5000000
த ද 0.9131190
த ඩ 0.1394422
ஹை ක 0.0034086
ஹை යි 0.0405021
ஹை අ 0.0010551
ஹை හි 0.0069638
ஹை හෙ 0.3421053
ஹை හෛ 0.2352941
ஹை හේ 0.2432432
ஹை භ 0.5882353
ஹை හ 0.0285333
வை යි 0.0011646
வை ලෙ 0.0007955
வை වේ 0.2352941
வை ව 0.8030271
வை ය 0.0035137
வை බ 0.0226740
வை වා 0.0042735
வை බෛ 0.8387097
வை ච 0.0689655
வை බේ 0.4418886
வை NULL 0.0019166
வை බෙ 0.3153153
வை වෛ 1.0000000
வை වෙ 0.4383562
கா හ 0.0010667
கா හා 0.1210654
கா තා 0.0239234
கா කා 0.9741019
கா ත 0.0055831
கா ගා 0.9411765
கா ක 0.0370686
கா ඛා 1.0000000
ச සා 0.0133697
ச NULL 0.0023958
ச ච 0.4741379
ச ස 0.2805765
ச ෂ 0.1182994
ச ගේ 0.0000292
ச ස් 0.0025343
ச ෆ් 0.0010301
ச ෂා 0.0111367
ச ශ 0.2269504
ச ​ 1.0000000
ச ප 0.0028667
ச සි 0.0006795
ச ක 0.0038347
ச සු 0.0048900
றீ රී 0.0356680
றீ රි 0.0024795
ஜ ජි 0.0054517
ஜ ජ 0.8887070
ஜ ජෝ 0.1600000
ஜ ජෙ 0.0302419
ஜ ජා 0.0363306
னோ න 0.0013900
னோ නෝ 0.7586207
னோ නො 0.1315789
னோ වු 0.0033751
னோ නේ 0.1126761
மோ මෝ 0.2500000
ய උ 0.0064412
ய දී 0.0082148
ய යි 0.0086698
ய ය 0.9058327
ய ජ 0.0087289
ய හෛ 0.1764706
ய යා 0.0312920
ய යෙ 0.1333333
ய NULL 0.0002396
ய යු 0.0163934
லு ලූ 0.2209302
லு ලු 0.9221790
லு ළු 1.0000000
லு ල් 0.0008974
லு උ 0.0056361
தை තෙ 0.3200000
தை දෛ 1.0000000
தை ත 0.0415633
தை තා 0.0035885
தை ද 0.0104257
தை යි 0.0104814
கௌ ග 0.0013823
கௌ කෞ 1.0000000
கௌ ගෞ 1.0000000
கௌ වු 0.0115718
கௌ ව් 0.0052632
ஜோ ජෝ 0.6600000
ற රා 0.0041138
ற ට 0.0003984
ற ර 0.2002331
ஸி ෂ් 0.0256125
ஸி සී 0.0300601
ஸி ශි 0.4551084
ஸி මා 0.0004663
ஸி සි 0.0462035
ஸி ශ් 0.0266160
ஸி ෆ් 0.0007726
ஸி ෂී 0.0329670
ஸி ස් 0.0738443
ஸி ෂි 0.2330905
ஸி ඩි 0.0104634
ஸி ෆි 0.0067214
து ති 0.0098870
து ම් 0.0001029
து ගේ 0.2240217
து NULL 0.0016770
து ඩ 0.0677291
து නු 0.0044910
து දු් 1.0000000
து ගෙ 0.1993754
து ඩ් 0.0880660
து ධු 1.0000000
து ඩු 0.2112676
து ඳු 1.0000000
து දු 0.9063764
து ගු 0.0151057
து නි 0.0018772
து න් 0.0002877
து ද 0.0121633
து දි 0.0052770
து ඩෲ 0.5000000
து තු 0.7802488
து ද් 0.0454545
து ට් 0.0414938
து උ 0.0072464
து දූ 0.5939850
ஷ ෆ 0.0022016
ஷ ශ 0.5413712
ஷ ස් 0.0007865
ஷ ෂා 0.0195853
ஷ ෂ 0.7948244
ஷ සා 0.0010384
ஷ ෂෙ 0.0476190
ஷ ස 0.0050292
ஷ ෂි 0.0052029
கோ කෝ 1.0000000
கோ කො 0.1600000
கோ ගෝ 1.0000000
அஃ අ 0.0009379
டெ ඩෙ 0.7083333
டெ ටෙ 1.0000000
டெ ඩේ 0.3076923
பா ප 0.0152891
பா ෆ 0.0337573
பா බා 0.8366834
பா භා 0.7037037
பா පා 0.9691630
பா සා 0.0011682
பா ෂා 0.0026882
பா ෆා 0.9460412
பா ෆ් 0.0036055
றெ රෙ 0.1625442
றெ ර 0.0034958
ம் ම්‍ 0.9090909
ம் ඹ 0.5000000
ம் න් 0.0003165
ம் ඹු 0.4081633
ம் බ් 0.0021008
ம் ම 0.0024828
ம் මී 0.0102925
ம் මි 0.0242460
ம் තු 0.0052770
ம் ඹේ 0.5000000
ம் මා 0.0018652
ம் ව් 0.0035088
ம் ම් 0.8704962
ம் NULL 0.0965501
ம் ළ 0.4998701
ம் හො 0.2294912
ம் යි 0.0002588
ஜீ ජු 0.0226131
ஜீ ජි 0.0973520
ஜீ ජ් 0.0135364
ஜீ ච් 0.0148936
ஜீ ජී 0.8800522
ஜீ පි 0.0159574
ஜீ ෂී 0.0329670
ஜீ රී 0.0071336
ஜீ NULL 0.0023958
ஹே හේ 0.5270270
ஹே හෙ 0.0368421
ஹே හෑ 1.0000000
ரு රු 0.6798184
ரு ගෙ 0.1994012
ரு කෲ 0.1666667
ரு ඩෲ 0.5000000
ரு රූ 0.0683572
நௌ නෞ 0.6060606
நௌ වු 0.0265188
நௌ ව් 0.0684211
நௌ ත 0.0086849
நௌ න 0.0313741
கʰ කා 0.0033417
ணே යි 0.0009058
ணே නේ 0.2253521
ணே නෙ 0.0296610
ஸீ සී 0.2492986
ஸீ ෂී 0.2490842
ஸீ සු 0.0055012
ஸீ සි 0.0011041
ஸீ ශී 0.3793103
ஷீ ශී 0.1724138
ஷீ ෂි 0.0176899
ஷீ ෂී 0.2710623
ஷீ සී 0.0228457
ஷீ ශි 0.0247678
மெ මැ 0.9361702
மெ මේ 0.2123288
மெ මෙ 0.6210046
மெ ම 0.0005093
நெ නො 0.1052632
நெ නැ 0.2105263
நெ නෞ 0.0757576
நெ ඤෙ 0.3902439
நெ ඥෙ 0.1296296
நெ නෛ 0.1884058
நெ නෙ 0.4915254
நெ න 0.0109214
நெ ර 0.0013595
மி මා 0.0002332
மி ම් 0.0749434
மி න් 0.0000288
மி ම්‍ 0.0909091
மி මි 0.9251922
மி ම 0.0004138
மி මී 0.0904659
மி ගෙ 0.1994270
மி බේ 0.0012107
ஜே ජෙ 0.0262097
ஜே ජේ 0.5094340
யா සා 0.0057113
யா ෆී 0.0066858
யா ජා 0.0063579
யா වි 0.0614087
யா යා 0.9606450
யா හා 0.0021523
யா ය 0.0505973
ங் රෑ 0.4047619
ங் ං 0.8064516
ங் න් 0.0012083
ஹூ හු 0.0144928
வூ වූ 0.1700000
வூ බු 0.0254817
வூ වු 0.0877531
வூ බූ 0.0535714
ன்​ න් 0.0002589
ன்​ නී 0.0110565
ன்​ ත 0.0055831
ளை ල 0.0182328
ளை ලෙ 0.0079554
ளை යි 0.0011646
ஞ ඤ 1.0000000
ஞ ඥ 0.3600000
ஞ ඥෙ 0.1851852
ஞ ඥෛ 0.4705882
ஜோ‍ ජෝ 0.1800000
ஜோ‍ ර් 0.0007396
ஏ ඇ 0.0500000
ஏ ඒ 0.6956522
ஏ එ 0.0532544
சொ ෂො 1.0000000
சொ එ 0.0532544
சொ සො 0.6603774
சொ සෙ 0.0078070
மஃ ම 0.0012732
மஃ හ් 0.0190694
மஃ හ 0.0020000
யே යි 0.0011646
யே යේ 1.0000000
தூ ව් 0.0046784
தூ තු 0.0184697
தூ තූ 0.8205128
தூ දූ 0.2781955
தூ දු 0.0158631
னை න 0.0359412
னை නෙ 0.2161017
னை නෛ 0.2753623
னை යි 0.0300207
சௌ සෞ 0.5072464
சௌ ව් 0.0070175
சௌ ස 0.0010565
சௌ වු 0.0062681
மீ මී 0.8867822
மீ මි 0.0428740
டூ ඩූ 1.0000000
டூ ඩු 0.0563380
தௌ වා 0.0042735
தௌ ත 0.0390819
தௌ තෞ 0.5263158
தௌ උ 0.0072464
தௌ ව්‍ 0.4166667
தௌ ක 0.0042608
தௌ තා 0.0053828
தௌ ව් 0.0415205
தௌ තො 0.5555556
தௌ දෞ 1.0000000
தௌ වු 0.0178399
தௌ ද 0.0460469
இஃ හ් 0.0068650
இஃ ඉ 0.0024752
வீ ව 0.0010734
வீ ලි 0.0040089
வீ වි 0.0061765
வீ බී 0.1617834
வீ වී 0.8080229
வீ ව් 0.0040936
வீ ලී 0.0084507
வீ බි 0.0632447
வீ මී 0.0043337
ஹ අ 0.0021102
ஹ ත 0.0024814
ஹ හො 0.3271028
ஹ හෙ 0.0473684
ஹ හ් 0.0465294
ஹ ක 0.0029825
ஹ හා 0.0255582
ஹ හ 0.6908000
ஹ වු 0.0033751
ஹ හ්‍ 0.1666667
ஹ ග 0.0010472
ஹ හු 0.0220075
NULL යි 0.0493012
NULL සු 0.0018337
NULL න 0.0013900
NULL බ්‍ 0.0280702
NULL ් 0.6666667
NULL ම් 0.0066914
NULL ගේ 0.0004377
NULL ති 0.0049435
NULL ර් 0.0005752
NULL හ් 0.0152555
NULL වි 0.0008315
NULL උ 0.0016103
NULL ද් 0.0111643
NULL ලෙ 0.0039777
NULL සි 0.0005945
NULL ත් 0.0020432
NULL අ 0.0018757
NULL යී 0.0737705
NULL බ් 0.0042017
NULL ල් 0.0006410
NULL ද 0.0008688
NULL බේ 0.0060533
NULL න් 0.0012371
NULL ස් 0.0056803
ஆஃ ආ 0.0056859
ப ජ 0.0043644
ப න 0.0013900
ப ෆූ 0.0833333
ப බා 0.0393635
ப ප් 0.0080775
ப බ්‍ 0.0157895
ப ෆෙ 0.1564626
ப ස 0.0003804
ப පා 0.0308370
ப භ 0.4117647
ப ප්‍ 0.0704225
ப ෆි 0.0089619
ப ෆ්‍ 0.0199203
ப ෆෞ 0.0923077
ப ෆා 0.0363341
ப හ 0.0012000
ப ප 0.8193980
ப ල 0.0056101
ப ෆ 0.7852250
ப බු 0.0149161
ப පt 1.0000000
ப අ 0.0011723
ப බ 0.7943706
ப ව 0.0017175
ப ම 0.0002546
ப බ් 0.0018007
ப බේ 0.0108959
ப ෂ 0.0175601
ப ඹ 0.5000000
ப ෆ් 0.0110739
ஸை සෙ 0.0113556
ஸை සේ 0.0171306
ஸை යි 0.0020704
ஸை සෛ 0.1147541
ழ ල 0.0231417
ஹெ හැ 1.0000000
ஹெ හ 0.0018667
ஹெ හෙ 0.2789474
ஜௌ වු 0.0188042
ஜௌ ව් 0.0099415
ஜௌ ජ 0.0305510
ள ව් 0.0549708
ள සෞ 0.2463768
ள තෞ 0.2368421
ள ර් 0.0006574
ள නෞ 0.0757576
ள ල 0.0336606
ள වු 0.0458052
றை රෙ 0.0353357
றை යි 0.0095756
றை ර 0.0124296
ச் NULL 0.0014375
ச் ස්‍ 0.0297030
ச் ච් 0.8978723
ச் ස් 0.0447435
ச் සී 0.0036072
ச் චා 0.1111111
ச் ක් 0.0022455
லெ ලැ 0.6521739
லெ ලෑ 0.0824742
லெ බ් 0.0009004
லெ NULL 0.0019166
லெ ලේ 0.0824742
லெ ල 0.0049088
லெ ලෙ 0.9212411
லெ ච් 0.0170213
ஈ ර් 0.0007396
ஈ ඊ 0.8733333
ஐ අ 0.0173505
ஐ හෙ 0.0473684
ஐ ජ 0.0070922
ஐ ඉ 0.0027503
ஐ ය් 0.1590909
ஐ යි 0.0168219
ரை ර 0.0283550
ரை යී 0.0573770
ரை ර් 0.0008218
ரை රෙ 0.0812721
ரை යි 0.0221273
ரை රි 0.0012397
ரை ට 0.0003984
அ‍‌‍ අ 0.0008206
லொ ලො 0.6153846
யெ ය 0.0049192
யெ යෙ 0.7333333
யெ ෆෙ 0.0612245
யெ ජෙ 0.0080645
ணீ නී 0.0208845
இ ර 0.0017479
இ ස් 0.0027091
இ ඉ 0.9826733
இ ඊ 0.1266667
இ රා 0.0051869
மொ මු 0.0287923
மொ මො 0.5814782
மொ ම 0.0006684
மொ මෝ 0.3000000
ரொ රො 0.0374150
ல ලා 0.0172281
ல ලෙ 0.0047733
ல ල 0.7784011
ல ල් 0.0044872
ஹொ මො 0.0040071
ஹொ හ 0.0126667
ஹொ හා 0.0021523
ஹொ හො 0.2263759
ஜூ ජූ 0.5666667
ஜூ යු 0.0127505
ஜூ ෂු 0.0578035
ஜூ ජු 0.1582915
ப் බ් 0.7605042
ப் ෆ් 0.8521762
ப் ස් 0.0005243
ப் බු 0.0155376
ப் ජ් 0.0338409
ப் ෆු 0.0169492
ப் ෆ 0.0066047
ப் ව 0.0003220
ப் ෂ් 0.0322940
ப் බ 0.0070367
ப் ප්‍ 0.2464789
ப் NULL 0.0162913
ப் බි 0.0119157
ப் ෆ්‍ 0.7888446
ப் ප් 0.8707593
ப் බ්‍ 0.7456140
ப் ෆ‍ 1.0000000
ப் ෆා 0.0018980
ப் වේ 0.0588235
நொ නො 0.3157895
கு ක් 0.0024950
கு ගු 0.8277946
கு ගූ 0.2647059
கு හ 0.0009333
கு කෲ 0.5000000
கு වු 0.0043394
கு බේ 0.0012107
கு ග 0.0003770
கு හු 0.2737520
கு නු 0.0029940
கு හූ 0.1250000
கு කු 0.9387255
கு හ් 0.0106789
கு ක 0.0063911
கு ට 0.3392509
னா හා 0.0018832
னா ආ 0.0063966
னா තා 0.0059809
னா න් 0.0001438
னா නෑ 1.0000000
னா න 0.0081414
னா සි 0.0005945
னா නා 0.8304775
னா නැ 0.2105263
லா ල් 0.0021795
லா ල 0.0553997
லா නා 0.0014973
லா ළා 1.0000000
லா ලා 0.9046027
லா තු 0.0003769
லா ලෑ 0.0412371
ஙி ං 0.0053763
செ ශේ 0.2631579
செ සේ 0.1327623
செ දෙ 0.1836735
செ සෛ 0.1311475
செ සැ 0.7826087
செ සෙ 0.7118524
செ ෂෙ 0.3915344
செ ස 0.0009720
செ චෙ 0.1891892
செ ශා 0.0172043
செ ශෙ 0.4500000
செ සෞ 0.1159420
ஹீ හි 0.0445682
ஹீ සාී 0.5000000
ஹீ හී 0.6188643
ஜெ ජේ 0.4905660
ஜெ සෙ 0.0113556
ஜெ ජැ 1.0000000
ஜெ ස 0.0002958
ஜெ බේ 0.0096852
ஜெ ෂෙ 0.0370370
ஜெ ජෙ 0.9183468
ஜெ ජ 0.0103655
ஜெ ජි 0.0070093
ஜெ ඤෙ 0.1951220
ஜெ ඥෙ 0.1296296
ஸ் ඉ 0.0049505
ஸ் ස් 0.8412130
ஸ் ෆ් 0.0074685
ஸ் ෂ 0.0064695
ஸ் සි 0.0017836
ஸ் ස්‍ 0.9504950
ஸ் ත් 0.0026270
ஸ் හ් 0.0076278
ஸ் ෂූ 0.1052632
ஸ் මා 0.0013989
ஸ் ෂ් 0.4309577
ஸ் NULL 0.0083852
ஸ் ස 0.0021976
ஸ் ශී 0.1034483
ஸ் ශ් 0.7300380
ஸ் සු 0.0027506
ஸ் ශ්‍ 0.4936709
னூ නූ 0.3372365
னூ නු 0.0598802
ளி ලි 0.0106904
ளி ල් 0.0017949
ளி ළි 1.0000000
மே මේ 0.7260274
மே මෙ 0.0365297
னொ නෝ 0.0402299
னொ නො 0.1052632
சா සාී 0.5000000
சா සැ 0.2173913
சா සා 0.6514798
சா ස 0.0064238
சா සා‍ 1.0000000
சா ජා 0.0063579
சா යා 0.0055673
சா හා 0.0024213
சா චා 0.8000000
சா ෂා 0.0963902
சா ශා 0.0924731
லோ ලො 0.3846154
லோ ලෝ 0.8461538
ஸௌ ශ 0.0165485
ஸௌ ව් 0.0040936
ஷோ සො 0.1509434
ஷோ ෂෝ 1.0000000
ஷோ සෝ 0.1568627
ஜி ජ් 0.0862944
ஜி යි 0.0019410
ஜி ෂ් 0.0089087
ஜி ජු 0.0062814
ஜி සී 0.0028056
ஜி ජ 0.0049100
ஜி ජි 0.8473520
ஜி නි 0.0018772
ஜி ජී 0.1003911
ஜி ස් 0.0000874
ரீ ශී 0.1034483
ரீ ර් 0.0005752
ரீ රී 0.7114137
ரீ රි 0.0483496
ரீ ටී 0.3448276
கெ ක 0.0034086
கெ කැ 0.5625000
கெ හේ 0.1351351
கெ ගෙ 0.0026325
கெ යෙ 0.1333333
கெ ලැ 0.3478261
கெ ගේ 0.0002334
கெ කෙ 1.0000000
ட் ටා 0.1809524
ட் ඩ් 0.5631724
ட் මා 0.0013989
ட் දූ 0.0526316
ட் දු 0.0385692
ட் ට 0.0011068
ட் ච් 0.0382979
ட் ත් 0.0049621
ட் ද් 0.0944976
ட் ට් 0.7676349
ட் ඩ්් 0.7500000
ட் ටි 0.0928962
ட் ඩි 0.0313901
ட் ඩ 0.1872510
ளா ලා 0.0671124
ஸூ ෂු 0.0462428
ஸூ සු 0.0018337
முஃ හ් 0.0053394
முஃ මු 0.0013527
யீ යී 0.5000000
யீ යි 0.0027174
பே ඹේ 0.5000000
பே පේ 1.0000000
பே බේ 0.2384988
பே ෆේ 1.0000000
பே බෙ 0.1231231
பே පෑ 1.0000000
ரே රෝ 0.0239234
ரே රේ 0.7029703
மௌ මො 0.0040071
மௌ වු 0.0366442
மௌ ම 0.0031513
மௌ ව් 0.0187135
மௌ මෞ 1.0000000
றி ති 0.0063559
றி ටි 0.0109290
றி ර 0.0011653
றி ට් 0.0041494
றி රි 0.1737177
றி රී 0.0149157
றி ර් 0.0001644
ஸெ ෂෙ 0.2116402
ஸெ සෙ 0.0042583
ஸெ රේ 0.0396040
ஸெ සෞ 0.1304348
ஸெ ෂේ 0.1904762
ஸெ ශ්‍ 0.0506329
ஸெ ශෙ 0.1500000
டே ටේ 1.0000000
டே ඩෙ 0.2916667
டே ඩේ 0.6923077
ழ் ල් 0.0055128
வொ වො 1.0000000
ளே ලේ 0.1855670
யை යි 0.0009058
யை ව 0.0548519
ஷை ෂෙ 0.0476190
ஷை යි 0.0023292
ஷை ස 0.0003804
றே රේ 0.1683168
றே නි 0.0018772
றே වෙ 0.0479452
ஊ ඌ 1.0000000
ஊ වු 0.0043394
பெ ෂ් 0.0089087
பெ ෆො 0.1754386
பெ ප 0.0152891
பெ ෆ 0.0154110
பெ පෙ 1.0000000
பெ බෙ 0.2582583
பெ පැ 1.0000000
பெ බැ 1.0000000
பெ ෆෙ 0.5578231
பெ ෆි 0.0112024
பெ බේ 0.0230024
வோ ද! 0.9298133
வோ ස 0.3045812
பு පූ 0.4545455
பு ප් 0.0137318
பு බ්‍ 0.0438596
பு ගේ 0.0000292
பு දු 0.0027994
பு ෆූ 0.0833333
பு පු 0.9074074
பு බූ 0.0535714
பு සු 0.0024450
பு ඹු 0.5918367
பு බ් 0.0132053
பு ෆ් 0.0164821
பு 7577 1.0000000
பு බු 0.7644500
பு ෆු 0.8203390
பு ජ් 0.0152284
ந න 0.6666005
ந ර 0.0009711
ந නෙ 0.0381356
ந නු 0.0069860
ந නා 0.0118117
ந නෞ 0.1212121
வா මා 0.0016321
வா වි 0.8575840
வா චා 0.0888889
வா ව 0.0027909
வா බා 0.1239531
வா බ 0.0054730
வா වා 0.9561966
லி ලී 0.1032864
லி ලි​ 1.0000000
லி ලි 0.9443207
லி ල් 0.1024359
ற் ටි 0.0273224
ற் ට් 0.0331950
ற் ට 0.0007969
ற் ත් 0.0026270
ற் ර් 0.0004109
சை චෛ 0.5000000
சை යි 0.0656056
சை ය 0.0063247
சை ච 0.3879310
சை ස 0.0103119
சை සා 0.0007788
சை චේ 0.6785714
சை සෙ 0.1809794
சை ය් 0.2045455
சை සේ 0.0599572
சை සි 0.0006795
சை සෛ 0.6229508
சை චි 0.0581395
சை ස් 0.0004369
சை ෂ 0.0055453
சை ශෙ 0.1500000
சை චෙ 0.6891892
டா දා 0.0117371
டா ටා 0.6666667
டா ඩා 0.5586854
கை හ 0.0305333
கை හා 0.0026903
கை ග 0.0013404
கை ගෙ 0.0002323
கை හෙ 0.2473684
கை හෛ 0.5882353
கை කෛ 1.0000000
கை ඥ 0.3600000
கை කි 0.0053135
கை හි 0.0254178
கை ක 0.0869195
கை යි 0.0621118
கை හ් 0.0061022
வ் බ 0.0078186
வ் වි 0.0020192
வ் වූ 0.1566667
வ் ච් 0.0170213
வ் න් 0.0002014
வ் ව් 0.5707602
வ் ෆ් 0.0018027
வ் ෆෞ 0.0923077
வ் බ් 0.1458583
வ் වු 0.0708775
வ் NULL 0.0023958
வ் ෆ්‍ 0.0139442
வ் ච 0.0689655
நூ නූ 0.4496487
நூ නු 0.0588822
சூ සූ 0.8102564
சூ ෂු 0.1387283
சூ ඩු 0.0704225
சூ සු 0.0550122
ஜு ජූ 0.2833333
ஜு ජි 0.0116822
ஜு සු 0.0055012
ஜு ජු 0.7788945
ஹு හ 0.0024000
ஹு හූ 0.1562500
ஹு ගු 0.0785498
ஹு සු 0.0058068
ஹு හු 0.6258722
ஹு ෂූ 0.1052632
ஹு හ් 0.0122044
ளீ ලී 0.0657277
ஷி ෂ් 0.0189310
ஷி ශ්‍ 0.1139241
ஷி සී 0.0044088
ஷி ශි 0.2012384
ஷி සි 0.0058604
ஷி ශ් 0.0152091
ஷி ෆ් 0.0002575
ஷி ෂා 0.0030722
ஷி ෂී 0.1575092
ஷி ස් 0.0002622
ஷி ශී 0.1609195
ஷி ෂි 0.5275754
ஸா ෂා 0.0841014
ஸா ෂ 0.0073937
ஸா ශා 0.2043011
ஸா ස 0.0006762
ஸா සා 0.2535047
ன න 0.2071088
ன ගේ 0.2250430
ன න් 0.0003452
ன යි 0.0006470
ன ණ 0.4666667
ன වු 0.0024108
ன නා 0.0081517
ரூ රු 0.0523743
ரூ කෲ 0.3333333
ரூ රූ 0.5622933
னி න 0.0003971
னி නා 0.0018300
னி හ් 0.0022883
னி යි 0.0009058
னி ත් 0.0017513
னி ක් 0.0002495
னி නි 0.4566908
னி ගි 0.2250000
னி න් 0.0861910
னி නී 0.2788698
னி ස් 0.0002622
னி ති 0.0063559
ழீ ලී 0.0488263
ட ට 0.0027891
ட සු 0.0003056
ட ඩ් 0.0152614
ட ම 0.2446524
ட ගෙ 0.1993238
ட ඩ 0.5418327
ட NULL 0.0007187
ட ග 0.6447870
கே හේ 0.0945946
கே කේ 1.0000000
கே ගේ 0.0139776
கே NULL 0.0021562
கே ගෙ 0.0002581
கே කැ 0.4375000
மூ මූ 0.9005848
மூ මු 0.0274396
சி ශ්‍ 0.1139241
சி සු 0.0027506
சி චි 0.9069767
சி ශි 0.2941176
சி ජි 0.0116822
சி සී 0.1138277
சி සි 0.2737387
சி රි 0.0041841
சி යි 0.0042702
சி ච් 0.0148936
சி ගි 0.2250000
சி ස් 0.0016604
சி ෂි 0.1831426
சி ම 0.0002546
சி ස 0.0007185
ளு ලු 0.0194553
ளு ලූ 0.0697674
னெ නැ 0.4210526
னெ නෙ 0.0762712
ஞெ ඥෙ 0.4444444
ஞெ ඤෙ 0.4146341
ஞெ නෙ 0.0381356
ஞெ නෛ 0.1304348
தா දා 0.9820031
தா ඩ් 0.0020015
தா ඩා 0.4413146
தா ටා 0.1523810
தா ධා 1.0000000
தா ථා 1.0000000
தா නා 0.0139744
தா ගේ 0.0000292
தா තා 0.9150718
தா NULL 0.0019166
தா ද 0.0043440
தா ද්‍ 0.1875000
தா රා 0.0016097
நோ නො 0.3421053
நோ නෝ 0.2011494
நை නැ 0.1578947
நை යි 0.0073758
நை නෙ 0.0338983
நை නෛ 0.4057971
நை න 0.0089357
சே චෙ 0.1216216
சே සෙ 0.0546487
சே චේ 0.3214286
சே ස 0.0003804
சே සේ‍ 1.0000000
சே ෂේ 0.2142857
சே ශේ 0.3684211
சே සේ 0.7494647
சே සෑ 1.0000000
மா රු 0.0024441
மா ස් 0.0006117
மா වා 0.0053419
மா මා 0.9687573
மா ම 0.0028966
. . 1.0000000
நாஃ නා 0.0013309
ஹ் හ‍ 1.0000000
ஹ் හ 0.0070667
ஹ் ක් 0.0022455
ஹ் ව් 0.0052632
ஹ் න් 0.0002301
ஹ் හු 0.0171766
ஹ் හ්‍ 0.7407407
ஹ் NULL 0.0057499
ஹ் හි 0.0031337
ஹ் හ් 0.6849733
ஓ අ 0.0009379
ஓ ඔ 0.0423280
ஓ ඕ 0.4736842
ல் සි 0.6571259
ல் ර් 0.0006574
ல் හ් 0.0045767
ல் උ 0.0056361
ல் ල 0.0049088
ல் ලි 0.0057906
ல் තු 0.0060309
ல் NULL 0.0021562
ல் ල් 0.8428205
ல் ස් 0.0003496
ல் ම් 0.0007206
ல் න් 0.2224971
ல் ල්‍ 1.0000000
வி ලෙ 0.0007955
வி වි 0.0710298
வி හ් 0.0053394
வி ලි 0.0035635
வி සු 0.0003056
வி ් 0.1666667
வி NULL 0.5948730
வி බි 0.0384968
வி වු 0.0028930
வி ළ 0.4683766
வி බී 0.0101911
வி ව් 0.0298246
வி ගේ 0.2833756
வி වී 0.1690544
ஞ் ං 0.1344086
ஞ் න් 0.0007192
ன் න 0.0019857
ன் ත් 0.0113835
ன் යි 0.0010352
ன் නා 0.0011645
ன் හ් 0.0221205
ன் ස් 0.0016604
ன் ගේ 0.2247804
ன் න් 0.4432106
ன் ක් 0.0019960
ன் නු 0.0049900
ன் NULL 0.0004792
ன் ම 0.2449389
ன் ල් 0.0010256
ன் මි 0.0023655
ஆ ඈ 1.0000000
ஆ ආ 0.8813077
ஆ හා 0.0018832
ஆ හ 0.0006667
ஆ වා 0.0037393
ஆ ත 0.0055831
ஆ අ 0.0150059
ஆ ඇ 0.0375000
ஜஃ ජ 0.0223677
ஜஃ හ 0.0009333
ஜஃ හ් 0.0259344
றா ර 0.0067974
றா ර් 0.0005752
றா රා 0.1561438
சு ෂු 0.3005780
சு යු 0.0163934
சு ස් 0.0014856
சு ස 0.0003381
சு චි 0.0348837
சு චු 1.0000000
சு සු 0.8866137
சு සූ 0.1666667
சு ශු 0.4736842
ஷு සි 0.0005945
ஷு ෂූ 0.4385965
ஷு සු 0.0024450
ஷு ෂු 0.3352601
கொ ගො 1.0000000
கொ හො 0.0259605
கொ කො 0.6800000
ஞை යි 0.0005176
ஞை ඥෛ 0.5294118
ஞை ඥෙ 0.1111111
றஃ ර 0.0034958
றஃ හු 0.0048309
றஃ හ් 0.0068650
தெ තෞ 0.2368421
தெ හො 0.0093458
தெ ත 0.0155087
தெ තැ 1.0000000
தெ දෙ 0.8163265
தெ තෙ 0.6800000
தெ තො 0.4444444
தெ ද 0.0034752
தெ දේ 0.0853659
தோ තෝ 1.0000000
தோ දෝ 1.0000000
ஒ ඔ 0.9576720
ஒ ඕ 0.2368421
உ උ 0.9219002
உ බූ 0.0476190
உ හු 0.0042941
உ යා 0.0013438
உ වු 0.0048216
உ යු 0.0182149
உ ස් 0.0006117
உ ව් 0.0058480
மை මෛ 1.0000000
மை මේ 0.0616438
மை යි 0.0284679
மை මෙ 0.2557078
மை ම 0.0056977
டி දු 0.0071540
டி ට්‍ 0.6296296
டி ඩ් 0.1163373
டி ඩ 0.0318725
டி ඩ්් 0.2500000
டி ටි 0.6065574
டி ති 0.0134181
டி මා 0.0002332
டி දූ 0.0075188
டி ත් 0.0011675
டி ද් 0.0195375
டி ට් 0.1161826
டி ඩී 0.0103785
டி ඩි 0.3916293
டி ද 0.0095569
டி දි 0.0211082
லூ ලූ 0.7093023
லூ ලු 0.0583658
ரா රෑ 0.5952381
ரா රා 0.8148811
ரா ර් 0.0007396
ரா ර 0.0172849
ரா රැ 0.4186047
யூ ජු 0.0226131
யூ යූ 0.8954248
யூ යු 0.3861566
யூ ජූ 0.1500000
ர රි 0.0027894
ர ර් 0.0050127
ர ර 0.7013012
ர රු 0.0031425
ர ටැ 1.0000000
ர රී 0.0058366
ர රා 0.0169916
ர රෙ 0.0706714
ர රැ 0.3720930
ணா ණා 1.0000000
ணா නා 0.0068208
பீ බේ 0.0108959
பீ ෆි 0.0485437
பீ බි 0.0595784
பீ මී 0.0043337
பீ ෆී 0.8767908
பீ ෆ් 0.0020603
பீ ෂී 0.0329670
பீ පී 0.9144981
பீ බී 0.7044586
பீ පි 0.0345745
பீ වී 0.0229226
பீ ෆ 0.0063601
பீ සී 0.0024048
ஞா ඥා 1.0000000
ஞா ඥ 0.2800000
மிஃ මි 0.0026611
மிஃ හ් 0.0068650
றோ රො 0.0578231
றோ රෝ 0.1220096
த் යි 0.0031056
த் ට්‍ 0.3703704
த் චෛ 0.5000000
த் දු 0.0105754
த் ඩ් 0.1678759
த் ඩ්‍ 1.0000000
த் ත 0.0719603
த் NULL 0.0555822
த் ප් 0.0048465
த் ති 0.1532486
த் ක් 0.0097305
த் ට් 0.0290456
த் තී 0.1833333
த் ද් 0.6893939
த் ත් 0.8552248
த் ත්‍ 1.0000000
த் ර් 0.0006574
த் දූ 0.0526316
த் ජි 0.0062305
த் තූ 0.1794872
த் තු 0.1805503
த் දි 0.0061566
த் ඩි 0.0074738
த் බ් 0.0057023
த் ද්‍ 0.3958333
த் ස් 0.0013108
த் නි 0.0021453
த் න් 0.0022727
ஷா ෂා 0.7749616
ஷா හා 0.0096852
ஷா ශා 0.6860215
ஷா ෂ 0.0147874
ஷா ස 0.0003804
ஷா සා 0.0674974
ஷா වා 0.0053419
ஷா ශ 0.0638298
ண் න් 0.0023015
பை බ 0.0828772
பை ප 0.0587673
பை වේ 0.0588235
பை ෆ 0.1015166
பை ෆෛ 1.0000000
பை යි 0.1023551
பை ෂ 0.0073937
பை ෆා 0.0108460
பை ෆ් 0.0018027
பை බෙ 0.3033033
பை ෆෙ 0.2244898
பை බෛ 0.1612903
பை බේ 0.2082324
ஜை යි 0.0011646
ஜை ජෙ 0.0090726
ணு නු 0.0034930
ணு ණු 1.0000000
ஸோ සෝ 0.1568627
கீ ති 0.0049435
கீ කි 0.0499469
கீ හි 0.0153203
கீ කී 0.8212560
கீ හී 0.2271415
றூ රූ 0.2712238
றூ රු 0.0328212
வே වේ 0.5220588
வே බේ 0.0399516
ஷூ ෂූ 0.3508772
ண ණ 0.5333333
ண න 0.0047657
ஜொ ජො 0.1525424
டை ඩ 0.0318725
னே නෙ 0.0762712
னே නේ 0.6619718
ஷஃ හ 0.0010667
ஷஃ ස 0.0005494
ஷஃ හ්‍ 0.0925926
ம මා 0.0223828
ம දී 0.0016029
ம බ 0.0046912
ம හො 0.0062305
ம ව 0.0011808
ம ම 0.2447479
ம මි 0.0026611
ம ම‍ 1.0000000
ம මෙ 0.0867580
ம මො 0.0111309
ம NULL 0.0021562
ம ම් 0.0464278
ம මැ 0.0638298
ம මු 0.0160386
நீ නී 0.0798526
கூ ගු 0.0785498
கூ හූ 0.7187500
கூ ගූ 0.7352941
கூ කු 0.0612745
கூ කූ 0.8783784
கூ හු 0.0203972
நு නි 0.0021453
நு නූ 0.0843091
நு හු 0.0042941
நு නු 0.3258483
ரோ රෝ 0.8133971
ரோ රො 0.0748299
ரோ රූ 0.0088203
போ පෝ 1.0000000
போ භා 0.2962963
போ බෝ 1.0000000
போ ෆෝ 1.0000000
யோ යෝ 1.0000000
யோ ඕ 0.2894737
யோ ස 0.0218071
யோ ද! 0.0701867
று රු 0.2168296
று රූ 0.0815877
று ර් 0.0013970
ஷே ෂේ 0.5952381
ஷே සෙ 0.0063875
ஷே ශේ 0.3684211
ஷே ෂෙ 0.0317460
ய் NULL 0.0033541
ய் ය් 0.5909091
ய் යි‍ 1.0000000
ய் ය්‍ 1.0000000
ய் යි 0.1787008
ய் සෛ 0.1311475
ய் ය 0.0098384
ய் හි 0.0034819
ரொ රො 0.7857143
ரொ රෝ 0.0406699
னீ නී 0.5700246
னீ නි 0.0064360
னீ ණී 1.0000000
டொ ඩො 0.7560976
டொ ඩෝ 0.2571429
ரௌ ර 0.0048553
ரௌ ව් 0.0058480
ரௌ රා 0.0010732
ரௌ වු 0.0101254
ஹி හි 0.7009053
ஹி න් 0.0001438
ஹி ගේ 0.0000584
ஹி ඉ 0.0024752
ஹி හ් 0.0343249
ஹி හී 0.1106833
ஹி යි 0.0010352
ஜொ ජො 0.8474576
பி ස් 0.0001748
பி පි 0.9494681
பி ෆ් 0.0919392
பி ෆී 0.1165234
பி බ් 0.0657263
பி බ 0.0015637
பி වි 0.0009502
பி ෆ 0.0036693
பி ප 0.0028667
பி ජ් 0.0067682
பி ෆු 0.0067797
பி සි 0.0005945
பி ගේ 0.0000292
பி බී 0.1235669
பி පී 0.0855019
பி ෂි 0.0083247
பி ප් 0.0872375
பி බ්‍ 0.1666667
பி NULL 0.0002396
பி ෆ්‍ 0.1772908
பி ෆි 0.9245706
பி බි 0.8267644
பி ප්‍ 0.6830986
பி ‍ 1.0000000
வ වෙ 0.0410959
வ වා 0.0208333
வ බ 0.0672400
வ ව 0.1350365
வ බු 0.0055935
வ හු 0.0048309
நஃ න 0.0031771
நஃ හ 0.0008000
நஃ ව් 0.0058480
அ ආ 0.0995025
அ අ 0.9587339
அ හ 0.0022667
அ ඇ 0.3937500
அ එ 0.1005917
ஹா කා 0.0071011
ஹா NULL 0.0043124
ஹா ගේ 0.0000292
ஹா ආ 0.0071073
ஹா හ 0.0125333
ஹா ෆා 0.0024403
ஹா හා 0.8253968
ஹா ප 0.0033445
ஹா නා 0.0013309
ஹா හි 0.0027855
ஹா ගා 0.0588235
ஹா හො 0.0114226
ஜெஃ ෆ් 0.0020603
ஜெஃ ජෙ 0.0080645
ர் NULL 0.0093436
ர் ල් 0.0010256
ர் යු 0.0109290
ர் න් 0.0004028
ர் රි 0.0040291
ர் ර් 0.8662996
ர் ර්‍ 1.0000000
ர் ජ් 0.0186125
ர் ර 0.0093222
ர் රු 0.0125698
லே ලේ 0.7319588
லே ලෑ 0.8762887
லே ලෝ 0.1538462
டோ ඩෝ 0.7428571
டோ ඩො 0.2439024
ரெ රැ 0.2093023
ரெ ර 0.0013595
ரெ රේ 0.0891089
ரெ රූ 0.0077178
ரெ රෙ 0.5865724
ரஃ ර 0.0015537
ரஃ හ් 0.0061022
பூ පූ 0.5454545
பூ ෆු 0.1254237
பூ බු 0.1112492
பூ බූ 0.8452381
பூ පු 0.0925926
பூ ෆූ 0.8333333
ழா ලා 0.0110568
மு මූ 0.0994152
மு මු 0.9263768
மு මො 0.3993767
மு මෝ 0.4500000
மு ම 0.0020690
ந் ගෙ 0.1993496
ந் දු 0.0024883
ந் NULL 0.0002396
ந் න් 0.2370541
ந் ඳ 0.5000000
ந் ං 0.0537634
டீ ඩ් 0.0022517
டீ ඞී 1.0000000
டீ ටී 0.6551724
டீ ඩීි 1.0000000
டீ ඩී 0.5848596
டீ දී 0.0210379
டீ ඩි 0.2152466
தொ දො 1.0000000
தொ කො 0.1600000
ஸு සූ 0.0230769
ஸு ශු 0.5263158
ஸு ෂු 0.1213873
ஸு සු 0.0220049
வு ලෙ 0.0007955
வு වූ 0.5933333
வு බු 0.0627719
வு නෞ 0.1212121
வு උ 0.0386473
வு ෆු 0.0305085
வு වු 0.5453230
வு ර 0.0017479
வு ව්‍ 0.3333333
வு ට 0.3155215
வு යු 0.0163934
வு ව් 0.0649123
வு ගේ 0.0000584
வு හු 0.0037574
வு ් 0.1666667
வு ස 0.3040318
சீ සේ 0.0192719
சீ සි 0.0095974
சீ යි 0.0009058
சீ සී 0.5707415
சீ ජි 0.0077882
சீ ශි 0.0247678
சீ ශී 0.0804598
சீ සෙ 0.0113556
சீ ෂි 0.0249740
சீ ෂී 0.2234432
சீ ලී 0.0075117
சீ නී 0.0085995
சீ ජී 0.0091265
தி ස් 0.0002622
தி නි 0.0045589
தி න් 0.0002589
தி දි 0.7475814
தி ඩි 0.0896861
தி ද්‍ 0.4166667
தி ධි 1.0000000
தி තු 0.0090464
தி තී 0.0666667
தி ට් 0.0082988
தி ද් 0.1220096
தி ත් 0.1109165
தி දූ 0.0150376
தி ති 0.7860169
தி ටි 0.1202186
தி ක් 0.0014970
தி ගේ 0.0002043
தி ප් 0.0016155
தி ඩ් 0.0407806
தி දී 0.0244440
தி දු 0.0080871
சோ සෝ 0.6862745
சோ ග් 0.1454545
சோ සො 0.1886792
டு ඩු 0.6619718
டு ග 0.3236711
டு දු 0.0031104
டு ම 0.2459893
பொ බො 1.0000000
பொ ෆො 0.2982456
பொ පො 1.0000000
