රො ரொ 1.0000000
ජු ஜூ 0.7777778
ජූ ஜூ 0.2222222
ලූ லூ 0.5810811
ලු லூ 0.4189189
ඩෲ றூ 0.1159420
දෘ றூ 0.0579710
රූ றூ 0.4202899
රු றூ 0.4057971
යි சை 0.4392361
සෙ சை 0.0798611
ච சை 0.0434028
චෙ சை 0.0416667
සි சை 0.0121528
චේ சை 0.0156250
ස சை 0.3177083
සෛ சை 0.0416667
යී சை 0.0086806
රො றொ 1.0000000
ම வி 0.0001083
වී வி 0.0067176
NULL வி 0.0022753
මී வி 0.0004334
ර வி 0.0005417
ව‍ வி 0.0003792
චි வி 0.0007043
වි வி 0.2449754
ට් வி 0.0000542
ගෙ வி 0.0827780
ද් வி 0.0001083
ළ வி 0.2840891
ම් வி 0.0004334
ව வி 0.0017877
හ வி 0.0000542
සා வி 0.0001083
ත් வி 0.0007584
ව් வி 0.0028171
ගේ வி 0.3708760
රැ ரி 0.0003719
ති ரி 0.0026032
ර ரி 0.0037189
රි‍ ரி 0.0011157
ටි ரி 0.0109706
ර් ரி 0.1223503
ස ரி 0.0011157
රී ரி 0.1026404
ටී ரி 0.0040907
රු ரி 0.0011157
රි ரி 0.7471179
ජ් ரி 0.0016735
න් ரி 0.0001859
ස් ரி 0.0009297
පී P 1.0000000
ලු ழு 1.0000000
මෛ ரா 0.0008158
ටා ரா 0.0050989
ලි ரா 0.0005099
NULL ரா 0.0023455
ල් ரா 0.0003059
ස ரா 0.0013257
‍ ரா 0.0006119
ශ්‍ ரா 0.0001020
රැ ரா 0.0028554
රා ரா 0.9628799
ට ரா 0.0006119
බා ரா 0.0005099
ර ரா 0.0209056
ව ரா 0.0006119
ති ரா 0.0005099
රු உ 0.0162338
උ உ 0.9642857
ඔ உ 0.0194805
ක ஹ 0.0188324
හ ஹ 0.9566855
හැ ஹ 0.0244821
ර ய 0.0011215
ං ய 0.0001402
ග් ய 0.0008412
රා ய 0.0011215
අ ய 0.0224310
ය ய 0.9341091
න ய 0.0004206
ග ய 0.0011215
සෙ ய 0.0009814
ප් ய 0.0008412
ස ய 0.0011215
ප ய 0.0009814
NULL ய 0.0067293
යා ய 0.0109351
ජ ய 0.0089724
යෙ ய 0.0046264
යි ய 0.0035048
වැ வெ 0.0885714
වේ வெ 0.0885714
වෙ வெ 0.8228571
භූ பூ 0.0160000
බූ பூ 0.0240000
බු பூ 0.0213333
පු பூ 0.2026667
පූ பூ 0.7360000
ලි கோ 0.0041982
ගෝ கோ 0.3039463
කො கோ 0.1133501
කෞ கோ 0.0075567
කෝ கோ 0.5121746
ය கோ 0.0075567
ගො கோ 0.0512175
ලෝ‍ லோ 0.0099573
ලො லோ 0.0725462
ඔ லோ 0.0056899
ලෝ லோ 0.9118065
වු பௌ 0.2857143
ප பௌ 0.4000000
ව් பௌ 0.1142857
පෞ பௌ 0.2000000
දී டீ 0.0405405
ටී டீ 0.4797297
ඩි டீ 0.1824324
ඩී டீ 0.1891892
යි டீ 0.0540541
ට டீ 0.0540541
ජේ ஜெ 0.0106383
ජ ஜெ 0.0587419
ජැ ஜெ 0.0032377
ජු ஜெ 0.0023127
යේ ஜெ 0.0037003
ජෙf ஜெ 0.0027752
ජෙ ஜெ 0.9185939
ර ரே 0.0309893
රේ ரே 0.8700834
රෙ ரே 0.0989273
ර ரு 0.0012567
රා ரு 0.0005386
ට් ரு 0.0003591
ගෙ ரு 0.6155296
කෲ ரு 0.0005386
කු ரு 0.0004488
රි ரு 0.0921005
ර් ரு 0.0024237
රූ ரு 0.0055655
ල් ரு 0.0006284
රී ரு 0.0004488
NULL ரு 0.0006284
රු ரு 0.2795332
ටි T 1.0000000
දේ தீ 0.0058824
නී தீ 0.0095588
ති தீ 0.0492647
දී தீ 0.3933824
දි தீ 0.0860294
තී தீ 0.4558824
ගෞ‍ ள 0.0198238
කෞ ள 0.0154185
සෞ ள 0.0066079
ෆෞ ள 0.0176211
ළ ள 0.0242291
ගෞ ள 0.0418502
නෞ ள 0.0132159
ල ள 0.8127753
වු ள 0.0352423
ව් ள 0.0132159
චෝ சோ 0.0151771
ශෝ சோ 0.0944351
සො சோ 0.0269815
ෂෝ சோ 0.0118044
ශො சோ 0.0219224
ජෝ சோ 0.0387858
ල් சோ 0.0118044
සෝ சோ 0.7790894
සු ஸு 1.0000000
ක லு 0.0079239
ලු லு 0.8668780
ලූ லு 0.0507132
ළු லு 0.0744849
නු ணூ 1.0000000
රා க் 0.0004979
ක க் 0.0016927
ග් க் 0.0159315
ං க் 0.0012944
NULL க் 0.0580504
ලි க் 0.0007966
ක්‍ க் 0.0277805
ග්‍ க் 0.0038833
කො க் 0.0033854
කි‍ க் 0.0005974
ච් க் 0.0014936
ත් க் 0.0022902
ක් க் 0.1926715
ට க் 0.6813701
යි க் 0.0047794
ත්‍ க் 0.0006970
බේ க் 0.0019914
කෲ க் 0.0007966
රා றா 0.7844828
ටා றா 0.2155172
මෙ மே 0.0551282
මේ‍ மே 0.0064103
මේ மே 0.9294872
NULL மே 0.0089744
ර ரெ 0.2301402
රැ ரெ 0.0105140
රේ ரெ 0.0350467
රෙ ரெ 0.7242991
හා ஹா 1.0000000
රො ரொ 0.9086758
ර ரொ 0.0319635
රෝ ரொ 0.0593607
රී ஜா 0.0004892
NULL ஜா 0.0004892
මෝ ஜா 0.0004892
ස ஜா 0.0034247
මා ஜா 0.0034247
ජ් ஜா 0.0058708
ජ ஜா 0.0176125
ජා ஜா 0.9368885
සා ஜா 0.0278865
කා ஜா 0.0034247
ෂැ ஷெ 0.5454545
ෂෙ ஷெ 0.4545455
ට ட 0.0137885
ඩ ட 0.0215114
ගෙ ட 0.2416335
ත ட 0.0005290
ඨ ட 0.0003174
ග ட 0.4797052
ම ட 0.0000353
ළ ட 0.2414571
ද ட 0.0010227
ඤ ஞ 0.5625000
ං ஞ 0.4375000
ර இ 0.1238554
එ இ 0.0038554
ඊ இ 0.0033735
ඉ இ 0.3595181
රා இ 0.4761446
ල இ 0.0168675
ලෙ இ 0.0062651
සෙ இ 0.0033735
රෙ இ 0.0067470
ල් ளா 0.0327869
ල ளா 0.0327869
ලා ளா 0.9344262
ඌ ஊ 1.0000000
ඊ ஈ 0.8613861
ඉ ஈ 0.0693069
ඩි ஈ 0.0693069
නැ நா 0.0014430
දා நா 0.0025253
න நா 0.0241703
නා நா 0.9707792
නා‍ நா 0.0010823
කු து 0.0012365
තූ து 0.0005888
ත து 0.0010009
දු து 0.0443358
ධු து 0.0028262
ගේ து 0.4039684
තු து 0.1301813
ටු து 0.0013542
දො து 0.0083608
රෙ து 0.0002355
ජු து 0.0004122
NULL து 0.0001178
ඩ් து 0.0003533
ඳු து 0.0004122
ඩු து 0.0004710
දූ து 0.0004122
ගෙ து 0.4037329
මී மி 0.0215166
ම් மி 0.1192955
NULL மி 0.0001735
න් மி 0.0002603
ම්‍ மி 0.0006073
ම மி 0.0011279
ගෙ மி 0.5956967
ගේ மி 0.0002603
ක மி 0.0004338
මි‍ மி 0.0003470
මි மி 0.2601076
දා மி 0.0000868
ති மி 0.0000868
රී NULL 0.0058005
මා NULL 0.0081206
ට්‍ NULL 0.0185615
ලෙ NULL 0.0081206
ය NULL 0.0197216
ම NULL 0.0255220
න NULL 0.0382831
නි NULL 0.0185615
රි NULL 0.0336427
පි NULL 0.0081206
ශ්‍ NULL 0.0058005
ට් NULL 0.0104408
ං NULL 0.0127610
ර NULL 0.0394432
ම් NULL 0.0278422
ල් NULL 0.0197216
ර් NULL 0.0348028
ත්‍ NULL 0.0011601
ද්‍ NULL 0.0139211
ත NULL 0.0162413
හ NULL 0.0058005
ලි NULL 0.0081206
සි NULL 0.0046404
මෝ NULL 0.0058005
ග NULL 0.0382831
කි NULL 0.0081206
අ NULL 0.0197216
රා NULL 0.0034803
ද් NULL 0.0197216
ද NULL 0.0069606
න් NULL 0.0997680
යි NULL 0.1948956
ස් NULL 0.0081206
ගේ NULL 0.0162413
ත් NULL 0.1577726
සා NULL 0.0034803
ක් NULL 0.0116009
ජ NULL 0.0011601
ව NULL 0.0197216
රි ர 0.0032468
රෙ ர 0.0028011
බු ர 0.0003820
රී ர 0.0004456
NULL ர 0.0035014
ර ர 0.9600840
නේ ர 0.0001910
වි ர 0.0008913
රා ர 0.0081487
ර්‍ ர 0.0004456
රැ ர 0.0004456
ර් ர 0.0049656
ට ர 0.0117774
දේ ர 0.0003820
ෂි ர 0.0004456
ත ர 0.0018462
තේ ப 0.0012409
භ ப 0.0035455
පා ப 0.0067364
පැ ப 0.0040773
සි ப 0.0010636
ප ப 0.7246942
ඹ ப 0.0015955
ම ப 0.0014182
ප්‍ ப 0.0017727
බෙ ப 0.0010636
ප‍ ப 0.0008864
බ්‍ ப 0.0014182
බ ப 0.2347102
සු ப 0.0008864
ෆ ப 0.0072682
F ப 0.0023046
බා ப 0.0014182
ව ப 0.0039000
යි‍ னை 0.0247350
න னை 0.4169611
ය් னை 0.0176678
නෙ னை 0.0777385
නේ னை 0.0247350
යි னை 0.4381625
යෙ யே 0.0804598
ජේ யே 0.2183908
ජෙ யே 0.0421456
යේ யே 0.6590038
ට් ஜ் 0.0021818
ජ්‍ ஜ் 0.0065455
ජා ஜ் 0.0167273
ස් ஜ் 0.0036364
ජ ஜ் 0.0036364
ජ් ஜ் 0.9621818
ජි ஜ் 0.0050909
බෙ பை 0.0474041
බෛ பை 0.0180587
ප பை 0.2686230
යි பை 0.4988713
බේ பை 0.0067720
බ பை 0.1602709
යි டை 0.4341085
ට டை 0.0542636
ඩෙ டை 0.1782946
ඩ டை 0.2868217
ධ டை 0.0465116
ලෙ ழே 0.2857143
ලේ ழே 0.7142857
ව வே 0.0097087
වේ வே 0.8834951
වෙ வே 0.1067961
වූ வு 0.0017680
සෞ வு 0.0002526
ස வு 0.3248721
ම வு 0.3251879
ව් வு 0.0012629
වු வு 0.0173013
සා வு 0.0000631
ට வு 0.3292922
ල ணி 0.0023288
ණ්‍ ணி 0.0027946
න්‍ ணி 0.0172333
ණී ணி 0.0107126
ණ් ணி 0.0009315
ති ணி 0.0023288
ණි ணி 0.1578947
නි ணி 0.7382394
නී ணி 0.0530973
නි‍ ணி 0.0037261
ද්‍ ணி 0.0023288
ස් ணி 0.0032604
න් ணி 0.0051234
ද! வோ 0.4974058
වෝ வோ 0.0037471
වො வோ 0.0006726
ස வோ 0.4981745
නෝ னோ 0.9392034
නො னோ 0.0503145
නේ னோ 0.0062893
හේ னோ 0.0041929
ලෙ லே 0.0944123
ලේ லே 0.9055877
ව வொ 0.4615385
වො வொ 0.5384615
පෝ பொ 0.0323887
බො பொ 0.0242915
පො பொ 0.9433198
හො ள் 0.0046062
ලි ள் 0.0027637
ල් ள் 0.9889452
ල්‍ ள் 0.0009212
ළ් ள் 0.0027637
තු தூ 0.3306452
දූ தூ 0.1129032
දු தூ 0.1370968
තූ தூ 0.4193548
වේ ய் 0.0186782
යි‍ ய் 0.0229885
ය් ய் 0.0272989
ජේ ய் 0.0158046
ක් ய் 0.0229885
යි ய் 0.8922414
ෂ ஷ 0.7272175
ස ஷ 0.1123937
ශා ஷ 0.0042527
ච ஷ 0.0036452
ශ ஷ 0.1385176
ෂ් ஷ 0.0036452
ජ ஷ 0.0060753
සා ஷ 0.0042527
ගේ னி 0.0001097
ණී னி 0.0036208
ත් னி 0.0004389
ඩා னி 0.0002194
නේ னி 0.0001097
ණි னி 0.0036208
NULL னி 0.0001097
ම් னி 0.0005486
න් னி 0.4188062
ස් னி 0.0002194
නී னி 0.0669300
ී னி 0.0008778
නි னி 0.5027430
න னி 0.0007680
නෙ னி 0.0008778
ඩේ டெ 0.0289256
ටෑ டெ 0.0082645
ට டெ 0.0619835
ක டெ 0.0289256
ටෙ டெ 0.1694215
ඩෙ டெ 0.4380165
ඞැ டெ 0.0247934
දෙ டெ 0.0289256
ටැ டெ 0.1239669
ඩැ டெ 0.0867769
මො மோ 0.0952381
NULL மோ 0.0074405
ම් மோ 0.0014881
මෝ மோ 0.8958333
සි ஷீ 0.1875000
ෂී ஷீ 0.4375000
සු ஷீ 0.3750000
මු மு 0.9715124
මෘ மு 0.0029326
ම மு 0.0113113
මො மு 0.0025136
ං மு 0.0029326
මූ மு 0.0054462
කී மு 0.0033515
නි னீ 0.0912951
නී னீ 0.8917197
ණී னீ 0.0169851
ට් த் 0.0039683
ති‍ த் 0.0014286
තා த் 0.0011111
ර த் 0.0014286
NULL த் 0.1144444
දි த் 0.0012698
දො த் 0.0107937
තු த் 0.0007937
ට්‍ த் 0.0014286
ත් த் 0.5749206
ක් த் 0.0009524
ති த் 0.1341270
ර් த் 0.0009524
ද් த் 0.0252381
ත්‍ த் 0.1057143
යි த் 0.0017460
ද්‍ த் 0.0095238
න් த் 0.0093651
කු த் 0.0007937
න மை 0.0054201
ම மை 0.5013550
මා மை 0.0325203
යි மை 0.4390244
මෛ மை 0.0216802
ගෙ சி 0.0001532
ශ්‍ சி 0.0203707
ක சி 0.0013785
චි சி 0.0444172
හි சி 0.0009190
NULL சி 0.0010721
ණි சி 0.0010721
ප சி 0.0015316
ෂී சி 0.0030633
චී சி 0.0007658
ස சி 0.0015316
සි சி 0.8313677
ච சி 0.0007658
ච් சி 0.0006127
සෙ சி 0.0019911
ග சி 0.0004595
සී சி 0.0070455
ෂ්‍ சி 0.0012253
ෂි சி 0.0127125
ජ சி 0.0033696
ජී சி 0.0010721
ජි சி 0.0297136
ෂ சி 0.0010721
යි சி 0.0029101
ශි சி 0.0291009
ජ් சி 0.0003063
ගි கீ 0.0201729
කි கீ 0.0201729
ගී கீ 0.3631124
ගෙ கீ 0.0201729
හි கீ 0.0172911
හී கீ 0.0172911
කී கீ 0.5216138
යි கீ 0.0201729
නො நொ 1.0000000
ෂේ ஷே 0.7777778
ෂෙ ஷே 0.2222222
ක් க்‌ 1.0000000
ජී ஜி 0.0179211
ජ ஜி 0.0101553
ජා ஜி 0.0035842
ජි ஜி 0.7915173
ට් ஜி 0.0011947
ගි ஜி 0.0107527
ජ්‍ ஜி 0.0017921
ස් ஜி 0.0011947
ජ් ஜி 0.1618877
යි யீ 1.0000000
ණා னா 0.0213545
තා னா 0.0061013
න னா 0.0170836
නා னா 0.9505796
ක னா 0.0048810
ප්‍ பீ 0.0560748
භී பீ 0.0560748
ෆී பீ 0.0654206
බී பீ 0.3457944
පී பீ 0.4485981
බි பீ 0.0280374
සි க 0.0008970
හා க 0.0008330
ක්‍ க 0.0008970
NULL க 0.0017941
ය க 0.0015378
න க 0.0003204
ග க 0.4949061
ගා க 0.0008970
ක க 0.4265394
පා க 0.0005767
ලා க 0.0004485
චි க 0.0004485
වි க 0.0003844
කී க 0.0010252
කු க 0.0009611
බේ க 0.0005126
ත க 0.0010252
ඛ க 0.0004485
ගේ க 0.0004485
හ க 0.0528609
කැ க 0.0011533
කා க 0.0048696
ක් க 0.0057026
සු க 0.0005126
ර றை 0.3400000
යි றை 0.4200000
රෙ றை 0.0800000
රේ றை 0.1600000
කී கே 0.0026867
ලු கே 0.0032241
සෝ கே 0.0032241
හේ கே 0.1359484
කෝ கே 0.0026867
ස් கே 0.0037614
ක கே 0.0026867
කේ கே 0.3310048
ගෙ கே 0.0150457
ගේ கே 0.4782375
කෙ கே 0.0096722
නේ கே 0.0080602
ජ கே 0.0032241
දේ கே 0.0005373
බේ வை 0.0007391
ව வை 0.9802291
වෛ வை 0.0173688
වෙ வை 0.0016630
දේ‍ தே 0.0031328
ර தே 0.0050125
තෙ தே 0.0256892
දේ தே 0.7036341
ප தே 0.0050125
තේ தே 0.2324561
දෙ தே 0.0250627
ශ්‍ ஷி 0.0070547
ශෙ ஷி 0.0141093
ෂ්‍ ஷி 0.0123457
ෂි ஷி 0.5008818
චි ஷி 0.0088183
ෂ් ஷி 0.0740741
ශ් ஷி 0.0299824
සි ஷி 0.0970018
ෂී ஷி 0.0158730
ශි ஷி 0.2151675
ස් ஷி 0.0246914
ෂෝ சொ 0.0803571
චො சொ 0.0714286
සො சொ 0.8482143
ලේ ளே 1.0000000
ස ட் 0.0012417
ටෲ ட் 0.0016556
NULL ட் 0.0020695
ඩ් ட் 0.3182947
ට්‍ ட் 0.0240066
ය ட் 0.0033113
රි ட் 0.0049669
ච් ட் 0.0902318
ච ட் 0.0024834
ඩ්‍ ட் 0.0037252
ට් ட் 0.3956954
ඩ ட் 0.0033113
ෂ් ட் 0.0024834
ටි ட் 0.0140728
දෘ ட் 0.0016556
ද් ட் 0.0115894
ල් ட் 0.0020695
ර් ட் 0.0120033
ඩි ட் 0.0020695
වා ட் 0.0012417
ටා ட் 0.0120033
ත් ட் 0.0554636
ෆි ட் 0.0020695
ව ட் 0.0028974
ති ட் 0.0074503
ට ட் 0.0136589
ක් ட் 0.0082781
ග யை 0.0006061
ව யை 0.9781818
ය யை 0.0072727
යා யை 0.0042424
යෙ யை 0.0096970
සෙ அ 0.0016710
ඇ அ 0.1157794
ම அ 0.0040582
රු அ 0.0021485
ආ அ 0.0105037
ස அ 0.0011936
ඈ அ 0.0011936
එ அ 0.0016710
අ அ 0.8617809
කා கை 0.0070721
හ கை 0.0113154
කෛ கை 0.0099010
ක கை 0.1414427
ගා கை 0.0282885
කෙ கை 0.0169731
ගෙ கை 0.0480905
ග கை 0.2390382
න கை 0.0127298
ය් கை 0.0311174
යි கை 0.4441301
හෙ கை 0.0099010
නේ னே 0.9284603
නො னே 0.0062208
නෙ னே 0.0513219
ර් னே 0.0085537
ණේ னே 0.0054432
ශා ஸா 0.3899371
සා ஸா 0.4905660
ෂා ஸா 0.1194969
නූ னு 0.0843155
නු னு 0.8902992
ණු னு 0.0072529
න னு 0.0181324
ඥෙ ஞே 1.0000000
වී வீ 0.8565657
ව வீ 0.0121212
වි வீ 0.1313131
රි றீ 0.3211009
රී றீ 0.6788991
සේ ஜே 0.0085679
ජෙ ஜே 0.1101591
ජෑ ஜே 0.0097919
සෙ ஜே 0.0085679
ජේ ஜே 0.8629131
සු ச 0.0006526
ජ ச 0.0289017
සා ச 0.0019579
ජා ச 0.0007459
ව ச 0.0013052
ජි ச 0.0005594
ශ ச 0.0320716
සැ ச 0.0027969
ත ச 0.0006526
න් ச 0.0006526
ස් ச 0.0020511
චු ச 0.0008391
චෙ ச 0.0004662
ඩෙ ச 0.0004662
ෂ ச 0.0445646
ද ச 0.0013052
චි ச 0.0008391
ක ச 0.0006526
ශා ச 0.0008391
ච ச 0.1158866
ච් ச 0.0008391
නි ச 0.0002797
ය ச 0.0006526
NULL ச 0.0003729
ජු ச 0.0004662
ෂා ச 0.0025172
සි ச 0.0005594
සෞ ச 0.0003729
ජෙ ச 0.0013052
ස ச 0.7544285
නා ண 0.0021771
ණා ண 0.0050798
න ண 0.6447750
ණ ண 0.3479681
වි வ் 0.1418919
ව வ் 0.0236486
ව් வ் 0.6824324
ව්‍ வ் 0.1385135
බ් வ் 0.0135135
ශ ஷை 0.3571429
ස ஷை 0.1428571
යි ஷை 0.5000000
නෞ நெ 0.0681818
නැ நெ 0.0681818
ඥෙ நெ 0.1136364
නෙ நெ 0.7500000
නෙ ணெ 1.0000000
හු ஹு 1.0000000
ය யி 0.0011068
යු யி 0.0012452
ය් யி 0.0001384
යි யி 0.1721085
සි யி 0.0012452
NULL யி 0.0005534
ළ யி 0.2235750
මෛ யி 0.0009685
ජි யி 0.0030437
සා யி 0.0012452
යී யி 0.0002767
ගේ யி 0.3949917
දී யி 0.0011068
ගෙ யி 0.1983951
හො ஹொ 1.0000000
ර றெ 0.1282051
රෙ றெ 0.8717949
ඥා ஞா 0.9603960
ඥ ஞா 0.0155587
ඤා ஞா 0.0240453
. . 0.1923077
ර . 0.1153846
හේ . 0.2307692
ම . 0.2307692
ද්‍ . 0.1153846
න් . 0.1153846
වෙ வ 0.0004591
බ්‍ வ 0.0007345
ප්‍ வ 0.0006427
ව් வ 0.0022035
හ வ 0.0004591
කා வ 0.0007345
ව வ 0.9775982
බ வ 0.0006427
වා வ 0.0020198
වේ வ 0.0025707
ල வ 0.0006427
රා வ 0.0009181
පි வ 0.0006427
අ வ 0.0005509
ඩ வ 0.0003672
ං வ 0.0005509
වි வ 0.0025707
ප வ 0.0005509
වී வ 0.0004591
NULL வ 0.0012853
න வ 0.0008263
ම வ 0.0021116
ච வ 0.0004591
ත ற 0.0162791
ර ற 0.9186047
ට ற 0.0488372
පී ற 0.0162791
ඤ් ஞ் 0.0072874
හේ ஞ் 0.0056680
ං ஞ் 0.5425101
න් ஞ் 0.4372470
NULL ஞ் 0.0008097
ඥා ஞ் 0.0064777
ජ් ஜு 0.0256410
යු ஜு 0.0358974
ජූ ஜு 0.0512821
සො ஜு 0.0358974
ජු ஜு 0.8153846
හො ஜு 0.0358974
ජො ஜொ 1.0000000
නෙ னெ 0.6060606
න னெ 0.3939394
ක් க்‍ 1.0000000
න ந 0.9560171
නා ந 0.0397068
ක ந 0.0042761
ං ரீ 0.0096774
රි ரீ 0.0967742
රී ரீ 0.8838710
ටී ரீ 0.0096774
රා ரை 0.0061690
රේ ரை 0.1357187
ර ரை 0.1566934
රෙ ரை 0.2560148
දො ரை 0.0215916
ය් ரை 0.0030845
යි ரை 0.3991363
රෛ ரை 0.0215916
බ් பு 0.0047761
බු பு 0.1026866
පු பு 0.8692537
පූ பு 0.0047761
භූ பு 0.0137313
යා பு 0.0047761
ගූ கூ 0.1111111
වු கூ 0.0634921
කු கூ 0.1587302
ගු கூ 0.0952381
හු கூ 0.1428571
කූ கூ 0.4285714
ෂු ஷு 1.0000000
ජ් ச் 0.0030637
චෙ ச் 0.0692402
චු ச் 0.0091912
සෙ ச் 0.0514706
ච ச் 0.1305147
ච් ச் 0.5833333
ස් ச் 0.0226716
යි ச் 0.0098039
ල් ச் 0.0024510
NULL ச் 0.0863971
ෂ් ச் 0.0091912
වෙ ச் 0.0042892
ට් ச் 0.0091912
චා ச் 0.0091912
හේ ஹே 1.0000000
මෙ ளெ 0.5000000
ලෙ ளெ 0.5000000
ව් ம் 0.0004482
ති ம் 0.0007684
කී ம் 0.0004482
ම් ம் 0.5460716
ළ ம் 0.4395210
න් ம் 0.0032657
ම්‍ ம் 0.0009605
ං ம் 0.0003202
මි ம் 0.0016649
ණි ம் 0.0001281
NULL ம் 0.0022411
හො ம் 0.0006403
මී ம் 0.0008324
ම ம் 0.0013447
ඹ ம் 0.0005763
ප් ம் 0.0007684
ලී ழி 0.0326087
ල් ழி 0.0054348
ලි ழி 0.9619565
දු டு 0.0004375
ධු டு 0.0004375
ටු டு 0.0005833
ග டு 0.4957707
ම டு 0.4952603
ඩු டு 0.0075106
ලො ளோ 0.5000000
ලෝ ளோ 0.5000000
යි ஞை 0.5000000
ඥෙ ஞை 0.5000000
ය් ளை 0.0049732
යු ளை 0.0038256
ලෙ ளை 0.2609028
ලෛ ளை 0.0378730
යි ளை 0.4058914
හො ளை 0.0038256
ලේ ளை 0.1025249
ල ளை 0.1801836
ෆ්‍ பி 0.0026695
ෆ් பி 0.0007119
යි பி 0.0024915
පී பி 0.0048051
බේ பி 0.0001780
භි பி 0.0021356
ල් பி 0.0010678
පු பி 0.0072967
ව பி 0.0021356
යා பி 0.0012458
බ பி 0.0026695
බ් பி 0.0046272
පේ‍ பி 0.0012458
බ්‍ பி 0.0464495
ෆි பி 0.0069407
ප්‍ பி 0.2916889
ප් பி 0.0112120
පි‍ பி 0.0010678
බු பி 0.0014237
NULL பி 0.0021356
f பி 0.0008898
හො பி 0.0017797
බි பி 0.2003915
වි பி 0.0008898
පි பி 0.4018509
නී நீ 1.0000000
සී ஸீ 1.0000000
චේ சே 0.0117340
සෙ சே 0.0664928
සේ‍ சே 0.0130378
චෙ சே 0.0404172
සෑ சே 0.0052151
සේ சே 0.7822686
න්‍ சே 0.0104302
ජේ சே 0.0286832
ෂේ சே 0.0417210
ජී சீ 0.0266667
ෂි சீ 0.0093333
ශි சீ 0.0093333
ශී சீ 0.0093333
සී சீ 0.8786667
සි சீ 0.0666667
තා த 0.0009235
ඩ த 0.0009235
ර த 0.0015628
රා த 0.0006393
යෝ த 0.0004973
ක த 0.0004973
තු த 0.0008525
ග த 0.0003552
න த 0.0028415
ය த 0.0003552
ඨ த 0.0002842
ත‍ த 0.0002842
ස த 0.0004262
NULL த 0.0014918
ඩ් த 0.0006393
දි த 0.0002842
ති த 0.0009235
දා த 0.0021311
ට த 0.0006393
ධ த 0.0250053
ත த 0.4723308
ද‍ த 0.0010656
ත්‍ த 0.0003552
ද්‍ த 0.0027705
ද த 0.4797187
ඳ த 0.0018470
ද් த 0.0003552
සූ சூ 0.4457831
සු சூ 0.5542169
මො மொ 0.8691589
මෝ மொ 0.1308411
ෂා ஷா 0.6894309
ෂ ஷா 0.0040650
ශ ஷா 0.0081301
ශා ஷா 0.2325203
ජා ஷா 0.0065041
සා ஷா 0.0593496
ශ්‍ ஸி 0.0713012
ෂ් ஸி 0.0445633
ෂි ஸி 0.0552585
සි ஸி 0.0855615
ම් ஸி 0.0035651
ශ් ஸி 0.0303030
ය් ஸி 0.0035651
ස් ஸி 0.6060606
ශි ஸி 0.0998217
ජා சா 0.0217294
සා சா 0.8568548
ලා சா 0.0011201
සු சா 0.0013441
දා சா 0.0017921
සෑ சா 0.0011201
චා சா 0.0244176
ගා சா 0.0013441
සැ சா 0.0136649
ස් சா 0.0033602
යි சா 0.0006720
ශා சா 0.0439068
ෂා சா 0.0174731
වා சா 0.0022401
ස சா 0.0089606
ර් றி 0.0142602
ඩ් றி 0.0017825
රී றி 0.2014260
රි றி 0.7058824
ට් றி 0.0196078
ර றி 0.0124777
ති றி 0.0213904
ටි றி 0.0231729
යි ணை 0.4423077
න ணை 0.5576923
කා மா 0.0015674
මු மா 0.0013435
ම மா 0.0358262
මා‍ மா 0.0082848
මා மா 0.9507389
සො மா 0.0022391
ජො ஜோ 0.1168831
යෝ ஜோ 0.0281385
ජෝ ஜோ 0.8549784
ඩ டா 0.0225564
දා டா 0.0225564
ඩා டா 0.5037594
න් டா 0.0037594
ස් டா 0.0263158
ටැ டா 0.0263158
ඩැ டா 0.0902256
ටා டா 0.3045113
ලා ர் 0.0007123
ර ர் 0.0092593
දා ர் 0.0007123
රැ ர் 0.0008547
ට් ர் 0.0017094
න් ர் 0.0018519
ශි ர் 0.0011396
මෘ ர் 0.0009972
රි ர் 0.0022792
NULL ர் 0.0034188
රී ர் 0.0008547
රු ர் 0.0011396
ර් ர் 0.9750712
නු நு 1.0000000
ද්‍ லா 0.0040580
සා லா 0.0034783
ලා லா 0.9686957
ල லா 0.0191304
ල් லா 0.0017391
ක லா 0.0028986
කෞ கெ 0.0281124
ගෞ‍ கெ 0.0361446
ග கெ 0.0883534
ගෞ கெ 0.0763052
හැ கெ 0.0240964
කැ கெ 0.1325301
ගෑ கெ 0.0240964
ගේ கெ 0.0240964
කෙ கெ 0.4016064
ගෙ கெ 0.0963855
කේ கெ 0.0682731
නූ நூ 1.0000000
ලු ளு 0.7407407
ළු ளு 0.2592593
ර් று 0.0633484
රූ று 0.0407240
රු று 0.8371041
ර று 0.0316742
රූF று 0.0271493
නෙ நே 0.0435967
නේ நே 0.9564033
මු மூ 0.2573529
මූ மூ 0.7426471
අ ஆ 0.0507042
ආ ஆ 0.8760563
ඇ ஆ 0.0084507
ඒ ஆ 0.0056338
ඈ ஆ 0.0591549
ව ல 0.0016175
ලෙ ல 0.0170740
ලේ ல 0.0012581
ලා ல 0.0008986
ල ல 0.9766355
ල් ல 0.0012581
ණි ல 0.0012581
ය ஜ 0.0043277
ජ් ஜ 0.0040185
ද ஜ 0.0021638
ජෙ ஜ 0.0136012
ස ஜ 0.0049459
ගෝ ஜ 0.0021638
ෂ ஜ 0.0021638
ජි ஜ 0.0024730
ජේ ஜ 0.0046368
ජා ஜ 0.0058733
ජ ஜ 0.9517774
ශ ஜ 0.0018547
ෂෙ ஸெ 1.0000000
ෆේ பே 0.0105263
බැ பே 0.0210526
බේ பே 0.3026316
ප பே 0.0184211
පෙ பே 0.0894737
පේ பே 0.3868421
ෆ பே 0.0184211
බ பே 0.1289474
බෙ பே 0.0236842
ල් ளி 0.1244980
ලී ளி 0.0200803
ලි ளி 0.8534137
ළ් ளி 0.0020080
ක් ல௧ 0.5000000
ල ல௧ 0.5000000
රෙ றே 0.1217949
රේ றே 0.7884615
ර றே 0.0384615
රි றே 0.0512821
මෞ மௌ 1.0000000
වූ வூ 1.0000000
රි லி 0.0052064
ල් லி 0.0862774
කී லி 0.0029751
ලු லி 0.0003719
ලී லி 0.0174786
හො லி 0.0026032
ලි லி 0.8750465
ල லி 0.0066939
කි லி 0.0033470
ල ழ 0.9671053
ළ ழ 0.0328947
දු டோ 0.1567164
ටෝ டோ 0.5895522
ඩෝ டோ 0.1791045
ඩො டோ 0.0746269
ං ந் 0.0012341
ඳු ந் 0.0004114
වු ந் 0.0004701
ත් ந் 0.0042311
ස් ந் 0.0005289
න් ந் 0.9847212
ත්‍ ந் 0.0011753
නි ந் 0.0007639
න ந் 0.0011165
NULL ந் 0.0032908
ද් ந் 0.0009402
ඳ ந் 0.0011165
යී லை 0.0050346
ල லை 0.2630585
යි லை 0.4380113
ය් லை 0.0119572
ලේ லை 0.0226558
ලෙ லை 0.2322215
ලෛ லை 0.0270610
ං ஙி 1.0000000
යෙ யெ 0.7600000
ජෙ யெ 0.1733333
යේ யெ 0.0666667
ස யோ 0.3999502
ග யோ 0.0002489
ජෝ யோ 0.0087108
ද! யோ 0.4004480
ඉ யோ 0.0009955
ජො யோ 0.0014933
ක யோ 0.0019910
ත யோ 0.0012444
යෝ யோ 0.1687407
යො யோ 0.0151817
ඕ யோ 0.0009955
රො ரோ 0.1005484
රෝ ரோ 0.8994516
ල් ழ் 1.0000000
හෙ ஹெ 0.8125000
හේ ஹெ 0.1875000
අ ன 0.0006941
චි ன 0.0006941
ං ன 0.0006941
පා ன 0.0006941
NULL ன 0.0027763
ණ ன 0.0214390
න ன 0.4318655
ය ன 0.0000771
ගේ ன 0.5305005
ත ன 0.0012339
ව ன 0.0013881
හ ன 0.0003856
නා ன 0.0006170
නු ன 0.0005398
ම් ன 0.0004627
න් ன 0.0047814
නෙ ன 0.0011568
ගො கொ 0.0460829
කො கொ 0.9539171
තො தொ 0.0979381
දො தொ 0.8298969
තෝ தொ 0.0309278
ත தொ 0.0412371
ඩි ப் 0.0028996
බේ ப் 0.0025372
යි ப் 0.0018123
ෆ් ப் 0.0163103
ෆ්‍ ப் 0.0028996
ප්‍ ப் 0.1101848
බ් ப் 0.0329830
න්‍ ப் 0.0028996
බ්‍ ப் 0.0735774
බ ப் 0.0025372
NULL ப் 0.0068866
ප ப் 0.0460312
බු ப் 0.0028996
ප් ப் 0.4893077
පෝ ப் 0.0054368
පි ப் 0.1870243
ෂ් ப் 0.0010874
පා ப் 0.0126858
රි நி 0.0028409
නි நி 0.9528409
ත්‍ நி 0.0011364
න් நி 0.0221591
ද් நி 0.0034091
වී நி 0.0017045
දේ நி 0.0017045
ත් நி 0.0142045
ජි ஜீ 0.1525424
ජී ஜீ 0.8347458
ගී ஜீ 0.0127119
ෂෝ ஷோ 0.4375000
ශො ஷோ 0.0803571
ෂො ஷோ 0.0625000
සු ஷோ 0.0535714
ශෝ ஷோ 0.1160714
සෝ ஷோ 0.2500000
ලො லொ 0.4687500
ලෝ லொ 0.5312500
ශු சு 0.0014721
ෂ් சு 0.0033649
සු சு 0.8241851
චි சு 0.0134595
චු சு 0.1070452
ග சு 0.0010515
ස් சு 0.0103049
ෂු சு 0.0012618
ච சு 0.0227129
ප சு 0.0014721
සූ சு 0.0033649
ස சு 0.0027340
ජු சு 0.0067298
ශ් சு 0.0008412
ණා ணா 0.4160000
න ணா 0.0320000
ණ ணா 0.0213333
නා ணா 0.5306667
වා வா 0.2206406
වැ வா 0.0011862
ට් வா 0.0011862
වි வா 0.7672005
බා வா 0.0010380
යා வா 0.0008897
ව வா 0.0078588
ල් ன் 0.0002338
ම් ன் 0.0012858
ෆ් ன் 0.0001461
න් ன் 0.5962011
ස් ன் 0.0002046
ත්‍ ன் 0.0001753
න්‍ ன் 0.0013735
ඩා ன் 0.0001461
ත් ன் 0.0007306
ගේ ன் 0.1988311
NULL ன் 0.0008475
ම ன் 0.1971946
නි ன் 0.0002338
න ன் 0.0003507
නී ன் 0.0006429
වි ன் 0.0001461
ං ன் 0.0012566
කි தி 0.0011958
ට් தி 0.0011958
රා தி 0.0005125
ති‍ தி 0.0042706
ලා தி 0.0005979
ටි தி 0.0005979
ඩෲ தி 0.0006833
දි தி 0.1798770
NULL தி 0.0022207
ඩ් தி 0.0020499
තී தி 0.0128118
ය தி 0.0013666
රි தி 0.0006833
නි தி 0.0032456
දී தி 0.0146054
ත தி 0.0021353
ත් தி 0.0418517
දු தி 0.0003416
දේ தி 0.0002562
ධි தி 0.0054663
බා தி 0.0006833
ව தி 0.0008541
දි‍ தி 0.0018791
ති தி 0.5029894
ඩි தி 0.0040998
ම් தி 0.0008541
ද් தி 0.0031602
ද தி 0.0034165
ද්‍ தி 0.1620260
න් தி 0.0004271
ත්‍ தி 0.0436454
යි நை 0.5000000
නෙ நை 0.1025641
න நை 0.3974359
යු யு 0.0887707
ම யு 0.4486138
යි யு 0.0056007
ස யு 0.4486138
උ யு 0.0033604
ජු யு 0.0022403
යූ யு 0.0022403
ව් யு 0.0005601
ටෲ ரூ 0.0057225
රූ ரூ 0.7711016
රු ரூ 0.1416309
කෲ ரூ 0.0701001
ඩෲ ரூ 0.0114449
ඩෙ டே 0.0590909
ඩේ டே 0.9136364
ඩැ டே 0.0272727
නෙ ணே 0.0351967
නේ ணே 0.9254658
ණේ ணே 0.0393375
ඬි டி 0.0048485
ටී டி 0.0090909
ඩි டி 0.7000000
ෂ டி 0.0042424
දී டி 0.0036364
ත් டி 0.0042424
ති டி 0.0054545
ඩ් டி 0.0412121
දි டி 0.0278788
ලු டி 0.0042424
දෙ டி 0.0048485
ච් டி 0.0006061
රි டி 0.0054545
ය டி 0.0012121
ට්‍ டி 0.0230303
ට් டி 0.0272727
ටි டி 0.1327273
රො றொ 1.0000000
ය් தை 0.0157658
න தை 0.0022523
යි தை 0.4391892
ද தை 0.2500000
තෛ தை 0.0292793
දෙ தை 0.0360360
ම් தை 0.0157658
ති தை 0.0045045
ත தை 0.2072072
එ எ 0.6965174
ව எ 0.0074627
ඒ எ 0.0646766
ඇ எ 0.2114428
දි எ 0.0199005
නො நோ 0.1304348
නෝ நோ 0.8695652
කෲ கு 0.0040106
කු கு 0.3350115
කො கு 0.0011093
කූ கு 0.0011093
ඝු கு 0.0005120
ගු கு 0.0693745
හු கு 0.0040959
ට கு 0.5839235
ක கு 0.0004267
ෆි கு 0.0004267
ට්‍ ற் 0.0748899
පී ற் 0.0154185
ප් ற் 0.0154185
ර් ற் 0.0484581
ඩ් ற் 0.0352423
ටා ற் 0.0881057
ටි ற் 0.0176211
ත් ற் 0.0594714
ට් ற் 0.6453744
ඕ ஒ 0.2812500
ඔ ஒ 0.7187500
බ பா 0.0057716
බා பா 0.4386391
ති பா 0.0015188
පා பா 0.4842041
රා பா 0.0021264
බේ பா 0.0012151
භා பா 0.0540705
ග பா 0.0027339
වා பா 0.0015188
ප பா 0.0082017
ය யா 0.0279785
NULL யா 0.0020382
යා யா 0.6649991
ජා யா 0.0029646
සා யா 0.0009264
වි யா 0.2992403
ජ யா 0.0014823
ගේ யா 0.0003706
ව් கௌ 0.1173709
කෞ கௌ 0.1643192
ගෞ கௌ 0.6244131
ග கௌ 0.0938967
ඬි ண் 0.0065466
න් ண் 0.8707038
න ண் 0.0122750
ණ්‍ ண் 0.0049100
න්‍ ண் 0.0400982
ත් ண் 0.0057283
ං ண் 0.0057283
ණ් ண் 0.0540098
ක கா 0.0309820
ගා கா 0.2196404
රා கா 0.0013831
ඛා கா 0.0138313
හ கா 0.0035961
කා கா 0.6827109
සා கா 0.0027663
ජා கா 0.0013831
හා கா 0.0298755
ඥා கா 0.0022130
භා கா 0.0013831
න கா 0.0013831
ග கா 0.0066390
මා கா 0.0022130
ණි ணீ 0.2134831
ණී ணீ 0.1235955
නි ணீ 0.2134831
නී ணீ 0.4494382
ච சௌ 0.0267176
ම්‍ சௌ 0.0267176
ව් சௌ 0.0610687
සෞ சௌ 0.3969466
ස சௌ 0.2442748
වු சௌ 0.2442748
ස් ஸ 0.0268817
ෂ ஸ 0.2580645
ශ ஸ 0.2204301
ස ஸ 0.4946237
ජෙ செ 0.0028271
සෞ செ 0.0012116
ස செ 0.0068659
චේ செ 0.0048465
සෙ செ 0.7879645
ය செ 0.0032310
ශේ செ 0.0020194
ජැ செ 0.0004039
සේ செ 0.0266559
ශෙ செ 0.0020194
රා செ 0.0020194
ළු செ 0.0028271
එ செ 0.0032310
චෙ செ 0.1324717
සැ செ 0.0157512
ශ செ 0.0024233
සු செ 0.0032310
ලී ளீ 1.0000000
ලේ லெ 0.0354610
ලෙ லெ 0.9118541
ල லெ 0.0314083
ලැ லெ 0.0141844
ට් லெ 0.0070922
හී ஹீ 1.0000000
ඕ ஓ 1.0000000
ටො டொ 0.2187500
ටො‍ டொ 0.0937500
ඩො டொ 0.6875000
හි ஹி 0.9382716
භි ஹி 0.0617284
ලි லீ 0.0576923
ලී லீ 0.9423077
ඤෙ ஞெ 1.0000000
යූ யூ 0.3333333
ජු யூ 0.0328638
ජූ யூ 0.0516432
වු யூ 0.0328638
මා யூ 0.0328638
යු யூ 0.5164319
දේ தெ 0.0440678
තෙ தெ 0.5932203
දෙ தெ 0.3084746
තැ தெ 0.0271186
ඩැ தெ 0.0271186
නෝ னொ 0.1250000
නො னொ 0.8750000
මි மீ 0.0576923
මී மீ 0.9423077
ඈ ஏ 0.0965517
ඒ ஏ 0.4758621
එ ஏ 0.2482759
ඇ ஏ 0.0689655
ආ ஏ 0.0482759
අ ஏ 0.0620690
රා தா 0.0044128
ඩා தா 0.0020367
ත தா 0.0084861
තා தா 0.4453496
දා தா 0.4976239
මි தா 0.0023761
සා தா 0.0013578
ද தா 0.0040733
නා தா 0.0166327
ධා தா 0.0152749
ද්‍ தா 0.0023761
නු னூ 1.0000000
තෝ ணோ 0.4705882
නෝ ணோ 0.5294118
අ ம 0.0009003
ව ம 0.0015434
මැ ம 0.0014148
ං ம 0.0009003
මි ம 0.0007717
වි ம 0.0010289
ස ம 0.0006431
ලු ம 0.0010289
ම් ம 0.0028296
මෛ ம 0.0009003
NULL ம 0.0012862
ජෝ ம 0.0007717
මෙ ம 0.0009003
ම ம 0.9728617
මා ம 0.0122186
රෝ றோ 0.9665272
රො றோ 0.0334728
ශ්‍ ஷ் 0.0034534
ශ් ஷ் 0.1573754
ෂ්‍ ஷ் 0.0187469
ෂ ஷ் 0.0167736
ස් ஷ் 0.1050814
චු ஷ் 0.0014800
ෂ් ஷ் 0.6970893
ණු ணு 0.2605634
නු ணு 0.7394366
බේ பெ 0.0147420
ෆෞ பெ 0.0196560
පැ பெ 0.0515971
පෙ பெ 0.5233415
ෆැ பெ 0.0147420
බ பெ 0.0663391
ප්‍ பெ 0.0515971
බෙ பெ 0.2579853
ගෙ ங் 0.0020030
ති ங் 0.0025038
ක් ங் 0.0040060
ං ங் 0.8282424
කී ங் 0.0020030
NULL ங் 0.0002504
ණි ங் 0.0017526
න ங் 0.0042564
ය ங் 0.0025038
යි ங் 0.0010015
න් ங் 0.1514772
සො ஸோ 0.4117647
සෝ ஸோ 0.2941176
සෙ ஸோ 0.2941176
තෝ தோ 0.7427386
තො தோ 0.0912863
දෝ தோ 0.0539419
ත தோ 0.0829876
ටෝ தோ 0.0290456
ජො ஜொ 1.0000000
නි கி 0.0014531
ය கி 0.0024219
කි‍ கி 0.0014531
ග්‍ கி 0.0261565
ලි கி 0.0021797
ක්‍ கி 0.3976750
හි கி 0.0261565
චි கி 0.0019375
ං கி 0.0002422
ගි கி 0.0578833
ග් கி 0.0140470
ගී கி 0.0055704
කි கி 0.4197142
කී கி 0.0084766
මු கி 0.0016953
ක් கி 0.0329378
ල ல் 0.0016920
න්‍ ல் 0.0003948
ලා ல் 0.0005076
බි ல் 0.0004512
සෝ ல் 0.0004512
ඩ් ல் 0.0004512
ලි ல் 0.0002820
සි ல் 0.3827975
ල් ல் 0.2268472
ලු ல் 0.0004512
ල්‍ ல் 0.0020869
න් ல் 0.3833051
ම ல் 0.0002820
යො யொ 0.5957447
ජො யொ 0.1914894
යෝ யொ 0.2127660
ඉ ஐ 0.0163934
අ ஐ 0.4672131
ය ஐ 0.0163934
ය් ஐ 0.0081967
ජ ஐ 0.0143443
යි ஐ 0.4774590
පෝ போ 0.6502058
පො போ 0.0781893
බො போ 0.0617284
බෝ போ 0.2098765
මැ மெ 0.2405063
මෙ மெ 0.7594937
ස් ஸ் 0.6985312
ය් ஸ் 0.0007468
ශ් ஸ் 0.0954693
ම් ஸ் 0.0006224
ෂ ஸ் 0.0014937
ස්් ஸ் 0.0009958
ෂ්‍ ஸ் 0.0018671
සැ ஸ் 0.0039831
ඩා ஸ் 0.0008713
සෙ ஸ் 0.0007468
ච ஸ் 0.0008713
NULL ஸ் 0.0004979
ස ஸ் 0.0021160
සි ஸ் 0.0007468
ස්‍ ஸ் 0.0036097
ෂ් ஸ் 0.1456311
ශ්‍ ஸ் 0.0411999
