ණ னே 0.0023529
නේ னே 0.6494118
න් னே 0.0070588
නෙ னே 0.0611765
නා னே 0.0047059
ගෝ னே 0.0023529
නෑ னே 0.1270588
බ னே 0.0023529
න னே 0.0423529
ණේ னே 0.0376471
ඩැ னே 0.0023529
ගේ னே 0.0070588
නි னே 0.0023529
ලාෙ னே 0.0023529
නැ னே 0.0258824
කේ னே 0.0023529
ණෑ னே 0.0094118
හේ னே 0.0023529
මැ னே 0.0023529
තෑ னே 0.0023529
ත් னே 0.0023529
නේ னே 0.0023529
ලේ லே 0.5852843
ළෙ லே 0.0005574
NULL லே 0.0150502
ස් லே 0.0039019
සි லே 0.0005574
ටු லே 0.0005574
ළෑ லே 0.0011148
ලා லே 0.0022297
ඒ லே 0.0005574
ලෙ லே 0.0752508
නේ லே 0.0011148
හ லே 0.0016722
ලේ லே 0.0016722
ල් லே 0.0072464
බු லே 0.0005574
ම්‍ லே 0.0005574
ලෝ லே 0.0016722
සේ லே 0.0005574
ලැ லே 0.0234114
පා லே 0.0027871
ප லே 0.0423634
ඩ லே 0.0011148
ශ லே 0.0005574
ළැ லே 0.0011148
ළ லே 0.0005574
ල්ෙ லே 0.0011148
ළි லே 0.0005574
ල லே 0.0390190
ලී லே 0.0011148
ව லே 0.0027871
ලි லே 0.0022297
ඨා லே 0.0005574
ලෑ லே 0.1571906
ණ லே 0.0005574
ළේ லே 0.0161650
දි லே 0.0011148
රේ லே 0.0016722
වැ லே 0.0011148
ම லே 0.0011148
න லே 0.0011148
පේ லே 0.0005574
නා ணா் 0.5000000
ර ணா் 0.5000000
ෆෝ பு​ 1.0000000
වෑ பே 0.0012484
පේ பே 0.3258427
ය பே 0.0012484
ම பே 0.0049938
වැ பே 0.0012484
ද பே 0.0012484
ඹ பே 0.0049938
බැ பே 0.0299625
බෙ பே 0.0237203
අ பே 0.0024969
රේ பே 0.0012484
බ් பே 0.0012484
ෆ பே 0.0012484
පො பே 0.0012484
ත பே 0.0024969
ස பே 0.0012484
ර பே 0.0012484
භ பே 0.0012484
යි பே 0.0012484
‍ பே 0.0012484
පැ பே 0.0074906
ජේ பே 0.0037453
ඹා பே 0.0037453
ගො பே 0.0012484
ඹේ பே 0.1660424
මු பே 0.0012484
ටි பே 0.0012484
ටෙ பே 0.0012484
ඹ් பே 0.0012484
බෙී பே 0.0012484
ප பே 0.0037453
පා பே 0.0012484
ඳු பே 0.0012484
ග பே 0.0037453
බ பே 0.0212235
භේ பே 0.0012484
බේ பே 0.1573034
බෑ பே 0.0474407
පෙ பே 0.0724095
පී பே 0.0024969
ෆේ பே 0.0012484
ඕ பே 0.0024969
ජෝ பே 0.0012484
ග් பே 0.0012484
අෙ பே 0.0012484
ඔෑ பே 0.0012484
හේ பே 0.0024969
ඹෑ பே 0.0237203
ඇ பே 0.0012484
දො பே 0.0012484
පෝ பே 0.0012484
NULL பே 0.0074906
බෝ பே 0.0024969
බ්‍ பே 0.0012484
ඹි பே 0.0012484
රු பே 0.0012484
පෑ பே 0.0362047
ව னை 0.0035461
ලි னை 0.0035461
ඇ னை 0.0035461
ල னை 0.0035461
ණි னை 0.0283688
රෝ னை 0.0035461
රා னை 0.0035461
යි னை 0.0248227
ළෙ னை 0.0035461
NULL னை 0.0177305
ලේ னை 0.0035461
ං னை 0.0070922
සැ னை 0.0035461
න னை 0.5602837
පා னை 0.0035461
ණේ னை 0.0212766
ප னை 0.0035461
ය னை 0.0673759
නි னை 0.0106383
නා னை 0.0035461
නෛ னை 0.0141844
ඳ னை 0.0177305
නේ னை 0.1099291
ණ னை 0.0673759
ල් னை 0.0035461
න් னை 0.0035461
නෙ னை 0.0035461
ග ல... 0.2000000
ං ல... 0.2000000
අ ல... 0.2000000
ක... ல... 0.2000000
ම ல... 0.2000000
ස லைஓ 1.0000000
ක வு 0.0039801
ක් வு 0.0009950
ව් வு 0.0427861
ගා வு 0.0019900
NULL வு 0.0179104
ස් வு 0.0009950
ග வு 0.0009950
දා வு 0.0009950
ළු வு 0.0029851
උ வு 0.0388060
ප வு 0.0069652
ලා வு 0.0009950
න් வு 0.0009950
දෙ வு 0.0009950
බු வு 0.0109453
වෝ வு 0.0029851
ෂ வு 0.0009950
යි வு 0.0009950
ටා வு 0.0019900
තු வு 0.0019900
ඔ வு 0.0009950
ර வு 0.0049751
ව வு 0.0189055
ස வு 0.2388060
වී வு 0.0009950
ඩ வு 0.0019900
ශ வு 0.0029851
ඹු வு 0.0039801
මු வு 0.0039801
වු வு 0.5442786
ට வு 0.0009950
හු வு 0.0009950
ම வு 0.0029851
වි வு 0.0039801
න வு 0.0009950
ය வு 0.0019900
වූ வு 0.0129353
ත வு 0.0069652
චු வு 0.0009950
කු வு 0.0009950
කො வு 0.0009950
දෑ வு 0.0009950
ඹ மி 0.0008929
ටෝ மி 0.0008929
මූ மி 0.0017857
ම மி 0.0089286
වි மி 0.0062500
සෝ மி 0.0008929
මී மி 0.0455357
පී மி 0.0008929
ශු மி 0.0008929
තු மி 0.0008929
මෝ மி 0.0053571
මැ மி 0.0026786
ක மி 0.0017857
ඉ மி 0.0008929
ලි மி 0.0017857
ස மி 0.0017857
මි மி 0.8866071
ම් மி 0.0169643
ඹි மி 0.0044643
මෙ மி 0.0008929
මු மி 0.0035714
ති மி 0.0008929
ගො மி 0.0008929
NULL மி 0.0035714
හැ ட‍‍ 1.0000000
හො ஹோ 0.1428571
හෝ ஹோ 0.8571429
ජේ ஜே. 0.1428571
ජේ. ஜே. 0.8571429
ඖ ச் 0.0034014
දා ச் 0.0238095
චී ச் 0.0170068
චෙ ச் 0.0034014
චේ ச் 0.0034014
ජ් ச் 0.0204082
ධ ச் 0.0034014
ෂ ச் 0.0068027
ක ச் 0.0068027
ව් ச் 0.0102041
ගා ச் 0.0068027
චි ச் 0.0374150
ප් ச் 0.0034014
ස් ச் 0.3435374
NULL ச் 0.0170068
බෝ ச் 0.0034014
චා ச் 0.0204082
ශී ச் 0.0034014
ච් ச் 0.3673469
වි ச் 0.0034014
ච ச் 0.0238095
චු ச் 0.0034014
ද්‍ ச் 0.0034014
යේ ச் 0.0034014
ව ச் 0.0068027
ලි ச் 0.0170068
භ ச் 0.0034014
ලො ச் 0.0034014
ප්‍ ச் 0.0034014
ගි ச் 0.0068027
ති ச் 0.0034014
ගෙ ச் 0.0136054
මි ச் 0.0034014
ත් லை 0.0032328
ව லை 0.0193966
ස லை 0.0032328
ර லை 0.0075431
ණු லை 0.0010776
දේ லை 0.0010776
ටා லை 0.0010776
ල லை 0.4903017
යි லை 0.0215517
ත්‍ லை 0.0010776
ළ லை 0.0290948
වු லை 0.0021552
ශ லை 0.0010776
මි லை 0.0010776
ථා லை 0.0150862
ම් லை 0.0053879
ය லை 0.0161638
වි லை 0.0021552
ලෛ லை 0.0021552
න லை 0.0161638
දු லை 0.0032328
ම லை 0.0053879
ඩ්‍ லை 0.0010776
ද லை 0.0129310
අ லை 0.0010776
ව්‍ லை 0.0043103
දි லை 0.0010776
ළේ லை 0.0053879
කො லை 0.0032328
ශා லை 0.0010776
පො லை 0.0010776
ද්‍ லை 0.0010776
ලෑ லை 0.0010776
ත லை 0.0086207
ර් லை 0.0053879
ටු லை 0.0086207
ඉ லை 0.0021552
ක லை 0.0010776
රි லை 0.0107759
ස් லை 0.0086207
NULL லை 0.0053879
ළෙ லை 0.0010776
ලේ லை 0.0915948
රු லை 0.0010776
ගා லை 0.0021552
යා லை 0.0086207
ෂේ லை 0.0010776
ප லை 0.0107759
යු லை 0.0010776
පා லை 0.0053879
ලැ லை 0.0010776
ඩු லை 0.0010776
වා லை 0.0010776
පි லை 0.0021552
ෂ லை 0.0010776
මා லை 0.0053879
තේ லை 0.0118534
ල් லை 0.0689655
ලෙ லை 0.0053879
ලා லை 0.0301724
න් லை 0.0161638
හ சா 0.0858086
සෝ சா 0.0016502
පෙ சா 0.0016502
ග சா 0.0016502
වා சா 0.0016502
බ சா 0.0033003
ෂා சா 0.0033003
කෝ சா 0.0033003
සැ சா 0.0297030
ඩා சா 0.0016502
යා சா 0.0049505
NULL சா 0.0165017
ස් சா 0.0330033
චා சா 0.0643564
ඇ சா 0.0016502
සි சா 0.0016502
තැ சா 0.0016502
රෝ சா 0.0016502
ෂි சா 0.0049505
ඳ சா 0.0016502
යේ சா 0.0231023
දි சா 0.0016502
ශා சா 0.1023102
කො சா 0.0016502
ථ சா 0.0016502
බෙ சா 0.0016502
ඤා சா 0.0016502
ව්‍ சா 0.0016502
ච சா 0.0082508
වි சா 0.0033003
ය சா 0.0033003
ද சா 0.0049505
ටෝ சா 0.0016502
නි சா 0.0033003
සා சா 0.4158416
දු சா 0.0016502
ජ சா 0.0082508
වී சா 0.0033003
චැ சா 0.0049505
කා சா 0.0016502
සෙ சா 0.0016502
ශ சா 0.0066007
මි சா 0.0016502
ර சா 0.0016502
ස சா 0.1188119
ලි சா 0.0082508
ප් பொ் 1.0000000
ඔ த்ஓ 0.5000000
ත් த்ஓ 0.5000000
ළි லிஓ 0.0714286
ඔ லிஓ 0.4285714
ඕ லிஓ 0.0714286
ලි லிஓ 0.4285714
ව ஜ 0.0018149
ජේ ஜ 0.0036298
ඩ ஜ 0.0009074
ජෙ ஜ 0.0018149
ජ ஜ 0.9210526
ප්‍ ஜ 0.0009074
ය ஜ 0.0054446
න ஜ 0.0018149
නි ஜ 0.0009074
ම ஜ 0.0018149
ද ஜ 0.0009074
තො ஜ 0.0009074
ජී ஜ 0.0009074
ජු ஜ 0.0009074
බො ஜ 0.0009074
ජි ஜ 0.0009074
තැ ஜ 0.0018149
NULL ஜ 0.0027223
පු ஜ 0.0018149
ළු ஜ 0.0009074
ජ් ஜ 0.0045372
ඩු ஜ 0.0009074
හ් ஜ 0.0045372
සේ ஜ 0.0009074
වා ஜ 0.0009074
ජා ஜ 0.0181488
ෂ ஜ 0.0018149
මා ஜ 0.0009074
ඡා ஜ 0.0009074
හ ஜ 0.0027223
ලෙ ஜ 0.0009074
ඡ ஜ 0.0099819
ළු ளுஓ 0.5000000
ඔ ளுஓ 0.5000000
කී பு 0.0004196
ග් பு 0.0002098
බෲ பு 0.0020982
බ பு 0.0012589
පි பு 0.0016786
ප பு 0.0037768
ශෘ பு 0.0002098
භූ பு 0.0006295
පු பு 0.3424255
උ பு 0.0006295
ළු பு 0.0006295
ෆී பு 0.0002098
නැ பு 0.0002098
පෘ பு 0.0004196
ප් பு 0.0008393
බූ பு 0.0012589
ක්‍ பு 0.0004196
ස් பு 0.0008393
NULL பு 0.1321863
පූ பு 0.0025178
මැ பு 0.0004196
භු பு 0.0002098
සි பு 0.0002098
තැ பு 0.0002098
ෆෘ பு 0.0002098
ක් பு 0.0027277
බො பு 0.0002098
රේ பு 0.0002098
දි பு 0.0002098
ඔූ பு 0.0002098
ඔු பு 0.0006295
ශා பு 0.0216114
නා பு 0.0029375
ය பு 0.0018884
දු பு 0.0144775
ම பு 0.0006295
සා பு 0.0039866
ඹ பு 0.0107008
දූ பு 0.0002098
ජ பு 0.0023080
ප්‍ பு 0.0006295
ඹ් பு 0.0002098
බෟ பு 0.0002098
පැ பு 0.0002098
ස பு 0.0052455
ර பு 0.0023080
ණු பு 0.0002098
ඩ් பு 0.0004196
බි பு 0.0002098
රෙ பு 0.0002098
බු பு 0.1147713
ග பு 0.0006295
පා பு 0.0004196
ෂා பு 0.0002098
හෙ பு 0.0002098
ං பு 0.0014687
ඹූ பு 0.0012589
දො பு 0.0002098
ටු பு 0.0002098
බෘෘ பு 0.0002098
ජු பு 0.0010491
කු பு 0.0002098
ත பு 0.0002098
බ් பு 0.0048258
කො பு 0.0004196
පුු பு 0.0002098
අ பு 0.0132186
ට பு 0.0002098
න பு 0.0369282
නි பு 0.0052455
ද பு 0.0006295
මු பு 0.0018884
ඹු பு 0.2406630
එ பு 0.0004196
සෙ பு 0.0008393
ෆු பு 0.0002098
ඔ பு 0.0012589
ල பு 0.0006295
ශ් பு 0.0002098
ශා. பு 0.0006295
ව பு 0.0035669
ජ් ஜ்E 0.5000000
ඊ ஜ்E 0.5000000
යි ஹை 0.3636364
ප් ஹை 0.0454545
හ ஹை 0.4545455
මී ஹை 0.0454545
වෝ ஹை 0.0454545
ෆෝ ஹை 0.0454545
ය யஓ 0.5000000
ඔ யஓ 0.5000000
ස්. ஸ். 0.5555556
ස් ஸ். 0.2222222
ච්. ஸ். 0.2222222
NULL சொ 0.0120482
සෝ சொ 0.0240964
පෝ சொ 0.0120482
ජො சொ 0.0120482
සො சொ 0.8554217
චො சொ 0.0843373
ණෝ னெ 0.0089286
පො னெ 0.0089286
නේ னெ 0.1517857
න් னெ 0.0178571
නෙ னெ 0.2500000
න னெ 0.0625000
තෙ னெ 0.0089286
ගේ னெ 0.0178571
නෑ னெ 0.0267857
ණෑ னெ 0.0178571
එ னெ 0.0178571
හෙ னெ 0.0089286
නැ னெ 0.3392857
ණු னெ 0.0089286
ඇ னெ 0.0089286
තැ னெ 0.0446429
න னோ 0.5000000
නෝ னோ 0.5000000
ස ட் 0.0092628
හැ ட் 0.0001287
ර ட் 0.0034736
ණු ட் 0.0050174
තු ட் 0.0050174
ටේ ட் 0.0072044
: ட் 0.0001287
ති ட் 0.0003860
ටි ட் 0.2310562
ථා ட் 0.0001287
ටුෙ ட் 0.0001287
ටෙ ட் 0.0006433
වී ட் 0.0001287
හි ட் 0.0001287
ය ட் 0.0030876
වි ட் 0.0007719
ටෝ ட் 0.0010292
සා ட் 0.0002573
ම ட் 0.0002573
ඩ්‍ ட் 0.0002573
ච් ட் 0.0003860
තො ட் 0.0001287
ට් ட் 0.1141130
දි ட் 0.0001287
ටො ட் 0.0010292
ණ ட் 0.0007719
ලෑ ட் 0.0001287
ද්‍ ட் 0.0007719
ටී ட் 0.0009006
ටේ‍ ட் 0.0001287
ර් ட் 0.0006433
ව් ட் 0.0003860
ද් ட் 0.0018011
ටෑ ட் 0.0003860
ක ட் 0.0034736
රි ட் 0.0002573
සි ட் 0.0001287
ක්‍ ட் 0.0037309
ස් ட் 0.0002573
NULL ட் 0.0209700
යා ட் 0.0011579
පෘ ட் 0.0014152
ඩා ட் 0.0001287
ප ட் 0.0001287
ඳු ட் 0.0001287
ජ් ட் 0.0002573
බ ட் 0.0002573
ඩි ட் 0.0019298
හ ட் 0.0001287
ග් ட் 0.0001287
න් ட் 0.0012865
ත් ட் 0.1973498
ව ட் 0.0023157
ඩෲ ட் 0.0010292
ඨ ட் 0.0001287
ටා ட் 0.0101634
ත්‍ ட் 0.0001287
යෝ ட் 0.0010292
වු ட் 0.0007719
එ ட் 0.0001287
මු ட் 0.0014152
මි ட் 0.0001287
ම් ட் 0.0002573
ඩ ட் 0.0010292
ඬි ட் 0.0001287
කා ட் 0.0001287
න ட் 0.0007719
ටැ ட் 0.0009006
බී" ட் 0.0001287
ද ட் 0.0011579
ට්‍ ட் 0.0023157
ව්‍ ட் 0.0007719
ට ட் 0.1731635
යේ ட் 0.0001287
බ් ட் 0.0001287
ටෲ ட் 0.0003860
කො ட் 0.0046314
කු ட் 0.0001287
ත ட் 0.0016725
නු ட் 0.0006433
ටු ட் 0.0981603
ඇ ட் 0.0001287
රෝ ட் 0.0002573
ං ட் 0.0002573
ලැ ட் 0.0001287
වා ட் 0.0011579
ටි‍ ட் 0.0001287
රැ ட் 0.0001287
ටිෙ ட் 0.0002573
පෙ ட் 0.0001287
මා ட் 0.0003860
වෝ ட் 0.0002573
ල් ட் 0.0005146
ඩ් ட் 0.0690853
හෝ ஹொ 0.0204082
හ ஹொ 0.0136054
හෙ ஹொ 0.0068027
ගො ஹொ 0.0272109
හො ஹொ 0.9149660
හා ஹொ 0.0068027
කො ஹொ 0.0034014
ගෝ ஹொ 0.0034014
රෝ ஹொ 0.0034014
ට L 0.2000000
ල් L 0.2000000
කො L 0.2000000
එ L 0.2000000
සී L 0.2000000
දූ டூ 0.2500000
ඩු டூ 0.2500000
ද டூ 0.2500000
ද් டூ 0.2500000
ප් மா 0.0002188
කැ மா 0.0002188
ගා மா 0.0002188
NULL மா 0.0072194
ඇ மா 0.0002188
ක மா 0.0010939
මැ மா 0.0008751
ටු மா 0.0017502
න් மா 0.0004375
ල් மா 0.0006563
මී மா 0.0002188
මා மா 0.9170860
බේ மா 0.0002188
පි மா 0.0002188
බ மா 0.0002188
වා மா 0.0113761
ග மா 0.0002188
ගු மா 0.0002188
පු மா 0.0006563
උ மா 0.0004375
පා மா 0.0065631
ප மா 0.0017502
මො மா 0.0006563
ඩ மா 0.0006563
මි மா 0.0006563
එ மா 0.0002188
මු மா 0.0004375
ටි மா 0.0004375
ගෙ மா 0.0002188
ගි மா 0.0002188
ටා மா 0.0002188
ල மா 0.0004375
ස மா 0.0006563
ත් மா 0.0002188
ව மா 0.0030628
ලෑ மா 0.0002188
පො மா 0.0004375
කො மா 0.0002188
දි மா 0.0004375
අ மா 0.0004375
ආ மா 0.0021877
ඹ மா 0.0002188
මෑ மா 0.0002188
ම மா 0.0253774
සා மா 0.0004375
නි மா 0.0096259
ය தெ 0.0011547
ඩෑ தெ 0.0002887
වි தெ 0.0008661
ම தெ 0.0011547
දු தெ 0.0002887
දෛ தெ 0.0002887
දි தெ 0.0023095
ණ தெ 0.0014434
නෙ தெ 0.0011547
ස தெ 0.0008661
ර தெ 0.0008661
තෑ தெ 0.0023095
ක... தெ 0.0002887
ණු தெ 0.0002887
ඟ தெ 0.0005774
ටි தெ 0.0005774
ශ தெ 0.0002887
වී தெ 0.0164550
ටෙ தெ 0.0002887
දැ தெ 0.0346420
ප தெ 0.0008661
තෙ தெ 0.0531178
උ தெ 0.0002887
ධ தெ 0.0002887
තා தெ 0.0002887
සේ தெ 0.0002887
දා தெ 0.0005774
ජො தெ 0.0002887
තේ தெ 0.0040416
ඩි தெ 0.0005774
දී தெ 0.0005774
ග් தெ 0.0005774
දෙ தெ 0.5306005
ක தெ 0.0002887
තැ தெ 0.1870670
ස් தெ 0.0005774
NULL தெ 0.0153002
ධා தெ 0.0002887
නැ தெ 0.0008661
ඳේ தெ 0.0002887
නි தெ 0.0002887
ටැ தெ 0.0014434
ද தெ 0.0854503
බැ தெ 0.0002887
හු தெ 0.0002887
ට தெ 0.0008661
දෑ தெ 0.0054850
ඳා தெ 0.0002887
කු தெ 0.0014434
පො தெ 0.0008661
ත தெ 0.0040416
ත් தெ 0.0031755
ව தெ 0.0020208
දේ தெ 0.0167436
ඔ தெ 0.0002887
ල தெ 0.0005774
ඩ தெ 0.0005774
ෙ தெ 0.0008661
පා தெ 0.0069284
ඳෙ தெ 0.0005774
ඩැ தெ 0.0005774
ග தெ 0.0002887
රැ தெ 0.0008661
මා தெ 0.0002887
ඩ් தெ 0.0002887
ටු தெ 0.0005774
දො தெ 0.0002887
කැ தெ 0.0008661
ත ளா 0.0454545
නො ளா 0.0113636
ලා ளா 0.5795455
ලෑ ளா 0.1022727
ලේ ளா 0.0454545
NULL ளா 0.0681818
ළ ளா 0.0113636
ශ් ளா 0.0113636
ව්‍ ளா 0.0113636
ල ளா 0.0568182
ළා ளா 0.0113636
ලැ ளா 0.0227273
ර ளா 0.0113636
ළෑ ளா 0.0113636
දි ன 0.0001309
ණා ன 0.0009160
ලෑ ன 0.0001309
නෙ ன 0.0023554
ණ ன 0.0571840
ඳ ன 0.0002617
ම ன 0.0009160
ය ன 0.0026171
වි ன 0.0003926
නා ன 0.0140016
තො ன 0.0001309
ටි ன 0.0001309
ථා ன 0.0001309
ගො ன 0.0002617
බා ன 0.0001309
ණු ன 0.0019628
නූ ன 0.0001309
ඟ ன 0.0001309
ස ன 0.0001309
ර ன 0.0022245
තු ன 0.0001309
ඩි ன 0.0002617
හා ன 0.0002617
දෙ ன 0.0002617
න් ன 0.0155718
හ ன 0.0044491
පු ன 0.0001309
ළු ன 0.0002617
ණේ ன 0.0002617
භූ ன 0.0005234
නෑ ன 0.0010468
ස් ன 0.0001309
ධී ன 0.0017011
NULL ன 0.0043182
යා ன 0.0002617
නැ ன 0.0009160
ඩා ன 0.0007851
ක් ன 0.0001309
තැ ன 0.0002617
ණි ன 0.0003926
ක ன 0.0007851
රි ன 0.0002617
ත ன 0.0092908
නු ன 0.0006543
කු ன 0.0006543
නි ன 0.0013086
ද ன 0.0014394
න ன 0.8547501
අ ன 0.0002617
ට ன 0.0003926
කා ன 0.0001309
ඩ ன 0.0006543
ඟු ன 0.0001309
ව ன 0.0030097
ල ன 0.0039257
මා ன 0.0001309
ඒ. ன 0.0001309
ඩ් ன 0.0002617
බි ன 0.0001309
නේ ன 0.0024863
ග. ன 0.0002617
ඩැ ன 0.0001309
ග ன 0.0015703
චි ன 0.0002617
කැ ன 0.0001309
ං ன 0.0005234
ශී‍්‍ ஸ் 0.0002398
ගා ஸ் 0.0004795
කැ ஸ் 0.0004795
ප් ஸ் 0.0009590
ස් ஸ் 0.8211460
NULL ஸ் 0.0110285
ලේ ஸ் 0.0004795
සි ஸ் 0.0153440
රෝ ஸ் 0.0011988
ක් ஸ் 0.0004795
ල් ஸ் 0.0026373
ඩ් ஸ் 0.0009590
හ ஸ் 0.0033565
ග් ஸ் 0.0011988
න් ஸ் 0.0011988
සෝ ஸ் 0.0007193
ෂ ஸ் 0.0007193
ඩි ஸ் 0.0004795
සේ ஸ் 0.0004795
ග ஸ் 0.0004795
ශ්‍ ஸ் 0.0839127
ම්‍ ஸ் 0.0002398
ජ් ஸ் 0.0014385
ඩු ஸ் 0.0002398
ෂ් ஸ் 0.0038360
ගු ஸ் 0.0002398
ඩ ஸ் 0.0002398
ජ ஸ் 0.0004795
කා ஸ் 0.0002398
වු ஸ் 0.0002398
ශ ஸ் 0.0002398
ම් ஸ் 0.0002398
ල ஸ் 0.0004795
යි ஸ் 0.0002398
ච්. ஸ் 0.0002398
ශ් ஸ் 0.0237353
ව ஸ் 0.0004795
වෙ ஸ் 0.0004795
ලි ஸ் 0.0004795
ස ஸ் 0.0069528
ත් ஸ் 0.0009590
ර ஸ் 0.0019180
ය් ஸ் 0.0002398
නු ஸ் 0.0002398
ත ஸ் 0.0007193
දෑ ஸ் 0.0002398
ග්‍ ஸ் 0.0007193
ශා ஸ் 0.0002398
නා ஸ் 0.0002398
ට් ஸ் 0.0004795
ය ஸ் 0.0002398
ච ஸ் 0.0002398
ස්. ஸ் 0.0007193
ස්ෙ ஸ் 0.0004795
දු ஸ் 0.0026373
ස්‍ ஸ் 0.0004795
ද ஸ் 0.0004795
ණ් மூ 0.0208333
ශා மூ 0.0833333
මු மூ 0.3645833
මෘ மூ 0.0312500
ත மூ 0.0208333
ම மூ 0.0208333
මූ மூ 0.3854167
තු மூ 0.0625000
යෝ மூ 0.0104167
ල பெ‍ 0.3333333
බැ பெ‍ 0.6666667
වා நீ 0.0695652
ආ நீ 0.0086957
තු நீ 0.0434783
ව நீ 0.0521739
භා நீ 0.0173913
සා நீ 0.0086957
ඉ நீ 0.0086957
නි நீ 0.1130435
උ நீ 0.0869565
ජ நீ 0.0956522
නී நீ 0.2260870
මි நீ 0.0521739
හී நீ 0.0086957
මී நீ 0.2000000
කො நீ 0.0086957
ධි‍ தி 0.0000983
යේ தி 0.0001966
ධ්‍ தி 0.0042265
ත தி 0.0080598
රා‍ தி 0.0000983
නි தி 0.0019658
කි தி 0.0011795
ද தி 0.0106153
න தி 0.0015726
රී தி 0.0005897
ට්‍ தி 0.0001966
මු தி 0.0001966
එ தி 0.0001966
මි தி 0.0003932
ළ தி 0.0000983
වු தி 0.0001966
ධ් தி 0.0023590
කා தி 0.0001966
ඩ தி 0.0002949
ඬි தி 0.0003932
දේ தி 0.0000983
කො‍ தி 0.0000983
භා தி 0.0001966
වෙ தி 0.0002949
ත් தி 0.0022607
ව தி 0.0205426
ත්‍ தி 0.0047179
යෝ தி 0.0003932
ල தி 0.0005897
බු தி 0.0000983
රෙ தி 0.0002949
ඩ් தி 0.0004914
ල් தி 0.0001966
ධි தி 0.0168075
ගු தி 0.0002949
ෙ தி 0.0001966
පා தி 0.0000983
ෂා தி 0.0000983
හ් தி 0.0000983
ලු தி 0.0029487
ඳි தி 0.0105170
වා தி 0.0001966
ග தி 0.0005897
ලේ தி 0.0000983
ඳී தி 0.0007863
ං தி 0.0000983
ගා தி 0.0003932
තී தி 0.0004914
ටු தி 0.0024572
ජි தி 0.0002949
රෝ தி 0.0039316
ඩේ தி 0.0001966
ථී தி 0.0000983
රේ தி 0.0005897
දි தி 0.1841950
ද්‍ தி 0.0095341
ර් தி 0.0005897
ඝ தி 0.0000983
ඳ தி 0.0000983
දු தி 0.0020641
සා தி 0.0009829
ම தி 0.0044230
ය தி 0.0645764
වේ தி 0.0000983
ට් தி 0.0002949
සු தி 0.0002949
ටි தி 0.0019658
ශ தி 0.0000983
ගො தி 0.0001966
ති தி 0.0988795
හි தி 0.0000983
ඊ தி 0.0000983
ඟ தி 0.0000983
ස தி 0.0154315
ලි தி 0.0003932
ද්් தி 0.0000983
ර தி 0.4757224
තු தி 0.0001966
මී தி 0.0001966
ඩි தி 0.0040299
ථි தி 0.0001966
හා தி 0.0000983
දෙ தி 0.0005897
න් தி 0.0003932
දී தி 0.0070769
කී தி 0.0004914
තෙ தி 0.0002949
ජ් தி 0.0001966
ළු தி 0.0018675
තා தி 0.0000983
ප தி 0.0002949
බ தி 0.0000983
නෑ தி 0.0000983
දා தி 0.0000983
ඟි தி 0.0000983
ක්‍ தி 0.0000983
ධී தி 0.0002949
ස් தி 0.0000983
NULL தி 0.0113033
යා தி 0.0001966
ව් தி 0.0010812
ක් தி 0.0005897
ද් தி 0.0034401
රි தி 0.0007863
සි தி 0.0006880
හූ ஹூ 0.1666667
හ ஹூ 0.1666667
හු ஹூ 0.6666667
ම ம‍ 1.0000000
ටි ட்' 1.0000000
ර றோ 0.0909091
NULL றோ 0.0909091
රො றோ 0.1818182
ටෝ றோ 0.0909091
රෝ றோ 0.4545455
බ றோ 0.0909091
ම மௌ 0.3928571
ව් மௌ 0.1071429
මෙ மௌ 0.0357143
වු மௌ 0.2500000
මෞ மௌ 0.1428571
ල් மௌ 0.0357143
ක மௌ 0.0357143
ම ம௲ 0.5000000
සූ ம௲ 0.5000000
ඔ னஓ 0.3333333
ඕ னஓ 0.1666667
න னஓ 0.5000000
යි நை 0.5333333
න நை 0.4666667
තු த[ 1.0000000
ජො ஜொ 1.0000000
සි ஸி 0.8789474
ශ් ஸி 0.0052632
ඩේ ஸி 0.0052632
න ஸி 0.0105263
ශි ஸி 0.0052632
ස ஸி 0.0052632
කි ஸி 0.0052632
ඩු ஸி 0.0052632
දේ ஸி 0.0052632
සී ஸி 0.0105263
කෙ ஸி 0.0052632
හි ஸி 0.0157895
ස් ஸி 0.0421053
මො மோ 0.5384615
මෝ மோ 0.4615385
දෞ தௌ 1.0000000
රු ரு‍ 0.5000000
රැ ரு‍ 0.5000000
රු று‎ 1.0000000
පි. பீ. 0.1000000
බී. பீ. 0.1000000
කො பீ. 0.1000000
ම பீ. 0.1000000
පී. பீ. 0.5000000
පී பீ. 0.1000000
මි மி் 1.0000000
රෝ றோ 1.0000000
ණෑ ணே 0.0232558
ණේ ணே 0.3488372
නෑ ணே 0.0232558
නේ ணே 0.6046512
ග மெ 0.0008562
නා மெ 0.0008562
නෑ மெ 0.0008562
අ மெ 0.0008562
ප மெ 0.0008562
මෑ மெ 0.0085616
වැ மெ 0.0034247
ම மெ 0.0368151
ත மெ 0.0008562
චෛ மெ 0.0008562
මී மெ 0.0025685
මා மெ 0.0068493
මෙි மெ 0.0008562
මැ மெ 0.8022260
ව மெ 0.0034247
ඉ மெ 0.0017123
කෙ மெ 0.0017123
ප්‍ மெ 0.0008562
NULL மெ 0.0042808
ගෙ மெ 0.0008562
මේ மெ 0.0119863
මෙ மெ 0.0976027
ම් மெ 0.0008562
ධා மெ 0.0008562
මි மெ 0.0077055
මු மெ 0.0008562
නු நு‍ 1.0000000
තු து‎ 1.0000000
උ மீ 0.0022831
ම மீ 0.0022831
ද மீ 0.0045662
රේ மீ 0.0022831
දි மீ 0.0045662
මී மீ 0.7762557
මා மீ 0.0045662
ඕ மீ 0.0022831
ඔ மீ 0.0022831
මැ மீ 0.0091324
ධී மீ 0.0342466
මේ மீ 0.0022831
NULL மீ 0.0022831
මෙ மீ 0.0068493
මි மீ 0.1392694
ම් மீ 0.0022831
වී மீ 0.0022831
ණි ற் 0.0022910
භ්‍ ற் 0.0022910
ගා ற் 0.0022910
ළෙ ற் 0.0011455
NULL ற் 0.0572738
වා ற் 0.0022910
දා ற் 0.0011455
හ් ற் 0.0011455
ලා ற் 0.0011455
හ ற் 0.0034364
ල් ற் 0.0080183
ෆා ற் 0.0011455
මා ற் 0.0126002
ටා ற் 0.0034364
ල ற் 0.0045819
තු ற் 0.0091638
ඟ ற் 0.0022910
ණු ற் 0.0744559
ත් ற் 0.0057274
ව ற் 0.0011455
ස ற் 0.0068729
ජ ற் 0.0034364
හි ற் 0.1202749
ඩ ற் 0.0057274
ටුෙ ற் 0.0011455
ටි ற் 0.0057274
බී ற் 0.0011455
වු ற் 0.0045819
ළ ற் 0.0183276
ට ற் 0.1386025
ට් ற் 0.0148912
ට්‍ ற் 0.0045819
වේ ற் 0.0011455
ව්‍ ற் 0.0011455
හු ற் 0.0045819
ද ற் 0.2119129
ඹ ற் 0.0011455
ම ற் 0.0011455
නි ற் 0.0011455
දු ற் 0.0171821
න ற் 0.0057274
ත ற் 0.0194731
ද්‍ ற் 0.0011455
ඳ ற் 0.0011455
ණ ற் 0.2038946
කු ற் 0.0068729
නෝ ணோ 1.0000000
න් ஞி 0.3333333
චි ஞி 0.1666667
ඤ ஞி 0.5000000
ලු லு‍ 1.0000000
ය தி. 1.0000000
ං ஙு 1.0000000
ෂි ரூ 0.0108696
ඩෲ ரூ 0.0434783
බෘෘ ரூ 0.0108696
ර ரூ 0.0108696
කෘ ரூ 0.0108696
ත් ரூ 0.0434783
ෆෘ ரூ 0.0217391
බෟ ரூ 0.0108696
කෟ ரூ 0.0108696
රු ரூ 0.1195652
රූ ரூ 0.3043478
ගෘ ரூ 0.0108696
NULL ரூ 0.0108696
යා ரூ 0.0869565
මූ ரூ 0.0108696
ට් ரூ 0.0108696
ට ரூ 0.0108696
රැ ரூ 0.0108696
බ ரூ 0.0108696
රී ரூ 0.0108696
ටෲ ரூ 0.0217391
බෲ ரூ 0.1521739
රෑ ரூ 0.0543478
ට් ட‍ 0.3750000
ට ட‍ 0.6250000
ණ් ண' 1.0000000
ද ஸெ 0.0149254
බී" ஸெ 0.0149254
සා ஸெ 0.0149254
සී ஸெ 0.0298507
ස ஸெ 0.0746269
ඇ ஸெ 0.0298507
සි ஸெ 0.0149254
සෙ ஸெ 0.3134328
චා ஸெ 0.0149254
ස් ஸெ 0.0149254
" ஸெ 0.0149254
සැ ஸெ 0.4477612
රො ர 0.0020306
රැ ர 0.0097840
ග ர 0.0005538
ලු ர 0.0001846
පෙ ர 0.0070150
රෙ ர 0.0015691
ඉ ர 0.0003692
දො ர 0.0000923
රෝ ர 0.0005538
ලේ ர 0.0000923
රු ர 0.0036921
ං ர 0.0001846
ද ர 0.0001846
කි ர 0.0000923
ටැ ர 0.0000923
න ர 0.0023999
ට ர 0.0016614
රී ர 0.0001846
අ ர 0.0000923
බැ ர 0.0000923
ත ர 0.0003692
රා‍ ர 0.0000923
ජු ர 0.0000923
ව ர 0.0012922
වෙ ர 0.0004615
ත් ர 0.0012922
පෞ ர 0.0000923
ල ர 0.0023076
ම් ர 0.0001846
ඛ්‍ ர 0.0000923
බී ர 0.0000923
ළ ர 0.0001846
වු ர 0.0000923
මො ர 0.0000923
ඩ ர 0.0006461
ධ ர 0.0000923
උ ர 0.0000923
ජ් ர 0.0001846
ප ர 0.0007384
පි ர 0.0001846
බ ர 0.0003692
හා ர 0.0001846
න් ர 0.0014768
හ ர 0.0002769
රා ர 0.0152298
පෙ‍ ர 0.0000923
රි ர 0.0028614
ක ர 0.0011999
හේ ர 0.0000923
මෛ ர 0.0000923
ර‍ ர 0.0000923
ධා ர 0.0001846
ශෝ ர 0.0000923
NULL ர 0.0107070
ස් ர 0.0002769
වැ ர 0.0001846
ම ர 0.0017537
දු ர 0.0004615
වි ர 0.0000923
ය ர 0.0061842
ට් ர 0.0000923
සු ர 0.0002769
ච් ர 0.0000923
නා ர 0.0000923
භි ர 0.0000923
සි. ர 0.0000923
ධෘ ர 0.0000923
රේ ர 0.0027691
රෑ ர 0.0011999
ර් ர 0.0012922
ඳ ர 0.0002769
ර ர 0.9073288
ස ர 0.0025845
ලි ர 0.0001846
පැ ர 0.0000923
ටේ ர 0.0001846
යි ர 0.0001846
තු ர 0.0002769
ශ ர 0.0003692
ති ர 0.0002769
ගො ர 0.0002769
ජ ர 0.0000923
හි ர 0.0002769
සේ ஙெ 0.2500000
හේ ஙெ 0.2500000
බො ஙெ 0.2500000
ගො ஙெ 0.2500000
මී மீ‎ 0.5000000
මි மீ‎ 0.5000000
ක් கை 0.0008104
ක கை 0.0186386
රි கை 0.0526742
දො கை 0.0008104
NULL கை 0.0113452
බෝ கை 0.0008104
ගා கை 0.0016207
පා கை 0.0024311
ර්. கை 0.0008104
ග கை 0.3735818
ඒ. கை 0.0008104
මා கை 0.0008104
මී கை 0.0008104
ඩි கை 0.0008104
ල් கை 0.0016207
හ கை 0.0016207
ව கை 0.0008104
ස கை 0.0032415
ර கை 0.0105348
සී கை 0.0008104
කෙ கை 0.0032415
ඟ கை 0.0226904
ල கை 0.0016207
යි கை 0.0162075
ටේ கை 0.0008104
වු கை 0.0016207
ගෙ கை 0.0024311
මි கை 0.0008104
ම් கை 0.0518639
හි கை 0.0016207
කා கை 0.0056726
ගෛ கை 0.0008104
ය கை 0.0016207
ගැ கை 0.0040519
න கை 0.0008104
ගේ கை 0.0024311
ම கை 0.3824959
ආ கை 0.0008104
සු கை 0.0008104
වේ கை 0.0008104
අ கை 0.0016207
දි கை 0.0008104
රේ கை 0.0008104
ත கை 0.0081037
බො வோ 0.0200000
වෝ வோ 0.5500000
ඕ வோ 0.0200000
දි வோ 0.0100000
ට් வோ 0.0100000
ම வோ 0.0100000
ඹ வோ 0.0100000
වො வோ 0.0900000
හෝ வோ 0.0200000
බෝ வோ 0.1400000
වු வோ 0.0100000
තෝ வோ 0.0100000
ඔ வோ 0.0200000
ඇ வோ 0.0100000
ටු வோ 0.0100000
ව් வோ 0.0100000
ව வோ 0.0500000
යා ப் 0.0004608
පෘ ப் 0.0004608
ඩා ப் 0.0004608
ප් ப் 0.1548387
ෆි ப் 0.0004608
ෆී ப் 0.0004608
ං ப் 0.0004608
බ්‍ ப் 0.0036866
ඹි ப் 0.0004608
NULL ப் 0.1857143
රා ப் 0.0009217
ණි ப் 0.0004608
රි ப் 0.0009217
ටු ப் 0.0004608
ෂි ப் 0.0004608
ෆෘ ப் 0.0004608
ඡ ப் 0.0004608
න් ப் 0.0018433
හ ப் 0.0027650
බි ப் 0.0036866
ඩි ப் 0.0009217
ඤ ப் 0.0009217
ණෝ ப் 0.0004608
බෲ ப் 0.0023041
පෙ ப் 0.0027650
බ ப் 0.0018433
පි ப் 0.0760369
ෆ් ப் 0.0115207
ග ப் 0.0004608
වා ப் 0.0018433
ජ් ப் 0.0009217
පු ப் 0.0801843
ධ ப் 0.0009217
තූ ப் 0.0004608
ප ப் 0.0216590
ඹ් ப் 0.0004608
චැ ப் 0.0018433
ප්‍ ப் 0.0101382
ජ ப் 0.0105991
හි ப் 0.0004608
ශ ப் 0.0004608
ම් ப் 0.0105991
මි ப் 0.0009217
ළ ப் 0.0009217
ඹේ ப் 0.0004608
ගො ப் 0.0004608
බී ப் 0.0009217
යෝ ப் 0.0064516
ල ப் 0.0013825
ස ப் 0.0133641
ව ப் 0.0004608
ත ப் 0.0059908
පො ப் 0.0032258
ණ ப் 0.0004608
ග්‍ ப் 0.0004608
කො ப் 0.0013825
බ් ப் 0.0806452
ම ப் 0.0013825
ඹ ப் 0.0009217
ද ப் 0.0004608
ය ப் 0.2732719
පේ ப் 0.0082949
න ப் 0.0004608
ඔ ஹஓ 0.5000000
හ ஹஓ 0.5000000
එ .E. 0.3333333
ඊ .E. 0.3333333
ම් .E. 0.3333333
ගු ந் 0.0003928
තා ந் 0.0001964
ඳෙ ந் 0.0001964
ඩු ந் 0.0003928
ඬේ ந் 0.0003928
ඳු ந் 0.0579340
ලු ந் 0.0001964
ඳි ந் 0.0161037
ඳෑ ந் 0.0001964
දා ந் 0.0015711
ෆා ந் 0.0001964
ඩි ந் 0.0001964
ලා ந் 0.0001964
න් ந் 0.6999214
දී ந் 0.0001964
ල් ந் 0.0011783
හ ந் 0.0001964
ධි ந் 0.0001964
ක් ந் 0.0001964
ඉ ந் 0.0001964
ද් ந் 0.0060880
ඩේ ந் 0.0007855
හේ ந் 0.0001964
මැ ந் 0.0001964
ලේ ந் 0.0003928
ධා ந் 0.0001964
ඳී ந் 0.0011783
NULL ந் 0.0434014
ඳේ ந் 0.0003928
ං ந் 0.0400628
නි ந் 0.0003928
දු ந் 0.0390809
ද ந் 0.0027494
න ந் 0.0019639
ඳා ந் 0.0033386
කො ந் 0.0001964
දි ந் 0.0005892
දෑ ந் 0.0001964
ර් ந் 0.0009819
නු ந் 0.0007855
ඳ ந் 0.0608798
න්‍ ந் 0.0001964
න්ෙ ந் 0.0001964
ත් ந் 0.0066771
ඟු ந் 0.0015711
ර ந் 0.0001964
ත්‍ ந் 0.0011783
තු ந் 0.0005892
ඟේ ந் 0.0001964
ටා ந் 0.0007855
ඹු ந் 0.0001964
ම් ந் 0.0005892
ථා ந் 0.0001964
වු ந் 0.0001964
ණ් ந் 0.0011783
ඤ් ந் 0.0001964
ඬි ந் 0.0003928
හි ந் 0.0009819
ජ ந் 0.0001964
ල லூ 0.0135135
ඨ லூ 0.0135135
ද් லூ 0.0135135
යා லூ 0.1621622
සැ லூ 0.0135135
ලූ லூ 0.0810811
අ லூ 0.0135135
ලෝ லூ 0.0135135
ග லூ 0.0135135
විෙ லூ 0.0135135
ලු லூ 0.1891892
දු லூ 0.0945946
ළු லூ 0.0135135
වි லூ 0.0945946
ත லூ 0.0270270
ද්‍ லூ 0.1351351
හ லூ 0.0810811
පී லூ 0.0135135
ට லு 0.0006242
ලු லு 0.4800250
වා லு 0.0012484
උ லு 0.0018727
ළු லு 0.4675406
ඹ லு 0.0006242
ද லு 0.0024969
ධ லு 0.0006242
ළූ லு 0.0012484
ලෙ லு 0.0006242
ර් லு 0.0043695
නු லு 0.0006242
ල් லு 0.0043695
ල லு 0.0043695
ටු லு 0.0006242
ව லு 0.0018727
ලි லு 0.0012484
යා லு 0.0062422
ඹු லு 0.0006242
මු லு 0.0012484
එ லு 0.0018727
ම් லு 0.0012484
ධා லு 0.0012484
ලූ லு 0.0031211
වු லு 0.0024969
ළ லு 0.0031211
NULL லு 0.0043695
ඔ துஓ 0.6000000
තු துஓ 0.3000000
ගො துஓ 0.1000000
නි நி் 1.0000000
ටෝ டோ 1.0000000
වී யீ 0.1428571
වි யீ 0.5714286
ධී யீ 0.1428571
ජි யீ 0.1428571
වී ஸா 0.0091743
ජු ஸா 0.0091743
සැ ஸா 0.0091743
යා ஸா 0.0091743
ස් ஸா 0.0183486
ශා ஸா 0.0733945
සේ ஸா 0.0091743
ස ஸா 0.1100917
ෂා ஸா 0.0183486
සා ஸா 0.7339450
ස් ‍ 0.0285714
NULL ‍ 0.4571429
බෝ ‍ 0.0571429
ළේ ‍ 0.0285714
ල් ‍ 0.0571429
හි ‍ 0.0285714
ත ‍ 0.1428571
ල‍ ‍ 0.0285714
ර ‍ 0.0285714
නා ‍ 0.0285714
බ ‍ 0.0285714
ඩේ ‍ 0.0285714
ටේ ‍ 0.0571429
රි ஸீ 0.0416667
සි ஸீ 0.1250000
කු. ஸீ 0.0416667
හු ஸீ 0.0833333
ශි ஸீ 0.0416667
සී ஸீ 0.4583333
කැ ஸீ 0.0416667
NULL ஸீ 0.0416667
ටි ஸீ 0.0416667
මු ஸீ 0.0833333
රා ரா‍ 1.0000000
ඩු றை 0.0236220
ධ றை 0.0078740
ප றை 0.0078740
ඳු றை 0.0078740
ට්‍ றை 0.0078740
ට් றை 0.0078740
රේ றை 0.0551181
රෙ றை 0.0157480
න් றை 0.0078740
ත றை 0.0157480
ටු றை 0.0157480
ව றை 0.0314961
ර றை 0.6692913
යි றை 0.0708661
රා றை 0.0078740
රෛ றை 0.0078740
ල றை 0.0157480
ටුෙ றை 0.0078740
ම් றை 0.0078740
NULL றை 0.0078740
රු ரு‎ 1.0000000
කැ கூ 0.0140845
කෲ கூ 0.0140845
කෝ கூ 0.0985915
කු கூ 0.2957746
ථා கூ 0.0281690
හූ கூ 0.0140845
ගො கூ 0.0140845
කෑ கூ 0.0140845
කූ கூ 0.3098592
ක கூ 0.0140845
කි கூ 0.0140845
ගු கூ 0.0140845
ස கூ 0.1549296
කු பீ 0.0045872
බි பீ 0.0412844
න් பீ 0.0045872
බේ பீ 0.0045872
පෙ பீ 0.0045872
බ් பீ 0.0091743
පී பீ 0.4541284
මී பீ 0.0045872
ඩි பீ 0.0045872
සේ பீ 0.0045872
ට பீ 0.0045872
පි பீ 0.1009174
ම பீ 0.0091743
ෆී பீ 0.1651376
ප් பீ 0.0045872
ෆි பீ 0.0137615
බී பீ 0.1376147
NULL பீ 0.0137615
බ්‍ பீ 0.0045872
ර பீ 0.0045872
ඩෲ பீ 0.0045872
ණු ண 0.0066722
ස ண 0.0016681
ලි ண 0.0025021
ළි ண 0.0033361
ණි ண 0.0016681
ක ண 0.0025021
ණ් ண 0.0025021
ඹේ ண 0.0008340
NULL ண 0.0041701
නැ ண 0.0016681
හෙ ண 0.0008340
කි ண 0.0008340
නි ண 0.0008340
න ண 0.3736447
ණේ ண 0.0008340
ග ண 0.0033361
වා ண 0.0016681
නා ண 0.0075063
බු ண 0.0008340
ණා ண 0.0100083
නෙ ண 0.0008340
ත ண 0.0008340
න් ண 0.0050042
ඳ ண 0.0041701
නේ ண 0.0025021
ණ ண 0.5554629
හ ண 0.0016681
නැෙ ண 0.0008340
කු ண 0.0008340
ඔ ஒ‍‍ 1.0000000
NULL ஊ 0.0066890
ඌ ஊ 0.7257525
උා ஊ 0.0033445
තැ ஊ 0.0033445
ඔ ஊ 0.0033445
තු ஊ 0.0033445
හූ ஊ 0.0100334
හො ஊ 0.0033445
හා ஊ 0.0066890
යේ ஊ 0.0033445
හ ஊ 0.1137124
බි ஊ 0.0033445
රො ஊ 0.0033445
ම ஊ 0.0033445
පු ஊ 0.0033445
උ ஊ 0.0234114
ප ஊ 0.0033445
හු ஊ 0.0434783
උෘ ஊ 0.0033445
ග ஊ 0.0267559
උඃ ஊ 0.0033445
ඉ ப 0.0007451
දො ப 0.0002484
බෝ ப 0.0003725
බ්‍ ப 0.0001242
ලේ ப 0.0002484
ඹි ப 0.0001242
ළෙ ப 0.0001242
කැ ப 0.0001242
පෑ ப 0.0004967
හෙ ப 0.0002484
ඩැ ப 0.0001242
පා ப 0.0105551
ග ப 0.0040979
වා ப 0.0001242
ෆ් ப 0.0001242
මා ப 0.0002484
බු ப 0.0009934
ෆෙ ப 0.0001242
බෑ ப 0.0001242
පෙ ப 0.0004967
රෙ ப 0.0002484
බි ப 0.0004967
ල් ப 0.0008692
භ ப 0.0042220
වෙ ப 0.0002484
භා ப 0.0002484
ව ப 0.0026077
ශ් ப 0.0001242
ඔ ப 0.0146529
ල ப 0.0009934
මු ப 0.0004967
ඹු ப 0.0013660
මි ப 0.0001242
ම් ப 0.0002484
ළ ப 0.0009934
ඹේ ப 0.0013660
ඞු ப 0.0001242
ත‍‍ ப 0.0001242
ද ப 0.0001242
පේ ப 0.0006209
න ப 0.0012418
අ ப 0.0024835
ෆ්‍ ப 0.0001242
ට ப 0.0003725
බැ ப 0.0065814
කො ப 0.0003725
බ් ப 0.0004967
ත ப 0.0002484
පො ப 0.0068298
ක් ப 0.0002484
ත‍ ப 0.0001242
ක ப 0.0009934
ඹෑ ப 0.0002484
රි ப 0.0007451
ඌ ப 0.0001242
NULL ப 0.0129144
යා ப 0.0006209
පු ப 0.0017385
උ ப 0.0004967
ඩු ப 0.0001242
යු ப 0.0001242
ප ப 0.5158326
බ ப 0.2399106
පි ப 0.0043462
ෆා ப 0.0002484
බේ ப 0.0007451
බෲ ப 0.0002484
ෂ ப 0.0002484
දෙ ப 0.0002484
න් ப 0.0004967
ලා ப 0.0004967
හ ப 0.0007451
කී ப 0.0002484
ග් ப 0.0001242
ඹෙ ப 0.0001242
ස ப 0.0011176
ලි ப 0.0001242
ර ப 0.0001242
පැ ப 0.0136595
තු ப 0.0001242
ථා ப 0.0003725
ඹා ப 0.0008692
ගො ப 0.0019868
ඹ් ப 0.0002484
ප්‍ ப 0.0016143
බා ப 0.0027319
වී ப 0.0001242
ජ ப 0.0001242
ම ப 0.0017385
දු ப 0.0001242
වැ ப 0.0007451
ඹ ப 0.1139948
ය ப 0.0017385
වි ப 0.0009934
ට් ப 0.0001242
නා ப 0.0002484
බෙ ப 0.0006209
ෆ ப 0.0033528
දි ப 0.0001242
බො ப 0.0011176
ඳ ப 0.0003725
දි ண் 0.0011299
යේ ண் 0.0011299
ණා ண் 0.0011299
ඬු ண் 0.0169492
ඳා ண் 0.0011299
කො ண் 0.0056497
ණ්‍ ண் 0.0056497
ශා ண் 0.0045198
ණ ண் 0.0056497
ඳ ண் 0.0067797
නු ண் 0.0180791
න ண் 0.0158192
වි ண் 0.0169492
ම ண் 0.0033898
නි ண் 0.0090395
දු ண் 0.0011299
නා ண் 0.0022599
බෙ ண் 0.0011299
ට් ண் 0.0011299
ඬ ண் 0.0033898
ගො ண் 0.0011299
ණ් ண் 0.2768362
ම් ண் 0.0011299
ඩ ண் 0.0101695
ඬි ண் 0.0192090
කා ண் 0.0011299
ත් ண் 0.0056497
න්ෙ ண் 0.0011299
භා ண் 0.0011299
ව ண் 0.0451977
ලි ண் 0.0022599
ර ண் 0.0033898
න්‍ ண் 0.0022599
තු ண் 0.0033898
ල ண் 0.0045198
ෆා ண் 0.0011299
ල් ண் 0.0022599
හ ண் 0.0033898
ඩ් ண் 0.0011299
ලා ண் 0.0033898
න් ண் 0.4135593
ඬේ ண் 0.0011299
ඳු ண் 0.0022599
ළු ண் 0.0022599
ලු ண் 0.0011299
දා ண் 0.0011299
ඳි ண் 0.0011299
ස් ண் 0.0022599
NULL ண் 0.0293785
ං ண் 0.0316384
ඩේ ண் 0.0022599
ක් ய 0.0003176
සි ய 0.0001059
මැ ய 0.0002117
ණි ய 0.0023290
හේ ய 0.0003176
ක ய 0.0051874
රා ய 0.0001059
NULL ய 0.0318653
ස් ய 0.0001059
ශෝ ய 0.0001059
යා ய 0.0138683
ඳු ய 0.0001059
භූ ய 0.0001059
ප ய 0.0001059
යු ய 0.0001059
තා ய 0.0001059
උ ய 0.0001059
පු ய 0.0002117
දා ய 0.0001059
ජො ய 0.0002117
ග් ய 0.0001059
හ ய 0.0013762
න් ய 0.0005293
දෙ ய 0.0001059
ර ய 0.0014821
ස ய 0.0029642
තු ய 0.0001059
යි ய 0.0006352
ජ ய 0.0007411
වි ய 0.0006352
ය ய 0.8815372
ඹ ய 0.0001059
සා ய 0.0001059
ටෝ ய 0.0002117
ම ய 0.0026466
දු ய 0.0002117
නා ய 0.0001059
ආ ய 0.0006352
ණ ய 0.0095278
ර් ய 0.0003176
ටු ய 0.0002117
ඇ ய 0.0008469
තෝ ய 0.0002117
රෝ ய 0.0045522
ළෙ ய 0.0001059
කේ ய 0.0001059
චි ய 0.0001059
පා ய 0.0001059
ගු ய 0.0001059
ග ய 0.0021173
රැ ய 0.0001059
ධි ய 0.0001059
ල් ய 0.0001059
ඩ් ய 0.0001059
අෙ ய 0.0001059
ත් ய 0.0060343
ව ய 0.0038111
වෙ ய 0.0002117
ල ய 0.0029642
ෂෙ ய 0.0001059
ළ ய 0.0002117
ම් ய 0.0001059
මු ய 0.0002117
ඹු ய 0.0004235
යෙ ய 0.0010586
ඬි ய 0.0001059
ඩ ய 0.0003176
චැ ய 0.0002117
කා ய 0.0001059
යැ ய 0.0007411
න ய 0.0039170
ද ய 0.0001059
නි ய 0.0003176
ට ய 0.0017997
අ ய 0.0053991
ට්‍ ய 0.0002117
බ් ய 0.0001059
යේ ய 0.0011645
පො ய 0.0003176
ත ய 0.0012704
ක நு 0.0076046
ල நு 0.0038023
දො நு 0.0038023
ණු நு 0.0038023
දු நு 0.0038023
ම நு 0.0038023
නූ நு 0.0114068
ඩු நு 0.0038023
මො நு 0.0038023
නු நு 0.9391635
නො நு 0.0038023
NULL நு 0.0038023
මු நு 0.0038023
මි நு 0.0038023
න් ஞ் 0.1506024
ර් ஞ் 0.0361446
ඥ් ஞ் 0.0120482
ඳ ஞ் 0.0120482
බ ஞ் 0.0060241
ඥා ஞ் 0.0060241
ච් ஞ் 0.0060241
ටෝ ஞ் 0.0542169
චි ஞ் 0.0060241
ඤ් ஞ் 0.0963855
ඩා ஞ் 0.0361446
ං ஞ் 0.5301205
යි ஞ் 0.0060241
පැ ஞ் 0.0060241
හේ ஞ் 0.0180723
තු ஞ் 0.0060241
ක් ஞ் 0.0060241
ද් ஞ் 0.0060241
ඩ நி 0.0040377
ඤ් நி 0.0013459
කා நி 0.0040377
නී நி 0.0067295
ති நி 0.0026918
ණ් நி 0.0026918
ථා நி 0.0040377
සෙ நி 0.0013459
මි நி 0.0026918
ම් நி 0.0013459
ටි நி 0.0013459
ස நி 0.0067295
සී நி 0.0013459
පො நி 0.0282638
ණ நி 0.0013459
ත நி 0.0013459
ර් நி 0.0053836
නෙ நி 0.0026918
ධ්‍ நி 0.0040377
යේ நி 0.0026918
තො நி 0.0094213
අ நி 0.0026918
රී நி 0.0013459
න நி 0.0067295
කි நி 0.0013459
දු நி 0.0013459
නි நி 0.7981157
සැ நி 0.0094213
ප් நி 0.0026918
නැ நி 0.0013459
NULL நி 0.0242261
ළෙ நி 0.0013459
ස් நி 0.0121131
හී நி 0.0013459
මැ நி 0.0013459
ණි நி 0.0040377
තෝ நி 0.0013459
ක நி 0.0013459
ෂි நி 0.0013459
ඉ நி 0.0040377
නේ நி 0.0013459
හ நி 0.0026918
ලා நி 0.0013459
ෂ நி 0.0026918
මී நி 0.0013459
බ நி 0.0026918
ප நி 0.0134590
යු நி 0.0013459
ශා பு. 0.3333333
ත பு. 0.3333333
න් பு. 0.3333333
ගෝ மோ 0.0051282
මෝ மோ 0.8051282
ටෙ மோ 0.0051282
රි மோ 0.0051282
මො மோ 0.1641026
NULL மோ 0.0102564
බෝ மோ 0.0051282
. த. 0.1666667
ද. த. 0.1666667
ජි. த. 0.1666667
සී த. 0.1666667
ද த. 0.3333333
ර් யா் 0.1428571
ග யா் 0.2857143
ම யா் 0.4285714
ය யா் 0.1428571
ගේ ரை 0.0028571
දු ரை 0.0114286
ඹ ரை 0.0028571
ය ரை 0.1142857
න ரை 0.0028571
ච් ரை 0.0028571
වා ரை 0.0085714
රේ ரை 0.0371429
ඒ ரை 0.0028571
ල් ரை 0.0200000
ඉ ரை 0.0028571
ක් ரை 0.0028571
ටු ரை 0.0057143
ණු ரை 0.0028571
ද් ரை 0.0028571
ස ரை 0.0742857
ර ரை 0.4971429
යි ரை 0.0314286
රා ரை 0.0057143
රි ரை 0.0028571
ල ரை 0.1000000
ළ ரை 0.0228571
වු ரை 0.0142857
බී ரை 0.0028571
ඹූ ரை 0.0028571
ඩ ரை 0.0142857
වී ரை 0.0085714
ට க்‍ 1.0000000
ආ லா 0.0022173
ළා லா 0.0266075
ලැ லா 0.0066519
නි லா 0.0029564
ප லா 0.0014782
ලා லா 0.7694013
න් லா 0.0007391
ලෙ லா 0.0007391
ලෑ லா 0.0273466
ල් லா 0.0066519
රි லா 0.0014782
ල லா 0.1116038
ළෑ லா 0.0014782
වෙ லா 0.0007391
ලාෙ லா 0.0007391
යා லா 0.0014782
රා් லா 0.0007391
ලො லா 0.0007391
ලේ லா 0.0044346
මු லா 0.0044346
චා லா 0.0014782
NULL லா 0.0133038
ළ லா 0.0110865
ස් லா 0.0014782
බී ... 0.0434783
පී ... 0.0434783
න්. ... 0.0434783
ජේ ... 0.0434783
ඒ. ... 0.0869565
ම් ... 0.0869565
පී. ... 0.0434783
එ ... 0.2608696
කේ. ... 0.0434783
ස්. ... 0.1304348
බ්. ... 0.0434783
සි ... 0.0434783
ම්. ... 0.0434783
දෛ ... 0.0434783
ඛ්‍ தா 0.0009200
ටි தா 0.0009200
මු தா 0.0018399
ථා தா 0.0064397
ශ தா 0.0018399
ඩ தா 0.0036799
ඬා தா 0.0009200
කා தா 0.0009200
දැ தா 0.0018399
සෞ தா 0.0009200
ස தா 0.0018399
ලි தா 0.0091996
තෑ தா 0.0073597
භ தா 0.0009200
දේ தா 0.0009200
ටා தா 0.0045998
ළි தா 0.0018399
ධෘ தா 0.0009200
දෑ தா 0.0064397
ඳා தா 0.0211592
ඳ தா 0.0027599
ඨා தா 0.0009200
ත தா 0.0340386
ය தா 0.0018399
න தா 0.0009200
ටැ தா 0.0119595
දු தா 0.0009200
ද தா 0.0239190
නා தா 0.0082797
තො தா 0.0009200
රී தா 0.0009200
ට් தா 0.0036799
ස් தா 0.0018399
NULL தா 0.0137994
ධා தா 0.0901564
ඩා தா 0.0064397
ද් தா 0.0045998
තැ தா 0.0055198
හා தா 0.0018399
තේ தா 0.0009200
පා தா 0.0027599
තා தா 0.3008280
ඩු தா 0.0009200
ධ தா 0.0064397
ග தா 0.0009200
ඥා தா 0.0009200
දා தா 0.3955842
බො ​ 0.5000000
හො ​ 0.5000000
ණා ணா 0.4172185
ණෑ ணா 0.0529801
ණ ணா 0.0463576
නෙ ணா 0.0066225
න ணா 0.0264901
ණු ணா 0.0066225
ණැ ணா 0.0066225
ෂි ணா 0.0066225
තා ணா 0.0066225
ඹ ணா 0.0066225
නා ணா 0.3973510
නෑ ணா 0.0198675
දො தோ 0.0666667
දෝ தோ 0.2666667
තෝ தோ 0.0666667
ව தோ 0.5333333
ත් தோ 0.0666667
ද தஓ 0.5000000
ඔ தஓ 0.5000000
තී தீ 0.0639269
ඨි தீ 0.0045662
NULL தீ 0.0091324
ති தீ 0.0547945
ධී தீ 0.0456621
ඳී தீ 0.0045662
ල தீ 0.0045662
ර தீ 0.0091324
ත தீ 0.0045662
ටී தீ 0.0045662
ධි தீ 0.0045662
කී தீ 0.0045662
දී தீ 0.6073059
දි தீ 0.1050228
දෑ தீ 0.0045662
රී தீ 0.0136986
දූ தீ 0.0228311
දු தீ 0.0228311
ප தீ 0.0091324
කො ரோ 0.0052632
රූ ரோ 0.0052632
NULL ரோ 0.0052632
වු ரோ 0.0052632
රේ ரோ 0.0315789
ඳ ரோ 0.0052632
ද් ரோ 0.0052632
රො ரோ 0.1947368
ටෝ ரோ 0.0210526
පා ரோ 0.0789474
ර ரோ 0.0105263
රැ ரோ 0.0052632
රෝ ரோ 0.6263158
සේ ஸே 0.7708333
සි ஸே 0.0416667
යා ஸே 0.0208333
ස ஸே 0.0416667
සෑ ஸே 0.0833333
සෙ ஸே 0.0416667
ඩො டொ 0.3375000
ට டொ 0.0125000
දො டொ 0.0750000
ටෝ டொ 0.0375000
ඩෝ டொ 0.0250000
ටෙ டொ 0.0125000
ටො டொ 0.4625000
වෝ டொ 0.0125000
බෝ டொ 0.0250000
යෝ யொ 0.1428571
යෙ யொ 0.0476190
ඔ யொ 0.0476190
යො யொ 0.6666667
තේ யொ 0.0476190
ර யொ 0.0476190
ස ' 0.1136364
න ' 0.0454545
ච් ' 0.0227273
සි ' 0.0454545
' ' 0.3409091
NULL ' 0.2727273
බී ' 0.0227273
ළේ ' 0.0227273
රු ' 0.0454545
බි ' 0.0681818
ටී. ர். 0.0769231
ර් ர். 0.0769231
චි ர். 0.0769231
හො ர். 0.0769231
බෝ ர். 0.0769231
ට් ர். 0.0769231
රා ர். 0.0769231
ත්‍ ர். 0.0769231
ර්. ர். 0.3846154
ග தோ 0.0022510
තො தோ 0.0444569
න தோ 0.0016882
ය தோ 0.0011255
ඹ தோ 0.0005627
ම தோ 0.0005627
උ தோ 0.0028137
ෆා தோ 0.0005627
ඕ தோ 0.0011255
තේ தோ 0.0005627
කො தோ 0.0084412
ල தோ 0.0016882
ඔ தோ 0.0005627
තෝ தோ 0.0360158
දෝ தோ 0.0168824
දො தோ 0.0123804
ව தோ 0.8508723
නෝ தோ 0.0005627
ඉ தோ 0.0005627
ජ தோ 0.0028137
ගා தோ 0.0028137
ඩ தோ 0.0005627
ඩෝ தோ 0.0011255
කා தோ 0.0005627
යා தோ 0.0022510
NULL தோ 0.0033765
ගො தோ 0.0005627
ස් தோ 0.0005627
එ தோ 0.0016882
ඥා ஞ 0.0370370
බෞ ஞ 0.0370370
ට් ஞ 0.0370370
ච ஞ 0.0370370
ව් ஞ 0.1111111
ණ ஞ 0.2592593
ජ ஞ 0.0740741
ං ஞ 0.0370370
යා ஞ 0.1111111
ගො ஞ 0.0740741
ඤ ஞ 0.0740741
රු ஞ 0.0740741
යො ஞ 0.0370370
හැ ‍‎‎‍‍‍ 1.0000000
කු வி 0.0006425
බ් வி 0.0003212
හු வி 0.0006425
ව්‍ வி 0.0028911
ට வி 0.0003212
නි வி 0.0318021
ද வி 0.0003212
ලො வி 0.0003212
ඩ வி 0.0006425
එ வி 0.0003212
මු வி 0.0009637
මි வி 0.0003212
ගි வி 0.0003212
වු வி 0.0012849
ළ வி 0.0016062
ල வி 0.0012849
දේ வி 0.0003212
වෙ வி 0.0044973
ව வி 0.0218439
බි வி 0.0089945
ඕ வி 0.0009637
බු வி 0.0003212
වා வி 0.0006425
ග வி 0.0012849
ගු வி 0.0032123
පා வி 0.0028911
චි வி 0.0009637
බෝ வி 0.0003212
බ්‍ வி 0.0003212
ඉ வி 0.0006425
වේ வி 0.0028911
භි வி 0.0003212
විෙ வி 0.0003212
ම வி 0.0006425
වැ வி 0.0019274
ය வி 0.0038548
වි வி 0.8332798
ච வி 0.0006425
වී வி 0.0083521
හි வி 0.0003212
ජ வி 0.0003212
ටි வி 0.0003212
ශ வி 0.0006425
ස வி 0.0025699
කෘ வி 0.0009637
ර வி 0.0003212
දෙ வி 0.0003212
න් வி 0.0019274
ඛි வி 0.0003212
හ வி 0.0003212
තේ வி 0.0003212
පී வி 0.0003212
පි வி 0.0006425
පු வி 0.0003212
ප வி 0.0106007
වෛ வி 0.0003212
ස් வி 0.0003212
ක්‍ வி 0.0012849
NULL வி 0.0141343
තැ வி 0.0006425
හේ வி 0.0003212
ක வி 0.0003212
සි வி 0.0003212
ක් வி 0.0012849
ව් வி 0.0170254
බෙ ஹே 0.0013004
හෑ ஹே 0.0091027
තො ஹே 0.0006502
ගේ ஹே 0.0078023
ගැ ஹே 0.0006502
කු ஹே 0.0006502
පො ஹே 0.0006502
ඟේ ஹே 0.0019506
ත් ஹே 0.0032510
හැ ஹே 0.0156047
හෝ ஹே 0.0019506
ටි ஹே 0.0006502
ඹු ஹே 0.0006502
මු ஹே 0.0026008
එ ஹே 0.0006502
ගො ஹே 0.0013004
හ් ஹே 0.0019506
සේ ஹே 0.0006502
ලෝ ஹே 0.0006502
ග ஹே 0.0026008
තෙ ஹே 0.0006502
පු ஹே 0.0013004
ප ஹே 0.0019506
දෙ ஹே 0.0006502
ඹෝ ஹே 0.0006502
න් ஹே 0.0065020
හ ஹே 0.0032510
රා ஹே 0.0006502
තැ ஹே 0.0026008
හේ ஹே 0.8920676
ණි ஹே 0.0006502
ක ஹே 0.0013004
ක් ஹே 0.0013004
ටු ஹே 0.0006502
ප් ஹே 0.0006502
හෙ ஹே 0.0214564
ඟි ஹே 0.0006502
හී ஹே 0.0019506
ස් ஹே 0.0006502
NULL ஹே 0.0052016
ටු டு‍ 1.0000000
ගු ளை 0.0040000
ළු ளை 0.0040000
ම ளை 0.0040000
ච ளை 0.0040000
රී ளை 0.0240000
ච් ளை 0.0040000
බෞ ளை 0.0040000
පෙ ளை 0.0040000
ඛා ளை 0.0080000
හා ளை 0.0040000
ලා ளை 0.0040000
ලෙ ளை 0.0040000
පො ளை 0.0040000
ල් ளை 0.1480000
භ ளை 0.0040000
ක් ளை 0.0040000
යි ளை 0.0040000
ල ளை 0.5440000
යො ளை 0.0040000
ලේ ளை 0.1520000
රු ளை 0.0160000
ටි ளை 0.0080000
ළ ளை 0.0240000
ළෛ ளை 0.0040000
වු ளை 0.0040000
ප් ளை 0.0040000
ං ளை 0.0040000
ඉ ஒ 0.0011587
ටු ஒ 0.0017381
ඇ ஒ 0.0011587
බෝ ஒ 0.0005794
මෙ ஒ 0.0005794
ධී ஒ 0.0005794
ස් ஒ 0.0005794
NULL ஒ 0.4061414
ඹූ ஒ 0.0005794
ප ஒ 0.2734647
පා ஒ 0.0046350
බ ஒ 0.0005794
ළා ஒ 0.0005794
ග ஒ 0.0040556
ඩූ ஒ 0.0005794
මා ஒ 0.0034762
ඕ ஒ 0.0486674
පෙ ஒ 0.0017381
දෙ ஒ 0.0011587
ලා ஒ 0.0005794
ණු ஒ 0.0005794
ස ஒ 0.0005794
ව ஒ 0.0028969
ඔ ஒ 0.1900348
එ ஒ 0.0052144
ශ ஒ 0.0005794
ළ ஒ 0.0028969
ගො ஒ 0.0005794
ඹ් ஒ 0.0011587
වී ஒ 0.0005794
ලො ஒ 0.0005794
හෝ ஒ 0.0005794
ජ ஒ 0.0005794
නි ஒ 0.0063731
ම ஒ 0.0011587
කි ஒ 0.0005794
ඹ ஒ 0.0104287
වැ ஒ 0.0005794
අ ஒ 0.0011587
ට ஒ 0.0057937
ට් ஒ 0.0011587
නා ஒ 0.0005794
කො ஒ 0.0023175
ඔ් ஒ 0.0005794
හො ஒ 0.0046350
යේ ஒ 0.0028969
ත ஒ 0.0023175
හේ ‍‍‍‎‍ 1.0000000
NULL \ 0.5000000
ඇ \ 0.5000000
හෝ ஹொ 0.0588235
හො ஹொ 0.9411765
ඔ கிஓ 0.5000000
ගි கிஓ 0.5000000
මු னா 0.0021529
ණෑ னா 0.0021529
ගෙ னா 0.0010764
NULL னா 0.0043057
ගො னா 0.0032293
නැ னா 0.0064586
නො னா 0.0010764
ඩ னா 0.0010764
ණු னா 0.0010764
නාෙ னா 0.0010764
හේ னா 0.0010764
ණි னா 0.0010764
ක னா 0.0010764
ටා னா 0.0010764
ථි னா 0.0010764
ණා னா 0.0290635
හා னா 0.0010764
ා னா 0.0010764
නේ னா 0.0032293
ණ னா 0.0118407
දූ னா 0.0010764
ද னா 0.0010764
තා னா 0.0021529
ප னா 0.0032293
න னா 0.0602799
නෑ னா 0.0075350
ඤා னா 0.0021529
පි னா 0.0107643
නා னா 0.8331539
ඥා னா 0.0010764
ග னா 0.0021529
ඇ ரே 0.0025773
ටේ ரே 0.0103093
ර ரே 0.0231959
ලො ரே 0.0025773
NULL ரே 0.0077320
එ ரே 0.0077320
රු ரே 0.0051546
රැ ரே 0.0386598
පේ ரே 0.0025773
පා ரே 0.0025773
ලැ ரே 0.0025773
වැ ரே 0.0025773
ල් ரே 0.0025773
ග් ரே 0.0025773
රෙ ரே 0.0231959
රෑ ரே 0.0567010
රේ ரே 0.8067010
ත றா 0.0476190
ර றா 0.0476190
ය றா 0.0238095
වෙ றா 0.0476190
ස றா 0.0476190
ව றா 0.0952381
ඩ්‍ றா 0.0238095
ටා றா 0.0238095
රා றா 0.6428571
නා ண‎ 1.0000000
ඨ ஜூ 0.0204082
ක ஜூ 0.0204082
හු ஜூ 0.0204082
ජූ ஜூ 0.2857143
පු ஜூ 0.0204082
ෂ් ஜூ 0.0204082
ජු ஜூ 0.5714286
චූ ஜூ 0.0204082
ඡු ஜூ 0.0204082
ර ர‍ 1.0000000
හි ஹெ 0.0051493
එ ஹெ 0.0010299
ඹු ஹெ 0.0010299
ගෙ ஹெ 0.0082389
මෝ ஹெ 0.0010299
ඹෙ ஹெ 0.0010299
ත් ஹெ 0.0020597
ව ஹெ 0.0020597
හැ ஹெ 0.3316169
නෙ ஹெ 0.0010299
පො ஹெ 0.0010299
හො ஹெ 0.0010299
හෑ ஹெ 0.0123584
ගේ ஹெ 0.0030896
ම ஹெ 0.0010299
ගැ ஹெ 0.0051493
කැ ஹெ 0.0061792
හෙ ஹெ 0.4325438
හී ஹெ 0.0041195
NULL ஹெ 0.0030896
මැ ஹெ 0.0010299
හේ ஹெ 0.1410917
ඇ ஹெ 0.0051493
හ ஹெ 0.0175077
නේ ஹெ 0.0010299
හා ஹெ 0.0041195
චෛ ஹெ 0.0010299
ඈ ஹெ 0.0010299
ග ஹெ 0.0010299
උ ஹெ 0.0010299
තා ஹெ 0.0010299
ෙ ஹெ 0.0010299
ර් ன். 0.0952381
න් ன். 0.3809524
ත ன். 0.3333333
සි. ன். 0.0476190
න්. ன். 0.0952381
ශා. ன். 0.0476190
ණු ல் 0.0013142
කෙ ல் 0.0000876
ර ல் 0.0009637
ලි ல் 0.0016646
ස ல் 0.0006133
ල්ෙ ல் 0.0001752
යි ல் 0.0001752
ළි ல் 0.0002628
ම ல் 0.0003504
දු ல் 0.0001752
ය ல் 0.0002628
වේ ல் 0.0000876
දි ல் 0.0000876
ද්‍ ல் 0.0006133
ලෑ ல் 0.0004381
ළ් ல் 0.0002628
ණ ல் 0.0002628
ද් ல் 0.0003504
ව් ல் 0.0000876
රි ல் 0.0006133
NULL ல் 0.0122656
ස් ல் 0.0000876
ප් ல் 0.0004381
ඩු ல் 0.0000876
වෙ‍ ல் 0.0000876
ළු ல் 0.0005257
ප ல் 0.0004381
ලා ல் 0.0003504
න් ல் 0.0008761
ඒ ல் 0.0000876
ග් ல் 0.0004381
හ ல் 0.0171719
ත් ல் 0.0007009
ව ல் 0.0127913
ශ් ல் 0.0001752
ල ல் 0.0423165
ඨ ல் 0.0000876
ම් ல் 0.0004381
ණ් ல் 0.0000876
ළ ல் 0.0143683
ඞු ல் 0.0000876
ඩ ல் 0.0054319
ද ல் 0.0006133
ලෛ ல் 0.0000876
න ல் 0.0002628
ට ல் 0.0009637
රී ல் 0.0000876
කො ல் 0.0000876
ධ්‍ ல் 0.0001752
ත ல் 0.0001752
කු ல் 0.0002628
ටු ல் 0.0006133
දො ல் 0.0002628
ඩේ ல் 0.0000876
ල' ல் 0.0001752
ලේ ல் 0.0016646
රු ல் 0.0001752
ල්‍ ல் 0.0010513
ං ல் 0.0003504
ගු ல் 0.0000876
වා ல் 0.0056948
ග ல் 0.0000876
ලු ல் 0.0003504
ඩ් ல் 0.0001752
ල් ல் 0.8683196
ම '' 0.3333333
ධ්‍ '' 0.3333333
ඒ '' 0.3333333
ල ழொ 1.0000000
රු ர் 0.0049972
ඩෝ ர் 0.0005552
මෟ ர் 0.0005552
රො ர் 0.0005552
ර්. ர் 0.0005552
ග ர் 0.0199889
බෞ ர் 0.0005552
වෝ ர் 0.0011105
රෙ ர் 0.0005552
ල් ர் 0.0327596
ඩ් ர் 0.0066630
ව ர் 0.0011105
ත් ர் 0.0044420
ත්‍ ர் 0.0011105
ල ர் 0.0099944
ටා ர் 0.0005552
මි ர் 0.0016657
ම් ர் 0.0049972
ෆෝ ர் 0.0044420
ළ ர் 0.0016657
ඨි ர் 0.0005552
ඩ ர் 0.0022210
ටැ ர் 0.0011105
නි ர் 0.0277624
ට ர் 0.0016657
ට්‍ ர் 0.0005552
රී ர் 0.0027762
බ් ர் 0.0005552
ත ர் 0.0011105
ද් ர் 0.0011105
රා ர் 0.0044420
රි ர் 0.0116602
ක ர் 0.0133259
ෆො ர் 0.0005552
NULL ர் 0.0183232
ස් ர் 0.0038867
යා ர் 0.0005552
සැ ர் 0.0005552
මෘ ர் 0.0105497
ධ ர் 0.0005552
ළු ர் 0.0005552
පි ர் 0.0005552
ලෝ ர் 0.0011105
ෂ්‍ ர் 0.0005552
න් ர் 0.0061077
ලා ர் 0.0044420
හ ர் 0.0277624
ර ர் 0.0982787
ලි ர் 0.0133259
ස ர் 0.0049972
තු ர் 0.0011105
ටි ர் 0.0022210
ගො ர் 0.0011105
ති ர் 0.0005552
ප්‍ ர் 0.0005552
ඹ් ர் 0.0005552
වී ர் 0.0022210
ම ர் 0.0083287
දු ர் 0.0005552
වි ர் 0.0005552
ය ர் 0.0294281
ට් ர் 0.0083287
ච් ர் 0.0005552
නා ர் 0.0005552
ෆ ர் 0.0016657
දි ர் 0.0005552
ර් ர் 0.5774570
ටී ர் 0.0011105
ද්‍ ர் 0.0022210
NULL ல 0.0045441
මැ ல 0.0001150
ණි ல 0.0002301
ක ல 0.0024159
ද් ல 0.0001150
ලා ல 0.0056946
න් ல 0.0001150
දෙ ல 0.0000575
පෙෙ ல 0.0000575
ලෝ ல 0.0001150
බ ல 0.0000575
ප ல 0.0002301
ළු ல 0.0006327
උ ல 0.0000575
වී ல 0.0000575
ති ல 0.0000575
ළො ல 0.0014380
ළි ல 0.0000575
ර ல 0.0006327
ලි ல 0.0018982
ස ல 0.0101237
ණු ல 0.0001726
ණ ல 0.0001150
ඳ ல 0.0000575
ර් ல 0.0000575
නෙ ல 0.0000575
ලෑ ல 0.0014955
ඨා ல 0.0001150
රේ ல 0.0000575
සු ல 0.0001150
ආ ல 0.0000575
නා ல 0.0002876
ට් ல 0.0001150
ය ல 0.0006903
දූ ல 0.0000575
ම ல 0.0011504
ගා ல 0.0001150
ං ல 0.0025884
ළෙ ல 0.0001150
ලේ ல 0.0046592
තෝ ல 0.0000575
නේ ல 0.0000575
ල් ல 0.0124245
අෙ ல 0.0000575
රෙ ல 0.0000575
ලෙ ல 0.0018982
ජා ல 0.0000575
ග ல 0.0005752
වා ல 0.0002301
ලු ல 0.0004602
ළා ல 0.0002301
ලැ ல 0.0030486
ඩ ல 0.0012655
ලො ல 0.0012655
වු ல 0.0001150
ළ ல 0.0727639
ම් ல 0.0002876
එ ல 0.0000575
ල ல 0.8476848
ව ல 0.0021858
ත් ல 0.0004602
රා‍ ல 0.0000575
කු ல 0.0001726
නු ல 0.0000575
ත ல 0.0004026
ළේ ல 0.0001150
ට ல 0.0008053
අ ல 0.0006327
න ல 0.0097210
ද ல 0.0018407
නි ல 0.0001726
ච්. ச். 0.5555556
ම්. ச். 0.1111111
ස්. ச். 0.3333333
කා காே 1.0000000
නා ணா‍ 1.0000000
නේ ணெ 0.2500000
ත ணெ 0.2500000
නැ ணெ 0.2500000
ප ணெ 0.2500000
හෝ ‍‍‍‍‍‎‍ 1.0000000
ධ த் 0.0014136
ජ් த் 0.0001488
ඳු த் 0.0005208
තෛ த் 0.0000744
තේ த் 0.0010416
න් த் 0.0061007
ග් த் 0.0001488
හ த் 0.0002976
ද් த் 0.0853359
ක් த் 0.0014880
ත‍ த் 0.0000744
තැ த் 0.0000744
NULL த் 0.0389108
ස් த் 0.0001488
ක්‍ த் 0.0002232
පෘ த் 0.0003720
ඳේ த் 0.0000744
ඩා த் 0.0000744
මෘ த் 0.0001488
දු த் 0.0010416
වි த் 0.0001488
ට් த் 0.0005208
තො த் 0.0000744
ථ த் 0.0011160
නා த் 0.0006696
දි த் 0.0004464
ද්‍ த் 0.0063239
ඳ த் 0.0003720
කෙ த் 0.0000744
තෑ த் 0.0001488
හැ த் 0.0000744
ද්් த் 0.0000744
ස த் 0.0003720
ද්ෙ த் 0.0002232
යි த் 0.0000744
තු த் 0.0272301
ශ த் 0.0002976
ටි த் 0.0004464
ති த் 0.0090767
ගො த் 0.0003720
ජ த் 0.0000744
පා த் 0.0000744
රැ த் 0.0000744
ග த் 0.0001488
පෙ த் 0.0000744
ලෙ த் 0.0001488
ඩ් த் 0.0011160
ති‍ த் 0.0000744
ල් த் 0.0005952
රෝ த் 0.0033480
තෝ த் 0.0003720
රු த் 0.0000744
ං த் 0.0002976
තී த் 0.0003720
ගා த் 0.0000744
ද த் 0.0014880
නි த் 0.0001488
තෟ த் 0.0000744
ටැ த் 0.0002976
න த் 0.0000744
ට த் 0.0003720
අ த் 0.0000744
ධ්‍ த் 0.0031992
ත த் 0.2258761
රා‍ த் 0.0000744
දේ த் 0.0001488
ව த் 0.0001488
වෙ த் 0.0000744
ත් த் 0.5687821
ත්‍ த் 0.0039432
ල த் 0.0000744
ම් த் 0.0001488
ණ් த் 0.0002232
ධ් த் 0.0018600
" த் 0.0000744
ත‍‍ த் 0.0000744
වු யௌ 0.2500000
යො யௌ 0.7500000
ම ி 1.0000000
ගා பூ 0.0113208
බූ பூ 0.0415094
පූ பூ 0.1547170
ඹු பூ 0.0075472
භු பூ 0.0075472
ස பூ 0.0037736
ල් பூ 0.0113208
ඩ් பூ 0.0301887
ර් பூ 0.0037736
හූ பூ 0.0037736
බු பூ 0.0716981
ලු பூ 0.0037736
සු பூ 0.0037736
අ பூ 0.0037736
පා பூ 0.0188679
භූ பூ 0.0528302
ම பூ 0.0075472
උ பூ 0.3509434
පු பூ 0.2113208
ම් ம்‎ 1.0000000
තා தா‍ 1.0000000
ඇ .. 0.0128205
ඉ .. 0.0128205
ජී. .. 0.0128205
ජේ. .. 0.0128205
ස් .. 0.0641026
යි. .. 0.0128205
බ්. .. 0.0128205
බී. .. 0.0256410
ර්. .. 0.0512821
ඒ .. 0.0128205
ඩි .. 0.0128205
ද. .. 0.0256410
ඒ. .. 0.0256410
යි .. 0.0128205
ච්. .. 0.0256410
ඉ. .. 0.0128205
ම්. .. 0.0128205
සී .. 0.0128205
ස .. 0.0256410
ඩ .. 0.0128205
එ .. 0.1923077
ම් .. 0.0256410
ළ .. 0.0128205
අ .. 0.0384615
ආ .. 0.0641026
තො .. 0.0128205
නි .. 0.0128205
දු .. 0.0128205
ෆ්. .. 0.0128205
සී. .. 0.0256410
ස්. .. 0.0769231
ර් .. 0.0384615
ඩි. .. 0.0256410
පී. .. 0.0256410
කො .. 0.0128205
ස ம. 0.2000000
කො ம. 0.2000000
ද ம. 0.2000000
මැ ம. 0.2000000
ට ம. 0.2000000
ටි டி. 0.0909091
ට් டி. 0.0909091
ඩී. டி. 0.4545455
ඩි. டி. 0.1818182
ටී. டி. 0.1818182
ජී. ஜீ. 0.2500000
ජි. ஜீ. 0.5000000
පී ஜீ. 0.2500000
NULL தே. 1.0000000
ළු ழூ 0.5000000
ලු ழூ 0.5000000
සො சோ 1.0000000
සේ போ 0.0010787
දා போ 0.0010787
වේ போ 0.0010787
බ போ 0.0032362
ප போ 0.0010787
ම போ 0.0021575
පො போ 0.0636462
ඹෝ போ 0.0107875
බො போ 0.0463862
බා් போ 0.0010787
බේ போ 0.0010787
ඹො போ 0.0010787
බ් போ 0.0010787
කො போ 0.0010787
ෆ போ 0.0032362
ඔ போ 0.0010787
ක போ 0.0010787
ෆො போ 0.0021575
පෝ போ 0.1121899
ත් போ 0.0021575
බෝ போ 0.0010787
හි போ 0.0010787
‍‍ போ 0.0010787
නො போ 0.0010787
බූ போ 0.0010787
NULL போ 0.0010787
ෆෝ போ 0.0323625
බෝ போ 0.7011866
පූ போ 0.0010787
මු போ 0.0010787
බ්. .... 0.1428571
ආ .... 0.1428571
ඩ .... 0.1428571
ස්. .... 0.1428571
ර්. .... 0.1428571
ඩි .... 0.1428571
එ .... 0.1428571
ශි ஷீ 0.2500000
ෂී ஷீ 0.5000000
ෂි ஷீ 0.2500000
හෝ கோ 0.0131712
ගො கோ 0.1337386
ළ கோ 0.0010132
ගො கோ 0.0010132
මි கோ 0.0020263
එ கோ 0.0010132
ඔ கோ 0.0121581
කො‍් கோ 0.0010132
ලි கோ 0.0030395
ව கோ 0.0010132
දේ கோ 0.0030395
පො கோ 0.0010132
කු கோ 0.0081054
රේ கோ 0.0010132
හො கோ 0.0060790
කො கோ 0.1286727
ට கோ 0.0010132
ඹ கோ 0.0010132
නි கோ 0.0010132
ගා கோ 0.0010132
කෝ கோ 0.3272543
කෲ கோ 0.0010132
චි கோ 0.0010132
NULL கோ 0.0040527
බ්‍ கோ 0.0010132
ක கோ 0.0081054
හේ கோ 0.0010132
රා கோ 0.0010132
රෝ கோ 0.0010132
සෝ கோ 0.0040527
න් கோ 0.0010132
දෙ கோ 0.0010132
ඕ கோ 0.0081054
ග கோ 0.0040527
ගෝ கோ 0.2867275
පි கோ 0.0020263
ෙ கோ 0.0010132
යු கோ 0.0050659
ප கோ 0.0151976
ගු கோ 0.0040527
උ கோ 0.0010132
ඔ ப‍ 1.0000000
ඩ டே 0.0294118
ටෙ டே 0.0392157
ම් டே 0.0196078
මි டே 0.0032680
NULL டே 0.0032680
ඩේ டே 0.2843137
ටේ டே 0.4019608
ල டே 0.0032680
දේ டே 0.0032680
සී டே 0.0032680
ටෑ டே 0.0359477
දෙ டே 0.0130719
ඩ් டே 0.0032680
කො டே 0.0130719
මී டே 0.0098039
ඩි டே 0.0032680
ට டே 0.0196078
ඩෙ டே 0.0130719
ටැ டே 0.0163399
ඩැ டே 0.0326797
ද டே 0.0032680
ඬේ டே 0.0261438
ඩෑ டே 0.0196078
යො யோஓ 0.5000000
ඔ யோஓ 0.5000000
ල லா‎ 1.0000000
යෝ னோ 0.0147059
තො னோ 0.0147059
නා னோ 0.0147059
ඔ னோ 0.0588235
නෝ னோ 0.5147059
න னோ 0.0147059
නො னோ 0.1176471
න් னோ 0.1029412
ං னோ 0.0147059
ඕ னோ 0.0735294
ගො னோ 0.0294118
ණෝ னோ 0.0294118
රි ரீ 0.2281022
බෟ ரீ 0.0018248
‍ ரீ 0.0018248
ට්‍ ரீ 0.0018248
රී ரீ 0.7445255
ච ரீ 0.0018248
ර ரீ 0.0054745
දේ ரீ 0.0018248
ශී‍්‍ ரீ 0.0018248
NULL ரீ 0.0018248
රේ ரீ 0.0054745
රු ரீ 0.0018248
ම් ரீ 0.0018248
ඩ டை 0.6241611
යා டை 0.0026846
NULL டை 0.0026846
' டை 0.0013423
ලේ டை 0.0013423
ල டை 0.0080537
රි டை 0.0013423
යි டை 0.0161074
ශු டை 0.0013423
ටේ டை 0.0483221
ඩේ டை 0.0778523
ර டை 0.0013423
ව டை 0.0684564
ද් டை 0.0013423
ණු டை 0.0080537
ටු டை 0.0013423
ණ டை 0.0013423
ත டை 0.0013423
ඩි டை 0.0013423
කො டை 0.0013423
දා டை 0.0053691
ට டை 0.1087248
බ டை 0.0013423
න டை 0.0013423
ය டை 0.0013423
ම டை 0.0040268
පු டை 0.0013423
සා டை 0.0053691
ඔ ல்ஓ 0.3571429
ල් ல்ஓ 0.4857143
ළු ல்ஓ 0.0142857
ඕ ல்ஓ 0.0857143
ඹ ல்ஓ 0.0571429
කු யி 0.0003045
රේ யி 0.0015225
යේ யி 0.0009135
කො யி 0.0054811
පී. யி 0.0003045
තො யி 0.0009135
ව්‍ யி 0.0012180
වි யி 0.0006090
න யி 0.1729598
ය யி 0.0158343
ද யி 0.1729598
ජ யி 0.1610840
හි யி 0.0009135
වී யி 0.0009135
ඩ யி 0.0185749
ගො யி 0.0006090
ළ யி 0.0030451
ම් யி 0.0006090
එ யி 0.0018270
ළි யி 0.0003045
යෝ யி 0.0003045
යි யி 0.0453715
ර யி 0.0012180
ලි யி 0.0027406
භා யி 0.0006090
ව யி 0.0015225
ස யி 0.0012180
කෙ யி 0.0015225
ධි யி 0.0015225
ඩ් யி 0.0003045
ල් யி 0.0006090
ඡ யி 0.0118758
රෙ யி 0.0009135
පෙ யி 0.0003045
පෙෙ யி 0.0003045
හා யி 0.0006090
මා யி 0.0006090
තේ யி 0.0060901
වා யி 0.0012180
ඩූ யி 0.0003045
ග யி 0.0015225
බ யி 0.0006090
පා யி 0.0015225
ෙ யி 0.0009135
ප யி 0.1750914
චෙ யி 0.0006090
තෙ யி 0.0003045
ං யி 0.0003045
යා யி 0.0006090
NULL யி 0.1699147
ධා யி 0.0003045
සි யி 0.0006090
රි யி 0.0006090
භ්‍ யி 0.0006090
ඉ யி 0.0063946
බු சூ 0.0070922
NULL சூ 0.0070922
ස් சூ 0.0070922
ඒ சூ 0.0070922
ෂූ சூ 0.0070922
චු சூ 0.0141844
ල් சூ 0.0070922
සූ சூ 0.5035461
ලි சூ 0.0212766
ශු சூ 0.0070922
සු சூ 0.4113475
ග ஜி 0.0066667
ලි ஜி 0.0266667
ජි ஜி 0.8066667
ෂි ஜி 0.0066667
ජ් ஜி 0.0266667
ධි ஜி 0.0200000
ඡි ஜி 0.0133333
ජ ஜி 0.0200000
පී ஜி 0.0066667
ගි ஜி 0.0400000
ජේ ஜி 0.0066667
ජී ஜி 0.0200000
ව வூ 0.0227273
ස් வூ 0.0227273
වු வூ 0.7954545
NULL வூ 0.0227273
ග් வூ 0.0227273
වූ வூ 0.1136364
ඔ கெஓ 0.5000000
ගෙ கெஓ 0.5000000
යේ தை 0.0005023
රේ தை 0.0002511
දි தை 0.0002511
ත தை 0.9309392
ර් தை 0.0002511
න தை 0.0012557
ය தை 0.0052737
ද தை 0.0153189
ට් தை 0.0012557
ඹේ தை 0.0002511
ළ தை 0.0020090
යෙ தை 0.0005023
ර தை 0.0266198
වෙ தை 0.0002511
ත් தை 0.0002511
ල தை 0.0007534
ඨ தை 0.0002511
ඉ. தை 0.0002511
යි தை 0.0007534
ද. தை 0.0002511
තෛ தை 0.0012557
තේ தை 0.0010045
.. தை 0.0002511
දෙ தை 0.0005023
තා தை 0.0005023
තෙ தை 0.0002511
ග தை 0.0010045
හ් தை 0.0002511
රැ தை 0.0002511
NULL தை 0.0040181
ව් தை 0.0010045
ක් தை 0.0002511
ක தை 0.0015068
තැ தை 0.0005023
ඔ லஓ 0.2727273
ල් லஓ 0.0909091
ල லஓ 0.3636364
ලෝ லஓ 0.0909091
ඕ லஓ 0.1818182
ව லெ 0.0019342
ළෑ லெ 0.0019342
ලි லெ 0.0038685
ර லெ 0.0038685
මැ லெ 0.0019342
ඇ லெ 0.0058027
ල லெ 0.0638298
ළි லெ 0.0019342
රා லெ 0.0019342
ළො லெ 0.0019342
ළ லெ 0.0096712
NULL லெ 0.0038685
එ லெ 0.0019342
ලේ லெ 0.0618956
ධා லெ 0.0019342
යා லெ 0.0019342
ලැ லெ 0.3230174
ද லெ 0.0038685
බෙ லெ 0.0019342
ලු லெ 0.0019342
ලෝ லெ 0.0019342
අ லெ 0.0038685
පි லெ 0.0019342
පී லெ 0.0019342
ළේ லெ 0.0019342
ඕ லெ 0.0019342
ල් லெ 0.0038685
ළ් லெ 0.0019342
ලෙ லெ 0.4100580
ලෑ லெ 0.0676983
ලා லெ 0.0019342
මො மொ 0.9677419
හි மொ 0.0322581
ලි லி் 1.0000000
යි யை 0.1428571
ට யை 0.1428571
ය யை 0.2857143
ස யை 0.1428571
බී யை 0.1428571
කො யை 0.1428571
සූ ஸூ 0.2857143
සු ஸூ 0.1428571
ස් ஸூ 0.2857143
ජි ஸூ 0.2857143
වී. வீ. 1.0000000
නා னா‎ 1.0000000
ල இ 0.0004442
ව இ 0.0128832
භා இ 0.0004442
ස இ 0.0039982
ර இ 0.0319858
ක... இ 0.0004442
ඊ இ 0.0017770
හි இ 0.0182141
ප්‍ இ 0.0004442
ගෙ இ 0.0079964
බී இ 0.0004442
මු இ 0.0013327
ටි இ 0.0004442
එ இ 0.0008885
යො இ 0.0004442
මි இ 0.0004442
බැ இ 0.0004442
අ இ 0.0270991
ය இ 0.0035540
න இ 0.0022212
වි இ 0.0008885
ම இ 0.0079964
දු இ 0.0008885
නි இ 0.0755220
නො. இ 0.0013327
ත இ 0.0071080
දෑ இ 0.0004442
කො இ 0.0022212
ක இ 0.0026655
සි இ 0.0013327
ඇ இ 0.0013327
දො இ 0.0004442
රා இ 0.0106619
ඉ இ 0.6290538
ෂි இ 0.0004442
නැ இ 0.0004442
ප් இ 0.0004442
NULL இ 0.0226566
මෙ இ 0.0013327
හී இ 0.0008885
ලේ இ 0.0004442
බෞ இ 0.0004442
ග இ 0.0004442
වා இ 0.0004442
බ இ 0.0004442
ශ්‍ இ 0.0013327
පි இ 0.0008885
රැ இ 0.0022212
ෙ இ 0.0004442
ප இ 0.0026655
යු இ 0.0022212
භූ இ 0.0004442
පු இ 0.0004442
උ இ 0.0013327
ල් இ 0.0004442
හ இ 0.0008885
දෙ இ 0.0097734
පෙ இ 0.0906264
හේ நே 0.0111111
නා நே 0.0222222
සේ நே 0.0111111
නෑ நே 0.3666667
ණේ நே 0.0333333
න நே 0.0111111
ව් நே 0.0333333
නේ நே 0.3000000
නැ நே 0.1111111
නෙ நே 0.0777778
හා நே 0.0111111
ණෑ நே 0.0111111
පැ போ‎ 1.0000000
ඩෙ eell 0.1250000
ල eell 0.1250000
ප eell 0.1250000
වි eell 0.1250000
ල් eell 0.1250000
මි eell 0.1250000
සෙ eell 0.1250000
ගො eell 0.1250000
ඔ ளிஓ 0.1666667
ඕ ளிஓ 0.3333333
ලි ளிஓ 0.5000000
ටී. ரீ. 1.0000000
සී சீ' 1.0000000
රි ரி‎ 1.0000000
නා நாஓ 0.5000000
ඔ நாஓ 0.5000000
ඉ கீ 0.0407080
ස கீ 0.0035398
මැ கீ 0.0017699
ඇ கீ 0.0017699
හී கீ 0.0106195
මෙ கீ 0.0017699
ක්‍ கீ 0.0017699
ගි கீ 0.0053097
ගෙ கீ 0.0017699
NULL கீ 0.0053097
බී கீ 0.0017699
ප් கீ 0.0017699
ඩ கீ 0.0070796
හි கீ 0.0017699
යෙ கீ 0.0017699
කි கீ 0.0283186
ප கீ 0.6778761
ලෝ கீ 0.0035398
ගී கீ 0.0283186
කො கீ 0.0017699
ඒ கீ 0.0017699
ත கீ 0.0017699
කී கீ 0.1681416
ඩා டாஓ 0.5000000
ඔ டாஓ 0.5000000
බී. பி. 1.0000000
ගැ : 0.5000000
වෑ : 0.5000000
බෝ பொ 0.0312500
බො பொ 0.2656250
පො பொ 0.6171875
න්ෙ பொ 0.0078125
ප பொ 0.0156250
ය பொ 0.0078125
බ பொ 0.0234375
රැ பொ 0.0156250
පෝ பொ 0.0078125
බෙ பொ 0.0078125
ස சே 0.0196629
හේ சே 0.0365169
ඩේ சே 0.0028090
ජේ சே 0.0028090
ස් சே 0.0140449
සෙ சே 0.0337079
ශ சே 0.0056180
බෝ சே 0.0028090
සැ சே 0.0056180
ශේ சே 0.0056180
ෙ சே 0.0028090
ප சே 0.0028090
චෙ சே 0.0028090
චේ சே 0.0477528
සේ சே 0.7556180
අ சே 0.0028090
වේ சே 0.0028090
ශ්‍ சே 0.0056180
යේ சே 0.0028090
සෑ சே 0.0393258
ණ சே 0.0028090
ඒ சே 0.0028090
න් ன்' 0.5000000
ට් ன்' 0.5000000
රා ஜா 0.0055556
ජා ஜா 0.8500000
ඡා ஜா 0.0055556
NULL ஜா 0.0055556
බි. ஜா 0.0055556
ඡ ஜா 0.0055556
ජ ஜா 0.1166667
ජැ ஜா 0.0055556
ශ්‍ ஷ் 0.0246914
රී ஷ் 0.0123457
ශ් ஷ் 0.1851852
ක් ஷ் 0.0123457
ෂ් ஷ் 0.3580247
ජි ஷ் 0.0123457
ජ ஷ் 0.0123457
ස් ஷ் 0.3703704
NULL ஷ் 0.0123457
හෙ ஷெ 0.1428571
ෂැ ஷெ 0.2857143
ෂෙ ஷெ 0.4285714
ෂෝ ஷெ 0.1428571
මි ம்‍ 0.3333333
ම් ம்‍ 0.6666667
ව ஐ 0.0416667
ප ஐ 0.0625000
ඉ ஐ 0.0208333
අ ஐ 0.3125000
යි ஐ 0.3750000
ගෙ ஐ 0.0208333
එ ஐ 0.0208333
ජ ஐ 0.0416667
හ ஐ 0.1041667
නෙ ஹி 0.0008183
ල් ஹி 0.0016367
ග්‍ ஹி 0.0008183
පි ஹி 0.0016367
අ ஹி 0.0008183
හු ஹி 0.0016367
ශ්‍ ஹி 0.0008183
රී ஹி 0.0008183
හ් ஹி 0.0024550
භි ஹி 0.0008183
කි ஹி 0.0024550
ගු ஹி 0.0008183
නි ஹி 0.0024550
වි ஹி 0.0008183
හි ஹி 0.9255319
ඹි ஹி 0.0008183
හී ஹி 0.0245499
මි ஹி 0.0008183
ඟි ஹி 0.0016367
NULL ஹி 0.0040917
ගි ஹி 0.0122750
කූ ஹி 0.0008183
සි ஹி 0.0016367
රි ஹி 0.0016367
ක ஹி 0.0016367
ෂි ஹி 0.0008183
ඉ ஹி 0.0016367
ර ஹி 0.0008183
හැ ஹி 0.0024550
ෂ ஷே 0.2000000
ෂෙ ஷே 0.2000000
හේ ஷே 0.2000000
ෂේ ஷே 0.4000000
ඕ. ஓ. 1.0000000
ග கா் 0.3333333
ර கா் 0.3333333
ය கா் 0.3333333
ටෙ ஆ 0.0014124
මො ஆ 0.0028249
ළ ஆ 0.0014124
වු ஆ 0.0028249
එ ஆ 0.0014124
මෝ ஆ 0.0240113
ල ஆ 0.0042373
වෙ ஆ 0.0056497
ව ஆ 0.0367232
අි ஆ 0.0014124
ත ஆ 0.0014124
කො ஆ 0.0014124
ආ ஆ 0.7175141
අ ஆ 0.0522599
වැ ஆ 0.0042373
කෝ ஆ 0.0042373
ගා ஆ 0.0042373
ඌ ஆ 0.0014124
NULL ஆ 0.0056497
ක ஆ 0.0042373
සි ஆ 0.0014124
ඇ ஆ 0.0310734
රෝ ஆ 0.0141243
හ ஆ 0.0155367
දෙ ஆ 0.0084746
ඒ ஆ 0.0014124
හා ஆ 0.0098870
මා ஆ 0.0028249
ඩි ஆ 0.0014124
ඖ ஆ 0.0014124
ග ஆ 0.0028249
ඈ ஆ 0.0014124
පි ஆ 0.0056497
ප ஆ 0.0225989
ගු ஆ 0.0014124
ත டி 0.0015862
ධ්‍ டி 0.0003525
කො டி 0.0003525
ට டி 0.0084596
ට්‍ டி 0.0015862
අ டி 0.0008812
න டி 0.0014099
ඞි டி 0.0001762
පේ டி 0.0001762
ද டி 0.0109270
නි டி 0.0047585
ඬි டி 0.0081072
ඩ டி 0.0015862
ළ டி 0.0031724
ම් டி 0.0015862
ල டி 0.0040536
ත් டி 0.0005287
ව டி 0.0010575
ධි டி 0.0019387
ල් டி 0.0001762
ඩ් டி 0.0051110
ඩී டி 0.0019387
ඡ டி 0.0068735
ලෙ டி 0.0001762
රෙ டி 0.0001762
ටිෙ டி 0.0003525
මා டி 0.0001762
වා டி 0.0005287
ඳි டி 0.0005287
ඩිා டி 0.0001762
ගා டி 0.0003525
කේ டி 0.0003525
චි டி 0.0005287
බෝ டி 0.0003525
ටු டி 0.0005287
ටී. டி 0.0001762
ටී டி 0.0014099
දි டி 0.0139232
නා டி 0.0001762
ට් டி 0.0056398
වේ டி 0.0001762
ස්. டி 0.0003525
වි டி 0.0010575
ය டி 0.0504054
ඩ්‍ டி 0.0007050
ම டி 0.0010575
ජ டி 0.1238985
වී டி 0.0001762
ති டி 0.0017624
ටි டி 0.5948185
ර டி 0.0072259
ස டி 0.0091646
ලි டி 0.0003525
ඟ டி 0.0001762
ඊ டி 0.0001762
දී டி 0.0001762
න් டி 0.0003525
දෙ டி 0.0008812
ඩි டி 0.0999295
ලෝ டி 0.0003525
බ டி 0.0001762
භූ டி 0.0001762
ඩු டி 0.0007050
ජ් டி 0.0001762
NULL டி 0.0091646
ධී டி 0.0001762
සි டி 0.0001762
රි டி 0.0001762
හේ டி 0.0003525
ණි டி 0.0026436
රා டி 0.0001762
ටෑ டி 0.0001762
ව් டி 0.0001762
න් ங்‎ 0.1000000
ං ங்‎ 0.8000000
නා ங்‎ 0.1000000
පා வீி 0.3333333
ම வீி 0.6666667
නෝ ணொ 1.0000000
ලි லீ 0.2698413
ල් லீ 0.0317460
ලී லீ 0.6984127
ඩී. டீ. 0.7777778
ඩි. டீ. 0.1111111
ටී. டீ. 0.1111111
යා ஹு 0.0026178
කු ஹு 0.0026178
හ ஹு 0.0078534
හි ஹு 0.0026178
ගි ஹு 0.0052356
හො ஹு 0.0026178
හූ ஹு 0.0104712
NULL ஹு 0.0026178
හු ஹு 0.8952880
තු ஹு 0.0052356
උ ஹு 0.0026178
ගු ஹு 0.0130890
ද ஹு 0.0026178
ඟු ஹு 0.0392670
හැ ஹு 0.0052356
ළු ழுஓ 0.2500000
ඔ ழுஓ 0.5000000
ලු ழுஓ 0.2500000
ඩා வ் 0.0030303
ප් வ் 0.0030303
වී வ் 0.0060606
බ්‍ வ் 0.0030303
ඹු வ் 0.0030303
NULL வ் 0.0030303
ණ් வ் 0.0030303
වු வ் 0.0545455
ද් வ் 0.0030303
ව් வ் 0.7606061
ර வ் 0.0030303
වෙ வ் 0.0090909
ව வ் 0.0181818
කෞ வ் 0.0030303
ල් வ் 0.0030303
ඩි வ் 0.0030303
කො வ் 0.0090909
බ් வ் 0.0212121
ව්‍ வ் 0.0212121
වේ வ் 0.0030303
ජා வ் 0.0030303
ච් வ் 0.0090909
ෆ් வ் 0.0030303
ග வ் 0.0060606
ද வ் 0.0090909
රො வ் 0.0030303
වි வ் 0.0303030
සෝ ஸோ 1.0000000
ඕ ன்ஓ 0.0416667
න ன்ஓ 0.0416667
න් ன்ஓ 0.3333333
ං ன்ஓ 0.1250000
ඔ ன்ஓ 0.4583333
රේ போ‍ 1.0000000
ල්. ல். 0.6000000
මැ ல். 0.2000000
ද ல். 0.2000000
ග ழ் 0.0009542
ට ழ் 0.0677481
ෙ ழ் 0.0009542
ප ழ் 0.0038168
ද ழ் 0.0009542
ල් ழ் 0.0028626
හ ழ் 0.3835878
ඒ ழ் 0.0009542
ර් ழ் 0.0019084
ත ழ் 0.0009542
කො ழ் 0.0677481
රි ழ் 0.0009542
ල ழ் 0.2213740
රෝ ழ் 0.0009542
ස ழ் 0.0677481
ව ழ் 0.0028626
ළ ழ் 0.1660305
වු ழ் 0.0038168
NULL ழ் 0.0028626
මෙ ழ் 0.0009542
උ ஸு 0.0185185
ස් ஸு 0.0370370
ස ஸு 0.0185185
ශු ஸு 0.0185185
ල ஸு 0.0185185
සු ஸு 0.8703704
සූ ஸு 0.0185185
ළො கொ‎ 0.2500000
ලො கொ‎ 0.2500000
ගො கொ‎ 0.5000000
බේ பை 0.0769231
ණ් பை 0.0256410
ඹේ பை 0.0256410
ෆ பை 0.0256410
ගා பை 0.0256410
ප பை 0.0769231
පේ பை 0.0512821
භා பை 0.4615385
භ பை 0.0256410
ඹ பை 0.0256410
බෙ பை 0.0256410
සි பை 0.0256410
යි பை 0.1282051
බු பௌ 0.0400000
වු பௌ 0.1200000
බෙෘ பௌ 0.0400000
බා பௌ 0.0400000
ව් பௌ 0.0400000
ප பௌ 0.1200000
බ பௌ 0.0800000
බෞ பௌ 0.4800000
ඔ பௌ 0.0400000
ද டு 0.0081967
දූ டு 0.0028510
දු டு 0.0163934
ම டு 0.0014255
නි டு 0.0017819
ට டு 0.0046329
ඬු டு 0.0135424
ර டு 0.0028510
ලි டு 0.0007128
ව டு 0.0135424
ස டு 0.0035638
තු டு 0.0021383
ටේ டு 0.0003564
ළි டு 0.0003564
ගෙ டு 0.0007128
ගො டு 0.0007128
වු டு 0.0010691
ටුෙ டு 0.0003564
ථා டு 0.0007128
ටි டு 0.0003564
ඹු டு 0.0007128
ලො டு 0.0003564
ඩ டு 0.0117605
ඞු டு 0.0003564
කා டு 0.0039202
ඳු டு 0.0024947
පා டு 0.0003564
ප டு 0.0003564
ඩු டு 0.3221668
ළු டு 0.0032074
ග டு 0.0003564
ඩූ டு 0.0003564
දා டு 0.0007128
වා டு 0.0481112
ලු டு 0.0028510
පි டு 0.0010691
බු டு 0.0010691
ල් டு 0.0010691
ඩ් டு 0.0007128
බි டு 0.0003564
න් டு 0.0007128
ධු டு 0.0003564
ද් டு 0.0003564
ටු டு 0.5110478
රි டு 0.0007128
ඩො டு 0.0007128
රා டு 0.0003564
' டு 0.0003564
NULL டு 0.0049893
ක්‍ டு 0.0003564
ං டு 0.0003564
ඩා டு 0.0007128
පෘ டு 0.0003564
ලු வஓ 0.5000000
ඔ வஓ 0.5000000
චෛ வெ 0.0002282
බේ வெ 0.0013692
බෑ வெ 0.0002282
බු வெ 0.0004564
මී வெ 0.0002282
නේ வெ 0.0004564
බි வெ 0.0004564
හ வெ 0.0004564
ල් வெ 0.0006846
ඒ வெ 0.0002282
ලෙ வெ 0.0002282
දෙ வெ 0.0006846
වො வெ 0.0002282
වෙ‍ வெ 0.0002282
පු வெ 0.0002282
ග வெ 0.0031949
ලෝ வெ 0.0002282
වා வெ 0.0052487
පි வெ 0.0006846
NULL வெ 0.0027385
ධී வெ 0.0002282
කැ வெ 0.0002282
ප් வெ 0.0002282
ළෑ வெ 0.0002282
ටෑ வெ 0.0002282
ව් வெ 0.0022821
ඇ வெ 0.0011410
සි வெ 0.0004564
ඹෑ வெ 0.0002282
මැ வெ 0.0004564
දෑ வெ 0.0002282
යේ வெ 0.0002282
රා‍ வெ 0.0002282
ලෑ வெ 0.0013692
වි வெ 0.0079872
වෑ வெ 0.0082154
වැ வெ 0.5746235
බැ வெ 0.0038795
බෙ வெ 0.0038795
වේ வெ 0.0200822
ගො வெ 0.0011410
වු வெ 0.0002282
මු வெ 0.0004564
හි வெ 0.0002282
වී வெ 0.0002282
දැ வெ 0.0002282
තෑ வெ 0.0002282
ස வெ 0.0002282
ලි வெ 0.0002282
ව வெ 0.0399361
වෙ வெ 0.3117298
ල வெ 0.0002282
ශී ஷி 0.0333333
ත ஷி 0.0333333
යා ஷி 0.0333333
ල් ஷி 0.0333333
ෂි ஷி 0.5666667
උ ஷி 0.0333333
ශි ஷி 0.1333333
ප ஷி 0.0333333
ශ් ஷி 0.0333333
ශ්‍ ஷி 0.0333333
සි ஷி 0.0333333
ක් கு 0.0046520
සි கு 0.0001861
ක கு 0.0042799
කූ கு 0.0065128
NULL கு 0.0251210
ක්‍ கு 0.0001861
ස් கு 0.0128396
පූ கு 0.0001861
නැ கு 0.0022330
ඳු கு 0.0001861
ප கு 0.0024191
පි கு 0.0001861
ග් கு 0.0011165
හ கு 0.0148865
ලා கு 0.0001861
කෘ கு 0.0005582
ර கு 0.0673614
ගූ கு 0.0001861
ලි கு 0.0001861
ස கு 0.0007443
ඟ கு 0.0003722
කෙ கு 0.0001861
ණු கு 0.0007443
සී கு 0.0003722
තු கு 0.0053964
ති கு 0.0001861
ටි கு 0.0003722
ජ கு 0.1317454
හි கு 0.0288426
ය கு 0.0009304
දූ கு 0.0001861
ඹ கு 0.0001861
වැ கு 0.0007443
සා கு 0.0001861
ම கு 0.0003722
ට් கு 0.0001861
ග්‍ கு 0.0003722
ණ கு 0.0018608
කෟ கு 0.0001861
ගෘ கு 0.0001861
රු கு 0.0156308
හෙ கு 0.0001861
කැ கு 0.0007443
ගු கு 0.1099739
ග கு 0.0046520
රැ கு 0.0003722
හූ கு 0.0001861
බි கு 0.0001861
ල් கு 0.0009304
ඡ கு 0.0072572
ලෙ கு 0.0001861
ව கு 0.0052103
ඟු கு 0.0279122
වෙ கு 0.0003722
ල கு 0.0018608
ළ கு 0.0011165
ගි கு 0.0009304
සෙ கு 0.0001861
එ கு 0.0001861
මු கு 0.0001861
ඩ கு 0.0007443
න கு 0.0018608
ගැ கு 0.0003722
පේ கு 0.0001861
කි கு 0.0005582
නි கு 0.0031634
ට கு 0.0005582
අ கு 0.0001861
හු கு 0.0165612
කො கு 0.0081876
පො கு 0.0007443
කු கு 0.4692966
නු கு 0.0001861
ත கு 0.0013026
NULL } 1.0000000
තෙ எ 0.0005147
ලැ எ 0.0005147
ළු எ 0.0015440
උ எ 0.0051467
රැ எ 0.0010293
ඈ எ 0.0051467
ඕ எ 0.0010293
මා எ 0.0015440
අැ எ 0.0010293
හ எ 0.0005147
ඒ எ 0.0087494
දෙ எ 0.0005147
ඉ எ 0.0087494
ඇ எ 0.5779722
ඵ எ 0.0005147
ඇ‍ எ 0.0005147
ක எ 0.0010293
හේ எ 0.0015440
මැ எ 0.0015440
NULL எ 0.0072054
ශී எ 0.0005147
බ්‍ எ 0.0005147
ං எ 0.0005147
හෙ எ 0.0113227
කේ எ 0.0005147
ඩී. எ 0.0005147
වි எ 0.0005147
ය எ 0.0036027
වැ எ 0.0005147
ම எ 0.0005147
හෑ எ 0.0015440
ආ எ 0.0025733
අ எ 0.0102934
දෑ எ 0.0005147
ටී எ 0.0005147
ලෑ எ 0.0020587
හැ எ 0.0051467
ව எ 0.0041173
කෙ எ 0.0005147
ඊ எ 0.0025733
ඔ எ 0.0015440
ටේ எ 0.0005147
වු எ 0.0020587
එ எ 0.3180648
හි எ 0.0010293
යෙ எ 0.0010293
ඊ‍ எ 0.0005147
නෑ ந 0.0025157
ඥා ந 0.0012579
ග ந 0.0050314
පා ந 0.0050314
යු ந 0.0012579
ඛි ந 0.0012579
න් ந 0.0125786
හ ந 0.0062893
හා ந 0.0012579
ශු ந 0.0012579
සි ந 0.0025157
ක ந 0.0012579
මැ ந 0.0100629
ව් ந 0.0012579
නැ ந 0.0125786
හී ந 0.0012579
NULL ந 0.0062893
යූ. ந 0.0012579
ඌ ந 0.0012579
ට ந 0.0213836
අ ந 0.0037736
සු ந 0.0012579
තො ந 0.0012579
නා ந 0.0402516
ද ந 0.0025157
ම ந 0.0037736
ණැ ந 0.0012579
න ந 0.8037736
ගැ ந 0.0012579
වි ந 0.0025157
නු ந 0.0012579
ත ந 0.0062893
නෙ ந 0.0012579
ණ ந 0.0025157
ටා ந 0.0012579
ල ந 0.0062893
භ ந 0.0012579
ස ந 0.0012579
හි ந 0.0025157
ජ ந 0.0012579
ඩ ந 0.0012579
ළ ந 0.0012579
වු ந 0.0138365
වි ஹௌ 0.3333333
ප ஹௌ 0.3333333
ල ஹௌ 0.3333333
තේ தே‎ 1.0000000
හේ ஞ்‍ 1.0000000
ලු ளூ 0.6666667
ලූ ளூ 0.3333333
ල්. L.. 0.0588235
රැ L.. 0.0588235
සි L.. 0.0588235
පු L.. 0.0588235
ද් L.. 0.1176471
ස්. L.. 0.0588235
ල් L.. 0.1764706
එ L.. 0.2941176
බී L.. 0.1176471
දී டீ 0.0666667
ඩ් டீ 0.0222222
ඩී டீ 0.2444444
ටී டீ 0.1777778
දි டீ 0.0222222
ධී டீ 0.0666667
ඩි டீ 0.1555556
ටි டீ 0.0666667
තො டீ 0.0222222
චී டீ 0.0222222
ර டீ 0.0222222
ද டீ 0.0888889
ටු டீ 0.0222222
ල් ல்‍ 1.0000000
බේ பி 0.0002359
බෲ பி 0.0002359
පී பி 0.0051899
දෙ பி 0.0002359
න් பி 0.0002359
ප பி 0.0030668
පු பி 0.0016513
බ பி 0.0007077
පි பி 0.6518047
ම්‍ பி 0.0002359
ස් பி 0.0030668
NULL பி 0.0193442
ෆී பி 0.0009436
සැ பி 0.0002359
යා பி 0.0009436
පෘ பி 0.0002359
ප් பி 0.0113234
හේ பி 0.0004718
රි பி 0.0004718
පෙ‍ பி 0.0002359
සි பி 0.0009436
ෆ பி 0.0002359
ඔි பி 0.0004718
බො பி 0.0002359
ය பி 0.0009436
වි பி 0.0044822
ම பி 0.0021231
වැ பி 0.0002359
භි பி 0.0021231
ට් பி 0.0002359
ගො பி 0.0009436
ටි பி 0.0002359
හි பி 0.0014154
ප්‍ பி 0.0283086
ස பி 0.0002359
ර பி 0.0002359
කෙ பி 0.0018872
ණු பி 0.0002359
තු பி 0.0004718
පැ பி 0.0007077
පෙ பி 0.0202878
මා பி 0.0009436
ඕ பி 0.0014154
බි பி 0.0896438
පා பி 0.0002359
ෆ් பி 0.0004718
ග பி 0.0021231
වා பி 0.0002359
බ්‍ பி 0.0089644
ඹි பி 0.0398679
ලේ பி 0.0004718
ං பி 0.0007077
තුි பி 0.0002359
ෆි பி 0.0030668
ජි பி 0.0004718
ටු பி 0.0002359
ෂි பி 0.0002359
යේ பி 0.0002359
බ් பி 0.0134466
කො பி 0.0573248
පී. பி 0.0002359
පො பி 0.0002359
ත பி 0.0009436
න பி 0.0018872
ද பி 0.0002359
බැ பி 0.0002359
අ பி 0.0002359
ෆ්‍ பி 0.0014154
ළ பி 0.0004718
බී பி 0.0023590
ඹු பி 0.0002359
ඩ பி 0.0002359
ව பி 0.0014154
ඹී பி 0.0011795
ල பி 0.0002359
පෞ பி 0.0002359
කු ஞு 1.0000000
ඹ ஏ 0.0052632
ප ஏ 0.0052632
අ ஏ 0.1105263
බ ஏ 0.0052632
ඈ ஏ 0.0789474
ආ ஏ 0.0157895
ඒ. ஏ 0.0105263
හා ஏ 0.0052632
ඒ ஏ 0.2210526
ව ஏ 0.0052632
ර ஏ 0.0052632
හැ ஏ 0.0105263
හේ ஏ 0.0578947
ඇ ஏ 0.2210526
එ ஏ 0.2105263
NULL ஏ 0.0157895
යැ ஏ 0.0052632
නී ஏ 0.0052632
හෙ ஏ 0.0052632
මෝ பெ 0.0005441
පැ பெ 0.3275299
ස பெ 0.0021763
ඊ பெ 0.0005441
ණු பெ 0.0005441
ඹෙ பெ 0.0016322
ඟ பெ 0.0005441
වී பெ 0.0005441
ප්‍ பெ 0.0021763
බා பெ 0.0021763
මේ பெ 0.0016322
ගො பெ 0.0005441
බෙ பெ 0.1436344
නා பெ 0.0016322
වේ பெ 0.0005441
ය பெ 0.0010881
ම பெ 0.0038085
සා பெ 0.0005441
වැ பெ 0.0021763
ඹ பெ 0.0048966
දූ பெ 0.0005441
බො பெ 0.0016322
ෆ பெ 0.0048966
ඹෑ பெ 0.0016322
ක பெ 0.0016322
ඔෑ பெ 0.0005441
ප් பெ 0.0038085
ස් பெ 0.0010881
NULL பெ 0.0217628
බ பெ 0.0081610
පි பெ 0.0021763
ප பெ 0.0119695
දෙ பெ 0.0005441
බේ பெ 0.0152339
පී பெ 0.0010881
ෂෙ பெ 0.0016322
ශ් பெ 0.0005441
ලො பெ 0.0005441
කා பெ 0.0021763
ජේ பெ 0.0005441
බී பெ 0.0005441
ඹේ பெ 0.0087051
එ பெ 0.0005441
බැ பெ 0.2306855
අ பெ 0.0005441
වෑ பெ 0.0005441
පේ பெ 0.0184984
නි பெ 0.0005441
පො பெ 0.0038085
බ් பெ 0.0016322
කො பெ 0.0010881
පෛ பெ 0.0005441
ඉ பெ 0.0005441
කැ பெ 0.0005441
පෑ பெ 0.0114255
බෝ பெ 0.0005441
බෞ பெ 0.0032644
ග பெ 0.0021763
වා பெ 0.0005441
ඹෙි பெ 0.0005441
පා பெ 0.0010881
රො பெ 0.0005441
බි பெ 0.0016322
බෑ பெ 0.0032644
ෆෙ பெ 0.0027203
පෙ பெ 0.1207835
ෆේ பெ 0.0005441
ඕ பெ 0.0010881
සී. சீ. 0.4285714
ස சீ. 0.1428571
කො சீ. 0.1428571
. சீ. 0.1428571
ට சீ. 0.1428571
ණු ஸ 0.0012255
ර ஸ 0.0012255
ත් ஸ 0.0012255
ව ஸ 0.0024510
ස ஸ 0.7916667
සි ஸ 0.0012255
හේ ஸ 0.0012255
ශ ஸ 0.0281863
සෙ ஸ 0.0036765
NULL ஸ 0.0392157
ස් ஸ 0.0453431
ජ ஸ 0.0036765
සැ ஸ 0.0085784
ගු ஸ 0.0012255
ඹ ஸ 0.0012255
වැ ஸ 0.0012255
සා ஸ 0.0134804
නි ஸ 0.0024510
වි ஸ 0.0024510
ප ஸ 0.0061275
ය ஸ 0.0073529
අ ஸ 0.0036765
රී ஸ 0.0012255
සු ஸ 0.0012255
වා ஸ 0.0024510
සේ ஸ 0.0036765
ෂ ஸ 0.0159314
ලා ஸ 0.0012255
න් ஸ 0.0012255
ඨා ஸ 0.0012255
හ ஸ 0.0036765
ද‍ த‍‍‍ 1.0000000
බෙ வே 0.0047619
බැ வே 0.0031746
ග வே 0.0015873
වා வே 0.0015873
ව්‍ வே 0.0015873
වේ வே 0.5126984
ය வே 0.0031746
ෙ வே 0.0015873
වෑ வே 0.1603175
පා வே 0.0047619
වි வே 0.0079365
චේ வே 0.0015873
වැ வே 0.1063492
ලෑ வே 0.0031746
ර් வே 0.0047619
බෑ வே 0.0015873
බේ வே 0.0047619
ඛෙ வே 0.0015873
තු வே 0.0015873
වෙ வே 0.1428571
ව வே 0.0206349
වී வே 0.0031746
ටෙ வே 0.0015873
මේ வே 0.0015873
ලේ வே 0.0015873
ග්‍ ஹா 0.0017094
ඟා ஹா 0.0017094
හා ஹா 0.5777778
හො ஹா 0.0017094
න් ஹா 0.0153846
හ ஹா 0.3435897
ද ஹா 0.0034188
ඹ ஹா 0.0017094
ප ஹா 0.0017094
අ ஹா 0.0017094
ආ ஹா 0.0017094
හෑ ஹா 0.0034188
ග ஹா 0.0017094
මු ஹா 0.0017094
වු ஹா 0.0017094
ගො ஹா 0.0017094
NULL ஹா 0.0017094
යා ஹா 0.0017094
බා ஹா 0.0017094
ඩ ஹா 0.0051282
කෝ ஹா 0.0017094
ගා ஹா 0.0034188
ව් ஹா 0.0017094
ඟ ஹா 0.0017094
භා ஹா 0.0051282
ලි ஹா 0.0017094
හැ ஹா 0.0119658
එ ணை 0.0106383
ම් ணை 0.0319149
ළ ணை 0.0212766
NULL ணை 0.0106383
ගො ணை 0.0319149
යි ணை 0.0106383
ල ணை 0.2021277
ෆා ணை 0.0106383
ශා ணை 0.0106383
ලා ணை 0.0106383
ත ணை 0.0319149
ණ ணை 0.0957447
පො ணை 0.0851064
නේ ணை 0.0319149
ටැ ணை 0.0106383
ය ணை 0.0319149
ප ணை 0.1382979
න ணை 0.1489362
වි ணை 0.0744681
ඇ ஈ 0.0126582
හී ஈ 0.0253165
එ ஈ 0.0126582
ඊ ஈ 0.9493671
බේ "" 1.0000000
රී றி 0.0983607
යි றி 0.0032787
රැ றி 0.0032787
තු றி 0.0032787
ල றி 0.0032787
රි றி 0.8393443
ටි றி 0.0163934
ඩි றி 0.0032787
NULL றி 0.0098361
ති றி 0.0032787
ලෙ றி 0.0065574
ඩා றி 0.0032787
හි றி 0.0032787
ං றி 0.0032787
නො நொ 0.7407407
තො நொ 0.0370370
කො நொ 0.0370370
නෝ நொ 0.0740741
හො நொ 0.0740741
ප நொ 0.0370370
ලේ லே​ 1.0000000
න් வ 0.0001469
දෙ வ 0.0003428
හ வ 0.0002938
ඩු வ 0.0000490
පු வ 0.0000979
ළු வ 0.0000979
උ வ 0.0121945
ප வ 0.0007346
පි வ 0.0002938
බ வ 0.0041628
පූ வ 0.0000490
NULL வ 0.0072971
ස් வ 0.0000979
යා வ 0.0006367
ව් வ 0.0019590
ළී வ 0.0000490
තැ வ 0.0000490
රි வ 0.0001959
ක வ 0.0006856
හේ வ 0.0003918
මැ வ 0.0001469
දි வ 0.0000979
ලෑ வ 0.0000490
වැ வ 0.0059748
ඹ வ 0.0000490
දු வ 0.0000490
ම வ 0.0019590
වි வ 0.0004408
ච வ 0.0000979
ය வ 0.0010774
වේ வ 0.0014202
නා வ 0.0001959
යො வ 0.0000490
ටි வ 0.0001959
ගො வ 0.0007346
හි வ 0.0000490
ජ வ 0.0002449
වී வ 0.0000979
ඟ வ 0.0000490
ඊ வ 0.0000979
ර வ 0.0027425
ස வ 0.0001469
ලි வ 0.0000979
ටේ வ 0.0000490
තු வ 0.0000490
ඩී வ 0.0000490
ල් வ 0.0003428
ඩැ வ 0.0001469
ගු வ 0.0000490
පා வ 0.0002449
ෙ வ 0.0000490
ග வ 0.0002449
වා வ 0.0041628
හ් வ 0.0000490
ලේ வ 0.0000979
කැ வ 0.0000979
හෙ வ 0.0000979
ෂි வ 0.0001469
ටු வ 0.0001959
ඇ வ 0.0000490
කො வ 0.0011264
ත வ 0.0001469
පො வ 0.0000490
ජු வ 0.0000490
කු வ 0.0001469
ද வ 0.0001469
කි வ 0.0000490
න வ 0.0013223
වෑ வ 0.0002449
අ வ 0.0003428
හු வ 0.0000490
ව්‍ வ 0.0000490
බැ வ 0.0007836
ම් வ 0.0001469
මු வ 0.0005877
එ வ 0.0000490
ඹේ வ 0.0000490
වු வ 0.0008326
ළ வ 0.0004897
මො வ 0.0000490
කා வ 0.0001469
ඩ வ 0.0008326
ත් வ 0.0000490
ව வ 0.9315833
වෙ வ 0.0063666
ශ් வ 0.0000979
ල வ 0.0020569
ඔ வ 0.0001469
ධ ரா 0.0008602
ජ් ரா 0.0012903
පි ரா 0.0012903
රැ ரா 0.0047312
නෑ ரா 0.0004301
ශ්‍ ரா 0.0004301
දා ரா 0.0017204
ග ரா 0.0017204
හ් ரா 0.0012903
ල් ரா 0.0004301
රා ரா 0.7032258
රාෙ ரா 0.0004301
ධා ரா 0.0004301
රු ரா 0.0030108
ලේ ரா 0.0017204
මෙ ரா 0.0021505
චා ரா 0.0004301
NULL ரா 0.0124731
ගා ரா 0.0004301
ං ரா 0.0004301
කි ரா 0.0004301
ම ரா 0.1131183
ටැ ரா 0.0004301
න ரா 0.0030108
ට ரா 0.0008602
ට් ரா 0.0004301
රී ரா 0.0008602
ච් ரா 0.0004301
කු. ரா 0.0008602
නා ரா 0.0004301
ආ ரா 0.0017204
රේ ரா 0.0025806
ර් ரா 0.0021505
රෑ ரா 0.0086022
ර ரா 0.0679570
ත් ரா 0.0025806
වෙ ரா 0.0004301
ල ரா 0.0004301
ටා ரா 0.0012903
ම් ரா 0.0498925
මේ ரா 0.0017204
ගි ரா 0.0004301
බා ரா 0.0004301
ව්. யு. 0.5000000
යු. யு. 0.5000000
හා வா 0.0007117
වෝ வா 0.0021352
මා வா 0.0007117
ල් வா 0.0106762
න් வா 0.0007117
ඳු வா 0.0014235
ළු வா 0.0007117
පු வா 0.0021352
තා வா 0.0007117
වා வா 0.7274021
දා வா 0.0014235
ග வா 0.0007117
බ வா 0.0007117
රැ வா 0.0007117
ස් வா 0.0007117
NULL வா 0.0106762
චා வா 0.0014235
රු வா 0.0021352
ටු வா 0.0007117
ව් வா 0.0014235
ඉ வா 0.0007117
ටෑ வா 0.0007117
ඇ வா 0.0113879
ඛා வா 0.0007117
දි வா 0.0007117
පො வா 0.0014235
ත வா 0.0007117
ය வா 0.0071174
වෑ வா 0.0049822
න வா 0.0042705
වැ வா 0.0341637
ආ வா 0.0007117
වේ வா 0.0028470
ට්‍ வா 0.0007117
වු வா 0.0007117
ඩ வா 0.0014235
බා வா 0.0049822
ලි வா 0.0007117
ව வா 0.1473310
භා வா 0.0014235
ත් வா 0.0007117
වෙ வா 0.0021352
ර வா 0.0014235
දො தொ 0.4861111
තො தொ 0.4722222
ව தொ 0.0277778
ප தொ 0.0138889
තැ மை 0.0031746
ක மை 0.0063492
මැ மை 0.0031746
මෛ மை 0.0476190
හේ மை 0.0031746
ෙෙ மை 0.0031746
ක්‍ மை 0.0095238
NULL மை 0.0126984
කේ மை 0.0031746
ෂේ மை 0.0031746
ං மை 0.0063492
චෙ மை 0.0031746
උ மை 0.0031746
භූ மை 0.0031746
ශ්‍ மை 0.0063492
පි மை 0.0253968
මා மை 0.0063492
ණු மை 0.0507937
ස மை 0.1460317
හැ மை 0.0031746
යි மை 0.0761905
යෝ மை 0.0476190
ල மை 0.1650794
ටි மை 0.0126984
මි மை 0.0063492
මේ மை 0.0031746
මූ மை 0.0031746
ම மை 0.2793651
සා மை 0.0031746
ය மை 0.0285714
රී மை 0.0063492
සු மை 0.0031746
ග්‍ மை 0.0031746
ත மை 0.0063492
ර් மை 0.0031746
ණ மை 0.0031746
ල வௌ 0.3750000
වෙ வௌ 0.5000000
ළ வௌ 0.1250000
ත த்‍ 0.2000000
ත් த்‍ 0.6000000
දු த்‍ 0.2000000
පෞ னி 0.0013870
ශා. னி 0.0013870
ස னி 0.0018493
න්‍ னி 0.0013870
හි னி 0.0023116
ටෙ னி 0.0004623
නී னி 0.0083218
ති னி 0.0036986
ගි னி 0.0004623
මු னி 0.0009246
නා னி 0.0004623
රී னி 0.0004623
න னி 0.0041609
ය னி 0.0638003
ද னி 0.0559408
කි னி 0.0018493
නි னி 0.5076283
නු னி 0.0004623
ත னி 0.0013870
දි னி 0.0009246
ණි னி 0.1927878
ක னி 0.0018493
ජූ னி 0.0004623
ණී னி 0.0055479
ටු னி 0.0004623
ං னி 0.0004623
NULL னி 0.0013870
වා னி 0.0004623
ග னி 0.0004623
ප னி 0.0554785
ග. னி 0.0004623
පු னி 0.0092464
තෙ னி 0.0004623
නේ னி 0.0009246
බි னி 0.0009246
ජෝ னி 0.0004623
ල් னி 0.0013870
හ னி 0.0018493
න් னி 0.0605640
දෙ னி 0.0004623
ඒ னி 0.0009246
මී னி 0.0009246
මා னி 0.0027739
රෝ கெ 0.0003580
තැ கெ 0.0021482
හේ கெ 0.0064447
ක கெ 0.0082349
ඇ கெ 0.0017902
ඉ கெ 0.0003580
ක් கெ 0.0003580
කේ கெ 0.0050125
නැ கெ 0.0003580
කැ கெ 0.4103115
හෙ கெ 0.0082349
ගා கெ 0.0003580
සැ கெ 0.0003580
NULL கெ 0.0014322
ග கெ 0.0028643
පු கெ 0.0003580
තෙ கெ 0.0003580
ගු கெ 0.0003580
හ கெ 0.0007161
ල් கெ 0.0003580
නේ கெ 0.0003580
කී கெ 0.0003580
ග් கெ 0.0003580
ඩි கெ 0.0003580
හා கெ 0.0003580
පෙ கெ 0.0003580
පැ கெ 0.0003580
ඟේ கெ 0.0007161
කෙ கெ 0.1081275
ව கெ 0.0007161
ත් கெ 0.0003580
වෙ கெ 0.0003580
හැ கெ 0.0157537
ර கெ 0.0007161
" கெ 0.0003580
කා கெ 0.0007161
ඩ கெ 0.0003580
හි கெ 0.0003580
ළ கெ 0.0003580
කෑ கெ 0.0100251
ගි கெ 0.0010741
ගො கெ 0.0035804
ගෙ கெ 0.3132832
හු கெ 0.0003580
අ கெ 0.0003580
ගී கெ 0.0003580
හෑ கெ 0.0007161
ගේ கெ 0.0107411
නි கெ 0.0010741
කැෙ கெ 0.0003580
ද கெ 0.0003580
කි கெ 0.0014322
වි கெ 0.0003580
ගැ கெ 0.0680272
ඨා கெ 0.0003580
කෞ கெ 0.0003580
ත கெ 0.0003580
කු கெ 0.0014322
පො கெ 0.0007161
කො கெ 0.0014322
ඛෙ கெ 0.0010741
ජේ " 0.2857143
ස " 0.1428571
ව " 0.1428571
ර " 0.1428571
න " 0.1428571
පා " 0.1428571
ර ரொ 0.4000000
රො ரொ 0.6000000
ට ட‎ 1.0000000
නෝ ணோ 0.2500000
ණේ ணோ 0.2500000
ණෝ ணோ 0.5000000
ශු ஷு 0.2500000
ෂු ஷு 0.5000000
ෂ ஷு 0.2500000
ං எ் 1.0000000
ලේ ளெ 0.2500000
ලැ ளெ 0.2500000
ලෑ ளெ 0.2500000
ලෙ ளெ 0.2500000
ති‍ ரா‎ 1.0000000
ට් ட்‍ 1.0000000
ක ல. 0.2500000
ල්. ல. 0.0208333
ත් ல. 0.0208333
ස ல. 0.0208333
ර ல. 0.0208333
ක..... ல. 0.0208333
ං ல. 0.3125000
නො ல. 0.0208333
NULL ல. 0.0416667
රූ ல. 0.0208333
ම් ல. 0.0416667
ග ல. 0.0208333
අ ல. 0.0208333
ට ல. 0.0208333
ම ல. 0.0416667
ළු ல. 0.0208333
නො. ல. 0.0416667
ත ல. 0.0208333
කො ல. 0.0208333
හේ ஹே‍ 1.0000000
රා ராஓ 0.4000000
ඔ ராஓ 0.4000000
ග ராஓ 0.2000000
වි வி‍ 1.0000000
හ් பஃ 0.5000000
ප பஃ 0.5000000
බ ள 0.0067502
බෞ ள 0.0057859
ග ள 0.0019286
ළු ள 0.0009643
ම ள 0.0038573
ටෝ ள 0.0009643
ලැ ள 0.0096432
වැ ள 0.0038573
ලෑ ள 0.0009643
ලෙ ள 0.0009643
කෞ ள 0.0009643
ර් ள 0.0009643
ලා ள 0.0038573
ඩ් ள 0.0009643
ල් ள 0.0067502
ණ ள 0.0038573
දෝ ள 0.0009643
ල ள 0.7791707
ටා ள 0.0009643
ව් ள 0.0019286
ව ள 0.0019286
ප් ள 0.0009643
ලො ள 0.0028930
ලේ ள 0.0028930
ස් ள 0.0086789
ළ ள 0.1378978
NULL ள 0.0086789
වැ வெி 0.5000000
ලි வெி 0.5000000
සී. ஸி. 1.0000000
ස ஏ. 0.1818182
ඒ. ஏ. 0.5454545
කො ஏ. 0.0909091
ට ஏ. 0.0909091
ඒ ஏ. 0.0909091
ම க் 0.0008408
කැෙ க் 0.0002803
ඹ க் 0.0002803
ය க் 0.0008408
න க் 0.0215807
ට්‍ க் 0.0002803
ග්‍ க் 0.0042040
කො க் 0.0005605
කෛ க் 0.0002803
ඛා க் 0.0011211
නු க் 0.0002803
කු க் 0.0669843
ඥ් க் 0.0002803
කෙ க் 0.0002803
ස க் 0.0022422
ඟු க் 0.0002803
ව க் 0.0005605
ත් க் 0.0086883
ර க் 0.0061659
යි க் 0.0008408
තු க் 0.0669843
බෟ க் 0.0002803
ඛ්‍ க் 0.0002803
ඹු க் 0.0011211
ශ க் 0.0008408
ළ க் 0.0008408
කා க் 0.0190583
ඤ් க் 0.0011211
හි க் 0.0162556
චෙ க் 0.0002803
තූ க் 0.0002803
පා க் 0.0002803
ශ්‍ க் 0.0008408
හ් க் 0.0008408
ග க் 0.0033632
ෆ් க் 0.0005605
ග්ෙ க் 0.0002803
ලා க் 0.0008408
න් க் 0.0019619
හ க் 0.0025224
ල් க் 0.0002803
ග් க் 0.0678251
ඉ க் 0.0005605
ක් க் 0.4293722
ටු க் 0.0002803
ද් க் 0.0008408
ක க் 0.1247197
හේ க் 0.0002803
ශෝ க் 0.0011211
රු க் 0.0002803
ස් க் 0.0033632
ක්‍ க் 0.0255045
NULL க் 0.0972534
කෲ க் 0.0002803
යා க் 0.0008408
කේ க் 0.0070067
නැ க் 0.0030830
ප් க் 0.0002803
ං க் 0.0011211
නෙ நெ 0.5380117
රෙ நெ 0.0029240
නේ நெ 0.0029240
තේ நெ 0.0029240
නෑ நெ 0.0789474
අ நெ 0.0029240
ග நெ 0.0029240
නා நெ 0.0058480
ගේ நெ 0.0029240
තෙ நெ 0.0029240
ණැ நெ 0.0058480
නි நெ 0.0146199
න நெ 0.0087719
පේ நெ 0.0058480
නැ நெ 0.2719298
චැ நெ 0.0029240
ගා நெ 0.0029240
වී நெ 0.0058480
ති நெ 0.0029240
ල நெ 0.0029240
ඇ நெ 0.0058480
හේ நெ 0.0116959
ක நெ 0.0029240
කෙ நெ 0.0116959
ප ரொ 0.0052632
ෙ ரொ 0.0052632
ර ரொ 0.0368421
ඉ ரொ 0.0052632
ද ரொ 0.0052632
රො ரொ 0.8315789
ක ரொ 0.0105263
අ ரொ 0.0052632
රෝ ரொ 0.0421053
NULL ரொ 0.0052632
රු ரொ 0.0157895
ටො ரொ 0.0210526
ලො ரொ 0.0052632
ල් ரொ 0.0052632
ල ளே 0.0263158
ලැ ளே 0.0526316
ය ளே 0.0263158
කැ ளே 0.0263158
ලෑ ளே 0.0263158
දෙ ளே 0.1315789
ලෙ ளே 0.1315789
යා ளே 0.0263158
ලේ ளே 0.4210526
ළේ ளே 0.0263158
NULL ளே 0.0263158
ස් ளே 0.0526316
ළ ளே 0.0263158
තේ ன் 0.0008137
පෙෙ ன் 0.0001356
න්. ன் 0.0001356
න් ன் 0.7546786
ග් ன் 0.0004068
හ ன் 0.0010849
ළු ன் 0.0001356
ඳු ன் 0.0008137
ප ன் 0.0001356
ඬේ ன் 0.0005424
පි ன் 0.0001356
නෑ ன் 0.0001356
බ ன் 0.0001356
ලෝ ன் 0.0001356
ඩූ ன் 0.0001356
ඟි ன் 0.0004068
NULL ன் 0.0820450
ප් ன் 0.0002712
ඩා ன் 0.0008137
පාෙ ன் 0.0001356
යා ன் 0.0002712
නැ ன் 0.0001356
ද් ன் 0.0006781
ක් ன் 0.0020342
රා ன் 0.0001356
රි ன் 0.0069162
ක ன் 0.0004068
හේ ன் 0.0002712
ණි ன் 0.0001356
මැ ன் 0.0004068
රේ ன் 0.0004068
දි ன் 0.0029835
ර් ன் 0.0001356
ංො ன் 0.0001356
ණ ன் 0.0006781
ඳ ன் 0.0016273
ඹ ன் 0.0001356
ම ன் 0.0062381
දු ன் 0.0018986
වි ன் 0.0001356
ය ன் 0.0080011
ට් ன் 0.0002712
දෛ ன் 0.0001356
නා ன் 0.0006781
ටි ன் 0.0001356
ගො ன் 0.0001356
මේ ன் 0.0001356
ජ ன் 0.0001356
ඟ ன் 0.0009493
න්‍ ன் 0.0008137
ණු ன் 0.0004068
ර ன் 0.0033903
ස ன் 0.0008137
නේ ன் 0.0013561
ඩ් ன் 0.0008137
ල් ன் 0.0012205
ග. ன் 0.0002712
ඳෙ ன் 0.0001356
ලැ ன் 0.0001356
රැ ன் 0.0002712
ග ன் 0.0029835
ඳි ன் 0.0001356
හ් ன் 0.0001356
ඳී ன் 0.0002712
ං ன் 0.0347166
ටු ன் 0.0127475
ඩේ ன் 0.0004068
ණ්‍ ன் 0.0001356
ඬු ன் 0.0012205
යේ ன் 0.0010849
ත ன் 0.0042040
නු ன் 0.0001356
කු ன் 0.0020342
නි ன் 0.0008137
න ன் 0.0122050
පේ ன் 0.0001356
ට ன் 0.0050176
ම් ன் 0.0025766
ඹු ன் 0.0001356
ණ් ன் 0.0043396
බී ன் 0.0001356
ළ ன் 0.0002712
ඬ ன் 0.0001356
ඤ් ன் 0.0001356
ඬි ன் 0.0009493
ඩ ன் 0.0086791
ව ன் 0.0009493
ශා. ன் 0.0005424
න්ෙ ன் 0.0002712
ත් ன் 0.0101709
ඟු ன் 0.0017630
ත්‍ ன் 0.0001356
ල ன் 0.0012205
රේ போ‍ 0.5000000
බෝ போ‍ 0.5000000
ඝා ஹ 0.0001810
ජ ஹ 0.0001810
හි ஹ 0.0018100
ඩ ஹ 0.0014480
මේ ஹ 0.0003620
යි ஹ 0.0001810
ල ஹ 0.0001810
ඟ ஹ 0.0050679
භ ஹ 0.0014480
ර ஹ 0.0005430
හැ ஹ 0.0161086
ස ஹ 0.0001810
ත් ஹ 0.0001810
ව ஹ 0.0001810
ත ஹ 0.0010860
ඥ් ஹ 0.0001810
බ් ஹ 0.0001810
ඛා ஹ 0.0001810
හො ஹ 0.0010860
දෑ ஹ 0.0001810
ට් ஹ 0.0001810
හු ஹ 0.0021719
අ ஹ 0.0014480
නා ஹ 0.0001810
කි ஹ 0.0001810
ද ஹ 0.0001810
ටෝ ஹ 0.0001810
ම ஹ 0.0005430
ගැ ஹ 0.0001810
න ஹ 0.0009050
වි ஹ 0.0003620
ය ஹ 0.0005430
ං ஹ 0.0005430
හෙ ஹ 0.0034389
රු ஹ 0.0003620
හී ஹ 0.0005430
NULL ஹ 0.0074208
ස් ஹ 0.0005430
ඇ ஹ 0.0001810
ක ஹ 0.0012670
හේ ஹ 0.0032579
ද් ஹ 0.0001810
ටු ஹ 0.0003620
න් ஹ 0.0009050
ල් ஹ 0.0007240
හ ஹ 0.9181900
මා ஹ 0.0001810
හා ஹ 0.0112217
පි ஹ 0.0007240
ලෝ ஹ 0.0001810
වා ஹ 0.0003620
ග ஹ 0.0106787
හ් ஹ 0.0001810
ලු ஹ 0.0001810
ප ஹ 0.0003620
ලො ளொ 1.0000000
ඕ யோ 0.6666667
ඔ யோ 0.3333333
සී. Y 0.2500000
ර්. Y 0.2500000
ආ Y 0.2500000
යි. Y 0.2500000
ර ணீ 0.1428571
ණී ணீ 0.2142857
පො ணீ 0.0714286
ජ ணீ 0.0714286
ණි ணீ 0.2142857
තු ணீ 0.2142857
නී ணீ 0.0714286
පි பி் 0.8333333
බි பி் 0.1666667
ඔ காஓ 0.5000000
හ காஓ 0.5000000
ළ ல‍ 1.0000000
රේ ம 0.0002735
ශා ம 0.0001824
ණ ம 0.0000912
බො ம 0.0000912
ය ம 0.0004559
වි ம 0.0014589
ච ம 0.0000912
ම ம 0.8965989
දු ம 0.0001824
වැ ம 0.0004559
ඹ ம 0.0022796
බෙ ம 0.0001824
ආ ம 0.0001824
සු ம 0.0006383
මේ ம 0.0009118
ගො ம 0.0001824
ටි ம 0.0000912
හි ம 0.0005471
ජ ம 0.0007295
ස ம 0.0006383
ර ம 0.0005471
මෝ ம 0.0000912
හා ம 0.0002735
මී ம 0.0000912
ඩි ம 0.0000912
හ ம 0.0005471
ඒ ம 0.0000912
න් ம 0.0004559
ප ம 0.0016413
උ ம 0.0001824
තා ம 0.0000912
දා ம 0.0000912
බ ம 0.0005471
NULL ம 0.0193307
මෙ ம 0.0002735
මෘ ம 0.0000912
කෝ ம 0.0000912
ක් ம 0.0000912
මැ ம 0.0157746
ක ம 0.0029178
රා ம 0.0000912
ණ්‍ ம 0.0000912
ත ம 0.0014589
පේ ம 0.0001824
න ம 0.0018237
ද ம 0.0006383
මෑ ம 0.0001824
කු. ம 0.0003647
ට ம 0.0002735
ළ ம 0.0000912
ඹේ ம 0.0000912
මු ம 0.0027355
සෙ ம 0.0003647
මි ம 0.0010942
ම් ம 0.0051062
ඩ ம 0.0016413
මො ம 0.0001824
ත් ம 0.0000912
ව ம 0.0028267
දේ ம 0.0000912
ඔ ம 0.0002735
ල ம 0.0025531
ලී ம 0.0003647
මා ம 0.0262606
ල් ம 0.0005471
බි ம 0.0000912
පා ம 0.0000912
ග. ம 0.0001824
ජා ம 0.0000912
ග ம 0.0000912
ඛ ம 0.0000912
ලේ ம 0.0002735
කැ ம 0.0000912
ඹෝ டோ 0.0084034
ත டோ 0.0168067
ර් டோ 0.0168067
වෝ டோ 0.0084034
ඕ டோ 0.0084034
ඩි டோ 0.0084034
ටො டோ 0.0672269
රේ டோ 0.0084034
ටෝ டோ 0.4621849
දු டோ 0.0588235
බා டோ 0.0084034
ඩෝ டோ 0.2184874
දො டோ 0.0252101
දෝ டோ 0.0084034
තෝ டோ 0.0084034
ඩො டோ 0.0252101
ක් டோ 0.0084034
නෝ டோ 0.0084034
ත් டோ 0.0084034
ව டோ 0.0168067
ළ ல‎ 0.7500000
ල ல‎ 0.2500000
ං ங்ஓ 0.4375000
ඔ ங்ஓ 0.1250000
න් ங்ஓ 0.0625000
ඕ ங்ஓ 0.3750000
ග கௌ 0.0454545
ක கௌ 0.2272727
වි கௌ 0.0454545
වෙ கௌ 0.0454545
ගෞ கௌ 0.0454545
ටෑ கௌ 0.0454545
ව් கௌ 0.1363636
ගා கௌ 0.0454545
ගො கௌ 0.0909091
වු கௌ 0.2272727
කො கௌ 0.0454545
සෝ சௌ 0.3333333
ස சௌ 0.3333333
ව් சௌ 0.3333333
ෂෝ ஸோ 0.1176471
සෝ ஸோ 0.7058824
ශෝ ஸோ 0.1176471
ඕ ஸோ 0.0588235
යේ ள் 0.0017007
න් ள் 0.0017007
ර් ள் 0.0034014
ලෑ ள் 0.0017007
ඩ් ள் 0.0017007
ල් ள் 0.8775510
කු ள் 0.0017007
තා ள் 0.0017007
නි ள் 0.0017007
න ள் 0.0170068
ව්‍ ள் 0.0017007
සු ள் 0.0017007
ථ ள் 0.0017007
වා ள் 0.0017007
දා ள் 0.0102041
ලු ள் 0.0017007
NULL ள் 0.0272109
ස් ள் 0.0034014
හෝ ள் 0.0017007
දේ ள் 0.0017007
ක් ள் 0.0017007
ණු ள் 0.0017007
ව් ள் 0.0017007
ර ள் 0.0051020
ලි ள் 0.0034014
ස ள் 0.0187075
ල ள் 0.0051020
ඔ ஹாஓ 0.5000000
හ ஹாஓ 0.5000000
වු ரௌ 0.2500000
ර ரௌ 0.2500000
ව් ரௌ 0.2500000
රො ரௌ 0.2500000
හෑ கே 0.0025094
ගැ கே 0.0087829
කැෙ கே 0.0012547
ගේ கே 0.3989962
කු கே 0.0012547
ත கே 0.0012547
ඛෙ கே 0.0012547
ගෑ கே 0.0037641
කො கே 0.0012547
ඟේ கே 0.0100376
ල கே 0.0062735
හැ கே 0.0025094
තෑ கே 0.0012547
කෙ கே 0.0363864
ගෙ கே 0.1430364
ගො கே 0.0012547
කෑ கே 0.0476788
මේ கே 0.0025094
ම් கே 0.0012547
ඟෙ கே 0.0012547
ග கே 0.0037641
ගෝ கே 0.0012547
හ් கே 0.0012547
නෑ கே 0.0012547
ග් கே 0.0025094
හ கே 0.0037641
තේ கே 0.0012547
මා கே 0.0012547
ඇ கே 0.0012547
ක கே 0.0112923
හේ கே 0.1116688
තැ கே 0.0012547
ඩේ கே 0.0025094
ක් கே 0.0025094
හෙ கே 0.0087829
කැ கே 0.0414053
කේ கே 0.1254705
යා கே 0.0012547
NULL கே 0.0012547
ලේ கே 0.0012547
ස් ஸ்‎ 0.5000000
ය ஸ்‎ 0.2500000
ටි ஸ்‎ 0.2500000
ශෙ ஷை 0.5000000
ශෛ ஷை 0.5000000
ය யெ 0.1250000
ළි யெ 0.0312500
අ யெ 0.0312500
ඇ யெ 0.1562500
එ யெ 0.0312500
යැ யெ 0.2500000
යෙ யெ 0.3125000
හි யெ 0.0312500
හෙ யெ 0.0312500
ර් டூா் 0.5000000
දූ டூா் 0.5000000
රො றொ 1.0000000
ග கொ 0.0070595
ඥා கொ 0.0001441
වෛා கொ 0.0001441
ෙ கொ 0.0001441
රො கொ 0.0001441
ල් கொ 0.0002881
ඡ கொ 0.0001441
ගොා கொ 0.0001441
බු கொ 0.0001441
තෝ கொ 0.0002881
දො கொ 0.0001441
ඉ கொ 0.0001441
ගා கொ 0.0010085
හෙ கொ 0.0002881
කැ கொ 0.0002881
ට கொ 0.0001441
අ கொ 0.0004322
ගැ கொ 0.0001441
න கொ 0.0001441
පො கொ 0.0005763
කු கொ 0.0001441
කො கொ 0.2771935
වෙ கொ 0.0001441
ඟු கொ 0.0001441
හෝ கொ 0.0002881
කා கொ 0.0005763
ණ් கொ 0.0001441
මු கொ 0.0001441
ගෝ கொ 0.0047544
බ கொ 0.0002881
ප கொ 0.0004322
පු கொ 0.0002881
හ கொ 0.0002881
න් கொ 0.0001441
ලා கொ 0.0001441
පී கொ 0.0001441
බේ கொ 0.0001441
ඩි கொ 0.0002881
මැ கொ 0.0001441
ක கொ 0.0011526
හේ கொ 0.0010085
තැ கொ 0.0001441
රා கொ 0.0001441
ක් கொ 0.0001441
කෝ கொ 0.0118139
NULL கொ 0.0050425
තො கொ 0.0033136
වි கொ 0.0002881
වැ கொ 0.0001441
දූ கொ 0.0002881
දු கொ 0.0002881
ම கொ 0.0001441
බො கொ 0.0005763
ංො கொ 0.0001441
ගෙි கொ 0.0001441
දි கொ 0.0001441
හො கொ 0.0037459
තු கொ 0.0001441
ර கொ 0.0011526
කො கொ 0.0002881
කෙ கொ 0.0008644
ජ கொ 0.0191615
කෙි கொ 0.0001441
ගෙ கொ 0.0014407
ගො கொ 0.6493301
ගො கொ 0.0010085
ද ருஓ 0.1111111
රු ருஓ 0.3333333
ප ருஓ 0.1111111
ඔ ருஓ 0.4444444
ටු ரு 0.0008168
ක් ரு 0.0019058
ක ரு 0.0005445
රි ரு 0.0065342
සි ரு 0.0002723
ශු ரு 0.0002723
රා ரு 0.0010890
ස් ரு 0.0002723
NULL ரு 0.2039205
රූ ரு 0.0027226
ලේ ரு 0.0002723
මෙ ரு 0.0002723
රු ரு 0.4704601
හෙ ரு 0.0005445
කේ ரு 0.0002723
කෲ ரு 0.0005445
පෘ ரு 0.0008168
ප ரு 0.0002723
පා ரு 0.0002723
ළු ரு 0.0002723
රො ரு 0.0002723
දා ரு 0.0002723
ග ரு 0.0002723
රැ ரு 0.0261367
බෲ ரு 0.0002723
ෆා ரு 0.0002723
හ ரு 0.0002723
දී ரு 0.0010890
ල් ரு 0.0005445
රෙ ரு 0.0005445
ලෙ ரு 0.0002723
ලා ரு 0.0002723
න් ரு 0.0005445
ව ரு 0.0002723
ස ரு 0.0449224
ර ரு 0.0204193
ක... ரு 0.0002723
ඩෲ ரு 0.0013613
ෆු ரு 0.0002723
ල ரு 0.0035393
ළ ரு 0.0016335
වු ரு 0.0002723
රුෙ ரு 0.0010890
ඩ ரு 0.0021781
ය ரு 0.0176967
ඩෘ ரு 0.0002723
වි ரு 0.0005445
න ரு 0.0005445
ම ரு 0.0032671
දු ரு 0.0005445
ද ரு 0.1478356
නා ரு 0.0005445
රී ரு 0.0008168
ට ரு 0.0002723
ණා ரு 0.0002723
යේ ரு 0.0029948
රේ ரு 0.0008168
දි ரு 0.0174244
පී. ரு 0.0002723
කු ரு 0.0010890
ර් ரு 0.0010890
රෑ ரு 0.0010890
ත ரு 0.0029948
රැ ரி 0.0016722
ලු ரி 0.0003344
වා ரி 0.0003344
ධ ரி 0.0003344
දෙ ரி 0.0003344
න් ரி 0.0010033
ඡ ரி 0.0003344
ඩ් ரி 0.0003344
හ ரி 0.0043478
ල් ரி 0.0026756
ඕ ரி 0.0003344
හා ரி 0.0003344
ෂ ரி 0.0003344
රා ரி 0.0006689
රි ரி 0.8297659
ටු ரி 0.0010033
යා ரி 0.0043478
ං ரி 0.0003344
රු ரி 0.0006689
ස් ரி 0.0010033
NULL ரி 0.0043478
රී ரி 0.0247492
ට් ரி 0.0013378
ට ரி 0.0792642
රිෙ ரி 0.0003344
දු ரி 0.0013378
නි ரி 0.0003344
ම ரி 0.0003344
ය ரி 0.0020067
න ரி 0.0010033
ටී ரி 0.0006689
ද්‍ ரி 0.0003344
ර් ரி 0.0070234
කො ரி 0.0013378
ළි ரி 0.0003344
මෝ ரி 0.0010033
ල ரி 0.0033445
ස ரி 0.0030100
ලි ரி 0.0003344
ත් ரி 0.0006689
ර ரி 0.0123746
ඩ ரி 0.0006689
ජ ரி 0.0003344
ටි ரி 0.0013378
මු ரி 0.0003344
ම් ரி 0.0003344
ශ ரி 0.0006689
ගො ரி 0.0003344
ඛ க 0.0002251
ග க 0.5890059
වා க 0.0000900
ගු க 0.0003151
පා க 0.0006303
රෙ க 0.0000450
ඩ් க 0.0000900
ග‍ க 0.0000450
දො க 0.0001801
ඇ க 0.0000450
ඉ க 0.0003602
කේ க 0.0002701
කැ க 0.0094543
හෙ க 0.0003151
ගා க 0.0027012
අ க 0.0010355
හු க 0.0000450
ට க 0.0014857
ඤා க 0.0000450
ගී க 0.0000450
නි க 0.0000900
ස්‍ க 0.0000900
ගේ க 0.0002251
ද க 0.0005853
කි க 0.0002251
පේ க 0.0000900
ගැ க 0.0010355
න க 0.0020259
නු க 0.0011705
ත க 0.0022961
කු க 0.0015757
පො க 0.0001351
කො க 0.0009454
යේ க 0.0003151
ශ් க 0.0000900
ල க 0.0018008
ඟු க 0.0001351
වෙ க 0.0010805
ව க 0.0015307
කා க 0.0021610
ඤ් க 0.0000450
ඩ க 0.0004502
මු க 0.0012606
ඹු க 0.0000450
මි க 0.0002251
ම් க 0.0000900
කෑ க 0.0001801
ගි க 0.0001801
වු க 0.0012606
ණ් க 0.0000450
බ க 0.0004052
ශ්‍ க 0.0001351
පි க 0.0002701
ගෝ க 0.0000450
ලෝ க 0.0000450
ජ් க 0.0000450
උ க 0.0003602
ප க 0.0004052
දෙ க 0.0000900
ඒ க 0.0000450
න් க 0.0000450
ජෝ க 0.0000450
හ க 0.0318296
ග් க 0.0003602
කී க 0.0000450
හා க 0.0020710
කූ க 0.0000900
රා க 0.0000900
තැ க 0.0002251
ක க 0.3039798
හේ க 0.0000450
සි க 0.0001801
රි க 0.0003151
ව් க 0.0000900
ක් க 0.0013056
නැ க 0.0000450
යා க 0.0005402
ස් க 0.0007654
ඌ க 0.0000450
ක්‍ க 0.0000450
NULL க 0.0124707
වේ க 0.0001351
ආ க 0.0001801
බෙ க 0.0000900
නා க 0.0003151
ම க 0.0008554
වැ க 0.0001801
ය க 0.0011255
වි க 0.0010355
ර් க 0.0000450
වූ க 0.0000450
ඝ க 0.0013506
ඩි. க 0.0000450
ඥ් க 0.0000450
ග්‍ க 0.0001801
ඟා க 0.0000450
හො க 0.0003602
දි க 0.0001351
රේ க 0.0001351
සි. க 0.0000450
පැ க 0.0000450
තු க 0.0000900
කෙ க 0.0003602
ඟ க 0.0039618
ස க 0.0013056
ලි க 0.0000450
ර க 0.0003151
හැ க 0.0004052
ඝා க 0.0000450
වී க 0.0001351
හි க 0.0000900
ජ க 0.0001801
ටි க 0.0001351
ශ க 0.0000450
ති க 0.0000900
ගො க 0.0018458
ගෙ க 0.0002701
මු ணு 0.0036900
මී ணு 0.0036900
ළ ணு 0.0036900
නු ணு 0.1070111
ණ ணு 0.0332103
හ ணு 0.0036900
ධ ணு 0.0073801
ණු ணு 0.8154982
න ணு 0.0036900
ය ணு 0.0036900
දා ணு 0.0110701
නා ணு 0.0036900
හේ கொ 0.0022075
ක கொ 0.0022075
ගෝ கொ 0.0088300
ග கொ 0.0022075
ජ கொ 0.0066225
කෝ கொ 0.0066225
කො கொ 0.2075055
බෝ கொ 0.0022075
NULL கொ 0.0022075
ගෙ கொ 0.0022075
ගො கொ 0.7527594
ඬු கொ 0.0044150
කේ. கே. 0.8333333
කේ கே. 0.1666667
සා சா‎ 1.0000000
යි ஜ் 0.0091743
ජ් ஜ் 0.8899083
ජි ஜ் 0.0366972
ත් ஜ் 0.0091743
ඩ් ஜ் 0.0183486
ජ ஜ் 0.0091743
ඡා ஜ் 0.0091743
ජේ ஜ் 0.0091743
NULL ஜ் 0.0091743
වෙ வௌி 0.2500000
ලි வௌி 0.2500000
වැ வௌி 0.2500000
ළි வௌி 0.2500000
ලා லா‍ 1.0000000
නේ ணே‎ 1.0000000
ගෙ கா 0.0020450
ගො கா 0.0051125
ති கா 0.0005112
ඝා கா 0.0035787
බා கா 0.0005112
සෞ கா 0.0005112
කෙි கா 0.0005112
ඟ கா 0.0010225
ස கா 0.0296524
ලි கா 0.0005112
ර கா 0.0025562
ග්‍ கா 0.0005112
ඟා கா 0.0010225
ණා கா 0.0005112
ඨා கா 0.0005112
ර් கா 0.0040900
ඳ கா 0.0040900
ම கா 0.0005112
ය கா 0.0148262
නා கா 0.0010225
සු கா 0.0010225
ස් கா 0.0015337
' கா 0.0010225
NULL கா 0.0046012
යා கா 0.0173824
ක් கா 0.0051125
ටෑ கா 0.0005112
රා கா 0.0005112
ක கா 0.0301636
ෆො கா 0.0005112
රි கா 0.0010225
ඩි கா 0.0010225
හා கா 0.0541922
බේ கா 0.0005112
න් கா 0.0107362
හ கா 0.1094070
උ கா 0.0025562
පු கா 0.0005112
තා கா 0.0010225
ප கா 0.0015337
ලෝ கா 0.0010225
වු கா 0.0010225
කෑ கா 0.0025562
කා கா 0.2433538
ඬි கா 0.0005112
දේ கா 0.0010225
ත් கா 0.0010225
ව கா 0.0030675
ල கா 0.0005112
කො கா 0.0005112
කෛ கா 0.0005112
ඛා கா 0.0061350
යේ கா 0.0025562
ධ්‍ கா 0.0005112
ද கா 0.0092025
ගැ கா 0.0020450
න கா 0.0582822
ට්‍ கா 0.0010225
ඤා கா 0.0005112
කැ கா 0.0035787
හෙ கா 0.0005112
ං கா 0.0015337
ගා கா 0.2474438
ඉ கா 0.0015337
ඇ கா 0.0061350
ඩ් கா 0.0005112
ධි கா 0.0005112
හ් கா 0.0005112
ඥා கா 0.0005112
වා கா 0.0005112
ග கா 0.0828221
ළු லு் 1.0000000
නො நோ 0.3055556
ග්‍ நோ 0.0277778
ණෝ நோ 0.0277778
යෝ நோ 0.0277778
තෝ நோ 0.0277778
සි நோ 0.0833333
නි நோ 0.0277778
නෝ நோ 0.4722222
ස් ஸ்ஓ 0.5000000
ඕ ஸ்ஓ 0.5000000
NULL பா 0.0050420
ස් பா 0.0005602
ලේ பா 0.0005602
බ්‍ பா 0.0005602
සැ பா 0.0005602
ගා பா 0.0005602
ෆී பா 0.0005602
යා பா 0.0123249
ව් பா 0.0016807
ඉ பா 0.0005602
පෙ‍ பா 0.0005602
ඹෑ பா 0.0016807
ණි பா 0.0005602
ක பா 0.0022409
දො பா 0.0005602
පෙ பா 0.0016807
බෑ பா 0.0033613
ණෝ பா 0.0005602
ද. பா 0.0005602
බු பா 0.0005602
ෆා பா 0.0134454
මා பா 0.0067227
කී பா 0.0005602
ඩ් பா 0.0061625
ර්‍ பா 0.0005602
පා பா 0.6162465
ප பா 0.0436975
රො பா 0.0005602
උ பா 0.0011204
වා பா 0.0011204
ජා பா 0.0005602
ග பா 0.0005602
පි பா 0.0128852
බ பா 0.0184874
ගො பா 0.0016807
ඹා பா 0.0112045
වු பா 0.0005602
ශ பா 0.0005602
මි பா 0.0005602
ටි பா 0.0005602
බා பா 0.1574230
ර பா 0.0005602
ව பா 0.0022409
භා பா 0.0201681
දේ பா 0.0005602
ඉ. பா 0.0005602
පැ பா 0.0145658
බ් பா 0.0005602
ඛා பா 0.0005602
දි பா 0.0011204
ෆ பா 0.0016807
ඳ பா 0.0016807
පො பா 0.0050420
ර් பா 0.0022409
වි பா 0.0028011
ද பா 0.0005602
කි பா 0.0005602
ඹ பா 0.0072829
සා பா 0.0011204
සො பா 0.0005602
බැ பா 0.0044818
ට්‍ பா 0.0005602
වේ டா 0.0011806
ට டா 0.0519481
ටැ டா 0.0023613
ද டா 0.0047226
ය டா 0.0023613
ඩෑ டா 0.0023613
න டா 0.0106257
ඨා டா 0.0011806
ලෑ டா 0.0011806
ත டா 0.0011806
ඳ டா 0.0023613
යි டா 0.0011806
ටේ டா 0.0011806
ටා டா 0.2243211
ඩෲ டா 0.0023613
ර டா 0.0389610
ඩ டா 0.0354191
ඬා டா 0.0011806
ටි டா 0.0011806
ගි டா 0.0011806
ළා டா 0.0011806
දා டா 0.0059032
ඩු டா 0.0023613
තා டா 0.0011806
ඩැ டா 0.0023613
ග. டா 0.0047226
ලා டா 0.0011806
ල් டா 0.0011806
හා டா 0.0106257
ෂ டா 0.0023613
රා டா 0.0011806
දො டா 0.0011806
රෝ டா 0.0011806
ටු டா 0.0023613
ටෑ டா 0.0011806
යා டா 0.0023613
ඩා டா 0.5419126
ධා டா 0.0047226
NULL டா 0.0224321
ර ரஓ 0.2000000
ඩි ரஓ 0.2000000
ල් ரஓ 0.2000000
ඔ ரஓ 0.2000000
ර් ரஓ 0.2000000
ඤා ஞா 0.2592593
ඥා ஞா 0.6851852
ච් ஞா 0.0185185
ඣා ஞா 0.0185185
ඤ ஞா 0.0185185
ළු லுஓ 0.3333333
ලු லுஓ 0.1666667
ඔ லுஓ 0.5000000
ව්. ம். 0.1428571
ම් ம். 0.1428571
ම්. ம். 0.5714286
ච්. ம். 0.1428571
ල් து 0.0004943
ඩ් து 0.0004943
බු து 0.0002472
ලු து 0.0027187
ජා து 0.0002472
ඳි து 0.0002472
ග து 0.0002472
ගු து 0.0002472
තුි து 0.0002472
කැ து 0.0004943
ඇ து 0.0004943
ඩො து 0.0002472
දො து 0.0014829
ටු து 0.0081562
ඉ து 0.0017301
කු து 0.0034602
ත து 0.0096391
නු து 0.0004943
ඬු து 0.0007415
අ து 0.0002472
හු து 0.0004943
ට து 0.0004943
න து 0.0168067
නි து 0.0042017
ද து 0.0044488
ඩ து 0.0004943
වු து 0.0004943
මු து 0.0022244
එ து 0.0002472
ඹු து 0.0007415
ම් து 0.0009886
ල து 0.0012358
ත් து 0.0007415
ඟු து 0.0002472
වෙ து 0.0007415
ව து 0.0081562
හ து 0.0002472
න් து 0.0002472
ථි து 0.0002472
දා து 0.0002472
යු து 0.0002472
ප து 0.0002472
ඳු து 0.0944142
ළු து 0.0007415
තූ து 0.0007415
ඩු து 0.0088977
ස් து 0.0002472
NULL து 0.0118636
ක து 0.0024716
රි து 0.0012358
සි து 0.0004943
තැ து 0.0002472
ධු து 0.0034602
ව් து 0.0009886
ද් து 0.0002472
ඳ து 0.0004943
දි து 0.0007415
තො து 0.0014829
තු‍ து 0.0002472
ය து 0.0007415
ම து 0.0024716
දු து 0.3882847
සා து 0.0002472
වැ து 0.0007415
දූ து 0.0353435
සූ து 0.0002472
ගො து 0.0012358
ති து 0.0004943
තු து 0.3578843
දෝ து 0.0002472
ස து 0.0004943
ර து 0.0029659
ණු து 0.0029659
ච් டி' 0.5000000
ඩි டி' 0.5000000
තු ற 0.0038168
හේ ற 0.0025445
රි ற 0.0012723
රා ற 0.0050891
පැ ற 0.0012723
ත් ற 0.0012723
ස ற 0.0063613
ර ற 0.6755725
ඟ ற 0.0012723
ජ ற 0.0063613
චි ற 0.0012723
ළ ற 0.0012723
NULL ற 0.0229008
රු ற 0.0025445
වා ற 0.0012723
රැ ற 0.0038168
ට ற 0.0139949
ය ற 0.2353690
ප ற 0.0089059
වි ற 0.0012723
උ ற 0.0012723
ර් ற 0.0012723
නේ ணி 0.0011628
ණ ணி 0.0023256
නු ணி 0.0011628
යේ ணி 0.0058140
ය ணி 0.0465116
ප ணி 0.0255814
නි ணி 0.3802326
ළු ணி 0.0023256
ද ணி 0.0267442
කෙි ணி 0.0011628
ඩ ணி 0.0034884
ං ணி 0.0023256
හි ணி 0.0023256
නී ணி 0.0011628
ජේ ணி 0.0011628
ස් ணி 0.0011628
ගි ணி 0.0011628
NULL ணி 0.0046512
ණ් ணி 0.0011628
ලේ ணி 0.0011628
ශෝ ணி 0.0011628
ම් ணி 0.0011628
ණි ணி 0.4674419
හේ ணி 0.0011628
රි ணி 0.0023256
ජි ணி 0.0023256
ඉ ணி 0.0023256
ණී ணி 0.0093023
යො ஙொ 1.0000000
යී ய் 0.0051813
ය ய் 0.0569948
ඹ ய் 0.0051813
නි ய் 0.0103627
ච් ய் 0.0155440
යේ ய் 0.0051813
කෛ ய் 0.0051813
ෆේ ய் 0.0051813
ර ய் 0.0051813
ණු ய் 0.0051813
කෙ ய் 0.0103627
ය් ய் 0.0103627
ඇ ய் 0.0414508
ක ய் 0.0051813
යෝ ய் 0.0051813
යි ய் 0.6891192
NULL ய் 0.0466321
වු ய் 0.0051813
ලේ ய் 0.0259067
හි ய் 0.0051813
ෆී ய் 0.0051813
ප් ய் 0.0051813
ඳේ ய் 0.0051813
ෂේ ய் 0.0051813
යා ய் 0.0155440
මි ளி 0.0024155
ථා ளி 0.0024155
යො ளி 0.0024155
NULL ளி 0.0024155
හැ ளி 0.0024155
ලි ளி 0.8212560
ජි ளி 0.0024155
ළි ளி 0.0917874
රෝ ளி 0.0048309
රා ளி 0.0024155
ල ளி 0.0048309
ලී ளி 0.0144928
සි ளி 0.0024155
ණි ளி 0.0048309
දි ளி 0.0048309
ලෙ ளி 0.0024155
ල් ளி 0.0096618
දී ளி 0.0024155
නි ளி 0.0048309
ප ளி 0.0048309
ට ளி 0.0072464
දා ளி 0.0024155
යො யொ 1.0000000
රෙ றே 0.0370370
ට්‍ றே 0.0370370
රැ றே 0.0740741
රෑ றே 0.0740741
රේ றே 0.6666667
ර றே 0.1111111
ගේ யா 0.0004037
සා யா 0.0020186
ය யா 0.1429148
වි யா 0.0008074
ච யா 0.0004037
න யா 0.0004037
අ யா 0.0004037
ඤා யா 0.0008074
ට් யா 0.0008074
ට யா 0.0008074
ආ யா 0.0036334
කො யா 0.0004037
ශා யா 0.0004037
යේ யா 0.0012111
ස யா 0.0008074
ත් யா 0.0048446
ඔ யா 0.0092854
ල யா 0.0012111
ටි யா 0.0020186
ළ யா 0.0016149
ඩ யா 0.0012111
යෙ யா 0.0008074
පු யா 0.0004037
ඳු யா 0.0004037
පා யா 0.0016149
ජා யா 0.0008074
වා யா 0.0004037
දා யா 0.0008074
ග யா 0.0008074
ඩි யா 0.0008074
න් யா 0.0004037
හ யா 0.0048446
ටු யா 0.0004037
ද් யா 0.0084780
තැ யா 0.0004037
හේ யா 0.0004037
ක யா 0.0056520
NULL யா 0.0076706
යා யா 0.7856278
ඩා யா 0.0020186
ඳේ யா 0.0004037
ං யா 0.0004037
ඔ னுஓ 0.5000000
නු னுஓ 0.5000000
නි யூ 0.0217391
ව් யூ 0.1086957
ර யூ 0.0217391
යු யூ 0.6304348
ජූ யூ 0.0434783
ත யூ 0.0434783
ජු யூ 0.0217391
යූ யூ 0.0652174
රූ யூ 0.0217391
හා யூ 0.0217391
වෝ வொ 0.5000000
වො வொ 0.5000000
ජෝ சோ 0.0083333
හෝ சோ 0.0083333
ෂෝ சோ 0.0250000
සෝ சோ 0.5833333
ප් சோ 0.0083333
චෝ சோ 0.0083333
ස් சோ 0.0166667
වෝ சோ 0.0083333
ශෝ சோ 0.1833333
ඕ சோ 0.0250000
සො சோ 0.0416667
ග சோ 0.0083333
යෝ சோ 0.0666667
ද් சோ 0.0083333
නු னூ 1.0000000
ඊ. ஈ. 1.0000000
යෝ NULL 0.0007940
ව NULL 0.0440651
වෙ NULL 0.0011909
ත් NULL 0.0227604
ඟු NULL 0.0001323
දේ NULL 0.0006616
ගි NULL 0.0005293
ජේ NULL 0.0001323
ළ NULL 0.0079397
ණ් NULL 0.0002647
එ NULL 0.0038375
ඹු NULL 0.0003970
සෙ NULL 0.0002647
අ NULL 0.0075427
ය. NULL 0.0001323
පේ NULL 0.0001323
න NULL 0.0263332
ගැ NULL 0.0001323
මූ NULL 0.0001323
නි NULL 0.0042345
ගේ NULL 0.0002647
ද NULL 0.0224957
කි NULL 0.0009263
ත NULL 0.0297737
යේ NULL 0.0014556
බ් NULL 0.0003970
සෑ NULL 0.0001323
කො NULL 0.0647082
ඩේ NULL 0.0002647
ටු NULL 0.0035728
ඉ NULL 0.0046315
ණී NULL 0.0001323
. NULL 0.0001323
කේ NULL 0.0005293
කැ NULL 0.0006616
රු NULL 0.0082043
රැ NULL 0.0005293
ෙ NULL 0.0006616
පා NULL 0.0198491
රො NULL 0.0003970
ල් NULL 0.0137621
නේ NULL 0.0002647
සෝ NULL 0.0001323
ඩී NULL 0.0009263
පෙ NULL 0.0014556
මා NULL 0.0087336
බු NULL 0.0002647
ඕ NULL 0.0001323
මෝ NULL 0.0001323
ම්. NULL 0.0001323
ටේ NULL 0.0002647
ළි NULL 0.0002647
ලි NULL 0.0042345
ස NULL 0.0694720
සී NULL 0.0011909
කෙ NULL 0.0005293
ණු NULL 0.0046315
ඟ NULL 0.0003970
වී NULL 0.0015879
ටෙ NULL 0.0001323
ජ NULL 0.0146884
ප්‍ NULL 0.0002647
බා NULL 0.0003970
ගො NULL 0.0046315
ගෙ NULL 0.0014556
ති NULL 0.0011909
ථා NULL 0.0007940
බෙ NULL 0.0002647
ආ NULL 0.0007940
සො NULL 0.0002647
නා NULL 0.0044991
ච් NULL 0.0002647
ය NULL 0.0603414
වි NULL 0.0013233
ස්. NULL 0.0001323
ච NULL 0.0003970
සා NULL 0.0014556
ඹ NULL 0.0011909
වැ NULL 0.0006616
ඳ NULL 0.0001323
ණ NULL 0.0019849
ඨා NULL 0.0005293
ලෑ NULL 0.0001323
ද්‍ NULL 0.0015879
බො NULL 0.0002647
ණා NULL 0.0001323
හො NULL 0.0005293
රේ NULL 0.0010586
ශා NULL 0.0010586
මෛ NULL 0.0001323
ක NULL 0.0082043
හේ NULL 0.0033082
සි NULL 0.0022496
තැ NULL 0.0013233
ව් NULL 0.0003970
නෝ NULL 0.0002647
ද් NULL 0.0044991
නැ NULL 0.0011909
ණෑ NULL 0.0001323
ධා NULL 0.0002647
මෙ NULL 0.0001323
ගෝ NULL 0.0001323
ලෝ NULL 0.0001323
බ NULL 0.0027789
පි NULL 0.0043668
ණේ NULL 0.0001323
ප NULL 0.0224957
උ NULL 0.0091306
ජ් NULL 0.0003970
තෙ NULL 0.0002647
තා NULL 0.0002647
ඩු NULL 0.0003970
ජෝ NULL 0.0001323
දෙ NULL 0.0035728
න් NULL 0.0181289
නැ: NULL 0.0001323
මී NULL 0.0002647
තේ NULL 0.0002647
ඔ NULL 0.0011909
ල NULL 0.0273918
ත්‍ NULL 0.0001323
ශ් NULL 0.0002647
භා NULL 0.0002647
කො‍ NULL 0.0001323
ඩ NULL 0.0068810
චැ NULL 0.0001323
කා NULL 0.0018526
මො NULL 0.0005293
වු NULL 0.0013233
බී NULL 0.0034405
ඹේ NULL 0.0006616
මු NULL 0.0027789
මි NULL 0.0010586
ම් NULL 0.0087336
බැ NULL 0.0005293
ව්‍ NULL 0.0001323
හු NULL 0.0002647
ට්‍ NULL 0.0003970
රී NULL 0.0014556
ට NULL 0.0553130
කු NULL 0.0062194
පො NULL 0.0018526
නු NULL 0.0006616
ධ්‍ NULL 0.0003970
ඇ NULL 0.0019849
රෝ NULL 0.0001323
ජි NULL 0.0003970
හෙ NULL 0.0006616
ගා NULL 0.0011909
ං NULL 0.0059547
ලේ NULL 0.0011909
ලු NULL 0.0002647
ඳි NULL 0.0002647
වා NULL 0.0026466
ග NULL 0.0700013
ෂා NULL 0.0001323
ලැ NULL 0.0006616
ගු NULL 0.0006616
බි NULL 0.0002647
ඩ් NULL 0.0021172
රෙ NULL 0.0003970
ලෙ NULL 0.0003970
තු NULL 0.0100569
යි NULL 0.0035728
‍ NULL 0.0007940
පැ NULL 0.0005293
හැ NULL 0.0005293
ර NULL 0.0375811
ඊ NULL 0.0001323
හි NULL 0.0027789
දැ NULL 0.0001323
නො NULL 0.0003970
මේ NULL 0.0005293
ටි NULL 0.0021172
ශ NULL 0.0005293
තො NULL 0.0015879
සු NULL 0.0005293
වේ NULL 0.0002647
ට් NULL 0.0044991
දු NULL 0.0014556
ම NULL 0.0629880
ටී NULL 0.0001323
නෙ NULL 0.0006616
ර් NULL 0.0066164
දි NULL 0.0051608
ටො NULL 0.0002647
ණි NULL 0.0005293
මැ NULL 0.0007940
රි NULL 0.0025142
රා NULL 0.0013233
ක් NULL 0.0055578
යා NULL 0.0050285
ප් NULL 0.0009263
ඩා NULL 0.0001323
බූ NULL 0.0002647
ස් NULL 0.0091306
ක්‍ NULL 0.0003970
' NULL 0.0027789
රූ NULL 0.0001323
සේ NULL 0.0003970
දා NULL 0.0005293
ශ්‍ NULL 0.0001323
ඳු NULL 0.0002647
ළු NULL 0.0009263
පු NULL 0.0014556
ධ NULL 0.0005293
හ NULL 0.0226280
ග් NULL 0.0021172
ඒ NULL 0.0023819
ලා NULL 0.0005293
හා NULL 0.0015879
පී NULL 0.0002647
ෂ NULL 0.0001323
ඩි NULL 0.0018526
ෆා NULL 0.0001323
ලෝ ளோ 0.5000000
ලු ளோ 0.2500000
ලො ளோ 0.2500000
ති றீ 0.0588235
ව றீ 0.0588235
රු றீ 0.0588235
ණ றீ 0.0588235
රි றீ 0.1764706
ඥා றீ 0.0588235
රී றீ 0.5294118
දැ தே 0.0048123
බා தே 0.0009625
ඩ தே 0.0019249
හි தே 0.0028874
දේ தே 0.3368624
ව தே 0.0019249
තෑ தே 0.0336862
යි தே 0.0019249
ද්ෙ தே 0.0009625
ටේ தே 0.0028874
පැ தே 0.0009625
ල தே 0.0009625
දි தே 0.0009625
දෑ தே 0.0500481
ටී தே 0.0009625
ත தே 0.0202117
නෙ தே 0.0009625
ඳ தே 0.0019249
ද தே 0.0134745
වැ தே 0.0009625
ය தே 0.0057748
ත්ෙ தே 0.0028874
නා தே 0.0019249
NULL தே 0.0490857
කේ தே 0.0009625
නැ தே 0.0009625
ඳේ தே 0.0028874
ඉ தே 0.0009625
ඩේ தே 0.0019249
දො தே 0.0009625
තැ தே 0.0067372
මැ தே 0.0019249
හේ தே 0.0009625
තේ தே 0.1588065
දෙ தே 0.1944177
දී தே 0.0009625
ල් தே 0.0009625
නේ தே 0.0038499
තෙ தே 0.0240616
තා தே 0.0019249
ඩැ தே 0.0009625
ෙ தே 0.0009625
ඬේ தே 0.0009625
ප தே 0.0144370
නෑ தே 0.0019249
ඳෑ தே 0.0009625
ජා தே 0.0336862
දා தே 0.0028874
ති நூ 0.0769231
ස් நூ 0.0769231
නූ நூ 0.3076923
පු நூ 0.0769231
නු நூ 0.3076923
අ நூ 0.0769231
කා நூ 0.0769231
සෝ சு 0.0019380
චු சு 0.0058140
ජු சு 0.0038760
බි சு 0.0019380
ඩි சு 0.0019380
චූ சு 0.0038760
රේ சு 0.0019380
පි சு 0.0019380
ශ්‍ சு 0.0019380
රී சு 0.0019380
සු சு 0.8468992
සො சு 0.0019380
උ சு 0.0019380
නි சு 0.0019380
ච சு 0.0077519
යු சு 0.0019380
චි சு 0.0038760
සූ சு 0.0058140
මු சு 0.0019380
NULL சு 0.0019380
වු சு 0.0155039
ස් சு 0.0348837
ශ් சு 0.0019380
ශු சு 0.0038760
ෂු சு 0.0038760
ර சு 0.0058140
වෙ சு 0.0038760
ස சு 0.0019380
ත් சு 0.0019380
ව சு 0.0232558
තේ தெ‎ 1.0000000
ජෝ ஜோ 0.8318584
කී ஜோ 0.0088496
යි ஜோ 0.0088496
යෝ ஜோ 0.0088496
අ ஜோ 0.0088496
ත ஜோ 0.0619469
ජො ஜோ 0.0707965
ඟ ங் 0.0372870
ත් ங் 0.0003214
ගූ ங் 0.0003214
ඟු ங் 0.0340726
ස ங் 0.0003214
ව ங் 0.0025715
ඟේ ங் 0.0025715
ටා ங் 0.0003214
මු ங் 0.0006429
මි ங் 0.0006429
ම් ங் 0.0054645
ගි ங் 0.0009643
ණ් ங் 0.0003214
ති ங் 0.0003214
ඤ් ங் 0.0003214
හි ங் 0.0003214
ම ங் 0.0006429
ගේ ங் 0.0003214
නි ங் 0.0006429
