456 456 1.0000000
ම් mr 0.5000000
පා mr 0.5000000
08 08, 0.1428571
ග. 08, 0.1428571
ු 08, 0.1428571
08, 08, 0.1428571
වු 08, 0.1428571
ඉ 08, 0.1428571
කු. 08, 0.1428571
ශ o04 0.1000000
ට් o04 0.1000000
කො o04 0.1000000
4 o04 0.1000000
ක o04 0.2000000
අ o04 0.1000000
ඨා o04 0.1000000
04 o04 0.1000000
ං o04 0.1000000
යි sn 0.2000000
එ sn 0.4000000
සෙ sn 0.2000000
න් sn 0.2000000
කෝ nk 0.2000000
ක nk 0.4000000
න් nk 0.4000000
ඇ ie 1.0000000
ය k4 0.5000000
4 k4 0.5000000
පී. g.p.p 0.3333333
ජී. g.p.p 0.3333333
පෙ g.p.p 0.3333333
නෛ02 a 0.0000080
බ‍ a 0.0000080
ද a 0.0361568
පැ a 0.0008850
ල‍‍ a 0.0000080
සෞ a 0.0000080
හැ a 0.0006857
ඩෛ a 0.0009727
46 a 0.0000080
ඈ a 0.0000239
දා a 0.0022802
රු a 0.0001116
ධ a 0.0008371
ජා a 0.0004704
ඩු a 0.0001036
නෛ06 a 0.0000080
ප a 0.0014271
ම් a 0.0004465
න් a 0.0005422
සා a 0.0019852
මේ a 0.0000957
ඥා a 0.0000159
කි a 0.0000478
ඩේ a 0.0001036
ලාෙ a 0.0000080
ඤ් a 0.0000399
දෙ a 0.0010444
නේ a 0.0005740
වෛ a 0.0002312
ග් a 0.0000399
ේ a 0.0000239
වැ a 0.0009089
කෙි a 0.0000080
ආ" a 0.0000080
අ" a 0.0000080
නැ a 0.0006936
කෙ a 0.0003109
ට/ a 0.0000159
වේ a 0.0001196
ව් a 0.0002153
ගි a 0.0000080
05 a 0.0000319
ඹා a 0.0001036
ත‍ a 0.0000159
සැ a 0.0001674
හි a 0.0004943
ඬ a 0.0000718
දි a 0.0000638
තා a 0.0027825
ල/ a 0.0000159
තූ a 0.0000080
A a 0.0000718
පා a 0.0081562
බෝ a 0.0000478
මු a 0.0001754
මො a 0.0000478
සී a 0.0000080
ලෛ් a 0.0000239
ලා a 0.0082359
ල්ෙ a 0.0000080
ද‍ a 0.0000080
ත් a 0.0029260
වි a 0.0000558
ඔ a 0.0008212
ටා a 0.0008611
ල' a 0.0000080
ඩි a 0.0000239
ගේ a 0.0000319
පෙෙ a 0.0000080
ළු a 0.0000239
ග a 0.0015388
ලි a 0.0001116
මා a 0.0152281
බෞ a 0.0000080
ඕ a 0.0000638
කො a 0.0001435
ථ a 0.0000239
1 a 0.0000239
නෑ a 0.0001116
ච් a 0.0000159
ව a 0.1016217
ා a 0.0000080
පේ a 0.0000877
ළැ a 0.0000239
රා‍ a 0.0000080
ඹේ a 0.0000319
ෆා a 0.0001834
ඟ a 0.0005820
රැ a 0.0005581
දේ a 0.0001276
ණෑ a 0.0000080
ෆෙ a 0.0000319
බැ a 0.0005900
මII a 0.0000080
ස a 0.0122542
ණු a 0.0000239
ර9 a 0.0000080
ටේ a 0.0000797
තෑ a 0.0000080
ලු a 0.0000080
‍ a 0.0000159
යො a 0.0000080
97644/5 a 0.0000080
රෝ a 0.0000797
යේ a 0.0000159
250 a 0.0000159
ළේ a 0.0000080
ඟේ a 0.0000239
පෛ a 0.0001036
තො a 0.0000399
එ a 0.0002392
ළා a 0.0004385
ණ a 0.0053657
ලෑ a 0.0003668
ශී a 0.0000080
පෑ a 0.0000399
තB a 0.0000239
ධා a 0.0003428
මV a 0.0000080
හා a 0.0019932
, a 0.0000080
ඝ a 0.0001116
ලේ a 0.0004146
යැ a 0.0000319
රි a 0.0000239
514A a 0.0000080
තෛ2 a 0.0000080
ණෛ a 0.0000957
ළෙ a 0.0001276
බො a 0.0000239
ච a 0.0005661
ත a 0.0567346
ල. a 0.0000080
දො a 0.0000399
ඥ් a 0.0000239
/ a 0.0000399
ඳ a 0.0014670
ෂ a 0.0003189
ජැ a 0.0000159
මූ a 0.0000080
ගො a 0.0003109
තA a 0.0000478
ටැ a 0.0001754
ඡා a 0.0000159
80 a 0.0000239
වෙ a 0.0007654
ය1,2,3 a 0.0000080
බ a 0.0101095
ම a 0.1012230
යෞ a 0.0000080
ඹ a 0.0051265
මVI a 0.0000080
රො a 0.0000159
ණ් a 0.0000159
න a 0.0473267
යා a 0.0114011
හ a 0.0385167
කො‍ a 0.0000080
වෑ a 0.0000159
ඉ/ a 0.0000239
නැෙ a 0.0000239
ඩෑ a 0.0000080
ටෙ a 0.0000718
තෛ a 0.0001196
කෝ a 0.0000478
සේ a 0.0000558
කෑ a 0.0000239
පු a 0.0000399
පො a 0.0002073
දැ a 0.0001993
ත/ a 0.0000080
ල a 0.1023313
ළ a 0.0077177
වෝ a 0.0001276
තෛ3 a 0.0000080
ගෛ a 0.0000080
රෛ් a 0.0000080
ඳු a 0.0000080
457 a 0.0000080
ක් a 0.0001116
ර්2 a 0.0000080
බෑ a 0.0000159
ර a 0.0725208
බ් a 0.0000159
හො a 0.0000319
ද2 a 0.0000080
ල‍ a 0.0000080
ඇ a 0.0020092
ඬා a 0.0000080
බෛ a 0.0000159
බු a 0.0000080
දෑ a 0.0000239
ු a 0.0001435
යෙ a 0.0000399
මැ a 0.0019773
ම1 a 0.0000159
අ a 0.0202749
ශ් a 0.0000239
හෛ a 0.0000159
45 a 0.0000080
ෙ a 0.0000319
A,B a 0.0000080
ලෛ a 0.0009567
යු a 0.0000239
පා‍ a 0.0000159
ටේ106400 a 0.0000080
සෛ a 0.0000159
න්ෙ a 0.0000080
නු a 0.0000478
ස්ෙ a 0.0000159
IV a 0.0000159
ඹ් a 0.0000159
ද1 a 0.0000080
ඩැ a 0.0002870
සු a 0.0000080
මෙ a 0.0000399
ටෛ a 0.0001754
ර111 a 0.0000080
නෛ04 a 0.0000080
යෝ a 0.0000159
ත2 a 0.0000080
ය a 0.0521503
ල් a 0.0002312
ජ a 0.0001355
වා a 0.0060035
පි a 0.0000239
රෛ a 0.0003668
යි a 0.0009886
ට a 0.0128283
හෝ a 0.0000159
ර් a 0.0003428
රෑ a 0.0001355
අෙ a 0.0000239
ඛ a 0.0000080
උ a 0.0000558
නො a 0.0000080
ඩ් a 0.0000080
ත1 a 0.0000159
ඩ1 a 0.0000080
මි a 0.0000638
ඩෙ a 0.0004385
ති a 0.0000080
ඤා a 0.0000558
කේ a 0.0000399
ඡ a 0.0004545
ය514 a 0.0000080
ඒ a 0.0002312
පි01 a 0.0000080
බා a 0.0016025
හෙ a 0.0000718
භ a 0.0003668
ඞ a 0.0000239
ෂා a 0.0000159
තෙ a 0.0000080
නි a 0.0000239
ක a 0.0442651
හී a 0.0000080
තු a 0.0001116
ඝා a 0.0000239
ග‍ a 0.0000159
ටෛ් a 0.0000080
ගෝ a 0.0000239
බේ a 0.0000638
ඩ a 0.0381420
ඛා a 0.0000718
නෛ01 a 0.0000080
නා a 0.0113214
මෝ a 0.0000080
ගෙ a 0.0001276
මෑ a 0.0000478
බෙ a 0.0000319
ං a 0.0002392
ඳා a 0.0001993
තෛ1 a 0.0000080
නෛ a 0.0007574
සෙ a 0.0000080
කු a 0.0001116
ටු a 0.0002312
කා a 0.0054136
සි a 0.0000877
ඉ a 0.0000957
ඩා a 0.0043133
ළෛ a 0.0001674
කෛ a 0.0001913
ශා a 0.0000239
ජේ. a 0.0000080
තේ a 0.0000080
සො a 0.0000080
ස් a 0.0001355
අි a 0.0000159
දු a 0.0000080
ද. a 0.0000319
ලA a 0.0000239
රේ a 0.0001993
NULL a 0.0864095
ආ a 0.0038748
ණා a 0.0008212
මෛ a 0.0001196
ෆ්. a 0.0000080
ගා a 0.0031094
ශ a 0.0001196
ගැ a 0.0004066
පෙ a 0.0010604
නැ‍‍ a 0.0000080
රා a 0.0091209
ගු a 0.0000319
වු a 0.0000399
ටෑ a 0.0000159
හු a 0.0000239
මI a 0.0000080
චි a 0.0000080
ණෙ a 0.0001036
රෙ a 0.0006139
නෙ a 0.0007016
මී a 0.0001595
තැ a 0.0012757
චෛ a 0.0000399
හේ a 0.0001036
චා a 0.0005740
ලැ a 0.0004704
කැ a 0.0017381
2 a 0.0000159
ලෙ a 0.0009727
2 2e 0.5000000
ඇ 2e 0.5000000
රු a` 0.1000000
පා a` 0.1000000
ළ a` 0.1000000
ම a` 0.1000000
තු a` 0.1000000
ව් a` 0.1000000
ර a` 0.1000000
ප a` 0.1000000
ය a` 0.1000000
යා a` 0.1000000
ක o01 0.5000000
01 o01 0.5000000
ඔ ad 0.1666667
NULL ad 0.1666667
ත ad 0.3333333
ළේ ad 0.1666667
ඩී ad 0.1666667
වා 62 0.1250000
ක් 62 0.1250000
ටේ 62 0.1250000
ං 62 0.1250000
ද 62 0.1250000
ක 62 0.1250000
0262 62 0.1250000
අ 62 0.1250000
පා lr 0.8000000
ල lr 0.2000000
7 k7 1.0000000
36 36 1.0000000
ං 135/164 0.2500000
135/164 135/164 0.2500000
අ 135/164 0.2500000
ක 135/164 0.2500000
373 73 0.2500000
ක් 73 0.2500000
වා 73 0.2500000
ද 73 0.2500000
ට654 654 0.5000000
සි 654 0.5000000
ං hn 0.3333333
ක hn 0.3333333
අ hn 0.3333333
1 1c 0.2000000
ං 1c 0.2000000
ජ 1c 0.2000000
අ 1c 0.2000000
ක 1c 0.2000000
ආ r.a 0.3333333
ඒ. r.a 0.3333333
ර්. r.a 0.3333333
ගැ dehigeta 0.2500000
හි dehigeta 0.2500000
දෙ dehigeta 0.2500000
ට dehigeta 0.2500000
ව w2 0.5000000
දෙ w2 0.2500000
ත w2 0.2500000
ක 210 0.5000000
103210 210 0.5000000
ව t.v.y.d 0.2500000
ටී. t.v.y.d 0.2500000
යි. t.v.y.d 0.2500000
වී. t.v.y.d 0.2500000
පා n1 0.0555556
ඨා n1 0.1111111
ශ n1 0.1111111
ණ n1 0.0555556
ට් n1 0.1111111
කො n1 0.1111111
ර n1 0.1666667
1 n1 0.0555556
ග n1 0.1111111
ය1 n1 0.1111111
ජී. g.w 0.5000000
වැ g.w 0.5000000
03 k3 0.5000000
ය k3 0.5000000
ව hu 0.3076923
නි hu 0.3076923
යු hu 0.3846154
ඩි. d.s 0.2500000
ශ් d.s 0.2500000
ස්. d.s 0.2500000
රී d.s 0.2500000
පී. p.j.p 0.3333333
ජේ. p.j.p 0.3333333
පෙ p.j.p 0.3333333
ඩෲ t' 0.0727273
ක් t' 0.0545455
යා t' 0.0545455
න් t' 0.2727273
ර් t' 0.0181818
සෙ t' 0.1636364
කූ t' 0.0181818
ශා t' 0.0545455
ත t' 0.0363636
ට් t' 0.1272727
ලෙ t' 0.0545455
ඇ t' 0.0727273
ඒ aa 0.2500000
ආ aa 0.2500000
ඇ aa 0.1250000
බැ aa 0.1250000
අ aa 0.2500000
සෝ is 1.0000000
ල් ,a 0.3333333
ඩ් ,a 0.3333333
ෆී ,a 0.3333333
ං 02 0.0109890
රි 02 0.0109890
2 02 0.0439560
02 02 0.6373626
ක 02 0.0549451
අ 02 0.0109890
ම 02 0.0439560
යා 02 0.0109890
ක් 02 0.0109890
ධ් 02 0.0219780
ව 02 0.0109890
/ 02 0.0109890
ය 02 0.0879121
02123 02 0.0109890
NULL 02 0.0219780
දෙ 20/1 1.0000000
457 01457 0.5000000
01 01457 0.5000000
106114 106 0.5000000
ක 106 0.5000000
1.2 i,ii 1.0000000
ව d, 0.1694915
ර d, 0.0169492
NULL d, 0.0338983
ත d, 0.2372881
බ්. d, 0.0169492
ං d, 0.0508475
අ d, 0.4576271
ක d, 0.0169492
පො h.k.e 0.5000000
කු h.k.e 0.5000000
නා / 0.0416667
ටැ / 0.0416667
එ / 0.0833333
ල්/ / 0.0416667
ගෝ / 0.0416667
ල් / 0.1666667
මි / 0.0416667
සු / 0.0416667
ස්. / 0.0416667
3/4 / 0.0416667
ච්. / 0.0416667
/ / 0.2916667
ත/ / 0.0416667
බ / 0.0416667
ය mh.s 0.0555556
ණ mh.s 0.1111111
ස mh.s 0.2222222
ම් mh.s 0.0555556
ර් mh.s 0.1111111
වා mh.s 0.1111111
නි mh.s 0.1111111
කී mh.s 0.1111111
ං mh.s 0.1111111
ය. ,b 0.5000000
නැ/ ,b 0.5000000
ම් ymcv 0.2000000
එ ymcv 0.2000000
යි ymcv 0.2000000
සී ymcv 0.2000000
ව ymcv 0.2000000
වු e/ 0.1666667
මා e/ 0.1666667
ව e/ 0.3333333
ඩ් e/ 0.3333333
205C 205c 1.0000000
ල් t.n.l. 0.1666667
පා t.n.l. 0.1666667
එ t.n.l. 0.3333333
න්. t.n.l. 0.1666667
ටි. t.n.l. 0.1666667
80 80 1.0000000
ඩී. d,s 0.5000000
සේ d,s 0.5000000
ක t05 0.6666667
05 t05 0.3333333
ප e/p 0.5000000
මී e/p 0.5000000
ක් 102 1.0000000
55 55 0.1666667
ප 55 0.1666667
ම 55 0.1666667
වැ 55 0.1666667
නි 55 0.1666667
ටු 55 0.1666667
හෝ h 0.0021828
ඩි h 0.0001455
ජො h 0.0000485
ජු h 0.0001455
චු h 0.0011156
හ් h 0.0009216
17 h 0.0001940
සෑ h 0.0001455
වා h 0.0001940
ත් h 0.1039969
වි h 0.0000485
පි h 0.0003395
ට h 0.0000485
ය h 0.0001940
ජෝ h 0.0001455
චූ h 0.0001455
ල් h 0.0004851
තී h 0.0034439
ඩ් h 0.0000970
ඕ h 0.0003395
චැ h 0.0004366
ඛ h 0.0000485
උ h 0.0017462
ග h 0.0000485
10 h 0.0002425
ලි h 0.0001455
ැ h 0.0000485
ශෛ h 0.0000485
ගේ h 0.0001455
ටි h 0.0000485
‍‍ h 0.0000485
ර් h 0.0000970
12 h 0.0001455
සෛ h 0.0000970
සැ h 0.0000485
ශි h 0.0000485
හි h 0.0414726
3rd h 0.0000485
හූ h 0.0004851
චී h 0.0005336
15 h 0.0001455
ත‍ h 0.0000485
ශෝ h 0.0006306
ප් h 0.0001940
ත, h 0.0001455
දෛ h 0.0000970
නූ h 0.0000485
සී h 0.0001940
5 h 0.0005821
ූ h 0.0000485
දී h 0.0003880
චො h 0.0004366
තූ h 0.0004851
පා h 0.0025223
දි h 0.0036380
තා h 0.0173652
ෂූ h 0.0000485
ඤ් h 0.0000485
ර5 h 0.0000485
ු h 0.0007761
දෙ h 0.0018917
9 h 0.0000485
ඇ h 0.0009701
සා h 0.0005336
භූ h 0.0004851
දෞ h 0.0000485
ඥා h 0.0001455
හො h 0.0123690
ෂ් h 0.0008731
කි h 0.0003395
ප h 0.0009216
50 h 0.0001455
ම් h 0.0000485
ර h 0.0018432
න් h 0.0002425
වේ h 0.0000970
ෙ h 0.0000970
ෂෙ h 0.0002425
නැ h 0.0000485
ෂො h 0.0000970
අ h 0.0013582
ශ් h 0.0016492
හෛ h 0.0000970
ත්ෙ h 0.0000970
4 h 0.0005821
වැ h 0.0005821
ද/ h 0.0000485
ේ h 0.0000485
ෂී h 0.0003395
ග් h 0.0001455
පැ h 0.0002910
ද h 0.0113504
ල h 0.0014552
වෝ h 0.0002910
කී h 0.0003880
ශු h 0.0001940
ම07 h 0.0000485
දැ h 0.0000970
30 h 0.0000485
ත/ h 0.0000485
කෝ h 0.0000970
24 h 0.0000485
8 h 0.0001940
සෝ h 0.0002910
A.A h 0.0000485
ධ h 0.0043170
ජා h 0.0001455
7 h 0.0001455
ඤ h 0.0000970
රු h 0.0002425
දා h 0.0008731
28 h 0.0000970
ක් h 0.0011641
ඳු h 0.0000485
හැ h 0.0138727
ත්‍ h 0.0005821
ඹ h 0.0002425
S.W.R.D. h 0.0000485
ෂි h 0.0003880
ම h 0.0048021
හු h 0.0137272
චි h 0.0114474
ඬි h 0.0000970
ශ h 0.0018432
තුි h 0.0000485
රා h 0.0000485
ගු h 0.0000970
11 h 0.0001455
ඉ/ h 0.0000970
ලෙ h 0.0000485
තෛ h 0.0007761
හේ h 0.0555879
හ h 0.1705957
ත‍‍ h 0.0000485
චා h 0.0039775
චෛ h 0.0001940
න h 0.0001455
ද් h 0.0002910
ඬු h 0.0000970
ෂු h 0.0000485
ඹෙ h 0.0000485
14 h 0.0001940
වී h 0.0000970
තැ h 0.0246896
ම05 h 0.0000485
දු h 0.0039290
රේ h 0.0000485
ශො h 0.0000970
ස් h 0.0009701
ඝ h 0.0000970
හා h 0.0116414
ලේ h 0.0000485
ෆ් h 0.0000970
ථා h 0.0003880
ධා h 0.0014067
තේ h 0.0064028
ශා h 0.0021343
S.W.R.D h 0.0000485
හේ‍ h 0.0000485
ටැ h 0.0000485
නී h 0.0000485
ගො h 0.0000485
දූ h 0.0001940
ආ h 0.0000970
ඳ h 0.0007276
තෝ h 0.0070819
ෂ h 0.0019402
ඳි h 0.0000970
ධී h 0.0004366
ච h 0.0056267
ත h 0.1797148
NULL h 0.0552484
චෛ් h 0.0000485
දො h 0.0000485
59 h 0.0000485
ත735/12 h 0.0000485
ං h 0.0011641
ඳා h 0.0002910
ෂැ h 0.0002425
බි h 0.0000485
රෝ h 0.0014552
‍ h 0.0000485
ෂෝ h 0.0000970
මෑ h 0.0000485
තෑ h 0.0023768
ඩ h 0.0012612
ඛා h 0.0000970
55 h 0.0000485
ස h 0.0014552
ඩා h 0.0014067
6 h 0.0003880
ජෑ h 0.0000485
වූ h 0.0003880
13 h 0.0000970
38 h 0.0000485
චෙ h 0.0018432
සි h 0.0004851
තො h 0.0116414
හෑ h 0.0015037
ඉ h 0.0000485
පී h 0.0000485
එ h 0.0005821
කා h 0.0000970
ටු h 0.0002910
ධි h 0.0027163
කු h 0.0000485
සෙ h 0.0005336
නෛ h 0.0000970
බා h 0.0001455
හෙ h 0.0176077
ඤා h 0.0000485
කේ h 0.0000485
පේ h 0.0000485
ඡ h 0.0000485
ච් h 0.0131936
චේ h 0.0037350
ති h 0.0410846
ා h 0.0000485
ව h 0.0013097
කො h 0.0007761
ක0624 h 0.0000485
ටී h 0.0000970
භා h 0.0003880
16 h 0.0001455
ථ h 0.0003395
ධු h 0.0000485
ම්. h 0.0000485
චෝ h 0.0011641
47 h 0.0000485
ක h 0.0004851
හී h 0.0053357
තු h 0.0479724
ම08 h 0.0000485
29 h 0.0000485
භි h 0.0000485
නි h 0.0035409
ඹේ h 0.0000485
ති‍ h 0.0000485
භ h 0.0008246
දේ h 0.0005821
ෂා h 0.0007276
තෙ h 0.0089736
ප. l.r.c 0.2500000
ස l.r.c 0.2500000
කො. l.r.c 0.2500000
ඉ. l.r.c 0.2500000
ළ ok 0.5000000
සෝ ok 0.5000000
ස e3 0.2500000
3 e3 0.2500000
පෙ e3 0.2500000
දෙ e3 0.2500000
ධ් 187 1.0000000
01 o:1 0.1666667
ටු o:1 0.1666667
ක o:1 0.1666667
ප o:1 0.1666667
ල් o:1 0.1666667
NULL o:1 0.1666667
ව 1"l 0.5000000
1 1"l 0.5000000
250 250 1.0000000
ව් wp 0.5000000
පො wp 0.5000000
524718 524718 1.0000000
ක o.04 0.5000000
04 o.04 0.5000000
හ 6 0.1145833
06 6 0.0416667
ක 6 0.0208333
ව6 6 0.0104167
6 6 0.2187500
ග් 6 0.0104167
ටු 6 0.0104167
නි 6 0.0416667
වැ 6 0.0208333
ග 6 0.0104167
න 6 0.0312500
ම 6 0.0312500
ජ 6 0.0104167
වෙ 6 0.0937500
ස 6 0.0520833
රා 6 0.0104167
ප 6 0.0208333
ය 6 0.1458333
ව 6 0.1041667
බ්. w.a 0.2500000
ඩ w.a 0.2500000
සි w.a 0.2500000
ඒ. w.a 0.2500000
ම, a,r 0.5000000
රි a,r 0.5000000
ඩො puranpotta 1.0000000
72 72 1.0000000
රි im 0.2000000
මා im 0.2000000
ගි im 0.2000000
ම im 0.2000000
ටි im 0.2000000
ක් km 0.3333333
ම km 0.3333333
ෂෙ km 0.3333333
් 1,2,82,4/5, 0.5000000
1,2,82,4/5, 1,2,82,4/5, 0.5000000
නෛ02 i02 1.0000000
ල් 1015/3 0.5000000
ලි 1015/3 0.5000000
කා au 0.0909091
NULL au 0.0909091
ඌ au 0.0909091
උ au 0.6363636
වෙ au 0.0909091
ර ruwanpura 0.2000000
රු ruwanpura 0.2000000
පු ruwanpura 0.2000000
න් ruwanpura 0.2000000
ව ruwanpura 0.2000000
10 18/7 0.5000000
ං 18/7 0.5000000
159 159 1.0000000
ග 24p 0.1428571
න 24p 0.1428571
ජ 24p 0.1428571
ම 24p 0.1428571
24 24p 0.1428571
ද 24p 0.1428571
ප 24p 0.1428571
ආ e' 0.2500000
බේ e' 0.2500000
අ e' 0.2500000
සු e' 0.2500000
187201 201 0.5000000
ක 201 0.5000000
ක 16 0.2941176
16 16 0.5882353
වැ 16 0.0588235
නි 16 0.0588235
ම ab 0.3333333
මා ab 0.3333333
ටා ab 0.3333333
NULL nu 1.0000000
එ m.a. 0.1428571
කු m.a. 0.1428571
ම් m.a. 0.1428571
ප m.a. 0.1428571
රේ m.a. 0.1428571
ටු m.a. 0.1428571
ඒ m.a. 0.1428571
7 hp 0.1666667
6 hp 0.1666667
ණු hp 0.3333333
ක hp 0.3333333
හා o: 0.2500000
වී o: 0.2500000
ක් o: 0.2500000
දි o: 0.2500000
5 5c 1.0000000
ක 3 0.0102564
තො 3 0.0051282
03 3 0.0205128
හ 3 0.0205128
තු 3 0.0717949
373 3 0.0102564
ස3 3 0.0051282
ත 3 0.0102564
NULL 3 0.0051282
තෙ 3 0.0512821
න 3 0.0615385
ග 3 0.0461538
3/4 3 0.0051282
ම03 3 0.0051282
ටු 3 0.0871795
නි 3 0.0307692
3 3 0.1794872
හා 3 0.0051282
ම 3 0.0564103
රේ 3 0.0051282
347 3 0.0051282
ප 3 0.0871795
වෙ 3 0.0358974
න් 3 0.0666667
ව 3 0.1128205
න් t.l 0.2500000
ශා t.l 0.2500000
ත t.l 0.2500000
ලෙ t.l 0.2500000
ර d. 0.3636364
I d. 0.0909091
සේ d. 0.0909091
ස්. d. 0.0909091
ඩී. d. 0.0909091
එ d. 0.0909091
පා d. 0.0909091
රි d. 0.0909091
D8 d8 1.0000000
අ i.d.p.l. 1.0000000
ස 87 0.2500000
87 87 0.2500000
පෙ 87 0.2500000
දෙ 87 0.2500000
ර d.l 0.2000000
එ d.l 0.2000000
පා d.l 0.2000000
ල්. d.l 0.2000000
ඩී. d.l 0.2000000
ව 47 0.5000000
47 47 0.5000000
ඩ. a./b 0.5000000
බූ a./b 0.5000000
70 70 1.0000000
ම 06 0.0312500
ළ 06 0.0312500
ක 06 0.0312500
06 06 0.5625000
යේ 06 0.0312500
6 06 0.0312500
ග් 06 0.0312500
ස 06 0.0312500
කො 06 0.0312500
රා 06 0.0312500
වැ 06 0.0625000
නි 06 0.0937500
NULL es 0.2000000
වී es 0.2000000
දි es 0.2000000
10 es 0.2000000
සී es 0.2000000
4 4a 0.5000000
ඒ 4a 0.5000000
පී. c.p. 0.5000000
සී. c.p. 0.5000000
ණු 13/14 0.3333333
ක 13/14 0.3333333
13/14 13/14 0.3333333
ර් rv 0.5000000
බා rv 0.5000000
ත st 0.3333333
ශා st 0.3333333
නි st 0.3333333
ම1 u1 0.1666667
ව1 u1 0.3333333
ග් u1 0.1666667
පු1 u1 0.1666667
රා u1 0.1666667
රි y. 0.1666667
ති y. 0.1666667
ඹි y. 0.1666667
ල් y. 0.1666667
ල y. 0.1666667
ගො y. 0.1666667
න් nv 0.3333333
NULL nv 0.3333333
වී nv 0.3333333
8/3 8/3 1.0000000
හො a/h 0.5000000
ර/ a/h 0.5000000
මී i/m 0.5000000
ම i/m 0.5000000
සා t.a 0.1666667
ආ t.a 0.0833333
තෝ t.a 0.0833333
ත t.a 0.1666667
ශා t.a 0.1666667
අ t.a 0.0833333
න් t.a 0.2500000
ම්02 m02 1.0000000
තු u13 0.5000000
ව13 u13 0.5000000
යි. fn 0.2500000
පෙ fn 0.2500000
ස fn 0.2500000
දෙ fn 0.2500000
ම්03 m03 1.0000000
2 al2 0.3333333
ල් al2 0.3333333
එ al2 0.3333333
ජ a,c 1.0000000
ටි ir 0.3333333
වී ir 0.3333333
ට් ir 0.3333333
යා ay 1.0000000
මා ma 0.6666667
ම ma 0.3333333
සා eb 0.1666667
ටෙ eb 0.1666667
කි eb 0.1666667
බැ eb 0.1666667
බො eb 0.1666667
NULL eb 0.1666667
දි csi 0.1666667
යි csi 0.1666667
සී csi 0.1666667
එ csi 0.1666667
වී csi 0.1666667
අ csi 0.1666667
සි. n.c.d 0.5000000
න්. n.c.d 0.5000000
ඉ t10,r 0.2000000
ර t10,r 0.2000000
වු t10,r 0.2000000
ු t10,r 0.2000000
10 t10,r 0.2000000
ය 44 0.2500000
1444 44 0.2500000
යා 44 0.2500000
44 44 0.2500000
ක් kd 1.0000000
අ n, 0.1666667
NULL n, 0.3333333
හා n, 0.1666667
ට n, 0.1666667
ව n, 0.1666667
බී. r.b. 0.3333333
ර්. r.b. 0.3333333
ආ r.b. 0.3333333
10 10 0.7727273
ඒ 10 0.0681818
ණු 10 0.0227273
ය10 10 0.0227273
ක 10 0.0909091
හ 10 0.0227273
සා t.t 0.1666667
රේ t.t 0.1666667
ත t.t 0.1666667
ශා t.t 0.1666667
න් t.t 0.1666667
තෙ t.t 0.1666667
NULL et 0.2500000
තෙ et 0.2500000
ත et 0.2500000
ත් et 0.2500000
බී b' 1.0000000
ර්20 r20 1.0000000
200 200 1.0000000
කි ik 1.0000000
7/1 7/1 1.0000000
තු u12 0.5000000
ව12 u12 0.5000000
07485 485 0.2500000
ද 485 0.2500000
වා 485 0.2500000
ක් 485 0.2500000
ව16 u16 0.5000000
තු u16 0.5000000
1415 1415 0.2500000
ද 1415 0.2500000
වා 1415 0.2500000
ක් 1415 0.2500000
05, v.05, 0.3333333
ම v.05, 0.3333333
ස v.05, 0.3333333
NULL 45/1/1 1.0000000
ස්. s.s.d 0.4000000
ඩ s.s.d 0.2000000
එ s.s.d 0.4000000
ම/ t& 1.0000000
60 f 0.0041408
ෆූ f 0.0020704
පැ f 0.0248447
භා f 0.0020704
පු f 0.0082816
ම/ f 0.0020704
කෝ f 0.0020704
මි f 0.0020704
කො f 0.0062112
පො f 0.0248447
ා f 0.0020704
ව f 0.0227743
ති f 0.0020704
දා f 0.0041408
ක f 0.0062112
ග‍ f 0.0020704
ම්. f 0.0020704
ඟ f 0.0020704
ෆා f 0.0414079
භ f 0.0020704
F f 0.0020704
ෆෙ f 0.0103520
ත156 f 0.0020704
ගෙ f 0.0020704
යේ f 0.0020704
ටො f 0.0041408
දෙ f 0.0062112
ම් f 0.0082816
න් f 0.0103520
ප f 0.0559006
කි f 0.0020704
ෆැ f 0.0020704
දෞ f 0.0020704
ෆි f 0.0248447
ඉ f 0.0165631
එ f 0.0041408
පී f 0.0103520
ෆ්‍ f 0.0124224
තො f 0.0041408
ප්‍ f 0.0351967
143 f 0.0020704
ෆු f 0.0041408
ෆ් f 0.0289855
12 f 0.0020704
දු f 0.0020704
පෝ f 0.0041408
05 f 0.0020704
ණ f 0.0082816
646 f 0.0020704
ප් f 0.0434783
පා f 0.0165631
ටැ f 0.0020704
ගො f 0.0310559
ෆෝ f 0.0455487
NULL f 0.0993789
පෘ f 0.0062112
ධී f 0.0124224
ත f 0.0062112
ම f 0.0414079
ෆො f 0.0248447
ඩි f 0.0103520
වු f 0.0020704
ෆ f 0.0414079
ශ f 0.0041408
පෙ f 0.0041408
ල් f 0.0020704
ට් f 0.0041408
වි f 0.0310559
පි f 0.0020704
ෆී f 0.0476190
උ f 0.0062112
චා f 0.0020704
මා f 0.0062112
හ f 0.0103520
ඕ f 0.0020704
නො f 0.0020704
ර් f 0.0414079
623 f 0.0020704
ර්. f 0.0041408
යා f 0.0062112
ත් a/ 0.2500000
හො a/ 0.2500000
නො a/ 0.2500000
ම/ a/ 0.2500000
ක 05 0.1276596
ම 05 0.0425532
අ 05 0.0212766
ඉ 05 0.0212766
ඒ 05 0.0212766
රි 05 0.0212766
5 05 0.0425532
ය 05 0.0212766
රා 05 0.0212766
වු 05 0.0212766
ම් 05 0.0212766
ර 05 0.0425532
05 05 0.5319149
ති 05 0.0212766
යා 05 0.0212766
ප්‍ m.j.c.f 0.5000000
M.J.C. m.j.c.f 0.5000000
ට, o,n 0.5000000
න o,n 0.5000000
චි z 0.0076923
ඩ z 0.1000000
සා z 0.0538462
වි z 0.0153846
ට් z 0.0076923
ස z 0.0615385
ය z 0.1000000
ප z 0.0461538
සේ z 0.0076923
ු z 0.0076923
යේ z 0.0076923
ඩි z 0.0076923
ස් z 0.0076923
දි z 0.1538462
ණ් z 0.0076923
සු z 0.0076923
ඩී z 0.0076923
වී z 0.1615385
NULL z 0.0076923
ටි z 0.0076923
ළා z 0.0076923
ලා z 0.0384615
ලූ z 0.0076923
සී z 0.0153846
සි z 0.0076923
A z 0.0076923
ෆ්‍ z 0.0076923
ක z 0.1230769
දෙ k5 0.2000000
ය5 k5 0.2000000
යා k5 0.2000000
පෙ k5 0.2000000
ස k5 0.2000000
ර්17 r17 1.0000000
සී. m.c.r 0.3333333
ම්. m.c.r 0.3333333
එ m.c.r 0.3333333
ග t.c 0.2000000
න t.c 0.2000000
ර t.c 0.2000000
භා t.c 0.2000000
ස t.c 0.2000000
රි 134 1.0000000
NULL 43/1 1.0000000
2 d2 1.0000000
ජු t.j 0.1333333
ජූ t.j 0.1333333
න් t.j 0.2666667
ත t.j 0.2666667
ශා t.j 0.2000000
ර5 5 0.0068027
ං 5 0.0068027
රේ 5 0.0136054
ව5 5 0.0068027
ස් 5 0.0680272
ම 5 0.0544218
ව 5 0.1088435
ප 5 0.1632653
වෙ 5 0.0272109
ණු 5 0.0136054
05 5 0.0340136
ළා 5 0.0068027
5 5 0.2244898
ළො 5 0.0068027
ක 5 0.0408163
අ 5 0.0068027
5/ 5 0.0068027
4 5 0.0068027
න 5 0.1020408
/ 5 0.0068027
ටු 5 0.0544218
නි 5 0.0272109
ම05 5 0.0068027
දා o 0.0000546
ඩු o 0.0002184
ගොා o 0.0000546
ද o 0.0003823
පැ o 0.0008738
සෝ o 0.0036044
20 o 0.0000546
කෙ o 0.0001092
ෂො o 0.0001092
ව් o 0.0001092
143 o 0.0000546
ගෲ o 0.0000546
ඩේ o 0.0002731
දෙ o 0.0003823
න් o 0.0010376
ම් o 0.0001092
ප o 0.0069357
කි o 0.0000546
52 o 0.0000546
දෞ o 0.0000546
සා o 0.0003277
මේ o 0.0000546
ද්‍ o 0.0002731
බෝ o 0.0258861
පා o 0.0952433
A o 0.0000546
03 o 0.0003277
තූ o 0.0004369
ලා o 0.0002184
5 o 0.0001092
ලූ o 0.0012561
සී o 0.0001092
මො o 0.0192234
බ්. o 0.0000546
මු o 0.0023483
නූ o 0.0005461
9180 o 0.0000546
තො o 0.0000546
හූ o 0.0003277
බෝ o 0.0000546
සැ o 0.0004369
05 o 0.0003823
ඝෝ o 0.0000546
සි. o 0.0000546
බෞ o 0.0001092
මා o 0.0017476
ඨා o 0.0007646
ඕ o 0.0092840
බෙෘ o 0.0001092
ප‍ා o 0.0000546
10 o 0.0000546
347 o 0.0000546
ජු o 0.0003277
ජො o 0.0006553
ඔෙ o 0.0000546
ට් o 0.0006007
ජෝ o 0.0027306
වි o 0.0004369
ඔ o 0.0204795
13/14 o 0.0000546
ත් o 0.0000546
06 o 0.0001638
රාෙ o 0.0000546
චෝ o 0.0014745
ම්. o 0.0002184
04 o 0.0002184
රැ o 0.0001092
ඟ o 0.0001638
භි o 0.0000546
ලෝ o 0.0064988
පේ o 0.0000546
ව5 o 0.0000546
3 o 0.0002731
ටී o 0.0001638
478602 o 0.0001092
භා o 0.0005461
කො o 0.0858500
ව o 0.0055704
1 o 0.0002731
එ o 0.0000546
1,2,82,4/5, o 0.0000546
තො o 0.0162744
වූ o 0.0003277
6 o 0.0002184
ළා o 0.0004915
250 o 0.0000546
ධි o 0.0000546
රූ o 0.0006007
ත156 o 0.0000546
ණෝ o 0.0002184
ෂෝ o 0.0001092
යො o 0.0010376
රෝ o 0.0054066
යේ o 0.0002731
II o 0.0000546
97644/5 o 0.0000546
ත735/12 o 0.0001092
161247 o 0.0000546
ටො o 0.0014745
ණු o 0.0013107
ස o 0.0010376
ක1 o 0.0001092
ලු o 0.0003277
තA o 0.0001638
ඩෝ o 0.0014199
ගො o 0.1991153
මූ o 0.0037136
දො o 0.0210256
බො o 0.0162744
ත o 0.0027852
ෂ o 0.0006007
02 o 0.0004915
ශො o 0.0001092
පෝ o 0.0051881
රි o 0.0004369
ණ o 0.0004369
ටෝ o 0.0011469
කො‍ o 0.0000546
හ o 0.0002731
ට630 o 0.0001092
ගො o 0.0004915
ි o 0.0000546
310724 o 0.0000546
රො o 0.0074272
යා o 0.0000546
න o 0.0022391
ගෙි o 0.0001092
ට29 o 0.0000546
ම o 0.0015837
බෲ o 0.0008738
ඹ o 0.0023483
බ o 0.0006007
23/2 o 0.0000546
1444 o 0.0000546
0328 o 0.0000546
ඩෲ o 0.0003823
වෝ o 0.0028944
ළ o 0.0062804
ල o 0.0011469
යූ o 0.0012015
පු o 0.0016384
කෟ o 0.0001092
කෝ o 0.0276883
රී o 0.0001638
පො o 0.0703402
ශු o 0.0001092
ශ් o 0.0000546
අ o 0.0001092
ෙ o 0.0004369
71 o 0.0000546
0565 o 0.0000546
බු o 0.0003823
ය/ o 0.0000546
ඇ o 0.0002184
9 o 0.0001638
69 o 0.0000546
1,2,3,4, o 0.0000546
ු o 0.0003277
723 o 0.0000546
ර o 0.0141445
50 o 0.0001638
හො o 0.0138168
භූ o 0.0009830
18 o 0.0001092
ක1315 o 0.0000546
චො o 0.0004915
ව6 o 0.0000546
යෝ o 0.0032221
290 o 0.0001092
සු o 0.0021299
සූ o 0.0039321
මෙ o 0.0000546
නු o 0.0005461
ඹ් o 0.0007100
යු o 0.0002731
ගූ o 0.0001092
ශෝ o 0.0007100
බෟ o 0.0001092
දෝ o 0.0019114
උ o 0.0006553
ක01 o 0.0001092
නො o 0.0038775
ඩ් o 0.0031129
ර් o 0.0020753
ය4 o 0.0000546
ර්. o 0.0000546
ැ o 0.0001092
09 o 0.0001638
හෝ o 0.0024029
0331 o 0.0000546
ජ o 0.0725247
චූ o 0.0002184
ල් o 0.0007100
ය o 0.0045874
කූ o 0.0034406
ට o 0.0043690
වා o 0.0018568
තු o 0.0002731
ක o 0.0048605
ය3 o 0.0001092
ගෝ o 0.0088471
තෙ o 0.0000546
වො o 0.0003823
නි o 0.0013653
උා o 0.0001092
01 o 0.0002184
ඡ o 0.0003823
ඹො o 0.0001092
0318 o 0.0000546
බා o 0.0000546
ඒ o 0.0001092
/410 o 0.0000546
588 o 0.0000546
19 o 0.0000546
76129 o 0.0000546
ට654 o 0.0001092
වෛා o 0.0000546
යි. o 0.0000546
කු o 0.0015291
සෙ o 0.0002731
ටු o 0.0001092
කා o 0.0000546
ඊ. o 0.0001092
ගෙ o 0.0003823
මෝ o 0.0079733
බෙ o 0.0000546
ං o 0.0007100
පූ o 0.0047512
ටෲ o 0.0001092
238 o 0.0001092
වෛ. o 0.0000546
ඩ o 0.0016384
හාෙ o 0.0000546
ගා o 0.0002184
ෆෝ o 0.0012561
කෲ o 0.0002184
NULL o 0.0617662
නෝ o 0.0033313
තෝ o 0.0076457
දූ o 0.0058435
බූ o 0.0006553
ෆු o 0.0001092
ස් o 0.0004369
103210 o 0.0000546
රේ o 0.0001092
කො o 0.0001638
දු o 0.0051881
සො o 0.0030037
රා් o 0.0000546
ථා o 0.0001092
ළො o 0.0005461
ඹෝ o 0.0002731
ලෙ o 0.0002731
2 o 0.0001092
කැ o 0.0001092
වී o 0.0015291
ලො o 0.0050243
රෙ o 0.0000546
ෆො o 0.0008192
නෙ o 0.0000546
වු o 0.0046420
ගු o 0.0006007
ඩො o 0.0010376
රා o 0.0000546
පෙ o 0.0000546
ශ o 0.0000546
හු o 0.0001638
4354 o 0.0000546
ටෑ o 0.0000546
ස .q 0.2500000
භා .q 0.2500000
වා .q 0.2500000
නි .q 0.2500000
අ 03 0.0277778
ක 03 0.1527778
03 03 0.6666667
0318 03 0.0138889
් 03 0.0138889
ං 03 0.0277778
0328 03 0.0138889
NULL 03 0.0138889
ය 03 0.0416667
01 03 0.0138889
යා 03 0.0138889
ළ el 0.2222222
හ el 0.2222222
ු el 0.0555556
NULL el 0.0555556
ස el 0.0555556
ප el 0.2777778
ලී el 0.0555556
බේ el 0.0555556
16 k16 1.0000000
නෛ04 i04 1.0000000
ව4 u4 0.6000000
තු u4 0.4000000
යා 480/20/9 0.3333333
උ 480/20/9 0.3333333
ද්‍ 480/20/9 0.3333333
ද 6970 0.2500000
6970 6970 0.2500000
ක් 6970 0.2500000
වා 6970 0.2500000
09 z/ 0.5000000
ස් z/ 0.5000000
කො o:10 0.1250000
ට් o:10 0.1250000
ශ o:10 0.1250000
10 o:10 0.1250000
අ o:10 0.1250000
ක o:10 0.1250000
ං o:10 0.1250000
ඨා o:10 0.1250000
සා 143 1.0000000
ශ් q 0.0077519
තු q 0.0465116
ඨ q 0.0077519
ර් q 0.0077519
කු q 0.0310078
ච q 0.0465116
ලි q 0.1240310
නි q 0.1317829
ක් q 0.0775194
මෙ q 0.0155039
ලේ q 0.0077519
ළ q 0.0232558
ල q 0.0387597
ස් q 0.0077519
ඩි q 0.0077519
ර q 0.0155039
ම් q 0.0232558
යු q 0.0077519
භා q 0.0155039
ල් q 0.0620155
ස q 0.0077519
ප q 0.0697674
ය q 0.0852713
කි q 0.0232558
ථා q 0.0077519
වා q 0.0930233
ෂ් q 0.0077519
04108 108 1.0000000
පෙ m.e 0.2000000
එ m.e 0.2000000
ඊ m.e 0.2000000
ම්. m.e 0.2000000
රේ m.e 0.2000000
ද 0183/1479 0.2500000
වා 0183/1479 0.2500000
ක් 0183/1479 0.2500000
0183/1479 0183/1479 0.2500000
ම්01 m01 1.0000000
12 12e 0.5000000
ඇ 12e 0.5000000
391683 391 1.0000000
ඒ 66a 0.3333333
0166 66a 0.3333333
/410 66a 0.3333333
ප id 0.1428571
ල id 0.1428571
ම් id 0.1428571
ර් id 0.1428571
දු id 0.1428571
චි id 0.1428571
ටෙ id 0.1428571
ඔ ao 1.0000000
ං 30 0.0555556
ක 30 0.0555556
ද 30 0.0555556
එ 30 0.0555556
ර30 30 0.0555556
වා 30 0.1111111
ක් 30 0.1111111
වැ 30 0.0555556
30 30 0.2777778
නි 30 0.1111111
0130 30 0.0555556
කු. 09, 0.1666667
ඉ 09, 0.1666667
වු 09, 0.1666667
ු 09, 0.1666667
ග. 09, 0.1666667
09 09, 0.1666667
ස්. d.s.s. 0.2000000
ස් d.s.s. 0.2000000
ඩි. d.s.s. 0.2000000
එ d.s.s. 0.4000000
වෝ re 0.3333333
ර් re 0.3333333
නෝ re 0.3333333
වැ i/w 0.5000000
රි/ i/w 0.5000000
, a,g 0.5000000
ගු a,g 0.5000000
ශ fk 0.5000000
ජ fk 0.5000000
මැ em 0.3333333
ලේ em 0.1666667
ලෑ em 0.1666667
ම em 0.1666667
මා em 0.1666667
ට් 120 1.0000000
‍ d 0.0001244
ඊ. d 0.0000830
ං d 0.0000415
යේ d 0.0000830
ඳා d 0.0009541
ස d 0.0000415
I d 0.0000830
ඩ d 0.1998590
ධ් d 0.0004563
එ d 0.0000415
ළා d 0.0000830
ඩා d 0.0222757
ධි d 0.0032356
සෙ d 0.0000415
සී. d 0.0001659
ටු d 0.0012445
3 d 0.0006222
ඒ d 0.0000415
මි d 0.0000415
ඩ1 d 0.0000415
ධු d 0.0002074
ඩෙ d 0.0038578
භා d 0.0000415
ති d 0.0006222
ඞු d 0.0000415
1 d 0.0001244
ව d 0.0036089
තු d 0.0005807
ඪී d 0.0000830
ම්. d 0.0000830
04 d 0.0000415
B d 0.0000415
රැ d 0.0000415
ඞ d 0.0000830
දේ d 0.0119467
ඟ d 0.0000415
ඞි d 0.0000415
01 d 0.0002074
නි d 0.0002904
ම d 0.0005393
ඩො d 0.0007882
ශ d 0.0000415
ජි d 0.0000830
ර8 d 0.0000415
11 d 0.0000415
චි d 0.0000415
ඬි d 0.0013274
බ d 0.0000415
හ d 0.0000830
චා d 0.0000415
. d 0.0000415
ර76132 d 0.0000415
ි d 0.0000415
2 d 0.0007882
ටෙ d 0.0002074
ඩෑ d 0.0003319
රො d 0.0000415
න d 0.0014519
ඬු d 0.0012030
ද් d 0.0398225
ස් d 0.0002074
02 d 0.0004563
ලේ d 0.0003319
දු d 0.0453810
ඩ්‍ d 0.0001244
රේ d 0.0001244
ණ d 0.0000415
123 d 0.0000415
ලෑ d 0.0000415
ජේ. d 0.0000415
තේ d 0.0000415
ධා d 0.0017008
ඩ, d 0.0000830
ඩෝ d 0.0010785
ද්් d 0.0000415
ත d 0.0042726
ධී d 0.0004148
දො d 0.0161364
NULL d 0.0189986
ඹු d 0.0000415
දූ d 0.0053926
ඳි d 0.0025719
ඳ d 0.0080060
ඬා d 0.0000415
ඩේ d 0.0034845
දෙ d 0.0612270
ු d 0.0006222
දෑ d 0.0022400
ර5 d 0.0000415
69 d 0.0000415
හා2 d 0.0000415
ඳේ d 0.0000415
ප d 0.0001244
ර d 0.1022525
න් d 0.0009541
ද්ෙ d 0.0001659
සා d 0.0000415
ද2 d 0.0000415
අ d 0.0001659
71 d 0.0000415
ෙ d 0.0000830
03, d 0.0000415
වේ d 0.0001659
ඩී d 0.0035259
ග් d 0.0001244
4 d 0.0001244
53 d 0.0000415
ල d 0.0007882
ද d 0.1816900
ළ d 0.0004978
ඩ11 d 0.0000415
පු d 0.0001659
දැ d 0.0043556
පො d 0.0000830
ඩ. d 0.0000415
ද, d 0.0000415
දා d 0.0118638
රු d 0.0000415
1,2,3 d 0.0000415
ඩු d 0.0486166
ටී. d 0.0000415
ධ d 0.0067200
ඳු d 0.0074252
ඩෛ d 0.0019911
ඩෲ d 0.0003319
බී d 0.0000415
ටා d 0.0003319
ඩූ d 0.0003319
ජු d 0.0001244
ඩි d 0.0510225
ල් d 0.0002074
ඩ/ d 0.0000830
ට් d 0.0067200
ය d 0.0002489
ද‍ d 0.0000415
ත් d 0.0002904
ට d 0.0027378
යි d 0.0001244
08 d 0.0000415
මා d 0.0001244
උ d 0.0000830
ඨා d 0.0005807
තී d 0.0001244
ඩ් d 0.0355498
ර් d 0.0007467
ටි d 0.0012859
ම03 d 0.0000415
3rd d 0.0000415
ඬ d 0.0004148
ද1 d 0.0000415
ලෛ d 0.0000415
දෛ d 0.0000415
ගි d 0.0001244
දෝ d 0.0014933
ඩී. d 0.0002489
ප් d 0.0000830
ඬේ d 0.0002074
03 d 0.0002904
32 d 0.0000830
ද්‍ d 0.0020326
පා d 0.0018667
මු d 0.0001244
දී d 0.0036089
් d 0.0000415
ඩැ d 0.0048119
දි d 0.0387854
ටෛ d 0.0001244
ෆො b.b.f 0.3333333
බී b.b.f 0.6666667
අ 28 0.0769231
ක 28 0.1538462
ං 28 0.0769231
0328 28 0.0769231
ප 28 0.0769231
නි 28 0.0769231
වැ 28 0.1538462
28 28 0.3076923
17 a17 1.0000000
න්. n.t 0.3333333
ටී. n.t 0.3333333
එ n.t 0.3333333
ඩ් dw 0.2857143
වැ dw 0.1428571
ව dw 0.4285714
හා dw 0.1428571
ග් r 0.0000516
143 r 0.0000516
53 r 0.0000516
වැ r 0.0001032
කෙ r 0.0000516
ඒ. r 0.0000516
ෙ r 0.0001032
ව් r 0.0000516
ප r 0.0002579
න් r 0.0006705
ර r 0.4123472
සා r 0.0006189
මේ r 0.0002579
භූ r 0.0000516
හො r 0.0000516
ච්. r 0.0001547
ගෲ r 0.0000516
723 r 0.0000516
දෙ r 0.0001032
ු r 0.0007221
රෛ් r 0.0000516
58167/4 r 0.0000516
4/44 r 0.0000516
ක් r 0.0001547
ඩෲ r 0.0003610
රු r 0.0812316
1444 r 0.0000516
ධ r 0.0000516
0328 r 0.0000516
7 r 0.0001032
4240 r 0.0000516
20 r 0.0000516
කෝ r 0.0001547
කෟ r 0.0001032
පු r 0.0001032
ර30 r 0.0000516
පො r 0.0000516
රී r 0.0082521
ර66 r 0.0000516
ද r 0.0009284
ල r 0.0020114
ළ r 0.0011862
පැ r 0.0001547
ප‍ා r 0.0000516
ටි r 0.0001547
ර් r 0.0531745
රෑ r 0.0018567
ග r 0.0003095
10 r 0.0001032
ර, r 0.0001032
ලි r 0.0000516
මා r 0.0076332
2165 r 0.0000516
බෘෘ r 0.0000516
ඨා r 0.0001032
ඕ r 0.0001547
ඩ් r 0.0015988
120/2 r 0.0000516
ෆ r 0.0000516
ය2/4 r 0.0000516
රුෙ r 0.0001032
ය r 0.0144412
ට් r 0.0015988
ල් r 0.0004642
ත් r 0.0002063
මෘ r 0.0002579
වා r 0.0001032
ඔ r 0.0000516
යි r 0.0001547
වි r 0.0006189
රෛ r 0.0023209
ට r 0.0001547
වි‍ r 0.0000516
හෝ r 0.0001547
ඩි r 0.0003610
ජු r 0.0000516
පෞ r 0.0002579
රු, r 0.0000516
දි r 0.0020114
ර111 r 0.0000516
GTZ r 0.0000516
22 r 0.0000516
ක1315 r 0.0000516
03 r 0.0002579
පා r 0.1230595
ද්‍ r 0.0007736
ඨ r 0.0000516
දී r 0.0001032
646 r 0.0000516
05 r 0.0003610
භු r 0.0000516
බෟ r 0.0001547
3rd r 0.0000516
ඹ් r 0.0001547
139 r 0.0000516
12 r 0.0001547
2137 r 0.0000516
කු r 0.0000516
ටු r 0.0005673
සී. r 0.0000516
ෆ්‍ r 0.0000516
සි r 0.0000516
එ r 0.0002063
ඉ r 0.0004126
ස r 0.0011347
ර9 r 0.0000516
ධ් r 0.0024756
ඩ r 0.0007221
ය් r 0.0000516
රූ r 0.0012894
ත156 r 0.0001032
ටෲ r 0.0000516
161247 r 0.0000516
බෙ r 0.0002579
රෝ r 0.0041261
යේ r 0.0004642
ෆා r 0.0004642
රි/ r 0.0000516
5/245/1/1 r 0.0000516
ඟ r 0.0001032
රැ r 0.0128423
07 r 0.0000516
01 r 0.0001032
භි r 0.0000516
ක r 0.0005158
රාෙ r 0.0000516
06 r 0.0000516
තු r 0.0004642
භා r 0.0000516
ටී r 0.0000516
588 r 0.0000516
ා r 0.0000516
ව r 0.0003610
ර‍ r 0.0001032
3 r 0.0008768
කේ r 0.0027335
පේ r 0.0002063
ඒ r 0.0001032
රා‍ r 0.0000516
බා r 0.0000516
ට්A r 0.0000516
හෙ r 0.0000516
ර53 r 0.0000516
රො r 0.0070143
වී r 0.0074269
623 r 0.0000516
න r 0.0002579
යා r 0.0030945
ද් r 0.0008252
හ r 0.0000516
චා r 0.0005158
කැ r 0.0000516
ටෙ r 0.0001032
373 r 0.0001032
පෙ r 0.0001032
රා r 0.0598793
11 r 0.0001547
4354 r 0.0000516
බ r 0.0000516
බෲ r 0.0004126
රෙ r 0.0069627
ම r 0.0006189
ර/ r 0.0001032
රිෙ r 0.0001032
ධ්‍ r 0.0001547
නෝ r 0.0001032
බො r 0.0000516
ත r 0.0025272
NULL r 0.0250142
පෘ r 0.0001547
ආ r 0.0003610
6/1 r 0.0000516
කෲ r 0.0000516
ෆෝ r 0.0008252
123 r 0.0000516
ස්. r 0.0000516
න්. r 0.0000516
ථා r 0.0001032
ටෝ r 0.0001032
103210 r 0.0000516
ස් r 0.0001032
02 r 0.0000516
ෆු r 0.0000516
ලේ r 0.0000516
දු r 0.0012378
රි r 0.1093919
කේ. r 0.0001032
රේ r 0.0138738
පි01 i01 0.2000000
තී i01 0.2000000
නෛ01 i01 0.2000000
ලෛ i01 0.2000000
වු i01 0.2000000
ත/ a/w 0.2500000
වැ a/w 0.5000000
ව/ a/w 0.2500000
58167/4 58167/4 1.0000000
ට 96 0.2000000
143 96 0.2000000
ය 96 0.2000000
සි 96 0.4000000
1 e1 1.0000000
ග. 20, 0.1666667
ු 20, 0.1666667
වු 20, 0.1666667
කු. 20, 0.1666667
ඉ 20, 0.1666667
20 20, 0.1666667
කො ] 1.0000000
ප e,p 1.0000000
2 1,2,3 0.0833333
1,2,3 1,2,3 0.1666667
ම 1,2,3 0.1666667
3 1,2,3 0.0833333
ය1,2,3 1,2,3 0.0833333
ටු 1,2,3 0.1666667
1 1,2,3 0.0833333
ප 1,2,3 0.1666667
හැ y 0.0000994
ඹේ y 0.0000994
රැ y 0.0000994
බී y 0.0000994
ෆෙ y 0.0000994
නි y 0.0061655
තු y 0.0001989
ඩු y 0.0000994
සේ y 0.0000994
ටී y 0.0000994
16 y 0.0000994
කෝ y 0.0000994
මි y 0.0003978
පො y 0.0000994
ය1 y 0.0001989
1 y 0.0000994
ති y 0.0021877
පේ y 0.0000994
ය514 y 0.0000994
ල y 0.0005967
යූ y 0.0010939
ළි y 0.0005967
ඹෑ y 0.0001989
ඩී y 0.0018894
යෙ y 0.0012928
වෛ y 0.0002983
වැ y 0.0001989
ප්‍ y 0.0000994
ණි y 0.0062649
පී y 0.0000994
38 y 0.0000994
සි y 0.0013922
කෛ y 0.0000994
ඩා y 0.0000994
ළා y 0.0000994
ම් y 0.0000994
ර y 0.0016905
ටේ y 0.0000994
වෛ. y 0.0000994
ප y 0.0005967
ය් y 0.0000994
කි y 0.0001989
බේ y 0.0000994
ඩ y 0.0001989
ඥා y 0.0000994
ය10 y 0.0000994
‍ y 0.0000994
ය/ y 0.0000994
යො y 0.0021877
ගෲ y 0.0000994
යේ y 0.0036794
NULL y 0.0075577
යI y 0.0000994
ත y 0.0008950
දූ y 0.0000994
දි y 0.0013922
පා y 0.0026850
නී y 0.0000994
ගො y 0.0000994
මෛ y 0.0000994
යෝ y 0.0044749
සී y 0.0000994
දී y 0.0000994
ලෑ y 0.0002983
යු y 0.0030827
ජ් y 0.0000994
ය2 y 0.0001989
ණ y 0.0003978
වී. y 0.0000994
තේ y 0.0000994
දෝ y 0.0000994
ජේ. y 0.0000994
ලේ y 0.0004972
ස් y 0.0001989
රේ y 0.0000994
යැ y 0.0009944
රි y 0.0020883
මී y 0.0000994
ටි y 0.0032816
ගේ y 0.0000994
ලී y 0.0004972
ලි y 0.0082538
රෑ y 0.0000994
න y 0.0035800
යා y 0.1569212
ග/ y 0.0000994
35 y 0.0001989
මා y 0.0010939
හ y 0.0003978
39 y 0.0000994
2 y 0.0000994
ඩ් y 0.0004972
ජ y 0.0000994
ඔෙ y 0.0000994
11 y 0.0001989
ය y 0.7111177
ට් y 0.0001989
ඔ y 0.0000994
වි y 0.0002983
යි y 0.0175020
ය1,2,3 y 0.0000994
හු y 0.0000994
ෆී y 0.0002983
චි y 0.0001989
යෞ y 0.0000994
ළී y 0.0002983
රෙ y 0.0001989
ම y 0.0001989
ඹ y 0.0001989
ඩි y 0.0327168
ය20 y 0.0000994
ටි ws 0.3333333
කෙ ws 0.3333333
ව ws 0.3333333
478602 602 1.0000000
නො no 0.2222222
ං no 0.2222222
අ no 0.2222222
11 no 0.1111111
ක no 0.2222222
ස b. 0.1250000
ට b. 0.1250000
කා b. 0.1250000
බි. b. 0.1250000
බි b. 0.1250000
අැෙ b. 0.1250000
ටි. b. 0.1250000
ෙ b. 0.1250000
පෞ c.100 0.1666667
ක c.100 0.1666667
ග c.100 0.1666667
100 c.100 0.1666667
දු c.100 0.1666667
ලි c.100 0.1666667
කු ku 1.0000000
අ i.d.h 0.1666667
පා i.d.h 0.1111111
එ i.d.h 0.1666667
දූ i.d.h 0.0555556
ච් i.d.h 0.0555556
ච්. i.d.h 0.1111111
ඩී. i.d.h 0.1666667
යි. i.d.h 0.1666667
ඹ s.h.d 0.3333333
කො s.h.d 0.3333333
ළ s.h.d 0.3333333
ම v.3 0.3333333
ස v.3 0.3333333
03, v.3 0.3333333
ලේ ee 0.1600000
සැ ee 0.0400000
ඇ ee 0.0800000
පෟ ee 0.0400000
නේ ee 0.0400000
ව් ee 0.0400000
ඊ ee 0.0400000
හෝ ee 0.0400000
ර් ee 0.0400000
ව ee 0.4000000
ති ee 0.0400000
යා ee 0.0400000
LRC lrc 1.0000000
ර්18 r18 1.0000000
අ 15b 0.2500000
ක1315 15b 0.2500000
බී 15b 0.2500000
ං 15b 0.2500000
18 18a 1.0000000
බී. r.b.c 0.3333333
ර්. r.b.c 0.3333333
ආ r.b.c 0.3333333
සී 1/c 0.5000000
1 1/c 0.5000000
න2 2 0.0031250
ද2 2 0.0031250
ව 2 0.1468750
පි 2 0.0062500
බ් 2 0.0031250
ර 2 0.0187500
11 2 0.0031250
වෙ 2 0.0375000
ම් 2 0.0031250
හා2 2 0.0031250
ය2 2 0.0062500
ය 2 0.0218750
ප 2 0.1031250
දෙ 2 0.1406250
ං 2 0.0031250
ම 2 0.1000000
02 2 0.0250000
3 2 0.0031250
නි 2 0.0031250
ටු 2 0.1062500
ව2 2 0.0031250
ග 2 0.0031250
න 2 0.0062500
NULL 2 0.0031250
2137 2 0.0031250
ත2 2 0.0031250
2 2 0.2093750
මු 2 0.0031250
අ 2 0.0031250
ක 2 0.0218750
0425T 25t 1.0000000
මෝ od 0.5000000
ඩූ od 0.5000000
ක් ke 1.0000000
ත ail 1.0000000
ර 273 0.2500000
273 273 0.2500000
ප් 273 0.2500000
ධා 273 0.2500000
90 90 0.3333333
290 90 0.3333333
ක 90 0.3333333
නා d.s.s 0.3333333
D'S. d.s.s 0.1666667
D'S d.s.s 0.1666667
සේ d.s.s 0.3333333
අ 181 0.2500000
ක 181 0.2500000
134181 181 0.2500000
ං 181 0.2500000
ණා u 0.0001905
බූ u 0.0004286
දූ u 0.0039522
ඹු u 0.0362840
NULL u 0.0155707
පෘ u 0.0001429
ච u 0.0000952
බො u 0.0000952
ත u 0.0011428
80 u 0.0000476
මූ u 0.0020475
ඩෝ u 0.0000476
ගො u 0.0000952
ධා u 0.0000476
ටෝ u 0.0000476
තේ u 0.0000476
ථා u 0.0000952
ජේ. u 0.0000476
ස්. u 0.0000476
ණ u 0.0000952
රේ u 0.0000476
රි u 0.0000952
දු u 0.0516166
පෝ u 0.0000476
ෆු u 0.0000476
ලේ u 0.0002857
ස් u 0.0001905
ඬු u 0.0013333
ඔූ u 0.0000476
ෂු u 0.0000476
න u 0.0000952
වී u 0.0000952
මී u 0.0000476
කැ u 0.0000476
හ u 0.0021904
බ u 0.0008571
හු u 0.0131898
වෙ u 0.0000952
වු u 0.0232370
ජි u 0.0000476
11 u 0.0000476
තුි u 0.0000476
ගු u 0.0196181
ඹූ u 0.0001905
ර්12 u 0.0000476
ම u 0.0005714
බෲ u 0.0000952
ෂි u 0.0000952
ලෝ u 0.0000952
රැ u 0.0037141
ළූ u 0.0000476
04 u 0.0000476
ක u 0.0003809
තු u 0.0500929
ර්16 u 0.0000476
ා u 0.0000952
ව u 0.0010000
ඞු u 0.0000476
භා u 0.0002857
ටී u 0.0000476
ධු u 0.0001429
ර්20 u 0.0000476
කො u 0.0000952
බා u 0.0000952
ඒ u 0.0010476
ර‍ u 0.0000476
ටු u 0.0440455
කු u 0.1276130
2137 u 0.0000476
6 u 0.0000476
එ u 0.0001429
ඉ u 0.0000476
වූ u 0.0003333
සි u 0.0000476
තො u 0.0000952
ර්13 u 0.0000476
ලු u 0.0390458
ඩ u 0.0009523
ණු u 0.0175230
වෛ. u 0.0000476
ස u 0.0013333
රෝ u 0.0001429
ණූ u 0.0000952
පූ u 0.0009047
රූ u 0.0009047
මෝ u 0.0000476
සූ u 0.0008095
මෙ u 0.0000952
දි u 0.0000476
සු u 0.0124756
ලූ u 0.0009047
උෟ u 0.0001429
මු u 0.1083758
නූ u 0.0003333
මො u 0.0000476
පා u 0.0000476
තූ u 0.0003809
ප් u 0.0004286
ඩී. u 0.0000476
ගූ u 0.0000476
බෟ u 0.0000952
ලුෙ u 0.0000476
යු u 0.0034284
ගි u 0.0000476
ඹ් u 0.0000476
හූ u 0.0003333
ඡු u 0.0001429
නු u 0.0177611
ර්14 u 0.0000476
ලි u 0.0001905
රෑ u 0.0001429
ළු u 0.0394267
බෙෘ u 0.0001429
ර් u 0.0007619
නො u 0.0000952
ඕ u 0.0000476
උ u 0.0671873
බෘෘ u 0.0000476
2165 u 0.0000476
බෞ u 0.0002857
පි u 0.0001429
ඔ u 0.0001429
ඟු u 0.0025237
වි u 0.0002857
ට u 0.0003333
වා u 0.0053331
මෘ u 0.0002381
ජ u 0.0000476
ජූ u 0.0002381
කූ u 0.0015237
ෆ u 0.0001429
ය u 0.0005238
රුෙ u 0.0000952
චූ u 0.0000476
ල් u 0.0010952
ට් u 0.0003333
ජු u 0.0029046
චු u 0.0010476
ඩූ u 0.0003333
උ/ u 0.0000476
ක් u 0.0000952
ර්18 u 0.0000476
ඵ u 0.0000476
වු7 u 0.0000476
සෞ u 0.0000476
ඳු u 0.0085710
4240 u 0.0000476
ටී. u 0.0000476
ඩු u 0.0541403
ඔු u 0.0004286
රු u 0.0729965
ශු u 0.0001429
පු u 0.0918052
සෝ u 0.0000476
කෟ u 0.0000952
යූ u 0.0001429
ළ u 0.0000476
කී u 0.0000952
උඃ u 0.0000476
ද u 0.0001429
ල u 0.0007143
ෆූ u 0.0000476
වැ u 0.0000952
පුු u 0.0000476
ටුෙ u 0.0000476
4 u 0.0000476
ඌ u 0.0056188
ෙ u 0.0000952
ව් u 0.0017618
අ u 0.0004762
ච්. u 0.0000476
ර්19 u 0.0000476
සා u 0.0000952
බ් u 0.0000952
දෞ u 0.0000476
ෂ් u 0.0001905
භූ u 0.0002381
ර u 0.0009523
න් u 0.0002857
ප u 0.0002857
ර්17 u 0.0000476
9 u 0.0000476
ු u 0.0029999
බු u 0.0188562
ගෲ u 0.0000476
ර්. r. 0.1250000
චා r. 0.1250000
ර් r. 0.3750000
ම r. 0.1250000
NULL r. 0.1250000
හා r. 0.1250000
23 23 0.7500000
723 23 0.2500000
ව lw 0.5000000
ල් lw 0.5000000
ඩි d.r. 0.1666667
ආ d.r. 0.3333333
ඩී. d.r. 0.1666667
ර් d.r. 0.1666667
ර්. d.r. 0.1666667
අ la 0.3333333
ඇ la 0.1666667
ල් la 0.5000000
ලි hr 0.2500000
ය hr 0.2500000
ල් hr 0.2500000
පා hr 0.2500000
පී e,e 1.0000000
ග gtz 0.3333333
ම් gtz 0.3333333
GTZ gtz 0.3333333
5/245/1/1 5/2 1.0000000
ඩි nd 0.3000000
06 nd 0.1000000
න් nd 0.3000000
05 nd 0.1000000
NULL nd 0.2000000
NULL 2a 0.5000000
මා 2a 0.5000000
ඔ 231 1.0000000
NULL 310 1.0000000
තු u17 0.5000000
ව17 u17 0.5000000
59 59 0.2857143
වැ 59 0.1428571
ටු 59 0.1428571
නි 59 0.1428571
ප 59 0.1428571
ම 59 0.1428571
0459 0459 0.5000000
ත 0459 0.5000000
30 k30 1.0000000
ඨා o.10 0.1000000
ං o.10 0.1000000
අ o.10 0.1000000
ක o.10 0.2000000
10 o.10 0.2000000
ශ o.10 0.1000000
කො o.10 0.1000000
ට් o.10 0.1000000
ර් x 0.0217391
NULL x 0.1521739
ෂ x 0.1086957
09 x 0.0217391
ක් x 0.3695652
සි x 0.0217391
සෝ x 0.0217391
සේ x 0.0217391
ල්9 x 0.0217391
ෂ් x 0.0434783
ච් x 0.0217391
ඝ x 0.0217391
ස් x 0.0652174
සැ x 0.0217391
පෟ x 0.0217391
347 x 0.0217391
චු x 0.0217391
ක hs 1.0000000
ශා t.p 0.1428571
ත t.p 0.2857143
පේ t.p 0.1428571
පී t.p 0.1428571
න් t.p 0.2857143
ජ mtv 0.4000000
එ mtv 0.2000000
බී mtv 0.2000000
යේ mtv 0.2000000
පෙ o.p.p 0.2500000
රේ o.p.p 0.2500000
පී. o.p.p 0.2500000
ඕ. o.p.p 0.2500000
මා um 1.0000000
20 i20 0.5000000
පා i20 0.5000000
ක o:2 0.2000000
අ o:2 0.2000000
ම්. o:2 0.2000000
ං o:2 0.2000000
2 o:2 0.2000000
ක1315 s13 1.0000000
ඩො magltenna 1.0000000
ලෝ lo 1.0000000
ය1 r1 1.0000000
104 104 1.0000000
පි m. 0.2500000
ටි m. 0.2500000
මි m. 0.2500000
ල m. 0.2500000
ග rp 0.1666667
ලි rp 0.1666667
ද් rp 0.1666667
ක rp 0.1666667
ර් rp 0.1666667
පු rp 0.1666667
ව 04a 0.2500000
04 04a 0.2500000
මා 04a 0.2500000
සි 04a 0.2500000
කේ k.d. 1.0000000
4354 43 0.2500000
යා 43 0.2500000
ය 43 0.2500000
43 43 0.2500000
ල ai 0.2500000
NULL ai 0.5000000
ඉ ai 0.2500000
ය hi 0.2000000
ර් hi 0.2000000
ණා hi 0.2000000
ෂ hi 0.2000000
යේ hi 0.2000000
ජ lc 1.0000000
අ 126 0.2000000
ක 126 0.2000000
ත 126 0.2000000
110126 126 0.2000000
ං 126 0.2000000
ටු 6e 0.5000000
ඊ 6e 0.5000000
ෂි kj 0.5000000
ත kj 0.5000000
යා ey 0.4000000
ය ey 0.6000000
කැ t.k 0.2500000
න් t.k 0.2500000
ශා t.k 0.2500000
ත t.k 0.2500000
75 75 0.6666667
ජා 75 0.3333333
ලි ig 0.5000000
ග ig 0.5000000
බෝ es.b 0.5000000
ත es.b 0.2500000
ත් es.b 0.2500000
7/4 7/4 1.0000000
42 42 1.0000000
ස k 0.0002574
ප k 0.0000644
ර k 0.0005792
න් k 0.0001931
ඩ k 0.0005792
සා k 0.0001287
කි k 0.0565710
ඛා k 0.0004505
ු k 0.0012872
යේ k 0.0001287
9 k 0.0000644
නේ k 0.0001287
ඳා k 0.0000644
කැෙ k 0.0000644
250 k 0.0001287
කු k 0.1703565
ග් k 0.0006436
4 k 0.0001931
ටු k 0.0000644
කා k 0.0434419
වැ k 0.0002574
තො k 0.0000644
19 k 0.0000644
කෙ k 0.0145450
13 k 0.0000644
43 k 0.0000644
අ k 0.0000644
කෛ k 0.0012228
ෙ k 0.0001931
කෟ k 0.0001287
කො k 0.0922899
කෝ k 0.0261295
කෑ k 0.0025743
8 k 0.0000644
ව k 0.0001931
රී k 0.0000644
කු/ k 0.0000644
පො k 0.0001931
3 k 0.0000644
ල k 0.0001931
ඛි k 0.0001287
කේ k 0.0103617
ද k 0.0000644
කී k 0.0052130
ළ k 0.0000644
පේ k 0.0000644
පැ k 0.0000644
ඳු k 0.0000644
හැ k 0.0000644
ක් k 0.1170035
07 k 0.0001931
42 k 0.0000644
01 k 0.0001287
06 k 0.0001287
තු k 0.0000644
ක k 0.3660703
04 k 0.0001931
ඩු k 0.0000644
ගු k 0.0001287
ල් k 0.0001287
ට් k 0.0000644
ගැ k 0.0000644
ය2/4 k 0.0000644
කූ k 0.0038615
ශ k 0.0000644
ජි k 0.0001287
11 k 0.0000644
වෙ k 0.0003218
ජ k 0.0005149
වු k 0.0001287
හු k 0.0001287
වි k 0.0000644
08 k 0.0001287
ම k 0.0011585
හෝ k 0.0000644
14 k 0.0000644
ක්‍ k 0.0010297
ගේ k 0.0000644
ර් k 0.0001931
ටි k 0.0002574
න k 0.0007079
ග k 0.0024456
10 k 0.0000644
44 k 0.0000644
09 k 0.0000644
ඛෙ k 0.0001931
ද් k 0.0000644
හ k 0.0012228
ඛ k 0.0001287
මා k 0.0001287
හේ k 0.0000644
කො‍ k 0.0000644
කැ k 0.0559274
ඩ් k 0.0001287
ඕ k 0.0000644
නො k 0.0000644
2 k 0.0001931
05 k 0.0003862
ගි k 0.0003218
ඩී. k 0.0000644
තේ k 0.0003218
02 k 0.0001931
23 k 0.0000644
නු k 0.0005149
ලේ k 0.0000644
හා k 0.0001931
හි k 0.0001931
රි k 0.0001287
කො k 0.0001931
12 k 0.0001931
සු k 0.0001287
ත k 0.0005792
දො k 0.0000644
NULL k 0.0103617
තෝ k 0.0000644
ආ k 0.0001287
03 k 0.0001931
18 k 0.0001287
22 k 0.0000644
බෝ k 0.0000644
ද්‍ k 0.0000644
පා k 0.0005792
මු k 0.0001287
කෲ k 0.0001287
5 k 0.0001287
ලා k 0.0000644
ගා k 0.0001287
ලා o:08 0.1428571
08 o:08 0.1428571
ං o:08 0.1428571
අ o:08 0.1428571
ප o:08 0.1428571
ක o:08 0.2857143
ඒ o18 0.5000000
1018 o18 0.5000000
28 a28 1.0000000
ය a/y 0.2500000
ත/ a/y 0.2500000
ළ/ a/y 0.2500000
යා a/y 0.2500000
සේ df.r 0.1428571
ෆ්. df.r 0.1428571
ත df.r 0.1428571
නා df.r 0.2857143
එ‍ df.r 0.1428571
ර්. df.r 0.1428571
ක් t'c 0.1428571
යා t'c 0.0714286
ට් t'c 0.1428571
ශා t'c 0.0714286
ත t'c 0.0714286
න් t'c 0.2142857
සෙ t'c 0.1428571
කු t'c 0.0714286
ලෙ t'c 0.0714286
මVI vi 1.0000000
58 58 1.0000000
28 k28 1.0000000
05 a05 0.2500000
සි a05 0.2500000
මා a05 0.2500000
ව a05 0.2500000
ව hw 1.0000000
ට630 630 0.5000000
සි 630 0.5000000
ඇ n,a 1.0000000
ං o.02 0.2500000
02 o.02 0.2500000
ක o.02 0.2500000
අ o.02 0.2500000
ම්. a.r.m. 0.1666667
ආ a.r.m. 0.1666667
තා a.r.m. 0.1666667
ඒ. a.r.m. 0.1666667
ර්. a.r.m. 0.1666667
එ a.r.m. 0.1666667
බ්. e.w 0.3333333
ඩ e.w 0.3333333
ඊ. e.w 0.3333333
වා t.c. 0.1428571
ග t.c. 0.1428571
න t.c. 0.1428571
නි t.c. 0.1428571
ස t.c. 0.1428571
භා t.c. 0.1428571
ර t.c. 0.1428571
ත735/12 35/12 1.0000000
න්. n.c.s. 0.2000000
ස්. n.c.s. 0.2000000
එ n.c.s. 0.4000000
ඒ. n.c.s. 0.2000000
0364 64 0.2500000
ද 64 0.2500000
ක් 64 0.2500000
වා 64 0.2500000
තේ 724 1.0000000
බෝ u/b 0.5000000
කු/ u/b 0.5000000
ටු pi 0.5000000
පි pi 0.5000000
ෂා d/s 0.5000000
ර/ d/s 0.5000000
ඨා n4 0.1428571
ග n4 0.1428571
ශ n4 0.1428571
කො n4 0.1428571
ට් n4 0.1428571
ර n4 0.1428571
ය4 n4 0.1428571
ජේ. j 0.0008410
කෝ j 0.0008410
ජ් j 0.0403701
හෙ j 0.0008410
ඤා j 0.0008410
ජී j 0.0050463
ඡ j 0.0487805
ඡු j 0.0016821
ඹු j 0.0008410
ත j 0.0016821
NULL j 0.0033642
ඡා j 0.0016821
ජා j 0.0470984
ක j 0.0008410
ඡ් j 0.0016821
ජැ j 0.0016821
ඡි j 0.0008410
ඤ j 0.0050463
ගො j 0.0008410
ඩ j 0.0008410
මේ j 0.0008410
යි j 0.0016821
ට j 0.0008410
පෙ j 0.0008410
ප j 0.0008410
ය j 0.0033642
ජෝ j 0.0395290
ස j 0.0008410
ජ j 0.5845248
ජි j 0.0470984
ජේ j 0.0319596
ජෙ j 0.0084104
ජූ j 0.0025231
ං j 0.0016821
ජො j 0.0092515
ජු j 0.0496215
ග j 0.0008410
යා j 0.0067283
න j 0.0025231
ඩි. j 0.0008410
කු j 0.0008410
තැ j 0.0008410
පී. j 0.0008410
ජෑ j 0.0008410
මා j 0.0008410
හ j 0.0344828
ග/ j 0.0008410
ජෝ t.g 0.2500000
ශා t.g 0.2500000
ත t.g 0.2500000
න් t.g 0.2500000
දේ e 0.0107775
රැ e 0.0039646
ඔෑ e 0.0001540
ඟ e 0.0006159
ඹේ e 0.0048114
ණෑ e 0.0003464
ප. e 0.0000385
ලෝ e 0.0001155
බැ e 0.0116628
ම්. e 0.0000385
කො e 0.0003464
ණී e 0.0001540
ටී e 0.0000770
නෑ e 0.0023480
චේ e 0.0026174
1 e 0.0004619
ව e 0.0322556
ර‍ e 0.0000385
පේ e 0.0073903
ළැ e 0.0000385
කැෙ e 0.0000385
ධි e 0.0000385
2137 e 0.0000385
ළේ e 0.0012317
ඹෑ e 0.0007313
ඟේ e 0.0003464
පෛ e 0.0000385
චෙ e 0.0015781
ඹි e 0.0000385
පී e 0.0037336
එ e 0.0186297
ස e 0.0103926
ටේ e 0.0043495
I e 0.0000385
ණු e 0.0000770
ධ් e 0.0028099
තෑ e 0.0009623
ඹෙි e 0.0000385
ලු e 0.0001155
ණේ e 0.0007698
ණෝ e 0.0000385
ෂැ e 0.0000385
රෝ e 0.0000770
යේ e 0.0020400
බි e 0.0001540
ග. e 0.0001925
II e 0.0000385
ළෙ e 0.0000770
බො e 0.0000385
ත e 0.0242879
ච e 0.0001540
ධ්‍ e 0.0001540
දො e 0.0000770
ෂ e 0.0001540
/ e 0.0000770
නී e 0.0037336
ගො e 0.0000385
ටැ e 0.0006543
6/1 e 0.0000385
ඇ‍ e 0.0000385
ලෑ e 0.0075058
ජ් e 0.0007313
111 e 0.0000770
පෑ e 0.0010393
ඒෙ e 0.0000385
ලේ e 0.0342956
, e 0.0000385
යැ e 0.0002309
රි e 0.0016166
යා e 0.0010778
න e 0.0033102
ඛෙ e 0.0001155
හ e 0.0002694
වෑ e 0.0042725
ටෙ e 0.0015781
ඩෑ e 0.0002694
ii e 0.0000385
11 e 0.0000385
ජෙ e 0.0003079
ජි e 0.0005389
වෙ e 0.0481139
ඕ. e 0.0000770
බ e 0.0007698
ම e 0.0167436
ඵ e 0.0000770
හැ e 0.0078907
ඈ e 0.0003849
දා e 0.0002694
රු e 0.0006159
1,2,3 e 0.0000385
ටී. e 0.0000385
ක1.2.3. e 0.0000385
ධ e 0.0001155
ලේ e 0.0001155
ර66 e 0.0000385
ද e 0.0031563
පැ e 0.0110470
ෂී e 0.0006159
ඩී e 0.0003849
ග් e 0.0004234
වැ e 0.0695535
ආ" e 0.0000385
කෙ e 0.0078522
අ" e 0.0000385
නැ e 0.0040031
මෙි e 0.0000385
MTV e 0.0000385
වේ e 0.0153580
ව් e 0.0010393
ප e 0.0013472
න් e 0.0023095
භේ e 0.0000385
ම් e 0.0001540
මේ e 0.0028868
කි e 0.0010008
ඩේ e 0.0025404
අැ e 0.0000385
දෙ e 0.0624711
නේ e 0.0107390
දි e 0.0084296
තා e 0.0001155
03 e 0.0000385
A e 0.0000770
ද්‍ e 0.0006159
පා e 0.0059276
මු e 0.0002694
ලා e 0.0001155
දී e 0.0063895
සී e 0.0048884
05 e 0.0001155
ගි e 0.0003849
භු e 0.0001155
සැ e 0.0024249
හි e 0.0010008
ක්‍ e 0.0000770
ගේ e 0.0071978
ටි e 0.0001155
ග e 0.0028868
10 e 0.0000385
ලි e 0.0014627
2165 e 0.0000385
මා e 0.0007313
චැ e 0.0001155
ඊ e 0.0022710
ණැ e 0.0000770
තී e 0.0036567
ඕ e 0.0004234
පී. e 0.0001155
ට් e 0.0006543
ත් e 0.0006928
13/14 e 0.0000385
වි e 0.0039646
වි‍ e 0.0000385
සෑ e 0.0001925
හ් e 0.0002694
ගෑ e 0.0000385
ඩි e 0.0005004
තේෙ e 0.0000770
තෙ e 0.0056967
01 e 0.0000770
නි e 0.0028483
හී e 0.0068514
ක e 0.0015396
ළෑ e 0.0001155
මි e 0.0032717
ම/ e 0.0000385
ඩෙ e 0.0011162
ති e 0.0001925
කේ e 0.0061201
ඒ e 0.0016551
හෙ e 0.0138568
කු e 0.0001925
නෛ e 0.0000385
සෙ e 0.0080831
සී. e 0.0000385
ටු e 0.0030023
සි e 0.0009623
ඉ e 0.0019246
හෑ e 0.0010778
ඩා e 0.0000385
ඩ e 0.0008468
බේ e 0.0028868
ය් e 0.0000385
ගෙ e 0.0200924
නා e 0.0001925
මෑ e 0.0003849
ඊ. e 0.0001155
බෙ e 0.0074288
ධී e 0.0006928
NULL e 0.0543880
ණා e 0.0000385
ෙෙ e 0.0000385
S.W.R.D e 0.0000385
හේ‍ e 0.0000385
ගා e 0.0001155
ථා e 0.0000385
තේ e 0.0070054
ස් e 0.0020400
ෆ් e 0.0001155
ඩ්‍ e 0.0000385
රේ e 0.0090069
තැ e 0.0161663
මී e 0.0189376
වී e 0.0209392
චෛ e 0.0000385
ඹෙ e 0.0001925
ද් e 0.0002309
හේ e 0.0444188
ලැ e 0.0053118
. e 0.0000385
කැ e 0.0260200
2 e 0.0002309
ලෙ e 0.0096998
රා e 0.0000770
ගැ e 0.0029638
පෙ e 0.0156659
ශ e 0.0002309
වු e 0.0001925
චි e 0.0000385
ටෑ e 0.0002694
රෙ e 0.0020785
S.W.R.D. e 0.0000385
නෙ e 0.0083911
4/44 e 0.0000385
ක් e 0.0002694
බී e 0.0008468
0328 e 0.0000385
A.A e 0.0000385
4240 e 0.0000385
කෑ e 0.0014627
සේ e 0.0067360
රී e 0.0026559
ඊ‍ e 0.0000385
දැ e 0.0030023
ල e 0.0028099
60 e 0.0001540
කී e 0.0068514
ළ e 0.0010393
යෙ e 0.0004234
මැ e 0.0250962
ප්‍ e 0.0005004
ෂෙ e 0.0002694
ශ් e 0.0003079
අ e 0.0026559
ෆි e 0.0000770
ණි e 0.0000385
ට, e 0.0000385
ෙ e 0.0005004
ඳේ e 0.0000385
බෑ e 0.0012702
50 e 0.0000385
412 e 0.0000385
ර e 0.0047344
01/ e 0.0000385
ජේ e 0.0013087
ඇ e 0.0271363
ු e 0.0000770
දෑ e 0.0017706
9 e 0.0001155
සු e 0.0000770
පෞ e 0.0001155
පැෙ e 0.0000385
ඩැ e 0.0029638
මෙ e 0.0031178
දෛ e 0.0000385
චී e 0.0000770
ඬේ e 0.0001925
ජී e 0.0003849
ඹ් e 0.0001540
12 e 0.0000770
139 e 0.0000385
ර් e 0.0035412
අෙ e 0.0000385
රෑ e 0.0005774
ලී e 0.0025019
උ e 0.0015396
ඩ් e 0.0029253
i e 0.0000385
අැෙ e 0.0000385
ගී e 0.0002694
ල් e 0.0002694
ෆ e 0.0003079
ය e 0.0047729
ජ e 0.0000385
ෆී e 0.0008083
වා e 0.0000385
ට e 0.0009623
යි e 0.0009238
පි e 0.0013857
ණු 09 0.0588235
ක 09 0.1176471
09 09 0.7058824
නො09 09 0.0588235
ඕ 09 0.0588235
ය t'o 0.2000000
සෙ t'o 0.2000000
න් t'o 0.2000000
ඔ t'o 0.2000000
බි t'o 0.2000000
ප් r.s. 0.0588235
ආ r.s. 0.1176471
අ r.s. 0.1176471
එ r.s. 0.2352941
ර් r.s. 0.1176471
ර්. r.s. 0.1176471
ස් r.s. 0.2352941
19/ 19/ 1.0000000
NULL 37 0.2000000
37 37 0.8000000
වෙ aw 0.0476190
ව aw 0.7619048
වි aw 0.0476190
වා aw 0.0476190
ත් aw 0.0476190
කො aw 0.0476190
ර්16 r16 1.0000000
67 67 1.0000000
මා mm 0.5000000
ම් mm 0.5000000
ද 78122 0.2500000
ක් 78122 0.2500000
වා 78122 0.2500000
78122 78122 0.2500000
150 h.s 1.0000000
පු ugtzr 1.0000000
ඩී. d.d.k 0.6666667
කු d.d.k 0.3333333
449 449 1.0000000
පෙ g.h.p 0.2000000
ජී. g.h.p 0.2000000
එ g.h.p 0.2000000
ච්. g.h.p 0.2000000
රේ g.h.p 0.2000000
න a1" 0.1250000
1 a1" 0.1250000
ව a1" 0.1250000
ටු a1" 0.1250000
ප a1" 0.1250000
ර a1" 0.1250000
ම a1" 0.1250000
පා a1" 0.1250000
අ 139 0.5000000
139 139 0.5000000
ම j.p. 0.2000000
ප j.p. 0.2000000
පී. j.p. 0.2000000
ටු j.p. 0.2000000
ජේ. j.p. 0.2000000
ර් r' 1.0000000
ක 1767 0.5000000
1767 1767 0.5000000
ය2/4 2/4 0.5000000
යා 2/4 0.5000000
18 18 0.8823529
0318 18 0.0588235
ක 18 0.0588235
32 32 0.6666667
ක 32 0.1666667
වැ 32 0.1666667
කේ. k. 1.0000000
බී b.b. 1.0000000
ලි ap 0.0909091
ද් ap 0.0909091
පො ap 0.0303030
ග ap 0.0909091
පු ap 0.1515152
ඩ/ ap 0.0303030
පෙ ap 0.0606061
ප ap 0.2424242
ලා ap 0.0303030
පැ ap 0.0303030
පා ap 0.0606061
ක ap 0.0909091
බ a,b 0.2000000
, a,b 0.2000000
බෝ a,b 0.2000000
ඩ, a,b 0.2000000
A,B a,b 0.2000000
ට් sw 1.0000000
ව15 u15 0.5000000
තු u15 0.5000000
හ 50 0.0625000
50 50 0.6875000
අ 50 0.1250000
ක් 50 0.1250000
ය01 y01 1.0000000
නී an 0.0714286
නැ an 0.0714286
චැ an 0.0714286
03 an 0.0714286
ල an 0.0714286
ව් an 0.0714286
නෙ an 0.0714286
2 an 0.0714286
ර02 an 0.0714286
05 an 0.0714286
නි an 0.0714286
1 an 0.1428571
න an 0.0714286
/ 01/ 0.5000000
එ 01/ 0.5000000
මා 110 1.0000000
ටු y' 0.0714286
ශා. y' 0.1428571
යා y' 0.1428571
රි y' 0.1428571
ම y' 0.2857143
NULL y' 0.1428571
ප y' 0.0714286
ඩ් do 0.2000000
මේ do 0.4000000
ෆී do 0.4000000
ල්01 l01 1.0000000
රි i. 1.0000000
තෙ ei 1.0000000
ඕ m 0.0001406
උ m 0.0000937
2165 m 0.0000469
මා m 0.1157757
09 m 0.0000469
ග m 0.0000469
අෙ m 0.0001406
ර් m 0.0000469
ඩි m 0.0000469
ම, m 0.0001874
ට m 0.0000469
පි m 0.0000937
ඟු m 0.0000469
ඔ m 0.0046854
13/14 m 0.0000469
වා m 0.0001874
මෘ m 0.0002343
ත් m 0.0001874
ජ m 0.0003748
ල් m 0.0003748
ය m 0.0002811
යෝ m 0.0000937
මො m 0.0169611
මු m 0.1094036
බෝ m 0.0001406
පා m 0.0009839
32 m 0.0000469
මෙ m 0.0037952
139 m 0.0000469
ඹ් m 0.0001874
හි m 0.0000469
ෘ m 0.0000469
ප් m 0.0010308
ඹා m 0.0005622
15 m 0.0000469
ගි m 0.0000469
මෙි m 0.0000469
ශ් m 0.0000937
අ m 0.0001406
ඒ. m 0.0000469
කෙ m 0.0007028
වැ m 0.0002343
ම1 m 0.0000469
ප්‍ m 0.0001406
143 m 0.0000469
4 m 0.0003280
මැ m 0.0412782
9 m 0.0000469
ු m 0.0001406
බු m 0.0000937
40 m 0.0000469
කි m 0.0001406
මේ m 0.0036077
බ් m 0.0000937
ර m 0.0008434
න් m 0.0003748
ම් m 0.1487607
බෑ m 0.0001874
ප m 0.0003748
4240 m 0.0000469
ඔු m 0.0001874
ධෘ m 0.0000469
ඳු m 0.0000937
කී m 0.0009371
ල m 0.0005154
ද m 0.0001406
පො m 0.0000469
පු m 0.0001406
ට630 m 0.0000469
ඹෝ m 0.0000937
2 m 0.0001406
හ m 0.0001874
ඹෙ m 0.0000937
ඔූ m 0.0000469
ද් m 0.0000937
න m 0.0002343
මී m 0.0135407
14 m 0.0001406
මVI m 0.0000469
ඹූ m 0.0001406
ඹ m 0.0281591
ම11 m 0.0000469
රෙ m 0.0000469
ම m 0.3919318
බ m 0.0007028
මI m 0.0000469
ගො m 0.0000469
ටැ m 0.0000937
මූ m 0.0035609
ෙෙ m 0.0000469
මෛ m 0.0008434
ආ m 0.0002343
ඹු m 0.0318137
දො m 0.0000469
NULL m 0.0096050
ච m 0.0000469
ත m 0.0001874
ස් m 0.0002343
මV m 0.0000469
27 m 0.0000469
ස්. m 0.0001406
ණ m 0.0011245
ට654 m 0.0000469
6 m 0.0000937
ම්‍ m 0.0002343
එ m 0.0000937
38 m 0.0000469
ඹි m 0.0045917
31 m 0.0000469
කු m 0.0000937
2137 m 0.0000469
ඹෑ m 0.0010308
බි m 0.0001406
යේ m 0.0005154
ග. m 0.0001406
ං m 0.0003280
ත156 m 0.0000469
මෑ m 0.0007028
ගෙ m 0.0000937
මෝ m 0.0070281
නා m 0.0000469
‍ m 0.0000469
ඹෙි m 0.0000469
ඹී m 0.0000937
ඩ m 0.0001874
බේ m 0.0002343
ණු m 0.0000469
ස m 0.0013119
මII m 0.0000469
03110 m 0.0000469
04 m 0.0000469
ම්. m 0.0000937
ක m 0.0008902
ඔෑ m 0.0000937
ඹේ m 0.0050602
හෙ m 0.0000469
බා m 0.0000469
ඔ1 m 0.0000469
ඹො m 0.0000937
3 m 0.0000937
ර‍ m 0.0000469
ව m 0.0003280
ති m 0.0001406
532 m 0.0000469
මි m 0.0350466
ම/ m 0.0000469
125 125 1.0000000
ළු we 0.5000000
ත් we 0.2500000
එ we 0.2500000
ජේ. j.a. 0.5000000
ඒ. j.a. 0.5000000
4 4 0.2500000
3/4 4 0.0089286
වැ 4 0.0267857
ටු 4 0.0089286
නි 4 0.0714286
NULL 4 0.0178571
04 4 0.0446429
ක 4 0.0625000
හ 4 0.1339286
අ 4 0.0089286
ව 4 0.1250000
ප 4 0.0089286
ස 4 0.0178571
වෙ 4 0.0446429
ණු 4 0.0357143
ර 4 0.1339286
වි yw 1.0000000
2 & 0.0666667
1&11 & 0.0666667
හා & 0.4000000
1,2,3,4,5,6 & 0.0666667
බැ & 0.0666667
හ & 0.1333333
හා2 & 0.0666667
ස & 0.1333333
ස්. l.s. 0.2500000
ල්. l.s. 0.2500000
එ l.s. 0.5000000
ආ r.b.03 0.3333333
බී03 r.b.03 0.3333333
ර් r.b.03 0.3333333
71 71 1.0000000
අ 657 1.0000000
ද 134/3169 0.2500000
ක් 134/3169 0.2500000
වා 134/3169 0.2500000
134/3169 134/3169 0.2500000
25 25 1.0000000
වු c. 0.0909091
ර c. 0.0909091
ක c. 0.0909091
ස c. 0.0909091
ඳ c. 0.0909091
සී. c. 0.4545455
ටී. c. 0.0909091
1 a1 0.7500000
ප a1 0.2500000
වු 10, 0.1428571
කු. 10, 0.1428571
නි 10, 0.0714286
10 10, 0.1428571
වා 10, 0.0714286
ඉ 10, 0.1428571
10ු 10, 0.0714286
ග. 10, 0.1428571
ු 10, 0.0714286
03 en 0.0769231
ක en 0.1538462
අ en 0.1538462
ං en 0.1538462
ගා en 0.0769231
4 en 0.0769231
ත් en 0.0769231
01 en 0.0769231
ළු en 0.0769231
1 en 0.0769231
ඇ 13e 0.5000000
13 13e 0.5000000
පා uc 0.3333333
භා uc 0.3333333
ස uc 0.3333333
12 t 0.0001828
හි t 0.0001097
3rd t 0.0000366
සැ t 0.0000731
ත‍ t 0.0000366
භු t 0.0000366
15 t 0.0003290
05 t 0.0001828
දෛ t 0.0000366
ගි t 0.0000731
ත, t 0.0000366
දී t 0.0006945
5 t 0.0004386
සී t 0.0000731
ලූ t 0.0000366
මො t 0.0000366
මු t 0.0000366
ඨ t 0.0001462
පා t 0.0033627
ක1315 t 0.0000366
තූ t 0.0003290
03 t 0.0000731
18 t 0.0001828
22 t 0.0000366
තා t 0.0144742
දි t 0.0139990
සු t 0.0001097
පෞ t 0.0000731
තො t 0.0000366
347 t 0.0000366
ඩි t 0.0006945
සෑ t 0.0000366
17 t 0.0001097
හ් t 0.0000366
ටා t 0.0053365
ට t 0.0626485
පි t 0.0004752
යි t 0.0005117
වි t 0.0016813
ත් t 0.2400307
කු. t 0.0001097
ජ t 0.0000731
ල් t 0.0001462
ට් t 0.0334808
ය t 0.0002559
ඨා t 0.0000366
තී t 0.0032530
ඕ t 0.0002924
ඩ් t 0.0009869
උ t 0.0013524
37 t 0.0000366
39 t 0.0000731
මා t 0.0002559
ලි t 0.0000731
10 t 0.0001462
ග t 0.0032530
ර් t 0.0009869
ටි t 0.0819840
2748 t 0.0000366
ඉ. t 0.0000366
පැ t 0.0001828
60 t 0.0000731
ළ t 0.0006214
ල t 0.0000366
ද t 0.0084067
ත/ t 0.0000366
07, t 0.0000366
ම07 t 0.0000366
30 t 0.0000731
පු t 0.0000366
8 t 0.0001828
24 t 0.0000366
ටා‍ t 0.0000366
කෝ t 0.0000366
7 t 0.0001462
0328 t 0.0000366
ටී. t 0.0001097
ධ t 0.0000731
A.A t 0.0000366
1444 t 0.0000366
රු t 0.0001828
දා t 0.0004752
ඤ t 0.0000366
ධෘ t 0.0000366
ක් t 0.0009503
28 t 0.0000731
ත්‍ t 0.0004386
හැ t 0.0000366
ඳු t 0.0000731
දෙ t 0.0009869
ු t 0.0010234
ර5 t 0.0000366
723 t 0.0000366
ඇ t 0.0005848
කි t 0.0002193
40 t 0.0000731
හො t 0.0000731
දෞ t 0.0000366
සා t 0.0001462
ර t 0.0033627
න් t 0.0002924
ම් t 0.0006579
ප t 0.0014620
ව් t 0.0000731
ශ් t 0.0002193
අ t 0.0011331
කෙ t 0.0000366
ආ" t 0.0000366
නැ t 0.0000366
අ" t 0.0000366
ඒ. t 0.0000366
වැ t 0.0002559
4 t 0.0004752
ටුෙ t 0.0000366
ත්ෙ t 0.0000731
ග් t 0.0001097
යෙ t 0.0000731
ද. t 0.0000366
දු t 0.0035089
රි t 0.0005483
02 t 0.0001097
ස් t 0.0004752
103210 t 0.0000366
තේ t 0.0070909
ටෝ t 0.0008041
111 t 0.0001462
ථා t 0.0003655
ජ් t 0.0000731
S.W.R.D t 0.0000366
ටැ t 0.0012793
ගො t 0.0001462
මූ t 0.0000366
ෂ t 0.0001828
ඳි t 0.0000731
තෝ t 0.0051902
ඳ t 0.0002924
දූ t 0.0001097
දො t 0.0002193
NULL t 0.0330421
ත t 0.2634965
ච t 0.0001097
ධ්‍ t 0.0001097
ටිෙ t 0.0000731
S.W.R.D. t 0.0000366
ර/ t 0.0000366
ට29 t 0.0000366
ම t 0.0008041
41 t 0.0000366
4354 t 0.0000366
ටෑ t 0.0003290
ජි t 0.0000366
11 t 0.0004021
වෙ t 0.0000366
රා t 0.0000366
තුි t 0.0000366
ලෙ t 0.0000366
තෛ t 0.0005848
ට630 t 0.0000366
2 t 0.0002559
ටෙ t 0.0016813
ත‍‍ t 0.0000366
හ t 0.0009138
35 t 0.0000366
ටී‍ෙ t 0.0000366
ද් t 0.0005483
න t 0.0026317
යා t 0.0026317
තැ t 0.0217113
ම05 t 0.0000366
මී t 0.0001828
වී t 0.0046054
14 t 0.0001097
හෙ t 0.0001462
ට්A t 0.0000366
තෟ t 0.0000366
පේ t 0.0000366
0318 t 0.0000366
කේ t 0.0000731
ව t 0.0019372
ා t 0.0000366
588 t 0.0000366
ච් t 0.0002924
ති t 0.0322015
1 t 0.0015351
ථ t 0.0002924
478602 t 0.0000366
/410 t 0.0000366
ටී t 0.0010600
ඩෙ t 0.0001097
16 t 0.0001462
කො t 0.0002924
47 t 0.0000366
04 t 0.0001097
ම08 t 0.0000366
තු t 0.0398041
ක t 0.0010965
නි t 0.0003655
ප. t 0.0000366
29 t 0.0000366
තෙ t 0.0064330
දේ t 0.0002924
2999 t 0.0000366
ති‍ t 0.0000366
යේ t 0.0009503
බි t 0.0000366
රෝ t 0.0007310
II t 0.0000366
ඳා t 0.0002193
ටො t 0.0010600
ත735/12 t 0.0000731
59 t 0.0000366
ටෲ t 0.0000366
161247 t 0.0000366
21 t 0.0000366
මෑ t 0.0000366
‍ t 0.0000366
නා t 0.0000731
ය් t 0.0000366
ධ් t 0.0019007
ඩ t 0.0001097
තෑ t 0.0012793
I t 0.0000366
238 t 0.0000366
ටේ t 0.0042399
ස t 0.0014986
55 t 0.0000366
ට654 t 0.0000366
ජෑ t 0.0000366
6 t 0.0004752
එ t 0.0001828
හෑ t 0.0001097
තො t 0.0108922
සි t 0.0002559
19 t 0.0001828
38 t 0.0000731
13 t 0.0000731
ටු t 0.0346504
31 t 0.0000731
සෙ t 0.0000366
නෛ t 0.0000731
කු t 0.0000366
250 t 0.0000366
එ ne 0.1428571
න් ne 0.4285714
ව් ne 0.1428571
ව ne 0.2857143
ය 07, 0.2500000
යා 07, 0.2500000
08, 07, 0.2500000
07, 07, 0.2500000
1000 1000 1.0000000
ප o. 0.1090909
නො.8,9,10 o. 0.0181818
01 o. 0.0181818
07 o. 0.0181818
10 o. 0.0181818
ච්. o. 0.0181818
440 o. 0.0181818
09 o. 0.0181818
02 o. 0.0181818
03 o. 0.0363636
ක o. 0.2909091
අ o. 0.1090909
ං o. 0.1818182
04 o. 0.0181818
ලා o. 0.1090909
ඒ. d.a. 0.5000000
ඩී. d.a. 0.5000000
එ s.d 0.2500000
ඩී. s.d 0.2500000
ප්‍ s.d 0.2500000
ස්. s.d 0.2500000
/ 'a' 0.1666667
ඒ 'a' 0.1666667
ම 'a' 0.3333333
ධ්‍ 'a' 0.1666667
ය 'a' 0.1666667
ඹි s. 0.1818182
ත s. 0.3636364
ත් s. 0.3636364
ස්. s. 0.0909091
ඒ. a. 0.2500000
ගා a. 0.2500000
ඒ a. 0.5000000
ඩ් ds 0.1666667
ශ් ds 0.1666667
සෙ ds 0.1666667
හා ds 0.1666667
වී ds 0.1666667
සු ds 0.1666667
ටු 1,2,3,4,5,6 0.3333333
1,2,3,4,5,6 1,2,3,4,5,6 0.3333333
හ 1,2,3,4,5,6 0.3333333
මේ c.g.r 0.3333333
ර් c.g.r 0.3333333
ත c.g.r 0.3333333
ම් sv 1.0000000
බෲ yb 0.5000000
බ්‍ yb 0.5000000
ග 4/44 0.2000000
ං 4/44 0.2000000
අ 4/44 0.2000000
4/44 4/44 0.2000000
ක 4/44 0.2000000
පා t.r 0.1666667
තු t.r 0.0833333
ද t.r 0.0833333
ෙ t.r 0.0833333
රි t.r 0.0833333
ර් t.r 0.0833333
තෙ t.r 0.0833333
න් t.r 0.1666667
සෙ t.r 0.0833333
ම් t.r 0.0833333
ද 247 1.0000000
හ 7 0.1818182
ක 7 0.0227273
ත735/12 7 0.0227273
723 7 0.0227273
7 7 0.4318182
ණු 7 0.0227273
වෙ 7 0.0681818
ග 7 0.0454545
07 7 0.0909091
ව 7 0.0454545
ම07 7 0.0227273
යි 7 0.0227273
ලො a:1 0.2000000
A a:1 0.2000000
දො a:1 0.2000000
1 a:1 0.2000000
: a:1 0.2000000
එ l.b.4 0.1428571
පෙ l.b.4 0.1428571
ස l.b.4 0.1428571
ල් l.b.4 0.1428571
බී l.b.4 0.1428571
4 l.b.4 0.1428571
දෙ l.b.4 0.1428571
A a:6 0.3333333
: a:6 0.3333333
6 a:6 0.3333333
100 i100g 0.5000000
ග i100g 0.5000000
19 a19 1.0000000
ඒ23/2 23/2 0.0909091
ද 23/2 0.1818182
23/2 23/2 0.0909091
2 23/2 0.1818182
ඒ 23/2 0.0909091
වා 23/2 0.1818182
ක් 23/2 0.1818182
ෂි ge 0.5000000
ව ge 0.5000000
ම් mp 0.2500000
ලැ mp 0.2500000
ස් mp 0.2500000
පෑ mp 0.2500000
2 ii 0.1000000
II ii 0.2000000
1&11 ii 0.0500000
ඩ11 ii 0.0500000
ක ii 0.0500000
ව ii 0.0500000
11 ii 0.2000000
ර ii 0.0500000
I ii 0.0500000
ම් ii 0.0500000
ය ii 0.1000000
මII ii 0.0500000
6 o6o 0.3333333
නො o6o 0.3333333
ම් o6o 0.3333333
සී 11 0.0126582
ි 11 0.0126582
එ 11 0.0126582
අ 11 0.0253165
ක 11 0.0506329
ආ" 11 0.0126582
නි 11 0.0506329
වැ 11 0.0506329
ග් 11 0.0506329
12 11 0.0126582
II 11 0.0126582
ම 11 0.0379747
ස් 11 0.0126582
ව 11 0.0379747
පි 11 0.0126582
11 11 0.4556962
ර 11 0.0126582
ණු 11 0.0379747
රා 11 0.0506329
ය 11 0.0379747
100 100 1.0000000
ර්. o.r.c.d 0.2500000
ඕ. o.r.c.d 0.2500000
ආ o.r.c.d 0.2500000
සී. o.r.c.d 0.2500000
වී 150 0.3333333
දි 150 0.3333333
150 150 0.3333333
වී yv 1.0000000
තු u14 0.5000000
ව14 u14 0.5000000
ද 114 1.0000000
ල [] 0.5000000
ඩ [] 0.5000000
2748 48 0.5000000
48 48 0.5000000
රේ e.w. 0.2000000
බ්. e.w. 0.2000000
ඩ e.w. 0.2000000
ඊ. e.w. 0.2000000
පෙ e.w. 0.2000000
ට630 623 1.0000000
35 35 1.0000000
මි.11 k.m.11 0.5000000
කි. k.m.11 0.5000000
ය y2 0.3333333
ද y2 0.3333333
2 y2 0.3333333
ර 111 0.1250000
අ 111 0.1250000
ය 111 0.1250000
ර111 111 0.1250000
දි 111 0.1250000
111 111 0.3750000
ව6 u6 0.5000000
තු u6 0.5000000
27 27 0.2500000
ණු 27 0.2500000
ක 27 0.5000000
යි yi 1.0000000
ටු j. 0.1428571
රි j. 0.1428571
ජේ. j. 0.1428571
ච් j. 0.1428571
එ j. 0.1428571
I j. 0.1428571
ප j. 0.1428571
111 iii 0.2500000
II iii 0.2500000
ක iii 0.5000000
ස්. e.a.p 0.2500000
ච්. e.a.p 0.2500000
එ e.a.p 0.5000000
ද 405 0.2500000
221405 405 0.2500000
වා 405 0.2500000
ක් 405 0.2500000
NULL du 0.2500000
යු du 0.5000000
ඩ් du 0.2500000
, , 0.2000000
ල. , 0.2000000
ම, , 0.2000000
ක , 0.2000000
1737 , 0.2000000
වි s.h. 0.2500000
ඔ s.h. 0.2500000
ස s.h. 0.2500000
වො s.h. 0.2500000
මු nm 0.5000000
න් nm 0.5000000
ක uk 1.0000000
ක් 132 0.2000000
වා 132 0.2000000
ද 132 0.2000000
ක 132 0.2000000
120132 132 0.2000000
වැ 4c 0.3333333
4 4c 0.6666667
න් t.m 0.2941176
ශ t.m 0.0588235
මා t.m 0.1176471
ත t.m 0.2941176
ශා t.m 0.2352941
රැ l.c.r 0.2500000
සි l.c.r 0.2500000
ල් l.c.r 0.2500000
එ l.c.r 0.2500000
7/2 7/2 1.0000000
ව19 u19 0.5000000
තු u19 0.5000000
ං o05 0.2500000
ක o05 0.2500000
අ o05 0.2500000
05 o05 0.2500000
ය4 v 0.0002793
310724 v 0.0002793
ම05 v 0.0002793
ර් v 0.0025140
ටි v 0.0002793
වී v 0.0203911
ලි v 0.0050279
ම03 v 0.0002793
ලී v 0.0002793
ග v 0.0117318
න v 0.0005587
සි. v 0.0002793
හ v 0.0058659
ටෙ v 0.0002793
2 v 0.0016760
වෑ v 0.0005587
ඩ් v 0.0061453
ි v 0.0002793
ඨා v 0.0030726
ඕ v 0.0005587
ජි v 0.0005587
වෙ v 0.0597765
වු v 0.0851955
රා v 0.0019553
චූ v 0.0002793
ශ v 0.0008380
යි v 0.0025140
වි v 0.2905028
වා v 0.0544693
චි v 0.0005587
ෆී v 0.0005587
ඕ. v 0.0002793
ම v 0.0013966
ඩූ v 0.0002793
ෂි v 0.0002793
චු v 0.0002793
ඹ v 0.0002793
පෘ v 0.0002793
NULL v 0.1128492
ත v 0.0005587
පෞ v 0.0011173
පා v 0.0013966
03 v 0.0013966
ළ් v 0.0002793
් v 0.0002793
ගා v 0.0005587
ශා v 0.0011173
ටෝ v 0.0002793
නු v 0.0002793
ලේ v 0.0013966
මV v 0.0002793
02 v 0.0013966
ස් v 0.0002793
12 v 0.0002793
දු v 0.0002793
රි v 0.0002793
ග් v 0.0019553
වෛ v 0.0069832
කා v 0.0005587
වැ v 0.0072626
4 v 0.0008380
සි v 0.0005587
වූ v 0.0044693
වේ v 0.0363128
ව් v 0.0159218
71 v 0.0002793
න් v 0.0016760
ටේ v 0.0002793
ස v 0.0008380
ප v 0.0011173
50 v 0.0005587
කි v 0.0011173
ඊ. v 0.0002793
ඩේ v 0.0011173
යේ v 0.0033520
69 v 0.0002793
ු v 0.0011173
වු7 v 0.0005587
වො v 0.0011173
ඟ v 0.0005587
ඩෲ v 0.0005587
01 v 0.0013966
ම08 v 0.0002793
ය3 v 0.0005587
ක v 0.0036313
7 v 0.0005587
04 v 0.0002793
B v 0.0002793
පු v 0.0002793
ඩෙ v 0.0002793
රී v 0.0002793
ව v 0.2002793
ම07 v 0.0002793
1 v 0.0011173
වෝ v 0.0089385
ළ v 0.0033520
කේ v 0.0002793
ල v 0.0016760
ද v 0.0008380
ඒ v 0.0005587
ටී. t. 0.0058824
මා t. 0.0058824
ණා t. 0.0058824
ලි t. 0.0058824
ද් t. 0.0235294
ග t. 0.0058824
දි t. 0.0058824
වී t. 0.0058824
NULL t. 0.0058824
ත t. 0.2705882
යේ t. 0.0058824
ටි. t. 0.0058824
රෙ t. 0.0058824
ටා t. 0.0058824
‍ t. 0.0058824
ශා. t. 0.0352941
රී t. 0.0117647
සා t. 0.0294118
ජි t. 0.0058824
න් t. 0.2764706
ශා t. 0.2470588
ජෝ t. 0.0117647
ය t. 0.0117647
7/3 7/3 1.0000000
ත් he 0.5000000
ව he 0.5000000
ල, a,n 0.5000000
නා a,n 0.5000000
බ්. de 0.1111111
ඩ de 0.1111111
ඩ් de 0.4444444
ව de 0.1111111
ඊ. de 0.1111111
NULL de 0.1111111
තේ e, 0.1250000
ටු e, 0.2500000
අ e, 0.2500000
ස e, 0.3750000
ව 165 1.0000000
අ oa 0.5000000
බෝ oa 0.5000000
න wc 0.2000000
ව wc 0.2000000
ඡ wc 0.2000000
ජ wc 0.4000000
එ e.m 0.3333333
ම් e.m 0.3333333
ඊ. e.m 0.3333333
50 50a 0.2000000
ක 50a 0.4000000
අ 50a 0.2000000
ර50 50a 0.2000000
ං 114/9 0.3333333
ක43/1114/9 114/9 0.3333333
අ 114/9 0.3333333
ඒ 03110a 0.5000000
03110 03110a 0.5000000
ෆා sf 1.0000000
ඒ 31 0.0833333
ද 31 0.0833333
ක 31 0.0833333
වා 31 0.0833333
ක් 31 0.0833333
31 31 0.3333333
නි 31 0.0833333
වැ 31 0.0833333
0331 31 0.0833333
ග් l 0.0004822
වැ l 0.0002893
ේ l 0.0000321
4 l 0.0000964
ශ් l 0.0000643
අ l 0.0001607
ණි l 0.0002250
ෙ l 0.0000643
ජේ l 0.0000321
න් l 0.0001607
ර l 0.0024751
ම් l 0.0015429
ප l 0.0109932
40 l 0.0000321
ච්. l 0.0000321
බ් l 0.0000321
මේ l 0.0001929
ලාෙ l 0.0000321
ල‍ l 0.0000321
9 l 0.0000321
ු l 0.0000964
දෙ l 0.0000643
වු7 l 0.0000643
ඵ l 0.0000321
බී l 0.0000321
රු l 0.0000643
පු l 0.0001929
පෙ‍ l 0.0000643
රී l 0.0000964
ලේ l 0.0000964
ම07 l 0.0000643
ළ l 0.0337512
ල l 0.3818386
ද l 0.0006107
ල‍‍ l 0.0000321
පැ l 0.0002250
ර් l 0.0000643
ක්‍ l 0.0000321
ලි l 0.0595307
09 l 0.0000321
ම03 l 0.0000643
ලී l 0.0023465
ග l 0.0004179
රෑ l 0.0000321
ළු l 0.0269045
මා l 0.0003214
ඩ් l 0.0001929
ඕ l 0.0001286
තී l 0.0000321
ජ l 0.0213436
ල්ෙ l 0.0000321
ල් l 0.2623915
ට් l 0.0000964
ය l 0.0003536
ට l 0.0001929
පි l 0.0000321
වි l 0.0000964
ත් l 0.0002572
වා l 0.0000321
13/14 l 0.0000321
ළී l 0.0002250
ල' l 0.0000643
සු l 0.0000321
පා l 0.0004822
32 l 0.0000643
03 l 0.0000321
ල/ l 0.0000321
ලා l 0.0316297
5 l 0.0000643
ලෛ් l 0.0000643
ලූ l 0.0010286
මු l 0.0000321
ගි l 0.0000321
ලුෙ l 0.0000321
ලෛ l 0.0034716
15 l 0.0000321
12 l 0.0000321
කු l 0.0000321
ළේ l 0.0009000
ටු l 0.0000964
එ l 0.0000643
ඉ l 0.0001607
සි l 0.0000321
38 l 0.0000321
13 l 0.0000321
ළා l 0.0018001
ළෛ l 0.0004179
6 l 0.0001607
ණු l 0.0000321
ස l 0.0002572
ලු l 0.0301189
ඩ l 0.0008679
ධ් l 0.0010608
බි l 0.0000321
ග. l 0.0001607
ල, l 0.0001607
භ l 0.0000321
ෆා l 0.0000321
නි l 0.0000321
ළ/ l 0.0000321
ලෝ l 0.0038894
ම08 l 0.0000643
ක l 0.0001929
ගෝ l 0.0000964
ළූ l 0.0000321
ළෑ l 0.0000964
භා l 0.0001607
ම/ l 0.0000321
ව l 0.0025394
1 l 0.0000643
3 l 0.0000321
බා l 0.0000964
ළි l 0.0074253
ළැ l 0.0001286
තැ l 0.0000321
ම05 l 0.0000643
වී l 0.0000321
ලො l 0.0027965
14 l 0.0000964
ද් l 0.0000321
න l 0.0002572
ලැ l 0.0063002
හේ l 0.0000321
ළො l 0.0003214
ල්/ l 0.0000321
ලෙ l 0.0124076
2 l 0.0002893
ඉ/ l 0.0000643
ි l 0.0000321
වු l 0.0000643
වෙ l 0.0000321
ගැ l 0.0000321
ශ l 0.0002250
පෙ l 0.0056252
ම l 0.0077788
රෙ l 0.0000321
NULL l 0.0228544
ච l 0.0000321
ළෙ l 0.0005786
ත l 0.0007715
ආ l 0.0000964
/ l 0.0001929
තA l 0.0000964
ගො l 0.0000321
ළ් l 0.0006107
ලෑ l 0.0078753
ල්‍ l 0.0000321
ණ l 0.0014143
ස්. l 0.0000321
27 l 0.0000321
ලේ l 0.0302154
ෆ් l 0.0000321
ස් l 0.0002893
ලA l 0.0000321
ද. l 0.0000643
රි l 0.0000964
ප j.e. 1.0000000
තො w. 0.0909091
ස w. 0.1818182
බ්. w. 0.3636364
ඩ w. 0.3636364
ක o3 0.5000000
03 o3 0.5000000
ය uu 0.2307692
ක uu 0.4615385
ඒ uu 0.2307692
ටු uu 0.0769231
ඩ/ a/g 0.5000000
ග a/g 0.5000000
33 33 0.5000000
ක් 33 0.5000000
38 38 0.6000000
ක 38 0.2000000
ණු 38 0.2000000
ක් 135/96 1.0000000
කේ 1 0.0023585
ල 1 0.0259434
ළ 1 0.0165094
ඔ1 1 0.0023585
ඒ 1 0.0023585
ද1 1 0.0023585
1 1 0.1650943
රේ01 1 0.0023585
ව 1 0.0047170
ය1 1 0.0070755
ක 1 0.0188679
දා 1 0.0023585
පා 1 0.0047170
මු 1 0.1014151
NULL 1 0.0094340
01 1 0.0165094
නි 1 0.0188679
ම 1 0.1037736
ං 1 0.0094340
ය 1 0.0023585
ප 1 0.2334906
ර 1 0.0141509
I 1 0.0023585
වෙ 1 0.0235849
ක1 1 0.0047170
පි 1 0.0023585
හ 1 0.0047170
අ" 1 0.0023585
මා 1 0.0023585
එ 1 0.0023585
අ 1 0.0117925
ළා 1 0.0023585
ව1 1 0.0023585
ත1 1 0.0047170
2 1 0.0023585
ග 1 0.0636792
ටු 1 0.0990566
ම1 1 0.0023585
28 28c 0.5000000
කො 28c 0.5000000
ණ් manadalapura 0.2000000
ඩ manadalapura 0.2000000
4 manadalapura 0.1000000
3 manadalapura 0.1000000
ල manadalapura 0.2000000
ම manadalapura 0.2000000
කො ko 1.0000000
ල් .a 0.3333333
ෆී .a 0.3333333
ඩ් .a 0.3333333
ය nt 1.0000000
391683 683 1.0000000
ඨා n5 0.1428571
ග n5 0.1428571
ය5 n5 0.1428571
ශ n5 0.1428571
කො n5 0.1428571
ට් n5 0.1428571
ර n5 0.1428571
ඩි d.a.d 0.3333333
ඩි. d.a.d 0.3333333
ඒ. d.a.d 0.3333333
බී 2b 0.5000000
2 2b 0.5000000
29 29 0.3000000
වා 29 0.1000000
ක් 29 0.1000000
2999 29 0.1000000
0229 29 0.1000000
ට29 29 0.1000000
ද 29 0.1000000
සි 29 0.1000000
07 07 0.3846154
යා 07 0.0769231
වැ 07 0.0512821
නි 07 0.0512821
ය 07 0.1538462
රා 07 0.0512821
ග් 07 0.0512821
NULL 07 0.0256410
වු7 07 0.0256410
යේ 07 0.0256410
ක 07 0.0512821
ම 07 0.0512821
478602 478 1.0000000
ය20 a20 1.0000000
ව3 u3 0.5000000
තු u3 0.5000000
ම්. d.m.c 0.2500000
ඩී. d.m.c 0.2500000
කො d.m.c 0.2500000
එ d.m.c 0.2500000
ස ,s 0.5000000
ම, ,s 0.5000000
රා 04 0.0363636
ග් 04 0.0363636
න 04 0.0181818
4 04 0.0363636
0425T 04 0.0181818
ෂ 04 0.0181818
නි 04 0.0363636
වැ 04 0.0363636
ච්. 04 0.0181818
ක 04 0.1636364
ම 04 0.0363636
අ 04 0.0545455
04 04 0.4000000
ං 04 0.0545455
යේ 04 0.0363636
ව nw 0.5000000
න් nw 0.2500000
ය nw 0.2500000
න් t.s 0.1764706
සෙ t.s 0.1176471
ර් t.s 0.0588235
ජ t.s 0.0588235
ශා t.s 0.1176471
ත t.s 0.1764706
බ t.s 0.0588235
තා t.s 0.0588235
අ t.s 0.0588235
යේ t.s 0.0588235
ශෘ t.s 0.0588235
ව wthth 0.3333333
ත් wthth 0.3333333
ත wthth 0.3333333
ව yr 1.0000000
ව5 u5 0.5000000
තු u5 0.5000000
ර o03 0.1666667
ම o03 0.1666667
ම් o03 0.1666667
03 o03 0.3333333
නො o03 0.1666667
පා ar 0.7906977
NULL ar 0.0465116
ර ar 0.0930233
ය ar 0.0232558
ත ar 0.0465116
ය ys 0.3333333
11 ys 0.1666667
ර ys 0.1666667
1 ys 0.1666667
ව ys 0.1666667
හෝ me 1.0000000
හ p 0.0001656
හේ p 0.0001656
මා p 0.0000828
උ p 0.0021530
කැ p 0.0001656
ි p 0.0000828
ඩ් p 0.0000828
තී p 0.0000828
ඕ p 0.0000828
2 p 0.0004140
ලෙ p 0.0001656
පී. p 0.0001656
ක්‍ p 0.0000828
තැ p 0.0000828
ර් p 0.0006625
වී p 0.0004140
මී p 0.0000828
ග p 0.0043061
න p 0.0004140
ෆො p 0.0000828
ම p 0.0006625
නෙ p 0.0000828
ඹ p 0.0001656
ෆ p 0.0000828
තුි p 0.0000828
පෙ p 0.0484432
ය p 0.0001656
වෙ p 0.0003312
වු p 0.0005797
ජ p 0.0004969
ත් p 0.0000828
13/14 p 0.0000828
බ p 0.0006625
ට p 0.0001656
වි p 0.0003312
යි p 0.0002484
පි p 0.1594071
ඔ p 0.0000828
ගො p 0.0009109
පා p 0.0794137
මු p 0.0000828
80 p 0.0000828
පෞ p 0.0004140
ත p 0.0028983
පැෙ p 0.0000828
NULL p 0.0233521
ෂ p 0.0000828
ඳ p 0.0001656
ආ p 0.0001656
ස් p 0.0003312
නු p 0.0006625
ෆ් p 0.0001656
හි p 0.0000828
පෝ p 0.0076184
කේ. p 0.0000828
ණ p 0.0000828
වී. p 0.0000828
පා‍ p 0.0001656
ගි p 0.0001656
ස්. p 0.0000828
පෑ p 0.0024843
ප් p 0.0577178
ෂෙ p 0.0001656
පී p 0.0048857
ශ් p 0.0001656
පාෙ p 0.0000828
අ p 0.0002484
ෆි p 0.0001656
ව් p 0.0000828
වේ p 0.0002484
ෙ p 0.0002484
ෂී p 0.0001656
කු p 0.0000828
සෙ p 0.0000828
ටු p 0.0001656
කා p 0.0003312
පෛ p 0.0009937
පුු p 0.0000828
වැ p 0.0000828
ප්‍ p 0.0019046
ේ p 0.0000828
යො p 0.0000828
‍ p 0.0002484
දෙ p 0.0000828
පූ p 0.0051342
ු p 0.0013249
රෝ p 0.0024843
9 p 0.0000828
ස p 0.0007453
ප p 0.2504140
ර p 0.0006625
ම් p 0.0001656
ණු p 0.0021530
භූ p 0.0001656
ඩ p 0.0000828
සා p 0.0000828
හී p 0.0000828
ක p 0.0000828
රු p 0.0004969
ම්. p 0.0000828
රැ p 0.0000828
භ p 0.0000828
දේ p 0.0000828
ඹේ p 0.0000828
ෆා p 0.0001656
නි p 0.0001656
ල p 0.0035608
ද p 0.0000828
පේ p 0.0158993
පි01 p 0.0000828
පැ p 0.0326267
බා p 0.0003312
කො p 0.0004140
20 p 0.0000828
පු1 p 0.0000828
පු p 0.1632163
සේ p 0.0001656
1 p 0.0003312
ව p 0.0013249
පෙ‍ p 0.0001656
ය1 p 0.0000828
පො p 0.1064922
ම් mii 1.0000000
වා u.c 0.0625000
න u.c 0.1875000
ග u.c 0.1875000
නි u.c 0.0625000
ස u.c 0.1250000
ර u.c 0.1875000
භා u.c 0.1875000
ර් rr 0.3333333
ර rr 0.2500000
ම් rr 0.0833333
පා rr 0.3333333
ස 40/s 0.3333333
40 40/s 0.3333333
/ 40/s 0.3333333
ක 48k 0.5000000
48 48k 0.5000000
කී yfs 0.2000000
ම් yfs 0.2000000
ස් yfs 0.2000000
ත් yfs 0.2000000
යූ yfs 0.2000000
ටු ur 0.2500000
පු ur 0.2500000
පා ur 0.5000000
ම් a.g.g 0.1666667
ස a.g.g 0.1666667
ල් a.g.g 0.1666667
බො a.g.g 0.1666667
කා a.g.g 0.1666667
බෙ a.g.g 0.1666667
ටු 17 0.0909091
ව 17 0.1363636
න 17 0.1363636
17 17 0.4090909
NULL 17 0.0454545
ම 17 0.0909091
ප 17 0.0909091
07 o.07 1.0000000
ඩී. d.s.w.s 0.1666667
ස්. d.s.w.s 0.1666667
බ්. d.s.w.s 0.1666667
ඩ d.s.w.s 0.1666667
එ d.s.w.s 0.1666667
ස d.s.w.s 0.1666667
ර් rw 0.6666667
ට rw 0.3333333
උ i/ 0.5000000
ටි i/ 0.5000000
නා dn 1.0000000
යේ ed 0.3333333
ක ed 0.3333333
ය ed 0.3333333
ර fd 0.3333333
ම fd 0.3333333
6 fd 0.3333333
ර්12 r12 1.0000000
3/8 3/8 1.0000000
ත a] 1.0000000
2165 2165 1.0000000
ලා av 0.1250000
න av 0.1250000
වෙ av 0.1250000
NULL av 0.2500000
ම av 0.3750000
දි a/d 0.5000000
අ/ a/d 0.5000000
03 o:3 0.1666667
ක o:3 0.1666667
ප o:3 0.1666667
ම o:3 0.1666667
ග o:3 0.1666667
ටු o:3 0.1666667
අ e100 0.2000000
ර e100 0.2000000
ක e100 0.2000000
100 e100 0.2000000
ක් e100 0.2000000
වා /5 0.5000000
657718/5 /5 0.5000000
ට654 646 1.0000000
1 1, 0.1428571
ත් 1, 0.1428571
හ 1, 0.1428571
ත 1, 0.1428571
ස 1, 0.1428571
උ 1, 0.1428571
ර 1, 0.1428571
183 83 1.0000000
පා stf 0.5000000
STF stf 0.5000000
ශ n3 0.1428571
ය3 n3 0.1428571
කො n3 0.1428571
ට් n3 0.1428571
ර n3 0.1428571
ඨා n3 0.1428571
ග n3 0.1428571
3 a3 0.5000000
ය a3 0.5000000
1 o.01 0.2500000
ං o.01 0.2500000
අ o.01 0.2500000
ක o.01 0.2500000
බා w 0.0001076
වෝ w 0.0022600
ළ w 0.0008071
කේ w 0.0000538
ල w 0.0003229
ද w 0.0002152
ව w 0.6747202
පො w 0.0001614
සෝ w 0.0000538
කො w 0.0008610
ගෝ w 0.0000538
ඩු w 0.0000538
ටී. w 0.0000538
රු w 0.0000538
ක w 0.0002152
ලෝ w 0.0002152
ක් w 0.0000538
96 w 0.0000538
වො w 0.0002152
රෝ w 0.0002152
යේ w 0.0001076
බෙ w 0.0000538
ු w 0.0002690
බු w 0.0000538
ලු w 0.0002690
හො w 0.0000538
ඩ w 0.0003767
බේ w 0.0000538
ර w 0.0015605
ස w 0.0002152
ප w 0.0011838
ජෑ w 0.0000538
වේ w 0.0148515
ව් w 0.0108158
ශ් w 0.0001076
තො w 0.0002152
වූ w 0.0001076
වැ w 0.1015928
වෛ w 0.0002152
ඩී w 0.0001614
යෙ w 0.0000538
රි w 0.0005919
ස් w 0.0001614
80 w 0.0000538
ලා w 0.0003229
බ්. w 0.0001614
මො w 0.0000538
මු w 0.0001076
ගො w 0.0001614
බෝ w 0.0000538
පා w 0.0016143
වෙ‍ w 0.0000538
දො w 0.0000538
NULL w 0.0065110
ත w 0.0000538
සු w 0.0001076
ච w 0.0000538
ම w 0.0000538
බ w 0.0001614
වි w 0.0457921
යි w 0.0000538
ඔ w 0.0000538
චි w 0.0001614
වා w 0.0355144
වෙ w 0.0587602
ජ w 0.0000538
වු w 0.0075872
ල් w 0.0001614
ය w 0.0064034
වෑ w 0.0057038
කැ w 0.0001076
ඨා w 0.0002690
ඕ w 0.0000538
චා w 0.0000538
ග/ w 0.0000538
බෞ w 0.0001076
හ w 0.0008071
න w 0.0001614
ග w 0.0058115
චෛ w 0.0000538
ළු w 0.0001076
ර් w 0.0002152
වී w 0.0082329
ටි w 0.0000538
රො w 0.0002152
උ e/u 1.0000000
ු tb 1.0000000
ක nn 0.2500000
අ nn 0.2500000
ං nn 0.2500000
2 nn 0.2500000
ජ 101c 0.5000000
101 101c 0.5000000
දේ p.s. 0.1428571
ස p.s. 0.1428571
භා p.s. 0.1428571
එ p.s. 0.1428571
ශී p.s. 0.1428571
ස්. p.s. 0.1428571
පී. p.s. 0.1428571
20/176/11 76/11 0.5000000
ක 76/11 0.5000000
වා ew 0.2000000
ව ew 0.6000000
ලේ ew 0.2000000
න at 0.2962963
ග at 0.2962963
ය at 0.0370370
NULL at 0.0370370
තෙ at 0.0370370
ර at 0.2962963
පී. p.w.d. 1.0000000
නැ n 0.0051910
කෙ n 0.0000775
අ n 0.0027117
ණි n 0.0227396
71 n 0.0000387
ෙ n 0.0000387
4 n 0.0000387
මැ n 0.0000775
ඬා n 0.0000387
ඇ n 0.0003874
ඩේ n 0.0002324
ු n 0.0005811
දෙ n 0.0004649
ඤ් n 0.0012009
69 n 0.0000387
1,2,3,4, n 0.0000387
9 n 0.0000775
නේ n 0.0139459
හා2 n 0.0000387
50 n 0.0001550
ප n 0.0001162
ර n 0.0005811
න් n 0.2979391
ම් n 0.0012009
ඥා n 0.0003099
ඤ n 0.0000387
ඟා n 0.0000775
ඩු n 0.0000775
ක1.2.3. n 0.0000387
ජා n 0.0001550
නෛ06 n 0.0000387
ඳු n 0.0052685
ක් n 0.0004649
ල n 0.0004261
ද n 0.0042225
ළ n 0.0003486
නෛ02 n 0.0000387
පු n 0.0000387
රී n 0.0000775
පො n 0.0003874
ග/ n 0.0000387
සි. n 0.0000387
ණැ n 0.0000775
ඩ් n 0.0008910
නො n 0.0028279
ඨා n 0.0003874
ගේ n 0.0001162
ර් n 0.0004261
ටි n 0.0000387
ග n 0.0118928
245477 n 0.0000387
ළු n 0.0001550
ර, n 0.0001550
09 n 0.0000387
347 n 0.0000387
ඩි n 0.0001162
ල් n 0.0002324
ට් n 0.0000387
ය n 0.0025568
ත් n 0.0008910
ෆී n 0.0000775
ඟි n 0.0000775
වි n 0.0001937
ඟු n 0.0012784
03 n 0.0003099
32 n 0.0001162
පා n 0.0026730
නෛ04 n 0.0000387
නූ n 0.0004261
5 n 0.0000775
සු n 0.0000387
දි n 0.0009297
තා n 0.0000387
සැ n 0.0000775
නු n 0.0155342
න්ෙ n 0.0001937
හි n 0.0000387
ඬ n 0.0001937
02123 n 0.0000387
05 n 0.0000775
යු n 0.0000387
ගි n 0.0000775
ඬේ n 0.0001550
ප් n 0.0000387
සි n 0.0000775
ඉ n 0.0006586
එ n 0.0001550
6 n 0.0000775
නෛ n 0.0035640
කු n 0.0000387
ඟේ n 0.0002712
කා n 0.0000387
ටු n 0.0015108
ගෙ n 0.0000387
ණේ n 0.0008523
නා n 0.0537305
ණෝ n 0.0001937
ං n 0.0670179
ණූ n 0.0000775
ත735/12 n 0.0000387
ං‍ n 0.0000387
ග. n 0.0001162
යේ n 0.0009297
ඳා n 0.0009297
ස n 0.0001162
ණු n 0.0144495
ඩ n 0.0001550
ධ් n 0.0019757
නෛ01 n 0.0000387
තු n 0.0000775
ඪී n 0.0000775
ක n 0.0001162
04 n 0.0000387
නො, n 0.0000387
ඞ n 0.0000387
දේ n 0.0000775
ඹේ n 0.0000387
ඟ n 0.0020531
ණෑ n 0.0003874
ඞි n 0.0000387
01 n 0.0001937
නි n 0.0580305
ණෟ n 0.0000387
3 n 0.0001162
ඤා n 0.0002712
පේ n 0.0001162
ඒ n 0.0007360
හෙ n 0.0000387
භා n 0.0001937
ටී n 0.0000387
ණී n 0.0005036
ති n 0.0000387
නෑ n 0.0029441
1 n 0.0001162
ව n 0.0001162
හ n 0.0011234
2 n 0.0007748
නො09 n 0.0000387
මී n 0.0006198
න n 0.2612148
ණ් n 0.0171612
ද් n 0.0002324
ඬු n 0.0007748
ම n 0.0003099
ර/ n 0.0000775
නෙ n 0.0118928
ගු n 0.0020531
11 n 0.0000387
ජි n 0.0000387
පි. n 0.0000387
වු n 0.0000387
චි n 0.0000387
හු n 0.0000387
න2 n 0.0000775
ණෙ n 0.0005036
බ n 0.0000387
ඬි n 0.0010072
නී n 0.0023243
න, n 0.0000387
ත n 0.0018207
ධ්‍ n 0.0001162
නෝ n 0.0022856
NULL n 0.0311459
නො.8,9,10 n 0.0000387
ඥ් n 0.0001162
දූ n 0.0000387
ඣ් n 0.0000387
ණා n 0.0047261
ඥ n 0.0000387
ඳි n 0.0018595
ඳ n 0.0060045
/ n 0.0000775
ආ n 0.0005423
02 n 0.0003874
ස් n 0.0002324
ඝ n 0.0000387
හා n 0.0003874
දු n 0.0054622
ද. n 0.0000775
ණෛ n 0.0004649
ණ n 0.0262261
ජේ. n 0.0000387
111 n 0.0000775
හැ eh 1.0000000
6 6v 1.0000000
ජ aj 1.0000000
52 52 0.5000000
ක 52 0.5000000
ගෙ ag 0.0250000
ජ ag 0.0500000
ර ag 0.0250000
ගො ag 0.1500000
ග ag 0.7500000
මො am 0.0263158
ඩා am 0.0263158
ඹු am 0.0263158
මැ am 0.1052632
ම am 0.1578947
ණ am 0.0263158
මා am 0.6315789
ක් sr 0.2000000
ස් sr 0.2000000
පා sr 0.3000000
රො sr 0.3000000
533617 617 0.2500000
ද 617 0.2500000
ක් 617 0.2500000
වා 617 0.2500000
ද 129 0.2500000
76129 129 0.2500000
වා 129 0.2500000
ක් 129 0.2500000
ම 53 0.1250000
ප 53 0.1250000
ර53 53 0.1250000
නි 53 0.1250000
ටු 53 0.1250000
53 53 0.2500000
වැ 53 0.1250000
A a:3d 0.2000000
ලො a:3d 0.2000000
3 a:3d 0.2000000
දො a:3d 0.2000000
: a:3d 0.2000000
පු pvt 0.1538462
බ් pvt 0.0769231
ග pvt 0.1538462
ද් pvt 0.1538462
ලි pvt 0.1538462
ක pvt 0.1538462
ස් pvt 0.0769231
ලැ pvt 0.0769231
ව dl 0.2857143
තු dl 0.1428571
මා dl 0.1428571
ප dl 0.1428571
නෝ dl 0.1428571
ම් dl 0.1428571
ග hg 1.0000000
7 a7 1.0000000
රි n' 0.2500000
මෙ n' 0.2500000
බි n' 0.2500000
සෝ n' 0.2500000
588 550a 1.0000000
වු 01, 0.1666667
කු. 01, 0.1666667
ඉ 01, 0.1666667
01 01, 0.1666667
ු 01, 0.1666667
ග. 01, 0.1666667
ත්‍ r.t' 0.1428571
ර්. r.t' 0.1428571
රා r.t' 0.1428571
ආ r.t' 0.1428571
ගා r.t' 0.1428571
ටී. r.t' 0.1428571
චි r.t' 0.1428571
ව11 u11 0.5000000
තු u11 0.5000000
ක් 180 0.2500000
වා 180 0.2500000
ද 180 0.2500000
9180 180 0.2500000
2 e2 0.5000000
වැ e2 0.5000000
347 o47 0.5000000
ක o47 0.5000000
කැ a,k 0.3333333
ටැ a,k 0.3333333
ම, a,k 0.3333333
අ 20 0.0500000
සේ 20 0.0500000
ස 20 0.1000000
ස් 20 0.1500000
ක 20 0.0500000
20 20 0.4500000
වි 20 0.1500000
76 76 0.5000000
NULL 76 0.5000000
නි 24 0.1666667
ටු 24 0.1666667
වැ 24 0.1666667
ම 24 0.1666667
24 24 0.1666667
ප 24 0.1666667
ප 8 0.0540541
වෙ 8 0.0270270
8 8 0.4594595
ර8 8 0.0270270
08 8 0.0810811
වැ 8 0.0270270
නි 8 0.0540541
ක 8 0.0810811
අ 8 0.1081081
ම08 8 0.0270270
ං 8 0.0270270
ළා 8 0.0270270
ල් road 0.2500000
ල road 0.2500000
පා road 0.2500000
ර road 0.2500000
පා nr 1.0000000
ප් p. 0.5000000
පී. p. 0.5000000
ර්19 r19 1.0000000
50 c.t.c. 0.2500000
සී. c.t.c. 0.5000000
ටී. c.t.c. 0.2500000
දො p.d 0.5000000
පී p.d 0.5000000
දි ss 0.4000000
වී ss 0.4000000
NULL ss 0.2000000
ර o.05 0.2000000
ත o.05 0.2000000
මා o.05 0.2000000
ව o.05 0.2000000
ද් o.05 0.2000000
සි 166 0.3333333
166 166 0.6666667
ට 156 0.2000000
ත156 156 0.2000000
ය 156 0.2000000
සි 156 0.4000000
NULL df 0.5000000
ධී df 0.5000000
තෛ3 i3 1.0000000
ලෝ ld 0.2500000
ට් ld 0.2500000
ජ් ld 0.2500000
පෘ ld 0.2500000
හො nh 0.1666667
න nh 0.1666667
ග nh 0.1666667
ලි nh 0.1666667
හි nh 0.1666667
රූ nh 0.1666667
46 46 1.0000000
යේ gov 0.2000000
ග gov 0.2000000
ජ gov 0.2000000
ම gov 0.2000000
ර gov 0.2000000
රු uw 1.0000000
ලෝ oc 0.5000000
ජ oc 0.5000000
ඒ 26 0.3333333
26 26 0.6666667
2999 o99 1.0000000
ස gd 1.0000000
වු k/ 0.1764706
ඉ k/ 0.1764706
ය k/ 0.1764706
ද/ k/ 0.1176471
ර, k/ 0.1176471
ර/ k/ 0.0588235
යා k/ 0.1764706
ජේ m.j.c.m 0.2000000
එ m.j.c.m 0.2000000
ම් m.j.c.m 0.2000000
සි m.j.c.m 0.2000000
මා m.j.c.m 0.2000000
නි ni 0.5000000
ඉ ni 0.5000000
ය 41 0.3333333
41 41 0.3333333
යා 41 0.3333333
මා mw 0.3000000
ත mw 0.3000000
න mw 0.1000000
ව mw 0.3000000
ඊ. e.k. 0.3333333
ව e.k. 0.3333333
කේ. e.k. 0.3333333
ර් np 0.1428571
පු np 0.1428571
න් np 0.2857143
පේ np 0.1428571
රේ np 0.1428571
ද් np 0.1428571
ර ft 0.0833333
තෙ ft 0.0416667
NULL ft 0.2916667
ග් ft 0.0416667
ත ft 0.0416667
ප ft 0.0833333
ණා ft 0.0416667
ගො ft 0.0416667
එ ft 0.0416667
උ ft 0.1250000
ළ ft 0.0416667
ඹ ft 0.0416667
සී ft 0.0416667
බෙ ft 0.0416667
500 500 1.0000000
පෙ p.s.p 0.2500000
එ p.s.p 0.2500000
ස්. p.s.p 0.2500000
පී. p.s.p 0.2500000
පු ep 0.1000000
ණු ep 0.1000000
ත ep 0.4000000
ප ep 0.2000000
පෙ ep 0.1000000
ද් ep 0.1000000
13/14 a13/14 1.0000000
අ ej 0.2857143
ඡු ej 0.1428571
යි. ej 0.2857143
නේ ej 0.1428571
ලෙ ej 0.1428571
ල් lk 0.5000000
කෝ lk 0.5000000
ජ ja 1.0000000
චා a.c 0.5000000
ඒ. a.c 0.5000000
ක් 6/1115 0.1111111
වා 6/1115 0.1111111
ත 6/1115 0.1111111
ං 6/1115 0.1111111
115 6/1115 0.1111111
අ 6/1115 0.1111111
6/1 6/1115 0.1111111
ද 6/1115 0.1111111
ක 6/1115 0.1111111
පෙ e4 0.2500000
ස e4 0.2500000
දෙ e4 0.2500000
4 e4 0.2500000
ණු 14 0.2000000
1444 14 0.0500000
ක 14 0.2500000
14 14 0.4000000
වැ 14 0.0500000
නි 14 0.0500000
57 57 0.3333333
ඇ 57 0.3333333
ඩී 57 0.3333333
ග ng 1.0000000
සා as 0.1250000
ශ් as 0.1250000
NULL as 0.1250000
සි as 0.1250000
ස as 0.2500000
ක as 0.1250000
ටා as 0.1250000
තෛ2 i2 1.0000000
බී l.b. 0.1000000
පෙ l.b. 0.1000000
ල් l.b. 0.2000000
ස l.b. 0.1000000
දෙ l.b. 0.1000000
2 l.b. 0.1000000
බි l.b. 0.1000000
එ l.b. 0.2000000
ජේ 161 0.5000000
වි‍ 161 0.5000000
S.W.R.D s.w.r.d 0.1250000
ඩා s.w.r.d 0.2500000
ණ් s.w.r.d 0.2500000
බ s.w.r.d 0.2500000
S.W.R.D. s.w.r.d 0.1250000
II s 0.0001092
ෂැ s 0.0005460
රෝ s 0.0026209
යේ s 0.0002184
161247 s 0.0001092
135/113596 s 0.0001092
ෂෝ s 0.0002184
ගෙ s 0.0002184
ඩ s 0.0005460
I s 0.0001092
ස s 0.1752757
6 s 0.0001092
එ s 0.0007644
සි s 0.1037458
චෙ s 0.0004368
ටු s 0.0002184
31 s 0.0001092
සෙ s 0.0244622
2137 s 0.0001092
250 s 0.0001092
හෙ s 0.0002184
ඒ s 0.0002184
ර‍ s 0.0001092
කේ s 0.0001092
588 s 0.0001092
ව s 0.0767719
1 s 0.0048051
ච් s 0.0001092
මි s 0.0006552
කො s 0.0002184
03110 s 0.0001092
චෝ s 0.0003276
04 s 0.0001092
ක s 0.0010921
ය3 s 0.0002184
හී s 0.0001092
නි s 0.0003276
01 s 0.0005460
ෂා s 0.0016381
2999 s 0.0002184
5/245/1/1 s 0.0001092
ම s 0.0007644
රෙ s 0.0001092
ෂි s 0.0008736
ශා. s 0.0008736
බ s 0.0003276
4354 s 0.0001092
චි s 0.0002184
84102 s 0.0001092
වෙ s 0.0005460
වු s 0.0001092
11 s 0.0003276
ජි s 0.0002184
ශ s 0.0064432
ඩො s 0.0001092
රා s 0.0002184
ටෙ s 0.0001092
373 s 0.0002184
2 s 0.0006552
ලෙ s 0.0001092
115 s 0.0001092
ි s 0.0001092
චා s 0.0002184
79/185 s 0.0001092
හ s 0.0001092
ෂු s 0.0001092
" s 0.0002184
න s 0.0013105
135/164 s 0.0001092
වී s 0.0140876
310724 s 0.0001092
කේ. s 0.0001092
ශො s 0.0002184
රි s 0.0007644
දු s 0.0033854
හා s 0.0001092
ලේ s 0.0002184
103210 s 0.0001092
02 s 0.0006552
ස් s 0.2690838
රේ01 s 0.0001092
සො s 0.0057879
ජේ. s 0.0001092
111 s 0.0001092
ස්. s 0.0005460
ණ s 0.0001092
ශා s 0.0129955
80 s 0.0001092
තෝ s 0.0002184
ෂ s 0.0060063
ඹු s 0.0002184
NULL s 0.0693459
ධී s 0.0007644
ච s 0.0012013
ත s 0.0017473
69 s 0.0001092
9 s 0.0001092
723 s 0.0001092
ු s 0.0009829
දෙ s 0.0002184
ඩේ s 0.0003276
ස්.‍ s 0.0001092
සා s 0.0290488
106114 s 0.0001092
ෂ් s 0.0022933
ස්‍ s 0.0001092
ර s 0.0008736
න් s 0.0002184
ප s 0.0048051
50 s 0.0003276
ව් s 0.0014197
0183/1479 s 0.0001092
71 s 0.0001092
ණි s 0.0001092
අ s 0.0005460
ශ් s 0.0131047
ෂෙ s 0.0005460
ෂො s 0.0002184
වැ s 0.0003276
4 s 0.0002184
ග් s 0.0003276
ෂී s 0.0007644
ළ s 0.0032762
ර66 s 0.0001092
ද s 0.0001092
ල s 0.0006552
පො s 0.0006552
ශු s 0.0004368
සේ s 0.0203123
සෝ s 0.0078628
පු s 0.0001092
4240 s 0.0001092
0328 s 0.0001092
ශෘ s 0.0001092
ටී. s 0.0001092
1444 s 0.0001092
ඩෲ s 0.0002184
උ/ s 0.0001092
58167/4 s 0.0001092
4/44 s 0.0001092
සෞ s 0.0001092
චු s 0.0003276
ඩූ s 0.0001092
සෑ s 0.0006552
වි‍ s 0.0001092
වි s 0.0066616
ශ්‍ s 0.0070984
යි s 0.0009829
ත් s 0.0146336
වා s 0.0001092
ෆී s 0.0002184
ය s 0.0017473
ට් s 0.0005460
ල් s 0.0004368
ඕ s 0.0002184
ඩ් s 0.0019657
120/2 s 0.0001092
සි. s 0.0001092
2165 s 0.0001092
10 s 0.0001092
ලි s 0.0012013
ග s 0.0006552
ය4 s 0.0001092
ර් s 0.0018565
ශෛ s 0.0001092
139 s 0.0001092
ස්ෙ s 0.0003276
හි s 0.0004368
සෛ s 0.0001092
සැ s 0.0085181
ශි s 0.0003276
ශෝ s 0.0015289
05 s 0.0002184
සී s 0.0079720
මු s 0.0003276
මො s 0.0002184
පා s 0.0074260
18 s 0.0002184
03 s 0.0005460
සූ s 0.0057879
ෂූ s 0.0001092
දි s 0.0007644
පෞ s 0.0001092
සු s 0.0311237
79/185 79/185 0.2500000
ද 79/185 0.2500000
වා 79/185 0.2500000
ක් 79/185 0.2500000
18 . 0.3333333
ඒ . 0.3333333
ව . 0.3333333
ල tl 0.5000000
NULL tl 0.5000000
කෙ s/ 1.0000000
ක් 718 0.2500000
ද 718 0.2500000
ක 718 0.2500000
657718/5 718 0.2500000
ං 221 1.0000000
ධී af 1.0000000
වා ah 0.2857143
හො ah 0.1428571
නි ah 0.2857143
යෝ ah 0.2857143
ඕ dro 0.2000000
ආ dro 0.2000000
ඩී dro 0.2000000
ණ dro 0.2000000
ර් dro 0.2000000
ජ ec 0.3333333
ඔ ec 0.3333333
ටෝ ec 0.3333333
ව2 u2 0.5000000
තු u2 0.5000000
ක් 66 0.3333333
ර66 66 0.3333333
අ 66 0.3333333
ප dp 0.5000000
පෙ dp 0.5000000
123 123 0.3333333
සැ 123 0.3333333
ත 123 0.3333333
84102 84 0.5000000
ද 84 0.5000000
ම11 a11 1.0000000
309/2 309/2 1.0000000
සී. c.w.m. 0.1428571
ලි c.w.m. 0.1428571
බී c.w.m. 0.1428571
ව්. c.w.m. 0.1428571
ඩ c.w.m. 0.1428571
එ c.w.m. 0.1428571
ම් c.w.m. 0.1428571
ද p.s.a 1.0000000
ටේ ev 1.0000000
පි d/ 0.2500000
රි d/ 0.2500000
ශ් d/ 0.2500000
ය d/ 0.2500000
එ i.d.h.r 0.2000000
යි. i.d.h.r 0.2000000
අ i.d.h.r 0.2000000
ඩී. i.d.h.r 0.2000000
ච්. i.d.h.r 0.2000000
231421 421 0.1428571
අ 421 0.1428571
ද 421 0.1428571
ක 421 0.1428571
ක් 421 0.1428571
වා 421 0.1428571
ං 421 0.1428571
ඊ. d.j.w 0.2500000
වු d.j.w 0.2500000
ප d.j.w 0.2500000
ඒ. d.j.w 0.2500000
ද්‍ NULL 0.0004802
පා NULL 0.0057623
යේ02 NULL 0.0002401
ලා NULL 0.0045618
යෝ NULL 0.0002401
සී NULL 0.0002401
බ්. NULL 0.0002401
මු NULL 0.0031212
සු NULL 0.0019208
සූ NULL 0.0002401
දි NULL 0.0031212
නු NULL 0.0002401
හි NULL 0.0024010
සැ NULL 0.0004802
ගි NULL 0.0007203
ඩී. NULL 0.0002401
ප් NULL 0.0009604
උ NULL 0.0002401
මා NULL 0.0028812
ඩ් NULL 0.0009604
ඨා NULL 0.0009604
ර් NULL 0.0026411
ටි NULL 0.0016807
ලි NULL 0.0048019
ග NULL 0.0350540
ළු NULL 0.0019208
ඩි NULL 0.0009604
ජ NULL 0.0007203
ල් NULL 0.0060024
ට් NULL 0.0021609
ය NULL 0.0324130
කූ NULL 0.0002401
ට NULL 0.0028812
ඔ NULL 0.0007203
පි NULL 0.0026411
යි NULL 0.0007203
වි NULL 0.0024010
ත් NULL 0.0072029
වා NULL 0.0014406
රු NULL 0.0031212
ඩු NULL 0.0014406
ත්‍ NULL 0.0002401
ඳු NULL 0.0002401
ක් NULL 0.0074430
කී NULL 0.0004802
ළ NULL 0.0208884
ල NULL 0.0093637
ද NULL 0.1704682
පැ NULL 0.0002401
පු NULL 0.0016807
රී NULL 0.0007203
ශ් NULL 0.0007203
අ NULL 0.0098439
කෙ NULL 0.0004802
නැ NULL 0.0009604
ඒ. NULL 0.0009604
ව් NULL 0.0004802
වේ NULL 0.0002401
ෙ NULL 0.0009604
ග් NULL 0.0007203
ඩී NULL 0.0002401
වැ NULL 0.0016807
මැ NULL 0.0002401
බු NULL 0.0002401
ඩේ NULL 0.0002401
ඇ NULL 0.0002401
නේ NULL 0.0004802
දෙ NULL 0.0038415
ු NULL 0.0024010
න් NULL 0.0120048
ර NULL 0.0201681
ම් NULL 0.0045618
ප NULL 0.1935174
කි NULL 0.0009604
ච්. NULL 0.0002401
බ් NULL 0.0002401
සා NULL 0.0012005
ගො NULL 0.0016807
ෆ්. NULL 0.0002401
ගා NULL 0.0012005
කෲ NULL 0.0002401
දො NULL 0.0007203
ච NULL 0.0002401
ත NULL 0.1236495
නෝ NULL 0.0002401
ෂ NULL 0.0004802
ඳ NULL 0.0002401
/ NULL 0.0004802
ආ NULL 0.0004802
ඹු NULL 0.0007203
ෆ් NULL 0.0002401
හා NULL 0.0009604
ස් NULL 0.0048019
රේ NULL 0.0002401
පෝ NULL 0.0002401
දු NULL 0.0009604
තේ101270 NULL 0.0002401
රි NULL 0.0052821
කො NULL 0.0002401
ණ NULL 0.0048019
ශා NULL 0.0016807
තේ NULL 0.0007203
ධා NULL 0.0002401
න්. NULL 0.0002401
ථා NULL 0.0002401
කො‍ NULL 0.0002401
චා NULL 0.0002401
. NULL 0.0004802
හ NULL 0.0288115
හේ NULL 0.0004802
කැ NULL 0.0002401
මී NULL 0.0004802
වී NULL 0.0009604
122264 NULL 0.0002401
ද් NULL 0.0024010
යා NULL 0.0014406
න NULL 0.0110444
ණ් NULL 0.0004802
ම NULL 0.0280912
රෙ NULL 0.0002401
නෙ NULL 0.0002401
ඹ NULL 0.0007203
ජි NULL 0.0002401
වෙ NULL 0.0033613
වු NULL 0.0043217
රා NULL 0.0026411
පෙ NULL 0.0043217
ශ NULL 0.0040816
බ NULL 0.0002401
චි NULL 0.0007203
හු NULL 0.0007203
තු NULL 0.0024010
බැ NULL 0.0002401
ක NULL 0.0182473
171 NULL 0.0002401
ණෑ NULL 0.0002401
තෙ NULL 0.0004802
දේ NULL 0.0007203
නි NULL 0.0028812
පේ NULL 0.0004802
හෙ NULL 0.0002401
ළි NULL 0.0002401
ඒ NULL 0.0002401
ණී NULL 0.0002401
භා NULL 0.0004802
මි NULL 0.0002401
කො NULL 0.0024010
ව NULL 0.0148860
ච් NULL 0.0007203
ති NULL 0.0036014
1 NULL 0.0002401
පී NULL 0.0002401
එ NULL 0.0021609
ඉ NULL 0.0033613
තො NULL 0.0009604
සි NULL 0.0033613
0275 NULL 0.0002401
ළා NULL 0.0004802
යි. NULL 0.0002401
කු NULL 0.0021609
ධි NULL 0.0004802
කා NULL 0.0014406
ටු NULL 0.0492197
ල්. NULL 0.0002401
ගෙ NULL 0.0004802
‍ NULL 0.0004802
නා NULL 0.0012005
යේ NULL 0.0002401
II NULL 0.0002401
ං NULL 0.0084034
ටේ NULL 0.0002401
ණු NULL 0.0014406
ස NULL 0.0079232
ලු NULL 0.0009604
ඩ NULL 0.0040816
ඒ u, 0.2500000
රු, u, 0.2500000
ක u, 0.5000000
කැ o.3 0.5000000
03 o.3 0.5000000
ජ nc 0.5000000
න් nc 0.5000000
1 ia 0.3333333
ඒ ia 0.3333333
යා ia 0.3333333
32 32a 0.1666667
ද 32a 0.1666667
120/2 32a 0.1666667
වා 32a 0.1666667
ක් 32a 0.1666667
ඒ 32a 0.1666667
ඔ uo 1.0000000
127 127 1.0000000
දි ns 0.0666667
න ns 0.1333333
ධා ns 0.0666667
ලි ns 0.0666667
වී ns 0.2000000
පු ns 0.0666667
න් ns 0.2000000
ධෘ ns 0.0666667
පා ns 0.1333333
ආ yrco 0.2500000
සී. yrco 0.2500000
යි. yrco 0.2500000
ර්. yrco 0.2500000
2 a2 1.0000000
ඩ tp 0.5000000
ක tp 0.5000000
කො dk 0.3333333
ට් dk 0.3333333
ටා dk 0.3333333
වා 238 0.2000000
ක් 238 0.2000000
166 238 0.2000000
ද 238 0.2000000
238 238 0.2000000
ං 537 0.1666667
වා 537 0.1666667
ක් 537 0.1666667
480/20/9537 537 0.1666667
ද 537 0.1666667
ක 537 0.1666667
බී9 b9 1.0000000
ඹෑ mb 1.0000000
ප් sm 0.1666667
මා sm 0.5000000
ස් sm 0.3333333
ක් e20,40,60 0.2000000
ක e20,40,60 0.2000000
අ e20,40,60 0.2000000
20,40,60 e20,40,60 0.2000000
ර e20,40,60 0.2000000
ක් er 0.1666667
තො er 0.1666667
ල er 0.1666667
ර er 0.1666667
ම er 0.1666667
පා er 0.1666667
ය a03 0.1428571
03 a03 0.4285714
ව a03 0.2857143
යා a03 0.1428571
21 21 1.0000000
අ 533 1.0000000
වි mtvt 0.5000000
MTV mtvt 0.5000000
ග. 05, 0.2222222
ු 05, 0.1111111
වු 05, 0.1111111
කු. 05, 0.2222222
ඉ 05, 0.1111111
05 05, 0.2222222
එ m.w.k.s. 0.3333333
බ්. m.w.k.s. 0.1666667
ස්. m.w.k.s. 0.1666667
ම්. m.w.k.s. 0.1666667
කේ. m.w.k.s. 0.1666667
ඇ ue 0.5000000
බූ ue 0.5000000
85 85 0.2500000
පෙ 85 0.2500000
ස 85 0.2500000
දෙ 85 0.2500000
ක 13 0.0833333
13 13 0.8333333
වැ 13 0.0833333
ක 19 0.1052632
‍ 19 0.0526316
19 19 0.3157895
ම 19 0.1052632
වැ 19 0.0526316
නි 19 0.1052632
ටු 19 0.1052632
ප 19 0.1052632
වෙ 19 0.0526316
ඉ 532 0.2000000
ක 532 0.2000000
සි 532 0.2000000
ට 532 0.2000000
532 532 0.2000000
බ nb 0.2500000
සී nb 0.2500000
න් nb 0.2500000
NULL nb 0.2500000
තූ rj 0.2500000
හ rj 0.2500000
ර් rj 0.2500000
යා rj 0.2500000
ක1.2.3. o1,2,3 1.0000000
588 588 0.5000000
ඒ 588 0.5000000
ත a/t 0.5000000
ද/ a/t 0.5000000
යි. y.r.c. 0.2000000
ර්. y.r.c. 0.2000000
ව y.r.c. 0.2000000
සී. y.r.c. 0.2000000
ආ y.r.c. 0.2000000
ද 135/1 0.5000000
135/113596 135/1 0.5000000
යි1 i1 0.5000000
තෛ1 i1 0.5000000
/410 /410 1.0000000
ඇ fe 1.0000000
දෛ eb.o.p.649 0.1428571
පී eb.o.p.649 0.1428571
ම් eb.o.p.649 0.1428571
ස eb.o.p.649 0.1428571
පෙ eb.o.p.649 0.1428571
බී eb.o.p.649 0.1428571
649 eb.o.p.649 0.1428571
ජ ac 0.8000000
NULL ac 0.0800000
වු ac 0.0400000
කො ac 0.0800000
ජ dc 0.5000000
ඩ් dc 0.5000000
ඩු ud 1.0000000
R.E. r.e. 1.0000000
ව al 0.2500000
ලේ al 0.2500000
ත al 0.2500000
ල් al 0.2500000
බී ab2 0.5000000
2 ab2 0.5000000
කේ. k.m 0.3333333
ම්. k.m 0.3333333
එ k.m 0.3333333
පා or 0.5000000
ඔ or 0.5000000
වු 01 0.0103093
ර 01 0.0206186
පෙ 01 0.0103093
ශ 01 0.0103093
ය 01 0.0206186
ස 01 0.0103093
1 01 0.0412371
02 01 0.0103093
9 01 0.0103093
ඒ 01 0.0309278
ං 01 0.0206186
ු 01 0.0103093
දෙ 01 0.0103093
ර් 01 0.0103093
ආ 01 0.0103093
01 01 0.5773196
යා 01 0.0103093
අ 01 0.0309278
ක01 01 0.0206186
ක 01 0.1237113
ය02 y02 1.0000000
ණ f. 0.2500000
මි f. 0.2500000
තු f. 0.2500000
කි f. 0.2500000
ව a02 0.2000000
ලා a02 0.1000000
02 a02 0.4000000
ක a02 0.1000000
ය a02 0.1000000
ප a02 0.1000000
ප් te 0.2000000
යේ te 0.2000000
ටො te 0.4000000
ජ te 0.2000000
ව18 u18 0.5000000
තු u18 0.5000000
ර්13 r13 1.0000000
ඩ් dt 1.0000000
C.W. c.w. 1.0000000
භූ 171 1.0000000
ව10 u10 0.5000000
තු u10 0.5000000
ක :05 0.5000000
05 :05 0.5000000
ම mahamederiya 0.1666667
ය mahamederiya 0.1666667
හ mahamederiya 0.1666667
දේ mahamederiya 0.1666667
මෙ mahamederiya 0.1666667
රි mahamederiya 0.1666667
අ alugolla 0.2500000
ගො alugolla 0.2500000
ල් alugolla 0.2500000
ලු alugolla 0.2500000
ද්‍ t,n 0.5000000
ර‍ t,n 0.5000000
ං 54 0.2500000
4354 54 0.2500000
අ 54 0.2500000
ක 54 0.2500000
ත ' 1.0000000
න 08 0.0476190
යා 08 0.0476190
08 08 0.6666667
ප 08 0.0476190
ය 08 0.1428571
ජ 08 0.0476190
ල් li 0.5000000
ඉ li 0.5000000
ක් kw 0.3333333
ව kw 0.3333333
රී kw 0.3333333
දෙ l11 0.2000000
11 l11 0.2000000
ල් l11 0.2000000
ස l11 0.2000000
පෙ l11 0.2000000
ඩි t'j 0.2500000
ජෝ t'j 0.2500000
න් t'j 0.5000000
ර්14 r14 1.0000000
ත් kf 0.3333333
ව kf 0.3333333
ල් kf 0.3333333
නෛ06 i06 1.0000000
සේ d' 0.2500000
එ d' 0.2500000
ස්. d' 0.2500000
ඩී. d' 0.2500000
න් t.w 0.2222222
සෙ t.w 0.1111111
ත t.w 0.2222222
ශා t.w 0.2222222
වි t.w 0.2222222
ඩී. b.d.05 0.3333333
බී. b.d.05 0.3333333
05 b.d.05 0.3333333
ප w1 0.1250000
ටු w1 0.1250000
තේ w1 0.1250000
ව w1 0.3750000
1 w1 0.2500000
මො a,m 0.1666667
ල, a,m 0.1666667
ටෑ a,m 0.1666667
මැ a,m 0.1666667
ම, a,m 0.1666667
මී a,m 0.1666667
නි mhs 0.1111111
වා mhs 0.1111111
ර් mhs 0.1111111
ම් mhs 0.1111111
ස mhs 0.2222222
ණ mhs 0.1111111
ං mhs 0.1111111
කී mhs 0.1111111
ද 15/9 0.2500000
3/115/9 15/9 0.2500000
වා 15/9 0.2500000
ක් 15/9 0.2500000
ක o1 0.1000000
නා o1 0.1000000
ම o1 0.1000000
ෙ o1 0.1000000
ප o1 0.1000000
1 o1 0.3000000
01 o1 0.1000000
ටු o1 0.1000000
සො a,s 0.5000000
ද, a,s 0.5000000
වී. i 0.0002002
ජ් i 0.0000801
111 i 0.0000801
27 i 0.0000400
ථා i 0.0000801
ධා i 0.0008008
02 i 0.0008809
ස් i 0.0004004
ලේ i 0.0008008
ෆු i 0.0000400
හා i 0.0000400
iii i 0.0001201
රි i 0.0819652
දු i 0.0002402
රේ i 0.0002002
කේ. i 0.0000801
ණෛ i 0.0005205
ත i 0.0023224
ච i 0.0001201
ටිෙ i 0.0000801
ධී i 0.0003604
පෘ i 0.0002002
දො i 0.0000400
NULL i 0.0742772
ෂ i 0.0004405
ඳි i 0.0025226
ෙෙ i 0.0000400
මෛ i 0.0006006
ගො i 0.0000801
නී i 0.0005205
ෆ්. i 0.0000400
ඡි i 0.0000400
මූ i 0.0000400
ශ i 0.0002803
පෙ i 0.0000801
11 i 0.0000801
ජි i 0.0025627
වෙ i 0.0001602
වු i 0.0002803
චි i 0.0093297
ඕ. i 0.0000400
මI i 0.0000400
ණෙ i 0.0000400
බ i 0.0001201
ඬි i 0.0012813
ෂි i 0.0004405
ම i 0.0035637
රිෙ i 0.0000801
නෙ i 0.0000400
14 i 0.0001201
ම05 i 0.0000400
මී i 0.0013614
වී i 0.0008409
යා i 0.0014015
න i 0.0006006
චෛ i 0.0002002
ද් i 0.0000400
හ i 0.0004004
ඉ/ i 0.0000801
ි i 0.0001602
ටෙ i 0.0000801
2 i 0.0005606
තෛ i 0.0005606
කො i 0.0001201
මි i 0.0263474
භා i 0.0001602
ඩෙ i 0.0002002
ටී i 0.0001602
ණී i 0.0004805
චේ i 0.0000801
ච් i 0.0006006
ති i 0.0343958
1 i 0.0006006
ව i 0.0013214
කේ i 0.0000400
ය514 i 0.0000400
ළි i 0.0087291
ඒ i 0.0008409
බා i 0.0001602
ති‍ i 0.0000400
ඹේ i 0.0000400
තෙ i 0.0000801
01 i 0.0008409
නි i 0.0518539
භි i 0.0001201
හී i 0.0008409
ක i 0.0005205
ඪී i 0.0000801
ය3 i 0.0002402
ම08 i 0.0000400
1&11 i 0.0000400
04 i 0.0002803
B i 0.0000801
ටෛ් i 0.0000400
ස i 0.0005205
I i 0.0000400
ටේ i 0.0000400
ඩ i 0.0002402
ඹී i 0.0000801
ය් i 0.0001201
ලු i 0.0000801
ගෙ i 0.0000400
ඊ. i 0.0001602
ං i 0.0000400
රෝ i 0.0008409
බි i 0.0102907
යේ i 0.0000801
ධි i 0.0032834
නෛ i 0.0035237
කු i 0.0003203
පෛ i 0.0005205
කා i 0.0001201
තො i 0.0000801
සි i 0.0375591
ඹි i 0.0042845
38 i 0.0000400
පී i 0.0006006
එ i 0.0000801
ඉ i 0.0285097
6 i 0.0002002
ළෛ i 0.0002002
කෛ i 0.0006807
ලෛ i 0.0038840
දෛ i 0.0000400
ගි i 0.0142548
15 i 0.0001201
චී i 0.0002002
ඩී. i 0.0000400
ප් i 0.0001602
ජී i 0.0000400
ශි i 0.0000801
සෛ i 0.0000400
නු i 0.0000400
හි i 0.0331945
3rd i 0.0000400
ෛ i 0.0001602
12 i 0.0001201
පෞ i 0.0001602
යI i 0.0000400
දි i 0.0373188
මෙ i 0.0000801
ටෛ i 0.0008409
03 i 0.0009210
A i 0.0000400
32 i 0.0000400
බෝ i 0.0000400
පා i 0.0020421
මු i 0.0000400
ලා i 0.0000400
5 i 0.0000400
දී i 0.0005205
් i 0.0000801
සී i 0.0003604
ලෛ් i 0.0001201
ගී i 0.0000801
ල් i 0.0003604
ට් i 0.0003203
ය i 0.0052455
13/14 i 0.0000400
වා i 0.0000801
ෆී i 0.0010411
ඟි i 0.0002402
ට i 0.0008409
ඔ i 0.0002002
08 i 0.0000400
පි i 0.0748779
වි i 0.0723953
යි i 0.0444462
රෛ i 0.0017218
සෑ i 0.0000400
ළී i 0.0000400
ඩූ i 0.0001201
හ් i 0.0000801
ඩි i 0.0336750
ර්. i 0.0000801
ශෛ i 0.0000400
ර් i 0.0010811
ය4 i 0.0001201
ටි i 0.0894130
ග i 0.0000801
ළු i 0.0000400
ලි i 0.0690318
ම03 i 0.0000400
09 i 0.0000400
ලී i 0.0012813
මා i 0.0002402
ග/ i 0.0000400
සි. i 0.0001201
උ i 0.0002402
ඊ i 0.0006006
ඨා i 0.0011612
තී i 0.0016817
ඕ i 0.0002402
i i 0.0000400
ඩ් i 0.0034836
පු i 0.0000801
සේ i 0.0000400
රී i 0.0052054
ම07 i 0.0000400
ඛි i 0.0000801
ල i 0.0011212
ද i 0.0003203
කී i 0.0004805
ළ i 0.0015616
යූ i 0.0000400
පැ i 0.0000400
ගෛ i 0.0000400
වු7 i 0.0000801
ත්‍ i 0.0000400
ක් i 0.0004805
ඩෛ i 0.0044446
බී i 0.0000400
ඩෲ i 0.0002402
ධෘ i 0.0000400
රු i 0.0004004
7 i 0.0000400
ප i 0.0002002
50 i 0.0002803
ජේ i 0.0000801
ර i 0.0010811
න් i 0.0005606
ම් i 0.0001201
බ් i 0.0000801
මේ i 0.0002803
කි i 0.0340354
40 i 0.0000400
බෛ i 0.0000400
ඇ i 0.0001201
ඩේ i 0.0005205
ු i 0.0007207
දෙ i 0.0004405
ඤ් i 0.0001201
69 i 0.0001201
නේ i 0.0022824
9 i 0.0000801
වෛ i 0.0011212
ඩී i 0.0016417
යෙ i 0.0002002
ග් i 0.0009210
4 i 0.0005606
මැ i 0.0005606
වැ i 0.0002803
කෙ i 0.0000400
හෛ i 0.0000400
ෆි i 0.0004805
ණි i 0.0209418
අ i 0.0007207
71 i 0.0001201
03, i 0.0000400
ව් i 0.0009210
ෙ i 0.0000801
120/2 120/2 1.0000000
ද 65 0.2000000
65 65 0.2000000
0565 65 0.2000000
වා 65 0.2000000
ක් 65 0.2000000
39 39 1.0000000
ඇ ae 0.2500000
ව ae 0.7500000
ම 15 0.0571429
ක 15 0.1142857
වැ 15 0.0857143
නි 15 0.0857143
15 15 0.4285714
ණු 15 0.0571429
ග් 15 0.0571429
ය 15 0.0571429
රා 15 0.0571429
නො.8,9,10 8,9,10 0.5000000
ඉ 8,9,10 0.5000000
ක 264 0.1666667
අ 264 0.1666667
ඉ 264 0.1666667
161247 264 0.1666667
ං 264 0.1666667
තේ 264 0.1666667
ඩ් ehed 0.5000000
එ ehed 0.5000000
සා fm 0.1666667
ෆී fm 0.1666667
යා fm 0.1666667
නි fm 0.1666667
ම fm 0.1666667
