456 456 1.0000000
mr ම් 0.0002939
mr පා 0.0001442
08, 08 0.0400000
08, ග. 0.0370370
08, ු 0.0034602
08, 08, 0.5000000
08, වු 0.0009033
08, ඉ 0.0011779
08, කු. 0.0714286
o04 ශ 0.0058480
o04 ට් 0.0008306
o04 කො 0.0003082
o04 4 0.0093458
o04 ක 0.0001672
o04 අ 0.0003374
o04 ඨා 0.0099010
o04 04 0.0178571
o04 ං 0.0005155
sn යි 0.0006689
sn එ 0.0031447
sn සෙ 0.0020661
sn න් 0.0001231
nk කෝ 0.0010428
nk ක 0.0001672
nk න් 0.0002463
ie ඇ 0.0009615
k4 ය 0.0000669
k4 4 0.0093458
g.p.p පී. 0.0625000
g.p.p ජී. 0.2500000
g.p.p පෙ 0.0007386
a නෛ02 0.3333333
a බ‍ 0.5000000
a ද 0.4365194
a පැ 0.1312057
a ල‍‍ 0.5000000
a සෞ 0.3333333
a හැ 0.1480207
a ඩෛ 0.4341637
a 46 0.5000000
a ඈ 0.2307692
a දා 0.4650407
a රු 0.0043942
a ධ 0.2876712
a ජා 0.4720000
a ඩු 0.0055461
a නෛ06 0.3333333
a ප 0.0357714
a ම් 0.0164561
a න් 0.0083734
a සා 0.4256410
a මේ 0.0634921
a ඥා 0.0800000
a කි 0.0033278
a ඩේ 0.0666667
a ලාෙ 0.5000000
a ඤ් 0.0943396
a දෙ 0.0382817
a නේ 0.0927835
a වෛ 0.3258427
a ග් 0.0128205
a ේ 0.5000000
a වැ 0.0288973
a කෙි 1.0000000
a ආ" 0.2000000
a අ" 0.2000000
a නැ 0.2620482
a කෙ 0.0783133
a ට/ 1.0000000
a වේ 0.0180505
a ව් 0.0665025
a ගි 0.0013263
a 05 0.0493827
a ඹා 0.3170732
a ත‍ 0.5000000
a සැ 0.1122995
a හි 0.0344444
a ඬ 0.3750000
a දි 0.0029326
a තා 0.3146979
a ල/ 0.6666667
a තූ 0.0270270
a A 0.5294118
a පා 0.1475339
a බෝ 0.0062565
a මු 0.0046141
a මො 0.0082305
a සී 0.0041667
a ලෛ් 0.3750000
a ලා 0.5000000
a ල්ෙ 0.5000000
a ද‍ 0.5000000
a ත් 0.0393439
a වි 0.0017469
a ඔ 0.1412894
a ටා 0.4060150
a ල' 0.3333333
a ඩි 0.0012156
a ගේ 0.0102828
a පෙෙ 1.0000000
a ළු 0.0017794
a ග 0.0167129
a ලි 0.0036611
a මා 0.4071627
a බෞ 0.0588235
a ඕ 0.0336134
a කො 0.0055470
a ථ 0.1666667
a 1 0.0127119
a නෑ 0.0927152
a ච් 0.0033058
a ව 0.4495309
a ා 0.1428571
a පේ 0.0266990
a ළැ 0.3750000
a රා‍ 0.5000000
a ඹේ 0.0108401
a ෆා 0.4107143
a ඟ 0.3596059
a රැ 0.1377953
a දේ 0.0260586
a ණෑ 0.0476190
a ෆෙ 0.4000000
a බැ 0.0973684
a මII 0.3333333
a ස 0.3821482
a ණු 0.0036145
a ර9 0.3333333
a ටේ 0.0406504
a තෑ 0.0090909
a ලු 0.0005618
a ‍ 0.1250000
a යො 0.0232558
a 97644/5 0.5000000
a රෝ 0.0305810
a යේ 0.0096618
a 250 0.2500000
a ළේ 0.0158730
a ඟේ 0.1071429
a පෛ 0.3250000
a තො 0.0058140
a එ 0.0471698
a ළා 0.4263566
a ණ 0.4578231
a ලෑ 0.0936864
a ශී 0.5000000
a පෑ 0.0793651
a තB 0.5000000
a ධා 0.3138686
a මV 0.3333333
a හා 0.4761905
a , 0.1428571
a ඝ 0.3888889
a ලේ 0.0267903
a යැ 0.2000000
a රි 0.0006930
a 514A 1.0000000
a තෛ2 0.5000000
a ණෛ 0.3243243
a ළෙ 0.4324324
a බො 0.0049342
a ච 0.2094395
a ත 0.3601761
a ල. 0.5000000
a දො 0.0062657
a ඥ් 0.4285714
a / 0.1724138
a ඳ 0.3291592
a ෂ 0.2222222
a ජැ 0.5000000
a මූ 0.0052356
a ගො 0.0052589
a තA 0.4000000
a ටැ 0.2750000
a ඡා 0.5000000
a 80 0.3000000
a වෙ 0.0348837
a ය1,2,3 0.3333333
a බ 0.4684152
a ම 0.5659015
a යෞ 0.5000000
a ඹ 0.3249116
a මVI 0.3333333
a රො 0.0070423
a ණ් 0.0044248
a න 0.4513039
a යා 0.4383814
a හ 0.5428090
a කො‍ 0.2500000
a වෑ 0.0090498
a ඉ/ 0.3333333
a නැෙ 1.0000000
a ඩෑ 0.0625000
a ටෙ 0.0810811
a තෛ 0.2459016
a කෝ 0.0062565
a සේ 0.0179487
a කෑ 0.0365854
a පු 0.0012547
a පො 0.0098299
a දැ 0.1190476
a ත/ 0.1666667
a ල 0.5112120
a ළ 0.3983539
a වෝ 0.1045752
a තෛ3 0.5000000
a ගෛ 0.3333333
a රෛ් 0.5000000
a ඳු 0.0019841
a 457 0.5000000
a ක් 0.0063463
a ර්2 0.5000000
a බෑ 0.0273973
a ර 0.4433181
a බ් 0.0088496
a හො 0.0076775
a ද2 0.3333333
a ල‍ 0.5000000
a ඇ 0.2423077
a ඬා 0.3333333
a බෛ 0.3333333
a බු 0.0012315
a දෑ 0.0291262
a ු 0.0622837
a යෙ 0.1351351
a මැ 0.1358160
a ම1 0.4000000
a අ 0.8579622
a ශ් 0.0157068
a හෛ 0.4000000
a 45 0.3333333
a ෙ 0.0769231
a A,B 0.5000000
a ලෛ 0.3669725
a යු 0.0241935
a පා‍ 0.5000000
a ටේ106400 1.0000000
a සෛ 0.2857143
a න්ෙ 0.1666667
a නු 0.0074166
a ස්ෙ 0.4000000
a IV 1.0000000
a ඹ් 0.0645161
a ද1 0.3333333
a ඩැ 0.1572052
a සු 0.0016287
a මෙ 0.0282486
a ටෛ 0.4782609
a ර111 0.3333333
a නෛ04 0.3333333
a යෝ 0.0165289
a ත2 0.5000000
a ය 0.4374081
a ල් 0.0034660
a ජ 0.0049318
a වා 0.4074675
a පි 0.0007700
a රෛ 0.3432836
a යි 0.0829431
a ට 0.4514590
a හෝ 0.0204082
a ර් 0.0301120
a රෑ 0.2328767
a අෙ 0.3333333
a ඛ 0.2500000
a උ 0.0043024
a නො 0.0064103
a ඩ් 0.0008065
a ත1 0.5000000
a ඩ1 0.5000000
a මි 0.0052770
a ඩෙ 0.2941176
a ති 0.0003768
a ඤා 0.2692308
a කේ 0.0128535
a ඡ 0.4351145
a ය514 0.3333333
a ඒ 0.1638418
a පි01 0.3333333
a බා 0.4962963
a හෙ 0.0120805
a භ 0.4070796
a ඞ 0.5000000
a ෂා 0.0606061
a තෙ 0.0018797
a නි 0.0009488
a ක 0.4642140
a හී 0.0031949
a තු 0.0043210
a ඝා 0.4285714
a ග‍ 0.4000000
a ටෛ් 0.5000000
a ගෝ 0.0090090
a බේ 0.0444444
a ඩ 0.4864755
a ඛා 0.4736842
a නෛ01 0.3333333
a නා 0.5017668
a මෝ 0.0033223
a ගෙ 0.0146386
a මෑ 0.1818182
a බෙ 0.0101523
a ං 0.0154639
a ඳා 0.2941176
a තෛ1 0.5000000
a නෛ 0.3392857
a සෙ 0.0020661
a කු 0.0025698
a ටු 0.0120182
a කා 0.4805379
a සි 0.0054161
a ඉ 0.0141343
a ඩා 0.4865108
a ළෛ 0.5384615
a කෛ 0.3692308
a ශා 0.0121951
a ජේ. 0.0833333
a තේ 0.0019084
a සො 0.0090090
a ස් 0.0061999
a අි 1.0000000
a දු 0.0003751
a ද. 0.3636364
a ලA 0.7500000
a රේ 0.0449640
a NULL 0.4845531
a ආ 0.8901099
a ණා 0.4186992
a මෛ 0.3061224
a ෆ්. 0.2500000
a ගා 0.4856787
a ශ 0.0877193
a ගැ 0.1961538
a පෙ 0.0982275
a නැ‍‍ 1.0000000
a රා 0.4874308
a ගු 0.0044444
a වු 0.0045167
a ටෑ 0.1000000
a හු 0.0052174
a මI 0.3333333
a චි 0.0013550
a ණෙ 0.4814815
a රෙ 0.2810219
a නෙ 0.1421648
a මී 0.0231214
a තැ 0.0948992
a චෛ 0.2380952
a හේ 0.0055986
a චා 0.2868526
a ලැ 0.1493671
a කැ 0.1213808
a 2 0.0100000
a ලෙ 0.1570142
2e 2 0.0100000
2e ඇ 0.0019231
a` රු 0.0003139
a` පා 0.0001442
a` ළ 0.0004115
a` ම 0.0000446
a` තු 0.0003086
a` ව් 0.0024631
a` ර 0.0000487
a` ප 0.0001998
a` ය 0.0000669
a` යා 0.0003066
o01 ක 0.0000836
o01 01 0.0079365
ad ඔ 0.0013717
ad NULL 0.0000447
ad ත 0.0001012
ad ළේ 0.0158730
ad ඩී 0.0061350
62 වා 0.0005411
62 ක් 0.0004533
62 ටේ 0.0040650
62 ං 0.0005155
62 ද 0.0000963
62 ක 0.0000836
62 0262 1.0000000
62 අ 0.0003374
lr පා 0.0005769
lr ල 0.0000398
k7 7 0.0277778
36 36 1.0000000
135/164 ං 0.0005155
135/164 135/164 0.5000000
135/164 අ 0.0003374
135/164 ක 0.0000836
73 373 0.2500000
73 ක් 0.0009066
73 වා 0.0010823
73 ද 0.0001925
654 ට654 0.1666667
654 සි 0.0004924
hn ං 0.0005155
hn ක 0.0000836
hn අ 0.0003374
1c 1 0.0042373
1c ං 0.0005155
1c ජ 0.0002901
1c අ 0.0003374
1c ක 0.0000836
r.a ආ 0.0018315
r.a ඒ. 0.0588235
r.a ර්. 0.0500000
dehigeta ගැ 0.0038462
dehigeta හි 0.0005556
dehigeta දෙ 0.0002922
dehigeta ට 0.0002806
w2 ව 0.0000705
w2 දෙ 0.0002922
w2 ත 0.0000506
210 ක 0.0000836
210 103210 0.1666667
t.v.y.d ව 0.0000353
t.v.y.d ටී. 0.0625000
t.v.y.d යි. 0.0769231
t.v.y.d වී. 0.1250000
n1 පා 0.0001442
n1 ඨා 0.0198020
n1 ශ 0.0116959
n1 ණ 0.0006803
n1 ට් 0.0016611
n1 කො 0.0006163
n1 ර 0.0001462
n1 1 0.0042373
n1 ග 0.0001732
n1 ය1 0.2222222
g.w ජී. 0.2500000
g.w වැ 0.0002535
k3 03 0.0074074
k3 ය 0.0000669
hu ව 0.0001411
hu නි 0.0012650
hu යු 0.0403226
d.s ඩි. 0.2500000
d.s ශ් 0.0052356
d.s ස්. 0.0333333
d.s රී 0.0026385
p.j.p පී. 0.0625000
p.j.p ජේ. 0.0833333
p.j.p පෙ 0.0007386
t' ඩෲ 0.1111111
t' ක් 0.0013599
t' යා 0.0009197
t' න් 0.0018471
t' ර් 0.0007003
t' සෙ 0.0185950
t' කූ 0.0062893
t' ශා 0.0121951
t' ත 0.0001012
t' ට් 0.0058140
t' ලෙ 0.0038610
t' ඇ 0.0038462
aa ඒ 0.0112994
aa ආ 0.0036630
aa ඇ 0.0009615
aa බැ 0.0013158
aa අ 0.0006748
is සෝ 0.0065359
,a ල් 0.0001195
,a ඩ් 0.0008065
,a ෆී 0.0119048
02 ං 0.0005155
02 රි 0.0002310
02 2 0.0200000
02 02 0.3918919
02 ක 0.0004181
02 අ 0.0003374
02 ම 0.0001783
02 යා 0.0003066
02 ක් 0.0004533
02 ධ් 0.0061350
02 ව 0.0000353
02 / 0.0344828
02 ය 0.0005350
02 02123 0.5000000
02 NULL 0.0000894
20/1 දෙ 0.0002922
01457 457 0.5000000
01457 01 0.0079365
106 106114 0.5000000
106 ක 0.0000836
i,ii 1.2 1.0000000
d, ව 0.0003527
d, ර 0.0000487
d, NULL 0.0000894
d, ත 0.0007086
d, බ්. 0.0588235
d, ං 0.0015464
d, අ 0.0091093
d, ක 0.0000836
h.k.e පො 0.0003781
h.k.e කු 0.0001836
/ නා 0.0003534
/ ටැ 0.0125000
/ එ 0.0031447
/ ල්/ 0.5000000
/ ගෝ 0.0030030
/ ල් 0.0004781
/ මි 0.0006596
/ සු 0.0016287
/ ස්. 0.0333333
/ 3/4 0.3333333
/ ච්. 0.0625000
/ / 0.2413793
/ ත/ 0.1666667
/ බ 0.0003694
mh.s ය 0.0000669
mh.s ණ 0.0013605
mh.s ස 0.0009945
mh.s ම් 0.0002939
mh.s ර් 0.0014006
mh.s වා 0.0010823
mh.s නි 0.0006325
mh.s කී 0.0058651
mh.s ං 0.0010309
,b ය. 1.0000000
,b නැ/ 0.3333333
ymcv ම් 0.0002939
ymcv එ 0.0015723
ymcv යි 0.0006689
ymcv සී 0.0041667
ymcv ව 0.0000353
e/ වු 0.0009033
e/ මා 0.0002132
e/ ව 0.0000705
e/ ඩ් 0.0016129
205c 205C 1.0000000
t.n.l. ල් 0.0001195
t.n.l. පා 0.0001442
t.n.l. එ 0.0031447
t.n.l. න්. 0.1428571
t.n.l. ටි. 0.3333333
80 80 0.3000000
d,s ඩී. 0.0344828
d,s සේ 0.0025641
t05 ක 0.0001672
t05 05 0.0123457
e/p ප 0.0003997
e/p මී 0.0023121
102 ක් 0.0004533
55 55 0.3333333
55 ප 0.0001998
55 ම 0.0000446
55 වැ 0.0002535
55 නි 0.0003163
55 ටු 0.0004144
h හෝ 0.4591837
h ඩි 0.0012156
h ජො 0.0400000
h ජු 0.0217391
h චු 0.3108108
h හ් 0.6551724
h 17 0.2352941
h සෑ 0.1875000
h වා 0.0021645
h ත් 0.2298456
h වි 0.0002496
h පි 0.0017967
h ට 0.0002806
h ය 0.0002675
h ජෝ 0.0283019
h චූ 0.2727273
h ල් 0.0011952
h තී 0.2343234
h ඩ් 0.0016129
h ඕ 0.0294118
h චැ 0.4090909
h ඛ 0.2500000
h උ 0.0221266
h ග 0.0000866
h 10 0.0833333
h ලි 0.0007845
h ැ 0.3333333
h ශෛ 0.3333333
h ගේ 0.0077121
h ටි 0.0002188
h ‍‍ 0.5000000
h ර් 0.0014006
h 12 0.0566038
h සෛ 0.2857143
h සැ 0.0053476
h ශි 0.1666667
h හි 0.4750000
h 3rd 0.2000000
h හූ 0.4347826
h චී 0.3793103
h 15 0.0909091
h ත‍ 0.2500000
h ශෝ 0.3250000
h ප් 0.0052016
h ත, 0.5000000
h දෛ 0.2857143
h නූ 0.0344828
h සී 0.0166667
h 5 0.1690141
h ූ 1.0000000
h දී 0.0269360
h චො 0.3333333
h තූ 0.2702703
h පා 0.0074993
h දි 0.0274927
h තා 0.3228133
h ෂූ 0.5000000
h ඤ් 0.0188679
h ර5 0.2500000
h ු 0.0553633
h දෙ 0.0113968
h 9 0.0322581
h ඇ 0.0192308
h සා 0.0188034
h භූ 0.1923077
h දෞ 0.2000000
h ඥා 0.1200000
h හො 0.4894434
h ෂ් 0.3913043
h කි 0.0038824
h ප 0.0037970
h 50 0.0810811
h ම් 0.0002939
h ර 0.0018520
h න් 0.0006157
h වේ 0.0024067
h ෙ 0.0384615
h ෂෙ 0.2500000
h නැ 0.0030120
h ෂො 0.3333333
h අ 0.0094467
h ශ් 0.1780105
h හෛ 0.4000000
h ත්ෙ 0.5000000
h 4 0.1121495
h වැ 0.0030418
h ද/ 0.2500000
h ේ 0.1666667
h ෂී 0.2121212
h ග් 0.0076923
h පැ 0.0070922
h ද 0.0225238
h ල 0.0011949
h වෝ 0.0392157
h කී 0.0234604
h ශු 0.3076923
h ම07 0.1428571
h දැ 0.0095238
h 30 0.0909091
h ත/ 0.1666667
h කෝ 0.0020855
h 24 0.2500000
h 8 0.1428571
h සෝ 0.0392157
h A.A 0.3333333
h ධ 0.2438356
h ජා 0.0240000
h 7 0.0833333
h ඤ 0.1818182
h රු 0.0015694
h දා 0.0292683
h 28 0.1666667
h ක් 0.0108794
h ඳු 0.0019841
h හැ 0.4922547
h ත්‍ 0.4137931
h ඹ 0.0025265
h S.W.R.D. 0.2500000
h ෂි 0.2222222
h ම 0.0044127
h හු 0.4921739
h චි 0.3197832
h ඬි 0.0217391
h ශ 0.2222222
h තුි 0.2500000
h රා 0.0004261
h ගු 0.0022222
h 11 0.0400000
h ඉ/ 0.2222222
h ලෙ 0.0012870
h තෛ 0.2622951
h හේ 0.4935401
h හ 0.3951685
h ත‍‍ 0.5000000
h චා 0.3266932
h චෛ 0.1904762
h න 0.0002281
h ද් 0.0057748
h ඬු 0.0253165
h ෂු 0.3333333
h ඹෙ 0.0714286
h 14 0.1538462
h වී 0.0015773
h තැ 0.3018980
h ම05 0.1428571
h දු 0.0303826
h රේ 0.0017986
h ශො 0.3333333
h ස් 0.0072939
h ඝ 0.0555556
h හා 0.4571429
h ලේ 0.0005152
h ෆ් 0.0833333
h ථා 0.2285714
h ධා 0.2116788
h තේ 0.2519084
h ශා 0.1788618
h S.W.R.D 0.2500000
h හේ‍ 0.5000000
h ටැ 0.0125000
h නී 0.0057803
h ගො 0.0001348
h දූ 0.0120482
h ආ 0.0036630
h ඳ 0.0268336
h තෝ 0.3379630
h ෂ 0.2222222
h ඳි 0.0112994
h ධී 0.1475410
h ච 0.3421829
h ත 0.1875285
h NULL 0.0509232
h චෛ් 0.5000000
h දො 0.0012531
h 59 0.2500000
h ත735/12 0.1250000
h ං 0.0123711
h ඳා 0.0705882
h ෂැ 0.4545455
h බි 0.0018484
h රෝ 0.0917431
h ‍ 0.0625000
h ෂෝ 0.3333333
h මෑ 0.0303030
h තෑ 0.4454545
h ඩ 0.0026439
h ඛා 0.1052632
h 55 0.3333333
h ස 0.0074590
h ඩා 0.0260791
h 6 0.1176471
h ජෑ 0.2500000
h වූ 0.2051282
h 13 0.1111111
h 38 0.0909091
h චෙ 0.3114754
h සි 0.0049237
h තො 0.2790698
h හෑ 0.5000000
h ඉ 0.0011779
h පී 0.0054348
h එ 0.0188679
h කා 0.0014154
h ටු 0.0024865
h ධි 0.2545455
h කු 0.0001836
h සෙ 0.0227273
h නෛ 0.0071429
h බා 0.0074074
h හෙ 0.4872483
h ඤා 0.0384615
h කේ 0.0025707
h පේ 0.0024272
h ඡ 0.0076336
h ච් 0.4495868
h චේ 0.3437500
h ති 0.3191409
h ා 0.1428571
h ව 0.0009522
h කො 0.0049307
h ක0624 0.5000000
h ටී 0.0454545
h භා 0.0909091
h 16 0.1428571
h ථ 0.3888889
h ධු 0.1111111
h ම්. 0.0454545
h චෝ 0.3076923
h 47 0.3333333
h ක 0.0008361
h හී 0.3514377
h තු 0.3052469
h ම08 0.1428571
h 29 0.2000000
h භි 0.0833333
h නි 0.0230867
h ඹේ 0.0027100
h ති‍ 0.3333333
h භ 0.1504425
h දේ 0.0195440
h ෂා 0.4545455
h තෙ 0.3477444
l.r.c ප. 0.3333333
l.r.c ස 0.0002486
l.r.c කො. 1.0000000
l.r.c ඉ. 0.5000000
ok ළ 0.0004115
ok සෝ 0.0065359
e3 ස 0.0002486
e3 3 0.0111111
e3 පෙ 0.0007386
e3 දෙ 0.0002922
187 ධ් 0.0030675
o:1 01 0.0079365
o:1 ටු 0.0004144
o:1 ක 0.0000836
o:1 ප 0.0001998
o:1 ල් 0.0001195
o:1 NULL 0.0000447
1"l ව 0.0000353
1"l 1 0.0042373
250 250 0.1250000
wp ව් 0.0024631
wp පො 0.0003781
524718 524718 1.0000000
o.04 ක 0.0000836
o.04 04 0.0178571
6 හ 0.0012360
6 06 0.1290323
6 ක 0.0001672
6 ව6 0.2000000
6 6 0.3088235
6 ග් 0.0025641
6 ටු 0.0004144
6 නි 0.0012650
6 වැ 0.0005070
6 ග 0.0000866
6 න 0.0002281
6 ම 0.0001337
6 ජ 0.0002901
6 වෙ 0.0032703
6 ස 0.0012432
6 රා 0.0004261
6 ප 0.0003997
6 ය 0.0009362
6 ව 0.0003527
w.a බ්. 0.0588235
w.a ඩ 0.0001017
w.a සි 0.0004924
w.a ඒ. 0.0588235
a,r ම, 0.1000000
a,r රි 0.0002310
puranpotta ඩො 0.0243902
72 72 1.0000000
im රි 0.0002310
im මා 0.0002132
im ගි 0.0013263
im ම 0.0000446
im ටි 0.0002188
km ක් 0.0004533
km ම 0.0000446
km ෂෙ 0.0500000
1,2,82,4/5, ් 0.1666667
1,2,82,4/5, 1,2,82,4/5, 0.5000000
i02 නෛ02 0.3333333
1015/3 ල් 0.0001195
1015/3 ලි 0.0002615
au කා 0.0007077
au NULL 0.0000447
au ඌ 0.0084034
au උ 0.0043024
au වෙ 0.0003634
ruwanpura ර 0.0000487
ruwanpura රු 0.0003139
ruwanpura පු 0.0002509
ruwanpura න් 0.0001231
ruwanpura ව 0.0000353
18/7 10 0.0166667
18/7 ං 0.0005155
159 159 1.0000000
24p ග 0.0000866
24p න 0.0000760
24p ජ 0.0002901
24p ම 0.0000446
24p 24 0.2500000
24p ද 0.0000963
24p ප 0.0001998
e' ආ 0.0018315
e' බේ 0.0055556
e' අ 0.0003374
e' සු 0.0016287
201 187201 1.0000000
201 ක 0.0000836
16 ක 0.0004181
16 16 0.4761905
16 වැ 0.0002535
16 නි 0.0003163
ab ම 0.0000446
ab මා 0.0002132
ab ටා 0.0037594
nu NULL 0.0000447
m.a. එ 0.0015723
m.a. කු 0.0001836
m.a. ම් 0.0002939
m.a. ප 0.0001998
m.a. රේ 0.0017986
m.a. ටු 0.0004144
m.a. ඒ 0.0056497
hp 7 0.0277778
hp 6 0.0147059
hp ණු 0.0024096
hp ක 0.0001672
o: හා 0.0019048
o: වී 0.0007886
o: ක් 0.0004533
o: දි 0.0003666
5c 5 0.0140845
3 ක 0.0001672
3 තො 0.0011628
3 03 0.0296296
3 හ 0.0004494
3 තු 0.0043210
3 373 0.2500000
3 ස3 0.5000000
3 ත 0.0001012
3 NULL 0.0000447
3 තෙ 0.0187970
3 න 0.0009123
3 ග 0.0007794
3 3/4 0.3333333
3 ම03 0.1666667
3 ටු 0.0070452
3 නි 0.0018975
3 3 0.3888889
3 හා 0.0019048
3 ම 0.0004903
3 රේ 0.0017986
3 347 0.1666667
3 ප 0.0033973
3 වෙ 0.0025436
3 න් 0.0016008
3 ව 0.0007759
t.l න් 0.0002463
t.l ශා 0.0081301
t.l ත 0.0001012
t.l ලෙ 0.0025740
d. ර 0.0001950
d. I 0.1000000
d. සේ 0.0025641
d. ස්. 0.0333333
d. ඩී. 0.0344828
d. එ 0.0015723
d. පා 0.0001442
d. රි 0.0002310
d8 D8 1.0000000
i.d.p.l. අ 0.0003374
87 ස 0.0002486
87 87 1.0000000
87 පෙ 0.0007386
87 දෙ 0.0002922
d.l ර 0.0000487
d.l එ 0.0015723
d.l පා 0.0001442
d.l ල්. 0.2500000
d.l ඩී. 0.0344828
47 ව 0.0000353
47 47 0.3333333
a./b ඩ. 0.5000000
a./b බූ 0.0277778
70 70 1.0000000
06 ම 0.0000446
06 ළ 0.0004115
06 ක 0.0000836
06 06 0.5806452
06 යේ 0.0048309
06 6 0.0147059
06 ග් 0.0025641
06 ස 0.0002486
06 කො 0.0003082
06 රා 0.0004261
06 වැ 0.0005070
06 නි 0.0009488
es NULL 0.0000447
es වී 0.0007886
es දි 0.0003666
es 10 0.0166667
es සී 0.0041667
4a 4 0.0093458
4a ඒ 0.0056497
c.p. පී. 0.0625000
c.p. සී. 0.0384615
13/14 ණු 0.0012048
13/14 ක 0.0000836
13/14 13/14 0.1250000
rv ර් 0.0007003
rv බා 0.0024691
st ත 0.0000506
st ශා 0.0040650
st නි 0.0003163
u1 ම1 0.2000000
u1 ව1 0.6666667
u1 ග් 0.0025641
u1 පු1 0.5000000
u1 රා 0.0004261
y. රි 0.0002310
y. ති 0.0003768
y. ඹි 0.0031250
y. ල් 0.0001195
y. ල 0.0000398
y. ගො 0.0001348
nv න් 0.0001231
nv NULL 0.0000447
nv වී 0.0007886
8/3 8/3 1.0000000
a/h හො 0.0019194
a/h ර/ 0.1111111
i/m මී 0.0011561
i/m ම 0.0000446
t.a සා 0.0034188
t.a ආ 0.0018315
t.a තෝ 0.0023148
t.a ත 0.0001012
t.a ශා 0.0081301
t.a අ 0.0003374
t.a න් 0.0003694
m02 ම්02 1.0000000
u13 තු 0.0003086
u13 ව13 1.0000000
fn යි. 0.0769231
fn පෙ 0.0007386
fn ස 0.0002486
fn දෙ 0.0002922
m03 ම්03 1.0000000
al2 2 0.0050000
al2 ල් 0.0001195
al2 එ 0.0015723
a,c ජ 0.0002901
ir ටි 0.0002188
ir වී 0.0007886
ir ට් 0.0008306
ay යා 0.0003066
ma මා 0.0004263
ma ම 0.0000446
eb සා 0.0017094
eb ටෙ 0.0090090
eb කි 0.0005546
eb බැ 0.0013158
eb බො 0.0016447
eb NULL 0.0000447
csi දි 0.0003666
csi යි 0.0006689
csi සී 0.0041667
csi එ 0.0015723
csi වී 0.0007886
csi අ 0.0003374
n.c.d සි. 0.1250000
n.c.d න්. 0.1428571
t10,r ඉ 0.0011779
t10,r ර 0.0000487
t10,r වු 0.0009033
t10,r ු 0.0034602
t10,r 10 0.0166667
44 ය 0.0000669
44 1444 0.1666667
44 යා 0.0003066
44 44 0.3333333
kd ක් 0.0004533
n, අ 0.0003374
n, NULL 0.0000894
n, හා 0.0019048
n, ට 0.0002806
n, ව 0.0000353
r.b. බී. 0.2000000
r.b. ර්. 0.0500000
r.b. ආ 0.0018315
10 10 0.5666667
10 ඒ 0.0169492
10 ණු 0.0012048
10 ය10 0.5000000
10 ක 0.0003344
10 හ 0.0001124
t.t සා 0.0034188
t.t රේ 0.0035971
t.t ත 0.0001012
t.t ශා 0.0081301
t.t න් 0.0002463
t.t තෙ 0.0037594
et NULL 0.0000447
et තෙ 0.0018797
et ත 0.0000506
et ත් 0.0001072
b' බී 0.0112360
r20 ර්20 0.5000000
200 200 1.0000000
ik කි 0.0005546
7/1 7/1 1.0000000
u12 තු 0.0003086
u12 ව12 1.0000000
485 07485 1.0000000
485 ද 0.0000963
485 වා 0.0005411
485 ක් 0.0004533
u16 ව16 1.0000000
u16 තු 0.0003086
1415 1415 1.0000000
1415 ද 0.0000963
1415 වා 0.0005411
1415 ක් 0.0004533
v.05, 05, 1.0000000
v.05, ම 0.0000446
v.05, ස 0.0002486
45/1/1 NULL 0.0000447
s.s.d ස්. 0.0666667
s.s.d ඩ 0.0001017
s.s.d එ 0.0031447
t& ම/ 0.1666667
f 60 0.1666667
f ෆූ 0.5000000
f පැ 0.0141844
f භා 0.0113636
f පු 0.0010038
f ම/ 0.1666667
f කෝ 0.0010428
f මි 0.0006596
f කො 0.0009245
f පො 0.0045369
f ා 0.1428571
f ව 0.0003880
f ති 0.0003768
f දා 0.0032520
f ක 0.0002508
f ග‍ 0.2000000
f ම්. 0.0454545
f ඟ 0.0049261
f ෆා 0.3571429
f භ 0.0088496
f F 1.0000000
f ෆෙ 0.5000000
f ත156 0.1666667
f ගෙ 0.0009149
f යේ 0.0048309
f ටො 0.0333333
f දෙ 0.0008767
f ම් 0.0011754
f න් 0.0006157
f ප 0.0053957
f කි 0.0005546
f ෆැ 1.0000000
f දෞ 0.2000000
f ෆි 0.4285714
f ඉ 0.0094229
f එ 0.0031447
f පී 0.0271739
f ෆ්‍ 0.7500000
f තො 0.0023256
f ප්‍ 0.2881356
f 143 0.2000000
f ෆු 0.2857143
f ෆ් 0.5833333
f 12 0.0188679
f දු 0.0003751
f පෝ 0.0104167
f 05 0.0123457
f ණ 0.0027211
f 646 0.5000000
f ප් 0.0273082
f පා 0.0011537
f ටැ 0.0125000
f ගො 0.0020227
f ෆෝ 0.3548387
f NULL 0.0021460
f පෘ 0.1875000
f ධී 0.0983607
f ත 0.0001518
f ම 0.0008915
f ෆො 0.3750000
f ඩි 0.0020259
f වු 0.0009033
f ෆ 0.6060606
f ශ 0.0116959
f පෙ 0.0014771
f ල් 0.0001195
f ට් 0.0016611
f වි 0.0037434
f පි 0.0002567
f ෆී 0.2738095
f උ 0.0018439
f චා 0.0039841
f මා 0.0006395
f හ 0.0005618
f ඕ 0.0042017
f නො 0.0064103
f ර් 0.0140056
f 623 0.5000000
f ර්. 0.1000000
f යා 0.0009197
a/ ත් 0.0001072
a/ හො 0.0019194
a/ නො 0.0064103
a/ ම/ 0.1666667
05 ක 0.0005017
05 ම 0.0000891
05 අ 0.0003374
05 ඉ 0.0011779
05 ඒ 0.0056497
05 රි 0.0002310
05 5 0.0281690
05 ය 0.0000669
05 රා 0.0004261
05 වු 0.0009033
05 ම් 0.0002939
05 ර 0.0000975
05 05 0.3086420
05 ති 0.0003768
05 යා 0.0003066
m.j.c.f ප්‍ 0.0169492
m.j.c.f M.J.C. 1.0000000
o,n ට, 0.5000000
o,n න 0.0000760
z චි 0.0013550
z ඩ 0.0013219
z සා 0.0119658
z වි 0.0004991
z ට් 0.0008306
z ස 0.0019891
z ය 0.0008693
z ප 0.0011990
z සේ 0.0025641
z ු 0.0034602
z යේ 0.0048309
z ඩි 0.0004052
z ස් 0.0003647
z දි 0.0073314
z ණ් 0.0022124
z සු 0.0016287
z ඩී 0.0061350
z වී 0.0165615
z NULL 0.0000447
z ටි 0.0002188
z ළා 0.0077519
z ලා 0.0024201
z ලූ 0.0131579
z සී 0.0083333
z සි 0.0004924
z A 0.0588235
z ෆ්‍ 0.1250000
z ක 0.0013378
k5 දෙ 0.0002922
k5 ය5 0.5000000
k5 යා 0.0003066
k5 පෙ 0.0007386
k5 ස 0.0002486
r17 ර්17 0.5000000
m.c.r සී. 0.1153846
m.c.r ම්. 0.1363636
m.c.r එ 0.0047170
t.c ග 0.0000866
t.c න 0.0000760
t.c ර 0.0000487
t.c භා 0.0113636
t.c ස 0.0002486
134 රි 0.0002310
43/1 NULL 0.0000447
d2 2 0.0050000
t.j ජු 0.0144928
t.j ජූ 0.2000000
t.j න් 0.0004926
t.j ත 0.0002025
t.j ශා 0.0121951
5 ර5 0.2500000
5 ං 0.0005155
5 රේ 0.0035971
5 ව5 0.2000000
5 ස් 0.0036470
5 ම 0.0003566
5 ව 0.0005643
5 ප 0.0047962
5 වෙ 0.0014535
5 ණු 0.0024096
5 05 0.0617284
5 ළා 0.0077519
5 5 0.4647887
5 ළො 0.0476190
5 ක 0.0005017
5 අ 0.0003374
5 5/ 1.0000000
5 4 0.0093458
5 න 0.0011404
5 / 0.0344828
5 ටු 0.0033154
5 නි 0.0012650
5 ම05 0.1428571
o දා 0.0016260
o ඩු 0.0017065
o ගොා 0.5000000
o ද 0.0006738
o පැ 0.0189125
o සෝ 0.4313725
o 20 0.0666667
o කෙ 0.0040161
o ෂො 0.3333333
o ව් 0.0049261
o 143 0.2000000
o ගෲ 0.2000000
o ඩේ 0.0256410
o දෙ 0.0020456
o න් 0.0023396
o ම් 0.0005877
o ප 0.0253797
o කි 0.0005546
o 52 0.5000000
o දෞ 0.2000000
o සා 0.0102564
o මේ 0.0052910
o ද්‍ 0.0543478
o බෝ 0.4942649
o පා 0.2515143
o A 0.0588235
o 03 0.0444444
o තූ 0.2162162
o ලා 0.0019361
o 5 0.0281690
o ලූ 0.3026316
o සී 0.0083333
o මො 0.4828532
o බ්. 0.0588235
o මු 0.0090185
o නූ 0.3448276
o 9180 0.5000000
o තො 0.5000000
o හූ 0.2608696
o බෝ 0.5000000
o සැ 0.0427807
o 05 0.0864198
o ඝෝ 0.5000000
o සි. 0.1250000
o බෞ 0.1176471
o මා 0.0068216
o ඨා 0.1386139
o ඕ 0.7142857
o බෙෘ 0.2500000
o ප‍ා 0.5000000
o 10 0.0166667
o 347 0.1666667
o ජු 0.0434783
o ජො 0.4800000
o ඔෙ 0.5000000
o ට් 0.0091362
o ජෝ 0.4716981
o වි 0.0019965
o ඔ 0.5144033
o 13/14 0.1250000
o ත් 0.0001072
o 06 0.0967742
o රාෙ 0.5000000
o චෝ 0.3461538
o ම්. 0.1818182
o 04 0.0714286
o රැ 0.0039370
o ඟ 0.0147783
o භි 0.0833333
o ලෝ 0.4703557
o පේ 0.0024272
o ව5 0.2000000
o 3 0.0555556
o ටී 0.0681818
o 478602 0.4000000
o භා 0.1136364
o කො 0.4844376
o ව 0.0035974
o 1 0.0211864
o එ 0.0015723
o 1,2,82,4/5, 0.5000000
o තො 0.3465116
o වූ 0.1538462
o 6 0.0588235
o ළා 0.0697674
o 250 0.1250000
o ධි 0.0045455
o රූ 0.1964286
o ත156 0.1666667
o ණෝ 0.4000000
o ෂෝ 0.3333333
o යො 0.4418605
o රෝ 0.3027523
o යේ 0.0241546
o II 0.0909091
o 97644/5 0.5000000
o ත735/12 0.2500000
o 161247 0.1666667
o ටො 0.4500000
o ණු 0.0289157
o ස 0.0047240
o ක1 0.5000000
o ලු 0.0033708
o තA 0.2000000
o ඩෝ 0.4905660
o ගො 0.4916397
o මූ 0.3560209
o දො 0.4824561
o බො 0.4901316
o ත 0.0025814
o ෂ 0.0611111
o 02 0.0608108
o ශො 0.3333333
o පෝ 0.4947917
o රි 0.0018480
o ණ 0.0054422
o ටෝ 0.4375000
o කො‍ 0.2500000
o හ 0.0005618
o ට630 0.3333333
o ගො 0.5000000
o ි 0.0909091
o 310724 0.2500000
o රො 0.4788732
o යා 0.0003066
o න 0.0031172
o ගෙි 0.5000000
o ට29 0.3333333
o ම 0.0012926
o බෲ 0.4571429
o ඹ 0.0217281
o බ 0.0040635
o 23/2 0.5000000
o 1444 0.1666667
o 0328 0.1250000
o ඩෲ 0.1944444
o වෝ 0.3464052
o ළ 0.0473251
o ල 0.0008364
o යූ 0.5789474
o පු 0.0075282
o කෟ 0.2500000
o කෝ 0.5286757
o රී 0.0079156
o පො 0.4869565
o ශු 0.1538462
o ශ් 0.0052356
o අ 0.0006748
o ෙ 0.1538462
o 71 0.1111111
o 0565 0.5000000
o බු 0.0086207
o ය/ 0.2500000
o ඇ 0.0038462
o 9 0.0967742
o 69 0.1111111
o 1,2,3,4, 0.3333333
o ු 0.0207612
o 723 0.1666667
o ර 0.0126231
o 50 0.0810811
o හො 0.4856046
o භූ 0.3461538
o 18 0.0714286
o ක1315 0.2000000
o චො 0.3333333
o ව6 0.2000000
o යෝ 0.4876033
o 290 0.6666667
o සු 0.0635179
o සූ 0.5034965
o මෙ 0.0056497
o නු 0.0123609
o ඹ් 0.4193548
o යු 0.0403226
o ගූ 0.4000000
o ශෝ 0.3250000
o බෟ 0.2000000
o දෝ 0.4861111
o උ 0.0073755
o ක01 0.5000000
o නො 0.4551282
o ඩ් 0.0459677
o ර් 0.0266106
o ය4 0.1428571
o ර්. 0.0500000
o ැ 0.6666667
o 09 0.1034483
o හෝ 0.4489796
o 0331 0.5000000
o ජ 0.3852625
o චූ 0.3636364
o ල් 0.0015537
o ය 0.0056172
o කූ 0.3962264
o ට 0.0224467
o වා 0.0183983
o තු 0.0015432
o ක 0.0074415
o ය3 0.1428571
o ගෝ 0.4864865
o තෙ 0.0018797
o වො 0.4375000
o නි 0.0079064
o උා 1.0000000
o 01 0.0317460
o ඡ 0.0534351
o ඹො 0.3333333
o 0318 0.2500000
o බා 0.0024691
o ඒ 0.0112994
o /410 0.2500000
o 588 0.1666667
o 19 0.0666667
o 76129 0.5000000
o ට654 0.3333333
o වෛා 1.0000000
o යි. 0.0769231
o කු 0.0051395
o සෙ 0.0103306
o ටු 0.0008288
o කා 0.0007077
o ඊ. 0.1111111
o ගෙ 0.0064044
o මෝ 0.4850498
o බෙ 0.0025381
o ං 0.0067010
o පූ 0.5147929
o ටෲ 0.5000000
o 238 0.4000000
o වෛ. 0.3333333
o ඩ 0.0030506
o හාෙ 1.0000000
o ගා 0.0049813
o ෆෝ 0.3709677
o කෲ 0.5000000
o NULL 0.0505656
o නෝ 0.4841270
o තෝ 0.3240741
o දූ 0.3222892
o බූ 0.3333333
o ෆු 0.2857143
o ස් 0.0029176
o 103210 0.1666667
o රේ 0.0035971
o කො 0.3750000
o දු 0.0356339
o සො 0.4954955
o රා් 1.0000000
o ථා 0.0571429
o ළො 0.4761905
o ඹෝ 0.4166667
o ලෙ 0.0064350
o 2 0.0100000
o කැ 0.0011136
o වී 0.0220820
o ලො 0.5082873
o රෙ 0.0036496
o ෆො 0.4687500
o නෙ 0.0016155
o වු 0.0767841
o ගු 0.0122222
o ඩො 0.4634146
o රා 0.0004261
o පෙ 0.0007386
o ශ 0.0058480
o හු 0.0052174
o 4354 0.1666667
o ටෑ 0.0500000
.q ස 0.0002486
.q භා 0.0113636
.q වා 0.0005411
.q නි 0.0003163
03 අ 0.0006748
03 ක 0.0009197
03 03 0.3555556
03 0318 0.2500000
03 ් 0.1666667
03 ං 0.0010309
03 0328 0.1250000
03 NULL 0.0000447
03 ය 0.0002006
03 01 0.0079365
03 යා 0.0003066
el ළ 0.0016461
el හ 0.0004494
el ු 0.0034602
el NULL 0.0000447
el ස 0.0002486
el ප 0.0009992
el ලී 0.0056497
el බේ 0.0055556
k16 16 0.0476190
i04 නෛ04 0.3333333
u4 ව4 1.0000000
u4 තු 0.0006173
480/20/9 යා 0.0003066
480/20/9 උ 0.0006146
480/20/9 ද්‍ 0.0108696
6970 ද 0.0000963
6970 6970 1.0000000
6970 ක් 0.0004533
6970 වා 0.0005411
z/ 09 0.0344828
z/ ස් 0.0003647
o:10 කො 0.0003082
o:10 ට් 0.0008306
o:10 ශ 0.0058480
o:10 10 0.0166667
o:10 අ 0.0003374
o:10 ක 0.0000836
o:10 ං 0.0005155
o:10 ඨා 0.0099010
143 සා 0.0017094
q ශ් 0.0052356
q තු 0.0018519
q ඨ 0.1666667
q ර් 0.0007003
q කු 0.0007342
q ච 0.0176991
q ලි 0.0041841
q නි 0.0053763
q ක් 0.0045331
q මෙ 0.0112994
q ලේ 0.0005152
q ළ 0.0012346
q ල 0.0001991
q ස් 0.0003647
q ඩි 0.0004052
q ර 0.0000975
q ම් 0.0008816
q යු 0.0080645
q භා 0.0227273
q ල් 0.0009561
q ස 0.0002486
q ප 0.0017986
q ය 0.0007356
q කි 0.0016639
q ථා 0.0285714
q වා 0.0064935
q ෂ් 0.0217391
108 04108 1.0000000
m.e පෙ 0.0014771
m.e එ 0.0031447
m.e ඊ 0.0256410
m.e ම්. 0.0909091
m.e රේ 0.0035971
0183/1479 ද 0.0000963
0183/1479 වා 0.0005411
0183/1479 ක් 0.0004533
0183/1479 0183/1479 0.5000000
m01 ම්01 1.0000000
12e 12 0.0188679
12e ඇ 0.0009615
391 391683 0.5000000
66a ඒ 0.0056497
66a 0166 1.0000000
66a /410 0.2500000
id ප 0.0001998
id ල 0.0000398
id ම් 0.0002939
id ර් 0.0007003
id දු 0.0003751
id චි 0.0013550
id ටෙ 0.0090090
ao ඔ 0.0041152
30 ං 0.0005155
30 ක 0.0000836
30 ද 0.0000963
30 එ 0.0015723
30 ර30 0.5000000
30 වා 0.0010823
30 ක් 0.0009066
30 වැ 0.0002535
30 30 0.4545455
30 නි 0.0006325
30 0130 1.0000000
09, කු. 0.0714286
09, ඉ 0.0011779
09, වු 0.0009033
09, ු 0.0034602
09, ග. 0.0370370
09, 09 0.0344828
d.s.s. ස්. 0.0333333
d.s.s. ස් 0.0003647
d.s.s. ඩි. 0.2500000
d.s.s. එ 0.0031447
re වෝ 0.0065359
re ර් 0.0007003
re නෝ 0.0079365
i/w වැ 0.0002535
i/w රි/ 0.5000000
a,g , 0.1428571
a,g ගු 0.0011111
fk ශ 0.0058480
fk ජ 0.0002901
em මැ 0.0010953
em ලේ 0.0005152
em ලෑ 0.0020367
em ම 0.0000446
em මා 0.0002132
120 ට් 0.0008306
d ‍ 0.1875000
d ඊ. 0.1111111
d ං 0.0005155
d යේ 0.0096618
d ඳා 0.2705882
d ස 0.0002486
d I 0.2000000
d ඩ 0.4899329
d ධ් 0.0337423
d එ 0.0015723
d ළා 0.0155039
d ඩා 0.4829137
d ධි 0.3545455
d සෙ 0.0020661
d සී. 0.1538462
d ටු 0.0124327
d 3 0.1666667
d ඒ 0.0056497
d මි 0.0006596
d ඩ1 0.5000000
d ධු 0.5555556
d ඩෙ 0.4973262
d භා 0.0113636
d ති 0.0056518
d ඞු 0.5000000
d 1 0.0127119
d ව 0.0030684
d තු 0.0043210
d ඪී 0.3333333
d ම්. 0.0909091
d 04 0.0178571
d B 0.0714286
d රැ 0.0019685
d ඞ 0.3333333
d දේ 0.4690554
d ඟ 0.0049261
d ඞි 0.5000000
d 01 0.0396825
d නි 0.0022138
d ම 0.0005795
d ඩො 0.4634146
d ශ 0.0058480
d ජි 0.0125000
d ර8 0.5000000
d 11 0.0133333
d චි 0.0013550
d ඬි 0.3478261
d බ 0.0003694
d හ 0.0002247
d චා 0.0039841
d . 0.2000000
d ර76132 0.5000000
d ි 0.0909091
d 2 0.0950000
d ටෙ 0.0450450
d ඩෑ 0.5000000
d රො 0.0035211
d න 0.0026610
d ඬු 0.3670886
d ද් 0.9239654
d ස් 0.0018235
d 02 0.0743243
d ලේ 0.0041216
d දු 0.4103526
d ඩ්‍ 0.7500000
d රේ 0.0053957
d ණ 0.0006803
d 123 0.3333333
d ලෑ 0.0020367
d ජේ. 0.0833333
d තේ 0.0019084
d ධා 0.2992701
d ඩ, 0.5000000
d ඩෝ 0.4905660
d ද්් 1.0000000
d ත 0.0052133
d ධී 0.1639344
d දො 0.4874687
d NULL 0.0204766
d ඹු 0.0004515
d දූ 0.3915663
d ඳි 0.3502825
d ඳ 0.3452594
d ඬා 0.3333333
d ඩේ 0.4307692
d දෙ 0.4313267
d ු 0.0519031
d දෑ 0.5242718
d ර5 0.2500000
d 69 0.1111111
d හා2 0.2500000
d ඳේ 0.5000000
d ප 0.0005995
d ර 0.1201384
d න් 0.0028322
d ද්ෙ 1.0000000
d සා 0.0017094
d ද2 0.3333333
d අ 0.0013495
d 71 0.1111111
d ෙ 0.0384615
d 03, 0.3333333
d වේ 0.0048135
d ඩී 0.5214724
d ග් 0.0076923
d 4 0.0280374
d 53 0.2500000
d ල 0.0007568
d ද 0.4215998
d ළ 0.0049383
d ඩ11 0.5000000
d පු 0.0010038
d දැ 0.5000000
d පො 0.0007561
d ඩ. 0.5000000
d ද, 0.5000000
d දා 0.4650407
d රු 0.0003139
d 1,2,3 0.2000000
d ඩු 0.5000000
d ටී. 0.0625000
d ධ 0.4438356
d ඳු 0.3551587
d ඩෛ 0.1708185
d ඩෲ 0.2222222
d බී 0.0112360
d ටා 0.0300752
d ඩූ 0.3809524
d ජු 0.0217391
d ඩි 0.4983793
d ල් 0.0005976
d ඩ/ 0.5000000
d ට් 0.1345515
d ය 0.0004012
d ද‍ 0.5000000
d ත් 0.0007504
d ට 0.0185185
d යි 0.0020067
d 08 0.0400000
d මා 0.0006395
d උ 0.0012293
d ඨා 0.1386139
d තී 0.0099010
d ඩ් 0.6911290
d ර් 0.0126050
d ටි 0.0067819
d ම03 0.1666667
d 3rd 0.2000000
d ඬ 0.4166667
d ද1 0.3333333
d ලෛ 0.0030581
d දෛ 0.1428571
d ගි 0.0039788
d දෝ 0.5000000
d ඩී. 0.2068966
d ප් 0.0026008
d ඬේ 0.3571429
d 03 0.0518519
d 32 0.1428571
d ද්‍ 0.5326087
d පා 0.0064898
d මු 0.0006292
d දී 0.2929293
d ් 0.1666667
d ඩැ 0.5065502
d දි 0.3427419
d ටෛ 0.0652174
b.b.f ෆො 0.0312500
b.b.f බී 0.0224719
28 අ 0.0003374
28 ක 0.0001672
28 ං 0.0005155
28 0328 0.1250000
28 ප 0.0001998
28 නි 0.0003163
28 වැ 0.0005070
28 28 0.3333333
a17 17 0.0588235
n.t න්. 0.1428571
n.t ටී. 0.0625000
n.t එ 0.0015723
dw ඩ් 0.0016129
dw වැ 0.0002535
dw ව 0.0001058
dw හා 0.0019048
r ග් 0.0025641
r 143 0.2000000
r 53 0.2500000
r වැ 0.0005070
r කෙ 0.0020080
r ඒ. 0.0588235
r ෙ 0.0384615
r ව් 0.0024631
r ප 0.0009992
r න් 0.0016008
r ර 0.3896579
r සා 0.0205128
r මේ 0.0264550
r භූ 0.0192308
r හො 0.0019194
r ච්. 0.1875000
r ගෲ 0.2000000
r 723 0.1666667
r දෙ 0.0005845
r ු 0.0484429
r රෛ් 0.5000000
r 58167/4 0.3333333
r 4/44 0.2000000
r ක් 0.0013599
r ඩෲ 0.1944444
r රු 0.4943503
r 1444 0.1666667
r ධ 0.0027397
r 0328 0.1250000
r 7 0.0555556
r 4240 0.1428571
r 20 0.0666667
r කෝ 0.0031283
r කෟ 0.2500000
r පු 0.0005019
r ර30 0.5000000
r පො 0.0003781
r රී 0.4221636
r ර66 0.2500000
r ද 0.0017326
r ල 0.0015534
r ළ 0.0094650
r පැ 0.0035461
r ප‍ා 0.5000000
r ටි 0.0006563
r ර් 0.7219888
r රෑ 0.4931507
r ග 0.0005196
r 10 0.0333333
r ර, 0.2222222
r ලි 0.0002615
r මා 0.0315498
r 2165 0.1428571
r බෘෘ 0.3333333
r ඨා 0.0198020
r ඕ 0.0126050
r ඩ් 0.0250000
r 120/2 0.2500000
r ෆ 0.0303030
r ය2/4 0.2500000
r රුෙ 0.5000000
r ය 0.0187241
r ට් 0.0257475
r ල් 0.0010757
r ත් 0.0004288
r මෘ 0.3333333
r වා 0.0010823
r ඔ 0.0013717
r යි 0.0020067
r වි 0.0029948
r රෛ 0.3358209
r ට 0.0008418
r වි‍ 0.2000000
r හෝ 0.0306122
r ඩි 0.0028363
r ජු 0.0072464
r පෞ 0.2000000
r රු, 0.5000000
r දි 0.0142962
r ර111 0.3333333
r GTZ 0.5000000
r 22 0.1111111
r ක1315 0.2000000
r 03 0.0370370
r පා 0.3441015
r ද්‍ 0.1630435
r ඨ 0.1666667
r දී 0.0067340
r 646 0.5000000
r 05 0.0864198
r භු 0.1666667
r බෟ 0.3000000
r 3rd 0.2000000
r ඹ් 0.0967742
r 139 0.1666667
r 12 0.0566038
r 2137 0.1250000
r කු 0.0001836
r ටු 0.0045586
r සී. 0.0384615
r ෆ්‍ 0.1250000
r සි 0.0004924
r එ 0.0062893
r ඉ 0.0094229
r ස 0.0054699
r ර9 0.3333333
r ධ් 0.1472393
r ඩ 0.0014236
r ය් 0.1428571
r රූ 0.4464286
r ත156 0.3333333
r ටෲ 0.2500000
r 161247 0.1666667
r බෙ 0.0126904
r රෝ 0.2446483
r යේ 0.0434783
r ෆා 0.1607143
r රි/ 0.5000000
r 5/245/1/1 0.3333333
r ඟ 0.0098522
r රැ 0.4901575
r 07 0.0357143
r 01 0.0158730
r භි 0.0833333
r ක 0.0008361
r රාෙ 0.5000000
r 06 0.0322581
r තු 0.0027778
r භා 0.0113636
r ටී 0.0227273
r 588 0.1666667
r ා 0.1428571
r ව 0.0002469
r ර‍ 0.2500000
r 3 0.1888889
r කේ 0.1362468
r පේ 0.0097087
r ඒ 0.0112994
r රා‍ 0.5000000
r බා 0.0024691
r ට්A 0.5000000
r හෙ 0.0013423
r ර53 0.5000000
r රො 0.4788732
r වී 0.1135647
r 623 0.5000000
r න 0.0003801
r යා 0.0183936
r ද් 0.0153994
r හ 0.0001124
r චා 0.0398406
r කැ 0.0005568
r ටෙ 0.0180180
r 373 0.2500000
r පෙ 0.0014771
r රා 0.4946741
r 11 0.0400000
r 4354 0.1666667
r බ 0.0003694
r බෲ 0.2285714
r රෙ 0.4927007
r ම 0.0005349
r ර/ 0.2222222
r රිෙ 0.5000000
r ධ්‍ 0.1764706
r නෝ 0.0158730
r බො 0.0016447
r ත 0.0024801
r NULL 0.0216837
r පෘ 0.1875000
r ආ 0.0128205
r 6/1 0.2500000
r කෲ 0.1250000
r ෆෝ 0.2580645
r 123 0.3333333
r ස්. 0.0333333
r න්. 0.1428571
r ථා 0.0571429
r ටෝ 0.0416667
r 103210 0.1666667
r ස් 0.0007294
r 02 0.0067568
r ෆු 0.1428571
r ලේ 0.0005152
r දු 0.0090023
r රි 0.4899515
r කේ. 0.1818182
r රේ 0.4838129
i01 පි01 0.3333333
i01 තී 0.0033003
i01 නෛ01 0.3333333
i01 ලෛ 0.0030581
i01 වු 0.0009033
a/w ත/ 0.1666667
a/w වැ 0.0005070
a/w ව/ 1.0000000
58167/4 58167/4 0.3333333
96 ට 0.0002806
96 143 0.2000000
96 ය 0.0000669
96 සි 0.0009847
e1 1 0.0042373
20, ග. 0.0370370
20, ු 0.0034602
20, වු 0.0009033
20, කු. 0.0714286
20, ඉ 0.0011779
20, 20 0.0666667
] කො 0.0003082
e,p ප 0.0001998
1,2,3 2 0.0050000
1,2,3 1,2,3 0.4000000
1,2,3 ම 0.0000891
1,2,3 3 0.0111111
1,2,3 ය1,2,3 0.3333333
1,2,3 ටු 0.0008288
1,2,3 1 0.0042373
1,2,3 ප 0.0003997
y හැ 0.0017212
y ඹේ 0.0027100
y රැ 0.0019685
y බී 0.0112360
y ෆෙ 0.1000000
y නි 0.0196078
y තු 0.0006173
y ඩු 0.0004266
y සේ 0.0025641
y ටී 0.0227273
y 16 0.0476190
y කෝ 0.0010428
y මි 0.0026385
y පො 0.0003781
y ය1 0.2222222
y 1 0.0042373
y ති 0.0082894
y පේ 0.0024272
y ය514 0.3333333
y ල 0.0002390
y යූ 0.2894737
y ළි 0.0131579
y ඹෑ 0.0294118
y ඩී 0.1165644
y යෙ 0.3513514
y වෛ 0.0337079
y වැ 0.0005070
y ප්‍ 0.0169492
y ණි 0.0532995
y පී 0.0054348
y 38 0.0909091
y සි 0.0068932
y කෛ 0.0153846
y ඩා 0.0008993
y ළා 0.0077519
y ම් 0.0002939
y ර 0.0008285
y ටේ 0.0040650
y වෛ. 0.3333333
y ප 0.0011990
y ය් 0.1428571
y කි 0.0011093
y බේ 0.0055556
y ඩ 0.0002034
y ඥා 0.0400000
y ය10 0.5000000
y ‍ 0.0625000
y ය/ 0.2500000
y යො 0.5116279
y ගෲ 0.2000000
y යේ 0.1787440
y NULL 0.0033979
y යI 0.5000000
y ත 0.0004555
y දූ 0.0030120
y දි 0.0051320
y පා 0.0038939
y නී 0.0057803
y ගො 0.0001348
y මෛ 0.0204082
y යෝ 0.3719008
y සී 0.0041667
y දී 0.0033670
y ලෑ 0.0061100
y යු 0.2500000
y ජ් 0.0104167
y ය2 0.2857143
y ණ 0.0027211
y වී. 0.1250000
y තේ 0.0019084
y දෝ 0.0138889
y ජේ. 0.0833333
y ලේ 0.0025760
y ස් 0.0007294
y රේ 0.0017986
y යැ 0.5000000
y රි 0.0048510
y මී 0.0011561
y ටි 0.0072194
y ගේ 0.0025707
y ලී 0.0282486
y ලි 0.0217050
y රෑ 0.0136986
y න 0.0027370
y යා 0.4837523
y ග/ 0.2000000
y 35 0.2000000
y මා 0.0023449
y හ 0.0004494
y 39 0.1428571
y 2 0.0050000
y ඩ් 0.0040323
y ජ 0.0002901
y ඔෙ 0.5000000
y 11 0.0266667
y ය 0.4781998
y ට් 0.0016611
y ඔ 0.0013717
y වි 0.0007487
y යි 0.1177258
y ය1,2,3 0.3333333
y හු 0.0017391
y ෆී 0.0357143
y චි 0.0027100
y යෞ 0.5000000
y ළී 0.2727273
y රෙ 0.0072993
y ම 0.0000891
y ඹ 0.0010106
y ඩි 0.1333063
y ය20 0.5000000
ws ටි 0.0002188
ws කෙ 0.0020080
ws ව 0.0000353
602 478602 0.2000000
no නො 0.0128205
no ං 0.0010309
no අ 0.0006748
no 11 0.0133333
no ක 0.0001672
b. ස 0.0002486
b. ට 0.0002806
b. කා 0.0007077
b. බි. 1.0000000
b. බි 0.0018484
b. අැෙ 0.5000000
b. ටි. 0.3333333
b. ෙ 0.0192308
c.100 පෞ 0.0400000
c.100 ක 0.0000836
c.100 ග 0.0000866
c.100 100 0.1666667
c.100 දු 0.0003751
c.100 ලි 0.0002615
ku කු 0.0001836
i.d.h අ 0.0010121
i.d.h පා 0.0002884
i.d.h එ 0.0047170
i.d.h දූ 0.0030120
i.d.h ච් 0.0016529
i.d.h ච්. 0.1250000
i.d.h ඩී. 0.1034483
i.d.h යි. 0.2307692
s.h.d ඹ 0.0005053
s.h.d කො 0.0003082
s.h.d ළ 0.0004115
v.3 ම 0.0000446
v.3 ස 0.0002486
v.3 03, 0.3333333
ee ලේ 0.0020608
ee සැ 0.0053476
ee ඇ 0.0019231
ee පෟ 0.5000000
ee නේ 0.0012887
ee ව් 0.0024631
ee ඊ 0.0128205
ee හෝ 0.0102041
ee ර් 0.0007003
ee ව 0.0003527
ee ති 0.0003768
ee යා 0.0003066
lrc LRC 1.0000000
r18 ර්18 0.5000000
15b අ 0.0003374
15b ක1315 0.2000000
15b බී 0.0112360
15b ං 0.0005155
18a 18 0.0357143
r.b.c බී. 0.4000000
r.b.c ර්. 0.1000000
r.b.c ආ 0.0036630
1/c සී 0.0041667
1/c 1 0.0042373
2 න2 0.3333333
2 ද2 0.3333333
2 ව 0.0016576
2 පි 0.0005133
2 බ් 0.0044248
2 ර 0.0002924
2 11 0.0133333
2 වෙ 0.0043605
2 ම් 0.0002939
2 හා2 0.2500000
2 ය2 0.2857143
2 ය 0.0004681
2 ප 0.0065947
2 දෙ 0.0131502
2 ං 0.0005155
2 ම 0.0014263
2 02 0.0540541
2 3 0.0111111
2 නි 0.0003163
2 ටු 0.0140903
2 ව2 0.3333333
2 ග 0.0000866
2 න 0.0001521
2 NULL 0.0000447
2 2137 0.1250000
2 ත2 0.5000000
2 2 0.3350000
2 මු 0.0002097
2 අ 0.0003374
2 ක 0.0005853
25t 0425T 0.5000000
od මෝ 0.0033223
od ඩූ 0.0476190
ke ක් 0.0004533
ail ත 0.0000506
273 ර 0.0000487
273 273 1.0000000
273 ප් 0.0013004
273 ධා 0.0072993
90 90 1.0000000
90 290 0.3333333
90 ක 0.0000836
d.s.s නා 0.0007067
d.s.s D'S. 1.0000000
d.s.s D'S 1.0000000
d.s.s සේ 0.0051282
181 අ 0.0003374
181 ක 0.0000836
181 134181 1.0000000
181 ං 0.0005155
u ණා 0.0162602
u බූ 0.2500000
u දූ 0.2500000
u ඹු 0.3440181
u NULL 0.0146198
u පෘ 0.1875000
u ච 0.0058997
u බො 0.0032895
u ත 0.0012148
u 80 0.1000000
u මූ 0.2251309
u ඩෝ 0.0188679
u ගො 0.0002697
u ධා 0.0072993
u ටෝ 0.0208333
u තේ 0.0019084
u ථා 0.0571429
u ජේ. 0.0833333
u ස්. 0.0333333
u ණ 0.0013605
u රේ 0.0017986
u රි 0.0004620
u දු 0.4066017
u පෝ 0.0052083
u ෆු 0.1428571
u ලේ 0.0030912
u ස් 0.0014588
u ඬු 0.3544304
u ඔූ 0.3333333
u ෂු 0.3333333
u න 0.0001521
u වී 0.0015773
u මී 0.0011561
u කැ 0.0005568
u හ 0.0051685
u බ 0.0066494
u හු 0.4817391
u වෙ 0.0007267
u වු 0.4408311
u ජි 0.0062500
u 11 0.0133333
u තුි 0.2500000
u ගු 0.4577778
u ඹූ 0.3636364
u ර්12 0.5000000
u ම 0.0005349
u බෲ 0.0571429
u ෂි 0.0555556
u ලෝ 0.0079051
u රැ 0.1535433
u ළූ 0.5000000
u 04 0.0178571
u ක 0.0006689
u තු 0.3246914
u ර්16 0.5000000
u ා 0.2857143
u ව 0.0007406
u ඞු 0.5000000
u භා 0.0681818
u ටී 0.0227273
u ධු 0.3333333
u ර්20 0.5000000
u කො 0.0006163
u බා 0.0049383
u ඒ 0.1242938
u ර‍ 0.1250000
u ටු 0.3833402
u කු 0.4919236
u 2137 0.1250000
u 6 0.0147059
u එ 0.0047170
u ඉ 0.0011779
u වූ 0.1794872
u සි 0.0004924
u තො 0.0023256
u ර්13 0.5000000
u ලු 0.4606742
u ඩ 0.0020338
u ණු 0.4433735
u වෛ. 0.3333333
u ස 0.0069617
u රෝ 0.0091743
u ණූ 0.5000000
u පූ 0.1124260
u රූ 0.3392857
u මෝ 0.0033223
u සූ 0.1188811
u මෙ 0.0112994
u දි 0.0003666
u සු 0.4267101
u ලූ 0.2500000
u උෟ 1.0000000
u මු 0.4773490
u නූ 0.2413793
u මො 0.0013717
u පා 0.0001442
u තූ 0.2162162
u ප් 0.0117035
u ඩී. 0.0344828
u ගූ 0.2000000
u බෟ 0.2000000
u ලුෙ 0.5000000
u යු 0.5806452
u ගි 0.0013263
u ඹ් 0.0322581
u හූ 0.3043478
u ඡු 0.5000000
u නු 0.4610630
u ර්14 0.5000000
u ලි 0.0010460
u රෑ 0.0410959
u ළු 0.4911032
u බෙෘ 0.3750000
u ර් 0.0112045
u නො 0.0128205
u ඕ 0.0042017
u උ 0.8672403
u බෘෘ 0.3333333
u 2165 0.1428571
u බෞ 0.3529412
u පි 0.0007700
u ඔ 0.0041152
u ඟු 0.3758865
u වි 0.0014974
u ට 0.0019641
u වා 0.0606061
u මෘ 0.3333333
u ජ 0.0002901
u ජූ 0.5000000
u කූ 0.2012579
u ෆ 0.0909091
u ය 0.0007356
u රුෙ 0.5000000
u චූ 0.0909091
u ල් 0.0027489
u ට් 0.0058140
u ජු 0.4420290
u චු 0.2972973
u ඩූ 0.3333333
u උ/ 0.3333333
u ක් 0.0009066
u ර්18 0.5000000
u ඵ 0.2500000
u වු7 0.1250000
u සෞ 0.3333333
u ඳු 0.3571429
u 4240 0.1428571
u ටී. 0.0625000
u ඩු 0.4850683
u ඔු 0.4090909
u රු 0.4811676
u ශු 0.2307692
u පු 0.4838143
u සෝ 0.0065359
u කෟ 0.2500000
u යූ 0.0789474
u ළ 0.0004115
u කී 0.0058651
u උඃ 1.0000000
u ද 0.0002888
u ල 0.0005974
u ෆූ 0.5000000
u වැ 0.0005070
u පුු 0.5000000
u ටුෙ 0.5000000
u 4 0.0093458
u ඌ 0.9915966
u ෙ 0.0384615
u ව් 0.0911330
u අ 0.0033738
u ච්. 0.0625000
u ර්19 0.5000000
u සා 0.0034188
u බ් 0.0088496
u දෞ 0.2000000
u ෂ් 0.0869565
u භූ 0.0961538
u ර 0.0009748
u න් 0.0007388
u ප 0.0011990
u ර්17 0.5000000
u 9 0.0322581
u ු 0.2179931
u බු 0.4876847
u ගෲ 0.2000000
r. ර්. 0.0500000
r. චා 0.0039841
r. ර් 0.0021008
r. ම 0.0000446
r. NULL 0.0000447
r. හා 0.0019048
23 23 0.6000000
23 723 0.1666667
lw ව 0.0000353
lw ල් 0.0001195
d.r. ඩි 0.0004052
d.r. ආ 0.0036630
d.r. ඩී. 0.0344828
d.r. ර් 0.0007003
d.r. ර්. 0.0500000
la අ 0.0006748
la ඇ 0.0009615
la ල් 0.0003586
hr ලි 0.0002615
hr ය 0.0000669
hr ල් 0.0001195
hr පා 0.0001442
e,e පී 0.0054348
gtz ග 0.0000866
gtz ම් 0.0002939
gtz GTZ 0.5000000
5/2 5/245/1/1 0.3333333
nd ඩි 0.0012156
nd 06 0.0322581
nd න් 0.0003694
nd 05 0.0123457
nd NULL 0.0000894
2a NULL 0.0000447
2a මා 0.0002132
231 ඔ 0.0013717
310 NULL 0.0000447
u17 තු 0.0006173
u17 ව17 1.0000000
59 59 0.5000000
59 වැ 0.0002535
59 ටු 0.0004144
59 නි 0.0003163
59 ප 0.0001998
59 ම 0.0000446
0459 0459 1.0000000
0459 ත 0.0000506
k30 30 0.0909091
o.10 ඨා 0.0099010
o.10 ං 0.0005155
o.10 අ 0.0003374
o.10 ක 0.0001672
o.10 10 0.0333333
o.10 ශ 0.0058480
o.10 කො 0.0003082
o.10 ට් 0.0008306
x ර් 0.0007003
x NULL 0.0003130
x ෂ 0.0277778
x 09 0.0344828
x ක් 0.0077063
x සි 0.0004924
x සෝ 0.0065359
x සේ 0.0025641
x ල්9 1.0000000
x ෂ් 0.0434783
x ච් 0.0016529
x ඝ 0.0277778
x ස් 0.0010941
x සැ 0.0053476
x පෟ 0.5000000
x 347 0.1666667
x චු 0.0135135
hs ක 0.0000836
t.p ශා 0.0040650
t.p ත 0.0001012
t.p පේ 0.0024272
t.p පී 0.0054348
t.p න් 0.0002463
mtv ජ 0.0005802
mtv එ 0.0015723
mtv බී 0.0112360
mtv යේ 0.0048309
o.p.p පෙ 0.0007386
o.p.p රේ 0.0017986
o.p.p පී. 0.0625000
o.p.p ඕ. 0.1666667
um මා 0.0002132
i20 20 0.0666667
i20 පා 0.0001442
o:2 ක 0.0000836
o:2 අ 0.0003374
o:2 ම්. 0.0454545
o:2 ං 0.0005155
o:2 2 0.0050000
s13 ක1315 0.2000000
magltenna ඩො 0.0243902
lo ලෝ 0.0039526
r1 ය1 0.1111111
104 104 1.0000000
m. පි 0.0002567
m. ටි 0.0002188
m. මි 0.0006596
m. ල 0.0000398
rp ග 0.0000866
rp ලි 0.0002615
rp ද් 0.0009625
rp ක 0.0000836
rp ර් 0.0007003
rp පු 0.0002509
04a ව 0.0000353
04a 04 0.0178571
04a මා 0.0002132
04a සි 0.0004924
k.d. කේ 0.0025707
43 4354 0.1666667
43 යා 0.0003066
43 ය 0.0000669
43 43 0.3333333
ai ල 0.0000398
ai NULL 0.0000894
ai ඉ 0.0011779
hi ය 0.0000669
hi ර් 0.0007003
hi ණා 0.0040650
hi ෂ 0.0055556
hi යේ 0.0048309
lc ජ 0.0005802
126 අ 0.0003374
126 ක 0.0000836
126 ත 0.0000506
126 110126 1.0000000
126 ං 0.0005155
6e ටු 0.0004144
6e ඊ 0.0128205
kj ෂි 0.0277778
kj ත 0.0000506
ey යා 0.0006131
ey ය 0.0002006
t.k කැ 0.0005568
t.k න් 0.0001231
t.k ශා 0.0040650
t.k ත 0.0000506
75 75 1.0000000
75 ජා 0.0080000
ig ලි 0.0002615
ig ග 0.0000866
es.b බෝ 0.0020855
es.b ත 0.0000506
es.b ත් 0.0001072
7/4 7/4 1.0000000
42 42 0.6666667
k ස 0.0009945
k ප 0.0001998
k ර 0.0004386
k න් 0.0003694
k ඩ 0.0009152
k සා 0.0034188
k කි 0.4875208
k ඛා 0.3684211
k ු 0.0692042
k යේ 0.0096618
k 9 0.0322581
k නේ 0.0025773
k ඳා 0.0117647
k කැෙ 0.5000000
k 250 0.2500000
k කු 0.4858664
k ග් 0.0256410
k 4 0.0280374
k ටු 0.0004144
k කා 0.4777070
k වැ 0.0010139
k තො 0.0011628
k 19 0.0666667
k කෙ 0.4538153
k 13 0.0555556
k 43 0.3333333
k අ 0.0003374
k කෛ 0.2923077
k ෙ 0.0576923
k කෟ 0.2500000
k කො 0.4419106
k කෝ 0.4233577
k කෑ 0.4878049
k 8 0.0357143
k ව 0.0001058
k රී 0.0026385
k කු/ 0.5000000
k පො 0.0011342
k 3 0.0111111
k ල 0.0001195
k ඛි 0.5000000
k කේ 0.4138817
k ද 0.0000963
k කී 0.2375367
k ළ 0.0004115
k පේ 0.0024272
k පැ 0.0011820
k ඳු 0.0019841
k හැ 0.0017212
k ක් 0.8241160
k 07 0.1071429
k 42 0.1666667
k 01 0.0158730
k 06 0.0645161
k තු 0.0003086
k ක 0.4755853
k 04 0.0535714
k ඩු 0.0004266
k ගු 0.0022222
k ල් 0.0002390
k ට් 0.0008306
k ගැ 0.0038462
k ය2/4 0.2500000
k කූ 0.3773585
k ශ 0.0058480
k ජි 0.0125000
k 11 0.0133333
k වෙ 0.0018169
k ජ 0.0023209
k වු 0.0018067
k හු 0.0034783
k වි 0.0002496
k 08 0.0800000
k ම 0.0008023
k හෝ 0.0102041
k 14 0.0384615
k ක්‍ 0.6666667
k ගේ 0.0025707
k ර් 0.0021008
k ටි 0.0008751
k න 0.0008363
k ග 0.0032906
k 10 0.0166667
k 44 0.3333333
k 09 0.0344828
k ඛෙ 0.5000000
k ද් 0.0009625
k හ 0.0021348
k ඛ 0.5000000
k මා 0.0004263
k හේ 0.0004307
k කො‍ 0.2500000
k කැ 0.4838530
k ඩ් 0.0016129
k ඕ 0.0042017
k නො 0.0064103
k 2 0.0150000
k 05 0.0740741
k ගි 0.0066313
k ඩී. 0.0344828
k තේ 0.0095420
k 02 0.0202703
k 23 0.2000000
k නු 0.0098888
k ලේ 0.0005152
k හා 0.0057143
k හි 0.0016667
k රි 0.0004620
k කො 0.3750000
k 12 0.0566038
k සු 0.0032573
k ත 0.0004555
k දො 0.0012531
k NULL 0.0071981
k තෝ 0.0023148
k ආ 0.0036630
k 03 0.0222222
k 18 0.0714286
k 22 0.1111111
k බෝ 0.0010428
k ද්‍ 0.0108696
k පා 0.0012980
k මු 0.0004195
k කෲ 0.2500000
k 5 0.0281690
k ලා 0.0004840
k ගා 0.0024907
o:08 ලා 0.0004840
o:08 08 0.0400000
o:08 ං 0.0005155
o:08 අ 0.0003374
o:08 ප 0.0001998
o:08 ක 0.0001672
o18 ඒ 0.0056497
o18 1018 1.0000000
a28 28 0.0833333
a/y ය 0.0000669
a/y ත/ 0.1666667
a/y ළ/ 0.5000000
a/y යා 0.0003066
df.r සේ 0.0025641
df.r ෆ්. 0.2500000
df.r ත 0.0000506
df.r නා 0.0007067
df.r එ‍ 1.0000000
df.r ර්. 0.0500000
t'c ක් 0.0009066
t'c යා 0.0003066
t'c ට් 0.0016611
t'c ශා 0.0040650
t'c ත 0.0000506
t'c න් 0.0003694
t'c සෙ 0.0041322
t'c කු 0.0001836
t'c ලෙ 0.0012870
vi මVI 0.3333333
58 58 1.0000000
k28 28 0.0833333
a05 05 0.0123457
a05 සි 0.0004924
a05 මා 0.0002132
a05 ව 0.0000353
hw ව 0.0000353
630 ට630 0.1666667
630 සි 0.0004924
n,a ඇ 0.0009615
o.02 ං 0.0005155
o.02 02 0.0067568
o.02 ක 0.0000836
o.02 අ 0.0003374
a.r.m. ම්. 0.0454545
a.r.m. ආ 0.0018315
a.r.m. තා 0.0009017
a.r.m. ඒ. 0.0588235
a.r.m. ර්. 0.0500000
a.r.m. එ 0.0015723
e.w බ්. 0.0588235
e.w ඩ 0.0001017
e.w ඊ. 0.0555556
t.c. වා 0.0005411
t.c. ග 0.0000866
t.c. න 0.0000760
t.c. නි 0.0003163
t.c. ස 0.0002486
t.c. භා 0.0113636
t.c. ර 0.0000487
35/12 ත735/12 0.1250000
n.c.s. න්. 0.1428571
n.c.s. ස්. 0.0333333
n.c.s. එ 0.0031447
n.c.s. ඒ. 0.0588235
64 0364 1.0000000
64 ද 0.0000963
64 ක් 0.0004533
64 වා 0.0005411
724 තේ 0.0019084
u/b බෝ 0.0010428
u/b කු/ 0.5000000
pi ටු 0.0004144
pi පි 0.0002567
d/s ෂා 0.0303030
d/s ර/ 0.1111111
n4 ඨා 0.0099010
n4 ග 0.0000866
n4 ශ 0.0058480
n4 කො 0.0003082
n4 ට් 0.0008306
n4 ර 0.0000487
n4 ය4 0.1428571
j ජේ. 0.0833333
j කෝ 0.0010428
j ජ් 0.5000000
j හෙ 0.0013423
j ඤා 0.0384615
j ජී 0.3333333
j ඡ 0.4427481
j ඡු 0.3333333
j ඹු 0.0004515
j ත 0.0001012
j NULL 0.0001788
j ඡා 0.5000000
j ජා 0.4480000
j ක 0.0000836
j ඡ් 1.0000000
j ජැ 0.5000000
j ඡි 0.5000000
j ඤ 0.5454545
j ගො 0.0001348
j ඩ 0.0001017
j මේ 0.0052910
j යි 0.0013378
j ට 0.0002806
j පෙ 0.0007386
j ප 0.0001998
j ය 0.0002675
j ජෝ 0.4433962
j ස 0.0002486
j ජ 0.2016246
j ජි 0.3500000
j ජේ 0.4871795
j ජෙ 0.5263158
j ජූ 0.3000000
j ං 0.0010309
j ජො 0.4400000
j ජු 0.4275362
j ග 0.0000866
j යා 0.0024525
j න 0.0002281
j ඩි. 0.2500000
j කු 0.0001836
j තැ 0.0005931
j පී. 0.0625000
j ජෑ 0.2500000
j මා 0.0002132
j හ 0.0046067
j ග/ 0.2000000
t.g ජෝ 0.0094340
t.g ශා 0.0040650
t.g ත 0.0000506
t.g න් 0.0001231
e දේ 0.4560261
e රැ 0.2027559
e ඔෑ 0.5000000
e ඟ 0.0788177
e ඹේ 0.3387534
e ණෑ 0.4285714
e ප. 0.3333333
e ලෝ 0.0118577
e බැ 0.3986842
e ම්. 0.0454545
e කො 0.0027735
e ණී 0.1333333
e ටී 0.0454545
e නෑ 0.4039735
e චේ 0.3035714
e 1 0.0508475
e ව 0.0295549
e ර‍ 0.1250000
e පේ 0.4660194
e ළැ 0.1250000
e කැෙ 0.5000000
e ධි 0.0045455
e 2137 0.1250000
e ළේ 0.5079365
e ඹෑ 0.2794118
e ඟේ 0.3214286
e පෛ 0.0250000
e චෙ 0.3360656
e ඹි 0.0031250
e පී 0.5271739
e එ 0.7610063
e ස 0.0671308
e ටේ 0.4593496
e I 0.1000000
e ණු 0.0024096
e ධ් 0.2239264
e තෑ 0.2272727
e ඹෙි 0.3333333
e ලු 0.0016854
e ණේ 0.4761905
e ණෝ 0.1000000
e ෂැ 0.0909091
e රෝ 0.0061162
e යේ 0.2560386
e බි 0.0073937
e ග. 0.1851852
e II 0.0909091
e ළෙ 0.0540541
e බො 0.0016447
e ත 0.0319380
e ච 0.0117994
e ධ්‍ 0.2352941
e දො 0.0025063
e ෂ 0.0222222
e / 0.0689655
e නී 0.5606936
e ගො 0.0001348
e ටැ 0.2125000
e 6/1 0.2500000
e ඇ‍ 1.0000000
e ලෑ 0.3971487
e ජ් 0.1979167
e 111 0.1333333
e පෑ 0.4285714
e ඒෙ 1.0000000
e ලේ 0.4590417
e , 0.1428571
e යැ 0.3000000
e රි 0.0097020
e යා 0.0085837
e න 0.0065384
e ඛෙ 0.5000000
e හ 0.0007865
e වෑ 0.5022624
e ටෙ 0.3693694
e ඩෑ 0.4375000
e ii 1.0000000
e 11 0.0133333
e ජෙ 0.4210526
e ජි 0.0875000
e වෙ 0.4542151
e ඕ. 0.3333333
e බ 0.0073883
e ම 0.0193893
e ඵ 0.5000000
e හැ 0.3528399
e ඈ 0.7692308
e දා 0.0113821
e රු 0.0050220
e 1,2,3 0.2000000
e ටී. 0.0625000
e ක1.2.3. 0.3333333
e ධ 0.0082192
e ලේ 0.5000000
e ර66 0.2500000
e ද 0.0078930
e පැ 0.3392435
e ෂී 0.4848485
e ඩී 0.0613497
e ග් 0.0282051
e වැ 0.4580482
e ආ" 0.2000000
e කෙ 0.4096386
e අ" 0.2000000
e නැ 0.3132530
e මෙි 0.5000000
e MTV 0.5000000
e වේ 0.4801444
e ව් 0.0665025
e ප 0.0069944
e න් 0.0073883
e භේ 0.5000000
e ම් 0.0011754
e මේ 0.3968254
e කි 0.0144204
e ඩේ 0.3384615
e අැ 1.0000000
e දෙ 0.4742840
e නේ 0.3595361
e දි 0.0802786
e තා 0.0027051
e 03 0.0074074
e A 0.1176471
e ද්‍ 0.1739130
e පා 0.0222094
e මු 0.0014681
e ලා 0.0014521
e දී 0.5589226
e සී 0.5291667
e 05 0.0370370
e ගි 0.0132626
e භු 0.5000000
e සැ 0.3368984
e හි 0.0144444
e ක්‍ 0.0833333
e ගේ 0.4807198
e ටි 0.0006563
e ග 0.0064946
e 10 0.0166667
e ලි 0.0099372
e 2165 0.1428571
e මා 0.0040503
e චැ 0.1363636
e ඊ 0.7564103
e ණැ 0.5000000
e තී 0.3135314
e ඕ 0.0462185
e පී. 0.1875000
e ට් 0.0141196
e ත් 0.0019297
e 13/14 0.1250000
e වි 0.0257050
e වි‍ 0.2000000
e සෑ 0.3125000
e හ් 0.2413793
e ගෑ 0.3333333
e ඩි 0.0052674
e තේෙ 1.0000000
e තෙ 0.2781955
e 01 0.0158730
e නි 0.0234029
e හී 0.5686901
e ක 0.0033445
e ළෑ 0.5000000
e මි 0.0560686
e ම/ 0.1666667
e ඩෙ 0.1550802
e ති 0.0018839
e කේ 0.4087404
e ඒ 0.2429379
e හෙ 0.4832215
e කු 0.0009178
e නෛ 0.0035714
e සෙ 0.4338843
e සී. 0.0384615
e ටු 0.0323249
e සි 0.0123092
e ඉ 0.0588928
e හෑ 0.4516129
e ඩා 0.0008993
e ඩ 0.0022371
e බේ 0.4166667
e ය් 0.1428571
e ගෙ 0.4775846
e නා 0.0017668
e මෑ 0.3030303
e ඊ. 0.1666667
e බෙ 0.4898477
e ධී 0.2950820
e NULL 0.0631734
e ණා 0.0040650
e ෙෙ 0.3333333
e S.W.R.D 0.2500000
e හේ‍ 0.5000000
e ගා 0.0037360
e ථා 0.0285714
e තේ 0.3473282
e ස් 0.0193290
e ෆ් 0.1250000
e ඩ්‍ 0.2500000
e රේ 0.4208633
e තැ 0.2491103
e මී 0.5687861
e වී 0.4290221
e චෛ 0.0476190
e ඹෙ 0.3571429
e ද් 0.0057748
e හේ 0.4969854
e ලැ 0.3493671
e . 0.2000000
e කැ 0.3763920
e 2 0.0300000
e ලෙ 0.3243243
e රා 0.0008522
e ගැ 0.2961538
e පෙ 0.3005908
e ශ 0.0350877
e වු 0.0045167
e චි 0.0013550
e ටෑ 0.3500000
e රෙ 0.1970803
e S.W.R.D. 0.2500000
e නෙ 0.3521809
e 4/44 0.2000000
e ක් 0.0031732
e බී 0.2471910
e 0328 0.1250000
e A.A 0.3333333
e 4240 0.1428571
e කෑ 0.4634146
e සේ 0.4487179
e රී 0.1820580
e ඊ‍ 1.0000000
e දැ 0.3714286
e ල 0.0029076
e 60 0.3333333
e කී 0.5219941
e ළ 0.0111111
e යෙ 0.2972973
e මැ 0.3570646
e ප්‍ 0.2203390
e ෂෙ 0.3500000
e ශ් 0.0418848
e අ 0.0232794
e ෆි 0.0714286
e ණි 0.0008460
e ට, 0.5000000
e ෙ 0.2500000
e ඳේ 0.5000000
e බෑ 0.4520548
e 50 0.0270270
e 412 0.5000000
e ර 0.0059947
e 01/ 1.0000000
e ජේ 0.4358974
e ඇ 0.6778846
e ු 0.0069204
e දෑ 0.4466019
e 9 0.0967742
e සු 0.0032573
e පෞ 0.1200000
e පැෙ 0.5000000
e ඩැ 0.3362445
e මෙ 0.4576271
e දෛ 0.1428571
e චී 0.0689655
e ඬේ 0.3571429
e ජී 0.5555556
e ඹ් 0.1290323
e 12 0.0377358
e 139 0.1666667
e ර් 0.0644258
e අෙ 0.1111111
e රෑ 0.2054795
e ලී 0.3672316
e උ 0.0245851
e ඩ් 0.0612903
e i 0.5000000
e අැෙ 0.5000000
e ගී 0.4666667
e ල් 0.0008366
e ෆ 0.2424242
e ය 0.0082921
e ජ 0.0002901
e ෆී 0.2500000
e වා 0.0005411
e ට 0.0070146
e යි 0.0160535
e පි 0.0092402
09 ණු 0.0012048
09 ක 0.0001672
09 09 0.4137931
09 නො09 0.5000000
09 ඕ 0.0042017
t'o ය 0.0000669
t'o සෙ 0.0020661
t'o න් 0.0001231
t'o ඔ 0.0013717
t'o බි 0.0018484
r.s. ප් 0.0013004
r.s. ආ 0.0036630
r.s. අ 0.0006748
r.s. එ 0.0062893
r.s. ර් 0.0014006
r.s. ර්. 0.1000000
r.s. ස් 0.0014588
19/ 19/ 1.0000000
37 NULL 0.0000447
37 37 0.6666667
aw වෙ 0.0003634
aw ව 0.0005643
aw වි 0.0002496
aw වා 0.0005411
aw ත් 0.0001072
aw කො 0.1250000
r16 ර්16 0.5000000
67 67 1.0000000
mm මා 0.0002132
mm ම් 0.0002939
78122 ද 0.0000963
78122 ක් 0.0004533
78122 වා 0.0005411
78122 78122 1.0000000
h.s 150 0.5000000
ugtzr පු 0.0002509
d.d.k ඩී. 0.0689655
d.d.k කු 0.0001836
449 449 1.0000000
g.h.p පෙ 0.0007386
g.h.p ජී. 0.2500000
g.h.p එ 0.0015723
g.h.p ච්. 0.0625000
g.h.p රේ 0.0017986
a1" න 0.0000760
a1" 1 0.0042373
a1" ව 0.0000353
a1" ටු 0.0004144
a1" ප 0.0001998
a1" ර 0.0000487
a1" ම 0.0000446
a1" පා 0.0001442
139 අ 0.0003374
139 139 0.1666667
j.p. ම 0.0000446
j.p. ප 0.0001998
j.p. පී. 0.0625000
j.p. ටු 0.0004144
j.p. ජේ. 0.0833333
r' ර් 0.0007003
1767 ක 0.0000836
1767 1767 1.0000000
2/4 ය2/4 0.2500000
2/4 යා 0.0003066
18 18 0.5357143
18 0318 0.2500000
18 ක 0.0000836
32 32 0.2857143
32 ක 0.0000836
32 වැ 0.0002535
k. කේ. 0.0909091
b.b. බී 0.0224719
ap ලි 0.0007845
ap ද් 0.0028874
ap පො 0.0003781
ap ග 0.0002598
ap පු 0.0012547
ap ඩ/ 0.2500000
ap පෙ 0.0014771
ap ප 0.0015987
ap ලා 0.0004840
ap පැ 0.0011820
ap පා 0.0002884
ap ක 0.0002508
a,b බ 0.0003694
a,b , 0.1428571
a,b බෝ 0.0010428
a,b ඩ, 0.2500000
a,b A,B 0.5000000
sw ට් 0.0008306
u15 ව15 1.0000000
u15 තු 0.0003086
50 හ 0.0001124
50 50 0.2972973
50 අ 0.0006748
50 ක් 0.0009066
y01 ය01 1.0000000
an නී 0.0057803
an නැ 0.0030120
an චැ 0.0454545
an 03 0.0074074
an ල 0.0000398
an ව් 0.0024631
an නෙ 0.0016155
an 2 0.0050000
an ර02 0.5000000
an 05 0.0123457
an නි 0.0003163
an 1 0.0084746
an න 0.0000760
01/ / 0.0344828
01/ එ 0.0015723
110 මා 0.0002132
y' ටු 0.0004144
y' ශා. 0.1250000
y' යා 0.0006131
y' රි 0.0004620
y' ම 0.0001783
y' NULL 0.0000894
y' ප 0.0001998
do ඩ් 0.0008065
do මේ 0.0105820
do ෆී 0.0238095
l01 ල්01 1.0000000
i. රි 0.0002310
ei තෙ 0.0018797
m ඕ 0.0126050
m උ 0.0012293
m 2165 0.1428571
m මා 0.5267534
m 09 0.0344828
m ග 0.0000866
m අෙ 0.3333333
m ර් 0.0007003
m ඩි 0.0004052
m ම, 0.4000000
m ට 0.0002806
m පි 0.0005133
m ඟු 0.0070922
m ඔ 0.1371742
m 13/14 0.1250000
m වා 0.0021645
m මෘ 0.3333333
m ත් 0.0004288
m ජ 0.0023209
m ල් 0.0009561
m ය 0.0004012
m යෝ 0.0165289
m මො 0.4965706
m මු 0.4897232
m බෝ 0.0031283
m පා 0.0030286
m 32 0.0714286
m මෙ 0.4576271
m 139 0.1666667
m ඹ් 0.1290323
m හි 0.0005556
m ෘ 1.0000000
m ප් 0.0286086
m ඹා 0.2926829
m 15 0.0303030
m ගි 0.0013263
m මෙි 0.5000000
m ශ් 0.0104712
m අ 0.0010121
m ඒ. 0.0588235
m කෙ 0.0301205
m වැ 0.0012674
m ම1 0.2000000
m ප්‍ 0.0508475
m 143 0.2000000
m 4 0.0654206
m මැ 0.4824754
m 9 0.0322581
m ු 0.0103806
m බු 0.0024631
m 40 0.0714286
m කි 0.0016639
m මේ 0.4074074
m බ් 0.0088496
m ර 0.0008773
m න් 0.0009851
m ම් 0.9330003
m බෑ 0.0547945
m ප 0.0015987
m 4240 0.1428571
m ඔු 0.1818182
m ධෘ 0.2500000
m ඳු 0.0039683
m කී 0.0586510
m ල 0.0004381
m ද 0.0002888
m පො 0.0003781
m පු 0.0007528
m ට630 0.1666667
m ඹෝ 0.1666667
m 2 0.0150000
m හ 0.0004494
m ඹෙ 0.1428571
m ඔූ 0.3333333
m ද් 0.0019249
m න 0.0003801
m මී 0.3341040
m 14 0.1153846
m මVI 0.3333333
m ඹූ 0.2727273
m ඹ 0.3036887
m ම11 0.5000000
m රෙ 0.0036496
m ම 0.3728549
m බ 0.0055412
m මI 0.3333333
m ගො 0.0001348
m ටැ 0.0250000
m මූ 0.3979058
m ෙෙ 0.3333333
m මෛ 0.3673469
m ආ 0.0091575
m ඹු 0.3065463
m දො 0.0012531
m NULL 0.0091653
m ච 0.0029499
m ත 0.0002025
m ස් 0.0018235
m මV 0.3333333
m 27 0.2500000
m ස්. 0.1000000
m ණ 0.0163265
m ට654 0.1666667
m 6 0.0294118
m ම්‍ 1.0000000
m එ 0.0031447
m 38 0.0909091
m ඹි 0.3062500
m 31 0.1111111
m කු 0.0003671
m 2137 0.1250000
m ඹෑ 0.3235294
m බි 0.0055453
m යේ 0.0531401
m ග. 0.1111111
m ං 0.0036082
m ත156 0.1666667
m මෑ 0.4545455
m ගෙ 0.0018298
m මෝ 0.4983389
m නා 0.0003534
m ‍ 0.0625000
m ඹෙි 0.3333333
m ඹී 0.3333333
m ඩ 0.0004068
m බේ 0.0277778
m ණු 0.0012048
m ස 0.0069617
m මII 0.3333333
m 03110 0.2500000
m 04 0.0178571
m ම්. 0.0909091
m ක 0.0015886
m ඔෑ 0.2500000
m ඹේ 0.2926829
m හෙ 0.0013423
m බා 0.0024691
m ඔ1 0.3333333
m ඹො 0.3333333
m 3 0.0222222
m ර‍ 0.1250000
m ව 0.0002469
m ති 0.0011304
m 532 0.5000000
m මි 0.4934037
m ම/ 0.1666667
125 125 1.0000000
we ළු 0.0011862
we ත් 0.0001072
we එ 0.0015723
j.a. ජේ. 0.0833333
j.a. ඒ. 0.0588235
4 4 0.2616822
4 3/4 0.3333333
4 වැ 0.0007605
4 ටු 0.0004144
4 නි 0.0025300
4 NULL 0.0000894
4 04 0.0892857
4 ක 0.0005853
4 හ 0.0016854
4 අ 0.0003374
4 ව 0.0004938
4 ප 0.0001998
4 ස 0.0004973
4 වෙ 0.0018169
4 ණු 0.0048193
4 ර 0.0007311
yw වි 0.0002496
& 2 0.0050000
& 1&11 0.3333333
& හා 0.0114286
& 1,2,3,4,5,6 0.5000000
& බැ 0.0013158
& හ 0.0002247
& හා2 0.2500000
& ස 0.0004973
l.s. ස්. 0.0333333
l.s. ල්. 0.2500000
l.s. එ 0.0031447
r.b.03 ආ 0.0018315
r.b.03 බී03 1.0000000
r.b.03 ර් 0.0007003
71 71 0.1111111
657 අ 0.0003374
134/3169 ද 0.0000963
134/3169 ක් 0.0004533
134/3169 වා 0.0005411
134/3169 134/3169 1.0000000
25 25 1.0000000
c. වු 0.0009033
c. ර 0.0000487
c. ක 0.0000836
c. ස 0.0002486
c. ඳ 0.0017889
c. සී. 0.1923077
c. ටී. 0.0625000
a1 1 0.0127119
a1 ප 0.0001998
10, වු 0.0018067
10, කු. 0.1428571
10, නි 0.0003163
10, 10 0.0333333
10, වා 0.0005411
10, ඉ 0.0023557
10, 10ු 1.0000000
10, ග. 0.0740741
10, ු 0.0034602
en 03 0.0074074
en ක 0.0001672
en අ 0.0006748
en ං 0.0010309
en ගා 0.0012453
en 4 0.0093458
en ත් 0.0001072
en 01 0.0079365
en ළු 0.0005931
en 1 0.0042373
13e ඇ 0.0009615
13e 13 0.0555556
uc පා 0.0001442
uc භා 0.0113636
uc ස 0.0002486
t 12 0.0943396
t හි 0.0016667
t 3rd 0.2000000
t සැ 0.0106952
t ත‍ 0.2500000
t භු 0.1666667
t 15 0.2727273
t 05 0.0617284
t දෛ 0.1428571
t ගි 0.0026525
t ත, 0.1666667
t දී 0.0639731
t 5 0.1690141
t සී 0.0083333
t ලූ 0.0131579
t මො 0.0013717
t මු 0.0002097
t ඨ 0.6666667
t පා 0.0132680
t ක1315 0.2000000
t තූ 0.2432432
t 03 0.0148148
t 18 0.1785714
t 22 0.1111111
t තා 0.3570784
t දි 0.1403959
t සු 0.0048860
t පෞ 0.0800000
t තො 0.5000000
t 347 0.1666667
t ඩි 0.0076985
t සෑ 0.0625000
t 17 0.1764706
t හ් 0.0344828
t ටා 0.5488722
t ට 0.4809203
t පි 0.0033368
t යි 0.0093645
t වි 0.0114799
t ත් 0.7040094
t කු. 0.2142857
t ජ 0.0005802
t ල් 0.0004781
t ට් 0.7607973
t ය 0.0004681
t ඨා 0.0099010
t තී 0.2937294
t ඕ 0.0336134
t ඩ් 0.0217742
t උ 0.0227412
t 37 0.1666667
t 39 0.2857143
t මා 0.0014922
t ලි 0.0005230
t 10 0.0666667
t ග 0.0077070
t ර් 0.0189076
t ටි 0.4907023
t 2748 0.5000000
t ඉ. 0.5000000
t පැ 0.0059102
t 60 0.1666667
t ළ 0.0069959
t ල 0.0000398
t ද 0.0221388
t ත/ 0.1666667
t 07, 0.3333333
t ම07 0.1428571
t 30 0.1818182
t පු 0.0002509
t 8 0.1785714
t 24 0.2500000
t ටා‍ 1.0000000
t කෝ 0.0010428
t 7 0.1111111
t 0328 0.1250000
t ටී. 0.1875000
t ධ 0.0054795
t A.A 0.3333333
t 1444 0.1666667
t රු 0.0015694
t දා 0.0211382
t ඤ 0.0909091
t ධෘ 0.2500000
t ක් 0.0117860
t 28 0.1666667
t ත්‍ 0.4137931
t හැ 0.0017212
t ඳු 0.0039683
t දෙ 0.0078901
t ු 0.0968858
t ර5 0.2500000
t 723 0.1666667
t ඇ 0.0153846
t කි 0.0033278
t 40 0.1428571
t හො 0.0038388
t දෞ 0.2000000
t සා 0.0068376
t ර 0.0044839
t න් 0.0009851
t ම් 0.0052895
t ප 0.0079936
t ව් 0.0049261
t ශ් 0.0314136
t අ 0.0104588
t කෙ 0.0020080
t ආ" 0.2000000
t නැ 0.0030120
t අ" 0.2000000
t ඒ. 0.0588235
t වැ 0.0017744
t 4 0.1214953
t ටුෙ 0.5000000
t ත්ෙ 0.5000000
t ග් 0.0076923
t යෙ 0.0540541
t ද. 0.0909091
t දු 0.0360090
t රි 0.0034650
t 02 0.0202703
t ස් 0.0047411
t 103210 0.1666667
t තේ 0.3702290
t ටෝ 0.4583333
t 111 0.2666667
t ථා 0.2857143
t ජ් 0.0208333
t S.W.R.D 0.2500000
t ටැ 0.4375000
t ගො 0.0005394
t මූ 0.0052356
t ෂ 0.0277778
t ඳි 0.0112994
t තෝ 0.3287037
t ඳ 0.0143113
t දූ 0.0090361
t දො 0.0075188
t NULL 0.0404167
t ත 0.3648833
t ච 0.0088496
t ධ්‍ 0.1764706
t ටිෙ 0.5000000
t S.W.R.D. 0.2500000
t ර/ 0.1111111
t ට29 0.3333333
t ම 0.0009806
t 41 0.3333333
t 4354 0.1666667
t ටෑ 0.4500000
t ජි 0.0062500
t 11 0.1466667
t වෙ 0.0003634
t රා 0.0004261
t තුි 0.2500000
t ලෙ 0.0012870
t තෛ 0.2622951
t ට630 0.1666667
t 2 0.0350000
t ටෙ 0.4144144
t ත‍‍ 0.5000000
t හ 0.0028090
t 35 0.1000000
t ටී‍ෙ 1.0000000
t ද් 0.0144370
t න 0.0054740
t යා 0.0220723
t තැ 0.3523132
t ම05 0.1428571
t මී 0.0057803
t වී 0.0993691
t 14 0.1153846
t හෙ 0.0053691
t ට්A 0.5000000
t තෟ 1.0000000
t පේ 0.0024272
t 0318 0.2500000
t කේ 0.0051414
t ව 0.0018692
t ා 0.1428571
t 588 0.1666667
t ච් 0.0132231
t ති 0.3319518
t 1 0.1779661
t ථ 0.4444444
t 478602 0.2000000
t /410 0.2500000
t ටී 0.6590909
t ඩෙ 0.0160428
t 16 0.1904762
t කො 0.0024653
t 47 0.3333333
t 04 0.0535714
t ම08 0.1428571
t තු 0.3361111
t ක 0.0025084
t නි 0.0031626
t ප. 0.3333333
t 29 0.2000000
t තෙ 0.3308271
t දේ 0.0130293
t 2999 0.1666667
t ති‍ 0.3333333
t යේ 0.1256039
t බි 0.0018484
t රෝ 0.0611621
t II 0.0909091
t ඳා 0.0705882
t ටො 0.4833333
t ත735/12 0.2500000
t 59 0.2500000
t ටෲ 0.2500000
t 161247 0.1666667
t 21 0.2000000
t මෑ 0.0303030
t ‍ 0.0625000
t නා 0.0007067
t ය් 0.1428571
t ධ් 0.1595092
t ඩ 0.0003051
t තෑ 0.3181818
t I 0.1000000
t 238 0.2000000
t ටේ 0.4715447
t ස 0.0101939
t 55 0.3333333
t ට654 0.1666667
t ජෑ 0.2500000
t 6 0.1911765
t එ 0.0078616
t හෑ 0.0483871
t තො 0.3465116
t සි 0.0034466
t 19 0.3333333
t 38 0.1818182
t 13 0.1111111
t ටු 0.3928719
t 31 0.2222222
t සෙ 0.0020661
t නෛ 0.0071429
t කු 0.0001836
t 250 0.1250000
ne එ 0.0015723
ne න් 0.0003694
ne ව් 0.0024631
ne ව 0.0000705
07, ය 0.0000669
07, යා 0.0003066
07, 08, 0.5000000
07, 07, 0.3333333
1000 1000 1.0000000
o. ප 0.0011990
o. නො.8,9,10 0.3333333
o. 01 0.0079365
o. 07 0.0357143
o. 10 0.0166667
o. ච්. 0.0625000
o. 440 0.5000000
o. 09 0.0344828
o. 02 0.0067568
o. 03 0.0148148
o. ක 0.0013378
o. අ 0.0020243
o. ං 0.0051546
o. 04 0.0178571
o. ලා 0.0029042
d.a. ඒ. 0.0588235
d.a. ඩී. 0.0344828
s.d එ 0.0015723
s.d ඩී. 0.0344828
s.d ප්‍ 0.0169492
s.d ස්. 0.0333333
'a' / 0.0344828
'a' ඒ 0.0056497
'a' ම 0.0000891
'a' ධ්‍ 0.0588235
'a' ය 0.0000669
s. ඹි 0.0062500
s. ත 0.0002025
s. ත් 0.0004288
s. ස්. 0.0333333
a. ඒ. 0.0588235
a. ගා 0.0012453
a. ඒ 0.0112994
ds ඩ් 0.0008065
ds ශ් 0.0052356
ds සෙ 0.0020661
ds හා 0.0019048
ds වී 0.0007886
ds සු 0.0016287
1,2,3,4,5,6 ටු 0.0004144
1,2,3,4,5,6 1,2,3,4,5,6 0.5000000
1,2,3,4,5,6 හ 0.0001124
c.g.r මේ 0.0052910
c.g.r ර් 0.0007003
c.g.r ත 0.0000506
sv ම් 0.0005877
yb බෲ 0.0285714
yb බ්‍ 0.0714286
4/44 ග 0.0000866
4/44 ං 0.0005155
4/44 අ 0.0003374
4/44 4/44 0.2000000
4/44 ක 0.0000836
t.r පා 0.0002884
t.r තු 0.0003086
t.r ද 0.0000963
t.r ෙ 0.0192308
t.r රි 0.0002310
t.r ර් 0.0007003
t.r තෙ 0.0018797
t.r න් 0.0002463
t.r සෙ 0.0020661
t.r ම් 0.0002939
247 ද 0.0000963
7 හ 0.0008989
7 ක 0.0000836
7 ත735/12 0.1250000
7 723 0.1666667
7 7 0.5277778
7 ණු 0.0012048
7 වෙ 0.0010901
7 ග 0.0001732
7 07 0.1428571
7 ව 0.0000705
7 ම07 0.1428571
7 යි 0.0006689
a:1 ලො 0.0055249
a:1 A 0.0588235
a:1 දො 0.0012531
a:1 1 0.0042373
a:1 : 0.3333333
l.b.4 එ 0.0015723
l.b.4 පෙ 0.0007386
l.b.4 ස 0.0002486
l.b.4 ල් 0.0001195
l.b.4 බී 0.0112360
l.b.4 4 0.0093458
l.b.4 දෙ 0.0002922
a:6 A 0.0588235
a:6 : 0.3333333
a:6 6 0.0147059
i100g 100 0.1666667
i100g ග 0.0000866
a19 19 0.0666667
23/2 ඒ23/2 1.0000000
23/2 ද 0.0001925
23/2 23/2 0.5000000
23/2 2 0.0100000
23/2 ඒ 0.0056497
23/2 වා 0.0010823
23/2 ක් 0.0009066
ge ෂි 0.0277778
ge ව 0.0000353
mp ම් 0.0002939
mp ලැ 0.0025316
mp ස් 0.0003647
mp පෑ 0.0158730
ii 2 0.0100000
ii II 0.3636364
ii 1&11 0.3333333
ii ඩ11 0.5000000
ii ක 0.0000836
ii ව 0.0000353
ii 11 0.0533333
ii ර 0.0000487
ii I 0.1000000
ii ම් 0.0002939
ii ය 0.0001337
ii මII 0.3333333
o6o 6 0.0147059
o6o නො 0.0064103
o6o ම් 0.0002939
11 සී 0.0041667
11 ි 0.0909091
11 එ 0.0015723
11 අ 0.0006748
11 ක 0.0003344
11 ආ" 0.2000000
11 නි 0.0012650
11 වැ 0.0010139
11 ග් 0.0102564
11 12 0.0188679
11 II 0.0909091
11 ම 0.0001337
11 ස් 0.0003647
11 ව 0.0001058
11 පි 0.0002567
11 11 0.4800000
11 ර 0.0000487
11 ණු 0.0036145
11 රා 0.0017043
11 ය 0.0002006
100 100 0.5000000
o.r.c.d ර්. 0.0500000
o.r.c.d ඕ. 0.1666667
o.r.c.d ආ 0.0018315
o.r.c.d සී. 0.0384615
150 වී 0.0007886
150 දි 0.0003666
150 150 0.5000000
yv වී 0.0007886
u14 තු 0.0006173
u14 ව14 1.0000000
114 ද 0.0000963
[] ල 0.0000398
[] ඩ 0.0001017
48 2748 0.5000000
48 48 0.5000000
e.w. රේ 0.0017986
e.w. බ්. 0.0588235
e.w. ඩ 0.0001017
e.w. ඊ. 0.0555556
e.w. පෙ 0.0007386
623 ට630 0.1666667
35 35 0.6000000
k.m.11 මි.11 1.0000000
k.m.11 කි. 1.0000000
y2 ය 0.0000669
y2 ද 0.0000963
y2 2 0.0050000
111 ර 0.0000487
111 අ 0.0003374
111 ය 0.0000669
111 ර111 0.3333333
111 දි 0.0003666
111 111 0.2000000
u6 ව6 0.4000000
u6 තු 0.0006173
27 27 0.2500000
27 ණු 0.0012048
27 ක 0.0001672
yi යි 0.0006689
j. ටු 0.0004144
j. රි 0.0002310
j. ජේ. 0.0833333
j. ච් 0.0016529
j. එ 0.0015723
j. I 0.1000000
j. ප 0.0001998
iii 111 0.0666667
iii II 0.0909091
iii ක 0.0001672
e.a.p ස්. 0.0333333
e.a.p ච්. 0.0625000
e.a.p එ 0.0031447
405 ද 0.0000963
405 221405 1.0000000
405 වා 0.0005411
405 ක් 0.0004533
du NULL 0.0000447
du යු 0.0161290
du ඩ් 0.0008065
, , 0.1428571
, ල. 0.5000000
, ම, 0.1000000
, ක 0.0000836
, 1737 1.0000000
s.h. වි 0.0002496
s.h. ඔ 0.0013717
s.h. ස 0.0002486
s.h. වො 0.0625000
nm මු 0.0002097
nm න් 0.0001231
uk ක 0.0002508
132 ක් 0.0004533
132 වා 0.0005411
132 ද 0.0000963
132 ක 0.0000836
132 120132 1.0000000
4c වැ 0.0002535
4c 4 0.0186916
t.m න් 0.0006157
t.m ශ 0.0058480
t.m මා 0.0004263
t.m ත 0.0002531
t.m ශා 0.0162602
l.c.r රැ 0.0019685
l.c.r සි 0.0004924
l.c.r ල් 0.0001195
l.c.r එ 0.0015723
7/2 7/2 1.0000000
u19 ව19 1.0000000
u19 තු 0.0006173
o05 ං 0.0005155
o05 ක 0.0000836
o05 අ 0.0003374
o05 05 0.0123457
v ය4 0.1428571
v 310724 0.2500000
v ම05 0.1428571
v ර් 0.0063025
v ටි 0.0002188
v වී 0.0575710
v ලි 0.0047071
v ම03 0.1666667
v ලී 0.0056497
v ග 0.0036370
v න 0.0001521
v සි. 0.1250000
v හ 0.0023596
v ටෙ 0.0090090
v 2 0.0300000
v වෑ 0.0090498
v ඩ් 0.0177419
v ි 0.0909091
v ඨා 0.1089109
v ඕ 0.0084034
v ජි 0.0125000
v වෙ 0.0777616
v වු 0.2755194
v රා 0.0029825
v චූ 0.0909091
v ශ 0.0175439
v යි 0.0060201
v වි 0.2595458
v වා 0.1055195
v චි 0.0027100
v ෆී 0.0238095
v ඕ. 0.1666667
v ම 0.0002229
v ඩූ 0.0476190
v ෂි 0.0277778
v චු 0.0135135
v ඹ 0.0005053
v පෘ 0.0625000
v NULL 0.0180623
v ත 0.0001012
v පෞ 0.1600000
v පා 0.0007211
v 03 0.0370370
v ළ් 0.0500000
v ් 0.1666667
v ගා 0.0024907
v ශා 0.0162602
v ටෝ 0.0208333
v නු 0.0012361
v ලේ 0.0025760
v මV 0.3333333
v 02 0.0337838
v ස් 0.0003647
v 12 0.0188679
v දු 0.0003751
v රි 0.0002310
v ග් 0.0179487
v වෛ 0.2808989
v කා 0.0014154
v වැ 0.0065906
v 4 0.0280374
v සි 0.0009847
v වූ 0.4102564
v වේ 0.1564380
v ව් 0.1403941
v 71 0.1111111
v න් 0.0007388
v ටේ 0.0040650
v ස 0.0007459
v ප 0.0007994
v 50 0.0540541
v කි 0.0022185
v ඊ. 0.0555556
v ඩේ 0.0205128
v යේ 0.0579710
v 69 0.1111111
v ු 0.0138408
v වු7 0.2500000
v වො 0.2500000
v ඟ 0.0098522
v ඩෲ 0.0555556
v 01 0.0396825
v ම08 0.1428571
v ය3 0.1428571
v ක 0.0010870
v 7 0.0555556
v 04 0.0178571
v B 0.0714286
v පු 0.0002509
v ඩෙ 0.0053476
v රී 0.0026385
v ව 0.0252874
v ම07 0.1428571
v 1 0.0169492
v වෝ 0.2091503
v ළ 0.0049383
v කේ 0.0025707
v ල 0.0002390
v ද 0.0002888
v ඒ 0.0112994
t. ටී. 0.0625000
t. මා 0.0002132
t. ණා 0.0040650
t. ලි 0.0002615
t. ද් 0.0038499
t. ග 0.0000866
t. දි 0.0003666
t. වී 0.0007886
t. NULL 0.0000447
t. ත 0.0023283
t. යේ 0.0048309
t. ටි. 0.3333333
t. රෙ 0.0036496
t. ටා 0.0037594
t. ‍ 0.0625000
t. ශා. 0.3750000
t. රී 0.0052770
t. සා 0.0085470
t. ජි 0.0062500
t. න් 0.0057875
t. ශා 0.1707317
t. ජෝ 0.0188679
t. ය 0.0001337
7/3 7/3 1.0000000
he ත් 0.0003216
he ව 0.0001058
a,n ල, 0.1250000
a,n නා 0.0003534
de බ්. 0.0588235
de ඩ 0.0001017
de ඩ් 0.0032258
de ව 0.0000353
de ඊ. 0.0555556
de NULL 0.0000447
e, තේ 0.0019084
e, ටු 0.0008288
e, අ 0.0006748
e, ස 0.0007459
165 ව 0.0000353
oa අ 0.0006748
oa බෝ 0.0020855
wc න 0.0000760
wc ව 0.0000353
wc ඡ 0.0076336
wc ජ 0.0005802
e.m එ 0.0015723
e.m ම් 0.0002939
e.m ඊ. 0.0555556
50a 50 0.0270270
50a ක 0.0001672
50a අ 0.0003374
50a ර50 1.0000000
114/9 ං 0.0005155
114/9 ක43/1114/9 1.0000000
114/9 අ 0.0003374
03110a ඒ 0.0056497
03110a 03110 0.2500000
sf ෆා 0.0178571
31 ඒ 0.0056497
31 ද 0.0000963
31 ක 0.0000836
31 වා 0.0005411
31 ක් 0.0004533
31 31 0.4444444
31 නි 0.0003163
31 වැ 0.0002535
31 0331 0.5000000
l ග් 0.0384615
l වැ 0.0022814
l ේ 0.1666667
l 4 0.0280374
l ශ් 0.0104712
l අ 0.0016869
l ණි 0.0059222
l ෙ 0.0384615
l ජේ 0.0128205
l න් 0.0006157
l ර 0.0037528
l ම් 0.0141052
l ප 0.0683453
l 40 0.0714286
l ච්. 0.0625000
l බ් 0.0044248
l මේ 0.0317460
l ලාෙ 0.5000000
l ල‍ 0.5000000
l 9 0.0322581
l ු 0.0103806
l දෙ 0.0005845
l වු7 0.2500000
l ඵ 0.2500000
l බී 0.0112360
l රු 0.0006277
l පු 0.0015056
l පෙ‍ 0.5000000
l රී 0.0079156
l ලේ 0.5000000
l ම07 0.2857143
l ළ 0.4320988
l ල 0.4731350
l ද 0.0018289
l ල‍‍ 0.5000000
l පැ 0.0082742
l ර් 0.0014006
l ක්‍ 0.0416667
l ලි 0.4843096
l 09 0.0344828
l ම03 0.3333333
l ලී 0.4124294
l ග 0.0011257
l රෑ 0.0136986
l ළු 0.4964413
l මා 0.0021317
l ඩ් 0.0048387
l ඕ 0.0168067
l තී 0.0033003
l ජ 0.1926313
l ල්ෙ 0.5000000
l ල් 0.9756185
l ට් 0.0024917
l ය 0.0007356
l ට 0.0016835
l පි 0.0002567
l වි 0.0007487
l ත් 0.0008576
l වා 0.0005411
l 13/14 0.1250000
l ළී 0.6363636
l ල' 0.6666667
l සු 0.0016287
l පා 0.0021633
l 32 0.1428571
l 03 0.0074074
l ල/ 0.3333333
l ලා 0.4762827
l 5 0.0281690
l ලෛ් 0.2500000
l ලූ 0.4210526
l මු 0.0002097
l ගි 0.0013263
l ලුෙ 0.5000000
l ලෛ 0.3302752
l 15 0.0303030
l 12 0.0188679
l කු 0.0001836
l ළේ 0.4444444
l ටු 0.0012433
l එ 0.0031447
l ඉ 0.0058893
l සි 0.0004924
l 38 0.0909091
l 13 0.0555556
l ළා 0.4341085
l ළෛ 0.3333333
l 6 0.0735294
l ණු 0.0012048
l ස 0.0019891
l ලු 0.5264045
l ඩ 0.0027456
l ධ් 0.1012270
l බි 0.0018484
l ග. 0.1851852
l ල, 0.6250000
l භ 0.0088496
l ෆා 0.0178571
l නි 0.0003163
l ළ/ 0.5000000
l ලෝ 0.4782609
l ම08 0.2857143
l ක 0.0005017
l ගෝ 0.0090090
l ළූ 0.5000000
l ළෑ 0.5000000
l භා 0.0568182
l ම/ 0.1666667
l ව 0.0027862
l 1 0.0084746
l 3 0.0111111
l බා 0.0074074
l ළි 0.5065789
l ළැ 0.5000000
l තැ 0.0005931
l ම05 0.2857143
l වී 0.0007886
l ලො 0.4806630
l 14 0.1153846
l ද් 0.0009625
l න 0.0006082
l ලැ 0.4962025
l හේ 0.0004307
l ළො 0.4761905
l ල්/ 0.5000000
l ලෙ 0.4967825
l 2 0.0450000
l ඉ/ 0.2222222
l ි 0.0909091
l වු 0.0018067
l වෙ 0.0003634
l ගැ 0.0038462
l ශ 0.0409357
l පෙ 0.1292467
l ම 0.0107867
l රෙ 0.0036496
l NULL 0.0317879
l ච 0.0029499
l ළෙ 0.4864865
l ත 0.0012148
l ආ 0.0054945
l / 0.2068966
l තA 0.2000000
l ගො 0.0001348
l ළ් 0.9500000
l ලෑ 0.4989817
l ල්‍ 1.0000000
l ණ 0.0299320
l ස්. 0.0333333
l 27 0.2500000
l ලේ 0.4842865
l ෆ් 0.0416667
l ස් 0.0032823
l ලA 0.2500000
l ද. 0.1818182
l රි 0.0006930
j.e. ප 0.0001998
w. තො 0.0011628
w. ස 0.0004973
w. බ්. 0.2352941
w. ඩ 0.0004068
o3 ක 0.0000836
o3 03 0.0074074
uu ය 0.0002006
uu ක 0.0005017
uu ඒ 0.0169492
uu ටු 0.0004144
a/g ඩ/ 0.2500000
a/g ග 0.0000866
33 33 1.0000000
33 ක් 0.0004533
38 38 0.2727273
38 ක 0.0000836
38 ණු 0.0012048
135/96 ක් 0.0004533
1 කේ 0.0025707
1 ල 0.0004381
1 ළ 0.0028807
1 ඔ1 0.3333333
1 ඒ 0.0056497
1 ද1 0.3333333
1 1 0.2966102
1 රේ01 0.5000000
1 ව 0.0000705
1 ය1 0.3333333
1 ක 0.0006689
1 දා 0.0016260
1 පා 0.0002884
1 මු 0.0090185
1 NULL 0.0001788
1 01 0.0555556
1 නි 0.0025300
1 ම 0.0019612
1 ං 0.0020619
1 ය 0.0000669
1 ප 0.0197842
1 ර 0.0002924
1 I 0.1000000
1 වෙ 0.0036337
1 ක1 0.5000000
1 පි 0.0002567
1 හ 0.0002247
1 අ" 0.2000000
1 මා 0.0002132
1 එ 0.0015723
1 අ 0.0016869
1 ළා 0.0077519
1 ව1 0.3333333
1 ත1 0.5000000
1 2 0.0050000
1 ග 0.0023381
1 ටු 0.0174057
1 ම1 0.2000000
28c 28 0.0833333
28c කො 0.0003082
manadalapura ණ් 0.0044248
manadalapura ඩ 0.0002034
manadalapura 4 0.0093458
manadalapura 3 0.0111111
manadalapura ල 0.0000797
manadalapura ම 0.0000891
ko කො 0.0003082
.a ල් 0.0001195
.a ෆී 0.0119048
.a ඩ් 0.0008065
nt ය 0.0000669
683 391683 0.5000000
n5 ඨා 0.0099010
n5 ග 0.0000866
n5 ය5 0.5000000
n5 ශ 0.0058480
n5 කො 0.0003082
n5 ට් 0.0008306
n5 ර 0.0000487
d.a.d ඩි 0.0004052
d.a.d ඩි. 0.2500000
d.a.d ඒ. 0.0588235
2b බී 0.0112360
2b 2 0.0050000
29 29 0.6000000
29 වා 0.0005411
29 ක් 0.0004533
29 2999 0.1666667
29 0229 1.0000000
29 ට29 0.3333333
29 ද 0.0000963
29 සි 0.0004924
07 07 0.5357143
07 යා 0.0009197
07 වැ 0.0005070
07 නි 0.0006325
07 ය 0.0004012
07 රා 0.0008522
07 ග් 0.0051282
07 NULL 0.0000447
07 වු7 0.1250000
07 යේ 0.0048309
07 ක 0.0001672
07 ම 0.0000891
478 478602 0.2000000
a20 ය20 0.5000000
u3 ව3 1.0000000
u3 තු 0.0006173
d.m.c ම්. 0.0454545
d.m.c ඩී. 0.0344828
d.m.c කො 0.0003082
d.m.c එ 0.0015723
,s ස 0.0002486
,s ම, 0.1000000
04 රා 0.0008522
04 ග් 0.0051282
04 න 0.0000760
04 4 0.0186916
04 0425T 0.5000000
04 ෂ 0.0055556
04 නි 0.0006325
04 වැ 0.0005070
04 ච්. 0.0625000
04 ක 0.0007525
04 ම 0.0000891
04 අ 0.0010121
04 04 0.3928571
04 ං 0.0015464
04 යේ 0.0096618
nw ව 0.0000705
nw න් 0.0001231
nw ය 0.0000669
t.s න් 0.0003694
t.s සෙ 0.0041322
t.s ර් 0.0007003
t.s ජ 0.0002901
t.s ශා 0.0081301
t.s ත 0.0001518
t.s බ 0.0003694
t.s තා 0.0009017
t.s අ 0.0003374
t.s යේ 0.0048309
t.s ශෘ 0.5000000
wthth ව 0.0000353
wthth ත් 0.0001072
wthth ත 0.0000506
yr ව 0.0000353
u5 ව5 0.4000000
u5 තු 0.0006173
o03 ර 0.0000487
o03 ම 0.0000446
o03 ම් 0.0002939
o03 03 0.0148148
o03 නො 0.0064103
ar පා 0.0049034
ar NULL 0.0000894
ar ර 0.0001950
ar ය 0.0000669
ar ත 0.0001012
ys ය 0.0001337
ys 11 0.0133333
ys ර 0.0000487
ys 1 0.0042373
ys ව 0.0000353
me හෝ 0.0102041
p හ 0.0002247
p හේ 0.0008613
p මා 0.0002132
p උ 0.0159803
p කැ 0.0011136
p ි 0.0909091
p ඩ් 0.0008065
p තී 0.0033003
p ඕ 0.0042017
p 2 0.0250000
p ලෙ 0.0025740
p පී. 0.1250000
p ක්‍ 0.0416667
p තැ 0.0005931
p ර් 0.0056022
p වී 0.0039432
p මී 0.0011561
p ග 0.0045029
p න 0.0003801
p ෆො 0.0312500
p ම 0.0003566
p නෙ 0.0016155
p ඹ 0.0010106
p ෆ 0.0303030
p තුි 0.2500000
p පෙ 0.4320532
p ය 0.0001337
p වෙ 0.0014535
p වු 0.0063234
p ජ 0.0017406
p ත් 0.0001072
p 13/14 0.1250000
p බ 0.0029553
p ට 0.0005612
p වි 0.0009983
p යි 0.0020067
p පි 0.4940965
p ඔ 0.0013717
p ගො 0.0014833
p පා 0.1383040
p මු 0.0002097
p 80 0.1000000
p පෞ 0.2000000
p ත 0.0017715
p පැෙ 0.5000000
p NULL 0.0126079
p ෂ 0.0055556
p ඳ 0.0035778
p ආ 0.0036630
p ස් 0.0014588
p නු 0.0098888
p ෆ් 0.0833333
p හි 0.0005556
p පෝ 0.4791667
p කේ. 0.0909091
p ණ 0.0006803
p වී. 0.1250000
p පා‍ 0.5000000
p ගි 0.0026525
p ස්. 0.0333333
p පෑ 0.4761905
p ප් 0.9063719
p ෂෙ 0.1000000
p පී 0.3206522
p ශ් 0.0104712
p පාෙ 1.0000000
p අ 0.0010121
p ෆි 0.0714286
p ව් 0.0024631
p වේ 0.0036101
p ෙ 0.0576923
p ෂී 0.0606061
p කු 0.0001836
p සෙ 0.0020661
p ටු 0.0008288
p කා 0.0028309
p පෛ 0.3000000
p පුු 0.5000000
p වැ 0.0002535
p ප්‍ 0.3898305
p ේ 0.1666667
p යො 0.0232558
p ‍ 0.1875000
p දෙ 0.0002922
p පූ 0.3668639
p ු 0.0553633
p රෝ 0.0917431
p 9 0.0322581
p ස 0.0022377
p ප 0.6043165
p ර 0.0003899
p ම් 0.0005877
p ණු 0.0313253
p භූ 0.0384615
p ඩ 0.0001017
p සා 0.0017094
p හී 0.0031949
p ක 0.0000836
p රු 0.0018832
p ම්. 0.0454545
p රැ 0.0019685
p භ 0.0088496
p දේ 0.0016287
p ඹේ 0.0027100
p ෆා 0.0357143
p නි 0.0006325
p ල 0.0017127
p ද 0.0000963
p පේ 0.4660194
p පි01 0.3333333
p පැ 0.4657210
p බා 0.0098765
p කො 0.0015408
p 20 0.0666667
p පු1 0.5000000
p පු 0.4946048
p සේ 0.0051282
p 1 0.0169492
p ව 0.0005643
p පෙ‍ 0.5000000
p ය1 0.1111111
p පො 0.4862004
mii ම් 0.0002939
u.c වා 0.0005411
u.c න 0.0002281
u.c ග 0.0002598
u.c නි 0.0003163
u.c ස 0.0004973
u.c ර 0.0001462
u.c භා 0.0340909
rr ර් 0.0028011
rr ර 0.0001462
rr ම් 0.0002939
rr පා 0.0005769
40/s ස 0.0002486
40/s 40 0.0714286
40/s / 0.0344828
48k ක 0.0000836
48k 48 0.5000000
yfs කී 0.0029326
yfs ම් 0.0002939
yfs ස් 0.0003647
yfs ත් 0.0001072
yfs යූ 0.0263158
ur ටු 0.0004144
ur පු 0.0002509
ur පා 0.0002884
a.g.g ම් 0.0002939
a.g.g ස 0.0002486
a.g.g ල් 0.0001195
a.g.g බො 0.0016447
a.g.g කා 0.0007077
a.g.g බෙ 0.0025381
17 ටු 0.0008288
17 ව 0.0001058
17 න 0.0002281
17 17 0.5294118
17 NULL 0.0000447
17 ම 0.0000891
17 ප 0.0003997
o.07 07 0.0357143
d.s.w.s ඩී. 0.0344828
d.s.w.s ස්. 0.0333333
d.s.w.s බ්. 0.0588235
d.s.w.s ඩ 0.0001017
d.s.w.s එ 0.0015723
d.s.w.s ස 0.0002486
rw ර් 0.0014006
rw ට 0.0002806
i/ උ 0.0006146
i/ ටි 0.0002188
dn නා 0.0003534
ed යේ 0.0096618
ed ක 0.0001672
ed ය 0.0001337
fd ර 0.0000487
fd ම 0.0000446
fd 6 0.0147059
r12 ර්12 0.5000000
3/8 3/8 1.0000000
a] ත 0.0000506
2165 2165 0.1428571
av ලා 0.0004840
av න 0.0000760
av වෙ 0.0003634
av NULL 0.0000894
av ම 0.0001337
a/d දි 0.0003666
a/d අ/ 1.0000000
o:3 03 0.0074074
o:3 ක 0.0000836
o:3 ප 0.0001998
o:3 ම 0.0000446
o:3 ග 0.0000866
o:3 ටු 0.0004144
e100 අ 0.0003374
e100 ර 0.0000487
e100 ක 0.0000836
e100 100 0.1666667
e100 ක් 0.0004533
/5 වා 0.0005411
/5 657718/5 0.5000000
646 ට654 0.1666667
1, 1 0.0042373
1, ත් 0.0001072
1, හ 0.0001124
1, ත 0.0000506
1, ස 0.0002486
1, උ 0.0006146
1, ර 0.0000487
83 183 1.0000000
stf පා 0.0001442
stf STF 1.0000000
n3 ශ 0.0116959
n3 ය3 0.1428571
n3 කො 0.0006163
n3 ට් 0.0016611
n3 ර 0.0000975
n3 ඨා 0.0198020
n3 ග 0.0001732
a3 3 0.0111111
a3 ය 0.0000669
o.01 1 0.0042373
o.01 ං 0.0005155
o.01 අ 0.0003374
o.01 ක 0.0000836
w බා 0.0049383
w වෝ 0.2745098
w ළ 0.0061728
w කේ 0.0025707
w ල 0.0002390
w ද 0.0003850
w ව 0.4422304
w පො 0.0011342
w සෝ 0.0065359
w කො 0.0049307
w ගෝ 0.0030030
w ඩු 0.0004266
w ටී. 0.0625000
w රු 0.0003139
w ක 0.0003344
w ලෝ 0.0158103
w ක් 0.0004533
w 96 1.0000000
w වො 0.2500000
w රෝ 0.0122324
w යේ 0.0096618
w බෙ 0.0025381
w ු 0.0173010
w බු 0.0012315
w ලු 0.0028090
w හො 0.0019194
w ඩ 0.0007118
w බේ 0.0055556
w ර 0.0014134
w ස 0.0009945
w ප 0.0043965
w ජෑ 0.2500000
w වේ 0.3321300
w ව් 0.4950739
w ශ් 0.0104712
w තො 0.0046512
w වූ 0.0512821
w වැ 0.4785805
w වෛ 0.0449438
w ඩී 0.0184049
w යෙ 0.0270270
w රි 0.0025410
w ස් 0.0010941
w 80 0.1000000
w ලා 0.0029042
w බ්. 0.1764706
w මො 0.0013717
w මු 0.0004195
w ගො 0.0004045
w බෝ 0.0010428
w පා 0.0043265
w වෙ‍ 1.0000000
w දො 0.0012531
w NULL 0.0054098
w ත 0.0000506
w සු 0.0032573
w ච 0.0029499
w ම 0.0000446
w බ 0.0011082
w වි 0.2123783
w යි 0.0006689
w ඔ 0.0013717
w චි 0.0040650
w වා 0.3571429
w වෙ 0.3968023
w ජ 0.0002901
w වු 0.1273713
w ල් 0.0003586
w ය 0.0079577
w වෑ 0.4796380
w කැ 0.0011136
w ඨා 0.0495050
w ඕ 0.0042017
w චා 0.0039841
w ග/ 0.2000000
w බෞ 0.1176471
w හ 0.0016854
w න 0.0002281
w ග 0.0093523
w චෛ 0.0476190
w ළු 0.0011862
w ර් 0.0028011
w වී 0.1206625
w ටි 0.0002188
w රො 0.0140845
e/u උ 0.0012293
tb ු 0.0034602
nn ක 0.0000836
nn අ 0.0003374
nn ං 0.0005155
nn 2 0.0050000
101c ජ 0.0002901
101c 101 1.0000000
p.s. දේ 0.0016287
p.s. ස 0.0002486
p.s. භා 0.0113636
p.s. එ 0.0015723
p.s. ශී 0.5000000
p.s. ස්. 0.0333333
p.s. පී. 0.0625000
76/11 20/176/11 1.0000000
76/11 ක 0.0000836
ew වා 0.0005411
ew ව 0.0001058
ew ලේ 0.0005152
at න 0.0006082
at ග 0.0006928
at ය 0.0000669
at NULL 0.0000447
at තෙ 0.0018797
at ර 0.0003899
p.w.d. පී. 0.0625000
n නැ 0.4036145
n කෙ 0.0040161
n අ 0.0236167
n ණි 0.4966159
n 71 0.1111111
n ෙ 0.0192308
n 4 0.0093458
n මැ 0.0010953
n ඬා 0.3333333
n ඇ 0.0096154
n ඩේ 0.0307692
n ු 0.0519031
n දෙ 0.0035067
n ඤ් 0.5849057
n 69 0.1111111
n 1,2,3,4, 0.3333333
n 9 0.0645161
n නේ 0.4639175
n හා2 0.2500000
n 50 0.1081081
n ප 0.0005995
n ර 0.0007311
n න් 0.9470509
n ම් 0.0091096
n ඥා 0.3200000
n ඤ 0.0909091
n ඟා 0.5000000
n ඩු 0.0008532
n ක1.2.3. 0.3333333
n ජා 0.0320000
n නෛ06 0.3333333
n ඳු 0.2698413
n ක් 0.0054397
n ල 0.0004381
n ද 0.0104919
n ළ 0.0037037
n නෛ02 0.3333333
n පු 0.0002509
n රී 0.0052770
n පො 0.0037807
n ග/ 0.2000000
n සි. 0.1250000
n ණැ 0.5000000
n ඩ් 0.0185484
n නො 0.4679487
n ඨා 0.0990099
n ගේ 0.0077121
n ර් 0.0077031
n ටි 0.0002188
n ග 0.0265847
n 245477 1.0000000
n ළු 0.0023725
n ර, 0.4444444
n 09 0.0344828
n 347 0.1666667
n ඩි 0.0012156
n ල් 0.0007171
n ට් 0.0008306
n ය 0.0044135
n ත් 0.0024657
n ෆී 0.0238095
n ඟි 0.1333333
n වි 0.0012478
n ඟු 0.2340426
n 03 0.0592593
n 32 0.2142857
n පා 0.0099510
n නෛ04 0.3333333
n නූ 0.3793103
n 5 0.0281690
n සු 0.0016287
n දි 0.0087977
n තා 0.0009017
n සැ 0.0106952
n නු 0.4956737
n න්ෙ 0.8333333
n හි 0.0005556
n ඬ 0.2083333
n 02123 0.5000000
n 05 0.0246914
n යු 0.0080645
n ගි 0.0026525
n ඬේ 0.2857143
n ප් 0.0013004
n සි 0.0009847
n ඉ 0.0200236
n එ 0.0062893
n 6 0.0294118
n නෛ 0.3285714
n කු 0.0001836
n ඟේ 0.2500000
n කා 0.0007077
n ටු 0.0161625
n ගෙ 0.0009149
n ණේ 0.5238095
n නා 0.4901060
n ණෝ 0.5000000
n ං 0.8917526
n ණූ 0.5000000
n ත735/12 0.1250000
n ං‍ 1.0000000
n ග. 0.1111111
n යේ 0.1159420
n ඳා 0.2823529
n ස 0.0007459
n ණු 0.4493976
n ඩ 0.0004068
n ධ් 0.1564417
n නෛ01 0.3333333
n තු 0.0006173
n ඪී 0.3333333
n ක 0.0002508
n 04 0.0178571
n නො, 1.0000000
n ඞ 0.1666667
n දේ 0.0032573
n ඹේ 0.0027100
n ඟ 0.2610837
n ණෑ 0.4761905
n ඞි 0.5000000
n 01 0.0396825
n නි 0.4737508
n ණෟ 1.0000000
n 3 0.0333333
n ඤා 0.2692308
n පේ 0.0072816
n ඒ 0.1073446
n හෙ 0.0013423
n භා 0.0568182
n ටී 0.0227273
n ණී 0.4333333
n ති 0.0003768
n නෑ 0.5033113
n 1 0.0127119
n ව 0.0001058
n හ 0.0032584
n 2 0.1000000
n නො09 0.5000000
n මී 0.0184971
n න 0.5126587
n ණ් 0.9800885
n ද් 0.0057748
n ඬු 0.2531646
n ම 0.0003566
n ර/ 0.2222222
n නෙ 0.4959612
n ගු 0.0588889
n 11 0.0133333
n ජි 0.0062500
n පි. 0.5000000
n වු 0.0009033
n චි 0.0013550
n හු 0.0017391
n න2 0.6666667
n ණෙ 0.4814815
n බ 0.0003694
n ඬි 0.2826087
n නී 0.3468208
n න, 0.5000000
n ත 0.0023789
n ධ්‍ 0.1764706
n නෝ 0.4682540
n NULL 0.0359458
n නො.8,9,10 0.3333333
n ඥ් 0.4285714
n දූ 0.0030120
n ඣ් 0.5000000
n ණා 0.4959350
n ඥ 0.5000000
n ඳි 0.2711864
n ඳ 0.2772809
n / 0.0689655
n ආ 0.0256410
n 02 0.0675676
n ස් 0.0021882
n ඝ 0.0277778
n හා 0.0190476
n දු 0.0528882
n ද. 0.1818182
n ණෛ 0.3243243
n ණ 0.4605442
n ජේ. 0.0833333
n 111 0.1333333
eh හැ 0.0017212
6v 6 0.0147059
aj ජ 0.0002901
52 52 0.5000000
52 ක 0.0000836
ag ගෙ 0.0009149
ag ජ 0.0005802
ag ර 0.0000487
ag ගො 0.0008091
ag ග 0.0025979
am මො 0.0013717
am ඩා 0.0008993
am ඹු 0.0004515
am මැ 0.0021906
am ම 0.0002674
am ණ 0.0006803
am මා 0.0051162
sr ක් 0.0009066
sr ස් 0.0007294
sr පා 0.0004327
sr රො 0.0105634
617 533617 1.0000000
617 ද 0.0000963
617 ක් 0.0004533
617 වා 0.0005411
129 ද 0.0000963
129 76129 0.5000000
129 වා 0.0005411
129 ක් 0.0004533
53 ම 0.0000446
53 ප 0.0001998
53 ර53 0.5000000
53 නි 0.0003163
53 ටු 0.0004144
53 53 0.5000000
53 වැ 0.0002535
a:3d A 0.0588235
a:3d ලො 0.0055249
a:3d 3 0.0111111
a:3d දො 0.0012531
a:3d : 0.3333333
pvt පු 0.0005019
pvt බ් 0.0044248
pvt ග 0.0001732
pvt ද් 0.0019249
pvt ලි 0.0005230
pvt ක 0.0001672
pvt ස් 0.0003647
pvt ලැ 0.0025316
dl ව 0.0000705
dl තු 0.0003086
dl මා 0.0002132
dl ප 0.0001998
dl නෝ 0.0079365
dl ම් 0.0002939
hg ග 0.0000866
a7 7 0.0277778
n' රි 0.0004620
n' මෙ 0.0112994
n' බි 0.0036969
n' සෝ 0.0130719
550a 588 0.1666667
01, වු 0.0009033
01, කු. 0.0714286
01, ඉ 0.0011779
01, 01 0.0079365
01, ු 0.0034602
01, ග. 0.0370370
r.t' ත්‍ 0.0344828
r.t' ර්. 0.0500000
r.t' රා 0.0004261
r.t' ආ 0.0018315
r.t' ගා 0.0012453
r.t' ටී. 0.0625000
r.t' චි 0.0013550
u11 ව11 1.0000000
u11 තු 0.0006173
180 ක් 0.0004533
180 වා 0.0005411
180 ද 0.0000963
180 9180 0.5000000
e2 2 0.0050000
e2 වැ 0.0002535
o47 347 0.1666667
o47 ක 0.0000836
a,k කැ 0.0005568
a,k ටැ 0.0125000
a,k ම, 0.1000000
20 අ 0.0003374
20 සේ 0.0025641
20 ස 0.0004973
20 ස් 0.0010941
20 ක 0.0000836
20 20 0.6000000
20 වි 0.0007487
76 76 1.0000000
76 NULL 0.0000447
24 නි 0.0003163
24 ටු 0.0004144
24 වැ 0.0002535
24 ම 0.0000446
24 24 0.2500000
24 ප 0.0001998
8 ප 0.0003997
8 වෙ 0.0003634
8 8 0.6071429
8 ර8 0.5000000
8 08 0.1200000
8 වැ 0.0002535
8 නි 0.0006325
8 ක 0.0002508
8 අ 0.0013495
8 ම08 0.1428571
8 ං 0.0005155
8 ළා 0.0077519
road ල් 0.0001195
road ල 0.0000398
road පා 0.0001442
road ර 0.0000487
nr පා 0.0001442
p. ප් 0.0013004
p. පී. 0.0625000
r19 ර්19 0.5000000
c.t.c. 50 0.0270270
c.t.c. සී. 0.0769231
c.t.c. ටී. 0.0625000
p.d දො 0.0012531
p.d පී 0.0054348
ss දි 0.0007331
ss වී 0.0015773
ss NULL 0.0000447
o.05 ර 0.0000487
o.05 ත 0.0000506
o.05 මා 0.0002132
o.05 ව 0.0000353
o.05 ද් 0.0009625
166 සි 0.0004924
166 166 0.5000000
156 ට 0.0002806
156 ත156 0.1666667
156 ය 0.0000669
156 සි 0.0009847
df NULL 0.0000447
df ධී 0.0163934
i3 තෛ3 0.5000000
ld ලෝ 0.0039526
ld ට් 0.0008306
ld ජ් 0.0104167
ld පෘ 0.0625000
nh හො 0.0019194
nh න 0.0000760
nh ග 0.0000866
nh ලි 0.0002615
nh හි 0.0005556
nh රූ 0.0178571
46 46 0.5000000
gov යේ 0.0048309
gov ග 0.0000866
gov ජ 0.0002901
gov ම 0.0000446
gov ර 0.0000487
uw රු 0.0003139
oc ලෝ 0.0039526
oc ජ 0.0002901
26 ඒ 0.0056497
26 26 1.0000000
o99 2999 0.1666667
gd ස 0.0002486
k/ වු 0.0027100
k/ ඉ 0.0035336
k/ ය 0.0002006
k/ ද/ 0.5000000
k/ ර, 0.2222222
k/ ර/ 0.1111111
k/ යා 0.0009197
m.j.c.m ජේ 0.0128205
m.j.c.m එ 0.0015723
m.j.c.m ම් 0.0002939
m.j.c.m සි 0.0004924
m.j.c.m මා 0.0002132
ni නි 0.0003163
ni ඉ 0.0011779
41 ය 0.0000669
41 41 0.3333333
41 යා 0.0003066
mw මා 0.0006395
mw ත 0.0001518
mw න 0.0000760
mw ව 0.0001058
e.k. ඊ. 0.0555556
e.k. ව 0.0000353
e.k. කේ. 0.0909091
np ර් 0.0007003
np පු 0.0002509
np න් 0.0002463
np පේ 0.0024272
np රේ 0.0017986
np ද් 0.0009625
ft ර 0.0000975
ft තෙ 0.0018797
ft NULL 0.0003130
ft ග් 0.0025641
ft ත 0.0000506
ft ප 0.0003997
ft ණා 0.0040650
ft ගො 0.0001348
ft එ 0.0015723
ft උ 0.0018439
ft ළ 0.0004115
ft ඹ 0.0005053
ft සී 0.0041667
ft බෙ 0.0025381
500 500 1.0000000
p.s.p පෙ 0.0007386
p.s.p එ 0.0015723
p.s.p ස්. 0.0333333
p.s.p පී. 0.0625000
ep පු 0.0002509
ep ණු 0.0012048
ep ත 0.0002025
ep ප 0.0003997
ep පෙ 0.0007386
ep ද් 0.0009625
a13/14 13/14 0.1250000
ej අ 0.0006748
ej ඡු 0.1666667
ej යි. 0.1538462
ej නේ 0.0012887
ej ලෙ 0.0012870
lk ල් 0.0001195
lk කෝ 0.0010428
ja ජ 0.0002901
a.c චා 0.0039841
a.c ඒ. 0.0588235
6/1115 ක් 0.0004533
6/1115 වා 0.0005411
6/1115 ත 0.0000506
6/1115 ං 0.0005155
6/1115 115 0.5000000
6/1115 අ 0.0003374
6/1115 6/1 0.2500000
6/1115 ද 0.0000963
6/1115 ක 0.0000836
e4 පෙ 0.0007386
e4 ස 0.0002486
e4 දෙ 0.0002922
e4 4 0.0093458
14 ණු 0.0048193
14 1444 0.1666667
14 ක 0.0004181
14 14 0.3076923
14 වැ 0.0002535
14 නි 0.0003163
57 57 1.0000000
57 ඇ 0.0009615
57 ඩී 0.0061350
ng ග 0.0000866
as සා 0.0017094
as ශ් 0.0052356
as NULL 0.0000447
as සි 0.0004924
as ස 0.0004973
as ක 0.0000836
as ටා 0.0037594
i2 තෛ2 0.5000000
l.b. බී 0.0112360
l.b. පෙ 0.0007386
l.b. ල් 0.0002390
l.b. ස 0.0002486
l.b. දෙ 0.0002922
l.b. 2 0.0050000
l.b. බි 0.0018484
l.b. එ 0.0031447
161 ජේ 0.0128205
161 වි‍ 0.2000000
s.w.r.d S.W.R.D 0.2500000
s.w.r.d ඩා 0.0017986
s.w.r.d ණ් 0.0044248
s.w.r.d බ 0.0007388
s.w.r.d S.W.R.D. 0.2500000
s II 0.0909091
s ෂැ 0.4545455
s රෝ 0.0733945
s යේ 0.0096618
s 161247 0.1666667
s 135/113596 0.5000000
s ෂෝ 0.3333333
s ගෙ 0.0018298
s ඩ 0.0005084
s I 0.1000000
s ස 0.3990552
s 6 0.0147059
s එ 0.0110063
s සි 0.4677499
s චෙ 0.0327869
s ටු 0.0008288
s 31 0.1111111
s සෙ 0.4628099
s 2137 0.1250000
s 250 0.1250000
s හෙ 0.0026846
s ඒ 0.0112994
s ර‍ 0.1250000
s කේ 0.0025707
s 588 0.1666667
s ව 0.0247937
s 1 0.1864407
s ච් 0.0016529
s මි 0.0039578
s කො 0.0006163
s 03110 0.2500000
s චෝ 0.0384615
s 04 0.0178571
s ක 0.0008361
s ය3 0.1428571
s හී 0.0031949
s නි 0.0009488
s 01 0.0396825
s ෂා 0.4545455
s 2999 0.3333333
s 5/245/1/1 0.3333333
s ම 0.0003120
s රෙ 0.0036496
s ෂි 0.2222222
s ශා. 0.5000000
s බ 0.0011082
s 4354 0.1666667
s චි 0.0027100
s 84102 0.5000000
s වෙ 0.0018169
s වු 0.0009033
s 11 0.0400000
s ජි 0.0125000
s ශ 0.3450292
s ඩො 0.0243902
s රා 0.0008522
s ටෙ 0.0090090
s 373 0.2500000
s 2 0.0300000
s ලෙ 0.0012870
s 115 0.5000000
s ි 0.0909091
s චා 0.0079681
s 79/185 0.5000000
s හ 0.0001124
s ෂු 0.3333333
s " 1.0000000
s න 0.0009123
s 135/164 0.5000000
s වී 0.1017350
s 310724 0.2500000
s කේ. 0.0909091
s ශො 0.3333333
s රි 0.0016170
s දු 0.0116279
s හා 0.0019048
s ලේ 0.0010304
s 103210 0.1666667
s 02 0.0405405
s ස් 0.8986142
s රේ01 0.5000000
s සො 0.4774775
s ජේ. 0.0833333
s 111 0.0666667
s ස්. 0.1666667
s ණ 0.0006803
s ශා 0.4837398
s 80 0.1000000
s තෝ 0.0046296
s ෂ 0.3055556
s ඹු 0.0009029
s NULL 0.0283900
s ධී 0.1147541
s ච 0.0324484
s ත 0.0008098
s 69 0.1111111
s 9 0.0322581
s 723 0.1666667
s ු 0.0311419
s දෙ 0.0005845
s ඩේ 0.0153846
s ස්.‍ 1.0000000
s සා 0.4547009
s 106114 0.5000000
s ෂ් 0.4565217
s ස්‍ 1.0000000
s ර 0.0003899
s න් 0.0002463
s ප 0.0087930
s 50 0.0810811
s ව් 0.0320197
s 0183/1479 0.5000000
s 71 0.1111111
s ණි 0.0008460
s අ 0.0016869
s ශ් 0.6282723
s ෂෙ 0.2500000
s ෂො 0.3333333
s වැ 0.0007605
s 4 0.0186916
s ග් 0.0076923
s ෂී 0.2121212
s ළ 0.0123457
s ර66 0.2500000
s ද 0.0000963
s ල 0.0002390
s පො 0.0022684
s ශු 0.3076923
s සේ 0.4769231
s සෝ 0.4705882
s පු 0.0002509
s 4240 0.1428571
s 0328 0.1250000
s ශෘ 0.5000000
s ටී. 0.0625000
s 1444 0.1666667
s ඩෲ 0.0555556
s උ/ 0.3333333
s 58167/4 0.3333333
s 4/44 0.2000000
s සෞ 0.3333333
s චු 0.0405405
s ඩූ 0.0476190
s සෑ 0.3750000
s වි‍ 0.2000000
s වි 0.0152234
s ශ්‍ 1.0000000
s යි 0.0060201
s ත් 0.0143654
s වා 0.0005411
s ෆී 0.0238095
s ය 0.0010699
s ට් 0.0041528
s ල් 0.0004781
s ඕ 0.0084034
s ඩ් 0.0145161
s 120/2 0.2500000
s සි. 0.1250000
s 2165 0.1428571
s 10 0.0166667
s ලි 0.0028766
s ග 0.0005196
s ය4 0.1428571
s ර් 0.0119048
s ශෛ 0.3333333
s 139 0.1666667
s ස්ෙ 0.6000000
s හි 0.0022222
s සෛ 0.1428571
s සැ 0.4171123
s ශි 0.5000000
s ශෝ 0.3500000
s 05 0.0246914
s සී 0.3041667
s මු 0.0006292
s මො 0.0027435
s පා 0.0098067
s 18 0.0714286
s 03 0.0370370
s සූ 0.3706294
s ෂූ 0.5000000
s දි 0.0025660
s පෞ 0.0400000
s සු 0.4641694
79/185 79/185 0.5000000
79/185 ද 0.0000963
79/185 වා 0.0005411
79/185 ක් 0.0004533
. 18 0.0357143
. ඒ 0.0056497
. ව 0.0000353
tl ල 0.0000398
tl NULL 0.0000447
s/ කෙ 0.0020080
718 ක් 0.0004533
718 ද 0.0000963
718 ක 0.0000836
718 657718/5 0.5000000
221 ං 0.0005155
af ධී 0.0163934
ah වා 0.0010823
ah හො 0.0019194
ah නි 0.0006325
ah යෝ 0.0165289
dro ඕ 0.0042017
dro ආ 0.0018315
dro ඩී 0.0061350
dro ණ 0.0006803
dro ර් 0.0007003
ec ජ 0.0002901
ec ඔ 0.0013717
ec ටෝ 0.0208333
u2 ව2 0.6666667
u2 තු 0.0006173
66 ක් 0.0004533
66 ර66 0.2500000
66 අ 0.0003374
dp ප 0.0001998
dp පෙ 0.0007386
123 123 0.3333333
123 සැ 0.0053476
123 ත 0.0000506
84 84102 0.5000000
84 ද 0.0000963
a11 ම11 0.5000000
309/2 309/2 1.0000000
c.w.m. සී. 0.0384615
c.w.m. ලි 0.0002615
c.w.m. බී 0.0112360
c.w.m. ව්. 1.0000000
c.w.m. ඩ 0.0001017
c.w.m. එ 0.0015723
c.w.m. ම් 0.0002939
p.s.a ද 0.0000963
ev ටේ 0.0040650
d/ පි 0.0002567
d/ රි 0.0002310
d/ ශ් 0.0052356
d/ ය 0.0000669
i.d.h.r එ 0.0015723
i.d.h.r යි. 0.0769231
i.d.h.r අ 0.0003374
i.d.h.r ඩී. 0.0344828
i.d.h.r ච්. 0.0625000
421 231421 1.0000000
421 අ 0.0003374
421 ද 0.0000963
421 ක 0.0000836
421 ක් 0.0004533
421 වා 0.0005411
421 ං 0.0005155
d.j.w ඊ. 0.0555556
d.j.w වු 0.0009033
d.j.w ප 0.0001998
d.j.w ඒ. 0.0588235
NULL ද්‍ 0.0217391
NULL පා 0.0034612
NULL යේ02 1.0000000
NULL ලා 0.0091965
NULL යෝ 0.0082645
NULL සී 0.0041667
NULL බ්. 0.0588235
NULL මු 0.0027265
NULL සු 0.0130293
NULL සූ 0.0069930
NULL දි 0.0047654
NULL නු 0.0012361
NULL හි 0.0055556
NULL සැ 0.0106952
NULL ගි 0.0039788
NULL ඩී. 0.0344828
NULL ප් 0.0052016
NULL උ 0.0006146
NULL මා 0.0025581
NULL ඩ් 0.0032258
NULL ඨා 0.0396040
NULL ර් 0.0077031
NULL ටි 0.0015314
NULL ලි 0.0052301
NULL ග 0.0126429
NULL ළු 0.0047450
NULL ඩි 0.0016207
NULL ජ 0.0008703
NULL ල් 0.0029879
NULL ට් 0.0074751
NULL ය 0.0090277
NULL කූ 0.0062893
NULL ට 0.0033670
NULL ඔ 0.0041152
NULL පි 0.0028234
NULL යි 0.0020067
NULL වි 0.0024956
NULL ත් 0.0032161
NULL වා 0.0032468
NULL රු 0.0040804
NULL ඩු 0.0025597
NULL ත්‍ 0.0344828
NULL ඳු 0.0019841
NULL ක් 0.0140526
NULL කී 0.0058651
NULL ළ 0.0358025
NULL ල 0.0015534
NULL ද 0.0683415
NULL පැ 0.0011820
NULL පු 0.0017566
NULL රී 0.0079156
NULL ශ් 0.0157068
NULL අ 0.0138327
NULL කෙ 0.0040161
NULL නැ 0.0120482
NULL ඒ. 0.2352941
NULL ව් 0.0049261
NULL වේ 0.0012034
NULL ෙ 0.0769231
NULL ග් 0.0076923
NULL ඩී 0.0061350
NULL වැ 0.0017744
NULL මැ 0.0005476
NULL බු 0.0012315
NULL ඩේ 0.0051282
NULL ඇ 0.0009615
NULL නේ 0.0025773
NULL දෙ 0.0046756
NULL ු 0.0346021
NULL න් 0.0061569
NULL ර 0.0040940
NULL ම් 0.0055833
NULL ප 0.1610711
NULL කි 0.0022185
NULL ච්. 0.0625000
NULL බ් 0.0044248
NULL සා 0.0085470
NULL ගො 0.0009439
NULL ෆ්. 0.2500000
NULL ගා 0.0062267
NULL කෲ 0.1250000
NULL දො 0.0037594
NULL ච 0.0029499
NULL ත 0.0260667
NULL නෝ 0.0079365
NULL ෂ 0.0111111
NULL ඳ 0.0017889
NULL / 0.0689655
NULL ආ 0.0036630
NULL ඹු 0.0013544
NULL ෆ් 0.0416667
NULL හා 0.0076190
NULL ස් 0.0072939
NULL රේ 0.0017986
NULL පෝ 0.0052083
NULL දු 0.0015004
NULL තේ101270 1.0000000
NULL රි 0.0050820
NULL කො 0.1250000
NULL ණ 0.0136054
NULL ශා 0.0284553
NULL තේ 0.0057252
NULL ධා 0.0072993
NULL න්. 0.1428571
NULL ථා 0.0285714
NULL කො‍ 0.2500000
NULL චා 0.0039841
NULL . 0.4000000
NULL හ 0.0134831
NULL හේ 0.0008613
NULL කැ 0.0005568
NULL මී 0.0023121
NULL වී 0.0031546
NULL 122264 1.0000000
NULL ද් 0.0096246
NULL යා 0.0018394
NULL න 0.0034973
NULL ණ් 0.0044248
NULL ම 0.0052151
NULL රෙ 0.0036496
NULL නෙ 0.0016155
NULL ඹ 0.0015159
NULL ජි 0.0062500
NULL වෙ 0.0050872
NULL වු 0.0162602
NULL රා 0.0046868
NULL පෙ 0.0132939
NULL ශ 0.0994152
NULL බ 0.0003694
NULL චි 0.0040650
NULL හු 0.0052174
NULL තු 0.0030864
NULL බැ 0.0013158
NULL ක 0.0063545
NULL 171 1.0000000
NULL ණෑ 0.0476190
NULL තෙ 0.0037594
NULL දේ 0.0048860
NULL නි 0.0037951
NULL පේ 0.0048544
NULL හෙ 0.0013423
NULL ළි 0.0021930
NULL ඒ 0.0056497
NULL ණී 0.0333333
NULL භා 0.0227273
NULL මි 0.0006596
NULL කො 0.0030817
NULL ව 0.0021866
NULL ච් 0.0049587
NULL ති 0.0056518
NULL 1 0.0042373
NULL පී 0.0054348
NULL එ 0.0141509
NULL ඉ 0.0164900
NULL තො 0.0046512
NULL සි 0.0068932
NULL 0275 1.0000000
NULL ළා 0.0155039
NULL යි. 0.0769231
NULL කු 0.0016520
NULL ධි 0.0090909
NULL කා 0.0042463
NULL ටු 0.0849565
NULL ල්. 0.2500000
NULL ගෙ 0.0018298
NULL ‍ 0.1250000
NULL නා 0.0017668
NULL යේ 0.0048309
NULL II 0.0909091
NULL ං 0.0180412
NULL ටේ 0.0040650
NULL ණු 0.0072289
NULL ස 0.0082049
NULL ලු 0.0022472
NULL ඩ 0.0017287
u, ඒ 0.0056497
u, රු, 0.5000000
u, ක 0.0001672
o.3 කැ 0.0005568
o.3 03 0.0074074
nc ජ 0.0002901
nc න් 0.0001231
ia 1 0.0042373
ia ඒ 0.0056497
ia යා 0.0003066
32a 32 0.0714286
32a ද 0.0000963
32a 120/2 0.2500000
32a වා 0.0005411
32a ක් 0.0004533
32a ඒ 0.0056497
uo ඔ 0.0013717
127 127 1.0000000
ns දි 0.0003666
ns න 0.0001521
ns ධා 0.0072993
ns ලි 0.0002615
ns වී 0.0023659
ns පු 0.0002509
ns න් 0.0003694
ns ධෘ 0.2500000
ns පා 0.0002884
yrco ආ 0.0018315
yrco සී. 0.0384615
yrco යි. 0.0769231
yrco ර්. 0.0500000
a2 2 0.0100000
tp ඩ 0.0001017
tp ක 0.0000836
dk කො 0.0003082
dk ට් 0.0008306
dk ටා 0.0037594
238 වා 0.0010823
238 ක් 0.0009066
238 166 0.5000000
238 ද 0.0001925
238 238 0.4000000
537 ං 0.0005155
537 වා 0.0005411
537 ක් 0.0004533
537 480/20/9537 1.0000000
537 ද 0.0000963
537 ක 0.0000836
b9 බී9 1.0000000
mb ඹෑ 0.0147059
sm ප් 0.0013004
sm මා 0.0006395
sm ස් 0.0007294
e20,40,60 ක් 0.0004533
e20,40,60 ක 0.0000836
e20,40,60 අ 0.0003374
e20,40,60 20,40,60 1.0000000
e20,40,60 ර 0.0000487
er ක් 0.0004533
er තො 0.0011628
er ල 0.0000398
er ර 0.0000487
er ම 0.0000446
er පා 0.0001442
a03 ය 0.0000669
a03 03 0.0222222
a03 ව 0.0000705
a03 යා 0.0003066
21 21 0.6000000
533 අ 0.0003374
mtvt වි 0.0002496
mtvt MTV 0.5000000
05, ග. 0.1481481
05, ු 0.0069204
05, වු 0.0018067
05, කු. 0.2857143
05, ඉ 0.0023557
05, 05 0.0493827
m.w.k.s. එ 0.0031447
m.w.k.s. බ්. 0.0588235
m.w.k.s. ස්. 0.0333333
m.w.k.s. ම්. 0.0454545
m.w.k.s. කේ. 0.0909091
ue ඇ 0.0009615
ue බූ 0.0277778
85 85 1.0000000
85 පෙ 0.0007386
85 ස 0.0002486
85 දෙ 0.0002922
13 ක 0.0000836
13 13 0.5555556
13 වැ 0.0002535
19 ක 0.0001672
19 ‍ 0.0625000
19 19 0.4000000
19 ම 0.0000891
19 වැ 0.0002535
19 නි 0.0006325
19 ටු 0.0008288
19 ප 0.0003997
19 වෙ 0.0003634
532 ඉ 0.0011779
532 ක 0.0000836
532 සි 0.0004924
532 ට 0.0002806
532 532 0.5000000
nb බ 0.0003694
nb සී 0.0041667
nb න් 0.0001231
nb NULL 0.0000447
rj තූ 0.0270270
rj හ 0.0001124
rj ර් 0.0007003
rj යා 0.0003066
o1,2,3 ක1.2.3. 0.3333333
588 588 0.1666667
588 ඒ 0.0056497
a/t ත 0.0000506
a/t ද/ 0.2500000
y.r.c. යි. 0.0769231
y.r.c. ර්. 0.0500000
y.r.c. ව 0.0000353
y.r.c. සී. 0.0384615
y.r.c. ආ 0.0018315
135/1 ද 0.0000963
135/1 135/113596 0.5000000
i1 යි1 1.0000000
i1 තෛ1 0.5000000
/410 /410 0.2500000
fe ඇ 0.0019231
eb.o.p.649 දෛ 0.1428571
eb.o.p.649 පී 0.0054348
eb.o.p.649 ම් 0.0002939
eb.o.p.649 ස 0.0002486
eb.o.p.649 පෙ 0.0007386
eb.o.p.649 බී 0.0112360
eb.o.p.649 649 1.0000000
ac ජ 0.0058021
ac NULL 0.0000894
ac වු 0.0009033
ac කො 0.0006163
dc ජ 0.0005802
dc ඩ් 0.0016129
ud ඩු 0.0004266
r.e. R.E. 1.0000000
al ව 0.0000353
al ලේ 0.0005152
al ත 0.0000506
al ල් 0.0001195
ab2 බී 0.0112360
ab2 2 0.0050000
k.m කේ. 0.0909091
k.m ම්. 0.0454545
k.m එ 0.0015723
or පා 0.0002884
or ඔ 0.0027435
01 වු 0.0009033
01 ර 0.0000975
01 පෙ 0.0007386
01 ශ 0.0058480
01 ය 0.0001337
01 ස 0.0002486
01 1 0.0169492
01 02 0.0067568
01 9 0.0322581
01 ඒ 0.0169492
01 ං 0.0010309
01 ු 0.0034602
01 දෙ 0.0002922
01 ර් 0.0007003
01 ආ 0.0018315
01 01 0.4444444
01 යා 0.0003066
01 අ 0.0010121
01 ක01 0.5000000
01 ක 0.0010033
y02 ය02 1.0000000
f. ණ 0.0006803
f. මි 0.0006596
f. තු 0.0003086
f. කි 0.0005546
a02 ව 0.0000705
a02 ලා 0.0004840
a02 02 0.0270270
a02 ක 0.0000836
a02 ය 0.0000669
a02 ප 0.0001998
te ප් 0.0013004
te යේ 0.0048309
te ටො 0.0333333
te ජ 0.0002901
u18 ව18 1.0000000
u18 තු 0.0003086
r13 ර්13 0.5000000
dt ඩ් 0.0008065
c.w. C.W. 1.0000000
171 භූ 0.0192308
u10 ව10 1.0000000
u10 තු 0.0003086
:05 ක 0.0000836
:05 05 0.0123457
mahamederiya ම 0.0000446
mahamederiya ය 0.0000669
mahamederiya හ 0.0001124
mahamederiya දේ 0.0016287
mahamederiya මෙ 0.0056497
mahamederiya රි 0.0002310
alugolla අ 0.0003374
alugolla ගො 0.0001348
alugolla ල් 0.0001195
alugolla ලු 0.0005618
t,n ද්‍ 0.0108696
t,n ර‍ 0.1250000
54 ං 0.0005155
54 4354 0.1666667
54 අ 0.0003374
54 ක 0.0000836
' ත 0.0000506
08 න 0.0000760
08 යා 0.0003066
08 08 0.5600000
08 ප 0.0001998
08 ය 0.0002006
08 ජ 0.0002901
li ල් 0.0001195
li ඉ 0.0011779
kw ක් 0.0004533
kw ව 0.0000353
kw රී 0.0026385
l11 දෙ 0.0002922
l11 11 0.0133333
l11 ල් 0.0001195
l11 ස 0.0002486
l11 පෙ 0.0007386
t'j ඩි 0.0004052
t'j ජෝ 0.0094340
t'j න් 0.0002463
r14 ර්14 0.5000000
kf ත් 0.0001072
kf ව 0.0000353
kf ල් 0.0001195
i06 නෛ06 0.3333333
d' සේ 0.0025641
d' එ 0.0015723
d' ස්. 0.0333333
d' ඩී. 0.0344828
t.w න් 0.0002463
t.w සෙ 0.0020661
t.w ත 0.0001012
t.w ශා 0.0081301
t.w වි 0.0004991
b.d.05 ඩී. 0.0344828
b.d.05 බී. 0.2000000
b.d.05 05 0.0123457
w1 ප 0.0001998
w1 ටු 0.0004144
w1 තේ 0.0019084
w1 ව 0.0001058
w1 1 0.0084746
a,m මො 0.0013717
a,m ල, 0.1250000
a,m ටෑ 0.0500000
a,m මැ 0.0005476
a,m ම, 0.1000000
a,m මී 0.0011561
mhs නි 0.0009488
mhs වා 0.0016234
mhs ර් 0.0021008
mhs ම් 0.0008816
mhs ස 0.0014918
mhs ණ 0.0020408
mhs ං 0.0015464
mhs කී 0.0087977
15/9 ද 0.0000963
15/9 3/115/9 1.0000000
15/9 වා 0.0005411
15/9 ක් 0.0004533
o1 ක 0.0000836
o1 නා 0.0003534
o1 ම 0.0000446
o1 ෙ 0.0192308
o1 ප 0.0001998
o1 1 0.0127119
o1 01 0.0079365
o1 ටු 0.0004144
a,s සො 0.0090090
a,s ද, 0.5000000
i වී. 0.6250000
i ජ් 0.0208333
i 111 0.1333333
i 27 0.2500000
i ථා 0.0571429
i ධා 0.1459854
i 02 0.1486486
i ස් 0.0036470
i ලේ 0.0103040
i ෆු 0.1428571
i හා 0.0019048
i iii 1.0000000
i රි 0.4728575
i දු 0.0022506
i රේ 0.0089928
i කේ. 0.1818182
i ණෛ 0.3513514
i ත 0.0029357
i ච 0.0088496
i ටිෙ 0.5000000
i ධී 0.1475410
i පෘ 0.3125000
i දො 0.0012531
i NULL 0.0829347
i ෂ 0.0611111
i ඳි 0.3559322
i ෙෙ 0.3333333
i මෛ 0.3061224
i ගො 0.0002697
i නී 0.0751445
i ෆ්. 0.2500000
i ඡි 0.5000000
i මූ 0.0052356
i ශ 0.0409357
i පෙ 0.0014771
i 11 0.0266667
i ජි 0.4000000
i වෙ 0.0014535
i වු 0.0063234
i චි 0.3157182
i ඕ. 0.1666667
i මI 0.3333333
i ණෙ 0.0370370
i බ 0.0011082
i ඬි 0.3478261
i ෂි 0.3055556
i ම 0.0039670
i රිෙ 0.5000000
i නෙ 0.0016155
i 14 0.1153846
i ම05 0.1428571
i මී 0.0393064
i වී 0.0165615
i යා 0.0107296
i න 0.0011404
i චෛ 0.2380952
i ද් 0.0009625
i හ 0.0011236
i ඉ/ 0.2222222
i ි 0.3636364
i ටෙ 0.0180180
i 2 0.0700000
i තෛ 0.2295082
i කො 0.0009245
i මි 0.4340369
i භා 0.0454545
i ඩෙ 0.0267380
i ටී 0.0909091
i ණී 0.4000000
i චේ 0.0089286
i ච් 0.0247934
i ති 0.3236624
i 1 0.0635593
i ව 0.0011639
i කේ 0.0025707
i ය514 0.3333333
i ළි 0.4780702
i ඒ 0.1186441
i බා 0.0098765
i ති‍ 0.3333333
i ඹේ 0.0027100
i තෙ 0.0037594
i 01 0.1666667
i නි 0.4095509
i භි 0.2500000
i හී 0.0670927
i ක 0.0010870
i ඪී 0.3333333
i ය3 0.4285714
i ම08 0.1428571
i 1&11 0.3333333
i 04 0.1250000
i B 0.1428571
i ටෛ් 0.5000000
i ස 0.0032322
i I 0.1000000
i ටේ 0.0040650
i ඩ 0.0006101
i ඹී 0.3333333
i ය් 0.4285714
i ලු 0.0011236
i ගෙ 0.0009149
i ඊ. 0.2222222
i ං 0.0005155
i රෝ 0.0642202
i බි 0.4750462
i යේ 0.0096618
i ධි 0.3727273
i නෛ 0.3142857
i කු 0.0014684
i පෛ 0.3250000
i කා 0.0021231
i තො 0.0023256
i සි 0.4618415
i ඹි 0.3343750
i 38 0.0909091
i පී 0.0815217
i එ 0.0031447
i ඉ 0.8386337
i 6 0.0735294
i ළෛ 0.1282051
i කෛ 0.2615385
i ලෛ 0.2966361
i දෛ 0.1428571
i ගි 0.4721485
i 15 0.0909091
i චී 0.1724138
i ඩී. 0.0344828
i ප් 0.0052016
i ජී 0.0555556
i ශි 0.3333333
i සෛ 0.1428571
i නු 0.0012361
i හි 0.4605556
i 3rd 0.2000000
i ෛ 1.0000000
i 12 0.0566038
i පෞ 0.1600000
i යI 0.5000000
i දි 0.3416422
i මෙ 0.0112994
i ටෛ 0.4565217
i 03 0.1703704
i A 0.0588235
i 32 0.0714286
i බෝ 0.0010428
i පා 0.0073551
i මු 0.0002097
i ලා 0.0004840
i 5 0.0140845
i දී 0.0437710
i ් 0.3333333
i සී 0.0375000
i ලෛ් 0.3750000
i ගී 0.1333333
i ල් 0.0010757
i ට් 0.0066445
i ය 0.0087602
i 13/14 0.1250000
i වා 0.0010823
i ෆී 0.3095238
i ඟි 0.4000000
i ට 0.0058923
i ඔ 0.0068587
i 08 0.0400000
i පි 0.4799795
i වි 0.4512104
i යි 0.7424749
i රෛ 0.3208955
i සෑ 0.0625000
i ළී 0.0909091
i ඩූ 0.1428571
i හ් 0.0689655
i ඩි 0.3407618
i ර්. 0.1000000
i ශෛ 0.3333333
i ර් 0.0189076
i ය4 0.4285714
i ටි 0.4885145
i ග 0.0001732
i ළු 0.0005931
i ලි 0.4508368
i ම03 0.1666667
i 09 0.0344828
i ලී 0.1807910
i මා 0.0012790
i ග/ 0.2000000
i සි. 0.3750000
i උ 0.0036878
i ඊ 0.1923077
i ඨා 0.2871287
i තී 0.1386139
i ඕ 0.0252101
i i 0.5000000
i ඩ් 0.0701613
i පු 0.0005019
i සේ 0.0025641
i රී 0.3430079
i ම07 0.1428571
i ඛි 0.5000000
i ල 0.0011152
i ද 0.0007700
i කී 0.0351906
i ළ 0.0160494
i යූ 0.0263158
i පැ 0.0011820
i ගෛ 0.3333333
i වු7 0.2500000
i ත්‍ 0.0344828
i ක් 0.0054397
i ඩෛ 0.3950178
i බී 0.0112360
i ඩෲ 0.1666667
i ධෘ 0.2500000
i රු 0.0031387
i 7 0.0277778
i ප 0.0009992
i 50 0.1891892
i ජේ 0.0256410
i ර 0.0013159
i න් 0.0017239
i ම් 0.0008816
i බ් 0.0088496
i මේ 0.0370370
i කි 0.4714365
i 40 0.0714286
i බෛ 0.1666667
i ඇ 0.0028846
i ඩේ 0.0666667
i ු 0.0622837
i දෙ 0.0032145
i ඤ් 0.0566038
i 69 0.3333333
i නේ 0.0734536
i 9 0.0645161
i වෛ 0.3146067
i ඩී 0.2515337
i යෙ 0.1351351
i ග් 0.0589744
i 4 0.1308411
i මැ 0.0076670
i වැ 0.0017744
i කෙ 0.0020080
i හෛ 0.2000000
i ෆි 0.4285714
i ණි 0.4424704
i අ 0.0060729
i 71 0.3333333
i 03, 0.3333333
i ව් 0.0566502
i ෙ 0.0384615
120/2 120/2 0.2500000
65 ද 0.0000963
65 65 1.0000000
65 0565 0.5000000
65 වා 0.0005411
65 ක් 0.0004533
39 39 0.4285714
ae ඇ 0.0057692
ae ව 0.0006348
15 ම 0.0000891
15 ක 0.0003344
15 වැ 0.0007605
15 නි 0.0009488
15 15 0.4545455
15 ණු 0.0024096
15 ග් 0.0051282
15 ය 0.0001337
15 රා 0.0008522
8,9,10 නො.8,9,10 0.3333333
8,9,10 ඉ 0.0011779
264 ක 0.0000836
264 අ 0.0003374
264 ඉ 0.0011779
264 161247 0.1666667
264 ං 0.0005155
264 තේ 0.0019084
ehed ඩ් 0.0008065
ehed එ 0.0015723
fm සා 0.0017094
fm ෆී 0.0119048
fm යා 0.0003066
fm නි 0.0003163
fm ම 0.0000446
