\data\
ngram 1=270
ngram 2=6887
ngram 3=29977

\1-grams:
-3.6246467	<unk>	0
0	<s>	-2.577798
-1.7187011	</s>	0
-2.673019	அ	-0.21919858
-2.3245175	ஹ்	-0.51408607
-2.0209796	ம	-0.60359615
-1.8225775	த்	-1.2531449
-1.7902797	வை	-0.84906375
-2.0344217	ச	-0.5713724
-1.756603	பி	-0.9299103
-1.8713152	னா	-1.0993596
-1.8101826	வோ	-1.9580411
-2.4834962	உ	-0.33954945
-2.673019	பை	-0.3513945
-1.9710215	து	-0.8879106
-1.7864063	வி	-1.1070462
-2.2742863	ட	-0.54002416
-1.782567	மி	-0.9738772
-2.0553987	ரு	-0.65650207
-2.3245175	ந்	-0.56841373
-1.8267889	க்	-1.0258429
-1.9710215	கா	-0.90075517
-1.7749891	வா	-0.85149604
-1.8061285	ல்	-1.0991682
-2.169438	சீ	-0.68396777
-1.9651623	யா	-0.9414065
-1.7530174	வு	-0.8521981
-2.198323	கு	-0.4849255
-1.771249	ரி	-0.9602249
-1.7787615	ப்	-1.1111867
-2.0015657	ஸா	-1.0008583
-1.715414	ன்	-1.0801337
-2.5919712	றி	-0.39117026
-1.7287143	ஸ்	-1.0630975
-3.0881279	மொ	-0.22454742
-2.1884797	ஹ	-0.46274298
-1.9054439	ட்	-1.1958823
-1.8807957	ம்	-0.97307193
-2.9024146	நி	-0.23641345
-1.8574716	சா	-1.0118862
-1.8267889	ர்	-1.0348574
-2.3967726	கே	-1.2510409
-2.5680003	ஷ	-0.28376207
-2.3380387	ரீ	-0.5240786
-2.3114047	டீ	-1.1411474
-1.7287143	னி	-1.1541115
-2.4467041	ஜ	-0.29127124
-2.2187057	பீ	-0.7092819
-2.0553987	க	-0.57816774
-3.4193728	ந	-0.18639602
-2.0015657	சி	-0.78882456
-2.125194	ன	-0.6246506
-2.1423545	மு	-0.4504918
-2.5680003	டா	-0.7134832
-2.0015657	ஷா	-0.9985201
-1.9593811	லா	-0.94414115
-2.1168616	ர	-0.5370809
-1.9157088	கி	-0.813602
-3.4193728	இ	-0.1871735
-1.7749891	லி	-0.8913257
-2.007941	தீ	-0.7423582
-2.5236962	வீ	-0.51858217
-2.7727437	மை	-0.25205162
-1.9054439	ரா	-0.9604497
-1.9054439	பா	-0.96842587
-1.8267889	தி	-0.85736436
-1.9157088	மா	-0.95211124
-1.9536757	டி	-0.9116425
-2.3813279	ஷ்	-0.59513134
-2.240092	ஜி	-0.474568
-2.125194	த	-0.5521187
-1.8184065	ஸி	-0.89176154
-2.125194	சு	-0.50035065
-2.9559526	லை	-0.24951012
-2.3664136	லெ	-0.525835
-2.4834962	வ்	-0.3121372
-1.9424851	யி	-0.76778144
-2.28631	ச்	-0.4053587
-2.673019	பூ	-0.3026752
-2.7037845	செ	-0.2638381
-2.854758	டு	-0.45150673
-2.2742863	ஷி	-0.5514926
-1.9952826	ப	-0.57690454
-2.0015657	தா	-0.9294869
-2.3967726	ஸீ	-0.56080663
-2.4294145	யோ	-1.0916874
-2.5919712	ற	-0.30003396
-2.9024146	ஆ	-0.25187802
-2.1336894	ஹி	-0.64549947
-2.5236962	ஜ்	-0.58382875
-3.4193728	ஜெ	-0.1888225
-2.2187057	ய்	-0.5525154
-2.0850437	பு	-0.84820205
-2.169438	ய	-0.5716967
-3.497576	ரொ	-0.1816831
-2.1884797	னு	-0.6790506
-2.2742863	ஜா	-0.71567255
-2.2625866	மீ	-0.6297078
-3.4516213	எ	-0.18968028
-2.4294145	லீ	-0.53695136
-2.4834962	லு	-0.386966
-2.7037845	நா	-0.27127495
-2.3519945	று	-0.5213092
-2.854758	ள்	-0.62399375
-3.0170312	ளா	-0.44917825
-1.9480444	ஹா	-0.94196826
-2.5452836	னூ	-0.39741284
-2.9559526	கை	-0.2477922
-3.4516213	ண	-0.1816831
-2.1884797	ல	-0.5693792
-3.497576	ஆஃ	-0.1816831
-2.7727437	மூ	-0.3167372
-2.7727437	பெ	-0.26229838
-2.7727437	ள	-0.23678268
-2.3664136	ஸ	-0.39990774
-2.2742863	கீ	-0.68101555
-2.8118176	கெ	-0.39875138
-3.4193728	நூ	-0.20806937
-2.2742863	ஹு	-0.4486829
-3.0881279	லோ	-0.1816831
-3.0881279	ரொ	-0.20212527
-2.198323	வ	-0.3814408
-2.4834962	சூ	-0.564113
-3.0170312	ஹை	-0.23468965
-2.673019	சை	-0.34970304
-3.497576	பௌ	-0.1816831
-2.4467041	யை	-1.148474
-3.0170312	ஈ	-0.20613053
-2.854758	தூ	-0.3143305
-3.2790637	ஹொ	-0.19708054
-3.4516213	நு	-0.18660513
-2.854758	மே	-0.26812434
-2.3245175	றா	-0.77578413
-2.7727437	பே	-0.45589402
-2.6442893	ரோ	-0.49206218
-2.3967726	ஜீ	-0.4363683
-2.7037845	ஜு	-0.33006293
-2.5680003	னீ	-0.53324336
-2.8118176	னை	-0.259916
-3.4193728	ழா	-0.1816831
-2.854758	னோ	-0.35789347
-2.854758	யூ	-0.31964108
-3.4193728	ஒ	-0.19292091
-2.8118176	வூ	-0.26122102
-3.4516213	ஞ	-0.1816831
-2.9024146	சே	-0.23374078
-3.497576	நௌ	-0.1816831
-3.4516213	ஷை	-0.27404618
-3.2790637	ழ்	-0.21630834
-3.497576	றெ	-0.1816831
-3.0170312	தெ	-0.22271588
-3.0881279	னே	-0.1816831
-2.854758	ணி	-0.40339231
-2.298676	யு	-0.46518165
-3.4516213	கோ	-0.1816831
-2.5031312	றூ	-0.47428167
-3.0170312	ஸு	-0.1816831
-3.4516213	ஸே	-0.27404618
-3.2790637	சோ	-0.24684697
-3.4516213	ஊ	-0.1816831
-2.7727437	கூ	-0.45623606
-2.617343	லே	-0.729173
-3.173186	டொ	-0.21034232
-3.497576	மௌ	-0.1816831
-2.8118176	ஜூ	-0.2755446
-2.673019	ங்	-0.26964918
-3.0170312	ரை	-0.21630834
-2.854758	வே	-0.3779835
-3.2790637	ரெ	-0.18897903
-3.0881279	வெ	-0.19865076
-3.2790637	ஹே	-0.20299828
-2.854758	மெ	-0.21230364
-3.2790637	நெ	-0.23636377
-3.2790637	நீ	-0.1816831
-3.173186	தை	-0.26923266
-2.3664136	ரூ	-0.6008115
-3.497576	ஞா	-0.1816831
-3.4193728	ஜே	-0.1816831
-3.4516213	ஐ	-0.1816831
-2.9559526	கொ	-0.25691313
-3.2790637	தே	-0.21630834
-2.854758	ஷீ	-0.3240088
-3.4516213	சௌ	-0.1816831
-2.3967726	ஹீ	-0.58903927
-3.0170312	யீ	-0.19373478
-3.497576	அ‍‌‍	-0.1816831
-2.9559526	ண்	-0.3570057
-3.497576	ஏ	-0.1816831
-3.0881279	ஹெ	-0.1816831
-2.9559526	ஷு	-0.25878474
-3.4516213	ஷெ	-0.1816831
-3.4193728	தௌ	-0.22541386
-3.4516213	நோ	-0.21034232
-3.497576	ஜொ	-0.1816831
-3.173186	றோ	-0.35400063
-3.497576	ஸோ	-0.1816831
-3.497576	றொ	-0.1816831
-3.497576	கௌ	-0.1816831
-3.4516213	ஸெ	-0.1816831
-3.497576	ஜௌ	-0.1816831
-3.497576	மோ	-0.1816831
-3.497576	ஜோ	-0.1816831
-3.497576	ழ	-0.1816831
-3.2790637	னெ	-0.1816831
-3.497576	சொ	-0.1816831
-3.2790637	ஞ்	-0.21034232
-3.497576	ஷூ	-0.1816831
-3.4516213	ஸூ	-0.1816831
-3.4516213	ளை	-0.1816831
-3.0881279	றீ	-0.22961667
-3.4193728	ழீ	-0.1816831
-3.0170312	ரே	-0.19102761
-3.4516213	டே	-0.1816831
-3.4193728	ளீ	-0.21034232
-3.497576	ஞெ	-0.1816831
-3.4516213	டோ	-0.1816831
-3.0881279	ணா	-0.42075214
-3.4193728	யே	-0.22541386
-3.4516213	ஸை	-0.1816831
-3.497576	நொ	-0.1816831
-3.4193728	யெ	-0.1816831
-3.497576	கʰ	-0.1816831
-3.4516213	ஷே	-0.22541386
-3.0881279	லூ	-0.21889046
-3.497576	ஜஃ	-0.1816831
-3.4193728	டெ	-0.1816831
-3.4516213	நை	-0.1816831
-3.4193728	பொ	-0.1816831
-3.497576	ஹோ	-0.1816831
-3.173186	போ	-0.1816831
-2.854758	ளி	-0.43363303
-3.4193728	ஹூ	-0.1816831
-3.4516213	ளு	-0.1816831
-3.4516213	றை	-0.20613056
-3.4516213	ணே	-0.1816831
-3.497576	மஃ	-0.1816831
-3.4516213	ஷோ	-0.1816831
-3.4516213	தொ	-0.1816831
-3.497576	ஓ	-0.1816831
-3.497576	ஜெஃ	-0.1816831
-3.497576	வொ	-0.1816831
-3.173186	ற்	-0.31154668
-3.497576	நாஃ	-0.1816831
-3.497576	இஃ	-0.1816831
-3.4516213	ணு	-0.26478925
-3.497576	ஜொ	-0.1816831
-3.4516213	ணீ	-0.1816831
-3.4193728	ழி	-0.1816831
-3.497576	ரௌ	-0.1816831
-3.4516213	லொ	-0.1816831
-3.497576	ளே	-0.1816831
-3.497576	ஜை	-0.1816831
-3.497576	நஃ	-0.1816831
-3.4516213	டூ	-0.1816831
-3.497576	ஸௌ	-0.1816831
-3.497576	ஞை	-0.1816831
-3.497576	ஷஃ	-0.1816831
-3.497576	டை	-0.1816831
-3.497576	ன்​	-0.1816831
-3.4193728	தோ	-0.1816831
-3.497576	றஃ	-0.1816831
-3.497576	ரஃ	-0.1816831
-3.497576	மிஃ	-0.1816831
-3.497576	ஜோ‍	-0.1816831
-3.4193728	றே	-0.1816831
-3.4516213	னொ	-0.1816831
-3.497576	அஃ	-0.1816831
-3.497576	முஃ	-0.1816831
-3.497576	.	-0.1816831
-3.497576	ஙி	-0.1816831

\2-grams:
-1.1388657	ஹ் </s>	0
-1.9744523	ம </s>	0
-0.91194105	த் </s>	0
-0.128007	வை </s>	0
-1.7492346	ச </s>	0
-1.401335	பி </s>	0
-0.9110212	னா </s>	0
-0.30782288	வோ </s>	0
-1.4862729	பை </s>	0
-1.0309211	து </s>	0
-1.7261835	வி </s>	0
-1.3621783	ட </s>	0
-1.38677	மி </s>	0
-1.6329149	ரு </s>	0
-1.9304403	ந் </s>	0
-0.974124	க் </s>	0
-1.0451162	கா </s>	0
-1.4225808	வா </s>	0
-0.92934996	ல் </s>	0
-2.2542043	சீ </s>	0
-1.0933436	யா </s>	0
-1.7436724	வு </s>	0
-1.441192	கு </s>	0
-1.4739588	ரி </s>	0
-0.9583312	ப் </s>	0
-1.0742242	ஸா </s>	0
-0.8767676	ன் </s>	0
-1.3630555	றி </s>	0
-1.0600414	ஸ் </s>	0
-1.7161214	ஹ </s>	0
-0.8343359	ட் </s>	0
-1.0004575	ம் </s>	0
-1.1148463	சா </s>	0
-0.9506298	ர் </s>	0
-0.8106079	கே </s>	0
-1.8438662	ஷ </s>	0
-1.9048043	ரீ </s>	0
-1.2583238	னி </s>	0
-1.5246912	பீ </s>	0
-1.7629545	க </s>	0
-1.4378918	சி </s>	0
-1.3179183	ன </s>	0
-1.9383911	மு </s>	0
-0.8681976	டா </s>	0
-1.066814	ஷா </s>	0
-0.9869446	லா </s>	0
-1.2827848	ர </s>	0
-1.4107989	கி </s>	0
-1.3982636	லி </s>	0
-1.9203244	தீ </s>	0
-1.3057649	வீ </s>	0
-1.4746522	மை </s>	0
-0.9911391	ரா </s>	0
-1.0518456	பா </s>	0
-1.5239296	தி </s>	0
-1.0341406	மா </s>	0
-1.5765754	டி </s>	0
-1.0419831	ஷ் </s>	0
-1.7203493	ஜி </s>	0
-1.664684	த </s>	0
-1.8971511	ஸி </s>	0
-1.7139913	சு </s>	0
-1.6969547	லெ </s>	0
-1.7077633	வ் </s>	0
-1.5222588	யி </s>	0
-1.5390713	ச் </s>	0
-1.4901733	பூ </s>	0
-1.8049405	செ </s>	0
-0.79772574	டு </s>	0
-1.397625	ஷி </s>	0
-1.8052474	ப </s>	0
-0.98679304	தா </s>	0
-0.33647105	யோ </s>	0
-1.8438791	ற </s>	0
-1.5507209	ஹி </s>	0
-0.9557685	ஜ் </s>	0
-1.2451022	ய் </s>	0
-1.0056032	பு </s>	0
-1.6857371	ய </s>	0
-1.2529202	னு </s>	0
-1.2518457	ஜா </s>	0
-2.007393	மீ </s>	0
-2.0719836	லீ </s>	0
-1.880022	லு </s>	0
-1.3833214	று </s>	0
-1.0325884	ள் </s>	0
-1.049937	ளா </s>	0
-1.2051265	ஹா </s>	0
-1.8388957	னூ </s>	0
-1.3847078	ல </s>	0
-1.4919789	பெ </s>	0
-1.7838993	கீ </s>	0
-1.3461484	கெ </s>	0
-1.8235818	ஹு </s>	0
-1.8065423	வ </s>	0
-1.8625686	சை </s>	0
-0.0378014	யை </s>	0
-1.550232	ஈ </s>	0
-1.3591919	மே </s>	0
-0.95186836	றா </s>	0
-1.3605884	பே </s>	0
-1.6463845	ரோ </s>	0
-1.9917289	ஜீ </s>	0
-1.8400776	ஜு </s>	0
-1.2483137	னீ </s>	0
-1.2571894	ஞ </s>	0
-1.7054493	சே </s>	0
-1.5009501	தெ </s>	0
-1.3599511	னே </s>	0
-1.1780729	ணி </s>	0
-1.5276645	ஸு </s>	0
-0.85321367	லே </s>	0
-1.5997134	ங் </s>	0
-1.7205164	வே </s>	0
-1.5347766	வெ </s>	0
-1.6732956	மெ </s>	0
-1.2608373	தை </s>	0
-1.3865108	ஜே </s>	0
-1.463378	தே </s>	0
-1.0613866	ண் </s>	0
-1.2117215	ஏ </s>	0
-1.504418	ரே </s>	0
-1.3300853	டோ </s>	0
-1.0137901	ணா </s>	0
-1.3994434	யே </s>	0
-1.4318354	நை </s>	0
-1.0917803	ணே </s>	0
-1.1686374	ற் </s>	0
-1.3823096	ணு </s>	0
-1.1576709	ளே </s>	0
-1.1576709	ஞை </s>	0
-1.1576709	ன்​ </s>	0
-1.0115796	<s> அ	-1.7295855
-3.1768444	த் அ	-0.7527268
-3.0705924	க் அ	-0.64358234
-3.1845007	ல் அ	-0.72790325
-2.5540183	கு அ	-0.64358234
-3.23574	ன் அ	-0.7527268
-3.2602437	ஸ் அ	-0.64358234
-3.2075474	ர் அ	-0.57663554
-2.6041827	மு அ	-0.91242766
-2.9861627	லி அ	-0.6113977
-3.033897	மா அ	-0.7527268
-2.6485403	சு அ	-0.7984843
-2.3195288	வ் அ	-0.9446123
-2.3595412	ஸ அ	-0.65824825
-2.6344151	றா அ	-0.70157427
-2.232232	அ ஹ்	-0.9411518
-2.6494234	ம ஹ்	-0.90985024
-2.6219487	ச ஹ்	-1.0178442
-3.0207675	னா ஹ்	-0.28606266
-2.8686643	து ஹ்	-0.70157427
-2.917441	மி ஹ்	-0.7984843
-2.8443189	கா ஹ்	-0.14060621
-2.0684097	நி ஹ்	-0.68309087
-2.7479918	சா ஹ்	-0.26438886
-2.2309656	ஜ ஹ்	-0.7527268
-2.6118078	பீ ஹ்	-0.25990868
-2.102441	ந ஹ்	-0.70157427
-2.4667227	மு ஹ்	-0.68309087
-2.5702188	லா ஹ்	-0.92342305
-2.5660784	ர ஹ்	-1.1786956
-2.061351	இ ஹ்	-0.826513
-2.5705507	லி ஹ்	-0.2021559
-2.410537	ரா ஹ்	-0.35928833
-2.4443357	பா ஹ்	-0.48158097
-2.8196924	தி ஹ்	-0.2342989
-2.4867916	த ஹ்	-0.72790325
-2.5125659	சு ஹ்	-0.7527268
-2.1057081	செ ஹ்	-0.7527268
-2.60004	ப ஹ்	-1.289846
-2.5826786	தா ஹ்	-0.25507358
-2.1474037	ற ஹ்	-0.9745756
-1.9854677	ஜெ ஹ்	-0.64358234
-2.5075307	ய ஹ்	-0.7527268
-1.9411436	ளா ஹ்	-0.19941145
-2.266763	ஸ ஹ்	-0.839877
-1.881501	நு ஹ்	-0.7984843
-1.6944218	ஸு ஹ்	-0.7527268
-1.746442	ரெ ஹ்	-0.7984843
-1.4554908	<s> ம	-1.4089402
-2.0579507	அ ம	-0.56675875
-1.7678254	ஹ் ம	-0.8461439
-2.464026	ம ம	-0.59377897
-2.6926343	த் ம	-0.92881805
-1.8169316	ச ம	-0.81094724
-1.4943488	உ ம	-1.1919439
-2.7047899	து ம	-0.57663554
-1.9922843	க் ம	-0.65776813
-2.6807206	ல் ம	-0.67595905
-2.1946847	சீ ம	-0.40473664
-2.7404451	யா ம	-0.7527268
-1.8336928	கு ம	-0.8968202
-2.7835443	ரி ம	-0.839877
-2.9219549	ன் ம	-0.579492
-2.091957	றி ம	-0.7527268
-1.9861729	ஸ் ம	-1.0832379
-1.4753773	ஹ ம	-1.7372864
-1.9433258	ம் ம	-2.074679
-2.8503683	சா ம	-0.62374216
-2.6902604	ர் ம	-0.9745756
-2.0795834	ஜ ம	-1.0026042
-1.5616043	க ம	-1.2380121
-2.6003606	சி ம	-0.7527268
-2.3540823	ன ம	-0.4974543
-2.4901106	லா ம	-0.5491038
-1.8517464	ர ம	-0.839877
-1.9282459	இ ம	-0.64358234
-2.702579	லி ம	-0.64358234
-2.565763	ரா ம	-0.7728691
-2.6615255	தி ம	-0.8953943
-1.9763919	ஷ் ம	-0.40411952
-2.2604878	ஜி ம	-0.5179175
-1.9324186	சு ம	-0.7728691
-1.6133833	லை ம	-0.57663554
-2.117384	ச் ம	-0.50174594
-1.852253	டு ம	-0.40758085
-2.2419517	ஷி ம	-0.7040057
-2.4223933	ப ம	-0.7527268
-1.9496484	ஆ ம	-0.45446038
-2.2258904	ஹி ம	-0.47034743
-2.1834924	ஜ் ம	-0.37680718
-1.8715225	ஜெ ம	-0.59377897
-2.357281	ய ம	-0.70157427
-1.7246144	லீ ம	-0.5160985
-2.7444203	ஹா ம	-0.6070957
-2.1355789	ஸ ம	-0.40483588
-2.3716004	கீ ம	-0.29657352
-1.5425396	ஹு ம	-0.9438576
-2.169983	வ ம	-0.64358234
-2.025082	சை ம	-0.7984843
-1.430264	ஹொ ம	-1.2727005
-2.0425696	ரோ ம	-0.7527268
-1.7088258	ஜு ம	-0.5283394
-1.1642845	ஒ ம	-0.82181406
-1.1298136	ழ் ம	-0.7527268
-1.8141674	மெ ம	-0.40483588
-1.6694796	தை ம	-0.7527268
-1.4589263	ஜே ம	-0.7040057
-1.500716	கொ ம	-0.5206251
-1.354031	ஹெ ம	-0.64787394
-1.2017117	நோ ம	-0.7040057
-0.4582547	ஹோ ம	-0.6156893
-1.2614954	றை ம	-0.50174594
-0.9200051	ஓ ம	-0.9592782
-0.9200051	றஃ ம	-0.7527268
-3.840821	<s> த்	-0.7984843
-1.7621421	அ த்	-0.8557243
-1.0294485	ம த்	-1.6130648
-2.0547838	வை த்	-0.8591821
-1.4397204	ச த்	-0.8953943
-2.2747042	பி த்	-0.31262186
-2.5567129	னா த்	-0.5244026
-1.6851283	உ த்	-1.0537568
-1.9553769	பை த்	-0.44008172
-2.4008372	து த்	-0.5343917
-2.2288046	வி த்	-0.3191935
-1.9323806	மி த்	-0.7595662
-1.7332376	ரு த்	-0.5113929
-1.6563447	ந் த்	-0.43560955
-2.0487862	கா த்	-0.41823143
-1.511876	வா த்	-0.9598523
-1.5105976	சீ த்	-0.8715914
-1.5356516	யா த்	-1.300228
-1.7576475	வு த்	-0.83500487
-1.4574581	கு த்	-0.7746386
-1.8612179	ரி த்	-0.92881805
-2.7831445	ப் த்	-0.7527268
-1.6116741	ஸா த்	-1.0995142
-1.985753	றி த்	-0.2342989
-2.778124	ஸ் த்	-0.64358234
-1.6534381	ஹ த்	-0.59683895
-2.757482	ட் த்	-0.41284013
-1.6469812	சா த்	-1.3964536
-2.4290366	ர் த்	-0.40197015
-1.7027464	ஷ த்	-0.5456727
-1.949449	ரீ த்	-0.622393
-2.7657087	னி த்	-0.7984843
-1.5734152	ஜ த்	-0.70157427
-2.350861	பீ த்	-0.26461127
-1.3386861	க த்	-0.7762079
-1.5623071	சி த்	-1.3169982
-1.1399943	ன த்	-1.2226397
-1.2177331	மு த்	-1.1979762
-2.1267684	டா த்	-0.21387343
-1.4806993	ஷா த்	-1.3831385
-2.2191315	லா த்	-0.33744547
-1.2305638	ர த்	-1.0266045
-2.289156	கி த்	-0.22994545
-1.8129795	இ த்	-0.88956475
-2.0789933	லி த்	-0.72790325
-2.0115113	வீ த்	-0.2021559
-1.7757457	மை த்	-0.26461127
-2.6459646	ரா த்	-0.3020608
-1.6757829	பா த்	-1.5594091
-2.126163	மா த்	-0.4045146
-2.1886106	டி த்	-0.20071591
-1.2369875	ஜி த்	-0.9662235
-2.0652807	ஸி த்	-0.551812
-1.7438731	சு த்	-0.73702997
-2.0113246	லெ த்	-0.91242766
-1.9838575	யி த்	-0.622393
-1.8004456	பூ த்	-0.7984843
-1.7957921	டு த்	-0.7527268
-1.6771615	ஷி த்	-0.5885348
-1.4360398	ப த்	-0.9218692
-1.9870865	தா த்	-0.7527268
-1.6790172	ஸீ த்	-0.38348672
-1.3226789	ற த்	-0.4484239
-1.2357124	ஆ த்	-0.63052166
-1.4520459	ஹி த்	-0.9548315
-1.5732797	பு த்	-1.0589447
-1.2038455	ய த்	-1.2522393
-1.808764	னு த்	-1.1964242
-1.341056	ஜா த்	-0.9745755
-1.6990063	மீ த்	-0.78366256
-1.6891849	லீ த்	-0.38348672
-1.9387727	லு த்	-1.0289333
-1.6616111	று த்	-0.8124676
-1.9247952	ஹா த்	-0.6331169
-1.3964049	ல த்	-0.9477034
-1.4483511	மூ த்	-0.38491726
-1.6699103	ள த்	-0.91242766
-1.5952736	ஸ த்	-0.5409875
-2.2675893	கீ த்	-0.21387343
-1.6602722	ஹு த்	-0.8992417
-1.635983	ரொ த்	-0.28606266
-1.5246954	வ த்	-0.66378576
-2.0428963	சூ த்	-0.2887971
-1.9242651	சை த்	-0.9446123
-1.5910906	ஈ த்	-0.18805309
-1.6544363	தூ த்	-0.18805304
-1.391091	ஹொ த்	-0.16665468
-1.7023369	நு த்	-0.64358234
-2.3481305	றா த்	-0.26461127
-1.3789324	ஜீ த்	-0.86852217
-1.9013406	ஜு த்	-0.22994545
-1.679198	னை த்	-0.18805309
-1.6797131	வூ த்	-0.6331169
-1.6774127	யு த்	-0.839877
-1.9093219	றூ த்	-0.26461127
-1.6751777	ஜூ த்	-0.28629294
-1.4531444	மெ த்	-0.47443444
-1.6817319	ஷீ த்	-0.22994545
-1.4967952	ஹீ த்	-0.622393
-1.4678818	யீ த்	-0.21387343
-1.5278586	ஷு த்	-0.3431243
-1.1747077	னெ த்	-0.21387343
-0.7427213	ளை த்	-1.0772378
-1.2787242	யெ த்	-0.21387343
-3.2525055	<s> வை	-1.1506668
-1.1442143	ஹ் வை	-1.2134577
-1.716716	ம வை	-0.57663554
-0.8903671	த் வை	-2.441937
-1.6924403	ச வை	-0.57663554
-2.5937264	பி வை	-0.64358234
-0.92396337	னா வை	-2.3523674
-1.9050609	உ வை	-1.0922151
-1.0641992	து வை	-2.1545103
-1.2537271	ட வை	-0.7984843
-1.5163057	ரு வை	-0.7984843
-1.9604834	ந் வை	-0.41284013
-1.0076185	க் வை	-2.140907
-1.0712045	கா வை	-1.6792979
-1.4273039	வா வை	-1.3425524
-0.9517102	ல் வை	-2.4005442
-2.3038166	சீ வை	-0.41284013
-1.0619295	யா வை	-2.2533293
-1.7536085	வு வை	-1.0537568
-1.4527482	கு வை	-0.9745756
-0.95921916	ப் வை	-1.4541029
-1.0373843	ஸா வை	-1.6245592
-0.8933492	ன் வை	-2.9693325
-1.035342	ஸ் வை	-2.4478192
-1.6456819	ஹ வை	-0.57663554
-0.8417973	ட் வை	-2.2456424
-0.9952744	ம் வை	-2.328684
-1.0779865	சா வை	-1.8848441
-0.95651764	ர் வை	-2.646057
-0.84723353	கே வை	-1.4974543
-1.8922684	ஷ வை	-0.41284013
-1.9362183	ரீ வை	-0.27560553
-1.6044388	பீ வை	-0.8776655
-1.7826972	க வை	-0.64358234
-1.2697598	ன வை	-0.7527268
-1.8153737	மு வை	-0.27560553
-1.0885109	டா வை	-0.7527268
-1.0920318	ஷா வை	-1.6180283
-1.0082257	லா வை	-2.0237937
-1.3619205	ர வை	-1.1207036
-2.1434274	தீ வை	-0.10814034
-1.1956596	வீ வை	-0.91242766
-1.0001987	ரா வை	-2.086286
-1.078226	பா வை	-1.4640985
-1.0081015	மா வை	-2.1186306
-1.0455264	ஷ் வை	-0.9446123
-1.3622371	த வை	-0.839877
-1.6380688	சு வை	-0.76994693
-1.7160722	லெ வை	-0.10814034
-1.5439227	வ் வை	-1.6349666
-1.9889349	ச் வை	-0.41284013
-1.5100424	பூ வை	-0.27560553
-1.8511562	செ வை	-0.41284013
-1.1901399	டு வை	-0.27560553
-1.7312872	ப வை	-0.4974543
-0.9976251	தா வை	-1.8629423
-1.8904039	ற வை	-0.41284013
-1.0647209	ஜ் வை	-1.0995142
-1.2034664	ய் வை	-1.1602122
-0.9919212	பு வை	-1.6113976
-1.7024541	ய வை	-0.4974543
-1.4496202	னு வை	-0.839877
-1.1268682	ஜா வை	-1.0995142
-2.0385797	மீ வை	-0.10814034
-1.9211603	லு வை	-0.41284013
-1.303912	று வை	-0.70157427
-1.0358318	ள் வை	-0.64358234
-1.2252331	ளா வை	-1.0289333
-1.2074444	ஹா வை	-1.5144876
-1.8752291	னூ வை	-0.41284013
-1.2301823	ல வை	-0.91242766
-1.7744312	பெ வை	-0.10814034
-1.8001841	கீ வை	-0.4005443
-1.6958231	கெ வை	-0.41284013
-1.3134253	ஹு வை	-0.57663554
-2.0206225	வ வை	-0.41284013
-1.5790192	ஈ வை	-0.10814034
-1.6861026	நு வை	-0.40483588
-1.3750316	மே வை	-0.10814034
-1.0269084	றா வை	-1.289846
-1.0872909	பே வை	-0.7984843
-1.9501065	ரோ வை	-0.41284013
-2.039575	ஜீ வை	-0.41284013
-1.8829377	ஜு வை	-0.81967366
-1.1803316	னீ வை	-0.70157427
-1.2724617	ஞ வை	-0.41284013
-1.744523	சே வை	-0.10814034
-1.5255691	தெ வை	-0.41284013
-1.379393	னே வை	-0.10814034
-1.9451032	யு வை	-0.7527268
-1.3951368	சோ வை	-0.41284013
-0.9055779	லே வை	-0.7984843
-1.6626974	ஜூ வை	-0.70157427
-1.6275551	ங் வை	-0.41284013
-1.0010563	வே வை	-0.4974543
-1.5630226	வெ வை	-0.41284013
-1.7113738	மெ வை	-0.41284013
-1.4072086	ஜே வை	-0.41284013
-1.4862465	தே வை	-0.41284013
-2.1252697	ஹீ வை	-0.41284013
-1.336115	ண் வை	-0.10814034
-1.2254516	ஏ வை	-0.41284013
-1.531178	ரே வை	-0.41284013
-1.3482077	டோ வை	-0.41284013
-1.0187595	ணா வை	-0.27560553
-1.4186921	யே வை	-0.41284013
-1.102157	ணே வை	-0.41284013
-0.901226	ற் வை	-0.27560553
-1.0273778	ணு வை	-0.10814034
-1.1697714	ளே வை	-0.10814034
-1.1697714	ன்​ வை	-0.41284013
-1.0171303	. வை	-0.41284013
-1.1906418	<s> ச	-1.6233717
-2.0667396	அ ச	-0.8815556
-2.2677288	ஹ் ச	-0.6457228
-2.4732692	ம ச	-0.7527268
-2.033654	உ ச	-0.90613496
-2.0707812	பை ச	-1.0133282
-2.4919317	து ச	-0.72790325
-2.5123682	வி ச	-0.72790325
-2.4720097	ரு ச	-0.70157427
-2.69966	கா ச	-0.45598844
-2.364573	வா ச	-0.70157427
-2.913598	ல் ச	-0.839877
-2.7484586	யா ச	-0.40483588
-2.4269066	வு ச	-1.3036343
-2.7920232	ரி ச	-0.57663554
-2.9215443	ப் ச	-0.5169191
-1.9043818	ன் ச	-0.699883
-2.7447667	ஸ் ச	-0.61353815
-1.6944445	ஹ ச	-0.89050025
-2.8607662	ட் ச	-0.50174594
-2.417758	ம் ச	-0.7514492
-1.9525588	நி ச	-0.6097538
-2.353764	ர் ச	-0.70157427
-2.0873995	ஜ ச	-0.21387343
-2.4783866	பீ ச	-0.64358234
-1.8340982	க ச	-0.69057894
-1.9654028	ந ச	-0.839877
-1.8918554	மு ச	-1.0390335
-2.3954637	ர ச	-0.5491038
-2.6105156	கி ச	-0.40483588
-1.93525	இ ச	-0.783761
-2.7108233	லி ச	-0.72640455
-2.491355	தீ ச	-0.482157
-1.8693919	மை ச	-0.8776655
-2.3586564	ரா ச	-0.6800079
-2.5972707	பா ச	-0.5409875
-2.4402647	தி ச	-0.4516968
-1.4416134	வ் ச	-0.6279313
-2.0274599	யி ச	-0.7667665
-1.4391003	ச் ச	-0.69191086
-2.2300308	ப ச	-0.6637857
-2.5025768	தா ச	-0.4081963
-1.955983	ஆ ச	-0.7527268
-2.4592037	ஹி ச	-0.64358234
-2.0602033	ய் ச	-0.54544866
-2.5966647	பு ச	-0.70157427
-2.3850443	மீ ச	-0.70157427
-2.2514293	லீ ச	-0.18805309
-1.9336839	நா ச	-0.62374216
-1.9772859	னூ ச	-0.65824825
-1.7984779	கை ச	-0.482157
-1.7443174	ள ச	-0.6070957
-1.7105266	ரொ ச	-0.57663554
-1.7547174	ஹை ச	-0.50174594
-1.5615168	பௌ ச	-1.1102381
-2.047073	ரோ ச	-0.6070957
-2.2029328	னீ ச	-0.7527268
-1.5418854	ஒ ச	-0.45598844
-1.7027062	ங் ச	-0.21387343
-0.7519999	மோ ச	-0.65824825
-0.920696	ஜோ ச	-0.45598844
-1.51572	நை ச	-0.482157
-1.1281219	ணே ச	-0.70586586
-0.920696	றே ச	-0.45598844
-1.9396055	<s> பி	-1.2074845
-1.8673627	அ பி	-0.64358234
-2.1006067	ஹ் பி	-0.7527268
-2.6063828	த் பி	-0.50573015
-2.3079293	வை பி	-0.41284013
-1.8502376	ச பி	-0.96911263
-2.4178555	பி பி	-0.406425
-2.0165513	னா பி	-0.6960767
-2.367246	து பி	-0.23828378
-2.6521268	வி பி	-0.6070957
-2.5906832	மி பி	-0.7527268
-1.5122154	ரு பி	-0.5581522
-1.7803465	கா பி	-0.70157427
-2.4475439	வா பி	-0.41284013
-1.9525049	ல் பி	-0.85397696
-1.9029658	சீ பி	-0.4005443
-2.563552	யா பி	-0.18805304
-1.7491091	வு பி	-0.70157427
-1.940214	கு பி	-0.6264531
-1.7555538	ரி பி	-1.0772378
-1.8149246	ப் பி	-0.7175273
-2.179723	ஸா பி	-0.7482956
-2.433726	ன் பி	-0.9745756
-1.7288527	றி பி	-0.6264531
-1.9580504	ஸ் பி	-0.8350501
-1.8449905	ஹ பி	-0.64651275
-2.7200742	ட் பி	-0.7527268
-2.112453	ம் பி	-1.1072801
-1.9984537	சா பி	-0.6723418
-2.0499184	ர் பி	-0.7367282
-1.6754887	ஷ பி	-0.41903004
-1.3940223	ரீ பி	-0.8591821
-2.2255921	டீ பி	-0.41284013
-2.7239492	னி பி	-0.41284013
-1.7349523	ஜ பி	-0.10814034
-1.5292498	பீ பி	-0.66378576
-2.2164667	க பி	-0.6252494
-1.7900167	ந பி	-0.7851869
-1.9608302	சி பி	-0.7149383
-1.3831592	ன பி	-0.5555332
-2.1000333	மு பி	-0.7984843
-2.0805285	ஷா பி	-0.60142195
-1.878935	லா பி	-0.7640447
-1.493851	ர பி	-0.7630143
-1.9431963	கி பி	-0.34684396
-1.8147234	லி பி	-0.91242766
-1.5958344	தீ பி	-0.8591821
-2.1503258	ரா பி	-0.6668826
-2.611907	பா பி	-0.41284013
-1.9150014	தி பி	-0.44608963
-1.9152892	ஜி பி	-0.6070957
-2.1647122	த பி	-0.70157427
-2.4609935	ஸி பி	-0.18805304
-1.6303446	சு பி	-0.91242766
-1.5398155	லை பி	-0.839877
-1.9797169	லெ பி	-0.7984843
-1.534351	வ் பி	-0.8776655
-2.0920513	யி பி	-0.20071591
-1.9677067	ச் பி	-0.70157427
-1.7679644	பூ பி	-0.30606574
-1.8297486	செ பி	-0.41284013
-1.7727296	டு பி	-0.5431386
-1.876948	ஷி பி	-0.7040057
-2.2078493	தா பி	-0.18805304
-2.1041756	ஸீ பி	-0.41284013
-1.6620238	ற பி	-0.34900576
-1.8040787	ஆ பி	-0.7599578
-1.80604	ஹி பி	-0.4005443
-1.7301917	ஜெ பி	-0.41284013
-1.9059128	ஜா பி	-0.45360738
-2.024268	மீ பி	-0.10814034
-1.5591576	எ பி	-0.64358234
-1.8831955	லீ பி	-0.20071591
-1.9021646	லு பி	-0.41284013
-1.3345966	நா பி	-0.41933617
-1.8582501	று பி	-0.52954304
-1.9961334	ஹா பி	-0.5684173
-1.858502	னூ பி	-0.41284013
-1.4073118	கை பி	-0.20071591
-2.1663344	ல பி	-0.41284013
-1.3485639	ள பி	-0.579492
-1.9788741	ஸ பி	-0.988816
-1.6432645	கீ பி	-0.4005443
-2.0347025	ஹு பி	-0.41284013
-1.3148603	ரொ பி	-0.18805304
-1.3321068	சூ பி	-0.25152305
-1.3602407	ஹை பி	-0.34255233
-1.657399	சை பி	-0.18805304
-1.631589	தூ பி	-0.40483588
-1.7099988	றா பி	-0.66916996
-1.8916454	பே பி	-0.3283064
-1.6197578	ஜீ பி	-0.57663554
-1.6066873	னீ பி	-0.20071591
-1.6519223	னை பி	-0.41284013
-1.2192192	ழா பி	-0.50174594
-0.9941376	யூ பி	-0.4974543
-1.1007092	வூ பி	-0.4516968
-1.305293	நௌ பி	-0.4974543
-1.1022849	ழ் பி	-0.70157427
-1.7544485	ணி பி	-0.41284013
-1.6602795	யு பி	-0.18805304
-0.8172918	றூ பி	-0.783761
-1.5433297	ஸு பி	-0.18805304
-0.90142214	ஊ பி	-0.41284013
-0.97672045	கூ பி	-0.53884697
-1.305293	மௌ பி	-0.7866174
-1.7360556	வே பி	-0.2342989
-1.5817239	ரெ பி	-0.41284013
-1.0317342	ரூ பி	-0.91242766
-1.0878544	கொ பி	-0.10814034
-2.1061866	ஹீ பி	-0.41284013
-1.305293	ஹெ பி	-0.41284013
-1.2744515	தௌ பி	-0.9446123
-0.7388371	றொ பி	-0.4974543
-1.2655226	கௌ பி	-0.70157427
-1.4058359	ளீ பி	-0.41284013
-1.013262	ஹூ பி	-0.41284013
-0.45174694	நாஃ பி	-0.40483588
-0.7388371	ரௌ பி	-0.20071591
-0.90142214	றஃ பி	-0.41284013
-0.45174694	ரஃ பி	-0.70157427
-1.9539934	அ னா	-0.7671618
-2.1747322	ஹ் னா	-0.32364985
-2.2036443	ம னா	-0.9456813
-2.648153	த் னா	-0.44165188
-1.787951	ச னா	-0.73720217
-1.8374069	பி னா	-0.988816
-2.5770662	னா னா	-0.28629294
-1.7450463	பை னா	-0.32364985
-2.2380843	வி னா	-0.5131206
-1.4159558	மி னா	-1.3487127
-2.1790156	ரு னா	-0.676587
-2.5162044	க் னா	-0.33744547
-1.6785741	கா னா	-0.9341469
-1.6181036	வா னா	-1.0456389
-1.2666848	சீ னா	-1.029495
-1.9234881	யா னா	-0.8929055
-2.1870584	கு னா	-0.26870158
-1.8667759	ரி னா	-1.1307491
-1.9145688	ப் னா	-1.326758
-1.5706155	ஸா னா	-1.2021766
-2.1614122	ன் னா	-0.57777894
-1.542131	றி னா	-0.6445324
-1.7411433	ஸ் னா	-1.2447404
-1.6278523	மொ னா	-0.40483588
-1.8898002	ஹ னா	-0.44101787
-2.783526	ட் னா	-0.6735456
-2.1375	ம் னா	-0.5636238
-1.8665426	நி னா	-0.65824825
-1.4907575	சா னா	-1.243384
-2.4465783	ர் னா	-0.689323
-1.9438568	ஷ னா	-0.21387343
-1.2713652	ரீ னா	-1.0537568
-2.2475863	டீ னா	-0.40577137
-1.9858836	ஜ னா	-0.74868095
-1.8114727	பீ னா	-0.8724643
-2.3009493	க னா	-0.34684396
-1.6671852	சி னா	-0.7516296
-1.7122859	மு னா	-0.7604346
-1.6232649	ஷா னா	-1.029495
-2.0885832	லா னா	-0.6229707
-2.1206157	ர னா	-0.64358234
-2.310402	கி னா	-0.4333009
-1.8433208	இ னா	-0.72447515
-2.2284431	லி னா	-0.439598
-2.1746967	தீ னா	-0.38842595
-1.486908	வீ னா	-0.3454087
-1.799552	மை னா	-0.40664867
-2.074805	ரா னா	-0.7772768
-1.7533445	பா னா	-1.2875048
-2.1814668	தி னா	-0.590876
-1.8749496	மா னா	-0.81967354
-2.4761612	டி னா	-0.3020608
-1.7037325	ஷ் னா	-0.52297366
-1.6224761	ஜி னா	-0.56739193
-2.0428956	த னா	-0.4038015
-1.922794	ஸி னா	-0.5131206
-2.067407	சு னா	-0.36092657
-1.7350478	லெ னா	-0.4974543
-1.7390672	யி னா	-0.8421956
-2.0374782	ச் னா	-0.26870158
-1.9160098	ஷி னா	-0.38708615
-2.632027	தா னா	-0.21387343
-1.4161401	ஸீ னா	-0.7606957
-1.5709567	ஹி னா	-0.7083076
-1.645788	ய் னா	-0.5343917
-2.5046616	பு னா	-0.839877
-2.2641094	ய னா	-0.40577137
-2.0470514	னு னா	-0.35264897
-1.5840315	ஜா னா	-0.72790325
-1.2683357	மீ னா	-0.81447244
-1.2661619	லீ னா	-0.74460894
-1.8568459	நா னா	-0.70157427
-1.388545	ஹா னா	-1.1941518
-1.9128112	னூ னா	-0.27288228
-1.7379152	கை னா	-0.21387343
-1.815253	பெ னா	-0.7527268
-1.6062893	ஸ னா	-0.64358234
-2.0456953	கீ னா	-0.33908993
-1.7636411	சூ னா	-0.28793743
-1.6948264	சை னா	-0.3083622
-2.1173365	றா னா	-0.29083362
-1.4967684	ஜீ னா	-0.54027283
-1.638418	னோ னா	-0.17219271
-0.3232115	ஷை னா	-0.48445344
-1.4123304	சோ னா	-0.30481827
-1.6929455	ஜூ னா	-0.3198541
-2.141882	ரூ னா	-0.3486567
-1.6978345	ஷீ னா	-0.16665468
-2.1685405	ஹீ னா	-0.23148957
-0.7844451	நோ னா	-0.460746
-1.4088838	றீ னா	-0.21387343
-1.48754	லூ னா	-0.3198541
-0.74525326	ளு னா	-0.28606266
-1.10215	ஹ் வோ	-1.2050245
-1.7208266	ம வோ	-0.4005443
-0.8592545	த் வோ	-2.4222503
-1.6966271	ச வோ	-0.4516968
-0.9180667	னா வோ	-2.346259
-1.0230894	து வோ	-2.1477618
-1.2553611	ட வோ	-0.70157427
-1.6481092	ரு வோ	-0.6735456
-1.9683306	ந் வோ	-0.41284013
-0.9601914	க் வோ	-2.1319315
-1.0473199	கா வோ	-1.6821457
-1.3924539	வா வோ	-1.3299632
-0.90493864	ல் வோ	-2.3928769
-2.3171587	சீ வோ	-0.41284013
-1.0518079	யா வோ	-2.2401795
-1.6429127	வு வோ	-0.9446123
-1.3252327	கு வோ	-1.0026042
-0.9484084	ப் வோ	-2.2456424
-1.002476	ஸா வோ	-1.6404691
-0.8700669	ன் வோ	-2.966982
-0.99247664	ஸ் வோ	-2.4354734
-1.7453358	ஹ வோ	-0.34684396
-0.8020097	ட் வோ	-2.270509
-0.9583446	ம் வோ	-2.3117018
-1.0498397	சா வோ	-1.8848441
-0.95193034	ர் வோ	-2.6621046
-0.7777856	கே வோ	-1.4005443
-1.9052614	ஷ வோ	-0.41284013
-1.94444	ரீ வோ	-0.20071591
-1.6069226	பீ வோ	-0.81967366
-1.5374041	க வோ	-0.6735456
-1.2226478	ன வோ	-0.72790325
-1.8227406	மு வோ	-0.30606574
-0.87045467	டா வோ	-0.7984843
-1.0352952	ஷா வோ	-1.667716
-0.9696569	லா வோ	-2.001245
-1.3263364	ர வோ	-1.140907
-2.1514404	தீ வோ	-0.20071591
-1.1971612	வீ வோ	-1.0289333
-0.9423871	ரா வோ	-2.0840416
-1.022669	பா வோ	-1.922336
-0.95018023	மா வோ	-2.1123514
-1.0464168	ஷ் வோ	-0.8591821
-1.3642782	த வோ	-0.72790325
-1.64242	சு வோ	-0.4005443
-1.7209859	லெ வோ	-0.18805304
-1.74885	வ் வோ	-0.18805304
-1.561068	ச் வோ	-0.20071591
-1.5151551	பூ வோ	-0.20071591
-1.8635216	செ வோ	-0.41284013
-1.0198241	டு வோ	-0.27989718
-1.6565932	ப வோ	-0.57663554
-0.94443154	தா வோ	-1.8883893
-1.9028578	ற வோ	-0.41284013
-0.9594967	ஜ் வோ	-1.1786956
-1.1616129	ய் வோ	-1.1876504
-0.97738165	பு வோ	-1.608044
-1.4464254	ய வோ	-0.7527268
-1.3140948	னு வோ	-0.8591821
-1.0749811	ஜா வோ	-1.0772378
-2.0467393	மீ வோ	-0.10814034
-2.1296952	லீ வோ	-0.41284013
-1.9320841	லு வோ	-0.41284013
-1.1687746	று வோ	-0.70157427
-1.0366465	ள் வோ	-0.53884697
-1.0562701	ளா வோ	-1.0415224
-1.1281912	ஹா வோ	-1.5268381
-1.8848082	னூ வோ	-0.41284013
-1.2316285	ல வோ	-0.8953943
-1.5195916	பெ வோ	-0.20071591
-1.6514342	கீ வோ	-0.4516968
-1.3603445	கெ வோ	-0.41284013
-1.3157407	ஹு வோ	-0.6113977
-1.8506658	வ வோ	-0.10814034
-1.5865244	ஈ வோ	-0.18805304
-1.1216738	மே வோ	-0.10814034
-0.8915931	றா வோ	-1.3487127
-0.9950539	பே வோ	-0.81967366
-1.6694793	ரோ வோ	-0.18805304
-1.6334381	ஜீ வோ	-0.10814034
-1.8943478	ஜு வோ	-0.41284013
-1.1817329	னீ வோ	-0.70157427
-1.2763652	ஞ வோ	-0.41284013
-1.7548665	சே வோ	-0.27560553
-1.1916323	தெ வோ	-0.10814034
-1.3843925	னே வோ	-0.10814034
-1.5641211	ஸு வோ	-0.41284013
-1.0275614	சோ வோ	-0.18805304
-0.90605146	லே வோ	-0.7984843
-1.6348037	ங் வோ	-0.41284013
-1.0023822	வே வோ	-0.4974543
-1.5703808	வெ வோ	-0.41284013
-1.7214389	மெ வோ	-0.41284013
-1.4125408	ஜே வோ	-0.41284013
-1.4921567	தே வோ	-0.18805304
-2.1362455	ஹீ வோ	-0.41284013
-1.069442	ண் வோ	-0.18805304
-1.2289529	ஏ வோ	-0.41284013
-1.5381339	ரே வோ	-0.41284013
-1.352859	டோ வோ	-0.41284013
-1.0200108	ணா வோ	-0.20071591
-1.0594614	யே வோ	-0.18805304
-1.1801326	ற் வோ	-0.18805304
-1.029207	ணு வோ	-0.10814034
-1.17285	ளே வோ	-0.10814034
-1.17285	ன்​ வோ	-0.41284013
-1.0192943	. வோ	-0.41284013
-1.9537022	<s> உ	-1.2180729
-2.7744794	த் உ	-0.72790325
-2.6992934	ச உ	-0.7527268
-2.9872415	பி உ	-0.9745756
-2.4640646	னா உ	-0.8776655
-2.9035568	கா உ	-0.7984843
-2.8054385	வா உ	-0.7984843
-2.6257668	யா உ	-0.7029234
-2.916787	ஸா உ	-0.50174594
-3.168962	ன் உ	-0.839877
-2.113502	நி உ	-0.70157427
-2.6653605	பீ உ	-0.40483588
-2.6352239	க உ	-0.70157427
-2.9560263	ஷா உ	-0.50174594
-2.327893	லா உ	-0.61353815
-3.0126224	ரா உ	-0.7527268
-2.976904	மா உ	-0.7984843
-2.5447454	த உ	-0.70157427
-2.9439619	தா உ	-0.70157427
-2.525393	ல உ	-0.57663554
-2.5994315	றா உ	-0.70157427
-1.4816908	நெ உ	-0.7527268
-1.7436122	தை உ	-0.7984843
-2.231006	<s> பை	-1.117243
-2.4403164	ச பை	-0.6866335
-2.2219315	உ பை	-0.9774319
-2.7438476	ரு பை	-0.70157427
-3.0785484	ரி பை	-0.70157427
-3.1889513	ப் பை	-1.1147542
-2.6041827	மு பை	-0.7527268
-2.7083895	ர பை	-1.4516968
-2.6485403	சு பை	-1.0390335
-2.3195288	வ் பை	-0.3191935
-2.7294788	ஹி பை	-0.3198541
-2.423014	று பை	-0.8591821
-1.9417126	நு பை	-0.46238422
-2.1866302	ஜு பை	-0.40483588
-1.8454459	ஜூ பை	-0.7527268
-2.5397494	<s> து	-0.9071205
-2.0244734	அ து	-0.6735456
-2.233365	ஹ் து	-0.5491038
-1.2589133	ம து	-1.5647938
-1.4893467	த் து	-1.4154066
-2.4028387	வை து	-0.70157427
-1.8081414	ச து	-0.8494139
-2.8456104	னா து	-0.5431386
-1.7292155	உ து	-1.2148068
-2.0389307	பை து	-0.39006633
-2.1493592	மி து	-0.74474454
-1.0142448	ந் து	-2.7361157
-2.3444934	வா து	-0.43100446
-2.4534163	ல் து	-0.34124708
-1.9550406	சீ து	-0.32002226
-2.0230508	யா து	-0.49725896
-2.4038455	வு து	-0.31237143
-1.8225745	கு து	-0.8646538
-2.5498686	ரி து	-0.30337825
-2.667676	ப் து	-1.3531874
-2.889386	ஸ் து	-0.57663554
-1.9230734	ஹ து	-0.37229425
-2.400547	ம் து	-0.43719807
-2.816911	சா து	-0.63183033
-2.668023	ர் து	-0.46193847
-2.00241	ஷ து	-0.45598844
-2.247368	ரீ து	-0.5152494
-2.0496535	ஜ து	-0.40483588
-2.442827	பீ து	-0.45598844
-1.9666402	க து	-0.8441686
-2.5688448	சி து	-0.28254887
-1.2804749	ன து	-2.9924288
-1.6290343	மு து	-0.61699593
-1.8414578	ர து	-1.1102381
-1.9850976	கி து	-0.6513718
-2.5712383	பா து	-0.9124276
-2.1553674	மா து	-0.4838134
-2.2307167	ஜி து	-0.26870158
-2.1140375	சு து	-0.31426635
-1.6018765	லை து	-0.70157427
-2.047364	வ் து	-0.28254887
-1.908503	யி து	-0.53490525
-2.0921385	ச் து	-0.50174594
-2.217896	ஷி து	-0.28076056
-1.4974368	ப து	-1.2015356
-2.2224896	ஸீ து	-0.21387343
-1.9251955	ஆ து	-0.64358234
-1.9983642	ஹி து	-0.6001166
-1.815411	ய் து	-0.5912062
-2.313475	பு து	-0.4333009
-1.3444523	ய து	-0.95831794
-1.6074653	மீ து	-0.99576485
-1.6347688	எ து	-0.7984843
-1.7210449	லு து	-0.46975905
-2.1968868	று து	-0.64358234
-1.206302	மூ து	-0.7662996
-2.108963	ஸ து	-0.5546683
-2.0743663	கீ து	-0.33727342
-2.167282	ஹு து	-0.4363042
-1.916753	வ து	-0.63442314
-2.1039674	சூ து	-0.3198541
-2.0018258	சை து	-0.3020608
-1.5466528	பௌ து	-0.5431386
-1.6979427	தூ து	-0.5558721
-1.7692705	நு து	-0.70157427
-1.8975457	ஜீ து	-0.7315375
-1.3921316	னை து	-0.26438886
-1.7323668	வூ து	-0.5886124
-1.8301107	சே து	-0.21532208
-1.8089058	கூ து	-0.4005443
-1.7944517	மெ து	-0.2342989
-1.502321	ஐ து	-0.8953943
-2.2166045	ஹீ து	-0.4841569
-1.3030475	கௌ து	-0.3283064
-2.9871297	<s> வி	-0.8828052
-1.100687	ஹ் வி	-1.1602122
-1.5943705	ம வி	-0.6735456
-0.8641546	த் வி	-2.433465
-1.6269057	ச வி	-0.57663554
-2.5908282	பி வி	-0.31445843
-0.8885229	னா வி	-2.4742627
-1.0032078	து வி	-2.2722144
-1.253401	ட வி	-0.826513
-1.4634948	ரு வி	-0.7527268
-1.958931	ந் வி	-0.41284013
-0.9598663	க் வி	-2.146789
-1.0126858	கா வி	-1.8042367
-1.3579617	வா வி	-1.4674911
-0.88064325	ல் வி	-1.904574
-2.107898	சீ வி	-0.406425
-1.0410435	யா வி	-2.3487127
-1.6405821	வு வி	-1.0995142
-1.3226212	கு வி	-1.020333
-0.9373951	ப் வி	-2.2338507
-0.9909638	ஸா வி	-1.7413188
-0.873659	ன் வி	-2.963283
-1.0060606	ஸ் வி	-1.7591697
-1.644722	ஹ வி	-0.6001166
-0.8082595	ட் வி	-2.2518027
-0.957979	ம் வி	-2.1116602
-1.0292253	சா வி	-1.8910295
-0.9468242	ர் வி	-2.136656
-0.77765834	கே வி	-1.5668757
-1.8897158	ஷ வி	-0.41284013
-1.9345924	ரீ வி	-0.4018934
-1.4176509	பீ வி	-0.77161217
-1.4752064	க வி	-0.7874889
-1.8107558	ந வி	-0.7527268
-1.1776646	ன வி	-0.74049234
-1.8139151	மு வி	-0.2813372
-0.8289848	டா வி	-1.020333
-1.0243174	ஷா வி	-1.7792449
-0.96005255	லா வி	-1.8710173
-1.2575432	ர வி	-1.0520306
-1.9387602	தீ வி	-0.3242194
-1.0265188	வீ வி	-0.8776655
-0.9286363	ரா வி	-2.072642
-1.007506	பா வி	-2.0373664
-2.5047526	தி வி	-0.3486567
-0.93450725	மா வி	-2.2341163
-0.9686882	ஷ் வி	-0.839877
-1.3087615	த வி	-0.7510005
-1.4911574	சு வி	-0.48077488
-1.4707354	லெ வி	-0.34900576
-1.738629	வ் வி	-0.41284013
-2.429715	யி வி	-0.41284013
-1.5556864	ச் வி	-0.20071591
-1.509027	பூ வி	-0.4005443
-1.8487248	செ வி	-0.41284013
-1.0184262	டு வி	-0.551812
-1.6520712	ப வி	-0.7762079
-0.93572915	தா வி	-1.7788328
-1.8879554	ற வி	-0.2342989
-0.958599	ஜ் வி	-1.1964242
-1.1600773	ய் வி	-0.9865045
-0.9484134	பு வி	-1.7462447
-1.4435991	ய வி	-0.839877
-1.257435	னு வி	-1.0537568
-1.0741165	ஜா வி	-1.1207036
-2.2373543	மீ வி	-0.2342989
-2.115129	லீ வி	-0.4128401
-1.9190083	லு வி	-0.2342989
-1.1121806	று வி	-0.8006248
-0.9398977	ள் வி	-0.70157427
-1.0547417	ளா வி	-1.0847911
-1.115639	ஹா வி	-1.6618072
-1.8733385	னூ வி	-0.10814034
-1.1477108	ல வி	-0.7879151
-1.5128026	பெ வி	-0.2813372
-1.647914	கீ வி	-0.622393
-1.3568949	கெ வி	-0.17219271
-1.3129637	ஹு வி	-0.719303
-1.8396602	வ வி	-0.23018463
-1.5775336	ஈ வி	-0.23018463
-1.1189816	மே வி	-0.15430409
-0.85389215	றா வி	-1.424311
-0.9937465	பே வி	-0.8654311
-1.6638235	ரோ வி	-0.10814034
-1.482511	ஜீ வி	-0.40340066
-1.8806912	ஜு வி	-0.41284013
-1.1800519	னீ வி	-0.839877
-1.2716852	ஞ வி	-0.2342989
-1.7424836	சே வி	-0.3507409
-1.1881243	தெ வி	-0.27989718
-1.3784	னே வி	-0.2813372
-1.5550884	ஸு வி	-0.41284013
-1.0252838	சோ வி	-0.22962672
-0.85481083	லே வி	-0.92342305
-1.0007917	வே வி	-0.40362182
-1.5615658	வெ வி	-0.18805304
-1.7093885	மெ வி	-0.2342989
-1.4061499	ஜே வி	-0.18805304
-1.485074	தே வி	-0.29657352
-2.1231074	ஹீ வி	-0.2342989
-0.8952644	ண் வி	-0.34255233
-1.2247546	ஏ வி	-0.4128401
-1.5298	ரே வி	-0.2342989
-1.0166987	டே வி	-0.7040057
-1.3472834	டோ வி	-0.18805304
-0.8433098	ணா வி	-0.43530637
-1.056887	யே வி	-0.3254231
-1.1016322	ணே வி	-0.4128401
-0.90098095	ற் வி	-0.30606574
-1.0270131	ணு வி	-0.3254231
-1.1691583	ளே வி	-0.22962672
-1.1691583	ன்​ வி	-0.18805304
-1.0166987	. வி	-0.2342989
-3.6722937	<s> ட	-0.7527268
-2.2069879	அ ட	-0.7984843
-2.3735352	ம ட	-0.6331169
-0.8605012	பி ட	-2.2409642
-1.5212859	உ ட	-0.839877
-0.5743829	வி ட	-3.4857457
-0.87089515	மி ட	-2.3049893
-0.57815444	வு ட	-3.6554546
-2.4158645	கு ட	-0.28254887
-0.80881554	ரி ட	-2.3517604
-2.809744	ன் ட	-0.43116486
-1.5952424	றி ட	-0.27560553
-2.8354065	ஸ் ட	-0.49429613
-2.1552308	ட் ட	-0.6162927
-2.051607	நி ட	-0.41284013
-2.9992948	சா ட	-0.25152305
-2.1457255	ஷ ட	-0.45598844
-2.3925116	ரீ ட	-0.64358234
-0.6969825	னி ட	-2.9783232
-2.082133	ந ட	-0.70157427
-2.738729	சி ட	-0.41284013
-0.81953627	கி ட	-2.156419
-0.7490957	லி ட	-2.3917704
-0.6915415	தி ட	-2.4133816
-2.8922477	மா ட	-0.64358234
-0.527101	டி ட	-2.2593822
-1.3190196	ஜி ட	-1.140907
-0.5255851	ஸி ட	-2.4379709
-1.0726355	யி ட	-2.5182297
-1.2010707	ஷி ட	-0.7984843
-1.4298944	ஹி ட	-1.1207036
-1.7052034	எ ட	-0.4974543
-1.035437	ணி ட	-0.4005443
-0.3908301	யு ட	-2.498322
-0.83057356	கொ ட	-0.46891695
-1.7803757	ண் ட	-0.50174594
-0.7119847	ளி ட	-0.57663554
-2.068728	<s> மி	-1.1805015
-1.8874547	அ மி	-0.82791793
-1.9176649	ஹ் மி	-0.76616985
-2.8332622	த் மி	-0.29594657
-1.5202115	ச மி	-0.71048295
-2.2095368	னா மி	-0.27989718
-1.9772294	து மி	-0.34255233
-0.61970216	ட மி	-3.686439
-2.1370094	ரு மி	-0.40787995
-2.6567044	க் மி	-0.3198541
-2.0400083	கா மி	-0.83776283
-2.4653165	வா மி	-0.41284013
-2.399837	ல் மி	-0.6461522
-1.2616478	சீ மி	-0.8953943
-2.229704	யா மி	-0.20071591
-2.4933274	வு மி	-0.8046446
-1.7708894	கு மி	-0.42459562
-2.4614582	ரி மி	-0.25087732
-1.6573092	ஸா மி	-0.7527268
-1.9616414	றி மி	-0.41284013
-1.4764341	ஸ் மி	-1.3618628
-1.6437643	ஹ மி	-0.75379574
-2.2145057	ம் மி	-0.8367042
-1.644268	சா மி	-0.72790325
-2.2925746	ர் மி	-0.91839594
-1.686506	ஷ மி	-0.8305731
-1.7334005	ரீ மி	-0.4516968
-2.319641	னி மி	-0.27560553
-1.9248313	ஜ மி	-0.64358234
-1.2619696	க மி	-0.8332464
-1.8081086	ந மி	-0.64358234
-1.4429809	சி மி	-1.0995142
-1.800598	ன மி	-0.4516968
-2.1201904	மு மி	-0.7762079
-1.5786041	ஷா மி	-0.85426784
-1.7520993	லா மி	-0.8953943
-1.9146829	ர மி	-0.67929786
-1.8458083	கி மி	-0.4838782
-1.7871231	இ மி	-0.92881805
-1.7591436	லி மி	-0.64358234
-1.5269153	தீ மி	-0.57663554
-1.9771333	ரா மி	-0.689323
-2.4803722	பா மி	-0.76729745
-2.0216188	தி மி	-0.58082783
-2.428847	மா மி	-0.27560553
-1.1935847	ஷ் மி	-0.88958025
-1.7408137	ஜி மி	-0.40571797
-1.8164406	த மி	-0.5269796
-1.7990711	ஸி மி	-0.6299286
-1.5573504	சு மி	-0.5121733
-1.5417773	வ் மி	-0.48653513
-2.2714493	யி மி	-0.20071591
-1.207852	ச் மி	-0.55096394
-1.8463069	செ மி	-0.7527268
-1.886389	ஷி மி	-0.46749103
-2.2496986	ப மி	-0.64358234
-2.2163105	தா மி	-0.3693574
-0.9926935	ஸீ மி	-0.7984843
-2.101819	யோ மி	-0.33534634
-1.3160857	ற மி	-0.4974543
-1.3800043	ஆ மி	-0.4829556
-1.5003891	ஹி மி	-0.9598523
-1.8112692	ஜ் மி	-0.5332557
-1.7458236	ஜெ மி	-0.7984843
-2.1638453	ய் மி	-0.41284013
-1.5969757	ய மி	-0.622393
-2.2438533	னு மி	-0.41284013
-1.9128077	ஜா மி	-0.10814034
-1.4261795	மீ மி	-0.6113977
-1.569618	எ மி	-0.41284013
-1.0493746	லீ மி	-0.839877
-1.9168667	லு மி	-0.839877
-1.8086275	நா மி	-0.50031066
-2.0913172	று மி	-0.7984843
-1.5744671	ஹா மி	-0.75157255
-1.392191	ல மி	-0.73633635
-1.7371818	மூ மி	-0.70157427
-1.3543118	ள மி	-0.40297574
-1.7900078	ஸ மி	-0.18805304
-1.0518296	கீ மி	-1.0656561
-1.8513623	ஹு மி	-0.47122425
-1.2240589	லோ மி	-0.7984843
-2.015162	வ மி	-0.41284013
-2.0243092	சூ மி	-0.7984843
-1.6611493	ஹை மி	-0.45598844
-1.4918154	பௌ மி	-0.6538878
-1.5760531	ஈ மி	-0.41284013
-1.6408516	தூ மி	-0.41284013
-1.6265441	ஜீ மி	-0.20071591
-1.8784562	ஜு மி	-0.41284013
-2.0760434	னீ மி	-0.41284013
-1.2240589	ழா மி	-0.41284013
-1.4191524	யூ மி	-0.6517709
-1.5230434	தெ மி	-0.57663554
-1.9413117	யு மி	-0.10814034
-1.8924817	றூ மி	-0.6070957
-1.553601	ஸு மி	-0.36212245
-1.1730082	டொ மி	-0.7984843
-1.5927675	ரெ மி	-0.57663554
-2.0981312	ரூ மி	-0.31426635
-1.4050938	ஜே மி	-0.40483588
-1.6675938	ஷீ மி	-0.41284013
-1.27091	சௌ மி	-0.7527268
-0.9589985	ஹீ மி	-1.0995142
-1.4561858	யீ மி	-0.41284013
-1.3112005	ஹெ மி	-0.5283394
-1.0162677	ஸூ மி	-0.41284013
-1.27091	ழீ மி	-0.41284013
-1.5284265	ரே மி	-0.41284013
-1.4128155	ளீ மி	-0.41284013
-1.346361	டோ மி	-0.7984843
-1.4525118	நை மி	-0.41284013
-1.0162677	ழி மி	-0.41284013
-0.45256984	முஃ மி	-0.64358234
-2.160145	<s> ரு	-1.0757607
-2.0802653	அ ரு	-0.73633635
-1.7735178	ஹ் ரு	-0.6492623
-2.094869	ம ரு	-0.6547469
-2.4332175	வை ரு	-0.50174594
-2.265984	ச ரு	-0.63707465
-2.7751527	பி ரு	-0.30525267
-1.7981126	பை ரு	-0.48011297
-1.931568	து ரு	-0.7532893
-2.152632	ட ரு	-0.4974543
-2.784855	மி ரு	-3.686439
-2.7117329	கா ரு	-0.70157427
-2.9261165	ல் ரு	-0.5431386
-2.6716845	வு ரு	-0.35778525
-1.5735197	கு ரு	-0.70468307
-2.4762962	ப் ரு	-0.91671926
-2.415261	ஸ் ரு	-0.8006248
-1.9474031	ஹ ரு	-0.6065197
-2.6292732	ம் ரு	-0.6464387
-2.4531786	சா ரு	-0.75058895
-2.0993943	ஜ ரு	-0.5635023
-2.4232414	க ரு	-0.7527268
-2.391434	சி ரு	-0.6778372
-2.3138094	மு ரு	-0.70157427
-2.7478876	லா ரு	-0.7527268
-2.4093368	ர ரு	-0.7527268
-1.9459727	இ ரு	-0.98412085
-2.8218727	பா ரு	-1.1506668
-2.6820905	தி ரு	-0.70157427
-2.7770996	மா ரு	-0.482157
-2.2832704	ஷ் ரு	-0.40297574
-2.1103435	த ரு	-0.60297304
-1.9410304	சு ரு	-0.77906424
-2.3937452	யி ரு	-0.47034743
-2.0338063	ப ரு	-1.0120265
-1.9656615	ஆ ரு	-0.65824825
-2.2380574	ஹி ரு	-0.33328137
-2.19622	ஜ் ரு	-0.40483588
-2.0985355	பு ரு	-0.6677457
-2.376965	ய ரு	-0.65824825
-2.0968926	னு ரு	-0.72790325
-2.1300144	மீ ரு	-0.8776655
-2.7649026	ஹா ரு	-0.5169191
-1.8052534	கை ரு	-0.66327167
-1.8940803	பெ ரு	-0.9446123
-2.153082	ஸ ரு	-0.7527268
-1.4982729	நூ ரு	-0.58379614
-1.546471	ஹு ரு	-0.48558742
-1.9458244	வ ரு	-0.52683216
-1.7610278	ஹை ரு	-0.45598844
-1.8018193	நு ரு	-0.62778807
-2.0094707	பே ரு	-0.5491038
-2.2118664	னீ ரு	-0.40483588
-1.5955008	தெ ரு	-0.7984843
-2.0550146	யு ரு	-0.70157427
-1.6404245	ஸு ரு	-0.4005443
-1.8277757	கூ ரு	-0.9446123
-1.3587453	மௌ ரு	-0.34684396
-1.3165163	ஹே ரு	-0.5491038
-1.5198218	ஐ ரு	-0.7527268
-1.7483894	ஷீ ரு	-0.70157427
-1.9710492	ச ந்	-0.936787
-2.9206576	பி ந்	-0.9598523
-2.3278542	ரு ந்	-3.6869447
-2.5400734	கா ந்	-0.7527268
-2.8677063	ஸா ந்	-0.70157427
-2.504252	ஹ ந்	-1.2134577
-3.0245163	சா ந்	-0.16665468
-2.6241553	கே ந்	-0.64358234
-1.6588072	க ந்	-0.91242766
-2.102441	ந ந்	-0.70157427
-2.4830875	ன ந்	-0.70157427
-2.4667227	மு ந்	-0.839877
-2.9023077	ஷா ந்	-0.57663554
-2.8779209	லா ந்	-0.7527268
-2.5660784	ர ந்	-0.7527268
-2.061351	இ ந்	-1.0772378
-2.8638985	லி ந்	-0.64358234
-2.1794775	வீ ந்	-0.70157427
-2.5125659	சு ந்	-0.7527268
-2.760702	யி ந்	-0.57663554
-2.60004	ப ந்	-0.7984843
-2.609854	ஹி ந்	-0.64358234
-2.5075307	ய ந்	-0.4974543
-2.489333	னு ந்	-0.7527268
-1.8920096	ல ந்	-1.229848
-1.8122663	ள ந்	-0.7984843
-2.3214612	வ ந்	-0.70157427
-2.136855	சை ந்	-0.7984843
-1.9464664	சே ந்	-0.64358234
-1.3386587	சௌ ந்	-0.57663554
-0.4622067	ழ ந்	-1.3169982
-1.742876	ணா ந்	-0.7984843
-1.2843735	பொ ந்	-0.45598844
-3.8790236	<s> க்	-0.7527268
-1.764349	அ க்	-0.94847274
-2.321141	ம க்	-0.791185
-2.0557978	வை க்	-1.538847
-2.151414	ச க்	-0.89651597
-1.2363766	பி க்	-1.1964242
-2.7540288	னா க்	-0.41284013
-1.9264482	உ க்	-0.7527268
-1.2486869	பை க்	-1.237817
-2.2216644	து க்	-0.5467755
-1.6784285	வி க்	-0.7352666
-2.0557446	ட க்	-0.7527268
-1.3494285	மி க்	-0.82506514
-1.4675572	ரு க்	-0.9207002
-2.3808124	கா க்	-0.34543294
-2.4948034	வா க்	-0.3083622
-2.1249664	சீ க்	-0.31262186
-2.613915	யா க்	-0.70157427
-0.5845728	வு க்	-3.6524866
-1.3260581	ரி க்	-1.0242634
-2.1972055	ஸா க்	-0.6637857
-2.6295633	ன் க்	-0.4081963
-1.2677636	றி க்	-1.140907
-2.7814083	ஸ் க்	-0.64358234
-1.6121777	மொ க்	-0.7527268
-1.873261	ஹ க்	-0.7471093
-1.8404351	நி க்	-0.69057894
-1.9508677	சா க்	-0.9265141
-2.5957954	ர் க்	-0.3294325
-1.7044042	ஷ க்	-0.57487154
-1.7447805	ரீ க்	-0.42218655
-1.1297348	னி க்	-0.9378559
-1.9557391	ஜ க்	-0.7527268
-1.3294718	பீ க்	-1.2653519
-1.8381553	ந க்	-0.70157427
-1.2559994	சி க்	-0.99805665
-1.8287255	மு க்	-0.64358234
-2.1284046	டா க்	-0.21387343
-1.9864047	ஷா க்	-0.622393
-1.7088503	ர க்	-0.6542209
-1.5357672	கி க்	-1.0537568
-1.8156518	இ க்	-1.0456389
-1.4561186	லி க்	-0.98096234
-1.6915962	தீ க்	-0.7595662
-1.5063103	மை க்	-0.78318703
-2.4806461	ரா க்	-0.3656121
-2.0987349	பா க்	-0.8929055
-1.3528098	தி க்	-0.9376635
-2.628628	மா க்	-0.18805309
-1.5851133	டி க்	-0.6228074
-1.6137006	ஜி க்	-0.27528945
-2.0237994	த க்	-0.6110726
-1.6426343	ஸி க்	-0.74577796
-1.6459327	சு க்	-0.88838947
-1.7249573	லெ க்	-0.42836633
-1.957857	வ் க்	-0.7984843
-1.4591184	யி க்	-0.64358234
-1.6475283	செ க்	-0.33167475
-1.1828841	ஷி க்	-0.5082395
-1.7394618	ப க்	-1.441937
-2.4191113	தா க்	-0.64358234
-2.1457694	ஸீ க்	-0.18805304
-1.3233438	ற க்	-0.5344214
-1.8465699	ஆ க்	-1.229848
-1.5053841	ஹி க்	-0.7762079
-2.0993757	ஜ் க்	-0.70157427
-1.78314	ய் க்	-0.3227889
-1.7101918	ய க்	-0.7984843
-2.1396844	லீ க்	-0.3020608
-1.9410253	லு க்	-0.7984843
-1.3968391	று க்	-0.8776655
-2.1130939	ஹா க்	-0.44474798
-1.8926265	னூ க்	-0.28606266
-1.6635883	ல க்	-0.56675875
-1.7558408	மூ க்	-0.64358234
-1.7932905	பெ க்	-0.28606266
-1.6376988	ரொ க்	-0.4974543
-1.6651901	வ க்	-1.3169982
-1.0490885	சூ க்	-0.90682375
-1.2981917	சை க்	-0.72154
-1.7044095	நு க்	-0.27560553
-2.3504925	றா க்	-0.28606266
-1.4901645	ஒ க்	-1.0289333
-1.6813692	வூ க்	-0.7527268
-1.7633225	சே க்	-0.44224975
-1.0179558	ணி க்	-0.6113977
-1.6035874	றூ க்	-0.5658269
-1.5702491	ஸு க்	-0.70157427
-1.6406908	ங் க்	-0.25990868
-1.4969437	ரை க்	-1.4612422
-1.2981334	ரெ க்	-0.70157427
-1.7296624	மெ க்	-0.719303
-1.1753287	நீ க்	-0.70157427
-1.6144737	தை க்	-0.41284013
-1.155981	ரூ க்	-0.839877
-1.2795135	சௌ க்	-0.7527268
-1.2317746	ஏ க்	-1.0289333
-1.1069087	சொ க்	-0.7527268
-1.0210332	ஸூ க்	-0.21387343
-1.0210332	ஸை க்	-0.4128401
-1.2873487	ஷே க்	-0.26247233
-1.4759891	லூ க்	-0.7984843
-1.1753287	ஞை க்	-0.41284013
-2.1546946	<s> கா	-1.225077
-2.0244734	அ கா	-0.64358234
-2.4289026	ம கா	-0.70157427
-2.1669757	த் கா	-1.1876504
-2.399531	ச கா	-0.73275936
-2.1749763	பி கா	-0.7631271
-1.7757668	பை கா	-0.2565136
-2.2630086	து கா	-0.8953943
-2.5130107	மி கா	-0.46624017
-1.4111032	க் கா	-0.9982294
-2.6616821	கா கா	-0.34684396
-1.8712968	ல் கா	-0.67888397
-2.4172883	சீ கா	-0.22962672
-2.348239	ரி கா	-0.5743978
-1.8737775	ப் கா	-1.1554122
-2.506381	ன் கா	-0.826513
-1.7986722	றி கா	-0.5560663
-1.7468902	ஸ் கா	-1.0207447
-2.8325527	ட் கா	-0.57663554
-2.400547	ம் கா	-0.6097538
-1.9209365	நி கா	-0.5179175
-2.816911	சா கா	-0.45598844
-2.0817404	ர் கா	-1.1751305
-2.00241	ஷ கா	-0.6070957
-2.247368	ரீ கா	-0.3198541
-1.4611999	ஜ கா	-1.1102381
-1.8269036	பீ கா	-0.53884697
-1.9290564	ந கா	-0.45598844
-2.359783	சி கா	-0.40275404
-2.072607	ன கா	-0.33744547
-2.2577455	மு கா	-0.72790325
-2.73292	ஷா கா	-0.26870158
-2.6986184	லா கா	-0.7527268
-1.9794569	ர கா	-0.5283792
-2.572704	கி கா	-0.3254231
-1.9013072	இ கா	-0.70157427
-2.2552955	லி கா	-0.47478604
-2.208393	தீ கா	-0.35456547
-1.6728637	தி கா	-0.83065915
-2.7255018	மா கா	-0.6070957
-1.9644215	ஷ் கா	-0.3191935
-2.2307167	ஜி கா	-0.45598844
-2.3071868	த கா	-0.28606266
-2.328795	ஸி கா	-0.42151225
-2.3051183	சு கா	-0.28606266
-1.6018765	லை கா	-0.44364852
-2.0921385	ச் கா	-0.41284013
-1.9553689	செ கா	-0.7527268
-1.5415881	ஷி கா	-0.48618472
-2.697064	தா கா	-0.23148957
-1.9471126	ஸீ கா	-0.35264897
-1.9251955	ஆ கா	-0.5491038
-2.2071056	ஹி கா	-0.4322429
-1.8478813	ஜெ கா	-1.0026042
-2.084186	பு கா	-1.2990867
-2.3275323	ய கா	-0.34684396
-2.431692	ஜா கா	-0.45598844
-2.3505514	மீ கா	-0.2342989
-2.219924	லீ கா	-0.21387343
-1.7210449	லு கா	-0.33908993
-2.3028853	ல கா	-0.70157427
-2.1400378	வ கா	-0.81722915
-1.7221943	சை கா	-0.2813372
-1.9782618	ஜு கா	-0.57663554
-1.8301107	சே கா	-0.6735456
-2.1394353	லே கா	-0.2342989
-1.3331388	ங் கா	-0.35778525
-1.1618471	ரை கா	-0.3083622
-1.6619048	ரெ கா	-0.7984843
-1.9266403	ஹீ கா	-0.25607154
-1.5645149	ஷு கா	-0.23148957
-1.427376	றீ கா	-0.26870158
-1.2558022	றை கா	-0.30606574
-1.122583	ஷோ கா	-0.70157427
-2.5355725	<s> வா	-1.1462576
-1.8816186	அ வா	-0.719303
-1.1910937	ஹ் வா	-1.0537568
-1.6487931	ம வா	-0.6637857
-0.8848939	த் வா	-2.0831347
-1.764703	ச வா	-0.7776121
-0.9299839	னா வா	-1.8732227
-1.0223154	து வா	-1.608044
-1.3689299	ட வா	-0.70157427
-1.4156902	ரு வா	-0.6197398
-0.9672947	க் வா	-2.1389284
-1.0965786	கா வா	-1.1981279
-1.2978292	வா வா	-1.218204
-0.90954936	ல் வா	-1.5316247
-2.2934303	சீ வா	-0.41284013
-1.0834333	யா வா	-2.2249956
-1.6919001	வு வா	-0.79007363
-1.2687935	கு வா	-0.839877
-2.6123013	ரி வா	-0.64358234
-0.94261014	ப் வா	-1.8553891
-1.0622712	ஸா வா	-1.6497426
-0.91375965	ன் வா	-2.6841283
-1.9569757	றி வா	-0.70157427
-1.0058947	ஸ் வா	-1.4784245
-1.7345909	ஹ வா	-0.33534634
-0.84870815	ட் வா	-2.2563663
-1.0286576	ம் வா	-1.9277444
-1.808685	நி வா	-0.64358234
-1.0926609	சா வா	-1.8953943
-0.96120715	ர் வா	-2.072642
-0.8286778	கே வா	-1.4886804
-1.8821468	ஷ வா	-0.839877
-1.929751	ரீ வா	-0.10814034
-1.9194405	ஜ வா	-0.82481325
-1.7934983	பீ வா	-0.64358234
-1.5999612	க வா	-0.7527268
-1.8028622	ந வா	-0.9468559
-2.4329224	சி வா	-0.64358234
-1.384971	ன வா	-0.50031066
-1.8095689	மு வா	-0.5206251
-1.0222402	டா வா	-0.7984843
-1.116813	ஷா வா	-1.6309932
-1.062003	லா வா	-2.00531
-1.4463054	ர வா	-0.9446123
-1.7821316	இ வா	-0.70157427
-2.535231	லி வா	-0.4073323
-1.9357967	தீ வா	-0.27560553
-1.1944621	வீ வா	-1.0026042
-0.99222326	ரா வா	-2.0817854
-1.0694654	பா வா	-1.3315569
-0.9736098	மா வா	-2.1186306
-1.2563899	ஷ் வா	-0.839877
-2.1010814	ஜி வா	-0.50174594
-1.5744486	த வா	-0.64358234
-1.4315733	சு வா	-0.64213365
-1.7121807	லெ வா	-0.10814034
-1.2937766	வ் வா	-0.70865667
-1.7635424	ச் வா	-0.4514755
-1.5059952	பூ வா	-0.27560553
-1.8415112	செ வா	-0.41284013
-1.0177288	டு வா	-0.4005443
-2.1097054	ஷி வா	-0.28254887
-1.727703	ப வா	-0.9255891
-1.0069216	தா வா	-1.8629423
-1.8806916	ற வா	-0.41284013
-0.9135674	ஜ் வா	-0.73993796
-1.7412996	ஜெ வா	-0.65824825
-1.2023387	ய் வா	-0.988816
-0.9766182	பு வா	-0.98805803
-1.5121747	ய வா	-0.6735456
-1.2079602	னு வா	-0.5247481
-1.219278	ஜா வா	-1.0289333
-2.0321605	மீ வா	-0.10814034
-2.108025	லீ வா	-0.41284013
-1.8043027	நா வா	-0.64358234
-1.3023857	று வா	-0.64358234
-0.9395064	ள் வா	-0.70157427
-1.4853466	ளா வா	-0.8776655
-1.1522847	ஹா வா	-1.590876
-1.5944577	னூ வா	-0.28254887
-1.3302531	ல வா	-0.8776655
-1.5094476	பெ வா	-0.27560553
-1.9910007	ஸ வா	-0.7527268
-1.796878	கீ வா	-0.4005443
-1.3115819	ஹு வா	-0.64358234
-1.8342602	வ வா	-0.78318703
-2.0206854	சூ வா	-0.26107958
-1.5731071	ஈ வா	-0.10814034
-1.1176417	மே வா	-0.27560553
-0.93152475	றா வா	-1.3425524
-0.99309427	பே வா	-0.7527268
-1.661023	ரோ வா	-0.10814034
-1.4804122	ஜீ வா	-0.28080264
-1.4178576	ஜு வா	-0.64222306
-1.3433679	னீ வா	-0.64358234
-1.269364	ஞ வா	-0.41284013
-1.7364221	சே வா	-0.27560553
-0.704693	ழ் வா	-0.7762079
-1.5205324	தெ வா	-0.41284013
-1.3754344	னே வா	-0.27560553
-1.5506415	ஸு வா	-0.41284013
-1.0241495	சோ வா	-0.10814034
-0.9625348	லே வா	-0.7984843
-1.6218421	ங் வா	-0.41284013
-1.1691405	வே வா	-0.27560553
-1.4029894	ஜே வா	-0.74539846
-1.1390902	தே வா	-0.50174594
-1.3337177	ண் வா	-0.10814034
-1.5256925	ரே வா	-0.41284013
-1.3445222	டோ வா	-0.41284013
-1.2929559	ணா வா	-0.10814034
-1.4147736	யே வா	-0.41284013
-1.1759592	ற் வா	-0.10814034
-1.0259202	ணு வா	-0.10814034
-1.1673242	ளே வா	-0.10814034
-1.1673242	ன்​ வா	-0.41284013
-1.7534245	அ ல்	-0.91294473
-1.5471206	ம ல்	-0.7200154
-1.5235877	ச ல்	-0.91033465
-1.7313428	பி ல்	-0.7984843
-2.740021	னா ல்	-0.3020608
-1.1922003	உ ல்	-0.60979337
-1.945359	பை ல்	-0.26461127
-1.2049993	து ல்	-1.5002092
-2.4469903	வி ல்	-0.45689386
-1.5179633	மி ல்	-1.1309228
-0.9972211	ரு ல்	-1.3271154
-2.552883	கா ல்	-0.8953943
-0.5020722	வா ல்	-3.0342324
-1.916756	சீ ல்	-0.43673226
-1.31564	யா ல்	-1.742447
-1.7556233	வு ல்	-0.8284475
-1.3247964	கு ல்	-0.8278681
-2.1683488	ரி ல்	-0.69740224
-2.1922781	ஸா ல்	-0.48273104
-1.9759471	றி ல்	-0.92881805
-1.8652216	ஹ ல்	-0.7036696
-1.8279474	நி ல்	-0.6637857
-1.9481364	சா ல்	-0.999198
-2.5247767	கே ல்	-0.64358234
-1.6961772	ஷ ல்	-0.26438886
-2.1466327	ரீ ல்	-0.41284013
-2.5372093	னி ல்	-0.22830102
-1.9414169	ஜ ல்	-0.7527268
-1.3713272	பீ ல்	-1.09588
-1.6866181	க ல்	-0.51971257
-1.4800568	சி ல்	-1.1458143
-2.231186	ன ல்	-0.40483588
-1.3928392	மு ல்	-0.7307325
-1.7012165	லா ல்	-1.0415224
-2.2307804	ர ல்	-0.26461127
-1.9543874	கி ல்	-0.52160347
-1.8024515	இ ல்	-1.2028904
-2.3886204	லி ல்	-0.42295742
-2.3583138	தீ ல்	-0.18805309
-1.5006847	மை ல்	-0.38348672
-2.4703245	ரா ல்	-0.49367458
-2.193468	பா ல்	-0.4585362
-2.0271769	தி ல்	-0.81731963
-1.9367461	மா ல்	-1.1452718
-1.9495308	டி ல்	-0.4180506
-1.9385154	ஜி ல்	-0.3776176
-1.6847532	த ல்	-0.6198058
-1.9127514	ஸி ல்	-0.45299235
-1.1617165	சு ல்	-1.2395681
-1.5561132	லை ல்	-0.21387343
-1.9441304	வ் ல்	-0.16665468
-1.7986608	யி ல்	-1.2478524
-1.7925816	பூ ல்	-0.26461127
-1.6399665	செ ல்	-0.8268883
-1.7349014	ப ல்	-0.6615865
-1.897833	ஸீ ல்	-0.31098366
-1.8180692	ஹி ல்	-0.6588223
-1.9789852	ய் ல்	-0.14779408
-1.5176029	பு ல்	-0.91242766
-2.0352068	ய ல்	-0.37203553
-1.0891441	னு ல்	-1.1925466
-1.6960574	மீ ல்	-0.551812
-1.2623028	எ ல்	-0.7527268
-1.2611207	லீ ல்	-0.89786893
-1.0073686	லு ல்	-0.8127247
-1.2315933	று ல்	-0.7315375
-2.1084433	ஹா ல்	-0.48021075
-1.8828754	னூ ல்	-0.21387343
-1.709618	கை ல்	-0.18805309
-2.2000153	ல ல்	-0.26461127
-1.7827122	பெ ல்	-0.18805304
-1.4444911	ஸ ல்	-0.4460793
-1.4486879	கீ ல்	-0.7527268
-1.4439937	நூ ல்	-0.2342989
-1.1809152	ஹு ல்	-0.9328208
-1.2282504	லோ ல்	-0.64358234
-1.5212015	வ ல்	-0.48056662
-1.1248364	சூ ல்	-0.7527268
-1.3713268	ஹை ல்	-0.57663554
-1.9148964	சை ல்	-0.26461127
-1.6941439	நு ல்	-0.4128401
-1.6853366	மே ல்	-0.18805309
-1.2692764	ஜு ல்	-0.41819984
-1.6731514	வூ ல்	-0.18805304
-1.6733202	யு ல்	-0.40397418
-1.2282504	கோ ல்	-0.7984843
-1.7631123	கூ ல்	-0.21387343
-0.7809118	டொ ல்	-0.5283394
-1.0932776	ஜூ ல்	-0.42251262
-1.7551669	வே ல்	-0.28606266
-1.6024622	ரெ ல்	-0.45598844
-1.568899	வெ ல்	-0.57663554
-1.7194072	மெ ல்	-0.28606266
-2.1101882	ரூ ல்	-0.16665468
-1.4596286	ஐ ல்	-0.16665468
-1.6517364	ஹீ ல்	-0.3242194
-1.4631655	யீ ல்	-0.32462025
-0.89880514	ஷு ல்	-0.44955897
-1.2755817	ழீ ல்	-0.37987897
-1.0188606	டே ல்	-0.64358234
-1.4188886	ளீ ல்	-0.29465702
-1.3519248	டோ ல்	-0.26461127
-1.4703269	லூ ல்	-0.26461127
-1.316329	டெ ல்	-0.2342989
-0.90574324	தொ ல்	-0.21387343
-1.0188606	ழி ல்	-0.28606266
-0.74180424	லொ ல்	-0.64358234
-1.0188606	டூ ல்	-0.2342989
-2.541312	<s> சீ	-1.175446
-2.1496353	அ சீ	-0.7843526
-2.3332195	ஹ் சீ	-0.40483588
-2.5609667	ம சீ	-0.6765576
-2.532613	ச சீ	-0.64358234
-2.9527185	னா சீ	-0.57663554
-2.1309433	பை சீ	-0.6070957
-2.7914891	து சீ	-0.7984843
-2.548459	ரு சீ	-0.34684396
-2.8901587	க் சீ	-0.5491038
-2.7729857	கா சீ	-0.7667665
-2.8232994	யா சீ	-0.66521156
-2.9970098	ப் சீ	-0.7527268
-2.1912966	ஹ சீ	-0.6226965
-2.1820693	ம் சீ	-0.7293291
-2.5287392	ர் சீ	-0.6677457
-2.1602163	ஜ சீ	-0.50031066
-2.4899004	க சீ	-0.6070957
-2.0351658	ந சீ	-0.83255506
-2.3835704	மு சீ	-0.6517709
-2.4806745	ர சீ	-0.7272156
-2.788045	லி சீ	-0.70157427
-2.8686821	ரா சீ	-0.62995714
-2.8899364	பா சீ	-0.6518494
-2.8405147	மா சீ	-0.70157427
-2.4167936	த சீ	-0.7040057
-2.183973	ச் சீ	-0.4073323
-2.0483298	செ சீ	-0.64358234
-2.5156767	ப சீ	-0.9745756
-2.5446658	தா சீ	-0.5229352
-2.089341	ற சீ	-0.6248378
-2.0139198	ஆ சீ	-0.45598844
-1.9334377	ஜெ சீ	-0.67595905
-2.5307078	ஜா சீ	-0.65824825
-1.9859836	நா சீ	-0.56244373
-2.8279955	ஹா சீ	-0.7984843
-1.0461396	ண சீ	-0.70157427
-1.8656948	மூ சீ	-0.64787394
-2.266961	ஹு சீ	-0.5283394
-2.250663	வ சீ	-0.70648164
-2.5087566	றா சீ	-0.50174594
-1.5665131	ஒ சீ	-0.5491038
-1.3261677	றெ சீ	-0.45598844
-1.7156895	ரெ சீ	-0.6780999
-1.6700387	வெ சீ	-0.91242766
-1.7006876	தை சீ	-0.57663554
-1.6316607	ரே சீ	-0.7984843
-2.4680452	<s> யா	-1.0274279
-2.0204647	அ யா	-0.6780999
-2.2300737	ஹ் யா	-0.5491038
-2.2513661	ம யா	-0.6735456
-2.0851917	வை யா	-1.6113976
-2.395306	ச யா	-0.72790325
-1.1064382	பி யா	-1.3320869
-2.6125777	னா யா	-0.20071591
-1.3790973	பை யா	-1.0026042
-1.5904714	வி யா	-0.8724643
-2.1178784	ட யா	-0.40483588
-1.2159226	மி யா	-1.4981608
-2.8705573	ல் யா	-0.92881805
-1.953865	சீ யா	-0.54293275
-2.7061088	யா யா	-0.40577137
-1.2034292	ரி யா	-1.1945883
-2.8788862	ப் யா	-0.70157427
-2.7066934	ஸா யா	-0.28254887
-1.1892681	றி யா	-0.7422987
-2.8851793	ஸ் யா	-0.40483588
-2.2812734	ஹ யா	-0.990353
-2.7776842	ம் யா	-0.5491038
-1.9178972	நி யா	-0.84232414
-2.623441	சா யா	-0.30337825
-1.9991233	ஷ யா	-0.40483588
-1.1202065	னி யா	-1.3254493
-2.2023354	பீ யா	-0.2565136
-2.3654652	க யா	-1.2652581
-1.9255837	ந யா	-0.45598844
-1.0814908	சி யா	-1.1665366
-2.6950502	லா யா	-0.57663554
-1.4252545	கி யா	-0.93811274
-1.8980544	இ யா	-0.6070957
-1.2137494	லி யா	-1.2025613
-2.4540837	தீ யா	-0.27288228
-1.1171448	மை யா	-0.55666804
-1.8033829	பா யா	-0.9679483
-1.3583705	தி யா	-1.0632201
-2.5096302	மா யா	-0.40527222
-1.4510273	டி யா	-0.88956475
-1.3025854	ஜி யா	-0.5431894
-2.3036137	த யா	-0.53430796
-1.3272448	ஸி யா	-0.93177634
-0.95601743	லை யா	-0.34110364
-1.5038991	யி யா	-0.49055058
-1.9522805	செ யா	-0.70157427
-0.9278915	ஷி யா	-0.738904
-2.384346	ப யா	-0.7807555
-2.0084863	தா யா	-0.5658269
-2.2196057	ஸீ யா	-0.18805309
-1.2962238	ஹி யா	-0.6777684
-1.8450146	ஜெ யா	-0.57663554
-1.3186066	ய் யா	-1.0115591
-2.1814582	ஜா யா	-0.35264897
-2.102939	மீ யா	-0.32653674
-2.7098236	ஹா யா	-0.28254887
-1.1875011	கை யா	-0.40340066
-1.8578218	பெ யா	-0.50174594
-1.7447159	கெ யா	-0.839877
-1.7323335	ஹை யா	-0.34684396
-1.72071	சை யா	-0.72790325
-1.8403047	யை யா	-0.25152305
-2.1449633	ஜீ யா	-0.3486567
-2.1716642	னீ யா	-0.25152305
-1.7300878	னை யா	-0.26461127
-1.2000129	ணி யா	-0.4974543
-1.2520562	கோ யா	-0.35617977
-1.1612912	ரை யா	-0.32653674
-1.7920489	மெ யா	-0.2342989
-0.8444536	தை யா	-0.32364985
-1.5010035	ஐ யா	-0.64358234
-1.4908788	கொ யா	-0.26870158
-0.9169093	நொ யா	-0.45598844
-1.0334051	ழி யா	-0.21387343
-0.45718312	டை யா	-0.6070957
-3.7293804	<s> வு	-0.6113977
-1.8645668	அ வு	-0.6640212
-1.0985017	ஹ் வு	-1.1309228
-1.6446147	ம வு	-0.74460894
-0.8690324	த் வு	-2.4294205
-1.6841859	ச வு	-0.6449802
-0.8996463	னா வு	-2.1713963
-1.0120267	து வு	-2.1487322
-1.2504774	ட வு	-0.7527268
-1.5117632	ரு வு	-0.7762079
-1.9452021	ந் வு	-0.41284013
-0.959379	க் வு	-2.1038356
-1.0343492	கா வு	-1.693354
-1.3561438	வா வு	-1.2608823
-0.8850018	ல் வு	-2.4010868
-2.2783024	சீ வு	-0.41284013
-1.0505899	யா வு	-1.7897104
-1.6892922	வு வு	-0.9598523
-1.378119	கு வு	-0.8953943
-2.4457474	ரி வு	-0.53080994
-0.958775	ப் வு	-2.2433095
-0.99040943	ஸா வு	-1.6527903
-0.86948407	ன் வு	-2.9678648
-0.99625415	ஸ் வு	-2.4324574
-1.5607119	ஹ வு	-0.551812
-0.8080271	ட் வு	-2.2518027
-0.9574312	ம் வு	-2.320276
-1.035256	சா வு	-1.3326259
-0.946361	ர் வு	-2.655213
-0.7938317	கே வு	-1.4319527
-1.8673934	ஷ வு	-0.6252494
-1.9202273	ரீ வு	-0.10814034
-1.9036586	ஜ வு	-0.82383984
-1.5288334	பீ வு	-0.81967366
-1.4194959	க வு	-0.7273654
-1.7874924	ந வு	-0.94847274
-1.2669835	ன வு	-0.66217077
-1.8010045	மு வு	-0.20071591
-0.7909058	டா வு	-0.71707875
-1.034267	ஷா வு	-1.3569273
-0.95946425	லா வு	-1.6665406
-1.2545717	ர வு	-1.046808
-2.4265037	கி வு	-0.30951497
-1.767492	இ வு	-0.72790325
-2.5188777	லி வு	-0.21532208
-1.9299299	தீ வு	-0.10814034
-1.1926719	வீ வு	-0.9745756
-0.93474346	ரா வு	-1.7618737
-0.99265444	பா வு	-1.434615
-2.4802573	தி வு	-0.70157427
-0.94923955	மா வு	-2.0907404
-1.0437511	ஷ் வு	-0.91242766
-1.2585806	த வு	-0.96972305
-1.6294949	சு வு	-0.33584392
-1.9779273	லெ வு	-0.41284013
-1.7237346	வ் வு	-0.18805304
-2.4044094	யி வு	-0.18805309
-1.5477369	ச் வு	-0.27560553
-1.4999942	பூ வு	-0.20071591
-1.619468	செ வு	-0.48560625
-1.0163374	டு வு	-0.4974543
-1.579989	ப வு	-1.2393732
-0.9605449	தா வு	-1.3473283
-1.6605749	ற வு	-0.79007363
-2.2693188	ஹி வு	-0.33744547
-0.95725596	ஜ் வு	-1.1786956
-1.0829735	ய் வு	-0.90114665
-0.96167225	பு வு	-1.5873594
-1.3268758	ய வு	-0.7354832
-1.3100318	னு வு	-0.8953943
-1.098244	ஜா வு	-0.80879605
-2.2149467	மீ வு	-0.41284013
-2.0941565	லீ வு	-0.41284013
-1.9001043	லு வு	-0.41284013
-1.7915807	நா வு	-0.7984843
-1.1645942	று வு	-0.64358234
-0.9387247	ள் வு	-0.64358234
-1.0524592	ளா வு	-1.0415224
-1.1147933	ஹா வு	-1.4353064
-1.8566825	னூ வு	-0.41284013
-1.1455667	ல வு	-0.9124276
-1.5028142	பெ வு	-0.20071591
-1.6426867	கீ வு	-0.42991468
-1.3517712	கெ வு	-0.10814034
-1.3088313	ஹு வு	-0.64358234
-1.8236575	வ வு	-0.41284013
-1.5643871	ஈ வு	-0.18805304
-1.3670396	மே வு	-0.18805304
-0.87138957	றா வு	-1.3235291
-0.9917927	பே வு	-0.7527268
-1.6554756	ரோ வு	-0.18805304
-1.618797	ஜீ வு	-0.10814034
-1.8609791	ஜு வு	-0.41284013
-1.1775427	னீ வு	-0.70157427
-1.7102495	யூ வு	-0.40460435
-1.2647585	ஞ வு	-0.41284013
-1.7245469	சே வு	-0.27560553
-1.5130851	தெ வு	-0.41284013
-1.3695632	னே வு	-0.20071591
-1.0218897	சோ வு	-0.10814034
-0.8540536	லே வு	-0.7984843
-1.6134112	ங் வு	-0.41284013
-0.99841696	வே வு	-0.4005443
-1.5486699	வெ வு	-0.41284013
-1.6919175	மெ வு	-0.41284013
-1.3967365	ஜே வு	-0.41284013
-1.4746616	தே வு	-0.18805304
-2.1041172	ஹீ வு	-0.41284013
-0.89330876	ண் வு	-0.34255233
-1.2185323	ஏ வு	-0.41284013
-1.2647585	கௌ வு	-0.40483588
-1.517592	ரே வு	-0.41284013
-1.339052	டோ வு	-0.41284013
-0.84181076	ணா வு	-0.34255233
-1.053054	யே வு	-0.10814034
-1.0969377	ணே வு	-0.41284013
-0.9010916	ஓ வு	-0.70157427
-1.173199	ற் வு	-0.10814034
-1.0237427	ணு வு	-0.18805304
-1.163679	ளே வு	-0.18805304
-1.163679	ன்​ வு	-0.41284013
-1.0128343	. வு	-0.41284013
-2.2479014	<s> கு	-1.0325675
-2.5784638	ம கு	-0.9831757
-2.5502698	ச கு	-0.71689475
-2.545817	து கு	-0.8953943
-2.8604379	மி கு	-0.6735456
-1.1999005	க் கு	-2.5145433
-2.700187	வா கு	-0.839877
-2.7371686	ல் கு	-0.7527268
-2.8379576	யா கு	-0.34684396
-3.0309355	ன் கு	-1.0026042
-2.023681	நி கு	-0.7527268
-2.9584012	சா கு	-1.1104088
-2.9962406	ர் கு	-0.45598844
-2.1744368	ஜ கு	-1.3425524
-2.5596485	பீ கு	-0.14060621
-2.0487304	ந கு	-0.839877
-2.7010765	சி கு	-0.45598844
-2.1551762	மு கு	-0.8866204
-2.8500054	ஷா கு	-0.70157427
-2.8221095	லா கு	-0.7527268
-2.4976144	ர கு	-0.9745756
-2.5386128	லி கு	-0.4320703
-2.5685923	தீ கு	-0.45598844
-2.9060209	பா கு	-0.5491038
-2.760337	தி கு	-0.34684396
-2.4465094	சு கு	-0.74868095
-2.6973164	யி கு	-0.26107958
-2.060003	செ கு	-0.4047727
-2.5324259	ப கு	-1.0026042
-1.5329286	ற கு	-1.3299632
-2.451471	ய கு	-0.70157427
-2.543244	ஜா கு	-0.70157427
-1.9959041	நா கு	-1.1602122
-2.2972744	று கு	-0.70157427
-2.8427963	ஹா கு	-0.26870158
-1.5197058	நூ கு	-0.9745756
-2.2648926	வ கு	-0.64358234
-1.5928639	பௌ கு	-0.4974543
-1.8484333	நு கு	-0.64358234
-1.8061624	மே கு	-0.70157427
-2.0718038	ஜு கு	-0.7984843
-1.5671084	சே கு	-0.8167091
-1.3556061	ங் கு	-0.34684396
-1.6045527	ஷு கு	-0.64358234
-1.6000847	<s> ரி	-1.5590698
-1.8787298	அ ரி	-0.5955243
-1.5709991	ஹ் ரி	-0.67882574
-1.5421655	ம ரி	-1.0772378
-2.6121097	த் ரி	-0.88956475
-2.3152463	வை ரி	-0.7984843
-1.1579067	ச ரி	-1.1899241
-1.5808722	பி ரி	-0.90712094
-2.0186408	னா ரி	-0.6735456
-1.4506862	உ ரி	-0.27560553
-1.3517473	பை ரி	-0.6637857
-1.7673037	து ரி	-0.70157427
-1.764525	ட ரி	-0.10814034
-1.9249929	மி ரி	-0.6001166
-2.2862096	க் ரி	-0.6086198
-1.4733435	கா ரி	-0.8052551
-2.267386	வா ரி	-0.60297304
-2.7369375	ல் ரி	-0.34684396
-1.1612321	சீ ரி	-0.9869772
-1.6389604	யா ரி	-0.9446123
-2.137045	வு ரி	-0.5306567
-1.7672502	கு ரி	-0.27989718
-1.8162016	ப் ரி	-1.0958185
-1.7723935	ஸா ரி	-0.42042834
-1.8826317	ஸ் ரி	-0.98773134
-1.5911422	மொ ரி	-0.4794695
-1.2369556	ஹ ரி	-0.74577796
-2.7285905	ட் ரி	-0.65824825
-2.0378556	ம் ரி	-0.67317295
-1.7012742	சா ரி	-0.5644715
-2.7018216	ர் ரி	-0.7527268
-1.3395184	ஷ ரி	-0.9460382
-1.9281492	ரீ ரி	-0.27560553
-1.7420158	ஜ ரி	-0.6070957
-1.0377637	பீ ரி	-0.9232109
-1.1986302	க ரி	-1.1697447
-1.3793615	சி ரி	-0.89373505
-2.2088344	ன ரி	-0.10814034
-2.1114368	மு ரி	-0.41284013
-1.7609471	ஷா ரி	-0.5459041
-1.964569	லா ரி	-0.34255233
-1.2959949	கி ரி	-0.80144644
-1.7796571	இ ரி	-1.020333
-2.0665445	லி ரி	-0.20071591
-1.4641144	தீ ரி	-0.57663554
-1.3115985	வீ ரி	-0.34255233
-1.7491966	மை ரி	-0.18805304
-2.2821946	ரா ரி	-0.10814034
-1.7064059	பா ரி	-0.85065645
-1.7671642	தி ரி	-0.7589643
-1.86246	மா ரி	-0.7512775
-2.4239101	டி ரி	-0.7984843
-1.5322033	ஷ் ரி	-0.47359556
-1.7373353	ஜி ரி	-0.88959444
-1.0799866	த ரி	-1.1506668
-1.5754931	ஸி ரி	-0.839877
-1.7297434	சு ரி	-0.34255233
-1.5276666	யி ரி	-0.839877
-1.1038678	பூ ரி	-0.8776655
-1.839133	செ ரி	-0.4707483
-1.8823178	ஷி ரி	-0.4514755
-0.87703526	ப ரி	-1.0962874
-1.4880917	தா ரி	-0.70958364
-1.0320413	ஸீ ரி	-0.839877
-1.8131684	ஆ ரி	-0.99576485
-1.3197794	ஹி ரி	-1.0922151
-1.7887111	பு ரி	-0.49214858
-1.2003453	ய ரி	-0.7984843
-1.7666248	ஜா ரி	-0.3834229
-1.110228	மீ ரி	-1.1207036
-1.6776987	லீ ரி	-0.10814034
-1.2841743	லு ரி	-0.57663554
-1.2233545	ளா ரி	-0.10814034
-1.4068279	ஹா ரி	-0.75265366
-1.3523965	னூ ரி	-0.18805304
-1.410969	கை ரி	-0.59865594
-1.6527574	ல ரி	-0.3313974
-1.7322291	மூ ரி	-0.41284013
-1.2755187	பெ ரி	-0.5306567
-1.0555123	ஸ ரி	-0.81967366
-0.96373534	கீ ரி	-1.1876504
-1.6896188	கெ ரி	-0.41284013
-1.0836525	நூ ரி	-0.55506504
-1.647129	ஹு ரி	-0.2210733
-1.1448283	வ ரி	-0.5862833
-0.9249918	சூ ரி	-0.852842
-1.3636217	ஹை ரி	-0.73633635
-1.4426737	சை ரி	-0.27989718
-1.0455673	தூ ரி	-0.30606574
-1.676256	நு ரி	-0.41284013
-1.6707519	மே ரி	-0.5465615
-1.6236227	ஜீ ரி	-0.30606574
-1.8718196	ஜு ரி	-0.41284013
-1.6096847	னீ ரி	-0.34255233
-1.2219782	ழா ரி	-0.41284013
-1.3571157	வூ ரி	-0.27560553
-1.7344201	சே ரி	-0.41284013
-1.5491693	ஸு ரி	-0.41284013
-0.75878	கூ ரி	-0.8591821
-1.2402377	வெ ரி	-0.18805304
-1.272917	ஹே ரி	-0.41284013
-1.7015368	மெ ரி	-0.5283394
-0.7869813	ஷீ ரி	-0.4974543
-0.9986799	ஹீ ரி	-0.9446123
-1.5128871	ஷு ரி	-0.41284013
-1.0995395	ஷெ ரி	-0.5602926
-0.73974794	ஸோ ரி	-0.41284013
-1.014977	ஸெ ரி	-0.85569835
-1.014977	ஷூ ரி	-0.41284013
-1.0534279	ளீ ரி	-0.10814034
-1.3436058	டோ ரி	-0.50174594
-1.268593	யெ ரி	-0.41284013
-1.4603173	லூ ரி	-0.41284013
-1.2219782	போ ரி	-0.5491038
-1.5371552	ளி ரி	-0.41284013
-1.0995395	ஷோ ரி	-0.41284013
-0.90274715	ணீ ரி	-0.41284013
-3.9032152	<s> ப்	-0.70157427
-1.7385777	அ ப்	-1.3325104
-2.283345	ம ப்	-0.70157427
-2.3189516	வை ப்	-0.26461127
-1.6899475	ச ப்	-1.3356574
-2.5850892	பி ப்	-0.2342989
-2.0196893	னா ப்	-0.9745756
-1.8981595	உ ப்	-0.7527268
-2.5384462	து ப்	-1.0289333
-2.0316157	ட ப்	-0.7984843
-2.6066294	மி ப்	-0.826513
-1.643189	ரு ப்	-0.6331169
-1.6703353	கா ப்	-0.98277
-1.9340563	வா ப்	-0.6126553
-2.5764153	ல் ப்	-0.3083622
-1.7685256	சீ ப்	-0.46891695
-1.9929186	யா ப்	-0.8984358
-1.8214287	வு ப்	-0.839877
-1.533649	கு ப்	-0.5591222
-1.6431514	ரி ப்	-1.2201817
-2.751718	ப் ப்	-0.28606266
-2.5944138	ஸா ப்	-0.28606266
-1.2621052	றி ப்	-0.8638296
-2.7435484	ஸ் ப்	-0.839877
-1.7357717	ஹ ப்	-0.904394
-2.6408446	ம் ப்	-0.70157427
-1.8110465	நி ப்	-1.1492859
-2.0688236	சா ப்	-0.8848442
-2.5690987	ர் ப்	-0.72790325
-1.8846551	ஷ ப்	-1.046808
-1.325175	ரீ ப்	-1.2646102
-2.2302122	டீ ப்	-0.28606266
-2.5266736	னி ப்	-0.50439763
-1.4245548	ஜ ப்	-0.66478837
-1.7942646	பீ ப்	-0.6113976
-1.779678	க ப்	-1.1207036
-1.8054774	ந ப்	-1.0901068
-1.8661051	சி ப்	-0.8482559
-1.323241	ன ப்	-0.7633199
-2.1172528	மு ப்	-0.8496368
-2.2256744	ஷா ப்	-0.58685476
-1.4710125	லா ப்	-1.3328958
-1.4468173	ர ப்	-1.0053102
-1.8451296	கி ப்	-0.71048295
-1.7846202	இ ப்	-1.4014481
-1.706567	லி ப்	-1.0352734
-1.5985429	தீ ப்	-0.9786921
-2.156224	ரா ப்	-0.57541496
-2.6288836	பா ப்	-0.28606266
-2.0206993	தி ப்	-0.73633635
-2.4280322	டி ப்	-1.0289333
-1.9258548	ஜி ப்	-1.0768875
-2.1805017	த ப்	-0.7527268
-2.2632713	ஸி ப்	-0.60193
-1.7318875	சு ப்	-0.924409
-0.6604909	லெ ப்	-1.5943643
-1.8741497	யி ப்	-0.46466494
-1.779153	பூ ப்	-0.35928833
-1.8439025	செ ப்	-0.21387343
-1.8850276	ஷி ப்	-0.70489335
-2.24674	ப ப்	-0.7527268
-2.0813468	தா ப்	-0.57663554
-2.1176023	ஸீ ப்	-0.2342989
-1.6708198	ற ப்	-0.43172938
-1.8177856	ஆ ப்	-0.8953943
-1.7103765	ஹி ப்	-0.6245591
-1.5130363	ஜெ ப்	-0.5075476
-2.4459214	பு ப்	-0.7527268
-2.200653	ய ப்	-0.7984843
-1.660216	ஜா ப்	-0.6472583
-2.0337565	மீ ப்	-0.25990868
-1.5681081	எ ப்	-0.70157427
-1.8916752	லீ ப்	-0.3242194
-1.6685513	லு ப்	-0.47004494
-1.3389964	நா ப்	-0.40112197
-2.0889807	று ப்	-0.21387343
-1.8490435	ஹா ப்	-0.9923043
-1.8695816	னூ ப்	-0.25990868
-1.1660836	கை ப்	-0.525483
-1.5481795	ல ப்	-0.73211706
-0.45245215	ஆஃ ப்	-0.70157427
-1.9934671	ஸ ப்	-1.1342764
-1.646747	கீ ப்	-0.57663554
-2.0495389	ஹு ப்	-0.532271
-1.3197933	ரொ ப்	-0.4213254
-2.0124571	வ ப்	-0.7527268
-1.4973446	சூ ப்	-0.36092657
-1.1140124	ஹை ப்	-0.5345684
-1.6651521	சை ப்	-0.28629294
-1.5745776	ஈ ப்	-0.7527268
-1.6801678	நு ப்	-1.1964242
-2.0878973	றா ப்	-0.32462025
-1.4811108	ஜீ ப்	-0.7704556
-1.8762327	ஜு ப்	-0.57663554
-1.6111913	னீ ப்	-0.40340066
-1.6613547	னை ப்	-0.2342989
-0.8754966	யூ ப்	-0.74665266
-1.1033317	வூ ப்	-0.6346275
-1.7630236	ணி ப்	-0.41284013
-1.2632006	யு ப்	-0.6497263
-0.88361144	றூ ப்	-0.9548315
-1.5521188	ஸு ப்	-0.3083622
-0.90341115	ஊ ப்	-0.3020608
-0.97797656	கூ ப்	-0.6331169
-1.5911726	ரெ ப்	-0.28606266
-0.9830876	ரூ ப்	-1.1993101
-1.0904255	கொ ப்	-0.2021559
-2.1188152	ஹீ ப்	-0.16665468
-1.3103517	ஹெ ப்	-0.26461127
-1.4118115	ளீ ப்	-0.21387343
-1.015837	ஹூ ப்	-0.3020608
-0.7402041	ரௌ ப்	-0.43530637
-0.90341115	தோ ப்	-0.7527268
-0.90341115	றஃ ப்	-0.3020608
-0.45245215	அஃ ப்	-0.70157427
-2.550801	<s> ஸா	-1.09588
-2.0450926	அ ஸா	-0.8419386
-1.9962312	ஹ் ஸா	-0.64358234
-2.4505196	ம ஸா	-0.8591821
-2.4142728	வை ஸா	-0.27288228
-2.5326245	பி ஸா	-0.35179806
-1.5441619	பை ஸா	-0.38045037
-2.7533782	மி ஸா	-0.25152305
-2.4518666	ரு ஸா	-0.5491038
-2.1925995	க் ஸா	-0.8127247
-2.232563	கா ஸா	-0.45598844
-2.6011238	வா ஸா	-0.31262186
-2.6735618	ல் ஸா	-0.70157427
-2.7286954	யா ஸா	-0.28254887
-2.6396074	வு ஸா	-0.50174594
-2.100916	ரி ஸா	-0.7137775
-2.3149729	ப் ஸா	-0.70847267
-2.514877	ன் ஸா	-0.45757723
-2.0825608	றி ஸா	-0.68272775
-2.0850153	ஸ் ஸா	-0.7490246
-2.30693	ஹ ஸா	-0.65752834
-2.8464303	ட் ஸா	-0.21532208
-2.0029633	ம் ஸா	-0.8553892
-1.0529206	நி ஸா	-0.80222034
-2.085267	ர் ஸா	-1.2434208
-2.0126007	ரீ ஸா	-0.4602716
-2.2032495	னி ஸா	-0.8056629
-2.0681164	ஜ ஸா	-0.49429613
-2.460243	பீ ஸா	-0.23148957
-1.9468495	ந ஸா	-0.8794009
-2.5882726	சி ஸா	-0.64358234
-2.278461	மு ஸா	-0.5783471
-2.7169125	லா ஸா	-0.26870158
-1.9882776	ர ஸா	-0.76212156
-1.917947	இ ஸா	-0.6517709
-2.6904988	லி ஸா	-0.18805309
-1.8565209	மை ஸா	-0.26461127
-2.5582051	ரா ஸா	-0.53856194
-2.5840595	பா ஸா	-0.40340066
-2.214621	தி ஸா	-0.73633635
-1.8198516	வ் ஸா	-0.3034276
-2.1674154	யி ஸா	-0.73633635
-1.876107	பூ ஸா	-0.195924
-1.9711494	செ ஸா	-0.6070957
-2.409337	ப ஸா	-0.62778807
-2.237204	ஸீ ஸா	-0.3283064
-1.7449204	ற ஸா	-0.55998325
-2.4391422	ஹி ஸா	-0.45598844
-1.8625056	ஜெ ஸா	-0.50174594
-1.8212256	ய் ஸா	-0.45312268
-2.3674555	மீ ஸா	-0.14060621
-2.212088	று ஸா	-0.57663554
-2.7325792	ஹா ஸா	-0.45598844
-1.6438138	னூ ஸா	-0.27989718
-1.819172	மூ ஸா	-0.23018463
-1.7342889	ள ஸா	-0.65824825
-1.3595977	ரொ ஸா	-0.42360377
-1.5540212	பௌ ஸா	-0.47034743
-1.7815022	நு ஸா	-0.21532208
-1.0512991	ரோ ஸா	-0.7580556
-1.8973045	னீ ஸா	-0.22994545
-1.7414047	னை ஸா	-0.2342989
-1.0066838	னோ ஸா	-0.38156474
-1.3512267	நௌ ஸா	-0.7527268
-1.9740069	றூ ஸா	-0.27288228
-1.196989	நீ ஸா	-0.25507358
-1.1353229	யீ ஸா	-0.3769467
-1.4499146	றோ ஸா	-0.45598844
-1.5949878	ரே ஸா	-0.26107958
-1.8349445	அ ன்	-1.05719
-1.2666395	ம ன்	-1.0262623
-1.2194178	ச ன்	-1.0000526
-0.8055788	பி ன்	-1.3678582
-1.782252	னா ன்	-0.8544357
-1.8874954	பை ன்	-0.4005443
-1.6631815	து ன்	-0.85647625
-0.67829525	வி ன்	-2.3670213
-1.2469308	ட ன்	-2.966295
-0.8343715	மி ன்	-1.4319527
-1.2953241	ரு ன்	-0.9514518
-1.2160151	கா ன்	-1.6961114
-1.3867935	வா ன்	-1.254175
-1.0776949	சீ ன்	-1.2217301
-1.7218379	யா ன்	-1.0847911
-2.4438224	வு ன்	-0.28606266
-0.75835913	ரி ன்	-1.841191
-1.1624081	ஸா ன்	-1.4652697
-1.3624648	றி ன்	-0.4937138
-1.5521058	ஹ ன்	-0.7632899
-1.7703862	நி ன்	-0.41284013
-1.414158	சா ன்	-1.4611293
-1.3281955	ஷ ன்	-0.5780614
-0.94759005	ரீ ன்	-1.387689
-0.34502468	டீ ன்	-2.0190282
-0.7075149	னி ன்	-2.9631345
-1.4093945	ஜ ன்	-0.47839266
-1.364147	பீ ன்	-0.92342305
-1.5888331	க ன்	-0.69057894
-1.2962527	சி ன்	-1.0951495
-1.7829936	ன ன்	-0.43763107
-1.5002193	மு ன்	-0.81967354
-1.7903934	டா ன்	-0.30000126
-1.2329751	ஷா ன்	-1.4051727
-1.4975196	லா ன்	-1.4369736
-1.5427536	ர ன்	-0.6188832
-0.74268323	கி ன்	-1.5088837
-1.7418714	இ ன்	-1.1836029
-0.6989942	லி ன்	-1.6355313
-0.596967	தீ ன்	-2.3785536
-1.3053788	வீ ன்	-0.74460894
-1.5416355	ரா ன்	-1.4113096
-1.4024973	பா ன்	-1.5227602
-0.671814	தி ன்	-1.7329828
-1.2822076	மா ன்	-1.3739417
-0.51045364	டி ன்	-1.5656402
-1.1379924	ஜி ன்	-0.746197
-1.4817088	த ன்	-0.8438073
-0.517883	ஸி ன்	-1.6821542
-1.2158065	சு ன்	-0.9619864
-0.96393657	யி ன்	-1.7355005
-1.7464164	பூ ன்	-0.18805304
-1.260994	செ ன்	-0.5372942
-1.0285329	ஷி ன்	-0.9745756
-1.5170845	ப ன்	-0.6512692
-1.8862262	தா ன்	-0.839877
-1.3108367	ஸீ ன்	-0.6001166
-2.0897248	யோ ன்	-0.3020608
-1.3642024	ஆ ன்	-0.5116947
-1.3150394	ஹி ன்	-0.6933186
-1.7046374	ஜெ ன்	-1.0373664
-2.117454	ய் ன்	-0.18805304
-2.216534	பு ன்	-0.53242636
-1.5844582	ய ன்	-0.57663554
-0.7361162	ரொ ன்	-0.18805309
-1.4418815	னு ன்	-0.71052915
-1.495052	ஜா ன்	-0.93941116
-1.1758716	மீ ன்	-1.0252683
-1.5417916	எ ன்	-0.70157427
-1.0454932	லீ ன்	-1.0497168
-1.0747818	லு ன்	-0.7527268
-1.7691828	நா ன்	-0.4128401
-1.2959579	று ன்	-0.79409033
-1.2173969	ளா ன்	-0.5658269
-1.2050109	ஹா ன்	-1.5227602
-0.90186536	னூ ன்	-0.73633635
-1.0081575	ண ன்	-0.2021559
-1.5375018	ல ன்	-0.48731235
-0.8964559	மூ ன்	-0.6001166
-1.7333716	பெ ன்	-0.70157427
-1.6229646	ள ன்	-0.16665468
-1.1655313	ஸ ன்	-0.69550014
-1.250164	கீ ன்	-1.0289333
-1.6703407	கெ ன்	-0.40483588
-1.4176675	நூ ன்	-0.64358234
-1.2110463	லோ ன்	-0.2342989
-1.5889624	ரொ ன்	-0.21387343
-1.2501518	வ ன்	-0.7363364
-1.3276939	சூ ன்	-0.56440115
-1.0831358	சை ன்	-1.0361717
-0.8708121	தூ ன்	-0.51091063
-1.6461679	நு ன்	-0.21387343
-1.6459746	மே ன்	-0.14060621
-2.065212	றா ன்	-0.45312268
-1.9136591	ரோ ன்	-0.28606266
-1.2783787	ஜீ ன்	-0.6693896
-1.0567605	ஜு ன்	-0.61967015
-1.8127685	னீ ன்	-0.29465702
-1.6336508	னை ன்	-0.21387343
-1.2110463	ழா ன்	-0.26438886
-1.4043412	யூ ன்	-0.17219271
-1.2343826	சே ன்	-0.7874889
-1.1766312	தெ ன்	-1.1786956
-1.4335221	ணி ன்	-0.10814034
-1.3325046	றூ ன்	-0.4768427
-1.526268	ஸு ன்	-0.2342989
-0.32039592	ஸே ன்	-0.1768903
-1.7322761	கூ ன்	-0.41284013
-2.052956	லே ன்	-0.4128401
-1.1621506	டொ ன்	-0.26461127
-1.335298	ஜூ ன்	-0.26438886
-1.2612239	ஹே ன்	-0.7984843
-1.6714766	மெ ன்	-0.28606266
-1.1492407	ரூ ன்	-0.8715914
-1.4323267	கொ ன்	-0.7527268
-1.1302077	தே ன்	-0.31250817
-1.6419371	ஷீ ன்	-0.41284013
-1.3700761	ஹீ ன்	-0.72790325
-1.4347953	யீ ன்	-0.21387343
-0.89747125	ஜோ ன்	-0.57663554
-1.0157841	றீ ன்	-0.24907222
-1.2564397	ழீ ன்	-0.18805309
-1.0081575	டே ன்	-0.2342989
-1.0081575	ஸை ன்	-0.33580723
-0.7361162	கʰ ன்	-0.28606266
-0.89127684	ஷே ன்	-0.23148957
-1.1052251	லூ ன்	-0.36092657
-1.2953489	டெ ன்	-0.28606266
-1.2110463	போ ன்	-0.26461127
-0.47812402	ளி ன்	-0.50439763
-1.091268	ஷோ ன்	-0.7527268
-0.89747125	தொ ன்	-0.16665468
-0.45033997	ஙி ன்	-0.41284013
-1.9827422	<s> றி	-1.3836998
-2.3426151	அ றி	-0.50174594
-2.5522087	வை றி	-0.7527268
-3.024799	பி றி	-0.7527268
-3.1078804	னா றி	-0.28606266
-2.9701366	து றி	-0.7527268
-2.2455604	ப் றி	-0.68696535
-2.3592014	ஸ் றி	-1.0224991
-2.7736962	ம் றி	-0.40672833
-2.6727567	க றி	-0.7040057
-2.845927	கி றி	-0.26461127
-2.6182718	லி றி	-0.52954304
-3.011639	மா றி	-0.64358234
-2.4409688	ஷ் றி	-0.40664867
-2.8654342	யி றி	-0.41284013
-2.4359202	லீ றி	-0.41284013
-2.5548637	ல றி	-0.57663554
-1.6456006	ற் றி	-0.7527268
-2.8322356	<s> ஸ்	-0.93060166
-1.7103251	அ ஸ்	-1.2354417
-1.9789187	ம ஸ்	-0.84462416
-1.7935269	வை ஸ்	-0.64358234
-2.093161	ச ஸ்	-0.7429084
-2.1179152	பி ஸ்	-0.608921
-1.3295875	னா ஸ்	-1.441937
-1.6515265	உ ஸ்	-1.0079993
-1.6921997	பை ஸ்	-0.49807364
-2.062696	து ஸ்	-0.7342434
-2.2084236	வி ஸ்	-0.56963265
-2.0050619	ட ஸ்	-0.18805304
-1.7904183	மி ஸ்	-0.86127514
-1.3693621	ரு ஸ்	-1.0461508
-2.2726421	க் ஸ்	-0.4276143
-1.7765399	கா ஸ்	-0.8341999
-1.6050384	வா ஸ்	-0.9328208
-2.7052586	ல் ஸ்	-0.7527268
-2.0819116	சீ ஸ்	-0.38320294
-1.3125165	யா ஸ்	-1.4337852
-1.6344279	வு ஸ்	-0.96358013
-1.7529905	கு ஸ்	-0.34110364
-1.4110464	ரி ஸ்	-1.2756056
-2.5610964	ஸா ஸ்	-0.16464938
-2.422485	ன் ஸ்	-0.364951
-1.7180111	றி ஸ்	-0.91827357
-2.1004908	ஹ ஸ்	-0.8341999
-2.4748216	ட் ஸ்	-0.25507358
-2.0291588	ம் ஸ்	-0.60659873
-1.7790985	நி ஸ்	-0.9568468
-2.638006	சா ஸ்	-0.7984843
-2.2757812	ர் ஸ்	-0.5096097
-2.1659064	கே ஸ்	-0.7984843
-1.6632305	ஷ ஸ்	-0.6519442
-1.2055627	ரீ ஸ்	-0.96972305
-1.9692181	னி ஸ்	-0.8953943
-1.8859432	ஜ ஸ்	-0.83190805
-1.3226873	பீ ஸ்	-0.988816
-1.8891466	க ஸ்	-0.65431684
-1.7702227	ந ஸ்	-1.063302
-2.2467206	சி ஸ்	-0.4841569
-1.2650505	ன ஸ்	-0.7250554
-2.0780866	மு ஸ்	-1.1494588
-1.793415	டா ஸ்	-0.26438886
-2.058025	லா ஸ்	-0.30194303
-1.7766418	ர ஸ்	-0.8963665
-2.067799	கி ஸ்	-0.38742447
-1.751014	இ ஸ்	-1.1675388
-2.3488789	லி ஸ்	-0.32462025
-2.1172388	தீ ஸ்	-0.26107958
-1.9650406	வீ ஸ்	-0.2342989
-1.5425981	ரா ஸ்	-1.4652697
-1.6358892	பா ஸ்	-1.0099447
-2.4621172	தி ஸ்	-1.0827479
-1.9241483	மா ஸ்	-0.64358234
-1.9015899	ஜி ஸ்	-0.39046514
-1.9777544	த ஸ்	-0.8841964
-2.042387	ஸி ஸ்	-0.26490477
-2.1262999	சு ஸ்	-0.1977608
-1.9656029	லெ ஸ்	-0.7527268
-1.7124933	வ் ஸ்	-0.47312206
-1.523335	யி ஸ்	-1.0656561
-1.8115671	செ ஸ்	-0.28606266
-1.8084598	ப ஸ்	-1.1715765
-1.6213183	தா ஸ்	-0.94902146
-1.8699721	ஸீ ஸ்	-0.551812
-1.6505662	ற ஸ்	-0.85222757
-1.7864507	ஆ ஸ்	-0.21387343
-2.2511406	ஹி ஸ்	-0.73298275
-1.7129894	ஜெ ஸ்	-0.949752
-1.6185217	ய் ஸ்	-0.42407787
-2.412295	பு ஸ்	-1.0289333
-1.4361509	ய ஸ்	-0.6703166
-1.370507	னு ஸ்	-0.81967366
-1.3344525	ஜா ஸ்	-0.81447244
-1.4202995	மீ ஸ்	-0.779461
-1.5475034	எ ஸ்	-0.70157427
-2.0785174	லீ ஸ்	-0.16665468
-1.6403625	று ஸ்	-0.56750005
-1.9098997	ஹா ஸ்	-0.73633635
-1.1862831	னூ ஸ்	-0.622393
-1.672865	கை ஸ்	-0.14060621
-1.643684	ல ஸ்	-0.55789346
-1.7408991	பெ ஸ்	-0.64358234
-1.629146	ள ஸ்	-0.2342989
-1.9601494	ஸ ஸ்	-0.9745756
-2.210641	கீ ஸ்	-0.40275404
-2.015678	ஹு ஸ்	-0.80920815
-1.5951531	ரொ ஸ்	-0.92881805
-1.9762602	வ ஸ்	-0.18805309
-1.868775	சை ஸ்	-0.2342989
-1.4729141	பௌ ஸ்	-0.4038015
-1.2503785	ஈ ஸ்	-0.2021559
-1.3032283	தூ ஸ்	-0.64358234
-1.3671212	ஹொ ஸ்	-0.70157427
-1.4014361	நு ஸ்	-1.0446134
-1.6520376	மே ஸ்	-0.7527268
-2.0701518	றா ஸ்	-0.6538015
-1.8780997	பே ஸ்	-0.3020608
-0.7909137	ரோ ஸ்	-0.8776655
-1.8073068	ஜீ ஸ்	-0.2021559
-1.3381056	னீ ஸ்	-0.5456727
-1.6396563	னை ஸ்	-0.16665468
-1.259741	னோ ஸ்	-0.2021559
-1.699532	யூ ஸ்	-0.2342989
-1.458817	ஒ ஸ்	-0.72790325
-1.3477799	வூ ஸ்	-0.23155178
-1.711091	சே ஸ்	-0.4128401
-1.5045552	தெ ஸ்	-0.64358234
-1.3628125	னே ஸ்	-0.64358234
-1.9138839	யு ஸ்	-0.826513
-0.95805705	றூ ஸ்	-0.7984843
-1.1322814	ரை ஸ்	-0.5736468
-1.4200801	வே ஸ்	-0.2586086
-1.5388981	வெ ஸ்	-0.18805304
-1.3776233	நெ ஸ்	-0.57663554
-0.93660414	ரூ ஸ்	-1.0215721
-1.3895534	ஜே ஸ்	-0.7527268
-1.2594463	சௌ ஸ்	-0.41284013
-1.4392118	யீ ஸ்	-0.41284013
-0.8924471	தௌ ஸ்	-0.74460894
-0.5682026	றோ ஸ்	-0.4974543
-1.2594463	கௌ ஸ்	-0.21387343
-1.0173285	றீ ஸ்	-0.38443393
-1.5083284	ரே ஸ்	-0.21387343
-1.4022769	யே ஸ்	-0.21387343
-1.2594463	யெ ஸ்	-0.72790325
-1.2986383	டெ ஸ்	-0.7984843
-1.2137536	பொ ஸ்	-0.70157427
-1.7701329	<s> மொ	-1.7819602
-3.2597325	ல் மொ	-0.70157427
-2.907806	ர் மொ	-0.72790325
-2.9613636	சி மொ	-0.7527268
-3.154296	ரா மொ	-0.70157427
-1.5003552	ஹொ மொ	-0.6070957
-1.5031781	<s> ஹ	-1.3796941
-2.1605158	அ ஹ	-1.32238
-2.1273234	ம ஹ	-1.1020175
-2.4719846	த் ஹ	-0.4211294
-2.3190413	ச ஹ	-1.0283954
-2.8017094	து ஹ	-0.6070957
-1.9881163	ல் ஹ	-0.9908128
-2.5295985	சீ ஹ	-0.28606266
-2.743961	வு ஹ	-0.40483588
-3.025341	ன் ஹ	-0.70157427
-2.4385762	ஸ் ஹ	-0.67356247
-1.0486097	மொ ஹ	-2.1627226
-2.6775796	ம் ஹ	-0.91242766
-2.0198343	நி ஹ	-0.64358234
-2.754707	ர் ஹ	-0.72790325
-2.110483	ஷ ஹ	-0.72790325
-1.8939209	ஜ ஹ	-0.7426328
-2.013848	க ஹ	-0.58596206
-2.0441616	ந ஹ	-0.64358234
-1.4927597	மு ஹ	-1.8459755
-2.8455489	ஷா ஹ	-0.7984843
-2.0333054	ர ஹ	-0.98412085
-2.008113	இ ஹ	-0.70157427
-2.5643861	தீ ஹ	-0.23148957
-2.4261286	த ஹ	-0.6070957
-1.8144989	சு ஹ	-0.70157427
-2.1602383	வ் ஹ	-0.40483588
-1.9368377	பூ ஹ	-0.7984843
-2.5267706	ப ஹ	-0.49550807
-2.5498967	தா ஹ	-0.33744547
-1.9404998	ஜெ ஹ	-0.64358234
-2.370438	பு ஹ	-0.70157427
-2.1694884	ய ஹ	-0.40340066
-2.5390248	ஜா ஹ	-0.45598844
-2.2143636	ஸ ஹ	-0.64358234
-2.2600975	வ ஹ	-0.8776655
-1.4535309	ஹொ ஹ	-0.7527268
-2.5156302	றா ஹ	-0.64358234
-2.0471547	பே ஹ	-0.72790325
-1.1408026	ழ் ஹ	-0.64358234
-1.5232984	மெ ஹ	-0.6677457
-1.4579456	நெ ஹ	-0.70157427
-1.1388445	ஜொ ஹ	-0.7527268
-1.1388445	சொ ஹ	-0.70157427
-0.46076542	ஜொ ஹ	-0.45598844
-1.9786491	அ ட்	-0.9745756
-1.307024	ம ட்	-1.7375374
-2.9062066	த் ட்	-0.2342989
-2.6767905	பி ட்	-0.70157427
-2.380618	னா ட்	-0.25826424
-2.7374065	வி ட்	-0.18805309
-2.2832592	மி ட்	-0.45975807
-1.9567556	வா ட்	-0.40340066
-2.4366374	ல் ட்	-0.36418158
-1.6801571	சீ ட்	-0.73633635
-2.1217756	யா ட்	-0.7984843
-2.5784204	வு ட்	-0.26461127
-1.806413	கு ட்	-1.5144876
-2.7067804	ரி ட்	-0.21387343
-2.0610838	ஸா ட்	-0.72790325
-2.2496536	ன் ட்	-0.51930225
-1.7797513	றி ட்	-0.25507358
-1.6391712	மொ ட்	-0.21387343
-2.0763183	ஹ ட்	-0.24441868
-2.7355604	ம் ட்	-0.2021559
-1.710942	சா ட்	-1.0289333
-2.2244778	ர் ட்	-0.7092611
-1.9807795	ரீ ட்	-0.70157427
-2.814792	னி ட்	-0.7984843
-2.0083032	ஜ ட்	-0.18805309
-2.4036746	பீ ட்	-0.7527268
-2.1361773	சி ட்	-0.36756214
-2.0518823	ன ட்	-0.16464938
-1.8551233	மு ட்	-0.31098366
-1.5853708	ஷா ட்	-1.2456423
-2.3053625	ர ட்	-0.28677005
-2.3244843	கி ட்	-0.25826424
-1.8637946	இ ட்	-0.70157427
-2.434566	லி ட்	-0.45911393
-2.0483449	வீ ட்	-0.26438886
-1.8154103	மை ட்	-0.21387343
-2.5176966	ரா ட்	-0.22830102
-2.7218351	பா ட்	-0.2342989
-2.2860909	மா ட்	-0.25507358
-1.9808935	ஜி ட்	-0.26107958
-2.2661364	த ட்	-0.7527268
-2.5516956	ஸி ட்	-0.2342989
-2.0475056	லெ ட்	-1.229848
-1.8138177	யி ட்	-0.67354554
-1.8216244	டு ட்	-0.16665468
-2.18414	ஷி ட்	-0.2186127
-2.4535406	தா ட்	-0.38597187
-2.1890848	ஸீ ட்	-0.3656121
-1.8909186	ஆ ட்	-0.26461127
-1.732147	ஹி ட்	-0.6331169
-1.8017654	ய் ட்	-0.4974543
-2.5251505	பு ட்	-0.70157427
-1.6161059	ய ட்	-0.55544627
-2.394023	ஜா ட்	-0.22962672
-1.6003348	மீ ட்	-0.78589517
-1.6141773	எ ட்	-0.9446123
-2.1849067	லீ ட்	-0.16665468
-2.021885	ஹா ட்	-0.53884697
-1.4639984	மூ ட்	-0.1977608
-1.8313155	பெ ட்	-0.7527268
-1.8223106	கீ ட்	-0.42295742
-2.1293983	ஹு ட்	-0.18805309
-1.686299	வ ட்	-0.5359386
-2.0784996	சூ ட்	-0.22994545
-1.3845283	பே ட்	-0.41946018
-1.654802	ஜீ ட்	-0.40340066
-1.6796595	ஜு ட்	-0.23155178
-1.3819908	னை ட்	-0.622393
-1.7699788	யூ ட்	-0.17219271
-1.3822054	வூ ட்	-0.3454087
-1.8012186	சே ட்	-0.16665468
-1.2439752	கோ ட்	-0.7527268
-1.5973027	ஸு ட்	-0.2342989
-1.1024928	ஜூ ட்	-0.45491156
-1.6399841	ரெ ட்	-0.7527268
-1.766461	மெ ட்	-0.14060621
-1.1860238	நீ ட்	-0.7527268
-2.157503	ரூ ட்	-0.2342989
-1.4791505	கொ ட்	-0.7527268
-1.7084016	ஷீ ட்	-0.28677005
-1.5060723	ஹீ ட்	-0.6128235
-1.1860238	னெ ட்	-0.21387343
-1.0285025	ஷூ ட்	-0.18805309
-1.4156055	றீ ட்	-0.57663554
-1.2439752	பொ ட்	-0.18805304
-1.0285025	டூ ட்	-0.21387343
-1.7917466	அ ம்	-0.9918509
-2.208695	ம ம்	-1.0115591
-1.4873589	ச ம்	-1.0562456
-2.2286432	னா ம்	-0.4516968
-0.7797589	உ ம்	-1.6435823
-1.5619005	து ம்	-1.4294204
-1.5442654	ட ம்	-3.3841143
-1.9891167	ரு ம்	-0.8054277
-2.2037556	கா ம்	-0.40340066
-2.5294325	வா ம்	-0.26461127
-1.2308328	சீ ம்	-1.1147542
-2.1170254	யா ம்	-0.5778574
-1.7029386	வு ம்	-1.667716
-1.7998527	கு ம்	-0.9446123
-2.3228035	ரி ம்	-0.8613906
-1.7190508	ஸா ம்	-0.88956475
-1.7721045	றி ம்	-0.44283628
-1.3616093	ஹ ம்	-1.4665594
-1.8719578	நி ம்	-0.791185
-1.7420717	சா ம்	-1.0345734
-1.3585719	ஷ ம்	-0.6821183
-1.757545	ரீ ம்	-0.50031066
-2.3414109	னி ம்	-0.26438886
-1.4456286	ஜ ம்	-0.69057894
-1.0783951	க ம்	-1.6245592
-1.3857955	சி ம்	-1.0885189
-1.6703246	ன ம்	-0.7026432
-2.1938982	மு ம்	-1.0714856
-1.6237968	ஷா ம்	-1.1323632
-1.7073874	லா ம்	-0.93396
-1.5113233	ர ம்	-0.95770764
-1.8617164	கி ம்	-0.8107188
-1.8490726	இ ம்	-1.2030549
-1.7699754	லி ம்	-0.7922354
-1.5358379	தீ ம்	-0.7527268
-2.0764492	ரா ம்	-0.8828052
-2.7043226	பா ம்	-0.26438886
-2.184135	தி ம்	-0.52318275
-2.4746528	மா ம்	-0.43295467
-1.7684495	ஜி ம்	-0.31262186
-1.2253278	த ம்	-1.3955041
-1.8109483	ஸி ம்	-0.6651793
-1.7584782	சு ம்	-0.63162327
-1.7370944	லெ ம்	-0.9446123
-2.3203566	யி ம்	-0.38156474
-1.9189391	ஷி ம்	-0.61614406
-2.1033652	தா ம்	-0.49990147
-0.9597653	ஸீ ம்	-1.0178442
-1.2181613	ற ம்	-0.77334124
-1.8773983	ஆ ம்	-0.41284013
-1.4573289	ஹி ம்	-1.1359435
-1.8015484	ஜெ ம்	-0.7527268
-2.2275662	ய் ம்	-0.16665468
-1.5261428	ய ம்	-0.7984843
-1.8199582	னு ம்	-0.6505257
-1.936266	ஜா ம்	-0.6040334
-1.4353529	மீ ம்	-0.7527268
-1.6058776	எ ம்	-0.46712282
-1.0139874	லீ ம்	-1.0564294
-1.9690094	லு ம்	-0.18805304
-1.5475764	ஹா ம்	-0.98277
-1.1926494	ல ம்	-0.7941195
-1.6927233	ள ம்	-0.21387343
-1.6083224	ஸ ம்	-0.45745644
-1.0552493	கீ ம்	-1.1988989
-2.1145391	ஹு ம்	-0.21387343
-2.0825298	வ ம்	-0.26461127
-1.5224961	பௌ ம்	-0.18805304
-1.6114515	ஈ ம்	-0.21387343
-1.6727566	தூ ம்	-0.21387343
-1.0294676	ஹொ ம்	-1.8477023
-1.4982201	ஜீ ம்	-0.45276573
-1.9330156	ஜு ம்	-0.21387343
-2.1298594	னீ ம்	-0.16665468
-1.240351	ழா ம்	-0.3020608
-1.7611754	யூ ம்	-0.5131206
-1.7897253	சே ம்	-0.18805304
-1.6909864	யு ம்	-0.3496359
-1.6962556	ஜூ ம்	-0.7527268
-1.6311673	ரெ ம்	-0.839877
-1.4739224	கொ ம்	-0.70157427
-1.359757	ஷீ ம்	-0.1977608
-0.9624116	ஹீ ம்	-1.1334404
-1.4835734	யீ ம்	-0.21387343
-1.1133262	ஷெ ம்	-0.64358234
-1.0262923	ஸூ ம்	-0.41284013
-1.2890975	ழீ ம்	-0.28606266
-1.561172	ரே ம்	-0.21387343
-1.4365718	ளீ ம்	-0.16665468
-1.4804504	நை ம்	-0.28606266
-1.0262923	ழி ம்	-0.26461127
-1.6640908	<s> நி	-1.3827684
-2.792767	ரு நி	-0.7984843
-2.6323886	ன் நி	-0.81967366
-2.3433104	ஹ நி	-0.8776655
-3.2174997	சா நி	-0.41284013
-2.9340923	சி நி	-0.64358234
-2.2844605	மு நி	-0.7762079
-2.9868822	தி நி	-0.57663554
-2.6628165	ய நி	-0.7527268
-1.7722639	<s> சா	-1.2071506
-1.9438406	அ சா	-0.89328027
-2.1661575	ஹ் சா	-0.40297574
-2.1961768	ம சா	-1.0115591
-2.8787274	த் சா	-0.3486567
-2.3149347	ச சா	-0.34684396
-2.469271	பி சா	-0.42836633
-1.943843	உ சா	-1.0537568
-1.7403884	பை சா	-0.79263675
-2.4175913	து சா	-0.40634367
-2.0704646	ட சா	-0.64358234
-2.2705889	மி சா	-0.38320294
-2.1727602	ரு சா	-0.40527222
-1.787996	க் சா	-0.6945965
-2.1974669	கா சா	-0.5283394
-2.3033373	வா சா	-0.45312268
-2.2845817	ல் சா	-0.4919089
-2.3480394	சீ சா	-0.28254887
-2.0066228	யா சா	-0.6637857
-2.0233636	வு சா	-0.53315437
-2.0779915	ரி சா	-0.81660956
-2.183232	ப் சா	-0.7382809
-2.0315669	ன் சா	-0.77652013
-1.76459	றி சா	-0.5920903
-2.4930122	ஸ் சா	-0.58153766
-2.0511594	ஹ சா	-0.71889824
-2.516296	ட் சா	-0.70157427
-1.7473752	ம் சா	-0.8840902
-1.2448564	நி சா	-0.9126146
-1.8302476	ர் சா	-1.0744172
-1.9630954	ரீ சா	-0.33145633
-1.8458964	னி சா	-1.0064647
-1.9766186	ஜ சா	-0.5431386
-2.162963	பீ சா	-0.45911393
-1.8584182	ந சா	-0.8570539
-1.8394015	மு சா	-0.63204265
-2.1134243	ர சா	-0.8602
-1.613222	இ சா	-0.6027692
-2.4130774	லி சா	-0.30706418
-1.7929288	மை சா	-0.25826424
-1.806289	ரா சா	-1.0796502
-1.8936328	பா சா	-0.8310135
-1.9333876	தி சா	-0.5704886
-2.464276	மா சா	-0.42836633
-2.158027	ஜி சா	-0.26461127
-2.5237918	ஸி சா	-0.23148957
-2.2245712	சு சா	-0.5283394
-1.7682374	வ் சா	-0.7926109
-1.8068625	யி சா	-0.6523381
-1.4178207	ச் சா	-0.47839266
-1.277206	பூ சா	-0.73374724
-2.3067174	ப சா	-0.6754618
-2.1630852	ஸீ சா	-0.4128401
-1.9315823	ற சா	-0.40483588
-1.8642862	ஆ சா	-0.61353815
-2.344403	ஹி சா	-0.59904873
-2.11409	ஜ் சா	-0.4974543
-1.7888114	ஜெ சா	-0.6735456
-1.7907128	ய் சா	-0.38348672
-2.4961684	பு சா	-1.0289333
-2.0426593	னு சா	-0.34592625
-2.3649502	ஜா சா	-0.23148957
-1.7049645	மீ சா	-0.3720291
-2.157739	லீ சா	-0.26870158
-1.893924	று சா	-0.5783709
-2.4513988	ஹா சா	-0.37982678
-1.9066566	னூ சா	-0.25152305
-1.7681462	மூ சா	-0.567793
-1.1092751	ள சா	-0.92342305
-1.649903	ரொ சா	-0.7527268
-1.5156395	பௌ சா	-0.8142618
-1.603507	ஈ சா	-0.61443913
-1.7192017	நு சா	-0.579492
-1.139197	ரோ சா	-0.7026432
-2.0820515	ஜீ சா	-0.18805309
-1.4673935	னீ சா	-0.5269089
-1.6926515	னை சா	-0.3198541
-0.823352	னோ சா	-0.5913912
-1.3267711	நௌ சா	-0.5287402
-1.2850784	றெ சா	-0.34684396
-1.3955984	னே சா	-0.28254887
-1.5054499	ரை சா	-0.25052518
-1.7444391	மெ சா	-0.18805304
-1.1797007	நீ சா	-0.3283064
-2.1353555	ரூ சா	-0.28606266
-1.4742221	ஐ சா	-0.3283064
-2.161415	ஹீ சா	-0.28254887
-1.4774709	யீ சா	-0.26870158
-1.4291834	றோ சா	-0.195924
-0.7445612	றொ சா	-0.70157427
-1.2924697	ஷே சா	-0.40483588
-1.4742221	நை சா	-0.18805304
-0.84668154	றை சா	-0.48353344
-0.45469296	இஃ சா	-0.7527268
-0.9097705	றே சா	-0.26870158
-0.7445612	னொ சா	-0.25152305
-1.921035	அ ர்	-1.1315956
-1.5498979	ம ர்	-0.9092343
-2.3418727	வை ர்	-0.2342989
-1.1412227	ச ர்	-1.104062
-1.6174824	பி ர்	-1.205679
-1.9545013	னா ர்	-0.9076288
-1.4622416	உ ர்	-0.36092657
-1.5119659	பை ர்	-0.69374895
-1.7214851	து ர்	-1.0352734
-1.5366904	ட ர்	-0.35220087
-1.8013	மி ர்	-0.791185
-1.5454736	கா ர்	-1.2714496
-1.9433056	வா ர்	-0.90114665
-1.1349953	சீ ர்	-1.2544162
-1.6433825	யா ர்	-1.0885189
-2.016866	வு ர்	-0.4180506
-1.4580506	கு ர்	-0.7534392
-1.6604655	ஸா ர்	-0.988816
-2.7814083	ஸ் ர்	-0.7984843
-1.1261436	ஹ ர்	-1.0816635
-1.7056136	சா ர்	-1.1444814
-1.349674	ஷ ர்	-0.7599578
-1.9511315	ரீ ர்	-0.33744547
-1.5746244	ஜ ர்	-0.65367895
-1.0396488	பீ ர்	-1.321363
-1.3812026	க ர்	-1.383945
-1.8381553	ந ர்	-0.70157427
-1.4461205	சி ர்	-0.99576485
-2.2441192	ன ர்	-0.19376323
-1.6022886	மு ர்	-1.107974
-1.8278803	ஷா ர்	-0.59609836
-1.7565799	லா ர்	-0.6735456
-2.2466414	ர ர்	-0.7527268
-1.3850251	கி ர்	-1.2522393
-1.8156518	இ ர்	-1.4302661
-2.0799658	லி ர்	-0.4422626
-1.4142653	தீ ர்	-0.74577796
-1.317115	வீ ர்	-0.5240351
-1.7778568	மை ர்	-0.17219271
-2.3011205	ரா ர்	-0.36092657
-1.7914732	பா ர்	-1.1090596
-1.8445089	தி ர்	-0.7685211
-1.8093612	மா ர்	-0.79171175
-2.1372359	ஜி ர்	-0.18805309
-0.9336475	த ர்	-1.0980643
-1.6426343	ஸி ர்	-0.84640783
-1.5653328	சு ர்	-0.765695
-1.4943871	யி ர்	-0.93110985
-0.9909477	பூ ர்	-0.98096234
-1.8736739	செ ர்	-0.7527268
-1.6780045	ஷி ர்	-0.3880874
-0.8552916	ப ர்	-1.4653023
-1.5905852	தா ர்	-1.1019204
-1.0346621	ஸீ ர்	-0.95338625
-1.6112	ஆ ர்	-0.8070845
-1.3239698	ஹி ர்	-1.2592151
-1.5190781	பு ர்	-0.8776655
-1.135173	ய ர்	-1.0026042
-2.0325804	னு ர்	-0.8953943
-1.7766674	ஜா ர்	-0.42901373
-1.0528816	மீ ர்	-1.0435855
-1.6900811	லீ ர்	-0.44474798
-1.2911985	லு ர்	-0.74460894
-1.2286352	ளா ர்	-0.36418158
-1.4094104	ஹா ர்	-1.2490755
-1.1964853	னூ ர்	-0.43719807
-1.4240178	கை ர்	-0.20071591
-1.807917	ல ர்	-0.42919907
-1.4492058	மூ ர்	-0.47443444
-1.0068924	பெ ர்	-0.56787837
-0.9276787	ஸ ர்	-0.9480455
-0.9396513	கீ ர்	-1.3074946
-1.7072191	கெ ர்	-0.16665468
-1.0903329	நூ ர்	-0.7333716
-1.404988	ஹு ர்	-0.5965048
-1.0205053	வ ர்	-0.9937871
-0.9837813	சூ ர்	-1.0026042
-1.6800742	ஹை ர்	-0.5283394
-1.4537495	சை ர்	-0.525483
-1.0503482	தூ ர்	-0.3683596
-1.7044095	நு ர்	-0.47266477
-1.4895811	ஜீ ர்	-0.45312268
-1.6563207	ஜு ர்	-0.46975905
-1.4636168	னீ ர்	-0.53884697
-1.2317746	ழா ர்	-0.26461127
-1.3682674	வூ ர்	-0.5343917
-1.7633225	சே ர்	-0.4128401
-1.5702491	ஸு ர்	-0.2342989
-0.76055545	கூ ர்	-0.9161238
-1.2500637	வெ ர்	-0.1414528
-1.2834134	ஹே ர்	-0.2342989
-0.78955257	ஷீ ர்	-0.69374895
-0.96062756	ஹீ ர்	-1.1602122
-1.5290319	ஷு ர்	-0.21387343
-0.7429509	ஸோ ர்	-0.21387343
-1.0210332	ஷூ ர்	-0.2342989
-1.0596232	ளீ ர்	-0.28629294
-1.2795135	யெ ர்	-0.21387343
-1.1200365	லூ ர்	-0.54170287
-1.5485071	ளி ர்	-0.4128401
-1.0210332	ஹூ ர்	-0.7527268
-1.1069087	ஷோ ர்	-0.21387343
-0.90741676	ணீ ர்	-0.2342989
-3.5531468	<s> கே	-0.50573015
-2.4083054	ம கே	-0.5015144
-3.1130054	த் கே	-0.23148957
-2.6509483	பி கே	-0.25507358
-2.3379164	து கே	-0.4516968
-2.2475798	ட கே	-0.21387343
-2.9460506	மி கே	-0.40664867
-2.9880767	க் கே	-0.2342989
-3.0946856	ல் கே	-0.28254887
-2.5916297	ன் கே	-0.719303
-3.1472344	ஸ் கே	-0.23148957
-2.616742	ட் கே	-0.25507358
-2.4860623	ம் கே	-0.5780614
-2.514842	சா கே	-0.40340066
-2.8149383	ர் கே	-0.3789779
-2.1627107	ன கே	-0.2813372
-1.8545529	லா கே	-0.9548315
-2.894556	லி கே	-0.3808944
-2.642102	தீ கே	-0.28254887
-2.9784482	ரா கே	-0.26870158
-2.7065096	பா கே	-0.35456547
-2.5372105	தி கே	-0.38320294
-2.660756	டி கே	-0.3198541
-2.5356193	ய கே	-0.3486567
-2.4977956	ல கே	-0.3198541
-1.9938452	பெ கே	-0.3789779
-2.0911362	பே கே	-0.28254887
-1.3680816	ங் கே	-0.4915285
-1.8990258	<s> ஷ	-1.2380195
-3.156184	த் ஷ	-0.57663554
-2.252838	பை ஷ	-0.5689298
-2.962582	து ஷ	-0.26461127
-2.3713872	ரு ஷ	-0.47034743
-2.6916392	க் ஷ	-0.7527268
-3.2010686	ன் ஷ	-0.6070957
-2.6142056	ஹ ஷ	-0.40483588
-3.095111	ம் ஷ	-0.50174594
-2.8505642	ர் ஷ	-0.9934609
-2.569658	மு ஷ	-0.57663554
-2.4365695	ஷ் ஷ	-0.57663554
-2.1302898	ஆ ஷ	-0.6070957
-2.9908617	ஹா ஷ	-0.5491038
-1.8132629	ரொ ஷ	-0.64358234
-1.86061	ஹை ஷ	-0.40483588
-1.4699395	ரோ ஷ	-0.76465577
-1.4833596	னே ஷ	-0.50174594
-1.5214679	யே ஷ	-0.7527268
-3.2225833	<s> ரீ	-0.8070845
-2.6564884	ம ரீ	-0.70157427
-3.0951118	த் ரீ	-0.482157
-2.6290922	ச ரீ	-1.1112258
-2.926875	பி ரீ	-0.7984843
-2.2336943	ப் ரீ	-0.90114665
-2.004515	ஸ் ரீ	-0.80330026
-2.5112464	ஹ ரீ	-0.76465577
-2.169299	ஷ ரீ	-1.0829151
-1.9280643	ஜ ரீ	-0.6299286
-2.285798	க ரீ	-0.71195495
-2.1076698	ந ரீ	-0.839877
-2.4716482	சி ரீ	-0.6156893
-2.9770722	பா ரீ	-0.6677457
-2.6468263	டி ரீ	-0.34684396
-2.3830976	ஷ் ரீ	-0.50174594
-2.1067524	ஜி ரீ	-0.8953943
-2.4922512	த ரீ	-0.5179175
-2.222244	வ் ரீ	-0.64358234
-1.6346548	ச் ரீ	-0.5809272
-2.110112	செ ரீ	-0.7037148
-2.362312	ஷி ரீ	-0.482157
-2.3318806	ப ரீ	-1.021979
-2.0723698	ஆ ரீ	-0.45598844
-2.3162608	ஹி ரீ	-0.4363042
-1.7156619	எ ரீ	-0.40608996
-2.9076262	ஹா ரீ	-0.7984843
-2.476915	ல ரீ	-0.91242766
-1.6730329	ஸ ரீ	-0.839877
-2.31193	ஜீ ரீ	-0.5491038
-1.1463364	ஷெ ரீ	-0.45598844
-1.0531185	ஸெ ரீ	-1.229848
-3.1514192	<s> டீ	-0.7999102
-2.6424716	ம டீ	-0.34684396
-2.3596835	ச டீ	-0.64787394
-2.6314867	பி டீ	-0.6735456
-2.1833243	பை டீ	-0.5491038
-1.618823	ரு டீ	-1.2608823
-1.7140644	ந் டீ	-0.6735456
-2.9547074	க் டீ	-0.34684396
-1.9367142	ல் டீ	-1.7622721
-2.5044959	வு டீ	-0.7527268
-2.4323084	கு டீ	-0.5431386
-1.9388961	ப் டீ	-1.6647716
-2.4183185	ன் டீ	-1.0159682
-2.0034142	ஸ் டீ	-1.3507469
-2.606883	ட் டீ	-0.72790325
-1.9625902	ம் டீ	-1.3895489
-1.622013	ர் டீ	-1.839877
-2.1883597	மு டீ	-0.64787394
-2.4054642	ஜி டீ	-0.65824825
-2.506128	சு டீ	-0.9446123
-1.8974316	வ் டீ	-0.6113977
-2.7545416	யி டீ	-0.6070957
-2.2362344	ச் டீ	-0.20071591
-2.1429887	ற டீ	-0.45598844
-2.3103912	ஹி டீ	-0.839877
-2.1258109	ய் டீ	-0.839877
-2.7181957	பு டீ	-0.34684396
-1.4796354	னு டீ	-1.2050245
-2.2621467	ஸ டீ	-0.5491038
-2.3245661	ஹு டீ	-0.6070957
-1.4862674	ஜு டீ	-1.0159682
-1.8140353	னை டீ	-0.7040057
-2.1268563	யு டீ	-0.6070957
-1.7854196	ண் டீ	-0.6070957
-1.8454839	அ னி	-0.97254944
-2.0815604	ஹ் னி	-0.7527268
-1.320895	ம னி	-0.7291154
-1.2977674	ச னி	-0.82550174
-2.1179152	பி னி	-0.33813447
-1.9429119	னா னி	-0.57663554
-1.7104502	து னி	-0.5783471
-2.2084236	வி னி	-0.72790325
-1.5207175	ட னி	-0.20071591
-1.7382946	மி னி	-0.9522992
-1.3693621	ரு னி	-0.7762079
-2.618047	க் னி	-0.26870158
-1.2343805	கா னி	-1.1068099
-1.4232861	வா னி	-0.96954364
-1.0318313	சீ னி	-0.8268331
-1.6770506	யா னி	-0.705727
-2.295134	வு னி	-0.3020608
-1.5490198	ரி னி	-0.9181173
-2.3867903	ப் னி	-0.6173659
-1.2335376	ஸா னி	-0.86119473
-2.06987	ன் னி	-1.0452307
-1.9278122	றி னி	-0.41284013
-1.7835131	ஸ் னி	-1.0626469
-1.5552156	ஹ னி	-0.94146734
-2.4748216	ட் னி	-0.40571797
-2.6015909	ம் னி	-0.7527268
-1.3839431	சா னி	-1.1242547
-2.6680236	ர் னி	-0.70157427
-1.2255809	ஷ னி	-0.40574136
-0.9769197	ரீ னி	-1.1876504
-0.34506503	டீ னி	-1.8572898
-1.7211608	ஜ னி	-0.18805304
-1.3652878	பீ னி	-0.7762079
-1.4673185	க னி	-0.8821246
-1.4064633	சி னி	-0.551812
-2.1807165	ன னி	-0.10814034
-1.5796344	மு னி	-0.7242383
-1.793415	டா னி	-0.10814034
-1.2334081	ஷா னி	-0.9082243
-1.4680526	லா னி	-1.0888511
-1.6851585	ர னி	-0.6129515
-1.7540417	கி னி	-0.70157427
-1.8105148	லி னி	-0.51812947
-0.59714746	தீ னி	-2.4895658
-1.3069254	வீ னி	-0.57663554
-1.632615	ரா னி	-1.0811194
-1.3855317	பா னி	-1.0590856
-1.6045955	தி னி	-0.49055082
-1.250465	மா னி	-1.0289333
-1.2906452	டி னி	-0.70157427
-1.8900054	ஷ் னி	-0.35623443
-1.4905818	ஜி னி	-0.38841304
-1.4838591	த னி	-0.7472586
-2.042387	ஸி னி	-0.20071591
-1.2171184	சு னி	-0.8776655
-1.5644984	யி னி	-0.5920453
-1.5416529	ச் னி	-0.50160694
-1.7534809	பூ னி	-0.41284013
-1.6095705	செ னி	-0.10814034
-1.4247888	ப னி	-0.49830133
-1.6631838	தா னி	-0.68651795
-1.2391818	ஸீ னி	-0.551812
-2.0922432	யோ னி	-0.41284013
-1.8505479	ற னி	-0.7527268
-1.3674816	ஆ னி	-0.64358234
-1.9264938	ஹி னி	-0.45598844
-1.7129894	ஜெ னி	-0.50049573
-2.1268172	ய் னி	-0.6070957
-2.412295	பு னி	-0.41284013
-1.5870637	ய னி	-0.4005443
-0.73702127	ரொ னி	-0.41284013
-1.443345	னு னி	-0.6113977
-1.4355584	ஜா னி	-0.5289702
-1.2157403	மீ னி	-0.8776655
-1.0897007	லீ னி	-0.8776655
-1.1654615	லு னி	-0.53884697
-1.8474268	று னி	-0.43530637
-1.2188786	ளா னி	-0.4516968
-1.17736	ஹா னி	-0.97005635
-0.902672	னூ னி	-0.64358234
-1.0098524	ண னி	-0.41284013
-1.643684	ல னி	-0.34255233
-1.0161889	மூ னி	-0.20071591
-1.629146	ள னி	-0.41284013
-1.2383201	ஸ னி	-0.5151525
-1.2511004	கீ னி	-0.81967366
-1.2137536	லோ னி	-0.41284013
-1.5951531	ரொ னி	-0.41284013
-1.4025272	வ னி	-0.4974543
-1.32916	சூ னி	-0.27989718
-1.1728451	சை னி	-0.9124276
-1.3032283	தூ னி	-0.10814034
-1.6534967	நு னி	-0.41284013
-1.6520376	மே னி	-0.41284013
-2.0701518	றா னி	-0.27560553
-1.9203697	ரோ னி	-0.41284013
-1.3653355	ஜீ னி	-0.4516968
-1.2579134	ஜு னி	-0.34684396
-1.8175963	னீ னி	-0.41284013
-1.6396563	னை னி	-0.41284013
-1.2137536	ழா னி	-0.10814034
-1.1570327	யூ னி	-0.37201524
-1.2369162	சே னி	-0.6113977
-1.5045552	தெ னி	-0.70157427
-1.9138839	யு னி	-0.65824825
-1.5820488	றூ னி	-0.30606574
-1.5318811	ஸு னி	-0.41284013
-1.7370651	கூ னி	-0.41284013
-2.058305	லே னி	-0.41284013
-1.1644139	டொ னி	-0.41284013
-1.3382021	ஜூ னி	-0.18805304
-1.5694374	ரெ னி	-0.7527268
-1.5388981	வெ னி	-0.7527268
-1.6787989	மெ னி	-0.41284013
-1.1501334	ரூ னி	-0.72790325
-1.1322814	தே னி	-0.18805304
-1.647214	ஷீ னி	-0.41284013
-1.4842305	ஹீ னி	-0.34255233
-1.4392118	யீ னி	-0.41284013
-1.0173285	றீ னி	-0.10814034
-1.2594463	ழீ னி	-0.41284013
-1.0098524	ஸை னி	-0.27560553
-0.73702127	கʰ னி	-0.41284013
-0.8924471	ஷே னி	-0.18805304
-1.107171	லூ னி	-0.27560553
-1.2986383	டெ னி	-0.41284013
-1.2137536	போ னி	-0.41284013
-1.5276557	ளி னி	-0.41284013
-0.89878416	தோ னி	-0.4974543
-1.7959805	<s> ஜ	-1.2077473
-2.2876015	அ ஜ	-0.7984843
-2.4359407	ஹ் ஜ	-0.57663554
-2.6826832	ச ஜ	-0.7762079
-3.113825	ல் ஜ	-0.70157427
-3.0027554	ரி ஜ	-0.70157427
-3.1708257	ஸ் ஜ	-0.70157427
-2.5636415	ஹ ஜ	-0.64358234
-2.7466633	ம் ஜ	-0.88681245
-2.1041012	நி ஜ	-0.70157427
-3.0798306	சா ஜ	-0.702288
-3.1225774	ர் ஜ	-0.6735456
-2.8120053	சி ஜ	-0.7984843
-2.5225284	மு ஜ	-0.70157427
-2.944738	ஷா ஜ	-1.0289333
-2.6236644	ர ஜ	-0.50174594
-2.1008534	இ ஜ	-0.64358234
-2.6573863	தீ ஜ	-0.70157427
-2.684904	ரா ஜ	-0.6479124
-2.8686023	தி ஜ	-0.64358234
-2.3008652	ஜ் ஜ	-0.7527268
-2.6273804	ஹா ஜ	-0.7762079
-1.7980775	ரொ ஜ	-0.78318703
-2.1457546	ரோ ஜ	-0.57663554
-1.7290579	னோ ஜ	-0.27989718
-2.6171567	<s> பீ	-1.0424336
-2.1773655	அ பீ	-0.72640455
-2.5905328	ம பீ	-0.55303794
-2.562453	ச பீ	-0.8939425
-2.868377	பி பீ	-0.3254231
-2.8175054	து பீ	-0.6735456
-2.5737681	ரு பீ	-0.70157427
-2.848012	யா பீ	-0.5491038
-2.6363828	ரி பீ	-0.6735456
-2.5638692	ன் பீ	-0.8776655
-2.8171313	ஸ் பீ	-0.6492623
-1.7179929	மொ பீ	-0.5431386
-2.4459066	ஹ பீ	-0.70417726
-2.718132	சா பீ	-0.70157427
-2.7647471	ர் பீ	-0.5229352
-2.123366	ஷ பீ	-0.7207289
-1.9015653	ஜ பீ	-0.5783471
-2.0202243	பீ பீ	-0.72790325
-2.5164251	க பீ	-0.7722542
-1.766592	ந பீ	-0.8913411
-2.4114754	மு பீ	-0.7185669
-2.8590584	ஷா பீ	-0.45598844
-2.831738	லா பீ	-0.988816
-2.5092862	ர பீ	-0.84158856
-2.1542306	வீ பீ	-0.26870158
-2.6314874	ரா பீ	-0.3896944
-2.8656113	மா பீ	-0.70157427
-2.4577963	சு பீ	-0.3606675
-1.6265862	வ் பீ	-0.99714136
-2.1091983	ற பீ	-0.7878259
-2.0325427	ஆ பீ	-0.8501338
-2.551807	ஜா பீ	-0.988816
-2.002646	நா பீ	-0.65824825
-2.5783067	ஹா பீ	-0.80427754
-2.428723	ல பீ	-0.72790325
-1.4183186	ள பீ	-1.1207036
-2.2268827	ஸ பீ	-0.6922904
-1.8542614	நு பீ	-0.70157427
-2.5261493	றா பீ	-0.5431386
-1.3771418	நௌ பீ	-0.72154
-1.3341446	தௌ பீ	-0.92284065
-0.757189	நஃ பீ	-0.7040057
-1.6967125	<s> க	-1.2675442
-1.8689145	அ க	-1.4736514
-2.2785916	ஹ் க	-0.64358234
-2.4875138	ம க	-0.8828052
-2.265984	ச க	-0.8346722
-2.7751527	பி க	-0.64358234
-2.542348	மி க	-0.43012628
-2.252031	ரு க	-0.72790325
-1.5650942	க் க	-1.1877186
-2.6929207	ல் க	-0.8237902
-2.7607632	யா க	-0.64358234
-2.3028412	கு க	-0.70157427
-2.9339442	ப் க	-0.482157
-2.735301	ன் க	-0.72790325
-2.415261	ஸ் க	-0.80708873
-1.3206677	மொ க	-1.6456455
-2.3436818	ஹ க	-0.45598844
-1.9625125	நி க	-0.64358234
-2.8726685	சா க	-0.64358234
-2.029148	ர் க	-0.70951
-2.0475674	ஷ க	-0.7984843
-2.893722	னி க	-0.45598844
-2.0993943	ஜ க	-0.64358234
-2.489648	பீ க	-0.3283064
-2.6212864	சி க	-0.4974543
-2.0962343	ன க	-0.7527268
-1.233896	மு க	-2.1521745
-2.5013385	லா க	-0.92881805
