ஷே e 0.0007046
ஹி e 0.0002349
ஹே e 0.0328793
ணீ e 0.0007046
ஆ e 0.0007046
யெ e 0.0004697
ப e 0.0075153
லை e 0.0011743
னீ e 0.0185533
டீ e 0.0016440
ரை e 0.0016440
ன e 0.0007046
ட் e 0.0023485
மே e 0.0079850
ஸ் e 0.0011743
பெ e 0.0192579
லே e 0.0129169
கை e 0.0002349
லீ e 0.0063410
ர் e 0.0014091
பை e 0.0007046
ஹீ e 0.0032879
னே e 0.0091592
ஸெ e 0.0002349
மெ e 0.0025834
ணி e 0.0016440
ணீி e 0.0002349
ஜெ e 0.0049319
நே e 0.0018788
கே e 0.2515265
ஜீ e 0.0178488
தே e 0.0263034
ஸீ e 0.0018788
ரே e 0.0232504
சே e 0.0775012
ஸி e 0.0004697
சீ e 0.0159699
ஏ e 0.0032879
ணெ e 0.0002349
ஹெ e 0.0136214
நீ e 0.0011743
தெ e 0.0115078
பீ e 0.0049319
ரெ e 0.0049319
வீ e 0.0432128
நெ e 0.0028182
எ e 0.0112729
வை e 0.0028182
டே e 0.0023485
NULL e 0.0058713
போ e 0.0002349
கீ e 0.0138563
கோ e 0.0002349
ளை e 0.0025834
க e 0.0502583
வ e 0.0002349
த e 0.0077501
ஹ e 0.0382809
லெ e 0.0065759
டெ e 0.0009394
நி e 0.0002349
லி e 0.0004697
தீ e 0.0490841
னெ e 0.0070456
வே e 0.0103335
ளே e 0.0007046
யே e 0.0035228
மி e 0.0007046
தி e 0.0011743
ஹை e 0.0004697
ஜே e 0.0159699
அ e 0.0021137
ளீ e 0.0002349
பே e 0.0187882
றே e 0.0002349
னி e 0.0063410
மீ e 0.0122123
வெ e 0.0091592
செ e 0.0159699
ஈ e 0.0021137
பி e 0.0131517
ணே e 0.0011743
கெ e 0.0418037
ஷி s 0.0262874
ஜு s 0.0003601
ஸெ s 0.0007202
சை s 0.0010803
ஸி s 0.0090025
ஸ் s 0.1019085
ஸ s 0.0216060
செ s 0.0259273
சீ s 0.0122434
ஷோ s 0.0003601
சி s 0.1393590
சூ s 0.0266475
ஷ s 0.0432121
சே s 0.1191934
ஷெ s 0.0003601
ஜ s 0.0003601
சோ s 0.0100828
ஸீ s 0.0014404
அ s 0.0003601
ஷ் s 0.0284480
சௌ s 0.0007202
ய s 0.0003601
சொ s 0.0021606
ஷா s 0.0586964
ஸா s 0.0219662
ஷே s 0.0010803
சா s 0.0968671
ச s 0.1577242
சு s 0.0914656
து aධූ 1.0000000
ஸா z 0.1000000
ஸ் z 0.4000000
சா z 0.2000000
ச z 0.1000000
சி z 0.1000000
ஷா z 0.1000000
ணு u 0.0032747
லு u 0.0221040
மூ u 0.0008187
டோ u 0.0004093
ணெ u 0.0004093
உ u 0.0327466
ரு u 0.0802292
ஜு u 0.0024560
ணே u 0.0008187
பூ u 0.0004093
சு u 0.1056079
தௌ u 0.0004093
மொ u 0.0008187
ஜெ u 0.0004093
ஜூ u 0.0012280
பௌ u 0.0012280
ரூ u 0.0057307
டு u 0.0155546
ஹு u 0.0065493
கு u 0.1702824
ஊ u 0.0004093
ளு u 0.0065493
நு u 0.0094147
றூ u 0.0004093
யு u 0.0040933
லூ u 0.0004093
NULL u 0.0020467
போ u 0.0008187
சூ u 0.0298813
பு u 0.0687679
கோ u 0.0008187
னு u 0.0331560
ட் u 0.0012280
நூ u 0.0012280
னூ u 0.0012280
த u 0.0004093
ரொ u 0.0008187
தூ u 0.0028653
கௌ u 0.0012280
த் u 0.0008187
சௌ u 0.0008187
யூ u 0.0016373
து u 0.1846091
நௌ u 0.0004093
று u 0.0073680
ஜௌ u 0.0004093
வு u 0.0040933
மு u 0.1825624
பெ p 0.0765408
பா p 0.0944334
பி p 0.2246521
ப் p 0.1262425
பே p 0.0457256
சு p 0.0009940
டீ p 0.0009940
ப p 0.2574553
பூ p 0.0059642
ம் p 0.0009940
பீ p 0.0099404
போ p 0.0039761
பொ p 0.0298211
பு p 0.1222664
மா uමා‍ 1.0000000
டீ d 0.0015994
டே d 0.0027989
தே d 0.0307877
ந் d 0.0007997
ட் d 0.0579768
ட d 0.0403838
டி d 0.0479808
டோ d 0.0011995
த d 0.2287085
டா d 0.0359856
டெ d 0.0007997
தை d 0.0007997
ச d 0.0003998
தோ d 0.0063974
தீ d 0.0339864
தெ d 0.0151939
தா d 0.0307877
தூ d 0.0003998
தௌ d 0.0003998
தொ d 0.0167933
தி d 0.2550980
து d 0.1351459
டு d 0.0095962
த் d 0.0455818
டொ d 0.0003998
ரோ r 0.0152627
ரெ r 0.0055768
ர r 0.4895803
றோ r 0.0005870
ரொ r 0.0046962
இ r 0.0032286
த் r 0.0005870
ரூ r 0.0044027
து r 0.0005870
று r 0.0052832
கீ r 0.0002935
ரே r 0.0296448
ரை r 0.0038157
ட் r 0.0184913
றீ r 0.0005870
றூ r 0.0002935
றே r 0.0002935
றி r 0.0164367
னா r 0.0005870
NULL r 0.0002935
பி r 0.0002935
ரீ r 0.0058703
றா r 0.0011741
ரு r 0.0598767
ரா r 0.0953918
ற r 0.0052832
ரி r 0.1312005
ர் r 0.1000881
ரொ r 0.0002935
கூ aකූ 1.0000000
. 0 1.0000000
கா k 0.1421294
கு k 0.1782985
த் k 0.0005094
கே k 0.0086602
ஞா k 0.0005094
கௌ k 0.0005094
கி k 0.0346409
த k 0.0005094
கொ k 0.0305655
லே k 0.0005094
கோ k 0.0005094
க k 0.3453897
கெ k 0.0091696
டெ k 0.0005094
ரு k 0.0005094
NULL k 0.0015283
க் k 0.2027509
னு k 0.0005094
கோ k 0.0361691
கீ k 0.0061131
ஸ் x 0.3333333
ரூ x 0.3333333
கு x 0.3333333
மூ m 0.0021802
ம m 0.3357558
மே m 0.0119913
மீ m 0.0098110
பு m 0.0014535
ன் m 0.0003634
மோ m 0.0058140
மு m 0.1736919
மை m 0.0014535
மி m 0.0770349
ர m 0.0039971
ம் m 0.1515262
மா m 0.1602471
மொ m 0.0454215
ங் m 0.0003634
மெ m 0.0188953
கு q 0.1428571
க் q 0.4285714
இ q 0.4285714
பெ b 0.0381526
ஹா b 0.0020080
பா b 0.1445783
பி b 0.0702811
பை b 0.0140562
ப் b 0.1224900
பே b 0.0682731
வு b 0.0020080
வ் b 0.0160643
ப b 0.3554217
வை b 0.0160643
பொ b 0.0100402
போ b 0.0281124
பு b 0.0943775
பீ b 0.0180723
ந் nදි‍ 0.5000000
தி nදි‍ 0.5000000
சா a 0.0169180
மெ a 0.0030158
சு a 0.0000736
ஸா a 0.0038985
பௌ a 0.0001471
ஏ a 0.0000736
ற a 0.0013240
ள a 0.0008827
யா a 0.0127988
வா a 0.0086061
ல a 0.0460463
னா a 0.0063994
ஜ a 0.0202280
ரே a 0.0001471
நௌ a 0.0000736
ய a 0.0711291
ஆ a 0.0166238
த் a 0.0003678
லா a 0.0437661
நை a 0.0001471
ர a 0.1190143
ர் a 0.0001471
பெ a 0.0010298
கை a 0.0002207
ந a 0.0074292
பை a 0.0010298
ப a 0.0321442
லை a 0.0008091
ஜா a 0.0033836
ரை a 0.0005149
ஷ a 0.0086061
ன a 0.0445752
ட் a 0.0081648
அ a 0.0276572
ழ a 0.0005149
ளா a 0.0002207
ல் a 0.0000736
னெ a 0.0001471
தா a 0.0057374
ஈ a 0.0001471
வெ a 0.0002207
செ a 0.0000736
ரா a 0.0245679
சை a 0.0002207
கெ a 0.0000736
ஐ a 0.0005149
க் a 0.0001471
ணா a 0.0035307
பா a 0.0165502
கா a 0.0230232
மை a 0.0002942
மு a 0.0002207
ச a 0.0433248
தை a 0.0002942
ஷா a 0.0114013
ரெ a 0.0005149
ண a 0.0139022
ஹொ a 0.0002207
கௌ a 0.0002207
மா a 0.0324384
டா a 0.0071350
த a 0.0623759
வ a 0.0466348
டி a 0.0009562
ஹ a 0.0187569
க a 0.0849577
ஹா a 0.0055167
ம a 0.0598014
ஸ a 0.0044869
றா a 0.0002942
லெ a 0.0002942
டெ a 0.0002942
NULL a 0.0114748
நெ a 0.0000736
ளை a 0.0003678
னை a 0.0002942
ட a 0.0102979
கி c 0.0376940
ச் c 0.4445676
செ c 0.0011086
கு c 0.0011086
கொ c 0.0011086
ச c 0.1640798
சா c 0.0476718
சு c 0.0066519
க் c 0.0410200
சே c 0.0011086
ட் c 0.0022173
சி c 0.2361419
சூ c 0.0022173
ஞ் c 0.0133038
யே j 0.0017668
ய j 0.0017668
ஜீ j 0.0759717
ஜே j 0.1201413
ஜௌ j 0.0017668
ச j 0.0088339
சா j 0.0035336
சு j 0.0053004
யோ j 0.0035336
ஜ் j 0.0494700
ஜெ j 0.0388693
ஜூ j 0.0035336
ஞ் j 0.0070671
ஜி j 0.0848057
ஜோ j 0.0106007
ஜு j 0.0106007
ஜ j 0.4823322
NULL j 0.0017668
ஜா j 0.0865724
சி j 0.0017668
கெ g 0.0766990
க g 0.2218447
கை g 0.0019417
கொ g 0.0305825
ஹ g 0.0781553
கி g 0.0140777
கீ g 0.0077670
கோ g 0.0048544
ன g 0.0004854
ஞ g 0.0009709
க் g 0.0019417
கே g 0.5077670
கு g 0.0310680
கா g 0.0135922
ஹை g 0.0004854
கௌ g 0.0009709
ங் g 0.0009709
ஞா g 0.0048544
ஹொ g 0.0009709
ளு l 0.0075022
லா l 0.2643425
கே l 0.0004413
ளீ l 0.0004413
லொ l 0.0057370
ழ l 0.0030891
ளா l 0.0013239
ல் l 0.2047661
லி l 0.1076787
ஜெ l 0.0004413
ளே l 0.0013239
லோ l 0.0052957
லீ l 0.0114740
லே l 0.0242718
லு l 0.0247132
ள l 0.0044131
லெ l 0.0141218
ல l 0.2789056
லூ l 0.0004413
ள் l 0.0225066
லை l 0.0048544
ளை l 0.0070609
ழி l 0.0004413
ழ் l 0.0004413
ட் l 0.0004413
ளி l 0.0035305
பி ‍ 1.0000000
வெ w 0.0380762
மே w 0.0010020
வீ w 0.0931864
வ w 0.6122244
நௌ w 0.0010020
வா w 0.0340681
வு w 0.0020040
வ் w 0.0030060
வி w 0.1733467
வே w 0.0420842
ற் ෆැ 0.3333333
றி ෆැ 0.3333333
ப ෆැ 0.3333333
டீ t 0.0009542
NULL t 0.0004771
டே t 0.0014313
னா t 0.0004771
கூ t 0.0004771
ன் t 0.0009542
தே t 0.0162214
ந் t 0.0009542
ட் t 0.0982824
ட t 0.0138359
நா t 0.0004771
டி t 0.0329198
டோ t 0.0019084
டா t 0.0033397
த t 0.1474237
ற் t 0.0042939
டெ t 0.0023855
ஜ் t 0.0004771
தை t 0.0009542
ர t 0.0014313
தோ t 0.0014313
தீ t 0.0219466
தெ t 0.0071565
தூ t 0.0028626
தா t 0.0577290
தொ t 0.0023855
தி t 0.1359733
து t 0.0639313
த் t 0.3754771
டு t 0.0014313
ண n 0.0425249
ஞ் n 0.0170543
னிி n 0.0002215
நை n 0.0004430
நௌ n 0.0004430
ணீ n 0.0008859
த் n 0.0006645
னு n 0.0179402
ட் n 0.0002215
ன n 0.1337763
னை n 0.0008859
NULL n 0.0004430
னீ n 0.0183832
ஞ n 0.0004430
ன் n 0.2245847
ந் n 0.1353267
நெ n 0.0028793
னே n 0.0086379
ர் n 0.0002215
னூ n 0.0006645
த n 0.0004430
ந n 0.0230343
நூ n 0.0006645
னெ n 0.0070875
ம் n 0.0002215
ணீி n 0.0002215
ணி n 0.0203765
ஞா n 0.0024363
ங் n 0.1065338
தா n 0.0002215
நி n 0.0349945
னோ n 0.0050941
நொ n 0.0004430
நு n 0.0050941
நே n 0.0017719
னொ n 0.0006645
ணு n 0.0017719
நா n 0.0480620
ணா n 0.0112957
னி n 0.0611296
னா n 0.0347730
க் n 0.0002215
ணே n 0.0011074
நீ n 0.0011074
ண் n 0.0241417
ணெ n 0.0002215
ஏ n 0.0002215
ரி y 0.0007698
கை y 0.0007698
ய் y 0.0076982
ப் y 0.0007698
பி y 0.0023095
பை y 0.0069284
யா y 0.1362587
ஐ y 0.0007698
சை y 0.0007698
லை y 0.0030793
யு y 0.0046189
ஜ y 0.0007698
வை y 0.0061586
NULL y 0.0007698
ளை y 0.0053888
கோ y 0.0007698
ரை y 0.0038491
யூ y 0.0023095
யே y 0.0115473
மி y 0.0207852
ய y 0.7413395
யெ y 0.0030793
பே y 0.0238645
நை y 0.0007698
யி y 0.0046189
தை y 0.0007698
யோ y 0.0076982
ஜூ y 0.0007698
ஸ் f 0.0045045
பெ f 0.0180180
பா f 0.3063063
கு f 0.0045045
பி f 0.2837838
பை f 0.0135135
ப் f 0.1081081
ப f 0.2027027
பூ f 0.0090090
பீ f 0.0360360
பௌ f 0.0135135
ணீி i 0.0002347
ணி i 0.0213615
டு i 0.0002347
ஜீ i 0.0011737
றீ i 0.0007042
தே i 0.0025822
ஜி i 0.0112676
ஸி i 0.0053991
நீ i 0.0011737
ரு i 0.0021127
யா i 0.0007042
ல i 0.0002347
இ i 0.0246479
ர i 0.0002347
னிி i 0.0002347
ஹி i 0.0161972
ய i 0.0004695
த் i 0.0002347
ணீ i 0.0011737
நை i 0.0002347
னீ i 0.0199531
டீ i 0.0002347
லை i 0.0018779
ரை i 0.0009390
ன i 0.0007042
ட் i 0.0004695
லீ i 0.0044601
ர் i 0.0023474
கை i 0.0009390
பை i 0.0016432
ஹீ i 0.0004695
வி i 0.0622066
லி i 0.0572770
தீ i 0.0115023
நி i 0.0366197
மி i 0.0422535
தி i 0.2023474
ஹை i 0.0004695
ளீ i 0.0002347
னி i 0.0676056
ழி i 0.0002347
சி i 0.1389671
ளி i 0.0018779
கி i 0.0180751
ஈ i 0.0004695
ரி i 0.1061033
சை i 0.0004695
வ் i 0.0002347
பி i 0.0293427
ப் i 0.0002347
ஐ i 0.0014085
தை i 0.0007042
யி i 0.0035211
பீ i 0.0053991
லோ i 0.0002347
மை i 0.0007042
றி i 0.0136150
வை i 0.0007042
NULL i 0.0009390
ளை i 0.0014085
னை i 0.0009390
கீ i 0.0007042
டி i 0.0478873
ய் i 0.0011737
ஷி i 0.0147887
ரீ i 0.0046948
ஷ் eෂ්‍ 1.0000000
ரொ o 0.0154355
றோ o 0.0022051
ண o 0.0011025
தோ o 0.0220507
ரெ o 0.0011025
ஹொ o 0.0407938
லோ o 0.0132304
தொ o 0.0540243
நௌ o 0.0011025
து o 0.0529217
ஒ o 0.0055127
வொ o 0.0022051
சௌ o 0.0022051
மு o 0.0330761
டொ o 0.0011025
லொ o 0.0143330
சோ o 0.0308710
மோ o 0.0176406
கோ o 0.1565601
பு o 0.0011025
சூ o 0.0066152
போ o 0.0165380
ஹ o 0.0231533
ஷோ o 0.0011025
ஞோ o 0.0011025
கை o 0.0011025
க o 0.0011025
கோ o 0.0011025
யோ o 0.0132304
னோ o 0.0253583
பூ o 0.0154355
நொ o 0.0022051
லி o 0.0011025
ம் o 0.0077178
மொ o 0.1356119
ரோ o 0.0573319
சொ o 0.0066152
தௌ o 0.0011025
னொ o 0.0033076
யே o 0.0011025
கு o 0.0022051
ரூ o 0.0022051
வோ o 0.0011025
னி o 0.0011025
பொ o 0.0385888
ரொ o 0.0011025
டோ o 0.0066152
மூ o 0.0088203
கொ o 0.1378170
ஜோ o 0.0066152
ல o 0.0022051
ஜு o 0.0011025
லா h 0.0002519
ய h 0.0002519
து h 0.0478589
தொ h 0.0017632
த் h 0.1508816
ஷ் h 0.0186398
கா h 0.0015113
பா h 0.0025189
ஹே h 0.0352645
ஷா h 0.0395466
ஹொ h 0.0088161
தூ h 0.0010076
ஹி h 0.0178841
தெ h 0.0035264
ச h 0.0395466
தை h 0.0005038
ஷே h 0.0007557
ஸெ h 0.0005038
ஹீ h 0.0022670
ஷி h 0.0198992
ஷோ h 0.0002519
த h 0.0841310
ஹ h 0.1100756
க h 0.0254408
ஸ் h 0.0078086
ச் h 0.0987406
கை h 0.0005038
ஹா h 0.0201511
ஞோ h 0.0002519
ஸ h 0.0078086
ஷ h 0.0292191
ஷெ h 0.0002519
கீ h 0.0010076
சோ h 0.0007557
டீ h 0.0002519
NULL h 0.0068010
ப h 0.0012594
ஹ் h 0.0020151
கே h 0.0010076
மி h 0.0002519
தி h 0.0959698
ஹை h 0.0005038
கு h 0.0015113
ஹு h 0.0040302
லி h 0.0002519
தீ h 0.0115869
தா h 0.0317380
சா h 0.0146096
ஸா h 0.0080605
கெ h 0.0007557
கி h 0.0015113
ஹெ h 0.0151134
ஸி h 0.0045340
கொ h 0.0002519
சி h 0.0073048
தே h 0.0110831
த் NULL 0.4285714
க NULL 0.0476190
ச் NULL 0.0476190
ந் NULL 0.3809524
ர NULL 0.0952381
வ v 0.0938776
வெ v 0.0163265
ள v 0.0040816
வீ v 0.0040816
வொ v 0.0081633
வு v 0.0285714
வ் v 0.0857143
வோ v 0.0040816
ஜௌ v 0.0040816
வா v 0.3346939
வை v 0.0163265
வி v 0.3795918
பௌ v 0.0081633
வே v 0.0081633
தா v 0.0040816
