ව பா 0.0022409
ව ப 0.0027322
ව இ 0.0124389
ව ல் 0.0127913
ව தி 0.0208313
ව டு 0.0131860
ව வூ 0.0227273
ව டி 0.0012335
ව றீ 0.0588235
ව லெ 0.0019342
ව மு 0.0027523
ව ம் 0.0103161
ව ற் 0.0011455
ව வெ 0.0399361
ව ப் 0.0004608
ව ர 0.0012000
ව னை 0.0035461
ව அ 0.0008172
ව று 0.0196507
ව லு 0.0024969
ව வை 0.6324786
ව யி 0.0015221
ව ஜ 0.0018149
ව கை 0.0008104
ව கெ 0.0003580
ව நீ 0.0521739
ව வு 0.0188867
ව ட் 0.0023160
ව ஸ் 0.0004795
ව டை 0.0709505
ව பு 0.0037760
ව ள 0.0019286
ව றை 0.0236220
ව ங் 0.0025723
ව கோ 0.0010132
ව ஹெ 0.0020597
ව மா 0.0028440
ව வ‍ 1.0000000
ව சி 0.0016741
ව தோ 0.5333333
ව ஒ 0.0023175
ව ய 0.0041287
ව பி 0.0014154
ව ட 0.0033607
ව தெ 0.0020208
ව ஐ 0.0416667
ව NULL 0.0436340
ව ழு 0.0094340
ව தோ 0.8508723
ව றா 0.0952381
ව ஸ 0.0024510
ව ன 0.0031401
ව ரு 0.0002723
ව த 0.0017206
ව தே 0.0019249
ව வோ 0.0500000
ව ழ் 0.0028626
ව வீ 0.0020939
ව வா 0.1480427
ව செ 0.0059761
ව த் 0.0001488
ව யு 0.0175439
ව ஹ 0.0001810
ව ஏ 0.0052632
ව தொ 0.0277778
ව வே 0.0206349
ව ஓ 0.0037313
ව கு 0.0046529
ව ண் 0.0462754
ව வ 0.9317303
ව ர் 0.0011111
ව ன் 0.0009493
ව வ் 0.0181818
ව க 0.0014407
ව பொ 0.0013812
ව கி 0.0027682
ව டோ 0.0168067
ව தொ 0.0093937
ව ம 0.0026443
ව ஹீ 0.0118343
ව கா 0.0030675
ව து 0.0081582
ව சு 0.0232558
ව ல 0.0021860
ව வி 0.0218439
ව லே 0.0027871
ව ச் 0.0068027
ව மெ 0.0034247
ව ச 0.0008410
ව க் 0.0005605
ව எ 0.0041173
ව " 0.1428571
ව ஆ 0.0367232
ව லை 0.0172786
ණෑ னே 0.0094118
ණෑ னா 0.0021529
ණෑ NULL 0.0001326
ණෑ நே 0.0111111
ණෑ னெ 0.0178571
ණෑ நா 0.0096502
ණෑ ணா 0.0529801
ණෑ ணே 0.0232558
ට්‍ ய 0.0002117
ට්‍ கா 0.0010225
ට්‍ வா 0.0007117
ට්‍ றை 0.0078740
ට්‍ ற் 0.0045819
ට්‍ டி 0.0015859
ට්‍ றே 0.0370370
ට්‍ தி 0.0001965
ට්‍ ர் 0.0005556
ට්‍ பா 0.0005602
ට්‍ ட் 0.0023160
ට්‍ ரெ 0.0027701
ට්‍ க் 0.0002803
ට්‍ NULL 0.0003979
ට්‍ ட 0.0000884
ට්‍ ரீ 0.0018248
ල' ல் 0.0001752
මෙි மெ 0.0008562
ණෝ னோ 0.0294118
ණෝ ப் 0.0004608
ණෝ ணோ 0.5000000
ණෝ னெ 0.0089286
ණෝ பா 0.0005602
ණෝ னொ 0.0370370
ණෝ நோ 0.0277778
ථ த 0.0013235
ථ ளி 0.0024155
ථ சா 0.0016502
ථ த் 0.0011160
NULL ண் 0.0316027
NULL ஊ 0.0066890
NULL ‍ 0.4571429
NULL ர். 0.0769231
NULL ரெ 0.0027701
NULL ழி 0.0135135
NULL ஹே 0.0065020
NULL ' 0.2727273
NULL பே 0.0062422
NULL கே 0.0012547
NULL வீ 0.0090735
NULL வா 0.0120996
NULL கொ 0.0054747
NULL த் 0.0388364
NULL செ 0.0039841
NULL ண 0.0041701
NULL சூ 0.0070922
NULL ழ 0.0253807
NULL ரே 0.0077320
NULL எ 0.0066907
NULL ஸீ 0.0416667
NULL லை 0.0097192
NULL மோ 0.0102564
NULL தே. 1.0000000
NULL மெ 0.0042808
NULL டே 0.0032680
NULL ந 0.0062893
NULL மொ 0.0022779
NULL க் 0.0986547
NULL ‎ 0.3980583
NULL ச 0.0277544
NULL யே 0.0035088
NULL ரி 0.0043478
NULL ஹோ 0.0073529
NULL ச் 0.0204082
NULL லே 0.0150502
NULL கா 0.0051125
NULL } 1.0000000
NULL ல 0.0047173
NULL தொ 0.0034159
NULL பொ 0.0009208
NULL க 0.0123807
NULL ள் 0.0306122
NULL கி 0.0110727
NULL ன் 0.0825875
NULL ர் 0.0188889
NULL தா 0.0110396
NULL வ் 0.0030303
NULL ட் 0.0191714
NULL ஜ 0.0027223
NULL கெ 0.0014322
NULL வை 0.0042735
NULL சா 0.0165017
NULL ரூ 0.0108696
NULL னை 0.0212766
NULL று 0.0458515
NULL அ 0.0046309
NULL ப் 0.1944700
NULL சீ 0.0124224
NULL ஜெ 0.0113636
NULL டி 0.0089868
NULL \ 0.5000000
NULL மீ 0.0022831
NULL மு 0.0064220
NULL யா 0.0076706
NULL ஷ் 0.0123457
NULL றோ 0.0909091
NULL ல் 0.0115647
NULL ற 0.0254453
NULL தை 0.0040181
NULL ஜ் 0.0091743
NULL ஜா 0.0055556
NULL தோ 0.0028137
NULL னி 0.0013863
NULL ளா 0.0681818
NULL ஹு 0.0026178
NULL ரீ 0.0018248
NULL மா 0.0072194
NULL ஒ 0.4073001
NULL ய 0.0315477
NULL ழை 0.0086207
NULL ல. 0.0416667
NULL ஷ 0.0062500
NULL தீ 0.0091324
NULL ரொ 0.0052632
NULL பெ 0.0212072
NULL ஷா 0.0129870
NULL பு 0.1262849
NULL யோ 0.0232558
NULL நா 0.0036188
NULL மி 0.0035714
NULL நி 0.0242261
NULL வ 0.0072482
NULL கீ 0.0053097
NULL பீ 0.0183486
NULL ஓ 0.0037313
NULL கு 0.0251256
NULL ஹி 0.0040917
NULL ஏ 0.0210526
NULL ஹ 0.0074208
NULL தே 0.0481232
NULL ழ் 0.0019084
NULL ளு 0.0053476
NULL ரு 0.2031037
NULL த 0.0105221
NULL ஆ 0.0042373
NULL ணி 0.0046512
NULL வி 0.0141343
NULL ளே 0.0263158
NULL து 0.0111248
NULL சு 0.0019380
NULL போ 0.0021575
NULL ம 0.0199690
NULL வொ 0.0357143
NULL நு 0.0076046
NULL கை 0.0097245
NULL ந் 0.0435978
NULL வு 0.0198807
NULL லு 0.0037453
NULL யி 0.1704718
NULL ரோ 0.0052632
NULL ரா 0.0129032
NULL ணை 0.0106383
NULL ர 0.0116311
NULL டா 0.0236128
NULL லெ 0.0038685
NULL ம் 0.0581651
NULL ற் 0.0561283
NULL வெ 0.0025103
NULL ளி 0.0024155
NULL னா 0.0043057
NULL தி 0.0119878
NULL கொ 0.0022075
NULL டு 0.0060584
NULL பா 0.0050420
NULL இ 0.0253221
NULL ப 0.0125435
NULL ஸ 0.0392157
NULL ஹா 0.0017094
NULL ன 0.0039252
NULL மே 0.0083877
NULL ய் 0.0569948
NULL ழு 0.0047170
NULL தெ 0.0138568
NULL பி 0.0186365
NULL உ 0.0043360
NULL ட 0.0133546
NULL ஹெ 0.0030896
NULL கோ 0.0040527
NULL றி 0.0098361
NULL சி 0.0061384
NULL லி 0.0055202
NULL ள 0.0086789
NULL றை 0.0157480
NULL மை 0.0126984
NULL ங் 0.0372990
NULL "" 1.0000000
NULL டை 0.0040161
NULL னு 0.0015083
NULL ஸ் 0.0110285
NULL லா 0.0133038
ටි ட 0.0032723
ටි பி 0.0002359
ටි வி 0.0003212
ටි தெ 0.0005774
ටි ளை 0.0080000
ටි ரி 0.0013378
ටි NULL 0.0021220
ටි ஸீ 0.0416667
ටි ன 0.0001308
ටි தா 0.0009200
ටි ன் 0.0001356
ටි ர் 0.0022222
ටි ஸ்‎ 0.2500000
ටි க 0.0001351
ටි பொ 0.0004604
ටි மை 0.0031746
ටි ம 0.0000912
ටි சி 0.0005580
ටි லி 0.0004246
ටි றி 0.0163934
ටි மா 0.0004375
ටි டீ 0.0666667
ටි அ 0.0002724
ටි பே 0.0012484
ටි ஹே 0.0006502
ටි கு 0.0003722
ටි ட் 0.2314720
ටි வ 0.0001959
ටි நி 0.0013459
ටි இ 0.0004442
ටි ழ 0.0050761
ටි பா 0.0005602
ටි டு 0.0003564
ටි தி 0.0019652
ටි யா 0.0020186
ටි ற் 0.0057274
ටි ம் 0.0002195
ටි டா 0.0011806
ටි மு 0.0003058
ටි ட்' 1.0000000
ටි டி 0.5947137
ටි த் 0.0004464
ටි டி. 0.0909091
සෑ ஸே 0.0833333
සෑ NULL 0.0001326
සෑ சே 0.0393258
ගැ கா 0.0020450
ගැ கொ 0.0001441
ගැ ஜெ 0.0113636
ගැ ஹெ 0.0051493
ගැ கே 0.0087829
ගැ கி 0.0003460
ගැ க 0.0010355
ගැ ‎ 0.0097087
ගැ கு 0.0003722
ගැ : 0.5000000
ගැ ந 0.0012579
ගැ கை 0.0040519
ගැ கெ 0.0680272
ගැ கெ‎ 0.5000000
ගැ NULL 0.0001326
ගැ ஹே 0.0006502
ගැ ஹ 0.0001810
පී மு 0.0003058
පී லெ 0.0019342
පී ஜீ. 0.2500000
පී கொ 0.0001441
පී ஜி 0.0066667
පී . 0.0322581
පී ... 0.0434783
පී பெ 0.0010875
පී NULL 0.0002653
පී பீ 0.4541284
පී மி 0.0008929
පී பே 0.0024969
පී வி 0.0003212
පී பி 0.0051899
පී லூ 0.0135135
පී பீ. 0.1000000
පෘ பி 0.0002359
පෘ ரு 0.0008168
පෘ டு 0.0003564
පෘ பு 0.0004196
පෘ ம் 0.0001097
පෘ ட் 0.0014153
පෘ த் 0.0003720
පෘ ப் 0.0004608
ව්‍ ட் 0.0006433
ව්‍ லை 0.0043197
ව්‍ வ 0.0000490
ව්‍ ற் 0.0011455
ව්‍ ம் 0.0002195
ව්‍ வே 0.0015873
ව්‍ ள் 0.0017007
ව්‍ யி 0.0012177
ව්‍ சா 0.0016502
ව්‍ வ் 0.0212121
ව්‍ று 0.0021834
ව්‍ ளா 0.0113636
ව්‍ வி 0.0028911
කෞ ள 0.0009643
කෞ கெ 0.0003580
කෞ வ் 0.0030303
කේ ய 0.0001059
කේ எ 0.0005147
කේ கே 0.1254705
කේ மை 0.0031746
කේ க் 0.0070067
කේ னே 0.0023529
කේ கெ 0.0050125
කේ வே‎ 0.3333333
කේ NULL 0.0005305
කේ டி 0.0003524
කේ க 0.0002701
කේ தே 0.0009625
කේ கே. 0.1666667
කේ ரு 0.0002723
ණැ நெ 0.0058480
ණැ ணா 0.0066225
ණැ ந 0.0012579
ඝා கா 0.0035787
ඝා க 0.0000450
ඝා ஹ 0.0001810
ද‍ த 0.0004632
ද‍ த‍‍‍ 1.0000000
නු NULL 0.0006631
නු ணி 0.0011628
නු நூ 0.3076923
නු கு 0.0001861
නු ந் 0.0007855
නු க் 0.0002803
නු ந 0.0012579
නු ண் 0.0180587
නු ன 0.0006542
නු ட் 0.0006433
නු னூ 1.0000000
නු னி 0.0004621
නු லு 0.0006242
නු நு‍ 1.0000000
නු ஹீ 0.0118343
නු ல 0.0000575
නු து 0.0004944
නු னுஓ 0.5000000
නු நா 0.0012063
නු ணு 0.1070111
නු நு 0.9391635
නු ன் 0.0001356
නු ஸ் 0.0002398
නු க 0.0011705
නු னு 0.4871795
ශෛ ஷை 0.5000000
ළෙ லை 0.0010799
ළෙ ய 0.0001059
ළෙ ல 0.0001151
ළෙ நி 0.0013459
ළෙ ற் 0.0011455
ළෙ ப 0.0001242
ළෙ லே 0.0005574
ළෙ னை 0.0035461
හී ஹ 0.0005430
හී இ 0.0008885
හී சை 0.0128205
හී ஹி 0.0245499
හී ஈ 0.0253165
හී ஹே 0.0019506
හී ந 0.0012579
හී நீ 0.0086957
හී ஹீ 0.7514793
හී நி 0.0013459
හී ஹெ 0.0041195
හී கீ 0.0106195
ශේ சே 0.0056180
ෂි சி 0.0022321
ෂි ஷீ 0.2500000
ෂි ஷி 0.5666667
ෂි நி 0.0013459
ෂි ஜி 0.0066667
ෂි சீ 0.0062112
ෂි வ 0.0001469
ෂි ணி 0.0011628
ෂි ரூ 0.0108696
ෂි ணா 0.0066225
ෂි ஹி 0.0008183
ෂි சா 0.0049505
ෂි இ 0.0004442
ෂි பி 0.0002359
ඬ ட 0.0010613
ඬ ன் 0.0001356
ඬ ண் 0.0033860
පා தா 0.0018399
පා க 0.0006753
පා ள் 0.0017007
පා பெ 0.0010875
පා பு 0.0006293
පා ம 0.0000912
පා மா 0.0065631
පා ஒ 0.0040556
පා ய 0.0001059
පා வி 0.0028911
පා பி 0.0002359
පා ட 0.0000884
පා லே 0.0027871
පා தெ 0.0066397
පා NULL 0.0200265
පා ழு 0.0058962
පා ந 0.0050314
පා க் 0.0002803
පා ச 0.0004205
පා " 0.1428571
පා லை 0.0053996
පා பா 0.6162465
පා ரு 0.0002723
පා ப 0.0105564
පා ரே 0.0025773
පා தி 0.0000983
පා டு 0.0003564
පා யா 0.0016149
පා வீ 0.8227185
පා பூ 0.0188679
පා வீி 0.3333333
පා த் 0.0000744
පා ரோ 0.0789474
පා னை 0.0035461
පා பே 0.0012484
පා அ 0.0002724
පා யி 0.0018265
පා வே 0.0047619
පා கை 0.0024311
පා வ 0.0002449
පා ழி 0.0270270
මේ மீ 0.0022831
මේ மை 0.0031746
මේ ம 0.0009118
මේ கே 0.0025094
මේ ன் 0.0002712
මේ பெ 0.0016313
මේ NULL 0.0002653
මේ ணி 0.0011628
මේ வே 0.0015873
මේ மொ 0.0022779
මේ மெ 0.0119863
මේ மே 0.0820130
මේ ழி 0.0135135
මේ ஹ 0.0003620
මේ ரா 0.0017204
මේ டெ 0.0033223
ඬේ ந் 0.0003928
ඬේ த 0.0000662
ඬේ ன் 0.0005424
ඬේ டே 0.0261438
ඬේ டெ 0.0033223
ඬේ ண் 0.0011287
ඬේ தே 0.0009625
ල ஆ 0.0042373
ල லை 0.4902808
ල ‎ 0.0097087
ල டே 0.0032680
ල ந 0.0062893
ල ரி 0.0033445
ල லூ 0.0135135
ල யே 0.0017544
ල லே 0.0390190
ල வி 0.0012849
ල ல 0.8477248
ල ளே 0.0263158
ල து 0.0012361
ල கா 0.0005112
ල ம 0.0024619
ල ஸு 0.0185185
ල ள் 0.0051020
ල க 0.0018909
ල ன் 0.0013561
ල நு 0.0038023
ල ர் 0.0100000
ල லோ 0.0042918
ල ழி 0.0270270
ල ரெ 0.0027701
ල வ 0.0020569
ල ண் 0.0045147
ල கு 0.0020473
ල நெ 0.0029240
ල லஓ 0.3636364
ල ரை 0.1002865
ල ஹ 0.0001810
ල போ 0.0491803
ල த் 0.0000744
ල கே 0.0062735
ල ஹௌ 0.3333333
ල ழ் 0.2223282
ල பெ‍ 0.3333333
ල தே 0.0009625
ල த 0.0015882
ල ரு 0.0032671
ල ழ 0.1522843
ල தை 0.0007534
ල ன 0.0039252
ල தோ 0.0016882
ල ழு 0.0035377
ල NULL 0.0270557
ල தெ 0.0005774
ල ளை 0.5440000
ල ட 0.0014151
ල ளா 0.0568182
ල பி 0.0002359
ල ய 0.0028584
ල லி 0.0089172
ල றி 0.0032787
ල மா 0.0006563
ල மை 0.1650794
ල றை 0.0157480
ල ள 0.7791707
ල ழை 0.0043103
ල பு 0.0006293
ල னு 0.0015083
ල டை 0.0080321
ල லா 0.1116038
ල ஸ் 0.0004795
ල நா 0.0012063
ල யோ 0.0232558
ල லொ 0.0335570
ල வௌ 0.3750000
ල கை 0.0016207
ල லு 0.0043695
ල வை 0.0042735
ල று 0.0043668
ල அ 0.0013620
ල ணை 0.2021277
ල ரா 0.0004301
ල னை 0.0035461
ල ல‎ 0.2500000
ල ர 0.0024924
ල ப் 0.0013825
ල வெ 0.0002282
ල ளி 0.0048309
ල யா 0.0012111
ල ற் 0.0045819
ල ம் 0.0006585
ල லெ 0.0657640
ල டி 0.0044053
ල eell 0.1250000
ල ல் 0.0420536
ල தி 0.0005896
ල ழொ 1.0000000
ල இ 0.0004442
ල ப 0.0009935
ල லா‎ 1.0000000
ඩෘ ரு 0.0002723
ඩෘ ட 0.0000884
ජූ ஜு 0.0750000
ජූ யூ 0.0434783
ජූ ஜூ 0.2857143
ජූ னி 0.0004621
මා பா 0.0067227
මා ப 0.0002484
මා மீ 0.0045662
මා டி 0.0001762
මා மு 0.0009174
මා ம் 0.0003292
මා ற் 0.0137457
මා கே 0.0012547
මා வா 0.0007117
මා வீ 0.0123888
මා ஹ 0.0001810
මා யு 0.0087719
මා அ 0.0016344
මා று 0.0152838
මා யி 0.0006088
මා கை 0.0008104
මා ழி 0.1891892
මා ட் 0.0003860
මා மாஓ 0.5000000
මා பொ 0.0009208
මා மை 0.0063492
මා ம 0.0261694
මා ஹீ 0.0059172
මා மா 0.9170860
මා ஒ 0.0034762
මා பி 0.0009436
මා உ 0.0005420
මා யே 0.0122807
මා னி 0.0027726
මා ச் 0.0034014
මා தெ 0.0002887
මා NULL 0.0090186
මා மெ 0.0068493
මා ழு 0.0070755
මා மொ 0.0022779
මා ச 0.0021026
මා ன 0.0001308
මා மே 0.0009320
මා எ 0.0015440
මා லை 0.0043197
මා ஆ 0.0028249
ඹ ப் 0.0009217
ඹ ற் 0.0011455
ඹ ம் 0.1003073
ඹ வோ 0.0100000
ඹ பா 0.0072829
ඹ ப 0.1140089
ඹ வ 0.0000490
ඹ மி 0.0008929
ඹ கு 0.0001861
ඹ லு 0.0006242
ඹ பே 0.0049938
ඹ ஏ 0.0052632
ඹ ரை 0.0028653
ඹ கோ 0.0010132
ඹ ல்ஓ 0.0571429
ඹ மா 0.0002188
ඹ ய 0.0001059
ඹ ஒ 0.0104287
ඹ ம 0.0022796
ඹ ஸொ 0.0666667
ඹ பு 0.0106986
ඹ ணா 0.0066225
ඹ பை 0.0256410
ඹ பெ 0.0048940
ඹ லொ 0.0134228
ඹ லோ 0.0042918
ඹ ன் 0.0001356
ඹ மே 0.0009320
ඹ ஸ 0.0012255
ඹ ஹா 0.0017094
ඹ NULL 0.0011936
ඹ தோ 0.0005627
ඹ க் 0.0002803
ඹ ய் 0.0051813
ඹ ட 0.0004422
ග‍ க 0.0000450
නූ னு 0.0030166
නූ ன 0.0001308
නූ நு 0.0114068
නූ நூ 0.3076923
ස ர 0.0026770
ස ப் 0.0133641
ස டி 0.0093392
ස வெ 0.0002282
ස யா 0.0008074
ස ம் 0.0622256
ස ற் 0.0080183
ස தி 0.0157217
ස ல் 0.0006133
ස சை 0.3076923
ස டு 0.0032074
ස ற 0.0063613
ස ப 0.0009935
ස இ 0.0039982
ස ட் 0.0093927
ස யை 0.1428571
ස சி. 0.1250000
ස கை 0.0032415
ස வு 0.2385686
ස யி 0.0012177
ස சா 0.1188119
ස .. 0.0256410
ස அ 0.0013620
ස று 0.0021834
ස மா 0.0006563
ස ய 0.0029642
ස ஒ 0.0005794
ස சி 0.0022321
ස ஸி 0.0052632
ස ஷ 0.0375000
ස ல. 0.0208333
ස சௌ 0.3333333
ස ங் 0.0003215
ස மை 0.1460317
ස பு 0.0048248
ස L 0.1666667
ස பெ 0.0021751
ස ம. 0.2000000
ස ஸ் 0.0069528
ස ஸா 0.1100917
ස ன 0.0003925
ස ஸ 0.7916667
ස NULL 0.0697613
ස றா 0.0476190
ස னி 0.0018484
ස சே 0.0196629
ස தெ 0.0008661
ස பி 0.0002359
ස ட 0.0077828
ස உ 0.0005420
ස வீ 0.0003490
ස பூ 0.0037736
ස ண 0.0016681
ස லைஓ 1.0000000
ස செ 0.0159363
ස த் 0.0003720
ස ழ் 0.0677481
ස ரு 0.0443779
ස த 0.0002647
ස நி 0.0067295
ස மி 0.0017857
ස வ 0.0001469
ස கீ 0.0035398
ස கு 0.0007445
ස ஸை 0.4500000
ස ' 0.1136364
ස பே 0.0012484
ස ஹ 0.0001810
ස யு 0.0175439
ස கூ 0.1549296
ස ரை 0.0744986
ස கா 0.0296524
ස சு 0.0019380
ස ல 0.0101248
ස து 0.0004944
ස ஸு 0.0185185
ස ம 0.0006383
ස க 0.0013056
ස ஏ. 0.1818182
ස கி 0.0290657
ස ள் 0.0187075
ස தா 0.0018399
ස ர் 0.0050000
ස ன் 0.0008137
ස " 0.1428571
ස ஸெ 0.0746269
ස லை 0.0032397
ස க் 0.0022422
ස ஸே 0.0416667
ස ச 0.6530698
ස ந 0.0012579
ස யே 0.0017544
ස ரி 0.0030100
ස சீ. 0.1428571
ස வி 0.0025699
වී நெ 0.0058480
වී தெ 0.0167436
වී யீ 0.1428571
වී சா 0.0033003
වී யி 0.0009132
වී ரை 0.0085960
වී அ 0.0013620
වී வி 0.0080308
වී ட் 0.0001287
වී வ 0.0000979
වී ழு 0.0011792
වී வு 0.0009940
වී ச 0.0004205
වී வே 0.0031746
වී NULL 0.0017241
වී பெ 0.0005438
වී க 0.0001351
වී ர் 0.0022222
වී ப 0.0001242
වී வ் 0.0060606
වී ஒ 0.0005794
වී ல 0.0000575
වී வீ 0.0884662
වී வெ 0.0002282
වී மீ 0.0022831
වී டி 0.0001762
තෝ கொ 0.0002881
තෝ நி 0.0013459
තෝ ய 0.0002117
තෝ ல 0.0000575
තෝ த் 0.0003720
තෝ தோ 0.0666667
තෝ தொ 0.0128096
තෝ தோ 0.0360158
තෝ டோ 0.0084034
තෝ வோ 0.0100000
තෝ த 0.0000662
තෝ நோ 0.0277778
තෝ ட 0.0001769
නැෙ ண 0.0008340
නැෙ தி‎ 0.1666667
ටේ டை 0.0481928
ටේ தே 0.0028874
ටේ டு 0.0003564
ටේ ரே 0.0103093
ටේ ர 0.0001846
ටේ டா 0.0011806
ටේ டெ 0.0664452
ටේ ரூ 0.0108696
ටේ டே‎ 0.5000000
ටේ ட 0.0011497
ටේ எ 0.0005147
ටේ வ 0.0000490
ටේ ‍ 0.0571429
ටේ ட் 0.0072054
ටේ கை 0.0008104
ටේ NULL 0.0001326
ටේ டே 0.4019608
ජේ. .. 0.0128205
ජේ. ஜே. 0.8571429
ජේ. ஜே 0.0138889
ෂ් ஷ 0.0125000
ෂ් ஸ் 0.0038360
ෂ් ஷ் 0.3580247
ෂ් ஜூ 0.0204082
වෑ பெ 0.0005438
වෑ வா 0.0049822
වෑ வ 0.0002449
වෑ வெ 0.0082154
වෑ : 0.5000000
වෑ வே 0.1603175
වෑ பே 0.0012484
ෂ්‍ ர் 0.0005556
ෂ්‍ ட 0.0000884
ඩු ட 0.0027417
ඩු ந் 0.0003928
ඩු ஜ 0.0009074
ඩු NULL 0.0002653
ඩු டூ 0.2500000
ඩු லை 0.0010799
ඩු வ 0.0000490
ඩු டு‎ 0.5000000
ඩු ப 0.0001242
ඩු நு 0.0038023
ඩු ஸ் 0.0002398
ඩු த 0.0001324
ඩු தா 0.0009200
ඩු னு 0.0015083
ඩු டு 0.3221668
ඩු ல் 0.0000876
ඩු ங் 0.0003215
ඩු றை 0.0236220
ඩු டி 0.0007048
ඩු டா 0.0023613
ඩු ஸி 0.0052632
ඩු சி 0.0016741
ඩු து 0.0088999
ඩු தூ 0.0107527
ඩු வீ 0.0001745
දී ரு 0.0010890
දී டீ 0.0666667
දී டெ 0.0033223
දී தி 0.0070748
දී தே 0.0009625
දී தெ 0.0005774
දී டி 0.0001762
දී ந் 0.0001964
දී தீ 0.6073059
දී ளி 0.0024155
දී சீ 0.0062112
යෝ ட் 0.0012867
යෝ ப் 0.0064516
යෝ யொ 0.1428571
යෝ மூ 0.0104167
යෝ சோ 0.0666667
යෝ மை 0.0476190
යෝ ய் 0.0051813
යෝ NULL 0.0007958
යෝ தி 0.0001965
යෝ யி 0.0003044
යෝ ஜோ 0.0088496
යෝ னோ 0.0147059
යෝ நோ 0.0277778
යෝ யோ 0.6162791
ළො லொ 0.1275168
ළො லெ 0.0019342
ළො லோ 0.0042918
ළො கொ‎ 0.2500000
ළො ழு 0.0023585
ළො ல 0.0014382
ඳෑ ந் 0.0001964
ඳෑ தே 0.0009625
නේ னே 0.0023529
ණා ண 0.0100083
ණා கா 0.0005112
ණා ண் 0.0011287
ණා ன 0.0009159
ණා னா 0.0290635
ණා ச 0.0004205
ණා NULL 0.0001326
ණා னு 0.0015083
ණා ணா 0.4172185
ණා ரு 0.0002723
ණා நா 0.0180941
බ්. .. 0.0128205
බ්. .... 0.1428571
බ්. ... 0.0434783
පු கொ 0.0002881
පු ப் 0.0801843
පු வா 0.0014235
පු வீ 0.0003490
පු பூ 0.2113208
පු யா 0.0004037
පු வெ 0.0002282
පු ம் 0.0002195
පු த 0.0001324
පු ப 0.0017387
පු இ 0.0004442
පු ஜூ 0.0204082
පු ஊ 0.0033445
පු வ 0.0000979
පු கெ 0.0003580
පු ஜ 0.0018149
පු ஹே 0.0013004
පු அ 0.0002724
පු னி. 0.1363636
පු ய 0.0002117
පු சி 0.0022321
පු கா 0.0005112
පු மா 0.0006563
පු ங் 0.0003215
පු பு 0.3423537
පු டை 0.0013387
පු பொ 0.0009208
පු ன 0.0001308
පු L.. 0.0588235
පු ழு 0.0011792
පු ஜு 0.0125000
පු NULL 0.0014589
පු நூ 0.0769231
පු னி 0.0092421
පු யே 0.0017544
පු ட 0.0001769
පු வி 0.0003212
පු பி 0.0016513
ඩා சா 0.0016502
ඩා டெ 0.0033223
ඩා ட 0.0023879
ඩා று 0.0021834
ඩා ன 0.0007850
ඩා ட் 0.0001287
ඩා NULL 0.0001326
ඩා டு 0.0010691
ඩා ன் 0.0008137
ඩා வ் 0.0030303
ඩා தா 0.0064397
ඩා த 0.0001985
ඩා ப் 0.0004608
ඩා ஞ் 0.0361446
ඩා றி 0.0032787
ඩා சி 0.0027902
ඩා த் 0.0000744
ඩා டாஓ 0.5000000
ඩා ல 0.0000575
ඩා தொ 0.0017079
ඩා டா 0.5419126
ඩා யா 0.0020186
සො NULL 0.0002653
සො சோ 0.0416667
සො ‎ 0.0097087
සො சு 0.0019380
සො பா 0.0005602
සො சொ 0.8554217
සො பொ 0.0004604
සො ஸொ 0.7333333
සො சோ 1.0000000
සො சொ 1.0000000
කැ ஸ் 0.0004795
කැ ப 0.0001242
කැ த 0.0001324
කැ பெ 0.0005438
කැ க 0.0094994
කැ ம 0.0000912
කැ வெ 0.0002282
කැ ளே 0.0263158
කැ து 0.0004944
කැ லி 0.0004246
කැ ஹெ 0.0051493
කැ மா 0.0002188
කැ கே 0.0414053
කැ கா 0.0035787
කැ கொ 0.0002881
කැ கூ 0.0140845
කැ தெ 0.0005774
කැ ‎‎ 0.1428571
කැ ச 0.0004205
කැ கு 0.0007445
කැ கெ 0.4103115
කැ NULL 0.0009284
කැ ரெ 0.0027701
කැ வ 0.0000979
කැ ன 0.0001308
කැ ஸீ 0.0416667
චූ ஜூ 0.0204082
චූ சு 0.0038760
ධි தி 0.0168026
ධි யி 0.0015221
ධි ந் 0.0001964
ධි தீ 0.0045662
ධි டி 0.0019383
ධි ய 0.0001059
ධි கா 0.0005112
ධි ஜி 0.0200000
ර ரஓ 0.2500000
ර ர 0.9070433
ර ம் 0.0086699
ර டா 0.0389610
ර லெ 0.0038685
ර மு 0.0003058
ර டி 0.0075771
ර டு 0.0028510
ර தி 0.4759752
ර ல் 0.0010513
ර றோ 0.0909091
ර ற 0.6768448
ර ப 0.0001242
ර இ 0.0324300
ර பா 0.0005602
ර ட் 0.0036027
ර பெ் 1.0000000
ර ந் 0.0001964
ර வு 0.0049702
ර யூ 0.0217391
ර கெ 0.0003580
ර கை 0.0105348
ර ரூ 0.0108696
ර யி 0.0012177
ර சா 0.0016502
ර டீ 0.0222222
ර கா் 0.3333333
ර ர‎‎ 1.0000000
ර று 0.2227074
ර அ 0.0005448
ර ரொ 0.4000000
ර ரா 0.0679570
ර ரோ 0.0105263
ර ய 0.0014821
ර லி 0.0021231
ර தீ 0.0136986
ර றை 0.6692913
ර ழை 0.4913793
ර ல. 0.0208333
ර பு 0.0023075
ර னு 0.0030166
ර ரொ 0.0368421
ර டை 0.0013387
ර ஸ் 0.0019180
ර தை 0.0268709
ර ன 0.0022243
ර ஸ 0.0012255
ර றா 0.0476190
ර NULL 0.0360743
ර தெ 0.0008661
ර ட 0.0025648
ර ரீ 0.0054745
ර உ 0.0005420
ර ளா 0.0113636
ර பி 0.0002359
ර செ 0.0019920
ර கொ 0.0010085
ර யொ 0.0476190
ර வீ 0.0005235
ර வா 0.0014235
ර றூ 0.0588235
ර றே 0.1111111
ර ரே 0.0231959
ර த 0.0009927
ර ரு 0.0204193
ර ரௌ 0.2500000
ර ழ 0.0101523
ර ரெ 0.1191136
ර ‍ 0.0285714
ර ண் 0.0033860
ර வ 0.0028405
ර வா் 0.5000000
ර கு 0.0660711
ර பீ 0.0045872
ර ஹி 0.0008183
ර ரை 0.4985673
ර பே 0.0012484
ර ஏ 0.0052632
ර ஹ 0.0005430
ර சு 0.0058140
ර ல 0.0006903
ර து 0.0029666
ර கா 0.0025562
ර ம 0.0005471
ර கி 0.0010381
ර ள் 0.0017007
ර க 0.0003602
ර பொ 0.0004604
ර வ் 0.0030303
ර ர் 0.0988889
ර ன் 0.0037971
ර ர‍ 1.0000000
ර லை 0.0075594
ර " 0.1428571
ර ணீ 0.1428571
ර ச 0.0025231
ර க் 0.0064462
ර ரி 0.0123746
ර ணா் 0.5000000
ර ர‎ 1.0000000
ර வி 0.0003212
මු லு 0.0012484
මු ஹே 0.0026008
මු பே 0.0012484
මු அ 0.0008172
මු வ 0.0005877
මු மி 0.0035714
මු ட் 0.0014153
මු கு 0.0001861
මු வு 0.0039761
මු தி 0.0001965
මු இ 0.0008885
මු ப 0.0003726
මු கொ 0.0001441
මු வீ 0.0001745
මු சீ 0.0062112
මු மு 0.9039755
මු னா 0.0021529
මු வெ 0.0004564
මු ம் 0.0017559
මු னி 0.0009242
මු ரி 0.0003344
මු வி 0.0009637
මු ட 0.0001769
මු உ 0.0016260
මු ஸீ 0.0833333
මු மூ 0.3645833
මු ஹா 0.0017094
මු NULL 0.0033156
මු ழு 0.0400943
මු க 0.0012156
මු பு 0.0018880
මු நா 0.0012063
මු ணு 0.0036900
මු லா 0.0014782
මු தா 0.0018399
මු நு 0.0038023
මු மா 0.0004375
මු சு 0.0019380
මු ய 0.0002117
මු து 0.0022250
මු போ 0.0010787
මු ம 0.0029178
මු ங் 0.0006431
ළූ லு 0.0012484
පි. பீ. 0.1000000
ළැ லே 0.0011148
ළා ல 0.0002301
ළා லாஓ 0.1666667
ළා ழா 0.1666667
ළා லா 0.0266075
ළා ளா 0.0113636
ළා ரு 0.0002723
ළා டா 0.0011806
ඛි வி 0.0003212
ඛි ந 0.0012579
ඛි கி 0.0010381
විෙ லூ 0.0135135
විෙ வி 0.0003212
වූ வூ 0.1136364
වූ உ 0.0010840
වූ வு 0.0129225
වූ க 0.0000450
රිෙ ரி 0.0003344
එ L.. 0.2941176
එ எ 0.3180648
එ தோ 0.0016882
එ NULL 0.0038462
එ ஐ 0.0208333
එ எ‎ 0.3333333
එ உ 0.0005420
එ வி 0.0003212
එ லி 0.0004246
එ து 0.0002472
එ ஒ 0.0057937
එ ல 0.0000575
එ னெ 0.0178571
එ கோ 0.0010132
එ ஹெ 0.0010299
එ மா 0.0002188
එ L 0.1666667
එ பு 0.0004196
එ யெ 0.0312500
එ ..L. 0.4000000
එ . 0.0967742
එ .E. 0.3333333
එ யோ 0.0116279
එ ரெ 0.0415512
එ ழா 0.1666667
එ ட் 0.0001287
එ வ 0.0000979
එ கு 0.0001861
එ ஈ 0.0126582
එ .. 0.1923077
එ ஹே 0.0006502
එ லு 0.0018727
එ டெ 0.0033223
එ யி 0.0018265
එ அ 0.0005448
එ ணை 0.0106383
එ ஏ 0.2105263
එ ஜெ 0.0113636
එ ம் 0.0002195
එ லெ 0.0019342
එ தி 0.0001965
එ இ 0.0008885
එ .... 0.1428571
එ த 0.0000662
එ ரே 0.0077320
එ ... 0.2608696
ළෛ ளை 0.0040000
ා னா 0.0010764
ෆ්‍ பி 0.0014154
ෆ්‍ ப 0.0001242
ජෑ ஜெ 0.0113636
ජෑ ஜே 0.0277778
භේ பே 0.0012484
ශා. ன் 0.0005424
ශා. னி 0.0013863
ශා. செ 0.0099602
ශා. ன். 0.0476190
ශා. பு 0.0006293
ශු டை 0.0013387
ශු சூ 0.0070922
ශු ரு 0.0002723
ශු மி 0.0008929
ශු சு 0.0038760
ශු செ 0.0019920
ශු ஷு 0.2500000
ශු ஸு 0.0185185
ශු ந 0.0012579
ඊ இ 0.0017770
ඊ ட 0.0001769
ඊ .E. 0.3333333
ඊ பெ 0.0005438
ඊ ஈ 0.9493671
ඊ கி 0.0003460
ඊ தி 0.0000983
ඊ டி 0.0001762
ඊ தொ 0.0008540
ඊ NULL 0.0001326
ඊ ஜ்E 0.5000000
ඊ வ 0.0000979
ඊ எ 0.0025733
ඞ ட 0.0001769
ටි. ..L. 0.2000000
ටි. . 0.0322581
ෆෘ பு 0.0002098
ෆෘ ரூ 0.0217391
ෆෘ ப் 0.0004608
ෆො கா 0.0005112
ෆො பொ 0.0115101
ෆො போ 0.0021575
ෆො ர் 0.0005556
ච්. .. 0.0256410
ච්. ஸ். 0.2222222
ච්. ச். 0.5555556
ච්. ஸ் 0.0002398
ච්. ம். 0.1428571
ග. மு 0.0003058
ග. ன் 0.0002712
ග. ம 0.0001824
ග. ன 0.0002617
ග. க 0.0001801
ග. னி 0.0004621
ග. கி 0.0006920
ළු ன 0.0002617
ළු எ 0.0015440
ළු ழு 0.1627358
ළු ணி 0.0023256
ළු NULL 0.0009284
ළු ளை 0.0040000
ළු ஹோ 0.0073529
ළු லூ 0.0135135
ළු லி 0.0016985
ළු து 0.0007417
ළු ல 0.0006328
ළු ல்ஓ 0.0142857
ළු லு் 1.0000000
ළු ல. 0.0208333
ළු ள 0.0009643
ළු பு 0.0004196
ළු ர் 0.0005556
ළු ன் 0.0001356
ළු லுஓ 0.3333333
ළු ழுஓ 0.2500000
ළු ழூ 0.5000000
ළු ண் 0.0022573
ළු வ 0.0000979
ළු வு 0.0029821
ළු ஜ 0.0009074
ළු லு 0.4675406
ළු று 0.0021834
ළු வா 0.0007117
ළු ம் 0.0001097
ළු டி 0.0001762
ළු மு 0.0018349
ළු ளுஓ 0.5000000
ළු டு 0.0032074
ළු ளு 0.6951872
ළු ல் 0.0005257
ළු தி 0.0018670
ළු த 0.0001324
ළු ழ 0.0101523
ළු ரு 0.0002723
හි உ 0.0005420
හි ஹு 0.0026178
හි வி 0.0003212
හි பி 0.0014154
හි னி 0.0023105
හි ந 0.0025157
හි ய் 0.0051813
හි க் 0.0156951
හි NULL 0.0027851
හි ணி 0.0023256
හි தி‎ 0.1666667
හි எ 0.0010293
හි மே 0.0009320
හි யோ 0.0232558
හි பு 0.0002098
හි கி 0.0605536
හි மொ 0.0322581
හි யெ 0.0312500
හි க 0.0000900
හි ங் 0.0003215
හි ம 0.0005471
හි ஹிஓ 0.5000000
හි போ 0.0010787
හි லி 0.0004246
හි சி 0.0022321
හි ஸி 0.0157895
හි ஹெ 0.0051493
හි ஹீ 0.1242604
හි றி 0.0032787
හි ஹ 0.0018100
හි ஹி 0.9255319
හි யி 0.0009132
හි ந் 0.0009819
හි கு 0.0292202
හි கெ 0.0003580
හි கை 0.0016207
හි ட் 0.0001287
හි கீ 0.0017699
හි வ 0.0000490
හි ‍ 0.0285714
හි இ 0.0182141
හි த 0.0001324
හි தே 0.0028874
හි சை 0.0256410
හි தி 0.0000983
හි ற் 0.1168385
හි வெ 0.0002282
හි ப் 0.0004608
හි ர 0.0003692
පෞ ர 0.0000923
පෞ னி 0.0013863
පෞ த 0.0001324
පෞ னி. 0.0454545
පෞ பி 0.0002359
ඖ ச் 0.0034014
ඖ ஆ 0.0014124
රූ னீ 0.0714286
රූ யூ 0.0217391
රූ றூ 0.2352941
රූ ல. 0.0208333
රූ NULL 0.0001326
රූ ரூ 0.3043478
රූ று 0.0021834
රූ ரோ 0.0052632
රූ ரு 0.0027226
අෙ பே 0.0012484
අෙ ம் 0.0003292
අෙ ல 0.0000575
අෙ ய 0.0001059
ශෘ பு 0.0002098
උෘ ஊ 0.0033445
රා இ 0.0106619
රා ற 0.0050891
රා ரு 0.0010890
රා டு 0.0003564
රා ரா‍ 1.0000000
රා ளி 0.0024155
රා டி 0.0001762
රා லெ 0.0019342
රා டா 0.0011806
රා மு 0.0003058
රා ராஓ 0.4000000
රා ப் 0.0009217
රා கொ 0.0001441
රා ர 0.0152312
රා ரா 0.7032258
රා அ 0.0021792
රා று 0.0021834
රා ரை 0.0057307
රා னை 0.0035461
රා ஹே 0.0006502
රා ர். 0.0769231
රා ன் 0.0001356
රා ர் 0.0044444
රා க 0.0000900
රා றை 0.0078740
රා ம 0.0000912
රා ழை 0.0086207
රා ய 0.0001059
රා கோ 0.0010132
රා கா 0.0005112
රා ரி 0.0006689
රා றா 0.6428571
රා ஜா 0.0055556
රා NULL 0.0013263
ඥා கா 0.0005112
ඥා கொ 0.0001441
ඥා ஞ் 0.0060241
ඥා றீ 0.0588235
ඥා னா 0.0010764
ඥා ந 0.0012579
ඥා ஞ 0.0370370
ඥා நா 0.0024125
ඥා ஞா 0.6851852
ඥා தா 0.0009200
ම් ரீ 0.0018248
ම් ட 0.0028301
ම් ரி 0.0003344
ම් NULL 0.0084881
ම් ணி 0.0011628
ම් மெ 0.0008562
ම් டே 0.0196078
ම් ம்‍ 0.6666667
ම් ஸ 0.0012255
ම් மே 0.0018639
ම් லை 0.0053996
ම් .E. 0.3333333
ම් ர் 0.0050000
ම් ஸ் 0.0002398
ම් ன் 0.0025766
ම් க 0.0000900
ම් ல. 0.0416667
ම් ம 0.0051062
ම් ங் 0.0054662
ම් து 0.0009889
ම් ல 0.0002876
ම් ய 0.0001059
ම් ரா 0.0498925
ම් ம்‎ 1.0000000
ම් அ 0.0008172
ම් ணை 0.0319149
ම් று 0.0131004
ම් லு 0.0012484
ම් யி 0.0009132
ම් .. 0.0256410
ම් கை 0.0518639
ම් ந் 0.0003928
ම් ஓ 0.0037313
ම් ண் 0.0011287
ම් வ 0.0001469
ම් மி 0.0169643
ම් நி 0.0013459
ම් ட் 0.0005147
ම් ழி 0.0675676
ම් ... 0.0869565
ම් ப 0.0002484
ම් ல் 0.0004381
ම් ம். 0.1428571
ම් மீ 0.0022831
ම් டி 0.0014097
ම් மு 0.0009174
ම් ம் 0.2963126
ම් கே 0.0012547
ම් ப் 0.0105991
ම් ர 0.0001846
ම් த் 0.0001488
ගා பா 0.0005602
ගා தி 0.0002948
ගා ற் 0.0022910
ගා டி 0.0001762
ගා த் 0.0000744
ගා செ 0.0039841
ගා கொ 0.0010085
ගා பூ 0.0113208
ගා ரா 0.0004301
ගා கா‎ 1.0000000
ගා நெ 0.0029240
ගා சா 0.0016502
ගා வு 0.0009940
ගා கெ 0.0003580
ගා கை 0.0016207
ගා கௌ 0.0454545
ගා ஸ் 0.0007193
ගා நா 0.0012063
ගා கி 0.0006920
ගා பை 0.0256410
ගා க 0.0027012
ගා ல 0.0001151
ගා கா 0.2474438
ගා மா 0.0002188
ගා கோ 0.0010132
ගා உ 0.0005420
ගා பி 0.0002359
ගා ச் 0.0068027
ගා ஹோ 0.0073529
ගා தோ 0.0028137
ගා NULL 0.0010610
ගා லை 0.0021598
ගා ஆ 0.0042373
ගා ஹா 0.0034188
ෆා NULL 0.0001326
ෆා தோ 0.0005627
ෆා ந் 0.0001964
ෆා ற் 0.0011455
ෆා ண் 0.0011287
ෆා ரு 0.0002723
ෆා பா 0.0134454
ෆා ணை 0.0106383
ෆා ப 0.0002484
ක... தெ 0.0002887
ක... ல... 0.2000000
ක... ரு 0.0002723
ක... இ 0.0004442
ග් கே 0.0025094
ග් ய 0.0001059
ග් த் 0.0001488
ග් லி 0.0004246
ග් வூ 0.0227273
ග් ங் 0.0006431
ග් ல் 0.0004381
ග් க 0.0003602
ග් பு 0.0002098
ග් கி 0.0262976
ග් ரே 0.0025773
ග් ன் 0.0002712
ග් ப 0.0001242
ග් ஸ் 0.0011988
ග් ட் 0.0001287
ග් NULL 0.0022546
ග් கெ 0.0003580
ග් கு 0.0011167
ග් க் 0.0678251
ග් தெ 0.0005774
ග් பே 0.0012484
ඵ எ 0.0005147
ටැ ணை 0.0106383
ටැ தா 0.0119595
ටැ ரா 0.0004301
ටැ ர் 0.0011111
ටැ ட 0.0007075
ටැ தெ 0.0014434
ටැ டெ 0.1063123
ටැ டே 0.0163399
ටැ டா 0.0023613
ටැ ட் 0.0009007
ටැ ரெ 0.0027701
ටැ த் 0.0002976
ටැ ழா 0.1666667
ටැ ர 0.0000923
ෂෙ ய 0.0001059
ෂෙ ஷே 0.2000000
ෂෙ பெ 0.0016313
ෂෙ ஷெ 0.4285714
ඩ னீ 0.0714286
ඩ ம 0.0016413
ඩ மா 0.0006563
ඩ டஓ 0.4000000
ඩ து 0.0004944
ඩ சி 0.0005580
ඩ ய 0.0003176
ඩ ல 0.0012081
ඩ ன் 0.0086791
ඩ ஸ் 0.0002398
ඩ ர் 0.0016667
ඩ தா 0.0036799
ඩ பொ 0.0004604
ඩ டை 0.6224900
ඩ க 0.0004502
ඩ கி 0.0006920
ඩ NULL 0.0071618
ඩ ணி 0.0034884
ඩ டே 0.0294118
ඩ ந 0.0012579
ඩ ச 0.0021026
ඩ தோ 0.0005627
ඩ ஹா 0.0068376
ඩ ன 0.0007850
ඩ பி 0.0002359
ඩ வி 0.0006425
ඩ ட 0.4822676
ඩ லே 0.0011148
ඩ யே 0.0017544
ඩ ரி 0.0006689
ඩ தெ 0.0005774
ඩ டி 0.0014097
ඩ டா 0.0354191
ඩ ற் 0.0045819
ඩ யா 0.0012111
ඩ னா 0.0010764
ඩ வா 0.0014235
ඩ ர 0.0005539
ඩ யி் 0.5000000
ඩ ரு 0.0021781
ඩ .... 0.1428571
ඩ த 0.0049633
ඩ தே 0.0019249
ඩ ல் 0.0054319
ඩ தி 0.0002948
ඩ டு 0.0117605
ඩ ஜ 0.0009074
ඩ கெ 0.0003580
ඩ கு 0.0007445
ඩ வு 0.0019881
ඩ வ 0.0008326
ඩ நி 0.0040377
ඩ ண் 0.0101580
ඩ ட் 0.0010293
ඩ கீ 0.0070796
ඩ ஹ 0.0014480
ඩ ரை 0.0143266
ඩ யி 0.0188737
ඩ டெ 0.0332226
ඩ .. 0.0128205
ෆැ த 0.0000662
ජැ ஜா 0.0055556
‍‍ போ 0.0010787
ශ வு 0.0029821
ශ க் 0.0008408
ශ ச 0.0210261
ශ NULL 0.0003979
ශ லை 0.0010799
ශ ஸ 0.0281863
ශ லே 0.0005574
ශ வி 0.0006425
ශ தெ 0.0002887
ශ ரி 0.0006689
ශ சே 0.0056180
ශ சா 0.0066007
ශ ம் 0.0004390
ශ தொ 0.0017079
ශ ஷ 0.3437500
ශ ஒ 0.0005794
ශ செ 0.0019920
ශ த் 0.0002976
ශ ப் 0.0004608
ශ ர 0.0003692
ශ ஸ் 0.0002398
ශ தா 0.0018399
ශ பா 0.0005602
ශ கி 0.0020761
ශ க 0.0000450
ශ தி 0.0000983
හ් ரா 0.0012903
හ් ஹ 0.0001810
හ් ஹே 0.0019506
හ් ஹி 0.0024550
හ් க் 0.0008408
හ් ஜ 0.0045372
හ් தை 0.0002511
හ් வ 0.0000490
හ් ன் 0.0001356
හ් பஃ 0.5000000
හ් கி 0.0003460
හ් ஹ் 0.6666667
හ් தி 0.0000983
හ් ற் 0.0011455
හ් கா 0.0005112
හ් கே 0.0012547
හ් வீ 0.0001745
ඳා ட 0.0000884
ඳා த 0.0001985
ඳා தா 0.0211592
ඳා ந் 0.0033386
ඳා ண் 0.0011287
ඳා தெ 0.0002887
ට‍ ட 0.0000884
ටො ட் 0.0010293
ටො டோ 0.0672269
ටො பொ 0.0004604
ටො ரொ 0.0210526
ටො டொ 0.4625000
ටො டே 0.0032680
ටො NULL 0.0001326
නාෙ னா 0.0010764
සු த 0.0000662
සු தி 0.0002948
සු பொ 0.0004604
සු ள் 0.0017007
සු சூ 0.4113475
සු ஸு 0.8703704
සු மை 0.0031746
සු ம 0.0006383
සු ஸூ 0.1428571
සු பூ 0.0037736
සු ர 0.0002769
සු கா 0.0010225
සු சு 0.8468992
සු ல 0.0001151
සු யு 0.0087719
සු று 0.0021834
සු NULL 0.0005305
සු கை 0.0008104
සු ந 0.0012579
සු ழு 0.0011792
සු ச 0.0029437
සු ஸ 0.0012255
රා‍ வெ 0.0002282
රා‍ த 0.0000662
රා‍ ல 0.0000575
රා‍ த் 0.0000744
රා‍ ர 0.0000923
රා‍ தி 0.0000983
රා‍ வீ 0.0001745
ටෝ டொ 0.0375000
ටෝ ள 0.0009643
ටෝ டோ 1.0000000
ටෝ ட் 0.0010293
ටෝ ய 0.0002117
ටෝ சி 0.0016741
ටෝ மி 0.0008929
ටෝ ஞ் 0.0542169
ටෝ த 0.0000662
ටෝ ட 0.0004422
ටෝ ஹ 0.0001810
ටෝ ரோ 0.0210526
ටෝ டோ 0.4621849
ටෝ சா 0.0016502
ටෝ றோ 0.0909091
වු த 0.0001324
වු பா 0.0005602
වු ரௌ 0.2500000
වු ரு 0.0002723
වු ழ் 0.0038168
වු வோ 0.0100000
වු டு 0.0010691
වු ளு 0.0017825
වු தி 0.0001965
වු ம் 0.0012072
වු ற் 0.0045819
වු வெ 0.0002282
වු வூ 0.7954545
වු மு 0.0012232
වු பௌ 0.1200000
වු ர 0.0000923
වු று 0.0021834
වු ரை 0.0143266
වු யு 0.0526316
වු ரோ 0.0052632
වු லு 0.0024969
වු வு 0.5437376
වු ந் 0.0001964
වු கை 0.0008104
වු ட் 0.0007720
වු வ 0.0008815
වු கௌ 0.2272727
වු ஸ் 0.0002398
වු வ் 0.0545455
වු க 0.0012156
වු மௌ 0.2500000
වු து 0.0004944
වු லி 0.0004246
වු ல 0.0001151
වු சு 0.0174419
වු கா 0.0020450
වු உ 0.0043360
වු ட 0.0000884
වු வி 0.0012849
වු ளை 0.0040000
වු ழு 0.0011792
වු ந 0.0138365
වු யௌ 0.2500000
වු NULL 0.0015915
වු லை 0.0021598
වු ஆ 0.0028249
වු ஹா 0.0017094
වු எ 0.0020587
න්ෙ ன் 0.0002712
න්ෙ ந் 0.0001964
න්ෙ ண் 0.0011287
න්ෙ பொ 0.0078125
න්ෙ பொ 0.0004604
සේ ஸ 0.0036765
සේ ழி 0.0135135
සේ நே 0.0111111
සේ NULL 0.0003979
සේ ஜ 0.0009074
සේ தோ 0.0005627
සේ ச 0.0016821
සේ ஸே 0.7708333
සේ ஙெ 0.2500000
සේ சே 0.7556180
සේ தெ 0.0002887
සේ ஹே 0.0006502
සේ யு 0.0087719
සේ லே 0.0005574
සේ சீ 0.0062112
සේ செ 0.0119522
සේ போ 0.0010787
සේ சை 0.0128205
සේ ஸா 0.0091743
සේ ஸ் 0.0004795
වැ மு 0.0012232
වැ ம் 0.0003292
වැ வெ 0.5746235
වැ வீ 0.0001745
වැ வா 0.0341637
වැ ர 0.0002769
වැ கொ 0.0001441
වැ ப 0.0007452
වැ ரே 0.0025773
වැ ‍‎‍ 0.0625000
වැ தே 0.0009625
වැ வே 0.1063492
වැ கு 0.0005583
වැ வ 0.0059748
වැ பே 0.0012484
වැ று 0.0043668
වැ ‎‎ 0.2857143
වැ ள 0.0038573
වැ ம 0.0005471
වැ து 0.0007417
වැ ஒ 0.0011587
වැ வெி 0.5000000
වැ க 0.0001801
වැ வௌ் 0.5000000
වැ பெ 0.0021751
වැ NULL 0.0007958
වැ மெ 0.0034247
වැ வௌி 0.2500000
වැ ‎ 0.0776699
වැ ஸ 0.0012255
වැ எ 0.0005147
වැ ஆ 0.0042373
වැ வி 0.0019274
වැ பி 0.0002359
වැ லே 0.0011148
රෛ றை 0.0078740
යූ. ந 0.0012579
ශි ஷீ 0.2500000
ශි சி 0.0016741
ශි ஷி 0.1333333
ශි ஸி 0.0052632
ශි ஸீ 0.0416667
ශි ச 0.0004205
ය් ஸ் 0.0002398
ය් ய் 0.0103627
ත් தெ 0.0031755
ත් ரி 0.0006689
ත් ட 0.0001769
ත් த்‎ 0.6000000
ත් தை 0.0002511
ත් லை 0.0043197
ත් ஸ 0.0012255
ත් க் 0.0086883
ත් NULL 0.0226790
ත් ஜ் 0.0091743
ත් டோ 0.0084034
ත් ர் 0.0038889
ත් ஸ் 0.0009590
ත් ன் 0.0107133
ත් ல 0.0005177
ත් சு 0.0019380
ත් ய 0.0060343
ත් து 0.0007417
ත් தோ 0.0666667
ත් கா 0.0010225
ත් ஹெ 0.0020597
ත් மா 0.0002188
ත් ம 0.0000912
ත් ங் 0.0003215
ත් னே 0.0023529
ත් போ 0.0021575
ත් ல. 0.0208333
ත් ஹே 0.0032510
ත් ரூ 0.0434783
ත් ரா 0.0025806
ත් ஹ 0.0001810
ත් ட் 0.1972465
ත් ரெ 0.0027701
ත් ண் 0.0056433
ත් ந் 0.0066771
ත් கெ 0.0007161
ත් தி 0.0022600
ත් ல் 0.0007009
ත් த்ஓ 0.5000000
ත් ற 0.0012723
ත් த 0.0019191
ත් த்‍ 0.4000000
ත් த் 0.5687077
ත් ர 0.0013847
ත් வா 0.0007117
ත් வீ 0.0003490
ත් யா 0.0044409
ත් ற் 0.0045819
ත් றூ 0.0588235
ත් ம் 0.0003292
ත් மு 0.0012232
ත් டி 0.0005286
ජි பி 0.0004718
ජි ஷ் 0.0123457
ජි யீ 0.1428571
ජි தி 0.0002948
ජි கி 0.0006920
ජි ஜ 0.0009074
ජි ஜ் 0.0366972
ජි ணி 0.0023256
ජි NULL 0.0003979
ජි ளி 0.0024155
ජි ஜீ 0.4285714
ජි ஸூ 0.2857143
ජි ஜி 0.8066667
ජි சி 0.0027902
දි டீ 0.0222222
දි சா 0.0016502
දි கை 0.0008104
දි ந் 0.0005892
දි வ 0.0000979
දි ண் 0.0011287
දි ட் 0.0001287
දි பா 0.0112045
දි ரு 0.0160632
දි ப 0.0001242
දි த 0.0007941
දි தே 0.0009625
දි தி 0.1838459
දි ல் 0.0001752
දි வோ 0.0100000
දි மீ 0.0045662
දි டி 0.0140969
දි ம் 0.0002195
දි ளி 0.0048309
දි னா 0.0086114
දි வா 0.0007117
දි கொ 0.0001441
දි த் 0.0004464
දි ட 0.0001769
දි உ 0.0010840
දි லே 0.0005574
දි னி 0.0009242
දි தெ 0.0037529
දි NULL 0.0017241
දි ழு 0.0023585
දි ச 0.0008410
දි மொ 0.0022779
දි ன 0.0001308
දි லை 0.0010799
දි தை 0.0002511
දි தி‎ 0.1666667
දි நா 0.0024125
දි ர் 0.0005556
දි ஸா 0.0091743
දි ன் 0.0028478
දි க 0.0001351
දි பு 0.0006293
දි ஷ 0.0125000
දි தீ 0.1050228
දි மா 0.0004375
දි லி 0.0008493
දි து 0.0004944
" த் 0.0000744
" ஸெ 0.0149254
" கெ 0.0003580
ගු பொ 0.0004604
ගු தி 0.0002948
ගු ல் 0.0000876
ගු க 0.0003151
ගු கி 0.0003460
ගු ஸ் 0.0002398
ගු மா 0.0002188
ගු கோ 0.0040527
ගු து 0.0002472
ගු ய 0.0001059
ගු ங் 0.0266881
ගු ஹி 0.0008183
ගු ளை 0.0040000
ගු கூ 0.0140845
ගු வி 0.0032123
ගු ஹு 0.0130890
ගු வ 0.0000490
ගු ஸ 0.0012255
ගු ஆ 0.0014124
ගු கெ 0.0003580
ගු NULL 0.0006631
ගු ந் 0.0003928
ගු கு 0.1099944
ශෝ க் 0.0011211
ශෝ சோ 0.1833333
ශෝ ஸோ 0.1176471
ශෝ ணி 0.0011628
ශෝ ய 0.0001059
ශෝ ர 0.0000923
ශෝ ஷோ 0.5384615
ශෝ ஹோ 0.0073529
මෝ பெ 0.0005438
මෝ ரி 0.0010033
මෝ டெ 0.0033223
මෝ சி 0.0027902
මෝ ஆ 0.0254237
මෝ மோ 0.8051282
මෝ ஹெ 0.0010299
මෝ மி 0.0053571
මෝ மோ 0.4615385
මෝ மொ 0.0432802
මෝ ம 0.0000912
මෝ NULL 0.0001326
මෝ மு 0.0015291
ර්‍ பா 0.0005602
රු ரீ 0.0018248
රු ட 0.0002653
රු ஞ 0.0740741
රු ரி 0.0006689
රු ளை 0.0160000
රු NULL 0.0086207
රු க் 0.0002803
රු ருஓ 0.3333333
රු லை 0.0010799
රු ர் 0.0050000
රු ரொ 0.0157895
රු கி 0.0003460
රු று‎ 1.0000000
රු சி 0.0005580
රු ரு‍ 0.5000000
රු ஹ 0.0003620
රු ' 0.0454545
රු பே 0.0012484
රු ரா 0.0030108
රු று 0.4344978
රු வை 0.0170940
රු ரூ 0.1195652
රු கு 0.0156337
රු ரு‎ 1.0000000
රු ரெ 0.0747922
රු ரு 0.4704601
රු ற 0.0025445
රු ரே 0.0051546
රු ல் 0.0001752
රු றீ 0.0588235
රු றூ 0.0588235
රු ம் 0.0002195
රු வா 0.0014235
රු ர 0.0036001
රු த் 0.0000744
ති றீ 0.0588235
ති டி 0.0015859
ති ங் 0.0003215
ති தீ 0.0547945
ති ஹெ 0.0010299
ති றி 0.0032787
ති கா 0.0005112
ති ர 0.0003692
ති து 0.0004944
ති லி 0.0004246
ති சி 0.0195312
ති த் 0.0091511
ති ல 0.0000575
ති ர் 0.0005556
ති த 0.0001985
ති சை 0.0128205
ති தி 0.0988503
ති பொ 0.0004604
ති க 0.0000900
ති கி 0.0024221
ති NULL 0.0009284
ති நூ 0.0769231
ති கு 0.0001861
ති மி 0.0008929
ති நி 0.0026918
ති ட் 0.0003860
ති னி 0.0036969
ති நெ 0.0029240
ති ச் 0.0034014
ජො சொ 0.0120482
ජො ஜொ 1.0000000
ජො தெ 0.0002887
ජො ய 0.0002117
ජො ஜோ 0.0707965
රෝ ஸ் 0.0011988
රෝ ழ் 0.0009542
රෝ தி 0.0039304
රෝ ரொ 0.0421053
රෝ றோ 0.4545455
රෝ ரோ 1.0000000
රෝ ளி 0.0048309
රෝ டா 0.0011806
රෝ ய 0.0045522
රෝ ஹொ 0.0034014
රෝ த் 0.0033480
රෝ ர 0.0005539
රෝ கோ 0.0010132
රෝ றோ 1.0000000
රෝ ரோ 0.6263158
රෝ னை 0.0035461
රෝ வை 0.1923077
රෝ சா 0.0016502
රෝ NULL 0.0001326
රෝ கெ 0.0003580
රෝ ட் 0.0002573
රෝ ஆ 0.0141243
යු. யு. 0.5000000
‍ பே 0.0012484
‍ NULL 0.0007958
‍ ரீ 0.0018248
‍ ‎ 0.0194175
ඕ ரி 0.0003344
ඕ ட 0.0000884
ඕ வி 0.0009637
ඕ பி 0.0014154
ඕ ளிஓ 0.3333333
ඕ எ 0.0010293
ඕ தோ 0.0011255
ඕ NULL 0.0001326
ඕ டோ 0.0084034
ඕ பெ 0.0010875
ඕ க 0.0000450
ඕ ங்ஓ 0.3750000
ඕ யோ 0.1046512
ඕ மாஓ 0.2500000
ඕ லோ 0.0214592
ඕ ஒ 0.0486674
ඕ டஓ 0.4000000
ඕ யோ 0.6666667
ඕ கோ 0.0081054
ඕ ல்ஓ 0.0857143
ඕ ஹிஓ 0.5000000
ඕ னஓ 0.1666667
ඕ தொ 0.0008540
ඕ லிஓ 0.0714286
ඕ னோ 0.0735294
ඕ லஓ 0.1818182
ඕ ஸ்ஓ 0.5000000
ඕ பே 0.0024969
ඕ ன்ஓ 0.0416667
ඕ ஓ 0.5373134
ඕ ஸோ 0.0588235
ඕ ச்ஓ 0.5000000
ඕ வோ 0.0200000
ඕ க்ஓ 0.2000000
ඕ கோ 0.0243902
ඕ ரிஓ 0.5000000
ඕ சோ 0.0250000
ඕ ம் 0.0008780
ඕ லெ 0.0019342
ඕ மீ 0.0022831
වි கொ 0.0002881
වි ர 0.0000923
වි வீ 0.0200663
වි த் 0.0001488
වි மு 0.0009174
වි டி 0.0008811
වි eell 0.1250000
වි யா 0.0008074
වි வெ 0.0079872
වි ஹௌ 0.3333333
වි தி 0.0000983
වි ரு 0.0005445
වි பா 0.0033613
වි த 0.0000662
වි ற 0.0012723
වි ப 0.0012419
වි இ 0.0013327
වි கௌ 0.0454545
වි மி 0.0062500
වි ண் 0.0191874
වි வ 0.0004897
වි ட் 0.0007720
වි கெ 0.0003580
වි வே 0.0079365
වි வு 0.0039761
වි யி 0.0006088
වි யீ 0.5714286
වි சா 0.0033003
වි ஹி 0.0008183
වි வ்‎ 1.0000000
වි ஹ 0.0003620
වි ணை 0.0744681
වි அ 0.0005448
වි ய 0.0005293
වි லி 0.0008493
වි சி 0.0011161
වි ஷ 0.0062500
වි தொ 0.0008540
වි ம 0.0011854
වි க 0.0010805
වි கி 0.0013841
වි வி‍ 1.0000000
වි வ் 0.0303030
වි ர் 0.0005556
වි ன் 0.0001356
වි ஸ 0.0024510
වි ன 0.0003925
වි லை 0.0021598
වි NULL 0.0011936
වි ந 0.0025157
වි லூ 0.0810811
වි தெ 0.0008661
වි ச் 0.0034014
වි பி 0.0044822
වි வி 0.8329586
වි வி் 1.0000000
වි ட 0.0004422
ඩේ ண் 0.0022573
ඩේ ‍ 0.0285714
ඩේ NULL 0.0002653
ඩේ ந் 0.0007855
ඩේ டே 0.2843137
ඩේ டெ 0.0232558
ඩේ சே 0.0028090
ඩේ ட 0.0013266
ඩේ கே 0.0025094
ඩේ ஸி 0.0052632
ඩේ ல் 0.0000876
ඩේ டை 0.0776439
ඩේ தி 0.0001965
ඩේ தே 0.0019249
ඩේ த 0.0002647
ඩේ ன் 0.0004068
නෑ கே 0.0012547
නෑ னெ 0.0267857
නෑ னே 0.1270588
නෑ னா 0.0075350
නෑ தே 0.0019249
නෑ தி 0.0000983
නෑ ணா 0.0198675
නෑ நா 0.0036188
නෑ ன் 0.0001356
නෑ ன 0.0010467
නෑ நே 0.3666667
නෑ ந 0.0025157
නෑ மெ 0.0008562
නෑ நெ 0.0789474
නෑ ணே 0.0232558
නෑ ட 0.0000884
නෑ ரா 0.0004301
ස්‍ ஸ் 0.0004795
ස්‍ சி 0.0005580
ස්‍ க 0.0000900
ඩ. ட 0.0000884
බෘෘ பு 0.0002098
බෘෘ ரூ 0.0108696
ඟ கா 0.0010225
ඟ ங் 0.0372990
ඟ ற் 0.0022910
ඟ டி 0.0001762
ඟ ளு 0.0035651
ඟ கி 0.0006920
ඟ பெ 0.0005438
ඟ ங 0.0909091
ඟ க 0.0039618
ඟ தி 0.0000983
ඟ ற 0.0012723
ඟ ன் 0.0008137
ඟ யோ 0.0116279
ඟ ரெ 0.0027701
ඟ ஹா 0.0017094
ඟ ன 0.0001308
ඟ வ 0.0000490
ඟ கு 0.0003722
ඟ NULL 0.0005305
ඟ கை 0.0226904
ඟ தெ 0.0005774
ඟ று 0.0021834
ඟ ஹ 0.0050679
ගොා கொ 0.0001441
චැ ப் 0.0018433
චැ சா 0.0049505
චැ நெ 0.0029240
චැ செ 0.0059761
චැ ய 0.0002117
චැ NULL 0.0001326
චැ ச 0.0012616
ලාෙ னே 0.0023529
ලාෙ லா 0.0007391
ඊ. ஈ. 1.0000000
තැ னெ 0.0446429
තැ த் 0.0000744
තැ து 0.0002472
තැ கொ 0.0001441
තැ கே 0.0012547
තැ யா 0.0004037
තැ மை 0.0031746
තැ மு 0.0006116
තැ பு 0.0002098
තැ க 0.0001801
තැ தே 0.0067372
තැ தா 0.0055198
තැ த 0.0055589
තැ தை 0.0005023
තැ ஊ 0.0033445
තැ வ 0.0000490
තැ ன 0.0002617
තැ NULL 0.0013263
තැ கெ 0.0021482
තැ ஜ 0.0018149
තැ ஹே 0.0026008
තැ தெ 0.1870670
තැ டெ 0.0033223
තැ சா 0.0016502
තැ அ 0.0002724
තැ வி 0.0006425
ෆෙ ப 0.0001242
ෆෙ பெ 0.0027189
බා பா 0.1574230
බා ப 0.0027322
බා ரா 0.0004301
බා தே 0.0009625
බා டோ 0.0084034
බා பெ 0.0021751
බා NULL 0.0003979
බා ம் 0.0005487
බා பௌ 0.0400000
බා கா 0.0005112
බා வா 0.0049822
බා ன 0.0001308
බා ஹா 0.0017094
බා வீ 0.0003490
කී கீ 0.1681416
කී கெ 0.0003580
කී NULL 0.0001326
කී தீ 0.0045662
කී க 0.0000450
කී தி 0.0004913
කී ஜோ 0.0088496
කී கி 0.0024221
කී பு 0.0004196
කී ப 0.0002484
ති‍ த் 0.0000744
ති‍ ரா‎ 1.0000000
ඇ‍ எ 0.0005147
ඣා ஞா 0.0185185
ගෑ கே 0.0037641
බි அ 0.0005448
බි பி 0.0896438
බි ' 0.0681818
බි வி 0.0089945
බි னி 0.0009242
බි ‎ 0.0097087
බි கு 0.0001861
බි பீ 0.0412844
බි NULL 0.0002653
බි ஊ 0.0033445
බි ன 0.0001308
බි ப 0.0004968
බි பெ 0.0016313
බි பு 0.0002098
බි டு 0.0003564
බි கி 0.0006920
බි பி் 0.1666667
බි வெ 0.0004564
බි ம 0.0000912
බි சு 0.0019380
බි ப் 0.0036866
බි வீ 0.0001745
ද. பா 0.0005602
ද. த. 0.1666667
ද. .. 0.0256410
ද. தை 0.0002511
ටී ரி 0.0006689
ටී தே 0.0009625
ටී ர் 0.0011111
ටී டீ 0.1777778
ටී ட் 0.0009007
ටී எ 0.0005147
ටී தீ 0.0045662
ටී டி 0.0014097
ටී NULL 0.0001326
ඳේ ய் 0.0051813
ඳේ ந் 0.0003928
ඳේ யா 0.0004037
ඳේ தே 0.0028874
ඳේ த் 0.0000744
ඳේ தெ 0.0002887
ඒ ழ் 0.0009542
ඒ சூ 0.0070922
ඒ ஏ. 0.0909091
ඒ ல் 0.0000876
ඒ க 0.0000450
ඒ த்‍ 0.2000000
ඒ வெ 0.0002282
ඒ ம 0.0000912
ඒ .. 0.0128205
ඒ சே 0.0028090
ඒ னி 0.0009242
ඒ எ‎ 0.6666667
ඒ ரை 0.0028653
ඒ லே 0.0005574
ඒ யு 0.0350877
ඒ ஏ 0.2210526
ඒ '' 0.5000000
ඒ ஆ 0.0014124
ඒ கீ 0.0017699
ඒ எ 0.0087494
ඒ NULL 0.0023873
ඉ NULL 0.0047745
ඉ ணி 0.0023256
ඉ மெ 0.0017123
ඉ க் 0.0008408
ඉ தோ 0.0005627
ඉ எ 0.0092640
ඉ மே 0.2646785
ඉ லை 0.0021598
ඉ வி 0.0003212
ඉ ட 0.0000884
ඉ உ 0.0005420
ඉ ஐ 0.0208333
ඉ கா 0.0010225
ඉ து 0.0019778
ඉ லி 0.0004246
ඉ சி 0.0005580
ඉ ஒ 0.0011587
ඉ க 0.0003602
ඉ ரொ 0.0052632
ඉ பெ 0.0005438
ඉ னு 0.0030166
ඉ கி 0.0006920
ඉ கெ 0.0003580
ඉ ந் 0.0001964
ඉ நீ 0.0086957
ඉ மி 0.0008929
ඉ நி 0.0040377
ඉ கீ 0.0407080
ඉ அ 0.0010896
ඉ ரை 0.0028653
ඉ யி 0.0063927
ඉ ஹி 0.0016367
ඉ .. 0.0128205
ඉ மு 0.0155963
ඉ ம் 0.0001097
ඉ வா 0.0007117
ඉ கொ 0.0001441
ඉ ஜெ 0.0113636
ඉ ர 0.0002769
ඉ பா 0.0005602
ඉ இ 0.6290538
ඉ ப 0.0007452
ඉ தே 0.0009625
හෝ ‍‍‍‍‍‎‍ 1.0000000
හෝ சோ 0.0083333
හෝ ஒ 0.0005794
හෝ ஹொ 0.0204082
හෝ கொ 0.0002881
හෝ கோ 0.0131712
හෝ ‍‎‍ 0.1875000
හෝ ஹொ 0.0588235
හෝ ஹே 0.0019506
හෝ ஹோ 0.5294118
හෝ ஹோ 0.8571429
හෝ வோ 0.0200000
හෝ ள் 0.0017007
ච சை 0.0512821
ච ஸ் 0.0002398
ච சு 0.0077519
ච சீ 0.0062112
ච யா 0.0004037
ච ம 0.0000912
ච ஷ 0.0125000
ච ஞ 0.0370370
ච ச் 0.0238095
ච ளை 0.0040000
ච சா 0.0082508
ච ரீ 0.0018248
ච வி 0.0006425
ච வ 0.0000979
ච ச 0.0466779
ච NULL 0.0003979
කෝ த 0.0000662
කෝ உ 0.0005420
කෝ ட 0.0000884
කෝ கூ 0.0985915
කෝ கி 0.0003460
කෝ கொ 0.0066225
කෝ பொ 0.0004604
කෝ சா 0.0033003
කෝ ம 0.0000912
කෝ ள்‍ 0.5000000
කෝ ஆ 0.0042373
කෝ கோ 0.2926829
කෝ கொ 0.0118139
කෝ கோ 0.3272543
කෝ ஹா 0.0017094
ඹූ ம் 0.0006585
ඹූ ரை 0.0028653
ඹූ ஒ 0.0005794
ඹූ பு 0.0012587
ෂී ஷீ 0.5000000
ෂී சீ 0.0496894
කො கொ 0.0002881
ඩෲ ரு 0.0013613
ඩෲ பீ 0.0045872
ඩෲ டா 0.0023613
ඩෲ றூ 0.1176471
ඩෲ று 0.0043668
ඩෲ ரூ 0.0434783
ඩෲ ட் 0.0010293
ටෙ தொ 0.0008540
ටෙ வே 0.0015873
ටෙ NULL 0.0001326
ටෙ டொ 0.0125000
ටෙ டே 0.0392157
ටෙ ஆ 0.0014124
ටෙ ரெ 0.0083102
ටෙ ட் 0.0006433
ටෙ மோ 0.0051282
ටෙ பே 0.0012484
ටෙ ட 0.0003538
ටෙ அ 0.0002724
ටෙ டெ 0.1063123
ටෙ னி 0.0004621
ටෙ தெ 0.0002887
: ட் 0.0001287
ඝ ச 0.0008410
ඝ ங் 0.0003215
ඝ தி 0.0000983
ඝ க 0.0013506
ඹෝ பொ 0.0004604
ඹෝ டோ 0.0084034
ඹෝ ஹே 0.0006502
ඹෝ போ 0.0107875
ඹෝ ம் 0.0008780
ඹෝ மொ 0.0022779
බ ட் 0.0002573
බ வ 0.0040159
බ ‍ 0.0285714
බ நி 0.0026918
බ அ 0.0008172
බ ஏ 0.0052632
බ பே 0.0212235
බ ரூ 0.0108696
බ சா 0.0033003
බ பொ 0.0234375
බ யி 0.0006088
බ டெ 0.0033223
බ டி 0.0001762
බ மு 0.0003058
බ ப் 0.0018433
බ வா 0.0007117
බ கொ 0.0002881
බ ர 0.0002769
බ பௌ 0.0800000
බ இ 0.0004442
බ ப 0.2400646
බ பா 0.0184874
බ ழ 0.0152284
බ றோ 0.0909091
බ தி 0.0001965
බ ழு 0.0011792
බ NULL 0.0026525
බ மே 0.1071761
බ ட 0.0002653
බ பி 0.0007077
බ ப‍‍ 1.0000000
බ னே 0.0023529
බ ம 0.0005471
බ போ 0.0032362
බ ள 0.0067502
බ சி 0.0005580
බ ஒ 0.0005794
බ ல 0.0000575
බ மா 0.0002188
බ ஞ் 0.0060241
බ ன் 0.0001356
බ பெ 0.0081566
බ பு 0.0014684
බ கி 0.0006920
බ பொ 0.0059853
බ டை 0.0013387
බ க 0.0004052
තෙ எ 0.0005147
තෙ தை 0.0002511
තෙ னெ 0.0089286
තෙ NULL 0.0003979
තෙ கெ 0.0003580
තෙ ‎ 0.0097087
තෙ ம் 0.0001097
තෙ தி 0.0001965
තෙ னி 0.0004621
තෙ யி 0.0003044
තෙ தே 0.0240616
තෙ தெ 0.0531178
තෙ ஹே 0.0006502
තෙ நெ 0.0029240
තෙ த 0.0005294
කා ஸ் 0.0002398
කා தா 0.0009200
කා பெ 0.0021751
කා டு 0.0039202
කා கி 0.0003460
කා க 0.0021610
කා தி 0.0001965
කා தொ 0.0059778
කා ஷ 0.0062500
කා ய 0.0001059
කා காே 1.0000000
කා கொ 0.0005763
කා கா 0.2433538
කා அ 0.0027241
කා சா 0.0016502
කා ச 0.0004205
කා க் 0.0190583
කා தோ 0.0005627
කා NULL 0.0019894
කා நூ 0.0769231
කා கெ 0.0007161
කා கை 0.0056726
කා ட் 0.0001287
කා ன 0.0001308
කා ண் 0.0011287
කා வ 0.0000979
කා நி 0.0040377
ම්. ச். 0.1111111
ම්. . 0.0322581
ම්. NULL 0.0001326
ම්. ... 0.0434783
ම්. ம். 0.5714286
ම්. .. 0.0128205
බී. பி. 1.0000000
බී. . 0.0645161
බී. பீ. 0.1000000
බී. .. 0.0256410
හා ங் 0.0006431
හා ம 0.0003647
හා சி 0.0005580
හා கா 0.0541922
හා ஹெ 0.0041195
හා தா 0.0018399
හා நா 0.0024125
හා க 0.0020259
හා ந 0.0012579
හා NULL 0.0013263
හා ஆ 0.0098870
හා நே 0.0111111
හා ன 0.0002617
හා ஹா 0.5777778
හා ரி 0.0003344
හා ளை 0.0040000
හා னா 0.0010764
හා டா 0.0106257
හා ஹொ 0.0068027
හා ர 0.0002769
හා வா 0.0007117
හා தி 0.0000983
හා யூ 0.0217391
හා கெ 0.0003580
හා ழி 0.0135135
හා ஊ 0.0066890
හා அ 0.0010896
හා று 0.0043668
හා ஹ 0.0112217
හා ஏ 0.0052632
හා யு 0.0087719
හා யி 0.0003044
ලො ளொ 1.0000000
ලො கொ‎ 0.2500000
ලො வி 0.0003212
ලො ச் 0.0034014
ලො ளோ 0.2500000
ලො லொ 0.6363636
ලො ள 0.0028930
ලො ல 0.0012656
ලො ஒ 0.0005794
ලො ரே 0.0025773
ලො லா 0.0007391
ලො லொ 0.5973154
ලො லோ 0.1158798
ලො டு 0.0003564
ලො பெ 0.0010875
ලො ரொ 0.0052632
බු லே 0.0005574
බු வி 0.0003212
බු வு 0.0109344
බු NULL 0.0002653
බු ப 0.0009935
බු லோ 0.0042918
බු பா 0.0005602
බු பு 0.1147472
බු டு 0.0010691
බු சூ 0.0070922
බු தி 0.0000983
බු வெ 0.0004564
බු மு 0.0024465
බු ண 0.0008340
බු து 0.0002472
බු லி 0.0004246
බු பௌ 0.0400000
බු கொ 0.0001441
බු வீ 0.0001745
බු பூ 0.0716981
ටි‍ ட் 0.0001287
ඩ්‍ டி 0.0007048
ඩ්‍ றா 0.0238095
ඩ්‍ ட 0.0000884
ඩ්‍ ட் 0.0002573
ඩ්‍ லை 0.0010799
ක..... ல. 0.0208333
කෟ ரூ 0.0108696
කෟ கு 0.0001861
ඕ. ஓ. 1.0000000
තා த 0.0027133
තා தா 0.3008280
තා ள் 0.0017007
තා ணா 0.0066225
තා தி 0.0000983
තා தே 0.0019249
තා ம 0.0000912
තා னா 0.0021529
තා ம் 0.0001097
තා மு 0.0003058
තා டா 0.0011806
තා தொ 0.0008540
තා ய 0.0001059
තා கா 0.0010225
තා வா 0.0007117
තා ஹெ 0.0010299
තා ட 0.0004422
තා தா‍ 1.0000000
තා தெ 0.0002887
තා ந் 0.0001964
තා NULL 0.0002653
තා தை 0.0005023
දෞ தௌ 1.0000000
කො‍් கோ 0.0010132
වෛ வி 0.0003212
වෛ வை 0.0641026
භූ பூ 0.0528302
භූ ன 0.0005234
භූ ய 0.0001059
භූ பு 0.0006293
භූ டி 0.0001762
භූ மை 0.0031746
භූ இ 0.0004442
ෙෙ மை 0.0031746
ර් நி 0.0053836
ර් ர். 0.0769231
ර් ட் 0.0006433
ර් ழி 0.2567568
ර් வே 0.0047619
ර් ந் 0.0009819
ර් லு 0.0043695
ර් .. 0.0384615
ර් யா் 0.1428571
ර් ரா 0.0021505
ර් பூ 0.0075472
ර් ர 0.0012000
ර් செ 0.0019920
ර් ரஓ 0.2500000
ර් ம் 0.0003292
ර් தி 0.0004913
ර් ழ் 0.0019084
ර් பா 0.0028011
ර් ரு 0.0013613
ර් ற 0.0012723
ර් லை 0.0053996
ර් தை 0.0002511
ර් ன். 0.0952381
ර් NULL 0.0064987
ර් ழு 0.0011792
ර් ச 0.0033642
ර් ரி 0.0070234
ර් ட 0.0005306
ර් ஞ் 0.0361446
ර් கா 0.0046012
ර් சி 0.0033482
ර් ய 0.0003176
ර් ல 0.0000575
ර් ஷ 0.0062500
ර් ள 0.0009643
ර් டூா் 0.5000000
ර් மை 0.0031746
ර් ங் 0.0019293
ර් க 0.0000450
ර් ஸொ 0.0666667
ර් ள் 0.0034014
ර් டோ 0.0168067
ර් ன் 0.0001356
ර් ர் 0.5772222
ථි னா 0.0010764
ථි தி 0.0001965
ථි து 0.0002472
ඌ NULL 0.0001326
ඌ ந 0.0012579
ඌ ஊ 0.7257525
ඌ ஆ 0.0014124
ඌ நா 0.0024125
ඌ அ 0.0002724
ඌ உ 0.0108401
ඌ ஔ 1.0000000
ඌ க 0.0000450
බි. . 0.0322581
බි. ஜா 0.0055556
රෑ ரு 0.0010890
රෑ ரே 0.0567010
රෑ ரா 0.0086022
රෑ ர 0.0012000
රෑ றே 0.0740741
රෑ ரெ 0.0249307
රෑ ரூ 0.0543478
ක්‍ கீ 0.0017699
ක්‍ ட் 0.0034740
ක්‍ த் 0.0002232
ක්‍ கு 0.0001861
ක්‍ மை 0.0095238
ක්‍ க் 0.0255045
ක්‍ NULL 0.0001326
ක්‍ ஷ 0.0062500
ක්‍ பு 0.0004196
ක්‍ கி 0.0273356
ක්‍ டு 0.0003564
ක්‍ க 0.0000450
ක්‍ தி 0.0000983
ක්‍ ட 0.0007075
ක්‍ வி 0.0012849
ඡ ரி 0.0003344
ඡ யி 0.0118721
ඡ கு 0.0072585
ඡ ஜ 0.0099819
ඡ ஜா 0.0055556
ඡ டி 0.0068722
ඡ ப் 0.0004608
ඡ கொ 0.0001441
ඡ ஜெ 0.0113636
භ ம் 0.0001097
භ ந 0.0012579
භ பே 0.0012484
භ ஹ 0.0014480
භ தா 0.0009200
භ ப 0.0042226
භ ளை 0.0040000
භ ச் 0.0034014
භ பை 0.0256410
කෲ க் 0.0002803
කෲ ரு 0.0005445
කෲ கூ 0.0140845
කෲ கோ 0.0010132
ර‍ ர 0.0000923
වෙ க 0.0010805
වෙ பொ 0.0004604
වෙ லா 0.0014782
වෙ வ் 0.0090909
වෙ ஸ் 0.0007193
වෙ சு 0.0019380
වෙ ய 0.0002117
වෙ து 0.0004944
වෙ வி 0.0044973
වෙ தை 0.0002511
වෙ ஆ 0.0056497
වෙ NULL 0.0010610
වෙ வௌி 0.2500000
වෙ ச 0.0004205
වෙ றா 0.0476190
වෙ ‎ 0.0388350
වෙ தி 0.0002948
වෙ ‍‎‍ 0.0625000
වෙ ப 0.0002484
වෙ ர 0.0003692
වෙ கொ 0.0001441
වෙ வா 0.0021352
වෙ த் 0.0000744
වෙ மு 0.0012232
වෙ வெ 0.3117298
වෙ ம் 0.0016462
වෙ வை 0.0085470
වෙ று 0.0021834
වෙ அ 0.0002724
වෙ ரா 0.0004301
වෙ வ 0.0064156
වෙ கௌ 0.0454545
වෙ ழா 0.1666667
වෙ கெ 0.0003580
වෙ வே 0.1428571
වෙ கு 0.0003722
වෙ வௌ 0.5000000
සී. .. 0.0256410
සී. சீ. 0.4285714
සී. . 0.0322581
සී. Y 0.2500000
සී. சீ 0.0124224
සී. சி. 0.6250000
සී. சி 0.0005580
සී. ஸி. 1.0000000
ලේ லே 0.0016722
ෆෝ ர் 0.0044444
ෆෝ பு​ 1.0000000
ෆෝ போ 0.0323625
ෆෝ ஹை 0.0454545
ෆෝ பொ 0.0004604
හු NULL 0.0002653
හු கெ 0.0003580
හු கு 0.0165643
හු வு 0.0009940
හු ஸீ 0.0833333
හු ஜூ 0.0204082
හු வ 0.0000490
හු ஊ 0.0434783
හු வி 0.0006425
හු ஹ 0.0021719
හු யு 0.0087719
හු ட 0.0017688
හු ஹு 0.8952880
හු உ 0.0195122
හු ஹூ 0.6666667
හු தெ 0.0005774
හු ஹி 0.0016367
හු ற் 0.0045819
හු ஹீ 0.0473373
හු து 0.0004944
හු க 0.0000450
හු ஹ் 0.0666667
ග ஹா 0.0017094
ග ன 0.0017009
ග தை 0.0007534
ග NULL 0.0697613
ග தோ 0.0022510
ග ழு 0.0023585
ග னி 0.0004621
ග தெ 0.0002887
ග பி 0.0018872
ග ட 0.0005306
ග கோ 0.0040527
ග மா 0.0002188
ග ஹெ 0.0010299
ග ய 0.0021173
ග ஒ 0.0046350
ග ள 0.0019286
ග ல. 0.0208333
ග க‍ 1.0000000
ග ங் 0.0006431
ග ங 0.1818182
ග பு 0.0010489
ග பெ 0.0021751
ග நா 0.0012063
ග ல... 0.2000000
ග ஸ் 0.0004795
ග கெ 0.0032223
ග கை 0.3735818
ග வு 0.0009940
ග யி 0.0021309
ග சா 0.0016502
ග கா் 0.3333333
ග அ 0.0008172
ග ரா 0.0012903
ග ர 0.0005539
ග ஜி 0.0066667
ග ப் 0.0004608
ග மு 0.0009174
ග சோ 0.0083333
ග னா 0.0021529
ග வெ 0.0034231
ග யா 0.0008074
ග ம் 0.0001097
ග ல் 0.0000876
ග கொ 0.0022075
ග தி 0.0004913
ග டு 0.0003564
ග பா 0.0005602
ග ப 0.0038500
ග இ 0.0004442
ග தி‎ 0.1666667
ග ஆ 0.0028249
ග க் 0.0030830
ග ந 0.0050314
ග மெ 0.0008562
ග லூ 0.0135135
ග யே 0.0017544
ග வி 0.0012849
ග கா 0.0833333
ග ல 0.0006328
ග ம 0.0000912
ග பொ 0.0004604
ග க 0.5891410
ග கி 0.1328720
ග லோ 0.0042918
ග வ் 0.0060606
ග தா 0.0009200
ග ர் 0.0200000
ග ன் 0.0024410
ග கௌ 0.0454545
ග வ 0.0003918
ග ஊ 0.0267559
ග ழி 0.0270270
ග ரெ 0.0055402
ග வே 0.0015873
ග கு 0.0044668
ග கை' 0.5000000
ග ஹே 0.0019506
ග நெ 0.0029240
ග பே 0.0037453
ග ஹ 0.0106787
ග யா் 0.2857143
ග னி. 0.1818182
ග கொ 0.0069154
ග வீ 0.0022684
ග வா 0.0007117
ග கே 0.0037641
ග ராஓ 0.2000000
ග தூ 0.0053763
ග ண 0.0033361
ග த் 0.0001488
ග ழ் 0.0009542
ග ரு 0.0002723
ග த 0.0011250
ජි. த. 0.1666667
ජි. ஜீ. 0.5000000
ජෙ ஜ 0.0018149
ජෙ ஜே 0.0277778
ජෙ ஜெ 0.1136364
ං‍ ங் 0.0003215
චෙ சே 0.0028090
චෙ யி 0.0006088
චෙ செ 0.0219124
චෙ ச் 0.0034014
චෙ க் 0.0002803
චෙ ச 0.0004205
චෙ மை 0.0031746
වෙ‍ ல் 0.0000876
වෙ‍ வெ 0.0002282
ද வ 0.0001469
ද பே 0.0024969
ද ஹ 0.0001810
ද த் 0.0015624
ද ழ் 0.0009542
ද தே 0.0134745
ද த 0.3943485
ද த. 0.3333333
ද ரு 0.1483801
ද ழ 0.0101523
ද ஸெ 0.0149254
ද லை 0.0129590
ද ச 0.0004205
ද டே 0.0032680
ද ந 0.0025157
ද ணி 0.0267442
ද வி 0.0003212
ද ல 0.0018409
ද து 0.0042027
ද கா 0.0092025
ද ம 0.0006383
ද தொ 0.0008540
ද கி 0.0006920
ද க 0.0005853
ද தஓ 0.5000000
ද வ் 0.0090909
ද தா 0.0239190
ද த‍ 1.0000000
ද ட் 0.0011580
ද ந் 0.0027494
ද கெ 0.0003580
ද ஜ 0.0009074
ද யி 0.1722983
ද சா 0.0049505
ද லு 0.0024969
ද அ 0.0010896
ද று 0.0043668
ද டீ 0.0888889
ද ர 0.0000923
ද ப் 0.0004608
ද னா 0.0010764
ද ம் 0.0003292
ද ற் 0.2119129
ද லெ 0.0038685
ද டா 0.0047226
ද டி 0.0107489
ද மீ 0.0045662
ද டு 0.0081967
ද ல் 0.0007009
ද தி 0.0105139
ද ப 0.0001242
ද பா 0.0005602
ද தை 0.0153189
ද டூ 0.2500000
ද ருஓ 0.1111111
ද மே 0.0037279
ද ஹா 0.0034188
ද ன 0.0013084
ද NULL 0.0228117
ද தெ 0.0854503
ද னி 0.0563771
ද ஹு 0.0026178
ද உ 0.0005420
ද ட 0.0095516
ද பி 0.0002359
ද ய 0.0001059
ද ல். 0.2000000
ද பு 0.0008391
ද ரொ 0.0052632
ද ம. 0.2000000
ද ஸ் 0.0004795
ද யோ 0.0116279
පී. பீ. 0.5000000
පී. யி 0.0003044
පී. .. 0.0256410
පී. ... 0.0434783
පී. ரு 0.0002723
පී. பி 0.0002359
තු NULL 0.0102122
තු ணீ 0.2142857
තු க் 0.0669843
තු மே 0.0009320
තු ன 0.0001308
තු மூ 0.0625000
තු பி 0.0004718
තු ஹு 0.0052356
තු ட 0.0223755
තු தொ 0.0008540
තු றி 0.0032787
තු ஞ் 0.0060241
තු ய 0.0001059
තු து 0.3579728
තු து் 1.0000000
තු ர் 0.0011111
තු க 0.0000900
තු வே 0.0015873
තු நீ 0.0434783
තු கு 0.0053974
තු ந் 0.0005892
තු வு 0.0019881
තු மி 0.0008929
තු ஊ 0.0033445
තු ண் 0.0033860
තු வ 0.0000490
තු ட் 0.0050180
තු து‎ 1.0000000
තු துஓ 0.3000000
තු று 0.0043668
තු மு 0.0003058
තු ம் 0.0001097
තු றூ 0.0588235
තු ற் 0.0091638
තු கொ 0.0001441
තු ர 0.0002769
තු வீ 0.0001745
තු த[ 1.0000000
තු தூ 0.0215054
තු த் 0.0272301
තු ழ 0.0050761
තු ற 0.0038168
තු த 0.0006618
තු ப 0.0001242
තු தி 0.0001965
තු டு 0.0021383
චී டீ 0.0222222
චී சீ 0.0931677
චී ச் 0.0170068
ඨ ட 0.0004422
ඨ மு 0.0003058
ඨ தை 0.0002511
ඨ ட் 0.0001287
ඨ லூ 0.0135135
ඨ ஜூ 0.0204082
ඨ ல் 0.0000876
ලේ ரு 0.0002723
ලේ பா 0.0005602
ලේ இ 0.0004442
ලේ ப 0.0002484
ලේ தி 0.0000983
ලේ ல் 0.0016646
ලේ லெ 0.0618956
ලේ ர 0.0001846
ලේ கே 0.0012547
ලේ ளெ 0.2500000
ලේ னை 0.0035461
ලේ ரா 0.0017204
ලේ வே 0.0015873
ලේ ந் 0.0001964
ලේ வ 0.0000979
ලේ ரெ 0.0027701
ලේ லோ 0.0042918
ලේ லா 0.0044346
ලේ ஸ் 0.0004795
ලේ டை 0.0013387
ලේ கி 0.0006920
ලේ ள 0.0028930
ලේ ளீ 0.1666667
ලේ ம 0.0002735
ලේ ல 0.0046597
ලේ ளே 0.4210526
ලේ லி 0.0004246
ලේ பி 0.0004718
ලේ ளா 0.0454545
ලේ லே 0.5852843
ලේ ட 0.0002653
ලේ ளை 0.1520000
ලේ NULL 0.0011936
ලේ ணி 0.0011628
ලේ ய் 0.0259067
ලේ ழு 0.0070755
ලේ லே​ 1.0000000
ලේ லை 0.0917927
ගෞ கௌ 0.0454545
ඹි ப் 0.0004608
ඹි மி 0.0044643
ඹි ஹி 0.0008183
ඹි பி 0.0398679
ඹි பே 0.0012484
ඹි ப 0.0001242
ඹි ம் 0.0179982
ශො ஷோ 0.0769231
බ් ய 0.0001059
බ් ப் 0.0806452
බ් ம் 0.0012072
බ් போ 0.0010787
බ් பு 0.0048248
බ් கி 0.0003460
බ් பெ 0.0016313
බ් வ் 0.0212121
බ් ர் 0.0005556
බ් ப 0.0004968
බ් பா 0.0005602
බ් ட் 0.0001287
බ් NULL 0.0003979
බ් பீ 0.0091743
බ් வி 0.0003212
බ් பி 0.0134466
බ් பே 0.0012484
බ් ஹ 0.0001810
ජී ஜி 0.0200000
ජී ஜ 0.0009074
ජී ஜீ 0.3214286
බ්‍ எ 0.0005147
බ්‍ ப் 0.0036866
බ්‍ கோ 0.0010132
බ්‍ பீ 0.0045872
බ්‍ ச 0.0004205
බ්‍ பி 0.0089644
බ්‍ வி 0.0003212
බ්‍ பே 0.0012484
බ්‍ பா 0.0005602
බ්‍ வ் 0.0030303
බ්‍ ப 0.0001242
නා ணா‍ 1.0000000
නා னா 0.8331539
නා மு 0.0003058
නා டி 0.0001762
නා ண 0.0075063
නා த் 0.0006696
නා ர 0.0000923
නා வீ 0.0001745
නා வா 0.0007117
නා த 0.0001324
නා ப 0.0002484
නා ரு 0.0005445
නා தே 0.0019249
නා ண் 0.0022573
නා ‍ 0.0285714
නා நாஓ 0.5000000
නා வ 0.0000979
නා ரா 0.0004301
නා யு 0.0087719
නා ஹ 0.0001810
නා னை 0.0035461
නා நெ 0.0058480
නා னோ 0.0147059
නා னே 0.0047059
නා ழை 0.0086207
නා ல 0.0003452
නා ய 0.0002117
නා ஒ 0.0005794
නා கா 0.0010225
නා தா 0.0082797
නා ஸ் 0.0002398
නා ன் 0.0006781
නා ர் 0.0005556
නා நா 0.8793727
නා கி 0.0003460
නා பு 0.0027271
නා ணா 0.3973510
නා னு 0.0060332
නා பெ 0.0016313
නා க 0.0002251
නා பொ 0.0004604
නා ண‎ 1.0000000
නා ங்‎ 0.1000000
නා ச 0.0004205
නා ந 0.0402516
නා மெ 0.0008562
නා னாஓ 0.5000000
නා NULL 0.0043767
නා னா‎ 1.0000000
නා நே 0.0222222
නා ன 0.0139997
නා உ 0.0005420
නා ட 0.0007960
නා னி 0.0004621
නා ணா் 0.5000000
ගො தோ 0.0005627
ගො மொ 0.0045558
ගො NULL 0.0047745
ගො ன 0.0002617
ගො ஹா 0.0017094
ගො ட 0.0001769
ගො உ 0.0005420
ගො பி 0.0009436
ගො ஞ 0.0740741
ගො ரி 0.0003344
ගො ம 0.0001824
ගො தொ 0.0068318
ගො து 0.0009889
ගො ஒ 0.0005794
ගො கோ 0.1337386
ගො மா 0.0002188
ගො கா 0.0051125
ගො ர் 0.0011111
ගො ன் 0.0001356
ගො பெ 0.0005438
ගො க 0.0018008
ගො ஙெ 0.2500000
ගො கொ‎ 0.5000000
ගො கெ 0.0035804
ගො மி 0.0008929
ගො வ 0.0006856
ගො ண் 0.0011287
ගො கௌ 0.0909091
ගො அ 0.0002724
ගො ணை 0.0319149
ගො கூ 0.0140845
ගො துஓ 0.1000000
ගො பே 0.0012484
ගො ஹே 0.0013004
ගො னோ 0.0294118
ගො யி 0.0006088
ගො ம் 0.0004390
ගො வெ 0.0011410
ගො னா 0.0032293
ගො eell 0.1250000
ගො ஹொ 0.0272109
ගො த் 0.0003720
ගො கோ 0.0243902
ගො ப் 0.0004608
ගො கே 0.0012547
ගො ர 0.0002769
ගො கொ 0.6493301
ගො ப 0.0019871
ගො னொ 0.0370370
ගො த 0.0001324
ගො பா 0.0016807
ගො டு 0.0007128
ගො தி 0.0001965
ගො கொ 0.7527594
ධු டு 0.0003564
ධු து 0.0034611
රුෙ ரு 0.0010890
බේ வை 0.0042735
බේ பே 0.1573034
බේ பி 0.0002359
බේ வே 0.0047619
බේ பீ 0.0045872
බේ பை 0.0769231
බේ பெ 0.0152257
බේ ப 0.0007452
බේ மா 0.0002188
බේ கொ 0.0001441
බේ கா 0.0005112
බේ வூ 0.0227273
බේ போ 0.0010787
බේ ம் 0.0006585
බේ பே‍ 1.0000000
බේ வெ 0.0013692
ඩි. க 0.0000450
ඩි. டி. 0.1818182
ඩි. டீ. 0.1111111
ඩි. .. 0.0256410
ඩි. . 0.0322581
හ ஹொ 0.0136054
හ ப் 0.0027650
හ ர 0.0002769
හ ற் 0.0034364
හ ம் 0.0006585
හ வெ 0.0004564
හ யா 0.0048446
හ மு 0.0006116
හ ஹ‍ 1.0000000
හ ல் 0.0174347
හ ப 0.0004968
හ இ 0.0008885
හ ட் 0.0001287
හ ந் 0.0003928
හ ஜ 0.0027223
හ கை 0.0016207
හ கெ 0.0007161
හ வை 0.0042735
හ சா 0.0858086
හ று 0.0109170
හ அ 0.0209752
හ சி 0.0033482
හ ய 0.0013762
හ ஹெ 0.0175077
හ ஹ‎ 1.0000000
හ ங் 0.0009646
හ ஹாஓ 0.5000000
හ னு 0.0030166
හ கஓ 0.1666667
හ ஹ் 0.2000000
හ ங 0.0909091
හ ஸ் 0.0033565
හ ணு 0.0036900
හ ஹஓ 0.5000000
හ நா 0.0096502
හ ஸ 0.0036765
හ ன 0.0041868
හ ஹா 0.3452991
හ மே 0.2693383
හ NULL 0.0228117
හ ஐ 0.1041667
හ னி 0.0018484
හ ஹு 0.0078534
හ ட 0.0051296
හ உ 0.0027100
හ த் 0.0002976
හ செ 0.0019920
හ ண 0.0033361
හ கே 0.0037641
හ கொ 0.0001441
හ ழ் 0.3835878
හ காஓ 0.5000000
හ த 0.0005294
හ ரு 0.0002723
හ வ 0.0001959
හ நி 0.0026918
හ ஊ 0.1137124
හ ண் 0.0033860
හ கு 0.0152615
හ ஹே 0.0032510
හ ஹ 0.9181900
හ ஹை 0.4545455
හ து 0.0002472
හ கா 0.1094070
හ ம 0.0004559
හ கி 0.0006920
හ க 0.0317396
හ ர் 0.0266667
හ ன் 0.0008137
හ ஆ 0.0155367
හ எ 0.0005147
හ ந 0.0062893
හ ச 0.1156434
හ க் 0.0025224
හ ஹோ 0.0147059
හ ரி 0.0043478
හ லூ 0.0810811
හ ஹூ 0.1666667
හ லே 0.0016722
හ வி 0.0006425
ල්‍ ல் 0.0010513
යෙ யே 0.0070175
යෙ யெ 0.3125000
යෙ ஜே 0.0138889
යෙ யா 0.0008074
යෙ யொ 0.0476190
යෙ எ 0.0010293
යෙ ஜெ 0.0113636
යෙ கீ 0.0017699
යෙ தை 0.0005023
යෙ ய 0.0010586
ළී லி 0.0012739
ළී வ 0.0000490
චෛ வெ 0.0002282
චෛ மெ 0.0008562
චෛ சை 0.0384615
චෛ வை 0.0042735
චෛ ஹெ 0.0010299
ජේ ணி 0.0011628
ජේ NULL 0.0001326
ජේ ஜே. 0.1428571
ජේ ஜ 0.0036298
ජේ ஜ் 0.0091743
ජේ ஜீ 0.0357143
ජේ ஜே 0.7222222
ජේ " 0.2857143
ජේ ஜெ 0.0227273
ජේ ஜி 0.0066667
ජේ ... 0.0434783
ජේ பே 0.0037453
ජේ சே 0.0028090
ජේ பெ 0.0005438
නෛ னை 0.0141844
සූ ஸூ 0.2857143
සූ சு 0.0058140
සූ ம௲ 0.5000000
සූ சி 0.0005580
සූ சூ 0.5035461
සූ து 0.0002472
සූ ஸு 0.0185185
පෙෙ ல 0.0000575
පෙෙ யி 0.0003044
පෙෙ ன் 0.0001356
ල්. L.. 0.0588235
ල්. ல். 0.6000000
ල්. ல. 0.0208333
ග්ෙ க் 0.0002803
සෞ கா 0.0005112
සෞ தா 0.0009200
මෘ ம 0.0000912
මෘ ர் 0.0105556
මෘ மு 0.0058104
මෘ த் 0.0001488
මෘ மே 0.0009320
මෘ மூ 0.0312500
ළ‍ ல‍‍‍ 0.5000000
තො தொ 0.0008540
ඳෙ த 0.0001324
ඳෙ ந் 0.0001964
ඳෙ ன் 0.0001356
ඳෙ தெ 0.0005774
ග්‍ நோ 0.0277778
ග්‍ அ 0.0002724
ග්‍ கி‍ 1.0000000
ග්‍ ஸ் 0.0007193
ග්‍ கி 0.0325260
ග්‍ ஹி 0.0008183
ග්‍ க 0.0001801
ග්‍ மை 0.0031746
ග්‍ கு 0.0003722
ග්‍ ங் 0.0003215
ග්‍ க் 0.0042040
ග්‍ கா 0.0005112
ග්‍ ப் 0.0004608
ග්‍ ஹா 0.0017094
ද්් த் 0.0000744
ද්් தி 0.0000983
තේ கே 0.0012547
තේ யொ 0.0476190
තේ த் 0.0010416
තේ தே‎ 1.0000000
තේ ங் 0.0003215
තේ தே 0.1588065
තේ தெ‎ 1.0000000
තේ தா 0.0009200
තේ த 0.0011912
තේ ன் 0.0008137
තේ தை 0.0010045
තේ லை 0.0118790
තේ NULL 0.0002653
තේ தோ 0.0005627
තේ யி 0.0060883
තේ தெ 0.0040416
තේ நெ 0.0029240
තේ வி 0.0003212
තේ ட 0.0002653
භා நீ 0.0173913
භා NULL 0.0002653
භා லி 0.0004246
භා ண் 0.0011287
භා வா 0.0014235
භා ஹா 0.0051282
භා இ 0.0004442
භා ப 0.0002484
භා . 0.0322581
භා பா 0.0201681
භා பை 0.4615385
භා தி 0.0001965
භා யி 0.0006088
තෟ த் 0.0000744
ඳ ந் 0.0608798
ඳ NULL 0.0002653
ඳ ன 0.0002617
ඳ ண் 0.0067720
ඳ ட 0.0013266
ඳ று 0.0021834
ඳ ரோ 0.0052632
ඳ னை 0.0177305
ඳ சா 0.0016502
ඳ ற் 0.0011455
ඳ ங் 0.0003215
ඳ டா 0.0023613
ඳ சி 0.0005580
ඳ து 0.0004944
ඳ த் 0.0003720
ඳ ல 0.0001151
ඳ ண 0.0041701
ඳ ஞ் 0.0120482
ඳ ர 0.0002769
ඳ கா 0.0030675
ඳ ன் 0.0016273
ඳ ப 0.0003726
ඳ த 0.0248825
ඳ தா 0.0027599
ඳ பா 0.0016807
ඳ தே 0.0019249
ඳ தி 0.0000983
ඛ්‍ க் 0.0002803
ඛ්‍ தா 0.0009200
ඛ්‍ ர 0.0000923
ඔු ம் 0.0003292
ඔු பு 0.0006293
වේ வா 0.0028470
වේ வீ 0.0008724
වේ வெ 0.0200822
වේ ற் 0.0011455
වේ டா 0.0011806
වේ வே‎ 0.6666667
වේ போ 0.0010787
වේ டி 0.0001762
වේ பெ 0.0005438
වේ தி 0.0000983
වේ ல் 0.0000876
වේ க 0.0001351
වේ வ் 0.0030303
වේ ‍‎‍ 0.0625000
වේ வ 0.0014202
වේ கை 0.0008104
වේ NULL 0.0002653
වේ வே 0.5126984
වේ சே 0.0028090
වේ வை 0.0042735
වේ வி 0.0028911
ෂු ச 0.0004205
ෂු ஷு 0.5000000
ෂු சு 0.0038760
කේ. ... 0.0434783
කේ. கே. 0.8333333
කේ. . 0.0645161
කේ. கெ. 1.0000000
තො த் 0.0000744
තො து 0.0014833
තො கொ 0.0033136
තො தொ 0.3654996
තො தா 0.0009200
තො ட் 0.0001287
තො நொ 0.0370370
තො நி 0.0094213
තො ன 0.0001308
තො தோ 0.0444569
තො ந 0.0012579
තො NULL 0.0015915
තො ஜ 0.0009074
තො தொ 0.4722222
තො ஹே 0.0006502
තො .. 0.0128205
තො யி 0.0009132
තො னோ 0.0147059
තො டீ 0.0222222
ඹෑ பெ 0.0016313
ඹෑ பே 0.0237203
ඹෑ பா 0.0016807
ඹෑ வெ 0.0002282
ඹෑ ப 0.0002484
ඹෑ ம் 0.0026339
ඬි ன் 0.0009493
ඬි தி 0.0003930
ඬි டி 0.0081057
ඬි ந் 0.0003928
ඬි ண் 0.0191874
ඬි கா 0.0005112
ඬි ய 0.0001059
ඬි ட் 0.0001287
බො பி 0.0002359
බො யு 0.0087719
බො பொ 0.2656250
බො NULL 0.0001326
බො ஜ 0.0018149
බො மொ 0.0068337
බො ‎ 0.0388350
බො ஙெ 0.2500000
බො வொ 0.3571429
බො ‍‎‍ 0.0625000
බො ப 0.0011177
බො பொ 0.1703499
බො ​ 0.5000000
බො பு 0.0002098
බො பெ 0.0016313
බො வோ 0.0200000
බො போ 0.0463862
බො ம 0.0000912
බො கொ 0.0005763
බො போ 0.2295082
චා ச 0.0004205
චා ஸெ 0.0149254
චා வா 0.0014235
චා லா 0.0014782
චා பே 0.0012484
චා ஷா 0.0129870
චා ச் 0.0204082
චා சா 0.0643564
භි பி 0.0021231
භි வி 0.0003212
භි ஹி 0.0008183
භි ர 0.0000923
චො சொ 0.0843373
ථා ந் 0.0001964
ථා க் 0.0002803
ථා ம் 0.0002195
ථා NULL 0.0006631
ථා ட் 0.0001287
ථා லை 0.0140389
ථා நி 0.0053836
ථා ன 0.0001308
ථා தா 0.0064397
ථා ப 0.0004968
ථා கூ 0.0281690
ථා டு 0.0007128
සෙ பு 0.0008391
සෙ சை 0.0128205
සෙ செ 0.6573705
සෙ ம 0.0003647
සෙ ம் 0.0002195
සෙ eell 0.1250000
සෙ சே 0.0337079
සෙ சா 0.0016502
සෙ ட 0.0000884
සෙ ஸெ 0.3134328
සෙ நி 0.0013459
සෙ ஸ 0.0036765
සෙ ஸே 0.0416667
සෙ ச 0.0042052
සෙ கு 0.0001861
සෙ NULL 0.0002653
ගෛ கை 0.0008104
නැ‍‍ NULL 0.0001326
නෙ ஹெ 0.0010299
නෙ ண 0.0008340
නෙ ல 0.0000575
නෙ னெ 0.2500000
නෙ னே 0.0611765
නෙ தே 0.0009625
නෙ ணா 0.0066225
නෙ கி 0.0003460
නෙ த 0.0001324
නෙ நி 0.0026918
නෙ ன 0.0023551
නෙ நே 0.0777778
නෙ NULL 0.0006631
නෙ ந 0.0012579
නෙ ‎ 0.0097087
නෙ ஹி 0.0008183
නෙ நெ 0.5380117
නෙ தெ 0.0011547
නෙ னை 0.0035461
පූ போ 0.0010787
පූ கு 0.0001861
පූ வ 0.0000490
පූ பூ 0.1547170
පූ பு 0.0025173
මො வ 0.0000490
මො ஆ 0.0028249
මො மோ 0.1641026
මො NULL 0.0003979
මො மொ 0.9225513
මො ‎ 0.0582524
මො ஹோ 0.0073529
මො அ 0.0002724
මො மா 0.0006563
මො மோ 0.5384615
මො ர 0.0000923
මො மு 0.0042813
මො ம 0.0001824
මො மொ 0.9677419
මො பொ 0.0004604
මො கி 0.0003460
මො வொ 0.0357143
මො ப 0.0001242
මො நு 0.0038023
ඔ් ஒ 0.0005794
න්‍ ந் 0.0001964
න්‍ ன் 0.0008137
න්‍ னி 0.0013863
න්‍ ண் 0.0022573
යූ உ 0.0005420
යූ யூ 0.0652174
යූ யு 0.0087719
න් பீ 0.0045872
න් ன்‍‌ 1.0000000
න් ன்ஓ 0.3333333
න් வ 0.0001469
න් ண் 0.4142212
න් ழி 0.1756757
න් ஹ 0.0009050
න් னோ 0.1029412
න් ஹே 0.0065020
න් கொ 0.0001441
න් வா 0.0007117
න් ண 0.0041701
න් த் 0.0061007
න් ரு 0.0005445
න් த 0.0000662
න් க் 0.0019619
න් ந 0.0125786
න් ன். 0.3809524
න් லை 0.0161987
න් வி 0.0019274
න් ரி 0.0010033
න් ம 0.0004559
න් ஞி 0.3333333
න් னே 0.0070588
න් கா 0.0102249
න් ஞ் 0.1506024
න් ல 0.0000575
න් னெ 0.0178571
න් து 0.0002472
න් ர் 0.0061111
න් ன் 0.7548142
න් க 0.0000450
න් ங்ஓ 0.0625000
න් ள் 0.0017007
න් ந் 0.6999214
න් வு 0.0009940
න් ட் 0.0012867
න් னை 0.0035461
න් று 0.0021834
න් மு 0.0006116
න් ன்' 0.5000000
න් டி 0.0003524
න් யா 0.0008074
න් ம் 0.0027436
න් ர 0.0015693
න් ப் 0.0018433
න් ப 0.0004968
න් தி 0.0003930
න් ல் 0.0009637
න් டு 0.0007128
න් NULL 0.0184350
න් ஸ 0.0012255
න් ன 0.0158315
න් ஹா 0.0153846
න් பி 0.0002359
න් ட 0.0008844
න් னி 0.0600739
න් ங் 0.1260450
න් றை 0.0078740
න් கோ 0.0010132
න් மா 0.0004375
න් ய 0.0005293
න් பு. 0.3333333
න් லா 0.0007391
න් ஸ் 0.0009590
න් ங 0.2727273
න් ங்‎ 0.1000000
න් னு 0.0075415
ඟෙ ழ 0.0050761
ඟෙ கே 0.0012547
ණි னா 0.0010764
ණි ளி 0.0048309
ණි ம் 0.0001097
ණි ற் 0.0022910
ණි னீ 0.2142857
ණි டி 0.0022907
ණි ழை 0.0862069
ණි ல 0.0001726
ණි ய 0.0023290
ණි ண 0.0016681
ණි சி 0.0005580
ණි லி 0.0004246
ණි ப் 0.0013825
ණි சீ 0.0062112
ණි ன் 0.0001356
ණි பா 0.0005602
ණි கி 0.0003460
ණි னு 0.0015083
ණි ணீ 0.2142857
ණි ணி 0.4674419
ණි NULL 0.0005305
ණි ன 0.0003925
ණි நி 0.0040377
ණි னை 0.0283688
ණි ஹே 0.0006502
ණි னி 0.1926987
ණි யே 0.0052632
නි நி 0.7981157
නි ண் 0.0067720
නි ஜ 0.0009074
නි கெ 0.0010741
නි யூ 0.0217391
නි ந் 0.0003928
නි கு 0.0029779
නි நீ 0.1130435
නි சா 0.0033003
නි ஹி 0.0024550
නි நெ 0.0146199
නි .. 0.0128205
නි னை 0.0070922
නි அ 0.0016344
නි நோ 0.0277778
නි று 0.0043668
නි வீ 0.0204153
නි சீ 0.0062112
නි த் 0.0001488
නි ண 0.0008340
නි டி 0.0051101
නි மு 0.0006116
නි ற் 0.0011455
නි ம் 0.0013169
නි ளி 0.0048309
නි தி 0.0018670
නි டு 0.0017819
නි இ 0.0755220
නි த 0.0000662
නි ன 0.0013084
නි ஸ 0.0024510
නි ணி 0.3802326
නි NULL 0.0038462
නි ய் 0.0103627
නි யே 0.0070175
නි ணி‎ 1.0000000
නි னி 0.5073937
නි தெ 0.0002887
නි ரி 0.0010033
නි வி 0.0318021
නි உ 0.0021680
නි மா 0.0094071
නි கோ 0.0010132
නි நி் 1.0000000
නි ஒ 0.0063731
නි து 0.0044499
නි ல 0.0002301
නි சு 0.0019380
නි ய 0.0003176
නි னீ 0.0714286
නි னே 0.0023529
නි ங் 0.0006431
නි க 0.0000450
නි பெ 0.0005438
නි ள் 0.0017007
නි னு 0.0015083
නි கி 0.0013841
නි பு 0.0054542
නි ன் 0.0008137
නි . 0.0322581
නි ர் 0.0283333
නි லா 0.0029564
ටුෙ டு 0.0003564
ටුෙ ட் 0.0001287
ටුෙ ற் 0.0011455
ටුෙ றை 0.0078740
' ' 0.3409091
' டு 0.0007128
' ஷா 0.0259740
' டை 0.0013387
' ம் 0.0003292
' ஜே 0.0277778
' NULL 0.0026525
' கா 0.0010225
න ரு 0.0005445
න ழ 0.2741117
න த 0.0062206
න கொ 0.0001441
න வா 0.0042705
න ண 0.3736447
න த் 0.0000744
න ' 0.0454545
න ஹ 0.0009050
න ரை 0.0028653
න னோ 0.0147059
න நெ 0.0087719
න கு 0.0020473
න ன்ஓ 0.0416667
න ண் 0.0135440
න நி 0.0067295
න வ 0.0013713
න நை 0.4666667
න தா 0.0009200
න ன் 0.0123407
න பொ 0.0004604
න க 0.0020710
න கி 0.0003460
න ணா 0.0264901
න ள் 0.0170068
න னஓ 0.5000000
න ம 0.0018237
න னே 0.0423529
න னீ 0.0714286
න கா 0.0582822
න ல 0.0097221
න னெ 0.0625000
න து 0.0168109
න லே 0.0011148
න யே 0.3122807
න ரி 0.0010033
න க் 0.0204596
න ச 0.0004205
න ந 0.8037736
න " 0.1428571
න தி‎ 0.1666667
න னோ 0.5000000
න லை 0.0151188
න இ 0.0022212
න னொ 0.0370370
න ப 0.0012419
න தி 0.0015722
න ல் 0.0002628
න டா 0.0141677
න மு 0.0003058
න டி 0.0017621
න யா 0.0004037
න னா 0.0602799
න ற் 0.0057274
න ம் 0.0250219
න ர 0.0024001
න ப் 0.0004608
න னை 0.5602837
න று 0.0021834
න ணை 0.1489362
න ரா 0.0030108
න யி 0.1722983
න கை 0.0008104
න ஜ 0.0018149
න வு 0.0009940
න ந் 0.0019639
න ட் 0.0007720
න நா 0.0434258
න ணு 0.0036900
න டை 0.0013387
න பு 0.0375498
න னு 0.0075415
න ங் 0.0012862
න ய 0.0040229
න ஸி 0.0105263
න சி 0.0044643
න லி 0.0008493
න பி 0.0018872
න ட 0.0015035
න னி 0.0041590
න NULL 0.0257294
න தோ 0.0016882
න ழு 0.0070755
න ன 0.8545074
න தை 0.0012557
න நே 0.0111111
ත‍ த் 0.0000744
ත‍ ப 0.0001242
ත‍ த 0.0000662
වී. வீ. 1.0000000
චි ச் 0.0374150
චි வி 0.0009637
චි ற 0.0012723
චි ர். 0.0769231
චි ன 0.0002617
චි கோ 0.0010132
චි சீ 0.0062112
චි ஞ் 0.0060241
චි சு 0.0038760
චි ய 0.0001059
චි சி 0.1049107
චි டி 0.0005286
චි ச 0.0008410
චි ஞி 0.1666667
ඤ් ன் 0.0001356
ඤ් க் 0.0011211
ඤ් ங் 0.0003215
ඤ් ந் 0.0001964
ඤ් ஞ் 0.0963855
ඤ් நி 0.0013459
ඤ් க 0.0000450
කෛ ய் 0.0051813
කෛ க் 0.0002803
කෛ கா 0.0005112
තෑ வெ 0.0002282
තෑ னே 0.0023529
තෑ கே 0.0012547
තෑ த் 0.0001488
තෑ தா 0.0073597
තෑ த 0.0004632
තෑ தே 0.0336862
තෑ தெ 0.0023095
ලු லெ 0.0019342
ලු மு 0.0006116
ලු ளூ 0.6666667
ලු லு‍ 1.0000000
ලු ல 0.0004602
ලු லி 0.0114650
ලු து 0.0027194
ලු ர 0.0001846
ලු பூ 0.0037736
ලු ழுஓ 0.2500000
ලු லு‎ 1.0000000
ලු லுஓ 0.1666667
ලු ழூ 0.5000000
ලු லோ 0.0042918
ලු ளு 0.2727273
ලු டு 0.0028510
ලු னு 0.0015083
ලු ள் 0.0017007
ලු ல் 0.0003504
ලු தி 0.0029478
ලු ந் 0.0001964
ලු ழு 0.0896226
ලු NULL 0.0002653
ලු ண் 0.0011287
ලු வஓ 0.5000000
ලු யு 0.0087719
ලු ஹ 0.0001810
ලු ரி 0.0003344
ලු ளோ 0.2500000
ලු லூ 0.1891892
ලු லு 0.4800250
ඛ க 0.0002251
ඛ ம 0.0000912
ඞි டி 0.0001762
ංො ன் 0.0001356
ංො கொ 0.0001441
ධි‍ தி 0.0000983
ත්ෙ தே 0.0028874
කූ க 0.0000900
කූ கி 0.0003460
කූ ஹி 0.0008183
කූ கூ 0.3098592
කූ கு 0.0065141
කූ ட 0.0000884
මෙ ழ் 0.0009542
මෙ இ 0.0013327
මෙ ரா 0.0021505
මෙ ரு 0.0002723
මෙ கீ 0.0017699
මෙ ஒ 0.0005794
මෙ மே 0.0167754
මෙ மி 0.0008929
මෙ ம 0.0002735
මෙ மெ 0.0976027
මෙ மௌ 0.0357143
මෙ NULL 0.0001326
මෙ மீ 0.0068493
දේ ஹே 0.0006502
දේ தெ 0.0167436
දේ வி 0.0003212
දේ ட 0.0004422
දේ ரீ 0.0018248
දේ லை 0.0010799
දේ NULL 0.0005305
දේ டே 0.0032680
දේ தே 0.3368624
දේ தி 0.0000983
දේ ள் 0.0017007
දේ பா 0.0005602
දේ த 0.0012574
දේ தா 0.0009200
දේ கோ 0.0030395
දේ கா 0.0010225
දේ ஸி 0.0052632
දේ த் 0.0001488
දේ ம 0.0000912
ෂේ ய் 0.0051813
ෂේ மை 0.0031746
ෂේ லை 0.0010799
ෂේ ஷே 0.4000000
ගී கெ 0.0003580
ගී க 0.0000450
ගී கி 0.0013841
ගී கீ 0.0283186
ෆු ரு 0.0002723
ෆු பு 0.0002098
පේ ப் 0.0082949
පේ ஜெ 0.0113636
පේ டி 0.0001762
පේ ம 0.0001824
පේ ங் 0.0003215
පේ க 0.0000900
පේ பெ 0.0184883
පේ பை 0.0512821
පේ ப 0.0006210
පේ ன் 0.0001356
පේ ரே 0.0025773
පේ மே 0.0009320
පේ NULL 0.0001326
පේ ஜே 0.0555556
පේ ழு 0.0011792
පේ கு 0.0001861
පේ ‎ 0.0194175
පේ யே 0.0017544
පේ நெ 0.0058480
පේ பே 0.3258427
පේ லே 0.0005574
ණී NULL 0.0001326
ණී ணி 0.0093023
ණී ணீ 0.2142857
ණී னி 0.0055453
ණූ னு 0.0030166
ඉ. பா 0.0005602
ඉ. தை 0.0002511
ඉ. .. 0.0128205
බූ பு 0.0012587
බූ பூ 0.0415094
බූ NULL 0.0002653
බූ போ 0.0010787
අැ எ 0.0010293
රෙ க 0.0000450
රෙ தி 0.0002948
රෙ பு 0.0002098
රෙ றே 0.0370370
රෙ ரு 0.0005445
රෙ ரே 0.0231959
රෙ ர் 0.0005556
රෙ ப 0.0002484
රෙ ர 0.0015693
රෙ ல 0.0000575
රෙ டி 0.0001762
රෙ றை 0.0157480
රෙ யி 0.0009132
රෙ நெ 0.0029240
රෙ அ 0.0002724
රෙ ரெ 0.1385042
රෙ NULL 0.0002653
රෙ ஓ 0.0037313
රෙ மெ 0.0008562
තෛ தை 0.0012557
තෛ த் 0.0000744
ලෙ லை 0.0053996
ලෙ கு 0.0001861
ලෙ ஜ 0.0009074
ලෙ NULL 0.0003979
ලෙ ளை 0.0040000
ලෙ லு 0.0006242
ලෙ லே 0.0752508
ලෙ ளெ 0.2500000
ලෙ த் 0.0001488
ලෙ ளே 0.1315789
ලෙ ல 0.0018984
ලෙ றி 0.0065574
ලෙ வெ 0.0002282
ලෙ ளி 0.0024155
ලෙ டி 0.0001762
ලෙ லெ 0.4100580
ලෙ ள 0.0009643
ලෙ லா 0.0007391
ලෙ லோ 0.0042918
ලෙ ரு 0.0002723
ණ් ன் 0.0043396
ණ් வ் 0.0030303
ණ් த 0.0000662
ණ් பை 0.0256410
ණ් னு 0.0015083
ණ් ல் 0.0001752
ණ් க 0.0000450
ණ් ம் 0.0002195
ණ් ங் 0.0003215
ණ් ண' 1.0000000
ණ් த் 0.0002232
ණ් லி 0.0004246
ණ් ண 0.0025021
ණ් ந் 0.0011783
ණ් NULL 0.0002653
ණ් ணி 0.0011628
ණ් மூ 0.0208333
ණ් ண் 0.2765237
ණ් நி 0.0026918
යු யூ 0.6304348
යු ந 0.0012579
යු ச 0.0012616
යු லை 0.0010799
යු நி 0.0013459
යු அ 0.0002724
යු யு 0.5789474
යු ஷ 0.0062500
යු து 0.0002472
යු ய 0.0001059
යු சு 0.0019380
යු கோ 0.0050659
යු ப 0.0001242
යු இ 0.0017770
යු ணு 0.0036900
යු ழ 0.0050761
යු சை 0.0256410
ත. த 0.0000662
ගෘ கு 0.0001861
ගෘ ரூ 0.0108696
ඬා டா 0.0011806
ඬා தா 0.0009200
දෑ ந் 0.0001964
දෑ வெ 0.0002282
දෑ தீ 0.0045662
දෑ வு 0.0009940
දෑ எ 0.0005147
දෑ த 0.0002647
දෑ தா 0.0064397
දෑ ஸ் 0.0002398
දෑ இ 0.0004442
දෑ ஹ 0.0001810
දෑ தெ 0.0054850
දෑ தே 0.0500481
නැ: NULL 0.0001326
ස් ச 0.0159798
ස් க் 0.0033632
ස් நூ 0.0769231
ස් ணி 0.0011628
ස් லை 0.0086393
ස් ஸெ 0.0149254
ස් லே 0.0039019
ස් வி 0.0003212
ස් ரி 0.0010033
ස් ச் 0.3435374
ස් ஸு 0.0370370
ස් ளே 0.0526316
ස් து 0.0002472
ස් சு 0.0348837
ස් கா 0.0015337
ස් ர் 0.0038889
ස් தா 0.0018399
ස් ள் 0.0017007
ස් க 0.0007654
ස් ஜீ 0.0357143
ස් கு 0.0135865
ස් ண் 0.0022573
ස් ‍ 0.0285714
ස් நி 0.0107672
ස් வ 0.0000979
ස් ஹ 0.0005430
ස් யு 0.0175439
ස් ஸ்ஓ 0.5000000
ස් த் 0.0001488
ස් செ 0.0159363
ස් வா 0.0007117
ස් ரு 0.0002723
ස් ச்ஓ 0.5000000
ස් சூ 0.0070922
ස් ழு 0.0023585
ස් தோ 0.0011255
ස් NULL 0.0082228
ස් ன 0.0002617
ස් ஸ 0.0453431
ස් உ 0.0005420
ස් ட 0.0000884
ස් பி 0.0030668
ස් தெ 0.0005774
ස් சே 0.0140449
ස් ஸ். 0.2222222
ස් ள 0.0086789
ස් சி 0.0128348
ස් ஸி 0.0421053
ස් ஸூ 0.2857143
ස් ஸா 0.0183486
ස් . 0.0322581
ස් ஸ் 0.8211460
ස් லா 0.0014782
ස් பெ 0.0016313
ස් ஹ் 0.0666667
ස් பு 0.0008391
ස් ஸ்‎ 0.5000000
ස් வு 0.0009940
ස් ட் 0.0002573
ස් அ 0.0002724
ස් று 0.1528384
ස් .. 0.0641026
ස් சா 0.0330033
ස් ம் 0.0015364
ස් ளி 0.0024155
ස් சோ 0.0166667
ස් வூ 0.0227273
ස් மு 0.0006116
ස් சீ 0.0124224
ස් ர 0.0002769
ස් பா 0.0005602
ස් ஷ் 0.3703704
ස් சை 0.1282051
ස් தி 0.0000983
කැෙ க் 0.0002803
කැෙ கெ 0.0003580
කැෙ கே 0.0012547
ගෙ கொ 0.0022075
ගෙ க 0.0002701
ගෙ கி 0.0003460
ගෙ டு 0.0007128
ගෙ ழ 0.2690355
ගෙ இ 0.0079964
ගෙ ஹெ 0.0082389
ගෙ மா 0.0002188
ගෙ வீ 0.0017449
ගෙ கே 0.1430364
ගෙ கா 0.0020450
ගෙ கொ 0.0015848
ගෙ னா 0.0010764
ගෙ ஐ 0.0208333
ගෙ ச் 0.0136054
ගෙ கீ 0.0017699
ගෙ NULL 0.0013263
ගෙ கெஓ 0.5000000
ගෙ கை 0.0024311
ගෙ கெ 0.3132832
ගෙ மெ 0.0008562
ජ් தி 0.0001965
ජ් க 0.0000450
ජ් ஸ் 0.0014385
ජ් த் 0.0000744
ජ් ர 0.0001846
ජ් வீ 0.0001745
ජ් ஜ்E 0.5000000
ජ් ப் 0.0009217
ජ් ஜி 0.0266667
ජ් டி 0.0001762
ජ් ச் 0.0204082
ජ් ரா 0.0012903
ජ් தை 0.0002511
ජ් ட் 0.0002573
ජ් ச 0.0016821
ජ් NULL 0.0005305
ජ් ஜ 0.0045372
ජ් ஜ் 0.8899083
ෆී ப் 0.0004608
ෆී பு 0.0002098
ෆී பீ 0.1651376
ෆී பி 0.0009436
ෆී பா 0.0005602
ෆී ய் 0.0051813
ෆී ட 0.0000884
ගූ ங் 0.0003215
ගූ கு 0.0001861
ඹෙි பெ 0.0005438
ඹෙි ம் 0.0001097
ඡා ஜ 0.0009074
ඡා ஜா 0.0055556
ඡා ஜ் 0.0091743
ෂූ சூ 0.0070922
ශෙ ஷை 0.5000000
කෑ கா 0.0025562
කෑ க 0.0001801
කෑ கே 0.0476788
කෑ கி 0.0003460
කෑ கெ 0.0100251
කෑ கூ 0.0140845
යි. .. 0.0128205
යි. Y 0.2500000
යි. ஐ. 0.5000000
යි. வை. 1.0000000
ඹ් ர் 0.0005556
ඹ් ப 0.0002484
ඹ් பே 0.0012484
ඹ් பு 0.0002098
ඹ් ம் 0.0003292
ඹ් ஓ 0.0037313
ඹ් ஒ 0.0011587
ඹ් ப் 0.0004608
මෛ NULL 0.0001326
මෛ மை 0.0476190
මෛ ர 0.0000923
මෛ வை 0.0042735
හෙ ஹெ 0.4325438
හෙ கே 0.0087829
හෙ கொ 0.0002881
හෙ கா 0.0005112
හෙ ஹொ 0.0068027
හෙ செ 0.0159363
හෙ னெ 0.0089286
හෙ ண 0.0008340
හෙ யெ 0.0312500
හෙ பொ 0.0009208
හෙ க 0.0003151
හෙ கி 0.0003460
හෙ பு 0.0002098
හෙ ரு 0.0005445
හෙ ப 0.0002484
හෙ வ 0.0001469
හෙ எ 0.0113227
හෙ NULL 0.0005305
හෙ கெ 0.0082349
හෙ ஷெ 0.1428571
හෙ ‎ 0.0097087
හෙ கு 0.0001861
හෙ ஹே 0.0214564
හෙ ஹ 0.0034389
හෙ ஏ 0.0052632
බෟ ரூ 0.0108696
බෟ பு 0.0002098
බෟ ரீ 0.0018248
බෟ க் 0.0002803
ඬු ன் 0.0012205
ඬු கொ 0.0044150
ඬු டு 0.0135424
ඬු னு 0.0015083
ඬු ங் 0.0003215
ඬු ண் 0.0169300
ඬු தூ 0.0053763
ඬු து 0.0007417
චු சு 0.0058140
චු ச் 0.0034014
චු சூ 0.0141844
චු வு 0.0009940
ළෑ லெ 0.0019342
ළෑ ளா 0.0113636
ළෑ லே 0.0011148
ළෑ வெ 0.0002282
ළෑ லா 0.0014782
ල්ෙ லே 0.0011148
ල්ෙ ல் 0.0001752
උෟ உ 0.0005420
තී த் 0.0003720
තී தி 0.0004913
තී தீ 0.0639269
ඟු நா 0.0012063
ඟු ஹு 0.0392670
ඟු ன் 0.0017630
ඟු க 0.0001351
ඟු கி 0.0003460
ඟු NULL 0.0001326
ඟු க் 0.0002803
ඟු ங் 0.0340836
ඟු ந் 0.0015711
ඟු கு 0.0279174
ඟු ன 0.0001308
ඟු கொ 0.0001441
ඟු து 0.0002472
ය கி 0.0003460
ය க 0.0011255
ය தா 0.0036799
ය ன் 0.0080011
ය ர் 0.0300000
ය ல 0.0007479
ය ளே 0.0263158
ය து 0.0009889
ය கா 0.0143149
ය ம 0.0004559
ය தொ 0.0008540
ය ரி 0.0020067
ය யே 0.0017544
ය வி 0.0041760
ය லை 0.0172786
ය எ 0.0036027
ය ச 0.0050463
ය க் 0.0014013
ය ணி 0.0453488
ය தே 0.0057748
ය த 0.0048309
ය ரு 0.0198748
ය வா 0.0078292
ය தி. 1.0000000
ය வீ 0.0001745
ය யஓ 0.5000000
ය பொ 0.0078125
ය ரை 0.1117479
ය பே 0.0012484
ය யா் 0.1428571
ය ஹ 0.0005430
ය யு 0.0263158
ය ழி 0.0135135
ය வ 0.0011264
ය கு 0.0009306
ය வே 0.0031746
ය ஸ்‎ 0.2500000
ය பு 0.0065030
ය பெ 0.0010875
ය டை 0.0013387
ය யெ 0.1250000
ය ணு 0.0036900
ය ஸ் 0.0002398
ය ய 0.8815372
ය கோ 0.0010132
ය ங் 0.0218650
ය மை 0.0285714
ය ஷ 0.0062500
ය தெ 0.0011547
ය னி 0.0642329
ය உ 0.0005420
ය ட 0.0030954
ය பி 0.0009436
ය தை 0.0052737
ය ன 0.0027476
ය ஸ 0.0073529
ය றா 0.0238095
ය தோ 0.0011255
ය ய் 0.0569948
ය NULL 0.0596817
ය சை 0.0128205
ය ல் 0.0002628
ය தி 0.0639678
ය ற 0.2302799
ය இ 0.0035540
ය ப 0.0018629
ය ர 0.0058156
ය ப் 0.2635945
ය யா 0.1429148
ය ம் 0.0346795
ය மு 0.0009174
ය டா 0.0023613
ය டி 0.0495154
ය யி 0.0152207
ය சா 0.0033003
ය கா் 0.3333333
ය ணை 0.0319149
ය று 0.0043668
ය னை 0.0673759
ය ட் 0.0036027
ය யை 0.2857143
ය வு 0.0019881
ය கை 0.0016207
ය ஜ 0.0054446
උඃ ஊ 0.0033445
ෂා சா 0.0033003
ෂා தி 0.0000983
ෂා ஷா 0.3896104
ෂා பு 0.0002098
ෂා NULL 0.0001326
ෂා ஸா 0.0183486
ෆ්. .. 0.0128205
ෆ්. ப். 1.0000000
ෆ போ 0.0032362
ෆ பை 0.0256410
ෆ பெ 0.0048940
ෆ பே 0.0012484
ෆ பி 0.0002359
ෆ பா 0.0016807
ෆ அ 0.0002724
ෆ ர் 0.0016667
ෆ ப 0.0033532
සා மா 0.0004375
සා து 0.0002472
සා செ 0.0079681
සා ய 0.0001059
සා மை 0.0031746
සා யா 0.0020186
සා தி 0.0009826
සා டை 0.0053548
සා ஷா 0.0389610
සා பெ 0.0005438
සා பு 0.0039857
සා பா 0.0011204
සා ஸா 0.7339450
සා த 0.0000662
සා ஸ 0.0134804
සා ஸெ 0.0149254
සා ட் 0.0002573
සා NULL 0.0014589
සා ச 0.0058873
සා நீ 0.0086957
සා கு 0.0001861
සා சா 0.4158416
සා சா‎ 1.0000000
ඹේ ம் 0.0141572
ඹේ ம 0.0000912
ඹේ NULL 0.0006631
ඹේ தை 0.0002511
ඹේ ண 0.0008340
ඹේ ப் 0.0004608
ඹේ வ 0.0000490
ඹේ வீ 0.0001745
ඹේ மே 0.0018639
ඹේ ப 0.0013661
ඹේ பே 0.1660424
ඹේ பெ 0.0087004
ඹේ பை 0.0256410
ඹේ கி 0.0003460
ද්‍ ட் 0.0007720
ද්‍ த் 0.0063239
ද්‍ லை 0.0021598
ද්‍ NULL 0.0017241
ද්‍ ங் 0.0096463
ද්‍ ற் 0.0011455
ද්‍ தி 0.0095313
ද්‍ ல் 0.0004381
ද්‍ லூ 0.1351351
ද්‍ ரி 0.0003344
ද්‍ ச் 0.0034014
ද්‍ ஷா 0.0129870
ද්‍ த 0.0000662
ද්‍ ர் 0.0022222
ද්‍ ட 0.0001769
ඳු ய 0.0001059
ඳු து 0.0944376
ඳු த் 0.0005208
ඳු வா 0.0014235
ඳු ண் 0.0022573
ඳු யா 0.0004037
ඳු றை 0.0078740
ඳු ந் 0.0579340
ඳු NULL 0.0005305
ඳු டு 0.0024947
ඳු த 0.0006618
ඳු உ 0.0005420
ඳු ன் 0.0008137
ඳු பே 0.0012484
මෑ ம 0.0001824
මෑ மெ 0.0085616
මෑ மே 0.0102516
මෑ மா 0.0002188
රී நி 0.0013459
රී NULL 0.0014589
රී ரூ 0.0108696
රී ஹி 0.0008183
රී ளை 0.0240000
රී ரி 0.0247492
රී னி 0.0004621
රී ரா 0.0008602
රී ரீ 0.7445255
රී ல 0.0000575
රී சு 0.0019380
රී வீ 0.0001745
රී ர 0.0001846
රී றி 0.0983607
රී மை 0.0063492
රී தீ 0.0136986
රී றீ 0.5294118
රී ஷ் 0.0123457
රී தி 0.0005896
රී ல் 0.0000876
රී ர் 0.0027778
රී தா 0.0009200
රී யோ 0.0116279
රී ரு 0.0008168
දෛ தெ 0.0002887
දෛ ... 0.0434783
දෛ ன் 0.0001356
ළේ லெ 0.0019342
ළේ ' 0.0227273
ළේ லே 0.0161650
ළේ ‍ 0.0285714
ළේ ல 0.0001151
ළේ ளே 0.0263158
ළේ லை 0.0053996
යේ அ 0.0005448
යේ று 0.0021834
යේ சா 0.0231023
යේ யி 0.0009132
යේ ட் 0.0001287
යේ ஊ 0.0033445
යේ ண் 0.0011287
යේ நி 0.0026918
යේ ரு 0.0029948
යේ தி 0.0001965
යේ ம் 0.0002195
යේ யா 0.0012111
යේ வெ 0.0002282
යේ தூ 0.0053763
යේ உ 0.0005420
යේ பி 0.0002359
යේ ச் 0.0034014
යේ சே 0.0028090
යේ யே 0.0368421
යේ ய் 0.0051813
යේ ச 0.0109336
යේ NULL 0.0014589
යේ ணி 0.0058140
යේ தை 0.0005023
යේ ன் 0.0010849
යේ வொ 0.0357143
යේ ள் 0.0017007
යේ பொ 0.0009208
යේ க 0.0003151
යේ ங் 0.0035370
යේ சி 0.0011161
යේ ஒ 0.0028969
යේ ய 0.0011645
යේ கா 0.0025562
පෝ போ 0.0655738
පෝ பொ 0.0078125
පෝ பொ 0.0101289
පෝ ‍‍‍‍‍‍‎‍ 1.0000000
පෝ சொ 0.0120482
පෝ போ 0.1121899
පෝ பே 0.0012484
කෙි ணி 0.0011628
කෙි லி 0.0004246
කෙි கா 0.0005112
කෙි கொ 0.0001441
හූ பூ 0.0037736
හූ ஊ 0.0100334
හූ ஹூ 0.1666667
හූ கூ 0.0140845
හූ ஹு 0.0104712
හූ கு 0.0001861
ධ தா 0.0064397
ධ ணு 0.0073801
ධ த 0.0207134
ධ ர் 0.0005556
ධ ர 0.0000923
ධ ப் 0.0009217
ධ த் 0.0014136
ධ றை 0.0078740
ධ யி 0.0003044
ධ லு 0.0006242
ධ ச் 0.0034014
ධ ரி 0.0003344
ධ தெ 0.0002887
ධ ட 0.0013266
ධ ரா 0.0008602
ධ NULL 0.0003979
ධී டீ 0.0666667
ධී தி 0.0002948
ධී யீ 0.1428571
ධී வெ 0.0002282
ධී வா் 0.5000000
ධී தீ 0.0456621
ධී டி 0.0001762
ධී மீ 0.0342466
ධී ஒ 0.0005794
ධී ன 0.0017009
ධෘ ர 0.0000923
ධෘ தா 0.0009200
කො சீ. 0.1428571
කො ரி 0.0010033
කො லை 0.0032397
කො ஆ 0.0014124
කො நொ 0.0370370
කො டே 0.0130719
කො ‎ 0.1553398
කො ச 0.0008410
කො க் 0.0005605
කො ஏ. 0.0909091
කො கி 0.0003460
කො க 0.0009454
කො வ் 0.0090909
කො லோ 0.0042918
කො கா 0.0005112
කො தொ 0.0051238
කො போ 0.0010787
කො னி. 0.0454545
කො யு 0.0175439
කො ரெ 0.0027701
කො ழி 0.0270270
කො கீ 0.0017699
කො கௌ 0.0454545
කො ண் 0.0056433
කො வ 0.0011264
කො கு 0.0081891
කො ழ் 0.0677481
කො கெொ 1.0000000
කො ‍‎‍ 0.2500000
කො கே 0.0012547
කො கொ 0.2769053
කො உ 0.0005420
කො பி 0.0573248
කො மே 0.0065238
කො தோ 0.0078784
කො NULL 0.0656499
කො பெ 0.0005438
කො L 0.1666667
කො பு 0.0004196
කො ஸொ 0.0666667
කො டை 0.0013387
කො . 0.0645161
කො ம. 0.2000000
කො ஒ 0.0017381
කො லி 0.0008493
කො மா 0.0002188
කො கோ 0.1286727
කො ங் 0.0003215
කො ல. 0.0208333
කො .. 0.0128205
කො பீ. 0.1000000
කො ‎‎ 0.5714286
කො சா 0.0016502
කො யி 0.0054795
කො ரோ 0.0052632
කො சி. 0.1250000
කො யை 0.1428571
කො ட் 0.0046320
කො நீ 0.0086957
කො ந் 0.0001964
කො வு 0.0009940
කො கெ 0.0014322
කො கொ 0.2075055
කො ல் 0.0000876
කො னொ 0.0370370
කො இ 0.0017770
කො ப 0.0004968
කො கோ 0.2682927
කො ஹொ 0.0034014
කො ப் 0.0013825
කො ம் 0.0005487
කො யா 0.0004037
කො டி 0.0003524
කො மு 0.0009174
සි. சீ 0.0062112
සි. ர 0.0000923
සි. க 0.0000450
සි. ன். 0.0476190
ෂ சை 0.0128205
ෂ ஷா 0.0259740
ෂ ப 0.0002484
ෂ ஸ் 0.0007193
ෂ செ 0.0019920
ෂ சி 0.0011161
ෂ ஷ 0.4500000
ෂ ஷு 0.2500000
ෂ டா 0.0023613
ෂ ரி 0.0003344
ෂ ச் 0.0068027
ෂ ஷே 0.2000000
ෂ ஸ 0.0159314
ෂ நி 0.0026918
ෂ லை 0.0010799
ෂ NULL 0.0001326
ෂ ஜ 0.0018149
ෂ ச 0.0126156
ෂ வு 0.0009940
ද් டு 0.0003564
ද් டை 0.0013387
ද් தி 0.0034391
ද් ல் 0.0003504
ද් த 0.0001985
ද් வ் 0.0030303
ද් சொ 0.0120482
ද් தா 0.0045998
ද් ன் 0.0006781
ද් ர் 0.0011111
ද් ல 0.0000575
ද් த் 0.0852615
ද් து 0.0002472
ද් ஞ் 0.0060241
ද් ங் 0.0012862
ද් சோ 0.0083333
ද් யா 0.0088817
ද් லூ 0.0135135
ද් ரை 0.0028653
ද් னி. 0.1818182
ද් த்‎ 0.4000000
ද් ஹ 0.0001810
ද් ரோ 0.0052632
ද් ட் 0.0018013
ද් டூ 0.2500000
ද් L.. 0.1176471
ද් ந் 0.0060880
ද් க் 0.0008408
ද් NULL 0.0045093
නො. ல. 0.0416667
නො. இ 0.0013327
ඨා ல 0.0000575
ඨා ஸ 0.0012255
ඨා கா 0.0005112
ඨා NULL 0.0006631
ඨා டா 0.0011806
ඨා கெ 0.0003580
ඨා தா 0.0009200
ඨා லே 0.0005574
ශ්‍ ஷ 0.0125000
ශ්‍ NULL 0.0001326
ශ්‍ க் 0.0008408
ශ්‍ மை 0.0063492
ශ්‍ சு 0.0019380
ශ්‍ ஷி 0.0333333
ශ්‍ சி 0.0239955
ශ්‍ ரா 0.0004301
ශ්‍ ஸ் 0.0839127
ශ්‍ இ 0.0013327
ශ්‍ க 0.0001351
ශ්‍ சே 0.0056180
ශ්‍ ஷ் 0.0246914
ශ්‍ கி 0.0003460
ශ්‍ ஹி 0.0008183
වා லை 0.0010799
වා ஸ 0.0024510
වා NULL 0.0021220
වා ரி 0.0003344
වා னி 0.0004621
වා ட 0.0036261
වා வி 0.0006425
වා பி 0.0002359
වා ல 0.0002301
වා சி 0.0005580
වා கா 0.0005112
වා மா 0.0115948
වා தொ 0.0034159
වා பெ 0.0005438
වා க 0.0001351
වා நா 0.0012063
වා ட் 0.0010293
වා வ 0.0041628
වා நீ 0.0695652
වා வே 0.0015873
වා ஜ 0.0009074
වා யி 0.0012177
වා வை 0.0128205
වා லு 0.0012484
වා சா 0.0016502
වා ரை 0.0085960
වා அ 0.0002724
වා ஹ 0.0003620
වා செ 0.0019920
වා சீ 0.0062112
වා வீ 0.0003490
වා வா 0.7274021
වා ப் 0.0018433
වා வெ 0.0052487
වා யா 0.0004037
වා ற் 0.0022910
වා டி 0.0005286
වා டு 0.0484676
වා ல் 0.0056948
වා தி 0.0001965
වා ற 0.0012723
වා ப 0.0001242
වා இ 0.0004442
වා ழ 0.0050761
වා பா 0.0016807
ඹා பா 0.0112045
ඹා பே 0.0037453
ඹා ப 0.0008693
ඹා ம் 0.0027436
ලෛ ல் 0.0000876
ලෛ லை 0.0021598
ු லி 0.0004246
නී னீ 0.4285714
නී ணீ 0.0714286
නී நீ 0.2260870
නී ணி 0.0011628
නී நி 0.0067295
නී ர 0.0000923
නී னி 0.0083179
මී ணு 0.0036900
මී கி 0.0006920
මී தி 0.0001965
මී வெ 0.0002282
මී ம 0.0000912
මී ம் 0.0017559
මී மீ 0.7762557
මී ஹை 0.0454545
මී மீ‎ 0.5000000
මී வீ 0.0001745
මී மா 0.0002188
මී னி 0.0009242
මී நீ 0.2000000
මී டே 0.0098039
මී மெ 0.0025685
මී பீ 0.0045872
මී NULL 0.0002653
මී கை 0.0008104
මී மே 0.0018639
මී நி 0.0013459
මී மி 0.0455357
ජෝ பே 0.0012484
ජෝ NULL 0.0001326
ජෝ சோ 0.0083333
ජෝ க 0.0000450
ජෝ னி 0.0004621
ජෝ ஜோ 0.8318584
දු தா 0.0009200
දු ஸ் 0.0023975
දු ர் 0.0005556
දු நு 0.0038023
දු ன் 0.0018986
දු பு 0.0146843
දු டோ 0.0588235
දු னு 0.0030166
දු தீ 0.0228311
දු ம 0.0001824
දු ய 0.0002117
දු து 0.3883807
දු ட 0.0005306
දු ரி 0.0010033
දු தெ 0.0002887
දු லூ 0.1081081
දු ச 0.0004205
දු NULL 0.0014589
දු லை 0.0032397
දු த 0.0013897
දු ப 0.0002484
දු இ 0.0008885
දු ரு 0.0005445
දු டு 0.0163934
දු தி 0.0020635
දු ல் 0.0001752
දු ற் 0.0171821
දු த்‍ 0.2000000
දු தூ 0.4623656
දු த் 0.0010416
දු கொ 0.0004322
දු ர 0.0004616
දු ரை 0.0114613
දු .. 0.0128205
දු சா 0.0016502
දු ந் 0.0390809
දු ரெ 0.0027701
දු வ 0.0000490
දු நி 0.0013459
දු ண் 0.0011287
රැ ரு‍ 0.5000000
රැ ய 0.0001059
රැ வா 0.0007117
රැ ர 0.0097849
රැ றி 0.0032787
රැ றே 0.0740741
රැ ன் 0.0002712
රැ இ 0.0022212
රැ ற 0.0038168
රැ ரே 0.0386598
රැ ரு 0.0261367
රැ ரெ 0.4847645
රැ தை 0.0002511
රැ ட் 0.0001287
රැ L.. 0.0588235
රැ எ 0.0010293
රැ ழு 0.0011792
රැ யூ 0.0217391
රැ கு 0.0003722
රැ NULL 0.0005305
රැ ரூ 0.0108696
රැ ரி 0.0016722
රැ தெ 0.0008661
රැ பொ 0.0156250
රැ ரா 0.0047312
රැ று 0.0065502
රැ ரோ 0.0052632
ආ ஆ 0.7175141
ආ ஹா 0.0017094
ආ எ 0.0025733
ආ நீ 0.0086957
ආ கை 0.0008104
ආ NULL 0.0009284
ආ .. 0.0641026
ආ வை 0.0042735
ආ ரா 0.0017204
ආ அ 0.0149823
ආ ஏ 0.0157895
ආ ல 0.0000575
ආ ய 0.0006352
ආ Y 0.2500000
ආ வா 0.0007117
ආ மா 0.0021877
ආ வீ 0.0001745
ආ யா 0.0036334
ආ ம 0.0001824
ආ க 0.0001801
ආ . 0.0967742
ආ லா 0.0022173
ආ .... 0.1428571
ච් ஞா 0.0185185
ච් வ் 0.0090909
ච් ர் 0.0005556
ච් நா 0.0012063
ච් சி 0.0005580
ච් ர 0.0000923
ච් ஜெ 0.0113636
ච් ஞ் 0.0060241
ච් டி' 0.5000000
ච් ச் 0.3673469
ච් ளை 0.0040000
ච් ரை 0.0028653
ච් ரா 0.0004301
ච් ' 0.0227273
ච් ட் 0.0003860
ච් ய் 0.0155440
ච් NULL 0.0002653
ටේ‍ ட் 0.0001287
ටේ‍ டே‎ 0.5000000
ලෝ லோ 0.6223176
ලෝ லொ 0.0872483
ලෝ ன் 0.0001356
ලෝ ர் 0.0011111
ලෝ க 0.0000450
ලෝ டி 0.0003524
ලෝ லெ 0.0019342
ලෝ வெ 0.0002282
ලෝ லொ 0.3636364
ලෝ கா 0.0010225
ලෝ ல 0.0001151
ලෝ ஹ 0.0001810
ලෝ லே 0.0016722
ලෝ லஓ 0.0909091
ලෝ ளோ 0.5000000
ලෝ லூ 0.0135135
ලෝ ஹே 0.0006502
ලෝ NULL 0.0001326
ලෝ லோ 0.8333333
ලෝ கீ 0.0035398
සෝ சோ 0.5833333
සෝ சௌ 0.3333333
සෝ சு 0.0019380
සෝ கோ 0.0040527
සෝ சொ 0.0240964
සෝ ஸ் 0.0007193
සෝ யோ 0.0232558
සෝ ஸோ 1.0000000
සෝ ஸொ 0.0666667
සෝ NULL 0.0001326
සෝ ஸோ 0.7058824
සෝ மே 0.0009320
සෝ மி 0.0008929
සෝ ஷோ 0.1538462
සෝ ஹோ 0.0073529
සෝ சா 0.0016502
ස්ෙ ஸ் 0.0004795
ෂෝ செ 0.0019920
ෂෝ ஷோ 0.2307692
ෂෝ சோ 0.0250000
ෂෝ ஷெ 0.1428571
ෂෝ ஸோ 0.1176471
ගෝ லொ 0.0067114
ගෝ ‍‎‍ 0.0625000
ගෝ கொ 0.0088300
ගෝ க 0.0000450
ගෝ ஹோ 0.0294118
ගෝ NULL 0.0001326
ගෝ னே 0.0023529
ගෝ கே 0.0012547
ගෝ கோ 0.2867275
ගෝ கொ 0.0047544
ගෝ கோ 0.3658537
ගෝ ஹொ 0.0034014
ගෝ மோ 0.0051282
ශී ச் 0.0034014
ශී செ 0.0039841
ශී ஷி 0.0333333
ශී சி 0.0005580
ශී சீ 0.0186335
ශී எ 0.0005147
ශී ழு 0.0011792
ශී ச 0.0016821
ඟේ கே 0.0100376
ඟේ ஹே 0.0019506
ඟේ கெ 0.0007161
ඟේ ங் 0.0025723
ඟේ ந் 0.0001964
.. தை 0.0002511
යා ரூ 0.0869565
යා யி 0.0006088
යා லு 0.0062422
යා சா 0.0049505
යා அ 0.0002724
යා யு 0.0263158
යා ட் 0.0011580
යා ரெ 0.0027701
යා வ 0.0006367
යා தி 0.0001965
යා ற 0.0012723
යා ப 0.0004968
යා பா 0.0123249
යා ப் 0.0004608
යා வீ 0.0001745
යා கே 0.0012547
යා யா 0.7856278
යා றூ 0.2352941
යා டா 0.0023613
යා லெ 0.0019342
යා ரி 0.0043478
යා ஞ 0.1111111
යා லூ 0.1621622
යා ட 0.0026532
යා ஹு 0.0026178
යා பி 0.0009436
යා லை 0.0086393
යා ஹா 0.0017094
යා ன 0.0002617
යා க் 0.0005605
යා மொ 0.0022779
යා ஸே 0.0208333
යා தோ 0.0022510
යා ய் 0.0155440
යා NULL 0.0050398
යා ஷா 0.0129870
යා டை 0.0026774
යා க 0.0005402
යා லா 0.0014782
යා ர் 0.0005556
යා ஸா 0.0091743
යා ன் 0.0002712
යා ய 0.0139742
යා ஷி 0.0333333
යා ளே 0.0263158
යා கா 0.0173824
ල‍ ‍ 0.0285714
ල‍ ல‍‍‍ 0.5000000
ඔි பி 0.0004718
ඔි ம் 0.0001097
රි ரு 0.0065342
රි ற 0.0025445
රි ப 0.0007452
රි ல் 0.0013142
රි தி 0.0007861
රි டு 0.0007128
රි ழ் 0.0009542
රි றீ 0.1764706
රි டி 0.0001762
රි ர 0.0030462
රි ரிஓ 0.5000000
රි ப் 0.0009217
රි ரை 0.0028653
රි யி 0.0006088
රි ஹி 0.0016367
රි கை 0.0526742
රි வ 0.0001959
රි ட் 0.0002573
රි ரெ 0.0083102
රි லா 0.0014782
රි ன் 0.0032547
රි ர் 0.0111111
රි டை 0.0013387
රි ரி‎ 1.0000000
රි க 0.0011705
රි ஷ 0.0562500
රි றி 0.8393443
රි கா 0.0010225
රි லி 0.0029724
රි து 0.0012361
රි பி 0.0004718
රි ரீ 0.2281022
රි ரி 0.8297659
රි ணி 0.0011628
රි NULL 0.0025199
රි ச 0.0008410
රි ஸீ 0.0416667
රි ன 0.0002617
රි மோ 0.0051282
රි லை 0.0086393
දො மு 0.0003058
දො டா 0.0011806
දො தொ 0.4816396
දො ர 0.0000923
දො கொ 0.0001441
දො தோ 0.0666667
දො து 0.0014833
දො லி 0.0008493
දො பா 0.0005602
දො த 0.0001324
දො இ 0.0004442
දො நு 0.0038023
දො ப 0.0002484
දො ல் 0.0002628
දො க 0.0001351
දො தே 0.0009625
දො பு 0.0002098
දො டோ 0.0252101
දො கை 0.0008104
දො தொ 0.4861111
දො ‎ 0.0194175
දො தோ 0.0123804
දො டொ 0.0750000
දො பே 0.0012484
දො வை 0.0085470
දො தெ 0.0002887
බී" ட 0.0000884
බී" த 0.0000662
බී" ட் 0.0001287
බී" ஸெ 0.0149254
යො இ 0.0004442
යො யோ 0.0697674
යො யோஓ 0.5000000
යො ளை 0.0040000
යො ஞ 0.0370370
යො ஙொ 1.0000000
යො ளி 0.0024155
යො யௌ 0.7500000
යො யொ 1.0000000
යො யொ 0.6666667
යො வ 0.0000490
ජු ஸா 0.0091743
ජු பு 0.0010489
ජු யூ 0.0217391
ජු ஜு 0.9125000
ජු ஜீ 0.1785714
ජු ஜ 0.0009074
ජු சு 0.0038760
ජු வ 0.0000490
ජු ர 0.0000923
ජු ஜூ 0.5714286
ද්ෙ தே 0.0009625
ද්ෙ த் 0.0002232
දෙ ஆ 0.0084746
දෙ தை 0.0005023
දෙ ன 0.0002617
දෙ எ 0.0005147
දෙ ழு 0.0023585
දෙ டே 0.0130719
දෙ NULL 0.0037135
දෙ தெ 0.5306005
දෙ ரி 0.0003344
දෙ னி 0.0004621
දෙ ட 0.0183072
දෙ பி 0.0002359
දෙ வி 0.0003212
දෙ ளே 0.1315789
දෙ ஒ 0.0011587
දෙ ல 0.0000575
දෙ ய 0.0001059
දෙ கோ 0.0010132
දෙ ங் 0.0006431
දෙ தொ 0.0076857
දෙ பெ 0.0005438
දෙ க 0.0000900
දෙ ரெ 0.0027701
දෙ வ 0.0003428
දෙ வு 0.0009940
දෙ ஹே 0.0006502
දෙ டெ 0.0332226
දෙ ம் 0.0009877
දෙ வெ 0.0006846
දෙ டி 0.0008811
දෙ தே 0.1944177
දෙ தி 0.0005896
දෙ இ 0.0097734
දෙ ப 0.0002484
දෙ த 0.0032427
ය. NULL 0.0001326
වෛා கொ 0.0001441
පාෙ ன் 0.0001356
පාෙ வீ 0.0001745
ඩී. எ 0.0005147
ඩී. டி. 0.4545455
ඩී. பெ 0.0005438
ඩී. டீ. 0.7777778
ඩී. . 0.0967742
පෑ பே 0.0362047
පෑ ப 0.0004968
පෑ அ 0.0002724
පෑ பெ 0.0114192
ෙ தெ 0.0008661
ෙ யி 0.0009132
ෙ சே 0.0028090
ෙ ட 0.0000884
ෙ வ 0.0000490
ෙ NULL 0.0006631
ෙ வே 0.0015873
ෙ ழ் 0.0009542
ෙ ரொ 0.0052632
ෙ பொ 0.0009208
ෙ தி 0.0001965
ෙ தே 0.0009625
ෙ இ 0.0004442
ෙ கொ 0.0001441
ෙ ஹெ 0.0010299
ෙ கோ 0.0010132
උ ர 0.0000923
උ வீ 0.0003490
උ பூ 0.3509434
උ சீ 0.0062112
උ மீ 0.0022831
උ ற 0.0012723
උ த 0.0001324
උ ப 0.0004968
උ இ 0.0013327
උ பா 0.0011204
උ வ 0.0121456
උ ஊ 0.0234114
උ வு 0.0387674
උ நீ 0.0869565
උ லு 0.0018727
උ அ 0.0005448
උ யு 0.0087719
උ ய 0.0001059
උ ல 0.0000575
උ சு 0.0019380
උ ஷி 0.0333333
උ கா 0.0025562
උ மா 0.0004375
උ கோ 0.0010132
උ ஹெ 0.0010299
උ மை 0.0031746
උ ங் 0.0003215
උ ம 0.0001824
උ ஸு 0.0185185
උ கி 0.0003460
උ பு 0.0006293
උ க 0.0003602
උ எ 0.0051467
උ மே 0.0503262
උ தோ 0.0028137
උ NULL 0.0091512
උ தெ 0.0002887
උ உ 0.9311653
උ ஹு 0.0026178
උ ட 0.0002653
උ பி 0.0002359
ම ப் 0.0013825
ම வீி 0.6666667
ම ர 0.0013847
ම டி 0.0010573
ම மீ 0.0022831
ම மு 0.0058104
ම ற் 0.0011455
ම ம் 0.0457638
ම தி 0.0041270
ම ல் 0.0003504
ම டு 0.0010691
ම இ 0.0079964
ම ப 0.0017387
ම ி 1.0000000
ම ட் 0.0002573
ම ஜ 0.0018149
ම கை 0.3833063
ම வு 0.0029821
ම பீ. 0.1000000
ම ரா 0.1135484
ම அ 0.0002724
ම மா 0.0255961
ම ஹெ 0.0010299
ම ஒ 0.0011587
ම ய 0.0025408
ම ல. 0.0416667
ම ள 0.0038573
ම ங் 0.0006431
ම மை 0.2793651
ම டை 0.0040161
ම பெ 0.0038064
ම பு 0.0006293
ම ல... 0.2000000
ම நா 0.0012063
ම ன 0.0009159
ම மே 0.0083877
ම NULL 0.0627321
ම தோ 0.0005627
ම ளை 0.0040000
ම தெ 0.0008661
ම '' 0.5000000
ම பி 0.0025950
ම உ 0.0010840
ම ட 0.0053064
ම வீ 0.0001745
ම பூ 0.0075472
ම கொ 0.0001441
ම யி் 0.5000000
ම ம‍ 1.0000000
ම வோ 0.0100000
ම ழ 0.0101523
ම ரு 0.0032671
ම த 0.0006618
ම ண் 0.0033860
ම ஊ 0.0033445
ම மி 0.0089286
ම வ 0.0019590
ම ழி 0.0135135
ම பீ 0.0091743
ම கு 0.0011167
ම ஓ 0.0037313
ම கை' 0.5000000
ම யா் 0.4285714
ම ஹ 0.0005430
ම பே 0.0037453
ම கா 0.0005112
ම து 0.0032138
ම ல 0.0009780
ම தொ 0.0469684
ම போ 0.0010787
ම மௌ 0.3928571
ම ம 0.8968724
ම க 0.0008554
ම கி 0.0017301
ම ன் 0.0065094
ම நு 0.0038023
ම ர் 0.0077778
ම மூ 0.0208333
ම எ 0.0005147
ම லை 0.0053996
ම ந 0.0037736
ම மெ 0.0368151
ම மொ 0.0022779
ම க் 0.0008408
ම ம௲ 0.5000000
ම ரி 0.0003344
ම வி 0.0006425
ම லே 0.0011148
ලැ லா 0.0066519
ලැ ரே 0.0025773
ලැ லே 0.0234114
ලැ ளெ 0.2500000
ලැ ளா 0.0227273
ලැ லொ 0.0067114
ලැ ள 0.0096432
ලැ NULL 0.0006631
ලැ லெ 0.3230174
ලැ டி 0.0001762
ලැ ட் 0.0001287
ලැ ல 0.0030490
ලැ ளே 0.0526316
ලැ லை 0.0010799
ලැ எ 0.0005147
යැ ய 0.0007411
යැ செ 0.0019920
යැ யெ 0.2500000
යැ யே 0.0017544
යැ ஏ 0.0052632
රාෙ ரா 0.0004301
ස්. NULL 0.0001326
ස්. டி 0.0003524
ස්. ச். 0.3333333
ස්. L.. 0.0588235
ස්. ... 0.1304348
ස්. .... 0.1428571
ස්. ஸ் 0.0007193
ස්. . 0.0645161
ස්. ஸ். 0.5555556
ස්. .. 0.0769231
ටෘ ரெ 0.0027701
මූ மை 0.0031746
මූ மு 0.0140673
මූ NULL 0.0001326
මූ ரூ 0.0108696
මූ மூ 0.3854167
මූ மி 0.0017857
පො போ 0.0636462
පො ஹெ 0.0010299
පො மா 0.0004375
පො கோ 0.0010132
පො ய 0.0003176
පො னெ 0.0089286
පො சி 0.0011161
පො க 0.0001351
පො பொ 0.7412523
පො பெ 0.0038064
පො NULL 0.0018568
පො மொ 0.0045558
පො ணீ 0.0714286
පො ‎ 0.0194175
පො ச 0.0033642
පො லை 0.0010799
පො பி 0.0002359
පො ளை 0.0040000
පො தெ 0.0011547
පො ம் 0.0001097
පො கொ 0.0005763
පො வா 0.0014235
පො ப் 0.0032258
පො பா 0.0050420
පො த 0.0004632
පො ப 0.0067064
පො கெ 0.0007161
පො கு 0.0007445
පො வ 0.0000490
පො நி 0.0282638
පො பே 0.0012484
පො ணை 0.0851064
පො பொ 0.6171875
පො ஹே 0.0006502
වෝ ஹை 0.0454545
වෝ ட் 0.0002573
වෝ வா 0.0021352
වෝ டொ 0.0125000
වෝ சோ 0.0083333
වෝ வு 0.0029821
වෝ வோ 0.5500000
වෝ கி 0.0003460
වෝ டோ 0.0084034
වෝ ர் 0.0011111
වෝ க்ஓ 0.1000000
වෝ வொ 0.5000000
වෝ லோ 0.0042918
වෝ வொ 0.0714286
ඹෙ பெ 0.0016313
ඹෙ ஹெ 0.0010299
ඹෙ ப 0.0001242
ඹෙ ம் 0.0003292
පෙ‍ பா 0.0005602
පෙ‍ பி 0.0002359
පෙ‍ ர 0.0000923
ඹො போ 0.0010787
ඹො ம் 0.0003292
ඹො பொ 0.0009208
ඛෙ கே 0.0012547
ඛෙ கெ 0.0010741
ඛෙ வே 0.0015873
බෞ ர் 0.0005556
බෞ இ 0.0004442
බෞ ள 0.0057859
බෞ பெ 0.0032626
බෞ ஞ 0.0370370
බෞ ளை 0.0040000
බෞ பௌ 0.4800000
ගි ஹி 0.0122750
ගි ச் 0.0034014
ගි னி 0.0004621
ගි ரா 0.0004301
ගි ஹு 0.0052356
ගි வி 0.0003212
ගි கீ 0.0053097
ගි கு 0.0009306
ගි ணி 0.0011628
ගි NULL 0.0006631
ගි கெ 0.0010741
ගි கி 0.1820069
ගි தி 0.0000983
ගි க 0.0001801
ගි சி 0.0005580
ගි மா 0.0002188
ගි ஜி 0.0400000
ගි கிஓ 0.5000000
ගි ம் 0.0002195
ගි ங் 0.0009646
ගි டா 0.0011806
ඛා பா 0.0005602
ඛා ஹ 0.0001810
ඛා க் 0.0011211
ඛා வா 0.0007117
ඛා கா 0.0061350
ඛා ளை 0.0080000
කු. ஸீ 0.0416667
කු. சி 0.0011161
කු. ரா 0.0008602
කු. கு 0.0007445
ඳී ன் 0.0002712
ඳී ந் 0.0011783
ඳී தீ 0.0045662
ඳී தி 0.0007861
ළි ல் 0.0002628
ළි யெ 0.0312500
ළි டு 0.0003564
ළි கி 0.0010381
ළි தா 0.0018399
ළි ல 0.0000575
ළි ண 0.0033361
ළි லி 0.0878981
ළි லெ 0.0019342
ළි ளி 0.0917874
ළි யி 0.0003044
ළි ரி 0.0003344
ළි லிஓ 0.0714286
ළි லே 0.0005574
ළි ழி 0.0135135
ළි NULL 0.0002653
ළි வௌி 0.2500000
ගො கோ 0.0010132
ගො கொ 0.0010085
ධ්‍ நி 0.0040377
ධ්‍ கா 0.0005112
ධ්‍ தி 0.0042252
ධ්‍ ல் 0.0001752
ධ්‍ த் 0.0031992
ධ්‍ டி 0.0003524
ධ්‍ NULL 0.0003979
කෙ க் 0.0002803
කෙ கு 0.0001861
කෙ ய் 0.0103627
කෙ மெ 0.0017123
කෙ கெ 0.1081275
කෙ NULL 0.0005305
කෙ கை 0.0032415
කෙ எ 0.0005147
කෙ அ 0.0002724
කෙ பி 0.0018872
කෙ நெ 0.0116959
කෙ யி 0.0015221
කෙ ஸி 0.0052632
කෙ த் 0.0000744
කෙ கொ 0.0008644
කෙ கே 0.0363864
කෙ கி 0.0003460
කෙ ல் 0.0000876
කෙ க 0.0003602
හැ க 0.0004052
හැ த 0.0000662
හැ த் 0.0000744
හැ ‍‎‎‍‍‍ 1.0000000
හැ ஹெ 0.3316169
හැ கே 0.0025094
හැ ளி 0.0024155
හැ மை 0.0031746
හැ ஹி 0.0024550
හැ ஹே 0.0156047
හැ ஹு 0.0052356
හැ அ 0.0002724
හැ ஹ 0.0161086
හැ ஏ 0.0105263
හැ ட் 0.0001287
හැ ஹா 0.0119658
හැ எ 0.0051467
හැ ட‍‍ 1.0000000
හැ கெ‎ 0.5000000
හැ NULL 0.0005305
හැ கெ 0.0157537
ජ ஷ 0.0062500
ජ ம 0.0007295
ජ ஒ 0.0005794
ජ ய 0.0007411
ජ ன் 0.0001356
ජ ஸ் 0.0004795
ජ க 0.0001801
ජ கி 0.0020761
ජ பு 0.0023075
ජ ஜா 0.1166667
ජ ஜ் 0.0091743
ජ NULL 0.0144562
ජ ந 0.0012579
ජ ஜே 0.0972222
ජ ணீ 0.0714286
ජ தோ 0.0028137
ජ ச 0.0075694
ජ ஸ 0.0036765
ජ வி 0.0003212
ජ யே 0.3000000
ජ ஞ 0.0740741
ජ ஐ 0.0416667
ජ ரி 0.0003344
ජ டி 0.1242291
ජ ம் 0.0001097
ජ ற் 0.0034364
ජ ப் 0.0105991
ජ ஜி 0.0200000
ජ ர 0.0000923
ජ கொ 0.0193056
ජ ஜெ 0.7045455
ජ த் 0.0000744
ජ ௦ 1.0000000
ජ ப 0.0001242
ජ த 0.0001324
ජ ற 0.0063613
ජ ஷ் 0.0123457
ජ சை 0.0128205
ජ கொ 0.0066225
ජ ளு 0.0017825
ජ ஜ 0.9210526
ජ ந் 0.0001964
ජ நீ 0.0956522
ජ கு 0.1317700
ජ வ 0.0002449
ජ ஹ 0.0001810
ජ அ 0.0141651
ජ சா 0.0082508
ජ யி 0.1616438
පුු பு 0.0002098
ඩූ ன் 0.0001356
ඩූ யி 0.0003044
ඩූ டு 0.0003564
ඩූ ஒ 0.0005794
දෝ தோ 0.0168824
දෝ ள 0.0009643
දෝ தொ 0.0102477
දෝ டோ 0.0084034
දෝ தூ 0.0376344
දෝ தோ 0.2666667
දෝ து 0.0002472
ඩෝ தொ 0.0008540
ඩෝ ர் 0.0005556
ඩෝ டொ 0.0250000
ඩෝ தோ 0.0011255
ඩෝ டோ 0.2184874
බෙී பே 0.0012484
ත්‍ சை 0.0128205
ත්‍ தி 0.0047165
ත්‍ ர் 0.0011111
ත්‍ ன் 0.0001356
ත්‍ த 0.0000662
ත්‍ த் 0.0039432
ත්‍ லை 0.0010799
ත්‍ ட் 0.0001287
ත්‍ ர். 0.0769231
ත්‍ ந் 0.0011783
ත්‍ NULL 0.0001326
නො நோ 0.3055556
නො நு 0.0038023
නො னொ 0.5925926
නො ளா 0.0113636
නො னொ 1.0000000
නො னோ 0.1176471
නො னா 0.0010764
නො NULL 0.0003979
නො போ 0.0010787
නො தொ 0.0008540
නො ல. 0.0208333
නො நொ 0.7407407
ක ரு 0.0005445
ක த 0.0015882
ක கொ 0.0011526
ක வீ 0.0001745
ක கே 0.0112923
ක ண 0.0033361
ක ஹ 0.0012670
ක கூ 0.0140845
ක னி. 0.1818182
ක ஹே 0.0013004
ක ஹி 0.0016367
ක நெ 0.0029240
ක கு 0.0042807
ක நி 0.0013459
ක மி 0.0017857
ක கௌ 0.2272727
ක வ 0.0006856
ක நு 0.0038023
ක ன் 0.0004068
ක ர் 0.0133333
ක பொ 0.0004604
ක க 0.3039348
ක கி 0.0020761
ක போ 0.0010787
ක தொ 0.0170794
ක ம 0.0026443
ක னீ 0.0714286
ක மௌ 0.0357143
ක கா 0.0301636
ක ல 0.0023586
ක து 0.0024722
ක வி 0.0006425
ක ச் 0.0068027
ක க் 0.1244395
ක ச 0.0004205
ක ந 0.0012579
ක எ 0.0015440
ක ஆ 0.0042373
ක லை 0.0010799
ක பா 0.0011204
ක இ 0.0026655
ක ப 0.0012419
ක கொ 0.0022075
ක மு 0.0048930
ක யா 0.0048446
ක னா 0.0010764
ක ம் 0.0018657
ක ர 0.0011077
ක அ 0.0002724
ක கெ 0.0082349
ක கை 0.0186386
ක வு 0.0039761
ක ஜூ 0.0204082
ක ட் 0.0034740
ක நா 0.0012063
ක ரொ 0.0105263
ක கஓ 0.3333333
ක பெ 0.0016313
ක ல. 0.2500000
ක மை 0.0095238
ක மா 0.0010939
ක கோ 0.0091185
ක ய 0.0052932
ක சி 0.0011161
ක ட 0.0001769
ක னி 0.0018484
ක தெ 0.0002887
ක NULL 0.0086207
ක ய் 0.0051813
ක மே 0.0065238
ක ன 0.0006542
ක தை 0.0015068
ර්. .. 0.0512821
ර්. Y 0.2500000
ර්. ர். 0.3846154
ර්. ர் 0.0005556
ර්. . 0.0967742
ර්. .... 0.1428571
ර්. கை 0.0008104
ඨි தீ 0.0045662
ඨි ர் 0.0005556
යි வு 0.0009940
යි ஸை 0.4000000
යි கை 0.0162075
යි யை 0.1428571
යි ணை 0.0106383
යි ரை 0.0315186
යි ஹ 0.0001810
යි னை 0.0248227
යි பே 0.0012484
යි .. 0.0128205
යි யி 0.0453577
යි ஜோ 0.0088496
යි டா 0.0011806
යි த் 0.0000744
යි சீ 0.0062112
යි ர 0.0001846
යි தே 0.0019249
යි ல் 0.0001752
යි சை 0.2564103
යි ய் 0.6891192
යි க் 0.0008408
යි ஜ் 0.0091743
යි NULL 0.0037135
යි லை 0.0215983
යි தை 0.0007534
යි ளை 0.0040000
යි ஐ 0.3750000
යි மை 0.0761905
යි றை 0.0708661
යි சி 0.0027902
යි லி 0.0004246
යි ஹை 0.3636364
යි ய 0.0006352
යි ஞ் 0.0060241
යි றி 0.0032787
යි ஸ் 0.0002398
යි நை 0.5333333
යි பை 0.1282051
යි கி 0.0006920
යි டை 0.0160643
දූ டூா் 0.5000000
දූ னா 0.0010764
දූ கு 0.0001861
දූ தீ 0.0228311
දූ டூ 0.2500000
දූ ஒ 0.0005794
දූ து 0.0353523
දූ தூ 0.4301075
දූ ல 0.0000575
දූ கொ 0.0002881
දූ த 0.0002647
දූ பெ 0.0005438
දූ பு 0.0002098
දූ டு 0.0028510
ළ් லெ 0.0019342
ළ් ல் 0.0002628
දා ழு 0.0082547
දා வு 0.0009940
දා ந் 0.0015711
දා NULL 0.0005305
දා ண் 0.0011287
දා ட 0.0012382
දා ரா 0.0017204
දා தெ 0.0002887
දා ச் 0.0238095
දා ற் 0.0011455
දා ம் 0.0001097
දා ம 0.0000912
දා ளி 0.0024155
දා யா 0.0012111
දා தொ 0.0017079
දා டா 0.0059032
දා போ 0.0010787
දා து 0.0002472
දා ய 0.0001059
දා வா 0.0014235
දා த 0.0035074
දා ணு 0.0110701
දා தா 0.3955842
දා ரு 0.0002723
දා ள் 0.0102041
දා டு 0.0007128
දා தே 0.0028874
දා டை 0.0040161
දා தி 0.0000983
ණේ னை 0.0212766
ණේ ணே 0.3488372
ණේ ணோ 0.2500000
ණේ னே 0.0376471
ණේ NULL 0.0001326
ණේ நே 0.0333333
ණේ ண 0.0008340
ණේ ன 0.0002617
ඔූ ம் 0.0001097
ඔූ பு 0.0002098
ලූ லூ 0.0810811
ලූ லு 0.0031211
ලූ ளு 0.0053476
ලූ ளூ 0.3333333
ලූ ழு 0.0023585
තු‍ து 0.0002472
ටෑ ட் 0.0003860
ටෑ வா 0.0007117
ටෑ கௌ 0.0454545
ටෑ கா 0.0005112
ටෑ டே 0.0359477
ටෑ வெ 0.0002282
ටෑ வு 0.0009940
ටෑ டி 0.0001762
ටෑ டா 0.0011806
ටෑ டெ 0.0033223
දැ த 0.0008603
දැ தா 0.0018399
දැ ட 0.0001769
දැ தெ 0.0346420
දැ டெ 0.0066445
දැ தே 0.0048123
දැ வெ 0.0002282
දැ ‎ 0.0097087
දැ NULL 0.0001326
හෑ எ 0.0015440
හෑ ஹா 0.0034188
හෑ ஹீ 0.0059172
හෑ ஹெ 0.0123584
හෑ கே 0.0025094
හෑ ஹே 0.0091027
හෑ கெ 0.0007161
ථී தி 0.0000983
ජී. .. 0.0128205
ජී. ஜீ. 0.2500000
ප්‍ ப் 0.0101382
ප්‍ மு 0.0003058
ප්‍ NULL 0.0001326
ප්‍ ஜ 0.0009074
ප්‍ ச 0.0042052
ප්‍ மெ 0.0008562
ප්‍ பொ 0.0004604
ප්‍ ச் 0.0034014
ප්‍ பு 0.0006293
ප්‍ பெ 0.0027189
ප්‍ பி 0.0283086
ප්‍ இ 0.0004442
ප්‍ ப 0.0016145
ණු ம் 0.0006585
ණු ற் 0.0744559
ණු னா 0.0010764
ණු மை 0.0476190
ණු ஒ 0.0005794
ණු து 0.0032138
ණු ல 0.0001726
ණු னெ 0.0089286
ණු ண 0.0066722
ණු நு 0.0038023
ණු ன் 0.0002712
ණු ணூ 1.0000000
ණු ணு 0.8154982
ණු ணா 0.0066225
ණු பெ 0.0005438
ණු னு 0.4328808
ණු ள் 0.0017007
ණු பு 0.0002098
ණු ல் 0.0014018
ණු டை 0.0080321
ණු ய் 0.0051813
ණු கு 0.0007445
ණු NULL 0.0046419
ණු லை 0.0010799
ණු ட் 0.0050180
ණු ன 0.0019626
ණු ஸ 0.0012255
ණු ரை 0.0028653
ණු பி 0.0002359
ණු தெ 0.0002887
ණු வை 0.0042735
තුි பி 0.0002359
තුි து 0.0002472
අි ஆ 0.0014124
කි கூ 0.0140845
කි ஹ 0.0001810
කි ரா 0.0004301
කි னி 0.0018484
කි ஹி 0.0024550
කි NULL 0.0009284
කි கெ 0.0014322
කි கு 0.0005583
කි நி 0.0013459
කි வ 0.0000490
කි கீ 0.0283186
කි பா 0.0005602
කි த 0.0000662
කි தி 0.0011791
කි க 0.0002701
කි கி 0.3941176
කි னு 0.0015083
කි ண 0.0008340
කි ஸி 0.0052632
කි சி 0.0005580
කි ஒ 0.0005794
බෙ ற் 0.0011455
බෙ ம 0.0001824
බෙ வெ 0.0038795
බෙ லெ 0.0019342
බෙ ப 0.0006210
බෙ த 0.0000662
බෙ பை 0.0256410
බෙ பெ 0.1435563
බෙ பொ 0.0004604
බෙ க 0.0000900
බෙ ‎ 0.0194175
බෙ வே 0.0047619
බෙ NULL 0.0002653
බෙ ண் 0.0011287
බෙ அ 0.0002724
බෙ பே 0.0237203
බෙ ஹே 0.0006502
බෙ சா 0.0016502
බෙ பொ 0.0078125
ඩො டொ 0.3375000
ඩො த 0.0000662
ඩො தொ 0.0008540
ඩො து 0.0002472
ඩො டு 0.0007128
ඩො டோ 0.0252101
ඩො டெ 0.0033223
ටී. டி. 0.1818182
ටී. ர். 0.0769231
ටී. டீ. 0.1111111
ටී. டி 0.0001762
ටී. ரீ. 1.0000000
බැ ‍‍ 1.0000000
බැ வே 0.0031746
බැ NULL 0.0006631
බැ வ 0.0007346
බැ அ 0.0002724
බැ பே 0.0299625
බැ பி 0.0002359
බැ தெ 0.0002887
බැ ம் 0.0001097
බැ வெ 0.0038795
බැ ர 0.0000923
බැ ப 0.0065822
බැ இ 0.0004442
බැ பா 0.0044818
බැ பெ 0.2305601
බැ பெ‍ 0.6666667
ණ්‍ ண் 0.0056433
ණ්‍ ன் 0.0001356
ණ්‍ ம 0.0000912
වො வெ 0.0002282
වො வொ 0.5000000
වො வொ 0.3571429
වො வோ 0.0900000
බෝ போ 0.0010787
ව් வி 0.0170254
ව් உ 0.0010840
ව් ச் 0.0102041
ව් ஞ 0.1111111
ව් NULL 0.0003979
ව් ந 0.0012579
ව් ஹா 0.0017094
ව් தை 0.0010045
ව් நே 0.0333333
ව් வ் 0.7606061
ව් க 0.0000900
ව් ள் 0.0017007
ව් ள 0.0019286
ව් சௌ 0.3333333
ව් மௌ 0.1071429
ව් சி 0.0005580
ව් து 0.0009889
ව් யு 0.0964912
ව් வை 0.0085470
ව් வு 0.0427435
ව් யூ 0.1086957
ව් கௌ 0.1363636
ව් வ 0.0019590
ව් ட் 0.0003860
ව් ரௌ 0.2500000
ව් பா 0.0016807
ව් த 0.0000662
ව් ல் 0.0000876
ව් தி 0.0010809
ව් ளு 0.0017825
ව් வோ 0.0100000
ව් டி 0.0001762
ව් வெ 0.0022821
ව් ம் 0.0004390
ව් பௌ 0.0400000
ව් வா 0.0014235
ව් வீ 0.0012214
ගෙි கொ 0.0001441
ශී‍්‍ ஸ் 0.0002398
ශී‍්‍ ரீ 0.0018248
සී கை 0.0008104
සී NULL 0.0011936
සී டே 0.0032680
සී கு 0.0003722
සී சீ 0.6149068
සී நி 0.0013459
සී ஸீ 0.4583333
සී சி 0.0145089
සී ஸி 0.0105263
සී ஸெ 0.0298507
සී த. 0.1666667
සී சீ' 1.0000000
සී .. 0.0128205
සී L 0.1666667
යී ய் 0.0051813
කෘ வி 0.0009637
කෘ கு 0.0005583
කෘ ரூ 0.0108696
න්. ... 0.0434783
න්. ன் 0.0001356
න්. ..L. 0.2000000
න්. ன். 0.0952381
ටා த 0.0001985
ටා தா 0.0045998
ටා ர் 0.0005556
ටා மா 0.0002188
ටා னா 0.0010764
ටා ங் 0.0003215
ටා ற் 0.0034364
ටා டா 0.2243211
ටා ள 0.0009643
ටා ட 0.0015919
ටා ரா 0.0012903
ටා ட் 0.0101647
ටා லை 0.0010799
ටා வு 0.0019881
ටා ந் 0.0007855
ටා றா 0.0238095
ටා ழு 0.0011792
ටා ந 0.0012579
උා ஊ 0.0033445
ඡි ஜி 0.0133333
ඥ් ஹ 0.0001810
ඥ් க் 0.0002803
ඥ් ஞ் 0.0120482
ඥ් க 0.0000450
භ්‍ ற் 0.0022910
භ්‍ சி 0.0011161
භ්‍ யி 0.0006088
ජ්‍ ஜெ 0.0113636
නේ வெ 0.0004564
නේ னா 0.0032293
නේ னே 0.6494118
නේ ஹெ 0.0010299
නේ ல 0.0000575
නේ ண 0.0025021
නේ னெ 0.1517857
නේ ணே‎ 1.0000000
නේ ன் 0.0013561
නේ சை 0.0256410
නේ தே 0.0038499
නේ ணெ 0.2500000
නේ கெ 0.0003580
නේ ணி 0.0011628
නේ NULL 0.0002653
නේ நி 0.0013459
නේ ன 0.0024859
නේ நே 0.3000000
නේ னை 0.1099291
නේ லே 0.0011148
නේ ணை 0.0319149
නේ னி 0.0009242
නේ ணே 0.6046512
නේ நெ 0.0029240
ටිෙ டி 0.0003524
ටිෙ ட் 0.0002573
ඔෑ பே 0.0012484
ඔෑ ம் 0.0002195
ඔෑ பெ 0.0005438
මැ தே 0.0019249
මැ பு 0.0004196
මැ ன் 0.0004068
මැ ம. 0.2000000
මැ த 0.0000662
මැ ஹெ 0.0010299
