பா ව 0.0001757
ப ව 0.0009665
இ ව 0.0012301
ல் ව 0.0064139
தி ව 0.0093134
டு ව 0.0016254
வூ ව 0.0000439
டி ව 0.0003075
றீ ව 0.0000439
லெ ව 0.0000439
மு ව 0.0003954
ம் ව 0.0041295
ற் ව 0.0000439
வெ ව 0.0076879
ப் ව 0.0000439
ர ව 0.0005711
னை ව 0.0000439
அ ව 0.0001318
று ව 0.0003954
லு ව 0.0001757
வை ව 0.0065018
யி ව 0.0002197
ஜ ව 0.0000879
கை ව 0.0000439
கெ ව 0.0000439
நீ ව 0.0002636
வு ව 0.0008347
ட் ව 0.0007908
ஸ் ව 0.0000879
டை ව 0.0023283
பு ව 0.0007908
ள ව 0.0000879
றை ව 0.0001318
ங் ව 0.0003514
கோ ව 0.0000439
ஹெ ව 0.0000879
மா ව 0.0005711
வ‍ ව 0.0003514
சி ව 0.0001318
தோ ව 0.0003514
ஒ ව 0.0001757
ய ව 0.0017133
பி ව 0.0002636
ட ව 0.0016694
தெ ව 0.0003075
ஐ ව 0.0000879
NULL ව 0.0144533
ழு ව 0.0003514
தோ ව 0.0664236
றா ව 0.0001757
ஸ ව 0.0000879
ன ව 0.0010543
ரு ව 0.0000439
த ව 0.0011422
தே ව 0.0000879
வோ ව 0.0002197
ழ் ව 0.0001318
வீ ව 0.0005272
வா ව 0.0091376
செ ව 0.0001318
த் ව 0.0000879
யு ව 0.0000879
ஹ ව 0.0000439
ஏ ව 0.0000439
தொ ව 0.0000879
வே ව 0.0005711
ஓ ව 0.0000439
கு ව 0.0010983
ண் ව 0.0018012
வ ව 0.8357861
ர் ව 0.0000879
ன் ව 0.0003075
வ் ව 0.0002636
க ව 0.0014058
பொ ව 0.0001318
கி ව 0.0003514
டோ ව 0.0000879
தொ ව 0.0004832
ம ව 0.0012740
ஹீ ව 0.0000879
கா ව 0.0002636
து ව 0.0014497
சு ව 0.0005272
ல ව 0.0016694
வி ව 0.0029873
லே ව 0.0002197
ச் ව 0.0000879
மெ ව 0.0001757
ச ව 0.0000879
க் ව 0.0000879
எ ව 0.0003514
" ව 0.0000439
ஆ ව 0.0011422
லை ව 0.0007029
னே ණෑ 0.1481481
னா ණෑ 0.0740741
NULL ණෑ 0.0370370
நே ණෑ 0.0370370
னெ ණෑ 0.0740741
நா ණෑ 0.2962963
ணா ණෑ 0.2962963
ணே ණෑ 0.0370370
ய ට්‍ 0.0408163
கா ට්‍ 0.0408163
வா ට්‍ 0.0204082
றை ට්‍ 0.0204082
ற் ට්‍ 0.0816327
டி ට්‍ 0.1836735
றே ට්‍ 0.0204082
தி ට්‍ 0.0408163
ர் ට්‍ 0.0204082
பா ට්‍ 0.0204082
ட் ට්‍ 0.3673469
ரெ ට්‍ 0.0204082
க் ට්‍ 0.0204082
NULL ට්‍ 0.0612245
ட ට්‍ 0.0204082
ரீ ට්‍ 0.0204082
ல் ල' 1.0000000
மெ මෙි 1.0000000
னோ ණෝ 0.2222222
ப் ණෝ 0.1111111
ணோ ණෝ 0.2222222
னெ ණෝ 0.1111111
பா ණෝ 0.1111111
னொ ණෝ 0.1111111
நோ ණෝ 0.1111111
த ථ 0.5405405
ளி ථ 0.0270270
சா ථ 0.0270270
த் ථ 0.4054054
ண் NULL 0.0030739
ஊ NULL 0.0002196
‍ NULL 0.0017565
ர். NULL 0.0001098
ரெ NULL 0.0001098
ழி NULL 0.0001098
ஹே NULL 0.0010978
' NULL 0.0013174
பே NULL 0.0005489
கே NULL 0.0001098
வீ NULL 0.0057086
வா NULL 0.0018663
கொ NULL 0.0041717
த் NULL 0.0573060
செ NULL 0.0002196
ண NULL 0.0005489
சூ NULL 0.0001098
ழ NULL 0.0005489
ரே NULL 0.0003293
எ NULL 0.0014272
ஸீ NULL 0.0001098
லை NULL 0.0009880
மோ NULL 0.0002196
தே. NULL 0.0001098
மெ NULL 0.0005489
டே NULL 0.0001098
ந NULL 0.0005489
மொ NULL 0.0001098
க் NULL 0.0386431
‎ NULL 0.0045010
ச NULL 0.0072456
யே NULL 0.0002196
ரி NULL 0.0014272
ஹோ NULL 0.0001098
ச் NULL 0.0006587
லே NULL 0.0029641
கா NULL 0.0010978
} NULL 0.0001098
ல NULL 0.0090021
தொ NULL 0.0004391
பொ NULL 0.0002196
க NULL 0.0301899
ள் NULL 0.0019761
கி NULL 0.0035130
ன் NULL 0.0668570
ர் NULL 0.0037326
தா NULL 0.0013174
வ் NULL 0.0001098
ட் NULL 0.0163574
ஜ NULL 0.0003293
கெ NULL 0.0004391
வை NULL 0.0001098
சா NULL 0.0010978
ரூ NULL 0.0001098
னை NULL 0.0006587
று NULL 0.0023054
அ NULL 0.0018663
ப் NULL 0.0463278
சீ NULL 0.0002196
ஜெ NULL 0.0001098
டி NULL 0.0055989
\ NULL 0.0001098
மீ NULL 0.0001098
மு NULL 0.0023054
யா NULL 0.0020858
ஷ் NULL 0.0001098
றோ NULL 0.0001098
ல் NULL 0.0144912
ற NULL 0.0021956
தை NULL 0.0017565
ஜ் NULL 0.0001098
ஜா NULL 0.0001098
தோ NULL 0.0005489
னி NULL 0.0003293
ளா NULL 0.0006587
ஹு NULL 0.0001098
ரீ NULL 0.0001098
மா NULL 0.0036228
ஒ NULL 0.0771764
ய NULL 0.0327149
ழை NULL 0.0002196
ல. NULL 0.0002196
ஷ NULL 0.0001098
தீ NULL 0.0002196
ரொ NULL 0.0001098
பெ NULL 0.0042815
ஷா NULL 0.0001098
பு NULL 0.0660885
யோ NULL 0.0002196
நா NULL 0.0003293
மி NULL 0.0004391
நி NULL 0.0019761
வ NULL 0.0162477
கீ NULL 0.0003293
பீ NULL 0.0004391
ஓ NULL 0.0001098
கு NULL 0.0148205
ஹி NULL 0.0005489
ஏ NULL 0.0004391
ஹ NULL 0.0045010
தே NULL 0.0054891
ழ் NULL 0.0002196
ளு NULL 0.0003293
ரு NULL 0.0818970
த NULL 0.0174553
ஆ NULL 0.0003293
ணி NULL 0.0004391
வி NULL 0.0048304
ளே NULL 0.0001098
து NULL 0.0049402
சு NULL 0.0001098
போ NULL 0.0002196
ம NULL 0.0240422
வொ NULL 0.0001098
நு NULL 0.0002196
கை NULL 0.0013174
ந் NULL 0.0243715
வு NULL 0.0021956
லு NULL 0.0006587
யி NULL 0.0614777
ரோ NULL 0.0001098
ரா NULL 0.0032934
ணை NULL 0.0001098
ர NULL 0.0138325
டா NULL 0.0021956
லெ NULL 0.0002196
ம் NULL 0.0581842
ற் NULL 0.0053793
வெ NULL 0.0012076
ளி NULL 0.0001098
னா NULL 0.0004391
தி NULL 0.0133933
கொ NULL 0.0001098
டு NULL 0.0018663
பா NULL 0.0009880
இ NULL 0.0062575
ப NULL 0.0110879
ஸ NULL 0.0035130
ஹா NULL 0.0001098
ன NULL 0.0032934
மே NULL 0.0009880
ய் NULL 0.0012076
ழு NULL 0.0004391
தெ NULL 0.0052695
பி NULL 0.0086727
உ NULL 0.0008783
ட NULL 0.0165770
ஹெ NULL 0.0003293
கோ NULL 0.0004391
றி NULL 0.0003293
சி NULL 0.0012076
லி NULL 0.0014272
ள NULL 0.0009880
றை NULL 0.0002196
மை NULL 0.0004391
ங் NULL 0.0127347
"" NULL 0.0001098
டை NULL 0.0003293
னு NULL 0.0001098
ஸ் NULL 0.0050500
லா NULL 0.0019761
ட ටි 0.0069549
பி ටි 0.0001880
வி ටි 0.0001880
தெ ටි 0.0003759
ளை ටි 0.0003759
ரி ටි 0.0007519
NULL ටි 0.0030075
ஸீ ටි 0.0001880
ன ටි 0.0001880
தா ටි 0.0001880
ன் ටි 0.0001880
ர் ටි 0.0007519
ஸ்‎ ටි 0.0001880
க ටි 0.0005639
பொ ටි 0.0001880
மை ටි 0.0001880
ம ටි 0.0001880
சி ටි 0.0001880
லி ටි 0.0001880
றி ටි 0.0009398
மா ටි 0.0003759
டீ ටි 0.0005639
அ ටි 0.0001880
பே ටි 0.0001880
ஹே ටි 0.0001880
கு ටි 0.0003759
ட் ටි 0.3381579
வ ටි 0.0007519
நி ටි 0.0001880
இ ටි 0.0001880
ழ ටි 0.0001880
பா ටි 0.0001880
டு ටි 0.0001880
தி ටි 0.0037594
யா ටි 0.0009398
ற் ටි 0.0009398
ம் ටි 0.0003759
டா ටි 0.0001880
மு ටි 0.0001880
ட்' ටි 0.0001880
டி ටි 0.6343985
த் ටි 0.0011278
டி. ටි 0.0001880
ஸே සෑ 0.2105263
NULL සෑ 0.0526316
சே සෑ 0.7368421
கா ගැ 0.0162602
கொ ගැ 0.0040650
ஜெ ගැ 0.0040650
ஹெ ගැ 0.0203252
கே ගැ 0.0284553
கி ගැ 0.0040650
க ගැ 0.0934959
‎ ගැ 0.0040650
கு ගැ 0.0081301
: ගැ 0.0040650
ந ගැ 0.0040650
கை ගැ 0.0203252
கெ ගැ 0.7723577
கெ‎ ගැ 0.0040650
NULL ගැ 0.0040650
ஹே ගැ 0.0040650
ஹ ගැ 0.0040650
மு පී 0.0072464
லெ පී 0.0072464
ஜீ. පී 0.0072464
கொ පී 0.0072464
ஜி පී 0.0072464
. පී 0.0072464
... පී 0.0072464
பெ පී 0.0144928
NULL පී 0.0144928
பீ පී 0.7173913
மி පී 0.0072464
பே පී 0.0144928
வி පී 0.0072464
பி පී 0.1594203
லூ පී 0.0072464
பீ. පී 0.0072464
பி පෘ 0.0400000
ரு පෘ 0.1200000
டு පෘ 0.0400000
பு පෘ 0.0800000
ம் පෘ 0.0400000
ட் පෘ 0.4400000
த் පෘ 0.2000000
ப் පෘ 0.0400000
ட் ව්‍ 0.1315789
லை ව්‍ 0.1052632
வ ව්‍ 0.0263158
ற் ව්‍ 0.0263158
ம் ව්‍ 0.0526316
வே ව්‍ 0.0263158
ள் ව්‍ 0.0263158
யி ව්‍ 0.1052632
சா ව්‍ 0.0263158
வ் ව්‍ 0.1842105
று ව්‍ 0.0263158
ளா ව්‍ 0.0263158
வி ව්‍ 0.2368421
ள කෞ 0.3333333
கெ කෞ 0.3333333
வ் කෞ 0.3333333
ய කේ 0.0062893
எ කේ 0.0062893
கே කේ 0.6289308
மை කේ 0.0062893
க் කේ 0.1572327
னே කේ 0.0062893
கெ කේ 0.0880503
வே‎ කේ 0.0062893
NULL කේ 0.0251572
டி කේ 0.0125786
க කේ 0.0377358
தே කේ 0.0062893
கே. කේ 0.0062893
ரு කේ 0.0062893
நெ ණැ 0.5000000
ணா ණැ 0.2500000
ந ණැ 0.2500000
கா ඝා 0.7777778
க ඝා 0.1111111
ஹ ඝා 0.1111111
த ද‍ 0.8750000
த‍‍‍ ද‍ 0.1250000
NULL නු 0.0072780
ணி නු 0.0014556
நூ නු 0.0058224
கு නු 0.0014556
ந் නු 0.0058224
க் නු 0.0014556
ந නු 0.0014556
ண் නු 0.0232897
ன නු 0.0072780
ட் නු 0.0072780
னூ නු 0.0058224
னி නු 0.0014556
லு නු 0.0014556
நு‍ නු 0.0029112
ஹீ නු 0.0029112
ல නු 0.0014556
து නු 0.0029112
னுஓ නු 0.0043668
நா නු 0.0014556
ணு නු 0.0422125
நு නු 0.3595342
ன் නු 0.0014556
ஸ் නු 0.0014556
க නු 0.0378457
னு නු 0.4701601
ஷை ශෛ 1.0000000
லை ළෙ 0.1111111
ய ළෙ 0.1111111
ல ළෙ 0.2222222
நி ළෙ 0.1111111
ற் ළෙ 0.1111111
ப ළෙ 0.1111111
லே ළෙ 0.1111111
னை ළෙ 0.1111111
ஹ හී 0.0165746
இ හී 0.0110497
சை හී 0.0055249
ஹி හී 0.1657459
ஈ හී 0.0110497
ஹே හී 0.0165746
ந හී 0.0055249
நீ හී 0.0055249
ஹீ හී 0.7016575
நி හී 0.0055249
ஹெ හී 0.0220994
கீ හී 0.0331492
சே ශේ 1.0000000
சி ෂි 0.1081081
ஷீ ෂි 0.0270270
ஷி ෂි 0.4594595
நி ෂි 0.0270270
ஜி ෂි 0.0270270
சீ ෂි 0.0270270
வ ෂි 0.0810811
ணி ෂි 0.0270270
ரூ ෂි 0.0270270
ணா ෂි 0.0270270
ஹி ෂි 0.0270270
சா ෂි 0.0810811
இ ෂි 0.0270270
பி ෂි 0.0270270
ட ඬ 0.7500000
ன் ඬ 0.0625000
ண் ඬ 0.1875000
தா පා 0.0003215
க පා 0.0024112
ள் පා 0.0001607
பெ පා 0.0003215
பு පා 0.0004822
ம පා 0.0001607
மா පා 0.0048224
ஒ පා 0.0011252
ய පා 0.0001607
வி පා 0.0014467
பி පා 0.0001607
ட පා 0.0001607
லே පා 0.0008037
தெ පා 0.0036972
NULL පා 0.0242726
ழு පා 0.0008037
ந පා 0.0006430
க் පා 0.0001607
ச පා 0.0001607
" පා 0.0001607
லை පා 0.0008037
பா පා 0.1768204
ரு පා 0.0001607
ப පා 0.0136634
ரே පා 0.0001607
தி පා 0.0001607
டு පා 0.0001607
யா පා 0.0006430
வீ පා 0.7579167
பூ පා 0.0008037
வீி පා 0.0001607
த் පා 0.0001607
ரோ පා 0.0024112
னை පා 0.0001607
பே පා 0.0001607
அ පා 0.0001607
யி පා 0.0009645
வே පා 0.0004822
கை පා 0.0004822
வ පා 0.0008037
ழி පා 0.0003215
மீ මේ 0.0074627
மை මේ 0.0074627
ம මේ 0.0746269
கே මේ 0.0149254
ன் මේ 0.0149254
பெ මේ 0.0223881
NULL මේ 0.0149254
ணி මේ 0.0074627
வே මේ 0.0074627
மொ මේ 0.0074627
மெ මේ 0.1044776
மே මේ 0.6567164
ழி මේ 0.0074627
ஹ මේ 0.0149254
ரா මේ 0.0298507
டெ මේ 0.0074627
ந் ඬේ 0.1111111
த ඬේ 0.0555556
ன் ඬේ 0.2222222
டே ඬේ 0.4444444
டெ ඬේ 0.0555556
ண் ඬේ 0.0555556
தே ඬේ 0.0555556
ஆ ල 0.0001672
லை ල 0.0253023
‎ ල 0.0000557
டே ල 0.0000557
ந ල 0.0002787
ரி ල 0.0005573
லூ ල 0.0000557
யே ල 0.0000557
லே ල 0.0039012
வி ල 0.0002229
ல ල 0.8212673
ளே ල 0.0000557
து ල 0.0002787
கா ල 0.0000557
ம ල 0.0015048
ஸு ල 0.0000557
ள் ල 0.0001672
க ල 0.0023407
ன் ල 0.0005573
நு ල 0.0000557
ர் ල 0.0010032
லோ ල 0.0000557
ழி ල 0.0001115
ரெ ල 0.0000557
வ ල 0.0023407
ண் ල 0.0002229
கு ල 0.0006131
நெ ල 0.0000557
லஓ ල 0.0002229
ரை ල 0.0019506
ஹ ල 0.0000557
போ ල 0.0001672
த் ල 0.0000557
கே ල 0.0002787
ஹௌ ල 0.0000557
ழ் ල 0.0129856
பெ‍ ල 0.0000557
தே ල 0.0000557
த ල 0.0013376
ரு ල 0.0006688
ழ ල 0.0016720
தை ල 0.0001672
ன ල 0.0016720
தோ ල 0.0001672
ழு ල 0.0001672
NULL ල 0.0113693
தெ ල 0.0001115
ளை ල 0.0075796
ட ල 0.0008917
ளா ල 0.0002787
பி ල 0.0000557
ய ල 0.0015048
லி ල 0.0011704
றி ල 0.0000557
மா ල 0.0001672
மை ල 0.0028981
றை ල 0.0001115
ள ල 0.0450315
ழை ල 0.0000557
பு ල 0.0001672
னு ල 0.0000557
டை ල 0.0003344
லா ල 0.0084155
ஸ் ල 0.0001115
நா ල 0.0000557
யோ ල 0.0001115
லொ ල 0.0002787
வௌ ල 0.0001672
கை ල 0.0001115
லு ල 0.0003901
வை ල 0.0000557
று ල 0.0001115
அ ල 0.0002787
ணை ල 0.0010589
ரா ල 0.0000557
னை ල 0.0000557
ல‎ ල 0.0001115
ர ල 0.0015048
ப் ල 0.0001672
வெ ල 0.0000557
ளி ල 0.0001115
யா ල 0.0001672
ற் ල 0.0002229
ம் ල 0.0003344
லெ ල 0.0018949
டி ල 0.0013933
eell ල 0.0000557
ல் ල 0.0267514
தி ල 0.0003344
ழொ ල 0.0000557
இ ල 0.0000557
ப ල 0.0004459
லா‎ ල 0.0000557
ரு ඩෘ 0.5000000
ட ඩෘ 0.5000000
ஜு ජූ 0.2608696
யூ ජූ 0.0869565
ஜூ ජූ 0.6086957
னி ජූ 0.0434783
பா මා 0.0025242
ப මා 0.0004207
மீ මා 0.0004207
டி මා 0.0002103
மு මා 0.0006310
ம் මා 0.0006310
ற் මා 0.0025242
கே මා 0.0002103
வா මා 0.0002103
வீ මා 0.0149348
ஹ මා 0.0002103
யு මා 0.0002103
அ මා 0.0012621
று මා 0.0014724
யி මා 0.0004207
கை මා 0.0002103
ழி මා 0.0029449
ட் මා 0.0006310
மாஓ මා 0.0004207
பொ මා 0.0004207
மை මා 0.0004207
ம මා 0.0603702
ஹீ මා 0.0002103
மா මා 0.8817838
ஒ මා 0.0012621
பி මා 0.0008414
உ මා 0.0002103
யே මා 0.0014724
னி මා 0.0012621
ச் මා 0.0002103
தெ මා 0.0002103
NULL මා 0.0143037
மெ මා 0.0016828
ழு මා 0.0012621
மொ මා 0.0002103
ச මා 0.0010517
ன මා 0.0002103
மே මා 0.0002103
எ මා 0.0006310
லை මා 0.0008414
ஆ මා 0.0004207
ப் ඹ 0.0010020
ற் ඹ 0.0005010
ம் ඹ 0.4579158
வோ ඹ 0.0005010
பா ඹ 0.0065130
ப ඹ 0.4599198
வ ඹ 0.0005010
மி ඹ 0.0005010
கு ඹ 0.0005010
லு ඹ 0.0005010
பே ඹ 0.0020040
ஏ ඹ 0.0005010
ரை ඹ 0.0005010
கோ ඹ 0.0005010
ல்ஓ ඹ 0.0020040
மா ඹ 0.0005010
ய ඹ 0.0005010
ஒ ඹ 0.0090180
ம ඹ 0.0125251
ஸொ ඹ 0.0005010
பு ඹ 0.0255511
ணா ඹ 0.0005010
பை ඹ 0.0005010
பெ ඹ 0.0045090
லொ ඹ 0.0010020
லோ ඹ 0.0005010
ன் ඹ 0.0005010
மே ඹ 0.0005010
ஸ ඹ 0.0005010
ஹா ඹ 0.0005010
NULL ඹ 0.0045090
தோ ඹ 0.0005010
க் ඹ 0.0005010
ய் ඹ 0.0005010
ட ඹ 0.0025050
க ග‍ 1.0000000
னு නූ 0.2000000
ன නූ 0.1000000
நு නූ 0.3000000
நூ නූ 0.4000000
ர ස 0.0057256
ப் ස 0.0057256
டி ස 0.0104640
வெ ස 0.0001974
யா ස 0.0003949
ம் ස 0.1119447
ற் ස 0.0013820
தி ස 0.0315893
ல் ස 0.0013820
சை ස 0.0047384
டு ස 0.0017769
ற ස 0.0009872
ப ස 0.0015795
இ ස 0.0017769
ட் ස 0.0144126
யை ස 0.0001974
சி. ස 0.0001974
கை ස 0.0007897
வு ස 0.0473840
யி ස 0.0007897
சா ස 0.0142152
.. ස 0.0003949
அ ස 0.0009872
று ස 0.0001974
மா ස 0.0005923
ய ස 0.0055281
ஒ ස 0.0001974
சி ස 0.0007897
ஸி ස 0.0001974
ஷ ස 0.0011846
ல. ස 0.0001974
சௌ ස 0.0003949
ங் ස 0.0001974
மை ස 0.0090819
பு ස 0.0045410
L ස 0.0001974
பெ ස 0.0007897
ம. ස 0.0001974
ஸ் ස 0.0057256
ஸா ස 0.0023692
ன ස 0.0005923
ஸ ස 0.1275420
NULL ස 0.1038500
றா ස 0.0003949
னி ස 0.0007897
சே ස 0.0013820
தெ ස 0.0005923
பி ස 0.0001974
ட ස 0.0173741
உ ස 0.0001974
வீ ස 0.0003949
பூ ස 0.0001974
ண ස 0.0003949
லைஓ ස 0.0001974
செ ස 0.0015795
த் ස 0.0009872
ழ் ස 0.0140178
ரு ස 0.0321816
த ස 0.0007897
நி ස 0.0009872
மி ස 0.0003949
வ ස 0.0005923
கீ ස 0.0003949
கு ස 0.0007897
ஸை ස 0.0017769
' ස 0.0009872
பே ස 0.0001974
ஹ ස 0.0001974
யு ස 0.0003949
கூ ස 0.0021718
ரை ස 0.0051333
கா ස 0.0114511
சு ස 0.0001974
ல ස 0.0347483
து ස 0.0003949
ஸு ස 0.0001974
ம ස 0.0013820
க ස 0.0057256
ஏ. ස 0.0003949
கி ස 0.0165844
ள் ස 0.0021718
தா ස 0.0003949
ர் ස 0.0017769
ன் ස 0.0011846
" ස 0.0001974
ஸெ ස 0.0009872
லை ස 0.0005923
க் ස 0.0015795
ஸே ස 0.0003949
ச ස 0.3066140
ந ස 0.0001974
யே ස 0.0001974
ரி ස 0.0017769
சீ. ස 0.0001974
வி ස 0.0015795
நெ වී 0.0031104
தெ වී 0.0902022
யீ වී 0.0015552
சா වී 0.0031104
யி වී 0.0046656
ரை වී 0.0046656
அ වී 0.0077760
வி වී 0.0388802
ட் වී 0.0015552
வ වී 0.0031104
ழு වී 0.0015552
வு වී 0.0015552
ச වී 0.0015552
வே වී 0.0031104
NULL වී 0.0202177
பெ වී 0.0015552
க වී 0.0046656
ர் වී 0.0062208
ப වී 0.0015552
வ் වී 0.0031104
ஒ වී 0.0015552
ல වී 0.0015552
வீ වී 0.7884914
வெ වී 0.0015552
மீ වී 0.0015552
டி වී 0.0015552
கொ තෝ 0.0206186
நி තෝ 0.0103093
ய තෝ 0.0206186
ல තෝ 0.0103093
த் තෝ 0.0515464
தோ තෝ 0.0103093
தொ තෝ 0.1546392
தோ තෝ 0.6597938
டோ තෝ 0.0103093
வோ තෝ 0.0103093
த තෝ 0.0103093
நோ තෝ 0.0103093
ட තෝ 0.0206186
ண නැෙ 0.5000000
தி‎ නැෙ 0.5000000
டை ටේ 0.1348315
தே ටේ 0.0112360
டு ටේ 0.0037453
ரே ටේ 0.0149813
ர ටේ 0.0074906
டா ටේ 0.0037453
டெ ටේ 0.0749064
ரூ ටේ 0.0037453
டே‎ ටේ 0.0037453
ட ටේ 0.0486891
எ ටේ 0.0037453
வ ටේ 0.0037453
‍ ටේ 0.0074906
ட் ටේ 0.2097378
கை ටේ 0.0037453
NULL ටේ 0.0037453
டே ටේ 0.4606742
.. ජේ. 0.1250000
ஜே. ජේ. 0.7500000
ஜே ජේ. 0.1250000
ஷ ෂ් 0.0416667
ஸ் ෂ් 0.3333333
ஷ் ෂ් 0.6041667
ஜூ ෂ් 0.0208333
பெ වෑ 0.0065789
வா වෑ 0.0460526
வ වෑ 0.0328947
வெ වෑ 0.2368421
: වෑ 0.0065789
வே වෑ 0.6644737
பே වෑ 0.0065789
ர் ෂ්‍ 0.5000000
ட ෂ්‍ 0.5000000
ட ඩු 0.0308151
ந் ඩු 0.0019881
ஜ ඩු 0.0009940
NULL ඩු 0.0019881
டூ ඩු 0.0009940
லை ඩු 0.0009940
வ ඩු 0.0009940
டு‎ ඩු 0.0019881
ப ඩු 0.0009940
நு ඩු 0.0009940
ஸ் ඩු 0.0009940
த ඩු 0.0019881
தா ඩු 0.0009940
னு ඩු 0.0009940
டு ඩු 0.8986083
ல் ඩු 0.0009940
ங் ඩු 0.0009940
றை ඩු 0.0029821
டி ඩු 0.0039761
டா ඩු 0.0019881
ஸி ඩු 0.0009940
சி ඩු 0.0029821
து ඩු 0.0357853
தூ ඩු 0.0019881
வீ ඩු 0.0009940
ரு දී 0.0181818
டீ දී 0.0136364
டெ දී 0.0045455
தி දී 0.3272727
தே දී 0.0045455
தெ දී 0.0090909
டி දී 0.0045455
ந் දී 0.0045455
தீ දී 0.6045455
ளி දී 0.0045455
சீ දී 0.0045455
ட் යෝ 0.0854701
ப் යෝ 0.1196581
யொ යෝ 0.0256410
மூ යෝ 0.0085470
சோ යෝ 0.0683761
மை යෝ 0.1282051
ய் යෝ 0.0085470
NULL යෝ 0.0512821
தி යෝ 0.0170940
யி යෝ 0.0085470
ஜோ යෝ 0.0085470
னோ යෝ 0.0085470
நோ යෝ 0.0085470
யோ යෝ 0.4529915
லொ ළො 0.3877551
லெ ළො 0.0204082
லோ ළො 0.0204082
கொ‎ ළො 0.0204082
ழு ළො 0.0408163
ல ළො 0.5102041
ந் ඳෑ 0.5000000
தே ඳෑ 0.5000000
னே නේ 1.0000000
ண ණා 0.0923077
கா ණා 0.0076923
ண் ණා 0.0076923
ன ණා 0.0538462
னா ණා 0.2076923
ச ණා 0.0076923
NULL ණා 0.0076923
னு ණා 0.0076923
ணா ණා 0.4846154
ரு ණා 0.0076923
நா ණා 0.1153846
.. බ්. 0.3333333
.... බ්. 0.3333333
... බ්. 0.3333333
கொ පු 0.0010188
ப் පු 0.0886398
வா පු 0.0010188
வீ පු 0.0010188
பூ පු 0.0285278
யா පු 0.0005094
வெ පු 0.0005094
ம் පු 0.0010188
த පු 0.0010188
ப පු 0.0071319
இ පු 0.0005094
ஜூ පු 0.0005094
ஊ පු 0.0005094
வ පු 0.0010188
கெ පු 0.0005094
ஜ පු 0.0010188
ஹே පු 0.0010188
அ පු 0.0005094
னி. පු 0.0015283
ய පු 0.0010188
சி පු 0.0020377
கா පු 0.0005094
மா පු 0.0015283
ங் පු 0.0005094
பு පු 0.8313805
டை පු 0.0005094
பொ පු 0.0010188
ன පු 0.0005094
L.. පු 0.0005094
ழு පු 0.0005094
ஜு පු 0.0005094
NULL පු 0.0056037
நூ පු 0.0005094
னி පු 0.0101885
யே පු 0.0005094
ட පු 0.0010188
வி පු 0.0005094
பி පු 0.0035660
சா ඩා 0.0018215
டெ ඩා 0.0018215
ட ඩා 0.0491803
று ඩා 0.0018215
ன ඩා 0.0109290
ட் ඩා 0.0018215
NULL ඩා 0.0018215
டு ඩා 0.0054645
ன் ඩා 0.0109290
வ் ඩා 0.0018215
தா ඩා 0.0127505
த ඩා 0.0054645
ப் ඩා 0.0018215
ஞ் ඩා 0.0109290
றி ඩා 0.0018215
சி ඩා 0.0091075
த் ඩා 0.0018215
டாஓ ඩා 0.0182149
ல ඩා 0.0018215
தொ ඩා 0.0036430
டா ඩා 0.8360656
யா ඩා 0.0091075
NULL සො 0.0210526
சோ සො 0.0526316
‎ සො 0.0105263
சு සො 0.0105263
பா සො 0.0105263
சொ සො 0.7473684
பொ සො 0.0105263
ஸொ සො 0.1157895
சோ සො 0.0105263
சொ සො 0.0105263
ஸ் කැ 0.0013908
ப කැ 0.0006954
த කැ 0.0013908
பெ කැ 0.0006954
க කැ 0.1467316
ம කැ 0.0006954
வெ කැ 0.0006954
ளே කැ 0.0006954
து කැ 0.0013908
லி කැ 0.0006954
ஹெ කැ 0.0034771
மா කැ 0.0006954
கே කැ 0.0229485
கா කැ 0.0048679
கொ කැ 0.0013908
கூ කැ 0.0006954
தெ කැ 0.0013908
‎‎ කැ 0.0006954
ச කැ 0.0006954
கு කැ 0.0027816
கெ කැ 0.7969402
NULL කැ 0.0048679
ரெ කැ 0.0006954
வ කැ 0.0013908
ன කැ 0.0006954
ஸீ කැ 0.0006954
ஜூ චූ 0.3333333
சு චූ 0.6666667
தி ධි 0.8814433
யி ධි 0.0257732
ந் ධි 0.0051546
தீ ධි 0.0051546
டி ධි 0.0567010
ய ධි 0.0051546
கா ධි 0.0051546
ஜி ධි 0.0154639
ரஓ ර 0.0000569
ர ර 0.5591214
ம் ර 0.0044953
டா ර 0.0018778
லெ ර 0.0001138
மு ර 0.0000569
டி ර 0.0024468
டு ර 0.0004552
தி ර 0.2756345
ல் ර 0.0006828
றோ ර 0.0000569
ற ර 0.0302720
ப ර 0.0000569
இ ර 0.0041539
பா ර 0.0000569
ட் ර 0.0015933
பெ் ර 0.0000569
ந் ර 0.0000569
வு ර 0.0002845
யூ ර 0.0000569
கெ ර 0.0000569
கை ර 0.0007397
ரூ ර 0.0000569
யி ර 0.0002276
சா ර 0.0000569
டீ ර 0.0000569
கா் ර 0.0000569
ர‎‎ ර 0.0000569
று ර 0.0058040
அ ර 0.0001138
ரொ ර 0.0001138
ரா ර 0.0089906
ரோ ර 0.0001138
ய ර 0.0007966
லி ර 0.0002845
தீ ර 0.0001707
றை ර 0.0048367
ழை ර 0.0064869
ல. ර 0.0000569
பு ර 0.0006259
னு ර 0.0001138
ரொ ර 0.0003983
டை ර 0.0000569
ஸ் ර 0.0004552
தை ර 0.0060885
ன ර 0.0009673
ஸ ර 0.0000569
றா ර 0.0001138
NULL ර 0.0154774
தெ ර 0.0001707
ட ර 0.0016502
ரீ ර 0.0001707
உ ර 0.0000569
ளா ර 0.0000569
பி ර 0.0000569
செ ර 0.0000569
கொ ර 0.0003983
யொ ර 0.0000569
வீ ර 0.0001707
வா ර 0.0001138
றூ ර 0.0000569
றே ර 0.0001707
ரே ර 0.0005121
த ර 0.0008535
ரு ර 0.0042677
ரௌ ර 0.0000569
ழ ර 0.0001138
ரெ ර 0.0024468
‍ ර 0.0000569
ண் ර 0.0001707
வ ර 0.0033003
வா் ර 0.0000569
கு ර 0.0202003
பீ ර 0.0000569
ஹி ර 0.0000569
ரை ර 0.0099010
பே ර 0.0000569
ஏ ර 0.0000569
ஹ ර 0.0001707
சு ර 0.0001707
ல ර 0.0006828
து ර 0.0006828
கா ර 0.0002845
ம ර 0.0003414
கி ර 0.0001707
ள் ර 0.0000569
க ර 0.0004552
பொ ර 0.0000569
வ் ර 0.0000569
ர் ර 0.0101286
ன் ර 0.0015933
ர‍ ර 0.0001138
லை ර 0.0003983
" ර 0.0000569
ணீ ර 0.0001138
ச ර 0.0003414
க் ර 0.0013088
ரி ර 0.0021054
ணா் ර 0.0000569
ர‎ ර 0.0002276
வி ර 0.0000569
லு මු 0.0006196
ஹே මු 0.0012392
பே මු 0.0003098
அ මු 0.0009294
வ මු 0.0037175
மி මු 0.0012392
ட் මු 0.0034077
கு මු 0.0003098
வு මු 0.0012392
தி මු 0.0006196
இ මු 0.0006196
ப මු 0.0009294
கொ මු 0.0003098
வீ මු 0.0003098
சீ මු 0.0003098
மு මු 0.9157373
னா මු 0.0006196
வெ මු 0.0006196
ம் මු 0.0049566
னி මු 0.0006196
ரி මු 0.0003098
வி මු 0.0009294
ட මු 0.0006196
உ මු 0.0009294
ஸீ මු 0.0006196
மூ මු 0.0108426
ஹா මු 0.0003098
NULL මු 0.0077447
ழு මු 0.0105328
க මු 0.0083643
பு මු 0.0027881
நா මු 0.0003098
ணு මු 0.0003098
லா මු 0.0006196
தா මු 0.0006196
நு මු 0.0003098
மா මු 0.0006196
சு මු 0.0003098
ய මු 0.0006196
து මු 0.0027881
போ මු 0.0003098
ம මු 0.0099133
ங் මු 0.0006196
லு ළූ 1.0000000
பீ. පි. 1.0000000
லே ළැ 1.0000000
ல ළා 0.0888889
லாஓ ළා 0.0222222
ழா ළා 0.0222222
லா ළා 0.8000000
ளா ළා 0.0222222
ரு ළා 0.0222222
டா ළා 0.0222222
வி ඛි 0.2000000
ந ඛි 0.2000000
கி ඛි 0.6000000
லூ විෙ 0.5000000
வி විෙ 0.5000000
வூ වූ 0.2380952
உ වූ 0.0952381
வு වූ 0.6190476
க වූ 0.0476190
ரி රිෙ 1.0000000
L.. එ 0.0062735
எ එ 0.7754078
தோ එ 0.0037641
NULL එ 0.0363864
ஐ එ 0.0012547
எ‎ එ 0.0012547
உ එ 0.0012547
வி එ 0.0012547
லி එ 0.0012547
து එ 0.0012547
ஒ එ 0.0125471
ல එ 0.0012547
னெ එ 0.0025094
கோ එ 0.0012547
ஹெ එ 0.0012547
மா එ 0.0012547
L එ 0.0012547
பு එ 0.0025094
யெ එ 0.0012547
..L. එ 0.0025094
. එ 0.0037641
.E. එ 0.0012547
யோ එ 0.0012547
ரெ එ 0.0188206
ழா එ 0.0012547
ட் එ 0.0012547
வ එ 0.0025094
கு එ 0.0012547
ஈ එ 0.0012547
.. එ 0.0188206
ஹே එ 0.0012547
லு එ 0.0037641
டெ එ 0.0012547
யி එ 0.0075282
அ එ 0.0025094
ணை එ 0.0012547
ஏ එ 0.0501882
ஜெ එ 0.0012547
ம் එ 0.0025094
லெ එ 0.0012547
தி එ 0.0025094
இ එ 0.0025094
.... එ 0.0012547
த එ 0.0012547
ரே එ 0.0037641
... එ 0.0075282
ளை ළෛ 1.0000000
னா ා 1.0000000
பி ෆ්‍ 0.8571429
ப ෆ්‍ 0.1428571
ஜெ ජෑ 0.3333333
ஜே ජෑ 0.6666667
பே භේ 1.0000000
ன் ශා. 0.2500000
னி ශා. 0.1875000
செ ශා. 0.3125000
ன். ශා. 0.0625000
பு ශා. 0.1875000
டை ශු 0.1000000
சூ ශු 0.1000000
ரு ශු 0.1000000
மி ශු 0.1000000
சு ශු 0.2000000
செ ශු 0.1000000
ஷு ශු 0.1000000
ஸு ශු 0.1000000
ந ශු 0.1000000
இ ඊ 0.0416667
ட ඊ 0.0208333
.E. ඊ 0.0104167
பெ ඊ 0.0104167
ஈ ඊ 0.7812500
கி ඊ 0.0104167
தி ඊ 0.0104167
டி ඊ 0.0104167
தொ ඊ 0.0104167
NULL ඊ 0.0104167
ஜ்E ඊ 0.0104167
வ ඊ 0.0208333
எ ඊ 0.0520833
ட ඞ 1.0000000
..L. ටි. 0.5000000
. ටි. 0.5000000
பு ෆෘ 0.2500000
ரூ ෆෘ 0.5000000
ப் ෆෘ 0.2500000
கா ෆො 0.0344828
பொ ෆො 0.8620690
போ ෆො 0.0689655
ர் ෆො 0.0344828
.. ච්. 0.1818182
ஸ். ච්. 0.1818182
ச். ච්. 0.4545455
ஸ் ච්. 0.0909091
ம். ච්. 0.0909091
மு ග. 0.0714286
ன் ග. 0.1428571
ம ග. 0.1428571
ன ග. 0.1428571
க ග. 0.2857143
னி ග. 0.0714286
கி ග. 0.1428571
ன ළු 0.0014440
எ ළු 0.0021661
ழு ළු 0.0996390
ணி ළු 0.0014440
NULL ළු 0.0050542
ளை ළු 0.0007220
ஹோ ළු 0.0007220
லூ ළු 0.0007220
லி ළු 0.0028881
து ළු 0.0021661
ல ළු 0.0079422
ல்ஓ ළු 0.0007220
லு் ළු 0.0007220
ல. ළු 0.0007220
ள ළු 0.0007220
பு ළු 0.0014440
ர் ළු 0.0007220
ன் ළු 0.0007220
லுஓ ළු 0.0028881
ழுஓ ළු 0.0007220
ழூ ළු 0.0007220
ண் ළු 0.0014440
வ ළු 0.0014440
வு ළු 0.0021661
ஜ ළු 0.0007220
லு ළු 0.5407942
று ළු 0.0007220
வா ළු 0.0007220
ம் ළු 0.0007220
டி ළු 0.0007220
மு ළු 0.0043321
ளுஓ ළු 0.0014440
டு ළු 0.0064982
ளு ළු 0.2815884
ல் ළු 0.0043321
தி ළු 0.0137184
த ළු 0.0014440
ழ ළු 0.0014440
ரு ළු 0.0007220
உ හි 0.0005562
ஹு හි 0.0005562
வி හි 0.0005562
பி හි 0.0033370
னி හි 0.0027809
ந හි 0.0011123
ய் හි 0.0005562
க் හි 0.0311457
NULL හි 0.0116796
ணி හි 0.0011123
தி‎ හි 0.0005562
எ හි 0.0011123
மே හි 0.0005562
யோ හි 0.0011123
பு හි 0.0005562
கி හි 0.0973304
மொ හි 0.0005562
யெ හි 0.0005562
க හි 0.0011123
ங் හි 0.0005562
ம හි 0.0033370
ஹிஓ හි 0.0016685
போ හි 0.0005562
லி හි 0.0005562
சி හි 0.0022247
ஸி හි 0.0016685
ஹெ හි 0.0027809
ஹீ හි 0.0116796
றி හි 0.0005562
ஹ හි 0.0055617
ஹி හි 0.6290323
யி හි 0.0016685
ந் හි 0.0027809
கு හි 0.0873192
கெ හි 0.0005562
கை හි 0.0011123
ட் හි 0.0005562
கீ හි 0.0005562
வ හි 0.0005562
‍ හි 0.0005562
இ හි 0.0228031
த හි 0.0011123
தே හි 0.0016685
சை හි 0.0011123
தி හි 0.0005562
ற் හි 0.0567297
வெ හි 0.0005562
ப் හි 0.0005562
ர හි 0.0022247
ர පෞ 0.1250000
னி පෞ 0.3750000
த පෞ 0.2500000
னி. පෞ 0.1250000
பி පෞ 0.1250000
ச் ඖ 0.5000000
ஆ ඖ 0.5000000
னீ රූ 0.0208333
யூ රූ 0.0208333
றூ රූ 0.0833333
ல. රූ 0.0208333
NULL රූ 0.0208333
ரூ රූ 0.5833333
று රූ 0.0208333
ரோ රූ 0.0208333
ரு රූ 0.2083333
பே අෙ 0.1666667
ம் අෙ 0.5000000
ல අෙ 0.1666667
ய අෙ 0.1666667
பு ශෘ 1.0000000
ஊ උෘ 1.0000000
இ රා 0.0125261
ற රා 0.0020877
ரு රා 0.0020877
டு රා 0.0005219
ரா‍ රා 0.0005219
ளி රා 0.0005219
டி රා 0.0005219
லெ රා 0.0005219
டா රා 0.0005219
மு රා 0.0005219
ராஓ රා 0.0010438
ப் රා 0.0010438
கொ රා 0.0005219
ர රා 0.0861169
ரா රා 0.8533403
அ රා 0.0041754
று රා 0.0005219
ரை රා 0.0010438
னை රා 0.0005219
ஹே රා 0.0005219
ர். රා 0.0005219
ன் රා 0.0005219
ர் රා 0.0041754
க රා 0.0010438
றை රා 0.0005219
ம රා 0.0005219
ழை රා 0.0010438
ய රා 0.0005219
கோ රා 0.0005219
கா රා 0.0005219
ரி රා 0.0010438
றா රා 0.0140919
ஜா රා 0.0005219
NULL රා 0.0052192
கா ඥා 0.0212766
கொ ඥා 0.0212766
ஞ் ඥා 0.0212766
றீ ඥා 0.0212766
னா ඥා 0.0212766
ந ඥා 0.0212766
ஞ ඥා 0.0212766
நா ඥා 0.0425532
ஞா ඥා 0.7872340
தா ඥා 0.0212766
ரீ ම් 0.0003104
ட ම් 0.0099317
ரி ම් 0.0003104
NULL ම් 0.0198634
ணி ම් 0.0003104
மெ ම් 0.0003104
டே ම් 0.0018622
ம்‍ ම් 0.0012415
ஸ ම් 0.0003104
மே ම් 0.0006207
லை ම් 0.0015518
.E. ම් 0.0003104
ர் ම් 0.0027933
ஸ் ම් 0.0003104
ன் ම් 0.0058970
க ම් 0.0006207
ல. ම් 0.0006207
ம ම් 0.0173805
ங் ම් 0.0052762
து ම් 0.0012415
ல ම් 0.0015518
ய ම් 0.0003104
ரா ම් 0.0360025
ம்‎ ම් 0.0006207
அ ම් 0.0009311
ணை ම් 0.0009311
று ම් 0.0018622
லு ම් 0.0006207
யி ම් 0.0009311
.. ම් 0.0006207
கை ම් 0.0198634
ந் ම් 0.0006207
ஓ ම් 0.0003104
ண் ම් 0.0003104
வ ම් 0.0009311
மி ම් 0.0058970
நி ම් 0.0003104
ட் ම් 0.0012415
ழி ම් 0.0015518
... ම් 0.0006207
ப ම් 0.0006207
ல் ම් 0.0015518
ம். ම් 0.0003104
மீ ම් 0.0003104
டி ම් 0.0024829
மு ම් 0.0009311
ம் ම් 0.8379888
கே ම් 0.0003104
ப் ම් 0.0071384
ர ම් 0.0006207
த் ම් 0.0006207
பா ගා 0.0016393
தி ගා 0.0049180
ற் ගා 0.0032787
டி ගා 0.0016393
த் ගා 0.0016393
செ ගා 0.0032787
கொ ගා 0.0114754
பூ ගා 0.0049180
ரா ගා 0.0016393
கா‎ ගා 0.0032787
நெ ගා 0.0016393
சா ගා 0.0016393
வு ගා 0.0016393
கெ ගා 0.0016393
கை ගා 0.0032787
கௌ ගා 0.0016393
ஸ் ගා 0.0049180
நா ගා 0.0016393
கி ගා 0.0032787
பை ගා 0.0016393
க ගා 0.0983607
ல ගා 0.0032787
கா ගා 0.7934426
மா ගා 0.0016393
கோ ගා 0.0016393
உ ගා 0.0016393
பி ගා 0.0016393
ச் ගා 0.0032787
ஹோ ගා 0.0016393
தோ ගා 0.0081967
NULL ගා 0.0131148
லை ගා 0.0032787
ஆ ගා 0.0049180
ஹா ගා 0.0032787
NULL ෆා 0.0303030
தோ ෆා 0.0303030
ந் ෆා 0.0303030
ற் ෆා 0.0303030
ண் ෆා 0.0303030
ரு ෆා 0.0303030
பா ෆා 0.7272727
ணை ෆා 0.0303030
ப ෆා 0.0606061
தெ ක... 0.2500000
ல... ක... 0.2500000
ரு ක... 0.2500000
இ ක... 0.2500000
கே ග් 0.0052910
ய ග් 0.0026455
த் ග් 0.0052910
லி ග් 0.0026455
வூ ග් 0.0026455
ங் ග් 0.0052910
ல் ග් 0.0132275
க ග් 0.0211640
பு ග් 0.0026455
கி ග් 0.2010582
ரே ග් 0.0026455
ன் ග් 0.0052910
ப ග් 0.0026455
ஸ் ග් 0.0132275
ட் ග් 0.0026455
NULL ග් 0.0449735
கெ ග් 0.0026455
கு ග් 0.0158730
க் ග් 0.6402116
தெ ග් 0.0052910
பே ග් 0.0026455
எ ඵ 1.0000000
ணை ටැ 0.0120482
தா ටැ 0.1566265
ரா ටැ 0.0120482
ர் ටැ 0.0240964
ட ටැ 0.0963855
தெ ටැ 0.0602410
டெ ටැ 0.3855422
டே ටැ 0.0602410
டா ටැ 0.0240964
ட் ටැ 0.0843373
ரெ ටැ 0.0120482
த் ටැ 0.0481928
ழா ටැ 0.0120482
ர ටැ 0.0120482
ய ෂෙ 0.1250000
ஷே ෂෙ 0.1250000
பெ ෂෙ 0.3750000
ஷெ ෂෙ 0.3750000
னீ ඩ 0.0001534
ம ඩ 0.0027603
மா ඩ 0.0004601
டஓ ඩ 0.0003067
து ඩ 0.0003067
சி ඩ 0.0001534
ய ඩ 0.0004601
ல ඩ 0.0032204
ன் ඩ 0.0098144
ஸ் ඩ 0.0001534
ர் ඩ 0.0004601
தா ඩ 0.0006134
பொ ඩ 0.0001534
டை ඩ 0.0713081
க ඩ 0.0015335
கி ඩ 0.0003067
NULL ඩ 0.0082809
ணி ඩ 0.0004601
டே ඩ 0.0013802
ந ඩ 0.0001534
ச ඩ 0.0007668
தோ ඩ 0.0001534
ஹா ඩ 0.0006134
ன ඩ 0.0009201
பி ඩ 0.0001534
வி ඩ 0.0003067
ட ඩ 0.8362214
லே ඩ 0.0003067
யே ඩ 0.0001534
ரி ඩ 0.0003067
தெ ඩ 0.0003067
டி ඩ 0.0012268
டா ඩ 0.0046005
ற் ඩ 0.0006134
யா ඩ 0.0004601
னா ඩ 0.0001534
வா ඩ 0.0003067
ர ඩ 0.0009201
யி் ඩ 0.0001534
ரு ඩ 0.0012268
.... ඩ 0.0001534
த ඩ 0.0115013
தே ඩ 0.0003067
ல் ඩ 0.0095077
தி ඩ 0.0004601
டு ඩ 0.0050606
ஜ ඩ 0.0001534
கெ ඩ 0.0001534
கு ඩ 0.0006134
வு ඩ 0.0003067
வ ඩ 0.0026070
நி ඩ 0.0004601
ண் ඩ 0.0013802
ட் ඩ 0.0012268
கீ ඩ 0.0006134
ஹ ඩ 0.0012268
ரை ඩ 0.0007668
யி ඩ 0.0095077
டெ ඩ 0.0015335
.. ඩ 0.0001534
த ෆැ 1.0000000
ஜா ජැ 1.0000000
போ ‍‍ 1.0000000
வு ශ 0.0167598
க் ශ 0.0167598
ச ශ 0.2793296
NULL ශ 0.0167598
லை ශ 0.0055866
ஸ ශ 0.1284916
லே ශ 0.0055866
வி ශ 0.0111732
தெ ශ 0.0055866
ரி ශ 0.0111732
சே ශ 0.0111732
சா ශ 0.0223464
ம் ශ 0.0223464
தொ ශ 0.0111732
ஷ ශ 0.3072626
ஒ ශ 0.0055866
செ ශ 0.0055866
த் ශ 0.0223464
ப் ශ 0.0055866
ர ශ 0.0223464
ஸ் ශ 0.0055866
தா ශ 0.0111732
பா ශ 0.0055866
கி ශ 0.0335196
க ශ 0.0055866
தி ශ 0.0055866
ரா හ් 0.0769231
ஹ හ් 0.0256410
ஹே හ් 0.0769231
ஹி හ් 0.0769231
க் හ් 0.0769231
ஜ හ් 0.1282051
தை හ් 0.0256410
வ හ් 0.0256410
ன் හ් 0.0256410
பஃ හ් 0.0512821
கி හ් 0.0256410
ஹ் හ් 0.2564103
தி හ් 0.0256410
ற் හ් 0.0256410
கா හ් 0.0256410
கே හ් 0.0256410
வீ හ් 0.0256410
ட ඳා 0.0217391
த ඳා 0.0652174
தா ඳා 0.5000000
ந் ඳා 0.3695652
ண் ඳා 0.0217391
தெ ඳා 0.0217391
ட ට‍ 1.0000000
ட் ටො 0.1333333
டோ ටො 0.1333333
பொ ටො 0.0166667
ரொ ටො 0.0666667
டொ ටො 0.6166667
டே ටො 0.0166667
NULL ටො 0.0166667
னா නාෙ 1.0000000
த සු 0.0017182
தி සු 0.0051546
பொ සු 0.0017182
ள் සු 0.0017182
சூ සු 0.0996564
ஸு සු 0.0807560
மை සු 0.0017182
ம සු 0.0120275
ஸூ සු 0.0017182
பூ සු 0.0017182
ர සු 0.0051546
கா සු 0.0034364
சு සු 0.7508591
ல සු 0.0034364
யு සු 0.0017182
று සු 0.0017182
NULL සු 0.0068729
கை සු 0.0017182
ந සු 0.0017182
ழு සු 0.0017182
ச සු 0.0120275
ஸ සු 0.0017182
வெ රා‍ 0.1428571
த රා‍ 0.1428571
ல රා‍ 0.1428571
த் රා‍ 0.1428571
ர රා‍ 0.1428571
தி රා‍ 0.1428571
வீ රා‍ 0.1428571
டொ ටෝ 0.0309278
ள ටෝ 0.0103093
டோ ටෝ 0.0206186
ட் ටෝ 0.0824742
ய ටෝ 0.0206186
சி ටෝ 0.0309278
மி ටෝ 0.0103093
ஞ் ටෝ 0.0927835
த ටෝ 0.0103093
ட ටෝ 0.0515464
ஹ ටෝ 0.0103093
ரோ ටෝ 0.0412371
டோ ටෝ 0.5670103
சா ටෝ 0.0103093
றோ ටෝ 0.0103093
த වු 0.0025349
பா වු 0.0012674
ரௌ වු 0.0012674
ரு වු 0.0012674
ழ் වු 0.0050697
வோ වු 0.0012674
டு වු 0.0038023
ளு වු 0.0012674
தி වු 0.0025349
ம் වු 0.0139417
ற் වු 0.0050697
வெ වු 0.0012674
வூ වු 0.0443599
மு වු 0.0050697
பௌ වු 0.0038023
ர වු 0.0012674
று වු 0.0012674
ரை වු 0.0063371
யு වු 0.0076046
ரோ වු 0.0012674
லு වු 0.0050697
வு වු 0.6932826
ந் වු 0.0012674
கை වු 0.0012674
ட் වු 0.0076046
வ වු 0.0228137
கௌ වු 0.0063371
ஸ் වු 0.0012674
வ் වු 0.0228137
க වු 0.0342205
மௌ වු 0.0088720
து වු 0.0025349
லி වු 0.0012674
ல වු 0.0025349
சு වු 0.0114068
கா වු 0.0050697
உ වු 0.0101394
ட වු 0.0012674
வி වු 0.0050697
ளை වු 0.0012674
ழு වු 0.0012674
ந වු 0.0139417
யௌ වු 0.0012674
NULL වු 0.0152091
லை වු 0.0025349
ஆ වු 0.0025349
ஹா වු 0.0012674
எ වු 0.0050697
ன் න්ෙ 0.3333333
ந் න්ෙ 0.1666667
ண் න්ෙ 0.1666667
பொ න්ෙ 0.1666667
பொ න්ෙ 0.1666667
ஸ සේ 0.0089021
ழி සේ 0.0029674
நே සේ 0.0029674
NULL සේ 0.0089021
ஜ සේ 0.0029674
தோ සේ 0.0029674
ச සේ 0.0118694
ஸே සේ 0.1097923
ஙெ සේ 0.0029674
சே සේ 0.7982196
தெ සේ 0.0029674
ஹே සේ 0.0029674
யு සේ 0.0029674
லே සේ 0.0029674
சீ සේ 0.0029674
செ සේ 0.0178042
போ සේ 0.0029674
சை සේ 0.0029674
ஸா සේ 0.0029674
ஸ் සේ 0.0059347
மு වැ 0.0014065
ம் වැ 0.0010549
வெ වැ 0.8853727
வீ වැ 0.0003516
வா වැ 0.0168776
ர වැ 0.0010549
கொ වැ 0.0003516
ப වැ 0.0021097
ரே වැ 0.0003516
‍‎‍ වැ 0.0003516
தே වැ 0.0003516
வே වැ 0.0235584
கு වැ 0.0010549
வ වැ 0.0428973
பே වැ 0.0003516
று වැ 0.0007032
‎‎ වැ 0.0007032
ள වැ 0.0014065
ம වැ 0.0021097
து වැ 0.0010549
ஒ වැ 0.0007032
வெி වැ 0.0003516
க වැ 0.0014065
வௌ் වැ 0.0010549
பெ වැ 0.0014065
NULL වැ 0.0021097
மெ වැ 0.0014065
வௌி වැ 0.0003516
‎ වැ 0.0028129
ஸ වැ 0.0003516
எ වැ 0.0003516
ஆ වැ 0.0010549
வி වැ 0.0021097
பி වැ 0.0003516
லே වැ 0.0007032
றை රෛ 1.0000000
ந යූ. 1.0000000
ஷீ ශි 0.0909091
சி ශි 0.2727273
ஷி ශි 0.3636364
ஸி ශි 0.0909091
ஸீ ශි 0.0909091
ச ශි 0.0909091
ஸ் ය් 0.3333333
ய் ය් 0.6666667
தெ ත් 0.0011289
ரி ත් 0.0002053
ட ත් 0.0002053
த்‎ ත් 0.0003079
தை ත් 0.0001026
லை ත් 0.0004105
ஸ ත් 0.0001026
க் ත් 0.0031814
NULL ත් 0.0175493
ஜ் ත් 0.0001026
டோ ත් 0.0001026
ர் ත් 0.0007184
ஸ் ත් 0.0004105
ன் ත් 0.0081076
ல ත් 0.0009236
சு ත් 0.0001026
ய ත් 0.0058498
து ත් 0.0003079
தோ ත් 0.0001026
கா ත් 0.0002053
ஹெ ත් 0.0002053
மா ත් 0.0001026
ம ත් 0.0001026
ங் ත් 0.0001026
னே ත් 0.0001026
போ ත් 0.0002053
ல. ත් 0.0001026
ஹே ත් 0.0005131
ரூ ත් 0.0004105
ரா ත් 0.0006158
ஹ ත් 0.0001026
ட் ත් 0.1573276
ரெ ත් 0.0001026
ண் ත් 0.0005131
ந் ත් 0.0034893
கெ ත් 0.0002053
தி ත් 0.0023604
ல் ත් 0.0008210
த்ஓ ත් 0.0002053
ற ත් 0.0001026
த ත් 0.0029762
த்‍ ත් 0.0002053
த் ත් 0.7844828
ர ත් 0.0015394
வா ත් 0.0001026
வீ ත් 0.0002053
யா ත් 0.0011289
ற் ත් 0.0004105
றூ ත් 0.0001026
ம் ත් 0.0003079
மு ත් 0.0004105
டி ත් 0.0003079
பி ජි 0.0125000
ஷ் ජි 0.0062500
யீ ජි 0.0062500
தி ජි 0.0187500
கி ජි 0.0125000
ஜ ජි 0.0062500
ஜ் ජි 0.0250000
ணி ජි 0.0125000
NULL ජි 0.0187500
ளி ජි 0.0062500
ஜீ ජි 0.0750000
ஸூ ජි 0.0125000
ஜி ජි 0.7562500
சி ජි 0.0312500
டீ දි 0.0004581
சா දි 0.0004581
கை දි 0.0004581
ந் දි 0.0013743
வ දි 0.0009162
ண் දි 0.0004581
ட் දි 0.0004581
பா දි 0.0091617
ரு දි 0.0270270
ப දි 0.0004581
த දි 0.0054970
தே දි 0.0004581
தி දි 0.8570774
ல் දි 0.0009162
வோ දි 0.0004581
மீ දි 0.0009162
டி දි 0.0366468
ம் දි 0.0009162
ளி දි 0.0009162
னா දි 0.0036647
வா දි 0.0004581
கொ දි 0.0004581
த் දි 0.0027485
ட දි 0.0009162
உ දි 0.0009162
லே දි 0.0004581
னி දි 0.0009162
தெ දි 0.0059551
NULL දි 0.0059551
ழு දි 0.0009162
ச දි 0.0009162
மொ දි 0.0004581
ன දි 0.0004581
லை දි 0.0004581
தை දි 0.0004581
தி‎ දි 0.0004581
நா දි 0.0009162
ர் දි 0.0004581
ஸா දි 0.0004581
ன் දි 0.0096198
க දි 0.0013743
பு දි 0.0013743
ஷ දි 0.0009162
தீ දි 0.0105360
மா දි 0.0009162
லி දි 0.0009162
து දි 0.0009162
த் " 0.3333333
ஸெ " 0.3333333
கெ " 0.3333333
பொ ගු 0.0013812
தி ගු 0.0041436
ல் ගු 0.0013812
க ගු 0.0096685
கி ගු 0.0013812
ஸ் ගු 0.0013812
மா ගු 0.0013812
கோ ගු 0.0055249
து ගු 0.0013812
ய ගු 0.0013812
ங் ගු 0.1146409
ஹி ගු 0.0013812
ளை ගු 0.0013812
கூ ගු 0.0013812
வி ගු 0.0138122
ஹு ගු 0.0069061
வ ගු 0.0013812
ஸ ගු 0.0013812
ஆ ගු 0.0013812
கெ ගු 0.0013812
NULL ගු 0.0069061
ந் ගු 0.0027624
கு ගු 0.8162983
க் ශෝ 0.0869565
சோ ශෝ 0.4782609
ஸோ ශෝ 0.0434783
ணி ශෝ 0.0217391
ய ශෝ 0.0217391
ர ශෝ 0.0217391
ஷோ ශෝ 0.3043478
ஹோ ශෝ 0.0217391
பெ මෝ 0.0044643
ரி මෝ 0.0133929
டெ මෝ 0.0044643
சி මෝ 0.0223214
ஆ මෝ 0.0803571
மோ මෝ 0.7008929
ஹெ මෝ 0.0044643
மி මෝ 0.0267857
மோ මෝ 0.0267857
மொ මෝ 0.0848214
ம මෝ 0.0044643
NULL මෝ 0.0044643
மு මෝ 0.0223214
பா ර්‍ 1.0000000
ரீ රු 0.0004513
ட රු 0.0013538
ஞ රු 0.0009025
ரி රු 0.0009025
ளை රු 0.0018051
NULL රු 0.0293321
க் රු 0.0004513
ருஓ රු 0.0013538
லை රු 0.0004513
ர் රු 0.0040614
ரொ රු 0.0013538
கி රු 0.0004513
று‎ රු 0.0004513
சி රු 0.0004513
ரு‍ රු 0.0004513
ஹ රු 0.0009025
' රු 0.0009025
பே රු 0.0004513
ரா රු 0.0031588
று රු 0.0898014
வை රු 0.0018051
ரூ රු 0.0049639
கு රු 0.0379061
ரு‎ රු 0.0004513
ரெ රු 0.0121841
ரு රු 0.7797834
ற රු 0.0009025
ரே රු 0.0009025
ல் රු 0.0009025
றீ රු 0.0004513
றூ රු 0.0004513
ம் රු 0.0009025
வா රු 0.0009025
ர රු 0.0175993
த் රු 0.0004513
றீ ති 0.0008078
டி ති 0.0072698
ங் ති 0.0008078
தீ ති 0.0096931
ஹெ ති 0.0008078
றி ති 0.0008078
கா ති 0.0008078
ர ති 0.0032310
து ති 0.0016155
லி ති 0.0008078
சி ති 0.0282714
த் ති 0.0993538
ல ති 0.0008078
ர் ති 0.0008078
த ති 0.0024233
சை ති 0.0008078
தி ති 0.8126010
பொ ති 0.0008078
க ති 0.0016155
கி ති 0.0056543
NULL ති 0.0056543
நூ ති 0.0008078
கு ති 0.0008078
மி ති 0.0008078
நி ති 0.0016155
ட் ති 0.0024233
னி ති 0.0064620
நெ ති 0.0008078
ச் ති 0.0008078
சொ ජො 0.0555556
ஜொ ජො 0.3333333
தெ ජො 0.0555556
ய ජො 0.1111111
ஜோ ජො 0.4444444
ஸ் රෝ 0.0145349
ழ் රෝ 0.0029070
தி රෝ 0.1162791
ரொ රෝ 0.0232558
றோ රෝ 0.0145349
ரோ රෝ 0.0087209
ளி රෝ 0.0058140
டா රෝ 0.0029070
ய රෝ 0.1250000
ஹொ රෝ 0.0029070
த் රෝ 0.1308140
ர රෝ 0.0174419
கோ රෝ 0.0029070
றோ රෝ 0.0087209
ரோ රෝ 0.3459302
னை රෝ 0.0029070
வை රෝ 0.1308140
சா රෝ 0.0029070
NULL රෝ 0.0029070
கெ රෝ 0.0029070
ட் රෝ 0.0058140
ஆ රෝ 0.0290698
யு. යු. 1.0000000
பே ‍ 0.1000000
NULL ‍ 0.6000000
ரீ ‍ 0.1000000
‎ ‍ 0.2000000
ரி ඕ 0.0029940
ட ඕ 0.0029940
வி ඕ 0.0089820
பி ඕ 0.0179641
ளிஓ ඕ 0.0059880
எ ඕ 0.0059880
தோ ඕ 0.0059880
NULL ඕ 0.0029940
டோ ඕ 0.0029940
பெ ඕ 0.0059880
க ඕ 0.0029940
ங்ஓ ඕ 0.0179641
யோ ඕ 0.0269461
மாஓ ඕ 0.0029940
லோ ඕ 0.0149701
ஒ ඕ 0.2514970
டஓ ඕ 0.0059880
யோ ඕ 0.0059880
கோ ඕ 0.0239521
ல்ஓ ඕ 0.0179641
ஹிஓ ඕ 0.0089820
னஓ ඕ 0.0029940
தொ ඕ 0.0029940
லிஓ ඕ 0.0029940
னோ ඕ 0.0149701
லஓ ඕ 0.0059880
ஸ்ஓ ඕ 0.0239521
பே ඕ 0.0059880
ன்ஓ ඕ 0.0029940
ஓ ඕ 0.4311377
ஸோ ඕ 0.0029940
ச்ஓ ඕ 0.0029940
வோ ඕ 0.0059880
க்ஓ ඕ 0.0059880
கோ ඕ 0.0029940
ரிஓ ඕ 0.0029940
சோ ඕ 0.0089820
ம் ඕ 0.0239521
லெ ඕ 0.0029940
மீ ඕ 0.0029940
கொ වි 0.0006725
ர වි 0.0003362
வீ වි 0.0386685
த் වි 0.0006725
மு වි 0.0010087
டி වි 0.0016812
eell වි 0.0003362
யா වි 0.0006725
வெ වි 0.0117687
ஹௌ වි 0.0003362
தி වි 0.0003362
ரு වි 0.0006725
பா වි 0.0020175
த වි 0.0003362
ற වි 0.0003362
ப වි 0.0033625
இ වි 0.0010087
கௌ වි 0.0003362
மி වි 0.0023537
ண் වි 0.0057162
வ වි 0.0033625
ட் වි 0.0020175
கெ වි 0.0003362
வே වි 0.0016812
வு වි 0.0013450
யி වි 0.0006725
யீ වි 0.0013450
சா වි 0.0006725
ஹி වි 0.0003362
வ்‎ වි 0.0003362
ஹ වි 0.0006725
ணை වි 0.0023537
அ වි 0.0006725
ய වි 0.0016812
லி වි 0.0006725
சி වි 0.0006725
ஷ වි 0.0003362
தொ වි 0.0003362
ம වි 0.0043712
க වි 0.0080699
கி වි 0.0013450
வி‍ වි 0.0003362
வ் වි 0.0033625
ர் වි 0.0003362
ன் වි 0.0003362
ஸ වි 0.0006725
ன වි 0.0010087
லை වි 0.0006725
NULL වි 0.0030262
ந වි 0.0006725
லூ වි 0.0020175
தெ වි 0.0010087
ச் වි 0.0003362
பி වි 0.0063887
வி වි 0.8718897
வி் වි 0.0003362
ட වි 0.0016812
ண் ඩේ 0.0104167
‍ ඩේ 0.0052083
NULL ඩේ 0.0104167
ந் ඩේ 0.0208333
டே ඩේ 0.4531250
டெ ඩේ 0.0364583
சே ඩේ 0.0052083
ட ඩේ 0.0781250
கே ඩේ 0.0104167
ஸி ඩේ 0.0052083
ல் ඩේ 0.0052083
டை ඩේ 0.3020833
தி ඩේ 0.0104167
தே ඩේ 0.0104167
த ඩේ 0.0208333
ன் ඩේ 0.0156250
கே නෑ 0.0067114
னெ නෑ 0.0201342
னே නෑ 0.3624161
னா නෑ 0.0469799
தே නෑ 0.0134228
தி නෑ 0.0067114
ணா නෑ 0.0201342
நா නෑ 0.0201342
ன் නෑ 0.0067114
ன නෑ 0.0536913
நே නෑ 0.2214765
ந නෑ 0.0134228
மெ නෑ 0.0067114
நெ නෑ 0.1812081
ணே නෑ 0.0067114
ட නෑ 0.0067114
ரா නෑ 0.0067114
ஸ் ස්‍ 0.4000000
சி ස්‍ 0.2000000
க ස්‍ 0.4000000
ட ඩ. 1.0000000
பு බෘෘ 0.5000000
ரூ බෘෘ 0.5000000
கா ඟ 0.0068259
ங் ඟ 0.3959044
ற் ඟ 0.0068259
டி ඟ 0.0034130
ளு ඟ 0.0068259
கி ඟ 0.0068259
பெ ඟ 0.0034130
ங ඟ 0.0034130
க ඟ 0.3003413
தி ඟ 0.0034130
ற ඟ 0.0034130
ன் ඟ 0.0204778
யோ ඟ 0.0034130
ரெ ඟ 0.0034130
ஹா ඟ 0.0034130
ன ඟ 0.0034130
வ ඟ 0.0034130
கு ඟ 0.0068259
NULL ඟ 0.0136519
கை ඟ 0.0955631
தெ ඟ 0.0068259
று ඟ 0.0034130
ஹ ඟ 0.0955631
கொ ගොා 1.0000000
ப் චැ 0.2352941
சா චැ 0.1764706
நெ චැ 0.0588235
செ චැ 0.1764706
ய චැ 0.1176471
NULL චැ 0.0588235
ச චැ 0.1764706
னே ලාෙ 0.5000000
லா ලාෙ 0.5000000
ஈ. ඊ. 1.0000000
னெ තැ 0.0062814
த் තැ 0.0012563
து තැ 0.0012563
கொ තැ 0.0012563
கே තැ 0.0012563
யா තැ 0.0012563
மை තැ 0.0012563
மு තැ 0.0025126
பு තැ 0.0012563
க තැ 0.0050251
தே තැ 0.0087940
தா තැ 0.0075377
த තැ 0.1055276
தை තැ 0.0025126
ஊ තැ 0.0012563
வ තැ 0.0012563
ன තැ 0.0025126
NULL තැ 0.0125628
கெ තැ 0.0075377
ஜ තැ 0.0025126
ஹே තැ 0.0050251
தெ තැ 0.8140704
டெ තැ 0.0012563
சா තැ 0.0012563
அ තැ 0.0012563
வி තැ 0.0025126
ப ෆෙ 0.1666667
பெ ෆෙ 0.8333333
பா බා 0.8489426
ப බා 0.0664653
ரா බා 0.0030211
தே බා 0.0030211
டோ බා 0.0030211
பெ බා 0.0120846
NULL බා 0.0090634
ம் බා 0.0151057
பௌ බා 0.0030211
கா බා 0.0030211
வா බා 0.0211480
ன බා 0.0030211
ஹா බා 0.0030211
வீ බා 0.0060423
கீ කී 0.8189655
கெ කී 0.0086207
NULL කී 0.0086207
தீ කී 0.0086207
க කී 0.0086207
தி කී 0.0431034
ஜோ කී 0.0086207
கி කී 0.0603448
பு කී 0.0172414
ப කී 0.0172414
த் ති‍ 0.5000000
ரா‎ ති‍ 0.5000000
எ ඇ‍ 1.0000000
ஞா ඣා 1.0000000
கே ගෑ 1.0000000
அ බි 0.0043956
பி බි 0.8351648
' බි 0.0065934
வி බි 0.0615385
னி බි 0.0043956
‎ බි 0.0021978
கு බි 0.0021978
பீ බි 0.0197802
NULL බි 0.0043956
ஊ බි 0.0021978
ன බි 0.0021978
ப බි 0.0087912
பெ බි 0.0065934
பு බි 0.0021978
டு බි 0.0021978
கி බි 0.0043956
பி் බි 0.0021978
வெ බි 0.0043956
ம බි 0.0021978
சு බි 0.0021978
ப் බි 0.0175824
வீ බි 0.0021978
பா ද. 0.2000000
த. ද. 0.2000000
.. ද. 0.4000000
தை ද. 0.2000000
ரி ටී 0.0645161
தே ටී 0.0322581
ர் ටී 0.0645161
டீ ටී 0.2580645
ட் ටී 0.2258065
எ ටී 0.0322581
தீ ටී 0.0322581
டி ටී 0.2580645
NULL ටී 0.0322581
ய் ඳේ 0.1111111
ந் ඳේ 0.2222222
யா ඳේ 0.1111111
தே ඳේ 0.3333333
த் ඳේ 0.1111111
தெ ඳේ 0.1111111
ழ் ඒ 0.0100000
சூ ඒ 0.0100000
ஏ. ඒ 0.0100000
ல் ඒ 0.0100000
க ඒ 0.0100000
த்‍ ඒ 0.0100000
வெ ඒ 0.0100000
ம ඒ 0.0100000
.. ඒ 0.0100000
சே ඒ 0.0100000
னி ඒ 0.0200000
எ‎ ඒ 0.0200000
ரை ඒ 0.0100000
லே ඒ 0.0100000
யு ඒ 0.0400000
ஏ ඒ 0.4200000
'' ඒ 0.0100000
ஆ ඒ 0.0100000
கீ ඒ 0.0100000
எ ඒ 0.1700000
NULL ඒ 0.1800000
NULL ඉ 0.0187402
ணி ඉ 0.0010411
மெ ඉ 0.0010411
க் ඉ 0.0015617
தோ ඉ 0.0005206
எ ඉ 0.0093701
மே ඉ 0.1478397
லை ඉ 0.0010411
வி ඉ 0.0005206
ட ඉ 0.0005206
உ ඉ 0.0005206
ஐ ඉ 0.0005206
கா ඉ 0.0010411
து ඉ 0.0041645
லி ඉ 0.0005206
சி ඉ 0.0005206
ஒ ඉ 0.0010411
க ඉ 0.0041645
ரொ ඉ 0.0005206
பெ ඉ 0.0005206
னு ඉ 0.0010411
கி ඉ 0.0010411
கெ ඉ 0.0005206
ந் ඉ 0.0005206
நீ ඉ 0.0005206
மி ඉ 0.0005206
நி ඉ 0.0015617
கீ ඉ 0.0119729
அ ඉ 0.0020822
ரை ඉ 0.0005206
யி ඉ 0.0109318
ஹி ඉ 0.0010411
.. ඉ 0.0005206
மு ඉ 0.0265487
ம் ඉ 0.0005206
வா ඉ 0.0005206
கொ ඉ 0.0005206
ஜெ ඉ 0.0005206
ர ඉ 0.0015617
பா ඉ 0.0005206
இ ඉ 0.7371161
ப ඉ 0.0031234
தே ඉ 0.0005206
‍‍‍‍‍‎‍ හෝ 0.0088496
சோ හෝ 0.0088496
ஒ හෝ 0.0088496
ஹொ හෝ 0.0530973
கொ හෝ 0.0176991
கோ හෝ 0.1150442
‍‎‍ හෝ 0.0265487
ஹொ හෝ 0.0176991
ஹே හෝ 0.0265487
ஹோ හෝ 0.6371681
ஹோ හෝ 0.0530973
வோ හෝ 0.0176991
ள் හෝ 0.0088496
சை ච 0.0272109
ஸ் ච 0.0068027
சு ච 0.0272109
சீ ච 0.0068027
யா ච 0.0068027
ம ච 0.0068027
ஷ ච 0.0136054
ஞ ච 0.0068027
ச் ච 0.0476190
ளை ච 0.0068027
சா ච 0.0340136
ரீ ච 0.0068027
வி ච 0.0136054
வ ච 0.0136054
ச ච 0.7551020
NULL ච 0.0204082
த කෝ 0.0022727
உ කෝ 0.0022727
ட කෝ 0.0022727
கூ කෝ 0.0159091
கி කෝ 0.0022727
கொ කෝ 0.0068182
பொ කෝ 0.0022727
சா කෝ 0.0045455
ம කෝ 0.0022727
ள்‍ කෝ 0.0022727
ஆ කෝ 0.0068182
கோ කෝ 0.0272727
கொ කෝ 0.1863636
கோ කෝ 0.7340909
ஹா කෝ 0.0022727
ம் ඹූ 0.4285714
ரை ඹූ 0.0714286
ஒ ඹූ 0.0714286
பு ඹූ 0.4285714
ஷீ ෂී 0.2000000
சீ ෂී 0.8000000
கொ කො 1.0000000
ரு ඩෲ 0.2083333
பீ ඩෲ 0.0416667
டா ඩෲ 0.0833333
றூ ඩෲ 0.0833333
று ඩෲ 0.0833333
ரூ ඩෲ 0.1666667
ட் ඩෲ 0.3333333
தொ ටෙ 0.0151515
வே ටෙ 0.0151515
NULL ටෙ 0.0151515
டொ ටෙ 0.0151515
டே ටෙ 0.1818182
ஆ ටෙ 0.0151515
ரெ ටෙ 0.0454545
ட் ටෙ 0.0757576
மோ ටෙ 0.0151515
பே ටෙ 0.0151515
ட ටෙ 0.0606061
அ ටෙ 0.0151515
டெ ටෙ 0.4848485
னி ටෙ 0.0151515
தெ ටෙ 0.0151515
ட் : 1.0000000
ச ඝ 0.0588235
ங் ඝ 0.0294118
தி ඝ 0.0294118
க ඝ 0.8823529
பொ ඹෝ 0.0454545
டோ ඹෝ 0.0454545
ஹே ඹෝ 0.0454545
போ ඹෝ 0.4545455
ம் ඹෝ 0.3636364
மொ ඹෝ 0.0454545
ட் බ 0.0008628
வ බ 0.0353753
‍ බ 0.0004314
நி බ 0.0008628
அ බ 0.0012942
ஏ බ 0.0004314
பே බ 0.0073339
ரூ බ 0.0004314
சா බ 0.0008628
பொ බ 0.0012942
யி බ 0.0008628
டெ බ 0.0004314
டி බ 0.0004314
மு බ 0.0004314
ப் බ 0.0017256
வா බ 0.0004314
கொ බ 0.0008628
ர බ 0.0012942
பௌ බ 0.0008628
இ බ 0.0004314
ப බ 0.8339085
பா බ 0.0142364
ழ බ 0.0012942
றோ බ 0.0004314
தி බ 0.0008628
ழு බ 0.0004314
NULL බ 0.0086281
மே බ 0.0496117
ட බ 0.0012942
பி බ 0.0012942
ப‍‍ බ 0.0008628
னே බ 0.0004314
ம බ 0.0025884
போ බ 0.0012942
ள බ 0.0030198
சி බ 0.0004314
ஒ බ 0.0004314
ல බ 0.0004314
மா බ 0.0004314
ஞ் බ 0.0004314
ன் බ 0.0004314
பெ බ 0.0064711
பு බ 0.0030198
கி බ 0.0008628
பொ බ 0.0056083
டை බ 0.0004314
க බ 0.0038827
எ තෙ 0.0043103
தை තෙ 0.0043103
னெ තෙ 0.0043103
NULL තෙ 0.0129310
கெ තෙ 0.0043103
‎ තෙ 0.0043103
ம் තෙ 0.0043103
தி තෙ 0.0086207
னி තෙ 0.0043103
யி තෙ 0.0043103
தே තෙ 0.1077586
தெ තෙ 0.7931034
ஹே තෙ 0.0043103
நெ තෙ 0.0043103
த තෙ 0.0344828
ஸ் කා 0.0014881
தா කා 0.0014881
பெ කා 0.0059524
டு කා 0.0163690
கி කා 0.0014881
க කා 0.0714286
தி කා 0.0029762
தொ කා 0.0104167
ஷ කා 0.0014881
ய කා 0.0014881
காே කා 0.0014881
கொ කා 0.0059524
கா කා 0.7083333
அ කා 0.0148810
சா කා 0.0014881
ச කා 0.0014881
க் කා 0.1011905
தோ කා 0.0014881
NULL කා 0.0223214
நூ කා 0.0014881
கெ කා 0.0029762
கை කා 0.0104167
ட் කා 0.0014881
ன කා 0.0014881
ண் කා 0.0014881
வ කා 0.0029762
நி කා 0.0044643
ச். ම්. 0.1111111
. ම්. 0.1111111
NULL ම්. 0.1111111
... ම්. 0.1111111
ம். ම්. 0.4444444
.. ම්. 0.1111111
பி. බී. 0.2857143
. බී. 0.2857143
பீ. බී. 0.1428571
.. බී. 0.2857143
ங் හා 0.0032258
ம හා 0.0064516
சி හා 0.0016129
கா හා 0.1709677
ஹெ හා 0.0064516
தா හා 0.0032258
நா හා 0.0032258
க හා 0.0725806
ந හා 0.0016129
NULL හා 0.0161290
ஆ හා 0.0112903
நே හා 0.0016129
ன හා 0.0032258
ஹா හා 0.5451613
ரி හා 0.0016129
ளை හා 0.0016129
னா හා 0.0016129
டா හා 0.0145161
ஹொ හා 0.0032258
ர හා 0.0048387
வா හා 0.0016129
தி හා 0.0016129
யூ හා 0.0016129
கெ හා 0.0016129
ழி හා 0.0016129
ஊ හා 0.0032258
அ හා 0.0064516
று හා 0.0032258
ஹ හා 0.1000000
ஏ හා 0.0016129
யு හා 0.0016129
யி හා 0.0016129
ளொ ලො 0.0124224
கொ‎ ලො 0.0062112
வி ලො 0.0062112
ச் ලො 0.0062112
ளோ ලො 0.0062112
லொ ලො 0.0434783
ள ලො 0.0186335
ல ලො 0.1366460
ஒ ලො 0.0062112
ரே ලො 0.0062112
லா ලො 0.0062112
லொ ලො 0.5527950
லோ ලො 0.1677019
டு ලො 0.0062112
பெ ලො 0.0124224
ரொ ලො 0.0062112
லே බු 0.0016340
வி බු 0.0016340
வு බු 0.0179739
NULL බු 0.0032680
ப බු 0.0130719
லோ බු 0.0016340
பா බු 0.0016340
பு බු 0.8937908
டு බු 0.0049020
சூ බු 0.0016340
தி බු 0.0016340
வெ බු 0.0032680
மு බු 0.0130719
ண බු 0.0016340
து බු 0.0016340
லி බු 0.0016340
பௌ බු 0.0016340
கொ බු 0.0016340
வீ බු 0.0016340
பூ බු 0.0310458
ட் ටි‍ 1.0000000
டி ඩ්‍ 0.4444444
றா ඩ්‍ 0.1111111
ட ඩ්‍ 0.1111111
ட் ඩ්‍ 0.2222222
லை ඩ්‍ 0.1111111
ல. ක..... 1.0000000
ரூ කෟ 0.5000000
கு කෟ 0.5000000
ஓ. ඕ. 1.0000000
த තා 0.1032746
தா තා 0.8236776
ள் තා 0.0025189
ணா තා 0.0025189
தி තා 0.0025189
தே තා 0.0050378
ம තා 0.0025189
னா තා 0.0050378
ம் තා 0.0025189
மு තා 0.0025189
டா තා 0.0025189
தொ තා 0.0025189
ய තා 0.0025189
கா තා 0.0050378
வா තා 0.0025189
ஹெ තා 0.0025189
ட තා 0.0125945
தா‍ තා 0.0025189
தெ තා 0.0025189
ந் තා 0.0025189
NULL තා 0.0050378
தை තා 0.0050378
தௌ දෞ 1.0000000
கோ කො‍් 1.0000000
வி වෛ 0.0625000
வை වෛ 0.9375000
பூ භූ 0.5600000
ன භූ 0.1600000
ய භූ 0.0400000
பு භූ 0.1200000
டி භූ 0.0400000
மை භූ 0.0400000
இ භූ 0.0400000
மை ෙෙ 1.0000000
நி ර් 0.0031621
ர். ර් 0.0007905
ட் ර් 0.0039526
ழி ර් 0.0150198
வே ර් 0.0023715
ந் ර් 0.0039526
லு ර් 0.0055336
.. ර් 0.0023715
யா் ර් 0.0007905
ரா ර් 0.0039526
பூ ර් 0.0015810
ர ර් 0.0102767
செ ර් 0.0007905
ரஓ ර් 0.0007905
ம் ර් 0.0023715
தி ර් 0.0039526
ழ் ර් 0.0015810
பா ර් 0.0039526
ரு ර් 0.0039526
ற ර් 0.0007905
லை ර් 0.0039526
தை ර් 0.0007905
ன். ර් 0.0015810
NULL ර් 0.0387352
ழு ර් 0.0007905
ச ර් 0.0063241
ரி ර් 0.0166008
ட ර් 0.0047431
ஞ் ර් 0.0047431
கா ර් 0.0071146
சி ර් 0.0047431
ய ර් 0.0023715
ல ර් 0.0007905
ஷ ර් 0.0007905
ள ර් 0.0007905
டூா் ර් 0.0007905
மை ර් 0.0007905
ங் ර් 0.0047431
க ර් 0.0007905
ஸொ ර් 0.0007905
ள் ර් 0.0015810
டோ ර් 0.0015810
ன் ර් 0.0007905
ர் ර් 0.8213439
னா ථි 0.2500000
தி ථි 0.5000000
து ථි 0.2500000
NULL ඌ 0.0040816
ந ඌ 0.0040816
ஊ ඌ 0.8857143
ஆ ඌ 0.0040816
நா ඌ 0.0081633
அ ඌ 0.0040816
உ ඌ 0.0816327
ஔ ඌ 0.0040816
க ඌ 0.0040816
. බි. 0.5000000
ஜா බි. 0.5000000
ரு රෑ 0.0533333
ரே රෑ 0.2933333
ரா රෑ 0.2666667
ர රෑ 0.1733333
றே රෑ 0.0266667
ரெ රෑ 0.1200000
ரூ රෑ 0.0666667
கீ ක්‍ 0.0044643
ட் ක්‍ 0.1205357
த் ක්‍ 0.0133929
கு ක්‍ 0.0044643
மை ක්‍ 0.0133929
க் ක්‍ 0.4062500
NULL ක්‍ 0.0044643
ஷ ක්‍ 0.0044643
பு ක්‍ 0.0089286
கி ක්‍ 0.3526786
டு ක්‍ 0.0044643
க ක්‍ 0.0044643
தி ක්‍ 0.0044643
ட ක්‍ 0.0357143
வி ක්‍ 0.0178571
ரி ඡ 0.0075188
யி ඡ 0.2932331
கு ඡ 0.2932331
ஜ ඡ 0.0827068
ஜா ඡ 0.0075188
டி ඡ 0.2932331
ப் ඡ 0.0075188
கொ ඡ 0.0075188
ஜெ ඡ 0.0075188
ம் භ 0.0204082
ந භ 0.0204082
பே භ 0.0204082
ஹ භ 0.1632653
தா භ 0.0204082
ப භ 0.6938776
ளை භ 0.0204082
ச் භ 0.0204082
பை භ 0.0204082
க் කෲ 0.2000000
ரு කෲ 0.4000000
கூ කෲ 0.2000000
கோ කෲ 0.2000000
ர ර‍ 1.0000000
க වෙ 0.0140515
பொ වෙ 0.0005855
லா වෙ 0.0011710
வ் වෙ 0.0017564
ஸ் වෙ 0.0017564
சு වෙ 0.0005855
ய වෙ 0.0011710
து වෙ 0.0011710
வி වෙ 0.0081967
தை වෙ 0.0005855
ஆ වෙ 0.0023419
NULL වෙ 0.0046838
வௌி වෙ 0.0005855
ச වෙ 0.0005855
றா වෙ 0.0011710
‎ වෙ 0.0023419
தி වෙ 0.0017564
‍‎‍ වෙ 0.0005855
ப වෙ 0.0011710
ர වෙ 0.0023419
கொ වෙ 0.0005855
வா වෙ 0.0017564
த் වෙ 0.0005855
மு වෙ 0.0023419
வெ වෙ 0.7997658
ம் වෙ 0.0087822
வை වෙ 0.0011710
று වෙ 0.0005855
அ වෙ 0.0005855
ரா වෙ 0.0005855
வ වෙ 0.0766979
கௌ වෙ 0.0005855
ழா වෙ 0.0005855
கெ වෙ 0.0005855
வே වෙ 0.0526932
கு වෙ 0.0011710
வௌ වෙ 0.0023419
.. සී. 0.1250000
சீ. සී. 0.1875000
. සී. 0.0625000
Y සී. 0.0625000
சீ සී. 0.1250000
சி. සී. 0.3125000
சி සී. 0.0625000
ஸி. සී. 0.0625000
லே ලේ 1.0000000
ர் ෆෝ 0.1951220
பு​ ෆෝ 0.0243902
போ ෆෝ 0.7317073
ஹை ෆෝ 0.0243902
பொ ෆෝ 0.0243902
NULL හු 0.0036563
கெ හු 0.0018282
கு හු 0.1627057
வு හු 0.0018282
ஸீ හු 0.0036563
ஜூ හු 0.0018282
வ හු 0.0018282
ஊ හු 0.0237660
வி හු 0.0036563
ஹ හු 0.0219378
யு හු 0.0018282
ட හු 0.0365631
ஹு හු 0.6252285
உ හු 0.0658135
ஹூ හු 0.0073126
தெ හු 0.0036563
ஹி හු 0.0036563
ற் හු 0.0073126
ஹீ හු 0.0146252
து හු 0.0036563
க හු 0.0018282
ஹ் හු 0.0018282
ஹா ග 0.0000661
ன ග 0.0008598
தை ග 0.0001984
NULL ග 0.0347907
தோ ග 0.0002646
ழு ග 0.0001323
னி ග 0.0000661
தெ ග 0.0000661
பி ග 0.0005291
ட ග 0.0003969
கோ ග 0.0002646
மா ග 0.0000661
ஹெ ග 0.0000661
ய ග 0.0013228
ஒ ග 0.0005291
ள ග 0.0001323
ல. ග 0.0000661
க‍ ග 0.0000661
ங் ග 0.0001323
ங ග 0.0001323
பு ග 0.0003307
பெ ග 0.0002646
நா ග 0.0000661
ல... ග 0.0000661
ஸ் ග 0.0001323
கெ ග 0.0005953
கை ග 0.0304914
வு ග 0.0000661
யி ග 0.0004630
சா ග 0.0000661
கா் ග 0.0000661
அ ග 0.0001984
ரா ග 0.0001984
ர ග 0.0003969
ஜி ග 0.0000661
ப் ග 0.0000661
மு ග 0.0001984
சோ ග 0.0000661
னா ග 0.0001323
வெ ග 0.0009921
யா ග 0.0001323
ம் ග 0.0000661
ல் ග 0.0000661
கொ ග 0.0000661
தி ග 0.0003307
டு ග 0.0000661
பா ග 0.0000661
ப ග 0.0020504
இ ග 0.0000661
தி‎ ග 0.0000661
ஆ ග 0.0001323
க் ග 0.0007276
ந ග 0.0002646
மெ ග 0.0000661
லூ ග 0.0000661
யே ග 0.0000661
வி ග 0.0002646
கா ග 0.0107811
ல ග 0.0007276
ம ග 0.0000661
பொ ග 0.0000661
க ග 0.8655334
கி ග 0.0253985
லோ ග 0.0000661
வ் ග 0.0001323
தா ග 0.0000661
ர் ග 0.0023811
ன் ග 0.0011906
கௌ ග 0.0000661
வ ග 0.0005291
ஊ ග 0.0005291
ழி ග 0.0001323
ரெ ග 0.0001323
வே ග 0.0000661
கு ග 0.0015874
கை' ග 0.0000661
ஹே ග 0.0001984
நெ ග 0.0000661
பே ග 0.0001984
ஹ ග 0.0039024
யா் ග 0.0001323
னி. ග 0.0002646
கொ ග 0.0031748
வீ ග 0.0008598
வா ග 0.0000661
கே ග 0.0001984
ராஓ ග 0.0000661
தூ ග 0.0000661
ண ග 0.0002646
த் ග 0.0001323
ழ் ග 0.0000661
ரு ග 0.0000661
த ග 0.0011244
த. ජි. 0.3333333
ஜீ. ජි. 0.6666667
ஜ ජෙ 0.1428571
ஜே ජෙ 0.1428571
ஜெ ජෙ 0.7142857
ங் ං‍ 1.0000000
சே චෙ 0.0555556
யி චෙ 0.1111111
செ චෙ 0.6111111
ச் චෙ 0.0555556
க் චෙ 0.0555556
ச චෙ 0.0555556
மை චෙ 0.0555556
ல் වෙ‍ 0.5000000
வெ වෙ‍ 0.5000000
வ ද 0.0003524
பே ද 0.0002350
ஹ ද 0.0001175
த் ද 0.0024671
ழ் ද 0.0001175
தே ද 0.0016447
த ද 0.7000705
த. ද 0.0002350
ரு ද 0.0640273
ழ ද 0.0002350
ஸெ ද 0.0001175
லை ද 0.0014098
ச ද 0.0001175
டே ද 0.0001175
ந ද 0.0002350
ணி ද 0.0027021
வி ද 0.0001175
ல ද 0.0037594
து ද 0.0019972
கா ද 0.0021147
ம ද 0.0008224
தொ ද 0.0001175
கி ද 0.0002350
க ද 0.0015273
தஓ ද 0.0002350
வ் ද 0.0003524
தா ද 0.0030545
த‍ ද 0.0001175
ட் ද 0.0010573
ந் ද 0.0016447
கெ ද 0.0001175
ஜ ද 0.0001175
யி ද 0.0664944
சா ද 0.0003524
லு ද 0.0004699
அ ද 0.0004699
று ද 0.0002350
டீ ද 0.0004699
ர ද 0.0001175
ப் ද 0.0001175
னா ද 0.0001175
ம் ද 0.0003524
ற் ද 0.0217340
லெ ද 0.0002350
டா ද 0.0004699
டி ද 0.0071664
மீ ද 0.0002350
டு ද 0.0027021
ல் ද 0.0009398
தி ද 0.0125705
ப ද 0.0001175
பா ද 0.0001175
தை ද 0.0071664
டூ ද 0.0001175
ருஓ ද 0.0001175
மே ද 0.0004699
ஹா ද 0.0002350
ன ද 0.0011748
NULL ද 0.0202068
தெ ද 0.0347744
னி ද 0.0143327
ஹு ද 0.0001175
உ ද 0.0001175
ட ද 0.0126880
பி ද 0.0001175
ய ද 0.0001175
ல். ද 0.0001175
பு ද 0.0004699
ரொ ද 0.0001175
ம. ද 0.0001175
ஸ் ද 0.0002350
யோ ද 0.0001175
பீ. පී. 0.4545455
யி පී. 0.0909091
.. පී. 0.1818182
... පී. 0.0909091
ரு පී. 0.0909091
பி පී. 0.0909091
NULL තු 0.0302911
ணீ තු 0.0011802
க் තු 0.0940205
மே තු 0.0003934
ன තු 0.0003934
மூ තු 0.0023603
பி තු 0.0007868
ஹு තු 0.0007868
ட තු 0.0995279
தொ තු 0.0003934
றி තු 0.0003934
ஞ் තු 0.0003934
ய තු 0.0003934
து තු 0.5696302
து் තු 0.0003934
ர் තු 0.0007868
க තු 0.0007868
வே තු 0.0003934
நீ තු 0.0019670
கு තු 0.0114083
ந் තු 0.0011802
வு තු 0.0007868
மி තු 0.0003934
ஊ තු 0.0003934
ண் තු 0.0011802
வ තු 0.0003934
ட் තු 0.0153423
து‎ තු 0.0003934
துஓ තු 0.0011802
று තු 0.0007868
மு තු 0.0003934
ம் තු 0.0003934
றூ තු 0.0003934
ற் තු 0.0031471
கொ තු 0.0003934
ர තු 0.0011802
வீ තු 0.0003934
த[ තු 0.0003934
தூ තු 0.0015736
த் තු 0.1439811
ழ තු 0.0003934
ற තු 0.0011802
த තු 0.0039339
ப තු 0.0003934
தி තු 0.0007868
டு තු 0.0023603
டீ චී 0.0476190
சீ චී 0.7142857
ச் චී 0.2380952
ட ඨ 0.4545455
மு ඨ 0.0909091
தை ඨ 0.0909091
ட் ඨ 0.0909091
லூ ඨ 0.0909091
ஜூ ඨ 0.0909091
ல் ඨ 0.0909091
ரு ලේ 0.0007184
பா ලේ 0.0007184
இ ලේ 0.0007184
ப ලේ 0.0014368
தி ලේ 0.0007184
ல் ලේ 0.0136494
லெ ලේ 0.0229885
ர ලේ 0.0014368
கே ලේ 0.0007184
ளெ ලේ 0.0007184
னை ලේ 0.0007184
ரா ලේ 0.0028736
வே ලේ 0.0007184
ந் ලේ 0.0007184
வ ලේ 0.0014368
ரெ ලේ 0.0007184
லோ ලේ 0.0007184
லா ලේ 0.0043103
ஸ் ලේ 0.0014368
டை ලේ 0.0007184
கி ලේ 0.0014368
ள ලේ 0.0021552
ளீ ලේ 0.0007184
ம ලේ 0.0021552
ல ලේ 0.0581897
ளே ලේ 0.0114943
லி ලේ 0.0007184
பி ලේ 0.0014368
ளா ලේ 0.0028736
லே ලේ 0.7543103
ட ලේ 0.0021552
ளை ලේ 0.0272989
NULL ලේ 0.0064655
ணி ලේ 0.0007184
ய் ලේ 0.0035920
ழு ලේ 0.0043103
லே​ ලේ 0.0007184
லை ලේ 0.0610632
கௌ ගෞ 1.0000000
ப் ඹි 0.0029240
மி ඹි 0.0146199
ஹி ඹි 0.0029240
பி ඹි 0.4941520
பே ඹි 0.0029240
ப ඹි 0.0029240
ம் ඹි 0.4795322
ஷோ ශො 1.0000000
ய බ් 0.0034014
ப் බ් 0.5952381
ம் බ් 0.0374150
போ බ් 0.0034014
பு බ් 0.0782313
கி බ් 0.0034014
பெ බ් 0.0102041
வ் බ් 0.0238095
ர் බ් 0.0034014
ப බ් 0.0136054
பா බ් 0.0034014
ட் බ් 0.0034014
NULL බ් 0.0102041
பீ බ් 0.0068027
வி බ් 0.0034014
பி බ් 0.1938776
பே බ් 0.0034014
ஹ බ් 0.0034014
ஜி ජී 0.2307692
ஜ ජී 0.0769231
ஜீ ජී 0.6923077
எ බ්‍ 0.0181818
ப் බ්‍ 0.1454545
கோ බ්‍ 0.0181818
பீ බ්‍ 0.0181818
ச බ්‍ 0.0181818
பி බ්‍ 0.6909091
வி බ්‍ 0.0181818
பே බ්‍ 0.0181818
பா බ්‍ 0.0181818
வ் බ්‍ 0.0181818
ப බ්‍ 0.0181818
ணா‍ නා 0.0010730
னா නා 0.4152361
மு නා 0.0005365
டி නා 0.0005365
ண නා 0.0048283
த் නා 0.0048283
ர නා 0.0005365
வீ නා 0.0005365
வா නා 0.0005365
த නා 0.0010730
ப නා 0.0010730
ரு නා 0.0010730
தே නා 0.0010730
ண் නා 0.0010730
‍ නා 0.0005365
நாஓ නා 0.0010730
வ නා 0.0010730
ரா නා 0.0005365
யு නා 0.0005365
ஹ නා 0.0005365
னை නා 0.0005365
நெ නා 0.0010730
னோ නා 0.0005365
னே නා 0.0010730
ழை නා 0.0010730
ல නා 0.0032189
ய නා 0.0010730
ஒ නා 0.0005365
கா නා 0.0010730
தா නා 0.0048283
ஸ் නා 0.0005365
ன் නා 0.0026824
ர் නා 0.0005365
நா නා 0.3910944
கி නා 0.0005365
பு නා 0.0069742
ணா නා 0.0321888
னு නා 0.0021459
பெ නා 0.0016094
க නා 0.0026824
பொ නා 0.0005365
ண‎ නා 0.0005365
ங்‎ නා 0.0005365
ச නා 0.0005365
ந නා 0.0171674
மெ නා 0.0005365
னாஓ නා 0.0026824
NULL නා 0.0177039
னா‎ නා 0.0005365
நே නා 0.0010730
ன නා 0.0574034
உ නා 0.0005365
ட නා 0.0048283
னி නා 0.0005365
ணா் නා 0.0005365
தோ ගො 0.0001922
மொ ගො 0.0003843
NULL ගො 0.0069178
ன ගො 0.0003843
ஹா ගො 0.0001922
ட ගො 0.0003843
உ ගො 0.0001922
பி ගො 0.0007686
ஞ ගො 0.0003843
ரி ගො 0.0001922
ம ගො 0.0003843
தொ ගො 0.0015373
து ගො 0.0007686
ஒ ගො 0.0001922
கோ ගො 0.0253651
மா ගො 0.0001922
கா ගො 0.0019216
ர் ගො 0.0003843
ன் ගො 0.0001922
பெ ගො 0.0001922
க ගො 0.0076864
ஙெ ගො 0.0001922
கொ‎ ගො 0.0003843
கெ ගො 0.0019216
மி ගො 0.0001922
வ ගො 0.0026902
ண் ගො 0.0001922
கௌ ගො 0.0003843
அ ගො 0.0001922
ணை ගො 0.0005765
கூ ගො 0.0001922
துஓ ගො 0.0001922
பே ගො 0.0001922
ஹே ගො 0.0003843
னோ ගො 0.0003843
யி ගො 0.0003843
ம் ගො 0.0007686
வெ ගො 0.0009608
னா ගො 0.0005765
eell ගො 0.0001922
ஹொ ගො 0.0015373
த் ගො 0.0009608
கோ ගො 0.0001922
ப் ගො 0.0001922
கே ගො 0.0001922
ர ගො 0.0005765
கொ ගො 0.8660646
ப ගො 0.0030746
னொ ගො 0.0001922
த ගො 0.0003843
பா ගො 0.0005765
டு ගො 0.0003843
தி ගො 0.0003843
கொ ගො 0.0655265
டு ධු 0.0666667
து ධු 0.9333333
ரு රුෙ 1.0000000
வை බේ 0.0053476
பே බේ 0.6737968
பி බේ 0.0053476
வே බේ 0.0160428
பீ බේ 0.0053476
பை බේ 0.0160428
பெ බේ 0.1497326
ப බේ 0.0320856
மா බේ 0.0053476
கொ බේ 0.0053476
கா බේ 0.0053476
வூ බේ 0.0053476
போ බේ 0.0053476
ம் බේ 0.0320856
பே‍ බේ 0.0053476
வெ බේ 0.0320856
க ඩි. 0.1428571
டி. ඩි. 0.2857143
டீ. ඩි. 0.1428571
.. ඩි. 0.2857143
. ඩි. 0.1428571
ஹொ හ 0.0004887
ப் හ 0.0007330
ர හ 0.0003665
ற் හ 0.0003665
ம் හ 0.0007330
வெ හ 0.0002443
யா හ 0.0014661
மு හ 0.0002443
ஹ‍ හ 0.0001222
ல் හ 0.0243128
ப හ 0.0004887
இ හ 0.0002443
ட் හ 0.0001222
ந் හ 0.0002443
ஜ හ 0.0003665
கை හ 0.0002443
கெ හ 0.0002443
வை හ 0.0001222
சா හ 0.0063531
று හ 0.0006109
அ හ 0.0094075
சி හ 0.0007330
ய හ 0.0015883
ஹெ හ 0.0020770
ஹ‎ හ 0.0001222
ங் හ 0.0003665
ஹாஓ හ 0.0001222
னு හ 0.0002443
கஓ හ 0.0001222
ஹ் හ 0.0003665
ங හ 0.0001222
ஸ் හ 0.0017104
ணு හ 0.0001222
ஹஓ හ 0.0003665
நா හ 0.0009774
ஸ හ 0.0003665
ன හ 0.0039096
ஹா හ 0.0246793
மே හ 0.0353085
NULL හ 0.0210141
ஐ හ 0.0006109
னி හ 0.0004887
ஹு හ 0.0003665
ட හ 0.0070861
உ හ 0.0006109
த் හ 0.0004887
செ හ 0.0001222
ண හ 0.0004887
கே හ 0.0003665
கொ හ 0.0001222
ழ் හ 0.0491142
காஓ හ 0.0003665
த හ 0.0009774
ரு හ 0.0001222
வ හ 0.0004887
நி හ 0.0002443
ஊ හ 0.0041539
ண் හ 0.0003665
கு හ 0.0100183
ஹே හ 0.0006109
ஹ හ 0.6197923
ஹை හ 0.0012217
து හ 0.0001222
கா හ 0.0261454
ம හ 0.0006109
கி හ 0.0002443
க හ 0.0861332
ர் හ 0.0058644
ன் හ 0.0007330
ஆ හ 0.0013439
எ හ 0.0001222
ந හ 0.0006109
ச හ 0.0335980
க் හ 0.0010996
ஹோ හ 0.0002443
ரி හ 0.0015883
லூ හ 0.0007330
ஹூ හ 0.0001222
லே හ 0.0003665
வி හ 0.0002443
ல் ල්‍ 1.0000000
யே යෙ 0.1176471
யெ යෙ 0.2941176
ஜே යෙ 0.0294118
யா යෙ 0.0588235
யொ යෙ 0.0294118
எ යෙ 0.0588235
ஜெ යෙ 0.0294118
கீ යෙ 0.0294118
தை යෙ 0.0588235
ய යෙ 0.2941176
லி ළී 0.7500000
வ ළී 0.2500000
வெ චෛ 0.1428571
மெ චෛ 0.1428571
சை චෛ 0.4285714
வை චෛ 0.1428571
ஹெ චෛ 0.1428571
ணி ජේ 0.0138889
NULL ජේ 0.0138889
ஜே. ජේ 0.0138889
ஜ ජේ 0.0555556
ஜ் ජේ 0.0138889
ஜீ ජේ 0.0138889
ஜே ජේ 0.7222222
" ජේ 0.0277778
ஜெ ජේ 0.0277778
ஜி ජේ 0.0138889
... ජේ 0.0138889
பே ජේ 0.0416667
சே ජේ 0.0138889
பெ ජේ 0.0138889
னை නෛ 1.0000000
ஸூ සූ 0.0250000
சு සූ 0.0375000
ம௲ සූ 0.0125000
சி සූ 0.0125000
சூ සූ 0.8875000
து සූ 0.0125000
ஸு සූ 0.0125000
ல පෙෙ 0.3333333
யி පෙෙ 0.3333333
ன் පෙෙ 0.3333333
L.. ල්. 0.2000000
ல். ල්. 0.6000000
ல. ල්. 0.2000000
க் ග්ෙ 1.0000000
கா සෞ 0.5000000
தா සෞ 0.5000000
ம මෘ 0.0222222
ர் මෘ 0.4222222
மு මෘ 0.4222222
த் මෘ 0.0444444
மே මෘ 0.0222222
மூ මෘ 0.0666667
ல‍‍‍ ළ‍ 1.0000000
தொ තො 1.0000000
த ඳෙ 0.3333333
ந் ඳෙ 0.1666667
ன் ඳෙ 0.1666667
தெ ඳෙ 0.3333333
நோ ග්‍ 0.0078740
அ ග්‍ 0.0078740
கி‍ ග්‍ 0.0078740
ஸ் ග්‍ 0.0236220
கி ග්‍ 0.7401575
ஹி ග්‍ 0.0078740
க ග්‍ 0.0314961
மை ග්‍ 0.0078740
கு ග්‍ 0.0157480
ங் ග්‍ 0.0078740
க் ග්‍ 0.1181102
கா ග්‍ 0.0078740
ப் ග්‍ 0.0078740
ஹா ග්‍ 0.0078740
த் ද්් 0.5000000
தி ද්් 0.5000000
கே තේ 0.0037313
யொ තේ 0.0037313
த் තේ 0.0522388
தே‎ තේ 0.0111940
ங் තේ 0.0037313
தே තේ 0.6156716
தெ‎ තේ 0.0037313
தா තේ 0.0037313
த තේ 0.0671642
ன் තේ 0.0223881
தை තේ 0.0149254
லை තේ 0.0410448
NULL තේ 0.0074627
தோ තේ 0.0037313
யி තේ 0.0746269
தெ තේ 0.0522388
நெ තේ 0.0037313
வி තේ 0.0037313
ட තේ 0.0111940
நீ භා 0.0273973
NULL භා 0.0273973
லி භා 0.0136986
ண் භා 0.0136986
வா භා 0.0273973
ஹா භා 0.0410959
இ භා 0.0136986
ப භා 0.0273973
. භා 0.0136986
பா භා 0.4931507
பை භා 0.2465753
தி භා 0.0273973
யி භා 0.0273973
த் තෟ 1.0000000
ந் ඳ 0.4010349
NULL ඳ 0.0025873
ன ඳ 0.0025873
ண் ඳ 0.0077620
ட ඳ 0.0194049
று ඳ 0.0012937
ரோ ඳ 0.0012937
னை ඳ 0.0064683
சா ඳ 0.0012937
ற் ඳ 0.0012937
ங் ඳ 0.0012937
டா ඳ 0.0025873
சி ඳ 0.0012937
து ඳ 0.0025873
த் ඳ 0.0064683
ல ඳ 0.0025873
ண ඳ 0.0064683
ஞ் ඳ 0.0025873
ர ඳ 0.0038810
கா ඳ 0.0077620
ன் ඳ 0.0155239
ப ඳ 0.0038810
த ඳ 0.4864166
தா ඳ 0.0038810
பா ඳ 0.0038810
தே ඳ 0.0025873
தி ඳ 0.0012937
க் ඛ්‍ 0.3333333
தா ඛ්‍ 0.3333333
ர ඛ්‍ 0.3333333
ம் ඔු 0.5000000
பு ඔු 0.5000000
வா වේ 0.0083857
வீ වේ 0.0104822
வெ වේ 0.1844864
ற் වේ 0.0020964
டா වේ 0.0020964
வே‎ වේ 0.0041929
போ වේ 0.0020964
டி වේ 0.0020964
பெ වේ 0.0020964
தி වේ 0.0020964
ல் වේ 0.0020964
க වේ 0.0062893
வ் වේ 0.0020964
‍‎‍ වේ 0.0020964
வ වේ 0.0607966
கை වේ 0.0020964
NULL වේ 0.0041929
வே වේ 0.6771488
சே වේ 0.0020964
வை වේ 0.0020964
வி වේ 0.0188679
ச ෂු 0.2000000
ஷு ෂු 0.4000000
சு ෂු 0.4000000
... කේ. 0.1111111
கே. කේ. 0.5555556
. කේ. 0.2222222
கெ. කේ. 0.1111111
த் තො 0.0016584
து තො 0.0099502
கொ තො 0.0381426
தொ තො 0.7097844
தா තො 0.0016584
ட் තො 0.0016584
நொ තො 0.0016584
நி තො 0.0116086
ன තො 0.0016584
தோ තො 0.1310116
ந තො 0.0016584
NULL තො 0.0199005
ஜ තො 0.0016584
தொ තො 0.0563847
ஹே තො 0.0016584
.. තො 0.0016584
யி තො 0.0049751
னோ තො 0.0016584
டீ තො 0.0016584
பெ ඹෑ 0.0576923
பே ඹෑ 0.3653846
பா ඹෑ 0.0576923
வெ ඹෑ 0.0192308
ப ඹෑ 0.0384615
ம் ඹෑ 0.4615385
ன் ඬි 0.0886076
தி ඬි 0.0506329
டி ඬි 0.5822785
ந் ඬි 0.0253165
ண் ඬි 0.2151899
கா ඬි 0.0126582
ய ඬි 0.0126582
ட் ඬි 0.0126582
பி බො 0.0019763
யு බො 0.0019763
பொ බො 0.0671937
NULL බො 0.0019763
ஜ බො 0.0039526
மொ බො 0.0059289
‎ බො 0.0079051
ஙெ බො 0.0019763
வொ බො 0.0197628
‍‎‍ බො 0.0019763
ப බො 0.0177866
பொ බො 0.7312253
​ බො 0.0019763
பு බො 0.0019763
பெ බො 0.0059289
வோ බො 0.0039526
போ බො 0.0849802
ம බො 0.0019763
கொ බො 0.0079051
போ බො 0.0276680
ச චා 0.0188679
ஸெ චා 0.0188679
வா චා 0.0377358
லா චා 0.0377358
பே චා 0.0188679
ஷா චා 0.0188679
ச் චා 0.1132075
சா චා 0.7358491
பி භි 0.7500000
வி භි 0.0833333
ஹி භි 0.0833333
ர භි 0.0833333
சொ චො 1.0000000
ந் ථා 0.0232558
க் ථා 0.0232558
ம் ථා 0.0465116
NULL ථා 0.1162791
ட் ථා 0.0232558
லை ථා 0.3023256
நி ථා 0.0930233
ன ථා 0.0232558
தா ථා 0.1627907
ப ථා 0.0930233
கூ ථා 0.0465116
டு ථා 0.0465116
பு සෙ 0.0101010
சை සෙ 0.0025253
செ සෙ 0.8333333
ம සෙ 0.0101010
ம் සෙ 0.0050505
eell සෙ 0.0025253
சே සෙ 0.0303030
சா සෙ 0.0025253
ட සෙ 0.0025253
ஸெ සෙ 0.0530303
நி සෙ 0.0025253
ஸ සෙ 0.0075758
ஸே සෙ 0.0050505
ச සෙ 0.0252525
கு සෙ 0.0025253
NULL සෙ 0.0050505
கை ගෛ 1.0000000
NULL නැ‍‍ 1.0000000
ஹெ නෙ 0.0034965
ண නෙ 0.0034965
ல නෙ 0.0034965
னெ නෙ 0.0979021
னே නෙ 0.0909091
தே නෙ 0.0034965
ணா නෙ 0.0034965
கி නෙ 0.0034965
த නෙ 0.0069930
நி නෙ 0.0069930
ன නෙ 0.0629371
நே නෙ 0.0244755
NULL නෙ 0.0174825
ந නෙ 0.0034965
‎ නෙ 0.0034965
ஹி නෙ 0.0034965
நெ නෙ 0.6433566
தெ නෙ 0.0139860
னை නෙ 0.0034965
போ පූ 0.0178571
கு පූ 0.0178571
வ පූ 0.0178571
பூ පූ 0.7321429
பு පූ 0.2142857
வ මො 0.0019493
ஆ මො 0.0038986
மோ මො 0.0623782
NULL මො 0.0058480
மொ මො 0.7894737
‎ මො 0.0116959
ஹோ මො 0.0019493
அ මො 0.0019493
மா මො 0.0058480
மோ මො 0.0136452
ர මො 0.0019493
மு මො 0.0272904
ம මො 0.0038986
மொ මො 0.0584795
பொ මො 0.0019493
கி මො 0.0019493
வொ මො 0.0019493
ப මො 0.0019493
நு මො 0.0019493
ஒ ඔ් 1.0000000
ந் න්‍ 0.0833333
ன் න්‍ 0.5000000
னி න්‍ 0.2500000
ண் න්‍ 0.1666667
உ යූ 0.2000000
யூ යූ 0.6000000
யு යූ 0.2000000
பீ න් 0.0000937
ன்‍‌ න් 0.0000937
ன்ஓ න් 0.0007496
வ න් 0.0002811
ண் න් 0.0343858
ழி න් 0.0012180
ஹ න් 0.0004685
னோ න් 0.0006559
ஹே න් 0.0009369
கொ න් 0.0000937
வா න් 0.0000937
ண න් 0.0004685
த் න් 0.0076829
ரு න් 0.0001874
த න් 0.0000937
க் න් 0.0006559
ந න් 0.0009369
ன். න් 0.0007496
லை න් 0.0014054
வி න් 0.0005622
ரி න් 0.0002811
ம න් 0.0004685
ஞி න් 0.0001874
னே න් 0.0002811
கா න් 0.0018739
ஞ் න් 0.0023424
ல න් 0.0000937
னெ න් 0.0001874
து න් 0.0000937
ர் න් 0.0010306
ன் න් 0.5215029
க න් 0.0000937
ங்ஓ න් 0.0000937
ள் න් 0.0000937
ந் න් 0.3339267
வு න් 0.0000937
ட் න් 0.0009369
னை න් 0.0000937
று න් 0.0000937
மு න් 0.0001874
ன்' න් 0.0000937
டி න් 0.0001874
யா න් 0.0001874
ம் න් 0.0023424
ர න් 0.0015928
ப் න් 0.0003748
ப න් 0.0003748
தி න් 0.0003748
ல் න් 0.0010306
டு න් 0.0001874
NULL න් 0.0130235
ஸ න් 0.0000937
ன න් 0.0113370
ஹா න් 0.0008432
பி න් 0.0000937
ட න් 0.0009369
னி න් 0.0121803
ங் න් 0.0367282
றை න් 0.0000937
கோ න් 0.0000937
மா න් 0.0001874
ய න් 0.0004685
பு. න් 0.0000937
லா න් 0.0000937
ஸ் න් 0.0003748
ங න් 0.0002811
ங்‎ න් 0.0000937
னு න් 0.0004685
ழ ඟෙ 0.5000000
கே ඟෙ 0.5000000
னா ණි 0.0010834
ளி ණි 0.0021668
ம் ණි 0.0010834
ற் ණි 0.0021668
னீ ණි 0.0032503
டி ණි 0.0140845
ழை ණි 0.0216685
ல ණි 0.0032503
ய ණි 0.0238353
ண ණි 0.0021668
சி ණි 0.0010834
லி ණි 0.0010834
ப் ණි 0.0032503
சீ ණි 0.0010834
ன் ණි 0.0010834
பா ණි 0.0010834
கி ණි 0.0010834
னு ණි 0.0010834
ணீ ණි 0.0032503
ணி ණි 0.4355363
NULL ණි 0.0043337
ன ණි 0.0032503
நி ණි 0.0032503
னை ණි 0.0086674
ஹே ණි 0.0010834
னி ණි 0.4517876
யே ණි 0.0032503
நி නි 0.2131560
ண் නි 0.0021567
ஜ නි 0.0003595
கெ නි 0.0010784
யூ නි 0.0003595
ந் නි 0.0007189
கு නි 0.0057513
நீ නි 0.0046729
சா නි 0.0007189
ஹி නි 0.0010784
நெ නි 0.0017973
.. නි 0.0003595
னை නි 0.0007189
அ නි 0.0021567
நோ නි 0.0003595
று නි 0.0007189
வீ නි 0.0420561
சீ නි 0.0003595
த் නි 0.0007189
ண නි 0.0003595
டி නි 0.0104242
மு නි 0.0007189
ற் නි 0.0003595
ம் නි 0.0043134
ளி නි 0.0007189
தி නි 0.0068296
டு නි 0.0017973
இ නි 0.0611071
த නි 0.0003595
ன නි 0.0035945
ஸ නි 0.0007189
ணி නි 0.1175413
NULL නි 0.0104242
ய் නි 0.0007189
யே නි 0.0014378
ணி‎ නි 0.0003595
னி නි 0.3946801
தெ නි 0.0003595
ரி නි 0.0010784
வி නි 0.0355859
உ නි 0.0014378
மா නි 0.0154565
கோ නි 0.0003595
நி் නි 0.0007189
ஒ නි 0.0039540
து නි 0.0064702
ல නි 0.0014378
சு නි 0.0003595
ய නි 0.0010784
னீ නි 0.0003595
னே නි 0.0003595
ங் නි 0.0007189
க නි 0.0003595
பெ නි 0.0003595
ள் නි 0.0003595
னு නි 0.0003595
கி නි 0.0014378
பு නි 0.0093458
ன் නි 0.0021567
. නි 0.0003595
ர் නි 0.0183321
லா නි 0.0014378
டு ටුෙ 0.2500000
ட் ටුෙ 0.2500000
ற் ටුෙ 0.2500000
றை ටුෙ 0.2500000
' ' 0.3191489
டு ' 0.0425532
ஷா ' 0.0425532
டை ' 0.0212766
ம் ' 0.0638298
ஜே ' 0.0425532
NULL ' 0.4255319
கா ' 0.0425532
ரு න 0.0001934
ழ න 0.0052224
த න 0.0090909
கொ න 0.0000967
வா න 0.0005803
ண න 0.0433269
த் න 0.0000967
' න 0.0001934
ஹ න 0.0004836
ரை න 0.0000967
னோ න 0.0000967
நெ න 0.0002901
கு න 0.0010638
ன்ஓ න 0.0000967
ண் න 0.0011605
நி න 0.0004836
வ න 0.0027079
நை න 0.0006770
தா න 0.0000967
ன் න 0.0088008
பொ න 0.0000967
க න 0.0044487
கி න 0.0000967
ணா න 0.0003868
ள் න 0.0009671
னஓ න 0.0002901
ம න 0.0019342
னே න 0.0017408
னீ න 0.0000967
கா න 0.0110251
ல න 0.0163443
னெ න 0.0006770
து න 0.0065764
லே න 0.0001934
யே න 0.0172147
ரி න 0.0002901
க் න 0.0070600
ச න 0.0000967
ந න 0.0617988
" න 0.0000967
தி‎ න 0.0000967
னோ න 0.0000967
லை න 0.0013540
இ න 0.0004836
னொ න 0.0000967
ப න 0.0009671
தி න 0.0015474
ல் න 0.0002901
டா න 0.0011605
மு න 0.0000967
டி න 0.0009671
யா න 0.0000967
னா න 0.0054159
ற் න 0.0004836
ம் න 0.0220503
ர න 0.0025145
ப் න 0.0000967
னை න 0.0152805
று න 0.0000967
ணை න 0.0013540
ரா න 0.0006770
யி න 0.0547389
கை න 0.0000967
ஜ න 0.0001934
வு න 0.0000967
ந் න 0.0009671
ட் න 0.0005803
நா න 0.0034816
ணு න 0.0000967
டை න 0.0000967
பு න 0.0173114
னு න 0.0004836
ங் න 0.0003868
ய න 0.0036750
ஸி න 0.0001934
சி න 0.0007737
லி න 0.0001934
பி න 0.0007737
ட න 0.0016441
னி න 0.0008704
NULL න 0.0187621
தோ න 0.0002901
ழு න 0.0005803
ன න 0.6316248
தை න 0.0004836
நே න 0.0000967
த் ත‍ 0.3333333
ப ත‍ 0.3333333
த ත‍ 0.3333333
வீ. වී. 1.0000000
ச் චි 0.0504587
வி චි 0.0137615
ற චි 0.0045872
ர். චි 0.0045872
ன චි 0.0091743
கோ චි 0.0045872
சீ චි 0.0045872
ஞ் චි 0.0045872
சு චි 0.0091743
ய චි 0.0045872
சி චි 0.8623853
டி චි 0.0137615
ச චි 0.0091743
ஞி චි 0.0045872
ன் ඤ් 0.0400000
க் ඤ් 0.1600000
ங் ඤ් 0.0400000
ந் ඤ් 0.0400000
ஞ் ඤ් 0.6400000
நி ඤ් 0.0400000
க ඤ් 0.0400000
ய் කෛ 0.3333333
க் කෛ 0.3333333
கா කෛ 0.3333333
வெ තෑ 0.0158730
னே තෑ 0.0158730
கே තෑ 0.0158730
த் තෑ 0.0317460
தா තෑ 0.1269841
த තෑ 0.1111111
தே තෑ 0.5555556
தெ තෑ 0.1269841
லெ ලු 0.0008857
மு ලු 0.0017715
ளூ ලු 0.0035430
லு‍ ලු 0.0008857
ல ලු 0.0070859
லி ලු 0.0239150
து ලු 0.0097431
ர ලු 0.0017715
பூ ලු 0.0008857
ழுஓ ලු 0.0008857
லு‎ ලු 0.0017715
லுஓ ලු 0.0017715
ழூ ලු 0.0008857
லோ ලු 0.0008857
ளு ලු 0.1355182
டு ලු 0.0070859
னு ලු 0.0008857
ள் ලු 0.0008857
ல் ලු 0.0035430
தி ලු 0.0265722
ந் ලු 0.0008857
ழு ලු 0.0673162
NULL ලු 0.0017715
ண் ලු 0.0008857
வஓ ලු 0.0008857
யு ලු 0.0008857
ஹ ලු 0.0008857
ரி ලු 0.0008857
ளோ ලු 0.0008857
லூ ලු 0.0124004
லு ලු 0.6811337
க ඛ 0.8333333
ம ඛ 0.1666667
டி ඞි 1.0000000
ன் ංො 0.5000000
கொ ංො 0.5000000
தி ධි‍ 1.0000000
தே ත්ෙ 1.0000000
க කූ 0.0322581
கி කූ 0.0161290
ஹி කූ 0.0161290
கூ කූ 0.3548387
கு කූ 0.5645161
ட කූ 0.0161290
ழ் මෙ 0.0065359
இ මෙ 0.0196078
ரா මෙ 0.0326797
ரு මෙ 0.0065359
கீ මෙ 0.0065359
ஒ මෙ 0.0065359
மே මෙ 0.1176471
மி මෙ 0.0065359
ம මෙ 0.0196078
மெ මෙ 0.7450980
மௌ මෙ 0.0065359
NULL මෙ 0.0065359
மீ මෙ 0.0196078
ஹே දේ 0.0022026
தெ දේ 0.1277533
வி දේ 0.0022026
ட දේ 0.0110132
ரீ දේ 0.0022026
லை දේ 0.0022026
NULL දේ 0.0088106
டே දේ 0.0022026
தே දේ 0.7709251
தி දේ 0.0022026
ள் දේ 0.0022026
பா දේ 0.0022026
த දේ 0.0418502
தா දේ 0.0022026
கோ දේ 0.0066079
கா දේ 0.0044053
ஸி දේ 0.0022026
த் දේ 0.0044053
ம දේ 0.0022026
ய் ෂේ 0.2000000
மை ෂේ 0.2000000
லை ෂේ 0.2000000
ஷே ෂේ 0.4000000
கெ ගී 0.0454545
க ගී 0.0454545
கி ගී 0.1818182
கீ ගී 0.7272727
ரு ෆු 0.5000000
பு ෆු 0.5000000
ப் පේ 0.0524781
ஜெ පේ 0.0029155
டி පේ 0.0029155
ம පේ 0.0058309
ங் පේ 0.0029155
க පේ 0.0058309
பெ පේ 0.0991254
பை පේ 0.0058309
ப පේ 0.0145773
ன் පේ 0.0029155
ரே පේ 0.0029155
மே පේ 0.0029155
NULL පේ 0.0029155
ஜே පේ 0.0116618
ழு පේ 0.0029155
கு පේ 0.0029155
‎ පේ 0.0058309
யே පේ 0.0029155
நெ පේ 0.0058309
பே පේ 0.7609329
லே පේ 0.0029155
NULL ණී 0.0416667
ணி ණී 0.3333333
ணீ ණී 0.1250000
னி ණී 0.5000000
னு ණූ 1.0000000
பா ඉ. 0.3333333
தை ඉ. 0.3333333
.. ඉ. 0.3333333
பு බූ 0.3000000
பூ බූ 0.5500000
NULL බූ 0.1000000
போ බූ 0.0500000
எ අැ 1.0000000
க රෙ 0.0100000
தி රෙ 0.0300000
பு රෙ 0.0100000
றே රෙ 0.0100000
ரு රෙ 0.0200000
ரே රෙ 0.0900000
ர் රෙ 0.0100000
ப රෙ 0.0200000
ர රෙ 0.1700000
ல රෙ 0.0100000
டி රෙ 0.0100000
றை රෙ 0.0200000
யி රෙ 0.0300000
நெ රෙ 0.0100000
அ රෙ 0.0100000
ரெ රෙ 0.5000000
NULL රෙ 0.0200000
ஓ රෙ 0.0100000
மெ රෙ 0.0100000
தை තෛ 0.8333333
த் තෛ 0.1666667
லை ලෙ 0.0122249
கு ලෙ 0.0024450
ஜ ලෙ 0.0024450
NULL ලෙ 0.0073350
ளை ලෙ 0.0024450
லு ලෙ 0.0024450
லே ලෙ 0.3300733
ளெ ලෙ 0.0024450
த் ලෙ 0.0048900
ளே ලෙ 0.0122249
ல ලෙ 0.0806846
றி ලෙ 0.0048900
வெ ලෙ 0.0024450
ளி ලෙ 0.0024450
டி ලෙ 0.0024450
லெ ලෙ 0.5183374
ள ලෙ 0.0024450
லா ලෙ 0.0024450
லோ ලෙ 0.0024450
ரு ලෙ 0.0024450
ன் ණ් 0.1038961
வ் ණ් 0.0032468
த ණ් 0.0032468
பை ණ් 0.0032468
னு ණ් 0.0032468
ல் ණ් 0.0064935
க ණ් 0.0032468
ம் ණ් 0.0064935
ங் ණ් 0.0032468
ண' ණ් 0.0032468
த் ණ් 0.0097403
லி ණ් 0.0032468
ண ණ් 0.0097403
ந் ණ් 0.0194805
NULL ණ් 0.0064935
ணி ණ් 0.0032468
மூ ණ් 0.0064935
ண் ණ් 0.7954545
நி ණ් 0.0064935
யூ යු 0.2416667
ந යු 0.0083333
ச යු 0.0250000
லை යු 0.0083333
நி යු 0.0083333
அ යු 0.0083333
யு යු 0.5500000
ஷ යු 0.0083333
து යු 0.0083333
ய යු 0.0083333
சு යු 0.0083333
கோ යු 0.0416667
ப යු 0.0083333
இ යු 0.0333333
ணு යු 0.0083333
ழ යු 0.0083333
சை යු 0.0166667
த ත. 1.0000000
கு ගෘ 0.5000000
ரூ ගෘ 0.5000000
டா ඬා 0.5000000
தா ඬා 0.5000000
ந் දෑ 0.0111111
வெ දෑ 0.0111111
தீ දෑ 0.0111111
வு දෑ 0.0111111
எ දෑ 0.0111111
த දෑ 0.0444444
தா දෑ 0.0777778
ஸ் දෑ 0.0111111
இ දෑ 0.0111111
ஹ දෑ 0.0111111
தெ දෑ 0.2111111
தே දෑ 0.5777778
NULL නැ: 1.0000000
ச ස් 0.0092300
க் ස් 0.0029147
நூ ස් 0.0002429
ணி ස් 0.0002429
லை ස් 0.0019432
ஸெ ස් 0.0002429
லே ස් 0.0017003
வி ස් 0.0002429
ரி ස් 0.0007287
ச் ස් 0.0245324
ஸு ස් 0.0004858
ளே ස් 0.0004858
து ස් 0.0002429
சு ස් 0.0043721
கா ස් 0.0007287
ர் ස් 0.0017003
தா ස් 0.0004858
ள் ස් 0.0002429
க ස් 0.0041292
ஜீ ස් 0.0002429
கு ස් 0.0177314
ண் ස් 0.0004858
‍ ස් 0.0002429
நி ස් 0.0019432
வ ස් 0.0004858
ஹ ස් 0.0007287
யு ස් 0.0004858
ஸ்ஓ ස් 0.0019432
த் ස් 0.0004858
செ ස් 0.0019432
வா ස් 0.0002429
ரு ස් 0.0002429
ச்ஓ ස් 0.0002429
சூ ස් 0.0002429
ழு ස් 0.0004858
தோ ස් 0.0004858
NULL ස් 0.0150595
ன ස් 0.0004858
ஸ ස් 0.0089871
உ ස් 0.0002429
ட ස් 0.0002429
பி ස් 0.0031576
தெ ස් 0.0004858
சே ස් 0.0012145
ஸ். ස් 0.0004858
ள ස් 0.0021861
சி ස් 0.0055866
ஸி ස් 0.0019432
ஸூ ස් 0.0004858
ஸா ස් 0.0004858
. ස් 0.0002429
ஸ் ස් 0.8319164
லா ස් 0.0004858
பெ ස් 0.0007287
ஹ் ස් 0.0002429
பு ස් 0.0009716
ஸ்‎ ස් 0.0004858
வு ස් 0.0002429
ட் ස් 0.0004858
அ ස් 0.0002429
று ස් 0.0170027
.. ස් 0.0012145
சா ස් 0.0048579
ம் ස් 0.0034005
ளி ස් 0.0002429
சோ ස් 0.0004858
வூ ස් 0.0002429
மு ස් 0.0004858
சீ ස් 0.0004858
ர ස් 0.0007287
பா ස් 0.0002429
ஷ் ස් 0.0072869
சை ස් 0.0024290
தி ස් 0.0002429
க் කැෙ 0.3333333
கெ කැෙ 0.3333333
கே කැෙ 0.3333333
கொ ගෙ 0.0008881
க ගෙ 0.0053286
கி ගෙ 0.0008881
டு ගෙ 0.0017762
ழ ගෙ 0.0470693
இ ගෙ 0.0159858
ஹெ ගෙ 0.0071048
மா ගෙ 0.0008881
வீ ගෙ 0.0088810
கே ගෙ 0.1012433
கா ගෙ 0.0035524
கொ ගෙ 0.0097691
னா ගෙ 0.0008881
ஐ ගෙ 0.0008881
ச் ගෙ 0.0035524
கீ ගෙ 0.0008881
NULL ගෙ 0.0088810
கெஓ ගෙ 0.0008881
கை ගෙ 0.0026643
கெ ගෙ 0.7770870
மெ ගෙ 0.0008881
தி ජ් 0.0139860
க ජ් 0.0069930
ஸ் ජ් 0.0419580
த் ජ් 0.0069930
ர ජ් 0.0139860
வீ ජ් 0.0069930
ஜ்E ජ් 0.0069930
ப் ජ් 0.0139860
ஜி ජ් 0.0279720
டி ජ් 0.0069930
ச் ජ් 0.0419580
ரா ජ් 0.0209790
தை ජ් 0.0069930
ட் ජ් 0.0139860
ச ජ් 0.0279720
NULL ජ් 0.0279720
ஜ ජ් 0.0349650
ஜ் ජ් 0.6783217
ப் ෆී 0.0222222
பு ෆී 0.0222222
பீ ෆී 0.8000000
பி ෆී 0.0888889
பா ෆී 0.0222222
ய் ෆී 0.0222222
ட ෆී 0.0222222
ங் ගූ 0.5000000
கு ගූ 0.5000000
பெ ඹෙි 0.5000000
ம் ඹෙි 0.5000000
ஜ ඡා 0.3333333
ஜா ඡා 0.3333333
ஜ் ඡා 0.3333333
சூ ෂූ 1.0000000
ஷை ශෙ 1.0000000
கா කෑ 0.0649351
க කෑ 0.0519481
கே කෑ 0.4935065
கி කෑ 0.0129870
கெ කෑ 0.3636364
கூ කෑ 0.0129870
.. යි. 0.2500000
Y යි. 0.2500000
ஐ. යි. 0.2500000
வை. යි. 0.2500000
ர் ඹ් 0.0833333
ப ඹ් 0.1666667
பே ඹ් 0.0833333
பு ඹ් 0.0833333
ம் ඹ් 0.2500000
ஓ ඹ් 0.0833333
ஒ ඹ් 0.1666667
ப் ඹ් 0.0833333
NULL මෛ 0.0555556
மை මෛ 0.8333333
ர මෛ 0.0555556
வை මෛ 0.0555556
ஹெ හෙ 0.7420495
கே හෙ 0.0123675
கொ හෙ 0.0035336
கா හෙ 0.0017668
ஹொ හෙ 0.0035336
செ හෙ 0.0141343
னெ හෙ 0.0017668
ண හෙ 0.0017668
யெ හෙ 0.0017668
பொ හෙ 0.0035336
க හෙ 0.0123675
கி හෙ 0.0017668
பு හෙ 0.0017668
ரு හෙ 0.0035336
ப හෙ 0.0035336
வ හෙ 0.0053004
எ හෙ 0.0388693
NULL හෙ 0.0070671
கெ හෙ 0.0406360
ஷெ හෙ 0.0017668
‎ හෙ 0.0017668
கு හෙ 0.0017668
ஹே හෙ 0.0583039
ஹ හෙ 0.0335689
ஏ හෙ 0.0017668
ரூ බෟ 0.2500000
பு බෟ 0.2500000
ரீ බෟ 0.2500000
க் බෟ 0.2500000
ன் ඬු 0.1285714
கொ ඬු 0.0285714
டு ඬු 0.5428571
னு ඬු 0.0142857
ங் ඬු 0.0142857
ண் ඬු 0.2142857
தூ ඬු 0.0142857
து ඬු 0.0428571
சு චු 0.4285714
ச் චු 0.1428571
சூ චු 0.2857143
வு චු 0.1428571
லெ ළෑ 0.1428571
ளா ළෑ 0.1428571
லே ළෑ 0.2857143
வெ ළෑ 0.1428571
லா ළෑ 0.2857143
லே ල්ෙ 0.5000000
ல் ල්ෙ 0.5000000
உ උෟ 1.0000000
த் තී 0.2083333
தி තී 0.2083333
தீ තී 0.5833333
நா ඟු 0.0033113
ஹு ඟු 0.0496689
ன் ඟු 0.0430464
க ඟු 0.0099338
கி ඟු 0.0033113
NULL ඟු 0.0033113
க் ඟු 0.0033113
ங் ඟු 0.3509934
ந் ඟු 0.0264901
கு ඟු 0.4966887
ன ඟු 0.0033113
கொ ඟු 0.0033113
து ඟු 0.0033113
கி ය 0.0000816
க ය 0.0020411
தா ය 0.0003266
ன் ය 0.0048171
ர் ය 0.0044089
ல ය 0.0010614
ளே ය 0.0000816
து ය 0.0003266
கா ය 0.0022861
ம ය 0.0004082
தொ ය 0.0000816
ரி ය 0.0004899
யே ය 0.0000816
வி ය 0.0010614
லை ය 0.0013063
எ ය 0.0005715
ச ය 0.0009798
க் ය 0.0004082
ணி ය 0.0031842
தே ය 0.0004899
த ය 0.0059602
ரு ය 0.0059602
வா ය 0.0008981
தி. ය 0.0000816
வீ ය 0.0000816
யஓ ය 0.0000816
பொ ය 0.0000816
ரை ය 0.0031842
பே ය 0.0000816
யா் ය 0.0000816
ஹ ය 0.0002449
யு ය 0.0002449
ழி ය 0.0000816
வ ය 0.0018779
கு ය 0.0004082
வே ය 0.0001633
ஸ்‎ ය 0.0000816
பு ය 0.0025310
பெ ය 0.0001633
டை ය 0.0000816
யெ ය 0.0003266
ணு ය 0.0000816
ஸ் ය 0.0000816
ய ය 0.6798661
கோ ය 0.0000816
ங் ය 0.0055519
மை ය 0.0007348
ஷ ය 0.0000816
தெ ය 0.0003266
னி ය 0.0113488
உ ය 0.0000816
ட ය 0.0028576
பி ය 0.0003266
தை ය 0.0017146
ன ය 0.0017146
ஸ ය 0.0004899
றா ය 0.0000816
தோ ය 0.0001633
ய் ය 0.0008981
NULL ය 0.0367407
சை ය 0.0000816
ல் ය 0.0002449
தி ය 0.0531515
ற ය 0.0147779
இ ය 0.0006532
ப ය 0.0012247
ர ය 0.0051437
ப் ය 0.0467015
யா ය 0.0289027
ம் ය 0.0258001
மு ය 0.0002449
டா ය 0.0001633
டி ය 0.0229425
யி ය 0.0040823
சா ය 0.0001633
கா் ය 0.0000816
ணை ය 0.0002449
று ය 0.0001633
னை ය 0.0015513
ட் ය 0.0022861
யை ය 0.0001633
வு ය 0.0001633
கை ය 0.0001633
ஜ ය 0.0004899
ஊ උඃ 1.0000000
சா ෂා 0.0540541
தி ෂා 0.0270270
ஷா ෂා 0.8108108
பு ෂා 0.0270270
NULL ෂා 0.0270270
ஸா ෂා 0.0540541
.. ෆ්. 0.5000000
ப். ෆ්. 0.5000000
போ ෆ 0.0612245
பை ෆ 0.0204082
பெ ෆ 0.1836735
பே ෆ 0.0204082
பி ෆ 0.0204082
பா ෆ 0.0612245
அ ෆ 0.0204082
ர் ෆ 0.0612245
ப ෆ 0.5510204
மா සා 0.0046729
து සා 0.0023364
செ සා 0.0093458
ய සා 0.0023364
மை සා 0.0023364
யா සා 0.0116822
தி සා 0.0233645
டை සා 0.0093458
ஷா සා 0.0070093
பெ සා 0.0023364
பு සා 0.0443925
பா සා 0.0046729
ஸா සා 0.1869159
த සා 0.0023364
ஸ සා 0.0257009
ஸெ සා 0.0023364
ட் සා 0.0046729
NULL සා 0.0257009
ச සා 0.0327103
நீ සා 0.0023364
கு සා 0.0023364
சா සා 0.5887850
சா‎ සා 0.0023364
ம் ඹේ 0.4243421
ம ඹේ 0.0032895
NULL ඹේ 0.0164474
தை ඹේ 0.0032895
ண ඹේ 0.0032895
ப் ඹේ 0.0032895
வ ඹේ 0.0032895
வீ ඹේ 0.0032895
மே ඹේ 0.0065789
ப ඹේ 0.0361842
பே ඹේ 0.4375000
பெ ඹේ 0.0526316
பை ඹේ 0.0032895
கி ඹේ 0.0032895
ட் ද්‍ 0.0231660
த் ද්‍ 0.3281853
லை ද්‍ 0.0077220
NULL ද්‍ 0.0501931
ங் ද්‍ 0.1158301
ற் ද්‍ 0.0038610
தி ද්‍ 0.3745174
ல் ද්‍ 0.0193050
லூ ද්‍ 0.0386100
ரி ද්‍ 0.0038610
ச் ද්‍ 0.0038610
ஷா ද්‍ 0.0038610
த ද්‍ 0.0038610
ர் ද්‍ 0.0154440
ட ද්‍ 0.0077220
ய ඳු 0.0013889
து ඳු 0.5305556
த் ඳු 0.0097222
வா ඳු 0.0027778
ண் ඳු 0.0027778
யா ඳු 0.0013889
றை ඳු 0.0013889
ந் ඳු 0.4097222
NULL ඳු 0.0055556
டு ඳු 0.0097222
த ඳු 0.0138889
உ ඳු 0.0013889
ன் ඳු 0.0083333
பே ඳු 0.0013889
ம මෑ 0.0833333
மெ මෑ 0.4166667
மே මෑ 0.4583333
மா මෑ 0.0416667
நி රී 0.0017483
NULL රී 0.0192308
ரூ රී 0.0017483
ஹி රී 0.0017483
ளை රී 0.0104895
ரி රී 0.1293706
னி රී 0.0017483
ரா රී 0.0034965
ரீ රී 0.7132867
ல රී 0.0017483
சு රී 0.0017483
வீ රී 0.0017483
ர රී 0.0034965
றி රී 0.0524476
மை රී 0.0034965
தீ රී 0.0052448
றீ රී 0.0157343
ஷ் රී 0.0017483
தி රී 0.0104895
ல் රී 0.0017483
ர் රී 0.0087413
தா රී 0.0017483
யோ රී 0.0017483
ரு රී 0.0052448
தெ දෛ 0.3333333
... දෛ 0.3333333
ன் දෛ 0.3333333
லெ ළේ 0.0250000
' ළේ 0.0250000
லே ළේ 0.7250000
‍ ළේ 0.0250000
ல ළේ 0.0500000
ளே ළේ 0.0250000
லை ළේ 0.1250000
அ යේ 0.0119048
று යේ 0.0059524
சா යේ 0.0833333
யி යේ 0.0178571
ட் යේ 0.0059524
ஊ යේ 0.0059524
ண் යේ 0.0059524
நி යේ 0.0119048
ரு යේ 0.0654762
தி යේ 0.0119048
ம் යේ 0.0119048
யா යේ 0.0178571
வெ යේ 0.0059524
தூ යේ 0.0059524
உ යේ 0.0059524
பி යේ 0.0059524
ச் යේ 0.0059524
சே යේ 0.0059524
யே යේ 0.1250000
ய் යේ 0.0059524
ச යේ 0.1547619
NULL යේ 0.0654762
ணி යේ 0.0297619
தை යේ 0.0119048
ன் යේ 0.0476190
வொ යේ 0.0059524
ள் යේ 0.0059524
பொ යේ 0.0119048
க යේ 0.0416667
ங் යේ 0.0654762
சி යේ 0.0119048
ஒ යේ 0.0297619
ய යේ 0.0654762
கா යේ 0.0297619
போ පෝ 0.0296296
பொ පෝ 0.0074074
பொ පෝ 0.1629630
‍‍‍‍‍‍‎‍ පෝ 0.0148148
சொ පෝ 0.0074074
போ පෝ 0.7703704
பே පෝ 0.0074074
ணி කෙි 0.2500000
லி කෙි 0.2500000
கா කෙි 0.2500000
கொ කෙි 0.2500000
பூ හූ 0.0909091
ஊ හූ 0.2727273
ஹூ හූ 0.0909091
கூ හූ 0.0909091
ஹு හූ 0.3636364
கு හූ 0.0909091
தா ධ 0.0188679
ணு ධ 0.0053908
த ධ 0.8436658
ர் ධ 0.0026954
ர ධ 0.0026954
ப் ධ 0.0053908
த் ධ 0.0512129
றை ධ 0.0026954
யி ධ 0.0026954
லு ධ 0.0026954
ச் ධ 0.0026954
ரி ධ 0.0026954
தெ ධ 0.0026954
ட ධ 0.0404313
ரா ධ 0.0053908
NULL ධ 0.0080863
டீ ධී 0.0612245
தி ධී 0.0612245
யீ ධී 0.0204082
வெ ධී 0.0204082
வா் ධී 0.0204082
தீ ධී 0.2040816
டி ධී 0.0204082
மீ ධී 0.3061224
ஒ ධී 0.0204082
ன ධී 0.2653061
ர ධෘ 0.5000000
தா ධෘ 0.5000000
சீ. කො 0.0003075
ரி කො 0.0009225
லை කො 0.0009225
ஆ කො 0.0003075
நொ කො 0.0003075
டே කො 0.0012300
‎ කො 0.0049200
ச කො 0.0006150
க் කො 0.0006150
ஏ. කො 0.0003075
கி කො 0.0003075
க කො 0.0064576
வ் කො 0.0009225
லோ කො 0.0003075
கா කො 0.0003075
தொ කො 0.0018450
போ කො 0.0003075
னி. කො 0.0003075
யு කො 0.0006150
ரெ කො 0.0003075
ழி කො 0.0006150
கீ කො 0.0003075
கௌ කො 0.0003075
ண் කො 0.0015375
வ කො 0.0070726
கு කො 0.0135301
ழ் කො 0.0218327
கெொ කො 0.0003075
‍‎‍ කො 0.0012300
கே කො 0.0003075
கொ කො 0.5910209
உ කො 0.0003075
பி කො 0.0747232
மே කො 0.0021525
தோ කො 0.0043050
NULL කො 0.1522140
பெ කො 0.0003075
L කො 0.0003075
பு කො 0.0006150
ஸொ කො 0.0003075
டை කො 0.0003075
. කො 0.0006150
ம. කො 0.0003075
ஒ කො 0.0009225
லி කො 0.0006150
மா කො 0.0003075
கோ කො 0.0390529
ங் කො 0.0003075
ல. කො 0.0003075
.. කො 0.0003075
பீ. කො 0.0003075
‎‎ කො 0.0012300
சா කො 0.0003075
யி කො 0.0055351
ரோ කො 0.0003075
சி. කො 0.0003075
யை කො 0.0003075
ட் කො 0.0110701
நீ කො 0.0003075
ந் කො 0.0003075
வு කො 0.0003075
கெ කො 0.0012300
கொ කො 0.0289053
ல் කො 0.0003075
னொ කො 0.0003075
இ කො 0.0012300
ப කො 0.0012300
கோ කො 0.0033825
ஹொ කො 0.0003075
ப் කො 0.0009225
ம் කො 0.0015375
யா කො 0.0003075
டி කො 0.0006150
மு කො 0.0009225
சீ සි. 0.2500000
ர සි. 0.2500000
க සි. 0.2500000
ன். සි. 0.2500000
சை ෂ 0.0071429
ஷா ෂ 0.0142857
ப ෂ 0.0142857
ஸ் ෂ 0.0214286
செ ෂ 0.0071429
சி ෂ 0.0142857
ஷ ෂ 0.5142857
ஷு ෂ 0.0071429
டா ෂ 0.0142857
ரி ෂ 0.0071429
ச் ෂ 0.0142857
ஷே ෂ 0.0071429
ஸ ෂ 0.0928571
நி ෂ 0.0142857
லை ෂ 0.0071429
NULL ෂ 0.0071429
ஜ ෂ 0.0142857
ச ෂ 0.2142857
வு ෂ 0.0071429
டு ද් 0.0007524
டை ද් 0.0007524
தி ද් 0.0263356
ல் ද් 0.0030098
த ද් 0.0022573
வ் ද් 0.0007524
சொ ද් 0.0007524
தா ද් 0.0037622
ன் ද් 0.0037622
ர் ද් 0.0015049
ல ද් 0.0007524
த் ද් 0.8623025
து ද් 0.0007524
ஞ் ද් 0.0007524
ங் ද් 0.0030098
சோ ද් 0.0007524
யா ද් 0.0165538
லூ ද් 0.0007524
ரை ද් 0.0007524
னி. ද් 0.0030098
த்‎ ද් 0.0015049
ஹ ද් 0.0007524
ரோ ද් 0.0007524
ட் ද් 0.0105342
டூ ද් 0.0007524
L.. ද් 0.0015049
ந் ද් 0.0233258
க் ද් 0.0022573
NULL ද් 0.0255831
ல. නො. 0.4000000
இ නො. 0.6000000
ல ඨා 0.0833333
ஸ ඨා 0.0833333
கா ඨා 0.0833333
NULL ඨා 0.4166667
டா ඨා 0.0833333
கெ ඨා 0.0833333
தா ඨා 0.0833333
லே ඨා 0.0833333
ஷ ශ්‍ 0.0048077
NULL ශ්‍ 0.0024038
க் ශ්‍ 0.0072115
மை ශ්‍ 0.0048077
சு ශ්‍ 0.0024038
ஷி ශ්‍ 0.0024038
சி ශ්‍ 0.1033654
ரா ශ්‍ 0.0024038
ஸ் ශ්‍ 0.8413462
இ ශ්‍ 0.0072115
க ශ්‍ 0.0072115
சே ශ්‍ 0.0048077
ஷ் ශ්‍ 0.0048077
கி ශ්‍ 0.0024038
ஹி ශ්‍ 0.0024038
லை වා 0.0006575
ஸ වා 0.0013149
NULL වා 0.0105194
ரி වා 0.0006575
னி වා 0.0006575
ட වා 0.0269560
வி වා 0.0013149
பி වා 0.0006575
ல වා 0.0026298
சி වා 0.0006575
கா වා 0.0006575
மா වා 0.0348455
தொ වා 0.0026298
பெ වා 0.0006575
க වා 0.0019724
நா වා 0.0006575
ட் වා 0.0052597
வ වා 0.0558843
நீ වා 0.0052597
வே වා 0.0006575
ஜ වා 0.0006575
யி වා 0.0026298
வை වා 0.0019724
லு වා 0.0013149
சா වා 0.0006575
ரை වා 0.0019724
அ වා 0.0006575
ஹ වා 0.0013149
செ වා 0.0006575
சீ වා 0.0006575
வீ වා 0.0013149
வா වා 0.6719264
ப் වා 0.0026298
வெ වා 0.0151216
யா වා 0.0006575
ற் වා 0.0013149
டி වා 0.0019724
டு වා 0.0894149
ல் වා 0.0427350
தி වා 0.0013149
ற වා 0.0006575
ப වා 0.0006575
இ වා 0.0006575
ழ වා 0.0006575
பா වා 0.0019724
பா ඹා 0.3636364
பே ඹා 0.0545455
ப ඹා 0.1272727
ம் ඹා 0.4545455
ல் ලෛ 0.3333333
லை ලෛ 0.6666667
லி ු 1.0000000
னீ නී 0.1034483
ணீ නී 0.0172414
நீ නී 0.4482759
ணி නී 0.0172414
நி නී 0.0862069
ர නී 0.0172414
னி නී 0.3103448
ணு මී 0.0021882
கி මී 0.0043764
தி මී 0.0043764
வெ මී 0.0021882
ம මී 0.0021882
ம் මී 0.0350109
மீ මී 0.7439825
ஹை මී 0.0021882
மீ‎ මී 0.0043764
வீ මී 0.0021882
மா මී 0.0021882
னி මී 0.0043764
நீ මී 0.0503282
டே මී 0.0065646
மெ මී 0.0065646
பீ මී 0.0021882
NULL මී 0.0043764
கை මී 0.0021882
மே මී 0.0043764
நி මී 0.0021882
மி මී 0.1115974
பே ජෝ 0.0101010
NULL ජෝ 0.0101010
சோ ජෝ 0.0101010
க ජෝ 0.0101010
னி ජෝ 0.0101010
ஜோ ජෝ 0.9494949
தா දු 0.0004655
ஸ் දු 0.0046555
ர் දු 0.0004655
நு දු 0.0004655
ன் දු 0.0065177
பு දු 0.0325885
டோ දු 0.0032588
னு දු 0.0009311
தீ දු 0.0023277
ம දු 0.0009311
ய දු 0.0009311
து දු 0.7313780
ட දු 0.0027933
ரி දු 0.0013966
தெ දු 0.0004655
லூ දු 0.0037244
ச දු 0.0004655
NULL දු 0.0051210
லை දු 0.0013966
த දු 0.0097765
ப දු 0.0009311
இ දු 0.0009311
ரு දු 0.0009311
டு දු 0.0214153
தி දු 0.0097765
ல் දු 0.0009311
ற் දු 0.0069832
த்‍ දු 0.0004655
தூ දු 0.0400372
த் දු 0.0065177
கொ දු 0.0013966
ர දු 0.0023277
ரை දු 0.0018622
.. දු 0.0004655
சா දු 0.0004655
ந் දු 0.0926443
ரெ දු 0.0004655
வ දු 0.0004655
நி දු 0.0004655
ண் දු 0.0004655
ரு‍ රැ 0.0022371
ய රැ 0.0022371
வா රැ 0.0022371
ர රැ 0.2371365
றி රැ 0.0022371
றே රැ 0.0044743
ன் රැ 0.0044743
இ රැ 0.0111857
ற රැ 0.0067114
ரே රැ 0.0335570
ரு රැ 0.2147651
ரெ රැ 0.3914989
தை රැ 0.0022371
ட் රැ 0.0022371
L.. රැ 0.0022371
எ රැ 0.0044743
ழு රැ 0.0022371
யூ රැ 0.0022371
கு රැ 0.0044743
NULL රැ 0.0089485
ரூ රැ 0.0022371
ரி රැ 0.0111857
தெ රැ 0.0067114
பொ රැ 0.0044743
ரா රැ 0.0246085
று රැ 0.0067114
ரோ රැ 0.0022371
ஆ ආ 0.8025276
ஹா ආ 0.0015798
எ ආ 0.0078989
நீ ආ 0.0015798
கை ආ 0.0015798
NULL ආ 0.0110585
.. ආ 0.0078989
வை ආ 0.0015798
ரா ආ 0.0063191
அ ආ 0.0868878
ஏ ආ 0.0047393
ல ආ 0.0015798
ய ආ 0.0094787
Y ආ 0.0015798
வா ආ 0.0015798
மா ආ 0.0157978
வீ ආ 0.0015798
யா ආ 0.0142180
ம ආ 0.0031596
க ආ 0.0063191
. ආ 0.0047393
லா ආ 0.0047393
.... ආ 0.0015798
ஞா ච් 0.0076336
வ் ච් 0.0229008
ர் ච් 0.0076336
நா ච් 0.0076336
சி ච් 0.0076336
ர ච් 0.0076336
ஜெ ච් 0.0076336
ஞ் ච් 0.0076336
டி' ච් 0.0076336
ச் ච් 0.8244275
ளை ච් 0.0076336
ரை ච් 0.0076336
ரா ච් 0.0076336
' ච් 0.0076336
ட் ච් 0.0229008
ய் ච් 0.0229008
NULL ච් 0.0152672
ட் ටේ‍ 0.5000000
டே‎ ටේ‍ 0.5000000
லோ ලෝ 0.7591623
லொ ලෝ 0.0680628
ன் ලෝ 0.0052356
ர் ලෝ 0.0104712
க ලෝ 0.0052356
டி ලෝ 0.0104712
லெ ලෝ 0.0052356
வெ ලෝ 0.0052356
லொ ලෝ 0.0209424
கா ලෝ 0.0104712
ல ලෝ 0.0104712
ஹ ලෝ 0.0052356
லே ලෝ 0.0157068
லஓ ලෝ 0.0052356
ளோ ලෝ 0.0104712
லூ ලෝ 0.0052356
ஹே ලෝ 0.0052356
NULL ලෝ 0.0052356
லோ ලෝ 0.0261780
கீ ලෝ 0.0104712
சோ සෝ 0.6542056
சௌ සෝ 0.0186916
சு සෝ 0.0093458
கோ සෝ 0.0373832
சொ සෝ 0.0186916
ஸ் සෝ 0.0280374
யோ සෝ 0.0186916
ஸோ සෝ 0.0093458
ஸொ සෝ 0.0093458
NULL සෝ 0.0093458
ஸோ සෝ 0.1121495
மே සෝ 0.0093458
மி සෝ 0.0093458
ஷோ සෝ 0.0373832
ஹோ සෝ 0.0093458
சா සෝ 0.0093458
ஸ் ස්ෙ 1.0000000
செ ෂෝ 0.0769231
ஷோ ෂෝ 0.4615385
சோ ෂෝ 0.2307692
ஷெ ෂෝ 0.0769231
ஸோ ෂෝ 0.1538462
லொ ගෝ 0.0028818
‍‎‍ ගෝ 0.0028818
கொ ගෝ 0.0115274
க ගෝ 0.0028818
ஹோ ගෝ 0.0115274
NULL ගෝ 0.0028818
னே ගෝ 0.0028818
கே ගෝ 0.0028818
கோ ගෝ 0.8155620
கொ ගෝ 0.0951009
கோ ගෝ 0.0432277
ஹொ ගෝ 0.0028818
மோ ගෝ 0.0028818
ச் ශී 0.0714286
செ ශී 0.1428571
ஷி ශී 0.0714286
சி ශී 0.0714286
சீ ශී 0.2142857
எ ශී 0.0714286
ழு ශී 0.0714286
ச ශී 0.2857143
கே ඟේ 0.3636364
ஹே ඟේ 0.1363636
கெ ඟේ 0.0909091
ங் ඟේ 0.3636364
ந் ඟේ 0.0454545
தை .. 1.0000000
ரூ යා 0.0034086
யி යා 0.0008522
லு යා 0.0042608
சா යා 0.0012782
அ යා 0.0004261
யு යා 0.0012782
ட் යා 0.0038347
ரெ යා 0.0004261
வ යා 0.0055390
தி යා 0.0008522
ற යා 0.0004261
ப යා 0.0017043
பா යා 0.0093737
ப் යා 0.0004261
வீ යා 0.0004261
கே යා 0.0004261
யா යා 0.8291436
றூ යා 0.0017043
டா යා 0.0008522
லெ යා 0.0004261
ரி යා 0.0055390
ஞ යා 0.0012782
லூ යා 0.0051129
ட යා 0.0127823
ஹு යා 0.0004261
பி යා 0.0017043
லை යා 0.0034086
ஹா යා 0.0004261
ன යා 0.0008522
க் යා 0.0008522
மொ යා 0.0004261
ஸே යා 0.0004261
தோ යා 0.0017043
ய் යා 0.0012782
NULL යා 0.0161909
ஷா යා 0.0004261
டை යා 0.0008522
க යා 0.0051129
லா යා 0.0008522
ர் යා 0.0004261
ஸா යා 0.0004261
ன் යා 0.0008522
ய යා 0.0562420
ஷி යා 0.0004261
ளே යා 0.0004261
கா යා 0.0144866
‍ ල‍ 0.5000000
ல‍‍‍ ල‍ 0.5000000
பி ඔි 0.6666667
ம் ඔි 0.3333333
ரு රි 0.0075614
ற රි 0.0006301
ப රි 0.0018904
ல் රි 0.0047259
தி රි 0.0025205
டு රි 0.0006301
ழ் රි 0.0003151
றீ රි 0.0009452
டி රි 0.0003151
ர රි 0.0103970
ரிஓ රි 0.0003151
ப் රි 0.0006301
ரை රි 0.0003151
யி රි 0.0006301
ஹி රි 0.0006301
கை රි 0.0204789
வ රි 0.0012602
ட் රි 0.0006301
ரெ රි 0.0009452
லா රි 0.0006301
ன் රි 0.0075614
ர் රි 0.0063012
டை රි 0.0003151
ரி‎ රි 0.0009452
க රි 0.0081916
ஷ රි 0.0028355
றி රි 0.0806553
கா රි 0.0006301
லி රි 0.0022054
து රි 0.0015753
பி රි 0.0006301
ரீ රි 0.0393825
ரி රි 0.7816635
ணி රි 0.0003151
NULL රි 0.0059861
ச රි 0.0006301
ஸீ රි 0.0003151
ன රි 0.0006301
மோ රි 0.0003151
லை රි 0.0025205
மு දො 0.0015038
டா දො 0.0015038
தொ දො 0.8481203
ர දො 0.0015038
கொ දො 0.0015038
தோ දො 0.0015038
து දො 0.0090226
லி දො 0.0030075
பா දො 0.0015038
த දො 0.0030075
இ දො 0.0015038
நு දො 0.0015038
ப දො 0.0030075
ல் දො 0.0045113
க දො 0.0045113
தே දො 0.0015038
பு දො 0.0015038
டோ දො 0.0045113
கை දො 0.0015038
தொ දො 0.0526316
‎ දො 0.0030075
தோ දො 0.0330827
டொ දො 0.0090226
பே දො 0.0015038
வை දො 0.0030075
தெ දො 0.0015038
ட බී" 0.2500000
த බී" 0.2500000
ட் බී" 0.2500000
ஸெ බී" 0.2500000
இ යො 0.0312500
யோ යො 0.1875000
யோஓ යො 0.0312500
ளை යො 0.0312500
ஞ යො 0.0312500
ஙொ යො 0.0312500
ளி යො 0.0312500
யௌ යො 0.0937500
யொ යො 0.0625000
யொ යො 0.4375000
வ යො 0.0312500
ஸா ජු 0.0084746
பு ජු 0.0423729
யூ ජු 0.0084746
ஜு ජු 0.6186441
ஜீ ජු 0.0423729
ஜ ජු 0.0084746
சு ජු 0.0169492
வ ජු 0.0084746
ர ජු 0.0084746
ஜூ ජු 0.2372881
தே ද්ෙ 0.2500000
த் ද්ෙ 0.7500000
ஆ දෙ 0.0024631
தை දෙ 0.0008210
ன දෙ 0.0008210
எ දෙ 0.0004105
ழு දෙ 0.0008210
டே දෙ 0.0016420
NULL දෙ 0.0114943
தெ දෙ 0.7545156
ரி දෙ 0.0004105
னி දෙ 0.0004105
ட දෙ 0.0849754
பி දෙ 0.0004105
வி දෙ 0.0004105
ளே දෙ 0.0020525
ஒ දෙ 0.0008210
ல දෙ 0.0004105
ய දෙ 0.0004105
கோ දෙ 0.0004105
ங் දෙ 0.0008210
தொ දෙ 0.0036946
பெ දෙ 0.0004105
க දෙ 0.0008210
ரெ දෙ 0.0004105
வ දෙ 0.0028736
வு දෙ 0.0004105
ஹே දෙ 0.0004105
டெ දෙ 0.0041051
ம் දෙ 0.0036946
வெ දෙ 0.0012315
டி දෙ 0.0020525
தே දෙ 0.0829228
தி දෙ 0.0024631
இ දෙ 0.0090312
ப දෙ 0.0008210
த දෙ 0.0201149
NULL ය. 1.0000000
கொ වෛා 1.0000000
ன் පාෙ 0.5000000
வீ පාෙ 0.5000000
எ ඩී. 0.0588235
டி. ඩී. 0.2941176
பெ ඩී. 0.0588235
டீ. ඩී. 0.4117647
. ඩී. 0.1764706
பே පෑ 0.5272727
ப පෑ 0.0727273
அ පෑ 0.0181818
பெ පෑ 0.3818182
தெ ෙ 0.1153846
யி ෙ 0.1153846
சே ෙ 0.0384615
ட ෙ 0.0384615
வ ෙ 0.0384615
NULL ෙ 0.1923077
வே ෙ 0.0384615
ழ் ෙ 0.0384615
ரொ ෙ 0.0384615
பொ ෙ 0.0769231
தி ෙ 0.0769231
தே ෙ 0.0384615
இ ෙ 0.0384615
கொ ෙ 0.0384615
ஹெ ෙ 0.0384615
கோ ෙ 0.0384615
ர උ 0.0004325
வீ උ 0.0008651
பூ උ 0.0402249
சீ උ 0.0004325
மீ උ 0.0004325
ற උ 0.0004325
த උ 0.0008651
ப උ 0.0017301
இ උ 0.0012976
பா උ 0.0008651
வ උ 0.1072664
ஊ උ 0.0030277
வு උ 0.0168685
நீ උ 0.0043253
லு උ 0.0012976
அ උ 0.0008651
யு උ 0.0004325
ய උ 0.0004325
ல උ 0.0004325
சு උ 0.0004325
ஷி උ 0.0004325
கா උ 0.0021626
மா උ 0.0008651
கோ උ 0.0004325
ஹெ උ 0.0004325
மை උ 0.0004325
ங் උ 0.0004325
ம උ 0.0008651
ஸு උ 0.0004325
கி උ 0.0004325
பு උ 0.0012976
க උ 0.0034602
எ උ 0.0043253
மே උ 0.0233564
தோ උ 0.0021626
NULL උ 0.0298443
தெ උ 0.0004325
உ උ 0.7430796
ஹு උ 0.0004325
ட උ 0.0012976
பி උ 0.0004325
ப் ම 0.0002438
வீி ම 0.0001625
ர ම 0.0012188
டி ම 0.0004875
மீ ම 0.0000813
மு ම 0.0015438
ற் ම 0.0000813
ம் ම 0.0338832
தி ම 0.0034127
ல் ම 0.0003250
டு ම 0.0002438
இ ම 0.0014626
ப ම 0.0011376
ி ම 0.0000813
ட் ම 0.0001625
ஜ ම 0.0001625
கை ම 0.0384334
வு ම 0.0002438
பீ. ම 0.0000813
ரா ම 0.0214512
அ ම 0.0000813
மா ම 0.0095068
ஹெ ම 0.0000813
ஒ ම 0.0001625
ய ම 0.0019501
ல. ම 0.0001625
ள ම 0.0003250
ங் ම 0.0001625
மை ම 0.0071504
டை ම 0.0002438
பெ ම 0.0005688
பு ම 0.0002438
ல... ම 0.0000813
நா ම 0.0000813
ன ම 0.0005688
மே ම 0.0007313
NULL ම 0.0384334
தோ ම 0.0000813
ளை ම 0.0000813
தெ ම 0.0002438
'' ම 0.0000813
பி ම 0.0008938
உ ම 0.0001625
ட ම 0.0048753
வீ ම 0.0000813
பூ ම 0.0001625
கொ ම 0.0000813
யி் ම 0.0000813
ம‍ ම 0.0002438
வோ ම 0.0000813
ழ ම 0.0001625
ரு ම 0.0009751
த ම 0.0008125
ண் ම 0.0002438
ஊ ම 0.0000813
மி ම 0.0008125
வ ම 0.0032502
ழி ම 0.0000813
பீ ම 0.0001625
கு ම 0.0004875
ஓ ම 0.0000813
கை' ම 0.0000813
யா் ම 0.0002438
ஹ ම 0.0002438
பே ම 0.0002438
கா ම 0.0000813
து ම 0.0010563
ல ම 0.0013813
தொ ම 0.0044690
போ ම 0.0000813
மௌ ම 0.0008938
ம ම 0.7992200
க ම 0.0015438
கி ම 0.0004063
ன் ම 0.0039002
நு ම 0.0000813
ர் ම 0.0011376
மூ ම 0.0001625
எ ම 0.0000813
லை ම 0.0004063
ந ම 0.0002438
மெ ම 0.0034939
மொ ම 0.0000813
க் ම 0.0002438
ம௲ ම 0.0000813
ரி ම 0.0000813
வி ම 0.0001625
லே ම 0.0001625
லா ලැ 0.0303030
ரே ලැ 0.0033670
லே ලැ 0.1414141
ளெ ලැ 0.0033670
ளா ලැ 0.0067340
லொ ලැ 0.0033670
ள ලැ 0.0336700
NULL ලැ 0.0168350
லெ ලැ 0.5622896
டி ලැ 0.0033670
ட் ලැ 0.0033670
ல ලැ 0.1784512
ளே ලැ 0.0067340
லை ලැ 0.0033670
எ ලැ 0.0033670
ய යැ 0.3888889
செ යැ 0.0555556
யெ යැ 0.4444444
யே යැ 0.0555556
ஏ යැ 0.0555556
ரா රාෙ 1.0000000
NULL ස්. 0.0370370
டி ස්. 0.0740741
ச். ස්. 0.1111111
L.. ස්. 0.0370370
... ස්. 0.1111111
.... ස්. 0.0370370
ஸ் ස්. 0.1111111
. ස්. 0.0740741
ஸ். ස්. 0.1851852
.. ස්. 0.2222222
ரெ ටෘ 1.0000000
மை මූ 0.0113636
மு මූ 0.5227273
NULL මූ 0.0113636
ரூ මූ 0.0113636
மூ මූ 0.4204545
மி මූ 0.0227273
போ පො 0.0306653
ஹெ පො 0.0005198
மா පො 0.0010395
கோ පො 0.0005198
ய පො 0.0015593
னெ පො 0.0005198
சி පො 0.0010395
க පො 0.0015593
பொ පො 0.8367983
பெ පො 0.0036383
NULL පො 0.0072765
மொ පො 0.0010395
ணீ පො 0.0005198
‎ පො 0.0010395
ச පො 0.0041580
லை පො 0.0005198
பி පො 0.0005198
ளை පො 0.0005198
தெ පො 0.0020790
ம் පො 0.0005198
கொ පො 0.0020790
வா පො 0.0010395
ப் පො 0.0036383
பா පො 0.0046778
த පො 0.0036383
ப පො 0.0280665
கெ පො 0.0010395
கு පො 0.0020790
வ පො 0.0005198
நி පො 0.0109148
பே පො 0.0005198
ணை පො 0.0041580
பொ පො 0.0410603
ஹே පො 0.0005198
ஹை වෝ 0.0133333
ட் වෝ 0.0266667
வா වෝ 0.0400000
டொ වෝ 0.0133333
சோ වෝ 0.0133333
வு වෝ 0.0400000
வோ වෝ 0.7333333
கி වෝ 0.0133333
டோ වෝ 0.0133333
ர் වෝ 0.0266667
க்ஓ වෝ 0.0133333
வொ වෝ 0.0133333
லோ වෝ 0.0133333
வொ වෝ 0.0266667
பெ ඹෙ 0.3750000
ஹெ ඹෙ 0.1250000
ப ඹෙ 0.1250000
ம் ඹෙ 0.3750000
பா පෙ‍ 0.3333333
பி පෙ‍ 0.3333333
ர පෙ‍ 0.3333333
போ ඹො 0.1666667
ம் ඹො 0.5000000
பொ ඹො 0.3333333
கே ඛෙ 0.2000000
கெ ඛෙ 0.6000000
வே ඛෙ 0.2000000
ர் බෞ 0.0357143
இ බෞ 0.0357143
ள බෞ 0.2142857
பெ බෞ 0.2142857
ஞ බෞ 0.0357143
ளை බෞ 0.0357143
பௌ බෞ 0.4285714
ஹி ගි 0.0256849
ச் ගි 0.0017123
னி ගි 0.0017123
ரா ගි 0.0017123
ஹு ගි 0.0034247
வி ගි 0.0017123
கீ ගි 0.0051370
கு ගි 0.0085616
ணி ගි 0.0017123
NULL ගි 0.0085616
கெ ගි 0.0051370
கி ගි 0.9006849
தி ගි 0.0017123
க ගි 0.0068493
சி ගි 0.0017123
மா ගි 0.0017123
ஜி ගි 0.0102740
கிஓ ගි 0.0017123
ம் ගි 0.0034247
ங் ගි 0.0051370
டா ගි 0.0017123
பா ඛා 0.0476190
ஹ ඛා 0.0476190
க் ඛා 0.1904762
வா ඛා 0.0476190
கா ඛා 0.5714286
ளை ඛා 0.0952381
ஸீ කු. 0.1111111
சி කු. 0.2222222
ரா කු. 0.2222222
கு කු. 0.4444444
ன் ඳී 0.1176471
ந் ඳී 0.3529412
தீ ඳී 0.0588235
தி ඳී 0.4705882
ல் ළි 0.0111524
யெ ළි 0.0037175
டு ළි 0.0037175
கி ළි 0.0111524
தா ළි 0.0074349
ல ළි 0.0037175
ண ළි 0.0148699
லி ළි 0.7695167
லெ ළි 0.0037175
ளி ළි 0.1412639
யி ළි 0.0037175
ரி ළි 0.0037175
லிஓ ළි 0.0037175
லே ළි 0.0037175
ழி ළි 0.0037175
NULL ළි 0.0074349
வௌி ළි 0.0037175
கோ ගො 0.1250000
கொ ගො 0.8750000
நி ධ්‍ 0.0309278
கா ධ්‍ 0.0103093
தி ධ්‍ 0.4432990
ல் ධ්‍ 0.0206186
த் ධ්‍ 0.4432990
டி ධ්‍ 0.0206186
NULL ධ්‍ 0.0309278
க் කෙ 0.0026178
கு කෙ 0.0026178
ய் කෙ 0.0052356
மெ කෙ 0.0052356
கெ කෙ 0.7905759
NULL කෙ 0.0104712
கை කෙ 0.0104712
எ කෙ 0.0026178
அ කෙ 0.0026178
பி කෙ 0.0209424
நெ කෙ 0.0104712
யி කෙ 0.0130890
ஸி කෙ 0.0026178
த் කෙ 0.0026178
கொ කෙ 0.0157068
கே කෙ 0.0759162
கி කෙ 0.0026178
ல் කෙ 0.0026178
க කෙ 0.0209424
க හැ 0.0170778
த හැ 0.0018975
த் හැ 0.0018975
‍‎‎‍‍‍ හැ 0.0018975
ஹெ හැ 0.6110057
கே හැ 0.0037951
ளி හැ 0.0018975
மை හැ 0.0018975
ஹி හැ 0.0056926
ஹே හැ 0.0455408
ஹு හැ 0.0037951
அ හැ 0.0018975
ஹ හැ 0.1688805
ஏ හැ 0.0037951
ட் හැ 0.0018975
ஹா හැ 0.0132827
எ හැ 0.0189753
ட‍‍ හැ 0.0018975
கெ‎ හැ 0.0018975
NULL හැ 0.0075901
கெ හැ 0.0834915
ஷ ජ 0.0002731
ம ජ 0.0021852
ஒ ජ 0.0002731
ய ජ 0.0019120
ன் ජ 0.0002731
ஸ் ජ 0.0005463
க ජ 0.0010926
கி ජ 0.0016389
பு ජ 0.0030046
ஜா ජ 0.0057361
ஜ் ජ 0.0002731
NULL ජ 0.0297733
ந ජ 0.0002731
ஜே ජ 0.0019120
ணீ ජ 0.0002731
தோ ජ 0.0013657
ச ජ 0.0049167
ஸ ජ 0.0008194
வி ජ 0.0002731
யே ජ 0.0467085
ஞ ජ 0.0005463
ஐ ජ 0.0005463
ரி ජ 0.0002731
டி ජ 0.1925703
ம் ජ 0.0002731
ற் ජ 0.0008194
ப் ජ 0.0062824
ஜி ජ 0.0008194
ர ජ 0.0002731
கொ ජ 0.0366020
ஜெ ජ 0.0169353
த் ජ 0.0002731
௦ ජ 0.0002731
ப ජ 0.0002731
த ජ 0.0005463
ற ජ 0.0013657
ஷ் ජ 0.0002731
சை ජ 0.0002731
கொ ජ 0.0008194
ளு ජ 0.0002731
ஜ ජ 0.2772467
ந் ජ 0.0002731
நீ ජ 0.0030046
கு ජ 0.1933898
வ ජ 0.0013657
ஹ ජ 0.0002731
அ ජ 0.0142038
சா ජ 0.0013657
யி ජ 0.1450423
பு පුු 1.0000000
ன் ඩූ 0.2500000
யி ඩූ 0.2500000
டு ඩූ 0.2500000
ஒ ඩූ 0.2500000
தோ දෝ 0.5357143
ள දෝ 0.0178571
தொ දෝ 0.2142857
டோ දෝ 0.0178571
தூ දෝ 0.1250000
தோ දෝ 0.0714286
து දෝ 0.0178571
தொ ඩෝ 0.0312500
ர் ඩෝ 0.0312500
டொ ඩෝ 0.0625000
தோ ඩෝ 0.0625000
டோ ඩෝ 0.8125000
பே බෙී 1.0000000
சை ත්‍ 0.0086207
தி ත්‍ 0.4137931
ர் ත්‍ 0.0172414
ன் ත්‍ 0.0086207
த ත්‍ 0.0086207
த் ත්‍ 0.4568966
லை ත්‍ 0.0086207
ட் ත්‍ 0.0086207
ர். ත්‍ 0.0086207
ந் ත්‍ 0.0517241
NULL ත්‍ 0.0086207
நோ නො 0.1692308
நு නො 0.0153846
னொ නො 0.2461538
ளா නො 0.0153846
னொ නො 0.0153846
னோ නො 0.1230769
னா නො 0.0153846
NULL නො 0.0461538
போ නො 0.0153846
தொ නො 0.0153846
ல. නො 0.0153846
நொ නො 0.3076923
ரு ක 0.0002547
த ක 0.0030569
கொ ක 0.0010190
வீ ක 0.0001274
கே ක 0.0011464
ண ක 0.0005095
ஹ ක 0.0008916
கூ ක 0.0001274
னி. ක 0.0005095
ஹே ක 0.0002547
ஹி ක 0.0002547
நெ ක 0.0001274
கு ක 0.0029296
நி ක 0.0001274
மி ක 0.0002547
கௌ ක 0.0006369
வ ක 0.0017832
நு ක 0.0001274
ன் ක 0.0003821
ர் ක 0.0030569
பொ ක 0.0001274
க ක 0.8598905
கி ක 0.0007642
போ ක 0.0001274
தொ ක 0.0025474
ம ක 0.0036938
னீ ක 0.0001274
மௌ ක 0.0001274
கா ක 0.0075150
ல ක 0.0052223
து ක 0.0012737
வி ක 0.0002547
ச் ක 0.0002547
க் ක 0.0565533
ச ක 0.0001274
ந ක 0.0001274
எ ක 0.0003821
ஆ ක 0.0003821
லை ක 0.0001274
பா ක 0.0002547
இ ක 0.0007642
ப ක 0.0012737
கொ ක 0.0001274
மு ක 0.0020380
யா ක 0.0015285
னா ක 0.0001274
ம் ක 0.0021653
ர ක 0.0015285
அ ක 0.0001274
கெ ක 0.0029296
கை ක 0.0029296
வு ක 0.0005095
ஜூ ක 0.0001274
ட் ක 0.0034391
நா ක 0.0001274
ரொ ක 0.0002547
கஓ ක 0.0002547
பெ ක 0.0003821
ல. ක 0.0015285
மை ක 0.0003821
மா ක 0.0006369
கோ ක 0.0011464
ய ක 0.0063686
சி ක 0.0002547
ட ක 0.0002547
னி ක 0.0005095
தெ ක 0.0001274
NULL ක 0.0082792
ய் ක 0.0001274
மே ක 0.0008916
ன ක 0.0006369
தை ක 0.0007642
.. ර්. 0.2500000
Y ර්. 0.0625000
ர். ර්. 0.3125000
ர் ර්. 0.0625000
. ර්. 0.1875000
.... ර්. 0.0625000
கை ර්. 0.0625000
தீ ඨි 0.5000000
ர் ඨි 0.5000000
வு යි 0.0019194
ஸை යි 0.0153551
கை යි 0.0383877
யை යි 0.0019194
ணை යි 0.0019194
ரை යි 0.0211132
ஹ යි 0.0019194
னை යි 0.0134357
பே යි 0.0019194
.. යි 0.0019194
யி යි 0.2859885
ஜோ යි 0.0019194
டா යි 0.0019194
த் යි 0.0019194
சீ යි 0.0019194
ர යි 0.0038388
தே යි 0.0038388
ல் යි 0.0038388
சை යි 0.0383877
ய் යි 0.2552783
க் යි 0.0057582
ஜ் යි 0.0019194
NULL යි 0.0537428
லை යි 0.0383877
தை යි 0.0057582
ளை යි 0.0019194
ஐ යි 0.0345489
மை යි 0.0460653
றை යි 0.0172745
சி යි 0.0095969
லி යි 0.0019194
ஹை යි 0.0153551
ய යි 0.0115163
ஞ் යි 0.0019194
றி යි 0.0019194
ஸ் යි 0.0019194
நை යි 0.0153551
பை යි 0.0095969
கி යි 0.0038388
டை යි 0.0230326
டூா் දූ 0.0040000
னா දූ 0.0040000
கு දූ 0.0040000
தீ දූ 0.0200000
டூ දූ 0.0040000
ஒ දූ 0.0040000
து දූ 0.5720000
தூ දූ 0.3200000
ல දූ 0.0040000
கொ දූ 0.0080000
த දූ 0.0160000
பெ දූ 0.0040000
பு දූ 0.0040000
டு දූ 0.0320000
லெ ළ් 0.2500000
ல் ළ් 0.7500000
ழு දා 0.0123239
வு දා 0.0017606
ந் දා 0.0140845
NULL දා 0.0070423
ண் දා 0.0017606
ட දා 0.0246479
ரா දා 0.0070423
தெ දා 0.0017606
ச் දා 0.0123239
ற் දා 0.0017606
ம் දා 0.0017606
ம දා 0.0017606
ளி දා 0.0017606
யா දා 0.0052817
தொ දා 0.0035211
டா දා 0.0088028
போ දා 0.0017606
து දා 0.0017606
ய දා 0.0017606
வா දා 0.0035211
த දා 0.0933099
ணு දා 0.0052817
தா දා 0.7570423
ரு දා 0.0017606
ள் දා 0.0105634
டு දා 0.0035211
தே දා 0.0052817
டை දා 0.0052817
தி දා 0.0017606
னை ණේ 0.1333333
ணே ණේ 0.3333333
ணோ ණේ 0.0222222
னே ණේ 0.3555556
NULL ණේ 0.0222222
நே ණේ 0.0666667
ண ණේ 0.0222222
ன ණේ 0.0444444
ம் ඔූ 0.5000000
பு ඔූ 0.5000000
லூ ලූ 0.3333333
லு ලූ 0.2777778
ளு ලූ 0.1666667
ளூ ලූ 0.1111111
ழு ලූ 0.1111111
து තු‍ 1.0000000
ட் ටෑ 0.1363636
வா ටෑ 0.0454545
கௌ ටෑ 0.0454545
கா ටෑ 0.0454545
டே ටෑ 0.5000000
வெ ටෑ 0.0454545
வு ටෑ 0.0454545
டி ටෑ 0.0454545
டா ටෑ 0.0454545
டெ ටෑ 0.0454545
த දැ 0.0884354
தா දැ 0.0136054
ட දැ 0.0136054
தெ දැ 0.8163265
டெ දැ 0.0136054
தே දැ 0.0340136
வெ දැ 0.0068027
‎ දැ 0.0068027
NULL දැ 0.0068027
எ හෑ 0.0833333
ஹா හෑ 0.0555556
ஹீ හෑ 0.0277778
ஹெ හෑ 0.3333333
கே හෑ 0.0555556
ஹே හෑ 0.3888889
கெ හෑ 0.0555556
தி ථී 1.0000000
.. ජී. 0.5000000
ஜீ. ජී. 0.5000000
ப் ප්‍ 0.1222222
மு ප්‍ 0.0055556
NULL ප්‍ 0.0055556
ஜ ප්‍ 0.0055556
ச ප්‍ 0.0555556
மெ ප්‍ 0.0055556
பொ ප්‍ 0.0055556
ச் ප්‍ 0.0055556
பு ප්‍ 0.0166667
பெ ප්‍ 0.0277778
பி ප්‍ 0.6666667
இ ප්‍ 0.0055556
ப ප්‍ 0.0722222
ம் ණු 0.0079893
ற் ණු 0.0865513
னா ණු 0.0013316
மை ණු 0.0199734
ஒ ණු 0.0013316
து ණු 0.0173103
ல ණු 0.0039947
னெ ණු 0.0013316
ண ණු 0.0106525
நு ණු 0.0013316
ன் ණු 0.0026631
ணூ ණු 0.0013316
ணு ණු 0.2942743
ணா ණු 0.0013316
பெ ණු 0.0013316
னு ණු 0.3821571
ள் ණු 0.0013316
பு ණු 0.0013316
ல் ණු 0.0213049
டை ණු 0.0079893
ய் ණු 0.0013316
கு ණු 0.0053262
NULL ණු 0.0466045
லை ණු 0.0013316
ட் ණු 0.0519308
ன ණු 0.0199734
ஸ ණු 0.0013316
ரை ණු 0.0013316
பி ණු 0.0013316
தெ ණු 0.0013316
வை ණු 0.0013316
பி තුි 0.5000000
து තුි 0.5000000
ஆ අි 1.0000000
கூ කි 0.0008292
ஹ කි 0.0008292
ரா කි 0.0008292
னி කි 0.0033167
ஹி කි 0.0024876
NULL කි 0.0058043
கெ කි 0.0033167
கு කි 0.0024876
நி කි 0.0008292
வ කි 0.0008292
கீ කි 0.0132670
பா කි 0.0008292
த කි 0.0008292
தி කි 0.0099502
க කි 0.0049751
கி කි 0.9444444
னு කි 0.0008292
ண කි 0.0008292
ஸி කි 0.0008292
சி කි 0.0008292
ஒ කි 0.0008292
ற் බෙ 0.0030675
ம බෙ 0.0061350
வெ බෙ 0.0521472
லெ බෙ 0.0030675
ப බෙ 0.0153374
த බෙ 0.0030675
பை බෙ 0.0030675
பெ බෙ 0.8098160
பொ බෙ 0.0030675
க බෙ 0.0061350
‎ බෙ 0.0061350
வே බෙ 0.0092025
NULL බෙ 0.0061350
ண் බෙ 0.0030675
அ බෙ 0.0030675
பே බෙ 0.0582822
ஹே බෙ 0.0030675
சா බෙ 0.0030675
பொ බෙ 0.0030675
டொ ඩො 0.7500000
த ඩො 0.0277778
தொ ඩො 0.0277778
து ඩො 0.0277778
டு ඩො 0.0555556
டோ ඩො 0.0833333
டெ ඩො 0.0277778
டி. ටී. 0.3333333
ர். ටී. 0.1666667
டீ. ටී. 0.1666667
டி ටී. 0.1666667
ரீ. ටී. 0.1666667
‍‍ බැ 0.0017953
வே බැ 0.0035907
NULL බැ 0.0089767
வ බැ 0.0269300
அ බැ 0.0017953
பே බැ 0.0430880
பி බැ 0.0017953
தெ බැ 0.0017953
ம் බැ 0.0017953
வெ බැ 0.0305206
ர බැ 0.0017953
ப බැ 0.0951526
இ බැ 0.0017953
பா බැ 0.0143627
பெ බැ 0.7612208
பெ‍ බැ 0.0035907
ண் ණ්‍ 0.7142857
ன் ණ්‍ 0.1428571
ம ණ්‍ 0.1428571
வெ වො 0.0476190
வொ වො 0.0476190
வொ වො 0.4761905
வோ වො 0.4285714
போ බෝ 1.0000000
வி ව් 0.1081633
உ ව් 0.0040816
ச் ව් 0.0061224
ஞ ව් 0.0061224
NULL ව් 0.0061224
ந ව් 0.0020408
ஹா ව් 0.0020408
தை ව් 0.0081633
நே ව් 0.0061224
வ் ව් 0.5122449
க ව් 0.0040816
ள் ව් 0.0020408
ள ව් 0.0040816
சௌ ව් 0.0040816
மௌ ව් 0.0061224
சி ව් 0.0020408
து ව් 0.0081633
யு ව් 0.0224490
வை ව් 0.0040816
வு ව් 0.0877551
யூ ව් 0.0102041
கௌ ව් 0.0061224
வ ව් 0.0816327
ட் ව් 0.0061224
ரௌ ව් 0.0020408
பா ව් 0.0061224
த ව් 0.0020408
ல் ව් 0.0020408
தி ව් 0.0224490
ளு ව් 0.0020408
வோ ව් 0.0020408
டி ව් 0.0020408
வெ ව් 0.0204082
ம் ව් 0.0081633
பௌ ව් 0.0020408
வா ව් 0.0040816
வீ ව් 0.0142857
கொ ගෙි 1.0000000
ஸ் ශී‍්‍ 0.5000000
ரீ ශී‍්‍ 0.5000000
கை සී 0.0063291
NULL සී 0.0569620
டே සී 0.0063291
கு සී 0.0126582
சீ සී 0.6265823
நி සී 0.0063291
ஸீ සී 0.0696203
சி සී 0.1645570
ஸி සී 0.0126582
ஸெ සී 0.0126582
த. සී 0.0063291
சீ' සී 0.0063291
.. සී 0.0063291
L සී 0.0063291
ய் යී 1.0000000
வி කෘ 0.4285714
கு කෘ 0.4285714
ரூ කෘ 0.1428571
... න්. 0.2000000
ன் න්. 0.2000000
..L. න්. 0.2000000
ன். න්. 0.4000000
த ටා 0.0094937
தா ටා 0.0158228
ர் ටා 0.0031646
மா ටා 0.0031646
னா ටා 0.0031646
ங் ටා 0.0031646
ற் ටා 0.0094937
டா ටා 0.6012658
ள ටා 0.0031646
ட ටා 0.0569620
ரா ටා 0.0094937
ட் ටා 0.2500000
லை ටා 0.0031646
வு ටා 0.0063291
ந் ටා 0.0126582
றா ටා 0.0031646
ழு ටා 0.0031646
ந ටා 0.0031646
ஊ උා 1.0000000
ஜி ඡි 1.0000000
ஹ ඥ් 0.2000000
க் ඥ් 0.2000000
ஞ் ඥ් 0.4000000
க ඥ් 0.2000000
ற் භ්‍ 0.3333333
சி භ්‍ 0.3333333
யி භ්‍ 0.3333333
ஜெ ජ්‍ 1.0000000
வெ නේ 0.0045767
னா නේ 0.0068650
னே නේ 0.6315789
ஹெ නේ 0.0022883
ல නේ 0.0022883
ண නේ 0.0068650
னெ නේ 0.0389016
ணே‎ නේ 0.0022883
ன் නේ 0.0228833
சை නේ 0.0045767
தே නේ 0.0091533
ணெ නේ 0.0022883
கெ නේ 0.0022883
ணி නේ 0.0022883
NULL නේ 0.0045767
நி නේ 0.0022883
ன නේ 0.0434783
நே නේ 0.0617849
னை නේ 0.0709382
லே නේ 0.0045767
ணை නේ 0.0068650
னி නේ 0.0045767
ணே නේ 0.0594966
நெ නේ 0.0022883
டி ටිෙ 0.5000000
ட் ටිෙ 0.5000000
பே ඔෑ 0.2500000
ம் ඔෑ 0.5000000
பெ ඔෑ 0.2500000
தே මැ 0.0016736
பு මැ 0.0016736
ன் මැ 0.0025105
ம. මැ 0.0008368
த මැ 0.0008368
ஹெ මැ 0.0008368
